################################################################################
# Neural network connection values (weights and biases).
################################################################################
# Col  Name       Description
################################################################################
# 1    connection Neural network connection value.
# 2    t          Connection type (a = weight, b = bias).
# 3    index      Index enumerating weights.
# 4    l_s        Starting point layer (end point layer for biases).
# 5    n_s        Starting point neuron in starting layer (end point neuron for biases).
# 6    l_e        End point layer.
# 7    n_e        End point neuron in end layer.
################################################################################
#                      1 2         3     4     5     6     7
#             connection t     index   l_s   n_s   l_e   n_e
############################################################
 -4.2705002660791448E-02 a         1     0     1     1     1
  7.4397545455416061E-02 a         2     0     1     1     2
  1.7193439513848102E-01 a         3     0     1     1     3
 -3.4175610206238585E-03 a         4     0     1     1     4
 -6.5815176949256871E-02 a         5     0     1     1     5
  3.3999659457814586E-02 a         6     0     1     1     6
  1.0467853707594259E-01 a         7     0     1     1     7
  1.9716465313199889E-02 a         8     0     1     1     8
  6.9279812910592445E-02 a         9     0     1     1     9
  3.0328423593551168E-01 a        10     0     1     1    10
  8.0972110306526499E-02 a        11     0     1     1    11
  2.0553388539656081E-01 a        12     0     1     1    12
 -1.1386228408955201E-01 a        13     0     1     1    13
  4.9521473653530393E-02 a        14     0     1     1    14
  3.1006302725431305E-02 a        15     0     1     1    15
 -3.1110820989962520E-03 a        16     0     1     1    16
 -5.1548897895995191E-02 a        17     0     1     1    17
 -1.6493355849161040E-01 a        18     0     1     1    18
  4.7221891449150857E-02 a        19     0     1     1    19
 -5.7026800386341600E-02 a        20     0     1     1    20
 -8.0252646199047761E-02 a        21     0     2     1     1
  9.3476191870584355E-02 a        22     0     2     1     2
  9.3943123991342831E-02 a        23     0     2     1     3
  1.8168040880048369E-01 a        24     0     2     1     4
 -2.5891871637542652E-01 a        25     0     2     1     5
 -1.0317123431398589E-01 a        26     0     2     1     6
 -2.0303693698653485E-01 a        27     0     2     1     7
  2.5275604444555988E-01 a        28     0     2     1     8
  2.9679178542549537E-02 a        29     0     2     1     9
  1.0433387687030660E-01 a        30     0     2     1    10
  2.9268730603499171E-01 a        31     0     2     1    11
 -1.9672444708191889E-01 a        32     0     2     1    12
 -1.0681318952991068E+00 a        33     0     2     1    13
 -1.7308761917277984E-01 a        34     0     2     1    14
  1.7840505491636896E-01 a        35     0     2     1    15
  3.0036155771913379E-02 a        36     0     2     1    16
  3.8482383840955242E-01 a        37     0     2     1    17
 -2.5210777111634725E-01 a        38     0     2     1    18
 -6.0958971184623933E-01 a        39     0     2     1    19
  3.4172143062503402E-03 a        40     0     2     1    20
 -9.2660279228954479E-02 a        41     0     3     1     1
 -7.4817404016778541E-02 a        42     0     3     1     2
 -1.6222352694882067E-01 a        43     0     3     1     3
  3.9385800214788096E-02 a        44     0     3     1     4
 -5.6844760464202330E-02 a        45     0     3     1     5
  2.6039857517860832E-01 a        46     0     3     1     6
  3.4534042731652344E-02 a        47     0     3     1     7
  1.4225863200366598E-01 a        48     0     3     1     8
 -1.8143715436180419E-01 a        49     0     3     1     9
  4.0798995530984469E-02 a        50     0     3     1    10
  1.9688571649440251E-01 a        51     0     3     1    11
 -4.3882857325509055E-02 a        52     0     3     1    12
 -4.0654483643920609E-02 a        53     0     3     1    13
  3.8327910230308321E-02 a        54     0     3     1    14
 -5.0171358991599321E-03 a        55     0     3     1    15
  7.2054808227868514E-02 a        56     0     3     1    16
  1.1060776918446975E-01 a        57     0     3     1    17
 -4.5988659703829732E-02 a        58     0     3     1    18
 -6.9820940740113649E-02 a        59     0     3     1    19
 -1.7022926534458283E-01 a        60     0     3     1    20
  1.2500928888146018E-01 a        61     0     4     1     1
 -2.3408475450339243E-02 a        62     0     4     1     2
 -4.5647634508346024E-02 a        63     0     4     1     3
 -2.9904548983290314E-03 a        64     0     4     1     4
 -3.9857846730643590E-02 a        65     0     4     1     5
 -1.5112395102443685E-01 a        66     0     4     1     6
 -3.8511133519309640E-02 a        67     0     4     1     7
 -3.2810544084011542E-04 a        68     0     4     1     8
  2.3713231814571500E-01 a        69     0     4     1     9
  1.2135919153183095E-01 a        70     0     4     1    10
  1.4835148078421953E-01 a        71     0     4     1    11
 -1.1720217578633689E-01 a        72     0     4     1    12
  1.0441310808623540E-01 a        73     0     4     1    13
  1.7961430112511442E-01 a        74     0     4     1    14
  4.3796840110752563E-02 a        75     0     4     1    15
  2.0026532394953717E-01 a        76     0     4     1    16
  9.4207389304705347E-02 a        77     0     4     1    17
  5.8764945566447575E-02 a        78     0     4     1    18
 -3.6937758926769503E-02 a        79     0     4     1    19
 -1.1295765675590287E-01 a        80     0     4     1    20
 -9.4335350436042215E-02 a        81     0     5     1     1
  2.3691808201668281E-02 a        82     0     5     1     2
 -1.0080586311540758E-01 a        83     0     5     1     3
  1.9248437693894418E-01 a        84     0     5     1     4
 -1.0924617322485751E-01 a        85     0     5     1     5
 -2.5311115791552732E-03 a        86     0     5     1     6
 -1.4564599785045493E-01 a        87     0     5     1     7
 -4.0956187949267638E-03 a        88     0     5     1     8
  9.3759417596654598E-02 a        89     0     5     1     9
 -2.0480908923089250E-01 a        90     0     5     1    10
 -7.2415684346527315E-02 a        91     0     5     1    11
 -2.6630283172262026E-01 a        92     0     5     1    12
 -1.4532043614283452E-01 a        93     0     5     1    13
  9.8359077799729105E-02 a        94     0     5     1    14
 -2.2270197397390442E-02 a        95     0     5     1    15
  1.2381775884010235E-01 a        96     0     5     1    16
  6.7970173985697935E-02 a        97     0     5     1    17
 -3.0371485634753764E-02 a        98     0     5     1    18
  4.5103554618134561E-02 a        99     0     5     1    19
  1.8043915432603000E-01 a       100     0     5     1    20
  6.0983546075286027E-02 a       101     0     6     1     1
  4.0453893483190208E-02 a       102     0     6     1     2
 -9.3411547618673374E-02 a       103     0     6     1     3
 -2.7467233965863236E-01 a       104     0     6     1     4
  1.0421405747736696E-01 a       105     0     6     1     5
  2.3461540183443216E-01 a       106     0     6     1     6
  3.2043033087383899E-01 a       107     0     6     1     7
  2.1512856667497679E-01 a       108     0     6     1     8
 -3.7149291757532305E-01 a       109     0     6     1     9
  1.7314468639468922E-01 a       110     0     6     1    10
 -5.2433765977488123E-01 a       111     0     6     1    11
 -6.1357082288595732E-01 a       112     0     6     1    12
  2.2668803986320804E-01 a       113     0     6     1    13
  1.0290869098699207E-01 a       114     0     6     1    14
 -3.0088909898305893E-01 a       115     0     6     1    15
 -2.1395154907031363E-01 a       116     0     6     1    16
 -5.0684707101682314E-01 a       117     0     6     1    17
  4.0704862947258683E-02 a       118     0     6     1    18
  4.3786723621668400E-01 a       119     0     6     1    19
 -4.4562085350050150E-02 a       120     0     6     1    20
  4.0035163070764784E-01 a       121     0     7     1     1
 -2.5639320254320480E-01 a       122     0     7     1     2
  7.3260403328752000E-02 a       123     0     7     1     3
 -2.7910307635802079E-01 a       124     0     7     1     4
 -8.4881865764615511E-02 a       125     0     7     1     5
  3.1645466760271029E-01 a       126     0     7     1     6
 -5.9745683277951545E-02 a       127     0     7     1     7
 -3.0191170967201728E-02 a       128     0     7     1     8
 -3.3409476039600192E-02 a       129     0     7     1     9
 -3.1209296130497055E-02 a       130     0     7     1    10
 -2.8408931040483326E-01 a       131     0     7     1    11
  1.3009966186206762E-01 a       132     0     7     1    12
 -1.0109122844570678E-01 a       133     0     7     1    13
  2.7507404749741771E-01 a       134     0     7     1    14
  2.0232986264202690E-01 a       135     0     7     1    15
  8.5734553374784625E-03 a       136     0     7     1    16
 -1.5941533381632692E-01 a       137     0     7     1    17
  9.2351289675205353E-02 a       138     0     7     1    18
  2.7614893044309935E-01 a       139     0     7     1    19
 -2.7331716400129408E-01 a       140     0     7     1    20
  1.5018298395839398E-03 a       141     0     8     1     1
 -9.8020652312294621E-02 a       142     0     8     1     2
 -2.8844431195397278E-02 a       143     0     8     1     3
 -9.4766725689225603E-02 a       144     0     8     1     4
  2.4288804230671639E-02 a       145     0     8     1     5
  2.9580523020812333E-01 a       146     0     8     1     6
  1.0069177573191189E-01 a       147     0     8     1     7
  8.0550860676880859E-02 a       148     0     8     1     8
 -7.4734179076600904E-02 a       149     0     8     1     9
 -1.0569340363853791E-01 a       150     0     8     1    10
 -1.1640820131931826E-01 a       151     0     8     1    11
  5.3423450566673601E-03 a       152     0     8     1    12
  8.3459184245323240E-02 a       153     0     8     1    13
  5.3908712956750038E-03 a       154     0     8     1    14
 -2.5968542543548945E-01 a       155     0     8     1    15
 -2.4788536014306087E-01 a       156     0     8     1    16
 -1.9129542910554989E-01 a       157     0     8     1    17
 -1.0380958316291292E-01 a       158     0     8     1    18
 -1.0128896263469506E-01 a       159     0     8     1    19
  1.5571782787302185E-01 a       160     0     8     1    20
  1.2269954963008203E-01 a       161     0     9     1     1
 -1.9439679636451243E-01 a       162     0     9     1     2
 -3.3099711777028730E-02 a       163     0     9     1     3
 -5.5153230034154371E-03 a       164     0     9     1     4
  1.5752246335248080E-01 a       165     0     9     1     5
  8.2398902177889172E-02 a       166     0     9     1     6
  1.4614718198344881E-01 a       167     0     9     1     7
 -1.6068374116424761E-01 a       168     0     9     1     8
  4.0670194762853065E-02 a       169     0     9     1     9
  2.6821091689257032E-01 a       170     0     9     1    10
  2.0968875498575476E-01 a       171     0     9     1    11
 -7.7408056112324430E-03 a       172     0     9     1    12
 -2.1989710617330693E-01 a       173     0     9     1    13
  1.5917977820053808E-01 a       174     0     9     1    14
  2.3847545496677355E-01 a       175     0     9     1    15
  8.7251366152848897E-02 a       176     0     9     1    16
  9.1420153978867255E-02 a       177     0     9     1    17
 -8.1174993345870528E-03 a       178     0     9     1    18
 -1.7764640826573050E-01 a       179     0     9     1    19
 -1.6260345140449769E-02 a       180     0     9     1    20
 -7.9537631531904476E-02 a       181     0    10     1     1
 -7.7406942124406256E-02 a       182     0    10     1     2
  1.2053171159609327E-01 a       183     0    10     1     3
 -2.0020744378456090E-01 a       184     0    10     1     4
  1.2391044320423682E-01 a       185     0    10     1     5
 -5.4103301667296960E-02 a       186     0    10     1     6
  2.1519751322778055E-01 a       187     0    10     1     7
 -4.1342857672991684E-01 a       188     0    10     1     8
 -2.8749885496090338E-01 a       189     0    10     1     9
  5.1626929924783505E-01 a       190     0    10     1    10
  2.1635218314688814E-01 a       191     0    10     1    11
  1.4053864562694821E-01 a       192     0    10     1    12
 -1.1687205494665059E-01 a       193     0    10     1    13
  1.3283157850048957E-01 a       194     0    10     1    14
 -2.4265284638178827E-01 a       195     0    10     1    15
  7.1645423009523923E-02 a       196     0    10     1    16
 -4.6908335389815127E-02 a       197     0    10     1    17
  4.9342360773237598E-01 a       198     0    10     1    18
  3.1533641353628222E-01 a       199     0    10     1    19
  2.4474383324223842E-01 a       200     0    10     1    20
 -1.5591119476010767E-01 a       201     0    11     1     1
 -1.7780109440719619E-01 a       202     0    11     1     2
  1.3812319245456261E-02 a       203     0    11     1     3
  2.0434491302503768E-02 a       204     0    11     1     4
 -2.8896937392764671E-01 a       205     0    11     1     5
  6.1369841296704884E-02 a       206     0    11     1     6
 -2.4085530425232213E-01 a       207     0    11     1     7
  9.6677720312108542E-02 a       208     0    11     1     8
 -6.0483954447171841E-02 a       209     0    11     1     9
  1.0592903398560845E-01 a       210     0    11     1    10
 -2.7011257869351213E-01 a       211     0    11     1    11
  2.6766039416338494E-01 a       212     0    11     1    12
  1.5937259375969007E-01 a       213     0    11     1    13
  2.0622465600769219E-01 a       214     0    11     1    14
  2.4904009201852581E-02 a       215     0    11     1    15
  1.8734569090140107E-01 a       216     0    11     1    16
 -2.2973881642173702E-01 a       217     0    11     1    17
 -2.5071530408871512E-01 a       218     0    11     1    18
  2.1856581901152095E-01 a       219     0    11     1    19
 -1.6720258647732697E-01 a       220     0    11     1    20
  1.0851261224324636E-01 a       221     0    12     1     1
  1.9129773452638515E-01 a       222     0    12     1     2
 -3.1756678236257163E-01 a       223     0    12     1     3
  1.7955916893844501E-02 a       224     0    12     1     4
  6.8838972587382391E-02 a       225     0    12     1     5
  9.9049971021563363E-02 a       226     0    12     1     6
 -1.2138590567226870E-01 a       227     0    12     1     7
 -1.2851443811187014E-02 a       228     0    12     1     8
 -3.3799714330658709E-01 a       229     0    12     1     9
  1.5858011481203987E-01 a       230     0    12     1    10
 -9.9086378785829210E-02 a       231     0    12     1    11
  2.3336592281830371E-01 a       232     0    12     1    12
 -4.2158385381231053E-02 a       233     0    12     1    13
  2.3804570680824793E-02 a       234     0    12     1    14
  1.1929208426536475E-01 a       235     0    12     1    15
 -1.5458117672841518E-01 a       236     0    12     1    16
 -2.6391620509556041E-01 a       237     0    12     1    17
 -8.0041192746155010E-02 a       238     0    12     1    18
 -2.3008332630443690E-01 a       239     0    12     1    19
  7.6748613726639714E-02 a       240     0    12     1    20
 -1.2768787985502589E-01 a       241     0    13     1     1
  1.7713769193011003E-01 a       242     0    13     1     2
  2.1573049015724599E-01 a       243     0    13     1     3
 -1.9508214815282379E-02 a       244     0    13     1     4
 -2.8838698801046614E-01 a       245     0    13     1     5
  4.9794365950055187E-02 a       246     0    13     1     6
 -3.2588901040207938E-02 a       247     0    13     1     7
  1.3118708178049335E-01 a       248     0    13     1     8
  1.5764536383247877E-02 a       249     0    13     1     9
 -1.4720881955619830E-01 a       250     0    13     1    10
 -1.6631388591908461E-01 a       251     0    13     1    11
  1.9943953620616162E-01 a       252     0    13     1    12
  1.2751951267137707E-01 a       253     0    13     1    13
 -1.2722823719269874E-01 a       254     0    13     1    14
 -5.5805849086279453E-02 a       255     0    13     1    15
 -2.5268570519493921E-01 a       256     0    13     1    16
 -1.5076039667271815E-01 a       257     0    13     1    17
 -1.0241798812476906E-01 a       258     0    13     1    18
  9.8617321056503976E-02 a       259     0    13     1    19
  5.3082263141311412E-02 a       260     0    13     1    20
  1.5125446372516818E-01 a       261     0    14     1     1
  1.3038253048737308E-01 a       262     0    14     1     2
  8.2864664437095864E-02 a       263     0    14     1     3
  1.1766156622875652E-02 a       264     0    14     1     4
 -1.8994077066682227E-01 a       265     0    14     1     5
 -1.5964340449727044E-01 a       266     0    14     1     6
 -1.6316369360188931E-01 a       267     0    14     1     7
  2.3273174439809549E-01 a       268     0    14     1     8
  3.0970516974172052E-01 a       269     0    14     1     9
 -3.0326947236825458E-01 a       270     0    14     1    10
 -2.7278472630648964E-01 a       271     0    14     1    11
 -4.0281895355851159E-03 a       272     0    14     1    12
 -2.2685601650892448E-01 a       273     0    14     1    13
 -6.4354882995055859E-02 a       274     0    14     1    14
  1.2833930601024979E-01 a       275     0    14     1    15
 -1.2708615182372804E-01 a       276     0    14     1    16
  2.2752692284926532E-02 a       277     0    14     1    17
 -2.4599162335370203E-01 a       278     0    14     1    18
 -1.8340241250046185E-01 a       279     0    14     1    19
 -8.5762859182906437E-02 a       280     0    14     1    20
 -3.8438120926790814E-01 a       281     0    15     1     1
  1.4828996673797981E-01 a       282     0    15     1     2
  4.1805314798884385E-02 a       283     0    15     1     3
 -2.2217181811920225E-01 a       284     0    15     1     4
 -1.2734551220978041E-01 a       285     0    15     1     5
  2.6760784823604861E-01 a       286     0    15     1     6
 -2.5773261894962377E-02 a       287     0    15     1     7
 -4.5398449270574702E-02 a       288     0    15     1     8
  2.9583034605585501E-01 a       289     0    15     1     9
 -1.9746432141109335E-01 a       290     0    15     1    10
 -5.1225765974879767E-02 a       291     0    15     1    11
  1.1774221486274271E-01 a       292     0    15     1    12
  2.2758063915059176E-01 a       293     0    15     1    13
 -3.0669755711448293E-01 a       294     0    15     1    14
 -1.6166518570688868E-01 a       295     0    15     1    15
 -3.9457918209360184E-02 a       296     0    15     1    16
 -1.5353051693556152E-01 a       297     0    15     1    17
 -1.8781201381441520E-01 a       298     0    15     1    18
 -1.2241666951760374E-02 a       299     0    15     1    19
 -1.6185180463575982E-01 a       300     0    15     1    20
 -1.3820167997968605E-01 a       301     0    16     1     1
 -7.4109706961524788E-02 a       302     0    16     1     2
  1.4877503165952299E-01 a       303     0    16     1     3
 -1.6151109185638438E-01 a       304     0    16     1     4
 -9.4173318755377156E-02 a       305     0    16     1     5
  1.1864155790475728E-01 a       306     0    16     1     6
  5.1238021702953246E-02 a       307     0    16     1     7
  5.7826126368798914E-02 a       308     0    16     1     8
  7.4861676322533766E-02 a       309     0    16     1     9
 -7.5075878173616592E-02 a       310     0    16     1    10
  6.2850754479482365E-02 a       311     0    16     1    11
 -1.7268986403154443E-01 a       312     0    16     1    12
 -1.8430097781659233E-01 a       313     0    16     1    13
 -2.7103044610732036E-01 a       314     0    16     1    14
 -2.1551581948195694E-01 a       315     0    16     1    15
 -1.1262134426705254E-01 a       316     0    16     1    16
  3.0347970734819490E-01 a       317     0    16     1    17
 -2.7415959496719352E-04 a       318     0    16     1    18
 -1.8997975819080062E-01 a       319     0    16     1    19
  1.2326640005082623E-01 a       320     0    16     1    20
  1.4001288235888396E-01 a       321     0    17     1     1
  9.0735644650712363E-02 a       322     0    17     1     2
 -2.4954039707641335E-01 a       323     0    17     1     3
 -4.5984065801501259E-02 a       324     0    17     1     4
  1.9149654300180979E-01 a       325     0    17     1     5
 -2.3548099233463801E-01 a       326     0    17     1     6
  5.4580236647210477E-02 a       327     0    17     1     7
 -6.8976747407406974E-02 a       328     0    17     1     8
  1.0378639347185717E-01 a       329     0    17     1     9
  9.4925546164672553E-02 a       330     0    17     1    10
  1.3221420350210306E-01 a       331     0    17     1    11
 -8.8094436952776370E-02 a       332     0    17     1    12
 -1.8263923444772162E-01 a       333     0    17     1    13
  1.5516206677370462E-01 a       334     0    17     1    14
 -5.1114374950889961E-02 a       335     0    17     1    15
  1.5623152017862618E-01 a       336     0    17     1    16
  2.0245208393884184E-01 a       337     0    17     1    17
  1.4680647892296814E-01 a       338     0    17     1    18
 -2.4280685454050069E-01 a       339     0    17     1    19
  4.9537860570623225E-02 a       340     0    17     1    20
 -1.6741930899539537E-01 a       341     0    18     1     1
  9.6372807828170010E-02 a       342     0    18     1     2
 -2.0131977404148810E-01 a       343     0    18     1     3
  2.5407489800107378E-02 a       344     0    18     1     4
  1.4966023366765555E-01 a       345     0    18     1     5
 -1.6154143321498463E-01 a       346     0    18     1     6
 -4.8704888854866783E-02 a       347     0    18     1     7
  1.6103947699773169E-01 a       348     0    18     1     8
 -2.7804672956674020E-01 a       349     0    18     1     9
 -2.6876498234866697E-01 a       350     0    18     1    10
  2.0683302472491974E-01 a       351     0    18     1    11
 -2.2334985936517368E-01 a       352     0    18     1    12
  3.2548400740209232E-01 a       353     0    18     1    13
 -4.6108620786030313E-02 a       354     0    18     1    14
  5.0625651506203528E-03 a       355     0    18     1    15
 -1.8148909563524673E-01 a       356     0    18     1    16
  1.5815501980914645E-01 a       357     0    18     1    17
  1.2607546110647092E-01 a       358     0    18     1    18
 -1.8879674331794016E-01 a       359     0    18     1    19
  1.7708507434063367E-01 a       360     0    18     1    20
  3.1925566332881511E-01 a       361     0    19     1     1
 -2.5311727970413334E-01 a       362     0    19     1     2
 -1.3659253107024247E-01 a       363     0    19     1     3
  1.8230351453067914E-01 a       364     0    19     1     4
  7.1076781893588126E-02 a       365     0    19     1     5
  6.0173139385683645E-02 a       366     0    19     1     6
  1.1335691300525483E-01 a       367     0    19     1     7
 -2.5396653096632114E-02 a       368     0    19     1     8
 -1.5744339781847988E-01 a       369     0    19     1     9
 -7.3470106797087376E-02 a       370     0    19     1    10
  1.6892286794425795E-01 a       371     0    19     1    11
 -1.7378512073894115E-01 a       372     0    19     1    12
 -2.7819192908085716E-01 a       373     0    19     1    13
  1.5605188860696942E-01 a       374     0    19     1    14
  7.8621346787302718E-02 a       375     0    19     1    15
  1.1567890104492111E-01 a       376     0    19     1    16
  3.6557607515081025E-02 a       377     0    19     1    17
 -1.5714469819045176E-01 a       378     0    19     1    18
  8.8462576617445304E-02 a       379     0    19     1    19
  3.7679992937146939E-02 a       380     0    19     1    20
  1.4908466399690115E-01 a       381     0    20     1     1
 -2.4275106606444360E-01 a       382     0    20     1     2
 -1.6468784852082460E-01 a       383     0    20     1     3
 -6.9668821047145724E-02 a       384     0    20     1     4
  8.4005070466920878E-02 a       385     0    20     1     5
 -2.0230392519646637E-01 a       386     0    20     1     6
 -4.7505802820539074E-02 a       387     0    20     1     7
 -2.0386255638861986E-01 a       388     0    20     1     8
  9.8563402876392606E-02 a       389     0    20     1     9
 -1.1883838084494237E-01 a       390     0    20     1    10
 -5.7080998884530857E-03 a       391     0    20     1    11
 -1.3424064429680060E-01 a       392     0    20     1    12
  1.7820395486462903E-01 a       393     0    20     1    13
  2.0727955850244420E-01 a       394     0    20     1    14
  5.4524453856287678E-03 a       395     0    20     1    15
  2.4596500779315779E-02 a       396     0    20     1    16
 -1.0742242600679083E-01 a       397     0    20     1    17
  1.2233784067722590E-01 a       398     0    20     1    18
 -2.6214274321434732E-02 a       399     0    20     1    19
 -6.3180428048447548E-02 a       400     0    20     1    20
 -1.8372830032609000E-01 a       401     0    21     1     1
 -6.4518222257481508E-02 a       402     0    21     1     2
  2.4313820829585567E-01 a       403     0    21     1     3
  4.9710927035576703E-02 a       404     0    21     1     4
 -1.8178225077251789E-01 a       405     0    21     1     5
  2.1815167480473027E-01 a       406     0    21     1     6
  4.7522550918223085E-02 a       407     0    21     1     7
  2.1328752789073605E-02 a       408     0    21     1     8
 -4.6985439877656084E-03 a       409     0    21     1     9
 -1.9468585492990693E-02 a       410     0    21     1    10
 -3.7147037016443322E-03 a       411     0    21     1    11
  7.5643360919643706E-03 a       412     0    21     1    12
  2.6114230248484742E-02 a       413     0    21     1    13
  6.6359624390816663E-02 a       414     0    21     1    14
  1.2441629900946409E-01 a       415     0    21     1    15
  3.0657346117389846E-02 a       416     0    21     1    16
 -6.1670264417734891E-02 a       417     0    21     1    17
  1.7219549055755727E-02 a       418     0    21     1    18
  1.0061846569990983E-01 a       419     0    21     1    19
 -8.8988133995561006E-02 a       420     0    21     1    20
 -3.3071335358215492E-02 a       421     0    22     1     1
 -3.9964710261976254E-02 a       422     0    22     1     2
  8.6557309131973681E-02 a       423     0    22     1     3
  5.8571378651064328E-02 a       424     0    22     1     4
  2.1786714092688900E-01 a       425     0    22     1     5
  1.8834437086421299E-01 a       426     0    22     1     6
  2.8856028460240041E-01 a       427     0    22     1     7
 -4.6991147375182674E-01 a       428     0    22     1     8
  4.0375893644109054E-02 a       429     0    22     1     9
  8.7603070760235505E-02 a       430     0    22     1    10
  6.0819970535591759E-02 a       431     0    22     1    11
  9.0078092189464123E-02 a       432     0    22     1    12
 -2.8020069852329210E-01 a       433     0    22     1    13
  2.9959403751252567E-01 a       434     0    22     1    14
 -2.7068870878531440E-02 a       435     0    22     1    15
  2.7712631030866886E-01 a       436     0    22     1    16
 -2.2071666410651955E-01 a       437     0    22     1    17
 -3.1119702891660758E-02 a       438     0    22     1    18
  4.2815898631095105E-02 a       439     0    22     1    19
 -6.6341168859026287E-02 a       440     0    22     1    20
 -2.1410217112828905E-01 a       441     0    23     1     1
  1.2273077008803675E-02 a       442     0    23     1     2
  1.5735627063286162E-01 a       443     0    23     1     3
 -4.4047249031969035E-02 a       444     0    23     1     4
 -3.0534896236942066E-01 a       445     0    23     1     5
  5.6149807805891801E-02 a       446     0    23     1     6
 -2.2439687021548307E-01 a       447     0    23     1     7
  1.3830036018034214E-01 a       448     0    23     1     8
  3.7533375269137630E-02 a       449     0    23     1     9
  5.9931953041410413E-02 a       450     0    23     1    10
 -1.9857403323592965E-01 a       451     0    23     1    11
  1.8819896386377430E-01 a       452     0    23     1    12
  2.3627770512483287E-01 a       453     0    23     1    13
  8.3194989161685703E-02 a       454     0    23     1    14
  1.2623926910087158E-01 a       455     0    23     1    15
 -1.6261642083118205E-01 a       456     0    23     1    16
 -9.1088988295134038E-02 a       457     0    23     1    17
 -7.4048584856597571E-02 a       458     0    23     1    18
  3.3233886747695209E-02 a       459     0    23     1    19
  6.2024920878333244E-02 a       460     0    23     1    20
  1.1922202654437735E-02 a       461     0    24     1     1
  1.2934164619759314E-01 a       462     0    24     1     2
 -1.7778502104029193E-02 a       463     0    24     1     3
  1.9620244190064540E-01 a       464     0    24     1     4
 -5.1498082835690635E-02 a       465     0    24     1     5
  1.5886203167950899E-01 a       466     0    24     1     6
 -1.9468296093482589E-02 a       467     0    24     1     7
  1.2621965851226807E-01 a       468     0    24     1     8
 -1.5952513922145736E-02 a       469     0    24     1     9
  1.0603310440243223E-01 a       470     0    24     1    10
 -2.2284832155861033E-02 a       471     0    24     1    11
  1.0835581412809125E-01 a       472     0    24     1    12
  6.9148236145557859E-02 a       473     0    24     1    13
 -7.0874146079190153E-02 a       474     0    24     1    14
 -1.6185673808048409E-01 a       475     0    24     1    15
 -1.1312294818536932E-01 a       476     0    24     1    16
 -2.1347798191400941E-01 a       477     0    24     1    17
 -4.3978359409092616E-02 a       478     0    24     1    18
  1.0658281312396602E-01 a       479     0    24     1    19
 -1.8896470009847337E-02 a       480     0    24     1    20
  2.6464346910176989E-01 a       481     0    25     1     1
 -5.2754069627470201E-02 a       482     0    25     1     2
 -9.5464374153963055E-02 a       483     0    25     1     3
 -1.4113169162084144E-01 a       484     0    25     1     4
 -1.7443185358317565E-03 a       485     0    25     1     5
 -9.9192598546267927E-02 a       486     0    25     1     6
  6.5867457544539099E-02 a       487     0    25     1     7
  1.2037901680264904E-01 a       488     0    25     1     8
 -1.8577934755202771E-01 a       489     0    25     1     9
 -8.2999512985252932E-02 a       490     0    25     1    10
 -7.5436856282221743E-02 a       491     0    25     1    11
  7.7028131092191227E-02 a       492     0    25     1    12
  9.7022422444365181E-02 a       493     0    25     1    13
 -1.5097063911862427E-01 a       494     0    25     1    14
  7.7919883190037537E-02 a       495     0    25     1    15
 -1.1547791651657227E-01 a       496     0    25     1    16
  1.2490304405691419E-01 a       497     0    25     1    17
  2.0047516261000056E-01 a       498     0    25     1    18
 -1.8190589745847161E-04 a       499     0    25     1    19
  9.5212837600373856E-03 a       500     0    25     1    20
  7.1025013847760901E-03 a       501     0    26     1     1
  4.7753493116986158E-02 a       502     0    26     1     2
  2.2360797373600172E-01 a       503     0    26     1     3
 -2.0397278697742952E-01 a       504     0    26     1     4
 -3.1708200093628564E-01 a       505     0    26     1     5
 -1.0995692049864551E-01 a       506     0    26     1     6
 -2.3697418882769214E-01 a       507     0    26     1     7
  1.3521269064651650E-01 a       508     0    26     1     8
  3.1378233260118593E-01 a       509     0    26     1     9
  9.2560350952365283E-02 a       510     0    26     1    10
 -5.6538037973538224E-01 a       511     0    26     1    11
  2.1714865932088429E-01 a       512     0    26     1    12
  6.5796687822700008E-04 a       513     0    26     1    13
 -8.6378746369129844E-02 a       514     0    26     1    14
 -4.5236984113606639E-02 a       515     0    26     1    15
 -2.6091192985158895E-01 a       516     0    26     1    16
  8.6411030907958430E-02 a       517     0    26     1    17
 -2.4563229741862678E-02 a       518     0    26     1    18
 -6.8475186981671224E-02 a       519     0    26     1    19
  2.4993914017505434E-02 a       520     0    26     1    20
  1.7586967959623581E-01 a       521     0    27     1     1
  3.4734041095109060E-02 a       522     0    27     1     2
 -1.5427227886746639E-01 a       523     0    27     1     3
 -1.5579247584107753E-01 a       524     0    27     1     4
  4.2149697052671198E-01 a       525     0    27     1     5
 -4.9305288136770313E-02 a       526     0    27     1     6
 -2.3891793974431497E-01 a       527     0    27     1     7
 -1.0980412845329196E-01 a       528     0    27     1     8
 -9.5991694589990462E-02 a       529     0    27     1     9
  1.7045261221571295E-01 a       530     0    27     1    10
  2.3043839150370560E-01 a       531     0    27     1    11
 -4.9886052216849754E-02 a       532     0    27     1    12
 -1.4419381588305927E-01 a       533     0    27     1    13
 -3.1296061746261128E-01 a       534     0    27     1    14
 -1.7756031201964162E-01 a       535     0    27     1    15
  9.1480354634683111E-02 a       536     0    27     1    16
  5.5567684625972884E-02 a       537     0    27     1    17
 -9.1360853876869999E-02 a       538     0    27     1    18
  5.8117391882052769E-02 a       539     0    27     1    19
 -2.4818686834944311E-02 a       540     0    27     1    20
 -1.8892515684481967E-01 a       541     0    28     1     1
 -6.8389532994975258E-02 a       542     0    28     1     2
 -5.1350023877857275E-02 a       543     0    28     1     3
 -3.2901540541371795E-02 a       544     0    28     1     4
  2.0812493791406902E-01 a       545     0    28     1     5
 -1.6891454751674598E-01 a       546     0    28     1     6
 -1.0599023376824380E-02 a       547     0    28     1     7
  1.4510377683080880E-01 a       548     0    28     1     8
 -7.9870806941508249E-02 a       549     0    28     1     9
  5.9929458676955830E-02 a       550     0    28     1    10
  1.5773461283094259E-01 a       551     0    28     1    11
 -9.5282563803259390E-02 a       552     0    28     1    12
 -1.7729370324824412E-01 a       553     0    28     1    13
  2.9063629098008928E-02 a       554     0    28     1    14
  2.8820369790453709E-01 a       555     0    28     1    15
  1.3987246267413747E-01 a       556     0    28     1    16
  9.3442639065453983E-02 a       557     0    28     1    17
 -2.6900187640495676E-01 a       558     0    28     1    18
 -1.0546254894843948E-01 a       559     0    28     1    19
  1.6719629559207363E-01 a       560     0    28     1    20
 -9.9252285506330543E-02 a       561     0    29     1     1
  2.7149224126493116E-01 a       562     0    29     1     2
  1.0510482278519699E-01 a       563     0    29     1     3
  1.0570007883560337E-02 a       564     0    29     1     4
  5.3437066074453345E-02 a       565     0    29     1     5
  1.5795179615070001E-02 a       566     0    29     1     6
  1.3156563183259759E-01 a       567     0    29     1     7
  1.9120389685274103E-02 a       568     0    29     1     8
  1.3502065455315829E-01 a       569     0    29     1     9
  4.4251799311096256E-03 a       570     0    29     1    10
 -7.9006048431308519E-03 a       571     0    29     1    11
  6.0733636449775134E-02 a       572     0    29     1    12
 -1.0346554898723083E-01 a       573     0    29     1    13
  1.7915786633726274E-01 a       574     0    29     1    14
 -1.9238894959408223E-01 a       575     0    29     1    15
 -2.2199904606869662E-02 a       576     0    29     1    16
  8.8970403654095490E-02 a       577     0    29     1    17
  3.0169602360094711E-01 a       578     0    29     1    18
 -1.5822753505412310E-01 a       579     0    29     1    19
 -1.7500184695074850E-01 a       580     0    29     1    20
  1.5471663636417798E-01 a       581     0    30     1     1
  2.8963941284925010E-01 a       582     0    30     1     2
 -3.4443314014152748E-01 a       583     0    30     1     3
  1.6070854427147915E-01 a       584     0    30     1     4
  1.4275590821391143E-01 a       585     0    30     1     5
 -1.0873119840961913E-01 a       586     0    30     1     6
  3.8976068307544443E-01 a       587     0    30     1     7
  4.8217611321406645E-02 a       588     0    30     1     8
 -5.3300926027793516E-01 a       589     0    30     1     9
 -2.0447833790755651E-01 a       590     0    30     1    10
  5.5049495881285482E-01 a       591     0    30     1    11
 -2.4186423266448298E-01 a       592     0    30     1    12
  3.2853402347946731E-01 a       593     0    30     1    13
  1.4012036275143958E-02 a       594     0    30     1    14
  5.0882570229876696E-02 a       595     0    30     1    15
 -1.4487936184772918E-03 a       596     0    30     1    16
  2.1985182844439419E-01 a       597     0    30     1    17
  2.4021826337502433E-01 a       598     0    30     1    18
 -2.2334213093139638E-01 a       599     0    30     1    19
 -6.1709462847505205E-02 a       600     0    30     1    20
 -1.3675456614993381E-01 a       601     0    31     1     1
  7.8389121705977977E-02 a       602     0    31     1     2
  1.2795298120919293E-01 a       603     0    31     1     3
  1.7769437078084210E-01 a       604     0    31     1     4
 -1.0312269223496122E-01 a       605     0    31     1     5
 -3.0937610713754428E-02 a       606     0    31     1     6
  4.3503719034677307E-01 a       607     0    31     1     7
  5.0782221582477111E-02 a       608     0    31     1     8
 -2.7419695157284409E-02 a       609     0    31     1     9
 -2.5592434059077068E-01 a       610     0    31     1    10
  2.1902096608196669E-01 a       611     0    31     1    11
 -1.3150383870483806E-01 a       612     0    31     1    12
 -7.4557565497098993E-02 a       613     0    31     1    13
  8.3903131636597128E-02 a       614     0    31     1    14
 -2.2844966227664942E-01 a       615     0    31     1    15
  1.1746160622828757E-01 a       616     0    31     1    16
 -1.0335734927227365E-02 a       617     0    31     1    17
  2.1337902034397574E-01 a       618     0    31     1    18
  7.2013144399662915E-02 a       619     0    31     1    19
 -7.9102843073260043E-02 a       620     0    31     1    20
  1.1701257425498333E-01 a       621     0    32     1     1
 -2.7918044258132596E-01 a       622     0    32     1     2
 -1.4412111858616231E-01 a       623     0    32     1     3
 -2.0952605222174313E-02 a       624     0    32     1     4
 -1.7051916710198170E-01 a       625     0    32     1     5
  2.6261455488932561E-01 a       626     0    32     1     6
 -4.0659814951176854E-01 a       627     0    32     1     7
 -3.7036669883455026E-01 a       628     0    32     1     8
 -3.9842911768479962E-02 a       629     0    32     1     9
  1.8800534563165858E-01 a       630     0    32     1    10
 -1.6627097201910362E-01 a       631     0    32     1    11
 -1.1975916170734674E-01 a       632     0    32     1    12
 -1.0754560245842629E-02 a       633     0    32     1    13
  4.0553500900699139E-04 a       634     0    32     1    14
 -1.1975135211558484E-01 a       635     0    32     1    15
  5.1753941749369224E-02 a       636     0    32     1    16
 -3.0065845750391990E-01 a       637     0    32     1    17
 -2.8455416089840146E-01 a       638     0    32     1    18
  1.8218565829193620E-01 a       639     0    32     1    19
  2.3849889264074886E-02 a       640     0    32     1    20
  3.4857667750052440E-03 a       641     0    33     1     1
 -5.7884250207273190E-02 a       642     0    33     1     2
 -2.4188725541414661E-02 a       643     0    33     1     3
  1.5392642022745075E-02 a       644     0    33     1     4
 -9.8190716845907453E-02 a       645     0    33     1     5
 -1.2090135175850422E-01 a       646     0    33     1     6
 -9.9204909756951079E-02 a       647     0    33     1     7
 -4.1688340728885921E-02 a       648     0    33     1     8
  4.4073003274635092E-02 a       649     0    33     1     9
 -1.2766413456774775E-01 a       650     0    33     1    10
 -3.4469450602010658E-03 a       651     0    33     1    11
 -8.4068270916389364E-03 a       652     0    33     1    12
  8.8295231367575916E-02 a       653     0    33     1    13
 -1.9103694300955912E-01 a       654     0    33     1    14
  7.2539468334058707E-02 a       655     0    33     1    15
 -9.4488304264723991E-03 a       656     0    33     1    16
 -1.2051881888470373E-01 a       657     0    33     1    17
  4.2364957429001697E-02 a       658     0    33     1    18
 -5.8484083429523513E-02 a       659     0    33     1    19
  1.5850954684357638E-01 a       660     0    33     1    20
 -3.7922196188945606E-01 a       661     0    34     1     1
 -4.8923082232044335E-01 a       662     0    34     1     2
  4.0686301622720733E-01 a       663     0    34     1     3
  4.0052243721086324E-02 a       664     0    34     1     4
  8.5256056586855616E-02 a       665     0    34     1     5
  9.8096235876113269E-02 a       666     0    34     1     6
 -6.4358018016740937E-01 a       667     0    34     1     7
 -1.6083090838350797E-01 a       668     0    34     1     8
  5.4795928809917205E-01 a       669     0    34     1     9
  2.5286524401450183E-01 a       670     0    34     1    10
 -4.5131665329228726E-01 a       671     0    34     1    11
  9.5434967787625197E-02 a       672     0    34     1    12
 -4.2166273527622439E-01 a       673     0    34     1    13
  2.0547763796634960E-01 a       674     0    34     1    14
 -2.7487283719390865E-01 a       675     0    34     1    15
  2.9541220480644137E-01 a       676     0    34     1    16
 -2.5357390515423689E-01 a       677     0    34     1    17
 -2.5300572122493831E-01 a       678     0    34     1    18
  3.1256842689648345E-01 a       679     0    34     1    19
 -9.9553145449681850E-03 a       680     0    34     1    20
  9.2653328419819211E-03 a       681     0    35     1     1
 -1.2638250939118248E-01 a       682     0    35     1     2
 -5.4663562143679741E-02 a       683     0    35     1     3
 -8.3963376060003578E-02 a       684     0    35     1     4
 -2.8473418892270390E-02 a       685     0    35     1     5
  1.4614831383317672E-01 a       686     0    35     1     6
 -3.0215073188659658E-01 a       687     0    35     1     7
  1.9075327817919083E-02 a       688     0    35     1     8
  2.4375024127670852E-02 a       689     0    35     1     9
  1.5447076992540587E-01 a       690     0    35     1    10
 -3.0388011021563666E-01 a       691     0    35     1    11
  1.3229064128084245E-01 a       692     0    35     1    12
  5.2895292973602133E-02 a       693     0    35     1    13
  1.2479184915167570E-01 a       694     0    35     1    14
  1.4952255065568543E-01 a       695     0    35     1    15
 -1.8009548225812042E-01 a       696     0    35     1    16
  2.6239298432982516E-03 a       697     0    35     1    17
 -5.3548301133551870E-02 a       698     0    35     1    18
 -3.2339556057884522E-02 a       699     0    35     1    19
  4.5123948982070887E-02 a       700     0    35     1    20
 -6.1017006740690147E-02 a       701     0    36     1     1
  2.9040498264840936E-01 a       702     0    36     1     2
  1.3791852578601893E-01 a       703     0    36     1     3
 -6.2335231821999952E-02 a       704     0    36     1     4
  1.4995708438043948E-01 a       705     0    36     1     5
 -2.6746934505726039E-01 a       706     0    36     1     6
  4.2288777014960194E-01 a       707     0    36     1     7
  2.1139067476249634E-01 a       708     0    36     1     8
  7.0709800517250190E-02 a       709     0    36     1     9
 -5.0287330585519097E-02 a       710     0    36     1    10
  1.3593895793180019E-01 a       711     0    36     1    11
  1.4140724398822360E-01 a       712     0    36     1    12
  1.5974615632450465E-01 a       713     0    36     1    13
 -6.4516340114478946E-02 a       714     0    36     1    14
  5.1327087602044449E-02 a       715     0    36     1    15
 -9.7304448208303973E-02 a       716     0    36     1    16
  3.1471613007158422E-01 a       717     0    36     1    17
  1.5902172322574470E-02 a       718     0    36     1    18
 -3.6831600804132267E-02 a       719     0    36     1    19
 -1.2175310559859000E-01 a       720     0    36     1    20
  1.0076064473767456E-01 a       721     0    37     1     1
  9.9612648800076458E-03 a       722     0    37     1     2
  6.1174698225980748E-02 a       723     0    37     1     3
 -1.5619045241438995E-01 a       724     0    37     1     4
  2.4570081802574657E-02 a       725     0    37     1     5
  1.2990628207514093E-01 a       726     0    37     1     6
  1.2985919062356954E-01 a       727     0    37     1     7
  3.5439724746440769E-02 a       728     0    37     1     8
 -7.5115777618342580E-02 a       729     0    37     1     9
  1.0636763919335614E-01 a       730     0    37     1    10
 -8.3945249701701584E-04 a       731     0    37     1    11
  2.9842003250670646E-02 a       732     0    37     1    12
  3.7297038995967931E-02 a       733     0    37     1    13
  1.1016399934004945E-01 a       734     0    37     1    14
  9.2836386519579584E-03 a       735     0    37     1    15
 -3.3069128541437946E-02 a       736     0    37     1    16
  1.7025686270261944E-01 a       737     0    37     1    17
 -1.1750607931515693E-01 a       738     0    37     1    18
  8.4942172748989200E-02 a       739     0    37     1    19
 -1.0234680886543850E-01 a       740     0    37     1    20
  2.6483360757199037E-01 a       741     0    38     1     1
  3.2316821911952531E-01 a       742     0    38     1     2
 -2.1145948952633217E-01 a       743     0    38     1     3
 -1.5625022775942549E-01 a       744     0    38     1     4
 -1.8780276138191293E-01 a       745     0    38     1     5
 -1.3406445931737475E-02 a       746     0    38     1     6
  4.8059084833066179E-01 a       747     0    38     1     7
  9.0978786649892396E-02 a       748     0    38     1     8
 -1.4509085975958549E-01 a       749     0    38     1     9
 -1.6538762243125327E-01 a       750     0    38     1    10
  6.9452651052039141E-02 a       751     0    38     1    11
  6.0730835308077033E-02 a       752     0    38     1    12
  2.2413349314640399E-01 a       753     0    38     1    13
 -1.3490679194188310E-01 a       754     0    38     1    14
  2.6313217896094321E-01 a       755     0    38     1    15
 -1.9125301375910495E-01 a       756     0    38     1    16
  1.5847924726326357E-01 a       757     0    38     1    17
  1.6679374198363861E-01 a       758     0    38     1    18
 -1.7414260718196356E-01 a       759     0    38     1    19
 -4.8991368274483346E-02 a       760     0    38     1    20
 -1.9855833253978789E-02 a       761     0    39     1     1
 -9.5732207350466021E-03 a       762     0    39     1     2
  1.4604176432343781E-02 a       763     0    39     1     3
  4.4323371235752133E-02 a       764     0    39     1     4
  3.5177301732512316E-02 a       765     0    39     1     5
 -7.2966102818271789E-02 a       766     0    39     1     6
  1.3975374252290014E-02 a       767     0    39     1     7
  3.2860718491816098E-03 a       768     0    39     1     8
 -2.3453718915953280E-02 a       769     0    39     1     9
 -3.6494735235652047E-02 a       770     0    39     1    10
  1.2278989728821653E-01 a       771     0    39     1    11
 -5.7560096860773180E-02 a       772     0    39     1    12
 -3.8206688243950807E-02 a       773     0    39     1    13
 -1.6388425526969334E-02 a       774     0    39     1    14
 -3.4524880898627798E-02 a       775     0    39     1    15
  5.6163629608721441E-02 a       776     0    39     1    16
 -3.6492085620130232E-02 a       777     0    39     1    17
 -7.2727306658723873E-02 a       778     0    39     1    18
  3.8779049862428659E-02 a       779     0    39     1    19
  6.2757306509174743E-02 a       780     0    39     1    20
 -5.6909599901257713E-02 a       781     0    40     1     1
 -1.6612002354526625E-01 a       782     0    40     1     2
 -1.4253307095595633E-01 a       783     0    40     1     3
  1.9491694855158445E-01 a       784     0    40     1     4
 -2.5094429847473239E-02 a       785     0    40     1     5
  4.5801541611898020E-02 a       786     0    40     1     6
 -2.7186962262417463E-01 a       787     0    40     1     7
 -8.7198080774435943E-02 a       788     0    40     1     8
 -9.1483944995912718E-03 a       789     0    40     1     9
  4.6550773693904320E-02 a       790     0    40     1    10
 -3.1159949391195891E-02 a       791     0    40     1    11
 -1.0944622908651419E-01 a       792     0    40     1    12
 -1.5556334442030184E-01 a       793     0    40     1    13
  2.8873658641473964E-02 a       794     0    40     1    14
  2.9435983561516051E-02 a       795     0    40     1    15
  9.9888875789272996E-02 a       796     0    40     1    16
 -2.8991373482678184E-01 a       797     0    40     1    17
 -1.4174927100741322E-01 a       798     0    40     1    18
  1.5481425280665359E-02 a       799     0    40     1    19
  1.5556647904695520E-01 a       800     0    40     1    20
 -7.5204308736313077E-02 a       801     0    41     1     1
  3.3774595471933788E-02 a       802     0    41     1     2
 -3.4072904697391777E-02 a       803     0    41     1     3
  2.2922285028581185E-01 a       804     0    41     1     4
  4.8761639833816581E-02 a       805     0    41     1     5
  1.3347817226434642E-02 a       806     0    41     1     6
 -4.9759265681678148E-02 a       807     0    41     1     7
 -7.3234995554524729E-02 a       808     0    41     1     8
 -1.8392149232627095E-02 a       809     0    41     1     9
 -7.5180077364805859E-03 a       810     0    41     1    10
  2.8638642049701762E-02 a       811     0    41     1    11
  1.2758009314255737E-02 a       812     0    41     1    12
  1.0180370316047214E-01 a       813     0    41     1    13
  7.0534980978488218E-02 a       814     0    41     1    14
 -6.2728104372985455E-02 a       815     0    41     1    15
  4.7808461573204897E-02 a       816     0    41     1    16
  4.7265660529119499E-02 a       817     0    41     1    17
  2.6742025825082275E-03 a       818     0    41     1    18
 -1.8499847834488806E-01 a       819     0    41     1    19
  5.1566566487457624E-02 a       820     0    41     1    20
  1.3434103371965980E-01 a       821     0    42     1     1
  9.3188361798897085E-02 a       822     0    42     1     2
 -1.5127296946661947E-01 a       823     0    42     1     3
  1.2872990533271197E-01 a       824     0    42     1     4
  4.6682640570174905E-02 a       825     0    42     1     5
  7.8977458453097005E-02 a       826     0    42     1     6
  6.7048619657606709E-02 a       827     0    42     1     7
  1.9679368961885785E-02 a       828     0    42     1     8
  1.5744181415227007E-01 a       829     0    42     1     9
 -4.0504983816742696E-02 a       830     0    42     1    10
 -9.0165853708455979E-02 a       831     0    42     1    11
  1.0309705531728934E-01 a       832     0    42     1    12
  1.0076793739558257E-01 a       833     0    42     1    13
 -8.2644456201854663E-02 a       834     0    42     1    14
 -2.6995358485750204E-01 a       835     0    42     1    15
  1.6364185932694816E-01 a       836     0    42     1    16
 -1.3986792376292190E-01 a       837     0    42     1    17
  2.1081891791123383E-01 a       838     0    42     1    18
  1.5843575464831805E-01 a       839     0    42     1    19
  7.6385317308498721E-02 a       840     0    42     1    20
  6.8854759741536825E-03 a       841     0    43     1     1
  1.7552281345872953E-01 a       842     0    43     1     2
  8.4000065315120401E-02 a       843     0    43     1     3
  1.0829653495536670E-01 a       844     0    43     1     4
  3.0266248385462657E-02 a       845     0    43     1     5
 -2.3672138312079380E-01 a       846     0    43     1     6
  1.1889658133610995E-01 a       847     0    43     1     7
  9.5817574000368735E-02 a       848     0    43     1     8
 -1.1673762642079148E-02 a       849     0    43     1     9
  1.0085684889795642E-01 a       850     0    43     1    10
  1.7047045535897287E-01 a       851     0    43     1    11
  2.3077277687223309E-03 a       852     0    43     1    12
  2.6520927078746542E-01 a       853     0    43     1    13
  5.8474179008999781E-02 a       854     0    43     1    14
  3.2034434790828564E-01 a       855     0    43     1    15
 -2.1643184454010983E-01 a       856     0    43     1    16
  6.7110427728167235E-02 a       857     0    43     1    17
 -1.3778510689489323E-01 a       858     0    43     1    18
 -2.0250048861040881E-02 a       859     0    43     1    19
  8.6462525631951295E-02 a       860     0    43     1    20
  1.9544043979611652E-03 a       861     0    44     1     1
 -2.8139941234949020E-02 a       862     0    44     1     2
 -8.6825889513889837E-02 a       863     0    44     1     3
  1.1408846114425475E-01 a       864     0    44     1     4
  1.2064704496727054E-02 a       865     0    44     1     5
 -1.0216681410695837E-01 a       866     0    44     1     6
  6.0772484166254540E-02 a       867     0    44     1     7
  1.1621727892303053E-01 a       868     0    44     1     8
 -1.7535367603531225E-02 a       869     0    44     1     9
  1.7283527739616167E-01 a       870     0    44     1    10
 -1.7232364771412233E-02 a       871     0    44     1    11
  3.7117270564176241E-02 a       872     0    44     1    12
 -9.0645907617810231E-02 a       873     0    44     1    13
 -5.9413557094443049E-02 a       874     0    44     1    14
 -8.1092439262167738E-03 a       875     0    44     1    15
 -1.0113784854252227E-01 a       876     0    44     1    16
  8.5218510133734712E-03 a       877     0    44     1    17
  6.2165781420731574E-03 a       878     0    44     1    18
  1.8005614053761509E-01 a       879     0    44     1    19
 -1.6197305398728729E-02 a       880     0    44     1    20
 -1.6352084909720813E-01 a       881     0    45     1     1
 -7.9627678525086929E-03 a       882     0    45     1     2
 -6.7631408537145388E-02 a       883     0    45     1     3
  2.7403636281146952E-02 a       884     0    45     1     4
 -1.8502283312033863E-01 a       885     0    45     1     5
 -6.6247408485763687E-02 a       886     0    45     1     6
  3.2434153672626365E-02 a       887     0    45     1     7
 -9.8127316075115531E-02 a       888     0    45     1     8
  4.9465608735230426E-01 a       889     0    45     1     9
 -3.8721230957419728E-01 a       890     0    45     1    10
 -5.3410971206152935E-01 a       891     0    45     1    11
  5.0653246593349666E-01 a       892     0    45     1    12
  2.2844799610834249E-01 a       893     0    45     1    13
  1.1867211290878663E-01 a       894     0    45     1    14
  2.1073431210476282E-01 a       895     0    45     1    15
  1.0566942388972675E-01 a       896     0    45     1    16
  4.4526788484685775E-02 a       897     0    45     1    17
 -2.9497640300296074E-01 a       898     0    45     1    18
 -7.9796160224724827E-02 a       899     0    45     1    19
  1.5619581680017355E-01 a       900     0    45     1    20
  6.2870245406410974E-01 a       901     0    46     1     1
  5.5667281150198866E-01 a       902     0    46     1     2
  2.7580962818409896E-02 a       903     0    46     1     3
  1.8700119215004493E-01 a       904     0    46     1     4
  1.9946125511524510E-01 a       905     0    46     1     5
  1.8356219923432815E-01 a       906     0    46     1     6
  2.4724784207519721E-01 a       907     0    46     1     7
  2.4122509229533745E-01 a       908     0    46     1     8
  3.6272279460146314E-02 a       909     0    46     1     9
  9.6370069231290226E-02 a       910     0    46     1    10
 -2.2173434393181674E-01 a       911     0    46     1    11
 -2.4139345408774977E-03 a       912     0    46     1    12
  2.9357927814596357E-01 a       913     0    46     1    13
 -2.5027458875059572E-01 a       914     0    46     1    14
  3.6340826539931616E-03 a       915     0    46     1    15
  2.5599813126746040E-01 a       916     0    46     1    16
  3.5092198941552788E-01 a       917     0    46     1    17
 -3.6233844010078242E-01 a       918     0    46     1    18
  1.0225283215307321E-01 a       919     0    46     1    19
  8.9335626970859741E-02 a       920     0    46     1    20
  8.4231937247912489E-02 a       921     0    47     1     1
  6.4984665042851372E-02 a       922     0    47     1     2
  9.8505489528336224E-02 a       923     0    47     1     3
  1.6578021384966057E-01 a       924     0    47     1     4
 -2.6502072642070690E-02 a       925     0    47     1     5
  1.4327052291332074E-01 a       926     0    47     1     6
 -3.5343770687939653E-02 a       927     0    47     1     7
  1.6730835487143317E-01 a       928     0    47     1     8
  1.3442953923597725E-01 a       929     0    47     1     9
 -3.3379932005501149E-02 a       930     0    47     1    10
 -4.8005029329663808E-02 a       931     0    47     1    11
  1.1524553516594770E-02 a       932     0    47     1    12
 -1.9612032074833954E-01 a       933     0    47     1    13
  1.7786549822646242E-01 a       934     0    47     1    14
  3.5373519043984399E-02 a       935     0    47     1    15
  1.0434535153946721E-01 a       936     0    47     1    16
 -9.9650630122268907E-02 a       937     0    47     1    17
  1.9924512644552872E-01 a       938     0    47     1    18
  2.5579275235944738E-02 a       939     0    47     1    19
 -1.2119197587591127E-01 a       940     0    47     1    20
 -1.5188279005591965E-01 a       941     0    48     1     1
 -9.9768954774492852E-02 a       942     0    48     1     2
  2.9079351165657108E-01 a       943     0    48     1     3
 -1.5743753902091884E-01 a       944     0    48     1     4
  2.5044802541218142E-01 a       945     0    48     1     5
  1.1256205472201720E-01 a       946     0    48     1     6
  2.9086105872770640E-01 a       947     0    48     1     7
  3.5020752191294621E-02 a       948     0    48     1     8
  2.4210811043076652E-01 a       949     0    48     1     9
 -2.5034078118502473E-01 a       950     0    48     1    10
  3.5481114966818876E-02 a       951     0    48     1    11
 -9.3475723276030431E-02 a       952     0    48     1    12
  1.0146920371258546E-01 a       953     0    48     1    13
 -3.4865779637910438E-01 a       954     0    48     1    14
 -1.6799181562879056E-01 a       955     0    48     1    15
 -1.4139459553032702E-01 a       956     0    48     1    16
  2.0541749246578817E-01 a       957     0    48     1    17
 -1.9371800681638341E-02 a       958     0    48     1    18
  3.0097468510331865E-01 a       959     0    48     1    19
  1.7559994774897289E-01 a       960     0    48     1    20
 -9.1038291222573009E-02 a       961     0    49     1     1
 -8.7299423400147860E-02 a       962     0    49     1     2
  3.1544107582298066E-02 a       963     0    49     1     3
  3.7590190029432355E-02 a       964     0    49     1     4
 -1.9458117335667026E-02 a       965     0    49     1     5
 -1.5254796945473595E-01 a       966     0    49     1     6
 -4.2973967070814557E-02 a       967     0    49     1     7
 -2.7204175920698598E-01 a       968     0    49     1     8
 -8.9423450939726659E-02 a       969     0    49     1     9
  5.7886667451613971E-02 a       970     0    49     1    10
 -3.8189430217773296E-02 a       971     0    49     1    11
 -6.2802364996911955E-02 a       972     0    49     1    12
 -4.6796990239425518E-02 a       973     0    49     1    13
  7.5992474046334638E-03 a       974     0    49     1    14
 -1.3589750429340389E-01 a       975     0    49     1    15
  1.7160216661069764E-02 a       976     0    49     1    16
  2.2734805744637265E-01 a       977     0    49     1    17
 -3.0914578577413025E-02 a       978     0    49     1    18
  1.4010245862358797E-02 a       979     0    49     1    19
 -1.5620071200316124E-01 a       980     0    49     1    20
  6.7209778846065729E-02 a       981     0    50     1     1
  1.9515888060443048E-02 a       982     0    50     1     2
 -4.3364033160703246E-02 a       983     0    50     1     3
 -1.2570071712828559E-01 a       984     0    50     1     4
 -8.0708452609375106E-02 a       985     0    50     1     5
  1.3681890121731985E-01 a       986     0    50     1     6
 -4.9985504859665665E-03 a       987     0    50     1     7
  9.9270654752280349E-02 a       988     0    50     1     8
  2.3858494325949331E-02 a       989     0    50     1     9
 -4.3880752745877938E-02 a       990     0    50     1    10
 -5.1382571054015225E-02 a       991     0    50     1    11
 -4.2465032962713686E-02 a       992     0    50     1    12
  7.7736198223315109E-02 a       993     0    50     1    13
  1.3359879267913505E-01 a       994     0    50     1    14
  8.3924509143280854E-02 a       995     0    50     1    15
 -1.8175692032057149E-02 a       996     0    50     1    16
 -3.9257168745954515E-02 a       997     0    50     1    17
 -3.8618592514378720E-02 a       998     0    50     1    18
 -2.2078237887264443E-01 a       999     0    50     1    19
  6.1549537992675644E-02 a      1000     0    50     1    20
  1.5447671572840813E-01 a      1001     0    51     1     1
  1.3382812290900084E-02 a      1002     0    51     1     2
  2.3991968720999618E-01 a      1003     0    51     1     3
 -3.0970273449992913E-01 a      1004     0    51     1     4
 -1.1353667441071501E-01 a      1005     0    51     1     5
 -6.3386659551115832E-02 a      1006     0    51     1     6
 -2.1824712159269163E-01 a      1007     0    51     1     7
 -8.7043805828663931E-02 a      1008     0    51     1     8
  9.7514389838200544E-02 a      1009     0    51     1     9
  8.4262579577605065E-02 a      1010     0    51     1    10
 -3.3035472514441666E-02 a      1011     0    51     1    11
 -1.9091216511720435E-01 a      1012     0    51     1    12
 -1.8063833997694315E-01 a      1013     0    51     1    13
  1.1065047335414761E-01 a      1014     0    51     1    14
  9.4793759595388535E-02 a      1015     0    51     1    15
  5.8058753565254070E-02 a      1016     0    51     1    16
  4.6350848271930346E-02 a      1017     0    51     1    17
  5.9786283693221053E-02 a      1018     0    51     1    18
  2.1326729127540366E-02 a      1019     0    51     1    19
 -1.7384230385458549E-01 a      1020     0    51     1    20
 -1.4972574596835383E-01 a      1021     0    52     1     1
 -1.2886729433841251E-01 a      1022     0    52     1     2
 -2.0122571010817259E-02 a      1023     0    52     1     3
  8.3546515785817510E-02 a      1024     0    52     1     4
 -2.6578621063870076E-02 a      1025     0    52     1     5
  9.1590483989865239E-03 a      1026     0    52     1     6
 -1.2083691264699069E-01 a      1027     0    52     1     7
  8.3696293477214648E-02 a      1028     0    52     1     8
 -1.4743444678953102E-01 a      1029     0    52     1     9
  5.0107054804115592E-02 a      1030     0    52     1    10
  2.3764616731963124E-02 a      1031     0    52     1    11
 -6.2668356177713311E-02 a      1032     0    52     1    12
 -2.4474301586876659E-01 a      1033     0    52     1    13
  2.1016938418823940E-02 a      1034     0    52     1    14
 -2.0248802676536743E-02 a      1035     0    52     1    15
  1.0640602511374368E-01 a      1036     0    52     1    16
  7.0970959247078306E-03 a      1037     0    52     1    17
  2.1560222346484270E-01 a      1038     0    52     1    18
  5.6800541086644632E-02 a      1039     0    52     1    19
  4.6991063643646927E-02 a      1040     0    52     1    20
  5.6744438263719388E-02 a      1041     0    53     1     1
 -1.3079614059333128E-01 a      1042     0    53     1     2
  7.9351149113596808E-02 a      1043     0    53     1     3
  4.4794248122068218E-02 a      1044     0    53     1     4
  3.6346873407400671E-02 a      1045     0    53     1     5
  5.9346242749143428E-02 a      1046     0    53     1     6
 -6.6577123716783246E-02 a      1047     0    53     1     7
 -8.1629344113367128E-02 a      1048     0    53     1     8
 -7.1305066527040245E-02 a      1049     0    53     1     9
 -1.7005822225024306E-01 a      1050     0    53     1    10
 -2.1137822043793231E-01 a      1051     0    53     1    11
 -1.5386946883848769E-02 a      1052     0    53     1    12
 -1.1475942303411193E-01 a      1053     0    53     1    13
 -3.0830098996014087E-02 a      1054     0    53     1    14
 -6.3764531768966376E-02 a      1055     0    53     1    15
 -2.9842378623563114E-02 a      1056     0    53     1    16
 -1.2813184831023172E-01 a      1057     0    53     1    17
  4.2146007431551037E-02 a      1058     0    53     1    18
 -1.8908566647707284E-01 a      1059     0    53     1    19
 -2.0377242918585706E-01 a      1060     0    53     1    20
 -8.6512686703730857E-02 a      1061     0    54     1     1
 -1.0662117000451882E-01 a      1062     0    54     1     2
 -1.0430264191189031E-01 a      1063     0    54     1     3
  4.6758920938152239E-02 a      1064     0    54     1     4
  9.3795050578728001E-02 a      1065     0    54     1     5
 -2.4150735329179368E-01 a      1066     0    54     1     6
 -1.4889875536891092E-01 a      1067     0    54     1     7
  1.1964950163788814E-02 a      1068     0    54     1     8
 -2.7633198323976423E-02 a      1069     0    54     1     9
 -1.7470345410278401E-01 a      1070     0    54     1    10
  8.1667984901684976E-02 a      1071     0    54     1    11
 -1.5070141136432261E-01 a      1072     0    54     1    12
 -1.0765229235104043E-02 a      1073     0    54     1    13
 -8.9726125290253991E-02 a      1074     0    54     1    14
 -1.6853218508179019E-01 a      1075     0    54     1    15
  1.5406482933424423E-01 a      1076     0    54     1    16
 -3.3724523413513646E-02 a      1077     0    54     1    17
  1.1284474787732128E-01 a      1078     0    54     1    18
  1.2169227096560159E-01 a      1079     0    54     1    19
  1.3590132040956528E-02 a      1080     0    54     1    20
 -7.0653343881773550E-02 a      1081     0    55     1     1
  2.0667246244193357E-01 a      1082     0    55     1     2
 -6.2583742929142164E-02 a      1083     0    55     1     3
  3.4963611231542618E-01 a      1084     0    55     1     4
  8.8754493755745650E-02 a      1085     0    55     1     5
  1.5269369079966733E-01 a      1086     0    55     1     6
 -3.1988981527794463E-01 a      1087     0    55     1     7
 -2.5201794278369899E-01 a      1088     0    55     1     8
  3.9080428121292900E-02 a      1089     0    55     1     9
  1.2107331576530560E-01 a      1090     0    55     1    10
  2.3551080841022548E-01 a      1091     0    55     1    11
  2.4010181375458162E-01 a      1092     0    55     1    12
 -4.1109422032867743E-01 a      1093     0    55     1    13
 -2.3947479560373042E-01 a      1094     0    55     1    14
  2.8466204701524661E-01 a      1095     0    55     1    15
 -2.4107122726571409E-01 a      1096     0    55     1    16
 -5.8765318236069335E-02 a      1097     0    55     1    17
 -2.1664919821843845E-01 a      1098     0    55     1    18
 -1.8816170914926086E-01 a      1099     0    55     1    19
  2.2433489094948197E-01 a      1100     0    55     1    20
 -2.3478664261380380E-01 a      1101     0    56     1     1
 -6.1290747894624520E-01 a      1102     0    56     1     2
  9.5407960951022566E-02 a      1103     0    56     1     3
 -3.5357720089584371E-01 a      1104     0    56     1     4
 -8.9825333831926618E-02 a      1105     0    56     1     5
 -3.2432556081791991E-01 a      1106     0    56     1     6
  2.5274507824666520E-01 a      1107     0    56     1     7
  2.0696171557421256E-01 a      1108     0    56     1     8
 -6.3331210780057767E-01 a      1109     0    56     1     9
 -5.8917475646275852E-01 a      1110     0    56     1    10
 -1.4721081056847193E-01 a      1111     0    56     1    11
 -2.4361996073859395E-02 a      1112     0    56     1    12
  5.0619077309789783E-02 a      1113     0    56     1    13
 -1.5097641587351143E-01 a      1114     0    56     1    14
 -1.6515411338706701E-01 a      1115     0    56     1    15
 -2.5673891792820858E-01 a      1116     0    56     1    16
 -3.2359865971995483E-01 a      1117     0    56     1    17
 -1.2863813566834681E-01 a      1118     0    56     1    18
 -6.9951546646290685E-01 a      1119     0    56     1    19
 -7.6275873652667553E-02 a      1120     0    56     1    20
  1.3992296051509114E-02 a      1121     0    57     1     1
 -1.9195173590352083E-02 a      1122     0    57     1     2
  9.7787174511222846E-02 a      1123     0    57     1     3
 -3.2602737507365781E-01 a      1124     0    57     1     4
 -1.9493589902129624E-01 a      1125     0    57     1     5
 -1.3079710572912678E-01 a      1126     0    57     1     6
 -1.0028044875369607E-01 a      1127     0    57     1     7
  9.8635342433961506E-02 a      1128     0    57     1     8
 -7.9103465605906295E-02 a      1129     0    57     1     9
 -8.9913093308312875E-02 a      1130     0    57     1    10
 -3.2976636400091117E-02 a      1131     0    57     1    11
  9.8530252314357164E-02 a      1132     0    57     1    12
  3.2067597081984772E-01 a      1133     0    57     1    13
 -1.4133989412343986E-01 a      1134     0    57     1    14
  3.7737888254342000E-01 a      1135     0    57     1    15
  3.9010678139554410E-02 a      1136     0    57     1    16
 -1.0612922414045166E-01 a      1137     0    57     1    17
 -1.3335094410536552E-01 a      1138     0    57     1    18
  1.8957070705216755E-01 a      1139     0    57     1    19
  1.9938105195291159E-01 a      1140     0    57     1    20
  1.3093011042629926E-01 a      1141     0    58     1     1
  2.0111596088608735E-01 a      1142     0    58     1     2
 -3.7181219500853423E-02 a      1143     0    58     1     3
  1.5003603093589163E-01 a      1144     0    58     1     4
 -1.3959135262034461E-01 a      1145     0    58     1     5
  2.7604148070226403E-01 a      1146     0    58     1     6
 -5.7400237194587411E-01 a      1147     0    58     1     7
 -3.8588986821513971E-01 a      1148     0    58     1     8
 -2.6812064469107560E-01 a      1149     0    58     1     9
  2.6992212659570208E-01 a      1150     0    58     1    10
  2.7928063887512128E-01 a      1151     0    58     1    11
 -5.4683002426405880E-01 a      1152     0    58     1    12
 -1.9027528600931259E-01 a      1153     0    58     1    13
  5.1939600891737978E-02 a      1154     0    58     1    14
  2.5056640500434035E-01 a      1155     0    58     1    15
 -2.2403293662439089E-01 a      1156     0    58     1    16
 -2.3714938328586255E-01 a      1157     0    58     1    17
  2.5159686756764371E-01 a      1158     0    58     1    18
  1.9271094359609175E-01 a      1159     0    58     1    19
  7.9695085747524499E-02 a      1160     0    58     1    20
  7.8247565268099825E-02 a      1161     0    59     1     1
  1.4561352843878371E-02 a      1162     0    59     1     2
  2.1738084935355374E-02 a      1163     0    59     1     3
  1.4366865461394310E-01 a      1164     0    59     1     4
  1.2891056445433985E-01 a      1165     0    59     1     5
  3.6421956256406762E-02 a      1166     0    59     1     6
  3.1668377054662566E-01 a      1167     0    59     1     7
  1.1355664672285169E-01 a      1168     0    59     1     8
  5.6339514820223376E-02 a      1169     0    59     1     9
  1.3580798750767648E-02 a      1170     0    59     1    10
  1.0554492333536195E-01 a      1171     0    59     1    11
 -3.6953327109179680E-02 a      1172     0    59     1    12
 -4.7258363922136344E-02 a      1173     0    59     1    13
 -1.5869843512650217E-01 a      1174     0    59     1    14
 -1.7015676626711376E-01 a      1175     0    59     1    15
  3.0838050680103722E-02 a      1176     0    59     1    16
  1.5316558119591675E-01 a      1177     0    59     1    17
  1.0053710001461734E-01 a      1178     0    59     1    18
  1.7689428764588538E-01 a      1179     0    59     1    19
 -6.2287215189203583E-02 a      1180     0    59     1    20
 -4.7325744819227814E-02 a      1181     0    60     1     1
 -8.0135233503770512E-02 a      1182     0    60     1     2
  9.5337457410967635E-03 a      1183     0    60     1     3
  3.6384285657895740E-02 a      1184     0    60     1     4
  4.6919768132979425E-03 a      1185     0    60     1     5
 -9.8650979234075217E-02 a      1186     0    60     1     6
  5.1707196432094857E-02 a      1187     0    60     1     7
 -1.5696349845894245E-01 a      1188     0    60     1     8
  7.8098561553820361E-02 a      1189     0    60     1     9
 -8.4884383916806777E-02 a      1190     0    60     1    10
  1.0926690611566307E-01 a      1191     0    60     1    11
  1.6825621853218925E-01 a      1192     0    60     1    12
 -1.1804342741800497E-02 a      1193     0    60     1    13
 -7.1193374122503095E-02 a      1194     0    60     1    14
  9.7859647631636029E-02 a      1195     0    60     1    15
  9.1859838341430938E-02 a      1196     0    60     1    16
 -7.7090479249532634E-02 a      1197     0    60     1    17
 -1.2106173336312134E-01 a      1198     0    60     1    18
  1.5987049937823891E-01 a      1199     0    60     1    19
  1.7409613540124491E-01 a      1200     0    60     1    20
  6.6500664560108433E-02 a      1201     0    61     1     1
 -1.6343876600516668E-02 a      1202     0    61     1     2
  1.6260061134191886E-02 a      1203     0    61     1     3
 -7.3801397306747521E-02 a      1204     0    61     1     4
 -4.9617809301826347E-02 a      1205     0    61     1     5
  1.4830678093970545E-01 a      1206     0    61     1     6
  9.4331375069246770E-02 a      1207     0    61     1     7
 -3.1557318975309542E-02 a      1208     0    61     1     8
 -2.9026749417068641E-02 a      1209     0    61     1     9
 -3.4892935550218981E-02 a      1210     0    61     1    10
 -5.8062652743108983E-02 a      1211     0    61     1    11
 -2.4476694827580605E-02 a      1212     0    61     1    12
 -7.3461829452133830E-03 a      1213     0    61     1    13
  2.0362379918648886E-02 a      1214     0    61     1    14
 -1.8697580979839670E-01 a      1215     0    61     1    15
 -5.5345794046463725E-02 a      1216     0    61     1    16
  1.0013939325922487E-01 a      1217     0    61     1    17
 -1.1869674898048858E-01 a      1218     0    61     1    18
  1.7775287141922363E-02 a      1219     0    61     1    19
  2.6784020296580023E-02 a      1220     0    61     1    20
  1.3013419036758900E-02 a      1221     0    62     1     1
 -5.4991743515954178E-02 a      1222     0    62     1     2
 -9.3664574116311280E-02 a      1223     0    62     1     3
 -2.8588287911043703E-01 a      1224     0    62     1     4
  4.8921139707800376E-02 a      1225     0    62     1     5
  2.8877457572622295E-01 a      1226     0    62     1     6
 -1.5029902442777024E-01 a      1227     0    62     1     7
  8.9699194697881859E-02 a      1228     0    62     1     8
 -1.1117554356134159E-01 a      1229     0    62     1     9
 -6.9451393255879193E-02 a      1230     0    62     1    10
  3.3076611027457868E-02 a      1231     0    62     1    11
  1.9693535053295450E-02 a      1232     0    62     1    12
 -1.9998238842056325E-02 a      1233     0    62     1    13
 -1.5376010461834261E-01 a      1234     0    62     1    14
 -3.2529113476231851E-02 a      1235     0    62     1    15
 -8.5159199676609815E-02 a      1236     0    62     1    16
 -1.7887314680667843E-01 a      1237     0    62     1    17
 -3.0066750029896915E-02 a      1238     0    62     1    18
 -1.4558677027552935E-01 a      1239     0    62     1    19
  1.2478675659340042E-01 a      1240     0    62     1    20
  1.4055206843950430E-01 a      1241     0    63     1     1
 -7.9849722927440456E-02 a      1242     0    63     1     2
  6.2186393099064270E-02 a      1243     0    63     1     3
  1.7172724236753190E-01 a      1244     0    63     1     4
 -1.2454962222928795E-01 a      1245     0    63     1     5
 -1.5250678742094056E-01 a      1246     0    63     1     6
  8.7016220656713592E-02 a      1247     0    63     1     7
  8.9831696479250961E-02 a      1248     0    63     1     8
 -1.2937497391357028E-01 a      1249     0    63     1     9
  5.6718082811872794E-02 a      1250     0    63     1    10
 -4.1382196924946352E-02 a      1251     0    63     1    11
 -1.3686125101985979E-02 a      1252     0    63     1    12
  4.4428888578801444E-02 a      1253     0    63     1    13
  1.2322925080881118E-01 a      1254     0    63     1    14
 -6.2042129546646146E-02 a      1255     0    63     1    15
 -6.8818517194772638E-02 a      1256     0    63     1    16
  2.3978649867446258E-02 a      1257     0    63     1    17
  1.3073756647309565E-01 a      1258     0    63     1    18
 -6.2744077327361453E-02 a      1259     0    63     1    19
  3.5615716032581533E-02 a      1260     0    63     1    20
 -1.8132341844807630E-02 a      1261     0    64     1     1
  1.4847976903589520E-02 a      1262     0    64     1     2
  2.7725741718234127E-02 a      1263     0    64     1     3
 -9.6307890709925043E-03 a      1264     0    64     1     4
  1.3056054456857433E-02 a      1265     0    64     1     5
 -3.3803832827943824E-02 a      1266     0    64     1     6
 -2.1550352409268034E-02 a      1267     0    64     1     7
  1.1408740205604877E-02 a      1268     0    64     1     8
  7.1933668920069249E-02 a      1269     0    64     1     9
 -1.2789266600480018E-01 a      1270     0    64     1    10
  3.6336293607036697E-02 a      1271     0    64     1    11
  1.5892544274406759E-02 a      1272     0    64     1    12
 -3.1679712961138203E-02 a      1273     0    64     1    13
 -7.1476105629983189E-02 a      1274     0    64     1    14
  1.8979934346400831E-01 a      1275     0    64     1    15
  5.6863492283721902E-02 a      1276     0    64     1    16
 -1.6335444721413572E-01 a      1277     0    64     1    17
  1.4225015877769409E-01 a      1278     0    64     1    18
  9.2633586900597573E-02 a      1279     0    64     1    19
 -2.1035818860652908E-02 a      1280     0    64     1    20
 -1.6007502608013049E-01 a      1281     0    65     1     1
 -9.0864888227617457E-02 a      1282     0    65     1     2
 -6.4102229661543900E-02 a      1283     0    65     1     3
  3.5795622148035544E-01 a      1284     0    65     1     4
  3.0039944693249343E-01 a      1285     0    65     1     5
  2.7440353682094770E-01 a      1286     0    65     1     6
 -2.5089483047518313E-01 a      1287     0    65     1     7
  5.0637708024770800E-02 a      1288     0    65     1     8
 -1.6975610940289299E-01 a      1289     0    65     1     9
  1.6228921757908618E-01 a      1290     0    65     1    10
  4.3855394085231640E-02 a      1291     0    65     1    11
 -4.5264488181631375E-02 a      1292     0    65     1    12
 -3.5785960258552778E-03 a      1293     0    65     1    13
 -2.1386216483440837E-01 a      1294     0    65     1    14
 -1.2989482870801438E-02 a      1295     0    65     1    15
 -3.6080240344826620E-01 a      1296     0    65     1    16
  8.0869153598433677E-02 a      1297     0    65     1    17
  3.0383410694118063E-01 a      1298     0    65     1    18
 -8.0568799638194757E-02 a      1299     0    65     1    19
 -1.3127478595656858E-01 a      1300     0    65     1    20
 -5.8276558075415472E-02 a      1301     0    66     1     1
  1.2493825433620989E-01 a      1302     0    66     1     2
 -7.5225585626846031E-02 a      1303     0    66     1     3
 -2.0047976339132415E-01 a      1304     0    66     1     4
 -7.2545614200542688E-02 a      1305     0    66     1     5
 -2.1216310358708051E-01 a      1306     0    66     1     6
  2.2078033226006469E-01 a      1307     0    66     1     7
  4.7922272150438726E-02 a      1308     0    66     1     8
 -1.0695772418923115E-01 a      1309     0    66     1     9
 -3.7436818282197104E-01 a      1310     0    66     1    10
  3.1731292968499775E-01 a      1311     0    66     1    11
  7.7531058224122623E-02 a      1312     0    66     1    12
 -1.6671777646552652E-01 a      1313     0    66     1    13
  1.6802753115934788E-01 a      1314     0    66     1    14
 -1.3156097561880709E-01 a      1315     0    66     1    15
  4.5587827657421126E-01 a      1316     0    66     1    16
 -2.4633032817823042E-01 a      1317     0    66     1    17
  1.2460686222443551E-01 a      1318     0    66     1    18
  1.5288069313980790E-01 a      1319     0    66     1    19
  2.4334519565448054E-01 a      1320     0    66     1    20
  2.2074481725228863E-02 a      1321     0    67     1     1
  1.6862498166526413E-01 a      1322     0    67     1     2
  2.2832665787356085E-01 a      1323     0    67     1     3
  6.3915450250337791E-02 a      1324     0    67     1     4
 -2.3242322055334459E-02 a      1325     0    67     1     5
  2.4049175342593539E-02 a      1326     0    67     1     6
 -8.3180640032070055E-02 a      1327     0    67     1     7
 -2.6636641714685316E-01 a      1328     0    67     1     8
 -2.8098776796360980E-02 a      1329     0    67     1     9
 -1.9915602825643355E-01 a      1330     0    67     1    10
  4.3001953414103414E-02 a      1331     0    67     1    11
 -3.9584314237620294E-02 a      1332     0    67     1    12
 -7.8382969675482889E-02 a      1333     0    67     1    13
  6.3643287832945122E-02 a      1334     0    67     1    14
 -2.8032121184706987E-01 a      1335     0    67     1    15
 -4.2230895757869688E-02 a      1336     0    67     1    16
 -1.8329128495733881E-02 a      1337     0    67     1    17
 -1.8768796783003883E-01 a      1338     0    67     1    18
  1.0246834666704059E-01 a      1339     0    67     1    19
  1.4623555268183328E-01 a      1340     0    67     1    20
 -6.5930271645105787E-02 a      1341     0    68     1     1
  1.4381750714387800E-01 a      1342     0    68     1     2
 -3.0484857462426119E-02 a      1343     0    68     1     3
  1.6389610956548373E-01 a      1344     0    68     1     4
  1.1328971710237570E-01 a      1345     0    68     1     5
  3.4733674580524510E-02 a      1346     0    68     1     6
 -2.7672567002789134E-01 a      1347     0    68     1     7
 -8.3393200964220301E-02 a      1348     0    68     1     8
 -3.1915311873081731E-01 a      1349     0    68     1     9
  1.9313234859703923E-01 a      1350     0    68     1    10
  5.4908458547769566E-02 a      1351     0    68     1    11
 -1.0251396566795248E-01 a      1352     0    68     1    12
  5.9201372999350479E-02 a      1353     0    68     1    13
 -4.1698189701145624E-02 a      1354     0    68     1    14
  3.0016312696254821E-01 a      1355     0    68     1    15
 -1.1144960015897151E-01 a      1356     0    68     1    16
  7.9916890470463173E-02 a      1357     0    68     1    17
  2.5006485303763598E-01 a      1358     0    68     1    18
  3.2986582731569986E-02 a      1359     0    68     1    19
  1.0126135621248790E-01 a      1360     0    68     1    20
 -1.8711281444936625E-01 a      1361     0    69     1     1
 -2.9178119018012327E-02 a      1362     0    69     1     2
 -3.7778888109577823E-02 a      1363     0    69     1     3
  1.7523448530060404E-01 a      1364     0    69     1     4
  1.3756886144216590E-01 a      1365     0    69     1     5
 -8.7292944315362261E-02 a      1366     0    69     1     6
  3.4518444118701530E-02 a      1367     0    69     1     7
 -8.9335605938456446E-03 a      1368     0    69     1     8
  2.0249244637145275E-01 a      1369     0    69     1     9
  1.7145102130204651E-01 a      1370     0    69     1    10
 -1.1594926440425903E-03 a      1371     0    69     1    11
  2.0512295979467330E-02 a      1372     0    69     1    12
  1.4701812417338392E-01 a      1373     0    69     1    13
 -6.1790547529931558E-02 a      1374     0    69     1    14
  2.4171314489528856E-01 a      1375     0    69     1    15
  1.6315828885802108E-01 a      1376     0    69     1    16
  8.7828663725761522E-02 a      1377     0    69     1    17
  1.8793061620233742E-01 a      1378     0    69     1    18
 -1.8673871529836955E-01 a      1379     0    69     1    19
 -1.0300526896037417E-01 a      1380     0    69     1    20
 -2.3144533377952716E-02 a      1381     0    70     1     1
 -3.3797746681674373E-02 a      1382     0    70     1     2
  3.8703567737850053E-02 a      1383     0    70     1     3
  8.6908944578260455E-03 a      1384     0    70     1     4
  2.5359935472120915E-02 a      1385     0    70     1     5
 -9.9783406925009251E-03 a      1386     0    70     1     6
  3.3039983541918155E-03 a      1387     0    70     1     7
 -3.6586624120140313E-02 a      1388     0    70     1     8
 -6.9309612686214647E-02 a      1389     0    70     1     9
 -1.2938105892890829E-02 a      1390     0    70     1    10
 -3.1248686661173794E-02 a      1391     0    70     1    11
 -2.3543940143370023E-02 a      1392     0    70     1    12
 -3.5184101148481514E-02 a      1393     0    70     1    13
  8.8565529731560413E-02 a      1394     0    70     1    14
 -1.3907451487425507E-01 a      1395     0    70     1    15
 -1.6125137801566394E-02 a      1396     0    70     1    16
  6.3854137817675238E-02 a      1397     0    70     1    17
 -9.3302056493074340E-02 a      1398     0    70     1    18
  4.5910534645282323E-02 a      1399     0    70     1    19
  3.9218464749738502E-02 a      1400     0    70     1    20
 -2.6502479289536151E-03 a      1401     0    71     1     1
  9.5731330724430644E-02 a      1402     0    71     1     2
 -1.3975474629658752E-01 a      1403     0    71     1     3
  2.3270267840508244E-02 a      1404     0    71     1     4
  5.1474681468257767E-02 a      1405     0    71     1     5
  1.2028468592479278E-02 a      1406     0    71     1     6
  2.0883287735698730E-01 a      1407     0    71     1     7
  2.2319609902588705E-01 a      1408     0    71     1     8
 -2.1157930106180906E-02 a      1409     0    71     1     9
  3.6722786973486896E-02 a      1410     0    71     1    10
  3.4401788312330242E-03 a      1411     0    71     1    11
  2.8528154459180965E-01 a      1412     0    71     1    12
  2.7890957816603218E-01 a      1413     0    71     1    13
 -1.6538804647077122E-02 a      1414     0    71     1    14
 -1.0172171584402093E-02 a      1415     0    71     1    15
 -7.6968690963895622E-02 a      1416     0    71     1    16
 -2.1720317478212145E-01 a      1417     0    71     1    17
 -4.3050011128054740E-02 a      1418     0    71     1    18
 -1.1433708872314188E-01 a      1419     0    71     1    19
  1.1696508578927013E-01 a      1420     0    71     1    20
 -3.0265623686265286E-02 a      1421     0    72     1     1
  1.7559989477435109E-01 a      1422     0    72     1     2
  1.7008576773904903E-02 a      1423     0    72     1     3
  4.7497080458406074E-02 a      1424     0    72     1     4
 -9.8864259824229389E-03 a      1425     0    72     1     5
  6.8174722956043876E-02 a      1426     0    72     1     6
  1.4952510822358199E-02 a      1427     0    72     1     7
 -2.4694137319621449E-02 a      1428     0    72     1     8
  8.5527693054979037E-02 a      1429     0    72     1     9
 -1.1713732805720757E-01 a      1430     0    72     1    10
  5.6827126466675600E-02 a      1431     0    72     1    11
  5.1865243487295966E-02 a      1432     0    72     1    12
 -7.1867901269686276E-03 a      1433     0    72     1    13
 -6.2563005197066771E-02 a      1434     0    72     1    14
  7.6681619436588550E-02 a      1435     0    72     1    15
  8.1444855939449556E-02 a      1436     0    72     1    16
 -3.8671165278391234E-02 a      1437     0    72     1    17
  3.5721593325717060E-02 a      1438     0    72     1    18
  6.0960330914663928E-02 a      1439     0    72     1    19
 -3.6382419622585357E-02 a      1440     0    72     1    20
  5.5919950481416174E-02 a      1441     0    73     1     1
  6.5628222839607744E-02 a      1442     0    73     1     2
 -4.4984391852619536E-02 a      1443     0    73     1     3
 -1.6049195734513888E-01 a      1444     0    73     1     4
  1.6688530718894236E-02 a      1445     0    73     1     5
 -1.1972488116787991E-01 a      1446     0    73     1     6
  1.2770422610079726E-01 a      1447     0    73     1     7
 -6.4390957627077278E-02 a      1448     0    73     1     8
  4.0849743583405776E-02 a      1449     0    73     1     9
  1.8284953469490234E-01 a      1450     0    73     1    10
 -1.2068667055663751E-02 a      1451     0    73     1    11
 -4.0346449573170507E-03 a      1452     0    73     1    12
  2.0451319333352994E-01 a      1453     0    73     1    13
 -6.7917343407535398E-03 a      1454     0    73     1    14
 -7.3639964087210824E-03 a      1455     0    73     1    15
 -8.9557595372146928E-02 a      1456     0    73     1    16
  1.3259371565807967E-01 a      1457     0    73     1    17
 -2.2996667572408666E-01 a      1458     0    73     1    18
  1.4175351889728592E-02 a      1459     0    73     1    19
  6.0877053956283379E-02 a      1460     0    73     1    20
 -1.9338098794362527E-01 a      1461     0    74     1     1
 -1.2069880988545149E-01 a      1462     0    74     1     2
 -1.4846281107020810E-02 a      1463     0    74     1     3
 -9.2470900774505052E-02 a      1464     0    74     1     4
  6.9520239701461997E-02 a      1465     0    74     1     5
 -7.3483941938569775E-02 a      1466     0    74     1     6
  8.0766863755351442E-02 a      1467     0    74     1     7
 -1.4953056729535563E-01 a      1468     0    74     1     8
 -1.5252243452156081E-01 a      1469     0    74     1     9
  7.4547925857372022E-02 a      1470     0    74     1    10
 -1.4971864434211182E-01 a      1471     0    74     1    11
 -6.7509927389132031E-03 a      1472     0    74     1    12
  1.2157612393923503E-01 a      1473     0    74     1    13
 -1.6798601378077330E-01 a      1474     0    74     1    14
  2.5603572580348044E-01 a      1475     0    74     1    15
 -3.1284848287745005E-02 a      1476     0    74     1    16
  1.3608780537953022E-01 a      1477     0    74     1    17
 -1.6558530328128596E-01 a      1478     0    74     1    18
 -1.1982071063885009E-02 a      1479     0    74     1    19
 -5.8780953321172495E-02 a      1480     0    74     1    20
  1.2598543179792285E-01 a      1481     0    75     1     1
 -7.9156498043784131E-03 a      1482     0    75     1     2
 -6.7306204883451862E-02 a      1483     0    75     1     3
  6.8487399145671882E-02 a      1484     0    75     1     4
 -1.5995994033421604E-01 a      1485     0    75     1     5
 -2.1027845228384248E-01 a      1486     0    75     1     6
  2.7974532206642855E-01 a      1487     0    75     1     7
  1.8520295040577614E-01 a      1488     0    75     1     8
  9.5089861905022957E-02 a      1489     0    75     1     9
  1.6022182939022700E-01 a      1490     0    75     1    10
 -4.1291180073408151E-02 a      1491     0    75     1    11
 -1.1451928492561816E-01 a      1492     0    75     1    12
  1.3896464741050835E-01 a      1493     0    75     1    13
 -4.2748464886427796E-03 a      1494     0    75     1    14
 -1.0494114410101275E-02 a      1495     0    75     1    15
  3.7144418759334763E-01 a      1496     0    75     1    16
 -1.7920861223920159E-01 a      1497     0    75     1    17
  2.6689840506026560E-02 a      1498     0    75     1    18
  4.7576515057757868E-02 a      1499     0    75     1    19
 -8.2603928879589009E-03 a      1500     0    75     1    20
  4.7262535233809716E-02 a      1501     0    76     1     1
  1.5106060586374553E-01 a      1502     0    76     1     2
 -2.2167746672785395E-02 a      1503     0    76     1     3
  2.6331993232601725E-01 a      1504     0    76     1     4
  8.6312481288817786E-02 a      1505     0    76     1     5
 -8.4107347317761878E-03 a      1506     0    76     1     6
 -3.3912025506453408E-01 a      1507     0    76     1     7
  4.8031541494130983E-02 a      1508     0    76     1     8
  3.2848764520155338E-01 a      1509     0    76     1     9
  1.1507948590715457E-01 a      1510     0    76     1    10
 -1.2088490595986331E-01 a      1511     0    76     1    11
  3.9031466706267490E-02 a      1512     0    76     1    12
  1.9529086185696426E-01 a      1513     0    76     1    13
 -2.0540095794938235E-01 a      1514     0    76     1    14
  1.9859579243105302E-01 a      1515     0    76     1    15
 -1.7933689550513063E-01 a      1516     0    76     1    16
  3.5786996762157552E-01 a      1517     0    76     1    17
  4.2494082471803646E-01 a      1518     0    76     1    18
  2.8987449774852031E-01 a      1519     0    76     1    19
  1.4247987265410302E-02 a      1520     0    76     1    20
  1.6692022943302257E-02 a      1521     0    77     1     1
 -1.8091782630986056E-02 a      1522     0    77     1     2
  6.9043539328240783E-02 a      1523     0    77     1     3
  5.6540451374835543E-02 a      1524     0    77     1     4
  3.8656964519931745E-02 a      1525     0    77     1     5
 -1.3807418271023424E-02 a      1526     0    77     1     6
 -4.9262557219431201E-02 a      1527     0    77     1     7
  4.2728473479807225E-02 a      1528     0    77     1     8
  1.9625334866154177E-02 a      1529     0    77     1     9
  5.2921911661955624E-02 a      1530     0    77     1    10
  3.8771404318103442E-02 a      1531     0    77     1    11
 -1.2884921246140052E-02 a      1532     0    77     1    12
  8.4121954138667229E-03 a      1533     0    77     1    13
 -5.6113722400961803E-02 a      1534     0    77     1    14
  8.3520008210968819E-02 a      1535     0    77     1    15
 -6.8162152077177796E-02 a      1536     0    77     1    16
 -8.9956137996965682E-02 a      1537     0    77     1    17
 -4.1864349372027362E-02 a      1538     0    77     1    18
 -2.5064099214742934E-03 a      1539     0    77     1    19
  9.8066773417561218E-02 a      1540     0    77     1    20
 -2.1088613991915434E-01 a      1541     0    78     1     1
 -2.6166510191745918E-01 a      1542     0    78     1     2
 -8.4613911150376989E-02 a      1543     0    78     1     3
 -1.4959300360446226E-01 a      1544     0    78     1     4
  2.5000594072763255E-01 a      1545     0    78     1     5
 -1.9470810465728364E-01 a      1546     0    78     1     6
  3.9987920397275434E-01 a      1547     0    78     1     7
  1.4504452716664701E-01 a      1548     0    78     1     8
  2.9302643436379699E-01 a      1549     0    78     1     9
 -3.5253164568077609E-02 a      1550     0    78     1    10
 -7.8619051212851301E-02 a      1551     0    78     1    11
  2.0653575809349795E-01 a      1552     0    78     1    12
 -5.3252782755342953E-02 a      1553     0    78     1    13
  1.8801739914209001E-01 a      1554     0    78     1    14
 -6.4092303587217472E-02 a      1555     0    78     1    15
  1.1860027406997001E-01 a      1556     0    78     1    16
  1.6306001148447405E-01 a      1557     0    78     1    17
 -2.2226827421427647E-01 a      1558     0    78     1    18
 -1.7555357208226033E-01 a      1559     0    78     1    19
  1.6008854952288987E-01 a      1560     0    78     1    20
 -1.6839230917357156E-02 a      1561     0    79     1     1
  1.8868841691159408E-02 a      1562     0    79     1     2
 -6.4318197714420974E-02 a      1563     0    79     1     3
  8.0847216767621841E-02 a      1564     0    79     1     4
 -8.2296049127587798E-02 a      1565     0    79     1     5
  1.4154882488140105E-01 a      1566     0    79     1     6
 -9.2904427756304572E-02 a      1567     0    79     1     7
 -7.9600163658933423E-02 a      1568     0    79     1     8
  4.9843981279048155E-02 a      1569     0    79     1     9
 -5.6068086418527834E-02 a      1570     0    79     1    10
 -3.6405566349564746E-02 a      1571     0    79     1    11
  2.4025092866305928E-02 a      1572     0    79     1    12
 -6.4828244637601284E-02 a      1573     0    79     1    13
  1.9851338512653771E-01 a      1574     0    79     1    14
 -1.3043282920242419E-01 a      1575     0    79     1    15
  5.0109103786565044E-02 a      1576     0    79     1    16
  3.2006910975670128E-02 a      1577     0    79     1    17
  4.3284701836051112E-02 a      1578     0    79     1    18
 -1.3543790241152312E-01 a      1579     0    79     1    19
 -7.9166978524233739E-02 a      1580     0    79     1    20
  4.7041726804594813E-02 a      1581     0    80     1     1
  9.4403663295651613E-02 a      1582     0    80     1     2
  1.9020784158564952E-02 a      1583     0    80     1     3
  8.3221182872573199E-02 a      1584     0    80     1     4
  9.7447167231282054E-03 a      1585     0    80     1     5
  6.7806083633846104E-02 a      1586     0    80     1     6
 -5.9529612760752821E-03 a      1587     0    80     1     7
  3.4298053015839998E-02 a      1588     0    80     1     8
  4.2805497538344707E-02 a      1589     0    80     1     9
  7.5906789543113320E-02 a      1590     0    80     1    10
 -7.6481849714384806E-02 a      1591     0    80     1    11
 -1.1480781461951706E-01 a      1592     0    80     1    12
 -5.7957374232945023E-02 a      1593     0    80     1    13
 -3.3475330220247442E-03 a      1594     0    80     1    14
 -1.4669406847853392E-01 a      1595     0    80     1    15
 -1.1350835473163368E-01 a      1596     0    80     1    16
  1.7966173510206806E-02 a      1597     0    80     1    17
  7.8972587316800485E-02 a      1598     0    80     1    18
 -1.7907999378335140E-01 a      1599     0    80     1    19
 -4.7799299776622818E-02 a      1600     0    80     1    20
 -6.5078362787797652E-03 b      1601     1     1
  1.1087421167888107E+00 b      1602     1     2
 -1.0735110409785793E+00 b      1603     1     3
 -3.4636075260788102E-01 b      1604     1     4
  3.5487824970473364E-01 b      1605     1     5
 -1.0986996833806557E+00 b      1606     1     6
  1.3081004943493240E+00 b      1607     1     7
 -4.2794664633517526E-01 b      1608     1     8
 -8.5851230660240041E-01 b      1609     1     9
  8.6949788803338490E-01 b      1610     1    10
 -7.1964494239614951E-01 b      1611     1    11
  1.3998401700136158E+00 b      1612     1    12
  5.5705693100986975E-01 b      1613     1    13
  1.1448526094165783E+00 b      1614     1    14
  9.0356854153255750E-01 b      1615     1    15
 -2.3412634680543576E-01 b      1616     1    16
 -5.8409378406356727E-01 b      1617     1    17
  1.0904771213919673E+00 b      1618     1    18
  2.7566233378985006E-01 b      1619     1    19
  4.1239452896815837E-01 b      1620     1    20
 -5.1803047793449374E-02 a      1621     1     1     2     1
 -1.5187732997014800E-01 a      1622     1     1     2     2
 -8.7465309068220476E-02 a      1623     1     1     2     3
  7.2389408319935422E-01 a      1624     1     1     2     4
 -3.3682947984104183E-01 a      1625     1     1     2     5
 -3.7714882853607683E-02 a      1626     1     1     2     6
 -5.1626921595778563E-01 a      1627     1     1     2     7
