################################################################################
# Neural network connection values (weights and biases).
################################################################################
# Col  Name       Description
################################################################################
# 1    connection Neural network connection value.
# 2    t          Connection type (a = weight, b = bias).
# 3    index      Index enumerating weights.
# 4    l_s        Starting point layer (end point layer for biases).
# 5    n_s        Starting point neuron in starting layer (end point neuron for biases).
# 6    l_e        End point layer.
# 7    n_e        End point neuron in end layer.
################################################################################
#                      1 2         3     4     5     6     7
#             connection t     index   l_s   n_s   l_e   n_e
############################################################
 -2.3663731554673359E-01 a         1     0     1     1     1
  1.1857992170430218E-01 a         2     0     1     1     2
  2.8455434389121664E-02 a         3     0     1     1     3
  5.6582319629536559E-01 a         4     0     1     1     4
 -1.5833723017508042E-01 a         5     0     1     1     5
  4.7891293763210402E-01 a         6     0     1     1     6
 -9.9383105054465973E-02 a         7     0     1     1     7
  8.0703016258545229E-03 a         8     0     1     1     8
  1.5218298248576295E-01 a         9     0     1     1     9
  1.8150125476627965E-01 a        10     0     1     1    10
 -3.4507291172296978E-01 a        11     0     1     1    11
 -6.5150130938296447E-01 a        12     0     1     1    12
 -8.0257798915220183E-02 a        13     0     1     1    13
  4.1602577379821953E-01 a        14     0     1     1    14
 -1.8111984562260033E-01 a        15     0     1     1    15
 -2.3951991156560288E-02 a        16     0     1     1    16
 -5.2284961608801618E-02 a        17     0     1     1    17
 -2.6575579550075505E+00 a        18     0     1     1    18
 -6.9180292935582177E-01 a        19     0     1     1    19
 -4.7028210581017575E-02 a        20     0     1     1    20
 -2.3479921823024941E-01 a        21     0     2     1     1
  1.8585687067018575E-01 a        22     0     2     1     2
 -1.1215236794991856E-01 a        23     0     2     1     3
  1.0269487812695056E-01 a        24     0     2     1     4
  1.4088606799144358E-02 a        25     0     2     1     5
  1.1060358731152323E-01 a        26     0     2     1     6
 -1.9883563970333856E-01 a        27     0     2     1     7
  9.8526756107576594E-02 a        28     0     2     1     8
 -1.1872089867470502E-01 a        29     0     2     1     9
  1.0421420391685440E-01 a        30     0     2     1    10
 -3.4903292238718790E-02 a        31     0     2     1    11
  1.4171239249354625E-01 a        32     0     2     1    12
  1.3922451752121912E-01 a        33     0     2     1    13
 -1.1450232218675348E-01 a        34     0     2     1    14
  2.3005181234804065E-01 a        35     0     2     1    15
  8.3417033233832760E-02 a        36     0     2     1    16
  7.7149999264122568E-02 a        37     0     2     1    17
  5.5560714258025327E-02 a        38     0     2     1    18
 -5.0567293392073560E-02 a        39     0     2     1    19
 -2.0989917813470211E-03 a        40     0     2     1    20
  2.3910366119830023E-02 a        41     0     3     1     1
 -2.4452624166642933E-01 a        42     0     3     1     2
 -8.4245008646411920E-02 a        43     0     3     1     3
  7.8935783997810798E-03 a        44     0     3     1     4
  6.1051341045702277E-02 a        45     0     3     1     5
 -9.8184580997750137E-04 a        46     0     3     1     6
 -1.5152821698179328E-01 a        47     0     3     1     7
 -4.9606996958071761E-02 a        48     0     3     1     8
 -1.0368254618188111E-01 a        49     0     3     1     9
 -1.6144152223529590E-01 a        50     0     3     1    10
 -1.0057885961360367E-01 a        51     0     3     1    11
 -1.1091110212288301E-01 a        52     0     3     1    12
  5.5160784518496410E-02 a        53     0     3     1    13
  1.3408714503566238E-02 a        54     0     3     1    14
  9.0622424093389317E-02 a        55     0     3     1    15
  1.4203394720431617E-01 a        56     0     3     1    16
  2.8791509621847008E-02 a        57     0     3     1    17
 -2.6036382872922106E-03 a        58     0     3     1    18
 -6.4155997036444597E-03 a        59     0     3     1    19
  1.6188037420977958E-01 a        60     0     3     1    20
 -4.0722839992722143E-01 a        61     0     4     1     1
  2.8661162060597739E-02 a        62     0     4     1     2
  1.0049324705737881E+00 a        63     0     4     1     3
  2.5812402636586229E-01 a        64     0     4     1     4
  4.1374443883830253E-01 a        65     0     4     1     5
  6.9932364368528455E-01 a        66     0     4     1     6
  1.0894607492576662E-01 a        67     0     4     1     7
  4.4141197544198552E-01 a        68     0     4     1     8
 -2.0894086652713861E-01 a        69     0     4     1     9
  8.0493266923299445E-01 a        70     0     4     1    10
  4.5056767864943764E-01 a        71     0     4     1    11
  1.1515635156539803E+00 a        72     0     4     1    12
 -4.5094423008832603E-02 a        73     0     4     1    13
  4.5826033357926413E-02 a        74     0     4     1    14
  2.0045140513634947E+00 a        75     0     4     1    15
  1.3089863552385922E-01 a        76     0     4     1    16
  3.6317009562732994E-01 a        77     0     4     1    17
 -4.1304239333495751E-02 a        78     0     4     1    18
 -7.1579805928089768E-01 a        79     0     4     1    19
 -1.2407693783832479E+00 a        80     0     4     1    20
  5.1192929299743262E-01 a        81     0     5     1     1
 -5.1461504783119050E-01 a        82     0     5     1     2
 -7.4195723442482459E-02 a        83     0     5     1     3
  1.2924112766486018E+00 a        84     0     5     1     4
  4.5455603265278949E-01 a        85     0     5     1     5
 -9.4207027347554817E-01 a        86     0     5     1     6
 -5.1833119567061714E-02 a        87     0     5     1     7
 -1.7124166688781844E-01 a        88     0     5     1     8
 -3.7847285549718457E-01 a        89     0     5     1     9
  1.0833455101796984E-01 a        90     0     5     1    10
 -1.1401047861862827E-02 a        91     0     5     1    11
  6.3020477964715960E-01 a        92     0     5     1    12
  7.1222562068944884E-01 a        93     0     5     1    13
 -3.5870920393682798E-01 a        94     0     5     1    14
  2.3980244684599641E-01 a        95     0     5     1    15
  9.7257284291357193E-01 a        96     0     5     1    16
 -2.4943346276378561E-02 a        97     0     5     1    17
  2.0410614450787166E+00 a        98     0     5     1    18
  6.5990709309769580E-01 a        99     0     5     1    19
  5.3039773646147692E-01 a       100     0     5     1    20
  9.1673951622960506E-02 a       101     0     6     1     1
 -3.9089563412802036E-02 a       102     0     6     1     2
 -2.9820222147173149E-02 a       103     0     6     1     3
  3.5426605611785184E-01 a       104     0     6     1     4
 -1.4616398920993373E-01 a       105     0     6     1     5
  1.2880419402218254E-01 a       106     0     6     1     6
  1.1971062790485271E-01 a       107     0     6     1     7
  1.2143898775919616E-01 a       108     0     6     1     8
  3.9301925890223258E-02 a       109     0     6     1     9
 -1.1638692363708555E-01 a       110     0     6     1    10
  1.8939333119798341E-01 a       111     0     6     1    11
 -3.6627295005253808E-02 a       112     0     6     1    12
  1.4016710708699823E-02 a       113     0     6     1    13
 -2.3667389997883823E-01 a       114     0     6     1    14
 -4.3894969494004127E-01 a       115     0     6     1    15
 -1.9287010232236959E-01 a       116     0     6     1    16
 -1.5752056729746219E-01 a       117     0     6     1    17
 -1.3106040830284021E-01 a       118     0     6     1    18
 -1.6539072035612748E-01 a       119     0     6     1    19
 -8.5744093601217514E-02 a       120     0     6     1    20
 -1.2617627885118150E-02 a       121     0     7     1     1
 -1.1220829816053188E-01 a       122     0     7     1     2
  9.6465208048472834E-02 a       123     0     7     1     3
 -2.4785707610964899E-01 a       124     0     7     1     4
 -7.8037818600780032E-02 a       125     0     7     1     5
 -7.1173006540020151E-02 a       126     0     7     1     6
  2.3229964851181703E-01 a       127     0     7     1     7
  6.7728897941325888E-02 a       128     0     7     1     8
 -1.9531629389723279E-01 a       129     0     7     1     9
  6.7779231178949059E-02 a       130     0     7     1    10
  2.8295842449267322E-01 a       131     0     7     1    11
  5.6302835815784415E-02 a       132     0     7     1    12
 -1.8534119417767150E-01 a       133     0     7     1    13
  1.0854543381344893E-01 a       134     0     7     1    14
 -8.3790492631330121E-02 a       135     0     7     1    15
 -4.0939079997709828E-02 a       136     0     7     1    16
  1.3601972412869498E-01 a       137     0     7     1    17
  2.0292420267213490E-01 a       138     0     7     1    18
 -1.7290042315702395E-01 a       139     0     7     1    19
  1.1849642659551503E-01 a       140     0     7     1    20
 -1.7693632274417847E-02 a       141     0     8     1     1
  2.1846232926963513E-01 a       142     0     8     1     2
 -1.9885069226194494E+00 a       143     0     8     1     3
 -1.1842582194354657E-01 a       144     0     8     1     4
  2.5597118842105371E-01 a       145     0     8     1     5
 -2.3070158930804519E-01 a       146     0     8     1     6
 -5.9182191033193821E-01 a       147     0     8     1     7
 -7.8874654073120698E-01 a       148     0     8     1     8
  9.8663519752612491E-02 a       149     0     8     1     9
 -1.5153862289445839E+00 a       150     0     8     1    10
 -7.5149846509392670E-01 a       151     0     8     1    11
 -1.4959735577441122E+00 a       152     0     8     1    12
  2.7661140568868592E-01 a       153     0     8     1    13
 -6.2203746819882444E-01 a       154     0     8     1    14
 -2.4803425350102644E+00 a       155     0     8     1    15
 -3.4498611754066644E-01 a       156     0     8     1    16
 -3.6054045860495737E-01 a       157     0     8     1    17
  3.9314211875569105E-01 a       158     0     8     1    18
  3.5351041274933576E-02 a       159     0     8     1    19
  3.0246145778176294E+00 a       160     0     8     1    20
 -2.9673042989398302E-01 a       161     0     9     1     1
  4.3547178955557742E-01 a       162     0     9     1     2
 -3.0587240175275421E-01 a       163     0     9     1     3
 -9.9222235948322102E-01 a       164     0     9     1     4
 -1.6133873179785149E-01 a       165     0     9     1     5
  4.7351451170813380E-01 a       166     0     9     1     6
 -1.7461281773128870E-01 a       167     0     9     1     7
 -2.1323998728045068E-01 a       168     0     9     1     8
 -2.9687817964404045E-01 a       169     0     9     1     9
 -3.6672097259323128E-01 a       170     0     9     1    10
  3.1557321544000316E-01 a       171     0     9     1    11
 -4.1285477382258395E-01 a       172     0     9     1    12
 -9.0667799865088694E-01 a       173     0     9     1    13
  7.3891637849185776E-01 a       174     0     9     1    14
  7.4844546138512560E-02 a       175     0     9     1    15
 -9.4249588812444329E-01 a       176     0     9     1    16
  5.9455546848009966E-01 a       177     0     9     1    17
  5.3398012002941087E-01 a       178     0     9     1    18
  4.3361703568100807E-01 a       179     0     9     1    19
 -5.4601392661715886E-01 a       180     0     9     1    20
 -2.0176438159391193E-02 a       181     0    10     1     1
  1.2071481633940867E-01 a       182     0    10     1     2
 -5.7428856893213288E-02 a       183     0    10     1     3
 -1.8645326603619047E-01 a       184     0    10     1     4
 -2.0871635275468578E-01 a       185     0    10     1     5
 -5.9344792933224588E-02 a       186     0    10     1     6
  1.0699439286803636E-01 a       187     0    10     1     7
  1.4415590926389302E-01 a       188     0    10     1     8
 -4.9062640990016899E-02 a       189     0    10     1     9
  2.7726390282961322E-01 a       190     0    10     1    10
  8.0077961113863266E-03 a       191     0    10     1    11
 -2.5599930895098383E-01 a       192     0    10     1    12
 -1.7736645920901652E-02 a       193     0    10     1    13
  5.9805693147301893E-02 a       194     0    10     1    14
  2.4506226236297529E-01 a       195     0    10     1    15
  1.3074396537866043E-01 a       196     0    10     1    16
  2.0592060355126326E-01 a       197     0    10     1    17
 -8.4117038397509816E-04 a       198     0    10     1    18
 -1.1359590140490160E-02 a       199     0    10     1    19
  1.1513657468426084E-02 a       200     0    10     1    20
 -7.9622124903637390E-02 a       201     0    11     1     1
  1.8914878585150166E-01 a       202     0    11     1     2
 -2.9148470632401086E-02 a       203     0    11     1     3
  2.6983854073798372E-02 a       204     0    11     1     4
  3.0147934493342005E-01 a       205     0    11     1     5
 -9.6556270727778643E-02 a       206     0    11     1     6
 -2.3719474238417521E-01 a       207     0    11     1     7
 -1.0261668491872284E-02 a       208     0    11     1     8
  2.2126247455585948E-01 a       209     0    11     1     9
  6.6138665759568380E-02 a       210     0    11     1    10
 -2.2761672125197002E-02 a       211     0    11     1    11
  1.3364343561825656E-02 a       212     0    11     1    12
  4.5603677992983288E-02 a       213     0    11     1    13
 -7.3300386751936633E-02 a       214     0    11     1    14
  1.6262197550957039E-01 a       215     0    11     1    15
  1.1448976558043542E-01 a       216     0    11     1    16
 -2.0656690133508265E-01 a       217     0    11     1    17
 -9.3021536052907305E-02 a       218     0    11     1    18
  6.4180249362253777E-02 a       219     0    11     1    19
  2.6528167260822849E-01 a       220     0    11     1    20
  2.9970491812547206E-01 a       221     0    12     1     1
 -1.2985065951370672E-01 a       222     0    12     1     2
  1.6504561405445382E+00 a       223     0    12     1     3
  3.0517286192997051E-01 a       224     0    12     1     4
 -3.8666375640943451E-01 a       225     0    12     1     5
  6.0565198840200327E-02 a       226     0    12     1     6
  2.3402755281770604E-01 a       227     0    12     1     7
  5.2761890904057052E-01 a       228     0    12     1     8
  2.6493543829143137E-02 a       229     0    12     1     9
  6.0133030198277915E-01 a       230     0    12     1    10
  6.9715053676694150E-01 a       231     0    12     1    11
 -2.2247693489814063E-02 a       232     0    12     1    12
 -2.1901701835304016E-02 a       233     0    12     1    13
  4.9557783486875012E-01 a       234     0    12     1    14
  2.3173894997873448E+00 a       235     0    12     1    15
  1.5861046231655279E-01 a       236     0    12     1    16
  2.0731378503439757E-02 a       237     0    12     1    17
  8.5838227491844665E-02 a       238     0    12     1    18
 -3.8936077220246840E-01 a       239     0    12     1    19
 -1.4575343586954383E+00 a       240     0    12     1    20
  2.8514618501034422E-01 a       241     0    13     1     1
 -1.0152936435832845E-02 a       242     0    13     1     2
  4.3396531991649173E-01 a       243     0    13     1     3
  3.8618621203319409E-01 a       244     0    13     1     4
  8.3215243691596052E-02 a       245     0    13     1     5
  7.3738392149074239E-01 a       246     0    13     1     6
 -1.3750741443459525E-02 a       247     0    13     1     7
  3.8736679380395700E-01 a       248     0    13     1     8
 -1.4725616118233659E-01 a       249     0    13     1     9
  1.8079083433616122E-01 a       250     0    13     1    10
 -3.9423613768670068E-02 a       251     0    13     1    11
 -1.8829661797287325E-01 a       252     0    13     1    12
  6.2495957061396923E-01 a       253     0    13     1    13
  5.3023325373819918E-01 a       254     0    13     1    14
 -5.5722377709643245E-01 a       255     0    13     1    15
  4.4681146759027415E-02 a       256     0    13     1    16
  1.4115941533791720E-01 a       257     0    13     1    17
 -1.3985447170770053E+00 a       258     0    13     1    18
 -4.5821815460815873E-02 a       259     0    13     1    19
  2.6142988014819443E-02 a       260     0    13     1    20
 -3.6432916514522663E-02 a       261     0    14     1     1
 -1.6595417056482872E-01 a       262     0    14     1     2
  2.4211359827456543E-02 a       263     0    14     1     3
  1.9068890596336541E-01 a       264     0    14     1     4
  4.6988403986806732E-02 a       265     0    14     1     5
  1.3378341211991918E-01 a       266     0    14     1     6
 -2.5961293985485245E-01 a       267     0    14     1     7
 -1.7598681669268687E-01 a       268     0    14     1     8
 -3.3250358304478034E-02 a       269     0    14     1     9
 -1.6764428257413697E-01 a       270     0    14     1    10
 -1.7042658374201125E-01 a       271     0    14     1    11
 -1.4668978603079447E-01 a       272     0    14     1    12
  2.1302522479477226E-01 a       273     0    14     1    13
  4.6069257816254636E-02 a       274     0    14     1    14
 -2.1340032845220908E-01 a       275     0    14     1    15
  7.1448964646398549E-02 a       276     0    14     1    16
 -2.3035691697308427E-02 a       277     0    14     1    17
  1.3213355850743452E-01 a       278     0    14     1    18
  1.6990414410011678E-01 a       279     0    14     1    19
 -3.3596116217226751E-01 a       280     0    14     1    20
  3.2777932732095899E-01 a       281     0    15     1     1
 -3.0550740694774975E-01 a       282     0    15     1     2
  1.0236627418986649E-01 a       283     0    15     1     3
 -2.3688982562950181E-01 a       284     0    15     1     4
 -1.2053726749229093E-01 a       285     0    15     1     5
 -2.1130689060528038E-01 a       286     0    15     1     6
  4.9744779783038928E-02 a       287     0    15     1     7
  1.4508164436886725E-01 a       288     0    15     1     8
 -2.4053281375612298E-01 a       289     0    15     1     9
  5.0476138357839102E-02 a       290     0    15     1    10
 -8.6742891835792785E-02 a       291     0    15     1    11
  1.1906327097518437E-03 a       292     0    15     1    12
 -9.1139389622759359E-02 a       293     0    15     1    13
 -1.6954424651713393E-01 a       294     0    15     1    14
 -3.5306900815226593E-04 a       295     0    15     1    15
  5.1953913451753264E-02 a       296     0    15     1    16
 -3.7525622508349836E-02 a       297     0    15     1    17
 -1.9753946777519094E-01 a       298     0    15     1    18
 -3.2311887135029818E-02 a       299     0    15     1    19
  2.0249190830088765E-02 a       300     0    15     1    20
 -1.6147507813378001E-01 a       301     0    16     1     1
 -5.7341050016501910E-03 a       302     0    16     1     2
 -6.6939909732160363E-01 a       303     0    16     1     3
 -3.5255033649284750E-01 a       304     0    16     1     4
  5.1251884884777776E-01 a       305     0    16     1     5
 -2.4510359977287188E-01 a       306     0    16     1     6
 -2.5428192917668851E-01 a       307     0    16     1     7
 -1.2496955058317955E-01 a       308     0    16     1     8
 -1.0035763984656448E-01 a       309     0    16     1     9
  9.4086358111982338E-01 a       310     0    16     1    10
 -4.4842872246223298E-01 a       311     0    16     1    11
  6.3916347846331323E-01 a       312     0    16     1    12
 -2.4547737605006875E-01 a       313     0    16     1    13
 -1.0803238380883837E-01 a       314     0    16     1    14
 -1.6140751489231375E+00 a       315     0    16     1    15
  2.0960615071369310E-01 a       316     0    16     1    16
  1.7817386434857832E-01 a       317     0    16     1    17
 -3.0173287409049654E-01 a       318     0    16     1    18
 -3.3153267529403180E-01 a       319     0    16     1    19
 -6.1165048610276740E-01 a       320     0    16     1    20
 -2.0793910743585095E-02 a       321     0    17     1     1
 -2.5906222014369179E-01 a       322     0    17     1     2
 -5.9828805936709473E-01 a       323     0    17     1     3
  1.0872626462785231E+00 a       324     0    17     1     4
 -1.5059176591906021E-01 a       325     0    17     1     5
 -6.1446288771786395E-01 a       326     0    17     1     6
 -8.9747690012140613E-02 a       327     0    17     1     7
 -3.1588949270821354E-01 a       328     0    17     1     8
  2.3805303151401594E-01 a       329     0    17     1     9
  3.2510589373297555E-01 a       330     0    17     1    10
 -4.7555437249982813E-01 a       331     0    17     1    11
  1.0800290251617246E-01 a       332     0    17     1    12
 -9.7604712960701695E-02 a       333     0    17     1    13
 -5.1922604079264467E-01 a       334     0    17     1    14
  7.4854423179229568E-01 a       335     0    17     1    15
  6.4053965571319860E-01 a       336     0    17     1    16
 -4.9106145086972353E-01 a       337     0    17     1    17
  2.5419878885250863E-01 a       338     0    17     1    18
 -3.2990562948875535E-01 a       339     0    17     1    19
  2.7316601628027887E-01 a       340     0    17     1    20
 -9.0552903540851160E-02 a       341     0    18     1     1
  7.1964470078183046E-02 a       342     0    18     1     2
 -2.2752277694948664E-01 a       343     0    18     1     3
  5.1171557651084700E-02 a       344     0    18     1     4
 -1.3496141489399022E-01 a       345     0    18     1     5
  1.1774128281849619E-01 a       346     0    18     1     6
 -7.0483118130208564E-02 a       347     0    18     1     7
  1.9930678477942670E-01 a       348     0    18     1     8
  7.5314179859624367E-02 a       349     0    18     1     9
  1.6154303427078659E-01 a       350     0    18     1    10
  1.2480456932127050E-01 a       351     0    18     1    11
  7.9346102790723391E-02 a       352     0    18     1    12
  2.7531504139197839E-02 a       353     0    18     1    13
 -6.2998591490889599E-02 a       354     0    18     1    14
  8.6145357744814646E-02 a       355     0    18     1    15
 -4.7874650513290207E-02 a       356     0    18     1    16
 -5.9832328098091608E-02 a       357     0    18     1    17
  2.0392254255844344E-02 a       358     0    18     1    18
 -2.4109081633404267E-02 a       359     0    18     1    19
  4.7020607844288249E-03 a       360     0    18     1    20
 -8.1736997115777699E-02 a       361     0    19     1     1
  1.6877076176142103E-01 a       362     0    19     1     2
  2.5022602348730716E-02 a       363     0    19     1     3
 -8.6965085380340076E-02 a       364     0    19     1     4
  1.3271564656142973E-01 a       365     0    19     1     5
  1.2907421806356073E-01 a       366     0    19     1     6
 -5.2136949435729755E-03 a       367     0    19     1     7
 -2.7146893715809622E-01 a       368     0    19     1     8
  1.0097937310097185E-01 a       369     0    19     1     9
 -2.0881985274805098E-01 a       370     0    19     1    10
  6.3109792187282715E-02 a       371     0    19     1    11
 -3.4755546709262321E-02 a       372     0    19     1    12
 -1.0211851076499286E-01 a       373     0    19     1    13
  1.2739843971033782E-01 a       374     0    19     1    14
 -1.0261276686536386E-02 a       375     0    19     1    15
  2.0873966600997071E-01 a       376     0    19     1    16
  3.1397130918096378E-01 a       377     0    19     1    17
  8.0872633966824592E-02 a       378     0    19     1    18
 -5.0552685456950172E-02 a       379     0    19     1    19
  1.6657750286564094E-01 a       380     0    19     1    20
 -4.5353375465123352E-01 a       381     0    20     1     1
  3.7853885223409334E-01 a       382     0    20     1     2
 -1.8413164910345703E-01 a       383     0    20     1     3
  1.1959354165983056E-01 a       384     0    20     1     4
 -2.4335701281009436E-01 a       385     0    20     1     5
 -1.1268979482767867E-01 a       386     0    20     1     6
 -6.3712574347263728E-01 a       387     0    20     1     7
 -1.2647170184482229E-01 a       388     0    20     1     8
  2.5538598509245870E-02 a       389     0    20     1     9
 -1.0986545008066995E+00 a       390     0    20     1    10
  1.2419980335280131E-01 a       391     0    20     1    11
 -3.1761854323090655E-01 a       392     0    20     1    12
  1.3754746906692616E-01 a       393     0    20     1    13
 -5.1147524118402776E-01 a       394     0    20     1    14
  4.9619745873374071E-01 a       395     0    20     1    15
 -2.7590677916849388E-01 a       396     0    20     1    16
 -9.0086933370827349E-02 a       397     0    20     1    17
 -4.4237064058412202E-04 a       398     0    20     1    18
 -2.2904517998305654E-01 a       399     0    20     1    19
  1.2696134447254999E+00 a       400     0    20     1    20
  4.9431580170462279E-02 a       401     0    21     1     1
  2.3291945999403563E-01 a       402     0    21     1     2
  5.1909073595711164E-01 a       403     0    21     1     3
 -4.5616736169959077E-01 a       404     0    21     1     4
  6.4883472782214258E-01 a       405     0    21     1     5
 -1.5663689705072106E-01 a       406     0    21     1     6
 -3.2573209472070180E-01 a       407     0    21     1     7
 -5.4547434425809255E-02 a       408     0    21     1     8
 -1.3303991414027411E-01 a       409     0    21     1     9
 -4.6661020783113905E-02 a       410     0    21     1    10
  4.4645583976175751E-01 a       411     0    21     1    11
  1.1407801263047966E-02 a       412     0    21     1    12
 -1.5150397459681024E-02 a       413     0    21     1    13
  4.0904636740875702E-02 a       414     0    21     1    14
 -4.3130928138271496E-01 a       415     0    21     1    15
 -2.8757814727102871E-01 a       416     0    21     1    16
 -1.1485109566181367E-01 a       417     0    21     1    17
  3.4325147642033632E-01 a       418     0    21     1    18
  1.2224976403702645E-01 a       419     0    21     1    19
  1.2530261546820792E-01 a       420     0    21     1    20
 -1.0427999957121528E-01 a       421     0    22     1     1
 -1.3316535112391573E-01 a       422     0    22     1     2
  1.7840840565544092E-01 a       423     0    22     1     3
  5.5977327866838629E-02 a       424     0    22     1     4
  1.2533818934172730E-01 a       425     0    22     1     5
  4.9423324939026842E-03 a       426     0    22     1     6
 -1.3853518251101737E-02 a       427     0    22     1     7
 -1.4667606499096200E-01 a       428     0    22     1     8
 -1.3111583128882517E-01 a       429     0    22     1     9
 -6.0366325669819372E-02 a       430     0    22     1    10
  5.2167516275614223E-02 a       431     0    22     1    11
  9.0740094565465723E-02 a       432     0    22     1    12
 -5.2788777964609360E-02 a       433     0    22     1    13
  7.6128173153398926E-02 a       434     0    22     1    14
 -5.1061975247314671E-02 a       435     0    22     1    15
 -7.2562426754424023E-02 a       436     0    22     1    16
  9.2955963585759194E-02 a       437     0    22     1    17
 -9.6778026781995652E-03 a       438     0    22     1    18
 -9.6119735935267916E-02 a       439     0    22     1    19
 -3.5630576056941289E-02 a       440     0    22     1    20
  1.0797868896339942E-01 a       441     0    23     1     1
 -4.2129998210655294E-02 a       442     0    23     1     2
 -7.9981573721836549E-02 a       443     0    23     1     3
  1.7653026186118817E-01 a       444     0    23     1     4
 -4.1545177960834088E-02 a       445     0    23     1     5
 -4.5575389231087490E-02 a       446     0    23     1     6
  5.9827035029842081E-02 a       447     0    23     1     7
  8.0741586781963220E-02 a       448     0    23     1     8
 -1.0508190426826232E-01 a       449     0    23     1     9
  4.3150551550956897E-03 a       450     0    23     1    10
  1.0211405783390427E-02 a       451     0    23     1    11
  2.2177625724161206E-02 a       452     0    23     1    12
  5.4090287138232281E-02 a       453     0    23     1    13
  1.0987259776155734E-03 a       454     0    23     1    14
  9.8411813213659417E-03 a       455     0    23     1    15
 -1.4541183810009251E-01 a       456     0    23     1    16
 -1.3784674687692172E-01 a       457     0    23     1    17
  4.4213869425809597E-03 a       458     0    23     1    18
  5.8394303739474254E-02 a       459     0    23     1    19
  1.9197724215340172E-02 a       460     0    23     1    20
  2.8231023878217076E-01 a       461     0    24     1     1
 -7.3494321495564216E-02 a       462     0    24     1     2
  3.3155356545565823E-01 a       463     0    24     1     3
  2.7254992943894563E-01 a       464     0    24     1     4
 -4.7334757818970404E-02 a       465     0    24     1     5
  7.7772211055408144E-02 a       466     0    24     1     6
  7.4234983889081296E-01 a       467     0    24     1     7
  1.6094577013994105E-01 a       468     0    24     1     8
 -2.6624164185422627E-02 a       469     0    24     1     9
  1.3520698559815786E-01 a       470     0    24     1    10
 -1.5707536588379409E-01 a       471     0    24     1    11
 -4.6365172508562752E-01 a       472     0    24     1    12
  1.7878572319751851E-01 a       473     0    24     1    13
  4.8751057653363056E-01 a       474     0    24     1    14
  3.0546336979616923E-01 a       475     0    24     1    15
  2.1980128228307944E-02 a       476     0    24     1    16
 -5.0941159053648453E-02 a       477     0    24     1    17
  3.5743882134605337E-01 a       478     0    24     1    18
  1.7358549787049027E-01 a       479     0    24     1    19
 -1.2907771144444299E-01 a       480     0    24     1    20
 -1.2724280126147933E-01 a       481     0    25     1     1
 -7.0033199893701589E-02 a       482     0    25     1     2
 -2.5289256127273707E-01 a       483     0    25     1     3
 -4.8201780197083133E-01 a       484     0    25     1     4
 -5.0911210261079365E-01 a       485     0    25     1     5
  4.8879312304922229E-01 a       486     0    25     1     6
  1.2219913753646630E-01 a       487     0    25     1     7
  1.1730589236970057E-01 a       488     0    25     1     8
 -5.9042616080412225E-03 a       489     0    25     1     9
 -5.5701251250223252E-02 a       490     0    25     1    10
 -1.6685994367622481E-01 a       491     0    25     1    11
 -5.2865170166277502E-02 a       492     0    25     1    12
 -3.0513443490917774E-01 a       493     0    25     1    13
  3.5534315537582906E-01 a       494     0    25     1    14
  1.7291432344928528E-01 a       495     0    25     1    15
 -5.3259591162630304E-01 a       496     0    25     1    16
  3.4980231957625098E-02 a       497     0    25     1    17
 -1.9774715528274861E-01 a       498     0    25     1    18
  1.6329949102508298E-01 a       499     0    25     1    19
 -4.6166455592166195E-01 a       500     0    25     1    20
 -5.2669733537227148E-02 a       501     0    26     1     1
 -8.5809328565782904E-03 a       502     0    26     1     2
 -4.1814460664695643E-02 a       503     0    26     1     3
 -6.5593097779826165E-02 a       504     0    26     1     4
 -1.6048612561883485E-01 a       505     0    26     1     5
 -6.6978083693346790E-02 a       506     0    26     1     6
 -6.7653343686694210E-03 a       507     0    26     1     7
  2.0111055475535805E-01 a       508     0    26     1     8
  9.3427228235191256E-02 a       509     0    26     1     9
  1.0604164626036459E-01 a       510     0    26     1    10
 -1.7349586724886926E-01 a       511     0    26     1    11
 -5.1104990320975811E-02 a       512     0    26     1    12
  9.3486218551882605E-02 a       513     0    26     1    13
 -1.4177647363043189E-01 a       514     0    26     1    14
  2.8538769184661198E-02 a       515     0    26     1    15
  7.1354471080701892E-02 a       516     0    26     1    16
 -7.2311209085811123E-02 a       517     0    26     1    17
 -4.0450388553314093E-02 a       518     0    26     1    18
  9.5665569088537558E-02 a       519     0    26     1    19
  3.6924897585994730E-02 a       520     0    26     1    20
 -1.1275964039939136E-01 a       521     0    27     1     1
 -6.2153936583428569E-02 a       522     0    27     1     2
  6.2636107356564094E-02 a       523     0    27     1     3
 -9.9446486806378728E-02 a       524     0    27     1     4
  7.5429183778003145E-02 a       525     0    27     1     5
 -1.5197766093816700E-01 a       526     0    27     1     6
 -3.6257430013231569E-02 a       527     0    27     1     7
  1.1458329605994371E-02 a       528     0    27     1     8
  1.0379344174891685E-02 a       529     0    27     1     9
  1.0145922064214642E-01 a       530     0    27     1    10
 -8.5912624738069251E-02 a       531     0    27     1    11
  2.4889706672035092E-02 a       532     0    27     1    12
 -3.5814911510030405E-02 a       533     0    27     1    13
 -3.6737655416212427E-04 a       534     0    27     1    14
  2.7169988375539425E-02 a       535     0    27     1    15
 -7.8252520498334026E-03 a       536     0    27     1    16
  2.5917122468166673E-02 a       537     0    27     1    17
 -1.0652894960243342E-01 a       538     0    27     1    18
 -2.0767770792734849E-01 a       539     0    27     1    19
 -5.4972993551228987E-03 a       540     0    27     1    20
  2.8252324948744739E-01 a       541     0    28     1     1
 -2.4963565255450229E-01 a       542     0    28     1     2
 -1.9187047962301459E-01 a       543     0    28     1     3
 -6.3024414185525041E-02 a       544     0    28     1     4
  2.1912780231064771E-01 a       545     0    28     1     5
  1.8776634870981759E-01 a       546     0    28     1     6
  3.9127312551322388E-02 a       547     0    28     1     7
 -1.4511940249293120E-01 a       548     0    28     1     8
  3.3488945025766076E-02 a       549     0    28     1     9
  5.2161823544602726E-01 a       550     0    28     1    10
  5.3211527528023335E-02 a       551     0    28     1    11
  3.8734574152126500E-01 a       552     0    28     1    12
 -2.5303069366027447E-01 a       553     0    28     1    13
  1.1824907138896476E-01 a       554     0    28     1    14
 -5.9559999744888148E-01 a       555     0    28     1    15
  2.2424450172542715E-01 a       556     0    28     1    16
  2.0939773497645636E-01 a       557     0    28     1    17
 -4.6588402461011252E-01 a       558     0    28     1    18
 -2.5283279252727547E-01 a       559     0    28     1    19
 -5.7683110638252266E-01 a       560     0    28     1    20
  1.8903945829532628E-02 a       561     0    29     1     1
 -1.3397419140317418E-01 a       562     0    29     1     2
  2.4583906305877364E-02 a       563     0    29     1     3
  6.4833477378139759E-01 a       564     0    29     1     4
  3.0415682521848394E-02 a       565     0    29     1     5
 -4.2617520723027069E-01 a       566     0    29     1     6
  1.3828064155205608E-01 a       567     0    29     1     7
  4.7702986817522114E-01 a       568     0    29     1     8
  1.3973671162384425E-02 a       569     0    29     1     9
  3.1581692789808341E-01 a       570     0    29     1    10
 -7.1874946906183818E-02 a       571     0    29     1    11
  1.7176662181418534E-01 a       572     0    29     1    12
  4.8005166799589671E-01 a       573     0    29     1    13
 -8.6614717809668854E-02 a       574     0    29     1    14
 -4.4732419295084813E-02 a       575     0    29     1    15
  6.4795296244613143E-01 a       576     0    29     1    16
 -7.8936522958007654E-02 a       577     0    29     1    17
  7.1880740896062029E-02 a       578     0    29     1    18
  1.4458230427695651E-01 a       579     0    29     1    19
  2.8572147086796307E-01 a       580     0    29     1    20
  2.6752192750741594E-01 a       581     0    30     1     1
  7.4123089407327376E-03 a       582     0    30     1     2
 -5.5471488848654514E-02 a       583     0    30     1     3
  1.0131531016672916E-01 a       584     0    30     1     4
  5.6928954138383780E-02 a       585     0    30     1     5
  1.9503129324346338E-01 a       586     0    30     1     6
 -6.7543955680258991E-02 a       587     0    30     1     7
  1.6100554315462035E-02 a       588     0    30     1     8
 -2.3236255541844549E-02 a       589     0    30     1     9
 -2.1468124592203451E-02 a       590     0    30     1    10
  2.3519136295738813E-01 a       591     0    30     1    11
 -8.5495221163004995E-02 a       592     0    30     1    12
 -2.0662176196710260E-02 a       593     0    30     1    13
  1.2444283405025743E-01 a       594     0    30     1    14
 -8.8548612623224852E-03 a       595     0    30     1    15
 -4.6019712038682201E-02 a       596     0    30     1    16
 -6.2418485201052878E-02 a       597     0    30     1    17
  9.7967154675044660E-02 a       598     0    30     1    18
  2.1874117540119209E-01 a       599     0    30     1    19
  1.4218129441528199E-02 a       600     0    30     1    20
 -2.1611157944303620E-02 a       601     0    31     1     1
  1.1845960350563242E-01 a       602     0    31     1     2
  1.7780343049820079E-02 a       603     0    31     1     3
 -1.1103377202831405E-01 a       604     0    31     1     4
  1.1325617327652375E-02 a       605     0    31     1     5
 -1.5849014724388943E-02 a       606     0    31     1     6
  1.2898560331193420E-01 a       607     0    31     1     7
 -2.0038436388803893E-01 a       608     0    31     1     8
  7.5155990609647241E-02 a       609     0    31     1     9
 -1.9552384304254955E-01 a       610     0    31     1    10
  4.4607176712665411E-02 a       611     0    31     1    11
 -1.0027069287719602E-01 a       612     0    31     1    12
 -3.9268975980327997E-02 a       613     0    31     1    13
  6.2609043940533154E-02 a       614     0    31     1    14
 -4.6039349007875111E-02 a       615     0    31     1    15
  1.5606584366527301E-01 a       616     0    31     1    16
  1.1536158118052768E-01 a       617     0    31     1    17
  3.7865412988342610E-02 a       618     0    31     1    18
  1.3031606766333076E-01 a       619     0    31     1    19
 -1.8582785628306345E-02 a       620     0    31     1    20
 -6.3845192088016511E-01 a       621     0    32     1     1
  2.2891035968384107E-01 a       622     0    32     1     2
  1.6444740750773690E-01 a       623     0    32     1     3
 -8.7391616420387924E-02 a       624     0    32     1     4
 -2.2864018619917206E-01 a       625     0    32     1     5
 -3.8350713216037313E-01 a       626     0    32     1     6
 -7.4905523789428485E-01 a       627     0    32     1     7
 -4.2222281671149581E-01 a       628     0    32     1     8
 -6.5750267406351565E-02 a       629     0    32     1     9
 -6.3960295985522142E-01 a       630     0    32     1    10
  2.8509623854901905E-01 a       631     0    32     1    11
  8.5111688050682505E-02 a       632     0    32     1    12
  8.1825419762851834E-02 a       633     0    32     1    13
 -6.2767455611702938E-01 a       634     0    32     1    14
  3.9147139257576852E-01 a       635     0    32     1    15
 -1.8442345657453695E-02 a       636     0    32     1    16
  3.0383263394225229E-01 a       637     0    32     1    17
  1.5755273927051427E-01 a       638     0    32     1    18
 -3.6421177638193808E-01 a       639     0    32     1    19
  2.6594626353325446E-01 a       640     0    32     1    20
  1.1931634423394188E-01 a       641     0    33     1     1
  1.4458042288019507E-01 a       642     0    33     1     2
  3.9134496261546435E-02 a       643     0    33     1     3
 -2.6002267369006421E-01 a       644     0    33     1     4
  2.1909116503974005E-01 a       645     0    33     1     5
  1.0109136511372326E-01 a       646     0    33     1     6
 -1.0611301733946608E-01 a       647     0    33     1     7
 -4.3378942172814239E-01 a       648     0    33     1     8
  4.0342124196027479E-02 a       649     0    33     1     9
 -2.9471498031851195E-01 a       650     0    33     1    10
  8.5445467260861441E-02 a       651     0    33     1    11
 -1.5344238204121091E-01 a       652     0    33     1    12
 -3.6147317626263537E-01 a       653     0    33     1    13
 -1.6964781848428945E-01 a       654     0    33     1    14
  2.0873460902662760E-02 a       655     0    33     1    15
 -3.4981647117930381E-01 a       656     0    33     1    16
 -5.8142392309626680E-02 a       657     0    33     1    17
 -1.4031667640125214E-01 a       658     0    33     1    18
 -1.6408003409050045E-01 a       659     0    33     1    19
 -1.4545366392807121E-02 a       660     0    33     1    20
 -1.7771890043297128E-01 a       661     0    34     1     1
  3.2193832633591032E-02 a       662     0    34     1     2
  5.7833584287461291E-02 a       663     0    34     1     3
  1.2488144453462932E-02 a       664     0    34     1     4
 -4.6601807413659872E-02 a       665     0    34     1     5
 -1.1390150640629319E-01 a       666     0    34     1     6
 -4.3491712132571171E-02 a       667     0    34     1     7
  7.6683905958587302E-03 a       668     0    34     1     8
  1.0935080180027066E-02 a       669     0    34     1     9
  8.9333558130772817E-02 a       670     0    34     1    10
 -1.0376004316971989E-01 a       671     0    34     1    11
  1.1962646639461151E-01 a       672     0    34     1    12
  2.0458976281817897E-03 a       673     0    34     1    13
 -1.3151622071872193E-01 a       674     0    34     1    14
 -1.1112191971968574E-04 a       675     0    34     1    15
 -7.0558664644357356E-03 a       676     0    34     1    16
 -3.1748876860859539E-02 a       677     0    34     1    17
 -5.9805337613007187E-02 a       678     0    34     1    18
 -2.6744445828454472E-01 a       679     0    34     1    19
 -3.7287116896408116E-02 a       680     0    34     1    20
  4.2102577528739887E-02 a       681     0    35     1     1
 -4.7837811010775021E-02 a       682     0    35     1     2
 -5.4769415469954744E-02 a       683     0    35     1     3
  1.0994898718172377E-01 a       684     0    35     1     4
  3.6836386964147406E-02 a       685     0    35     1     5
  3.5268847698103817E-02 a       686     0    35     1     6
 -1.2873578788281392E-01 a       687     0    35     1     7
  3.5948797644064619E-02 a       688     0    35     1     8
 -1.3072373624328215E-01 a       689     0    35     1     9
  8.4469726782978302E-02 a       690     0    35     1    10
 -4.8283436651585715E-02 a       691     0    35     1    11
  6.6923523986901240E-02 a       692     0    35     1    12
  1.4515760943445559E-02 a       693     0    35     1    13
  2.3586925943707222E-02 a       694     0    35     1    14
  3.5004689187328422E-02 a       695     0    35     1    15
 -1.3074387193782844E-01 a       696     0    35     1    16
 -3.9752959410439714E-02 a       697     0    35     1    17
  3.4449385824788840E-02 a       698     0    35     1    18
 -1.1100814801304185E-01 a       699     0    35     1    19
 -8.5277522848702068E-03 a       700     0    35     1    20
  5.1233096171515902E-01 a       701     0    36     1     1
  3.4836471733563315E-02 a       702     0    36     1     2
 -1.8106610185736025E-01 a       703     0    36     1     3
  1.8199718507211325E-02 a       704     0    36     1     4
  1.6301879275382505E-01 a       705     0    36     1     5
  3.4991761536358751E-01 a       706     0    36     1     6
  6.6126478155992263E-01 a       707     0    36     1     7
  3.7448691860255212E-01 a       708     0    36     1     8
  5.1872465678814247E-02 a       709     0    36     1     9
  3.1882804780981644E-01 a       710     0    36     1    10
 -3.4574823860539750E-01 a       711     0    36     1    11
 -3.5107838145789177E-01 a       712     0    36     1    12
  6.8929100567564891E-02 a       713     0    36     1    13
  5.6776392745878779E-01 a       714     0    36     1    14
 -1.2690525298590580E-01 a       715     0    36     1    15
 -1.0217032863500532E-01 a       716     0    36     1    16
 -3.4938194070836676E-01 a       717     0    36     1    17
  1.7480133735641243E-01 a       718     0    36     1    18
  4.7746476986849690E-01 a       719     0    36     1    19
  1.2787809700716804E-01 a       720     0    36     1    20
  1.1515659556745358E-03 a       721     0    37     1     1
 -6.3205923981233425E-02 a       722     0    37     1     2
 -4.4414538912337147E-02 a       723     0    37     1     3
 -4.5354661642723205E-02 a       724     0    37     1     4
 -1.4569779837611649E-01 a       725     0    37     1     5
  1.8896247888356567E-02 a       726     0    37     1     6
  1.2054615823265831E-01 a       727     0    37     1     7
  2.9518151024360290E-01 a       728     0    37     1     8
 -2.9186231851731595E-02 a       729     0    37     1     9
  4.4010517824915218E-02 a       730     0    37     1    10
 -4.7573753798920884E-02 a       731     0    37     1    11
  2.3114935961537450E-02 a       732     0    37     1    12
  1.1555020226672254E-01 a       733     0    37     1    13
  1.9654345618824817E-01 a       734     0    37     1    14
 -1.3693271358046339E-02 a       735     0    37     1    15
  4.3231017532856894E-02 a       736     0    37     1    16
  5.7563552457541016E-02 a       737     0    37     1    17
  1.4275722539421162E-01 a       738     0    37     1    18
  3.0709978434608526E-01 a       739     0    37     1    19
  1.6675150802141280E-02 a       740     0    37     1    20
  3.6575588484678040E-02 a       741     0    38     1     1
 -1.8279820301657427E-02 a       742     0    38     1     2
 -3.4459122809259189E-02 a       743     0    38     1     3
  1.5702347901415805E-02 a       744     0    38     1     4
 -4.0132977556051344E-02 a       745     0    38     1     5
  5.4027810087568628E-02 a       746     0    38     1     6
  9.0640565717090171E-02 a       747     0    38     1     7
  1.2338359828821496E-01 a       748     0    38     1     8
  4.2206498013667177E-03 a       749     0    38     1     9
 -4.2317612515252838E-02 a       750     0    38     1    10
  2.6879803871236480E-02 a       751     0    38     1    11
 -5.9697340606193201E-02 a       752     0    38     1    12
  5.8217826399786293E-03 a       753     0    38     1    13
  5.4412488799483079E-02 a       754     0    38     1    14
 -1.4895736704989785E-02 a       755     0    38     1    15
 -9.0795361734378899E-03 a       756     0    38     1    16
  3.9460007218878275E-02 a       757     0    38     1    17
  1.8833804495749736E-02 a       758     0    38     1    18
  1.9620926467118766E-01 a       759     0    38     1    19
  3.4299352936506607E-02 a       760     0    38     1    20
 -1.9204394581950644E-02 a       761     0    39     1     1
 -1.0611078563859856E-02 a       762     0    39     1     2
  4.3932844621834242E-02 a       763     0    39     1     3
 -8.5009090592449502E-02 a       764     0    39     1     4
  2.8735122237757958E-02 a       765     0    39     1     5
 -3.8659711120717949E-02 a       766     0    39     1     6
  1.4114663955250122E-02 a       767     0    39     1     7
 -1.0393852492026953E-01 a       768     0    39     1     8
  5.2241841370166069E-02 a       769     0    39     1     9
 -2.6606059619929040E-02 a       770     0    39     1    10
  1.1061528832982137E-02 a       771     0    39     1    11
  1.5853231827444511E-02 a       772     0    39     1    12
 -7.1417494695708251E-03 a       773     0    39     1    13
 -2.9268555191290756E-02 a       774     0    39     1    14
  3.1997261196405847E-03 a       775     0    39     1    15
  5.9973520970911610E-02 a       776     0    39     1    16
  6.9513793917998145E-03 a       777     0    39     1    17
 -3.2672716334613265E-02 a       778     0    39     1    18
 -4.1065182197732170E-02 a       779     0    39     1    19
 -1.4961720970118979E-02 a       780     0    39     1    20
 -2.3187997300623792E-01 a       781     0    40     1     1
 -8.3167397573213786E-02 a       782     0    40     1     2
  1.0440541972957534E-01 a       783     0    40     1     3
  9.7013491834186158E-02 a       784     0    40     1     4
 -1.7638293274606427E-02 a       785     0    40     1     5
 -1.2747213392699067E-01 a       786     0    40     1     6
 -3.3000879611304629E-01 a       787     0    40     1     7
 -2.7594975439405384E-01 a       788     0    40     1     8
 -3.5106906829632356E-02 a       789     0    40     1     9
 -2.6717546657671364E-02 a       790     0    40     1    10
  1.6199579602264044E-01 a       791     0    40     1    11
  2.1047237803113927E-01 a       792     0    40     1    12
 -3.6129751880145736E-02 a       793     0    40     1    13
 -2.6479514568225709E-01 a       794     0    40     1    14
  1.6952635599509040E-02 a       795     0    40     1    15
  8.7915390024812842E-02 a       796     0    40     1    16
  1.4541982222458527E-01 a       797     0    40     1    17
 -1.8800911224101477E-01 a       798     0    40     1    18
 -4.3612301501501982E-01 a       799     0    40     1    19
 -1.5981085617373836E-01 a       800     0    40     1    20
  2.7162843950711241E-01 a       801     0    41     1     1
  1.7634741122376033E-01 a       802     0    41     1     2
  1.0752730968156525E-01 a       803     0    41     1     3
 -6.3130482460165815E-01 a       804     0    41     1     4
 -1.4058272551540936E-02 a       805     0    41     1     5
  1.3277945023865179E-01 a       806     0    41     1     6
  3.4967362170271077E-01 a       807     0    41     1     7
  2.4497013056183850E-01 a       808     0    41     1     8
  2.2500615186850789E-01 a       809     0    41     1     9
 -4.6022220849966999E-01 a       810     0    41     1    10
  4.4968266601420073E-02 a       811     0    41     1    11
  3.6261027557238251E-01 a       812     0    41     1    12
 -1.3256817902974805E-01 a       813     0    41     1    13
 -3.8552463051864894E-01 a       814     0    41     1    14
 -1.3061046658906877E-01 a       815     0    41     1    15
 -5.5561389459382360E-01 a       816     0    41     1    16
 -5.4327515064572074E-01 a       817     0    41     1    17
  1.6237617629830701E-02 a       818     0    41     1    18
 -3.0470866655061858E-02 a       819     0    41     1    19
 -1.3169737264329684E-01 a       820     0    41     1    20
  9.2744642566780111E-02 a       821     0    42     1     1
 -1.4096998040117605E-02 a       822     0    42     1     2
 -1.2017974343115564E-02 a       823     0    42     1     3
 -2.9622509108112538E-01 a       824     0    42     1     4
  1.3059756317196821E-02 a       825     0    42     1     5
 -3.0952601137199262E-02 a       826     0    42     1     6
  9.5949011954352778E-02 a       827     0    42     1     7
 -4.2351148069343279E-02 a       828     0    42     1     8
 -2.6498104061675434E-02 a       829     0    42     1     9
 -1.6421180808141292E-01 a       830     0    42     1    10
  4.7829050874635612E-02 a       831     0    42     1    11
  2.3984572132299567E-01 a       832     0    42     1    12
  6.9523949567155451E-03 a       833     0    42     1    13
  7.4893119939118777E-02 a       834     0    42     1    14
  1.3168634955789436E-02 a       835     0    42     1    15
  9.2115330601395068E-02 a       836     0    42     1    16
  1.3627062853960423E-01 a       837     0    42     1    17
 -1.6244243260080896E-01 a       838     0    42     1    18
 -1.3990924939423191E-01 a       839     0    42     1    19
 -1.1071953979709945E-01 a       840     0    42     1    20
  2.1448712437476150E-01 a       841     0    43     1     1
  3.3449577698959482E-01 a       842     0    43     1     2
  1.0225306979921275E-01 a       843     0    43     1     3
  1.4319036159524473E-01 a       844     0    43     1     4
 -6.9194472266873461E-02 a       845     0    43     1     5
  1.1498872447430818E-01 a       846     0    43     1     6
 -1.7158323599713707E-01 a       847     0    43     1     7
  6.1840405480865321E-02 a       848     0    43     1     8
  4.7520410691235367E-02 a       849     0    43     1     9
  2.0855028784029717E-01 a       850     0    43     1    10
  4.7853908839409875E-02 a       851     0    43     1    11
  8.0762103927360121E-02 a       852     0    43     1    12
 -9.4835505260535205E-02 a       853     0    43     1    13
 -3.1194410667222394E-01 a       854     0    43     1    14
 -2.5888600924349820E-02 a       855     0    43     1    15
  5.2696114833654752E-02 a       856     0    43     1    16
  4.5596364243598496E-02 a       857     0    43     1    17
  6.2301397432733538E-02 a       858     0    43     1    18
  5.2973437536856537E-02 a       859     0    43     1    19
 -1.6473375548548586E-01 a       860     0    43     1    20
 -5.4135668404145110E-01 a       861     0    44     1     1
 -5.7833144407558379E-02 a       862     0    44     1     2
  2.1844331616650042E-01 a       863     0    44     1     3
  6.2035574724358486E-02 a       864     0    44     1     4
 -4.2341412966903530E-01 a       865     0    44     1     5
  4.5200441498703401E-03 a       866     0    44     1     6
 -6.4739204928217708E-01 a       867     0    44     1     7
 -5.4379579882920415E-02 a       868     0    44     1     8
  1.7269402148165502E-01 a       869     0    44     1     9
  4.4000929308965514E-01 a       870     0    44     1    10
 -4.1328421527337664E-02 a       871     0    44     1    11
 -2.7613088865795880E-02 a       872     0    44     1    12
 -3.4040285660208941E-01 a       873     0    44     1    13
 -5.2266338671328749E-01 a       874     0    44     1    14
 -7.8323028241973597E-02 a       875     0    44     1    15
  8.9262701435625036E-01 a       876     0    44     1    16
  9.1489488095979188E-01 a       877     0    44     1    17
  4.1982260985692375E-02 a       878     0    44     1    18
 -8.6969827419868395E-01 a       879     0    44     1    19
 -3.8064475685186366E-01 a       880     0    44     1    20
 -2.8692983890903391E-02 a       881     0    45     1     1
  1.1186420226364036E-01 a       882     0    45     1     2
  1.3978757152351945E-01 a       883     0    45     1     3
  1.2823545934170146E-02 a       884     0    45     1     4
 -6.2332641793203122E-02 a       885     0    45     1     5
 -2.9349513412955535E-02 a       886     0    45     1     6
 -8.5436680846078875E-02 a       887     0    45     1     7
  1.5875130211528110E-01 a       888     0    45     1     8
  2.6304410706236864E-02 a       889     0    45     1     9
  2.4923220625375178E-01 a       890     0    45     1    10
  1.7146184359876085E-01 a       891     0    45     1    11
 -8.8004113394523686E-02 a       892     0    45     1    12
 -1.3121002841973070E-01 a       893     0    45     1    13
  3.0275443299949517E-01 a       894     0    45     1    14
 -3.0912494109726261E-02 a       895     0    45     1    15
 -8.3965917832472620E-02 a       896     0    45     1    16
 -2.1510667775952085E-02 a       897     0    45     1    17
 -9.7465226273663691E-02 a       898     0    45     1    18
 -3.1454971445287089E-01 a       899     0    45     1    19
  1.5194913715651681E-01 a       900     0    45     1    20
 -2.1341241991709076E-01 a       901     0    46     1     1
  3.0462945307760764E-01 a       902     0    46     1     2
 -1.6510737631201203E-02 a       903     0    46     1     3
 -1.1137517024900619E-02 a       904     0    46     1     4
 -2.4230387579978094E-01 a       905     0    46     1     5
 -3.2115244433737888E-01 a       906     0    46     1     6
  4.6013680236229863E-02 a       907     0    46     1     7
 -6.7129495834808792E-03 a       908     0    46     1     8
 -1.7626666537866773E-01 a       909     0    46     1     9
 -2.7081560324691512E-01 a       910     0    46     1    10
 -7.9944371105610632E-02 a       911     0    46     1    11
  3.5500894663599597E-02 a       912     0    46     1    12
 -5.9062114691690953E-02 a       913     0    46     1    13
 -1.4512210681744778E-01 a       914     0    46     1    14
 -1.1824305943195086E-01 a       915     0    46     1    15
  1.6833658939508375E-02 a       916     0    46     1    16
 -4.8625595630283333E-02 a       917     0    46     1    17
 -1.3746568463124972E-01 a       918     0    46     1    18
  1.5389277602699095E-01 a       919     0    46     1    19
 -1.4574498843367303E-01 a       920     0    46     1    20
 -1.0933315763195758E-01 a       921     0    47     1     1
 -2.4289646188257652E-01 a       922     0    47     1     2
  6.2250262074501688E-03 a       923     0    47     1     3
  8.6060052477115803E-02 a       924     0    47     1     4
  2.2120402657362523E-01 a       925     0    47     1     5
 -1.0722935055709651E-01 a       926     0    47     1     6
  1.6187732927522561E-01 a       927     0    47     1     7
 -2.1336479443878079E-01 a       928     0    47     1     8
  1.4457694661218341E-02 a       929     0    47     1     9
 -2.3515248200716193E-01 a       930     0    47     1    10
 -5.6600562597497080E-02 a       931     0    47     1    11
 -5.6724322478355505E-03 a       932     0    47     1    12
 -8.9497057760281509E-02 a       933     0    47     1    13
 -7.9374101387688953E-02 a       934     0    47     1    14
  2.8964116597010339E-02 a       935     0    47     1    15
  5.6181348607876762E-02 a       936     0    47     1    16
  1.9366616378876528E-01 a       937     0    47     1    17
  1.4366550018533079E-03 a       938     0    47     1    18
  1.4092186998483880E-01 a       939     0    47     1    19
  2.2924018061596010E-02 a       940     0    47     1    20
 -1.4623132469752426E-01 a       941     0    48     1     1
 -1.4580054042515370E-01 a       942     0    48     1     2
  3.8971170127197620E-02 a       943     0    48     1     3
 -1.5984159856913560E-01 a       944     0    48     1     4
  8.8646464608180042E-02 a       945     0    48     1     5
 -8.3946306354000758E-02 a       946     0    48     1     6
  1.0770272981701233E-01 a       947     0    48     1     7
 -3.8871437211963504E-02 a       948     0    48     1     8
  3.8793655280543606E-02 a       949     0    48     1     9
  8.3893744317668273E-02 a       950     0    48     1    10
  2.2230613536254509E-02 a       951     0    48     1    11
  3.2822476174287178E-02 a       952     0    48     1    12
  6.6462275857628136E-02 a       953     0    48     1    13
 -3.8463530394776207E-02 a       954     0    48     1    14
 -7.7012146302881382E-03 a       955     0    48     1    15
 -1.3070014535598540E-01 a       956     0    48     1    16
 -1.5283443863267354E-01 a       957     0    48     1    17
  1.6875862263484184E-01 a       958     0    48     1    18
 -7.9790555115882983E-02 a       959     0    48     1    19
 -4.5098709957819970E-02 a       960     0    48     1    20
  8.1304364851465291E-02 a       961     0    49     1     1
  6.6989809671267594E-02 a       962     0    49     1     2
  5.6850770651312540E-02 a       963     0    49     1     3
 -4.3767979526422522E-02 a       964     0    49     1     4
 -7.2367045167621977E-02 a       965     0    49     1     5
 -1.2487552008586240E-01 a       966     0    49     1     6
  1.0495975310480413E-01 a       967     0    49     1     7
  2.4481346560920117E-02 a       968     0    49     1     8
  7.4099725099641980E-02 a       969     0    49     1     9
 -2.0094249058520548E-02 a       970     0    49     1    10
  8.3535020712774161E-02 a       971     0    49     1    11
  1.2295113255335352E-02 a       972     0    49     1    12
 -1.1950719060149953E-01 a       973     0    49     1    13
  2.3781021068449679E-01 a       974     0    49     1    14
 -6.4838594339797592E-02 a       975     0    49     1    15
 -1.0296628947633905E-01 a       976     0    49     1    16
 -1.6079872601847453E-01 a       977     0    49     1    17
 -5.7714199675433342E-02 a       978     0    49     1    18
  1.7923684367115872E-01 a       979     0    49     1    19
 -1.4688066869027669E-01 a       980     0    49     1    20
  2.2021278259305069E-01 a       981     0    50     1     1
  2.5432943580035068E-02 a       982     0    50     1     2
 -1.0303901826935925E-02 a       983     0    50     1     3
  1.6754006835258076E-01 a       984     0    50     1     4
  4.9846337621646031E-02 a       985     0    50     1     5
  2.1834100796649800E-01 a       986     0    50     1     6
  9.5398467655699537E-01 a       987     0    50     1     7
  3.6087071935892640E-02 a       988     0    50     1     8
  2.2291614616948027E-01 a       989     0    50     1     9
 -1.6105652159111969E-01 a       990     0    50     1    10
 -1.3985588912184432E-01 a       991     0    50     1    11
  4.3840702015334056E-02 a       992     0    50     1    12
  3.0743312042998644E-01 a       993     0    50     1    13
  4.2765632564235539E-01 a       994     0    50     1    14
  2.6550614507371478E-02 a       995     0    50     1    15
 -4.9705955741823765E-01 a       996     0    50     1    16
 -7.1430500558963428E-01 a       997     0    50     1    17
 -2.2667051131426871E-01 a       998     0    50     1    18
  9.1348287601053257E-01 a       999     0    50     1    19
  5.9820941225911328E-01 a      1000     0    50     1    20
  8.3015744807089523E-02 a      1001     0    51     1     1
  1.9821416293487418E-01 a      1002     0    51     1     2
 -3.2640599202503551E-01 a      1003     0    51     1     3
  4.0368261082621948E-01 a      1004     0    51     1     4
  3.4751920228060501E-01 a      1005     0    51     1     5
 -9.8509676406869237E-02 a      1006     0    51     1     6
  2.9528212020377415E-01 a      1007     0    51     1     7
 -5.7828736858339613E-01 a      1008     0    51     1     8
 -2.3447960786663699E-01 a      1009     0    51     1     9
 -7.1005594203808350E-02 a      1010     0    51     1    10
  2.2012909987070650E-01 a      1011     0    51     1    11
 -4.4258517369682820E-01 a      1012     0    51     1    12
  9.3244176866998776E-02 a      1013     0    51     1    13
  4.1593269605047867E-01 a      1014     0    51     1    14
  1.5924274742505215E-01 a      1015     0    51     1    15
 -2.9954018826328477E-01 a      1016     0    51     1    16
  4.4703602269182513E-01 a      1017     0    51     1    17
  5.9157136912682173E-01 a      1018     0    51     1    18
  5.7298748837645685E-01 a      1019     0    51     1    19
  4.2777552988937917E-01 a      1020     0    51     1    20
 -3.7437391179958451E-02 a      1021     0    52     1     1
 -3.4545144722555883E-02 a      1022     0    52     1     2
 -9.1446527231385924E-02 a      1023     0    52     1     3
  6.4279132356889696E-03 a      1024     0    52     1     4
  7.4755744059160439E-02 a      1025     0    52     1     5
  9.0593395188308667E-02 a      1026     0    52     1     6
  1.0984210797358451E-01 a      1027     0    52     1     7
 -1.1700257676526878E-01 a      1028     0    52     1     8
  1.7532445624394610E-02 a      1029     0    52     1     9
 -8.1094984705926895E-02 a      1030     0    52     1    10
 -2.1499645991064499E-02 a      1031     0    52     1    11
 -1.1565154040557675E-01 a      1032     0    52     1    12
  2.7364798483012102E-02 a      1033     0    52     1    13
  1.7228387861649437E-02 a      1034     0    52     1    14
  2.8250596609993066E-02 a      1035     0    52     1    15
 -4.6243700166913614E-02 a      1036     0    52     1    16
  2.0717519619926614E-02 a      1037     0    52     1    17
  2.1970955294432096E-01 a      1038     0    52     1    18
  1.2620103821902065E-01 a      1039     0    52     1    19
  1.7706177154624081E-02 a      1040     0    52     1    20
 -7.5491453403048706E-02 a      1041     0    53     1     1
 -1.4435896031199763E-01 a      1042     0    53     1     2
 -6.3876172414144934E-03 a      1043     0    53     1     3
 -5.9373887148456367E-03 a      1044     0    53     1     4
 -9.5812710509612306E-02 a      1045     0    53     1     5
  2.3063076922291464E-02 a      1046     0    53     1     6
 -1.2292626867496052E-01 a      1047     0    53     1     7
  1.5249139889861085E-01 a      1048     0    53     1     8
 -7.9797108555022464E-02 a      1049     0    53     1     9
 -2.1709359791998801E-02 a      1050     0    53     1    10
 -2.7630467385591131E-02 a      1051     0    53     1    11
 -6.6169556267817412E-02 a      1052     0    53     1    12
  5.0330866757936368E-02 a      1053     0    53     1    13
  1.6911059885785745E-01 a      1054     0    53     1    14
 -3.1840081797446497E-02 a      1055     0    53     1    15
 -5.7836435142367991E-02 a      1056     0    53     1    16
 -5.6170831454640045E-02 a      1057     0    53     1    17
  5.5819835456040710E-02 a      1058     0    53     1    18
  7.5222992057562017E-03 a      1059     0    53     1    19
  1.5598372491889759E-01 a      1060     0    53     1    20
  3.9260254465377770E-01 a      1061     0    54     1     1
 -3.6597457703698444E-01 a      1062     0    54     1     2
  2.5003452754705341E-01 a      1063     0    54     1     3
 -8.4414331475391480E-01 a      1064     0    54     1     4
 -1.0774065345913149E-01 a      1065     0    54     1     5
 -8.5874462231044013E-01 a      1066     0    54     1     6
 -7.7407399682945827E-02 a      1067     0    54     1     7
  7.5165996614796116E-01 a      1068     0    54     1     8
 -4.9863760124812434E-01 a      1069     0    54     1     9
 -3.9525139784265739E-01 a      1070     0    54     1    10
 -5.2310940656995131E-01 a      1071     0    54     1    11
  1.0394272020321662E+00 a      1072     0    54     1    12
  2.4729135813710040E-01 a      1073     0    54     1    13
  1.0818336151927276E-01 a      1074     0    54     1    14
  2.5004747717452917E-02 a      1075     0    54     1    15
  1.0127304821491516E+00 a      1076     0    54     1    16
 -5.5442663862387043E-01 a      1077     0    54     1    17
 -1.5572639209392560E+00 a      1078     0    54     1    18
 -3.1687141626991677E-01 a      1079     0    54     1    19
 -7.9117599941541572E-01 a      1080     0    54     1    20
 -4.9731527207901839E-02 a      1081     0    55     1     1
 -2.7367997241024677E-02 a      1082     0    55     1     2
  1.6816383672735519E-01 a      1083     0    55     1     3
  1.4275793705054157E-01 a      1084     0    55     1     4
  2.1253576737830238E-01 a      1085     0    55     1     5
 -3.4300279983810894E-01 a      1086     0    55     1     6
 -2.0317637494382221E-01 a      1087     0    55     1     7
 -1.2961438225189140E-01 a      1088     0    55     1     8
  2.6680883314240139E-01 a      1089     0    55     1     9
  2.3559669379413156E-02 a      1090     0    55     1    10
 -2.0297118349712295E-01 a      1091     0    55     1    11
  1.5219404168006739E-01 a      1092     0    55     1    12
 -1.4246008096495733E-01 a      1093     0    55     1    13
 -2.7027101923139174E-01 a      1094     0    55     1    14
  1.8827821867127920E-02 a      1095     0    55     1    15
 -6.3527340359580228E-02 a      1096     0    55     1    16
  8.7636247140299758E-02 a      1097     0    55     1    17
  1.6053901265807408E-01 a      1098     0    55     1    18
  1.3492165455909577E-01 a      1099     0    55     1    19
  1.3560478958690525E-01 a      1100     0    55     1    20
  2.3406061276819115E-01 a      1101     0    56     1     1
  1.6209323467034625E-01 a      1102     0    56     1     2
 -8.1964103277374523E-02 a      1103     0    56     1     3
  7.4192633535696870E-02 a      1104     0    56     1     4
  4.0768943326729770E-02 a      1105     0    56     1     5
 -2.1991348377017009E-01 a      1106     0    56     1     6
  2.9223618728235512E-01 a      1107     0    56     1     7
  1.0564868717165794E-01 a      1108     0    56     1     8
 -1.6191552356921882E-02 a      1109     0    56     1     9
  3.6176780964591410E-01 a      1110     0    56     1    10
  1.0186998480015805E-01 a      1111     0    56     1    11
  8.4236626733948147E-02 a      1112     0    56     1    12
 -6.9087927784629938E-02 a      1113     0    56     1    13
  1.3776804285744276E-01 a      1114     0    56     1    14
 -3.7692627619229709E-02 a      1115     0    56     1    15
 -1.9128693337889391E-01 a      1116     0    56     1    16
 -1.1680360659333254E-01 a      1117     0    56     1    17
 -1.1388110928818922E-01 a      1118     0    56     1    18
 -2.6870703536269323E-02 a      1119     0    56     1    19
  9.0428828339437731E-02 a      1120     0    56     1    20
 -1.1983699060004420E-02 a      1121     0    57     1     1
  1.4900750878526914E-01 a      1122     0    57     1     2
  9.1071871090124462E-02 a      1123     0    57     1     3
  6.1328615956849665E-02 a      1124     0    57     1     4
 -6.0216977788620243E-02 a      1125     0    57     1     5
  3.6597423198410600E-03 a      1126     0    57     1     6
 -9.5734208252815835E-03 a      1127     0    57     1     7
  2.0692731802801861E-01 a      1128     0    57     1     8
 -8.7088198691251756E-02 a      1129     0    57     1     9
  6.7979104389825795E-02 a      1130     0    57     1    10
 -5.5583678747427499E-02 a      1131     0    57     1    11
  1.3342926014615109E-01 a      1132     0    57     1    12
 -6.3836471942828724E-02 a      1133     0    57     1    13
 -5.9876350453747569E-02 a      1134     0    57     1    14
 -2.4750325757867262E-02 a      1135     0    57     1    15
 -4.0252474744814255E-02 a      1136     0    57     1    16
  1.6442466639346769E-02 a      1137     0    57     1    17
 -9.0669720598849937E-02 a      1138     0    57     1    18
 -2.6141577455775090E-02 a      1139     0    57     1    19
  4.0804453009295992E-02 a      1140     0    57     1    20
 -3.9021850320435141E-02 a      1141     0    58     1     1
  7.1421412287234004E-02 a      1142     0    58     1     2
  6.2591185449819689E-02 a      1143     0    58     1     3
  1.7575639633630169E-01 a      1144     0    58     1     4
  1.7355882406183212E-01 a      1145     0    58     1     5
  1.3976116975182651E-01 a      1146     0    58     1     6
  3.2116929236148589E-02 a      1147     0    58     1     7
 -7.7614533378861594E-02 a      1148     0    58     1     8
  1.8643028869119344E-01 a      1149     0    58     1     9
 -8.4158013443427382E-02 a      1150     0    58     1    10
 -1.1029260689104130E-01 a      1151     0    58     1    11
 -3.0280909962912533E-01 a      1152     0    58     1    12
 -4.2708057764270203E-02 a      1153     0    58     1    13
  2.2848987241764454E-01 a      1154     0    58     1    14
  8.2678423152918040E-02 a      1155     0    58     1    15
  1.7490118638630164E-01 a      1156     0    58     1    16
  2.5778227384094777E-03 a      1157     0    58     1    17
  9.1846502810249576E-03 a      1158     0    58     1    18
 -1.2812935910926951E-01 a      1159     0    58     1    19
  2.2821843384449994E-01 a      1160     0    58     1    20
 -1.3246377868628351E-01 a      1161     0    59     1     1
 -7.7013987510610532E-02 a      1162     0    59     1     2
 -9.6039742581102303E-02 a      1163     0    59     1     3
 -1.1446680069051904E-01 a      1164     0    59     1     4
  1.2645858435004487E-02 a      1165     0    59     1     5
  1.1670318106372136E-02 a      1166     0    59     1     6
 -3.3036727885456127E-02 a      1167     0    59     1     7
 -8.1247031891671817E-02 a      1168     0    59     1     8
  4.0490867246447231E-02 a      1169     0    59     1     9
  6.0871303649303661E-02 a      1170     0    59     1    10
  6.1385218402746224E-02 a      1171     0    59     1    11
 -4.0939501929663176E-02 a      1172     0    59     1    12
  1.5960475609879224E-01 a      1173     0    59     1    13
 -3.5385565972457173E-03 a      1174     0    59     1    14
  4.9807363654919667E-02 a      1175     0    59     1    15
 -3.6340181841482404E-02 a      1176     0    59     1    16
 -3.2894371740638403E-02 a      1177     0    59     1    17
  5.9514564908465933E-02 a      1178     0    59     1    18
  2.3670769282799070E-02 a      1179     0    59     1    19
 -8.4624011028125320E-02 a      1180     0    59     1    20
 -4.5183225787962616E-01 a      1181     0    60     1     1
  1.1535126206947734E-01 a      1182     0    60     1     2
 -5.7310314107770072E-02 a      1183     0    60     1     3
 -2.0099099710627358E-02 a      1184     0    60     1     4
  1.0338475597764116E-01 a      1185     0    60     1     5
  1.2160562949862075E-01 a      1186     0    60     1     6
 -2.6967622289150894E-01 a      1187     0    60     1     7
 -1.5212429255370316E-01 a      1188     0    60     1     8
 -3.6498067057394903E-02 a      1189     0    60     1     9
  2.7760109207116751E-01 a      1190     0    60     1    10
  3.6881821573576012E-01 a      1191     0    60     1    11
 -1.0152153888803651E-01 a      1192     0    60     1    12
 -1.9336025016041661E-01 a      1193     0    60     1    13
 -1.5754975930670043E-01 a      1194     0    60     1    14
  7.6239509828221596E-03 a      1195     0    60     1    15
 -4.0092497780220687E-01 a      1196     0    60     1    16
  1.8663066914073906E-01 a      1197     0    60     1    17
  6.6292807681094479E-01 a      1198     0    60     1    18
 -4.8350801750825664E-02 a      1199     0    60     1    19
 -1.8062315444285973E-01 a      1200     0    60     1    20
  9.2305948255666195E-02 a      1201     0    61     1     1
  1.8512006206739609E-01 a      1202     0    61     1     2
  2.4966177403851431E-02 a      1203     0    61     1     3
 -2.7573101163124725E-02 a      1204     0    61     1     4
  2.6580693019745649E-02 a      1205     0    61     1     5
 -1.4315939155293406E-01 a      1206     0    61     1     6
  1.0474116096263039E-01 a      1207     0    61     1     7
  4.2561216055318207E-02 a      1208     0    61     1     8
 -1.2630277913653084E-02 a      1209     0    61     1     9
  2.5075561587477025E-02 a      1210     0    61     1    10
  9.3561634200645297E-02 a      1211     0    61     1    11
  4.4246826509210108E-03 a      1212     0    61     1    12
 -5.4527239076215171E-02 a      1213     0    61     1    13
 -1.1320508568085111E-01 a      1214     0    61     1    14
  1.3075351501953146E-02 a      1215     0    61     1    15
  1.3066541664795506E-02 a      1216     0    61     1    16
  1.5840092480371517E-03 a      1217     0    61     1    17
 -9.3002233218987443E-02 a      1218     0    61     1    18
  9.7402660493914051E-02 a      1219     0    61     1    19
  2.0852597308460126E-02 a      1220     0    61     1    20
 -1.3857093822752875E-01 a      1221     0    62     1     1
  9.2854365461717589E-02 a      1222     0    62     1     2
 -5.0915312671455638E-02 a      1223     0    62     1     3
  1.3467562338070466E-01 a      1224     0    62     1     4
  1.1291850967817029E-02 a      1225     0    62     1     5
 -1.5940881685155794E-01 a      1226     0    62     1     6
 -5.7547765141369462E-03 a      1227     0    62     1     7
  1.0044656282051888E-01 a      1228     0    62     1     8
 -2.4660756169437692E-02 a      1229     0    62     1     9
  3.5702050506104421E-02 a      1230     0    62     1    10
 -1.1984674016610828E-02 a      1231     0    62     1    11
 -5.4941906383783747E-02 a      1232     0    62     1    12
  4.5134859666121047E-02 a      1233     0    62     1    13
 -3.8302002685220104E-03 a      1234     0    62     1    14
 -2.3449241255498947E-03 a      1235     0    62     1    15
 -3.6648232956600475E-02 a      1236     0    62     1    16
 -8.7108918398043633E-02 a      1237     0    62     1    17
 -3.2485619346166429E-02 a      1238     0    62     1    18
  7.5943941838060710E-03 a      1239     0    62     1    19
  5.5894723173714918E-03 a      1240     0    62     1    20
 -1.5508087776582877E-01 a      1241     0    63     1     1
  2.8819221563921343E-02 a      1242     0    63     1     2
 -4.4194613277938895E-02 a      1243     0    63     1     3
  8.3063132085591171E-02 a      1244     0    63     1     4
  9.5934272657765898E-02 a      1245     0    63     1     5
 -1.5042980723096400E-01 a      1246     0    63     1     6
  1.9676608795962496E-02 a      1247     0    63     1     7
 -8.0621354315044982E-02 a      1248     0    63     1     8
 -3.4457461039876076E-03 a      1249     0    63     1     9
 -9.5379863744692664E-02 a      1250     0    63     1    10
 -1.0488747089410638E-01 a      1251     0    63     1    11
 -1.1898870397140765E-01 a      1252     0    63     1    12
  3.3827126308897483E-02 a      1253     0    63     1    13
  1.5461066031318127E-01 a      1254     0    63     1    14
 -3.3643087774256199E-03 a      1255     0    63     1    15
 -8.2586164576259530E-02 a      1256     0    63     1    16
 -2.8482508960602379E-02 a      1257     0    63     1    17
 -3.8646775266945169E-02 a      1258     0    63     1    18
 -1.8359984879767796E-01 a      1259     0    63     1    19
  2.9337081016077970E-02 a      1260     0    63     1    20
  1.0931004760895273E-02 a      1261     0    64     1     1
 -1.5163849622531722E-01 a      1262     0    64     1     2
 -1.3156145621306975E-01 a      1263     0    64     1     3
  1.6999853053244567E-02 a      1264     0    64     1     4
 -2.6701628130553384E-01 a      1265     0    64     1     5
  2.6365052776369702E-01 a      1266     0    64     1     6
 -4.5527915556039372E-01 a      1267     0    64     1     7
  1.6683517417613866E-01 a      1268     0    64     1     8
 -3.3022552309706710E-01 a      1269     0    64     1     9
  2.4905017963995125E-02 a      1270     0    64     1    10
 -8.5749839894423224E-02 a      1271     0    64     1    11
  1.5095504393004108E-01 a      1272     0    64     1    12
  2.7875372403582921E-01 a      1273     0    64     1    13
  2.5094198052859790E-01 a      1274     0    64     1    14
 -2.1723174127803096E-02 a      1275     0    64     1    15
  1.3014600148829084E-01 a      1276     0    64     1    16
  1.7714110916255379E-01 a      1277     0    64     1    17
 -3.7502496822666414E-03 a      1278     0    64     1    18
 -9.2125804667414546E-02 a      1279     0    64     1    19
 -2.5688304102185255E-01 a      1280     0    64     1    20
 -5.0698175429279659E-02 a      1281     0    65     1     1
  9.6500924858169204E-02 a      1282     0    65     1     2
 -3.6474830548285556E-02 a      1283     0    65     1     3
 -1.8039606412513492E-02 a      1284     0    65     1     4
  2.1203690206220628E-02 a      1285     0    65     1     5
  2.3698017256585963E-01 a      1286     0    65     1     6
  1.2682107502573231E-01 a      1287     0    65     1     7
  7.6750964647899322E-02 a      1288     0    65     1     8
 -5.3504836942470754E-02 a      1289     0    65     1     9
 -1.2145733489927210E-01 a      1290     0    65     1    10
 -1.0924925936519472E-01 a      1291     0    65     1    11
  9.7344948432634290E-02 a      1292     0    65     1    12
  1.0255510248681697E-01 a      1293     0    65     1    13
 -1.1634814672840804E-01 a      1294     0    65     1    14
  3.4276438800994895E-02 a      1295     0    65     1    15
  9.5260954577934140E-02 a      1296     0    65     1    16
  9.7991373450023983E-02 a      1297     0    65     1    17
 -5.0222895526821302E-03 a      1298     0    65     1    18
 -1.8969167209460965E-02 a      1299     0    65     1    19
  4.2027508707026581E-02 a      1300     0    65     1    20
  3.2207327953559001E-01 a      1301     0    66     1     1
 -8.4547098515957320E-02 a      1302     0    66     1     2
 -6.0151370813327651E-02 a      1303     0    66     1     3
  4.4845415172732076E-03 a      1304     0    66     1     4
  9.0505640867622819E-02 a      1305     0    66     1     5
 -5.8258861023081442E-02 a      1306     0    66     1     6
  2.1680966404454421E-02 a      1307     0    66     1     7
 -1.5223892828599589E-01 a      1308     0    66     1     8
  4.0425322148827457E-02 a      1309     0    66     1     9
 -6.8743780284355613E-02 a      1310     0    66     1    10
  1.4909467364087939E-01 a      1311     0    66     1    11
  4.4937046449863655E-02 a      1312     0    66     1    12
 -7.7383968670041894E-02 a      1313     0    66     1    13
 -1.7122690796637793E-01 a      1314     0    66     1    14
  5.3119632843925492E-02 a      1315     0    66     1    15
 -1.8691072133507941E-01 a      1316     0    66     1    16
  5.8791758169402936E-02 a      1317     0    66     1    17
  1.6547688238275737E-04 a      1318     0    66     1    18
  3.1586006698549995E-01 a      1319     0    66     1    19
 -2.0689739470710014E-01 a      1320     0    66     1    20
  2.6325805617989444E-03 a      1321     0    67     1     1
  5.4725619411565389E-02 a      1322     0    67     1     2
  3.7086047673464545E-02 a      1323     0    67     1     3
 -2.7776955352720699E-02 a      1324     0    67     1     4
 -5.1228434699006162E-02 a      1325     0    67     1     5
  1.8796569513033068E-01 a      1326     0    67     1     6
 -1.6713626788912854E-02 a      1327     0    67     1     7
  3.5369201810295424E-02 a      1328     0    67     1     8
 -7.6521464259090788E-02 a      1329     0    67     1     9
  1.4819802752847949E-02 a      1330     0    67     1    10
 -2.7510312496552083E-02 a      1331     0    67     1    11
 -5.1194352130786623E-02 a      1332     0    67     1    12
  2.6783434609533752E-02 a      1333     0    67     1    13
  5.5369261279584810E-02 a      1334     0    67     1    14
  2.6341311440073161E-02 a      1335     0    67     1    15
 -1.0526495025224801E-01 a      1336     0    67     1    16
  1.4923591465388080E-02 a      1337     0    67     1    17
  1.2049181487640381E-01 a      1338     0    67     1    18
  4.3701789115674711E-02 a      1339     0    67     1    19
  2.6077122543587355E-01 a      1340     0    67     1    20
  1.0092790078600627E-01 a      1341     0    68     1     1
 -1.3667037171071553E-01 a      1342     0    68     1     2
 -3.2891513669656000E-03 a      1343     0    68     1     3
 -2.0832015895522853E-02 a      1344     0    68     1     4
 -1.3617502052742131E-01 a      1345     0    68     1     5
  9.0751727122695441E-02 a      1346     0    68     1     6
 -7.0557702116075607E-03 a      1347     0    68     1     7
  1.3836553288265899E-01 a      1348     0    68     1     8
 -3.4692862716449210E-02 a      1349     0    68     1     9
  1.9735783233617802E-03 a      1350     0    68     1    10
  7.1383004729946728E-02 a      1351     0    68     1    11
 -5.1914396350759978E-02 a      1352     0    68     1    12
  2.3987556127041502E-02 a      1353     0    68     1    13
 -7.4895130129217502E-02 a      1354     0    68     1    14
  1.5588026893278789E-02 a      1355     0    68     1    15
  3.7127229844637871E-02 a      1356     0    68     1    16
  5.3292208682302486E-02 a      1357     0    68     1    17
 -2.4987187468478778E-02 a      1358     0    68     1    18
 -4.3433306557927234E-03 a      1359     0    68     1    19
  1.8336440895123302E-01 a      1360     0    68     1    20
  5.0978742556569555E-02 a      1361     0    69     1     1
  2.7910348080109070E-02 a      1362     0    69     1     2
  2.3757245515549523E-02 a      1363     0    69     1     3
 -1.2614485147942117E-02 a      1364     0    69     1     4
 -3.8678227098875514E-02 a      1365     0    69     1     5
  3.5775536474704960E-02 a      1366     0    69     1     6
  2.4935084055223242E-02 a      1367     0    69     1     7
 -3.5824513425425426E-02 a      1368     0    69     1     8
  3.9490420457383858E-02 a      1369     0    69     1     9
 -3.1109267175710643E-02 a      1370     0    69     1    10
 -6.6590179988952379E-03 a      1371     0    69     1    11
  1.4878745281884417E-01 a      1372     0    69     1    12
  3.1170026355235320E-02 a      1373     0    69     1    13
 -6.8073214901646223E-02 a      1374     0    69     1    14
  3.3788527266934841E-02 a      1375     0    69     1    15
  6.0470586343964287E-02 a      1376     0    69     1    16
 -5.0969008304203374E-02 a      1377     0    69     1    17
 -6.8381133410694059E-02 a      1378     0    69     1    18
  1.5561328262735128E-02 a      1379     0    69     1    19
  1.9939737761341926E-02 a      1380     0    69     1    20
 -6.5905325803358658E-02 a      1381     0    70     1     1
 -1.1432624180084666E-01 a      1382     0    70     1     2
  2.7686376063946216E-01 a      1383     0    70     1     3
 -5.5902331856967538E-02 a      1384     0    70     1     4
  1.7603830837875808E-01 a      1385     0    70     1     5
 -3.7725310200097339E-01 a      1386     0    70     1     6
  6.9835861961475482E-02 a      1387     0    70     1     7
 -1.2250833584533151E-01 a      1388     0    70     1     8
  9.1116669233368031E-02 a      1389     0    70     1     9
  1.0335919410310274E-01 a      1390     0    70     1    10
  2.1813489009611658E-01 a      1391     0    70     1    11
 -7.3907563054909933E-02 a      1392     0    70     1    12
 -3.7894397720149475E-01 a      1393     0    70     1    13
  6.2183442905244309E-02 a      1394     0    70     1    14
 -1.0835869836290131E-02 a      1395     0    70     1    15
  5.6551600078807246E-02 a      1396     0    70     1    16
 -1.1015777314194178E-01 a      1397     0    70     1    17
  8.0516516738172089E-02 a      1398     0    70     1    18
 -1.8878346776031713E-01 a      1399     0    70     1    19
  7.4630614926902705E-02 a      1400     0    70     1    20
  9.4011618023677149E-02 a      1401     0    71     1     1
 -2.1829991788348546E-01 a      1402     0    71     1     2
  1.2821959288592572E-01 a      1403     0    71     1     3
 -6.4508824861569045E-02 a      1404     0    71     1     4
 -2.7524542091643467E-01 a      1405     0    71     1     5
  3.7377127054572223E-01 a      1406     0    71     1     6
  7.5997951496191596E-02 a      1407     0    71     1     7
  3.6432679886362929E-01 a      1408     0    71     1     8
  1.3506474231345514E-01 a      1409     0    71     1     9
 -1.2751590174267161E-01 a      1410     0    71     1    10
 -2.0726795114766283E-01 a      1411     0    71     1    11
 -1.2527219808524337E-01 a      1412     0    71     1    12
 -1.1656989847925989E-01 a      1413     0    71     1    13
 -9.3020510805597534E-02 a      1414     0    71     1    14
 -1.6064928125975900E-01 a      1415     0    71     1    15
  2.2530643530924971E-01 a      1416     0    71     1    16
 -6.8362010601150089E-02 a      1417     0    71     1    17
 -1.8253963939185941E-01 a      1418     0    71     1    18
 -2.0114602137806445E-01 a      1419     0    71     1    19
  7.7694904895730901E-02 a      1420     0    71     1    20
  1.8478341959630534E-02 a      1421     0    72     1     1
  1.1124820782350754E-01 a      1422     0    72     1     2
  6.5361656126317350E-02 a      1423     0    72     1     3
 -9.1474132099497923E-02 a      1424     0    72     1     4
 -1.9331583525797731E-02 a      1425     0    72     1     5
 -4.6493773580380988E-02 a      1426     0    72     1     6
 -8.9588750294764291E-02 a      1427     0    72     1     7
 -4.0686064468886882E-02 a      1428     0    72     1     8
  3.4846051273321646E-02 a      1429     0    72     1     9
  8.8299587616609970E-02 a      1430     0    72     1    10
 -2.8811531013130803E-02 a      1431     0    72     1    11
  4.0347434294912096E-02 a      1432     0    72     1    12
 -2.6808437728846890E-02 a      1433     0    72     1    13
  7.6052595235074957E-03 a      1434     0    72     1    14
 -2.2596982060392238E-02 a      1435     0    72     1    15
  1.1224949010269569E-01 a      1436     0    72     1    16
 -1.6914856333651338E-02 a      1437     0    72     1    17
 -1.2802188217248323E-01 a      1438     0    72     1    18
 -1.1016800759300518E-01 a      1439     0    72     1    19
 -5.4036155812688932E-02 a      1440     0    72     1    20
  1.5173924330412553E-01 a      1441     0    73     1     1
  2.5880009518978783E-02 a      1442     0    73     1     2
 -7.6727434121094682E-03 a      1443     0    73     1     3
  9.0178950774478517E-02 a      1444     0    73     1     4
  3.4945053206615860E-02 a      1445     0    73     1     5
 -6.9726910885285293E-02 a      1446     0    73     1     6
  6.5696473659983254E-02 a      1447     0    73     1     7
  1.1243112075501544E-02 a      1448     0    73     1     8
 -1.8963918188594064E-02 a      1449     0    73     1     9
 -2.2669469101472745E-02 a      1450     0    73     1    10
  5.6548713619584343E-02 a      1451     0    73     1    11
  1.6547758399039738E-02 a      1452     0    73     1    12
 -2.6265081036545894E-02 a      1453     0    73     1    13
 -4.8810797081910946E-02 a      1454     0    73     1    14
  2.6552124557123302E-02 a      1455     0    73     1    15
 -1.7300397289250254E-02 a      1456     0    73     1    16
  5.3582696125557758E-02 a      1457     0    73     1    17
 -5.5080935164686130E-02 a      1458     0    73     1    18
  9.4568843137913375E-02 a      1459     0    73     1    19
 -1.7411564869505715E-02 a      1460     0    73     1    20
 -7.7647440975073895E-02 a      1461     0    74     1     1
 -6.5884745355023877E-01 a      1462     0    74     1     2
 -1.5718515851913442E-01 a      1463     0    74     1     3
 -1.5851286367446801E-01 a      1464     0    74     1     4
 -2.0000520227551777E-01 a      1465     0    74     1     5
 -8.0295885531806152E-02 a      1466     0    74     1     6
 -1.8875106987723339E-01 a      1467     0    74     1     7
 -2.3935038904824332E-01 a      1468     0    74     1     8
  6.7801089028664807E-01 a      1469     0    74     1     9
  5.1008748952061755E-01 a      1470     0    74     1    10
  7.6750224439524850E-01 a      1471     0    74     1    11
 -1.5018720115112136E-01 a      1472     0    74     1    12
  7.9789318618005214E-02 a      1473     0    74     1    13
  7.7744026522382131E-02 a      1474     0    74     1    14
  1.7470858195379241E-01 a      1475     0    74     1    15
 -8.5676732040450776E-01 a      1476     0    74     1    16
 -9.3794557878754459E-02 a      1477     0    74     1    17
  1.1359771681956166E+00 a      1478     0    74     1    18
  1.2758410830297973E+00 a      1479     0    74     1    19
  2.0234057518050647E-01 a      1480     0    74     1    20
  3.4497939831790603E-01 a      1481     0    75     1     1
 -3.9135046269448547E-02 a      1482     0    75     1     2
 -1.3668159090903118E-02 a      1483     0    75     1     3
 -1.9934961589830855E-01 a      1484     0    75     1     4
 -1.1894474999826789E-01 a      1485     0    75     1     5
  1.6247764329631126E-01 a      1486     0    75     1     6
  4.3267814970016603E-02 a      1487     0    75     1     7
  1.5749071317727692E-01 a      1488     0    75     1     8
 -9.3537707477806764E-02 a      1489     0    75     1     9
  6.0450382365674307E-02 a      1490     0    75     1    10
  2.3777258695963818E-01 a      1491     0    75     1    11
 -1.2532006182257760E-01 a      1492     0    75     1    12
 -4.8450518262284227E-02 a      1493     0    75     1    13
 -3.4772544242937534E-02 a      1494     0    75     1    14
  4.0405411918172110E-02 a      1495     0    75     1    15
  1.3213820251596128E-01 a      1496     0    75     1    16
 -3.6764645097076626E-01 a      1497     0    75     1    17
 -8.4702856344312710E-02 a      1498     0    75     1    18
  4.4041024736591203E-02 a      1499     0    75     1    19
  1.7394236779881525E-01 a      1500     0    75     1    20
  1.9547261852259096E-01 a      1501     0    76     1     1
 -2.0023164782971913E-02 a      1502     0    76     1     2
 -7.4058071312601940E-03 a      1503     0    76     1     3
  1.0095202118050728E-01 a      1504     0    76     1     4
 -1.2516913521184045E-01 a      1505     0    76     1     5
  2.6829743277874002E-01 a      1506     0    76     1     6
  1.7818268964746167E-01 a      1507     0    76     1     7
  1.9509480244018072E-02 a      1508     0    76     1     8
  3.3495117474830832E-01 a      1509     0    76     1     9
 -1.4191776800805597E-01 a      1510     0    76     1    10
  1.5601325170527609E-02 a      1511     0    76     1    11
 -2.2522570410199000E-01 a      1512     0    76     1    12
  2.0665924955964601E-01 a      1513     0    76     1    13
  1.2668080422724773E-01 a      1514     0    76     1    14
  9.5549839698671438E-02 a      1515     0    76     1    15
 -1.4995541200901619E-01 a      1516     0    76     1    16
 -6.1075997905352744E-02 a      1517     0    76     1    17
  8.1968602483909456E-02 a      1518     0    76     1    18
  1.6019813852936204E-01 a      1519     0    76     1    19
 -5.8876417699281036E-02 a      1520     0    76     1    20
 -5.3985085616502212E-02 a      1521     0    77     1     1
 -1.5088866248891949E-01 a      1522     0    77     1     2
 -8.4369876741852937E-02 a      1523     0    77     1     3
  2.5842576457366734E-02 a      1524     0    77     1     4
  8.8089080265593256E-02 a      1525     0    77     1     5
 -8.8055408266357119E-02 a      1526     0    77     1     6
  1.3473469831760820E-01 a      1527     0    77     1     7
 -1.2357367817359850E-01 a      1528     0    77     1     8
  5.7808905362087694E-02 a      1529     0    77     1     9
 -9.7886246829719054E-02 a      1530     0    77     1    10
 -4.1575334805774387E-03 a      1531     0    77     1    11
 -1.2566846053355971E-01 a      1532     0    77     1    12
  1.7885339136562782E-02 a      1533     0    77     1    13
  6.4560345723281926E-02 a      1534     0    77     1    14
  9.3219388926950586E-03 a      1535     0    77     1    15
 -6.2232562036637053E-02 a      1536     0    77     1    16
 -1.8859529075649594E-02 a      1537     0    77     1    17
 -2.0813252579421192E-03 a      1538     0    77     1    18
  7.2162815519663748E-02 a      1539     0    77     1    19
 -1.3399301435777958E-02 a      1540     0    77     1    20
 -2.7841519597629755E-01 a      1541     0    78     1     1
 -1.7748515506832238E-01 a      1542     0    78     1     2
 -9.6642554610790701E-02 a      1543     0    78     1     3
 -8.2552179537406442E-03 a      1544     0    78     1     4
 -2.7267199509620210E-02 a      1545     0    78     1     5
 -3.3509333084383357E-02 a      1546     0    78     1     6
 -1.8612819167665462E-01 a      1547     0    78     1     7
 -1.3494644127704650E-01 a      1548     0    78     1     8
 -2.3921292198180794E-01 a      1549     0    78     1     9
 -2.6177078621188416E-02 a      1550     0    78     1    10
 -5.5464726081893817E-02 a      1551     0    78     1    11
  2.7005269288470368E-01 a      1552     0    78     1    12
  8.6235875961674660E-02 a      1553     0    78     1    13
 -9.9030541383758747E-02 a      1554     0    78     1    14
 -8.4022205121358565E-02 a      1555     0    78     1    15
 -9.0197233029560051E-02 a      1556     0    78     1    16
  8.7032723627517447E-02 a      1557     0    78     1    17
  5.8985811833209188E-02 a      1558     0    78     1    18
 -2.5055240781919297E-01 a      1559     0    78     1    19
 -3.2965434581871378E-01 a      1560     0    78     1    20
  8.2749881264959024E-02 a      1561     0    79     1     1
  1.2000546511739803E-01 a      1562     0    79     1     2
  8.8413679380102389E-02 a      1563     0    79     1     3
  1.3868869565375358E-02 a      1564     0    79     1     4
 -9.9032107766219915E-02 a      1565     0    79     1     5
  1.5818424174292009E-01 a      1566     0    79     1     6
  2.9992744963638199E-02 a      1567     0    79     1     7
  9.6103676558359066E-02 a      1568     0    79     1     8
  2.5996625367918916E-02 a      1569     0    79     1     9
 -5.4897590140290844E-02 a      1570     0    79     1    10
 -1.1199715168863473E-02 a      1571     0    79     1    11
  1.3595713526766257E-01 a      1572     0    79     1    12
 -6.5215457484307487E-02 a      1573     0    79     1    13
 -1.5157763517793515E-01 a      1574     0    79     1    14
 -3.8492503822623356E-02 a      1575     0    79     1    15
  9.9350294326429153E-02 a      1576     0    79     1    16
  7.1186046697581926E-02 a      1577     0    79     1    17
 -1.4816858646355938E-02 a      1578     0    79     1    18
 -7.6225309611580555E-02 a      1579     0    79     1    19
  9.7809916001103028E-03 a      1580     0    79     1    20
  2.3442096511690710E-01 a      1581     0    80     1     1
  3.8251796824949319E-01 a      1582     0    80     1     2
  5.3915493814900038E-02 a      1583     0    80     1     3
  9.7196639513672814E-02 a      1584     0    80     1     4
 -7.6869403242703083E-02 a      1585     0    80     1     5
  1.9519767727320636E-01 a      1586     0    80     1     6
  2.0799750791425270E-01 a      1587     0    80     1     7
  9.3361590272251063E-02 a      1588     0    80     1     8
 -4.2646974571368262E-02 a      1589     0    80     1     9
 -2.1414195840987443E-01 a      1590     0    80     1    10
 -2.7631445623303508E-01 a      1591     0    80     1    11
  4.3243284461663409E-02 a      1592     0    80     1    12
  4.5849936033257314E-02 a      1593     0    80     1    13
 -2.1937695823458625E-01 a      1594     0    80     1    14
 -6.7306832354744703E-02 a      1595     0    80     1    15
  2.6645427104746561E-01 a      1596     0    80     1    16
  1.2632474217505391E-01 a      1597     0    80     1    17
 -4.2422137808960497E-01 a      1598     0    80     1    18
 -2.3816666209858986E-01 a      1599     0    80     1    19
  7.1166557038306100E-02 a      1600     0    80     1    20
  5.6943656331687209E-01 b      1601     1     1
  1.4333717570945614E+00 b      1602     1     2
  1.0099663973725848E+00 b      1603     1     3
 -9.9938226505632666E-01 b      1604     1     4
 -5.5367761174161878E-01 b      1605     1     5
 -9.0012047348968616E-01 b      1606     1     6
 -3.8958817960877457E-01 b      1607     1     7
  5.4160366752137479E-01 b      1608     1     8
 -1.2451547478320433E+00 b      1609     1     9
  3.8013560651510120E-01 b      1610     1    10
  1.4453888480763566E-01 b      1611     1    11
 -3.8533823710471216E-01 b      1612     1    12
 -4.2122202282046467E-01 b      1613     1    13
  3.2518554889268442E-01 b      1614     1    14
 -1.3690888595977546E+00 b      1615     1    15
  9.3347354749649969E-01 b      1616     1    16
 -5.2027699077606393E-01 b      1617     1    17
 -9.7743716659185864E-01 b      1618     1    18
 -9.4494337937367168E-01 b      1619     1    19
 -9.4767210028736104E-01 b      1620     1    20
 -7.2098940997571442E-02 a      1621     1     1     2     1
 -1.9027107523160847E-01 a      1622     1     1     2     2
  5.0610172973221110E-02 a      1623     1     1     2     3
 -4.2683623592473080E-01 a      1624     1     1     2     4
  2.6207815262752430E-02 a      1625     1     1     2     5
  3.2288429184604528E-01 a      1626     1     1     2     6
 -6.0064536230204235E-01 a      1627     1     1     2     7
