################################################################################
# Neural network connection values (weights and biases).
################################################################################
# Col  Name       Description
################################################################################
# 1    connection Neural network connection value.
# 2    t          Connection type (a = weight, b = bias).
# 3    index      Index enumerating weights.
# 4    l_s        Starting point layer (end point layer for biases).
# 5    n_s        Starting point neuron in starting layer (end point neuron for biases).
# 6    l_e        End point layer.
# 7    n_e        End point neuron in end layer.
################################################################################
#                      1 2         3     4     5     6     7
#             connection t     index   l_s   n_s   l_e   n_e
############################################################
  4.2085751558532843E-02 a         1     0     1     1     1
 -3.2433354761333760E-01 a         2     0     1     1     2
 -3.1683053579711612E-01 a         3     0     1     1     3
 -1.4389211821261592E+00 a         4     0     1     1     4
  1.3915612225070154E-01 a         5     0     1     1     5
  4.0650100958466584E-01 a         6     0     1     1     6
  2.0160837323145311E-01 a         7     0     1     1     7
 -1.4202022436159287E-01 a         8     0     1     1     8
 -1.2245367354998496E-01 a         9     0     1     1     9
  4.5273874342580255E-02 a        10     0     1     1    10
  2.5789875648704891E-01 a        11     0     1     1    11
 -4.5828400446175132E-03 a        12     0     1     1    12
  1.6655795397662916E+00 a        13     0     1     1    13
 -2.3536501250150135E-01 a        14     0     1     1    14
  1.7599812227954281E-01 a        15     0     1     1    15
 -2.3408945134828010E-01 a        16     0     1     1    16
 -2.4940124410173201E-01 a        17     0     1     1    17
 -5.8817490369501979E-01 a        18     0     1     1    18
  1.5796006626557477E-01 a        19     0     1     1    19
 -6.6005328211084702E-01 a        20     0     1     1    20
 -2.2871373298895706E-01 a        21     0     2     1     1
 -2.1052055707796814E-02 a        22     0     2     1     2
  1.4289473261809862E-01 a        23     0     2     1     3
 -5.9495589507198736E-02 a        24     0     2     1     4
 -1.3851902899147919E-01 a        25     0     2     1     5
  4.1719037339366265E-02 a        26     0     2     1     6
 -9.9692350974822264E-02 a        27     0     2     1     7
 -9.0561400809350892E-03 a        28     0     2     1     8
 -8.2426956062155964E-03 a        29     0     2     1     9
  5.0973922495762651E-03 a        30     0     2     1    10
 -2.0824679685234142E-02 a        31     0     2     1    11
 -1.1615075283731609E-01 a        32     0     2     1    12
 -3.9949518613496042E-02 a        33     0     2     1    13
 -2.4089805607945207E-02 a        34     0     2     1    14
  1.4857253741194043E-01 a        35     0     2     1    15
  1.2677491183228295E-01 a        36     0     2     1    16
  5.4061812814549408E-02 a        37     0     2     1    17
 -1.9276489577974903E-01 a        38     0     2     1    18
  2.1741402291014308E-01 a        39     0     2     1    19
  6.7228981074866856E-02 a        40     0     2     1    20
  5.2349706874124359E-02 a        41     0     3     1     1
 -9.0697466128021147E-03 a        42     0     3     1     2
 -7.8042093292760198E-02 a        43     0     3     1     3
  6.3216424734485369E-02 a        44     0     3     1     4
 -1.2838635292543542E-02 a        45     0     3     1     5
  1.1333023888372190E-01 a        46     0     3     1     6
  1.6504802159889764E-01 a        47     0     3     1     7
  2.0115834826477018E-02 a        48     0     3     1     8
 -7.1108670709026822E-02 a        49     0     3     1     9
 -3.5755629237722929E-02 a        50     0     3     1    10
 -2.3369447290115816E-01 a        51     0     3     1    11
 -1.9122090127175193E-01 a        52     0     3     1    12
  9.0806857232284169E-02 a        53     0     3     1    13
 -2.5403893844598565E-02 a        54     0     3     1    14
 -1.5002683854822765E-01 a        55     0     3     1    15
  1.2526843291279957E-01 a        56     0     3     1    16
  8.6356035765810440E-02 a        57     0     3     1    17
 -4.8169917906375426E-02 a        58     0     3     1    18
  1.0922773880368698E-01 a        59     0     3     1    19
  3.3777042165103077E-02 a        60     0     3     1    20
 -7.8781035274089611E-02 a        61     0     4     1     1
  1.6234545113112017E-01 a        62     0     4     1     2
  2.3090515266165061E-02 a        63     0     4     1     3
  5.4182387917260738E-02 a        64     0     4     1     4
 -1.0797685626677054E-02 a        65     0     4     1     5
 -6.1204554109623277E-02 a        66     0     4     1     6
  6.8725777869791602E-02 a        67     0     4     1     7
 -2.0836402379936875E-01 a        68     0     4     1     8
  1.9262562524005090E-03 a        69     0     4     1     9
 -1.3126741308683562E-01 a        70     0     4     1    10
  1.2726709756251148E-01 a        71     0     4     1    11
 -5.7905514293922926E-02 a        72     0     4     1    12
 -4.5839059235085487E-02 a        73     0     4     1    13
 -1.6863436684275576E-01 a        74     0     4     1    14
 -3.0895727338989420E-01 a        75     0     4     1    15
  1.0373203491289748E-01 a        76     0     4     1    16
  3.1540345835185786E-02 a        77     0     4     1    17
  4.4346554930168921E-03 a        78     0     4     1    18
  5.9294014031807660E-02 a        79     0     4     1    19
  1.6957295488368804E-01 a        80     0     4     1    20
 -1.0027965636733329E+00 a        81     0     5     1     1
  6.9994267992750681E-01 a        82     0     5     1     2
  1.0561392171003749E-01 a        83     0     5     1     3
  1.9498870913434101E+00 a        84     0     5     1     4
  1.1955429372860345E-01 a        85     0     5     1     5
  2.8593310894162038E-01 a        86     0     5     1     6
  1.5467794154571876E-01 a        87     0     5     1     7
 -1.1243725475593595E-01 a        88     0     5     1     8
 -2.1760398635669828E-01 a        89     0     5     1     9
  4.9893427038512450E-01 a        90     0     5     1    10
  3.4829259176309947E-02 a        91     0     5     1    11
 -2.3387410842648615E-01 a        92     0     5     1    12
 -5.4277121814550155E-01 a        93     0     5     1    13
 -9.1245877492337657E-01 a        94     0     5     1    14
 -9.5560068573384027E-01 a        95     0     5     1    15
  5.8388572630747015E-01 a        96     0     5     1    16
  3.4090136139341276E-01 a        97     0     5     1    17
  8.3886459403910119E-01 a        98     0     5     1    18
  6.8723058608743870E-01 a        99     0     5     1    19
  8.7375844555110171E-01 a       100     0     5     1    20
  1.3667421944075359E-01 a       101     0     6     1     1
  1.1981823195961973E-01 a       102     0     6     1     2
 -1.5352466597006514E-01 a       103     0     6     1     3
  7.3486968880450809E-02 a       104     0     6     1     4
 -1.1212719874012685E-01 a       105     0     6     1     5
  5.9874093308141460E-02 a       106     0     6     1     6
 -1.2320643230237391E-02 a       107     0     6     1     7
  1.8857125619367540E-01 a       108     0     6     1     8
 -5.7454092687511560E-02 a       109     0     6     1     9
 -6.6494305633914369E-02 a       110     0     6     1    10
  1.2852479909754719E-01 a       111     0     6     1    11
 -9.5696689326727480E-02 a       112     0     6     1    12
 -1.5068794269402897E-02 a       113     0     6     1    13
 -3.8753389012050640E-03 a       114     0     6     1    14
 -2.5918109324992666E-02 a       115     0     6     1    15
 -2.6826975799673697E-01 a       116     0     6     1    16
 -5.4336762084166254E-02 a       117     0     6     1    17
 -3.3737613232296378E-03 a       118     0     6     1    18
 -1.0787999298606062E-01 a       119     0     6     1    19
  6.3515994499979259E-02 a       120     0     6     1    20
 -1.6813266479115740E-01 a       121     0     7     1     1
  2.2724762912996410E-02 a       122     0     7     1     2
  2.6881981811311333E-02 a       123     0     7     1     3
  7.0611665120934045E-02 a       124     0     7     1     4
 -6.4275432637432711E-02 a       125     0     7     1     5
  1.1413188706048526E-01 a       126     0     7     1     6
 -9.9350076422389841E-02 a       127     0     7     1     7
  1.8452223223880221E-01 a       128     0     7     1     8
  1.3118253303137462E-01 a       129     0     7     1     9
  1.4978088529775063E-01 a       130     0     7     1    10
  1.7033013909698855E-01 a       131     0     7     1    11
  1.0597594103493199E-01 a       132     0     7     1    12
  1.1378901514048702E-01 a       133     0     7     1    13
  3.5829833631954876E-02 a       134     0     7     1    14
  1.0348910115729947E-01 a       135     0     7     1    15
 -1.2543835474208048E-01 a       136     0     7     1    16
 -2.5168191553981607E-02 a       137     0     7     1    17
 -6.0434678392726225E-02 a       138     0     7     1    18
 -3.3315384222273081E-01 a       139     0     7     1    19
 -1.8341410138832615E-01 a       140     0     7     1    20
 -8.2227426369359702E-02 a       141     0     8     1     1
 -4.7072520638476151E-01 a       142     0     8     1     2
  3.4690809939102472E-02 a       143     0     8     1     3
 -1.6046469017944001E-01 a       144     0     8     1     4
 -3.0679398160749494E-02 a       145     0     8     1     5
  2.4296298887164541E-01 a       146     0     8     1     6
 -1.7435142811282078E-01 a       147     0     8     1     7
  3.1487636918969686E-01 a       148     0     8     1     8
  2.0445454327931445E-01 a       149     0     8     1     9
  2.9322423196272044E-02 a       150     0     8     1    10
 -2.1803746353981418E-01 a       151     0     8     1    11
 -4.5525934723997505E-02 a       152     0     8     1    12
 -2.1747966512824571E-01 a       153     0     8     1    13
  6.5085470309497828E-01 a       154     0     8     1    14
  7.5914416262497297E-01 a       155     0     8     1    15
 -3.5806700758340226E-01 a       156     0     8     1    16
 -3.8659861311901755E-01 a       157     0     8     1    17
 -1.5502267996891275E-01 a       158     0     8     1    18
 -1.9755939781818507E-01 a       159     0     8     1    19
  1.4246865431888678E-01 a       160     0     8     1    20
  1.2035773640469871E+00 a       161     0     9     1     1
 -1.9481967572960017E+00 a       162     0     9     1     2
  9.4221068630099958E-01 a       163     0     9     1     3
 -1.1600786353679484E+00 a       164     0     9     1     4
 -4.4311455213785350E-01 a       165     0     9     1     5
  7.4826333621887398E-01 a       166     0     9     1     6
 -2.6146782133736673E-01 a       167     0     9     1     7
  1.3546555242411988E-02 a       168     0     9     1     8
  9.4602863488706695E-02 a       169     0     9     1     9
 -5.3452778826984926E-01 a       170     0     9     1    10
 -3.7999618927561241E-01 a       171     0     9     1    11
 -4.1661713922539639E-01 a       172     0     9     1    12
  1.1439249579886777E-01 a       173     0     9     1    13
  1.5507551527975827E+00 a       174     0     9     1    14
  1.2914505711252489E+00 a       175     0     9     1    15
  5.4099426280293612E-03 a       176     0     9     1    16
 -3.5797630049575702E-01 a       177     0     9     1    17
 -1.9112883958758614E-01 a       178     0     9     1    18
 -1.2267866932017284E+00 a       179     0     9     1    19
 -1.5996759893362373E+00 a       180     0     9     1    20
  1.8644339376817859E-01 a       181     0    10     1     1
  1.5582853780498301E-01 a       182     0    10     1     2
  1.0162638127019309E-01 a       183     0    10     1     3
 -2.2754978753617391E-01 a       184     0    10     1     4
  1.9435764018046926E-02 a       185     0    10     1     5
  9.6015692352774254E-02 a       186     0    10     1     6
 -5.3404589792204887E-02 a       187     0    10     1     7
 -1.7360702920592921E-01 a       188     0    10     1     8
  1.0070328994597592E-01 a       189     0    10     1     9
 -1.4399811661931820E-02 a       190     0    10     1    10
 -3.6710357967595024E-02 a       191     0    10     1    11
 -1.6333436028664983E-01 a       192     0    10     1    12
 -1.6562663556378726E-01 a       193     0    10     1    13
 -1.9006948231120638E-01 a       194     0    10     1    14
 -8.3989259837645935E-02 a       195     0    10     1    15
  3.0568244377433318E-01 a       196     0    10     1    16
 -7.8384223815218632E-02 a       197     0    10     1    17
  4.8841751851576385E-03 a       198     0    10     1    18
 -6.5187268735760764E-02 a       199     0    10     1    19
  2.4361094472620251E-01 a       200     0    10     1    20
 -1.7418367211242849E-01 a       201     0    11     1     1
 -4.8486398140852142E-03 a       202     0    11     1     2
  3.0283660582064130E-02 a       203     0    11     1     3
 -4.4054034699583404E-02 a       204     0    11     1     4
  9.8199964627028194E-02 a       205     0    11     1     5
 -5.3876291723743384E-02 a       206     0    11     1     6
 -2.7695222198795198E-02 a       207     0    11     1     7
 -3.1208013490647063E-01 a       208     0    11     1     8
 -1.8753727390768543E-01 a       209     0    11     1     9
 -1.4369497445595716E-01 a       210     0    11     1    10
  1.5673972588764329E-01 a       211     0    11     1    11
  2.2215673163829980E-01 a       212     0    11     1    12
  1.7284383235980641E-01 a       213     0    11     1    13
  1.5951327100054646E-01 a       214     0    11     1    14
 -6.4935253953095724E-03 a       215     0    11     1    15
 -2.0733716081792758E-01 a       216     0    11     1    16
 -2.5751247998683929E-02 a       217     0    11     1    17
  1.5277022336937407E-01 a       218     0    11     1    18
  2.2355076245715202E-01 a       219     0    11     1    19
 -1.4020160140855309E-01 a       220     0    11     1    20
  1.0735508629056086E-02 a       221     0    12     1     1
  1.3439340078408618E-01 a       222     0    12     1     2
  2.1129303283770098E-01 a       223     0    12     1     3
 -2.5503613675184705E-02 a       224     0    12     1     4
 -6.9755072000634813E-02 a       225     0    12     1     5
 -1.0179599073500462E-01 a       226     0    12     1     6
 -1.0192857705797539E-01 a       227     0    12     1     7
  3.1331964553252323E-02 a       228     0    12     1     8
  5.7875229427160091E-01 a       229     0    12     1     9
  1.6713064702833211E-02 a       230     0    12     1    10
 -4.3691171951248275E-01 a       231     0    12     1    11
  2.0108894195102436E-01 a       232     0    12     1    12
  2.1230897421298658E-02 a       233     0    12     1    13
 -5.4075146483743695E-02 a       234     0    12     1    14
 -3.0796006279010624E-01 a       235     0    12     1    15
 -1.2039336761233012E-01 a       236     0    12     1    16
 -3.9362678014562397E-01 a       237     0    12     1    17
  9.2198287712329415E-03 a       238     0    12     1    18
 -2.4024556674796537E-02 a       239     0    12     1    19
  4.5476294548456903E-01 a       240     0    12     1    20
 -1.1553564149413353E+00 a       241     0    13     1     1
  2.2324961423385119E+00 a       242     0    13     1     2
 -1.0335228343634484E+00 a       243     0    13     1     3
  7.3366693705620822E-01 a       244     0    13     1     4
  4.4832739595359217E-01 a       245     0    13     1     5
 -9.6400702216722467E-01 a       246     0    13     1     6
  2.1034128418921383E-01 a       247     0    13     1     7
  1.5755380078443632E-01 a       248     0    13     1     8
  4.4344106121882632E-01 a       249     0    13     1     9
  4.9807449742489229E-01 a       250     0    13     1    10
 -1.6662598426983005E-01 a       251     0    13     1    11
  6.5361914050919157E-01 a       252     0    13     1    12
  3.1513374567046698E-01 a       253     0    13     1    13
 -2.0053373092057440E+00 a       254     0    13     1    14
 -1.6543200081057985E+00 a       255     0    13     1    15
 -1.2805145430171827E-01 a       256     0    13     1    16
  7.5895802988896544E-01 a       257     0    13     1    17
  6.3025112355517920E-01 a       258     0    13     1    18
  1.7648519887233121E+00 a       259     0    13     1    19
  1.3698915588182350E+00 a       260     0    13     1    20
 -3.6329666229884837E-02 a       261     0    14     1     1
  2.9335838519969525E-02 a       262     0    14     1     2
  1.4033503121688126E-01 a       263     0    14     1     3
 -2.4484859491042892E-02 a       264     0    14     1     4
  1.8472333302807847E-01 a       265     0    14     1     5
 -1.8194212532312395E-01 a       266     0    14     1     6
  5.7084507730796083E-02 a       267     0    14     1     7
  1.4804947063318818E-01 a       268     0    14     1     8
  3.1772923875336229E-01 a       269     0    14     1     9
 -3.5066660389884757E-01 a       270     0    14     1    10
  1.8826794677044831E-02 a       271     0    14     1    11
  1.5065445480369627E-01 a       272     0    14     1    12
  8.3893431808818336E-02 a       273     0    14     1    13
  1.6940965916619380E-01 a       274     0    14     1    14
  3.6350213203956294E-01 a       275     0    14     1    15
 -1.0066131920191765E-01 a       276     0    14     1    16
  7.4908327948946807E-02 a       277     0    14     1    17
 -3.0362288488480488E-01 a       278     0    14     1    18
  5.1846714367156314E-02 a       279     0    14     1    19
 -4.1660324909730602E-02 a       280     0    14     1    20
 -1.4838106225207667E-01 a       281     0    15     1     1
 -1.2382594574086704E-01 a       282     0    15     1     2
  1.0440765891082487E-01 a       283     0    15     1     3
  1.7485638244779816E-01 a       284     0    15     1     4
 -2.4971962021202224E-01 a       285     0    15     1     5
  1.9434758617801490E-01 a       286     0    15     1     6
  8.7251970099381751E-02 a       287     0    15     1     7
  1.0217014338030896E-01 a       288     0    15     1     8
  1.6023133642639478E-01 a       289     0    15     1     9
  6.9659873957827217E-02 a       290     0    15     1    10
 -7.9105288984362504E-02 a       291     0    15     1    11
 -1.1762774011653841E-01 a       292     0    15     1    12
 -5.2510988434110693E-02 a       293     0    15     1    13
 -2.3359291981764702E-01 a       294     0    15     1    14
 -3.5566821261739642E-02 a       295     0    15     1    15
  1.3835396527037430E-01 a       296     0    15     1    16
 -6.8708002572107629E-02 a       297     0    15     1    17
 -1.7701637363426309E-01 a       298     0    15     1    18
 -4.8854340578880003E-02 a       299     0    15     1    19
  3.9317887356968068E-01 a       300     0    15     1    20
 -1.3144472954967507E-01 a       301     0    16     1     1
  3.0150685140290140E-01 a       302     0    16     1     2
 -2.4318254951358878E-01 a       303     0    16     1     3
 -2.1185890432064880E-01 a       304     0    16     1     4
  4.0436901190371896E-02 a       305     0    16     1     5
 -2.2675334847190903E-01 a       306     0    16     1     6
  6.5073693252089670E-02 a       307     0    16     1     7
 -4.9070461633436813E-01 a       308     0    16     1     8
  1.6833474107836821E-01 a       309     0    16     1     9
  2.9309176985449953E-01 a       310     0    16     1    10
  1.8538762193833988E-01 a       311     0    16     1    11
 -1.1148375397483785E-01 a       312     0    16     1    12
 -3.4153737664256034E-01 a       313     0    16     1    13
 -3.9041843645882968E-01 a       314     0    16     1    14
 -2.7503515866773304E-01 a       315     0    16     1    15
 -2.1513076146707830E-01 a       316     0    16     1    16
  8.4606155375861303E-02 a       317     0    16     1    17
  1.4721578760339735E-01 a       318     0    16     1    18
  1.4004122754477127E-01 a       319     0    16     1    19
  3.4284528330386960E-01 a       320     0    16     1    20
  2.7324304635638014E-01 a       321     0    17     1     1
 -1.3683374788737643E+00 a       322     0    17     1     2
  6.2561055934602716E-01 a       323     0    17     1     3
 -2.5134977550559257E-01 a       324     0    17     1     4
 -2.1587701205696894E-01 a       325     0    17     1     5
  7.7545024749843774E-02 a       326     0    17     1     6
 -2.1361068352139678E-01 a       327     0    17     1     7
  2.7793158055262368E-01 a       328     0    17     1     8
 -4.6276669929409203E-01 a       329     0    17     1     9
 -2.8623524467587136E-01 a       330     0    17     1    10
 -2.5163289286350693E-01 a       331     0    17     1    11
 -8.1111521358707872E-01 a       332     0    17     1    12
  3.0685534733757347E-01 a       333     0    17     1    13
  1.0315130568050264E+00 a       334     0    17     1    14
  8.0813336029893112E-01 a       335     0    17     1    15
  1.5858828711426850E-02 a       336     0    17     1    16
 -8.0347619580864379E-02 a       337     0    17     1    17
 -4.1472993062087843E-01 a       338     0    17     1    18
 -1.1193354498707362E+00 a       339     0    17     1    19
 -1.1773547917842861E+00 a       340     0    17     1    20
  1.4892970619788152E-02 a       341     0    18     1     1
  3.9082310991576125E-01 a       342     0    18     1     2
 -7.0636890685404713E-02 a       343     0    18     1     3
  3.1012434871195680E-02 a       344     0    18     1     4
 -1.5348657050613779E-02 a       345     0    18     1     5
  2.0860631306117489E-01 a       346     0    18     1     6
  1.0503728681904588E-01 a       347     0    18     1     7
  1.8942094672846035E-01 a       348     0    18     1     8
 -2.0430576736273945E-01 a       349     0    18     1     9
  2.1741166055887737E-01 a       350     0    18     1    10
  1.2600036362022299E-01 a       351     0    18     1    11
  3.6949830299359311E-02 a       352     0    18     1    12
 -1.5367782824909915E-01 a       353     0    18     1    13
  3.0095905245053161E-02 a       354     0    18     1    14
 -8.1536611653997074E-02 a       355     0    18     1    15
  1.3356506112392907E-01 a       356     0    18     1    16
 -2.6452728726561230E-02 a       357     0    18     1    17
  7.1041703630214240E-02 a       358     0    18     1    18
  1.2112450987002205E-01 a       359     0    18     1    19
 -1.6900054998787731E-01 a       360     0    18     1    20
 -2.5198224850730189E-01 a       361     0    19     1     1
 -2.5400298223681345E-01 a       362     0    19     1     2
 -1.7841998722277602E-01 a       363     0    19     1     3
 -1.1498909517335236E-01 a       364     0    19     1     4
 -2.4300928762447149E-01 a       365     0    19     1     5
  2.1907194176662284E-01 a       366     0    19     1     6
  2.5168727337792207E-01 a       367     0    19     1     7
  1.3047722413994103E-01 a       368     0    19     1     8
 -6.0194347097472622E-02 a       369     0    19     1     9
  2.9405910587713091E-01 a       370     0    19     1    10
  4.1411438820482260E-02 a       371     0    19     1    11
 -1.3593874178719609E-01 a       372     0    19     1    12
  2.0879078324299682E-01 a       373     0    19     1    13
  9.3205389437347422E-02 a       374     0    19     1    14
 -4.8120660485573612E-02 a       375     0    19     1    15
  8.5566014523068695E-02 a       376     0    19     1    16
 -1.8778334039600009E-01 a       377     0    19     1    17
 -2.2678798536253048E-01 a       378     0    19     1    18
 -2.3261140180228273E-02 a       379     0    19     1    19
 -8.1793062477237555E-02 a       380     0    19     1    20
 -2.3708994838622374E-01 a       381     0    20     1     1
 -3.9245767491425482E-01 a       382     0    20     1     2
 -1.7586282128472831E-02 a       383     0    20     1     3
  7.0843682105736702E-03 a       384     0    20     1     4
 -9.6360743522884554E-02 a       385     0    20     1     5
  3.4568649487199182E-01 a       386     0    20     1     6
 -1.9835801042493936E-01 a       387     0    20     1     7
 -1.1948419420648576E-01 a       388     0    20     1     8
  7.5736582654590129E-02 a       389     0    20     1     9
 -5.7958784126652806E-02 a       390     0    20     1    10
 -1.3711607953158866E-01 a       391     0    20     1    11
 -1.1956899911761782E-02 a       392     0    20     1    12
  8.4533952244832872E-02 a       393     0    20     1    13
  2.8054163316134839E-01 a       394     0    20     1    14
  2.3345037529846888E-01 a       395     0    20     1    15
  1.6960663896729258E-01 a       396     0    20     1    16
 -3.2476881253012352E-01 a       397     0    20     1    17
 -2.1984824380164653E-01 a       398     0    20     1    18
 -1.7632279246648375E-01 a       399     0    20     1    19
  5.9877153792242427E-02 a       400     0    20     1    20
  5.3632562224379302E-02 a       401     0    21     1     1
  1.3755730290328563E-01 a       402     0    21     1     2
  1.2225878834697256E-01 a       403     0    21     1     3
  1.8170485313292201E-01 a       404     0    21     1     4
 -9.1935214981276853E-02 a       405     0    21     1     5
  3.7505820494272452E-01 a       406     0    21     1     6
 -1.7216305656055692E-01 a       407     0    21     1     7
  2.5513431726668121E-02 a       408     0    21     1     8
  1.1618747927638735E-01 a       409     0    21     1     9
 -2.0691820567926081E-02 a       410     0    21     1    10
  1.9254367247297566E-01 a       411     0    21     1    11
 -1.9459224324058871E-02 a       412     0    21     1    12
  1.4025641327386149E-01 a       413     0    21     1    13
 -1.0689556161078249E-01 a       414     0    21     1    14
  1.3036940394070431E-01 a       415     0    21     1    15
  2.3794401794233366E-01 a       416     0    21     1    16
 -1.2343443505640707E-01 a       417     0    21     1    17
  8.5157880944656789E-02 a       418     0    21     1    18
  6.5623570990704233E-02 a       419     0    21     1    19
 -2.0756483450098798E-01 a       420     0    21     1    20
 -1.7781251697282985E-01 a       421     0    22     1     1
 -2.2769263912796966E-01 a       422     0    22     1     2
  1.2273058049586875E-01 a       423     0    22     1     3
  6.8663263190207019E-02 a       424     0    22     1     4
 -2.4329404696781695E-01 a       425     0    22     1     5
  1.1654270101967300E-01 a       426     0    22     1     6
 -1.2108591176133829E-01 a       427     0    22     1     7
 -1.4408426339981331E-01 a       428     0    22     1     8
  2.0291083681829231E-01 a       429     0    22     1     9
  1.5759027139960868E-02 a       430     0    22     1    10
 -2.8516172149245950E-01 a       431     0    22     1    11
 -2.4142907386978454E-01 a       432     0    22     1    12
 -1.9301873925870253E-02 a       433     0    22     1    13
 -2.6430916571091667E-01 a       434     0    22     1    14
 -1.1462483858173061E-01 a       435     0    22     1    15
 -2.0441318333687064E-01 a       436     0    22     1    16
  3.4124941935413475E-02 a       437     0    22     1    17
  1.4208535883577522E-01 a       438     0    22     1    18
 -1.8309841051564127E-01 a       439     0    22     1    19
 -6.2956049021070618E-02 a       440     0    22     1    20
 -1.9855819972874181E-01 a       441     0    23     1     1
 -3.9911792481008429E-02 a       442     0    23     1     2
 -1.1624697706614937E-01 a       443     0    23     1     3
  1.5851367957876289E-01 a       444     0    23     1     4
  5.7092933444820478E-02 a       445     0    23     1     5
 -6.6955740910454989E-02 a       446     0    23     1     6
 -2.3019175689422106E-01 a       447     0    23     1     7
 -1.2754115433655838E-01 a       448     0    23     1     8
  3.9587441446560109E-02 a       449     0    23     1     9
 -2.0394611864559781E-01 a       450     0    23     1    10
  1.3427744216845719E-01 a       451     0    23     1    11
  1.6040498424123753E-01 a       452     0    23     1    12
 -3.0310903908289957E-02 a       453     0    23     1    13
  1.2653518994329852E-02 a       454     0    23     1    14
  2.0108364667071194E-01 a       455     0    23     1    15
 -2.1255504914740975E-02 a       456     0    23     1    16
  2.1283835099330750E-01 a       457     0    23     1    17
  5.2358612074507392E-02 a       458     0    23     1    18
  6.8596249544647478E-02 a       459     0    23     1    19
  4.3886765085327168E-04 a       460     0    23     1    20
 -1.2041492896318878E-02 a       461     0    24     1     1
 -4.3139017315912931E-01 a       462     0    24     1     2
  4.8246668690039692E-02 a       463     0    24     1     3
 -9.4417338903059589E-02 a       464     0    24     1     4
 -2.5169008328891207E-01 a       465     0    24     1     5
  1.1185536975241471E-01 a       466     0    24     1     6
  7.0031974551216783E-03 a       467     0    24     1     7
 -3.6294831627079999E-02 a       468     0    24     1     8
 -3.9646356607195127E-01 a       469     0    24     1     9
 -1.6521356976084764E-01 a       470     0    24     1    10
  1.9594531245119190E-01 a       471     0    24     1    11
  1.9407827404534873E-02 a       472     0    24     1    12
 -4.3131767763840818E-02 a       473     0    24     1    13
  3.6163744125872571E-01 a       474     0    24     1    14
  2.5901337759078763E-01 a       475     0    24     1    15
 -2.1325222351914172E-01 a       476     0    24     1    16
 -1.0920903357406281E-01 a       477     0    24     1    17
 -4.4795396185032593E-01 a       478     0    24     1    18
 -1.7769829309236695E-01 a       479     0    24     1    19
  2.3842853975370162E-01 a       480     0    24     1    20
 -7.5277172587421937E-01 a       481     0    25     1     1
  7.3465566438218144E-01 a       482     0    25     1     2
 -1.7361390856153369E-01 a       483     0    25     1     3
  2.0739302361186962E-01 a       484     0    25     1     4
  1.4743452363536955E-01 a       485     0    25     1     5
 -2.1753370425194002E-01 a       486     0    25     1     6
  1.7907321503279731E-02 a       487     0    25     1     7
 -1.2125020106047653E-01 a       488     0    25     1     8
  1.2561977880206840E-01 a       489     0    25     1     9
  1.8305331498955049E-01 a       490     0    25     1    10
 -2.3648368701976108E-01 a       491     0    25     1    11
  5.5797176776226853E-01 a       492     0    25     1    12
 -2.9659209404596279E-02 a       493     0    25     1    13
 -7.1955661659983938E-01 a       494     0    25     1    14
 -5.3504756373459295E-01 a       495     0    25     1    15
 -1.2490756176951071E-01 a       496     0    25     1    16
  4.4243998709671023E-01 a       497     0    25     1    17
  6.3791937649588548E-01 a       498     0    25     1    18
  8.0980180472360674E-01 a       499     0    25     1    19
  5.1928584692784541E-01 a       500     0    25     1    20
  2.1605718999289293E-02 a       501     0    26     1     1
  1.7246128452035034E-01 a       502     0    26     1     2
  7.0660271472639646E-02 a       503     0    26     1     3
 -1.0270386052986452E-01 a       504     0    26     1     4
  7.0915703019492266E-02 a       505     0    26     1     5
 -1.6827560280675023E-02 a       506     0    26     1     6
 -4.9429260849780117E-02 a       507     0    26     1     7
  1.7866709127842550E-01 a       508     0    26     1     8
 -8.0243940214336229E-02 a       509     0    26     1     9
 -1.1498993257441428E-01 a       510     0    26     1    10
 -2.6814046758392002E-01 a       511     0    26     1    11
 -2.1274687228648739E-02 a       512     0    26     1    12
 -7.7304771486305685E-02 a       513     0    26     1    13
  2.7914173447636242E-01 a       514     0    26     1    14
  6.1257049729129355E-02 a       515     0    26     1    15
  1.2493253030338938E-01 a       516     0    26     1    16
 -1.8954841442581031E-02 a       517     0    26     1    17
  2.7327852679548886E-02 a       518     0    26     1    18
  8.7937734361402689E-02 a       519     0    26     1    19
  6.6259581210614690E-02 a       520     0    26     1    20
  2.8737691798166642E-01 a       521     0    27     1     1
  9.0349033199388348E-02 a       522     0    27     1     2
  8.3181042328789923E-02 a       523     0    27     1     3
 -6.4532551570580521E-02 a       524     0    27     1     4
 -1.0229253384032255E-01 a       525     0    27     1     5
 -1.7154629734668572E-01 a       526     0    27     1     6
  5.9043372388284887E-02 a       527     0    27     1     7
 -1.5388531097007771E-01 a       528     0    27     1     8
  3.7448626389841755E-02 a       529     0    27     1     9
 -1.2701548789678799E-01 a       530     0    27     1    10
  1.7583364930539136E-01 a       531     0    27     1    11
 -2.5249803369228316E-02 a       532     0    27     1    12
  1.0030690267661729E-01 a       533     0    27     1    13
  6.5219189362738733E-03 a       534     0    27     1    14
 -1.3431247288580736E-01 a       535     0    27     1    15
 -5.5400742663987930E-02 a       536     0    27     1    16
  1.9865612409772884E-01 a       537     0    27     1    17
 -1.2031261625045565E-01 a       538     0    27     1    18
  1.4457327094942095E-02 a       539     0    27     1    19
 -1.2386232854326166E-02 a       540     0    27     1    20
  1.0082411697712772E-01 a       541     0    28     1     1
  7.6181444305667489E-01 a       542     0    28     1     2
 -6.3171508813275878E-02 a       543     0    28     1     3
  2.6203959034855984E-01 a       544     0    28     1     4
 -6.3075817588059815E-02 a       545     0    28     1     5
 -3.9255557004354735E-01 a       546     0    28     1     6
  7.9317831283735998E-02 a       547     0    28     1     7
 -1.6248848808913685E-01 a       548     0    28     1     8
  2.0355207005355638E-01 a       549     0    28     1     9
  1.0082206058845179E-01 a       550     0    28     1    10
  2.5807022115322231E-01 a       551     0    28     1    11
  1.7027366159170951E-01 a       552     0    28     1    12
 -2.1105668746981993E-01 a       553     0    28     1    13
 -5.3713185348248971E-01 a       554     0    28     1    14
 -4.6828035695187303E-01 a       555     0    28     1    15
  3.5605382808916469E-01 a       556     0    28     1    16
 -5.4752649417309625E-02 a       557     0    28     1    17
  1.7595010232612748E-01 a       558     0    28     1    18
  3.8012971115557831E-01 a       559     0    28     1    19
  3.8382791306670905E-01 a       560     0    28     1    20
  3.4688412979003147E-01 a       561     0    29     1     1
 -8.9735800071842609E-01 a       562     0    29     1     2
  1.5940698436751372E-01 a       563     0    29     1     3
 -3.8918228457136322E-01 a       564     0    29     1     4
 -7.5901000515974246E-02 a       565     0    29     1     5
  1.6698595172368852E-01 a       566     0    29     1     6
 -6.3977345972358449E-02 a       567     0    29     1     7
  7.3556156971143274E-02 a       568     0    29     1     8
 -5.9717351260970462E-02 a       569     0    29     1     9
 -2.1917759969684261E-01 a       570     0    29     1    10
 -2.9343545997142867E-01 a       571     0    29     1    11
 -3.6000752191224877E-01 a       572     0    29     1    12
 -2.0215658519950672E-01 a       573     0    29     1    13
  5.3017091355440404E-01 a       574     0    29     1    14
  5.7824809501175667E-01 a       575     0    29     1    15
 -1.0617450834651057E-02 a       576     0    29     1    16
 -2.8014467275655902E-01 a       577     0    29     1    17
 -3.3702169656342118E-01 a       578     0    29     1    18
 -6.3605889022196083E-01 a       579     0    29     1    19
 -6.0204699167375519E-01 a       580     0    29     1    20
 -3.7553986557616825E-02 a       581     0    30     1     1
 -6.6994100827073425E-02 a       582     0    30     1     2
  3.9682422910142477E-03 a       583     0    30     1     3
 -6.9103262552669392E-03 a       584     0    30     1     4
  1.8792094053371889E-03 a       585     0    30     1     5
  3.2050238708442275E-01 a       586     0    30     1     6
 -3.0651983873823903E-02 a       587     0    30     1     7
  3.0842794992275872E-02 a       588     0    30     1     8
 -1.1613649712999567E-01 a       589     0    30     1     9
  2.9430546489081172E-01 a       590     0    30     1    10
  8.5011513463661093E-02 a       591     0    30     1    11
  1.9557000415903775E-01 a       592     0    30     1    12
  2.4457398611890425E-02 a       593     0    30     1    13
 -2.0306681749225183E-01 a       594     0    30     1    14
 -1.8815800975439942E-01 a       595     0    30     1    15
  7.3454999715665173E-02 a       596     0    30     1    16
 -1.2761279686684415E-01 a       597     0    30     1    17
  2.0957875631992562E-01 a       598     0    30     1    18
  3.8378221123959701E-02 a       599     0    30     1    19
 -5.7910380373119380E-02 a       600     0    30     1    20
  2.6384093943517220E-02 a       601     0    31     1     1
 -9.2099866400892488E-02 a       602     0    31     1     2
 -1.0181105397381915E-01 a       603     0    31     1     3
  8.4765733036857929E-02 a       604     0    31     1     4
  1.0336750090411038E-01 a       605     0    31     1     5
 -2.0396923807940204E-01 a       606     0    31     1     6
  1.5582360717293875E-01 a       607     0    31     1     7
  1.3125202323799551E-01 a       608     0    31     1     8
  2.9889893105005576E-03 a       609     0    31     1     9
  5.1798467867207175E-02 a       610     0    31     1    10
  3.1021668714845657E-02 a       611     0    31     1    11
  8.0704045950865111E-02 a       612     0    31     1    12
 -7.5516925531797743E-02 a       613     0    31     1    13
  4.1953533168419051E-02 a       614     0    31     1    14
  1.6906177014827370E-01 a       615     0    31     1    15
 -1.1405928585226931E-01 a       616     0    31     1    16
 -5.3256737032162264E-02 a       617     0    31     1    17
 -1.5904989416307797E-01 a       618     0    31     1    18
 -1.8334844274734605E-01 a       619     0    31     1    19
  1.4077995102957233E-01 a       620     0    31     1    20
  3.2590172463332123E-01 a       621     0    32     1     1
 -6.9311629400495200E-01 a       622     0    32     1     2
  4.0939168595430890E-02 a       623     0    32     1     3
 -2.3191954505377851E-01 a       624     0    32     1     4
  7.7722504873278642E-02 a       625     0    32     1     5
  1.4958724011220356E-01 a       626     0    32     1     6
  1.9140044270016818E-01 a       627     0    32     1     7
 -1.4831250261631271E-01 a       628     0    32     1     8
  6.6710322905674958E-03 a       629     0    32     1     9
  6.0128263055225416E-02 a       630     0    32     1    10
 -7.7718175885106475E-02 a       631     0    32     1    11
 -2.7430679946135794E-01 a       632     0    32     1    12
  1.8146383591128291E-02 a       633     0    32     1    13
  6.4900668481808987E-01 a       634     0    32     1    14
  2.9222813580793283E-01 a       635     0    32     1    15
 -2.7513960580628716E-01 a       636     0    32     1    16
 -1.4942141704384898E-01 a       637     0    32     1    17
 -1.2111437639639280E-01 a       638     0    32     1    18
 -4.4946745932455767E-01 a       639     0    32     1    19
 -1.3082625200760489E-01 a       640     0    32     1    20
 -1.0739463963945800E-01 a       641     0    33     1     1
  6.8812767232322181E-01 a       642     0    33     1     2
 -8.0959240156650306E-02 a       643     0    33     1     3
  2.1644750563547199E-01 a       644     0    33     1     4
  6.4436560422826347E-02 a       645     0    33     1     5
 -1.1671815476795276E-01 a       646     0    33     1     6
 -1.4508256015818915E-02 a       647     0    33     1     7
  4.7949939918473607E-02 a       648     0    33     1     8
 -1.0229290071665503E-01 a       649     0    33     1     9
  2.1356022465344088E-01 a       650     0    33     1    10
  3.5738151629692017E-01 a       651     0    33     1    11
  1.3725527413182464E-01 a       652     0    33     1    12
  2.8020555449295675E-01 a       653     0    33     1    13
 -2.4969562114068017E-01 a       654     0    33     1    14
 -3.4293279690593303E-01 a       655     0    33     1    15
  1.0935027077901642E-01 a       656     0    33     1    16
  8.6863741424400856E-02 a       657     0    33     1    17
  5.9375079461793767E-02 a       658     0    33     1    18
  1.7459757308148471E-01 a       659     0    33     1    19
  1.1144152643309772E-01 a       660     0    33     1    20
  3.4905952478750404E-02 a       661     0    34     1     1
  1.4699144361814365E-01 a       662     0    34     1     2
  8.0362004591039617E-03 a       663     0    34     1     3
 -5.4666234022084641E-02 a       664     0    34     1     4
  7.7959802823379942E-02 a       665     0    34     1     5
 -2.8408546778474830E-01 a       666     0    34     1     6
  5.3204016498344428E-02 a       667     0    34     1     7
  3.0723939293658731E-02 a       668     0    34     1     8
  3.4487582367496085E-02 a       669     0    34     1     9
 -1.4860158545491112E-01 a       670     0    34     1    10
  8.6811381310447092E-02 a       671     0    34     1    11
 -1.7303654841997132E-01 a       672     0    34     1    12
  2.4299395507564690E-02 a       673     0    34     1    13
  4.1524327983253811E-02 a       674     0    34     1    14
  1.6676483967894609E-01 a       675     0    34     1    15
 -1.0429072289243463E-01 a       676     0    34     1    16
 -1.1536050694371205E-01 a       677     0    34     1    17
 -2.0919288008394982E-01 a       678     0    34     1    18
 -5.5794404817329855E-02 a       679     0    34     1    19
 -1.6481499063437665E-03 a       680     0    34     1    20
 -1.3444762698482191E-01 a       681     0    35     1     1
  7.5975081588118614E-03 a       682     0    35     1     2
  3.5353930915750319E-04 a       683     0    35     1     3
  6.3377445264805937E-04 a       684     0    35     1     4
 -4.9711951399235808E-02 a       685     0    35     1     5
  2.1202492731573783E-01 a       686     0    35     1     6
 -1.0110349691724814E-01 a       687     0    35     1     7
 -8.8545772203922082E-02 a       688     0    35     1     8
  1.6835709907395197E-01 a       689     0    35     1     9
 -6.3754762489789729E-02 a       690     0    35     1    10
 -1.1755888493779078E-03 a       691     0    35     1    11
 -1.5816911266464267E-01 a       692     0    35     1    12
  1.0687036241844405E-01 a       693     0    35     1    13
 -2.6968944691696126E-02 a       694     0    35     1    14
 -3.7198954966129100E-02 a       695     0    35     1    15
  9.2309977784665015E-02 a       696     0    35     1    16
  6.9826920684822880E-02 a       697     0    35     1    17
  7.8595702844996118E-02 a       698     0    35     1    18
  1.6890387228330039E-01 a       699     0    35     1    19
 -1.3742483628894619E-01 a       700     0    35     1    20
 -8.8724560191414975E-02 a       701     0    36     1     1
  2.5797187525920445E-01 a       702     0    36     1     2
 -4.5256965519051180E-02 a       703     0    36     1     3
  1.2256110497920150E-01 a       704     0    36     1     4
  1.7325614850322052E-01 a       705     0    36     1     5
  7.3434694703751288E-02 a       706     0    36     1     6
 -6.7221471921858844E-02 a       707     0    36     1     7
  2.9805472732349636E-01 a       708     0    36     1     8
 -7.5012866521598012E-02 a       709     0    36     1     9
 -1.6731071180292684E-01 a       710     0    36     1    10
  1.1323969161106293E-01 a       711     0    36     1    11
  1.1405371940443722E-01 a       712     0    36     1    12
  1.1254786027008461E-01 a       713     0    36     1    13
 -3.7187922662054296E-01 a       714     0    36     1    14
 -9.6255368831141122E-02 a       715     0    36     1    15
  1.3860271346917369E-01 a       716     0    36     1    16
  1.0127363789522334E-01 a       717     0    36     1    17
 -2.1702930179430320E-02 a       718     0    36     1    18
  3.0291595862648818E-01 a       719     0    36     1    19
  2.3352165101775843E-01 a       720     0    36     1    20
 -5.5956348418241104E-02 a       721     0    37     1     1
 -3.5580612950960183E-01 a       722     0    37     1     2
  5.2455151285429213E-02 a       723     0    37     1     3
  2.1213340584107888E-02 a       724     0    37     1     4
  1.4951526160339015E-01 a       725     0    37     1     5
  2.5084051426173487E-01 a       726     0    37     1     6
  1.1585521539593645E-01 a       727     0    37     1     7
  1.0880331393225704E-02 a       728     0    37     1     8
 -1.9650193382534587E-02 a       729     0    37     1     9
 -1.2721212586979191E-01 a       730     0    37     1    10
 -4.1137486267671011E-02 a       731     0    37     1    11
  2.1851706320435357E-02 a       732     0    37     1    12
 -5.5891850228525115E-02 a       733     0    37     1    13
 -5.8915651787754077E-02 a       734     0    37     1    14
  1.9297917408376661E-01 a       735     0    37     1    15
  6.2451241667527184E-02 a       736     0    37     1    16
 -8.0575954232789612E-03 a       737     0    37     1    17
  8.4609854460159228E-02 a       738     0    37     1    18
  9.6209637573330342E-02 a       739     0    37     1    19
  5.6063321761620780E-02 a       740     0    37     1    20
 -1.5410026278909722E-01 a       741     0    38     1     1
 -8.1569414739740165E-02 a       742     0    38     1     2
  5.5882280372842458E-02 a       743     0    38     1     3
  6.5750979457674094E-02 a       744     0    38     1     4
 -6.3222429594752064E-02 a       745     0    38     1     5
  1.9277694678439994E-01 a       746     0    38     1     6
 -2.3207581432081593E-03 a       747     0    38     1     7
 -1.1936972664660353E-02 a       748     0    38     1     8
 -9.1743001031400095E-02 a       749     0    38     1     9
  8.7930874290846076E-02 a       750     0    38     1    10
 -1.5070333074829729E-02 a       751     0    38     1    11
  1.0454178747734780E-01 a       752     0    38     1    12
 -5.5393299456196997E-03 a       753     0    38     1    13
 -4.6496479211968887E-02 a       754     0    38     1    14
  6.5246791882762195E-03 a       755     0    38     1    15
  1.5783680430221997E-01 a       756     0    38     1    16
 -8.1513075673928598E-02 a       757     0    38     1    17
  1.1247885565949992E-01 a       758     0    38     1    18
  9.3929501369166168E-02 a       759     0    38     1    19
 -2.4430136838081328E-02 a       760     0    38     1    20
  1.8187652786802949E-01 a       761     0    39     1     1
 -4.3171033254383130E-02 a       762     0    39     1     2
 -3.2602856447849701E-02 a       763     0    39     1     3
 -2.4006645936248603E-02 a       764     0    39     1     4
  6.1908397346634690E-02 a       765     0    39     1     5
 -1.2913317984396314E-01 a       766     0    39     1     6
  2.0722238784529695E-02 a       767     0    39     1     7
 -4.9581374512556529E-02 a       768     0    39     1     8
 -2.1094820705956804E-02 a       769     0    39     1     9
 -3.4705078841377003E-02 a       770     0    39     1    10
 -4.6306148386547917E-02 a       771     0    39     1    11
  5.7829726825663695E-02 a       772     0    39     1    12
 -4.2139686874921485E-02 a       773     0    39     1    13
  4.8103849277450428E-02 a       774     0    39     1    14
 -6.5923658790617373E-02 a       775     0    39     1    15
 -8.2490148890196402E-02 a       776     0    39     1    16
  9.5171453723487162E-02 a       777     0    39     1    17
 -2.0613522350623494E-02 a       778     0    39     1    18
 -1.0791811020030430E-01 a       779     0    39     1    19
  1.1716415166831577E-01 a       780     0    39     1    20
  6.1378237587673044E-02 a       781     0    40     1     1
  3.2653662571191705E-02 a       782     0    40     1     2
 -1.2945249462003521E-02 a       783     0    40     1     3
 -8.2953143682544736E-02 a       784     0    40     1     4
 -2.4752515641742853E-01 a       785     0    40     1     5
 -2.3234602187115841E-01 a       786     0    40     1     6
 -2.6209944068336103E-02 a       787     0    40     1     7
 -2.8350509458893225E-01 a       788     0    40     1     8
  5.5649104940909515E-02 a       789     0    40     1     9
  1.2336757817053610E-01 a       790     0    40     1    10
 -6.7528044911067453E-02 a       791     0    40     1    11
  2.1185919989052102E-03 a       792     0    40     1    12
 -6.6248027477196866E-02 a       793     0    40     1    13
  2.0929972919287193E-01 a       794     0    40     1    14
 -7.2899362578308868E-02 a       795     0    40     1    15
 -8.2467736043379883E-02 a       796     0    40     1    16
 -1.4670996491551816E-01 a       797     0    40     1    17
 -5.3159592523728476E-02 a       798     0    40     1    18
 -1.9137425231277919E-01 a       799     0    40     1    19
 -5.9906217727122443E-02 a       800     0    40     1    20
  3.2178651854206985E-02 a       801     0    41     1     1
  4.8594492265397565E-01 a       802     0    41     1     2
 -2.7276207113852274E-01 a       803     0    41     1     3
 -7.4796770803508605E-01 a       804     0    41     1     4
 -2.1779279995937713E-02 a       805     0    41     1     5
 -3.9514833296427861E-02 a       806     0    41     1     6
 -1.4580648763138040E-01 a       807     0    41     1     7
  2.2894857768286347E-01 a       808     0    41     1     8
 -1.2236907591415734E-01 a       809     0    41     1     9
 -1.4942341124063147E-01 a       810     0    41     1    10
  1.9862633969424847E-02 a       811     0    41     1    11
  5.8741165454725830E-01 a       812     0    41     1    12
  1.3290014299554651E-01 a       813     0    41     1    13
  2.6075477047652407E-01 a       814     0    41     1    14
  4.2485628873089087E-01 a       815     0    41     1    15
  1.0692112290587225E-01 a       816     0    41     1    16
  1.8985813728442946E-01 a       817     0    41     1    17
  2.2634413180669669E-01 a       818     0    41     1    18
 -3.8332505219632046E-01 a       819     0    41     1    19
  1.5397536030613590E-02 a       820     0    41     1    20
 -2.3497643600004052E-02 a       821     0    42     1     1
 -1.6455498987835326E-01 a       822     0    42     1     2
 -1.3368757611985252E-01 a       823     0    42     1     3
 -3.9557087829782287E-03 a       824     0    42     1     4
  2.1293883477840853E-01 a       825     0    42     1     5
 -1.0497822281706924E-02 a       826     0    42     1     6
 -9.1564258688462255E-02 a       827     0    42     1     7
  1.0148841513698603E-01 a       828     0    42     1     8
 -2.3545575229086738E-01 a       829     0    42     1     9
 -2.7024717907673149E-02 a       830     0    42     1    10
  4.7249629836434923E-02 a       831     0    42     1    11
  2.2992357868220675E-01 a       832     0    42     1    12
 -1.5772127016643076E-02 a       833     0    42     1    13
 -6.3103053294157080E-02 a       834     0    42     1    14
 -2.1751911670523066E-01 a       835     0    42     1    15
 -1.2488621711725820E-01 a       836     0    42     1    16
  6.2352864652666831E-02 a       837     0    42     1    17
  2.0632478822174876E-02 a       838     0    42     1    18
 -3.2737206480433129E-01 a       839     0    42     1    19
  1.2139962544640423E-01 a       840     0    42     1    20
  7.7819534485086675E-02 a       841     0    43     1     1
  1.2843031759894249E-01 a       842     0    43     1     2
  7.1681848986524258E-02 a       843     0    43     1     3
 -1.1529550299955481E-01 a       844     0    43     1     4
 -4.8989030908808129E-02 a       845     0    43     1     5
 -1.2616545251600148E-01 a       846     0    43     1     6
  3.0212038027842203E-01 a       847     0    43     1     7
  7.2008488352549527E-02 a       848     0    43     1     8
 -1.0117382517817835E-02 a       849     0    43     1     9
  9.3082258954036573E-03 a       850     0    43     1    10
 -6.2150332222900166E-02 a       851     0    43     1    11
  1.2117336163117866E-01 a       852     0    43     1    12
  1.0285385110432112E-02 a       853     0    43     1    13
  6.9137926129869090E-02 a       854     0    43     1    14
  9.6123025173016158E-02 a       855     0    43     1    15
 -9.3771056393281121E-02 a       856     0    43     1    16
 -2.4452992434821127E-01 a       857     0    43     1    17
  1.3535265825759495E-02 a       858     0    43     1    18
  1.9741192607884589E-01 a       859     0    43     1    19
 -1.0077863631862041E-01 a       860     0    43     1    20
  3.2078843326871509E-01 a       861     0    44     1     1
 -3.1479827204257016E-01 a       862     0    44     1     2
  3.5129887719717079E-01 a       863     0    44     1     3
  9.1843511812659895E-01 a       864     0    44     1     4
 -1.9091404322703315E-01 a       865     0    44     1     5
 -3.4700552329012302E-01 a       866     0    44     1     6
  7.7717183640671716E-01 a       867     0    44     1     7
  3.4287240625832577E-01 a       868     0    44     1     8
  4.9085945231436684E-01 a       869     0    44     1     9
  1.9315791312905406E-01 a       870     0    44     1    10
  5.3650414730221307E-01 a       871     0    44     1    11
 -1.5667170192243590E-02 a       872     0    44     1    12
 -4.2429338917610898E-01 a       873     0    44     1    13
 -9.1473843863506571E-02 a       874     0    44     1    14
  2.3731732290307002E-04 a       875     0    44     1    15
  2.2144156104364177E-01 a       876     0    44     1    16
  9.4567900015464515E-02 a       877     0    44     1    17
 -4.9514590068283076E-01 a       878     0    44     1    18
  1.5999604130894782E-01 a       879     0    44     1    19
 -8.1289856121366785E-02 a       880     0    44     1    20
 -1.3383733446497204E-02 a       881     0    45     1     1
 -1.0804244564490610E-01 a       882     0    45     1     2
 -1.2539216587525337E-01 a       883     0    45     1     3
  1.9369444488634094E-01 a       884     0    45     1     4
  2.2520255057068930E-01 a       885     0    45     1     5
 -6.9551810634450428E-02 a       886     0    45     1     6
  2.4972471448524491E-02 a       887     0    45     1     7
 -7.2961849877292873E-02 a       888     0    45     1     8
 -2.9380133518596067E-03 a       889     0    45     1     9
  6.4102241625677153E-02 a       890     0    45     1    10
 -1.2211916867711670E-01 a       891     0    45     1    11
 -3.2498602723053278E-02 a       892     0    45     1    12
  1.0570525287946525E-01 a       893     0    45     1    13
 -1.0159679284251294E-01 a       894     0    45     1    14
 -1.8767261773499813E-01 a       895     0    45     1    15
 -1.1658059803377552E-01 a       896     0    45     1    16
 -1.5303003487492146E-02 a       897     0    45     1    17
  1.0393430236855776E-01 a       898     0    45     1    18
 -4.9892754445174839E-02 a       899     0    45     1    19
  1.9592124934623190E-02 a       900     0    45     1    20
  1.0601635601678112E-01 a       901     0    46     1     1
  2.3950313818435678E-01 a       902     0    46     1     2
 -1.3741822939619705E-01 a       903     0    46     1     3
 -2.4296423572648054E-01 a       904     0    46     1     4
 -1.2390669041310214E-01 a       905     0    46     1     5
 -9.1060751254458575E-02 a       906     0    46     1     6
 -7.1054830030193986E-02 a       907     0    46     1     7
  1.3144758983312141E-01 a       908     0    46     1     8
  2.2696923765081023E-01 a       909     0    46     1     9
 -2.6499268053790020E-01 a       910     0    46     1    10
  1.7823737025049871E-01 a       911     0    46     1    11
 -5.6288932492759042E-02 a       912     0    46     1    12
  6.9073329974662590E-02 a       913     0    46     1    13
  1.2249319049762307E-01 a       914     0    46     1    14
  1.7741211070581030E-02 a       915     0    46     1    15
 -2.2471710388983887E-01 a       916     0    46     1    16
  1.3708547060944914E-01 a       917     0    46     1    17
 -2.2023975288139541E-01 a       918     0    46     1    18
 -2.6328456386913995E-01 a       919     0    46     1    19
  1.6290328160560272E-01 a       920     0    46     1    20
  4.8255553480947164E-02 a       921     0    47     1     1
 -6.0708757693627914E-02 a       922     0    47     1     2
 -2.8513495901745342E-03 a       923     0    47     1     3
 -2.9945316768340582E-02 a       924     0    47     1     4
  1.8188114377101225E-01 a       925     0    47     1     5
  4.5832893039319388E-02 a       926     0    47     1     6
 -3.7283727848953334E-02 a       927     0    47     1     7
  9.2370248433916863E-02 a       928     0    47     1     8
  2.3661246462067173E-02 a       929     0    47     1     9
  7.9541062834910581E-02 a       930     0    47     1    10
  1.4459178752840637E-02 a       931     0    47     1    11
  4.2657602317643775E-02 a       932     0    47     1    12
  2.2442258887127917E-01 a       933     0    47     1    13
  5.8755144601342145E-02 a       934     0    47     1    14
 -5.2231788378994566E-02 a       935     0    47     1    15
  6.7606404118921271E-02 a       936     0    47     1    16
 -7.4986135308498972E-02 a       937     0    47     1    17
  1.5375899692985603E-01 a       938     0    47     1    18
  4.2158611145848056E-03 a       939     0    47     1    19
 -6.9979590646133169E-02 a       940     0    47     1    20
  9.4814524734498126E-02 a       941     0    48     1     1
 -1.1032578103646232E-01 a       942     0    48     1     2
 -6.0721502153610503E-02 a       943     0    48     1     3
  5.4426675943085742E-02 a       944     0    48     1     4
  3.2897055423857138E-02 a       945     0    48     1     5
 -2.1162459474100462E-01 a       946     0    48     1     6
  3.8799499746287269E-02 a       947     0    48     1     7
 -9.9979400981965519E-02 a       948     0    48     1     8
  1.7924173486812987E-02 a       949     0    48     1     9
  3.4232880710807871E-02 a       950     0    48     1    10
 -2.2036732228427194E-01 a       951     0    48     1    11
 -1.6613566493643612E-02 a       952     0    48     1    12
 -1.2547724742954280E-01 a       953     0    48     1    13
  1.1485941019369086E-01 a       954     0    48     1    14
  9.3363829198315457E-02 a       955     0    48     1    15
 -2.1330960829880036E-02 a       956     0    48     1    16
 -2.9980970013463505E-03 a       957     0    48     1    17
  8.6563110133749760E-02 a       958     0    48     1    18
  2.4946811898121518E-01 a       959     0    48     1    19
 -1.8882910930103936E-01 a       960     0    48     1    20
  1.1350451660507728E-01 a       961     0    49     1     1
  3.4520537141141096E-02 a       962     0    49     1     2
 -6.5817804544060388E-02 a       963     0    49     1     3
 -4.0483937364635833E-02 a       964     0    49     1     4
 -4.5732756194999870E-02 a       965     0    49     1     5
  1.3599682108705141E-01 a       966     0    49     1     6
 -9.0140089578205254E-02 a       967     0    49     1     7
 -1.0768249605794464E-01 a       968     0    49     1     8
 -1.9879014289649621E-01 a       969     0    49     1     9
 -1.0030693489148053E-01 a       970     0    49     1    10
  3.1946888561426671E-04 a       971     0    49     1    11
 -7.8960570421031231E-02 a       972     0    49     1    12
 -2.8962877036499451E-01 a       973     0    49     1    13
 -4.8232573307165225E-02 a       974     0    49     1    14
 -7.8171880983500974E-02 a       975     0    49     1    15
  2.6852078175042652E-02 a       976     0    49     1    16
  1.2289699888713262E-02 a       977     0    49     1    17
 -1.4099838290078504E-01 a       978     0    49     1    18
 -1.1800054650124650E-01 a       979     0    49     1    19
  1.4080666281152043E-01 a       980     0    49     1    20
 -1.6557889841971457E-01 a       981     0    50     1     1
 -3.0688673450393394E-01 a       982     0    50     1     2
 -3.0610029302338909E-01 a       983     0    50     1     3
 -6.6355195689315888E-02 a       984     0    50     1     4
  2.9822173768212940E-01 a       985     0    50     1     5
  3.4579496607745641E-01 a       986     0    50     1     6
 -6.5614572841474456E-02 a       987     0    50     1     7
 -5.9958817776017588E-02 a       988     0    50     1     8
 -4.9093564774398057E-01 a       989     0    50     1     9
  1.7361773798615612E-02 a       990     0    50     1    10
 -1.6089138067915165E-01 a       991     0    50     1    11
 -3.8819222268978028E-02 a       992     0    50     1    12
  5.5337463420564825E-01 a       993     0    50     1    13
 -1.2579111205710106E-01 a       994     0    50     1    14
  6.9229686302413787E-02 a       995     0    50     1    15
 -4.2903396676267586E-01 a       996     0    50     1    16
 -2.9406469425535559E-02 a       997     0    50     1    17
  3.2125548298059581E-02 a       998     0    50     1    18
  2.1585427940417914E-01 a       999     0    50     1    19
  7.2841463703772272E-02 a      1000     0    50     1    20
  4.9114093841222967E-01 a      1001     0    51     1     1
  3.4557809532762901E-01 a      1002     0    51     1     2
 -4.6989882062312575E-02 a      1003     0    51     1     3
 -3.4567141406676966E-02 a      1004     0    51     1     4
  2.6882157668562695E-01 a      1005     0    51     1     5
  1.0237477792414783E-01 a      1006     0    51     1     6
  1.9689571786217075E-01 a      1007     0    51     1     7
 -4.0538764027395502E-01 a      1008     0    51     1     8
 -7.6307148842470446E-02 a      1009     0    51     1     9
  3.1226233916167634E-01 a      1010     0    51     1    10
 -4.0044142753555262E-01 a      1011     0    51     1    11
 -4.8134346001844786E-01 a      1012     0    51     1    12
  3.1034998374908379E-01 a      1013     0    51     1    13
 -2.5743909038782853E-01 a      1014     0    51     1    14
 -3.2882982679805484E-01 a      1015     0    51     1    15
 -5.5064329432873915E-01 a      1016     0    51     1    16
  3.5081057534900671E-02 a      1017     0    51     1    17
 -5.7810074612957826E-02 a      1018     0    51     1    18
 -6.4695079953709456E-01 a      1019     0    51     1    19
  4.8287672828929012E-01 a      1020     0    51     1    20
  4.3840898416258760E-02 a      1021     0    52     1     1
 -8.6049080823048171E-02 a      1022     0    52     1     2
 -1.8295744501639476E-02 a      1023     0    52     1     3
  1.8650444501470270E-01 a      1024     0    52     1     4
 -1.0003112014802465E-01 a      1025     0    52     1     5
  2.4407326888127859E-01 a      1026     0    52     1     6
  1.0381766333377632E-01 a      1027     0    52     1     7
  1.0078758986086246E-01 a      1028     0    52     1     8
 -1.0019040564842793E-01 a      1029     0    52     1     9
  2.6952589834858133E-02 a      1030     0    52     1    10
 -1.5281450496400223E-01 a      1031     0    52     1    11
 -2.4933119810682777E-01 a      1032     0    52     1    12
  1.5277049572734855E-01 a      1033     0    52     1    13
 -3.4963515050517063E-02 a      1034     0    52     1    14
 -1.2377334493744817E-01 a      1035     0    52     1    15
  2.1640503990617815E-02 a      1036     0    52     1    16
 -2.5126415668966018E-01 a      1037     0    52     1    17
  1.3064224355394552E-01 a      1038     0    52     1    18
  1.2027088944233909E-01 a      1039     0    52     1    19
  3.0172409465918270E-02 a      1040     0    52     1    20
 -4.6139014738335128E-02 a      1041     0    53     1     1
 -2.4412801102849536E-02 a      1042     0    53     1     2
  1.6754791277044778E-02 a      1043     0    53     1     3
 -5.6025386729211979E-02 a      1044     0    53     1     4
  1.5961638270616729E-01 a      1045     0    53     1     5
 -4.6472369435685758E-02 a      1046     0    53     1     6
 -1.6204617946823510E-01 a      1047     0    53     1     7
 -1.3850607604799685E-02 a      1048     0    53     1     8
  2.2378195792834413E-01 a      1049     0    53     1     9
 -2.3110042222129973E-01 a      1050     0    53     1    10
  1.7551941163559856E-01 a      1051     0    53     1    11
  6.8070465161342131E-02 a      1052     0    53     1    12
 -7.6693185465876612E-02 a      1053     0    53     1    13
 -8.5663796550469157E-02 a      1054     0    53     1    14
  1.9529165511337995E-01 a      1055     0    53     1    15
 -7.9990578205677149E-02 a      1056     0    53     1    16
  1.3338924969926133E-01 a      1057     0    53     1    17
 -1.0793121565643388E-01 a      1058     0    53     1    18
  5.8772009076016787E-03 a      1059     0    53     1    19
  8.6033068089441417E-02 a      1060     0    53     1    20
  2.3435898503686789E-01 a      1061     0    54     1     1
  5.4336562631681096E-01 a      1062     0    54     1     2
 -3.1518315576376243E-01 a      1063     0    54     1     3
 -4.0551126532743742E-01 a      1064     0    54     1     4
  7.5163982495742632E-02 a      1065     0    54     1     5
  6.1616916459259896E-01 a      1066     0    54     1     6
 -3.9211692388156083E-01 a      1067     0    54     1     7
  2.9589513334220474E-01 a      1068     0    54     1     8
  2.6704122911386957E-01 a      1069     0    54     1     9
 -1.5210948151849195E+00 a      1070     0    54     1    10
  3.5844283609375843E-01 a      1071     0    54     1    11
  7.5338852332219164E-01 a      1072     0    54     1    12
 -1.2496098390218187E-01 a      1073     0    54     1    13
  5.9619429777899347E-01 a      1074     0    54     1    14
  2.1212493384507750E-01 a      1075     0    54     1    15
  4.8786070162979484E-01 a      1076     0    54     1    16
 -2.3247932423419776E-01 a      1077     0    54     1    17
  2.7278612759251136E-01 a      1078     0    54     1    18
  8.9790295614912585E-01 a      1079     0    54     1    19
 -1.0923964627048943E+00 a      1080     0    54     1    20
  7.3437080580114557E-04 a      1081     0    55     1     1
 -4.2938375392641343E-01 a      1082     0    55     1     2
  1.3466236103053336E-01 a      1083     0    55     1     3
 -1.6487087176755649E-01 a      1084     0    55     1     4
 -2.1629929718557758E-03 a      1085     0    55     1     5
  4.9611476629249647E-02 a      1086     0    55     1     6
 -1.9212737271416278E-01 a      1087     0    55     1     7
 -1.7511324857843910E-01 a      1088     0    55     1     8
 -2.7107677425342558E-01 a      1089     0    55     1     9
  1.0252582706172179E-01 a      1090     0    55     1    10
 -3.0373046498425697E-02 a      1091     0    55     1    11
  1.3138346508734930E-01 a      1092     0    55     1    12
  4.3995363515234916E-03 a      1093     0    55     1    13
  4.6449778646437762E-01 a      1094     0    55     1    14
  2.0869711620853013E-01 a      1095     0    55     1    15
  2.3018179876026248E-02 a      1096     0    55     1    16
  8.3684079385126953E-02 a      1097     0    55     1    17
  7.8024606803982641E-02 a      1098     0    55     1    18
 -1.5078248704232439E-01 a      1099     0    55     1    19
 -1.8347595987247303E-01 a      1100     0    55     1    20
 -3.9185414428341989E-02 a      1101     0    56     1     1
  5.7686227333460800E-02 a      1102     0    56     1     2
  2.6504680482096377E-01 a      1103     0    56     1     3
 -1.0962871112533734E-01 a      1104     0    56     1     4
  1.2453173693095738E-01 a      1105     0    56     1     5
  1.3576079591950904E-01 a      1106     0    56     1     6
  1.1333681776108039E-01 a      1107     0    56     1     7
 -2.0324471653892770E-01 a      1108     0    56     1     8
  1.0605966817215670E-01 a      1109     0    56     1     9
  4.3634377993949598E-02 a      1110     0    56     1    10
  2.0889467077075705E-01 a      1111     0    56     1    11
  1.9897496536713372E-01 a      1112     0    56     1    12
 -1.5140012191401350E-01 a      1113     0    56     1    13
  1.4343059615541820E-01 a      1114     0    56     1    14
  2.3574762726236830E-03 a      1115     0    56     1    15
  1.0495150393940873E-01 a      1116     0    56     1    16
 -2.8894830497268481E-01 a      1117     0    56     1    17
 -1.4190812144589829E-01 a      1118     0    56     1    18
 -9.4044203759011735E-02 a      1119     0    56     1    19
 -1.2711918926506446E-01 a      1120     0    56     1    20
 -1.8536099097420991E-01 a      1121     0    57     1     1
  8.8702495570773005E-02 a      1122     0    57     1     2
  6.8900926193135467E-02 a      1123     0    57     1     3
  7.3976964747707985E-02 a      1124     0    57     1     4
 -2.3975643048232112E-01 a      1125     0    57     1     5
 -1.5730553923618604E-01 a      1126     0    57     1     6
 -3.4020707820514653E-02 a      1127     0    57     1     7
 -1.4240454168770081E-01 a      1128     0    57     1     8
  7.0471815995359441E-02 a      1129     0    57     1     9
  9.3223525783172417E-02 a      1130     0    57     1    10
 -2.9929795753766482E-02 a      1131     0    57     1    11
 -1.6770150841066667E-01 a      1132     0    57     1    12
 -1.4046036559749881E-02 a      1133     0    57     1    13
 -7.7554388669526256E-02 a      1134     0    57     1    14
  1.7053009674813030E-01 a      1135     0    57     1    15
 -4.4954819740279137E-02 a      1136     0    57     1    16
  1.4220295256466195E-01 a      1137     0    57     1    17
 -1.5745702625991531E-01 a      1138     0    57     1    18
  1.4752194994802709E-01 a      1139     0    57     1    19
 -8.5057893271889048E-02 a      1140     0    57     1    20
 -1.4204987369102140E-02 a      1141     0    58     1     1
  2.8207484672401040E-01 a      1142     0    58     1     2
  1.0681051843341402E-01 a      1143     0    58     1     3
  9.0770066044103204E-02 a      1144     0    58     1     4
 -1.0310151588451447E-01 a      1145     0    58     1     5
 -1.4375248646533795E-01 a      1146     0    58     1     6
 -5.1665913006483558E-02 a      1147     0    58     1     7
  1.0226534533275597E-01 a      1148     0    58     1     8
  6.7210507931868946E-02 a      1149     0    58     1     9
  7.9164436353544740E-02 a      1150     0    58     1    10
  2.7547293098991821E-01 a      1151     0    58     1    11
 -4.5334213582791792E-02 a      1152     0    58     1    12
  1.1134138418725904E-01 a      1153     0    58     1    13
 -2.7665619307518630E-01 a      1154     0    58     1    14
 -1.8850456289231918E-01 a      1155     0    58     1    15
 -3.6932792214000938E-03 a      1156     0    58     1    16
  1.6508462809712490E-02 a      1157     0    58     1    17
  1.3910616550733224E-01 a      1158     0    58     1    18
  1.2768914745376324E-02 a      1159     0    58     1    19
  2.2453725421389079E-01 a      1160     0    58     1    20
 -1.0935194668011002E-01 a      1161     0    59     1     1
 -1.4354171276359595E-01 a      1162     0    59     1     2
  8.8282165487093819E-02 a      1163     0    59     1     3
  1.0347598611230978E-01 a      1164     0    59     1     4
  4.5399537743097906E-02 a      1165     0    59     1     5
 -4.1239994760249844E-02 a      1166     0    59     1     6
  1.6700086220049146E-01 a      1167     0    59     1     7
  9.4059572498239652E-02 a      1168     0    59     1     8
  2.6451300259254612E-01 a      1169     0    59     1     9
 -3.5222004569642203E-02 a      1170     0    59     1    10
  2.2489168099933059E-02 a      1171     0    59     1    11
  7.5269719883246322E-02 a      1172     0    59     1    12
  1.0910198969965562E-01 a      1173     0    59     1    13
  2.1782178119700017E-02 a      1174     0    59     1    14
  1.2073265511219991E-01 a      1175     0    59     1    15
 -2.5125565664013267E-02 a      1176     0    59     1    16
  6.0883218886623068E-03 a      1177     0    59     1    17
  1.4486958915164291E-01 a      1178     0    59     1    18
  1.7689839373534999E-01 a      1179     0    59     1    19
 -2.1066156824559788E-02 a      1180     0    59     1    20
  3.9170990621291570E-02 a      1181     0    60     1     1
  4.1312290485490977E-01 a      1182     0    60     1     2
  5.2207427465302858E-01 a      1183     0    60     1     3
 -1.0833734438277422E-01 a      1184     0    60     1     4
 -3.3238096566534425E-01 a      1185     0    60     1     5
 -6.9945550494193176E-01 a      1186     0    60     1     6
 -2.8475428761659181E-02 a      1187     0    60     1     7
  2.5826108720380775E-01 a      1188     0    60     1     8
  5.3959157032503668E-01 a      1189     0    60     1     9
  1.3486638813009891E-01 a      1190     0    60     1    10
 -1.0992356750376660E-01 a      1191     0    60     1    11
  1.3194533086402106E-03 a      1192     0    60     1    12
 -4.1178787369498004E-01 a      1193     0    60     1    13
  5.9690648600364216E-02 a      1194     0    60     1    14
 -1.0693835755939377E-01 a      1195     0    60     1    15
  6.0687539976942839E-01 a      1196     0    60     1    16
  8.3694031762057031E-02 a      1197     0    60     1    17
  1.3209226656250381E-01 a      1198     0    60     1    18
 -5.0843108758858391E-01 a      1199     0    60     1    19
  1.4229622121250415E-01 a      1200     0    60     1    20
  1.4532038641690581E-01 a      1201     0    61     1     1
  2.1903798110584199E-01 a      1202     0    61     1     2
  2.8989545544869172E-01 a      1203     0    61     1     3
 -3.7054284050521752E-01 a      1204     0    61     1     4
 -4.9459319278959531E-02 a      1205     0    61     1     5
 -9.2756509528961617E-01 a      1206     0    61     1     6
 -2.6055795528285558E-01 a      1207     0    61     1     7
 -3.2821264224226911E-02 a      1208     0    61     1     8
  2.9964399227174445E-02 a      1209     0    61     1     9
  2.6027993554645840E-01 a      1210     0    61     1    10
  2.7933264546143449E-01 a      1211     0    61     1    11
  1.0123708829196650E-01 a      1212     0    61     1    12
 -1.2721784013311086E+00 a      1213     0    61     1    13
  1.7683979274630532E-01 a      1214     0    61     1    14
  3.3884435597439216E-01 a      1215     0    61     1    15
 -3.3022116027863407E-01 a      1216     0    61     1    16
  3.5033914558869138E-02 a      1217     0    61     1    17
  3.1545296945515516E-01 a      1218     0    61     1    18
  5.4987425719488073E-02 a      1219     0    61     1    19
 -9.0511078519392552E-02 a      1220     0    61     1    20
 -1.3243047161447427E-01 a      1221     0    62     1     1
  4.3135364821137695E-02 a      1222     0    62     1     2
  6.0417733083522884E-02 a      1223     0    62     1     3
  1.8424363072693881E-02 a      1224     0    62     1     4
 -2.6199798295891374E-01 a      1225     0    62     1     5
 -8.6560742204395705E-02 a      1226     0    62     1     6
  1.1770630760938230E-01 a      1227     0    62     1     7
 -1.6755066256661687E-02 a      1228     0    62     1     8
  6.2380234575217249E-02 a      1229     0    62     1     9
 -2.3895808965176266E-02 a      1230     0    62     1    10
 -6.8935608064471979E-02 a      1231     0    62     1    11
 -3.5412433915240878E-03 a      1232     0    62     1    12
 -4.4866881244749392E-02 a      1233     0    62     1    13
  4.9927480895494016E-02 a      1234     0    62     1    14
  4.8508360012856321E-02 a      1235     0    62     1    15
 -1.0551349211536104E-01 a      1236     0    62     1    16
  2.7767908755954024E-01 a      1237     0    62     1    17
 -1.4479792636771297E-02 a      1238     0    62     1    18
  1.0403243923969277E-01 a      1239     0    62     1    19
 -2.3557175127849422E-01 a      1240     0    62     1    20
  1.2563996373282074E-01 a      1241     0    63     1     1
 -1.1165063612106772E-01 a      1242     0    63     1     2
 -8.5881911718936860E-02 a      1243     0    63     1     3
  2.2899414546434019E-02 a      1244     0    63     1     4
  1.5319120469324984E-01 a      1245     0    63     1     5
 -8.9033126431127624E-02 a      1246     0    63     1     6
 -2.5032824812506621E-01 a      1247     0    63     1     7
  4.4451908244521297E-02 a      1248     0    63     1     8
  1.2155268339412476E-02 a      1249     0    63     1     9
  9.2081702295441381E-02 a      1250     0    63     1    10
 -1.7064897029860746E-01 a      1251     0    63     1    11
 -3.4448819266515884E-02 a      1252     0    63     1    12
  3.6153194481286184E-02 a      1253     0    63     1    13
  3.9122096142099440E-03 a      1254     0    63     1    14
 -5.1645299149882987E-02 a      1255     0    63     1    15
  5.5496945533508424E-02 a      1256     0    63     1    16
 -9.9684110768684081E-02 a      1257     0    63     1    17
  1.0518282879519070E-01 a      1258     0    63     1    18
  3.6903016671963933E-02 a      1259     0    63     1    19
  1.0307280849878782E-01 a      1260     0    63     1    20
 -2.4027658488249085E-01 a      1261     0    64     1     1
 -3.4347314436140125E-01 a      1262     0    64     1     2
 -4.1590384793545637E-01 a      1263     0    64     1     3
  4.4985068263237460E-01 a      1264     0    64     1     4
 -1.4636440966943273E-01 a      1265     0    64     1     5
  4.4058599413430560E-01 a      1266     0    64     1     6
  2.3507896841624218E-01 a      1267     0    64     1     7
  6.2091398415697191E-02 a      1268     0    64     1     8
 -5.0471062337013617E-01 a      1269     0    64     1     9
 -3.4591224569201651E-01 a      1270     0    64     1    10
 -3.1081990846972973E-01 a      1271     0    64     1    11
  2.4615561356518187E-01 a      1272     0    64     1    12
  1.2579788074060101E+00 a      1273     0    64     1    13
 -1.8290937381485067E-01 a      1274     0    64     1    14
 -2.4492707617842946E-01 a      1275     0    64     1    15
  1.8481365927609017E-01 a      1276     0    64     1    16
  1.1871857278625932E-01 a      1277     0    64     1    17
 -4.3887568850808850E-01 a      1278     0    64     1    18
  9.0631976983416809E-02 a      1279     0    64     1    19
 -5.3225191296325525E-02 a      1280     0    64     1    20
  1.4210503408219724E-01 a      1281     0    65     1     1
 -1.0563283919314277E-01 a      1282     0    65     1     2
  3.9298537948856280E-02 a      1283     0    65     1     3
 -1.5256791651241747E-01 a      1284     0    65     1     4
  2.7660816689732672E-02 a      1285     0    65     1     5
 -2.3343387307724516E-02 a      1286     0    65     1     6
  8.7566704303050927E-02 a      1287     0    65     1     7
  3.9488799081287912E-02 a      1288     0    65     1     8
 -3.0262696703286854E-02 a      1289     0    65     1     9
  1.2559667929395632E-01 a      1290     0    65     1    10
 -1.5090015805070672E-01 a      1291     0    65     1    11
  1.6305087377301786E-01 a      1292     0    65     1    12
 -1.3763020939739509E-01 a      1293     0    65     1    13
 -1.7489904266770658E-02 a      1294     0    65     1    14
 -5.2453546745972440E-02 a      1295     0    65     1    15
 -3.2300792973450148E-03 a      1296     0    65     1    16
  3.0181412854357603E-02 a      1297     0    65     1    17
  1.5567262495797590E-01 a      1298     0    65     1    18
  1.0975094306396339E-01 a      1299     0    65     1    19
  7.7406890074992907E-02 a      1300     0    65     1    20
 -1.7339079881428796E-01 a      1301     0    66     1     1
 -1.2429390875872486E-02 a      1302     0    66     1     2
  4.9807388783836858E-02 a      1303     0    66     1     3
  2.2841853874660203E-01 a      1304     0    66     1     4
  8.9926210908967102E-02 a      1305     0    66     1     5
  1.1509213524053895E-01 a      1306     0    66     1     6
  6.2314618070595296E-02 a      1307     0    66     1     7
 -2.8043691990783724E-03 a      1308     0    66     1     8
 -1.1751693523658201E-01 a      1309     0    66     1     9
 -1.5166512516393643E-01 a      1310     0    66     1    10
  9.2904768601249618E-02 a      1311     0    66     1    11
 -9.8389040246529114E-02 a      1312     0    66     1    12
 -2.0206327566772358E-02 a      1313     0    66     1    13
 -1.0916036644779437E-01 a      1314     0    66     1    14
  2.0734877729101553E-01 a      1315     0    66     1    15
  2.1159983700750759E-01 a      1316     0    66     1    16
 -2.6297995712419175E-01 a      1317     0    66     1    17
 -6.0228816751859822E-02 a      1318     0    66     1    18
  9.6538832337938571E-02 a      1319     0    66     1    19
 -1.8693682106356468E-02 a      1320     0    66     1    20
  1.3408885201620963E-01 a      1321     0    67     1     1
  4.3344145244665677E-02 a      1322     0    67     1     2
 -3.8192002697470265E-02 a      1323     0    67     1     3
 -4.6901535180069537E-02 a      1324     0    67     1     4
  3.5164949228418674E-02 a      1325     0    67     1     5
 -6.4738788468875083E-02 a      1326     0    67     1     6
  5.7587093409024376E-02 a      1327     0    67     1     7
 -3.8282065126095000E-02 a      1328     0    67     1     8
 -1.7044218781714228E-02 a      1329     0    67     1     9
  2.6147119816996259E-02 a      1330     0    67     1    10
 -1.4595910272587620E-01 a      1331     0    67     1    11
  8.5947123163570505E-02 a      1332     0    67     1    12
 -4.1400385265415937E-02 a      1333     0    67     1    13
 -4.7507959679826666E-03 a      1334     0    67     1    14
 -4.1289876524676174E-02 a      1335     0    67     1    15
  4.0652960063988518E-02 a      1336     0    67     1    16
  3.2553163569620965E-02 a      1337     0    67     1    17
  7.0636984786917011E-03 a      1338     0    67     1    18
 -5.6392409776356511E-02 a      1339     0    67     1    19
  1.8912001417898641E-02 a      1340     0    67     1    20
 -2.1968598149831723E-03 a      1341     0    68     1     1
 -4.6934799792330256E-02 a      1342     0    68     1     2
 -1.5432755323685269E-02 a      1343     0    68     1     3
 -3.9686445305939282E-02 a      1344     0    68     1     4
  2.0394722092863578E-03 a      1345     0    68     1     5
  3.9648000858628824E-02 a      1346     0    68     1     6
 -6.4684010463462949E-02 a      1347     0    68     1     7
  1.0653831488364247E-02 a      1348     0    68     1     8
  3.7655714670579953E-02 a      1349     0    68     1     9
  6.7038070463683985E-02 a      1350     0    68     1    10
  1.0617083510276357E-01 a      1351     0    68     1    11
  6.7398181279054087E-02 a      1352     0    68     1    12
  5.8936632208243078E-02 a      1353     0    68     1    13
  5.2025110807305791E-02 a      1354     0    68     1    14
 -6.8463617090512713E-02 a      1355     0    68     1    15
 -7.1727380809873800E-02 a      1356     0    68     1    16
  1.3617231614426611E-01 a      1357     0    68     1    17
 -2.1590126098281509E-02 a      1358     0    68     1    18
 -3.9479663252761123E-02 a      1359     0    68     1    19
  9.0658922739021396E-03 a      1360     0    68     1    20
 -1.1291880285894951E-01 a      1361     0    69     1     1
  1.6929147268142108E-03 a      1362     0    69     1     2
  1.1248085778383228E-01 a      1363     0    69     1     3
  8.6490485888282648E-02 a      1364     0    69     1     4
  4.5655046386847149E-02 a      1365     0    69     1     5
  2.3831978331385610E-02 a      1366     0    69     1     6
  1.0966734573672418E-01 a      1367     0    69     1     7
 -1.5208342353249728E-04 a      1368     0    69     1     8
  1.1652725015969748E-01 a      1369     0    69     1     9
 -1.0155380536299616E-02 a      1370     0    69     1    10
  2.2370220067976510E-01 a      1371     0    69     1    11
  1.1360061671288343E-01 a      1372     0    69     1    12
  6.0576665363301765E-02 a      1373     0    69     1    13
 -9.5476579985675266E-04 a      1374     0    69     1    14
  1.3031470780800902E-01 a      1375     0    69     1    15
  1.0575881449036017E-02 a      1376     0    69     1    16
 -4.4495602670808834E-02 a      1377     0    69     1    17
  9.2594095357424241E-03 a      1378     0    69     1    18
  7.8326544390154677E-03 a      1379     0    69     1    19
 -3.9691640174824745E-02 a      1380     0    69     1    20
  1.8294369742991032E-01 a      1381     0    70     1     1
  6.5732147420507828E-02 a      1382     0    70     1     2
  1.5763314628499428E-01 a      1383     0    70     1     3
 -1.4396144206021452E-01 a      1384     0    70     1     4
  1.2242816001137906E-02 a      1385     0    70     1     5
 -1.3232275249004863E-01 a      1386     0    70     1     6
 -5.4851697600219559E-02 a      1387     0    70     1     7
  2.6115419731850970E-02 a      1388     0    70     1     8
  6.4045705210897863E-02 a      1389     0    70     1     9
  4.1896227291222311E-02 a      1390     0    70     1    10
 -4.8329488412346043E-02 a      1391     0    70     1    11
 -3.9007622191713220E-03 a      1392     0    70     1    12
 -5.3909136735211927E-01 a      1393     0    70     1    13
  7.7323276249087775E-02 a      1394     0    70     1    14
 -1.3203281962770704E-02 a      1395     0    70     1    15
  8.7660725417863863E-02 a      1396     0    70     1    16
 -7.5628176214263793E-02 a      1397     0    70     1    17
  2.5096223868947015E-01 a      1398     0    70     1    18
 -3.8001288343382691E-02 a      1399     0    70     1    19
  1.5537105009377794E-01 a      1400     0    70     1    20
 -2.4832660234411827E-01 a      1401     0    71     1     1
 -2.2199277770376499E-01 a      1402     0    71     1     2
  8.3609124972901072E-02 a      1403     0    71     1     3
 -2.5719700250888905E-02 a      1404     0    71     1     4
 -1.2762073063024240E-01 a      1405     0    71     1     5
 -3.7521431876449440E-01 a      1406     0    71     1     6
 -4.8338619982071240E-01 a      1407     0    71     1     7
 -5.4459444046731663E-02 a      1408     0    71     1     8
  1.7886657644949550E-01 a      1409     0    71     1     9
  1.6620782931236489E-01 a      1410     0    71     1    10
 -8.9859979859335928E-02 a      1411     0    71     1    11
  3.8432211547004219E-01 a      1412     0    71     1    12
 -6.2738567718728278E-01 a      1413     0    71     1    13
  7.8801097791004665E-02 a      1414     0    71     1    14
  1.3772843723319445E-01 a      1415     0    71     1    15
 -3.6038133777675965E-02 a      1416     0    71     1    16
  4.0629754669815943E-02 a      1417     0    71     1    17
  2.8699371468465135E-01 a      1418     0    71     1    18
  2.1512148317220028E-01 a      1419     0    71     1    19
 -2.4339982569473056E-01 a      1420     0    71     1    20
 -8.9685955332609771E-02 a      1421     0    72     1     1
  9.8171461107150068E-02 a      1422     0    72     1     2
 -2.0170669817942497E-03 a      1423     0    72     1     3
 -1.0766841800052914E-02 a      1424     0    72     1     4
  4.9070727132949236E-02 a      1425     0    72     1     5
 -1.0813751798423926E-01 a      1426     0    72     1     6
  1.7844793599600652E-02 a      1427     0    72     1     7
  1.1597887744969285E-02 a      1428     0    72     1     8
 -1.6898185686862265E-02 a      1429     0    72     1     9
 -1.0980689561566673E-02 a      1430     0    72     1    10
  1.6908817496706033E-01 a      1431     0    72     1    11
  2.3712774546938090E-01 a      1432     0    72     1    12
  7.1901625609340089E-02 a      1433     0    72     1    13
 -7.2753522292857642E-02 a      1434     0    72     1    14
  9.1812251161382044E-02 a      1435     0    72     1    15
 -7.4005025338259506E-02 a      1436     0    72     1    16
  1.4478356922140534E-01 a      1437     0    72     1    17
 -1.4824815958344800E-01 a      1438     0    72     1    18
 -1.8289348679026857E-01 a      1439     0    72     1    19
 -1.0196462800374305E-01 a      1440     0    72     1    20
  9.6465682983333356E-02 a      1441     0    73     1     1
 -5.7015088807196926E-02 a      1442     0    73     1     2
 -5.0493430148145800E-02 a      1443     0    73     1     3
 -1.6325677256965179E-01 a      1444     0    73     1     4
 -5.5912076082924755E-02 a      1445     0    73     1     5
 -5.5772168639565668E-02 a      1446     0    73     1     6
 -7.0331426914917339E-02 a      1447     0    73     1     7
 -1.4054036072597761E-01 a      1448     0    73     1     8
 -2.3169640117922266E-01 a      1449     0    73     1     9
  1.2712312220305297E-01 a      1450     0    73     1    10
 -8.7788589685441468E-02 a      1451     0    73     1    11
 -1.5383219833703728E-02 a      1452     0    73     1    12
 -1.1662397576968564E-01 a      1453     0    73     1    13
  1.4232910265677612E-01 a      1454     0    73     1    14
 -2.1209543077720344E-01 a      1455     0    73     1    15
 -8.4292572131985152E-03 a      1456     0    73     1    16
 -3.8706832156099220E-02 a      1457     0    73     1    17
  1.0687936139846976E-01 a      1458     0    73     1    18
  2.2028063395759891E-02 a      1459     0    73     1    19
  4.3298845673237912E-02 a      1460     0    73     1    20
  1.8514849411215356E-01 a      1461     0    74     1     1
 -1.1094114871922521E-01 a      1462     0    74     1     2
 -1.8818477630444261E-01 a      1463     0    74     1     3
 -3.6033229832311092E-01 a      1464     0    74     1     4
  3.1476762628378552E-01 a      1465     0    74     1     5
  4.6698099406248257E-02 a      1466     0    74     1     6
  5.6469158079417003E-01 a      1467     0    74     1     7
 -1.9305051720983454E-01 a      1468     0    74     1     8
 -8.5470027609064725E-01 a      1469     0    74     1     9
  8.1276540772134576E-01 a      1470     0    74     1    10
  6.5802553343606041E-01 a      1471     0    74     1    11
 -9.6340519107773293E-01 a      1472     0    74     1    12
  2.1171562817417397E-01 a      1473     0    74     1    13
 -4.6614777963276059E-02 a      1474     0    74     1    14
 -1.5729038785442420E-01 a      1475     0    74     1    15
 -1.2724705824033511E-01 a      1476     0    74     1    16
  2.1191696140019900E-01 a      1477     0    74     1    17
 -5.1648759803386191E-01 a      1478     0    74     1    18
 -3.0120428884184181E-01 a      1479     0    74     1    19
  1.4131342918051745E-01 a      1480     0    74     1    20
  1.7646092946577457E-01 a      1481     0    75     1     1
  3.0683938368061381E-01 a      1482     0    75     1     2
 -8.1050312200316832E-02 a      1483     0    75     1     3
  7.9588998075706699E-02 a      1484     0    75     1     4
 -6.5432635761911662E-02 a      1485     0    75     1     5
 -2.7768878684684157E-02 a      1486     0    75     1     6
  1.0658693719029698E-01 a      1487     0    75     1     7
  9.2809679364734277E-02 a      1488     0    75     1     8
 -9.8042111097107615E-02 a      1489     0    75     1     9
  2.8692366326560546E-02 a      1490     0    75     1    10
 -1.1655225178917179E-01 a      1491     0    75     1    11
 -7.8693965048290140E-02 a      1492     0    75     1    12
  3.8785441127496781E-02 a      1493     0    75     1    13
 -3.9559623994357435E-01 a      1494     0    75     1    14
 -1.5412075931668776E-01 a      1495     0    75     1    15
 -1.4274895060442092E-02 a      1496     0    75     1    16
 -4.1806097931597209E-02 a      1497     0    75     1    17
  7.0026434053188535E-02 a      1498     0    75     1    18
  3.3709777379439593E-01 a      1499     0    75     1    19
  2.4133874614313344E-01 a      1500     0    75     1    20
  1.8898448996710954E-01 a      1501     0    76     1     1
 -5.1271220883555839E-02 a      1502     0    76     1     2
 -1.9733086041344855E-01 a      1503     0    76     1     3
  4.2273611233157047E-03 a      1504     0    76     1     4
  5.5935819468040847E-02 a      1505     0    76     1     5
 -3.1398736478105094E-01 a      1506     0    76     1     6
 -1.6900849058948075E-01 a      1507     0    76     1     7
  9.5489601181745223E-02 a      1508     0    76     1     8
  5.0589238386292389E-02 a      1509     0    76     1     9
  9.9315158102292758E-02 a      1510     0    76     1    10
 -5.8977123468530103E-02 a      1511     0    76     1    11
 -1.1654766829326202E-01 a      1512     0    76     1    12
  9.2747359860011480E-02 a      1513     0    76     1    13
 -1.3760277881944530E-01 a      1514     0    76     1    14
 -1.6040036825247492E-01 a      1515     0    76     1    15
  1.3879476395360435E-01 a      1516     0    76     1    16
  2.7831557929564793E-01 a      1517     0    76     1    17
  3.7921537942934985E-01 a      1518     0    76     1    18
  2.4556674789957430E-02 a      1519     0    76     1    19
 -1.7768119342871974E-01 a      1520     0    76     1    20
  1.1974076977930004E-01 a      1521     0    77     1     1
  6.9893853367334249E-03 a      1522     0    77     1     2
 -8.8647137091978329E-02 a      1523     0    77     1     3
 -5.5827694485876170E-02 a      1524     0    77     1     4
  8.8340301603978336E-02 a      1525     0    77     1     5
  4.3037621121426034E-02 a      1526     0    77     1     6
  2.8227968361883200E-02 a      1527     0    77     1     7
 -3.0134718516744218E-02 a      1528     0    77     1     8
  3.1108243625129397E-02 a      1529     0    77     1     9
 -1.1850071156001132E-01 a      1530     0    77     1    10
  8.7296017839738435E-02 a      1531     0    77     1    11
  1.0163421498914170E-01 a      1532     0    77     1    12
  4.7976710160148360E-03 a      1533     0    77     1    13
  7.2796410023676303E-02 a      1534     0    77     1    14
 -1.0285376113967644E-01 a      1535     0    77     1    15
  2.1314313275129719E-02 a      1536     0    77     1    16
  6.5562391766575995E-02 a      1537     0    77     1    17
  7.8252279879882404E-03 a      1538     0    77     1    18
 -1.5271354036446858E-01 a      1539     0    77     1    19
 -4.9820177492062899E-03 a      1540     0    77     1    20
  2.4403488912669755E-01 a      1541     0    78     1     1
 -6.2997014164203127E-02 a      1542     0    78     1     2
 -9.6737903238342804E-02 a      1543     0    78     1     3
 -1.4990464815718660E-02 a      1544     0    78     1     4
  2.7939471402666810E-01 a      1545     0    78     1     5
  1.1895569887914376E-01 a      1546     0    78     1     6
  5.6849268830421615E-02 a      1547     0    78     1     7
  5.8032180640710876E-02 a      1548     0    78     1     8
 -6.4809888774821772E-02 a      1549     0    78     1     9
 -1.3444739293222918E-01 a      1550     0    78     1    10
 -3.0143940345212211E-01 a      1551     0    78     1    11
 -1.6537197441659229E-01 a      1552     0    78     1    12
 -2.0482057348617949E-01 a      1553     0    78     1    13
  2.1776714266125621E-01 a      1554     0    78     1    14
  1.4977991925857562E-01 a      1555     0    78     1    15
  1.6324232391585175E-02 a      1556     0    78     1    16
  1.3221541150282692E-01 a      1557     0    78     1    17
 -1.0752471686429942E-01 a      1558     0    78     1    18
 -1.6316481653434772E-01 a      1559     0    78     1    19
 -1.4781690101432057E-01 a      1560     0    78     1    20
  1.0895293795999261E-01 a      1561     0    79     1     1
  1.0204108672133730E-01 a      1562     0    79     1     2
 -1.5949267666335382E-02 a      1563     0    79     1     3
 -6.2677393394279912E-02 a      1564     0    79     1     4
  6.5239878953096256E-02 a      1565     0    79     1     5
 -2.6655909090525466E-03 a      1566     0    79     1     6
 -7.3471387955103662E-02 a      1567     0    79     1     7
  7.9118944489181040E-02 a      1568     0    79     1     8
 -2.5544929875916950E-01 a      1569     0    79     1     9
  8.7644357328688180E-02 a      1570     0    79     1    10
 -5.4755603619329969E-02 a      1571     0    79     1    11
 -1.3647004712824750E-02 a      1572     0    79     1    12
 -5.8800189314397622E-02 a      1573     0    79     1    13
 -1.8365563263622119E-02 a      1574     0    79     1    14
 -7.3767995750463361E-02 a      1575     0    79     1    15
  4.3633208935679103E-02 a      1576     0    79     1    16
 -1.8930118524908568E-01 a      1577     0    79     1    17
  1.8381763178643411E-02 a      1578     0    79     1    18
 -9.5569844624064065E-02 a      1579     0    79     1    19
  3.5958324588923327E-02 a      1580     0    79     1    20
 -7.6469826198032942E-02 a      1581     0    80     1     1
 -2.6165533192480334E-01 a      1582     0    80     1     2
 -2.6702618123970545E-01 a      1583     0    80     1     3
  2.3081126338973412E-01 a      1584     0    80     1     4
  6.9570808432777326E-02 a      1585     0    80     1     5
  3.3780005249114492E-01 a      1586     0    80     1     6
 -1.0144067631324112E-02 a      1587     0    80     1     7
 -1.6065638555369419E-01 a      1588     0    80     1     8
 -1.1917044138552277E-01 a      1589     0    80     1     9
 -6.7956267389619684E-02 a      1590     0    80     1    10
 -1.7912059748186468E-01 a      1591     0    80     1    11
 -1.2202309738062361E-02 a      1592     0    80     1    12
  1.9655306436109585E-01 a      1593     0    80     1    13
 -5.5488243304782137E-02 a      1594     0    80     1    14
 -1.9159174645353865E-02 a      1595     0    80     1    15
 -3.4986976037500334E-01 a      1596     0    80     1    16
  3.0264081230360111E-02 a      1597     0    80     1    17
  3.6325038697697567E-03 a      1598     0    80     1    18
  1.8248562117189424E-01 a      1599     0    80     1    19
 -6.1518385210389409E-02 a      1600     0    80     1    20
 -9.9903945678095664E-03 b      1601     1     1
 -8.4813186141491886E-02 b      1602     1     2
  3.4112133629106406E-01 b      1603     1     3
 -8.5828941043347351E-01 b      1604     1     4
  1.2711735558516937E-01 b      1605     1     5
 -7.1246311426820108E-01 b      1606     1     6
  1.5927050472627904E-01 b      1607     1     7
 -5.9453702910676665E-01 b      1608     1     8
 -1.1891946525474464E+00 b      1609     1     9
 -1.1563434321278205E+00 b      1610     1    10
  1.9886891584197774E-01 b      1611     1    11
  9.6625738207494383E-01 b      1612     1    12
  9.1912518766997797E-01 b      1613     1    13
 -1.0403814276403707E+00 b      1614     1    14
 -2.2136853706508486E-01 b      1615     1    15
 -1.2633811989621160E+00 b      1616     1    16
 -2.0131238747315056E-01 b      1617     1    17
  6.0554202535101270E-02 b      1618     1    18
 -3.9138073955491753E-01 b      1619     1    19
  3.5722744229950087E-01 b      1620     1    20
 -5.1119414050535272E-01 a      1621     1     1     2     1
  1.1429735171122499E-01 a      1622     1     1     2     2
 -2.4659585827546499E-01 a      1623     1     1     2     3
 -1.5019201582891867E-01 a      1624     1     1     2     4
  2.7122565935587446E-02 a      1625     1     1     2     5
  6.3649633277822859E-01 a      1626     1     1     2     6
 -4.4838723341117631E-01 a      1627     1     1     2     7
