################################################################################
# Neural network connection values (weights and biases).
################################################################################
# Col  Name       Description
################################################################################
# 1    connection Neural network connection value.
# 2    t          Connection type (a = weight, b = bias).
# 3    index      Index enumerating weights.
# 4    l_s        Starting point layer (end point layer for biases).
# 5    n_s        Starting point neuron in starting layer (end point neuron for biases).
# 6    l_e        End point layer.
# 7    n_e        End point neuron in end layer.
################################################################################
#                      1 2         3     4     5     6     7
#             connection t     index   l_s   n_s   l_e   n_e
############################################################
  6.0386284528478318E-01 a         1     0     1     1     1
 -4.9670635278101127E-01 a         2     0     1     1     2
  7.4371401532859094E-02 a         3     0     1     1     3
  9.1136455205217737E-01 a         4     0     1     1     4
  3.3930282454865718E-01 a         5     0     1     1     5
 -1.1058219379507836E-01 a         6     0     1     1     6
 -2.9530552546105254E-01 a         7     0     1     1     7
 -2.6793720802283633E-01 a         8     0     1     1     8
 -3.9580909556304006E-01 a         9     0     1     1     9
 -1.0265339783521268E+00 a        10     0     1     1    10
 -3.0135259455261243E-01 a        11     0     1     1    11
  4.8107130196882797E-01 a        12     0     1     1    12
 -3.5334280054222622E-01 a        13     0     1     1    13
 -1.3827258371715481E-01 a        14     0     1     1    14
  4.1952749717738283E-02 a        15     0     1     1    15
 -1.2583740852722061E+00 a        16     0     1     1    16
 -3.0676790737932735E-02 a        17     0     1     1    17
 -3.5433779683660588E-01 a        18     0     1     1    18
 -4.5491517502279405E-01 a        19     0     1     1    19
  3.4823548735368848E-01 a        20     0     1     1    20
 -1.4467567285396301E-02 a        21     0     2     1     1
 -9.9847109012872137E-02 a        22     0     2     1     2
  1.9333243584769993E-02 a        23     0     2     1     3
 -1.2428493179772929E-01 a        24     0     2     1     4
  2.1151026398367939E-01 a        25     0     2     1     5
  5.0384422932527706E-02 a        26     0     2     1     6
 -1.6984328315581051E-01 a        27     0     2     1     7
 -1.0718386994157940E-01 a        28     0     2     1     8
  2.6915997538613460E-02 a        29     0     2     1     9
  1.0635388363336899E-01 a        30     0     2     1    10
  9.4369951796385923E-02 a        31     0     2     1    11
 -1.5614420117720718E-01 a        32     0     2     1    12
  1.1904707762422140E-01 a        33     0     2     1    13
  7.4796864489993523E-02 a        34     0     2     1    14
  1.8583384888111468E-01 a        35     0     2     1    15
 -7.6954864648456453E-02 a        36     0     2     1    16
 -1.7910583125263793E-01 a        37     0     2     1    17
  1.7137015452158028E-01 a        38     0     2     1    18
  1.0110397762056965E-01 a        39     0     2     1    19
 -4.9899980171375542E-02 a        40     0     2     1    20
 -2.3750836561003939E-02 a        41     0     3     1     1
  1.2161593104398552E-02 a        42     0     3     1     2
  8.8311380684221910E-02 a        43     0     3     1     3
  1.1868010013240393E-02 a        44     0     3     1     4
 -5.3872034769268530E-02 a        45     0     3     1     5
 -6.2938171818847533E-02 a        46     0     3     1     6
 -8.3081477562337649E-02 a        47     0     3     1     7
  6.5039360251694300E-03 a        48     0     3     1     8
 -6.2938726250703361E-02 a        49     0     3     1     9
  5.6884528659488280E-02 a        50     0     3     1    10
 -5.1305755093733002E-02 a        51     0     3     1    11
  5.8789270190630384E-02 a        52     0     3     1    12
  3.0252469902243322E-02 a        53     0     3     1    13
 -9.3718302896151684E-02 a        54     0     3     1    14
  7.6890992131271887E-02 a        55     0     3     1    15
  1.8933587498993969E-02 a        56     0     3     1    16
  9.7843329498952664E-02 a        57     0     3     1    17
 -1.3736779091514757E-02 a        58     0     3     1    18
 -6.0078591536125395E-02 a        59     0     3     1    19
 -1.5910443325891524E-01 a        60     0     3     1    20
 -8.5064395021611047E-02 a        61     0     4     1     1
  1.9138419611186373E-02 a        62     0     4     1     2
  1.6803576091933647E-01 a        63     0     4     1     3
  5.1991270871117455E-02 a        64     0     4     1     4
  6.1879835751523192E-02 a        65     0     4     1     5
 -9.5457600776793147E-03 a        66     0     4     1     6
  3.5162657886797521E-01 a        67     0     4     1     7
 -1.9172040598927317E-01 a        68     0     4     1     8
  6.9652738235619668E-02 a        69     0     4     1     9
 -2.3596017586449938E-02 a        70     0     4     1    10
 -1.8163105928809284E-01 a        71     0     4     1    11
 -1.1811951093607836E-01 a        72     0     4     1    12
  2.3328324398210792E-01 a        73     0     4     1    13
 -6.4990439657598414E-03 a        74     0     4     1    14
 -5.6703140923025971E-03 a        75     0     4     1    15
 -2.9149906114009988E-01 a        76     0     4     1    16
  2.3588755999533506E-01 a        77     0     4     1    17
  1.8365984160727378E-01 a        78     0     4     1    18
  2.5845942418244836E-03 a        79     0     4     1    19
 -8.0534066772227519E-02 a        80     0     4     1    20
 -1.7172816261656541E+00 a        81     0     5     1     1
  4.7141990010058876E-01 a        82     0     5     1     2
  2.4136857080254460E-02 a        83     0     5     1     3
 -8.3849572036997544E-01 a        84     0     5     1     4
 -2.0802477250185469E-01 a        85     0     5     1     5
  5.2384673520110603E-01 a        86     0     5     1     6
  1.3402165571556057E+00 a        87     0     5     1     7
  1.3308754421714794E-01 a        88     0     5     1     8
  9.4534660953229588E-01 a        89     0     5     1     9
  1.1952904495316696E+00 a        90     0     5     1    10
 -5.4744399446916270E-01 a        91     0     5     1    11
 -9.1595554521194678E-01 a        92     0     5     1    12
  1.0798921775213333E+00 a        93     0     5     1    13
 -2.2330188874833173E-01 a        94     0     5     1    14
 -3.1782061054878341E-01 a        95     0     5     1    15
 -3.9322383689821105E-02 a        96     0     5     1    16
  7.1168734751822049E-01 a        97     0     5     1    17
  1.2661246166829883E+00 a        98     0     5     1    18
  7.4048696774312717E-01 a        99     0     5     1    19
  2.4495653514284554E-01 a       100     0     5     1    20
 -3.1781314242854283E-02 a       101     0     6     1     1
  4.3564408096273925E-02 a       102     0     6     1     2
 -1.1647747923306705E-01 a       103     0     6     1     3
 -9.4765102954335878E-02 a       104     0     6     1     4
 -1.0790152271457269E-01 a       105     0     6     1     5
 -2.9011654070048427E-02 a       106     0     6     1     6
 -2.1866623789640247E-02 a       107     0     6     1     7
  5.0036065038737568E-03 a       108     0     6     1     8
  6.7923252287325472E-02 a       109     0     6     1     9
 -1.5576148956579336E-01 a       110     0     6     1    10
 -9.1851142764014640E-02 a       111     0     6     1    11
  3.1099550550262972E-01 a       112     0     6     1    12
  2.8673815895926169E-01 a       113     0     6     1    13
 -1.3693147881866266E-01 a       114     0     6     1    14
 -1.7429722718707469E-01 a       115     0     6     1    15
  1.6035286081558311E-01 a       116     0     6     1    16
  5.6889624720307154E-02 a       117     0     6     1    17
 -2.5030378556942834E-01 a       118     0     6     1    18
 -5.3975986754242852E-02 a       119     0     6     1    19
  3.5800988954666663E-01 a       120     0     6     1    20
  2.3395122639918341E-02 a       121     0     7     1     1
 -3.5646906071479766E-03 a       122     0     7     1     2
  1.1463376921881251E-02 a       123     0     7     1     3
 -1.9033815935672271E-02 a       124     0     7     1     4
 -5.8778118016740655E-02 a       125     0     7     1     5
 -3.2547140419359005E-01 a       126     0     7     1     6
  5.8814038942508098E-02 a       127     0     7     1     7
 -5.3904273225177643E-02 a       128     0     7     1     8
  1.5202712366061583E-01 a       129     0     7     1     9
 -9.4622754140343962E-02 a       130     0     7     1    10
  1.1362047601453086E-01 a       131     0     7     1    11
 -6.6666202728547147E-02 a       132     0     7     1    12
  1.5875436688216177E-01 a       133     0     7     1    13
  1.6048227893222283E-02 a       134     0     7     1    14
  3.2784393694489135E-02 a       135     0     7     1    15
 -1.0751763166645324E-01 a       136     0     7     1    16
 -2.0736092278224288E-02 a       137     0     7     1    17
  5.5371336814844491E-02 a       138     0     7     1    18
 -1.3364168663462370E-01 a       139     0     7     1    19
 -9.2705256199982267E-02 a       140     0     7     1    20
  1.4758581956991143E-01 a       141     0     8     1     1
 -7.2798528961418751E-02 a       142     0     8     1     2
  3.8265876682239556E-03 a       143     0     8     1     3
  3.5915328188512752E-01 a       144     0     8     1     4
 -9.6801920688281015E-02 a       145     0     8     1     5
 -4.1678022080635513E-01 a       146     0     8     1     6
 -3.3271898191625121E-01 a       147     0     8     1     7
  1.8807953877456354E-01 a       148     0     8     1     8
 -8.9435687837592107E-02 a       149     0     8     1     9
  2.9966227747545282E-01 a       150     0     8     1    10
  3.8362292798764713E-01 a       151     0     8     1    11
  4.9766872584907412E-01 a       152     0     8     1    12
  1.9356890886587947E-02 a       153     0     8     1    13
 -6.5806753384538397E-02 a       154     0     8     1    14
  1.7301462484253224E-02 a       155     0     8     1    15
  3.3743663588089479E-01 a       156     0     8     1    16
 -2.1659397115049128E-01 a       157     0     8     1    17
 -2.3478134190263750E-01 a       158     0     8     1    18
  5.2555779511719034E-03 a       159     0     8     1    19
 -4.6638644904021392E-01 a       160     0     8     1    20
  2.4433778640038604E+00 a       161     0     9     1     1
 -5.6868744186718800E-01 a       162     0     9     1     2
 -8.4003973076216279E-02 a       163     0     9     1     3
  5.3594986757529572E-01 a       164     0     9     1     4
  6.7621430754407374E-01 a       165     0     9     1     5
  2.4542484534432138E-01 a       166     0     9     1     6
 -9.5069367556342255E-01 a       167     0     9     1     7
  2.8776401520667971E-01 a       168     0     9     1     8
 -1.9921362843169523E+00 a       169     0     9     1     9
 -2.1465529455503560E-01 a       170     0     9     1    10
  1.2430719598207536E+00 a       171     0     9     1    11
  3.0248713778128422E-01 a       172     0     9     1    12
 -5.8904884192842744E-01 a       173     0     9     1    13
  9.0412100254819572E-01 a       174     0     9     1    14
  7.2575418564197425E-01 a       175     0     9     1    15
  1.0016214313708428E-01 a       176     0     9     1    16
 -5.0519480803077610E-01 a       177     0     9     1    17
 -2.6292847515670315E-01 a       178     0     9     1    18
 -1.7284441785271312E-01 a       179     0     9     1    19
 -2.9776386708180175E-01 a       180     0     9     1    20
  2.1083646344171506E-01 a       181     0    10     1     1
 -1.4479477520024493E-02 a       182     0    10     1     2
  1.2833428844082193E-01 a       183     0    10     1     3
  1.4254493843561952E-01 a       184     0    10     1     4
  1.5984549019992239E-01 a       185     0    10     1     5
  2.4173533306701203E-01 a       186     0    10     1     6
  6.4910621663843954E-02 a       187     0    10     1     7
  2.6718021159049948E-01 a       188     0    10     1     8
  7.9946658864023079E-02 a       189     0    10     1     9
  1.0313657383544537E-01 a       190     0    10     1    10
  2.6720040447670901E-01 a       191     0    10     1    11
 -1.4897844433543544E-01 a       192     0    10     1    12
 -1.9867783490904825E-01 a       193     0    10     1    13
  9.0223467906448002E-02 a       194     0    10     1    14
 -1.1022649119860004E-01 a       195     0    10     1    15
 -6.1681047076500226E-02 a       196     0    10     1    16
  3.0395978479424504E-02 a       197     0    10     1    17
 -5.4149339870892779E-02 a       198     0    10     1    18
  3.1122087311425733E-01 a       199     0    10     1    19
 -2.3847920232324166E-03 a       200     0    10     1    20
 -7.7000580392016710E-02 a       201     0    11     1     1
  1.5235610281936671E-01 a       202     0    11     1     2
 -1.5818432951120023E-01 a       203     0    11     1     3
 -5.1492126561798642E-02 a       204     0    11     1     4
  1.7284559143429537E-01 a       205     0    11     1     5
  6.2474778284685027E-02 a       206     0    11     1     6
  2.7550437389050147E-01 a       207     0    11     1     7
  1.8083162959764859E-01 a       208     0    11     1     8
 -1.3180693823275148E-02 a       209     0    11     1     9
  2.4575404213238269E-01 a       210     0    11     1    10
  1.8530393673629666E-01 a       211     0    11     1    11
 -1.4276531880899809E-01 a       212     0    11     1    12
 -3.3827470476753801E-02 a       213     0    11     1    13
  1.3960391469205427E-01 a       214     0    11     1    14
 -2.4481728617349285E-01 a       215     0    11     1    15
 -1.5772548051652437E-02 a       216     0    11     1    16
 -1.7645175090557258E-01 a       217     0    11     1    17
  2.2858402684379098E-02 a       218     0    11     1    18
  2.9059383502986319E-01 a       219     0    11     1    19
  3.8592380909949563E-02 a       220     0    11     1    20
 -2.3018319084316546E-01 a       221     0    12     1     1
  5.4606917004127016E-02 a       222     0    12     1     2
  4.0872870603798038E-02 a       223     0    12     1     3
 -3.6162993267085369E-01 a       224     0    12     1     4
  7.0705578242181530E-02 a       225     0    12     1     5
 -1.3940390068104211E-01 a       226     0    12     1     6
 -2.3905940357373534E-01 a       227     0    12     1     7
  2.0205721081784300E-01 a       228     0    12     1     8
 -3.8128317980822661E-02 a       229     0    12     1     9
 -5.6838183585060299E-02 a       230     0    12     1    10
  5.5748096174850503E-01 a       231     0    12     1    11
  3.3725832831283448E-01 a       232     0    12     1    12
 -1.9269905200811710E-01 a       233     0    12     1    13
 -2.1714246664814743E-01 a       234     0    12     1    14
 -2.2164333973072209E-01 a       235     0    12     1    15
  1.9903612507759855E-01 a       236     0    12     1    16
 -1.2706801074124602E-01 a       237     0    12     1    17
 -2.2112225666217086E-01 a       238     0    12     1    18
 -7.1604188480696744E-03 a       239     0    12     1    19
 -7.2162692537452597E-02 a       240     0    12     1    20
 -2.6997305348987437E+00 a       241     0    13     1     1
  8.9798894144880093E-01 a       242     0    13     1     2
  2.5683467709010460E-01 a       243     0    13     1     3
 -2.7484740841507597E-02 a       244     0    13     1     4
 -4.6560607288006162E-01 a       245     0    13     1     5
  2.8554499607041844E-01 a       246     0    13     1     6
  1.7842860160556762E-01 a       247     0    13     1     7
 -7.3034861254279293E-01 a       248     0    13     1     8
  1.7507626452350364E+00 a       249     0    13     1     9
 -7.1379322532548639E-01 a       250     0    13     1    10
 -9.4062575007700111E-01 a       251     0    13     1    11
 -4.8600992609235905E-01 a       252     0    13     1    12
 -4.0489808982201847E-01 a       253     0    13     1    13
 -1.2776247202406656E+00 a       254     0    13     1    14
 -9.8401371839193108E-01 a       255     0    13     1    15
 -3.0160161013976428E-01 a       256     0    13     1    16
  2.0623553230709529E-01 a       257     0    13     1    17
 -2.8631304053462220E-01 a       258     0    13     1    18
 -4.3995301547775351E-01 a       259     0    13     1    19
  1.1928237920638860E+00 a       260     0    13     1    20
 -9.4112444776464244E-02 a       261     0    14     1     1
 -1.2012633806351434E-02 a       262     0    14     1     2
 -1.4923077281527516E-01 a       263     0    14     1     3
  6.7089172333566177E-02 a       264     0    14     1     4
 -6.5836635114658428E-03 a       265     0    14     1     5
  3.4673807761279769E-02 a       266     0    14     1     6
  3.8242539750708945E-02 a       267     0    14     1     7
 -4.6333295596214977E-02 a       268     0    14     1     8
  2.1735677681446930E-01 a       269     0    14     1     9
 -2.8933360776323972E-02 a       270     0    14     1    10
  2.5614268589279071E-01 a       271     0    14     1    11
  1.7159627159897525E-01 a       272     0    14     1    12
 -2.4627331546215447E-03 a       273     0    14     1    13
 -1.3663238568032468E-01 a       274     0    14     1    14
  1.9349838318014975E-01 a       275     0    14     1    15
 -2.5391703573610397E-01 a       276     0    14     1    16
 -1.4696971407113443E-01 a       277     0    14     1    17
 -9.5414670394373971E-02 a       278     0    14     1    18
 -1.6682432328428132E-01 a       279     0    14     1    19
 -6.3394757301489496E-02 a       280     0    14     1    20
  9.8445488665265798E-02 a       281     0    15     1     1
  3.3678145111181904E-02 a       282     0    15     1     2
  2.3400534957671973E-01 a       283     0    15     1     3
  9.5650058960973644E-03 a       284     0    15     1     4
  8.2090759960404144E-02 a       285     0    15     1     5
 -1.3331723524719726E-02 a       286     0    15     1     6
  2.1660422901510304E-01 a       287     0    15     1     7
  7.0987044255859347E-02 a       288     0    15     1     8
 -8.7836167163419895E-02 a       289     0    15     1     9
  1.6718905594440206E-01 a       290     0    15     1    10
  9.2333417741466920E-03 a       291     0    15     1    11
  2.3692976028305160E-01 a       292     0    15     1    12
  1.5220136655481383E-02 a       293     0    15     1    13
 -1.4497750389330663E-01 a       294     0    15     1    14
  3.2780412678056321E-02 a       295     0    15     1    15
  2.1875803468448230E-03 a       296     0    15     1    16
  1.1575470863170095E-01 a       297     0    15     1    17
 -1.0677117260326617E-01 a       298     0    15     1    18
 -3.0577030583873392E-02 a       299     0    15     1    19
 -1.1411454447394717E-01 a       300     0    15     1    20
 -1.3355512349481546E-01 a       301     0    16     1     1
  3.8496790275711179E-01 a       302     0    16     1     2
  5.3014554483546483E-01 a       303     0    16     1     3
 -5.5272531226768805E-02 a       304     0    16     1     4
 -3.4968212018570144E-02 a       305     0    16     1     5
 -4.1049456466617318E-01 a       306     0    16     1     6
 -2.2724164768524435E-01 a       307     0    16     1     7
 -1.7953330765099690E-01 a       308     0    16     1     8
  4.0236181959547523E-01 a       309     0    16     1     9
 -4.3375378787919874E-02 a       310     0    16     1    10
 -2.5464555173143744E-01 a       311     0    16     1    11
  1.7893083200956422E-01 a       312     0    16     1    12
  4.1875569248072608E-01 a       313     0    16     1    13
 -1.4164526015492998E-01 a       314     0    16     1    14
 -5.7925242196764079E-02 a       315     0    16     1    15
 -4.0893575406827370E-01 a       316     0    16     1    16
  1.0444229525460198E-01 a       317     0    16     1    17
  2.6999121054592429E-01 a       318     0    16     1    18
 -1.1251062184000167E-01 a       319     0    16     1    19
  1.5593156750046445E-02 a       320     0    16     1    20
  1.3014674970380795E+00 a       321     0    17     1     1
 -6.1851906431276060E-01 a       322     0    17     1     2
 -2.4884327543965479E-01 a       323     0    17     1     3
  5.6055710858945521E-02 a       324     0    17     1     4
  2.1038460090412486E-01 a       325     0    17     1     5
 -5.1807535504564395E-01 a       326     0    17     1     6
  9.7717822317438896E-01 a       327     0    17     1     7
  1.7426540006306893E-01 a       328     0    17     1     8
 -6.2534993714442011E-01 a       329     0    17     1     9
  5.1725673476500045E-01 a       330     0    17     1    10
  2.6974716267376753E-01 a       331     0    17     1    11
  8.7226483499821428E-02 a       332     0    17     1    12
 -4.4167449400147973E-01 a       333     0    17     1    13
  8.8983256519125320E-01 a       334     0    17     1    14
  4.2282608041466385E-01 a       335     0    17     1    15
 -5.7698721991170687E-01 a       336     0    17     1    16
  4.9528221175419285E-01 a       337     0    17     1    17
 -6.6614886575545290E-02 a       338     0    17     1    18
  3.4606481867856842E-01 a       339     0    17     1    19
 -4.5180678283050629E-01 a       340     0    17     1    20
 -1.3027801804633884E-01 a       341     0    18     1     1
 -4.5138925129908726E-02 a       342     0    18     1     2
  1.2133764002289579E-01 a       343     0    18     1     3
 -2.7418960873834591E-01 a       344     0    18     1     4
  1.1110444656770846E-01 a       345     0    18     1     5
  1.7805451282144241E-01 a       346     0    18     1     6
 -1.5366837393833896E-01 a       347     0    18     1     7
  7.1559643574419851E-02 a       348     0    18     1     8
 -7.4566154479137864E-02 a       349     0    18     1     9
  2.4877858502957095E-01 a       350     0    18     1    10
  1.2202972606397676E-01 a       351     0    18     1    11
 -2.5424687167358706E-01 a       352     0    18     1    12
 -1.4177440436987254E-01 a       353     0    18     1    13
  9.2239836284155149E-02 a       354     0    18     1    14
 -1.7228096450227787E-02 a       355     0    18     1    15
 -9.8435863927071848E-02 a       356     0    18     1    16
 -1.1046219793464877E-01 a       357     0    18     1    17
 -1.5573600308006504E-02 a       358     0    18     1    18
 -1.5334653741795140E-01 a       359     0    18     1    19
  6.0583552093640851E-02 a       360     0    18     1    20
  7.8439052257590729E-03 a       361     0    19     1     1
  9.5849274796099018E-02 a       362     0    19     1     2
  8.4831792695264599E-02 a       363     0    19     1     3
  2.0539650481255650E-01 a       364     0    19     1     4
  1.8320235585455505E-01 a       365     0    19     1     5
 -1.3591303759381035E-01 a       366     0    19     1     6
 -1.9639695375427171E-01 a       367     0    19     1     7
  1.9847737020483522E-01 a       368     0    19     1     8
  1.0620994276003928E-01 a       369     0    19     1     9
 -2.5987808119283684E-01 a       370     0    19     1    10
 -1.2113631844788671E-01 a       371     0    19     1    11
  2.2282951787640348E-01 a       372     0    19     1    12
  3.8776199784363380E-01 a       373     0    19     1    13
 -1.1284686833794580E-01 a       374     0    19     1    14
  7.5784988478632728E-02 a       375     0    19     1    15
  6.7230117452263483E-02 a       376     0    19     1    16
  8.1856929512714935E-02 a       377     0    19     1    17
  2.3884201115457673E-01 a       378     0    19     1    18
  2.3903827547294013E-01 a       379     0    19     1    19
 -1.5818041907425545E-01 a       380     0    19     1    20
  1.4314145585201030E-01 a       381     0    20     1     1
 -3.3784267522175426E-01 a       382     0    20     1     2
 -3.0563083730529454E-02 a       383     0    20     1     3
  1.6303809175612993E-01 a       384     0    20     1     4
  4.5017098317897013E-02 a       385     0    20     1     5
 -1.0739313944566525E-01 a       386     0    20     1     6
  4.5664486227316441E-02 a       387     0    20     1     7
  2.9718892754086235E-01 a       388     0    20     1     8
 -4.2769840441370338E-01 a       389     0    20     1     9
  1.0161387663154664E-01 a       390     0    20     1    10
  3.4058986963326751E-02 a       391     0    20     1    11
  1.9633560509403461E-01 a       392     0    20     1    12
  4.7039000089592214E-01 a       393     0    20     1    13
  2.0464616777913122E-01 a       394     0    20     1    14
  6.9756048163957265E-02 a       395     0    20     1    15
  1.7125497062595924E-01 a       396     0    20     1    16
 -1.1357226359407908E-01 a       397     0    20     1    17
  3.8103745747968076E-01 a       398     0    20     1    18
 -3.6220850401263417E-02 a       399     0    20     1    19
 -3.1070085007482312E-01 a       400     0    20     1    20
  1.4008811461243417E-01 a       401     0    21     1     1
 -3.5105334751966771E-01 a       402     0    21     1     2
 -3.5541978145821707E-01 a       403     0    21     1     3
  1.0291532555488003E-01 a       404     0    21     1     4
  2.0640602096487129E-01 a       405     0    21     1     5
  1.2752606102563011E-01 a       406     0    21     1     6
 -2.0068436595031652E-01 a       407     0    21     1     7
  2.4504353480638824E-01 a       408     0    21     1     8
 -1.8023358047966881E-01 a       409     0    21     1     9
  3.7196066165983188E-01 a       410     0    21     1    10
  5.4682665078508198E-02 a       411     0    21     1    11
 -5.9630531488933380E-02 a       412     0    21     1    12
 -1.1357374376647345E-01 a       413     0    21     1    13
 -2.3304919922434134E-01 a       414     0    21     1    14
  4.3584480695787764E-01 a       415     0    21     1    15
  1.0823668260564663E-01 a       416     0    21     1    16
 -3.7157265784075348E-02 a       417     0    21     1    17
  3.6604123459975106E-03 a       418     0    21     1    18
  4.6375740538537996E-01 a       419     0    21     1    19
  7.4278003410550662E-03 a       420     0    21     1    20
 -1.7199347601805301E-01 a       421     0    22     1     1
 -8.4561659021447216E-03 a       422     0    22     1     2
  1.1423939672983430E-02 a       423     0    22     1     3
  1.2348942968903354E-01 a       424     0    22     1     4
 -1.2954953591695406E-01 a       425     0    22     1     5
  1.9665152497146265E-01 a       426     0    22     1     6
 -1.0804432539582869E-01 a       427     0    22     1     7
 -1.5086460585657985E-01 a       428     0    22     1     8
  9.1567190588508471E-02 a       429     0    22     1     9
  5.5251458479735574E-02 a       430     0    22     1    10
  9.8433757539698116E-02 a       431     0    22     1    11
  3.7658309820104902E-02 a       432     0    22     1    12
 -1.3529353058042721E-03 a       433     0    22     1    13
  9.2015734943818692E-02 a       434     0    22     1    14
  1.4251978724862513E-01 a       435     0    22     1    15
  2.3825630375659768E-02 a       436     0    22     1    16
  2.7685409848989186E-02 a       437     0    22     1    17
  1.0865878660364712E-02 a       438     0    22     1    18
  1.5309596656672692E-01 a       439     0    22     1    19
  2.3035800020480607E-01 a       440     0    22     1    20
  5.5269599205583428E-02 a       441     0    23     1     1
 -2.1194110530314275E-01 a       442     0    23     1     2
 -1.0868306793074660E-01 a       443     0    23     1     3
 -8.9213800834813534E-02 a       444     0    23     1     4
 -1.4434812749027665E-01 a       445     0    23     1     5
 -7.1578016314670159E-02 a       446     0    23     1     6
  3.6890991518772481E-03 a       447     0    23     1     7
 -1.7578322422723705E-01 a       448     0    23     1     8
  1.3837628027494334E-01 a       449     0    23     1     9
  3.1718816172698600E-01 a       450     0    23     1    10
  9.3165936004473440E-02 a       451     0    23     1    11
 -1.6030935486616363E-01 a       452     0    23     1    12
 -5.8034039516250475E-02 a       453     0    23     1    13
  1.2464052917468836E-01 a       454     0    23     1    14
  1.3785816713976936E-02 a       455     0    23     1    15
 -1.2874018483718719E-01 a       456     0    23     1    16
  1.5860619522829172E-02 a       457     0    23     1    17
 -9.4350208545382730E-02 a       458     0    23     1    18
 -9.6013736565441390E-02 a       459     0    23     1    19
  3.4302705448972259E-03 a       460     0    23     1    20
  2.5704616558660211E-02 a       461     0    24     1     1
 -6.3075326426533962E-02 a       462     0    24     1     2
 -1.8913974590835986E-01 a       463     0    24     1     3
 -2.7926484526621102E-02 a       464     0    24     1     4
 -1.3257415702115866E-01 a       465     0    24     1     5
  8.8057027789030129E-02 a       466     0    24     1     6
  4.3900752082066709E-03 a       467     0    24     1     7
 -2.4843107913168870E-02 a       468     0    24     1     8
 -3.1890076389841798E-01 a       469     0    24     1     9
  9.1418457924670279E-02 a       470     0    24     1    10
  4.9525330490910985E-02 a       471     0    24     1    11
 -5.3797020217415219E-03 a       472     0    24     1    12
  2.6079876666671015E-01 a       473     0    24     1    13
 -2.6522528814558860E-01 a       474     0    24     1    14
 -2.6069043198747782E-01 a       475     0    24     1    15
  2.4550962950008037E-01 a       476     0    24     1    16
 -1.5748859750195982E-02 a       477     0    24     1    17
 -6.8373718682517501E-02 a       478     0    24     1    18
  2.6119079312819860E-01 a       479     0    24     1    19
 -3.3991317387964870E-01 a       480     0    24     1    20
 -9.8931424227294473E-01 a       481     0    25     1     1
  3.8878277085206692E-01 a       482     0    25     1     2
  3.4143116024140063E-01 a       483     0    25     1     3
 -4.1659259412766070E-03 a       484     0    25     1     4
  8.6940999708396791E-02 a       485     0    25     1     5
  2.1479572219823853E-01 a       486     0    25     1     6
 -2.5048252192221299E-01 a       487     0    25     1     7
 -4.6856961055229185E-01 a       488     0    25     1     8
  1.2780127987660588E+00 a       489     0    25     1     9
 -4.7013414272919801E-01 a       490     0    25     1    10
 -3.0305441086500484E-01 a       491     0    25     1    11
 -1.0946065012053079E-01 a       492     0    25     1    12
  4.6652703214219748E-01 a       493     0    25     1    13
  3.6446741952502006E-02 a       494     0    25     1    14
 -5.7903659348280312E-01 a       495     0    25     1    15
 -1.0059468358719051E-01 a       496     0    25     1    16
 -1.7425991097316343E-01 a       497     0    25     1    17
  2.8945087281485632E-01 a       498     0    25     1    18
 -2.7914475079758838E-01 a       499     0    25     1    19
  9.3059950556607995E-01 a       500     0    25     1    20
  2.4786569457854121E-01 a       501     0    26     1     1
 -8.2677080222134922E-02 a       502     0    26     1     2
 -1.0990256614324383E-01 a       503     0    26     1     3
  7.2662314383613716E-02 a       504     0    26     1     4
  4.7265500540909021E-02 a       505     0    26     1     5
  7.3820561500499557E-03 a       506     0    26     1     6
  1.1480891402173901E-01 a       507     0    26     1     7
  1.3373956167868711E-01 a       508     0    26     1     8
 -2.4349462702561470E-02 a       509     0    26     1     9
 -2.9722797153032554E-01 a       510     0    26     1    10
 -7.4936417018970608E-02 a       511     0    26     1    11
  4.5971080415539253E-02 a       512     0    26     1    12
 -1.3873851295190949E-02 a       513     0    26     1    13
  5.4690857079268566E-02 a       514     0    26     1    14
  4.9235622758023845E-02 a       515     0    26     1    15
  8.8669927303986304E-02 a       516     0    26     1    16
  1.2522412916686521E-01 a       517     0    26     1    17
  1.2807301992348205E-01 a       518     0    26     1    18
 -1.0768639159735732E-01 a       519     0    26     1    19
 -1.1112478756854949E-01 a       520     0    26     1    20
 -6.7732713172150252E-02 a       521     0    27     1     1
  2.4260849695923387E-01 a       522     0    27     1     2
 -9.0215722381530486E-02 a       523     0    27     1     3
 -5.7494497069122720E-02 a       524     0    27     1     4
  6.8954904545441953E-02 a       525     0    27     1     5
 -1.0193300431860688E-01 a       526     0    27     1     6
  4.8003843032919845E-02 a       527     0    27     1     7
 -3.8773965433322219E-02 a       528     0    27     1     8
  7.4727244705007731E-02 a       529     0    27     1     9
  9.5513330044947192E-02 a       530     0    27     1    10
  4.7865078683199676E-02 a       531     0    27     1    11
  2.5871713846947664E-01 a       532     0    27     1    12
  3.9775316328683518E-03 a       533     0    27     1    13
 -2.5333893998517324E-02 a       534     0    27     1    14
  1.7513145080644919E-02 a       535     0    27     1    15
  9.9450133478991107E-02 a       536     0    27     1    16
 -3.9875269121469395E-02 a       537     0    27     1    17
 -1.7092547510695510E-01 a       538     0    27     1    18
  2.0423402561867776E-01 a       539     0    27     1    19
  5.0950033737172488E-02 a       540     0    27     1    20
  3.5378490987165723E-02 a       541     0    28     1     1
  5.1367153319325864E-01 a       542     0    28     1     2
  4.7369519074098276E-01 a       543     0    28     1     3
 -2.5698717789008746E-01 a       544     0    28     1     4
  6.8546135386589019E-02 a       545     0    28     1     5
 -9.6551190821576580E-02 a       546     0    28     1     6
 -1.1097625812050063E-01 a       547     0    28     1     7
 -1.5618317211457042E-02 a       548     0    28     1     8
  4.7727619315809428E-01 a       549     0    28     1     9
  6.4310946770275009E-03 a       550     0    28     1    10
  1.0112647355245134E-01 a       551     0    28     1    11
  1.1376836219052300E-01 a       552     0    28     1    12
  1.7894434979800553E-01 a       553     0    28     1    13
 -5.9891401131900786E-02 a       554     0    28     1    14
 -7.7847054541454117E-02 a       555     0    28     1    15
 -3.5686770281071381E-02 a       556     0    28     1    16
 -1.2269682658737897E-01 a       557     0    28     1    17
 -5.7381604086484336E-02 a       558     0    28     1    18
 -1.8511651408956953E-01 a       559     0    28     1    19
  2.2081941605780939E-01 a       560     0    28     1    20
  6.7648042649525131E-01 a       561     0    29     1     1
 -2.3863684722118830E-01 a       562     0    29     1     2
 -4.4394635355137024E-01 a       563     0    29     1     3
 -2.6040920503319055E-02 a       564     0    29     1     4
  7.2258179261003891E-02 a       565     0    29     1     5
 -2.6873707600839386E-01 a       566     0    29     1     6
 -7.2750882833175802E-03 a       567     0    29     1     7
 -1.3105714147399703E-02 a       568     0    29     1     8
 -9.9435751264362870E-01 a       569     0    29     1     9
  2.0965914796878157E-01 a       570     0    29     1    10
  2.5481023765670896E-01 a       571     0    29     1    11
 -4.8139261594168654E-02 a       572     0    29     1    12
 -4.4139938062712730E-01 a       573     0    29     1    13
  5.7527803268607614E-01 a       574     0    29     1    14
  2.3840474011207582E-01 a       575     0    29     1    15
  1.9360519212763161E-02 a       576     0    29     1    16
 -7.4851587991795143E-02 a       577     0    29     1    17
 -2.5694827518679764E-01 a       578     0    29     1    18
 -2.1757005445795688E-02 a       579     0    29     1    19
 -5.3913030485401126E-01 a       580     0    29     1    20
 -2.3062781812248151E-01 a       581     0    30     1     1
  6.3992732464064131E-02 a       582     0    30     1     2
  2.8598232885098194E-02 a       583     0    30     1     3
 -2.2314024872952967E-01 a       584     0    30     1     4
  4.5410776575821495E-02 a       585     0    30     1     5
  1.5980189159458857E-01 a       586     0    30     1     6
  1.2574374971497790E-01 a       587     0    30     1     7
 -2.4888403703108730E-01 a       588     0    30     1     8
 -1.4658199069542774E-01 a       589     0    30     1     9
 -2.8090786032610251E-02 a       590     0    30     1    10
 -7.9088227312770376E-02 a       591     0    30     1    11
 -6.9974837145214122E-03 a       592     0    30     1    12
  9.8896457368582574E-02 a       593     0    30     1    13
 -2.9345442260957200E-02 a       594     0    30     1    14
 -1.9173488270931924E-01 a       595     0    30     1    15
 -1.5679144865378147E-01 a       596     0    30     1    16
 -1.7049058716199614E-01 a       597     0    30     1    17
 -6.1811765725634890E-02 a       598     0    30     1    18
 -3.1030529869767548E-01 a       599     0    30     1    19
  1.1899155990983695E-01 a       600     0    30     1    20
  1.7341797184362112E-01 a       601     0    31     1     1
  3.7502546178681512E-02 a       602     0    31     1     2
  1.8843182720072368E-01 a       603     0    31     1     3
  1.2417337927774835E-01 a       604     0    31     1     4
 -1.4627383657335852E-01 a       605     0    31     1     5
 -7.1425316339049803E-03 a       606     0    31     1     6
 -1.3809253998798035E-01 a       607     0    31     1     7
  2.0181065161552916E-01 a       608     0    31     1     8
 -7.3023823753564599E-03 a       609     0    31     1     9
  5.4217381477244427E-02 a       610     0    31     1    10
  1.5735323199062695E-01 a       611     0    31     1    11
 -1.9799410816867427E-01 a       612     0    31     1    12
 -1.1723334843148560E-02 a       613     0    31     1    13
 -1.2786930784912001E-01 a       614     0    31     1    14
  4.0386677123974285E-02 a       615     0    31     1    15
  7.8033051896302205E-02 a       616     0    31     1    16
 -5.0091543955566094E-02 a       617     0    31     1    17
 -1.4634326155094279E-01 a       618     0    31     1    18
  1.9870946933829645E-01 a       619     0    31     1    19
 -7.9788383634883421E-03 a       620     0    31     1    20
  1.6764815811990957E-01 a       621     0    32     1     1
 -1.3473330527064512E-01 a       622     0    32     1     2
  1.5449624892552321E-02 a       623     0    32     1     3
  2.0139023464256262E-01 a       624     0    32     1     4
 -1.4262142218396512E-01 a       625     0    32     1     5
  3.1978376327809199E-02 a       626     0    32     1     6
 -5.8820500960245811E-02 a       627     0    32     1     7
  1.4357314330434517E-01 a       628     0    32     1     8
 -7.6342524970098280E-01 a       629     0    32     1     9
 -8.2568105625180896E-02 a       630     0    32     1    10
  3.0173921021325462E-01 a       631     0    32     1    11
  1.7530637030253762E-01 a       632     0    32     1    12
 -2.9853058361778078E-02 a       633     0    32     1    13
 -2.2637883441329465E-01 a       634     0    32     1    14
  2.9701874289645186E-01 a       635     0    32     1    15
  1.7892794018405436E-01 a       636     0    32     1    16
  2.0440608105949715E-01 a       637     0    32     1    17
 -1.9478008067468933E-01 a       638     0    32     1    18
 -3.8722715741875115E-02 a       639     0    32     1    19
 -6.3893043415429687E-02 a       640     0    32     1    20
 -2.0966709498469033E-01 a       641     0    33     1     1
 -9.8824465517318910E-02 a       642     0    33     1     2
  1.3842827490090104E-01 a       643     0    33     1     3
 -1.1954696366969969E-01 a       644     0    33     1     4
 -6.2215783190447134E-02 a       645     0    33     1     5
  7.8837783817164081E-02 a       646     0    33     1     6
  1.5952678765858164E-01 a       647     0    33     1     7
  1.2966596359240878E-01 a       648     0    33     1     8
  5.3277138644239208E-01 a       649     0    33     1     9
 -4.7532868954710282E-02 a       650     0    33     1    10
 -4.1155815408873075E-01 a       651     0    33     1    11
  6.7047603767576916E-02 a       652     0    33     1    12
 -5.5195171697941907E-02 a       653     0    33     1    13
 -4.7495575835506726E-01 a       654     0    33     1    14
  7.0452637166639714E-02 a       655     0    33     1    15
  9.8280528042742496E-02 a       656     0    33     1    16
  1.2635821959107357E-01 a       657     0    33     1    17
  5.0846199608248432E-02 a       658     0    33     1    18
  1.9145819619042745E-01 a       659     0    33     1    19
  2.4049613477577517E-01 a       660     0    33     1    20
  8.7737334761514199E-02 a       661     0    34     1     1
 -1.2156095395805547E-01 a       662     0    34     1     2
  4.1328455547327177E-02 a       663     0    34     1     3
  6.3920081304006449E-02 a       664     0    34     1     4
  1.0636720127423473E-02 a       665     0    34     1     5
 -1.2769200171079431E-01 a       666     0    34     1     6
 -1.4268389808853094E-01 a       667     0    34     1     7
  2.0067194740081312E-01 a       668     0    34     1     8
  6.8211152752923693E-02 a       669     0    34     1     9
 -5.9520922616504582E-03 a       670     0    34     1    10
  4.7099048318219552E-02 a       671     0    34     1    11
 -3.3787727945788228E-03 a       672     0    34     1    12
 -6.7804976755657345E-02 a       673     0    34     1    13
 -1.2608734678456652E-02 a       674     0    34     1    14
  1.7592003866633957E-01 a       675     0    34     1    15
  5.7509871072018125E-02 a       676     0    34     1    16
  4.9282965239664203E-02 a       677     0    34     1    17
  8.7766770756596391E-02 a       678     0    34     1    18
  1.0635299706928510E-01 a       679     0    34     1    19
 -2.5387905421898917E-02 a       680     0    34     1    20
 -1.1806225621740672E-01 a       681     0    35     1     1
 -6.3570923852609026E-02 a       682     0    35     1     2
 -1.0318171239188291E-01 a       683     0    35     1     3
  3.1915647012304184E-02 a       684     0    35     1     4
  1.1186173403858821E-01 a       685     0    35     1     5
 -1.3482666839387566E-01 a       686     0    35     1     6
  8.2066776266324651E-02 a       687     0    35     1     7
 -7.1990513299493145E-02 a       688     0    35     1     8
  1.0145678083679898E-02 a       689     0    35     1     9
  4.9853703771569294E-02 a       690     0    35     1    10
 -2.0895270935182872E-01 a       691     0    35     1    11
  4.1435176309461870E-02 a       692     0    35     1    12
 -6.0880999829476729E-02 a       693     0    35     1    13
  6.0019000907238662E-02 a       694     0    35     1    14
 -1.5605191538641153E-01 a       695     0    35     1    15
 -1.1863940096091993E-01 a       696     0    35     1    16
  9.3529675445505334E-02 a       697     0    35     1    17
  2.2762954834230587E-01 a       698     0    35     1    18
 -1.8950072758003492E-02 a       699     0    35     1    19
 -1.9136697267548686E-01 a       700     0    35     1    20
 -1.7860395106730265E-01 a       701     0    36     1     1
  1.9079662539621147E-02 a       702     0    36     1     2
 -8.0882713033564146E-02 a       703     0    36     1     3
  2.2388517311700527E-02 a       704     0    36     1     4
 -3.1962134311997695E-02 a       705     0    36     1     5
  1.8036129112087126E-01 a       706     0    36     1     6
  1.3279784208618636E-01 a       707     0    36     1     7
 -1.7111295416186012E-01 a       708     0    36     1     8
  4.9534887429154822E-01 a       709     0    36     1     9
  3.1878764288447881E-02 a       710     0    36     1    10
 -1.2436385275610803E-01 a       711     0    36     1    11
 -1.1219459652368730E-01 a       712     0    36     1    12
  3.2434323057619112E-02 a       713     0    36     1    13
  1.2012392169264524E-01 a       714     0    36     1    14
 -1.1057304478314113E-01 a       715     0    36     1    15
 -2.7585578752648160E-01 a       716     0    36     1    16
 -8.6856492351078479E-02 a       717     0    36     1    17
  1.8166900511524048E-01 a       718     0    36     1    18
  5.5943956416980974E-02 a       719     0    36     1    19
 -2.1599158744233038E-01 a       720     0    36     1    20
  1.0244416470357616E-03 a       721     0    37     1     1
  4.5346648231357159E-02 a       722     0    37     1     2
 -1.2972564873942252E-01 a       723     0    37     1     3
  8.4816220936497662E-03 a       724     0    37     1     4
  1.8545728213898688E-01 a       725     0    37     1     5
 -2.5176732953879795E-02 a       726     0    37     1     6
 -1.2547278436185347E-01 a       727     0    37     1     7
 -9.6606734247011855E-02 a       728     0    37     1     8
 -7.7251444575684960E-02 a       729     0    37     1     9
 -5.1236972190293592E-02 a       730     0    37     1    10
  3.8446514077536331E-03 a       731     0    37     1    11
 -3.6075036963749682E-02 a       732     0    37     1    12
  1.8784522871470100E-01 a       733     0    37     1    13
  2.6526867966433931E-01 a       734     0    37     1    14
 -7.3435873465491311E-02 a       735     0    37     1    15
  2.0553392498023192E-02 a       736     0    37     1    16
 -1.1610320562140006E-01 a       737     0    37     1    17
  1.7323978030061743E-01 a       738     0    37     1    18
 -6.4118884954397673E-02 a       739     0    37     1    19
 -7.7015888986289180E-02 a       740     0    37     1    20
  1.7051280591577668E-04 a       741     0    38     1     1
  3.4046679597351366E-02 a       742     0    38     1     2
 -4.6363245314732258E-02 a       743     0    38     1     3
 -2.0503294349831377E-02 a       744     0    38     1     4
  3.0499720544381954E-02 a       745     0    38     1     5
  1.6393187979897411E-01 a       746     0    38     1     6
  1.2468199942268331E-01 a       747     0    38     1     7
 -1.7816949291458939E-01 a       748     0    38     1     8
 -3.0387726300589470E-02 a       749     0    38     1     9
 -5.3519212982010796E-02 a       750     0    38     1    10
 -1.1783872145140321E-01 a       751     0    38     1    11
  4.8467219194993617E-02 a       752     0    38     1    12
  1.3964876908476206E-01 a       753     0    38     1    13
  7.7138414071406909E-03 a       754     0    38     1    14
 -5.2031624113765246E-02 a       755     0    38     1    15
 -9.9843451841741065E-04 a       756     0    38     1    16
 -2.5178448178243551E-02 a       757     0    38     1    17
  2.8631659482751679E-02 a       758     0    38     1    18
 -8.6154869785613222E-02 a       759     0    38     1    19
 -2.8070420565540360E-02 a       760     0    38     1    20
  1.5341717437903257E-02 a       761     0    39     1     1
  1.1713929944574809E-02 a       762     0    39     1     2
  2.4726957667591355E-02 a       763     0    39     1     3
 -1.3564666175686390E-02 a       764     0    39     1     4
 -2.8264883163197335E-02 a       765     0    39     1     5
 -5.5321375551784506E-02 a       766     0    39     1     6
 -1.3124508433191656E-01 a       767     0    39     1     7
  5.4114191926160196E-02 a       768     0    39     1     8
  4.2675111316025173E-02 a       769     0    39     1     9
  2.7780208850072440E-02 a       770     0    39     1    10
  1.6531440791290988E-01 a       771     0    39     1    11
 -5.0390897161575110E-03 a       772     0    39     1    12
 -4.8950950668898104E-02 a       773     0    39     1    13
  5.0078106838672160E-03 a       774     0    39     1    14
  1.0484898460135629E-01 a       775     0    39     1    15
  5.6736129654223165E-02 a       776     0    39     1    16
 -1.2959702456489600E-02 a       777     0    39     1    17
 -1.4654766109621439E-01 a       778     0    39     1    18
  8.6762324714610387E-02 a       779     0    39     1    19
  1.4139696746199948E-01 a       780     0    39     1    20
  8.0893438769981951E-02 a       781     0    40     1     1
  3.1180806158494917E-02 a       782     0    40     1     2
  1.8691761317310024E-01 a       783     0    40     1     3
  3.2689942264110948E-02 a       784     0    40     1     4
 -5.2137552190408679E-02 a       785     0    40     1     5
 -1.3755232839402204E-01 a       786     0    40     1     6
 -3.6658824153965784E-02 a       787     0    40     1     7
  1.5558946104768784E-01 a       788     0    40     1     8
 -2.5944405976734997E-01 a       789     0    40     1     9
  6.0130653636820693E-02 a       790     0    40     1    10
  2.0297811454235745E-01 a       791     0    40     1    11
  3.8389248273104762E-02 a       792     0    40     1    12
 -5.5432497448796789E-03 a       793     0    40     1    13
 -1.5690177199941238E-01 a       794     0    40     1    14
 -3.5018460853251679E-02 a       795     0    40     1    15
  4.6180193127535130E-02 a       796     0    40     1    16
  7.7711925539280219E-02 a       797     0    40     1    17
 -1.4491010844435634E-01 a       798     0    40     1    18
 -3.4043999334818012E-02 a       799     0    40     1    19
  1.3085343182882031E-01 a       800     0    40     1    20
  1.3007059051823627E-01 a       801     0    41     1     1
 -1.6713092301600055E-01 a       802     0    41     1     2
 -4.0579241192155685E-01 a       803     0    41     1     3
  8.7139738472993791E-02 a       804     0    41     1     4
 -3.9845005208813966E-01 a       805     0    41     1     5
 -2.5915515836663672E-01 a       806     0    41     1     6
 -4.8835375552372018E-01 a       807     0    41     1     7
  1.4431603085208014E-01 a       808     0    41     1     8
  6.1188601456507064E-01 a       809     0    41     1     9
 -6.8773179834579734E-01 a       810     0    41     1    10
  1.8369566878940718E-01 a       811     0    41     1    11
  6.5507709773338041E-01 a       812     0    41     1    12
 -3.7433349514588515E-01 a       813     0    41     1    13
  8.2992176263856088E-01 a       814     0    41     1    14
 -6.4828355549308922E-02 a       815     0    41     1    15
  8.6740735188441123E-02 a       816     0    41     1    16
 -2.2079762161642175E-01 a       817     0    41     1    17
 -3.7342288912197586E-03 a       818     0    41     1    18
 -9.7843348106181630E-02 a       819     0    41     1    19
  1.3310571830881365E-01 a       820     0    41     1    20
 -9.7278853039314189E-02 a       821     0    42     1     1
  3.5831158394728585E-02 a       822     0    42     1     2
  1.2970800939341996E-02 a       823     0    42     1     3
  6.8230704243146909E-02 a       824     0    42     1     4
 -2.1857117526527628E-01 a       825     0    42     1     5
 -1.1578927782190725E-01 a       826     0    42     1     6
  1.7057660720780139E-02 a       827     0    42     1     7
 -6.5057172570964397E-02 a       828     0    42     1     8
 -9.3839796883917234E-02 a       829     0    42     1     9
  1.5012058746213272E-01 a       830     0    42     1    10
 -2.4348848523291003E-01 a       831     0    42     1    11
  6.6089689696709308E-02 a       832     0    42     1    12
 -2.2689871038741607E-01 a       833     0    42     1    13
  1.7890999899723020E-01 a       834     0    42     1    14
 -8.3947912640762581E-02 a       835     0    42     1    15
  2.1076263143732107E-01 a       836     0    42     1    16
  2.2019910509180377E-01 a       837     0    42     1    17
  6.3927798761663282E-02 a       838     0    42     1    18
 -6.6725319231297001E-02 a       839     0    42     1    19
  1.8226354885975557E-02 a       840     0    42     1    20
  1.6358770729420036E-01 a       841     0    43     1     1
 -1.7258897579175037E-01 a       842     0    43     1     2
 -4.8512977786362606E-03 a       843     0    43     1     3
 -1.7369018062197630E-01 a       844     0    43     1     4
 -4.1659408622471000E-02 a       845     0    43     1     5
 -1.2597416692553390E-01 a       846     0    43     1     6
 -6.9186259952093626E-02 a       847     0    43     1     7
  1.4708465794449938E-01 a       848     0    43     1     8
 -6.3328981692101815E-03 a       849     0    43     1     9
 -2.0900562011866133E-01 a       850     0    43     1    10
 -2.1636665506860014E-01 a       851     0    43     1    11
  1.7175944448549188E-01 a       852     0    43     1    12
 -9.2201573931577407E-02 a       853     0    43     1    13
 -3.3047350611140430E-01 a       854     0    43     1    14
 -5.9816863698010161E-02 a       855     0    43     1    15
 -7.5214667774144428E-02 a       856     0    43     1    16
 -7.2928055978363465E-02 a       857     0    43     1    17
 -9.1982380422160490E-02 a       858     0    43     1    18
 -1.0546171272170250E-01 a       859     0    43     1    19
 -1.3140627589101442E-01 a       860     0    43     1    20
  2.0382677319578252E-01 a       861     0    44     1     1
  1.4651230501491083E-01 a       862     0    44     1     2
  9.7591157400867060E-02 a       863     0    44     1     3
 -7.1011004400651101E-01 a       864     0    44     1     4
  3.2259141652354095E-01 a       865     0    44     1     5
  6.7114160037274961E-01 a       866     0    44     1     6
 -1.1909257030822730E-01 a       867     0    44     1     7
 -4.1769129792496201E-01 a       868     0    44     1     8
 -2.5640838690410417E-01 a       869     0    44     1     9
  3.1244291639584537E-01 a       870     0    44     1    10
 -5.4257516108345442E-02 a       871     0    44     1    11
 -6.0671105603305719E-01 a       872     0    44     1    12
 -6.6279230116421883E-01 a       873     0    44     1    13
 -9.3713874782021633E-01 a       874     0    44     1    14
  1.0101164822736866E+00 a       875     0    44     1    15
  8.8330487925907686E-01 a       876     0    44     1    16
 -1.2706087265700156E-01 a       877     0    44     1    17
 -6.0266562134736912E-02 a       878     0    44     1    18
  6.9434974291336549E-01 a       879     0    44     1    19
  9.7341199259626907E-02 a       880     0    44     1    20
 -6.6887225142104337E-02 a       881     0    45     1     1
  2.1229617554084179E-01 a       882     0    45     1     2
  1.9930692356642171E-01 a       883     0    45     1     3
  3.1801744040236377E-02 a       884     0    45     1     4
 -2.6461327921638944E-01 a       885     0    45     1     5
 -1.3584534519385788E-01 a       886     0    45     1     6
 -2.1951729594595398E-01 a       887     0    45     1     7
  1.4805536381145243E-01 a       888     0    45     1     8
 -1.8179875878401378E-01 a       889     0    45     1     9
  2.6906304489262084E-01 a       890     0    45     1    10
  9.3907587975619655E-02 a       891     0    45     1    11
 -4.2128193087412329E-02 a       892     0    45     1    12
 -1.4296865758167945E-01 a       893     0    45     1    13
  1.3254526232024303E-02 a       894     0    45     1    14
 -7.3385178872532972E-02 a       895     0    45     1    15
  1.9177619095003626E-02 a       896     0    45     1    16
  9.8193949405011749E-02 a       897     0    45     1    17
 -5.7811305979578349E-02 a       898     0    45     1    18
 -3.6991345857907437E-01 a       899     0    45     1    19
 -1.9816789161174780E-01 a       900     0    45     1    20
 -5.5288413491281475E-02 a       901     0    46     1     1
 -1.2756450626075808E-02 a       902     0    46     1     2
  9.7149268741904757E-02 a       903     0    46     1     3
 -1.2990022228978645E-01 a       904     0    46     1     4
 -1.0711431421700336E-01 a       905     0    46     1     5
  3.9440869121243179E-02 a       906     0    46     1     6
 -6.7773733081501225E-02 a       907     0    46     1     7
  2.4622485612769435E-01 a       908     0    46     1     8
 -2.4106662623250348E-02 a       909     0    46     1     9
 -6.1560411440648971E-02 a       910     0    46     1    10
 -2.0011603513581302E-02 a       911     0    46     1    11
  1.5019949773644672E-01 a       912     0    46     1    12
 -1.8740199593282858E-01 a       913     0    46     1    13
  1.2812899309872425E-01 a       914     0    46     1    14
  1.4857112164217257E-01 a       915     0    46     1    15
  1.6938246391517381E-01 a       916     0    46     1    16
 -9.7223015821540165E-02 a       917     0    46     1    17
  1.0581970745720008E-02 a       918     0    46     1    18
 -1.5047044788479406E-03 a       919     0    46     1    19
  2.9782168404548118E-02 a       920     0    46     1    20
  9.3475563480050025E-02 a       921     0    47     1     1
 -1.0459811181614570E-01 a       922     0    47     1     2
  4.2375128839268243E-02 a       923     0    47     1     3
 -4.4321995738914689E-02 a       924     0    47     1     4
 -9.5448915090751638E-03 a       925     0    47     1     5
 -1.3426133856512151E-01 a       926     0    47     1     6
  1.9923811255035526E-01 a       927     0    47     1     7
 -3.0994729653576900E-02 a       928     0    47     1     8
 -1.4920560358854415E-01 a       929     0    47     1     9
  7.5980676134698916E-02 a       930     0    47     1    10
 -8.0347150283547289E-02 a       931     0    47     1    11
 -5.5143266630360933E-02 a       932     0    47     1    12
 -8.4664407201681502E-02 a       933     0    47     1    13
 -1.2917795384129449E-01 a       934     0    47     1    14
 -1.7161517184880098E-01 a       935     0    47     1    15
  1.6005947895747403E-02 a       936     0    47     1    16
 -3.5347424182695590E-02 a       937     0    47     1    17
 -1.0916856064261408E-01 a       938     0    47     1    18
  3.4001981637409973E-02 a       939     0    47     1    19
  4.7944064439602266E-02 a       940     0    47     1    20
 -6.8822478082447264E-02 a       941     0    48     1     1
  1.2529052493861348E-01 a       942     0    48     1     2
 -1.6380120703264398E-01 a       943     0    48     1     3
 -1.3970254195766105E-01 a       944     0    48     1     4
  1.1924415981868097E-01 a       945     0    48     1     5
  2.0313953196760687E-01 a       946     0    48     1     6
 -1.2788409513094207E-01 a       947     0    48     1     7
 -1.8740261316051890E-01 a       948     0    48     1     8
  9.6986353073969425E-02 a       949     0    48     1     9
  1.5949346696909236E-01 a       950     0    48     1    10
  9.9332560048501675E-02 a       951     0    48     1    11
 -1.5794302726191790E-02 a       952     0    48     1    12
 -3.9376588184184276E-02 a       953     0    48     1    13
  2.0087188680047058E-01 a       954     0    48     1    14
  2.0837846844801788E-01 a       955     0    48     1    15
 -2.0947099321589752E-02 a       956     0    48     1    16
 -1.6644220914606064E-01 a       957     0    48     1    17
 -2.7162501920366587E-02 a       958     0    48     1    18
 -2.6417477488504476E-03 a       959     0    48     1    19
 -1.5315715779609698E-01 a       960     0    48     1    20
 -1.2335126188227381E-01 a       961     0    49     1     1
 -8.5026409165919192E-02 a       962     0    49     1     2
 -1.1010270569405718E-01 a       963     0    49     1     3
  2.2381151350231501E-01 a       964     0    49     1     4
 -9.0677733591503121E-02 a       965     0    49     1     5
  3.3079698382566296E-02 a       966     0    49     1     6
 -2.6891876490725652E-01 a       967     0    49     1     7
 -1.4030202751882445E-01 a       968     0    49     1     8
  5.5659225368033846E-02 a       969     0    49     1     9
 -1.1999770598249136E-01 a       970     0    49     1    10
 -9.4469119587094030E-02 a       971     0    49     1    11
 -2.1920646016086828E-02 a       972     0    49     1    12
  5.3303673839341398E-02 a       973     0    49     1    13
  2.1713801370833780E-01 a       974     0    49     1    14
  4.3702950243583089E-02 a       975     0    49     1    15
 -1.0282292963589036E-01 a       976     0    49     1    16
 -9.0129814906436137E-02 a       977     0    49     1    17
 -2.8590201568916819E-02 a       978     0    49     1    18
  1.4195982240479968E-01 a       979     0    49     1    19
 -5.3464429685130807E-02 a       980     0    49     1    20
 -9.5046883997533346E-02 a       981     0    50     1     1
 -4.5284097604028642E-02 a       982     0    50     1     2
 -3.9185791669735992E-01 a       983     0    50     1     3
  5.7792995439626671E-01 a       984     0    50     1     4
 -1.1259456264269356E-01 a       985     0    50     1     5
 -2.6156660728725800E-01 a       986     0    50     1     6
  5.7282351176473713E-02 a       987     0    50     1     7
  2.3881383591322558E-01 a       988     0    50     1     8
  1.2886567656691664E-01 a       989     0    50     1     9
 -4.8756822953884688E-01 a       990     0    50     1    10
 -1.5836653127927627E-01 a       991     0    50     1    11
  1.0578049385067055E-01 a       992     0    50     1    12
  2.0202116155875011E-01 a       993     0    50     1    13
  5.1161268687880013E-01 a       994     0    50     1    14
 -4.8625348535247043E-01 a       995     0    50     1    15
 -2.3176461474277607E-01 a       996     0    50     1    16
  3.6726336607508424E-02 a       997     0    50     1    17
 -2.1979339487606761E-01 a       998     0    50     1    18
 -2.0676723922548659E-01 a       999     0    50     1    19
 -4.5229635911648004E-02 a      1000     0    50     1    20
 -7.2604586393959125E-01 a      1001     0    51     1     1
  1.2934665592398334E-01 a      1002     0    51     1     2
  1.3590670690637910E-01 a      1003     0    51     1     3
  2.8951768594007588E-01 a      1004     0    51     1     4
  4.7763352611986110E-02 a      1005     0    51     1     5
 -6.2883917745080753E-01 a      1006     0    51     1     6
 -1.7827924390790556E-01 a      1007     0    51     1     7
  4.3663059458538156E-01 a      1008     0    51     1     8
 -2.8071532579305225E-01 a      1009     0    51     1     9
  6.1652873943369796E-02 a      1010     0    51     1    10
  2.6201607066519311E-01 a      1011     0    51     1    11
  2.4886060663650042E-01 a      1012     0    51     1    12
  3.4421590596823248E-01 a      1013     0    51     1    13
  3.5998964138567663E-01 a      1014     0    51     1    14
 -2.0099775279454196E-01 a      1015     0    51     1    15
 -2.6369961766596828E-01 a      1016     0    51     1    16
 -2.4067258977459607E-01 a      1017     0    51     1    17
  4.1120546826592413E-01 a      1018     0    51     1    18
  9.2146412985829609E-02 a      1019     0    51     1    19
 -3.4840241163170538E-01 a      1020     0    51     1    20
 -5.2107386978277076E-02 a      1021     0    52     1     1
  5.5227490147633673E-02 a      1022     0    52     1     2
 -2.2928249627053945E-01 a      1023     0    52     1     3
  3.7606361732756513E-02 a      1024     0    52     1     4
  2.0609264233244214E-02 a      1025     0    52     1     5
 -1.2152976352398694E-01 a      1026     0    52     1     6
  2.2880566232327829E-02 a      1027     0    52     1     7
  2.6327480954940398E-02 a      1028     0    52     1     8
  4.7996708204711821E-03 a      1029     0    52     1     9
 -3.7200271026666187E-01 a      1030     0    52     1    10
 -2.1506192711146210E-01 a      1031     0    52     1    11
  1.9077183120518692E-03 a      1032     0    52     1    12
 -2.7446034273925619E-02 a      1033     0    52     1    13
  1.3544031630659362E-01 a      1034     0    52     1    14
  1.4578038696650144E-02 a      1035     0    52     1    15
  2.8628231770952985E-03 a      1036     0    52     1    16
 -4.7136773569452832E-02 a      1037     0    52     1    17
  5.2219222701153513E-02 a      1038     0    52     1    18
 -8.1277011865083196E-02 a      1039     0    52     1    19
 -1.5664954554134411E-01 a      1040     0    52     1    20
 -1.5386654672710007E-02 a      1041     0    53     1     1
 -4.3675712880304626E-02 a      1042     0    53     1     2
 -8.2595257759366783E-02 a      1043     0    53     1     3
 -5.7927407105002958E-02 a      1044     0    53     1     4
 -1.9730881117279578E-01 a      1045     0    53     1     5
  7.6700895088743240E-02 a      1046     0    53     1     6
 -4.7906089310611067E-03 a      1047     0    53     1     7
 -3.0086831661300656E-01 a      1048     0    53     1     8
 -7.9169756558415058E-02 a      1049     0    53     1     9
  9.1236765394433983E-02 a      1050     0    53     1    10
 -5.5653870603042582E-02 a      1051     0    53     1    11
 -1.6090017594059959E-02 a      1052     0    53     1    12
  1.3605085424528751E-01 a      1053     0    53     1    13
 -5.7602493833147243E-02 a      1054     0    53     1    14
  1.0036299492601963E-02 a      1055     0    53     1    15
  1.3736090055920688E-01 a      1056     0    53     1    16
  1.1958659023490703E-01 a      1057     0    53     1    17
 -3.6369163827745577E-03 a      1058     0    53     1    18
 -1.6473010558480186E-01 a      1059     0    53     1    19
 -6.3481867540557166E-02 a      1060     0    53     1    20
  8.7574916334118125E-01 a      1061     0    54     1     1
 -8.6046290794737981E-02 a      1062     0    54     1     2
 -6.1126115131566616E-01 a      1063     0    54     1     3
 -1.1078037780612332E-01 a      1064     0    54     1     4
 -1.0692948148201607E-01 a      1065     0    54     1     5
  1.1899762912963159E+00 a      1066     0    54     1     6
 -3.3082497133563704E-01 a      1067     0    54     1     7
 -9.6587266819108630E-01 a      1068     0    54     1     8
  4.5980902986897892E-01 a      1069     0    54     1     9
  6.5671842609378930E-02 a      1070     0    54     1    10
 -3.8198437365717580E-01 a      1071     0    54     1    11
 -6.9361547026875958E-01 a      1072     0    54     1    12
  1.9492014441531855E-01 a      1073     0    54     1    13
 -8.2357203766318984E-02 a      1074     0    54     1    14
 -8.6175234382021138E-01 a      1075     0    54     1    15
  4.4068952303493558E-02 a      1076     0    54     1    16
 -1.6290914019216818E-01 a      1077     0    54     1    17
 -2.4965686051207295E-01 a      1078     0    54     1    18
 -2.4271487927303109E-01 a      1079     0    54     1    19
 -3.9599681490258287E-01 a      1080     0    54     1    20
 -3.1049940588293162E-02 a      1081     0    55     1     1
 -2.1300359881457309E-01 a      1082     0    55     1     2
 -7.7029260989487591E-02 a      1083     0    55     1     3
  3.2973968102885187E-01 a      1084     0    55     1     4
 -1.0721832238981083E-01 a      1085     0    55     1     5
 -2.6338753791237057E-01 a      1086     0    55     1     6
 -5.3386105617464256E-02 a      1087     0    55     1     7
 -7.1605729943527277E-02 a      1088     0    55     1     8
 -2.5313608338020771E-01 a      1089     0    55     1     9
  2.5293800278753814E-01 a      1090     0    55     1    10
 -2.2906722081465585E-02 a      1091     0    55     1    11
  7.4407670114400665E-02 a      1092     0    55     1    12
  4.5168032422265518E-02 a      1093     0    55     1    13
  4.7451350146960156E-02 a      1094     0    55     1    14
 -1.6450376797603250E-01 a      1095     0    55     1    15
  1.2023798478680794E-01 a      1096     0    55     1    16
 -5.9245008889988117E-04 a      1097     0    55     1    17
  2.8130808089130693E-02 a      1098     0    55     1    18
 -9.7117101251207191E-02 a      1099     0    55     1    19
  1.3123362021373114E-01 a      1100     0    55     1    20
  1.7889118562365727E-01 a      1101     0    56     1     1
 -1.2564854074399978E-01 a      1102     0    56     1     2
  2.1219685783943029E-01 a      1103     0    56     1     3
 -4.4181216280573900E-02 a      1104     0    56     1     4
 -1.8872103944326060E-01 a      1105     0    56     1     5
  2.3269456803329462E-03 a      1106     0    56     1     6
 -1.3916164860028699E-01 a      1107     0    56     1     7
 -4.7234192078786881E-02 a      1108     0    56     1     8
 -2.0534648877447920E-01 a      1109     0    56     1     9
  9.9056379289665944E-02 a      1110     0    56     1    10
 -1.4815240579173211E-01 a      1111     0    56     1    11
 -2.1489999024174655E-01 a      1112     0    56     1    12
 -2.4721431664251151E-01 a      1113     0    56     1    13
 -7.1418652986989295E-02 a      1114     0    56     1    14
 -1.0893742412706922E-01 a      1115     0    56     1    15
 -1.3698243713145855E-01 a      1116     0    56     1    16
  1.2488111380473771E-01 a      1117     0    56     1    17
  1.0974833639786943E-01 a      1118     0    56     1    18
  4.4568892015206502E-02 a      1119     0    56     1    19
 -3.2163991112887792E-02 a      1120     0    56     1    20
 -1.7862899333990497E-02 a      1121     0    57     1     1
  7.4044526269580357E-02 a      1122     0    57     1     2
 -1.5532716410948744E-02 a      1123     0    57     1     3
  1.3683381681046337E-02 a      1124     0    57     1     4
  6.9252360628821980E-02 a      1125     0    57     1     5
  2.7923466047643980E-02 a      1126     0    57     1     6
 -4.9893648807950539E-02 a      1127     0    57     1     7
 -1.2740654826527933E-02 a      1128     0    57     1     8
  1.4822833214051723E-01 a      1129     0    57     1     9
 -1.2242599324149039E-02 a      1130     0    57     1    10
  4.3456326933096576E-02 a      1131     0    57     1    11
  4.3551150775394967E-02 a      1132     0    57     1    12
  5.9070743826343600E-02 a      1133     0    57     1    13
 -9.8277144926745594E-02 a      1134     0    57     1    14
  7.0662032330983754E-02 a      1135     0    57     1    15
 -9.0841730277992735E-02 a      1136     0    57     1    16
  1.6346355144810456E-03 a      1137     0    57     1    17
 -2.3267609841831457E-02 a      1138     0    57     1    18
  3.0173813312056572E-02 a      1139     0    57     1    19
  1.8035724966773994E-02 a      1140     0    57     1    20
 -1.3254841891501995E-01 a      1141     0    58     1     1
 -3.2499446524974641E-02 a      1142     0    58     1     2
  6.4082688143079825E-02 a      1143     0    58     1     3
  1.1566501034665495E-01 a      1144     0    58     1     4
 -7.1801280210655627E-02 a      1145     0    58     1     5
  9.0473805885396316E-02 a      1146     0    58     1     6
  7.4762184101783716E-02 a      1147     0    58     1     7
 -2.9722478069537962E-03 a      1148     0    58     1     8
  1.0012837253234184E-01 a      1149     0    58     1     9
 -3.8336788623738363E-02 a      1150     0    58     1    10
  7.4995125064383578E-02 a      1151     0    58     1    11
 -1.9011918843428990E-01 a      1152     0    58     1    12
 -1.3333244631397140E-01 a      1153     0    58     1    13
 -2.6243733537116665E-01 a      1154     0    58     1    14
 -2.9052787441080236E-01 a      1155     0    58     1    15
  8.4932280945371682E-05 a      1156     0    58     1    16
  7.3145885081953257E-02 a      1157     0    58     1    17
  2.0812160754545053E-01 a      1158     0    58     1    18
 -1.0958298820935260E-01 a      1159     0    58     1    19
 -2.6225798310915232E-03 a      1160     0    58     1    20
  1.0407413781746047E-01 a      1161     0    59     1     1
  7.5239138712377890E-02 a      1162     0    59     1     2
  1.9271053187520629E-01 a      1163     0    59     1     3
 -1.2355494974165132E-01 a      1164     0    59     1     4
  1.6370048081835975E-01 a      1165     0    59     1     5
 -2.9907963620319972E-02 a      1166     0    59     1     6
  2.3390856015159875E-01 a      1167     0    59     1     7
  5.5719691644550942E-02 a      1168     0    59     1     8
 -6.2606250333176391E-02 a      1169     0    59     1     9
  1.3007773661209410E-01 a      1170     0    59     1    10
  7.9095035039444636E-02 a      1171     0    59     1    11
  5.3787185996143017E-02 a      1172     0    59     1    12
  1.4161111123036152E-01 a      1173     0    59     1    13
 -1.7649977900548552E-01 a      1174     0    59     1    14
  4.0343117229510225E-03 a      1175     0    59     1    15
  1.2461294233967937E-01 a      1176     0    59     1    16
  1.6332566221934994E-01 a      1177     0    59     1    17
  9.7029781739250032E-02 a      1178     0    59     1    18
 -2.0899503141331777E-01 a      1179     0    59     1    19
  5.2843087349831820E-02 a      1180     0    59     1    20
  1.4894579731363816E-01 a      1181     0    60     1     1
  1.5693934467527548E-01 a      1182     0    60     1     2
  6.5116221314006506E-01 a      1183     0    60     1     3
 -4.5947059609843888E-01 a      1184     0    60     1     4
 -1.0942933729335388E-04 a      1185     0    60     1     5
 -1.8245164701032029E-01 a      1186     0    60     1     6
  6.0611593449096512E-01 a      1187     0    60     1     7
 -1.0786681618509075E-01 a      1188     0    60     1     8
 -1.9432703800556339E-01 a      1189     0    60     1     9
  3.2435600235193851E-01 a      1190     0    60     1    10
  1.4802933639822721E-01 a      1191     0    60     1    11
  3.5206461826960250E-01 a      1192     0    60     1    12
 -2.3301543621440476E-01 a      1193     0    60     1    13
 -7.2569492433749738E-01 a      1194     0    60     1    14
  3.5954425566860776E-01 a      1195     0    60     1    15
 -1.1361567205196692E-01 a      1196     0    60     1    16
  1.3527525261758255E-01 a      1197     0    60     1    17
 -3.2108769819863194E-02 a      1198     0    60     1    18
  1.5649070460494294E-01 a      1199     0    60     1    19
  2.5533449299386185E-01 a      1200     0    60     1    20
  1.1844793914705559E-02 a      1201     0    61     1     1
  2.3272203713223055E-01 a      1202     0    61     1     2
  4.5580747598117966E-01 a      1203     0    61     1     3
 -3.6396375448565871E-01 a      1204     0    61     1     4
 -1.8278034420597755E-01 a      1205     0    61     1     5
 -9.9560653690758422E-02 a      1206     0    61     1     6
 -4.6154788122539585E-02 a      1207     0    61     1     7
  2.3695763987964485E-01 a      1208     0    61     1     8
 -7.9522318068786332E-02 a      1209     0    61     1     9
  1.0712336618006166E+00 a      1210     0    61     1    10
  4.9692701126656511E-02 a      1211     0    61     1    11
  2.9938182745291880E-01 a      1212     0    61     1    12
 -3.2676233774939267E-01 a      1213     0    61     1    13
  9.5404744287506615E-02 a      1214     0    61     1    14
  1.9858773020068551E-01 a      1215     0    61     1    15
  3.1959703585293725E-01 a      1216     0    61     1    16
  4.1414242761202841E-01 a      1217     0    61     1    17
 -3.6869251544948456E-01 a      1218     0    61     1    18
 -1.7924781324725650E-01 a      1219     0    61     1    19
  3.5275014370711999E-01 a      1220     0    61     1    20
 -6.2119600905742797E-02 a      1221     0    62     1     1
 -4.8958358032313166E-02 a      1222     0    62     1     2
 -4.9599752042335859E-03 a      1223     0    62     1     3
 -6.3330554880876924E-03 a      1224     0    62     1     4
 -1.0800091678469656E-01 a      1225     0    62     1     5
 -7.9701512844347219E-02 a      1226     0    62     1     6
  9.9749633082841849E-02 a      1227     0    62     1     7
 -1.0218668839872806E-01 a      1228     0    62     1     8
  6.1801034895545288E-02 a      1229     0    62     1     9
 -2.6780778847197876E-02 a      1230     0    62     1    10
 -2.3644999671941822E-02 a      1231     0    62     1    11
  7.4332349455169117E-02 a      1232     0    62     1    12
 -7.5794098465499490E-02 a      1233     0    62     1    13
  1.5738811630607891E-02 a      1234     0    62     1    14
  2.2208350448429362E-01 a      1235     0    62     1    15
 -1.4743503827874563E-01 a      1236     0    62     1    16
  2.0594234809543593E-01 a      1237     0    62     1    17
  1.0623411512015704E-01 a      1238     0    62     1    18
 -6.0818350336804834E-02 a      1239     0    62     1    19
 -1.3695295318877679E-01 a      1240     0    62     1    20
  6.0919951395825518E-02 a      1241     0    63     1     1
  9.5961566837765230E-02 a      1242     0    63     1     2
 -6.3523470789211889E-02 a      1243     0    63     1     3
  2.0879833534578840E-01 a      1244     0    63     1     4
  1.0652508122744053E-01 a      1245     0    63     1     5
  3.4248423050066662E-01 a      1246     0    63     1     6
 -1.1732985687181710E-02 a      1247     0    63     1     7
 -1.0831732723253983E-01 a      1248     0    63     1     8
  4.1161671463039819E-02 a      1249     0    63     1     9
 -1.2485565209216885E-01 a      1250     0    63     1    10
  9.4122232139678810E-02 a      1251     0    63     1    11
 -1.0352860615214514E-01 a      1252     0    63     1    12
  3.7857281409815473E-02 a      1253     0    63     1    13
  8.3177360638955820E-04 a      1254     0    63     1    14
 -6.6373617532945309E-02 a      1255     0    63     1    15
  1.1210114450506499E-01 a      1256     0    63     1    16
 -1.6133291887992943E-01 a      1257     0    63     1    17
 -2.6792862469375700E-01 a      1258     0    63     1    18
  1.6562321365340471E-02 a      1259     0    63     1    19
  1.8889824205220153E-02 a      1260     0    63     1    20
  7.6368908996378118E-02 a      1261     0    64     1     1
  2.2294276702036587E-02 a      1262     0    64     1     2
 -6.2936375089911190E-01 a      1263     0    64     1     3
  7.6324109791273409E-01 a      1264     0    64     1     4
 -8.9215242131189657E-02 a      1265     0    64     1     5
  4.3044857327759456E-01 a      1266     0    64     1     6
  2.3102068947180499E-01 a      1267     0    64     1     7
 -2.5008828756431484E-01 a      1268     0    64     1     8
  1.4789605450333124E-01 a      1269     0    64     1     9
 -9.7796596683785331E-01 a      1270     0    64     1    10
 -2.0046328734465108E-01 a      1271     0    64     1    11
 -4.1534856519640240E-01 a      1272     0    64     1    12
  1.4151080363023633E-01 a      1273     0    64     1    13
  1.2472929279466727E-01 a      1274     0    64     1    14
 -3.6536041601817226E-01 a      1275     0    64     1    15
 -1.8958035013435226E-01 a      1276     0    64     1    16
 -1.6614641647553482E-01 a      1277     0    64     1    17
 -3.6314457325213538E-02 a      1278     0    64     1    18
  1.4621715714086708E-01 a      1279     0    64     1    19
 -3.3939334012819344E-01 a      1280     0    64     1    20
  3.6523668819224350E-02 a      1281     0    65     1     1
  5.9346386267449314E-02 a      1282     0    65     1     2
  1.8892978215611821E-02 a      1283     0    65     1     3
  1.0788683564902327E-01 a      1284     0    65     1     4
  5.1917598029689399E-02 a      1285     0    65     1     5
  1.8568946993863744E-01 a      1286     0    65     1     6
  8.5803801937592017E-02 a      1287     0    65     1     7
  2.4987617774315189E-02 a      1288     0    65     1     8
  6.2747613315118161E-02 a      1289     0    65     1     9
 -4.3538056952579868E-02 a      1290     0    65     1    10
 -8.6769781058992246E-02 a      1291     0    65     1    11
 -6.5823955392574213E-02 a      1292     0    65     1    12
  1.4782807289499635E-03 a      1293     0    65     1    13
  2.8029015713547302E-02 a      1294     0    65     1    14
  1.8608407524312798E-02 a      1295     0    65     1    15
 -4.9934134511840166E-02 a      1296     0    65     1    16
 -2.4813383401407110E-02 a      1297     0    65     1    17
  1.4189392543212000E-02 a      1298     0    65     1    18
  1.4230029133502103E-01 a      1299     0    65     1    19
  4.1215693317821690E-02 a      1300     0    65     1    20
  4.2370387451348213E-03 a      1301     0    66     1     1
 -2.6191728373609453E-02 a      1302     0    66     1     2
 -1.4286851432955322E-01 a      1303     0    66     1     3
 -1.4843424537119407E-02 a      1304     0    66     1     4
 -8.8732159034233135E-02 a      1305     0    66     1     5
 -1.7095169406392975E-03 a      1306     0    66     1     6
  1.3283344591166765E-01 a      1307     0    66     1     7
 -4.5244108483248356E-02 a      1308     0    66     1     8
  1.4148057738334914E-02 a      1309     0    66     1     9
 -2.0965853719932895E-01 a      1310     0    66     1    10
  5.1354941965076416E-02 a      1311     0    66     1    11
  1.4344709155918547E-01 a      1312     0    66     1    12
 -7.5536582820413894E-02 a      1313     0    66     1    13
 -6.6224663905129030E-02 a      1314     0    66     1    14
 -5.6656033753531239E-02 a      1315     0    66     1    15
 -6.4483629736255030E-02 a      1316     0    66     1    16
  6.3281340019037804E-02 a      1317     0    66     1    17
 -8.3095468614888604E-02 a      1318     0    66     1    18
 -8.9926716162808729E-02 a      1319     0    66     1    19
 -3.1502593669604596E-02 a      1320     0    66     1    20
  2.6682288613541431E-02 a      1321     0    67     1     1
  1.1361380708760813E-01 a      1322     0    67     1     2
 -3.5070132884422969E-02 a      1323     0    67     1     3
 -1.1209723699807163E-02 a      1324     0    67     1     4
 -8.7475568045593220E-03 a      1325     0    67     1     5
  2.0996971322397423E-01 a      1326     0    67     1     6
  3.6075166914995940E-03 a      1327     0    67     1     7
  9.3363243538362006E-02 a      1328     0    67     1     8
  5.3373433173045458E-02 a      1329     0    67     1     9
 -9.1471165015292233E-02 a      1330     0    67     1    10
  1.1933999468307953E-01 a      1331     0    67     1    11
 -8.4850030129718576E-02 a      1332     0    67     1    12
 -2.5493160267744494E-02 a      1333     0    67     1    13
  1.3318137968837912E-02 a      1334     0    67     1    14
  8.3536787901234671E-02 a      1335     0    67     1    15
 -7.9255951197627489E-03 a      1336     0    67     1    16
 -3.2934615476375800E-02 a      1337     0    67     1    17
  5.1186354076835840E-02 a      1338     0    67     1    18
  8.6999245577939949E-02 a      1339     0    67     1    19
  1.3263825689096044E-02 a      1340     0    67     1    20
  4.4725201450827194E-02 a      1341     0    68     1     1
 -2.7717683061541140E-02 a      1342     0    68     1     2
  4.2874439438905183E-02 a      1343     0    68     1     3
  1.9115398193484709E-01 a      1344     0    68     1     4
  2.7774628772357850E-03 a      1345     0    68     1     5
 -8.5296989085664077E-02 a      1346     0    68     1     6
  1.3321689410343221E-02 a      1347     0    68     1     7
  2.1571682394969326E-02 a      1348     0    68     1     8
 -1.7341003325888126E-02 a      1349     0    68     1     9
  3.7211488760769552E-02 a      1350     0    68     1    10
 -6.2168539636414041E-02 a      1351     0    68     1    11
 -1.3341445382874872E-01 a      1352     0    68     1    12
  6.9766774518556576E-02 a      1353     0    68     1    13
 -4.9899903291420484E-03 a      1354     0    68     1    14
 -1.4938034545313214E-01 a      1355     0    68     1    15
 -1.8405705249394291E-02 a      1356     0    68     1    16
  6.7318338835261796E-02 a      1357     0    68     1    17
 -2.0637516862953051E-02 a      1358     0    68     1    18
  1.3074539804926391E-01 a      1359     0    68     1    19
  4.3295945559933185E-02 a      1360     0    68     1    20
  1.3513490338916329E-02 a      1361     0    69     1     1
  7.3176657354164551E-02 a      1362     0    69     1     2
 -1.4352736881991909E-03 a      1363     0    69     1     3
  1.0190242033832002E-02 a      1364     0    69     1     4
 -3.4106305527723826E-02 a      1365     0    69     1     5
 -7.6624558683564228E-02 a      1366     0    69     1     6
  1.6206791860391900E-01 a      1367     0    69     1     7
  2.0994553932830760E-02 a      1368     0    69     1     8
 -4.0548302882045056E-02 a      1369     0    69     1     9
 -9.7232792327810319E-02 a      1370     0    69     1    10
 -7.5899662050025310E-02 a      1371     0    69     1    11
  1.1443693278453194E-01 a      1372     0    69     1    12
 -7.9861516643154731E-02 a      1373     0    69     1    13
 -4.0051293835480554E-02 a      1374     0    69     1    14
 -6.8313406557333409E-02 a      1375     0    69     1    15
  3.2935176198335157E-02 a      1376     0    69     1    16
 -1.2922652633850649E-02 a      1377     0    69     1    17
 -1.8247346309548482E-02 a      1378     0    69     1    18
 -1.3340193882852877E-01 a      1379     0    69     1    19
 -8.0317104941137987E-02 a      1380     0    69     1    20
  2.3187961485303173E-02 a      1381     0    70     1     1
  9.6749859631567334E-02 a      1382     0    70     1     2
  1.8831800533669737E-01 a      1383     0    70     1     3
 -3.1633673324019268E-01 a      1384     0    70     1     4
 -5.0937701487427801E-02 a      1385     0    70     1     5
 -1.0714678285580594E-01 a      1386     0    70     1     6
  1.2519363048599669E-01 a      1387     0    70     1     7
  1.5231141492127484E-01 a      1388     0    70     1     8
 -1.2551445945380887E-01 a      1389     0    70     1     9
  3.3152665318622426E-01 a      1390     0    70     1    10
 -3.2740518114635739E-03 a      1391     0    70     1    11
  1.4876159448072615E-01 a      1392     0    70     1    12
 -8.4969925447861305E-02 a      1393     0    70     1    13
 -1.0378905478982828E-01 a      1394     0    70     1    14
 -2.1158619507994442E-02 a      1395     0    70     1    15
  8.6308062712293354E-02 a      1396     0    70     1    16
  7.9078009496306195E-02 a      1397     0    70     1    17
  1.4836271360137637E-02 a      1398     0    70     1    18
 -1.5205370851762118E-01 a      1399     0    70     1    19
  1.0216760559872732E-02 a      1400     0    70     1    20
  1.0179501622462914E-03 a      1401     0    71     1     1
 -3.0069157508607158E-01 a      1402     0    71     1     2
  3.3638871332404313E-02 a      1403     0    71     1     3
 -4.1083779075265081E-01 a      1404     0    71     1     4
 -6.5154351732734511E-02 a      1405     0    71     1     5
  1.6394157174612486E-01 a      1406     0    71     1     6
 -2.7060578041653566E-01 a      1407     0    71     1     7
 -8.8397964772479382E-02 a      1408     0    71     1     8
 -1.9875359964819930E-01 a      1409     0    71     1     9
  1.0571974647778966E-01 a      1410     0    71     1    10
  5.6118978708977342E-02 a      1411     0    71     1    11
 -3.4939506260513697E-01 a      1412     0    71     1    12
 -1.4927393667617886E-01 a      1413     0    71     1    13
 -1.0860075467222916E-01 a      1414     0    71     1    14
  4.2327068703066004E-02 a      1415     0    71     1    15
  1.7841872109587342E-01 a      1416     0    71     1    16
  9.2764567198245287E-02 a      1417     0    71     1    17
  3.6917344257648427E-01 a      1418     0    71     1    18
 -2.7314590116836823E-01 a      1419     0    71     1    19
  3.4017343124638655E-01 a      1420     0    71     1    20
 -5.2536362657043967E-03 a      1421     0    72     1     1
 -6.3944142549086508E-02 a      1422     0    72     1     2
 -2.2350131393945080E-02 a      1423     0    72     1     3
 -1.1545361852557006E-02 a      1424     0    72     1     4
 -1.6710835878347405E-01 a      1425     0    72     1     5
 -8.0486426239536724E-02 a      1426     0    72     1     6
 -4.9623367240859119E-02 a      1427     0    72     1     7
 -8.2664504019219584E-02 a      1428     0    72     1     8
 -6.8203539505760233E-02 a      1429     0    72     1     9
  7.4667818641802833E-03 a      1430     0    72     1    10
 -4.8460822743816058E-02 a      1431     0    72     1    11
 -6.4439445659711964E-02 a      1432     0    72     1    12
 -4.7260369652348408E-02 a      1433     0    72     1    13
 -2.1412229321176130E-03 a      1434     0    72     1    14
 -1.0631980365046850E-01 a      1435     0    72     1    15
  7.3120118457323274E-02 a      1436     0    72     1    16
  4.8590179764331089E-02 a      1437     0    72     1    17
  6.8798686333777614E-02 a      1438     0    72     1    18
  2.4200824975956561E-02 a      1439     0    72     1    19
  7.4288093390105336E-02 a      1440     0    72     1    20
  2.9185403212417266E-02 a      1441     0    73     1     1
  5.4659670295066189E-03 a      1442     0    73     1     2
  1.9113026904778332E-01 a      1443     0    73     1     3
  1.6514442447546262E-03 a      1444     0    73     1     4
  1.7316240480595277E-01 a      1445     0    73     1     5
 -8.7883864473422058E-02 a      1446     0    73     1     6
 -2.7739903310774815E-02 a      1447     0    73     1     7
  1.4445842125210698E-01 a      1448     0    73     1     8
 -9.8974548868796836E-02 a      1449     0    73     1     9
 -2.5779175945977770E-02 a      1450     0    73     1    10
  1.2134470279055303E-02 a      1451     0    73     1    11
  1.1279608662818530E-01 a      1452     0    73     1    12
 -5.9402609809164918E-02 a      1453     0    73     1    13
 -9.3386228399553461E-02 a      1454     0    73     1    14
 -9.5236664641851432E-02 a      1455     0    73     1    15
 -9.3137186278808237E-02 a      1456     0    73     1    16
 -1.5517152534651027E-01 a      1457     0    73     1    17
 -7.8836814599078042E-02 a      1458     0    73     1    18
 -2.9214391671268908E-02 a      1459     0    73     1    19
 -1.6364682199329711E-02 a      1460     0    73     1    20
 -8.8428887913016174E-02 a      1461     0    74     1     1
  2.7847049871137980E-01 a      1462     0    74     1     2
  6.0498273128804436E-01 a      1463     0    74     1     3
  3.9330847788769813E-01 a      1464     0    74     1     4
 -1.8193102258259453E-01 a      1465     0    74     1     5
 -2.5543454202766902E-01 a      1466     0    74     1     6
 -8.4021987082771882E-03 a      1467     0    74     1     7
  5.5119427113879660E-01 a      1468     0    74     1     8
 -2.1606175774394362E-01 a      1469     0    74     1     9
 -1.6362354913018648E-01 a      1470     0    74     1    10
  2.5640477156456502E-02 a      1471     0    74     1    11
  2.2301777247554311E-01 a      1472     0    74     1    12
  1.4967457155200539E-01 a      1473     0    74     1    13
  4.2775310996674820E-01 a      1474     0    74     1    14
  9.8137285663277785E-01 a      1475     0    74     1    15
  8.9218745911098254E-02 a      1476     0    74     1    16
  1.3798759317091688E-01 a      1477     0    74     1    17
 -6.0145469136830654E-01 a      1478     0    74     1    18
 -2.9479001579506531E-01 a      1479     0    74     1    19
 -3.4350014932412037E-01 a      1480     0    74     1    20
 -7.2734953933962570E-03 a      1481     0    75     1     1
 -1.1400868192740540E-01 a      1482     0    75     1     2
 -1.8308364000891358E-01 a      1483     0    75     1     3
 -4.1241884566841858E-01 a      1484     0    75     1     4
  3.0463807854248931E-01 a      1485     0    75     1     5
  1.7232416101211884E-01 a      1486     0    75     1     6
  1.7668423103586325E-01 a      1487     0    75     1     7
 -2.5031817982140642E-01 a      1488     0    75     1     8
  2.6594779240113492E-01 a      1489     0    75     1     9
 -1.5638554947713962E-01 a      1490     0    75     1    10
 -2.3762124708312607E-01 a      1491     0    75     1    11
 -1.4124828208616085E-02 a      1492     0    75     1    12
  2.3625480986335373E-01 a      1493     0    75     1    13
 -7.0467434106495433E-02 a      1494     0    75     1    14
  1.3882903626498233E-01 a      1495     0    75     1    15
 -6.1034521881982766E-02 a      1496     0    75     1    16
 -3.9781581476228478E-03 a      1497     0    75     1    17
  5.3263698690248808E-02 a      1498     0    75     1    18
  8.0287519655872691E-02 a      1499     0    75     1    19
  7.6547762533214506E-02 a      1500     0    75     1    20
  7.2885931545243268E-03 a      1501     0    76     1     1
  2.2288412265605409E-01 a      1502     0    76     1     2
  1.5333736837433468E-01 a      1503     0    76     1     3
  1.1981773651036549E-01 a      1504     0    76     1     4
  1.9391440979266192E-01 a      1505     0    76     1     5
 -9.7303324802873237E-02 a      1506     0    76     1     6
  2.0414701251012454E-01 a      1507     0    76     1     7
 -1.2739954718211302E-01 a      1508     0    76     1     8
 -1.0520723879751663E-01 a      1509     0    76     1     9
 -1.1667537045570439E-01 a      1510     0    76     1    10
 -2.3237187401066567E-01 a      1511     0    76     1    11
 -2.7432514891427834E-01 a      1512     0    76     1    12
 -1.2595946686950429E-01 a      1513     0    76     1    13
 -1.0845749567704495E-02 a      1514     0    76     1    14
  8.7798030597962359E-02 a      1515     0    76     1    15
  4.4805187689206667E-02 a      1516     0    76     1    16
 -2.3744317764928036E-01 a      1517     0    76     1    17
  1.1692808052379901E-02 a      1518     0    76     1    18
  1.3988046843420265E-01 a      1519     0    76     1    19
  3.0803447711777798E-01 a      1520     0    76     1    20
 -3.1465366395447891E-02 a      1521     0    77     1     1
  5.5366593962410254E-03 a      1522     0    77     1     2
  4.7424187223987578E-02 a      1523     0    77     1     3
  2.6001957073182112E-02 a      1524     0    77     1     4
 -8.3595054112160991E-02 a      1525     0    77     1     5
  1.2561586520730439E-01 a      1526     0    77     1     6
 -1.0269072841213123E-01 a      1527     0    77     1     7
  8.9572702748188016E-02 a      1528     0    77     1     8
 -1.0029356825467133E-01 a      1529     0    77     1     9
  3.8676247955037657E-02 a      1530     0    77     1    10
  1.4421541968028403E-01 a      1531     0    77     1    11
 -1.0578137507520881E-01 a      1532     0    77     1    12
 -7.7299950647577317E-02 a      1533     0    77     1    13
  1.8059054339407574E-01 a      1534     0    77     1    14
 -4.1835701763234791E-02 a      1535     0    77     1    15
  3.2971747943122395E-02 a      1536     0    77     1    16
  1.4190981508187533E-03 a      1537     0    77     1    17
  5.4676726880671996E-02 a      1538     0    77     1    18
 -1.3038062124932435E-02 a      1539     0    77     1    19
  1.2702038159786935E-01 a      1540     0    77     1    20
  3.0719126896630852E-02 a      1541     0    78     1     1
  3.5789971643648638E-02 a      1542     0    78     1     2
  3.9733203860726677E-04 a      1543     0    78     1     3
  1.3340354592386239E-01 a      1544     0    78     1     4
 -2.4721283246571052E-02 a      1545     0    78     1     5
  4.7704328949224939E-02 a      1546     0    78     1     6
 -1.1838778874037617E-01 a      1547     0    78     1     7
  1.7690211291622451E-01 a      1548     0    78     1     8
 -1.1150548201263728E-01 a      1549     0    78     1     9
 -9.8432835716426595E-02 a      1550     0    78     1    10
  2.3756760189276752E-01 a      1551     0    78     1    11
  6.6063064776473363E-02 a      1552     0    78     1    12
  8.9864390594399976E-02 a      1553     0    78     1    13
  2.4407524891239521E-01 a      1554     0    78     1    14
  1.2704415745969805E-01 a      1555     0    78     1    15
 -1.8869359149327986E-02 a      1556     0    78     1    16
  5.7746094116206799E-02 a      1557     0    78     1    17
 -1.3582698473846050E-01 a      1558     0    78     1    18
 -1.7096940586755482E-02 a      1559     0    78     1    19
 -8.1401235402584649E-02 a      1560     0    78     1    20
 -4.7813299694840959E-02 a      1561     0    79     1     1
 -2.4441284708982429E-02 a      1562     0    79     1     2
 -1.4128763793538535E-01 a      1563     0    79     1     3
  9.0493032269738250E-03 a      1564     0    79     1     4
 -3.6789625076015520E-02 a      1565     0    79     1     5
  2.1948909116418447E-02 a      1566     0    79     1     6
 -6.4422305645317687E-02 a      1567     0    79     1     7
 -6.8322802983167424E-02 a      1568     0    79     1     8
  9.2546134702442481E-02 a      1569     0    79     1     9
 -8.2314043272981835E-02 a      1570     0    79     1    10
 -6.1687846853668238E-02 a      1571     0    79     1    11
  6.1530841264027508E-03 a      1572     0    79     1    12
 -6.5510102829657538E-02 a      1573     0    79     1    13
  6.2578645750489645E-02 a      1574     0    79     1    14
  9.3150159399943921E-02 a      1575     0    79     1    15
 -2.7330413953906136E-02 a      1576     0    79     1    16
 -9.0570509566867671E-02 a      1577     0    79     1    17
 -5.1483854093057710E-02 a      1578     0    79     1    18
  1.0963103234090563E-01 a      1579     0    79     1    19
 -1.4110090614186135E-01 a      1580     0    79     1    20
 -1.4140167435275935E-01 a      1581     0    80     1     1
 -1.3898193605929718E-01 a      1582     0    80     1     2
 -3.7689294112892946E-01 a      1583     0    80     1     3
  2.2608885143287191E-01 a      1584     0    80     1     4
  6.5327186939448861E-02 a      1585     0    80     1     5
 -1.5983023380420464E-01 a      1586     0    80     1     6
 -1.5974234260518963E-01 a      1587     0    80     1     7
  1.8417974614296226E-01 a      1588     0    80     1     8
  2.7979113115968100E-02 a      1589     0    80     1     9
 -1.8235965242284213E-01 a      1590     0    80     1    10
 -1.4217355983275018E-01 a      1591     0    80     1    11
 -2.2139222001629894E-01 a      1592     0    80     1    12
 -2.4583288319347883E-02 a      1593     0    80     1    13
  2.6022251681181124E-01 a      1594     0    80     1    14
 -4.0078246821581831E-01 a      1595     0    80     1    15
  2.7815302247920171E-02 a      1596     0    80     1    16
 -4.9539653485942275E-02 a      1597     0    80     1    17
  1.3787184942069397E-01 a      1598     0    80     1    18
 -4.5646327736942049E-02 a      1599     0    80     1    19
 -1.3921306862944680E-01 a      1600     0    80     1    20
 -4.9625767913504409E-01 b      1601     1     1
 -1.0206420937205487E+00 b      1602     1     2
 -4.0090655364611372E-01 b      1603     1     3
  5.6143112095599002E-01 b      1604     1     4
  1.3467655231658007E+00 b      1605     1     5
  1.0680968580596437E+00 b      1606     1     6
 -5.4852302822019972E-01 b      1607     1     7
  2.4497750822762447E-02 b      1608     1     8
  1.2201481584944922E-02 b      1609     1     9
  1.0945804929925480E+00 b      1610     1    10
 -2.6500040663456503E-01 b      1611     1    11
  8.5858447285236528E-01 b      1612     1    12
  7.4815978424312235E-01 b      1613     1    13
  8.1358978205454813E-01 b      1614     1    14
 -2.2928538501123344E-01 b      1615     1    15
 -4.7647137859007710E-01 b      1616     1    16
 -9.1120981348262187E-01 b      1617     1    17
 -4.1361388551807771E-01 b      1618     1    18
 -1.0665637929654563E+00 b      1619     1    19
  1.1355887020629816E+00 b      1620     1    20
 -4.6404250587813867E-01 a      1621     1     1     2     1
  3.4739373522885592E-01 a      1622     1     1     2     2
  1.2929054308746818E-01 a      1623     1     1     2     3
  1.6194337699478359E-01 a      1624     1     1     2     4
  4.3702330712854964E-01 a      1625     1     1     2     5
 -5.9688760021559817E-01 a      1626     1     1     2     6
  2.9281583214672413E-01 a      1627     1     1     2     7
