################################################################################
# Neural network connection values (weights and biases).
################################################################################
# Col  Name       Description
################################################################################
# 1    connection Neural network connection value.
# 2    t          Connection type (a = weight, b = bias).
# 3    index      Index enumerating weights.
# 4    l_s        Starting point layer (end point layer for biases).
# 5    n_s        Starting point neuron in starting layer (end point neuron for biases).
# 6    l_e        End point layer.
# 7    n_e        End point neuron in end layer.
################################################################################
#                      1 2         3     4     5     6     7
#             connection t     index   l_s   n_s   l_e   n_e
############################################################
 -9.7949154522186666E-01 a         1     0     1     1     1
  1.0227897715299132E-01 a         2     0     1     1     2
 -2.9725453341373553E-01 a         3     0     1     1     3
  8.1963429747501343E-02 a         4     0     1     1     4
 -1.5997557351473404E-01 a         5     0     1     1     5
 -3.3547579605559597E-01 a         6     0     1     1     6
  4.0384197274136818E-01 a         7     0     1     1     7
 -1.5439192466403359E-01 a         8     0     1     1     8
  9.1037585244645003E-01 a         9     0     1     1     9
 -3.7620487496352641E-02 a        10     0     1     1    10
 -3.2336944805747366E-04 a        11     0     1     1    11
 -1.8442757099920579E-01 a        12     0     1     1    12
 -5.0183777697948329E-01 a        13     0     1     1    13
  4.9149956560879288E-01 a        14     0     1     1    14
  6.2031348727962961E-02 a        15     0     1     1    15
  6.6027144243536284E-01 a        16     0     1     1    16
 -5.7611828954522708E-02 a        17     0     1     1    17
  5.2639429771312779E-02 a        18     0     1     1    18
  9.2726281962232482E-02 a        19     0     1     1    19
  5.5862074146828244E-01 a        20     0     1     1    20
 -7.1224902538790089E-02 a        21     0     2     1     1
 -7.7360163058723286E-02 a        22     0     2     1     2
 -1.2996035550353036E-03 a        23     0     2     1     3
 -8.1134827830179723E-02 a        24     0     2     1     4
 -1.9008510790785135E-01 a        25     0     2     1     5
  8.2623182646786544E-02 a        26     0     2     1     6
 -2.8074659814843572E-03 a        27     0     2     1     7
  6.7993482761611698E-02 a        28     0     2     1     8
 -1.8185471605821685E-01 a        29     0     2     1     9
 -1.0180466942000925E-01 a        30     0     2     1    10
 -1.2227612538200536E-01 a        31     0     2     1    11
  5.6258302661308289E-02 a        32     0     2     1    12
  3.3081398499875806E-03 a        33     0     2     1    13
 -1.1935946435055199E-01 a        34     0     2     1    14
 -1.3640824649219280E-01 a        35     0     2     1    15
 -7.7166206720797451E-02 a        36     0     2     1    16
 -1.5824152529135985E-03 a        37     0     2     1    17
 -3.0178782348279545E-02 a        38     0     2     1    18
  1.2174966599647064E-01 a        39     0     2     1    19
 -1.4422452573842037E-01 a        40     0     2     1    20
  7.3846194329469109E-02 a        41     0     3     1     1
  2.0256042915557229E-02 a        42     0     3     1     2
 -3.9394248388608610E-02 a        43     0     3     1     3
  9.8287140737316619E-02 a        44     0     3     1     4
 -1.0850714672809592E-01 a        45     0     3     1     5
  1.2095727342370348E-02 a        46     0     3     1     6
 -7.0186026194749868E-02 a        47     0     3     1     7
 -2.6890421736345052E-03 a        48     0     3     1     8
 -3.3962872143472080E-02 a        49     0     3     1     9
  1.1216328104178609E-01 a        50     0     3     1    10
  7.4657438913279930E-02 a        51     0     3     1    11
 -3.2222343037102356E-02 a        52     0     3     1    12
 -9.9047115688844552E-03 a        53     0     3     1    13
 -9.4024569651260607E-03 a        54     0     3     1    14
 -2.8483252825168892E-02 a        55     0     3     1    15
  1.1264121875815690E-01 a        56     0     3     1    16
  5.8368008825978153E-02 a        57     0     3     1    17
 -4.5102877204962741E-02 a        58     0     3     1    18
  7.1037691523709728E-03 a        59     0     3     1    19
 -6.0958114703841493E-02 a        60     0     3     1    20
  8.6837668154284120E-01 a        61     0     4     1     1
 -4.9909515568241020E-01 a        62     0     4     1     2
  2.1486929511454295E-01 a        63     0     4     1     3
  7.7710415413369427E-02 a        64     0     4     1     4
  5.9897834797538185E-01 a        65     0     4     1     5
 -4.1194309708371246E-01 a        66     0     4     1     6
 -5.7480915573246683E-01 a        67     0     4     1     7
  1.8085700406216729E-01 a        68     0     4     1     8
 -3.7122679988834500E-01 a        69     0     4     1     9
  5.8544451004019848E-01 a        70     0     4     1    10
  5.9720995450671589E-02 a        71     0     4     1    11
 -4.1656418893325248E-01 a        72     0     4     1    12
  2.4467288888877364E-01 a        73     0     4     1    13
 -5.4391684220430669E-01 a        74     0     4     1    14
 -7.9275922072717234E-02 a        75     0     4     1    15
 -1.8670315340069082E-01 a        76     0     4     1    16
  5.4352970949806534E-01 a        77     0     4     1    17
  3.1550697426791957E-01 a        78     0     4     1    18
  1.3423115339840747E-01 a        79     0     4     1    19
 -1.6845032541971499E+00 a        80     0     4     1    20
 -2.7237197584514772E-01 a        81     0     5     1     1
 -1.3016214017448535E-01 a        82     0     5     1     2
  1.1457597277790149E-01 a        83     0     5     1     3
  2.3316828801209208E-01 a        84     0     5     1     4
  1.6045031961661513E-01 a        85     0     5     1     5
  5.3479309649170047E-02 a        86     0     5     1     6
 -1.2450315008749194E-01 a        87     0     5     1     7
 -3.8534634443403930E-02 a        88     0     5     1     8
  3.4673131720342970E-01 a        89     0     5     1     9
  2.0053841801537003E-01 a        90     0     5     1    10
  1.0687316066246066E-01 a        91     0     5     1    11
 -1.0507816351221289E-01 a        92     0     5     1    12
 -2.0032824485276163E-01 a        93     0     5     1    13
 -9.9993743468900654E-03 a        94     0     5     1    14
  1.0205406443721350E-01 a        95     0     5     1    15
 -6.6260753580658971E-02 a        96     0     5     1    16
  3.1448063780193530E-01 a        97     0     5     1    17
  1.4544369174780622E-02 a        98     0     5     1    18
 -1.8282207489543215E-01 a        99     0     5     1    19
  2.5100864289818980E-01 a       100     0     5     1    20
  1.3771121716647691E-01 a       101     0     6     1     1
 -9.3852649157854781E-02 a       102     0     6     1     2
 -1.2696871465422879E-01 a       103     0     6     1     3
 -7.5682820032051193E-02 a       104     0     6     1     4
  2.6636306140188792E-01 a       105     0     6     1     5
  2.9003477344304713E-02 a       106     0     6     1     6
 -1.2525870303381623E-01 a       107     0     6     1     7
 -1.4569931024173760E-01 a       108     0     6     1     8
  8.4761482788547587E-02 a       109     0     6     1     9
 -1.9102140761015629E-02 a       110     0     6     1    10
 -1.9807742104469042E-01 a       111     0     6     1    11
  7.0076523330465212E-02 a       112     0     6     1    12
  1.8048655203640060E-01 a       113     0     6     1    13
  7.5981075362625411E-02 a       114     0     6     1    14
  4.0181858202919356E-02 a       115     0     6     1    15
 -9.6942612644896120E-02 a       116     0     6     1    16
 -3.2045407106498036E-01 a       117     0     6     1    17
  7.8188635237305862E-02 a       118     0     6     1    18
 -7.1483586505200159E-03 a       119     0     6     1    19
 -3.6033203609667094E-02 a       120     0     6     1    20
 -1.2915555817716848E-01 a       121     0     7     1     1
 -2.1588624031592357E-01 a       122     0     7     1     2
 -7.7135317866920527E-01 a       123     0     7     1     3
 -7.0497557273389772E-02 a       124     0     7     1     4
 -4.5300982178775084E-01 a       125     0     7     1     5
  1.3945096338259078E-01 a       126     0     7     1     6
  4.8733520243082024E-01 a       127     0     7     1     7
 -7.4852928566371246E-01 a       128     0     7     1     8
  4.1160214156708580E-01 a       129     0     7     1     9
 -2.2810290935506194E-01 a       130     0     7     1    10
 -1.5427781326558093E-01 a       131     0     7     1    11
  1.1399100423283443E-01 a       132     0     7     1    12
  3.7704215419151338E-02 a       133     0     7     1    13
  2.4431369365012742E-01 a       134     0     7     1    14
  6.5245759496508366E-03 a       135     0     7     1    15
 -1.5770223150940962E-01 a       136     0     7     1    16
  4.1157710710119161E-01 a       137     0     7     1    17
  2.1852981640305061E-01 a       138     0     7     1    18
 -1.8787855478675441E-01 a       139     0     7     1    19
  9.9006522307167011E-01 a       140     0     7     1    20
  3.7654514726294186E-01 a       141     0     8     1     1
  9.4897315366684151E-02 a       142     0     8     1     2
  4.9487514543532701E-02 a       143     0     8     1     3
 -2.7212121462670769E-01 a       144     0     8     1     4
 -1.2227806264598866E-01 a       145     0     8     1     5
 -2.6154458117535279E-01 a       146     0     8     1     6
 -1.1712341586792312E-01 a       147     0     8     1     7
 -3.2397222650803255E-02 a       148     0     8     1     8
 -2.3124702808778552E-01 a       149     0     8     1     9
 -8.2790428000086139E-02 a       150     0     8     1    10
 -2.5414900708699326E-02 a       151     0     8     1    11
  2.1756358608394868E-01 a       152     0     8     1    12
  1.0161390402671594E-01 a       153     0     8     1    13
  3.5363148709972470E-01 a       154     0     8     1    14
  3.2932856469727156E-02 a       155     0     8     1    15
  1.5849177212415236E-01 a       156     0     8     1    16
 -7.9370346652337428E-02 a       157     0     8     1    17
  1.1768334645548545E-01 a       158     0     8     1    18
  2.2684515152758830E-01 a       159     0     8     1    19
 -4.5299922287814522E-02 a       160     0     8     1    20
 -3.6059612290140569E-01 a       161     0     9     1     1
 -2.1455835314398507E-02 a       162     0     9     1     2
 -5.8687864035356085E-02 a       163     0     9     1     3
  1.2956960625994979E-01 a       164     0     9     1     4
 -1.0521669020032663E-01 a       165     0     9     1     5
 -1.2164445960992580E-01 a       166     0     9     1     6
 -5.3445015192454440E-02 a       167     0     9     1     7
  2.5436031982285440E-01 a       168     0     9     1     8
 -4.4378453252811695E-01 a       169     0     9     1     9
  4.7453738505215941E-02 a       170     0     9     1    10
  8.6187836043507049E-02 a       171     0     9     1    11
  1.3665904542935856E-01 a       172     0     9     1    12
  1.7469630650912210E-01 a       173     0     9     1    13
  5.8199098937800117E-03 a       174     0     9     1    14
  1.1459026543303290E-02 a       175     0     9     1    15
 -1.1222596685923737E-01 a       176     0     9     1    16
  9.9896343480962810E-02 a       177     0     9     1    17
 -2.1183070613493074E-01 a       178     0     9     1    18
  1.3265247450188120E-01 a       179     0     9     1    19
  3.4900139541171760E-01 a       180     0     9     1    20
 -1.3018483210083595E-01 a       181     0    10     1     1
 -1.5236597558446865E-01 a       182     0    10     1     2
 -1.9684553144856468E-01 a       183     0    10     1     3
 -1.0356585585405928E-01 a       184     0    10     1     4
  5.4166430607986338E-01 a       185     0    10     1     5
 -5.4985112903441036E-01 a       186     0    10     1     6
 -1.1641425099719245E-01 a       187     0    10     1     7
  8.4161723759295315E-01 a       188     0    10     1     8
 -7.9146408403610920E-04 a       189     0    10     1     9
  3.1011379580900805E-01 a       190     0    10     1    10
  2.2573281475912835E-01 a       191     0    10     1    11
 -6.7722293521942256E-01 a       192     0    10     1    12
  3.3231626459821773E-01 a       193     0    10     1    13
 -4.4150592675181183E-01 a       194     0    10     1    14
 -1.7794954142784755E-01 a       195     0    10     1    15
 -2.0589645268634823E-02 a       196     0    10     1    16
 -6.2482774764278923E-02 a       197     0    10     1    17
 -5.7204652242640784E-02 a       198     0    10     1    18
 -2.0157157443642928E-01 a       199     0    10     1    19
 -1.0412660267913691E+00 a       200     0    10     1    20
 -1.8864081423645024E-01 a       201     0    11     1     1
  8.1727622541679520E-02 a       202     0    11     1     2
  6.4861219732248829E-02 a       203     0    11     1     3
  1.7684375063911981E-01 a       204     0    11     1     4
 -1.9279698704857320E-02 a       205     0    11     1     5
  2.4776658333535861E-01 a       206     0    11     1     6
 -1.3816191014126786E-01 a       207     0    11     1     7
 -1.8880988802099232E-02 a       208     0    11     1     8
  1.5246857252283033E-01 a       209     0    11     1     9
  8.3517788436207205E-02 a       210     0    11     1    10
  1.1704913711284533E-01 a       211     0    11     1    11
 -5.3301365925732029E-02 a       212     0    11     1    12
  3.4949411934287083E-01 a       213     0    11     1    13
 -2.2097844771909045E-01 a       214     0    11     1    14
 -3.3505064608508550E-01 a       215     0    11     1    15
  8.0035539989406670E-02 a       216     0    11     1    16
 -2.0314494253721013E-01 a       217     0    11     1    17
 -1.4451862023758612E-02 a       218     0    11     1    18
 -1.0579079783412779E-01 a       219     0    11     1    19
  2.0156717082519643E-01 a       220     0    11     1    20
 -2.1830598324305742E-02 a       221     0    12     1     1
  2.3111425267414917E-01 a       222     0    12     1     2
 -1.1280549283113877E-02 a       223     0    12     1     3
 -1.3039287315353917E-01 a       224     0    12     1     4
  1.3448252988466458E-01 a       225     0    12     1     5
  8.4677931573933218E-02 a       226     0    12     1     6
 -1.4179544441563102E-01 a       227     0    12     1     7
 -5.1004558251535513E-02 a       228     0    12     1     8
 -4.4060723724737416E-01 a       229     0    12     1     9
  3.8544859102317108E-01 a       230     0    12     1    10
 -5.2456355372398379E-02 a       231     0    12     1    11
  2.1456363569237491E-01 a       232     0    12     1    12
 -3.4978508048960316E-01 a       233     0    12     1    13
  3.9776154818595522E-01 a       234     0    12     1    14
  2.6938024893199681E-03 a       235     0    12     1    15
  1.1993175583108040E-01 a       236     0    12     1    16
 -4.8723403701902790E-01 a       237     0    12     1    17
  1.4526067570266126E-02 a       238     0    12     1    18
  3.7820351700666708E-03 a       239     0    12     1    19
 -1.7695927771083114E-01 a       240     0    12     1    20
  1.6515260699204404E-01 a       241     0    13     1     1
 -6.5939134063605154E-01 a       242     0    13     1     2
 -2.0354540964327514E-01 a       243     0    13     1     3
  3.2469726464490095E-01 a       244     0    13     1     4
 -5.8564535964671337E-02 a       245     0    13     1     5
  4.4894534993157265E-01 a       246     0    13     1     6
 -6.3762827939220751E-02 a       247     0    13     1     7
 -7.0928964593795163E-01 a       248     0    13     1     8
  8.7719635148062580E-02 a       249     0    13     1     9
 -3.2535294954505423E-01 a       250     0    13     1    10
 -2.2341235434980740E-02 a       251     0    13     1    11
  2.9939432148322837E-01 a       252     0    13     1    12
 -4.7373568510938616E-02 a       253     0    13     1    13
  5.6907152894014851E-02 a       254     0    13     1    14
 -3.1068167212120062E-01 a       255     0    13     1    15
 -3.1360726007443979E-01 a       256     0    13     1    16
  3.1432783389362406E-01 a       257     0    13     1    17
  1.5433919331869805E-01 a       258     0    13     1    18
 -3.4192107380337435E-02 a       259     0    13     1    19
  5.5618949757497838E-01 a       260     0    13     1    20
 -6.9122942746046065E-02 a       261     0    14     1     1
 -7.0275811024962734E-02 a       262     0    14     1     2
 -7.9017626533721200E-02 a       263     0    14     1     3
 -8.3707975627272835E-02 a       264     0    14     1     4
 -1.9496606998385832E-02 a       265     0    14     1     5
  1.7659836138843900E-02 a       266     0    14     1     6
  1.4096202324539189E-01 a       267     0    14     1     7
 -2.0764992475616737E-03 a       268     0    14     1     8
 -4.6215991578505743E-03 a       269     0    14     1     9
  9.6405554978203870E-02 a       270     0    14     1    10
 -5.7279524465906159E-02 a       271     0    14     1    11
  9.2161723158082451E-02 a       272     0    14     1    12
 -9.5863610946222089E-02 a       273     0    14     1    13
  1.0285839031956835E-01 a       274     0    14     1    14
 -6.8989589236247456E-02 a       275     0    14     1    15
  1.0171284376426459E-02 a       276     0    14     1    16
 -1.7744383497232424E-01 a       277     0    14     1    17
  3.9308967139759343E-01 a       278     0    14     1    18
  1.4594179011408426E-01 a       279     0    14     1    19
 -4.3959337892085695E-03 a       280     0    14     1    20
  2.2541030528304301E-01 a       281     0    15     1     1
 -4.1402510505286774E-02 a       282     0    15     1     2
  2.5557076643165716E-01 a       283     0    15     1     3
 -8.4273781222014552E-02 a       284     0    15     1     4
  1.2707973210188583E-01 a       285     0    15     1     5
 -1.3259240498477182E-01 a       286     0    15     1     6
 -2.8520995557628170E-01 a       287     0    15     1     7
 -1.4845930733347695E-01 a       288     0    15     1     8
 -2.5012733218444422E-01 a       289     0    15     1     9
  3.6288715680154300E-02 a       290     0    15     1    10
 -2.1142775114025647E-01 a       291     0    15     1    11
  1.8367010713788789E-01 a       292     0    15     1    12
  3.2034697186408656E-01 a       293     0    15     1    13
  6.8442106704712735E-02 a       294     0    15     1    14
  1.5592316040242382E-01 a       295     0    15     1    15
  2.0578698457533523E-01 a       296     0    15     1    16
 -1.9190701299304408E-01 a       297     0    15     1    17
  2.2978746382581065E-02 a       298     0    15     1    18
  8.1671008765160147E-02 a       299     0    15     1    19
 -2.5471045929012941E-02 a       300     0    15     1    20
 -2.2879881456035558E-01 a       301     0    16     1     1
  1.8034502032193458E-01 a       302     0    16     1     2
 -5.5342873029065565E-01 a       303     0    16     1     3
 -3.4196652067226918E-01 a       304     0    16     1     4
  8.3469881746167124E-02 a       305     0    16     1     5
 -3.5186318114905674E-01 a       306     0    16     1     6
  3.8151106088865627E-01 a       307     0    16     1     7
  7.7493209305092725E-01 a       308     0    16     1     8
  2.8365277827805419E-01 a       309     0    16     1     9
  4.3819051170199358E-01 a       310     0    16     1    10
  9.0108342016014656E-02 a       311     0    16     1    11
 -6.4289653468123442E-01 a       312     0    16     1    12
  2.1930373258422395E-01 a       313     0    16     1    13
 -3.5837687744174000E-02 a       314     0    16     1    14
  5.1239886868940647E-02 a       315     0    16     1    15
 -1.4682131979502167E-01 a       316     0    16     1    16
  2.0011187206259667E-01 a       317     0    16     1    17
 -2.3082193904129261E-01 a       318     0    16     1    18
 -1.8879215371803763E-02 a       319     0    16     1    19
 -5.8419483687304796E-01 a       320     0    16     1    20
 -9.1176642275452524E-02 a       321     0    17     1     1
 -5.6412101839654213E-02 a       322     0    17     1     2
  7.5519434422305493E-02 a       323     0    17     1     3
 -1.1527872544281030E-02 a       324     0    17     1     4
  8.6190930760283765E-02 a       325     0    17     1     5
 -1.0088270200765975E-01 a       326     0    17     1     6
 -3.5579240855648075E-01 a       327     0    17     1     7
 -1.1924142146813867E-01 a       328     0    17     1     8
  1.4104386972246588E-03 a       329     0    17     1     9
 -3.7667212503847740E-02 a       330     0    17     1    10
  1.5316077665788821E-01 a       331     0    17     1    11
  2.6096002334083556E-02 a       332     0    17     1    12
 -3.3217089472094924E-02 a       333     0    17     1    13
  1.0033309380925136E-01 a       334     0    17     1    14
 -2.4563468870911702E-02 a       335     0    17     1    15
  1.2589867547773914E-01 a       336     0    17     1    16
 -4.0241237381821789E-02 a       337     0    17     1    17
 -9.7304959147917619E-02 a       338     0    17     1    18
 -1.6368477007654345E-01 a       339     0    17     1    19
  1.7594947492909188E-01 a       340     0    17     1    20
 -1.3880768000754436E-02 a       341     0    18     1     1
  2.6422124381581480E-01 a       342     0    18     1     2
  2.8518792059255414E-02 a       343     0    18     1     3
 -2.6489147492221726E-02 a       344     0    18     1     4
  9.1985505525120859E-02 a       345     0    18     1     5
  4.4866553021493203E-03 a       346     0    18     1     6
 -2.9247373327346865E-01 a       347     0    18     1     7
 -1.4813038977703979E-01 a       348     0    18     1     8
 -2.0986722139899736E-01 a       349     0    18     1     9
 -3.2917908249550966E-02 a       350     0    18     1    10
 -1.0697160261499565E-01 a       351     0    18     1    11
  3.0511997552644932E-01 a       352     0    18     1    12
 -7.0011732523854314E-02 a       353     0    18     1    13
  1.4821916625020387E-01 a       354     0    18     1    14
  8.8152435330392118E-02 a       355     0    18     1    15
  8.6318426164501749E-02 a       356     0    18     1    16
 -3.2961305347653175E-01 a       357     0    18     1    17
 -1.0425134168806459E-02 a       358     0    18     1    18
  1.3167327943711132E-01 a       359     0    18     1    19
  2.7713695933275195E-01 a       360     0    18     1    20
  2.2433363187156277E-01 a       361     0    19     1     1
 -4.0042225396876685E-01 a       362     0    19     1     2
 -1.0782800288521334E-01 a       363     0    19     1     3
  4.8880759440374377E-01 a       364     0    19     1     4
 -3.2753475466852193E-02 a       365     0    19     1     5
  3.0571105127712583E-01 a       366     0    19     1     6
 -1.2382948495200839E-01 a       367     0    19     1     7
 -2.4893779826832518E-01 a       368     0    19     1     8
 -1.2197857968038570E-01 a       369     0    19     1     9
 -2.1724684323984911E-01 a       370     0    19     1    10
  4.4328017519001409E-02 a       371     0    19     1    11
  3.3560739366609853E-02 a       372     0    19     1    12
 -1.7741391505030103E-03 a       373     0    19     1    13
 -1.3342040427462698E-01 a       374     0    19     1    14
 -1.3812059829976811E-01 a       375     0    19     1    15
 -1.5161694466356682E-01 a       376     0    19     1    16
 -1.4866936174317008E-01 a       377     0    19     1    17
 -2.4470510280928548E-01 a       378     0    19     1    18
 -9.9551662308146813E-02 a       379     0    19     1    19
  9.0437258464639694E-02 a       380     0    19     1    20
  1.4851885379136778E-01 a       381     0    20     1     1
  1.5793589873170030E-01 a       382     0    20     1     2
  1.4278540723083771E-01 a       383     0    20     1     3
  6.0398225332310859E-02 a       384     0    20     1     4
 -1.0470386626851338E-01 a       385     0    20     1     5
  9.3444945200575238E-02 a       386     0    20     1     6
  1.8236992504667435E-01 a       387     0    20     1     7
  1.8372789073917286E-02 a       388     0    20     1     8
 -4.7539482722096425E-02 a       389     0    20     1     9
  9.4061078107576773E-02 a       390     0    20     1    10
 -2.1716882773234072E-01 a       391     0    20     1    11
  2.2138658635061079E-02 a       392     0    20     1    12
  2.5101866402472822E-01 a       393     0    20     1    13
 -2.9904979763325089E-02 a       394     0    20     1    14
 -2.1734362201704945E-02 a       395     0    20     1    15
 -6.7338844933116371E-02 a       396     0    20     1    16
  1.7981665154205831E-01 a       397     0    20     1    17
 -3.6814585800941291E-01 a       398     0    20     1    18
  1.3298852111164150E-01 a       399     0    20     1    19
 -1.9557873982953547E-01 a       400     0    20     1    20
 -1.1370405538794319E-01 a       401     0    21     1     1
 -1.0620520117593421E-01 a       402     0    21     1     2
  3.2720462625722502E-01 a       403     0    21     1     3
 -1.8396912589596259E-01 a       404     0    21     1     4
 -9.6395290045153792E-02 a       405     0    21     1     5
 -1.4748730386688524E-01 a       406     0    21     1     6
 -1.0567738251152339E-01 a       407     0    21     1     7
 -1.0216061550951182E-01 a       408     0    21     1     8
 -6.9838229362878521E-02 a       409     0    21     1     9
  5.1675178344232853E-02 a       410     0    21     1    10
 -1.5238424542625603E-01 a       411     0    21     1    11
  7.7486825497082010E-02 a       412     0    21     1    12
  8.8723175653975084E-02 a       413     0    21     1    13
 -5.0312543812604277E-02 a       414     0    21     1    14
  1.3836693598765346E-01 a       415     0    21     1    15
  1.8011830871007303E-01 a       416     0    21     1    16
  1.5475870789330690E-01 a       417     0    21     1    17
 -4.5087579681353657E-02 a       418     0    21     1    18
 -8.7196613015538285E-02 a       419     0    21     1    19
  4.6232804820666863E-02 a       420     0    21     1    20
 -1.6424257492132735E-01 a       421     0    22     1     1
 -8.4958757268056961E-02 a       422     0    22     1     2
  7.9469848421332825E-02 a       423     0    22     1     3
 -2.4367940138494421E-01 a       424     0    22     1     4
 -3.1041455189131403E-03 a       425     0    22     1     5
  1.8726076968747361E-02 a       426     0    22     1     6
  1.0292378419095456E-01 a       427     0    22     1     7
  2.0753541141969545E-01 a       428     0    22     1     8
  2.1920963359672242E-02 a       429     0    22     1     9
  1.2068739771453629E-01 a       430     0    22     1    10
  6.8811958683525201E-02 a       431     0    22     1    11
 -1.2738141841354109E-01 a       432     0    22     1    12
 -1.5670637242994617E-01 a       433     0    22     1    13
  1.7505999304825356E-01 a       434     0    22     1    14
 -8.7739972220686330E-02 a       435     0    22     1    15
 -1.5734281906972872E-01 a       436     0    22     1    16
  2.0916035449644665E-01 a       437     0    22     1    17
  9.5498296972261545E-02 a       438     0    22     1    18
 -1.3361092307437719E-01 a       439     0    22     1    19
 -3.0397841119103358E-01 a       440     0    22     1    20
 -6.5165011490884328E-02 a       441     0    23     1     1
 -2.2421103823072569E-01 a       442     0    23     1     2
 -2.9481478594932065E-01 a       443     0    23     1     3
 -6.1646252890846354E-02 a       444     0    23     1     4
 -7.1789443552238421E-03 a       445     0    23     1     5
 -9.7510086753686248E-02 a       446     0    23     1     6
 -1.8312723321494268E-01 a       447     0    23     1     7
  1.4456053700736439E-02 a       448     0    23     1     8
  6.8668440351447882E-02 a       449     0    23     1     9
 -6.3715451416055585E-02 a       450     0    23     1    10
  1.1298452645494633E-01 a       451     0    23     1    11
 -8.2517995895141222E-02 a       452     0    23     1    12
 -2.7800897559588419E-02 a       453     0    23     1    13
 -1.9415401850738645E-02 a       454     0    23     1    14
  2.4003060067717786E-02 a       455     0    23     1    15
 -2.1763589629198435E-03 a       456     0    23     1    16
 -1.8143585212831120E-01 a       457     0    23     1    17
  9.0905118684797157E-02 a       458     0    23     1    18
  1.0307860049584401E-01 a       459     0    23     1    19
  1.9241137591565668E-01 a       460     0    23     1    20
  7.1998971271540618E-02 a       461     0    24     1     1
  3.5465110374575126E-01 a       462     0    24     1     2
  3.9910443668942364E-02 a       463     0    24     1     3
 -1.8047053070135970E-02 a       464     0    24     1     4
  1.7008575191363190E-01 a       465     0    24     1     5
 -1.2053964959601467E-01 a       466     0    24     1     6
 -4.2049148097559705E-02 a       467     0    24     1     7
 -1.1592685748925859E-01 a       468     0    24     1     8
  2.0932521674228391E-02 a       469     0    24     1     9
  5.6190426037022352E-03 a       470     0    24     1    10
 -9.1352456330920206E-02 a       471     0    24     1    11
  1.7382528083039067E-01 a       472     0    24     1    12
  1.2288097953211492E-01 a       473     0    24     1    13
  1.4905758017440049E-02 a       474     0    24     1    14
  8.9369990323057549E-02 a       475     0    24     1    15
  1.0238742832506351E-01 a       476     0    24     1    16
 -1.2988696097007627E-01 a       477     0    24     1    17
  4.0889366589248166E-01 a       478     0    24     1    18
  2.9381131197590826E-01 a       479     0    24     1    19
  2.5781156162154373E-01 a       480     0    24     1    20
  8.9580379740039476E-02 a       481     0    25     1     1
 -8.2248016968498566E-02 a       482     0    25     1     2
 -1.2332078790239023E-01 a       483     0    25     1     3
  1.7451873248064809E-01 a       484     0    25     1     4
 -7.5033327898402530E-02 a       485     0    25     1     5
  8.4600943432360742E-02 a       486     0    25     1     6
 -7.1459344532284794E-02 a       487     0    25     1     7
 -2.5885360600609236E-02 a       488     0    25     1     8
  2.8824787978563442E-04 a       489     0    25     1     9
 -1.0889713453422188E-01 a       490     0    25     1    10
  5.9320795093747845E-02 a       491     0    25     1    11
  2.9614207966762934E-02 a       492     0    25     1    12
  6.7720563251315438E-02 a       493     0    25     1    13
 -1.3112534732080947E-01 a       494     0    25     1    14
 -1.1507066320670691E-02 a       495     0    25     1    15
  1.2898939388928218E-01 a       496     0    25     1    16
 -1.0883056561999059E-01 a       497     0    25     1    17
  9.7838605618763536E-02 a       498     0    25     1    18
  1.9101934808423637E-01 a       499     0    25     1    19
  6.5014148014752984E-02 a       500     0    25     1    20
 -5.7952656721814252E-02 a       501     0    26     1     1
  1.3204629655250430E-01 a       502     0    26     1     2
  2.5598980556357009E-01 a       503     0    26     1     3
  9.7461003328573412E-03 a       504     0    26     1     4
 -5.3384232142469363E-03 a       505     0    26     1     5
  8.0668323741596160E-02 a       506     0    26     1     6
  1.1571482507035907E-01 a       507     0    26     1     7
  1.2911940690174512E-02 a       508     0    26     1     8
 -3.2288279535945923E-02 a       509     0    26     1     9
  1.7371251100475733E-02 a       510     0    26     1    10
  6.2287067878619507E-03 a       511     0    26     1    11
  8.3041859146626762E-02 a       512     0    26     1    12
 -1.1116376892635878E-01 a       513     0    26     1    13
  2.9577742593809301E-02 a       514     0    26     1    14
 -4.7476794082935175E-02 a       515     0    26     1    15
  1.0851500165924811E-01 a       516     0    26     1    16
  3.5325252979258891E-02 a       517     0    26     1    17
  2.9600874270625666E-01 a       518     0    26     1    18
 -1.0324619398136779E-01 a       519     0    26     1    19
 -7.3581719514829586E-02 a       520     0    26     1    20
 -3.8430660710575375E-02 a       521     0    27     1     1
 -9.6329964886235506E-02 a       522     0    27     1     2
 -5.0400794689116131E-02 a       523     0    27     1     3
 -6.8486366050236780E-02 a       524     0    27     1     4
 -7.4946631762762839E-02 a       525     0    27     1     5
 -1.6129990935792302E-02 a       526     0    27     1     6
 -2.3120310976182952E-02 a       527     0    27     1     7
  4.2803153418515053E-03 a       528     0    27     1     8
 -1.1873735766268418E-02 a       529     0    27     1     9
 -1.4311083749809956E-02 a       530     0    27     1    10
 -2.3083824138515136E-02 a       531     0    27     1    11
 -2.5555284302843349E-02 a       532     0    27     1    12
  5.9154967685065380E-03 a       533     0    27     1    13
 -1.1924766784800074E-02 a       534     0    27     1    14
  2.8976761864857745E-02 a       535     0    27     1    15
  4.5066626990064647E-02 a       536     0    27     1    16
  8.8150579482029714E-02 a       537     0    27     1    17
 -3.1582326195594201E-01 a       538     0    27     1    18
 -1.0333278651898241E-01 a       539     0    27     1    19
 -6.4107784132572440E-02 a       540     0    27     1    20
 -9.9411806876628345E-02 a       541     0    28     1     1
 -1.2863394215619864E-01 a       542     0    28     1     2
  1.9749886509828987E-01 a       543     0    28     1     3
 -5.6485048534986544E-02 a       544     0    28     1     4
  2.2041469063777613E-02 a       545     0    28     1     5
  2.7188190303622097E-02 a       546     0    28     1     6
  7.6776508929140034E-03 a       547     0    28     1     7
  1.5022735250613737E-02 a       548     0    28     1     8
 -4.2820305900139266E-03 a       549     0    28     1     9
  2.2167173253354773E-02 a       550     0    28     1    10
 -3.3661433853739493E-02 a       551     0    28     1    11
 -6.9362841363624417E-02 a       552     0    28     1    12
 -1.4337786435746183E-01 a       553     0    28     1    13
  7.6858304225130056E-02 a       554     0    28     1    14
 -4.1882506378937930E-02 a       555     0    28     1    15
 -1.5430934836965771E-01 a       556     0    28     1    16
 -2.1238117360225586E-02 a       557     0    28     1    17
 -1.2760208804774517E-01 a       558     0    28     1    18
 -1.9565975928594648E-01 a       559     0    28     1    19
 -7.1153597898770335E-02 a       560     0    28     1    20
  4.2887110410054143E-02 a       561     0    29     1     1
 -2.6332672302834797E-02 a       562     0    29     1     2
 -1.0263588733063710E-01 a       563     0    29     1     3
  7.1803800111853028E-03 a       564     0    29     1     4
  4.5960661128349706E-02 a       565     0    29     1     5
 -3.7379204877625125E-02 a       566     0    29     1     6
  1.7965513826504249E-02 a       567     0    29     1     7
 -1.4566535298492429E-02 a       568     0    29     1     8
  4.4116587007638789E-03 a       569     0    29     1     9
  1.6211041369568451E-02 a       570     0    29     1    10
  4.0035782525147789E-03 a       571     0    29     1    11
 -4.5697174392659572E-02 a       572     0    29     1    12
 -1.0346222262819111E-02 a       573     0    29     1    13
 -9.5641548324549208E-04 a       574     0    29     1    14
  2.7047137131689828E-02 a       575     0    29     1    15
 -9.5883135624940538E-02 a       576     0    29     1    16
 -2.6885430618347462E-02 a       577     0    29     1    17
 -1.4140719555689860E-01 a       578     0    29     1    18
 -4.1742050847981174E-02 a       579     0    29     1    19
  3.2791882232790073E-02 a       580     0    29     1    20
 -5.9102742311357911E-03 a       581     0    30     1     1
  1.2985790035557421E-01 a       582     0    30     1     2
  2.1766311651790476E-02 a       583     0    30     1     3
  3.0891422274326147E-02 a       584     0    30     1     4
  6.6699682109071470E-02 a       585     0    30     1     5
 -5.7887471887887100E-02 a       586     0    30     1     6
  3.0965304815299927E-02 a       587     0    30     1     7
 -7.4834750998456516E-03 a       588     0    30     1     8
  8.3869973862701497E-03 a       589     0    30     1     9
  8.1851942359242411E-02 a       590     0    30     1    10
 -2.6089692282350030E-02 a       591     0    30     1    11
  3.8545388388969211E-02 a       592     0    30     1    12
  8.3910252442911420E-02 a       593     0    30     1    13
 -4.0622485317543967E-03 a       594     0    30     1    14
  1.3709257082247317E-02 a       595     0    30     1    15
 -9.9882074532521656E-03 a       596     0    30     1    16
  3.3097046915400795E-02 a       597     0    30     1    17
  6.6366767300484644E-02 a       598     0    30     1    18
  1.9563702365289753E-01 a       599     0    30     1    19
  1.4251814745988731E-01 a       600     0    30     1    20
 -6.0385840185416728E-01 a       601     0    31     1     1
  4.4059296084550359E-01 a       602     0    31     1     2
 -2.1997877227588927E-01 a       603     0    31     1     3
  2.8494217965226204E-01 a       604     0    31     1     4
 -7.6932826853431413E-01 a       605     0    31     1     5
  3.6113589962616144E-01 a       606     0    31     1     6
  1.7091144538353023E-01 a       607     0    31     1     7
  7.6633139961148633E-01 a       608     0    31     1     8
  3.0270798222593859E-01 a       609     0    31     1     9
  8.0994194100547836E-03 a       610     0    31     1    10
 -5.1007629645559149E-01 a       611     0    31     1    11
 -1.6613569427170080E-01 a       612     0    31     1    12
  7.3611314241398484E-01 a       613     0    31     1    13
  7.1189707276992120E-01 a       614     0    31     1    14
  5.0751708784223426E-01 a       615     0    31     1    15
 -1.0544171513091151E-02 a       616     0    31     1    16
  1.0041176632907092E-01 a       617     0    31     1    17
 -2.4430693407217353E-02 a       618     0    31     1    18
 -3.3873455080450955E-02 a       619     0    31     1    19
 -2.5167309864441545E-01 a       620     0    31     1    20
  2.6111026421156130E-01 a       621     0    32     1     1
  2.2502402108261824E-01 a       622     0    32     1     2
  7.6057874913376622E-02 a       623     0    32     1     3
  1.8323074117523552E-01 a       624     0    32     1     4
  1.4771428778757478E-02 a       625     0    32     1     5
 -2.5598988185844714E-02 a       626     0    32     1     6
  1.8510863252929333E-01 a       627     0    32     1     7
  2.5414307546276510E-01 a       628     0    32     1     8
 -4.2705249040048493E-02 a       629     0    32     1     9
  8.4215418320362251E-02 a       630     0    32     1    10
  9.5203821700354380E-02 a       631     0    32     1    11
  8.3565759579676727E-02 a       632     0    32     1    12
 -5.6431183619787620E-02 a       633     0    32     1    13
 -1.4414661458182862E-01 a       634     0    32     1    14
  4.1273700969926594E-02 a       635     0    32     1    15
 -1.2170406731105950E-01 a       636     0    32     1    16
  7.0602472486022971E-02 a       637     0    32     1    17
 -1.1106925548923988E-01 a       638     0    32     1    18
  5.3708977624011618E-02 a       639     0    32     1    19
  7.3510210266938700E-02 a       640     0    32     1    20
  1.6725709538926950E-01 a       641     0    33     1     1
 -2.4876893904829969E-01 a       642     0    33     1     2
 -9.6198333241074973E-03 a       643     0    33     1     3
 -7.3500852144017170E-01 a       644     0    33     1     4
  1.5572858468735393E-02 a       645     0    33     1     5
 -3.8189757395196761E-01 a       646     0    33     1     6
  3.3726544699059535E-01 a       647     0    33     1     7
 -4.8495550746798782E-01 a       648     0    33     1     8
 -7.1039871644119845E-01 a       649     0    33     1     9
 -8.5357436315835689E-01 a       650     0    33     1    10
  1.1036885663202355E-01 a       651     0    33     1    11
  1.9442495934802947E-01 a       652     0    33     1    12
 -3.8849964787374547E-01 a       653     0    33     1    13
 -6.2112497284114565E-01 a       654     0    33     1    14
 -1.8577067216696247E-02 a       655     0    33     1    15
 -7.4626738172811058E-01 a       656     0    33     1    16
  6.2083756780440358E-01 a       657     0    33     1    17
 -7.7114896246553669E-02 a       658     0    33     1    18
 -1.3805897655749538E-01 a       659     0    33     1    19
  5.9036485527137950E-01 a       660     0    33     1    20
 -2.9869938269771440E-01 a       661     0    34     1     1
  4.7956258017057836E-02 a       662     0    34     1     2
 -2.9425953049600223E-01 a       663     0    34     1     3
  2.8049104841237382E-01 a       664     0    34     1     4
 -1.2767835936427629E-01 a       665     0    34     1     5
  1.4577681446112531E-01 a       666     0    34     1     6
 -2.7588824819696971E-02 a       667     0    34     1     7
 -9.4405696540125497E-02 a       668     0    34     1     8
  1.8923593237745442E-01 a       669     0    34     1     9
  7.5031009429463599E-02 a       670     0    34     1    10
  4.2648051777069311E-02 a       671     0    34     1    11
  3.2567204096577811E-02 a       672     0    34     1    12
  1.1530649767699584E-01 a       673     0    34     1    13
 -2.1360240058085300E-01 a       674     0    34     1    14
 -4.0190506390450936E-02 a       675     0    34     1    15
 -1.0283085274034848E-01 a       676     0    34     1    16
 -1.8423306514062651E-01 a       677     0    34     1    17
  5.1118976910605615E-02 a       678     0    34     1    18
  1.6197634424326834E-01 a       679     0    34     1    19
  1.7687080174720995E-01 a       680     0    34     1    20
 -2.1143708517412776E-01 a       681     0    35     1     1
 -7.8077194160301264E-03 a       682     0    35     1     2
  6.1082725825456423E-02 a       683     0    35     1     3
 -2.8846133978557877E-02 a       684     0    35     1     4
  8.2498607967182683E-02 a       685     0    35     1     5
 -5.3640713524014713E-02 a       686     0    35     1     6
 -1.0847488969843505E-01 a       687     0    35     1     7
 -3.6841004235276575E-01 a       688     0    35     1     8
  1.2528140858516390E-01 a       689     0    35     1     9
 -1.4196881071605248E-02 a       690     0    35     1    10
 -6.2327306465788837E-02 a       691     0    35     1    11
  2.6758343701187088E-02 a       692     0    35     1    12
 -3.4594285976606978E-02 a       693     0    35     1    13
 -2.4801172799394414E-01 a       694     0    35     1    14
  1.2054153080276508E-01 a       695     0    35     1    15
  2.6649174050053537E-01 a       696     0    35     1    16
 -1.5869008493490436E-01 a       697     0    35     1    17
  8.4709023622877772E-02 a       698     0    35     1    18
 -2.5150579279114509E-02 a       699     0    35     1    19
  6.1663092278657877E-02 a       700     0    35     1    20
 -3.8641780338591943E-04 a       701     0    36     1     1
  5.8542807465918900E-01 a       702     0    36     1     2
  2.2920291406002030E-01 a       703     0    36     1     3
  1.4555521598744472E-01 a       704     0    36     1     4
  1.2320998042456073E-01 a       705     0    36     1     5
  2.1954224291157931E-01 a       706     0    36     1     6
 -9.1549996542018591E-02 a       707     0    36     1     7
 -3.0638884606316617E-02 a       708     0    36     1     8
  7.2818178834624925E-01 a       709     0    36     1     9
  6.9118915214944912E-02 a       710     0    36     1    10
 -3.5415835488012493E-01 a       711     0    36     1    11
 -9.8902459803648909E-02 a       712     0    36     1    12
  3.0435264419280090E-02 a       713     0    36     1    13
 -2.8731130067621624E-01 a       714     0    36     1    14
  8.9877461721972793E-02 a       715     0    36     1    15
  3.8425226040791999E-01 a       716     0    36     1    16
 -1.9495838851317318E-01 a       717     0    36     1    17
  6.5726342373530297E-02 a       718     0    36     1    18
 -2.9543250104759233E-01 a       719     0    36     1    19
 -2.5338861978545640E-01 a       720     0    36     1    20
  8.8923525883094967E-01 a       721     0    37     1     1
  6.4895801117074503E-01 a       722     0    37     1     2
 -6.3087249437649184E-01 a       723     0    37     1     3
  1.3189215090647302E-01 a       724     0    37     1     4
  7.5765581427514467E-02 a       725     0    37     1     5
 -8.1488857200066989E-02 a       726     0    37     1     6
 -2.7486788464105877E-01 a       727     0    37     1     7
 -2.9831531046640731E-03 a       728     0    37     1     8
 -2.6171962527894466E-01 a       729     0    37     1     9
  8.9003796332847096E-01 a       730     0    37     1    10
 -1.4616409354338455E-01 a       731     0    37     1    11
  3.9102765721334121E-01 a       732     0    37     1    12
 -9.7842631300013694E-01 a       733     0    37     1    13
 -3.0902815440400677E-01 a       734     0    37     1    14
 -2.2658610598129808E-01 a       735     0    37     1    15
  7.9872606571073992E-02 a       736     0    37     1    16
 -3.2970863178479159E-01 a       737     0    37     1    17
  7.6613992998421642E-05 a       738     0    37     1    18
  5.1438335642143296E-01 a       739     0    37     1    19
  1.8605961901420340E-01 a       740     0    37     1    20
  1.1887327064585229E-01 a       741     0    38     1     1
  2.3425856506870721E-01 a       742     0    38     1     2
  2.6549651627602427E-01 a       743     0    38     1     3
  5.7925275214948974E-02 a       744     0    38     1     4
  1.7079397285423945E-01 a       745     0    38     1     5
  5.2655534332701689E-02 a       746     0    38     1     6
  2.0866090961574593E-01 a       747     0    38     1     7
 -2.1898578130620078E-01 a       748     0    38     1     8
 -1.1149104841449613E-02 a       749     0    38     1     9
 -3.4570038440144044E-02 a       750     0    38     1    10
 -5.3638763281414301E-02 a       751     0    38     1    11
 -1.2319147033773346E-01 a       752     0    38     1    12
  5.7329414345669627E-02 a       753     0    38     1    13
  1.6438410049933030E-01 a       754     0    38     1    14
 -4.3030766430524364E-02 a       755     0    38     1    15
 -1.0078573815271089E-01 a       756     0    38     1    16
  1.6820667333427580E-01 a       757     0    38     1    17
  5.6291518059402558E-02 a       758     0    38     1    18
 -7.3112975618053092E-02 a       759     0    38     1    19
 -1.9616483745805521E-01 a       760     0    38     1    20
 -9.6577285332315632E-02 a       761     0    39     1     1
 -6.2901027667833698E-01 a       762     0    39     1     2
  3.7335482679057819E-01 a       763     0    39     1     3
  3.8277269890810961E-01 a       764     0    39     1     4
  9.4828421716424971E-02 a       765     0    39     1     5
  2.7239132776562847E-01 a       766     0    39     1     6
  4.1254514380073776E-01 a       767     0    39     1     7
 -4.5332583935650955E-01 a       768     0    39     1     8
  1.6230582574090471E+00 a       769     0    39     1     9
 -5.1369413343447368E-01 a       770     0    39     1    10
  1.1107591094446669E+00 a       771     0    39     1    11
 -1.3561442070327279E+00 a       772     0    39     1    12
  6.9237067732220581E-01 a       773     0    39     1    13
  1.0830464549700156E+00 a       774     0    39     1    14
  2.8282809114343493E-01 a       775     0    39     1    15
  6.6930383470605836E-01 a       776     0    39     1    16
  4.6086164206410790E-02 a       777     0    39     1    17
  2.3071394659130132E-01 a       778     0    39     1    18
 -2.1739437418080790E-01 a       779     0    39     1    19
  3.9867225026717301E-01 a       780     0    39     1    20
 -2.1352428955031613E-02 a       781     0    40     1     1
 -3.4119288864046476E-01 a       782     0    40     1     2
 -1.9548184878412411E-01 a       783     0    40     1     3
 -3.3154469883480647E-01 a       784     0    40     1     4
 -7.0478313039407908E-02 a       785     0    40     1     5
 -8.1731863419590128E-02 a       786     0    40     1     6
 -2.5605233872647942E-01 a       787     0    40     1     7
 -1.6168063175452649E-02 a       788     0    40     1     8
  2.6133436509892260E-02 a       789     0    40     1     9
  3.3967436968510283E-02 a       790     0    40     1    10
 -1.9635443146579232E-01 a       791     0    40     1    11
 -1.6056475037986223E-01 a       792     0    40     1    12
 -2.7348778737385099E-01 a       793     0    40     1    13
  4.9740148556052813E-02 a       794     0    40     1    14
 -8.9429521243006987E-02 a       795     0    40     1    15
 -1.8781230052799688E-01 a       796     0    40     1    16
  8.5716326610655369E-02 a       797     0    40     1    17
  8.4831751726917773E-02 a       798     0    40     1    18
  2.3286732217164124E-01 a       799     0    40     1    19
 -2.2737516394676077E-01 a       800     0    40     1    20
  6.1867475428375750E-02 a       801     0    41     1     1
 -1.1650757383287449E-01 a       802     0    41     1     2
 -7.3794314835356006E-02 a       803     0    41     1     3
 -1.0661882248564586E-01 a       804     0    41     1     4
 -5.9271812463547568E-02 a       805     0    41     1     5
  5.0521519758939953E-02 a       806     0    41     1     6
  2.1969349935295110E-01 a       807     0    41     1     7
  4.3255343866819401E-01 a       808     0    41     1     8
 -1.4641457880191389E-01 a       809     0    41     1     9
  1.0151556406862619E-02 a       810     0    41     1    10
  1.5389331084355279E-01 a       811     0    41     1    11
 -8.0380296941752749E-02 a       812     0    41     1    12
 -1.4949141418499048E-01 a       813     0    41     1    13
  2.8367418567772618E-01 a       814     0    41     1    14
 -1.8696710666501687E-01 a       815     0    41     1    15
 -1.6787362115579549E-01 a       816     0    41     1    16
 -2.7631157278022934E-02 a       817     0    41     1    17
  1.0279016467398415E-01 a       818     0    41     1    18
  4.8487254634993343E-03 a       819     0    41     1    19
  2.9008885246832504E-02 a       820     0    41     1    20
  6.7293916449162564E-02 a       821     0    42     1     1
 -6.1850453281181539E-01 a       822     0    42     1     2
 -1.2835263669685990E-01 a       823     0    42     1     3
 -2.6920107555480194E-01 a       824     0    42     1     4
 -3.4258748178425691E-01 a       825     0    42     1     5
 -6.5524902982135835E-01 a       826     0    42     1     6
  4.2103111739907939E-02 a       827     0    42     1     7
  3.0466351828620447E-01 a       828     0    42     1     8
 -9.6592591510278214E-01 a       829     0    42     1     9
  4.4574936444938425E-04 a       830     0    42     1    10
  2.2535538740896685E-01 a       831     0    42     1    11
  6.0333746796706299E-02 a       832     0    42     1    12
  4.0643397029529946E-03 a       833     0    42     1    13
  2.3957128920068768E-01 a       834     0    42     1    14
  1.5285105095637874E-01 a       835     0    42     1    15
 -2.7090173501141168E-01 a       836     0    42     1    16
 -3.2957856904754995E-01 a       837     0    42     1    17
  3.2146360374215238E-01 a       838     0    42     1    18
  2.9983034079827875E-01 a       839     0    42     1    19
 -2.2660498000823170E-01 a       840     0    42     1    20
 -1.7698595575680273E-01 a       841     0    43     1     1
 -1.4709382924889472E-01 a       842     0    43     1     2
  1.0181029511573842E-02 a       843     0    43     1     3
  4.1319476914251885E-01 a       844     0    43     1     4
  1.4911167461731521E-03 a       845     0    43     1     5
 -4.6512292041425936E-02 a       846     0    43     1     6
  2.4937418092326422E-01 a       847     0    43     1     7
  3.8280660571643033E-01 a       848     0    43     1     8
 -1.0715802370332705E+00 a       849     0    43     1     9
  1.8736735612967889E-01 a       850     0    43     1    10
  2.8969628470953735E-02 a       851     0    43     1    11
  2.1925918239289013E-01 a       852     0    43     1    12
  4.1282826743644002E-02 a       853     0    43     1    13
 -1.4530453224401524E-01 a       854     0    43     1    14
 -7.2069482074723565E-02 a       855     0    43     1    15
  1.1075148784499800E-01 a       856     0    43     1    16
 -3.2990714603131976E-01 a       857     0    43     1    17
 -5.6999977230404530E-01 a       858     0    43     1    18
 -1.4921066084985432E-01 a       859     0    43     1    19
 -2.0250185243307994E-01 a       860     0    43     1    20
 -3.3169915748714265E-02 a       861     0    44     1     1
  7.1490631565433588E-02 a       862     0    44     1     2
  3.0575226709378235E-03 a       863     0    44     1     3
  1.1442297035603306E-02 a       864     0    44     1     4
  5.5261965524236109E-02 a       865     0    44     1     5
 -4.0643146701098823E-02 a       866     0    44     1     6
 -3.5229091400749112E-02 a       867     0    44     1     7
 -1.2018483532097921E-01 a       868     0    44     1     8
  3.1996106289997876E-02 a       869     0    44     1     9
 -1.9834078086517423E-01 a       870     0    44     1    10
 -5.8481809609790547E-02 a       871     0    44     1    11
 -1.2175029256671147E-01 a       872     0    44     1    12
  7.7250950357850692E-02 a       873     0    44     1    13
 -6.4555720643014819E-02 a       874     0    44     1    14
  8.0244375039009164E-02 a       875     0    44     1    15
  6.0963347358588223E-02 a       876     0    44     1    16
 -1.8111412444306019E-01 a       877     0    44     1    17
 -5.7470465386876363E-02 a       878     0    44     1    18
 -1.5049475838566290E-01 a       879     0    44     1    19
 -2.9720036535649308E-01 a       880     0    44     1    20
  2.7725075992677767E-01 a       881     0    45     1     1
  3.1845503395853081E-01 a       882     0    45     1     2
  1.7568692093104882E-01 a       883     0    45     1     3
  1.5615343308324650E-01 a       884     0    45     1     4
  5.5566549163205892E-01 a       885     0    45     1     5
  2.3943478012173832E-02 a       886     0    45     1     6
 -1.9362587092362107E-01 a       887     0    45     1     7
 -2.0223933235689306E-01 a       888     0    45     1     8
  1.1110397442120918E+00 a       889     0    45     1     9
 -1.5040852505311134E-01 a       890     0    45     1    10
 -1.3138156982369653E-01 a       891     0    45     1    11
 -5.8801137574839113E-01 a       892     0    45     1    12
  1.1255733641201514E-01 a       893     0    45     1    13
 -1.3580417782997489E-01 a       894     0    45     1    14
  3.2562123160444614E-02 a       895     0    45     1    15
 -6.2335987874759180E-01 a       896     0    45     1    16
  1.3022370691667176E-01 a       897     0    45     1    17
  6.9230436702396467E-02 a       898     0    45     1    18
  1.1298177673294017E-01 a       899     0    45     1    19
 -1.1767444914988072E-01 a       900     0    45     1    20
  1.3543037272169281E-01 a       901     0    46     1     1
  1.4150834873117504E-01 a       902     0    46     1     2
  1.6776941941443868E-01 a       903     0    46     1     3
 -6.6558661579567593E-02 a       904     0    46     1     4
  1.9909370273045110E-01 a       905     0    46     1     5
 -1.3122750025374297E-01 a       906     0    46     1     6
  2.4803906535279249E-01 a       907     0    46     1     7
  3.7888311504501976E-02 a       908     0    46     1     8
 -1.5426029170318292E-01 a       909     0    46     1     9
  6.1604590548580605E-02 a       910     0    46     1    10
  7.9144047819461744E-02 a       911     0    46     1    11
 -4.0204875166538548E-02 a       912     0    46     1    12
  4.1555298684426346E-02 a       913     0    46     1    13
  1.5390367655112558E-01 a       914     0    46     1    14
  6.2155710488498737E-02 a       915     0    46     1    15
  4.6946235304547099E-02 a       916     0    46     1    16
 -5.4392449387986083E-02 a       917     0    46     1    17
  2.9130821941641782E-01 a       918     0    46     1    18
 -1.9586002541160921E-01 a       919     0    46     1    19
  2.4108356490799610E-02 a       920     0    46     1    20
  2.3251011979247449E-01 a       921     0    47     1     1
  2.0694247975018093E-01 a       922     0    47     1     2
 -7.5623205630424026E-03 a       923     0    47     1     3
 -1.0031007776331001E-02 a       924     0    47     1     4
 -1.0187930752816565E-01 a       925     0    47     1     5
 -1.0442295118600158E-01 a       926     0    47     1     6
  1.1015127429616492E-01 a       927     0    47     1     7
  9.6933110290652394E-03 a       928     0    47     1     8
 -9.0415403815320081E-02 a       929     0    47     1     9
  1.4771875636416890E-02 a       930     0    47     1    10
  3.0000066575460223E-02 a       931     0    47     1    11
 -4.4082110254485239E-02 a       932     0    47     1    12
  2.4918621060235374E-02 a       933     0    47     1    13
  1.7174666793570670E-01 a       934     0    47     1    14
  8.6337437647480808E-02 a       935     0    47     1    15
 -7.6150204928777360E-02 a       936     0    47     1    16
  5.3252892195496176E-03 a       937     0    47     1    17
  2.2883116878498180E-01 a       938     0    47     1    18
 -3.4541595214403209E-01 a       939     0    47     1    19
  1.0435320052655806E-02 a       940     0    47     1    20
 -1.0974276458781772E-01 a       941     0    48     1     1
 -1.7037261847486845E-01 a       942     0    48     1     2
  2.5472928706242354E-01 a       943     0    48     1     3
 -1.5972236558015029E-01 a       944     0    48     1     4
 -2.4631482880784683E-01 a       945     0    48     1     5
 -8.4311608299008529E-03 a       946     0    48     1     6
  5.7554858705463431E-02 a       947     0    48     1     7
  4.4841852347506782E-02 a       948     0    48     1     8
 -4.2801892516877144E-01 a       949     0    48     1     9
  4.7079262668743641E-02 a       950     0    48     1    10
 -1.9261342693120526E-03 a       951     0    48     1    11
  1.6507033604262666E-01 a       952     0    48     1    12
 -6.7417961261299231E-02 a       953     0    48     1    13
  1.0849198845088728E-01 a       954     0    48     1    14
 -1.5204754834645912E-02 a       955     0    48     1    15
  1.7719801588870687E-01 a       956     0    48     1    16
  5.3624715280772582E-02 a       957     0    48     1    17
  4.1446109158915889E-02 a       958     0    48     1    18
 -2.8256864617187544E-02 a       959     0    48     1    19
  1.5017293059666726E-02 a       960     0    48     1    20
 -3.4454679883209699E-01 a       961     0    49     1     1
 -1.0791537804990524E-01 a       962     0    49     1     2
 -1.8067995180246582E-01 a       963     0    49     1     3
  1.1047634716528024E-01 a       964     0    49     1     4
 -4.7089650560547085E-03 a       965     0    49     1     5
  2.6020850779342225E-01 a       966     0    49     1     6
  2.6763392215767057E-01 a       967     0    49     1     7
  1.2554648336257176E-01 a       968     0    49     1     8
 -4.0096400872072430E-01 a       969     0    49     1     9
 -4.7626040286754279E-01 a       970     0    49     1    10
  3.7200018375595911E-01 a       971     0    49     1    11
 -2.4322497485533023E-01 a       972     0    49     1    12
 -7.4366980566287724E-02 a       973     0    49     1    13
  2.4335258680343930E-01 a       974     0    49     1    14
 -1.8878104492283537E-01 a       975     0    49     1    15
 -3.1332413473243159E-01 a       976     0    49     1    16
  2.0925361594914782E-01 a       977     0    49     1    17
 -2.3155254100303341E-01 a       978     0    49     1    18
 -2.8013039866540446E-01 a       979     0    49     1    19
 -1.2428508030297283E-01 a       980     0    49     1    20
 -1.4943548338436416E-01 a       981     0    50     1     1
  2.6897380779871898E-02 a       982     0    50     1     2
 -3.4279179822258360E-01 a       983     0    50     1     3
  3.3381840745528519E-03 a       984     0    50     1     4
 -9.2013288298221904E-02 a       985     0    50     1     5
  3.8553980572052365E-02 a       986     0    50     1     6
 -2.3975710657369659E-02 a       987     0    50     1     7
  1.1426529656718062E-01 a       988     0    50     1     8
 -1.1085161301855665E-02 a       989     0    50     1     9
  8.5466841487697232E-02 a       990     0    50     1    10
  1.1016985514156286E-01 a       991     0    50     1    11
  1.6040411323340589E-01 a       992     0    50     1    12
 -1.2230699193252099E-01 a       993     0    50     1    13
 -6.4601277498493967E-02 a       994     0    50     1    14
 -5.6120931683804338E-02 a       995     0    50     1    15
  1.8818135907002240E-01 a       996     0    50     1    16
  3.1205931965788310E-02 a       997     0    50     1    17
  2.0918745792097185E-01 a       998     0    50     1    18
  4.1513658080569345E-02 a       999     0    50     1    19
  2.5642126674253002E-01 a      1000     0    50     1    20
 -8.0246152883550836E-01 a      1001     0    51     1     1
  5.7703763738994363E-01 a      1002     0    51     1     2
  6.0487809920910507E-01 a      1003     0    51     1     3
  1.0165022931315337E-01 a      1004     0    51     1     4
 -1.4094808503463341E-01 a      1005     0    51     1     5
 -9.3345952634748930E-02 a      1006     0    51     1     6
  9.7448070955466232E-02 a      1007     0    51     1     7
  1.5990120617720659E-02 a      1008     0    51     1     8
 -4.1558308000290083E-02 a      1009     0    51     1     9
  5.7205698356058909E-01 a      1010     0    51     1    10
 -5.9491141928379976E-01 a      1011     0    51     1    11
  1.6952131816524847E+00 a      1012     0    51     1    12
  9.1427116861153748E-02 a      1013     0    51     1    13
 -5.6177450532897277E-01 a      1014     0    51     1    14
  8.1893579812963552E-02 a      1015     0    51     1    15
  7.2052820230604797E-01 a      1016     0    51     1    16
  1.3951270196589802E-01 a      1017     0    51     1    17
 -5.4189399936509362E-02 a      1018     0    51     1    18
  1.2639882260128866E-02 a      1019     0    51     1    19
 -1.5377758121382684E-01 a      1020     0    51     1    20
  1.4824696506595533E-01 a      1021     0    52     1     1
 -1.9809729516908772E-01 a      1022     0    52     1     2
 -8.1711548918772650E-02 a      1023     0    52     1     3
  6.9999333797555671E-02 a      1024     0    52     1     4
  1.4582166549269618E-01 a      1025     0    52     1     5
  2.9061207112724176E-02 a      1026     0    52     1     6
  2.6826525547044505E-01 a      1027     0    52     1     7
  2.5921298780807522E-01 a      1028     0    52     1     8
 -1.5517346889104411E-01 a      1029     0    52     1     9
 -2.3903458797805371E-01 a      1030     0    52     1    10
 -3.2244324677377624E-02 a      1031     0    52     1    11
 -3.5474133925894595E-02 a      1032     0    52     1    12
  1.7065622272976585E-02 a      1033     0    52     1    13
 -1.2065526849169166E-01 a      1034     0    52     1    14
  4.3591866649604294E-01 a      1035     0    52     1    15
  2.4799738383886891E-04 a      1036     0    52     1    16
  4.1144028390840681E-01 a      1037     0    52     1    17
 -2.6134807028283920E-02 a      1038     0    52     1    18
 -7.4950704750280178E-02 a      1039     0    52     1    19
 -2.1538953809957306E-01 a      1040     0    52     1    20
  2.4588706824504963E-02 a      1041     0    53     1     1
  5.2985865209864223E-02 a      1042     0    53     1     2
  1.5462832433650048E-01 a      1043     0    53     1     3
  5.6500805225425096E-02 a      1044     0    53     1     4
 -6.3524321238166814E-02 a      1045     0    53     1     5
 -1.1975217738793672E-02 a      1046     0    53     1     6
 -1.9455369290811431E-01 a      1047     0    53     1     7
 -1.8019354844602695E-01 a      1048     0    53     1     8
  1.1411315513408950E-01 a      1049     0    53     1     9
 -4.8768657807926767E-02 a      1050     0    53     1    10
 -6.9762698637654427E-02 a      1051     0    53     1    11
  8.5813447478185020E-02 a      1052     0    53     1    12
  1.3420519289607705E-01 a      1053     0    53     1    13
 -1.7176562893155725E-01 a      1054     0    53     1    14
  8.7250421387877627E-02 a      1055     0    53     1    15
  9.2316984879888042E-02 a      1056     0    53     1    16
  2.7848125198195621E-02 a      1057     0    53     1    17
 -1.8676099662326140E-02 a      1058     0    53     1    18
  1.8804800766102428E-02 a      1059     0    53     1    19
 -6.0287979707225249E-02 a      1060     0    53     1    20
  1.7169003660193283E-01 a      1061     0    54     1     1
  3.1658773656319172E-01 a      1062     0    54     1     2
  2.1514960966739968E-01 a      1063     0    54     1     3
  7.8137739625874281E-02 a      1064     0    54     1     4
  1.8800307448402306E-01 a      1065     0    54     1     5
  4.0267430701395512E-01 a      1066     0    54     1     6
 -6.8746996318222245E-02 a      1067     0    54     1     7
 -1.0147683286789884E-01 a      1068     0    54     1     8
  4.1309326154715309E-01 a      1069     0    54     1     9
 -7.0471056146384145E-02 a      1070     0    54     1    10
 -6.3296465120985995E-02 a      1071     0    54     1    11
 -3.3001781508790733E-02 a      1072     0    54     1    12
 -2.0478751314423801E-01 a      1073     0    54     1    13
 -1.4414060979371249E-01 a      1074     0    54     1    14
 -2.6269345496979662E-01 a      1075     0    54     1    15
 -4.0418263350143528E-02 a      1076     0    54     1    16
  8.5699608014401865E-02 a      1077     0    54     1    17
 -1.0030851150641446E-01 a      1078     0    54     1    18
 -1.2515060472160183E-01 a      1079     0    54     1    19
  1.8991777853484632E-01 a      1080     0    54     1    20
 -9.1371063593052171E-01 b      1081     1     1
  3.6468008903799481E-01 b      1082     1     2
 -1.5551655879477133E+00 b      1083     1     3
  3.4929701123609208E-01 b      1084     1     4
 -4.8266537430807216E-01 b      1085     1     5
  5.6634516081001440E-01 b      1086     1     6
  8.6031402987862937E-02 b      1087     1     7
  1.4671540021585755E-01 b      1088     1     8
  8.6184891573180356E-01 b      1089     1     9
 -2.3936304503379646E-01 b      1090     1    10
 -7.9992987367573409E-01 b      1091     1    11
 -1.1212456718128641E+00 b      1092     1    12
 -1.3271069527252561E+00 b      1093     1    13
  9.9659041574439033E-01 b      1094     1    14
 -2.0735503765133526E-01 b      1095     1    15
 -7.1199277370777370E-01 b      1096     1    16
 -6.6357425049297447E-01 b      1097     1    17
  1.3741529448460701E+00 b      1098     1    18
 -1.0289279924016734E+00 b      1099     1    19
  1.0403777915457628E+00 b      1100     1    20
 -8.9831858262775299E-01 a      1101     1     1     2     1
 -5.4505422081357102E-01 a      1102     1     1     2     2
  9.9922659072724920E-02 a      1103     1     1     2     3
 -5.7514939610087346E-01 a      1104     1     1     2     4
 -5.2268513737694111E-01 a      1105     1     1     2     5
  3.6299640872191841E-01 a      1106     1     1     2     6
 -7.9178399165894908E-01 a      1107     1     1     2     7
  8.9205473837016616E-02 a      1108     1     1     2     8
  3.3116664781855437E-01 a      1109     1     1     2     9
  6.3562342015063422E-01 a      1110     1     1     2    10
 -3.8241573113838967E-01 a      1111     1     1     2    11
 -4.5848766172574190E-01 a      1112     1     1     2    12
  5.5310271522260290E-01 a      1113     1     1     2    13
 -1.6027250660108780E-01 a      1114     1     1     2    14
 -4.2263491941652370E-01 a      1115     1     1     2    15
 -6.8880912879674860E-01 a      1116     1     1     2    16
 -5.4600702077812258E-01 a      1117     1     1     2    17
 -1.5142155562940179E-01 a      1118     1     1     2    18
 -5.5250826730547753E-01 a      1119     1     1     2    19
  7.4396052959048845E-02 a      1120     1     1     2    20
  6.1098464360973270E-01 a      1121     1     2     2     1
 -2.8263461361757680E-01 a      1122     1     2     2     2
  5.9430103101815623E-01 a      1123     1     2     2     3
  4.0735196533137624E-01 a      1124     1     2     2     4
  4.3199209659469351E-01 a      1125     1     2     2     5
 -4.7274793999735554E-01 a      1126     1     2     2     6
  4.6663593790425945E-01 a      1127     1     2     2     7
  1.0170265492790570E-01 a      1128     1     2     2     8
 -1.0110679426642213E-01 a      1129     1     2     2     9
  3.0191158789031641E-01 a      1130     1     2     2    10
  5.7438978346398925E-02 a      1131     1     2     2    11
 -7.3422021925449735E-02 a      1132     1     2     2    12
 -1.5678922195847828E-01 a      1133     1     2     2    13
 -4.8979030656643024E-02 a      1134     1     2     2    14
 -1.8873208990394402E-01 a      1135     1     2     2    15
  3.5920900411118656E-01 a      1136     1     2     2    16
 -6.8038334849128537E-02 a      1137     1     2     2    17
  2.7226452415874836E-01 a      1138     1     2     2    18
 -1.1629918231481325E-01 a      1139     1     2     2    19
  6.8436579416981302E-01 a      1140     1     2     2    20
  6.9358124299157642E-01 a      1141     1     3     2     1
  8.7866392698077855E-01 a      1142     1     3     2     2
  1.9639448484979474E-01 a      1143     1     3     2     3
 -4.8281151803386607E-01 a      1144     1     3     2     4
 -1.0855679422295343E-01 a      1145     1     3     2     5
 -3.9649587725759883E-01 a      1146     1     3     2     6
 -8.7105286128518145E-02 a      1147     1     3     2     7
 -5.6060105059283538E-01 a      1148     1     3     2     8
  3.4749313149200595E-01 a      1149     1     3     2     9
  1.4337216936066841E-01 a      1150     1     3     2    10
  4.5582776460798424E-01 a      1151     1     3     2    11
  1.9541960639768083E-01 a      1152     1     3     2    12
  2.6635733293518665E-01 a      1153     1     3     2    13
  1.6419800691826864E-01 a      1154     1     3     2    14
  1.5874259305997832E-01 a      1155     1     3     2    15
  1.6079993358989370E-02 a      1156     1     3     2    16
  3.7210545646909016E-01 a      1157     1     3     2    17
  4.9269428654226599E-01 a      1158     1     3     2    18
 -7.2324489034107133E-03 a      1159     1     3     2    19
  4.3590901609664577E-02 a      1160     1     3     2    20
  4.0966389765414951E-01 a      1161     1     4     2     1
  3.6591762023398466E-01 a      1162     1     4     2     2
  8.9031798817434227E-02 a      1163     1     4     2     3
 -3.2218687266778068E-01 a      1164     1     4     2     4
 -6.5046882255792610E-02 a      1165     1     4     2     5
  3.8604428506471261E-01 a      1166     1     4     2     6
  1.5529520082369899E-01 a      1167     1     4     2     7
  6.5946937251641313E-01 a      1168     1     4     2     8
  2.8458977680893721E-01 a      1169     1     4     2     9
  1.7191351451279646E-01 a      1170     1     4     2    10
  4.6312696189701241E-01 a      1171     1     4     2    11
  1.6704849736307162E-01 a      1172     1     4     2    12
 -5.3257041681759831E-01 a      1173     1     4     2    13
  4.0327280533049253E-01 a      1174     1     4     2    14
  5.4963698575306652E-01 a      1175     1     4     2    15
  6.2038814810650333E-01 a      1176     1     4     2    16
 -2.1399556863652264E-01 a      1177     1     4     2    17
  9.8961698563983597E-02 a      1178     1     4     2    18
  1.0317986776848298E+00 a      1179     1     4     2    19
  5.5613744044501368E-01 a      1180     1     4     2    20
 -3.8774741687430403E-01 a      1181     1     5     2     1
  1.4116947799110238E-01 a      1182     1     5     2     2
 -2.2439158063932091E-01 a      1183     1     5     2     3
 -2.9004377960192358E-03 a      1184     1     5     2     4
 -4.9097509363172676E-01 a      1185     1     5     2     5
 -1.1849971052344825E-02 a      1186     1     5     2     6
 -2.6735161932095763E-01 a      1187     1     5     2     7
 -7.0903923649121858E-01 a      1188     1     5     2     8
 -2.5246567919664120E-01 a      1189     1     5     2     9
 -5.5839570980889752E-01 a      1190     1     5     2    10
 -4.4109157349193950E-01 a      1191     1     5     2    11
  5.7139171308247472E-01 a      1192     1     5     2    12
  7.8942545269416846E-03 a      1193     1     5     2    13
 -1.8603390978161327E-01 a      1194     1     5     2    14
 -3.4143247725418774E-01 a      1195     1     5     2    15
 -1.3180193925254458E-01 a      1196     1     5     2    16
  1.4701076960718554E-01 a      1197     1     5     2    17
 -1.2225859571626217E-01 a      1198     1     5     2    18
  2.0548669681605528E-01 a      1199     1     5     2    19
 -2.6916226110173129E-02 a      1200     1     5     2    20
 -3.5613221310409354E-01 a      1201     1     6     2     1
  1.9786639639032494E-01 a      1202     1     6     2     2
  4.1017566449187864E-01 a      1203     1     6     2     3
 -5.8629687667694230E-01 a      1204     1     6     2     4
 -4.0115429772071581E-01 a      1205     1     6     2     5
 -7.7494483497854638E-01 a      1206     1     6     2     6
 -2.1119234533014256E-01 a      1207     1     6     2     7
 -4.4843175218695636E-01 a      1208     1     6     2     8
  5.8098604617674332E-01 a      1209     1     6     2     9
  5.5562766363690719E-01 a      1210     1     6     2    10
 -1.0172108420587582E-01 a      1211     1     6     2    11
 -5.5808031334956010E-01 a      1212     1     6     2    12
 -2.8423829270954987E-01 a      1213     1     6     2    13
 -2.6235331124169825E-01 a      1214     1     6     2    14
  1.3729960632793052E-02 a      1215     1     6     2    15
  4.1314815330812110E-01 a      1216     1     6     2    16
 -3.7796749328185753E-01 a      1217     1     6     2    17
  7.8889807590930250E-01 a      1218     1     6     2    18
 -2.0987955284916601E-01 a      1219     1     6     2    19
 -4.3556171524687287E-01 a      1220     1     6     2    20
  4.7477831202996867E-01 a      1221     1     7     2     1
  1.1241534235355728E-01 a      1222     1     7     2     2
 -3.1912107104305570E-01 a      1223     1     7     2     3
 -4.4011834713547976E-01 a      1224     1     7     2     4
  6.4034038138480154E-01 a      1225     1     7     2     5
  4.6137387169414601E-01 a      1226     1     7     2     6
 -3.8499448740150682E-01 a      1227     1     7     2     7
 -4.2941319331090244E-01 a      1228     1     7     2     8
  1.1018093227366323E+00 a      1229     1     7     2     9
 -1.8708406391291635E-01 a      1230     1     7     2    10
 -3.7403789303353607E-01 a      1231     1     7     2    11
 -2.6610597088725219E-01 a      1232     1     7     2    12
 -6.2405472680518853E-02 a      1233     1     7     2    13
 -2.2845049618832927E-01 a      1234     1     7     2    14
  4.9696966828473538E-01 a      1235     1     7     2    15
  6.9400221513215316E-02 a      1236     1     7     2    16
  8.9758046879351100E-02 a      1237     1     7     2    17
 -9.2541918788670713E-02 a      1238     1     7     2    18
  3.4815109180113391E-01 a      1239     1     7     2    19
 -6.6627841359046180E-01 a      1240     1     7     2    20
  3.0761890802616304E-01 a      1241     1     8     2     1
 -4.7635418952780356E-01 a      1242     1     8     2     2
  3.0474699834407604E-01 a      1243     1     8     2     3
 -1.0083862522955593E+00 a      1244     1     8     2     4
 -4.7081992108943804E-01 a      1245     1     8     2     5
 -2.6401435904223641E-01 a      1246     1     8     2     6
  4.6742951352199019E-01 a      1247     1     8     2     7
 -2.4759267121163422E-01 a      1248     1     8     2     8
 -4.2753984049620403E-01 a      1249     1     8     2     9
 -2.8346630256298355E-01 a      1250     1     8     2    10
 -1.8450816796333858E-01 a      1251     1     8     2    11
  3.5819748257639801E-03 a      1252     1     8     2    12
  2.6730279336522544E-01 a      1253     1     8     2    13
  1.0741523054024373E+00 a      1254     1     8     2    14
 -1.0183626868695915E-01 a      1255     1     8     2    15
 -3.6275379270538211E-01 a      1256     1     8     2    16
 -1.1839354835688895E-01 a      1257     1     8     2    17
 -3.7037405336350743E-01 a      1258     1     8     2    18
 -1.6226648366890345E-01 a      1259     1     8     2    19
 -4.3311317461202237E-01 a      1260     1     8     2    20
  3.7415280514948468E-01 a      1261     1     9     2     1
  3.0185505657150619E-01 a      1262     1     9     2     2
 -1.0318518895840636E+00 a      1263     1     9     2     3
  1.1309699534032626E-01 a      1264     1     9     2     4
  4.5476277429417389E-01 a      1265     1     9     2     5
 -4.1130014314609320E-01 a      1266     1     9     2     6
 -5.8965668763791390E-01 a      1267     1     9     2     7
 -4.7104058743067539E-01 a      1268     1     9     2     8
  7.3478414126587299E-01 a      1269     1     9     2     9
 -2.0802352267870430E-01 a      1270     1     9     2    10
 -5.8126994485209549E-01 a      1271     1     9     2    11
 -3.2658070879641915E-01 a      1272     1     9     2    12
  9.2789480579467887E-01 a      1273     1     9     2    13
 -8.2636613493714439E-01 a      1274     1     9     2    14
  3.6874361136386846E-01 a      1275     1     9     2    15
 -5.6498251193380356E-01 a      1276     1     9     2    16
 -1.8123181478431530E-01 a      1277     1     9     2    17
  3.9808177164834124E-01 a      1278     1     9     2    18
 -9.9011594646641732E-01 a      1279     1     9     2    19
  7.1372381823939735E-01 a      1280     1     9     2    20
 -6.9207339568250958E-01 a      1281     1    10     2     1
 -6.1854485034268991E-01 a      1282     1    10     2     2
  7.5471807025621152E-01 a      1283     1    10     2     3
  3.9906225986810212E-01 a      1284     1    10     2     4
 -1.8582634978935722E-01 a      1285     1    10     2     5
 -3.3135317213269966E-01 a      1286     1    10     2     6
 -6.4441017763647623E-01 a      1287     1    10     2     7
  5.2140486842152750E-02 a      1288     1    10     2     8
 -8.5856170395812625E-01 a      1289     1    10     2     9
 -6.4375531190614302E-02 a      1290     1    10     2    10
 -1.9246754337846111E-01 a      1291     1    10     2    11
  4.5915076910335736E-02 a      1292     1    10     2    12
 -2.3970250312201249E-01 a      1293     1    10     2    13
  1.7970425374743576E-01 a      1294     1    10     2    14
 -2.6710821721876277E-01 a      1295     1    10     2    15
 -5.5500691818564218E-01 a      1296     1    10     2    16
 -6.4383842570224703E-01 a      1297     1    10     2    17
  3.4558201564130048E-01 a      1298     1    10     2    18
 -5.4808397571592049E-01 a      1299     1    10     2    19
  5.8291176279344925E-01 a      1300     1    10     2    20
 -6.3171316385078413E-01 a      1301     1    11     2     1
  6.7435379976776366E-01 a      1302     1    11     2     2
 -1.0869366488576469E-01 a      1303     1    11     2     3
  4.5804074133785025E-02 a      1304     1    11     2     4
 -5.5695871922988105E-01 a      1305     1    11     2     5
  3.7906356351109122E-01 a      1306     1    11     2     6
  4.4020918287001826E-01 a      1307     1    11     2     7
 -1.3345826122360704E-01 a      1308     1    11     2     8
 -3.6758892323630643E-01 a      1309     1    11     2     9
 -3.7373867092420116E-01 a      1310     1    11     2    10
  6.1294933585069489E-01 a      1311     1    11     2    11
 -6.7006182382826396E-01 a      1312     1    11     2    12
 -3.7755079523881567E-02 a      1313     1    11     2    13
  3.1544202575747810E-01 a      1314     1    11     2    14
 -1.0637301102567585E-01 a      1315     1    11     2    15
 -6.1643528373145476E-02 a      1316     1    11     2    16
  5.5102187440148398E-01 a      1317     1    11     2    17
 -5.0805137670075529E-01 a      1318     1    11     2    18
 -2.7344491501193230E-01 a      1319     1    11     2    19
  2.9746953746280153E-01 a      1320     1    11     2    20
 -2.9152254728466925E-01 a      1321     1    12     2     1
 -1.4308036328637694E-01 a      1322     1    12     2     2
  5.4523052953689533E-01 a      1323     1    12     2     3
 -7.0122460286306393E-02 a      1324     1    12     2     4
  7.5429685310151109E-02 a      1325     1    12     2     5
  5.4380389641282789E-01 a      1326     1    12     2     6
 -6.6525291177600643E-01 a      1327     1    12     2     7
  6.8678032586357096E-01 a      1328     1    12     2     8
  3.8870623419680000E-01 a      1329     1    12     2     9
 -4.0114398981507232E-01 a      1330     1    12     2    10
  5.2004926446522062E-02 a      1331     1    12     2    11
  3.6955542902630872E-01 a      1332     1    12     2    12
  3.2149989003868079E-01 a      1333     1    12     2    13
 -3.1060935810681384E-02 a      1334     1    12     2    14
 -3.6770329970041749E-01 a      1335     1    12     2    15
  6.7758354942312560E-01 a      1336     1    12     2    16
 -4.6340454608835807E-01 a      1337     1    12     2    17
 -2.4548073370115908E-01 a      1338     1    12     2    18
  1.0328874070666989E-01 a      1339     1    12     2    19
  2.5650111101020839E-01 a      1340     1    12     2    20
 -2.8394757495743123E-01 a      1341     1    13     2     1
  2.9662506956829587E-01 a      1342     1    13     2     2
 -5.8741677457972041E-01 a      1343     1    13     2     3
 -2.3570486646260713E-01 a      1344     1    13     2     4
  5.7887619273412894E-01 a      1345     1    13     2     5
 -6.1992427906708403E-01 a      1346     1    13     2     6
  7.3536769211988862E-01 a      1347     1    13     2     7
 -8.3993836588874882E-01 a      1348     1    13     2     8
  2.5638675270842820E-01 a      1349     1    13     2     9
  4.4779933832753771E-01 a      1350     1    13     2    10
  2.1109819216980052E-01 a      1351     1    13     2    11
  5.7282080905743837E-01 a      1352     1    13     2    12
 -6.5187577805054708E-01 a      1353     1    13     2    13
 -6.1724981690415193E-01 a      1354     1    13     2    14
  3.1735879252068422E-01 a      1355     1    13     2    15
 -2.1502177443270468E-01 a      1356     1    13     2    16
  3.4454467537903810E-01 a      1357     1    13     2    17
  1.2079778650738715E-01 a      1358     1    13     2    18
  6.0433688847458270E-02 a      1359     1    13     2    19
  8.3467436402086106E-02 a      1360     1    13     2    20
  4.7545131582621603E-01 a      1361     1    14     2     1
  4.3647720532365575E-01 a      1362     1    14     2     2
 -5.9945906159780141E-02 a      1363     1    14     2     3
  2.6869593813973452E-01 a      1364     1    14     2     4
 -6.2921305083766499E-01 a      1365     1    14     2     5
 -4.5728183474520179E-02 a      1366     1    14     2     6
  6.1933791806078586E-01 a      1367     1    14     2     7
  1.6533530628995352E-01 a      1368     1    14     2     8
  4.0393374550586802E-01 a      1369     1    14     2     9
 -1.3999580618284683E-02 a      1370     1    14     2    10
  7.3705476771137657E-01 a      1371     1    14     2    11
  3.3707605116080680E-01 a      1372     1    14     2    12
 -1.9445788096422387E-01 a      1373     1    14     2    13
  4.3849984185625812E-01 a      1374     1    14     2    14
 -4.9037459960397106E-01 a      1375     1    14     2    15
 -3.4761694530191323E-01 a      1376     1    14     2    16
 -1.1420048487842654E-01 a      1377     1    14     2    17
 -5.5791835378464261E-01 a      1378     1    14     2    18
 -1.9459712890049780E-01 a      1379     1    14     2    19
  4.9965832594891552E-01 a      1380     1    14     2    20
  2.0235821696366924E-01 a      1381     1    15     2     1
  6.7301175328670670E-01 a      1382     1    15     2     2
  7.3305722947355445E-01 a      1383     1    15     2     3
  1.7547655893416106E-01 a      1384     1    15     2     4
  2.6639393646199938E-01 a      1385     1    15     2     5
  2.7877986702268237E-02 a      1386     1    15     2     6
 -2.0695380325163346E-01 a      1387     1    15     2     7
  7.4795682234282804E-02 a      1388     1    15     2     8
  4.1393235545441787E-01 a      1389     1    15     2     9
  3.4213325053080051E-01 a      1390     1    15     2    10
 -2.6302894171110780E-01 a      1391     1    15     2    11
 -2.8250444755667176E-01 a      1392     1    15     2    12
 -1.9058115942361345E-01 a      1393     1    15     2    13
  2.3515360986825196E-01 a      1394     1    15     2    14
 -3.0347077054590404E-01 a      1395     1    15     2    15
  4.0720162824934208E-01 a      1396     1    15     2    16
 -2.2051593060264096E-01 a      1397     1    15     2    17
 -6.4097534851040042E-02 a      1398     1    15     2    18
  4.3107387054392843E-01 a      1399     1    15     2    19
 -1.0012284832784935E-02 a      1400     1    15     2    20
 -7.4178317511061034E-02 a      1401     1    16     2     1
 -6.5691477268027298E-01 a      1402     1    16     2     2
 -5.0539765713616691E-01 a      1403     1    16     2     3
  1.3391008254548095E-01 a      1404     1    16     2     4
 -5.2606547301897799E-01 a      1405     1    16     2     5
  2.3226208225980285E-01 a      1406     1    16     2     6
 -6.9877854630395886E-01 a      1407     1    16     2     7
 -3.8059585353998704E-01 a      1408     1    16     2     8
 -1.7907831288580883E-01 a      1409     1    16     2     9
 -3.5973196963774902E-04 a      1410     1    16     2    10
 -3.1966592391065440E-01 a      1411     1    16     2    11
  5.6174460665830317E-01 a      1412     1    16     2    12
  2.8821739905031596E-01 a      1413     1    16     2    13
 -5.2685105815219468E-01 a      1414     1    16     2    14
  2.9842486529368006E-01 a      1415     1    16     2    15
 -3.5279341804366576E-01 a      1416     1    16     2    16
 -6.4859373932920683E-01 a      1417     1    16     2    17
 -2.2464649337385387E-01 a      1418     1    16     2    18
 -5.5989474699392983E-01 a      1419     1    16     2    19
  3.1458003341980484E-01 a      1420     1    16     2    20
  2.1425974636742220E-01 a      1421     1    17     2     1
 -2.8738233572631178E-01 a      1422     1    17     2     2
 -3.8416515275859814E-01 a      1423     1    17     2     3
  2.4208327669927565E-01 a      1424     1    17     2     4
 -1.0779906065250092E-01 a      1425     1    17     2     5
  3.4638954561092777E-01 a      1426     1    17     2     6
 -1.9337677953163834E-01 a      1427     1    17     2     7
  6.1067046660149649E-01 a      1428     1    17     2     8
  2.9091316140105733E-01 a      1429     1    17     2     9
  2.8057152221143800E-01 a      1430     1    17     2    10
  2.8992704959443788E-01 a      1431     1    17     2    11
 -1.7816169196391750E-02 a      1432     1    17     2    12
  5.5135598477550407E-01 a      1433     1    17     2    13
 -4.8769457227734059E-01 a      1434     1    17     2    14
 -1.2364180400764280E-01 a      1435     1    17     2    15
 -2.4309365956641618E-01 a      1436     1    17     2    16
 -1.9100180119446220E-01 a      1437     1    17     2    17
 -3.5287360803711382E-01 a      1438     1    17     2    18
 -4.0306337716491963E-01 a      1439     1    17     2    19
  8.9446150063241969E-02 a      1440     1    17     2    20
 -5.8616460894686773E-01 a      1441     1    18     2     1
 -2.6469151236966404E-01 a      1442     1    18     2     2
 -3.8870746267064732E-01 a      1443     1    18     2     3
 -8.1214459717165532E-01 a      1444     1    18     2     4
 -1.3336160917458212E-01 a      1445     1    18     2     5
 -2.6072935766705430E-02 a      1446     1    18     2     6
  1.4725547827461524E-01 a      1447     1    18     2     7
  7.7773239238717229E-01 a      1448     1    18     2     8
 -1.0383592315497796E+00 a      1449     1    18     2     9
 -4.8529942242519236E-01 a      1450     1    18     2    10
 -3.2443567599246909E-01 a      1451     1    18     2    11
  3.4418861791693783E-01 a      1452     1    18     2    12
  1.4644765706898560E-01 a      1453     1    18     2    13
  2.2867546195413099E-01 a      1454     1    18     2    14
 -1.2098794276598199E-01 a      1455     1    18     2    15
 -1.0062200674197777E-01 a      1456     1    18     2    16
 -2.5992041866081950E-01 a      1457     1    18     2    17
 -5.3484583971136986E-02 a      1458     1    18     2    18
  2.2242935941227407E-01 a      1459     1    18     2    19
  3.8764718574029750E-01 a      1460     1    18     2    20
  4.9530733069779603E-01 a      1461     1    19     2     1
  1.4332529460148583E-01 a      1462     1    19     2     2
 -5.1052335436081264E-01 a      1463     1    19     2     3
 -3.9717313464994880E-01 a      1464     1    19     2     4
 -1.0398532308608113E-01 a      1465     1    19     2     5
  4.9686412254877843E-01 a      1466     1    19     2     6
 -2.7540012707855142E-02 a      1467     1    19     2     7
 -2.7173458744800966E-01 a      1468     1    19     2     8
 -9.2581108627724396E-02 a      1469     1    19     2     9
 -2.0179010166773084E-01 a      1470     1    19     2    10
 -3.3543182342405664E-02 a      1471     1    19     2    11
 -5.6755543310663636E-01 a      1472     1    19     2    12
 -6.0463180050423293E-01 a      1473     1    19     2    13
  2.9980914547500103E-03 a      1474     1    19     2    14
  9.1700430255520007E-03 a      1475     1    19     2    15
  7.3713210983319699E-01 a      1476     1    19     2    16
  1.9193318030623510E-01 a      1477     1    19     2    17
 -4.2418030974807180E-01 a      1478     1    19     2    18
  6.1457168760657366E-01 a      1479     1    19     2    19
 -5.9199950652307307E-02 a      1480     1    19     2    20
  6.5461608618561151E-01 a      1481     1    20     2     1
  8.9933934167536655E-01 a      1482     1    20     2     2
 -6.6241634368644586E-01 a      1483     1    20     2     3
 -2.9036439730191771E-01 a      1484     1    20     2     4
  1.0762369423812033E-01 a      1485     1    20     2     5
  3.7246093816793818E-01 a      1486     1    20     2     6
  1.3583388614217057E-01 a      1487     1    20     2     7
 -7.2995699239994838E-01 a      1488     1    20     2     8
  1.3471739164592855E+00 a      1489     1    20     2     9
  8.5604383325273681E-01 a      1490     1    20     2    10
 -6.9935284097701622E-01 a      1491     1    20     2    11
  4.6993168021798176E-01 a      1492     1    20     2    12
  1.2579464710334298E-01 a      1493     1    20     2    13
 -3.1819303986287156E-01 a      1494     1    20     2    14
 -2.6207994533051576E-01 a      1495     1    20     2    15
  7.4536150918267333E-02 a      1496     1    20     2    16
  5.1176865857324083E-01 a      1497     1    20     2    17
 -2.9682797111338283E-01 a      1498     1    20     2    18
 -1.2368077340301213E-01 a      1499     1    20     2    19
  3.5850634299662643E-01 a      1500     1    20     2    20
 -5.5112896039492032E-01 b      1501     2     1
 -1.0576971502790893E+00 b      1502     2     2
 -1.4701754537376919E+00 b      1503     2     3
  2.7076911947982851E-01 b      1504     2     4
  1.4254177095230700E+00 b      1505     2     5
  1.2667845393471464E+00 b      1506     2     6
 -1.4911546961793107E+00 b      1507     2     7
 -1.1501432050961087E+00 b      1508     2     8
 -6.8404668216399167E-01 b      1509     2     9
  1.3700254864860684E+00 b      1510     2    10
 -9.9260374695674258E-01 b      1511     2    11
  1.0178791025553473E+00 b      1512     2    12
  1.3128643346552671E+00 b      1513     2    13
 -1.0277703502967270E+00 b      1514     2    14
  8.0019033561408370E-01 b      1515     2    15
 -1.3797635586068953E+00 b      1516     2    16
 -1.0158160086150263E+00 b      1517     2    17
 -8.9877366690735816E-01 b      1518     2    18
  8.5943599210013588E-01 b      1519     2    19
  1.4897119799771428E+00 b      1520     2    20
 -9.2095800680438836E-02 a      1521     2     1     3     1
  3.2322442266376511E-01 a      1522     2     2     3     1
  3.7219533650373132E-01 a      1523     2     3     3     1
 -6.5653041948202553E-02 a      1524     2     4     3     1
  2.7841763367032035E-01 a      1525     2     5     3     1
 -1.1105988816251429E+00 a      1526     2     6     3     1
 -5.6111693176002553E-01 a      1527     2     7     3     1
  2.5508418146578515E-01 a      1528     2     8     3     1
  1.9981742610545961E-01 a      1529     2     9     3     1
 -1.4200811641490121E-01 a      1530     2    10     3     1
 -5.5800074361433660E-01 a      1531     2    11     3     1
  4.1950536906362960E-02 a      1532     2    12     3     1
 -6.5602813805452365E-01 a      1533     2    13     3     1
  1.1899554501078108E-01 a      1534     2    14     3     1
  3.9815955456439428E-01 a      1535     2    15     3     1
  1.0459377878106910E+00 a      1536     2    16     3     1
 -6.4641939197392351E-01 a      1537     2    17     3     1
 -1.0326947788625109E+00 a      1538     2    18     3     1
  2.0902930038978190E-01 a      1539     2    19     3     1
 -8.0086518190953748E-01 a      1540     2    20     3     1
 -1.5925440139255218E-01 b      1541     3     1
