################################################################################
# Neural network connection values (weights and biases).
################################################################################
# Col  Name       Description
################################################################################
# 1    connection Neural network connection value.
# 2    t          Connection type (a = weight, b = bias).
# 3    index      Index enumerating weights.
# 4    l_s        Starting point layer (end point layer for biases).
# 5    n_s        Starting point neuron in starting layer (end point neuron for biases).
# 6    l_e        End point layer.
# 7    n_e        End point neuron in end layer.
################################################################################
#                      1 2         3     4     5     6     7
#             connection t     index   l_s   n_s   l_e   n_e
############################################################
 -5.2912317337028536E-01 a         1     0     1     1     1
 -3.4238755576145019E-01 a         2     0     1     1     2
 -2.9658779289542314E-01 a         3     0     1     1     3
  5.4606509573474356E-02 a         4     0     1     1     4
 -1.4429754303854081E-01 a         5     0     1     1     5
  8.4993079803219385E-01 a         6     0     1     1     6
  6.4396825889522030E-02 a         7     0     1     1     7
 -2.7930413175086054E-02 a         8     0     1     1     8
  3.9371531251010450E-01 a         9     0     1     1     9
  1.3594857693646023E-01 a        10     0     1     1    10
  2.8257849378428240E-01 a        11     0     1     1    11
 -4.1962672554762004E-01 a        12     0     1     1    12
  3.0440998227033195E-01 a        13     0     1     1    13
 -7.4840766138863302E-01 a        14     0     1     1    14
  2.2186661056540551E+00 a        15     0     1     1    15
 -2.0373465091400408E-01 a        16     0     1     1    16
  5.3874146799923484E-01 a        17     0     1     1    17
  2.3837400358478697E-01 a        18     0     1     1    18
 -6.5586318386853382E-01 a        19     0     1     1    19
 -6.2866311316531598E-01 a        20     0     1     1    20
 -1.3305171896117485E-01 a        21     0     2     1     1
 -1.7653226483488004E-02 a        22     0     2     1     2
  3.8415151779529692E-02 a        23     0     2     1     3
 -6.2625973919146732E-02 a        24     0     2     1     4
  2.6881516795263366E-01 a        25     0     2     1     5
  5.7469145132923664E-02 a        26     0     2     1     6
 -6.8629669563479200E-03 a        27     0     2     1     7
  6.8696950918543651E-02 a        28     0     2     1     8
 -6.2221372117511609E-02 a        29     0     2     1     9
 -8.6344936052080531E-02 a        30     0     2     1    10
  1.3755299263232414E-02 a        31     0     2     1    11
  9.4734874120188411E-02 a        32     0     2     1    12
  8.8045625685535516E-03 a        33     0     2     1    13
  3.7194609374792240E-03 a        34     0     2     1    14
 -1.0218303207575356E-01 a        35     0     2     1    15
  7.9163628583091644E-02 a        36     0     2     1    16
  6.3041634177789532E-02 a        37     0     2     1    17
  4.2096064448983311E-02 a        38     0     2     1    18
  5.6496959382369288E-02 a        39     0     2     1    19
 -1.7602893339817221E-02 a        40     0     2     1    20
 -1.3037077913945511E-01 a        41     0     3     1     1
  5.7897521929655041E-02 a        42     0     3     1     2
 -7.4725831718655013E-04 a        43     0     3     1     3
  9.0192240701583645E-02 a        44     0     3     1     4
  2.2888013484517764E-01 a        45     0     3     1     5
 -7.0813023320855040E-02 a        46     0     3     1     6
 -1.4443421025745796E-02 a        47     0     3     1     7
  1.3769454000080877E-01 a        48     0     3     1     8
 -1.1542176333746756E-01 a        49     0     3     1     9
 -1.0875802281729556E-01 a        50     0     3     1    10
 -1.0312007410970941E-02 a        51     0     3     1    11
 -6.0752319160686158E-02 a        52     0     3     1    12
 -9.8119431674759242E-02 a        53     0     3     1    13
  8.2719792833892844E-02 a        54     0     3     1    14
  1.3322635455644735E-01 a        55     0     3     1    15
 -1.3513270965662602E-01 a        56     0     3     1    16
  8.7980889339956805E-02 a        57     0     3     1    17
 -1.7683095497196294E-01 a        58     0     3     1    18
 -1.4819151970619060E-01 a        59     0     3     1    19
 -5.1329070369066270E-03 a        60     0     3     1    20
 -6.4397317384333985E-01 a        61     0     4     1     1
  6.8446176123445979E-01 a        62     0     4     1     2
 -1.2893220425312237E-02 a        63     0     4     1     3
 -3.7250059192629725E-01 a        64     0     4     1     4
  2.1645747681601812E-01 a        65     0     4     1     5
 -9.6706178247446750E-01 a        66     0     4     1     6
  3.7152996201330370E-02 a        67     0     4     1     7
  1.9668131245063941E-01 a        68     0     4     1     8
  2.9622356332569361E-01 a        69     0     4     1     9
 -9.4101924119680025E-01 a        70     0     4     1    10
 -1.0283661425428170E+00 a        71     0     4     1    11
 -2.2219048829768376E-01 a        72     0     4     1    12
 -5.3766331486525620E-01 a        73     0     4     1    13
 -9.4755192019844614E-02 a        74     0     4     1    14
  3.3815706450247207E-01 a        75     0     4     1    15
  1.1816808907643393E-01 a        76     0     4     1    16
 -8.9369572387335572E-01 a        77     0     4     1    17
 -5.7428472348286774E-01 a        78     0     4     1    18
 -6.6191140972118656E-01 a        79     0     4     1    19
 -6.2830509961260561E-01 a        80     0     4     1    20
  1.2113577456084108E-01 a        81     0     5     1     1
  2.4028387480072483E-01 a        82     0     5     1     2
  2.7242095000559831E-02 a        83     0     5     1     3
 -3.7482600948874739E-01 a        84     0     5     1     4
  2.0934410357668204E-01 a        85     0     5     1     5
 -5.6246076173443871E-01 a        86     0     5     1     6
 -3.5517399730310338E-02 a        87     0     5     1     7
  5.5052328967968145E-01 a        88     0     5     1     8
 -1.4074732707494478E-01 a        89     0     5     1     9
 -4.8703298452165762E-02 a        90     0     5     1    10
 -3.0263399046140371E-01 a        91     0     5     1    11
  9.9120012340385838E-02 a        92     0     5     1    12
  1.9181044661134256E-01 a        93     0     5     1    13
 -1.1180584277997430E+00 a        94     0     5     1    14
 -2.0163620761998704E+00 a        95     0     5     1    15
 -1.1262848425357359E-01 a        96     0     5     1    16
 -5.6795056607461847E-01 a        97     0     5     1    17
 -7.3278292892826294E-02 a        98     0     5     1    18
  1.2529405534275735E+00 a        99     0     5     1    19
  5.0766314704629545E-01 a       100     0     5     1    20
 -2.1035277304593933E-01 a       101     0     6     1     1
 -3.3345932766653930E-02 a       102     0     6     1     2
 -2.9147177425160237E-01 a       103     0     6     1     3
  1.1319029390193032E-01 a       104     0     6     1     4
  1.0259524532355811E-01 a       105     0     6     1     5
  6.4431046094656275E-02 a       106     0     6     1     6
 -1.4095266925970767E-01 a       107     0     6     1     7
  2.9563482840466693E-01 a       108     0     6     1     8
  7.8094838852912726E-02 a       109     0     6     1     9
  1.8005169666204152E-01 a       110     0     6     1    10
 -8.0229486361510227E-02 a       111     0     6     1    11
 -9.9224329604453765E-02 a       112     0     6     1    12
  1.4346995400352966E-01 a       113     0     6     1    13
  2.1500400206812240E-01 a       114     0     6     1    14
 -6.7215570893995061E-02 a       115     0     6     1    15
 -1.2167131378896036E-02 a       116     0     6     1    16
  1.6122512564036524E-02 a       117     0     6     1    17
  1.1530306111390512E-01 a       118     0     6     1    18
 -1.6243682903864348E-01 a       119     0     6     1    19
 -2.8981838841093673E-02 a       120     0     6     1    20
  2.3129850322674408E-01 a       121     0     7     1     1
  2.7224101390827610E-01 a       122     0     7     1     2
  8.1629763471207165E-04 a       123     0     7     1     3
  1.1105617713115082E-01 a       124     0     7     1     4
 -2.3250482587896842E-01 a       125     0     7     1     5
  3.9170266216183525E-02 a       126     0     7     1     6
  4.4993373585337948E-02 a       127     0     7     1     7
 -1.7863889299972322E-02 a       128     0     7     1     8
  8.5232449779097370E-04 a       129     0     7     1     9
  4.0157614494576721E-02 a       130     0     7     1    10
  4.5051561407424895E-03 a       131     0     7     1    11
 -1.0685108828849559E-01 a       132     0     7     1    12
  6.2129891338451586E-02 a       133     0     7     1    13
  9.7976621280161685E-02 a       134     0     7     1    14
 -1.2155553779172097E-01 a       135     0     7     1    15
 -8.6514983511469606E-02 a       136     0     7     1    16
  1.3279070311026112E-01 a       137     0     7     1    17
  1.7184137862449089E-01 a       138     0     7     1    18
  9.5072380313826879E-02 a       139     0     7     1    19
  4.6822578791433658E-02 a       140     0     7     1    20
  1.8843147906146713E+00 a       141     0     8     1     1
  4.4267247177650471E-01 a       142     0     8     1     2
  6.3975966685258623E-02 a       143     0     8     1     3
 -3.4402784362181121E-01 a       144     0     8     1     4
  6.5002436749129022E-01 a       145     0     8     1     5
  6.7517121233199617E-01 a       146     0     8     1     6
  3.0344264797859216E-01 a       147     0     8     1     7
 -7.1576129682900991E-01 a       148     0     8     1     8
 -9.6503999579049859E-01 a       149     0     8     1     9
  1.4123456221628544E-01 a       150     0     8     1    10
  2.2737680811614336E+00 a       151     0     8     1    11
  4.4058153371518560E-01 a       152     0     8     1    12
  9.7580828506266504E-01 a       153     0     8     1    13
  8.8011244761120955E-01 a       154     0     8     1    14
  7.8039590497542249E-02 a       155     0     8     1    15
  2.6209425186749964E-02 a       156     0     8     1    16
  1.4530856879457970E+00 a       157     0     8     1    17
  1.1762631251338456E+00 a       158     0     8     1    18
 -3.0172177725415639E-01 a       159     0     8     1    19
  1.1639020946191547E+00 a       160     0     8     1    20
  2.7145215441120230E-01 a       161     0     9     1     1
 -9.1288778709626595E-02 a       162     0     9     1     2
 -2.6348450222095221E-01 a       163     0     9     1     3
  4.8722064366427398E-01 a       164     0     9     1     4
 -9.1325851311268372E-02 a       165     0     9     1     5
  2.9301469216502485E-01 a       166     0     9     1     6
  6.0199750887428194E-01 a       167     0     9     1     7
  3.0782514026559904E-01 a       168     0     9     1     8
  2.1857170670705892E-01 a       169     0     9     1     9
  2.4139518576126515E-01 a       170     0     9     1    10
 -3.1590444676754043E-01 a       171     0     9     1    11
  4.9249987825435193E-01 a       172     0     9     1    12
 -8.0019911865165727E-01 a       173     0     9     1    13
  1.4999109477835155E+00 a       174     0     9     1    14
 -3.8766469652841518E-01 a       175     0     9     1    15
 -3.9834255653706979E-01 a       176     0     9     1    16
  1.8519279692705828E-01 a       177     0     9     1    17
 -2.2274843867329699E-01 a       178     0     9     1    18
  6.1069214212340781E-02 a       179     0     9     1    19
 -4.8025174168024716E-02 a       180     0     9     1    20
  2.2104924375769053E-01 a       181     0    10     1     1
  1.7111324476205989E-01 a       182     0    10     1     2
  6.5539182298945786E-02 a       183     0    10     1     3
  6.6043178201631317E-02 a       184     0    10     1     4
  7.6080781461430644E-02 a       185     0    10     1     5
 -6.7442534951427921E-02 a       186     0    10     1     6
  1.5913704241326163E-01 a       187     0    10     1     7
 -1.9865567284987359E-01 a       188     0    10     1     8
 -3.0680968917954334E-02 a       189     0    10     1     9
 -3.8404114470034674E-02 a       190     0    10     1    10
  1.7263218831309393E-01 a       191     0    10     1    11
 -6.7511261003742856E-02 a       192     0    10     1    12
  6.8899197262441453E-02 a       193     0    10     1    13
 -2.2440423206226665E-01 a       194     0    10     1    14
 -3.5412678860859421E-02 a       195     0    10     1    15
 -5.0701246313213565E-02 a       196     0    10     1    16
  2.2355740222493323E-01 a       197     0    10     1    17
 -1.9265498919549576E-01 a       198     0    10     1    18
 -3.0097215712653148E-02 a       199     0    10     1    19
  3.9331181881498291E-02 a       200     0    10     1    20
 -1.9932297161577736E-01 a       201     0    11     1     1
 -1.3011074792332181E-01 a       202     0    11     1     2
  1.8837482037568909E-01 a       203     0    11     1     3
 -2.0709963867534922E-01 a       204     0    11     1     4
 -2.2010247932391566E-01 a       205     0    11     1     5
 -3.0085583649204850E-01 a       206     0    11     1     6
  9.3180643024461315E-02 a       207     0    11     1     7
  2.9622784763151278E-02 a       208     0    11     1     8
 -8.0655584363335350E-02 a       209     0    11     1     9
 -1.7557562351244241E-01 a       210     0    11     1    10
 -6.5585307127149023E-02 a       211     0    11     1    11
 -1.7063851869950497E-01 a       212     0    11     1    12
  2.5797285874005743E-01 a       213     0    11     1    13
  1.5665451440160258E-01 a       214     0    11     1    14
  2.8742671604660177E-02 a       215     0    11     1    15
  1.9419696802786903E-02 a       216     0    11     1    16
 -2.2748247267403754E-01 a       217     0    11     1    17
  1.1313306184720788E-01 a       218     0    11     1    18
 -3.8645425711158354E-01 a       219     0    11     1    19
  1.1927673218514609E-01 a       220     0    11     1    20
 -1.3297796685862799E+00 a       221     0    12     1     1
 -5.1599811393398853E-01 a       222     0    12     1     2
  3.3309402267260618E-01 a       223     0    12     1     3
 -9.4799880697717442E-02 a       224     0    12     1     4
 -3.2469505777995754E-02 a       225     0    12     1     5
 -8.2118100696832652E-01 a       226     0    12     1     6
 -8.1415163196651752E-01 a       227     0    12     1     7
  3.3820862297699855E-01 a       228     0    12     1     8
  2.9978662984347537E-01 a       229     0    12     1     9
 -1.7686312714848818E-01 a       230     0    12     1    10
 -1.1993930201999126E+00 a       231     0    12     1    11
 -5.0511837130081050E-01 a       232     0    12     1    12
 -7.5737590336154781E-01 a       233     0    12     1    13
 -3.6918752426255763E-01 a       234     0    12     1    14
 -5.4287589998745833E-01 a       235     0    12     1    15
 -7.7077838754388339E-02 a       236     0    12     1    16
 -1.4575820575110441E+00 a       237     0    12     1    17
 -1.0482360640806936E+00 a       238     0    12     1    18
 -3.4868113044324572E-01 a       239     0    12     1    19
 -1.4569469865187001E+00 a       240     0    12     1    20
 -4.9072352085581544E-01 a       241     0    13     1     1
 -1.2111811910902151E-01 a       242     0    13     1     2
 -1.3944503244236614E-01 a       243     0    13     1     3
  1.0256971823234869E-01 a       244     0    13     1     4
  2.8440997256097650E-01 a       245     0    13     1     5
  7.5964793829686894E-01 a       246     0    13     1     6
 -5.4806007018753300E-01 a       247     0    13     1     7
 -2.0033778843933023E-01 a       248     0    13     1     8
  1.2360631173320287E-01 a       249     0    13     1     9
  8.9839140369593048E-02 a       250     0    13     1    10
  1.2005485861277899E-01 a       251     0    13     1    11
 -5.2329784852364358E-01 a       252     0    13     1    12
  3.5241772069079152E-01 a       253     0    13     1    13
 -4.6987443660585287E-01 a       254     0    13     1    14
  1.3236214390335868E+00 a       255     0    13     1    15
  1.3884851351679858E-01 a       256     0    13     1    16
 -3.3042291372643406E-01 a       257     0    13     1    17
  5.4767145961044184E-01 a       258     0    13     1    18
 -3.6271936316940527E-02 a       259     0    13     1    19
 -2.4130707389345234E-02 a       260     0    13     1    20
 -3.0375660546907196E-01 a       261     0    14     1     1
 -3.7923152022284663E-03 a       262     0    14     1     2
  5.3139083697433483E-02 a       263     0    14     1     3
  9.4262041538602945E-02 a       264     0    14     1     4
  5.6300924918849188E-03 a       265     0    14     1     5
  1.7468379607725543E-01 a       266     0    14     1     6
  5.4749407815664779E-02 a       267     0    14     1     7
 -4.0320888905191608E-02 a       268     0    14     1     8
 -1.1192942200704251E-01 a       269     0    14     1     9
 -9.4588653392127117E-02 a       270     0    14     1    10
 -3.2830333972482340E-01 a       271     0    14     1    11
  3.5480103070181929E-03 a       272     0    14     1    12
  1.9682550075484573E-02 a       273     0    14     1    13
 -1.6495211983471361E-01 a       274     0    14     1    14
  2.0450967782835405E-01 a       275     0    14     1    15
 -3.9559740113469686E-03 a       276     0    14     1    16
 -1.1397592667512514E-01 a       277     0    14     1    17
 -1.1702372071304734E-01 a       278     0    14     1    18
  1.3841030494246259E-01 a       279     0    14     1    19
  1.4413612603934275E-01 a       280     0    14     1    20
  2.4260352740715788E-01 a       281     0    15     1     1
  1.2021648409970179E-01 a       282     0    15     1     2
 -1.2133965732201808E-03 a       283     0    15     1     3
  2.2910321443793213E-01 a       284     0    15     1     4
  9.7341072996316128E-02 a       285     0    15     1     5
  2.0327845130464384E-01 a       286     0    15     1     6
  2.2438955536304228E-01 a       287     0    15     1     7
 -4.6387525364689495E-03 a       288     0    15     1     8
 -6.8879026169611363E-02 a       289     0    15     1     9
  1.6328551035836109E-01 a       290     0    15     1    10
  2.0879156875454226E-02 a       291     0    15     1    11
  2.8221820355547055E-02 a       292     0    15     1    12
 -2.1584891338399192E-01 a       293     0    15     1    13
 -1.8690413655765298E-01 a       294     0    15     1    14
  1.7898243947771625E-01 a       295     0    15     1    15
 -6.9856711440899527E-02 a       296     0    15     1    16
  2.6579981269608206E-02 a       297     0    15     1    17
 -2.7261014963442320E-01 a       298     0    15     1    18
  5.0108017887696456E-02 a       299     0    15     1    19
  2.4203770825458281E-02 a       300     0    15     1    20
  5.2599502102689510E-01 a       301     0    16     1     1
  3.4700735065400212E-01 a       302     0    16     1     2
 -2.1760717503199054E-01 a       303     0    16     1     3
  5.7066199632230230E-01 a       304     0    16     1     4
 -5.0997984977237243E-01 a       305     0    16     1     5
 -1.2936270423242771E-01 a       306     0    16     1     6
  7.0657775509099929E-01 a       307     0    16     1     7
 -5.0014582013596098E-01 a       308     0    16     1     8
 -1.6414504535420882E-01 a       309     0    16     1     9
  5.4597115653837480E-01 a       310     0    16     1    10
 -4.1398894875687908E-01 a       311     0    16     1    11
  1.6444277124216172E-01 a       312     0    16     1    12
  3.5260429984693786E-01 a       313     0    16     1    13
  3.5104426194513938E-01 a       314     0    16     1    14
  4.3616513926189754E-01 a       315     0    16     1    15
 -3.0429602125595062E-01 a       316     0    16     1    16
  1.5014792879684948E+00 a       317     0    16     1    17
  6.5084947329525322E-01 a       318     0    16     1    18
 -6.7374455596991220E-02 a       319     0    16     1    19
  7.8871561503869270E-01 a       320     0    16     1    20
  1.8573874141674652E-02 a       321     0    17     1     1
 -5.8851499331856225E-02 a       322     0    17     1     2
 -2.6326340937317433E-01 a       323     0    17     1     3
 -1.6279686800584159E-01 a       324     0    17     1     4
  1.6147446897286535E-01 a       325     0    17     1     5
 -9.3509848025931777E-02 a       326     0    17     1     6
  5.6805591405393308E-01 a       327     0    17     1     7
  3.2016362567267909E-01 a       328     0    17     1     8
 -5.9249956295354074E-02 a       329     0    17     1     9
 -1.7629842730829207E-01 a       330     0    17     1    10
 -6.1843723439710938E-02 a       331     0    17     1    11
 -1.8726469370134854E-01 a       332     0    17     1    12
  6.1433141412262926E-01 a       333     0    17     1    13
 -1.3925518790023219E+00 a       334     0    17     1    14
 -5.5200691935532742E-01 a       335     0    17     1    15
  3.3171173808824961E-01 a       336     0    17     1    16
  3.8331099698485865E-01 a       337     0    17     1    17
 -3.2761333799137898E-01 a       338     0    17     1    18
  1.1374147341324949E-01 a       339     0    17     1    19
 -3.2969031086551120E-01 a       340     0    17     1    20
 -1.0167391853270594E-01 a       341     0    18     1     1
 -1.8013597370788154E-01 a       342     0    18     1     2
 -1.4669413465697204E-01 a       343     0    18     1     3
 -2.3060027526825309E-02 a       344     0    18     1     4
  3.0493054043931189E-01 a       345     0    18     1     5
 -2.7884117505338150E-02 a       346     0    18     1     6
  7.1068062420261272E-02 a       347     0    18     1     7
 -7.6148671553416050E-02 a       348     0    18     1     8
  1.8275779362921085E-01 a       349     0    18     1     9
  8.4759607908390808E-02 a       350     0    18     1    10
  6.1694903665352699E-02 a       351     0    18     1    11
  2.4703867743978600E-01 a       352     0    18     1    12
  1.4452892476264520E-01 a       353     0    18     1    13
 -1.5630786328426929E-02 a       354     0    18     1    14
 -7.2160687004665380E-02 a       355     0    18     1    15
  2.7429050887154943E-01 a       356     0    18     1    16
  2.1146962453198623E-01 a       357     0    18     1    17
  9.5686880141555422E-02 a       358     0    18     1    18
  7.9541627273761656E-02 a       359     0    18     1    19
 -1.0542220236713996E-01 a       360     0    18     1    20
  4.2849548293490046E-02 a       361     0    19     1     1
  3.0353267081692564E-03 a       362     0    19     1     2
  8.0253282401100398E-02 a       363     0    19     1     3
 -8.9559989235824755E-02 a       364     0    19     1     4
 -6.0782489819554905E-02 a       365     0    19     1     5
 -1.5944201990298154E-01 a       366     0    19     1     6
 -1.2075546844103004E-01 a       367     0    19     1     7
 -9.2165672144443780E-02 a       368     0    19     1     8
  7.7043061071564653E-02 a       369     0    19     1     9
 -1.1041846424998392E-01 a       370     0    19     1    10
 -4.4440875190493383E-02 a       371     0    19     1    11
 -3.1370234186923912E-01 a       372     0    19     1    12
 -1.1428398546380722E-01 a       373     0    19     1    13
  2.0512669059015853E-01 a       374     0    19     1    14
  4.2989010485511717E-03 a       375     0    19     1    15
 -1.7041530214413800E-01 a       376     0    19     1    16
  2.6519716641755155E-02 a       377     0    19     1    17
  9.5404144734851926E-02 a       378     0    19     1    18
 -1.1885279756603570E-01 a       379     0    19     1    19
  1.7516663304261626E-01 a       380     0    19     1    20
  3.1605751234800128E-01 a       381     0    20     1     1
  4.7509288157459040E-01 a       382     0    20     1     2
  7.9135207609486891E-01 a       383     0    20     1     3
 -6.4361588822964244E-01 a       384     0    20     1     4
  5.0682870918651768E-01 a       385     0    20     1     5
 -1.9005501438067993E-01 a       386     0    20     1     6
  8.0636919091976761E-02 a       387     0    20     1     7
 -1.2742996556266789E-01 a       388     0    20     1     8
 -2.9460181429013466E-01 a       389     0    20     1     9
 -4.4403467703262817E-01 a       390     0    20     1    10
  1.1160931013976185E+00 a       391     0    20     1    11
  4.0019731770149232E-02 a       392     0    20     1    12
  1.2659297316308266E-01 a       393     0    20     1    13
  3.6179358832106867E-01 a       394     0    20     1    14
  3.4923611047661657E-01 a       395     0    20     1    15
  1.5407985472723559E-02 a       396     0    20     1    16
 -7.0974916888723305E-01 a       397     0    20     1    17
  1.9589173728734453E-02 a       398     0    20     1    18
  2.6771240529511825E-02 a       399     0    20     1    19
  1.4620935241443278E-01 a       400     0    20     1    20
  2.5724254669008378E-01 a       401     0    21     1     1
  2.0841367424078006E-01 a       402     0    21     1     2
 -4.1812658152026214E-02 a       403     0    21     1     3
  3.2926541100861451E-01 a       404     0    21     1     4
 -8.4624926931994096E-02 a       405     0    21     1     5
 -2.2731841327472344E-01 a       406     0    21     1     6
 -3.0878922914145263E-01 a       407     0    21     1     7
 -6.1224879833245861E-03 a       408     0    21     1     8
  4.2507679275532567E-01 a       409     0    21     1     9
  3.4528914920954473E-01 a       410     0    21     1    10
  2.3304612280715517E-01 a       411     0    21     1    11
  4.7333089609141255E-01 a       412     0    21     1    12
 -7.8965021570516025E-01 a       413     0    21     1    13
  6.0130025833520484E-01 a       414     0    21     1    14
 -1.4623293583814265E-01 a       415     0    21     1    15
 -1.9422541930927836E-01 a       416     0    21     1    16
 -3.1843812300468199E-01 a       417     0    21     1    17
 -3.7334453921377811E-02 a       418     0    21     1    18
 -1.7665545182474282E-01 a       419     0    21     1    19
  5.2551909175264178E-01 a       420     0    21     1    20
  1.9389593071646161E-01 a       421     0    22     1     1
  1.4195893540705151E-01 a       422     0    22     1     2
 -6.7402539538836945E-02 a       423     0    22     1     3
 -7.1269306288383405E-02 a       424     0    22     1     4
 -6.2273173254399183E-02 a       425     0    22     1     5
  9.5207011211463924E-02 a       426     0    22     1     6
 -2.7823049517867360E-01 a       427     0    22     1     7
  1.8428704530109148E-02 a       428     0    22     1     8
 -9.9984935509011760E-04 a       429     0    22     1     9
  2.7325237407275455E-02 a       430     0    22     1    10
 -9.5778368059915353E-02 a       431     0    22     1    11
 -3.7397651072877007E-02 a       432     0    22     1    12
 -5.1490677957523549E-03 a       433     0    22     1    13
 -4.8714850273155343E-02 a       434     0    22     1    14
 -7.5335815617875210E-02 a       435     0    22     1    15
 -1.3495885060717031E-01 a       436     0    22     1    16
 -1.0905865424990376E-01 a       437     0    22     1    17
 -1.7566505101545468E-01 a       438     0    22     1    18
 -1.6128097361131943E-01 a       439     0    22     1    19
 -8.9496266580381831E-02 a       440     0    22     1    20
 -6.4251453057685509E-02 a       441     0    23     1     1
  9.3231976493709165E-02 a       442     0    23     1     2
  7.2663409843306562E-02 a       443     0    23     1     3
  1.2241984081814197E-01 a       444     0    23     1     4
 -5.1803095913444785E-02 a       445     0    23     1     5
  2.1984660341773682E-02 a       446     0    23     1     6
  2.2114055693629070E-01 a       447     0    23     1     7
  3.1532757070817104E-02 a       448     0    23     1     8
 -5.9225294941308314E-02 a       449     0    23     1     9
  3.8553263029946334E-02 a       450     0    23     1    10
  1.3986618624219671E-01 a       451     0    23     1    11
  1.4328421381765100E-01 a       452     0    23     1    12
  1.9420644514182281E-01 a       453     0    23     1    13
 -2.2175607850161323E-02 a       454     0    23     1    14
 -6.2638477739506426E-02 a       455     0    23     1    15
 -5.6349582863998472E-02 a       456     0    23     1    16
  4.0782007956173026E-03 a       457     0    23     1    17
 -1.2406339459182481E-02 a       458     0    23     1    18
  6.1223371178977748E-02 a       459     0    23     1    19
 -1.6286313472521308E-01 a       460     0    23     1    20
 -2.8352563908308731E-01 a       461     0    24     1     1
 -5.6704982067689125E-01 a       462     0    24     1     2
 -6.0004555498252794E-02 a       463     0    24     1     3
 -3.3973901367966658E-01 a       464     0    24     1     4
 -2.4785869715911041E-01 a       465     0    24     1     5
  1.6638465239934430E-01 a       466     0    24     1     6
 -2.6533292540054176E-01 a       467     0    24     1     7
  2.8641263724236482E-01 a       468     0    24     1     8
 -9.0430131494236163E-02 a       469     0    24     1     9
 -1.1236188911894103E-01 a       470     0    24     1    10
 -1.5870297344537720E-01 a       471     0    24     1    11
 -7.2779825077988608E-02 a       472     0    24     1    12
 -2.5883004394268799E-01 a       473     0    24     1    13
 -2.9701023619346022E-02 a       474     0    24     1    14
 -6.6825181233416697E-01 a       475     0    24     1    15
 -1.8624968627228228E-01 a       476     0    24     1    16
 -3.0569721234838032E-01 a       477     0    24     1    17
 -4.2553314486653515E-01 a       478     0    24     1    18
 -1.7905449159198841E-01 a       479     0    24     1    19
 -3.6691535093133110E-01 a       480     0    24     1    20
 -1.2810465570673527E-01 a       481     0    25     1     1
 -1.4025362930748972E-01 a       482     0    25     1     2
 -1.4799750461023975E-01 a       483     0    25     1     3
 -8.4923843125628784E-02 a       484     0    25     1     4
  2.8514960258278854E-01 a       485     0    25     1     5
  2.0891625737514130E-01 a       486     0    25     1     6
  6.5411034276396551E-02 a       487     0    25     1     7
 -2.1685333935254694E-03 a       488     0    25     1     8
 -3.1072706506523873E-01 a       489     0    25     1     9
 -1.0735279809908525E-01 a       490     0    25     1    10
 -4.1342609907023736E-01 a       491     0    25     1    11
 -3.7643022155281480E-01 a       492     0    25     1    12
  1.2237474258461166E-01 a       493     0    25     1    13
  4.8887029651622271E-01 a       494     0    25     1    14
  1.9094488297742357E-01 a       495     0    25     1    15
 -5.0323422695775680E-02 a       496     0    25     1    16
  1.6867288309592843E-01 a       497     0    25     1    17
 -1.7389032224859396E-01 a       498     0    25     1    18
 -1.4017641534861840E-02 a       499     0    25     1    19
 -1.8921182932155456E-01 a       500     0    25     1    20
 -7.4658151849364932E-02 a       501     0    26     1     1
  8.0589282233345643E-03 a       502     0    26     1     2
  4.4504088184649772E-02 a       503     0    26     1     3
  1.1717459945182468E-01 a       504     0    26     1     4
 -3.8164366496194285E-02 a       505     0    26     1     5
 -1.1645319547379443E-01 a       506     0    26     1     6
  1.4110049889873816E-01 a       507     0    26     1     7
  8.9843346638752972E-02 a       508     0    26     1     8
 -2.1225708951245575E-01 a       509     0    26     1     9
 -1.5081037216556945E-01 a       510     0    26     1    10
  8.3066393257512597E-02 a       511     0    26     1    11
 -2.8742922601050755E-02 a       512     0    26     1    12
 -1.1697366331856789E-01 a       513     0    26     1    13
  1.8201130572513640E-02 a       514     0    26     1    14
  1.5581774768780421E-01 a       515     0    26     1    15
  2.1168494027527623E-01 a       516     0    26     1    16
  1.2295978965898781E-01 a       517     0    26     1    17
  6.8787385013980198E-02 a       518     0    26     1    18
 -1.1760636561829486E-01 a       519     0    26     1    19
  7.6689418938821960E-02 a       520     0    26     1    20
 -5.2184732705618943E-02 a       521     0    27     1     1
 -7.6722053620728065E-02 a       522     0    27     1     2
  8.1093143019657532E-02 a       523     0    27     1     3
 -7.9013431450864480E-02 a       524     0    27     1     4
 -4.6429963786495256E-02 a       525     0    27     1     5
  7.0043945000756447E-02 a       526     0    27     1     6
 -4.0642685863881034E-02 a       527     0    27     1     7
 -2.3533164651505213E-02 a       528     0    27     1     8
  2.6280091202924721E-02 a       529     0    27     1     9
 -1.3210252978075709E-02 a       530     0    27     1    10
 -8.1177540578311905E-02 a       531     0    27     1    11
 -9.5294514306543295E-03 a       532     0    27     1    12
 -1.7549182608480154E-01 a       533     0    27     1    13
  1.0926079753771918E-01 a       534     0    27     1    14
 -3.4205322182357223E-02 a       535     0    27     1    15
 -2.2646663306120290E-02 a       536     0    27     1    16
 -1.0404168319121965E-01 a       537     0    27     1    17
  1.0826727262362460E-04 a       538     0    27     1    18
  3.7101378853865420E-02 a       539     0    27     1    19
  2.7030457171101813E-01 a       540     0    27     1    20
 -1.7986755377381458E-01 a       541     0    28     1     1
 -1.0450231920984390E-01 a       542     0    28     1     2
 -2.2808706681073601E-01 a       543     0    28     1     3
  2.6934464907569133E-01 a       544     0    28     1     4
 -4.2065939559338195E-01 a       545     0    28     1     5
  2.4938162019313237E-01 a       546     0    28     1     6
  3.7617165945124059E-01 a       547     0    28     1     7
 -3.3241706846623914E-01 a       548     0    28     1     8
  2.5406786907505619E-01 a       549     0    28     1     9
  4.0275590849477222E-01 a       550     0    28     1    10
 -4.1562744978334087E-01 a       551     0    28     1    11
  2.7657408998511873E-01 a       552     0    28     1    12
  4.5246543015122997E-01 a       553     0    28     1    13
 -5.5741616880298273E-02 a       554     0    28     1    14
  3.3537696177262488E-01 a       555     0    28     1    15
 -9.5979479849598495E-02 a       556     0    28     1    16
  7.2362274962435125E-01 a       557     0    28     1    17
  3.2696637723769606E-01 a       558     0    28     1    18
  1.2902057059383343E-01 a       559     0    28     1    19
  1.8390301625568820E-01 a       560     0    28     1    20
  1.4393825002456593E-02 a       561     0    29     1     1
 -1.9487871552902261E-01 a       562     0    29     1     2
 -5.6888061052898620E-02 a       563     0    29     1     3
  3.4133349003632768E-02 a       564     0    29     1     4
 -2.4609453307744633E-01 a       565     0    29     1     5
  2.4107894352077985E-01 a       566     0    29     1     6
  1.7157600800430391E-02 a       567     0    29     1     7
 -8.2046088271785417E-02 a       568     0    29     1     8
  1.4108601963835082E-01 a       569     0    29     1     9
 -7.0348596993511245E-02 a       570     0    29     1    10
  3.3100471741705079E-01 a       571     0    29     1    11
 -2.4106436564070668E-01 a       572     0    29     1    12
  4.8865339384722506E-01 a       573     0    29     1    13
 -1.0321440384135885E+00 a       574     0    29     1    14
 -1.8256993996509757E-01 a       575     0    29     1    15
  3.0769543182465287E-01 a       576     0    29     1    16
 -2.6478895904006738E-01 a       577     0    29     1    17
  3.9674157011877687E-01 a       578     0    29     1    18
 -5.8939287531115233E-03 a       579     0    29     1    19
  6.6009603762588942E-03 a       580     0    29     1    20
 -1.1189714287898239E-01 a       581     0    30     1     1
 -7.1088652956777548E-02 a       582     0    30     1     2
 -2.2588189675217149E-01 a       583     0    30     1     3
 -5.2686736676361062E-02 a       584     0    30     1     4
  5.1587740666886013E-03 a       585     0    30     1     5
  7.7208169756169273E-02 a       586     0    30     1     6
 -1.2375061997632322E-01 a       587     0    30     1     7
 -3.4371915197783279E-02 a       588     0    30     1     8
  2.8720668756518392E-01 a       589     0    30     1     9
  1.2000847079477940E-01 a       590     0    30     1    10
 -1.7604107030070440E-01 a       591     0    30     1    11
  1.1310990805813574E-04 a       592     0    30     1    12
  3.1208765493711504E-01 a       593     0    30     1    13
 -1.8381040415242125E-01 a       594     0    30     1    14
 -8.9528984085324753E-02 a       595     0    30     1    15
 -9.5982451924293999E-02 a       596     0    30     1    16
 -1.9183114506573420E-02 a       597     0    30     1    17
  1.3343815332134662E-01 a       598     0    30     1    18
  7.6861900183045992E-02 a       599     0    30     1    19
 -1.7712517898956728E-01 a       600     0    30     1    20
  7.4086932382816120E-02 a       601     0    31     1     1
 -8.6941451045286264E-02 a       602     0    31     1     2
  3.0662542640110695E-02 a       603     0    31     1     3
 -9.7108500394823410E-03 a       604     0    31     1     4
  5.8957235255711442E-02 a       605     0    31     1     5
 -1.1606767094374207E-01 a       606     0    31     1     6
  6.7425366972890102E-02 a       607     0    31     1     7
 -6.6666583780614255E-02 a       608     0    31     1     8
 -5.4424908608774275E-02 a       609     0    31     1     9
  2.7424442491181065E-02 a       610     0    31     1    10
  4.7011132600300015E-02 a       611     0    31     1    11
 -9.9033167231230360E-02 a       612     0    31     1    12
 -7.7595097075548430E-02 a       613     0    31     1    13
 -6.4838114417724413E-02 a       614     0    31     1    14
  6.9087055120874638E-02 a       615     0    31     1    15
 -2.1219329218590693E-01 a       616     0    31     1    16
  7.7746233578479512E-02 a       617     0    31     1    17
 -6.9064183997896558E-02 a       618     0    31     1    18
  1.9020135845975360E-02 a       619     0    31     1    19
 -5.2154589327358634E-02 a       620     0    31     1    20
  1.2041560036435583E-01 a       621     0    32     1     1
  7.1815675873104845E-01 a       622     0    32     1     2
  7.2736041522617512E-01 a       623     0    32     1     3
 -4.9086689713659544E-02 a       624     0    32     1     4
  5.6816001303940789E-01 a       625     0    32     1     5
 -6.4327333758961314E-01 a       626     0    32     1     6
 -2.7753783207904786E-01 a       627     0    32     1     7
 -1.2597169462116578E-01 a       628     0    32     1     8
 -1.5272299785770327E-01 a       629     0    32     1     9
 -4.4362154948746496E-01 a       630     0    32     1    10
  9.4447074056249497E-02 a       631     0    32     1    11
  2.8728818907407166E-01 a       632     0    32     1    12
 -5.9715290834495538E-01 a       633     0    32     1    13
  8.4211332244443340E-02 a       634     0    32     1    14
  2.2622904402074584E-01 a       635     0    32     1    15
 -1.0402022570408313E-01 a       636     0    32     1    16
 -2.6676101842653038E-01 a       637     0    32     1    17
 -1.8351939207490880E-01 a       638     0    32     1    18
  9.6410727252280823E-02 a       639     0    32     1    19
 -2.5943565153835365E-03 a       640     0    32     1    20
  7.2571128923004061E-02 a       641     0    33     1     1
  2.5842301074691215E-01 a       642     0    33     1     2
 -6.7385592749241829E-02 a       643     0    33     1     3
  1.1230059547802851E-01 a       644     0    33     1     4
  2.0964065328486833E-01 a       645     0    33     1     5
 -3.0542137965118088E-01 a       646     0    33     1     6
 -8.4775915238061869E-02 a       647     0    33     1     7
  2.8186064943176331E-01 a       648     0    33     1     8
 -3.0087764398185574E-02 a       649     0    33     1     9
  1.4969950037145624E-01 a       650     0    33     1    10
 -8.0214431241625896E-03 a       651     0    33     1    11
  2.3807695248101304E-01 a       652     0    33     1    12
 -4.0851785169318433E-01 a       653     0    33     1    13
  5.4472817194494938E-01 a       654     0    33     1    14
  1.6633407145444265E-01 a       655     0    33     1    15
  1.3685956485727782E-01 a       656     0    33     1    16
  1.9319885665399600E-01 a       657     0    33     1    17
 -3.1625092940374322E-01 a       658     0    33     1    18
 -1.6927320131047571E-01 a       659     0    33     1    19
  1.8168984278706269E-02 a       660     0    33     1    20
  1.2987935027999603E-01 a       661     0    34     1     1
  8.2050288034493948E-02 a       662     0    34     1     2
  1.5316864607737407E-01 a       663     0    34     1     3
  2.1168021070166656E-02 a       664     0    34     1     4
  8.2584720120742514E-02 a       665     0    34     1     5
 -2.8507779556539981E-02 a       666     0    34     1     6
  3.8474693843019922E-02 a       667     0    34     1     7
  1.1324980801474505E-01 a       668     0    34     1     8
 -1.7699668847286451E-01 a       669     0    34     1     9
 -4.2774160157479257E-02 a       670     0    34     1    10
  1.6146257725936411E-01 a       671     0    34     1    11
  6.7555056843174643E-02 a       672     0    34     1    12
 -1.4965047824763211E-01 a       673     0    34     1    13
  1.8314264515205336E-01 a       674     0    34     1    14
  2.7410740470215286E-02 a       675     0    34     1    15
  2.1621440430877240E-01 a       676     0    34     1    16
 -4.1569348939229811E-02 a       677     0    34     1    17
 -9.3506749498293920E-02 a       678     0    34     1    18
  2.8289395958083791E-03 a       679     0    34     1    19
  7.4308473256161536E-02 a       680     0    34     1    20
  8.2304040197219864E-03 a       681     0    35     1     1
  1.5292152755223709E-01 a       682     0    35     1     2
 -3.2637655395960474E-02 a       683     0    35     1     3
  5.6692237090083308E-02 a       684     0    35     1     4
 -3.7471662884572328E-02 a       685     0    35     1     5
  8.5488970848596579E-02 a       686     0    35     1     6
 -7.5090180311202709E-02 a       687     0    35     1     7
 -3.4142453951808586E-02 a       688     0    35     1     8
  7.9234039962731886E-02 a       689     0    35     1     9
 -1.6979660587039196E-02 a       690     0    35     1    10
 -5.5298808268595967E-04 a       691     0    35     1    11
  6.5996868667501346E-02 a       692     0    35     1    12
  2.1039468298583757E-02 a       693     0    35     1    13
  1.4782662684046672E-02 a       694     0    35     1    14
 -4.1592016034587627E-02 a       695     0    35     1    15
  1.4768999374646133E-01 a       696     0    35     1    16
 -2.0440191820047714E-02 a       697     0    35     1    17
  6.6814120808364550E-03 a       698     0    35     1    18
  2.4161709232561709E-02 a       699     0    35     1    19
 -2.8402749824745919E-02 a       700     0    35     1    20
  2.9637487161138741E-04 a       701     0    36     1     1
 -5.7686949121128128E-01 a       702     0    36     1     2
 -4.6646786829980280E-01 a       703     0    36     1     3
 -5.3531298902447448E-02 a       704     0    36     1     4
 -3.6303409650686802E-01 a       705     0    36     1     5
  4.3936945200277921E-01 a       706     0    36     1     6
  2.2355759010399262E-01 a       707     0    36     1     7
  2.0041431407908791E-01 a       708     0    36     1     8
 -3.1666614331393251E-03 a       709     0    36     1     9
  2.4908293155139921E-01 a       710     0    36     1    10
  1.7538960378610249E-01 a       711     0    36     1    11
 -3.9978685361338956E-01 a       712     0    36     1    12
  4.4379074652957345E-01 a       713     0    36     1    13
  1.0792088506216688E-01 a       714     0    36     1    14
 -3.6124024797283660E-01 a       715     0    36     1    15
  3.8146663728524766E-02 a       716     0    36     1    16
 -5.4040777540832176E-02 a       717     0    36     1    17
  1.1734285701840938E-01 a       718     0    36     1    18
  7.4156342880742285E-02 a       719     0    36     1    19
 -5.8629413338197801E-02 a       720     0    36     1    20
  5.3572237896857368E-02 a       721     0    37     1     1
 -1.9105945092956406E-01 a       722     0    37     1     2
  3.2014463444437639E-02 a       723     0    37     1     3
 -1.3109299996533683E-01 a       724     0    37     1     4
 -1.4164735361919845E-01 a       725     0    37     1     5
  1.8008080024647741E-01 a       726     0    37     1     6
  8.5823443705743560E-02 a       727     0    37     1     7
 -7.9765548401585090E-02 a       728     0    37     1     8
 -2.5505018082227909E-02 a       729     0    37     1     9
 -1.6326762398833020E-02 a       730     0    37     1    10
  5.7764444266476693E-02 a       731     0    37     1    11
 -2.4107567455697190E-01 a       732     0    37     1    12
  1.5293290303404683E-01 a       733     0    37     1    13
 -5.4484416337151412E-02 a       734     0    37     1    14
 -1.2296505191827739E-01 a       735     0    37     1    15
 -1.3136256267538096E-01 a       736     0    37     1    16
 -1.8917419622102308E-01 a       737     0    37     1    17
  1.4720215665540909E-01 a       738     0    37     1    18
  7.1572167122774213E-02 a       739     0    37     1    19
  7.5738908076011810E-03 a       740     0    37     1    20
 -2.8607497522469279E-02 a       741     0    38     1     1
 -4.6979312271942152E-02 a       742     0    38     1     2
 -5.1918703089186412E-02 a       743     0    38     1     3
 -2.5036765889078352E-02 a       744     0    38     1     4
 -6.3259668722414938E-02 a       745     0    38     1     5
  3.8384359363685006E-02 a       746     0    38     1     6
  9.7361151129434532E-03 a       747     0    38     1     7
 -4.7654056815719603E-02 a       748     0    38     1     8
  4.7174011573441949E-02 a       749     0    38     1     9
  3.0295627228676073E-02 a       750     0    38     1    10
 -4.3026233594816568E-02 a       751     0    38     1    11
 -6.2227792871834268E-02 a       752     0    38     1    12
  9.5133807669745121E-02 a       753     0    38     1    13
 -6.8594615013181010E-02 a       754     0    38     1    14
 -1.0813324177115266E-02 a       755     0    38     1    15
 -2.2040733266080234E-02 a       756     0    38     1    16
 -3.8513765935804876E-02 a       757     0    38     1    17
  5.5128030738347600E-02 a       758     0    38     1    18
 -6.9880012017372761E-02 a       759     0    38     1    19
 -1.6235376036572741E-02 a       760     0    38     1    20
 -6.6367920419990470E-02 a       761     0    39     1     1
 -6.6352790346984047E-02 a       762     0    39     1     2
  3.0815992486331236E-02 a       763     0    39     1     3
 -2.9103882275183783E-02 a       764     0    39     1     4
  2.3056153404300877E-02 a       765     0    39     1     5
 -6.4113703262069818E-02 a       766     0    39     1     6
  3.7928706714506315E-02 a       767     0    39     1     7
  6.1153485914966513E-02 a       768     0    39     1     8
 -5.3312587998219328E-02 a       769     0    39     1     9
 -1.5817820766572951E-02 a       770     0    39     1    10
 -2.9993894281064935E-02 a       771     0    39     1    11
  2.5301542457718040E-02 a       772     0    39     1    12
 -4.1046808130534330E-02 a       773     0    39     1    13
  1.5011726444332451E-02 a       774     0    39     1    14
  1.8995489587141555E-02 a       775     0    39     1    15
 -1.3683192929729635E-01 a       776     0    39     1    16
  5.1352674403906826E-02 a       777     0    39     1    17
 -1.1766181910744874E-02 a       778     0    39     1    18
  2.5324148470298378E-02 a       779     0    39     1    19
  4.8731987066735621E-02 a       780     0    39     1    20
 -1.2758506798470762E-01 a       781     0    40     1     1
  2.0912060312388028E-01 a       782     0    40     1     2
  2.0476879153144245E-01 a       783     0    40     1     3
 -9.9324344520995232E-03 a       784     0    40     1     4
  1.3067550461753352E-01 a       785     0    40     1     5
 -1.6050001531179633E-01 a       786     0    40     1     6
 -7.3977180135165715E-02 a       787     0    40     1     7
 -1.6328464574393656E-01 a       788     0    40     1     8
  5.6399362151452574E-02 a       789     0    40     1     9
 -1.0258823167956926E-01 a       790     0    40     1    10
 -2.3447242910238561E-01 a       791     0    40     1    11
  3.8816248571049755E-01 a       792     0    40     1    12
 -1.8463419606576531E-01 a       793     0    40     1    13
 -1.1332857106378981E-01 a       794     0    40     1    14
  1.9372918659474916E-01 a       795     0    40     1    15
 -1.2661957876646823E-01 a       796     0    40     1    16
  1.5121634444244492E-01 a       797     0    40     1    17
 -9.9385045588458606E-02 a       798     0    40     1    18
 -4.1864985805587382E-02 a       799     0    40     1    19
  5.7040144513942424E-02 a       800     0    40     1    20
  1.8692087772197158E-01 a       801     0    41     1     1
 -1.8234762043579106E-01 a       802     0    41     1     2
  1.4220072829837194E-01 a       803     0    41     1     3
  2.2351380546781310E-01 a       804     0    41     1     4
 -2.5071212688361239E-01 a       805     0    41     1     5
  2.6463519150294307E-01 a       806     0    41     1     6
 -1.1589449911268246E-01 a       807     0    41     1     7
 -2.6399916091575304E-01 a       808     0    41     1     8
  1.0532922963999702E-01 a       809     0    41     1     9
 -7.1906710010931948E-02 a       810     0    41     1    10
  5.3749304135574749E-01 a       811     0    41     1    11
  1.7407748377913073E-02 a       812     0    41     1    12
  2.1778755637492219E-02 a       813     0    41     1    13
  6.9624280543191586E-01 a       814     0    41     1    14
  9.5351573843380343E-03 a       815     0    41     1    15
  6.6241019457865660E-02 a       816     0    41     1    16
 -4.0731185953312138E-01 a       817     0    41     1    17
 -1.5105261406081991E-01 a       818     0    41     1    18
  9.5372046916145772E-02 a       819     0    41     1    19
  3.2314679338199392E-01 a       820     0    41     1    20
  3.9009840212390103E-02 a       821     0    42     1     1
  4.0059975368620944E-02 a       822     0    42     1     2
  1.2266063750754719E-01 a       823     0    42     1     3
  1.0506877038113549E-01 a       824     0    42     1     4
 -2.0708004906562066E-01 a       825     0    42     1     5
  4.9824319598738752E-02 a       826     0    42     1     6
 -5.4310525000770278E-02 a       827     0    42     1     7
 -2.6089103564858290E-01 a       828     0    42     1     8
  5.4011427812975965E-02 a       829     0    42     1     9
 -2.0816652734607252E-01 a       830     0    42     1    10
 -5.8118555864103919E-03 a       831     0    42     1    11
 -3.9654499402014881E-03 a       832     0    42     1    12
 -2.0475315938837377E-01 a       833     0    42     1    13
  1.4556729358215081E-01 a       834     0    42     1    14
  9.1199534265446830E-02 a       835     0    42     1    15
  2.7598155711897616E-02 a       836     0    42     1    16
  4.0527508887380430E-02 a       837     0    42     1    17
 -5.0326086090030694E-03 a       838     0    42     1    18
 -1.7372257966133367E-01 a       839     0    42     1    19
  6.4527932555963558E-03 a       840     0    42     1    20
 -6.4822113085605343E-02 a       841     0    43     1     1
  1.1383733922200845E-01 a       842     0    43     1     2
  1.1106463359889372E-01 a       843     0    43     1     3
 -2.0798140114684671E-02 a       844     0    43     1     4
 -9.8365152393436545E-02 a       845     0    43     1     5
 -1.7600397723886545E-02 a       846     0    43     1     6
  3.3386330747585263E-02 a       847     0    43     1     7
 -6.3062949091622356E-02 a       848     0    43     1     8
 -5.4203820711209570E-02 a       849     0    43     1     9
  1.5256053409411816E-01 a       850     0    43     1    10
 -2.9085279700092787E-01 a       851     0    43     1    11
  9.3388684220213750E-02 a       852     0    43     1    12
 -9.2242495871277447E-02 a       853     0    43     1    13
  1.8353456442794130E-01 a       854     0    43     1    14
 -1.9670216167300802E-01 a       855     0    43     1    15
  1.6240670811211834E-04 a       856     0    43     1    16
  6.8221806078715030E-02 a       857     0    43     1    17
 -5.9034342822064823E-02 a       858     0    43     1    18
 -2.9582356833456631E-02 a       859     0    43     1    19
 -2.9038100252209747E-02 a       860     0    43     1    20
  1.4827733050759317E-01 a       861     0    44     1     1
  5.1561299527920079E-01 a       862     0    44     1     2
  1.1461305348688475E+00 a       863     0    44     1     3
 -4.3888623440826657E-01 a       864     0    44     1     4
  5.2314518347295058E-01 a       865     0    44     1     5
 -5.8122439912970691E-01 a       866     0    44     1     6
 -1.1724247966965479E-01 a       867     0    44     1     7
 -4.9000488528161285E-01 a       868     0    44     1     8
 -6.1666549679014893E-01 a       869     0    44     1     9
  5.1922641468642117E-02 a       870     0    44     1    10
 -7.4762977645315531E-02 a       871     0    44     1    11
  2.6710165511383177E-01 a       872     0    44     1    12
  3.1803739880231489E-02 a       873     0    44     1    13
  2.3594757262813684E-01 a       874     0    44     1    14
  1.5959062427672818E-01 a       875     0    44     1    15
 -4.0573828724289179E-01 a       876     0    44     1    16
  6.5147150673930254E-01 a       877     0    44     1    17
 -1.3350480692289804E-01 a       878     0    44     1    18
 -3.9659771944126543E-01 a       879     0    44     1    19
 -9.2407870951278703E-01 a       880     0    44     1    20
  3.7888719407466555E-02 a       881     0    45     1     1
 -3.6691103266825141E-02 a       882     0    45     1     2
 -1.9510722157534885E-01 a       883     0    45     1     3
  1.7516727059380258E-01 a       884     0    45     1     4
  1.8473453211726023E-02 a       885     0    45     1     5
  7.0163418260597965E-02 a       886     0    45     1     6
 -8.2697861099080436E-02 a       887     0    45     1     7
  8.4252779937094457E-02 a       888     0    45     1     8
  1.6199025549549087E-01 a       889     0    45     1     9
 -5.9812125471658061E-02 a       890     0    45     1    10
 -5.5483529396075121E-02 a       891     0    45     1    11
  1.6175301658766850E-01 a       892     0    45     1    12
 -2.3176573465540862E-01 a       893     0    45     1    13
  3.2360637164284063E-02 a       894     0    45     1    14
  5.8484628946310811E-02 a       895     0    45     1    15
 -1.4107475078484257E-02 a       896     0    45     1    16
  3.8470805662552593E-02 a       897     0    45     1    17
 -1.4454346150059133E-01 a       898     0    45     1    18
  1.5183354020379139E-02 a       899     0    45     1    19
  4.5207765331334020E-02 a       900     0    45     1    20
  1.0534950474403816E-01 a       901     0    46     1     1
  1.6530391695934618E-01 a       902     0    46     1     2
  2.0879898949012299E-01 a       903     0    46     1     3
 -1.7215582801401655E-01 a       904     0    46     1     4
  7.6602778824159432E-02 a       905     0    46     1     5
 -6.2809428633770439E-02 a       906     0    46     1     6
  6.1930906728418769E-03 a       907     0    46     1     7
  8.3905322954959810E-02 a       908     0    46     1     8
 -4.8649652879130909E-02 a       909     0    46     1     9
  9.5531637685003237E-02 a       910     0    46     1    10
 -2.7299448310530824E-02 a       911     0    46     1    11
  1.5636825841926866E-01 a       912     0    46     1    12
 -6.3566125238458698E-02 a       913     0    46     1    13
 -1.2420630459999359E-01 a       914     0    46     1    14
  2.4286808372253857E-01 a       915     0    46     1    15
  1.5671076183443106E-01 a       916     0    46     1    16
  1.5948651071417833E-01 a       917     0    46     1    17
 -1.3106588982600814E-01 a       918     0    46     1    18
  1.6121021948249289E-01 a       919     0    46     1    19
 -2.8991931536904697E-01 a       920     0    46     1    20
  5.5163150734453305E-02 a       921     0    47     1     1
  3.8074276980898394E-02 a       922     0    47     1     2
  3.6695369860113834E-03 a       923     0    47     1     3
 -1.4903199274938295E-01 a       924     0    47     1     4
 -1.7702644261147990E-01 a       925     0    47     1     5
  9.5459368598395503E-02 a       926     0    47     1     6
 -9.2419171633697950E-02 a       927     0    47     1     7
  6.6891538971628986E-02 a       928     0    47     1     8
 -1.2503653841131351E-01 a       929     0    47     1     9
  1.0374741142575912E-01 a       930     0    47     1    10
  9.8965432378628371E-02 a       931     0    47     1    11
  6.3008340412583574E-02 a       932     0    47     1    12
 -7.8673486359141606E-02 a       933     0    47     1    13
 -5.7362556696004721E-02 a       934     0    47     1    14
 -3.6093732071459682E-02 a       935     0    47     1    15
 -1.9805062140344409E-01 a       936     0    47     1    16
 -2.7266478855139945E-02 a       937     0    47     1    17
 -1.6011417061863503E-01 a       938     0    47     1    18
  2.6722422411578167E-01 a       939     0    47     1    19
 -1.1021284615493848E-01 a       940     0    47     1    20
 -2.0414778804930256E-01 a       941     0    48     1     1
 -2.8268137761767727E-02 a       942     0    48     1     2
 -6.8170316517224550E-02 a       943     0    48     1     3
  3.0068609829146625E-01 a       944     0    48     1     4
  2.0859161213369581E-01 a       945     0    48     1     5
  8.3034287932427300E-02 a       946     0    48     1     6
 -4.4340798661257307E-02 a       947     0    48     1     7
 -3.3874929112609571E-03 a       948     0    48     1     8
 -9.2894547109064460E-02 a       949     0    48     1     9
 -5.4667132565354316E-03 a       950     0    48     1    10
  2.6236923966476321E-02 a       951     0    48     1    11
  5.0508086255448715E-03 a       952     0    48     1    12
  9.9782264830234182E-02 a       953     0    48     1    13
  1.7218206914532583E-01 a       954     0    48     1    14
 -7.9772019785083248E-02 a       955     0    48     1    15
  1.7996825576424350E-01 a       956     0    48     1    16
  5.8417626868667465E-02 a       957     0    48     1    17
  1.3391715401580989E-01 a       958     0    48     1    18
  1.0466916262475631E-01 a       959     0    48     1    19
  7.2093713697622269E-02 a       960     0    48     1    20
 -2.4117132868539756E-01 a       961     0    49     1     1
 -2.5266322963718513E-01 a       962     0    49     1     2
 -6.7931080973923974E-02 a       963     0    49     1     3
 -1.9093356408130158E-01 a       964     0    49     1     4
  2.5202164469761636E-03 a       965     0    49     1     5
  1.6496644203618384E-02 a       966     0    49     1     6
 -5.1159497695911278E-02 a       967     0    49     1     7
  3.0722328256476622E-01 a       968     0    49     1     8
  8.2841514985355233E-02 a       969     0    49     1     9
 -2.0069945627157815E-01 a       970     0    49     1    10
  1.5762764911232172E-01 a       971     0    49     1    11
  2.3501012220195885E-01 a       972     0    49     1    12
  1.2619581245074069E-01 a       973     0    49     1    13
  6.7329347255203453E-02 a       974     0    49     1    14
 -6.1703988099940932E-02 a       975     0    49     1    15
 -2.6450429676580184E-01 a       976     0    49     1    16
 -1.6951607192701442E-02 a       977     0    49     1    17
  1.0639092420104165E-01 a       978     0    49     1    18
  7.3242910961288585E-02 a       979     0    49     1    19
  8.4893572922162513E-02 a       980     0    49     1    20
 -2.5920823067867232E-01 a       981     0    50     1     1
 -8.0185192365371150E-01 a       982     0    50     1     2
 -1.0460059644916495E+00 a       983     0    50     1     3
  4.1369928514030313E-01 a       984     0    50     1     4
 -4.6581976117984386E-01 a       985     0    50     1     5
  9.0992037994530883E-01 a       986     0    50     1     6
  2.1393568021227338E-01 a       987     0    50     1     7
  5.7396399983666835E-01 a       988     0    50     1     8
  7.8004072655816092E-01 a       989     0    50     1     9
 -2.5746514754882965E-01 a       990     0    50     1    10
 -8.3101769291498401E-02 a       991     0    50     1    11
 -1.8818395687643513E-01 a       992     0    50     1    12
  2.3745093283386248E-01 a       993     0    50     1    13
 -8.9563549208599058E-01 a       994     0    50     1    14
  2.2356571786235114E-02 a       995     0    50     1    15
  3.0441464060816065E-01 a       996     0    50     1    16
 -5.4316026339929357E-01 a       997     0    50     1    17
  3.9005013799889349E-01 a       998     0    50     1    18
  3.3890993887789328E-01 a       999     0    50     1    19
  3.8846357454829422E-01 a      1000     0    50     1    20
 -2.7225686192822268E-01 a      1001     0    51     1     1
  2.6275476977184026E-01 a      1002     0    51     1     2
 -3.6398031405163239E-01 a      1003     0    51     1     3
  1.2388233834965556E-01 a      1004     0    51     1     4
 -1.0950710674162617E-01 a      1005     0    51     1     5
  1.1234022033325100E-01 a      1006     0    51     1     6
  3.1527376577695843E-01 a      1007     0    51     1     7
  2.9008831979808553E-01 a      1008     0    51     1     8
  1.9393584804499098E-01 a      1009     0    51     1     9
 -3.4617488346141707E-02 a      1010     0    51     1    10
 -4.1421758183021057E-01 a      1011     0    51     1    11
  3.7702727525335267E-01 a      1012     0    51     1    12
 -1.4639534326586787E-01 a      1013     0    51     1    13
 -2.4244596428703208E-01 a      1014     0    51     1    14
 -6.8189420535251288E-01 a      1015     0    51     1    15
  7.0083733230565026E-01 a      1016     0    51     1    16
  1.8685709891871904E-01 a      1017     0    51     1    17
  3.2373379262937180E-01 a      1018     0    51     1    18
 -1.6619072732224166E-01 a      1019     0    51     1    19
 -1.6507324440567986E-01 a      1020     0    51     1    20
  6.6411501741057685E-02 a      1021     0    52     1     1
  8.9086338136156358E-03 a      1022     0    52     1     2
 -6.3073584008304720E-02 a      1023     0    52     1     3
  1.2596744766491513E-01 a      1024     0    52     1     4
  1.5531761909197406E-01 a      1025     0    52     1     5
 -1.1737385856894361E-01 a      1026     0    52     1     6
  1.4649479933082049E-02 a      1027     0    52     1     7
 -1.9701035523331609E-02 a      1028     0    52     1     8
  2.8039934114460961E-02 a      1029     0    52     1     9
 -3.1205397094462708E-02 a      1030     0    52     1    10
  9.9763928186163420E-03 a      1031     0    52     1    11
 -2.1818835511715522E-02 a      1032     0    52     1    12
  4.6804444265213074E-02 a      1033     0    52     1    13
  6.2813169325077675E-02 a      1034     0    52     1    14
 -2.4440276796305313E-01 a      1035     0    52     1    15
  6.1991968664807391E-02 a      1036     0    52     1    16
 -3.5622355631857117E-02 a      1037     0    52     1    17
 -1.3193094074233904E-02 a      1038     0    52     1    18
  2.0225995205018871E-01 a      1039     0    52     1    19
  4.3513026022973397E-02 a      1040     0    52     1    20
  3.0291216390426999E-02 a      1041     0    53     1     1
 -4.0980469975652661E-02 a      1042     0    53     1     2
 -1.5864082065062909E-01 a      1043     0    53     1     3
 -6.6174212905217300E-02 a      1044     0    53     1     4
  1.5786629247756789E-01 a      1045     0    53     1     5
  1.2911872951199566E-01 a      1046     0    53     1     6
 -1.2774861554296640E-01 a      1047     0    53     1     7
  2.7553873413965413E-01 a      1048     0    53     1     8
 -7.6756594812221246E-02 a      1049     0    53     1     9
 -9.5792098233790438E-03 a      1050     0    53     1    10
  2.6049488558772749E-01 a      1051     0    53     1    11
 -2.7422054929772101E-02 a      1052     0    53     1    12
  1.1652981450971603E-01 a      1053     0    53     1    13
 -1.3240578979018908E-01 a      1054     0    53     1    14
  1.3771600488505212E-01 a      1055     0    53     1    15
  1.6156214794852980E-01 a      1056     0    53     1    16
 -5.3950484097270268E-02 a      1057     0    53     1    17
  3.9132678375678145E-02 a      1058     0    53     1    18
 -9.7705653830112107E-02 a      1059     0    53     1    19
 -2.7282723338107918E-02 a      1060     0    53     1    20
  2.5760873738476875E-01 a      1061     0    54     1     1
 -1.0859404615492652E+00 a      1062     0    54     1     2
  6.8366575749355715E-02 a      1063     0    54     1     3
 -2.0118804895811432E-01 a      1064     0    54     1     4
  5.7748032369523605E-01 a      1065     0    54     1     5
 -2.2918766596804074E-01 a      1066     0    54     1     6
 -5.2827394848264375E-01 a      1067     0    54     1     7
 -4.0519167578140408E-01 a      1068     0    54     1     8
 -4.1873686471360738E-01 a      1069     0    54     1     9
  2.2056842478923008E-01 a      1070     0    54     1    10
 -3.7286772564063764E-02 a      1071     0    54     1    11
 -7.5844938619000279E-01 a      1072     0    54     1    12
 -1.7118228768163926E-01 a      1073     0    54     1    13
 -6.8033841865265565E-01 a      1074     0    54     1    14
  1.3321461447523204E+00 a      1075     0    54     1    15
  6.5500632706249817E-01 a      1076     0    54     1    16
 -2.8506354389097399E-01 a      1077     0    54     1    17
 -3.4860699425310954E-01 a      1078     0    54     1    18
  5.5759976866151761E-01 a      1079     0    54     1    19
  6.8403079226865360E-01 a      1080     0    54     1    20
  2.3995088489018802E-02 a      1081     0    55     1     1
  2.5785028653558889E-01 a      1082     0    55     1     2
  2.7327415384497156E-01 a      1083     0    55     1     3
 -8.7473180677628937E-02 a      1084     0    55     1     4
 -1.5826682298700295E-01 a      1085     0    55     1     5
  1.3357031445798150E-02 a      1086     0    55     1     6
 -9.2627491815911928E-02 a      1087     0    55     1     7
  5.9839808544509349E-02 a      1088     0    55     1     8
  3.9999741642873440E-03 a      1089     0    55     1     9
  1.5897717377439491E-01 a      1090     0    55     1    10
 -1.8480285027062119E-02 a      1091     0    55     1    11
 -3.9976277839729617E-02 a      1092     0    55     1    12
  4.5038666612066687E-02 a      1093     0    55     1    13
  7.7605426750925952E-02 a      1094     0    55     1    14
 -7.6982340781228509E-02 a      1095     0    55     1    15
 -1.9823736464244149E-01 a      1096     0    55     1    16
 -1.3196728562626336E-01 a      1097     0    55     1    17
  8.8708768975849367E-02 a      1098     0    55     1    18
 -1.4114138636412937E-01 a      1099     0    55     1    19
  4.9230576302618137E-02 a      1100     0    55     1    20
  1.7238181500147942E-01 a      1101     0    56     1     1
 -1.1476596889413734E-01 a      1102     0    56     1     2
  2.8436363701040507E-01 a      1103     0    56     1     3
 -1.1819444589520810E-01 a      1104     0    56     1     4
 -3.3296208866162313E-01 a      1105     0    56     1     5
 -2.5643504790918858E-01 a      1106     0    56     1     6
 -4.1839063708552164E-02 a      1107     0    56     1     7
  8.8950341870683264E-02 a      1108     0    56     1     8
 -2.7043993056857174E-01 a      1109     0    56     1     9
  8.5253119224381863E-02 a      1110     0    56     1    10
  2.8430562880367916E-01 a      1111     0    56     1    11
 -2.1438677711409118E-01 a      1112     0    56     1    12
  1.5192333862890983E-01 a      1113     0    56     1    13
  5.0022802101320617E-02 a      1114     0    56     1    14
 -2.2040591086951825E-01 a      1115     0    56     1    15
  3.1779296478809127E-01 a      1116     0    56     1    16
 -1.8899786116128048E-01 a      1117     0    56     1    17
  4.6687499401303190E-01 a      1118     0    56     1    18
  2.5179066067683567E-02 a      1119     0    56     1    19
  8.5698467462493849E-02 a      1120     0    56     1    20
  3.9483590066692310E-02 a      1121     0    57     1     1
 -9.9709892755595497E-02 a      1122     0    57     1     2
 -1.1655571629170561E-02 a      1123     0    57     1     3
 -7.8546604415862697E-02 a      1124     0    57     1     4
  3.0990410939401060E-02 a      1125     0    57     1     5
  5.8893519997159603E-02 a      1126     0    57     1     6
  7.9328387284610460E-02 a      1127     0    57     1     7
 -1.2286565149023437E-02 a      1128     0    57     1     8
  5.4913031128957811E-02 a      1129     0    57     1     9
  1.3849159021538973E-01 a      1130     0    57     1    10
 -6.7727246963105836E-02 a      1131     0    57     1    11
 -3.7498317116226518E-02 a      1132     0    57     1    12
 -6.0651580165238500E-02 a      1133     0    57     1    13
 -1.7155124862549842E-01 a      1134     0    57     1    14
  1.3781384643065830E-01 a      1135     0    57     1    15
 -2.0795160138803706E-01 a      1136     0    57     1    16
 -5.7181031871181134E-02 a      1137     0    57     1    17
  4.2388750419984265E-02 a      1138     0    57     1    18
 -8.8468378200111483E-02 a      1139     0    57     1    19
  4.2536903931046999E-03 a      1140     0    57     1    20
 -1.6263973929381087E-02 a      1141     0    58     1     1
 -4.8173132461522467E-02 a      1142     0    58     1     2
 -9.0609402486423060E-02 a      1143     0    58     1     3
  1.9378331350487579E-01 a      1144     0    58     1     4
 -1.7589011501497454E-01 a      1145     0    58     1     5
  6.1785473102977731E-02 a      1146     0    58     1     6
  1.7847659551451645E-01 a      1147     0    58     1     7
 -7.5950952380068867E-02 a      1148     0    58     1     8
  1.2783946706871921E-01 a      1149     0    58     1     9
  6.3610606924323944E-03 a      1150     0    58     1    10
 -1.0272760230239693E-01 a      1151     0    58     1    11
 -2.1624791781462549E-01 a      1152     0    58     1    12
 -2.4608746858471437E-02 a      1153     0    58     1    13
 -3.1407994005460294E-02 a      1154     0    58     1    14
 -1.0965561375849284E-01 a      1155     0    58     1    15
 -1.7464470103142457E-01 a      1156     0    58     1    16
 -1.2097720578897590E-01 a      1157     0    58     1    17
 -2.6753484573584935E-01 a      1158     0    58     1    18
  1.2219474425266383E-01 a      1159     0    58     1    19
  1.4059852935055829E-02 a      1160     0    58     1    20
 -3.4961191419463501E-02 a      1161     0    59     1     1
  7.9783425242734393E-02 a      1162     0    59     1     2
 -3.6540539722784954E-02 a      1163     0    59     1     3
  1.0492053854950900E-01 a      1164     0    59     1     4
  5.6018697759528738E-02 a      1165     0    59     1     5
 -9.9040344077023473E-02 a      1166     0    59     1     6
 -1.3115521620586434E-02 a      1167     0    59     1     7
 -8.3708402753788685E-02 a      1168     0    59     1     8
  1.0002119978084872E-02 a      1169     0    59     1     9
 -2.8535239996860612E-02 a      1170     0    59     1    10
 -1.0360811724213832E-01 a      1171     0    59     1    11
 -1.4618609917089987E-04 a      1172     0    59     1    12
  1.7530067354847332E-02 a      1173     0    59     1    13
 -3.2241879547031178E-02 a      1174     0    59     1    14
  1.4458322131342835E-02 a      1175     0    59     1    15
  1.8821824737969708E-01 a      1176     0    59     1    16
  5.8705067240653268E-02 a      1177     0    59     1    17
 -1.6498769256480350E-03 a      1178     0    59     1    18
  6.2124866654169580E-02 a      1179     0    59     1    19
  1.9825693643434610E-02 a      1180     0    59     1    20
 -9.9415927730546194E-02 a      1181     0    60     1     1
  8.0852053313086480E-01 a      1182     0    60     1     2
 -3.2424919211033398E-01 a      1183     0    60     1     3
  2.0355398169780953E-01 a      1184     0    60     1     4
  4.5545113104318927E-02 a      1185     0    60     1     5
 -3.4503500859961445E-01 a      1186     0    60     1     6
 -1.6487477076022022E-01 a      1187     0    60     1     7
  4.9482016412639951E-01 a      1188     0    60     1     8
  5.5209236657292916E-02 a      1189     0    60     1     9
 -6.0823040031246979E-02 a      1190     0    60     1    10
 -1.6669152343733831E-01 a      1191     0    60     1    11
  3.1475563505347376E-01 a      1192     0    60     1    12
 -2.2337265121388716E-01 a      1193     0    60     1    13
  4.4430362119339656E-01 a      1194     0    60     1    14
 -4.0390722538945734E-01 a      1195     0    60     1    15
 -7.7859842488880060E-02 a      1196     0    60     1    16
  3.6380065892618163E-01 a      1197     0    60     1    17
 -2.6292876760787692E-01 a      1198     0    60     1    18
 -9.1911386317828372E-02 a      1199     0    60     1    19
  1.1741081729787628E-01 a      1200     0    60     1    20
 -1.2395130674970690E-01 a      1201     0    61     1     1
 -3.8713867822665303E-03 a      1202     0    61     1     2
 -4.5769445645802674E-02 a      1203     0    61     1     3
  4.1616228248014898E-02 a      1204     0    61     1     4
  2.1025772000936621E-03 a      1205     0    61     1     5
  9.9193059113587296E-03 a      1206     0    61     1     6
 -1.8829526969853180E-02 a      1207     0    61     1     7
  8.3218802377926906E-02 a      1208     0    61     1     8
 -1.8774303319019005E-03 a      1209     0    61     1     9
 -5.0069745931011926E-02 a      1210     0    61     1    10
 -2.6549917825706041E-02 a      1211     0    61     1    11
  4.6295415586383518E-02 a      1212     0    61     1    12
 -4.2765916517409089E-02 a      1213     0    61     1    13
  2.0785431773369086E-03 a      1214     0    61     1    14
 -1.1401037138260421E-01 a      1215     0    61     1    15
  1.5990752211176008E-02 a      1216     0    61     1    16
  8.0800448670112573E-02 a      1217     0    61     1    17
  3.5788518925370688E-02 a      1218     0    61     1    18
 -1.3666066593324452E-01 a      1219     0    61     1    19
  4.2157076938334252E-02 a      1220     0    61     1    20
  1.3751090270287009E-02 a      1221     0    62     1     1
 -4.7483667417840436E-02 a      1222     0    62     1     2
 -1.6050869129261808E-02 a      1223     0    62     1     3
 -1.1970745090055047E-01 a      1224     0    62     1     4
  7.1718970843862223E-02 a      1225     0    62     1     5
 -5.1073145819261451E-02 a      1226     0    62     1     6
 -1.1227007719489340E-02 a      1227     0    62     1     7
  1.3870621659836305E-01 a      1228     0    62     1     8
  1.5493480769683148E-02 a      1229     0    62     1     9
  4.5935816412304591E-02 a      1230     0    62     1    10
 -4.6484851733923437E-02 a      1231     0    62     1    11
  2.8105002966577263E-02 a      1232     0    62     1    12
  2.6201917099773670E-02 a      1233     0    62     1    13
 -8.9448703565021756E-02 a      1234     0    62     1    14
  1.6921591555336551E-02 a      1235     0    62     1    15
 -6.2956087426058349E-02 a      1236     0    62     1    16
 -2.8675432520742040E-02 a      1237     0    62     1    17
 -5.2630195336284040E-02 a      1238     0    62     1    18
  5.0279250638195001E-02 a      1239     0    62     1    19
  1.0202838017012437E-01 a      1240     0    62     1    20
  5.0903232402985943E-02 a      1241     0    63     1     1
 -1.4900424208801658E-01 a      1242     0    63     1     2
  4.3108102077999227E-02 a      1243     0    63     1     3
  1.7475066345624530E-02 a      1244     0    63     1     4
  2.1590070628596653E-01 a      1245     0    63     1     5
  9.8027358965485437E-02 a      1246     0    63     1     6
  5.8715398382365988E-02 a      1247     0    63     1     7
 -2.2009829800907721E-01 a      1248     0    63     1     8
  5.6650675421656277E-02 a      1249     0    63     1     9
 -2.9675476441748817E-02 a      1250     0    63     1    10
  4.1566420607480552E-02 a      1251     0    63     1    11
 -1.1034099472830192E-02 a      1252     0    63     1    12
  4.5615284189069530E-02 a      1253     0    63     1    13
 -1.4454956007763442E-01 a      1254     0    63     1    14
  1.0872166046981027E-01 a      1255     0    63     1    15
 -2.6604859955654264E-01 a      1256     0    63     1    16
 -4.5229978487612919E-02 a      1257     0    63     1    17
  7.9476354908904881E-02 a      1258     0    63     1    18
  4.8731833311594138E-03 a      1259     0    63     1    19
 -6.8805740938693183E-02 a      1260     0    63     1    20
  2.7305963106904307E-01 a      1261     0    64     1     1
 -9.4446194716459028E-02 a      1262     0    64     1     2
  8.9156325730218630E-02 a      1263     0    64     1     3
 -1.5782849599698301E-01 a      1264     0    64     1     4
  2.4270811496853639E-01 a      1265     0    64     1     5
  1.7547848893899942E-01 a      1266     0    64     1     6
  9.0885060503944723E-02 a      1267     0    64     1     7
 -4.3125989723939256E-01 a      1268     0    64     1     8
  1.0540856202634175E-02 a      1269     0    64     1     9
 -1.6719895522643986E-02 a      1270     0    64     1    10
 -4.0253065613849387E-01 a      1271     0    64     1    11
  1.1432722009753656E-01 a      1272     0    64     1    12
 -1.5525620847739159E-02 a      1273     0    64     1    13
 -1.1632625158501285E-01 a      1274     0    64     1    14
  2.2874901713019877E-01 a      1275     0    64     1    15
  9.3822783821674818E-02 a      1276     0    64     1    16
 -2.1121402863452263E-01 a      1277     0    64     1    17
 -7.3700722267382904E-02 a      1278     0    64     1    18
  2.0778521535738675E-01 a      1279     0    64     1    19
  6.0739871336269916E-02 a      1280     0    64     1    20
 -1.0659781650165841E-01 a      1281     0    65     1     1
  3.6923007147635627E-02 a      1282     0    65     1     2
  8.1586138260596741E-02 a      1283     0    65     1     3
 -1.6254531348537243E-01 a      1284     0    65     1     4
 -9.8367983737854478E-02 a      1285     0    65     1     5
  1.2213388107155358E-01 a      1286     0    65     1     6
 -3.8462956361712271E-02 a      1287     0    65     1     7
 -8.2639723806621559E-02 a      1288     0    65     1     8
 -8.0281728632543792E-02 a      1289     0    65     1     9
 -2.0712682156923917E-01 a      1290     0    65     1    10
  9.8515322493701346E-02 a      1291     0    65     1    11
 -2.7330185343244880E-02 a      1292     0    65     1    12
  1.3115724523568062E-01 a      1293     0    65     1    13
 -1.3387191456701949E-02 a      1294     0    65     1    14
  7.8636891449246210E-02 a      1295     0    65     1    15
 -4.8866043595349434E-02 a      1296     0    65     1    16
  3.2517819373329994E-03 a      1297     0    65     1    17
 -3.7319661475750540E-02 a      1298     0    65     1    18
 -2.8486084361356467E-01 a      1299     0    65     1    19
  1.5330897210243427E-01 a      1300     0    65     1    20
  1.8691859852508380E-01 a      1301     0    66     1     1
 -5.4336815324155699E-02 a      1302     0    66     1     2
 -1.9391360045056871E-01 a      1303     0    66     1     3
 -5.6590448019467020E-02 a      1304     0    66     1     4
 -4.7325742112900290E-02 a      1305     0    66     1     5
 -2.7752317788914826E-01 a      1306     0    66     1     6
 -5.2560136433352786E-03 a      1307     0    66     1     7
 -1.5087803546968731E-01 a      1308     0    66     1     8
  5.1148456776640386E-02 a      1309     0    66     1     9
 -5.2654355318258919E-02 a      1310     0    66     1    10
 -1.4682918815802212E-01 a      1311     0    66     1    11
  5.8474675379521862E-02 a      1312     0    66     1    12
 -4.5804470438653391E-02 a      1313     0    66     1    13
 -1.0807018278352924E-01 a      1314     0    66     1    14
 -3.9394604119746900E-02 a      1315     0    66     1    15
 -1.2488207444120940E-01 a      1316     0    66     1    16
 -1.0513889535046037E-02 a      1317     0    66     1    17
  1.6273184605834046E-01 a      1318     0    66     1    18
  1.3150131495496473E-01 a      1319     0    66     1    19
 -1.6874629753640677E-01 a      1320     0    66     1    20
 -4.5261355479805337E-02 a      1321     0    67     1     1
 -2.8501355288199897E-02 a      1322     0    67     1     2
 -1.2851306475488749E-02 a      1323     0    67     1     3
  1.7257350911730637E-02 a      1324     0    67     1     4
  1.2720935394882030E-01 a      1325     0    67     1     5
  2.7262542135251217E-02 a      1326     0    67     1     6
  1.3924050554891398E-01 a      1327     0    67     1     7
 -7.7071829068342465E-02 a      1328     0    67     1     8
  2.0644861474890183E-02 a      1329     0    67     1     9
  1.6881205809382907E-01 a      1330     0    67     1    10
 -7.8149889773564921E-02 a      1331     0    67     1    11
 -5.9345299330667289E-02 a      1332     0    67     1    12
 -6.9039725778789238E-02 a      1333     0    67     1    13
 -1.1672537992807215E-01 a      1334     0    67     1    14
  7.7986443809788031E-02 a      1335     0    67     1    15
 -1.4313982467037611E-01 a      1336     0    67     1    16
 -4.0830014351612770E-03 a      1337     0    67     1    17
  7.7303131961247759E-02 a      1338     0    67     1    18
  5.3437145360580279E-02 a      1339     0    67     1    19
 -1.6028779241460098E-02 a      1340     0    67     1    20
  1.3838194664821288E-01 a      1341     0    68     1     1
 -4.6321314011261550E-02 a      1342     0    68     1     2
  6.1521284489035440E-02 a      1343     0    68     1     3
 -4.5990218279804346E-02 a      1344     0    68     1     4
  3.5829675108105391E-02 a      1345     0    68     1     5
  6.8343997466562278E-02 a      1346     0    68     1     6
  7.3386093657527032E-02 a      1347     0    68     1     7
 -1.9253020238071472E-01 a      1348     0    68     1     8
  6.5287136051528485E-02 a      1349     0    68     1     9
 -6.0440060599001956E-02 a      1350     0    68     1    10
 -1.5570268350448480E-01 a      1351     0    68     1    11
  4.8388685241119000E-02 a      1352     0    68     1    12
 -4.2414962993948917E-02 a      1353     0    68     1    13
 -5.0508452728337816E-02 a      1354     0    68     1    14
  9.2074429053032744E-02 a      1355     0    68     1    15
  1.8871923948783154E-01 a      1356     0    68     1    16
 -5.2110445805760859E-02 a      1357     0    68     1    17
 -6.2097787564799833E-04 a      1358     0    68     1    18
  2.8719069394241633E-04 a      1359     0    68     1    19
 -8.9070654825377637E-03 a      1360     0    68     1    20
 -4.4411403937028707E-02 a      1361     0    69     1     1
 -1.1462599858112003E-01 a      1362     0    69     1     2
  1.5936287066325353E-01 a      1363     0    69     1     3
 -1.5639186644897071E-01 a      1364     0    69     1     4
  1.9861626235972546E-01 a      1365     0    69     1     5
  2.6362723033835173E-01 a      1366     0    69     1     6
  1.6187759018822945E-01 a      1367     0    69     1     7
 -1.5883484804148545E-01 a      1368     0    69     1     8
  8.7604113479537227E-02 a      1369     0    69     1     9
 -6.7631957794425726E-02 a      1370     0    69     1    10
 -4.0697096735509523E-02 a      1371     0    69     1    11
  1.2980235159711800E-01 a      1372     0    69     1    12
  5.1005794883654795E-02 a      1373     0    69     1    13
 -1.3584383694873925E-01 a      1374     0    69     1    14
  3.2623962619857345E-02 a      1375     0    69     1    15
  5.3695073703571003E-02 a      1376     0    69     1    16
 -9.6272418018828673E-02 a      1377     0    69     1    17
  1.1199561985036047E-03 a      1378     0    69     1    18
  5.0279495715646244E-02 a      1379     0    69     1    19
  7.0141239913368736E-02 a      1380     0    69     1    20
 -1.8132998357367477E-01 a      1381     0    70     1     1
 -4.4057766641365882E-02 a      1382     0    70     1     2
  1.1343533498270252E-01 a      1383     0    70     1     3
 -4.3544540746565175E-01 a      1384     0    70     1     4
 -5.5607084779859005E-02 a      1385     0    70     1     5
  3.0579232893200248E-02 a      1386     0    70     1     6
 -1.0884777843309000E-01 a      1387     0    70     1     7
  6.4182027825104432E-02 a      1388     0    70     1     8
  1.1045725372620402E-01 a      1389     0    70     1     9
  3.9526103711624546E-03 a      1390     0    70     1    10
  2.6988411603305734E-01 a      1391     0    70     1    11
  1.6917452332334257E-01 a      1392     0    70     1    12
 -1.2697116081776993E-01 a      1393     0    70     1    13
  2.4169793747905274E-01 a      1394     0    70     1    14
 -2.5326730624180321E-01 a      1395     0    70     1    15
 -4.9453373744488766E-01 a      1396     0    70     1    16
  1.2821593971378620E-01 a      1397     0    70     1    17
 -1.5930954732339994E-01 a      1398     0    70     1    18
 -1.9147569303389324E-02 a      1399     0    70     1    19
  4.1550463462949910E-02 a      1400     0    70     1    20
  1.4255241393058629E-01 a      1401     0    71     1     1
 -9.0683474923813193E-02 a      1402     0    71     1     2
  1.7973921366823209E-01 a      1403     0    71     1     3
 -1.0881574801067105E-01 a      1404     0    71     1     4
  1.7634683364498662E-02 a      1405     0    71     1     5
  3.1152056544946041E-03 a      1406     0    71     1     6
 -6.6096971173893362E-02 a      1407     0    71     1     7
  1.9004988489726282E-01 a      1408     0    71     1     8
 -3.1304607774059773E-01 a      1409     0    71     1     9
  3.7994595036576005E-02 a      1410     0    71     1    10
  4.0223663073078869E-01 a      1411     0    71     1    11
 -4.6708253177200737E-01 a      1412     0    71     1    12
  2.8338185210075378E-01 a      1413     0    71     1    13
  3.5365039692566286E-01 a      1414     0    71     1    14
  2.9267862999397370E-01 a      1415     0    71     1    15
 -6.1375373465575755E-01 a      1416     0    71     1    16
 -1.6055822064390773E-01 a      1417     0    71     1    17
  9.0500530441152471E-02 a      1418     0    71     1    18
  7.0320871974995966E-02 a      1419     0    71     1    19
 -7.8243842239862971E-02 a      1420     0    71     1    20
 -6.3068717082295750E-02 a      1421     0    72     1     1
  1.9278618427549955E-02 a      1422     0    72     1     2
  5.4461668226964965E-02 a      1423     0    72     1     3
  5.2476577541477810E-02 a      1424     0    72     1     4
 -3.3077873815431161E-02 a      1425     0    72     1     5
 -3.5850294411509026E-02 a      1426     0    72     1     6
  9.2521439063839653E-03 a      1427     0    72     1     7
 -4.9145065744737988E-02 a      1428     0    72     1     8
 -3.9151022936507532E-02 a      1429     0    72     1     9
  2.0827930879285219E-02 a      1430     0    72     1    10
 -1.2858610548952801E-01 a      1431     0    72     1    11
  5.5737446706508868E-02 a      1432     0    72     1    12
 -2.5407376819066733E-02 a      1433     0    72     1    13
  7.1127455838180115E-02 a      1434     0    72     1    14
  7.7911692161558382E-02 a      1435     0    72     1    15
  9.9931753870965936E-02 a      1436     0    72     1    16
  7.2691923464064473E-02 a      1437     0    72     1    17
  2.3581003682700236E-02 a      1438     0    72     1    18
 -5.1304050163634377E-03 a      1439     0    72     1    19
 -3.0264628955439056E-02 a      1440     0    72     1    20
  3.7595386578527831E-02 a      1441     0    73     1     1
 -1.3901247601477424E-02 a      1442     0    73     1     2
  5.9766412690725884E-02 a      1443     0    73     1     3
 -5.3871435270529663E-02 a      1444     0    73     1     4
 -1.2842190019067493E-01 a      1445     0    73     1     5
  7.8982453869358340E-03 a      1446     0    73     1     6
  4.4011837834483536E-02 a      1447     0    73     1     7
 -1.0820328902462165E-01 a      1448     0    73     1     8
  6.0254372132144705E-02 a      1449     0    73     1     9
  1.5662293153556668E-02 a      1450     0    73     1    10
 -3.0507055294359795E-02 a      1451     0    73     1    11
 -7.5582829362369194E-02 a      1452     0    73     1    12
 -4.3866234722934251E-02 a      1453     0    73     1    13
 -2.8828940008500708E-02 a      1454     0    73     1    14
 -1.1788126869390464E-02 a      1455     0    73     1    15
 -9.2540698439217042E-02 a      1456     0    73     1    16
  6.2482174492147942E-03 a      1457     0    73     1    17
  1.1993879585451738E-02 a      1458     0    73     1    18
 -3.8172858670304489E-02 a      1459     0    73     1    19
 -6.8117927715186544E-02 a      1460     0    73     1    20
 -4.6694477552726621E-01 a      1461     0    74     1     1
  5.1731830683374536E-01 a      1462     0    74     1     2
 -1.5542082106604113E-01 a      1463     0    74     1     3
  1.1043648899758533E-01 a      1464     0    74     1     4
 -1.0597273166736754E+00 a      1465     0    74     1     5
 -9.6432978003120173E-02 a      1466     0    74     1     6
 -1.1968047810657956E-01 a      1467     0    74     1     7
 -2.6069979693418466E-01 a      1468     0    74     1     8
  8.2176888066265763E-01 a      1469     0    74     1     9
 -2.7283454620667380E-01 a      1470     0    74     1    10
  1.2862100972941770E-01 a      1471     0    74     1    11
  3.0417351075533877E-01 a      1472     0    74     1    12
 -2.0051502638698859E-01 a      1473     0    74     1    13
 -2.1821406774589766E-01 a      1474     0    74     1    14
 -9.9042687664026829E-01 a      1475     0    74     1    15
 -3.0886852746162186E-01 a      1476     0    74     1    16
  4.3450519297912477E-01 a      1477     0    74     1    17
  6.1550947337919749E-02 a      1478     0    74     1    18
 -9.9944250114427313E-01 a      1479     0    74     1    19
 -2.4843840617767088E-01 a      1480     0    74     1    20
  4.3899293059300765E-02 a      1481     0    75     1     1
 -1.9616330714565955E-01 a      1482     0    75     1     2
 -8.7388057266703997E-02 a      1483     0    75     1     3
  8.9232081490428893E-03 a      1484     0    75     1     4
  1.6393276742796073E-01 a      1485     0    75     1     5
  1.5574356442762813E-01 a      1486     0    75     1     6
  8.2994907122798001E-02 a      1487     0    75     1     7
 -8.2475033699046477E-02 a      1488     0    75     1     8
  9.7748959189317239E-02 a      1489     0    75     1     9
 -1.6319159113375881E-01 a      1490     0    75     1    10
  9.5903983694847095E-02 a      1491     0    75     1    11
 -8.0885536972504959E-02 a      1492     0    75     1    12
  1.2839494482133523E-01 a      1493     0    75     1    13
 -3.0968096282348659E-02 a      1494     0    75     1    14
  1.4497502709916859E-02 a      1495     0    75     1    15
  5.0952456531395358E-02 a      1496     0    75     1    16
 -5.5311585210535093E-02 a      1497     0    75     1    17
  1.4379853269771525E-01 a      1498     0    75     1    18
  1.6560577782262967E-01 a      1499     0    75     1    19
 -1.4383023273484871E-01 a      1500     0    75     1    20
 -1.1715556601782671E-01 a      1501     0    76     1     1
 -2.3781097890815589E-01 a      1502     0    76     1     2
 -2.7126764193890091E-01 a      1503     0    76     1     3
 -2.6640669980024217E-01 a      1504     0    76     1     4
 -2.3323712241711442E-01 a      1505     0    76     1     5
 -2.2245625232030669E-01 a      1506     0    76     1     6
 -1.3414894265955208E-02 a      1507     0    76     1     7
  9.0032891128666553E-02 a      1508     0    76     1     8
  1.5824307457732298E-01 a      1509     0    76     1     9
  1.4581854911725639E-02 a      1510     0    76     1    10
  1.0344742339394915E-01 a      1511     0    76     1    11
  1.3061357117962505E-01 a      1512     0    76     1    12
 -1.5386668434298728E-02 a      1513     0    76     1    13
  2.7935642263925736E-01 a      1514     0    76     1    14
 -1.8845973634632157E-01 a      1515     0    76     1    15
 -1.8288590173067582E-01 a      1516     0    76     1    16
 -1.5420989269973095E-01 a      1517     0    76     1    17
  5.8440411309918075E-02 a      1518     0    76     1    18
  9.1090727679744674E-02 a      1519     0    76     1    19
 -1.0697617106472933E-01 a      1520     0    76     1    20
 -8.5454613179524672E-02 a      1521     0    77     1     1
  2.1188298557728479E-02 a      1522     0    77     1     2
 -6.5670139951122933E-02 a      1523     0    77     1     3
  6.0299852381798240E-02 a      1524     0    77     1     4
 -6.4053239565323244E-02 a      1525     0    77     1     5
  4.6987314422267550E-02 a      1526     0    77     1     6
 -5.2624085342270012E-02 a      1527     0    77     1     7
  2.1907973896122274E-02 a      1528     0    77     1     8
  2.5788113665000681E-02 a      1529     0    77     1     9
 -3.5192898465633005E-02 a      1530     0    77     1    10
  1.6428983738624395E-01 a      1531     0    77     1    11
 -7.4901456213950557E-02 a      1532     0    77     1    12
 -4.6783462130821858E-02 a      1533     0    77     1    13
 -2.0762594900805014E-04 a      1534     0    77     1    14
 -8.7247590008792841E-02 a      1535     0    77     1    15
 -6.0622056921480469E-02 a      1536     0    77     1    16
  6.4421706372366605E-02 a      1537     0    77     1    17
 -7.4055285420555700E-02 a      1538     0    77     1    18
  2.4717008819157060E-02 a      1539     0    77     1    19
  2.1907000240391238E-02 a      1540     0    77     1    20
 -8.3857144215886081E-02 a      1541     0    78     1     1
  1.6770746704437775E-01 a      1542     0    78     1     2
 -2.2966018962748223E-03 a      1543     0    78     1     3
 -1.3950786190191464E-01 a      1544     0    78     1     4
  1.5004074259282740E-01 a      1545     0    78     1     5
 -9.5112466463450743E-02 a      1546     0    78     1     6
 -2.2759360069428405E-01 a      1547     0    78     1     7
  1.7205925015275855E-01 a      1548     0    78     1     8
 -1.1519281924534475E-01 a      1549     0    78     1     9
 -1.8030525758563884E-02 a      1550     0    78     1    10
  5.7170846482597366E-03 a      1551     0    78     1    11
  2.3207600556591873E-01 a      1552     0    78     1    12
 -1.0863568747031919E-01 a      1553     0    78     1    13
 -1.1848727881547272E-01 a      1554     0    78     1    14
  2.2451350840708856E-01 a      1555     0    78     1    15
 -3.2213988171276325E-02 a      1556     0    78     1    16
  3.1052050275652310E-01 a      1557     0    78     1    17
 -6.8960775128362684E-02 a      1558     0    78     1    18
 -1.3937721003961193E-01 a      1559     0    78     1    19
  4.8705149317630030E-02 a      1560     0    78     1    20
  1.2840953360057153E-01 a      1561     0    79     1     1
 -4.4922683729317392E-04 a      1562     0    79     1     2
  1.2773829322914521E-01 a      1563     0    79     1     3
 -1.3041653239977694E-01 a      1564     0    79     1     4
  2.0804938343080333E-03 a      1565     0    79     1     5
  2.5908218644222242E-02 a      1566     0    79     1     6
  4.0864840127927585E-02 a      1567     0    79     1     7
  4.4580709406222691E-02 a      1568     0    79     1     8
 -6.9019320382492852E-02 a      1569     0    79     1     9
  1.2619554799607520E-04 a      1570     0    79     1    10
 -6.6493450417058453E-02 a      1571     0    79     1    11
  1.1516828911711445E-01 a      1572     0    79     1    12
  9.4160512694271239E-02 a      1573     0    79     1    13
  1.4347418138167758E-01 a      1574     0    79     1    14
  2.6329649844796521E-02 a      1575     0    79     1    15
  3.0121146977117541E-02 a      1576     0    79     1    16
 -1.4633096939706774E-01 a      1577     0    79     1    17
  4.6790196812617008E-02 a      1578     0    79     1    18
  1.1629425936435463E-02 a      1579     0    79     1    19
 -2.5946845506126071E-02 a      1580     0    79     1    20
  2.8679271608894091E-01 a      1581     0    80     1     1
 -3.7642370639321693E-01 a      1582     0    80     1     2
  2.4527585352910589E-01 a      1583     0    80     1     3
 -5.3719957575302395E-02 a      1584     0    80     1     4
  1.6401566821692068E-01 a      1585     0    80     1     5
  1.3358228198179550E-01 a      1586     0    80     1     6
  1.3737542038550943E-01 a      1587     0    80     1     7
 -1.9279528311475769E-01 a      1588     0    80     1     8
 -2.1420923519520790E-01 a      1589     0    80     1     9
  3.5784390909006578E-02 a      1590     0    80     1    10
 -1.3167352055513271E-01 a      1591     0    80     1    11
 -4.9173226566794882E-02 a      1592     0    80     1    12
  1.6507026525965926E-01 a      1593     0    80     1    13
  7.6810376126043106E-02 a      1594     0    80     1    14
  2.8656829321422517E-01 a      1595     0    80     1    15
 -2.1725193914760767E-02 a      1596     0    80     1    16
 -2.3951517369842518E-01 a      1597     0    80     1    17
  3.2324906096650646E-01 a      1598     0    80     1    18
  5.1009928677355587E-01 a      1599     0    80     1    19
 -3.5976214448481414E-01 a      1600     0    80     1    20
 -2.2029856291338507E-01 b      1601     1     1
  8.1181999836527641E-01 b      1602     1     2
  4.6154413384499479E-02 b      1603     1     3
 -9.2163431651660976E-01 b      1604     1     4
  5.9364958111748833E-01 b      1605     1     5
  3.2476870536125324E-01 b      1606     1     6
 -3.6350853479669196E-02 b      1607     1     7
  5.5773874555633329E-01 b      1608     1     8
  1.3216073070602927E+00 b      1609     1     9
 -1.1966194104835175E-01 b      1610     1    10
 -7.5212482560495286E-01 b      1611     1    11
 -1.4948036885970772E-01 b      1612     1    12
  5.1565680794853885E-01 b      1613     1    13
  6.9438243852680248E-01 b      1614     1    14
  8.5107966580992322E-01 b      1615     1    15
 -1.1615126334848720E+00 b      1616     1    16
 -2.3095602937320027E-02 b      1617     1    17
 -1.5268039066956915E-01 b      1618     1    18
  1.2885874844705729E+00 b      1619     1    19
  3.3254032456743987E-01 b      1620     1    20
  4.6524526268660965E-01 a      1621     1     1     2     1
 -6.3061092594951984E-01 a      1622     1     1     2     2
  5.9149043019459813E-01 a      1623     1     1     2     3
 -2.6941416571152021E-01 a      1624     1     1     2     4
 -1.9023322086496408E-01 a      1625     1     1     2     5
 -7.7066708237144232E-02 a      1626     1     1     2     6
  1.8208326307867354E-01 a      1627     1     1     2     7
