################################################################################
# Neural network connection values (weights and biases).
################################################################################
# Col  Name       Description
################################################################################
# 1    connection Neural network connection value.
# 2    t          Connection type (a = weight, b = bias).
# 3    index      Index enumerating weights.
# 4    l_s        Starting point layer (end point layer for biases).
# 5    n_s        Starting point neuron in starting layer (end point neuron for biases).
# 6    l_e        End point layer.
# 7    n_e        End point neuron in end layer.
################################################################################
#                      1 2         3     4     5     6     7
#             connection t     index   l_s   n_s   l_e   n_e
############################################################
 -1.2737019317634660E-01 a         1     0     1     1     1
  1.8073519516527278E-01 a         2     0     1     1     2
 -2.8516516756386185E-02 a         3     0     1     1     3
  3.7350580257719902E-02 a         4     0     1     1     4
 -1.1842193565052962E-02 a         5     0     1     1     5
  2.0049597278892392E-01 a         6     0     1     1     6
 -1.3508952266226745E-01 a         7     0     1     1     7
 -1.0031099512904618E-01 a         8     0     1     1     8
  1.6002029091930262E-01 a         9     0     1     1     9
  1.1910285121753215E-01 a        10     0     1     1    10
 -7.7748574628964118E-02 a        11     0     1     1    11
 -9.6154805681678640E-02 a        12     0     1     1    12
  1.8800704044705310E-01 a        13     0     1     1    13
  2.6781624824925011E-02 a        14     0     1     1    14
  2.0592579010213077E-01 a        15     0     1     1    15
  4.9379211023076207E-02 a        16     0     1     1    16
 -9.8994177752979709E-02 a        17     0     1     1    17
 -3.0461708403215080E-02 a        18     0     1     1    18
  9.8661801723752329E-02 a        19     0     1     1    19
 -1.0655217665725376E-01 a        20     0     1     1    20
  9.1608650923299256E-02 a        21     0     2     1     1
 -2.8249802326379757E-02 a        22     0     2     1     2
  2.5113485026228655E-01 a        23     0     2     1     3
  3.7859262584248647E-02 a        24     0     2     1     4
  1.3675792363290162E-01 a        25     0     2     1     5
 -1.9445352557170489E-01 a        26     0     2     1     6
  2.6084623063381035E-01 a        27     0     2     1     7
  1.5302713860134112E-01 a        28     0     2     1     8
 -8.3064523367092649E-02 a        29     0     2     1     9
 -9.3928208494190139E-03 a        30     0     2     1    10
  2.3032129217111216E-01 a        31     0     2     1    11
 -5.7569593085901996E-02 a        32     0     2     1    12
  2.7973573691285231E-01 a        33     0     2     1    13
 -5.9318582832181915E-02 a        34     0     2     1    14
 -1.0933705116773537E-01 a        35     0     2     1    15
  1.2558137078227219E-01 a        36     0     2     1    16
  3.6055284908859880E-01 a        37     0     2     1    17
 -2.9621912717607394E-02 a        38     0     2     1    18
  1.1206324407273201E-01 a        39     0     2     1    19
  5.2594194895153545E-02 a        40     0     2     1    20
  8.6133924278450430E-02 a        41     0     3     1     1
  4.4903290387213490E-01 a        42     0     3     1     2
  1.7930693862894954E-02 a        43     0     3     1     3
 -2.5178326041603871E-01 a        44     0     3     1     4
  5.1193250304238291E-01 a        45     0     3     1     5
  1.6031185028208803E-02 a        46     0     3     1     6
  3.9105799943026714E-01 a        47     0     3     1     7
 -4.7736704935911511E-01 a        48     0     3     1     8
 -5.8543543396773823E-01 a        49     0     3     1     9
  1.3725331622624963E+00 a        50     0     3     1    10
  6.4128302252549590E-02 a        51     0     3     1    11
  4.1245714762829766E-01 a        52     0     3     1    12
 -1.4468436601883364E-01 a        53     0     3     1    13
 -4.6144538955700309E-01 a        54     0     3     1    14
  2.5436675133689041E-01 a        55     0     3     1    15
  4.4615288704824496E-01 a        56     0     3     1    16
  1.9826011043288627E-01 a        57     0     3     1    17
  3.7428159463203034E-02 a        58     0     3     1    18
  1.6371948195604777E-01 a        59     0     3     1    19
 -6.1123588163299813E-01 a        60     0     3     1    20
 -1.7637617443653572E-01 a        61     0     4     1     1
 -2.7733962082979219E-01 a        62     0     4     1     2
 -4.5723119590643187E-02 a        63     0     4     1     3
  3.7150481653038164E-02 a        64     0     4     1     4
  1.3062023597722280E-01 a        65     0     4     1     5
  3.3149245290993459E-02 a        66     0     4     1     6
  1.1063070440020611E-02 a        67     0     4     1     7
 -1.5074608056884323E-02 a        68     0     4     1     8
  1.3101376797103417E-01 a        69     0     4     1     9
  4.9244630911699262E-02 a        70     0     4     1    10
 -5.9615194508198403E-02 a        71     0     4     1    11
 -1.2772753296827991E-01 a        72     0     4     1    12
 -6.9751627670468677E-02 a        73     0     4     1    13
  8.8165121278160091E-02 a        74     0     4     1    14
 -4.9672162416652788E-02 a        75     0     4     1    15
  8.4688226836095587E-03 a        76     0     4     1    16
  1.7648292254589328E-02 a        77     0     4     1    17
 -2.0753964340627123E-01 a        78     0     4     1    18
 -9.6410209090035504E-02 a        79     0     4     1    19
 -2.4956082385554870E-02 a        80     0     4     1    20
  1.2445881335119270E-01 a        81     0     5     1     1
 -6.9425206662746125E-02 a        82     0     5     1     2
 -1.0102218671342814E-01 a        83     0     5     1     3
 -8.5051552775911712E-02 a        84     0     5     1     4
  1.2043932646120654E-02 a        85     0     5     1     5
 -1.9682169599772423E-01 a        86     0     5     1     6
  1.7679796888627389E-01 a        87     0     5     1     7
  2.2476758998558280E-01 a        88     0     5     1     8
 -2.6351488086785998E-02 a        89     0     5     1     9
  4.6853064854368583E-02 a        90     0     5     1    10
  2.2649723707053791E-02 a        91     0     5     1    11
  6.6245975360810089E-02 a        92     0     5     1    12
 -1.3241955129585528E-01 a        93     0     5     1    13
 -1.6255708597344859E-01 a        94     0     5     1    14
 -1.4580976706465651E-01 a        95     0     5     1    15
 -5.6397549906651100E-02 a        96     0     5     1    16
 -5.4278696705862974E-02 a        97     0     5     1    17
 -4.6629899465503576E-02 a        98     0     5     1    18
 -2.3426946905881488E-01 a        99     0     5     1    19
 -1.3147379982782672E-02 a       100     0     5     1    20
  9.7209673451482112E-02 a       101     0     6     1     1
 -7.1953062354645778E-03 a       102     0     6     1     2
  6.0239630526635474E-02 a       103     0     6     1     3
 -4.9271834570998922E-02 a       104     0     6     1     4
  1.0814995832074029E-01 a       105     0     6     1     5
  1.3580376413553205E-01 a       106     0     6     1     6
 -9.1420518555613201E-02 a       107     0     6     1     7
 -1.1133327600295151E-01 a       108     0     6     1     8
 -1.4292160089052650E-01 a       109     0     6     1     9
 -3.2297193779517452E-01 a       110     0     6     1    10
 -2.2504289301536456E-01 a       111     0     6     1    11
  1.3634961958495467E-01 a       112     0     6     1    12
 -1.2144242654799720E-01 a       113     0     6     1    13
 -1.7049919543264923E-02 a       114     0     6     1    14
 -3.0881941998815154E-01 a       115     0     6     1    15
 -2.1304273145272980E-02 a       116     0     6     1    16
  4.2363064550826404E-02 a       117     0     6     1    17
  3.2277805453762326E-01 a       118     0     6     1    18
 -7.5923745638906484E-02 a       119     0     6     1    19
  2.8871776365976359E-01 a       120     0     6     1    20
 -2.1326391732347583E-01 a       121     0     7     1     1
 -3.1209704120136411E-01 a       122     0     7     1     2
  2.4101916481179261E-01 a       123     0     7     1     3
 -1.8336043135547032E-02 a       124     0     7     1     4
 -4.3481469517397059E-01 a       125     0     7     1     5
  2.1036943498580404E-01 a       126     0     7     1     6
  2.0443528121124110E-01 a       127     0     7     1     7
  4.9507751313018838E-01 a       128     0     7     1     8
  1.1934897172785770E+00 a       129     0     7     1     9
 -4.4841586404616951E-01 a       130     0     7     1    10
  7.3525904323928871E-03 a       131     0     7     1    11
 -8.2368804865125755E-01 a       132     0     7     1    12
  3.2095884588559304E-01 a       133     0     7     1    13
  9.8354481883556374E-02 a       134     0     7     1    14
 -3.6235787680069520E-02 a       135     0     7     1    15
 -4.0868140803783937E-01 a       136     0     7     1    16
  1.2373185586412894E-01 a       137     0     7     1    17
  8.9073756060410278E-02 a       138     0     7     1    18
 -2.1214058274206532E-01 a       139     0     7     1    19
 -1.4182693618228009E-01 a       140     0     7     1    20
 -1.2217136510714356E-01 a       141     0     8     1     1
 -1.0497693616168226E-02 a       142     0     8     1     2
 -1.3849831264085097E-01 a       143     0     8     1     3
 -2.2977512321825139E-01 a       144     0     8     1     4
 -4.6540109312734562E-04 a       145     0     8     1     5
 -2.6712779426164662E-01 a       146     0     8     1     6
  7.9110888103649621E-02 a       147     0     8     1     7
 -6.5192566636049651E-02 a       148     0     8     1     8
 -2.0794517354631811E-01 a       149     0     8     1     9
 -5.5056480093143546E-02 a       150     0     8     1    10
  8.3696706910331722E-02 a       151     0     8     1    11
  2.0667406748563982E-01 a       152     0     8     1    12
 -1.4678905047634916E-01 a       153     0     8     1    13
 -6.6168036805485886E-02 a       154     0     8     1    14
  6.1635664721616995E-02 a       155     0     8     1    15
  9.0806570290414987E-02 a       156     0     8     1    16
 -6.2387953989694891E-02 a       157     0     8     1    17
  2.0335261432502080E-01 a       158     0     8     1    18
  1.5714903854295276E-01 a       159     0     8     1    19
 -5.5559078161201821E-02 a       160     0     8     1    20
 -1.5083730806360537E-01 a       161     0     9     1     1
  1.1914952263358240E-01 a       162     0     9     1     2
 -1.0229061213636786E-01 a       163     0     9     1     3
  7.4014018922181651E-02 a       164     0     9     1     4
  2.7853596566352792E-02 a       165     0     9     1     5
  1.7455989937951727E-01 a       166     0     9     1     6
 -6.9191010588424071E-02 a       167     0     9     1     7
  5.0351024129345348E-02 a       168     0     9     1     8
  8.1415828395171308E-03 a       169     0     9     1     9
  3.3332922078789122E-02 a       170     0     9     1    10
  1.1163009506414685E-01 a       171     0     9     1    11
 -5.3512136718985463E-02 a       172     0     9     1    12
  2.3996815808880728E-01 a       173     0     9     1    13
 -6.6534664551209252E-02 a       174     0     9     1    14
 -1.4083447765582005E-01 a       175     0     9     1    15
  1.4061704856350399E-01 a       176     0     9     1    16
  1.7166162298452148E-01 a       177     0     9     1    17
  2.0238774803472526E-01 a       178     0     9     1    18
 -8.4367965865467895E-02 a       179     0     9     1    19
  2.8451761812068144E-01 a       180     0     9     1    20
 -1.6183143256768080E-02 a       181     0    10     1     1
  2.8202802414460876E-01 a       182     0    10     1     2
  7.3741563778149097E-02 a       183     0    10     1     3
 -2.5793149534038889E-01 a       184     0    10     1     4
  1.9002198362534259E-01 a       185     0    10     1     5
  2.9535229989937861E-01 a       186     0    10     1     6
  9.6603189241128255E-03 a       187     0    10     1     7
  3.9975977356642395E-01 a       188     0    10     1     8
  1.6293139036993604E-01 a       189     0    10     1     9
  2.4188903627077263E-01 a       190     0    10     1    10
  3.5285447847858309E-02 a       191     0    10     1    11
 -1.7027983101558677E-01 a       192     0    10     1    12
  2.9058810346124114E-01 a       193     0    10     1    13
  1.6040097175634732E-02 a       194     0    10     1    14
 -7.9544687727555533E-02 a       195     0    10     1    15
 -1.1949513321670999E-01 a       196     0    10     1    16
  2.0681535123490682E-01 a       197     0    10     1    17
 -8.3626763333839622E-03 a       198     0    10     1    18
  4.5164172450634553E-02 a       199     0    10     1    19
 -7.8586465524753193E-02 a       200     0    10     1    20
  2.7682106118756061E-01 a       201     0    11     1     1
  9.6819801210599257E-02 a       202     0    11     1     2
 -1.4329255108851852E-01 a       203     0    11     1     3
  2.4323931368123594E-01 a       204     0    11     1     4
  7.2243646046580887E-02 a       205     0    11     1     5
  2.1381427683591300E-01 a       206     0    11     1     6
 -1.0583119931140797E-01 a       207     0    11     1     7
 -2.5193889022076355E-01 a       208     0    11     1     8
 -3.6824410307567318E-01 a       209     0    11     1     9
  4.0797416986995960E-01 a       210     0    11     1    10
  2.8604676836655402E-01 a       211     0    11     1    11
  1.8961512537694236E-01 a       212     0    11     1    12
  2.5860997655999357E-01 a       213     0    11     1    13
 -3.5971446333640039E-01 a       214     0    11     1    14
 -9.7562377754091184E-02 a       215     0    11     1    15
  1.1948634340675554E-01 a       216     0    11     1    16
  1.4761824693514929E-03 a       217     0    11     1    17
 -3.3172002960663177E-01 a       218     0    11     1    18
 -9.6664434553554390E-02 a       219     0    11     1    19
  4.0998541318705436E-02 a       220     0    11     1    20
 -1.2516930674404816E-01 a       221     0    12     1     1
  2.1796950899829426E-01 a       222     0    12     1     2
  1.3875450504798553E-01 a       223     0    12     1     3
 -6.7099428116959667E-02 a       224     0    12     1     4
 -4.8324577128140506E-02 a       225     0    12     1     5
 -1.0812035979953637E-01 a       226     0    12     1     6
  5.0149596089332053E-02 a       227     0    12     1     7
 -4.4938019844684339E-02 a       228     0    12     1     8
  2.5958325115428935E-02 a       229     0    12     1     9
 -1.6822323173727879E-01 a       230     0    12     1    10
 -9.9214377046860702E-02 a       231     0    12     1    11
  9.8263004912839957E-02 a       232     0    12     1    12
  8.4713734250610739E-02 a       233     0    12     1    13
  8.7681138570383010E-02 a       234     0    12     1    14
 -8.2677244105885270E-02 a       235     0    12     1    15
 -1.1140745699612566E-01 a       236     0    12     1    16
  1.0424911372518302E-01 a       237     0    12     1    17
 -6.9178937436296323E-03 a       238     0    12     1    18
 -9.2795753602434514E-02 a       239     0    12     1    19
  1.8628531063107368E-01 a       240     0    12     1    20
  5.8148421436144425E-02 a       241     0    13     1     1
  1.5759759184250793E-01 a       242     0    13     1     2
  2.1555628910304958E-01 a       243     0    13     1     3
  8.0194152755100698E-03 a       244     0    13     1     4
 -8.3580738572735055E-02 a       245     0    13     1     5
 -5.3653884616210561E-02 a       246     0    13     1     6
 -2.6288360884645753E-02 a       247     0    13     1     7
  1.1575778029651446E-01 a       248     0    13     1     8
  4.8814622287845638E-02 a       249     0    13     1     9
  5.7011650288104065E-02 a       250     0    13     1    10
  4.0006427982719778E-02 a       251     0    13     1    11
  1.4683682728000564E-02 a       252     0    13     1    12
 -1.8455244009087369E-02 a       253     0    13     1    13
 -7.5933671931951122E-02 a       254     0    13     1    14
  5.9700302757782098E-02 a       255     0    13     1    15
  5.5292545023322356E-02 a       256     0    13     1    16
 -7.1171249419475960E-02 a       257     0    13     1    17
  8.0723239576130132E-02 a       258     0    13     1    18
  1.1170965908258374E-02 a       259     0    13     1    19
 -2.2403561903876199E-01 a       260     0    13     1    20
 -7.8899210262749694E-02 a       261     0    14     1     1
 -1.2318030587072548E-01 a       262     0    14     1     2
 -1.7549825167912919E-01 a       263     0    14     1     3
  1.1871361587275517E-01 a       264     0    14     1     4
  1.3875722890647840E-01 a       265     0    14     1     5
  3.2548398133492619E-02 a       266     0    14     1     6
 -3.2984494060945412E-02 a       267     0    14     1     7
 -5.8821929862826264E-02 a       268     0    14     1     8
  1.6407129677273488E-01 a       269     0    14     1     9
  9.0514089809543272E-02 a       270     0    14     1    10
  7.3734295717611087E-02 a       271     0    14     1    11
 -2.2207333230421436E-01 a       272     0    14     1    12
 -1.9072180419545004E-01 a       273     0    14     1    13
  2.2304531393202816E-02 a       274     0    14     1    14
  1.5622514256904863E-01 a       275     0    14     1    15
  9.1519558372675641E-02 a       276     0    14     1    16
 -8.6225235374981848E-02 a       277     0    14     1    17
  2.3846794976196579E-02 a       278     0    14     1    18
 -1.8469074720844775E-01 a       279     0    14     1    19
 -5.1975314782728987E-03 a       280     0    14     1    20
 -2.6174264728211233E-01 a       281     0    15     1     1
  2.1389933833357189E-01 a       282     0    15     1     2
  7.4774846366657918E-02 a       283     0    15     1     3
 -1.9462824660241784E-01 a       284     0    15     1     4
 -1.1363085723324411E-01 a       285     0    15     1     5
 -2.1595333257448963E-02 a       286     0    15     1     6
  8.8254279868529600E-02 a       287     0    15     1     7
  1.2634121681186636E-01 a       288     0    15     1     8
 -9.2456306118594025E-02 a       289     0    15     1     9
  1.8975490323338545E-01 a       290     0    15     1    10
 -3.0130102518994573E-01 a       291     0    15     1    11
  1.0831741313205269E-01 a       292     0    15     1    12
 -1.3083726925491704E-01 a       293     0    15     1    13
  2.2398012983510093E-01 a       294     0    15     1    14
  1.8044282285568786E-01 a       295     0    15     1    15
 -4.7696965000069196E-02 a       296     0    15     1    16
  6.3228986923699382E-02 a       297     0    15     1    17
  1.5188337230988877E-01 a       298     0    15     1    18
  1.8763762200859349E-01 a       299     0    15     1    19
 -3.1439603323835902E-01 a       300     0    15     1    20
  2.6522310124116039E-01 a       301     0    16     1     1
 -2.0933148151486461E-01 a       302     0    16     1     2
  1.7043635835919502E-01 a       303     0    16     1     3
 -1.6617824279684962E-01 a       304     0    16     1     4
  1.6191360023961762E-01 a       305     0    16     1     5
  1.3986705945234065E-01 a       306     0    16     1     6
  3.1150281596148804E-01 a       307     0    16     1     7
  4.2914818164776936E-02 a       308     0    16     1     8
  1.7558211378118185E-01 a       309     0    16     1     9
  2.5912253816837411E-01 a       310     0    16     1    10
  8.3781333474376218E-02 a       311     0    16     1    11
 -2.1192621402709932E-01 a       312     0    16     1    12
 -5.9100232065571016E-02 a       313     0    16     1    13
  2.1001536402408980E-01 a       314     0    16     1    14
 -3.9034030680350967E-02 a       315     0    16     1    15
  6.7190782045213698E-02 a       316     0    16     1    16
  9.4690076964873957E-02 a       317     0    16     1    17
  2.6675114063027333E-02 a       318     0    16     1    18
  7.6635540374975344E-02 a       319     0    16     1    19
  1.0263502199283350E-01 a       320     0    16     1    20
  1.7101722594499885E-01 a       321     0    17     1     1
  3.5833125560505504E-02 a       322     0    17     1     2
 -1.4545799238182675E-01 a       323     0    17     1     3
 -3.4983725626089784E-02 a       324     0    17     1     4
  1.5177907880361021E-02 a       325     0    17     1     5
  3.6122365689547534E-02 a       326     0    17     1     6
  3.7420579623665212E-02 a       327     0    17     1     7
  8.4072535426535464E-02 a       328     0    17     1     8
 -3.9914207249253715E-02 a       329     0    17     1     9
  9.5285836056199502E-02 a       330     0    17     1    10
 -1.5602095214781364E-01 a       331     0    17     1    11
 -4.5222638584097717E-02 a       332     0    17     1    12
  1.3423035229906150E-01 a       333     0    17     1    13
  4.2727869248120602E-02 a       334     0    17     1    14
  4.1587105744516718E-02 a       335     0    17     1    15
 -8.0854573817358860E-02 a       336     0    17     1    16
 -4.0273013589510506E-02 a       337     0    17     1    17
 -9.8986943696794144E-02 a       338     0    17     1    18
 -5.8082387834718086E-02 a       339     0    17     1    19
  1.6757703957740988E-01 a       340     0    17     1    20
 -1.9468878353284119E-02 a       341     0    18     1     1
 -1.4759398546698719E-02 a       342     0    18     1     2
  6.9038572862102021E-02 a       343     0    18     1     3
 -5.7703118880493037E-02 a       344     0    18     1     4
  1.1620132835696148E-01 a       345     0    18     1     5
 -2.0622873241841862E-02 a       346     0    18     1     6
  1.4656455059821133E-01 a       347     0    18     1     7
 -2.1573395069223688E-02 a       348     0    18     1     8
 -6.8222257681123860E-02 a       349     0    18     1     9
 -7.6313022075835402E-02 a       350     0    18     1    10
  7.7324445829083654E-03 a       351     0    18     1    11
  1.0151021224257838E-01 a       352     0    18     1    12
  1.2995578425076254E-01 a       353     0    18     1    13
 -1.1531795507029752E-01 a       354     0    18     1    14
  6.6320947281986689E-02 a       355     0    18     1    15
  7.1605335701340644E-02 a       356     0    18     1    16
  6.2521410053070478E-02 a       357     0    18     1    17
 -3.1669446845413451E-02 a       358     0    18     1    18
  6.8323337156892955E-03 a       359     0    18     1    19
  2.6335777301692626E-01 a       360     0    18     1    20
  4.6592918645417591E-02 a       361     0    19     1     1
 -2.7631560863700011E-01 a       362     0    19     1     2
  3.4290994439237843E-01 a       363     0    19     1     3
  6.9515779231213951E-02 a       364     0    19     1     4
  5.2598895602299786E-02 a       365     0    19     1     5
  3.6400527531538523E-01 a       366     0    19     1     6
  1.8786095949769892E-03 a       367     0    19     1     7
  1.7305086443877918E-01 a       368     0    19     1     8
  4.0402397676985302E-01 a       369     0    19     1     9
 -6.9437284496865070E-01 a       370     0    19     1    10
  7.7077935671070991E-02 a       371     0    19     1    11
 -1.8767936158454862E-01 a       372     0    19     1    12
 -7.9094069494444433E-02 a       373     0    19     1    13
  6.5605158088643908E-02 a       374     0    19     1    14
 -1.1966425474813185E-01 a       375     0    19     1    15
  5.0124967006064227E-03 a       376     0    19     1    16
  7.4218650256154428E-02 a       377     0    19     1    17
  1.9231156161314955E-01 a       378     0    19     1    18
  6.7873265218909018E-02 a       379     0    19     1    19
 -1.2760341858824348E-01 a       380     0    19     1    20
 -1.7957166440647029E-01 a       381     0    20     1     1
 -1.0596918981054600E-01 a       382     0    20     1     2
 -3.0306180397015159E-01 a       383     0    20     1     3
  1.6859019427178334E-01 a       384     0    20     1     4
 -9.6869123037788038E-02 a       385     0    20     1     5
 -7.2628636588500245E-02 a       386     0    20     1     6
 -1.3428053649506189E-01 a       387     0    20     1     7
 -1.3289827412662017E-01 a       388     0    20     1     8
 -1.9017837471501542E-01 a       389     0    20     1     9
 -2.0818795856748229E-01 a       390     0    20     1    10
  3.0911337042905291E-02 a       391     0    20     1    11
  2.1384676954066631E-01 a       392     0    20     1    12
  8.1060209484809284E-02 a       393     0    20     1    13
 -1.2347738272853348E-01 a       394     0    20     1    14
 -6.3809820068255405E-02 a       395     0    20     1    15
  2.1248855618049617E-01 a       396     0    20     1    16
  2.3860298889515000E-01 a       397     0    20     1    17
 -6.4975447993431232E-02 a       398     0    20     1    18
 -1.9731367093233036E-02 a       399     0    20     1    19
 -2.2385377053451627E-01 a       400     0    20     1    20
 -2.9855997944432994E-01 a       401     0    21     1     1
  5.2779578816741307E-02 a       402     0    21     1     2
 -2.1229505158995018E-01 a       403     0    21     1     3
 -8.3125324206344789E-02 a       404     0    21     1     4
  1.4347848535768346E-01 a       405     0    21     1     5
 -1.6511397273985921E-02 a       406     0    21     1     6
 -2.5922121270232323E-01 a       407     0    21     1     7
 -1.1165202649669486E-02 a       408     0    21     1     8
  2.6589917996196688E-01 a       409     0    21     1     9
  2.8865645714806439E-02 a       410     0    21     1    10
  1.1067130000666819E-01 a       411     0    21     1    11
  7.1629754937565474E-02 a       412     0    21     1    12
 -8.2805022615514923E-02 a       413     0    21     1    13
  7.6373571199658208E-02 a       414     0    21     1    14
  7.9888161365194249E-02 a       415     0    21     1    15
  1.2901455907792966E-01 a       416     0    21     1    16
 -6.9324331885751614E-02 a       417     0    21     1    17
  9.4002303977112039E-02 a       418     0    21     1    18
  3.8919060120771246E-02 a       419     0    21     1    19
 -2.9170368019214830E-02 a       420     0    21     1    20
  1.3730398466063673E-01 a       421     0    22     1     1
  9.0739418628537100E-02 a       422     0    22     1     2
  1.8278848369630579E-01 a       423     0    22     1     3
 -6.0152619897396148E-02 a       424     0    22     1     4
 -1.5437823598797402E-02 a       425     0    22     1     5
  1.0166872164289556E-01 a       426     0    22     1     6
  3.7824757101256372E-02 a       427     0    22     1     7
  1.6137285136264617E-01 a       428     0    22     1     8
  3.7965952843426895E-02 a       429     0    22     1     9
 -1.1502399679303309E-01 a       430     0    22     1    10
  5.5859150765446806E-02 a       431     0    22     1    11
 -3.8932455005508335E-02 a       432     0    22     1    12
  1.3531533401653828E-02 a       433     0    22     1    13
 -2.9167464346832338E-02 a       434     0    22     1    14
 -2.2102303657955044E-01 a       435     0    22     1    15
  5.2597048627211755E-02 a       436     0    22     1    16
 -9.8402190123975206E-02 a       437     0    22     1    17
  1.6816300491947500E-01 a       438     0    22     1    18
  3.8632708534608406E-01 a       439     0    22     1    19
 -1.5852821601477543E-01 a       440     0    22     1    20
 -1.0556352335152829E-01 a       441     0    23     1     1
  6.7675138855205860E-02 a       442     0    23     1     2
 -4.4735674855574192E-01 a       443     0    23     1     3
  1.4347011166021101E-01 a       444     0    23     1     4
  1.6051324468443837E-01 a       445     0    23     1     5
 -7.8070502388562446E-02 a       446     0    23     1     6
  9.9398196674574030E-02 a       447     0    23     1     7
 -2.2363078752816104E-01 a       448     0    23     1     8
 -7.5249642493054913E-01 a       449     0    23     1     9
  3.1729547872897923E-01 a       450     0    23     1    10
  6.8982939586095438E-01 a       451     0    23     1    11
  5.5326095462969564E-02 a       452     0    23     1    12
  4.1554307329551038E-01 a       453     0    23     1    13
 -3.5020432603206592E-01 a       454     0    23     1    14
 -2.8626104241577584E-02 a       455     0    23     1    15
 -5.1205133865172503E-02 a       456     0    23     1    16
  3.6343155537058441E-02 a       457     0    23     1    17
 -5.4529323976984692E-02 a       458     0    23     1    18
 -5.9813963517591690E-02 a       459     0    23     1    19
  2.7935192379683643E-02 a       460     0    23     1    20
 -3.1410592557307417E-02 a       461     0    24     1     1
  9.7556276119967297E-02 a       462     0    24     1     2
  2.3819016276936097E-01 a       463     0    24     1     3
 -1.5009270835638397E-01 a       464     0    24     1     4
 -2.1068498908762282E-02 a       465     0    24     1     5
 -3.1357282819780792E-02 a       466     0    24     1     6
 -2.4198393603914545E-02 a       467     0    24     1     7
 -6.9521955921936496E-03 a       468     0    24     1     8
  8.3754056185488673E-02 a       469     0    24     1     9
  9.6639195179915732E-02 a       470     0    24     1    10
 -9.7532241100901695E-02 a       471     0    24     1    11
 -4.3431232628126967E-02 a       472     0    24     1    12
  7.4530568831683991E-02 a       473     0    24     1    13
  1.2028053017455320E-01 a       474     0    24     1    14
 -6.9333284011191890E-02 a       475     0    24     1    15
 -9.4843182277713600E-02 a       476     0    24     1    16
 -2.7229175175597042E-01 a       477     0    24     1    17
 -1.0764409394093890E-02 a       478     0    24     1    18
  1.3898273665337168E-02 a       479     0    24     1    19
 -5.3949810886258213E-02 a       480     0    24     1    20
  1.5082611543769092E-01 a       481     0    25     1     1
 -1.2881685065620069E-01 a       482     0    25     1     2
  1.1021660870811653E-01 a       483     0    25     1     3
  1.0704076408505298E-01 a       484     0    25     1     4
 -6.8178694985858365E-02 a       485     0    25     1     5
  5.3635879410903899E-02 a       486     0    25     1     6
  1.2547817281902218E-01 a       487     0    25     1     7
 -1.3646428027200168E-02 a       488     0    25     1     8
 -1.7712076339032187E-01 a       489     0    25     1     9
 -2.7280727968159817E-02 a       490     0    25     1    10
  2.2859593824619020E-02 a       491     0    25     1    11
 -1.1721956223814782E-01 a       492     0    25     1    12
 -4.0072504228359083E-02 a       493     0    25     1    13
 -4.5696554842119728E-02 a       494     0    25     1    14
 -1.7887834321888779E-01 a       495     0    25     1    15
 -1.3302643439079526E-01 a       496     0    25     1    16
  9.4001481327231046E-02 a       497     0    25     1    17
  5.3429144080805013E-02 a       498     0    25     1    18
 -2.5855074094437874E-01 a       499     0    25     1    19
 -7.9850266797789712E-02 a       500     0    25     1    20
 -9.4592933361982379E-02 a       501     0    26     1     1
 -1.6707540607424828E-01 a       502     0    26     1     2
 -2.3413884558701070E-01 a       503     0    26     1     3
  1.2436002710452474E-02 a       504     0    26     1     4
  9.3088822864628440E-02 a       505     0    26     1     5
 -2.6270860071614995E-02 a       506     0    26     1     6
  3.2761154511355306E-02 a       507     0    26     1     7
  5.5150896737225938E-02 a       508     0    26     1     8
 -1.8781084627498511E-02 a       509     0    26     1     9
 -7.2228643399560422E-02 a       510     0    26     1    10
 -1.2594720863767267E-01 a       511     0    26     1    11
  8.7727621149895407E-02 a       512     0    26     1    12
 -6.4961400006827819E-02 a       513     0    26     1    13
 -1.4666886625920542E-01 a       514     0    26     1    14
  1.9101967562936906E-01 a       515     0    26     1    15
 -9.6623196703396988E-02 a       516     0    26     1    16
  3.9721283369528855E-02 a       517     0    26     1    17
 -2.0056783994944341E-01 a       518     0    26     1    18
 -9.0234728637225065E-02 a       519     0    26     1    19
  8.5400510792077056E-02 a       520     0    26     1    20
  7.1314610255606703E-02 a       521     0    27     1     1
  2.5416196590143658E-01 a       522     0    27     1     2
  2.9639541110513201E-01 a       523     0    27     1     3
 -4.3196903058010175E-02 a       524     0    27     1     4
 -2.4126323870903110E-01 a       525     0    27     1     5
 -2.4972621944328446E-01 a       526     0    27     1     6
  3.6492215517022508E-01 a       527     0    27     1     7
  1.1798242803488018E-01 a       528     0    27     1     8
  7.9890272688995423E-01 a       529     0    27     1     9
  1.1153597353241652E-01 a       530     0    27     1    10
 -8.6851111309809736E-01 a       531     0    27     1    11
  1.5532429039959483E-01 a       532     0    27     1    12
 -2.8127331400348865E-01 a       533     0    27     1    13
  1.4993622175660115E-01 a       534     0    27     1    14
 -1.6781313494907110E-01 a       535     0    27     1    15
  2.7726091374461966E-02 a       536     0    27     1    16
 -1.4983590332997712E-01 a       537     0    27     1    17
  2.7491802344479466E-01 a       538     0    27     1    18
  1.8042285935204427E-01 a       539     0    27     1    19
  1.4211898744915283E-01 a       540     0    27     1    20
  1.1838178494456872E-01 a       541     0    28     1     1
  2.1992817125498731E-02 a       542     0    28     1     2
  1.0811048991228946E-01 a       543     0    28     1     3
  9.5150541761610825E-03 a       544     0    28     1     4
 -1.1452640225276393E-02 a       545     0    28     1     5
  5.7935903532073132E-02 a       546     0    28     1     6
  4.0849598036090068E-01 a       547     0    28     1     7
 -5.8758036740221002E-02 a       548     0    28     1     8
  3.0609879645055706E-02 a       549     0    28     1     9
  2.8737467792183221E-02 a       550     0    28     1    10
  2.5001212908226877E-02 a       551     0    28     1    11
  1.1380166758063748E-01 a       552     0    28     1    12
 -4.7253845530499758E-02 a       553     0    28     1    13
  1.0736960974040134E-02 a       554     0    28     1    14
 -5.6725222897304695E-02 a       555     0    28     1    15
 -1.6845002751906493E-01 a       556     0    28     1    16
  1.8690704694666274E-01 a       557     0    28     1    17
  1.4360230989082562E-01 a       558     0    28     1    18
 -2.2395257110917480E-03 a       559     0    28     1    19
  1.1610706784778894E-01 a       560     0    28     1    20
  7.5660956161336612E-02 a       561     0    29     1     1
  7.3605853143700217E-02 a       562     0    29     1     2
  8.4437644446992796E-02 a       563     0    29     1     3
 -1.6447760589770249E-01 a       564     0    29     1     4
  4.6135249252601401E-02 a       565     0    29     1     5
 -4.5979314188333890E-02 a       566     0    29     1     6
 -1.1367212486440975E-01 a       567     0    29     1     7
  1.0384183766867486E-01 a       568     0    29     1     8
 -5.8916123085759782E-02 a       569     0    29     1     9
  5.5965894286176918E-02 a       570     0    29     1    10
 -4.1275373761313328E-01 a       571     0    29     1    11
  1.5101668814440067E-01 a       572     0    29     1    12
  5.4500373259463011E-02 a       573     0    29     1    13
  6.9383013592194454E-02 a       574     0    29     1    14
  1.7629490104517809E-01 a       575     0    29     1    15
 -1.6259329673931827E-01 a       576     0    29     1    16
  1.7197605859075003E-02 a       577     0    29     1    17
 -1.9991039128446367E-01 a       578     0    29     1    18
 -8.4398533930086575E-02 a       579     0    29     1    19
  1.1711175426801872E-01 a       580     0    29     1    20
  1.8089650821143372E-01 a       581     0    30     1     1
 -5.6115479808584126E-02 a       582     0    30     1     2
  1.4817221058662070E-02 a       583     0    30     1     3
 -4.8936627181676490E-02 a       584     0    30     1     4
 -1.8164155429703404E-03 a       585     0    30     1     5
 -1.3865603132273455E-01 a       586     0    30     1     6
 -5.3380783289391817E-02 a       587     0    30     1     7
 -3.3105531444559749E-01 a       588     0    30     1     8
  1.2672747549236721E-01 a       589     0    30     1     9
  4.4521598547232377E-01 a       590     0    30     1    10
  7.8582381458333059E-02 a       591     0    30     1    11
 -2.7628350549603501E-02 a       592     0    30     1    12
  2.1076676016163247E-02 a       593     0    30     1    13
  1.6823065373875712E-01 a       594     0    30     1    14
 -1.5654582522884479E-02 a       595     0    30     1    15
  1.7620245910652804E-01 a       596     0    30     1    16
  1.4516284770679147E-01 a       597     0    30     1    17
 -1.7750598014821492E-01 a       598     0    30     1    18
 -2.6880563874963598E-01 a       599     0    30     1    19
  1.6690527150202233E-01 a       600     0    30     1    20
  2.2297146519712857E-01 a       601     0    31     1     1
 -3.8106443911954091E-01 a       602     0    31     1     2
 -1.0700040815998475E-01 a       603     0    31     1     3
 -5.7845750233955627E-02 a       604     0    31     1     4
  1.0954964686865094E-01 a       605     0    31     1     5
  4.8316924854931734E-02 a       606     0    31     1     6
 -5.5528328006888872E-01 a       607     0    31     1     7
 -6.1397124797729158E-02 a       608     0    31     1     8
 -5.7511988423081351E-01 a       609     0    31     1     9
 -3.8803868876128361E-01 a       610     0    31     1    10
  8.0233662694967023E-01 a       611     0    31     1    11
 -1.7895343056030644E-01 a       612     0    31     1    12
  9.2849596239823598E-02 a       613     0    31     1    13
  3.2248080854539327E-02 a       614     0    31     1    14
  2.5586532989312782E-01 a       615     0    31     1    15
  1.2602804019154751E-01 a       616     0    31     1    16
  2.2977086995482763E-02 a       617     0    31     1    17
 -2.1414205172373160E-01 a       618     0    31     1    18
 -1.3079924714627414E-01 a       619     0    31     1    19
 -2.2994948301627199E-01 a       620     0    31     1    20
 -2.4931555234532071E-01 a       621     0    32     1     1
 -1.4252731843861116E-01 a       622     0    32     1     2
 -2.2068828391216200E-01 a       623     0    32     1     3
  3.7248881033063880E-01 a       624     0    32     1     4
 -1.4769417236024171E-01 a       625     0    32     1     5
 -4.0216013746905192E-02 a       626     0    32     1     6
 -1.6350513090931162E-01 a       627     0    32     1     7
  2.4484953350851338E-02 a       628     0    32     1     8
 -1.4208076849990126E-01 a       629     0    32     1     9
 -5.1793050297528594E-03 a       630     0    32     1    10
  5.1939264101449789E-01 a       631     0    32     1    11
 -2.8511119070936730E-01 a       632     0    32     1    12
 -5.8206212184043010E-02 a       633     0    32     1    13
 -2.3907956695634788E-01 a       634     0    32     1    14
  1.3432579507669690E-01 a       635     0    32     1    15
  3.7868635132525552E-01 a       636     0    32     1    16
 -3.4736565838903714E-02 a       637     0    32     1    17
 -1.0588184339490962E-01 a       638     0    32     1    18
  2.5037248773882903E-01 a       639     0    32     1    19
 -8.2519669876772492E-02 a       640     0    32     1    20
  5.3877365076837110E-02 a       641     0    33     1     1
 -2.3591103202475209E-02 a       642     0    33     1     2
 -2.4091535242039799E-01 a       643     0    33     1     3
  4.3915745893197806E-02 a       644     0    33     1     4
  1.2331416255561334E-01 a       645     0    33     1     5
 -1.0174101256431589E-02 a       646     0    33     1     6
 -9.7990735792534339E-02 a       647     0    33     1     7
 -3.6324378707801468E-02 a       648     0    33     1     8
  1.9033353635134481E-01 a       649     0    33     1     9
 -3.8070422517149476E-02 a       650     0    33     1    10
  3.1590995698784963E-01 a       651     0    33     1    11
 -1.2613922937426714E-01 a       652     0    33     1    12
 -5.4239208761506258E-02 a       653     0    33     1    13
  4.9423060477021045E-02 a       654     0    33     1    14
 -8.0640534020783389E-02 a       655     0    33     1    15
  2.0086660849320465E-01 a       656     0    33     1    16
 -6.1686846725094370E-02 a       657     0    33     1    17
  1.6343254891041464E-01 a       658     0    33     1    18
  1.7103143949277455E-01 a       659     0    33     1    19
 -3.6444471890435481E-02 a       660     0    33     1    20
 -8.0602676495958273E-02 a       661     0    34     1     1
  1.1442898667193445E-01 a       662     0    34     1     2
  2.6663551289906169E-02 a       663     0    34     1     3
  2.9563400850668484E-02 a       664     0    34     1     4
 -5.2874659732994232E-02 a       665     0    34     1     5
  8.2927300162827997E-02 a       666     0    34     1     6
 -3.3756889092941715E-02 a       667     0    34     1     7
  2.7963385651364087E-01 a       668     0    34     1     8
 -8.0316265744275556E-02 a       669     0    34     1     9
 -2.8730662362250187E-01 a       670     0    34     1    10
 -5.6026062812858497E-02 a       671     0    34     1    11
  3.0119034147772176E-04 a       672     0    34     1    12
 -6.1004132372334631E-02 a       673     0    34     1    13
  1.5926159015619928E-02 a       674     0    34     1    14
 -1.3062978610963102E-01 a       675     0    34     1    15
 -1.6477650563541660E-01 a       676     0    34     1    16
 -2.1322874073078932E-01 a       677     0    34     1    17
  2.1744923152453349E-01 a       678     0    34     1    18
  6.3497355113314669E-02 a       679     0    34     1    19
 -2.1988559858837364E-01 a       680     0    34     1    20
 -7.2554167786345491E-02 a       681     0    35     1     1
  4.4607838451478726E-01 a       682     0    35     1     2
 -1.2543914104987863E-01 a       683     0    35     1     3
  7.0021290324638732E-02 a       684     0    35     1     4
  5.0741605317157809E-02 a       685     0    35     1     5
 -7.7920743505605072E-02 a       686     0    35     1     6
  6.4723992388824314E-01 a       687     0    35     1     7
  9.7449447848924745E-02 a       688     0    35     1     8
  5.3256543942995493E-01 a       689     0    35     1     9
  3.5628215235835914E-01 a       690     0    35     1    10
 -7.5643713953319758E-01 a       691     0    35     1    11
  2.1144339610765348E-01 a       692     0    35     1    12
  5.8426132115873435E-02 a       693     0    35     1    13
 -2.0196903538760475E-01 a       694     0    35     1    14
 -1.0524477843639643E-01 a       695     0    35     1    15
 -3.0320143311680692E-01 a       696     0    35     1    16
 -5.7727025582408678E-02 a       697     0    35     1    17
  2.6308584883892749E-01 a       698     0    35     1    18
 -1.4264649815352107E-01 a       699     0    35     1    19
  1.9586156798662238E-01 a       700     0    35     1    20
  2.9716062924788467E-01 a       701     0    36     1     1
  1.0420100104912533E-01 a       702     0    36     1     2
  1.9172385731809372E-01 a       703     0    36     1     3
 -4.1588120968404235E-01 a       704     0    36     1     4
  1.2488713237836177E-01 a       705     0    36     1     5
 -5.1510295929271505E-02 a       706     0    36     1     6
  9.8506224041645218E-02 a       707     0    36     1     7
 -4.7776089434254668E-02 a       708     0    36     1     8
  1.2067906779450960E-01 a       709     0    36     1     9
 -9.0635016311966021E-02 a       710     0    36     1    10
 -5.2226168506512927E-01 a       711     0    36     1    11
  3.1220629379847858E-01 a       712     0    36     1    12
  1.1998655447235430E-01 a       713     0    36     1    13
  1.3021554004921299E-01 a       714     0    36     1    14
 -2.3942885618472079E-01 a       715     0    36     1    15
 -2.5959688769935951E-01 a       716     0    36     1    16
 -1.4839051428283132E-02 a       717     0    36     1    17
  8.8451327296175011E-02 a       718     0    36     1    18
 -1.2238833865347859E-01 a       719     0    36     1    19
 -7.2170622904323384E-02 a       720     0    36     1    20
 -1.2587873717939366E-01 a       721     0    37     1     1
 -5.9867159989074062E-02 a       722     0    37     1     2
  6.3411405969320087E-02 a       723     0    37     1     3
 -3.8246112453865708E-02 a       724     0    37     1     4
 -3.5173806225872510E-02 a       725     0    37     1     5
  1.1331847234394564E-01 a       726     0    37     1     6
  2.8875446617451551E-02 a       727     0    37     1     7
 -7.0782586900549477E-02 a       728     0    37     1     8
 -6.0937804380676905E-02 a       729     0    37     1     9
 -3.7350276204357645E-03 a       730     0    37     1    10
 -2.0508282362672459E-01 a       731     0    37     1    11
  7.4893847528116772E-02 a       732     0    37     1    12
 -1.6078503682531967E-03 a       733     0    37     1    13
 -2.3588356128478479E-02 a       734     0    37     1    14
 -5.2681932480462207E-03 a       735     0    37     1    15
 -1.2109618517937874E-01 a       736     0    37     1    16
 -1.7422528171438590E-03 a       737     0    37     1    17
 -4.1261173265249411E-02 a       738     0    37     1    18
 -1.3135829866503246E-01 a       739     0    37     1    19
 -3.6621693871199366E-02 a       740     0    37     1    20
 -1.9303259764545756E-02 a       741     0    38     1     1
 -3.7111691420244106E-02 a       742     0    38     1     2
 -2.3714309589392333E-02 a       743     0    38     1     3
 -3.9333454337676849E-02 a       744     0    38     1     4
  6.6115914399336090E-02 a       745     0    38     1     5
  3.9457061270806337E-02 a       746     0    38     1     6
  4.0947097374341929E-03 a       747     0    38     1     7
 -1.0509418046937891E-01 a       748     0    38     1     8
  3.9260270811307688E-02 a       749     0    38     1     9
  2.8460282511319466E-02 a       750     0    38     1    10
 -4.2961888538596170E-03 a       751     0    38     1    11
  1.8356862025505592E-02 a       752     0    38     1    12
  8.3213497636841341E-02 a       753     0    38     1    13
 -6.0281198484357243E-02 a       754     0    38     1    14
  1.3525987478213347E-01 a       755     0    38     1    15
  6.0475283697151341E-02 a       756     0    38     1    16
  1.4140493038611804E-01 a       757     0    38     1    17
 -7.2302581698121801E-02 a       758     0    38     1    18
  1.8003150282818442E-01 a       759     0    38     1    19
  8.3865056544461788E-02 a       760     0    38     1    20
 -3.6814138570067538E-02 a       761     0    39     1     1
 -1.3388406837995306E-01 a       762     0    39     1     2
  1.0498535858457128E-01 a       763     0    39     1     3
  5.0170747140691273E-02 a       764     0    39     1     4
 -8.6475038671667281E-02 a       765     0    39     1     5
 -3.3250778824859606E-02 a       766     0    39     1     6
 -2.3676065468640159E-01 a       767     0    39     1     7
 -1.1701684904598975E-01 a       768     0    39     1     8
 -1.6463575383571910E-01 a       769     0    39     1     9
 -8.2521711677216905E-02 a       770     0    39     1    10
  2.9284339412389127E-01 a       771     0    39     1    11
 -9.6471394846772973E-02 a       772     0    39     1    12
  1.8426623791448309E-02 a       773     0    39     1    13
  1.4428557845076465E-01 a       774     0    39     1    14
 -4.0611397729678152E-02 a       775     0    39     1    15
  2.0728346481263593E-01 a       776     0    39     1    16
  9.6588256947014062E-02 a       777     0    39     1    17
  2.8185386374068356E-02 a       778     0    39     1    18
  8.6557054678249673E-02 a       779     0    39     1    19
 -6.2871912227327464E-02 a       780     0    39     1    20
 -1.3533683458330073E-01 a       781     0    40     1     1
  1.2943764061232765E-02 a       782     0    40     1     2
  1.3604884434893182E-03 a       783     0    40     1     3
  2.3256479300645630E-01 a       784     0    40     1     4
 -1.1796802688071015E-01 a       785     0    40     1     5
 -2.1699880162839458E-02 a       786     0    40     1     6
  4.7867586443571614E-02 a       787     0    40     1     7
  5.2275798661231519E-02 a       788     0    40     1     8
 -6.0352149940115750E-02 a       789     0    40     1     9
  7.9693845291463852E-02 a       790     0    40     1    10
  3.1998538262690240E-01 a       791     0    40     1    11
 -1.3534308426618896E-01 a       792     0    40     1    12
 -4.0878745260307416E-02 a       793     0    40     1    13
 -5.1284056813803165E-02 a       794     0    40     1    14
  1.4182055816704822E-01 a       795     0    40     1    15
  1.2148251742815028E-01 a       796     0    40     1    16
 -2.3460083673732649E-02 a       797     0    40     1    17
 -2.9775535592112705E-02 a       798     0    40     1    18
  4.2625268901598179E-02 a       799     0    40     1    19
  9.5052304474603250E-02 a       800     0    40     1    20
  3.0599358242876289E-02 a       801     0    41     1     1
  9.2703679921826820E-02 a       802     0    41     1     2
  8.1369527980409584E-02 a       803     0    41     1     3
 -6.1680138024431223E-02 a       804     0    41     1     4
  1.6972224087556678E-02 a       805     0    41     1     5
  1.4061898959261160E-02 a       806     0    41     1     6
  1.0746357357875246E-01 a       807     0    41     1     7
  6.0878752328779255E-02 a       808     0    41     1     8
  4.8345808591839130E-02 a       809     0    41     1     9
  3.1000930855337821E-02 a       810     0    41     1    10
  2.0125079561481097E-03 a       811     0    41     1    11
  5.0205202272220459E-02 a       812     0    41     1    12
  1.0456267124667346E-01 a       813     0    41     1    13
  3.4023733425853624E-02 a       814     0    41     1    14
 -7.4486836054588793E-02 a       815     0    41     1    15
  1.1343289651561812E-01 a       816     0    41     1    16
  1.0188529262710108E-01 a       817     0    41     1    17
  1.5615136065776103E-01 a       818     0    41     1    18
  9.8942856589042102E-02 a       819     0    41     1    19
  1.5085304673010013E-02 a       820     0    41     1    20
  1.6335127367325326E-03 a       821     0    42     1     1
 -1.5588265850507099E-01 a       822     0    42     1     2
  1.4863227736859233E-02 a       823     0    42     1     3
 -1.8414437812477571E-01 a       824     0    42     1     4
  2.3190050726667202E-01 a       825     0    42     1     5
 -3.4187486201948024E-02 a       826     0    42     1     6
  1.5629419704085232E-01 a       827     0    42     1     7
 -1.5691267270094272E-01 a       828     0    42     1     8
  9.0150439411613367E-02 a       829     0    42     1     9
 -1.9422532629384141E-02 a       830     0    42     1    10
 -3.3260674820942034E-02 a       831     0    42     1    11
  4.7127128008193496E-04 a       832     0    42     1    12
 -1.1316123236505916E-01 a       833     0    42     1    13
  1.1024021442982221E-01 a       834     0    42     1    14
 -9.7879281696394108E-02 a       835     0    42     1    15
  9.3667339531335547E-02 a       836     0    42     1    16
 -1.3424093869175646E-01 a       837     0    42     1    17
  1.5144699575426263E-01 a       838     0    42     1    18
  1.1499806758762794E-01 a       839     0    42     1    19
  1.3443912748692247E-01 a       840     0    42     1    20
 -1.2118286362353425E-03 a       841     0    43     1     1
  7.5295965827915895E-02 a       842     0    43     1     2
 -3.5543947259303189E-02 a       843     0    43     1     3
 -5.9785578601540518E-02 a       844     0    43     1     4
 -1.3437658262512944E-01 a       845     0    43     1     5
  1.1838419287879849E-01 a       846     0    43     1     6
 -1.7044497193299679E-01 a       847     0    43     1     7
 -8.7589788924344825E-02 a       848     0    43     1     8
 -1.0008985654103995E-01 a       849     0    43     1     9
 -2.0015778301320519E-01 a       850     0    43     1    10
 -1.2538796135903280E-01 a       851     0    43     1    11
  8.9502870824561639E-02 a       852     0    43     1    12
 -1.7426024624465813E-01 a       853     0    43     1    13
  4.3052862575014755E-02 a       854     0    43     1    14
 -1.4679394712978122E-01 a       855     0    43     1    15
 -1.0515837918555798E-01 a       856     0    43     1    16
 -2.0523841880904151E-01 a       857     0    43     1    17
 -4.0024431448672369E-02 a       858     0    43     1    18
  2.6349180947061962E-01 a       859     0    43     1    19
 -9.7650533757164287E-02 a       860     0    43     1    20
  1.7627292085053276E-02 a       861     0    44     1     1
 -5.7946510934602340E-02 a       862     0    44     1     2
  8.6316217472640719E-02 a       863     0    44     1     3
  1.2583107980038716E-01 a       864     0    44     1     4
 -1.8721664850772204E-01 a       865     0    44     1     5
 -1.3817280595914233E-01 a       866     0    44     1     6
  7.2538435152794553E-02 a       867     0    44     1     7
 -3.3660088173721757E-02 a       868     0    44     1     8
 -6.5777992120377562E-02 a       869     0    44     1     9
 -5.8184812169997734E-02 a       870     0    44     1    10
  2.6232773330710800E-02 a       871     0    44     1    11
  4.0584826107836203E-02 a       872     0    44     1    12
 -5.9777645787708208E-02 a       873     0    44     1    13
 -2.2342730564450902E-01 a       874     0    44     1    14
  1.4444742622623419E-01 a       875     0    44     1    15
 -7.0512788410243582E-02 a       876     0    44     1    16
 -1.1304281566608307E-01 a       877     0    44     1    17
  5.5895025972642176E-02 a       878     0    44     1    18
 -1.9371033036165949E-01 a       879     0    44     1    19
  1.1937371111058796E-01 a       880     0    44     1    20
  2.8745380128455889E-02 a       881     0    45     1     1
 -7.9327416908621440E-02 a       882     0    45     1     2
 -2.8455186321044768E-01 a       883     0    45     1     3
  3.3621082862291729E-01 a       884     0    45     1     4
 -7.1372004326380534E-01 a       885     0    45     1     5
  1.6565415426464081E-01 a       886     0    45     1     6
  2.3745385427102009E-01 a       887     0    45     1     7
  4.1633652062357956E-01 a       888     0    45     1     8
 -4.2656924200713542E-01 a       889     0    45     1     9
  2.0044846238835254E-01 a       890     0    45     1    10
  7.7899837169975533E-02 a       891     0    45     1    11
  1.9592131861259002E-01 a       892     0    45     1    12
 -5.3013042177906665E-02 a       893     0    45     1    13
 -7.7594213806954290E-02 a       894     0    45     1    14
 -2.2309790506290134E-02 a       895     0    45     1    15
  3.4413966684323788E-01 a       896     0    45     1    16
 -4.5200898516272847E-01 a       897     0    45     1    17
  1.2432031246073973E-01 a       898     0    45     1    18
  5.7819429078865769E-01 a       899     0    45     1    19
 -3.0911916972991647E-02 a       900     0    45     1    20
 -3.5542586015815641E-01 a       901     0    46     1     1
  6.9272995314172719E-02 a       902     0    46     1     2
  3.5513525177203559E-01 a       903     0    46     1     3
  1.6184791208478355E-01 a       904     0    46     1     4
  4.9052807637358246E-02 a       905     0    46     1     5
 -3.6495781484264961E-01 a       906     0    46     1     6
 -4.0659083921338252E-01 a       907     0    46     1     7
 -3.8648344620624087E-01 a       908     0    46     1     8
  1.6730347066534290E-01 a       909     0    46     1     9
  1.8471399981635822E-01 a       910     0    46     1    10
 -1.2074205989130765E-01 a       911     0    46     1    11
 -3.8102567417492683E-01 a       912     0    46     1    12
 -2.2637023182932531E-01 a       913     0    46     1    13
 -4.8714642388790697E-01 a       914     0    46     1    14
  7.4200025868734865E-02 a       915     0    46     1    15
  9.2709707795393226E-02 a       916     0    46     1    16
  4.5447805360866962E-02 a       917     0    46     1    17
 -2.9288400494791927E-01 a       918     0    46     1    18
  3.9780794534712949E-02 a       919     0    46     1    19
 -4.5326063218182233E-01 a       920     0    46     1    20
 -1.6670475679706528E-01 a       921     0    47     1     1
 -3.9450637642030953E-02 a       922     0    47     1     2
 -8.4260635737138621E-03 a       923     0    47     1     3
  1.8607818855590441E-01 a       924     0    47     1     4
 -1.1874658229464813E-02 a       925     0    47     1     5
  2.6998667982760299E-01 a       926     0    47     1     6
  1.1325800858535565E-01 a       927     0    47     1     7
 -4.7374509538757360E-02 a       928     0    47     1     8
  3.8522450764090693E-02 a       929     0    47     1     9
  5.1442251109855591E-02 a       930     0    47     1    10
  1.0789541885985816E-01 a       931     0    47     1    11
 -1.0350485702670838E-01 a       932     0    47     1    12
  1.7002202796267843E-01 a       933     0    47     1    13
 -2.0898020472095205E-01 a       934     0    47     1    14
  8.2476363624762142E-02 a       935     0    47     1    15
  9.8738654388113536E-02 a       936     0    47     1    16
 -1.1107839822085283E-01 a       937     0    47     1    17
  1.8714305747795484E-01 a       938     0    47     1    18
  1.1047571725826671E-01 a       939     0    47     1    19
 -1.6437876335356815E-03 a       940     0    47     1    20
 -1.4694226581302669E-01 a       941     0    48     1     1
 -1.1638804583151934E-01 a       942     0    48     1     2
 -2.3903689122150021E-01 a       943     0    48     1     3
  3.2405525984529643E-01 a       944     0    48     1     4
 -2.7290179617050075E-01 a       945     0    48     1     5
  3.3995098658362549E-01 a       946     0    48     1     6
 -1.1339024170614727E-01 a       947     0    48     1     7
  5.3855146607394044E-01 a       948     0    48     1     8
 -3.4946951558375755E-01 a       949     0    48     1     9
 -1.0230191493087339E+00 a       950     0    48     1    10
 -1.4648411362734506E-02 a       951     0    48     1    11
  6.4261349269838208E-01 a       952     0    48     1    12
  9.0876297864043137E-02 a       953     0    48     1    13
  5.3607914902048004E-01 a       954     0    48     1    14
 -2.9958204845384073E-01 a       955     0    48     1    15
 -2.9171971949027603E-01 a       956     0    48     1    16
 -4.3158536483948864E-02 a       957     0    48     1    17
  6.1046797973068756E-01 a       958     0    48     1    18
 -7.0462804239968424E-02 a       959     0    48     1    19
  1.9531300511387414E-01 a       960     0    48     1    20
  2.4488232902374044E-01 a       961     0    49     1     1
 -2.3870257860252125E-02 a       962     0    49     1     2
 -1.4107131484559669E-02 a       963     0    49     1     3
  2.9045626773201755E-01 a       964     0    49     1     4
  2.5950184033034440E-01 a       965     0    49     1     5
 -1.7029322570818131E-01 a       966     0    49     1     6
 -3.0203958473637216E-01 a       967     0    49     1     7
 -2.1408399071967329E-02 a       968     0    49     1     8
 -9.0431945757881854E-02 a       969     0    49     1     9
  4.3597220413534921E-02 a       970     0    49     1    10
 -3.1699930855342562E-01 a       971     0    49     1    11
 -2.8632172551513742E-02 a       972     0    49     1    12
 -1.0354704180982217E-01 a       973     0    49     1    13
  9.2414997166114218E-02 a       974     0    49     1    14
 -2.3145045613103571E-01 a       975     0    49     1    15
  2.0008130212169732E-02 a       976     0    49     1    16
 -2.1423055063592067E-01 a       977     0    49     1    17
  5.4881570041583207E-02 a       978     0    49     1    18
 -7.1568189208408226E-02 a       979     0    49     1    19
 -1.2491842389237770E-01 a       980     0    49     1    20
 -1.8101799173889085E-02 a       981     0    50     1     1
 -8.7998123700436623E-02 a       982     0    50     1     2
 -1.8341715815147924E-01 a       983     0    50     1     3
 -1.0064566598158110E-01 a       984     0    50     1     4
  4.9455429322182082E-02 a       985     0    50     1     5
 -1.0286933376586610E-01 a       986     0    50     1     6
  7.3647340241434822E-02 a       987     0    50     1     7
  2.0698879465364410E-02 a       988     0    50     1     8
  7.6733902660255787E-02 a       989     0    50     1     9
 -1.5750894073983290E-02 a       990     0    50     1    10
  2.6579955545693711E-02 a       991     0    50     1    11
  1.1136174101656182E-01 a       992     0    50     1    12
 -7.7279378866854154E-02 a       993     0    50     1    13
 -2.4248174943222272E-02 a       994     0    50     1    14
 -9.3443210390908263E-02 a       995     0    50     1    15
 -3.2849222337783750E-02 a       996     0    50     1    16
 -7.2186195098307940E-02 a       997     0    50     1    17
 -1.8195815937799908E-02 a       998     0    50     1    18
 -4.9369571131186826E-02 a       999     0    50     1    19
 -1.5349564642982366E-01 a      1000     0    50     1    20
  1.7175955315996586E-02 a      1001     0    51     1     1
  2.6299648992057501E-02 a      1002     0    51     1     2
 -7.7072115394649629E-02 a      1003     0    51     1     3
  1.0274033504112577E-01 a      1004     0    51     1     4
  8.0782143496333059E-02 a      1005     0    51     1     5
 -2.0665376401209364E-02 a      1006     0    51     1     6
  1.2540232876566599E-02 a      1007     0    51     1     7
 -1.4752999365049119E-01 a      1008     0    51     1     8
 -2.0666189334753063E-01 a      1009     0    51     1     9
 -1.4456350020197670E-01 a      1010     0    51     1    10
  2.2973047658222509E-01 a      1011     0    51     1    11
 -2.8789347574226015E-01 a      1012     0    51     1    12
 -4.6867427935677303E-02 a      1013     0    51     1    13
 -1.2747331676207499E-01 a      1014     0    51     1    14
 -1.9823099511867565E-01 a      1015     0    51     1    15
  7.3475180169245660E-02 a      1016     0    51     1    16
  1.6017091615588307E-02 a      1017     0    51     1    17
 -2.1632421320214926E-01 a      1018     0    51     1    18
  2.3117093096323976E-01 a      1019     0    51     1    19
 -7.5330875283638313E-02 a      1020     0    51     1    20
 -1.4864734146807704E-01 a      1021     0    52     1     1
 -1.0379295197388767E-01 a      1022     0    52     1     2
  8.0563348457694861E-02 a      1023     0    52     1     3
  2.7793524160126593E-01 a      1024     0    52     1     4
 -5.9907864135075685E-02 a      1025     0    52     1     5
  3.8101323888010589E-05 a      1026     0    52     1     6
 -1.2576869585110592E-01 a      1027     0    52     1     7
 -1.4613932383686348E-01 a      1028     0    52     1     8
  4.3012229966636097E-02 a      1029     0    52     1     9
  1.0881438386289417E-01 a      1030     0    52     1    10
  1.3548281392352626E-01 a      1031     0    52     1    11
 -3.4464017539136783E-02 a      1032     0    52     1    12
 -1.5455851403765016E-02 a      1033     0    52     1    13
  1.1633361090594151E-01 a      1034     0    52     1    14
  1.5143339950888499E-01 a      1035     0    52     1    15
  6.5317259207535144E-02 a      1036     0    52     1    16
  2.6529577677708227E-03 a      1037     0    52     1    17
 -4.5637477541111138E-02 a      1038     0    52     1    18
 -1.5744992872518393E-01 a      1039     0    52     1    19
  8.5340984447282359E-02 a      1040     0    52     1    20
  1.0561727406263723E-01 a      1041     0    53     1     1
 -1.0818881654705725E-01 a      1042     0    53     1     2
  7.7909331647356889E-02 a      1043     0    53     1     3
  6.3982459521533253E-02 a      1044     0    53     1     4
 -1.1365275607277230E-02 a      1045     0    53     1     5
  1.7800344195757264E-02 a      1046     0    53     1     6
 -1.0740955332246584E-01 a      1047     0    53     1     7
  2.7010382065933359E-02 a      1048     0    53     1     8
 -9.1543651680784707E-03 a      1049     0    53     1     9
  7.2258872098236976E-02 a      1050     0    53     1    10
  4.0796056394690042E-02 a      1051     0    53     1    11
 -4.6198529905315477E-02 a      1052     0    53     1    12
  1.5040338656085905E-01 a      1053     0    53     1    13
  1.8054369409248056E-01 a      1054     0    53     1    14
  3.0238754996798389E-01 a      1055     0    53     1    15
  4.2188964184061747E-02 a      1056     0    53     1    16
  3.6115918055326171E-02 a      1057     0    53     1    17
  1.6543160399234220E-02 a      1058     0    53     1    18
 -1.5449620557738653E-01 a      1059     0    53     1    19
  1.4976299108078539E-01 a      1060     0    53     1    20
  1.0233709274626719E-01 a      1061     0    54     1     1
 -2.6056157434773262E-02 a      1062     0    54     1     2
 -6.5639159063350314E-02 a      1063     0    54     1     3
 -6.4290224007576488E-02 a      1064     0    54     1     4
 -3.8702257468789573E-02 a      1065     0    54     1     5
 -2.0473345830968234E-01 a      1066     0    54     1     6
  5.4190136275013220E-02 a      1067     0    54     1     7
 -5.3199445064552098E-02 a      1068     0    54     1     8
 -1.7852497326516226E-01 a      1069     0    54     1     9
 -1.7116670399681350E-01 a      1070     0    54     1    10
  1.8639173739385367E-01 a      1071     0    54     1    11
  4.8176516370297448E-02 a      1072     0    54     1    12
 -9.3060359405907386E-02 a      1073     0    54     1    13
  3.0569979845785478E-01 a      1074     0    54     1    14
 -2.6840854823159666E-01 a      1075     0    54     1    15
 -6.2370628540688575E-02 a      1076     0    54     1    16
 -3.9357746100469375E-02 a      1077     0    54     1    17
 -4.5017186668596609E-02 a      1078     0    54     1    18
 -1.8003450171097660E-01 a      1079     0    54     1    19
 -1.3131784055450241E-01 a      1080     0    54     1    20
  2.2472846999445861E-02 a      1081     0    55     1     1
  2.3447078712749908E-01 a      1082     0    55     1     2
  5.5794879002857800E-01 a      1083     0    55     1     3
 -2.6035067023702146E-01 a      1084     0    55     1     4
  4.7028699676821967E-01 a      1085     0    55     1     5
 -7.0355309873737254E-02 a      1086     0    55     1     6
 -1.2096637597379024E-01 a      1087     0    55     1     7
 -4.7352755135005520E-01 a      1088     0    55     1     8
  7.3321093170102192E-01 a      1089     0    55     1     9
 -2.0565898798430504E-01 a      1090     0    55     1    10
  1.2680306407223893E-01 a      1091     0    55     1    11
  2.7093438103711925E-02 a      1092     0    55     1    12
  2.6850261819709700E-02 a      1093     0    55     1    13
 -3.9607907489733023E-02 a      1094     0    55     1    14
  4.9050710686493432E-01 a      1095     0    55     1    15
 -3.1094075581976283E-01 a      1096     0    55     1    16
 -8.1136572465758214E-02 a      1097     0    55     1    17
 -4.2540674841650400E-01 a      1098     0    55     1    18
 -2.3883006277834842E-01 a      1099     0    55     1    19
  3.2421324954161536E-02 a      1100     0    55     1    20
 -7.6934436859038740E-03 a      1101     0    56     1     1
 -1.6922262425581891E-01 a      1102     0    56     1     2
  2.4732112953384344E-01 a      1103     0    56     1     3
 -7.4361529786871650E-01 a      1104     0    56     1     4
 -9.7409255458407271E-02 a      1105     0    56     1     5
  1.3106972278315837E-01 a      1106     0    56     1     6
  2.7431388822784547E-01 a      1107     0    56     1     7
 -1.0210034583270521E-01 a      1108     0    56     1     8
 -6.9097526395504127E-01 a      1109     0    56     1     9
 -5.6922880068072157E-01 a      1110     0    56     1    10
  6.2684440521119239E-02 a      1111     0    56     1    11
 -1.9032092604092020E-02 a      1112     0    56     1    12
 -1.2647192059988543E-01 a      1113     0    56     1    13
  5.8394745014935057E-01 a      1114     0    56     1    14
  1.2424877841993720E-01 a      1115     0    56     1    15
 -1.0668868204427731E-01 a      1116     0    56     1    16
 -3.9790479896629166E-01 a      1117     0    56     1    17
  2.0450219955854226E-01 a      1118     0    56     1    18
 -2.5605675743137002E-01 a      1119     0    56     1    19
  1.4758037105381389E-01 a      1120     0    56     1    20
 -5.1053566616878397E-02 a      1121     0    57     1     1
  2.5463021625147464E-01 a      1122     0    57     1     2
 -9.8393471160535248E-02 a      1123     0    57     1     3
 -1.3052065162030713E-01 a      1124     0    57     1     4
 -1.1908761954289733E-01 a      1125     0    57     1     5
  3.1257814002045747E-02 a      1126     0    57     1     6
 -7.3253565827515910E-02 a      1127     0    57     1     7
  1.1302531336165419E-01 a      1128     0    57     1     8
  6.7233765497947837E-02 a      1129     0    57     1     9
  2.0497272952258842E-02 a      1130     0    57     1    10
 -2.4265560361957365E-02 a      1131     0    57     1    11
  9.5690008520552941E-02 a      1132     0    57     1    12
  7.8732765307763727E-02 a      1133     0    57     1    13
 -1.0844844150089607E-01 a      1134     0    57     1    14
  1.8375059089946552E-01 a      1135     0    57     1    15
  7.0383250646430709E-02 a      1136     0    57     1    16
 -1.1650549991132061E-01 a      1137     0    57     1    17
 -1.5761074975501185E-01 a      1138     0    57     1    18
  8.2509533236356014E-02 a      1139     0    57     1    19
  8.4311534732127880E-02 a      1140     0    57     1    20
  2.6144516054778456E-02 a      1141     0    58     1     1
  3.8218537756814407E-02 a      1142     0    58     1     2
  1.2936782018344565E-02 a      1143     0    58     1     3
 -1.6770229511485690E-01 a      1144     0    58     1     4
  3.4879758795952087E-01 a      1145     0    58     1     5
 -2.3140057175315970E-01 a      1146     0    58     1     6
  1.5526470923491487E-01 a      1147     0    58     1     7
  6.7138474306281948E-02 a      1148     0    58     1     8
  2.3462739813827668E-01 a      1149     0    58     1     9
  3.2543230272210572E-01 a      1150     0    58     1    10
 -1.2179116426182293E-01 a      1151     0    58     1    11
 -3.9390690680573298E-02 a      1152     0    58     1    12
  1.5802596810225308E-01 a      1153     0    58     1    13
 -1.8556555248347129E-01 a      1154     0    58     1    14
 -6.9320295358480707E-02 a      1155     0    58     1    15
  2.4547874425302793E-01 a      1156     0    58     1    16
  6.3183625469299875E-03 a      1157     0    58     1    17
 -8.6564401923089423E-02 a      1158     0    58     1    18
  5.4135386603921121E-01 a      1159     0    58     1    19
  4.9368361849015602E-01 a      1160     0    58     1    20
  6.4249071083299691E-02 a      1161     0    59     1     1
 -2.2806390850442149E-01 a      1162     0    59     1     2
 -5.8206264068305768E-03 a      1163     0    59     1     3
 -7.8329603263018965E-02 a      1164     0    59     1     4
 -6.6041743124040084E-02 a      1165     0    59     1     5
  1.4956858908527529E-02 a      1166     0    59     1     6
 -7.8983402748887391E-02 a      1167     0    59     1     7
 -1.9019586349559603E-01 a      1168     0    59     1     8
  1.2852681345453718E-01 a      1169     0    59     1     9
 -8.2847873660568588E-02 a      1170     0    59     1    10
 -1.0065094643837900E-02 a      1171     0    59     1    11
 -3.2304120000473918E-02 a      1172     0    59     1    12
 -2.2888972066213961E-01 a      1173     0    59     1    13
  9.8626800171564555E-02 a      1174     0    59     1    14
  1.6466363602928899E-01 a      1175     0    59     1    15
 -2.5589887476014250E-01 a      1176     0    59     1    16
 -2.4044941118127569E-01 a      1177     0    59     1    17
 -6.3762058037346216E-04 a      1178     0    59     1    18
 -8.0476535358744022E-02 a      1179     0    59     1    19
  9.4873157243624162E-02 a      1180     0    59     1    20
 -7.6928517105003508E-02 a      1181     0    60     1     1
  1.9131049224864180E-01 a      1182     0    60     1     2
  1.5777584501138750E-01 a      1183     0    60     1     3
  1.4917510855541838E-01 a      1184     0    60     1     4
 -1.0792304947566152E-01 a      1185     0    60     1     5
  2.1694710677697748E-01 a      1186     0    60     1     6
 -3.2038940082551232E-02 a      1187     0    60     1     7
 -1.4371610949340732E-01 a      1188     0    60     1     8
  1.0199577887795278E-01 a      1189     0    60     1     9
  1.7560762173893713E-01 a      1190     0    60     1    10
 -2.2210067620457550E-02 a      1191     0    60     1    11
 -1.6981701398693488E-01 a      1192     0    60     1    12
  1.9826075110313277E-01 a      1193     0    60     1    13
  1.0528430319759641E-01 a      1194     0    60     1    14
 -1.4638432914848998E-01 a      1195     0    60     1    15
  1.3437920790875021E-01 a      1196     0    60     1    16
  2.7653555389351610E-02 a      1197     0    60     1    17
 -1.0635531283698726E-01 a      1198     0    60     1    18
  5.1951481946571829E-02 a      1199     0    60     1    19
 -1.0438999048695244E-01 a      1200     0    60     1    20
 -1.4867669189729299E-03 a      1201     0    61     1     1
  3.7481354134089842E-03 a      1202     0    61     1     2
 -3.8577103420883045E-02 a      1203     0    61     1     3
 -1.2968553113711426E-02 a      1204     0    61     1     4
 -5.4618929582413517E-02 a      1205     0    61     1     5
  1.6507873868985615E-01 a      1206     0    61     1     6
 -7.5509336191948412E-02 a      1207     0    61     1     7
 -1.9576107396908946E-02 a      1208     0    61     1     8
  2.0851751060596956E-02 a      1209     0    61     1     9
 -1.9072905615436092E-03 a      1210     0    61     1    10
  3.0792564029554228E-03 a      1211     0    61     1    11
 -1.7594029485921054E-02 a      1212     0    61     1    12
 -1.2105580233888642E-01 a      1213     0    61     1    13
 -4.9950229331217639E-03 a      1214     0    61     1    14
  8.6216984780686318E-02 a      1215     0    61     1    15
 -1.0020426051777523E-01 a      1216     0    61     1    16
 -1.6894137529075076E-01 a      1217     0    61     1    17
 -1.4743237855928246E-01 a      1218     0    61     1    18
 -1.1551182690130693E-01 a      1219     0    61     1    19
 -5.9450171571495639E-02 a      1220     0    61     1    20
  1.4078838271444444E-01 a      1221     0    62     1     1
 -1.1225465184469942E-01 a      1222     0    62     1     2
  1.8679756229840291E-02 a      1223     0    62     1     3
  9.1472448299146331E-02 a      1224     0    62     1     4
 -2.9199474795043282E-03 a      1225     0    62     1     5
 -5.9886784971124367E-02 a      1226     0    62     1     6
  6.9611223382382828E-04 a      1227     0    62     1     7
 -6.0507291835221286E-02 a      1228     0    62     1     8
  3.1966932197855244E-03 a      1229     0    62     1     9
  5.2937894360956979E-02 a      1230     0    62     1    10
  3.7811953087177913E-02 a      1231     0    62     1    11
 -2.9601292705023260E-03 a      1232     0    62     1    12
 -5.4033238039508484E-03 a      1233     0    62     1    13
  6.7989574465167665E-02 a      1234     0    62     1    14
 -2.7298425395389497E-02 a      1235     0    62     1    15
  1.0150126973168699E-02 a      1236     0    62     1    16
  1.5177652258443664E-01 a      1237     0    62     1    17
  4.6221183520252306E-02 a      1238     0    62     1    18
 -5.6603970431803173E-02 a      1239     0    62     1    19
 -7.6651685272428735E-03 a      1240     0    62     1    20
  4.3666932353085074E-02 a      1241     0    63     1     1
  1.4262986936937082E-02 a      1242     0    63     1     2
  1.7768225295831904E-03 a      1243     0    63     1     3
 -2.0060437640727073E-02 a      1244     0    63     1     4
  1.0902356772944866E-02 a      1245     0    63     1     5
 -5.2324293521111870E-02 a      1246     0    63     1     6
 -3.1246091784168227E-02 a      1247     0    63     1     7
  3.7311577458882167E-02 a      1248     0    63     1     8
 -2.0807666403827866E-02 a      1249     0    63     1     9
  3.1400900107328641E-02 a      1250     0    63     1    10
 -3.4721390144121206E-02 a      1251     0    63     1    11
 -1.0116183866363270E-02 a      1252     0    63     1    12
  4.7841049857717539E-02 a      1253     0    63     1    13
  4.2019961552600869E-02 a      1254     0    63     1    14
  9.1305378308066287E-02 a      1255     0    63     1    15
 -6.5771085087682563E-02 a      1256     0    63     1    16
  8.1622738129776981E-02 a      1257     0    63     1    17
 -5.7525663208635731E-02 a      1258     0    63     1    18
 -1.2431879958761997E-01 a      1259     0    63     1    19
 -4.5881517171246965E-02 a      1260     0    63     1    20
 -1.5419379283593068E-02 a      1261     0    64     1     1
 -6.2554647159680857E-02 a      1262     0    64     1     2
  6.0663194272563822E-02 a      1263     0    64     1     3
  2.1510521067975483E-04 a      1264     0    64     1     4
  8.6482856679378814E-02 a      1265     0    64     1     5
 -1.3089626718838940E-01 a      1266     0    64     1     6
  6.8355983073614165E-02 a      1267     0    64     1     7
  3.8082151710083771E-02 a      1268     0    64     1     8
 -6.4652278204168648E-02 a      1269     0    64     1     9
 -1.1325736331812119E-02 a      1270     0    64     1    10
 -6.7726831600634771E-03 a      1271     0    64     1    11
 -2.6163305499108579E-02 a      1272     0    64     1    12
  1.8871709680123985E-02 a      1273     0    64     1    13
 -2.4914135429846392E-02 a      1274     0    64     1    14
 -5.2063497975873570E-02 a      1275     0    64     1    15
  6.7543723806145249E-03 a      1276     0    64     1    16
  2.0433234863155472E-01 a      1277     0    64     1    17
  1.3143793306186287E-02 a      1278     0    64     1    18
  8.2660491838704053E-02 a      1279     0    64     1    19
  6.9914375525517686E-02 a      1280     0    64     1    20
  8.8448493361140509E-02 a      1281     0    65     1     1
  5.0424727581193070E-03 a      1282     0    65     1     2
  2.0239595845991892E-01 a      1283     0    65     1     3
  1.3102075977855359E-02 a      1284     0    65     1     4
 -2.3463591554600319E-02 a      1285     0    65     1     5
  2.2887984326779709E-04 a      1286     0    65     1     6
  1.9390649217801474E-02 a      1287     0    65     1     7
 -3.2224764500055174E-02 a      1288     0    65     1     8
 -7.7646751487080792E-02 a      1289     0    65     1     9
 -1.7300169028584492E-01 a      1290     0    65     1    10
 -1.7476761398297161E-01 a      1291     0    65     1    11
  1.1403882338807006E-02 a      1292     0    65     1    12
  7.7492692057126708E-02 a      1293     0    65     1    13
 -4.2580605451678424E-02 a      1294     0    65     1    14
 -2.5258721157166212E-02 a      1295     0    65     1    15
 -1.7471592523087449E-02 a      1296     0    65     1    16
  4.6136120285965915E-01 a      1297     0    65     1    17
 -2.0808861407786619E-01 a      1298     0    65     1    18
 -1.4477441528592194E-01 a      1299     0    65     1    19
 -2.2045281581081044E-02 a      1300     0    65     1    20
 -2.6449568743751883E-02 a      1301     0    66     1     1
 -7.4100470442562946E-02 a      1302     0    66     1     2
 -2.2670532096051724E-01 a      1303     0    66     1     3
 -2.2346407639786697E-01 a      1304     0    66     1     4
 -1.4384237763160476E-01 a      1305     0    66     1     5
 -3.8074005137872607E-01 a      1306     0    66     1     6
 -8.0486248758287082E-02 a      1307     0    66     1     7
 -2.7533876940114780E-02 a      1308     0    66     1     8
  2.4988265624844779E-02 a      1309     0    66     1     9
  1.5511838624142300E-02 a      1310     0    66     1    10
 -6.5267765553100557E-02 a      1311     0    66     1    11
  1.8725349831227706E-01 a      1312     0    66     1    12
  6.8213608179447022E-02 a      1313     0    66     1    13
  1.6685318065358276E-01 a      1314     0    66     1    14
  2.5080834647114213E-02 a      1315     0    66     1    15
 -3.8650159625916662E-02 a      1316     0    66     1    16
 -1.1816948960093079E-01 a      1317     0    66     1    17
 -6.9295789714427555E-02 a      1318     0    66     1    18
 -2.8697963416908162E-01 a      1319     0    66     1    19
 -1.6197767282138018E-01 a      1320     0    66     1    20
  1.1042492420458974E-01 a      1321     0    67     1     1
  1.3380450120745560E-01 a      1322     0    67     1     2
  1.8651115988210187E-02 a      1323     0    67     1     3
  1.3165840124663741E-01 a      1324     0    67     1     4
 -7.7909751740717778E-02 a      1325     0    67     1     5
  2.3285272813882502E-02 a      1326     0    67     1     6
  3.1230852282383158E-02 a      1327     0    67     1     7
 -1.4463566297728753E-01 a      1328     0    67     1     8
  7.7855967159335144E-03 a      1329     0    67     1     9
  3.0693074682080372E-02 a      1330     0    67     1    10
  1.7695026108343902E-02 a      1331     0    67     1    11
 -6.6874464631319963E-02 a      1332     0    67     1    12
  1.5089482079913680E-01 a      1333     0    67     1    13
 -1.0489460186465811E-01 a      1334     0    67     1    14
 -3.3509394879170283E-02 a      1335     0    67     1    15
  5.0012661326334640E-03 a      1336     0    67     1    16
 -1.6888593218565748E-03 a      1337     0    67     1    17
  2.2931415866552091E-01 a      1338     0    67     1    18
 -1.3273409810136080E-01 a      1339     0    67     1    19
 -9.2577001312291879E-02 a      1340     0    67     1    20
 -3.1906616014655206E-02 a      1341     0    68     1     1
  9.0003725884087490E-02 a      1342     0    68     1     2
  2.0989523113649716E-01 a      1343     0    68     1     3
  2.2156247899475972E-03 a      1344     0    68     1     4
  1.5839251995465101E-02 a      1345     0    68     1     5
 -3.5220173799542887E-01 a      1346     0    68     1     6
  4.7501982959737343E-02 a      1347     0    68     1     7
 -4.4423472312853360E-02 a      1348     0    68     1     8
 -1.3573806076131356E-01 a      1349     0    68     1     9
  1.6441021604184235E-03 a      1350     0    68     1    10
 -3.9962405608493873E-02 a      1351     0    68     1    11
 -1.2644143833316251E-01 a      1352     0    68     1    12
 -7.8111225137320495E-02 a      1353     0    68     1    13
  7.5689523475594780E-02 a      1354     0    68     1    14
 -2.0298754400869343E-01 a      1355     0    68     1    15
  1.1985101547931734E-01 a      1356     0    68     1    16
  2.8604642340592806E-01 a      1357     0    68     1    17
 -6.9721058365864119E-02 a      1358     0    68     1    18
  1.2000144833154418E-01 a      1359     0    68     1    19
  3.7600637842621534E-02 a      1360     0    68     1    20
  8.1394521624722160E-02 a      1361     0    69     1     1
  6.1702786567284222E-02 a      1362     0    69     1     2
  3.7419052074085510E-02 a      1363     0    69     1     3
 -3.8873154918927851E-02 a      1364     0    69     1     4
 -7.2063874436715955E-02 a      1365     0    69     1     5
 -1.0461826783547709E-01 a      1366     0    69     1     6
  5.8441869269155690E-03 a      1367     0    69     1     7
  8.4498803506456791E-02 a      1368     0    69     1     8
  2.4094995258809451E-02 a      1369     0    69     1     9
 -3.3430449004494052E-02 a      1370     0    69     1    10
  9.6376916677961499E-02 a      1371     0    69     1    11
  6.4157644063773972E-02 a      1372     0    69     1    12
  1.3217648235933319E-01 a      1373     0    69     1    13
 -9.9071430315439801E-02 a      1374     0    69     1    14
 -8.6346177874918245E-02 a      1375     0    69     1    15
 -4.3057236471438290E-02 a      1376     0    69     1    16
  1.3609073141455863E-01 a      1377     0    69     1    17
 -1.1304473031939855E-01 a      1378     0    69     1    18
  2.0327467607633776E-01 a      1379     0    69     1    19
 -1.4840161501303500E-01 a      1380     0    69     1    20
  1.7137362044953589E-01 a      1381     0    70     1     1
  1.3936319998819130E-01 a      1382     0    70     1     2
 -2.1013113005085696E-02 a      1383     0    70     1     3
 -9.4977910809193287E-03 a      1384     0    70     1     4
  1.1429071529996844E-02 a      1385     0    70     1     5
 -6.3447691458421190E-02 a      1386     0    70     1     6
 -1.8241771624721653E-01 a      1387     0    70     1     7
 -5.6800894613052624E-03 a      1388     0    70     1     8
  6.0938564995486770E-02 a      1389     0    70     1     9
 -1.3530439319953796E-02 a      1390     0    70     1    10
 -3.2522609341925024E-02 a      1391     0    70     1    11
 -2.0656527407065969E-02 a      1392     0    70     1    12
  1.3374269939965475E-01 a      1393     0    70     1    13
  1.3249070282805003E-01 a      1394     0    70     1    14
  9.1036227378808926E-02 a      1395     0    70     1    15
  6.8070757471000456E-02 a      1396     0    70     1    16
 -3.8067797313902155E-02 a      1397     0    70     1    17
  9.4301800427854257E-02 a      1398     0    70     1    18
  8.0479620187713069E-02 a      1399     0    70     1    19
  3.3752645554033019E-02 a      1400     0    70     1    20
  1.2515756840935888E-01 a      1401     0    71     1     1
 -3.3944545826365108E-02 a      1402     0    71     1     2
  1.5980641081323868E-02 a      1403     0    71     1     3
 -1.5629809332876990E-01 a      1404     0    71     1     4
  5.0776482439317774E-02 a      1405     0    71     1     5
 -2.9612230567514213E-02 a      1406     0    71     1     6
  1.9340048840813179E-01 a      1407     0    71     1     7
  1.2431699891223169E-01 a      1408     0    71     1     8
  1.5422225527938860E-01 a      1409     0    71     1     9
 -5.4000589165321890E-02 a      1410     0    71     1    10
 -1.9665027666255727E-01 a      1411     0    71     1    11
  2.0811554327117701E-01 a      1412     0    71     1    12
  3.4378258420422261E-02 a      1413     0    71     1    13
 -2.0073719030574905E-01 a      1414     0    71     1    14
  2.6443417978463009E-02 a      1415     0    71     1    15
 -1.3084044431975589E-01 a      1416     0    71     1    16
  2.0294986466479142E-01 a      1417     0    71     1    17
  1.0466325859414280E-01 a      1418     0    71     1    18
 -4.2948240193260288E-02 a      1419     0    71     1    19
 -1.7064583730507379E-01 a      1420     0    71     1    20
 -3.7708785349178250E-02 a      1421     0    72     1     1
  6.4962571170578576E-02 a      1422     0    72     1     2
 -1.0960079727449358E-01 a      1423     0    72     1     3
 -1.8909588402019264E-01 a      1424     0    72     1     4
  6.0728854663209562E-02 a      1425     0    72     1     5
 -3.6216255086209447E-03 a      1426     0    72     1     6
  6.6721090329240354E-02 a      1427     0    72     1     7
  6.2034793742130938E-02 a      1428     0    72     1     8
  1.4039506787030951E-02 a      1429     0    72     1     9
 -4.4371120166778105E-02 a      1430     0    72     1    10
 -8.5367103375239270E-02 a      1431     0    72     1    11
  4.2799131922635063E-02 a      1432     0    72     1    12
  1.3337544085914914E-02 a      1433     0    72     1    13
 -8.6815579916861230E-02 a      1434     0    72     1    14
 -1.4174713391988084E-01 a      1435     0    72     1    15
 -8.4721020076017076E-02 a      1436     0    72     1    16
 -2.8860050027354821E-02 a      1437     0    72     1    17
 -5.1181470638948845E-02 a      1438     0    72     1    18
  3.1089510291185535E-02 a      1439     0    72     1    19
 -1.8090999734059490E-01 a      1440     0    72     1    20
  8.5073268059498872E-02 a      1441     0    73     1     1
 -5.8817827300608395E-02 a      1442     0    73     1     2
  2.8600052538414772E-02 a      1443     0    73     1     3
  8.5394222685883665E-03 a      1444     0    73     1     4
  1.6317231090275644E-03 a      1445     0    73     1     5
  5.6769490374771941E-02 a      1446     0    73     1     6
 -3.0831930346629538E-02 a      1447     0    73     1     7
 -8.4828653548760149E-03 a      1448     0    73     1     8
 -4.4855978456784247E-02 a      1449     0    73     1     9
 -9.1246861871330201E-02 a      1450     0    73     1    10
 -7.6390847939245110E-02 a      1451     0    73     1    11
 -1.8409076217977709E-02 a      1452     0    73     1    12
 -1.6300048650071602E-01 a      1453     0    73     1    13
  4.1052055372571977E-03 a      1454     0    73     1    14
  2.7588886317640920E-02 a      1455     0    73     1    15
  4.4508171004365320E-02 a      1456     0    73     1    16
 -2.4826633788756880E-02 a      1457     0    73     1    17
  1.7279333671371206E-02 a      1458     0    73     1    18
  2.2521928949556716E-01 a      1459     0    73     1    19
  2.4054046423128769E-01 a      1460     0    73     1    20
 -2.5128563906478496E-01 a      1461     0    74     1     1
 -6.4240223145715300E-02 a      1462     0    74     1     2
 -4.0855360355844137E-03 a      1463     0    74     1     3
  6.5728180436453287E-02 a      1464     0    74     1     4
  1.5502977335197248E-02 a      1465     0    74     1     5
 -1.7157345099196025E-01 a      1466     0    74     1     6
 -2.4645515461050876E-01 a      1467     0    74     1     7
  1.1891019544666089E-01 a      1468     0    74     1     8
  6.0265457126161014E-02 a      1469     0    74     1     9
  1.0683623081439912E-01 a      1470     0    74     1    10
 -2.0100795476546227E-01 a      1471     0    74     1    11
  3.7167535625027864E-02 a      1472     0    74     1    12
 -1.5669285286915538E-02 a      1473     0    74     1    13
  1.1767100104357509E-01 a      1474     0    74     1    14
  3.1459313164367603E-01 a      1475     0    74     1    15
 -1.0872987694629943E-01 a      1476     0    74     1    16
  1.0413819909461738E-01 a      1477     0    74     1    17
 -1.5186584042986714E-01 a      1478     0    74     1    18
 -1.1956416428409734E-01 a      1479     0    74     1    19
  1.2589961504826691E-01 a      1480     0    74     1    20
 -8.3697746115311042E-02 a      1481     0    75     1     1
 -1.2590855543244309E-01 a      1482     0    75     1     2
 -4.7991371376864561E-01 a      1483     0    75     1     3
  1.4877430099268540E-01 a      1484     0    75     1     4
 -2.6603598055401745E-01 a      1485     0    75     1     5
  3.4319996419047545E-02 a      1486     0    75     1     6
 -1.6741475932593625E-01 a      1487     0    75     1     7
  1.9375453686305208E-01 a      1488     0    75     1     8
 -2.9654700891068003E-01 a      1489     0    75     1     9
  2.0094512022447497E-01 a      1490     0    75     1    10
 -3.4431964038259655E-02 a      1491     0    75     1    11
 -1.4261325221556087E-01 a      1492     0    75     1    12
 -2.0603091344092925E-01 a      1493     0    75     1    13
  2.4096822842938456E-01 a      1494     0    75     1    14
 -7.2799724156439566E-02 a      1495     0    75     1    15
 -1.0215407868031774E-01 a      1496     0    75     1    16
  9.7765131455030060E-02 a      1497     0    75     1    17
  1.5852218556303541E-01 a      1498     0    75     1    18
  2.0350404748824182E-02 a      1499     0    75     1    19
  1.2604506625466656E-02 a      1500     0    75     1    20
 -1.0547053855282147E-01 a      1501     0    76     1     1
 -1.0332836155998142E-01 a      1502     0    76     1     2
 -3.9691223110758550E-01 a      1503     0    76     1     3
  5.7964546480642065E-01 a      1504     0    76     1     4
 -1.4781864187116683E-01 a      1505     0    76     1     5
 -2.1410300767090112E-01 a      1506     0    76     1     6
 -1.2763316775701100E-01 a      1507     0    76     1     7
  1.2078538938985696E-01 a      1508     0    76     1     8
  2.5243281719298327E-01 a      1509     0    76     1     9
  2.9331362189728849E-01 a      1510     0    76     1    10
 -2.0426757077128543E-02 a      1511     0    76     1    11
  2.4527882945606336E-01 a      1512     0    76     1    12
 -2.3700926317549312E-01 a      1513     0    76     1    13
 -1.0973622794989485E-01 a      1514     0    76     1    14
 -1.4071234462787408E-01 a      1515     0    76     1    15
 -1.1239040473443845E-01 a      1516     0    76     1    16
  2.7422088299944608E-01 a      1517     0    76     1    17
  4.7253638759991415E-04 a      1518     0    76     1    18
  2.7916682145212485E-01 a      1519     0    76     1    19
  1.3073337734697280E-01 a      1520     0    76     1    20
  8.7793107122568909E-02 a      1521     0    77     1     1
 -1.2812940682585094E-01 a      1522     0    77     1     2
  3.8516456360281781E-02 a      1523     0    77     1     3
  1.1607285980053487E-01 a      1524     0    77     1     4
  1.0351542617339277E-01 a      1525     0    77     1     5
 -1.5249270884486579E-01 a      1526     0    77     1     6
  6.3361267273246952E-02 a      1527     0    77     1     7
  6.3359008879342232E-02 a      1528     0    77     1     8
 -7.9485156766883697E-02 a      1529     0    77     1     9
  5.0987335146812890E-02 a      1530     0    77     1    10
  4.0067206321638418E-02 a      1531     0    77     1    11
 -7.2849894467712270E-02 a      1532     0    77     1    12
 -5.9298964844630903E-02 a      1533     0    77     1    13
  6.8630444047650674E-02 a      1534     0    77     1    14
 -7.8658621913357527E-02 a      1535     0    77     1    15
 -1.0743460423155576E-02 a      1536     0    77     1    16
  6.4591636916123532E-02 a      1537     0    77     1    17
  1.5121176066796221E-01 a      1538     0    77     1    18
 -1.0844675215832178E-01 a      1539     0    77     1    19
  1.3003823756780122E-01 a      1540     0    77     1    20
  1.2222123993953007E-01 a      1541     0    78     1     1
  1.3491928155607896E-01 a      1542     0    78     1     2
  9.2001610340845738E-02 a      1543     0    78     1     3
  7.5195726637909840E-02 a      1544     0    78     1     4
 -6.4488653178545810E-02 a      1545     0    78     1     5
 -9.9629054349507515E-02 a      1546     0    78     1     6
 -3.4964929642667247E-01 a      1547     0    78     1     7
 -2.1191795164016006E-01 a      1548     0    78     1     8
  1.1873601085932617E-01 a      1549     0    78     1     9
  6.9560504383742996E-03 a      1550     0    78     1    10
 -9.5412361939272480E-02 a      1551     0    78     1    11
 -9.5955106319287511E-02 a      1552     0    78     1    12
  1.9465893967928785E-01 a      1553     0    78     1    13
  5.1396083254758439E-02 a      1554     0    78     1    14
  2.3387182363832695E-01 a      1555     0    78     1    15
  8.8956340814434001E-02 a      1556     0    78     1    16
 -8.6218823346759496E-02 a      1557     0    78     1    17
 -3.8760476755641912E-02 a      1558     0    78     1    18
 -3.9441821628297075E-01 a      1559     0    78     1    19
 -1.9692010981274288E-01 a      1560     0    78     1    20
 -3.6821618799152016E-02 a      1561     0    79     1     1
  1.1748163114780351E-01 a      1562     0    79     1     2
  9.3304240663920110E-02 a      1563     0    79     1     3
 -3.1085884153839345E-02 a      1564     0    79     1     4
  2.4986643856341167E-02 a      1565     0    79     1     5
  5.0848857328338347E-02 a      1566     0    79     1     6
 -1.6373673644770289E-03 a      1567     0    79     1     7
 -1.6843413812851520E-02 a      1568     0    79     1     8
 -2.7741733370784356E-02 a      1569     0    79     1     9
 -5.1199271773620693E-02 a      1570     0    79     1    10
 -4.3333995733624071E-02 a      1571     0    79     1    11
 -2.6138338481263290E-02 a      1572     0    79     1    12
  1.0024788418955156E-01 a      1573     0    79     1    13
 -7.5314723121182772E-02 a      1574     0    79     1    14
 -2.3576407360591477E-02 a      1575     0    79     1    15
  1.5454660714676538E-01 a      1576     0    79     1    16
  6.9376832700197233E-02 a      1577     0    79     1    17
 -3.9603679649518532E-02 a      1578     0    79     1    18
 -1.7090028057513043E-02 a      1579     0    79     1    19
 -8.1268550349316515E-02 a      1580     0    79     1    20
  1.1607727739091858E-01 a      1581     0    80     1     1
 -2.3769060804990749E-02 a      1582     0    80     1     2
 -1.9585977049144213E-04 a      1583     0    80     1     3
 -6.0619398252685482E-02 a      1584     0    80     1     4
 -7.4912629878349695E-03 a      1585     0    80     1     5
 -9.7767544725096377E-03 a      1586     0    80     1     6
 -1.1318025758928739E-01 a      1587     0    80     1     7
  1.3151398139648490E-01 a      1588     0    80     1     8
 -1.2608814454538789E-01 a      1589     0    80     1     9
 -2.3090843332103161E-02 a      1590     0    80     1    10
  2.5882896317267135E-02 a      1591     0    80     1    11
  8.3784379538272738E-02 a      1592     0    80     1    12
 -1.1229767404080762E-01 a      1593     0    80     1    13
  7.1727888916374383E-02 a      1594     0    80     1    14
  1.0333325481011472E-01 a      1595     0    80     1    15
 -4.5434603482560280E-02 a      1596     0    80     1    16
 -1.9308265452531448E-02 a      1597     0    80     1    17
  7.0251076154527636E-02 a      1598     0    80     1    18
 -1.1170427388610991E-02 a      1599     0    80     1    19
  1.0851453018000225E-01 a      1600     0    80     1    20
 -1.3146273747032728E+00 b      1601     1     1
 -3.7661357056870387E-01 b      1602     1     2
 -3.1474627449589743E-01 b      1603     1     3
 -9.5763474545628013E-01 b      1604     1     4
 -1.0076011453053504E-01 b      1605     1     5
 -1.3617227537738603E+00 b      1606     1     6
 -5.4997020330492952E-01 b      1607     1     7
  3.9502622834080725E-01 b      1608     1     8
 -3.4545224115452591E-02 b      1609     1     9
 -1.0723440123409766E+00 b      1610     1    10
 -6.5761604188092526E-01 b      1611     1    11
 -7.2795137907088436E-01 b      1612     1    12
  1.0240589556812894E-01 b      1613     1    13
  6.4908478110759549E-01 b      1614     1    14
 -4.8255226108749011E-01 b      1615     1    15
 -5.4853903440098128E-01 b      1616     1    16
  4.1735636187983588E-01 b      1617     1    17
 -1.1202033195234573E+00 b      1618     1    18
 -1.4163481736399259E+00 b      1619     1    19
 -9.8012889312917503E-02 b      1620     1    20
  4.2456245737615628E-01 a      1621     1     1     2     1
  5.4848766466074017E-01 a      1622     1     1     2     2
 -2.7211639811611867E-02 a      1623     1     1     2     3
  4.6292994580790980E-01 a      1624     1     1     2     4
  5.7113978829778234E-01 a      1625     1     1     2     5
 -2.1569417588670386E-01 a      1626     1     1     2     6
  2.4314122582331210E-01 a      1627     1     1     2     7
