################################################################################
# Neural network connection values (weights and biases).
################################################################################
# Col  Name       Description
################################################################################
# 1    connection Neural network connection value.
# 2    t          Connection type (a = weight, b = bias).
# 3    index      Index enumerating weights.
# 4    l_s        Starting point layer (end point layer for biases).
# 5    n_s        Starting point neuron in starting layer (end point neuron for biases).
# 6    l_e        End point layer.
# 7    n_e        End point neuron in end layer.
################################################################################
#                      1 2         3     4     5     6     7
#             connection t     index   l_s   n_s   l_e   n_e
############################################################
  8.4701483359689383E-02 a         1     0     1     1     1
  1.2784916189606194E-01 a         2     0     1     1     2
  1.4753244566057028E-01 a         3     0     1     1     3
  5.9980921380586652E-02 a         4     0     1     1     4
 -8.8718659189160526E-02 a         5     0     1     1     5
  1.2332478825938908E-01 a         6     0     1     1     6
 -2.4730284759018743E-03 a         7     0     1     1     7
 -5.9389387330329411E-02 a         8     0     1     1     8
 -6.9220121110464994E-02 a         9     0     1     1     9
  1.7303652857420192E-03 a        10     0     1     1    10
 -3.3596781499096355E-03 a        11     0     1     1    11
 -1.5357262626686912E-02 a        12     0     1     1    12
  9.5861295569795987E-02 a        13     0     1     1    13
  1.2088462452469718E-01 a        14     0     1     1    14
  2.5457732303077280E-01 a        15     0     1     1    15
 -7.3918837817787450E-02 a        16     0     1     1    16
 -2.9587197589221526E-01 a        17     0     1     1    17
 -7.8973412779071300E-02 a        18     0     1     1    18
  2.2099052720541210E-01 a        19     0     1     1    19
 -6.1583643664629338E-02 a        20     0     1     1    20
  2.2491076829237100E-01 a        21     0     2     1     1
 -2.2532871801622334E-01 a        22     0     2     1     2
 -1.1481904743655285E+00 a        23     0     2     1     3
  4.4088818119168638E-01 a        24     0     2     1     4
 -9.8178411481638500E-03 a        25     0     2     1     5
  6.2985469674479067E-01 a        26     0     2     1     6
 -7.0022324985874962E-02 a        27     0     2     1     7
 -1.2683797577535522E-01 a        28     0     2     1     8
  5.7964681860121958E-01 a        29     0     2     1     9
 -6.4023168363444793E-01 a        30     0     2     1    10
 -5.0048287180932205E-01 a        31     0     2     1    11
  6.9404981889732953E-01 a        32     0     2     1    12
 -2.8998574769956104E-01 a        33     0     2     1    13
  1.5984577567780605E+00 a        34     0     2     1    14
 -1.5616524552152117E-01 a        35     0     2     1    15
  5.8406800136296844E-01 a        36     0     2     1    16
  1.1671914063135401E-01 a        37     0     2     1    17
  5.6324507525949385E-01 a        38     0     2     1    18
 -1.8951725112824647E-01 a        39     0     2     1    19
 -2.8123549436029915E-01 a        40     0     2     1    20
 -2.2877745575792297E-02 a        41     0     3     1     1
  1.0618027355541930E-01 a        42     0     3     1     2
  2.3794446480362091E-01 a        43     0     3     1     3
  9.5534075775036142E-02 a        44     0     3     1     4
  2.2790664454403933E-01 a        45     0     3     1     5
 -2.5664136943462124E-01 a        46     0     3     1     6
  1.2158813232621071E-01 a        47     0     3     1     7
 -7.0161402261475270E-02 a        48     0     3     1     8
  9.4841745343860646E-03 a        49     0     3     1     9
  3.1400107403843351E-02 a        50     0     3     1    10
  9.3289727137509867E-02 a        51     0     3     1    11
 -9.1129658358854865E-02 a        52     0     3     1    12
 -1.3692045934319455E-01 a        53     0     3     1    13
  7.7855680841422192E-02 a        54     0     3     1    14
 -1.4839024211438781E-01 a        55     0     3     1    15
  1.5874959848697831E-01 a        56     0     3     1    16
 -3.8210508733095683E-01 a        57     0     3     1    17
  8.6092812216223683E-02 a        58     0     3     1    18
  1.7299804714808083E-02 a        59     0     3     1    19
  8.2305283620820568E-02 a        60     0     3     1    20
 -1.1476639945740123E-01 a        61     0     4     1     1
  7.0708512606251994E-02 a        62     0     4     1     2
  1.7569079949113200E-01 a        63     0     4     1     3
  4.5751767143145626E-02 a        64     0     4     1     4
  1.8254030196983748E-01 a        65     0     4     1     5
 -8.7084921582256392E-02 a        66     0     4     1     6
 -2.6024946113658781E-01 a        67     0     4     1     7
  1.7337125645741774E-01 a        68     0     4     1     8
  2.0764802176199762E-01 a        69     0     4     1     9
 -6.6839386131823351E-03 a        70     0     4     1    10
  5.2919557829489622E-02 a        71     0     4     1    11
 -3.0184121279728179E-02 a        72     0     4     1    12
  3.6327232417497572E-02 a        73     0     4     1    13
 -1.9514391772429385E-01 a        74     0     4     1    14
 -2.7496167231217131E-02 a        75     0     4     1    15
  3.0866581200549033E-02 a        76     0     4     1    16
 -1.1395475144269966E-01 a        77     0     4     1    17
  1.7698769875162679E-01 a        78     0     4     1    18
 -4.1845679804337421E-01 a        79     0     4     1    19
  1.3350735501957046E-02 a        80     0     4     1    20
 -4.7524053518033227E-01 a        81     0     5     1     1
  3.7868538686785469E-01 a        82     0     5     1     2
  5.2678893367476221E-01 a        83     0     5     1     3
 -1.4954108016694825E+00 a        84     0     5     1     4
 -9.8076523542659311E-01 a        85     0     5     1     5
  4.6458320111806509E-03 a        86     0     5     1     6
 -7.5546645088379472E-01 a        87     0     5     1     7
  1.9000636865163942E-01 a        88     0     5     1     8
  1.4275350196648590E-01 a        89     0     5     1     9
  9.2332707600762443E-01 a        90     0     5     1    10
  3.4747717507298054E-01 a        91     0     5     1    11
 -1.9377143681452946E-02 a        92     0     5     1    12
 -2.3074926022935816E-01 a        93     0     5     1    13
 -1.9128731750114017E-01 a        94     0     5     1    14
  2.4857157714268496E-01 a        95     0     5     1    15
 -1.9408423010880014E+00 a        96     0     5     1    16
  3.9993252518050158E-02 a        97     0     5     1    17
 -2.8147061219910202E-01 a        98     0     5     1    18
  1.9292533153172969E-01 a        99     0     5     1    19
  1.1273754410157664E+00 a       100     0     5     1    20
  4.6587735983692369E-02 a       101     0     6     1     1
  1.7079746383606795E-01 a       102     0     6     1     2
 -1.7688547779483910E-01 a       103     0     6     1     3
  2.6294840978901925E-02 a       104     0     6     1     4
  4.2921944246723714E-02 a       105     0     6     1     5
  1.5900521780220819E-01 a       106     0     6     1     6
 -2.6682226403059095E-01 a       107     0     6     1     7
 -1.0914195864166976E-01 a       108     0     6     1     8
 -2.7609765809213133E-01 a       109     0     6     1     9
 -1.6984201997951234E-01 a       110     0     6     1    10
 -1.0887143776105396E-01 a       111     0     6     1    11
 -9.5340134110050156E-02 a       112     0     6     1    12
  1.8305466305066503E-01 a       113     0     6     1    13
  1.1483261549581196E-01 a       114     0     6     1    14
  5.6227834849825215E-02 a       115     0     6     1    15
 -1.9234743938460766E-01 a       116     0     6     1    16
  3.9889284717665334E-02 a       117     0     6     1    17
  2.7071390721244587E-01 a       118     0     6     1    18
 -1.2588786378484151E-01 a       119     0     6     1    19
 -1.7407366271761712E-01 a       120     0     6     1    20
  6.6470560333265006E-03 a       121     0     7     1     1
  3.8921148470198778E-03 a       122     0     7     1     2
 -2.6550472755987475E-01 a       123     0     7     1     3
 -1.4356454316439435E-01 a       124     0     7     1     4
 -4.5293186678597532E-02 a       125     0     7     1     5
  3.3368493151461134E-02 a       126     0     7     1     6
 -1.6028361647849493E-01 a       127     0     7     1     7
 -2.4181335385044506E-01 a       128     0     7     1     8
 -3.6280672302367822E-01 a       129     0     7     1     9
 -1.4707526991972220E-01 a       130     0     7     1    10
 -2.0505113328478966E-01 a       131     0     7     1    11
  2.9957992093607239E-01 a       132     0     7     1    12
 -8.4991069535340941E-02 a       133     0     7     1    13
  1.7180110857923322E-01 a       134     0     7     1    14
 -4.0789124012316914E-02 a       135     0     7     1    15
 -1.3257609368609380E-01 a       136     0     7     1    16
 -4.8584664366248687E-01 a       137     0     7     1    17
  5.7574754118707536E-02 a       138     0     7     1    18
  9.2809687785222195E-02 a       139     0     7     1    19
  8.0017277560095301E-02 a       140     0     7     1    20
 -1.4990957900840560E-01 a       141     0     8     1     1
 -2.1929854272018479E-01 a       142     0     8     1     2
 -5.3080683848482824E-01 a       143     0     8     1     3
  6.0970006360995876E-01 a       144     0     8     1     4
 -5.3812623388437619E-01 a       145     0     8     1     5
 -1.9285791905977076E-01 a       146     0     8     1     6
 -2.8465672637667000E-01 a       147     0     8     1     7
  3.5209508538227913E-01 a       148     0     8     1     8
  7.1456942327893558E-01 a       149     0     8     1     9
 -7.8858584694082989E-01 a       150     0     8     1    10
 -4.6917800651003855E-01 a       151     0     8     1    11
  5.8565818680746473E-01 a       152     0     8     1    12
  1.4330511036878144E-01 a       153     0     8     1    13
 -5.8326051542904900E-01 a       154     0     8     1    14
  3.5848526858690993E-01 a       155     0     8     1    15
  1.4225508369534237E+00 a       156     0     8     1    16
  6.2844660469972458E-01 a       157     0     8     1    17
  5.0851470538765686E-01 a       158     0     8     1    18
 -5.4686110672051891E-01 a       159     0     8     1    19
 -5.8809862866902329E-01 a       160     0     8     1    20
  1.3714993998155102E-02 a       161     0     9     1     1
 -1.3645559104441010E-01 a       162     0     9     1     2
 -4.2433815580950868E-01 a       163     0     9     1     3
 -1.2821540032457107E-01 a       164     0     9     1     4
 -3.1246003088528812E-01 a       165     0     9     1     5
  3.1355381136406185E-01 a       166     0     9     1     6
 -9.5917675986921427E-02 a       167     0     9     1     7
 -8.1428094871331528E-04 a       168     0     9     1     8
 -4.3734079596244285E-02 a       169     0     9     1     9
 -6.7291301513106666E-02 a       170     0     9     1    10
 -1.6502333074054043E-01 a       171     0     9     1    11
 -1.9395196122448263E-01 a       172     0     9     1    12
 -3.8732306990968624E-01 a       173     0     9     1    13
 -3.0106083763962333E-02 a       174     0     9     1    14
 -7.0235968664151868E-02 a       175     0     9     1    15
 -3.2674658355738717E-01 a       176     0     9     1    16
 -3.9998041402747581E-01 a       177     0     9     1    17
 -2.4418431303456889E-01 a       178     0     9     1    18
 -3.3431109281845797E-02 a       179     0     9     1    19
  3.3120181124890909E-02 a       180     0     9     1    20
 -1.0115249326907163E-02 a       181     0    10     1     1
  1.5250667181838215E-01 a       182     0    10     1     2
  1.7037382056939587E-01 a       183     0    10     1     3
  4.4167157273529441E-02 a       184     0    10     1     4
  6.3524738141920098E-02 a       185     0    10     1     5
  5.4490941349944387E-02 a       186     0    10     1     6
 -2.1209866799211985E-01 a       187     0    10     1     7
  2.5577794039391807E-02 a       188     0    10     1     8
  5.3513321947227778E-02 a       189     0    10     1     9
 -2.0524828801891906E-03 a       190     0    10     1    10
  7.2784880953224249E-03 a       191     0    10     1    11
  5.0909459166967652E-02 a       192     0    10     1    12
  4.2335902886108813E-02 a       193     0    10     1    13
 -1.4105914285289800E-01 a       194     0    10     1    14
  8.1342251581537947E-02 a       195     0    10     1    15
 -1.1146939944846135E-02 a       196     0    10     1    16
 -9.4389531378200428E-02 a       197     0    10     1    17
  1.2892700474967891E-01 a       198     0    10     1    18
 -1.8536404271798992E-01 a       199     0    10     1    19
 -1.5300025088120846E-02 a       200     0    10     1    20
 -1.2446292733762572E-01 a       201     0    11     1     1
  1.6683351829174517E-01 a       202     0    11     1     2
  2.9794436543606756E-01 a       203     0    11     1     3
 -4.1713234978446995E-01 a       204     0    11     1     4
  1.0749043935024577E-01 a       205     0    11     1     5
  9.3488043142706334E-01 a       206     0    11     1     6
 -1.7778702632919210E-02 a       207     0    11     1     7
  4.9208317432035226E-01 a       208     0    11     1     8
  6.2699138892040385E-01 a       209     0    11     1     9
 -5.8927609096756574E-02 a       210     0    11     1    10
  1.0776138877493813E-02 a       211     0    11     1    11
  1.8463117210933080E-01 a       212     0    11     1    12
 -8.9268189006275778E-01 a       213     0    11     1    13
  7.3454367281738986E-01 a       214     0    11     1    14
  7.9807418523655665E-03 a       215     0    11     1    15
 -1.5514051604190580E+00 a       216     0    11     1    16
  3.1741799526656578E-01 a       217     0    11     1    17
  7.7045675507630307E-02 a       218     0    11     1    18
  3.2307486335212937E-01 a       219     0    11     1    19
  1.0531739551291013E+00 a       220     0    11     1    20
 -6.3915181155969655E-02 a       221     0    12     1     1
 -1.0406519221225689E-01 a       222     0    12     1     2
 -1.6403973699778263E-01 a       223     0    12     1     3
  1.5289212107746716E-02 a       224     0    12     1     4
  2.6512475210666374E-02 a       225     0    12     1     5
  1.9949739397041075E-01 a       226     0    12     1     6
 -2.4218747187212886E-01 a       227     0    12     1     7
  1.0634424255929810E-01 a       228     0    12     1     8
 -1.4556582310670468E-01 a       229     0    12     1     9
 -2.3185898233612851E-01 a       230     0    12     1    10
  2.3996098367616900E-01 a       231     0    12     1    11
 -1.0766380304963465E-01 a       232     0    12     1    12
 -3.7240512118683504E-02 a       233     0    12     1    13
 -3.1115219059858357E-02 a       234     0    12     1    14
 -5.5532044917746916E-02 a       235     0    12     1    15
 -1.6064646294868998E-01 a       236     0    12     1    16
 -6.3340975234048214E-01 a       237     0    12     1    17
  2.9493034034707416E-01 a       238     0    12     1    18
 -1.7776627923802768E-01 a       239     0    12     1    19
 -9.3736781975571962E-02 a       240     0    12     1    20
  4.7752301552009838E-02 a       241     0    13     1     1
  1.0018748832085558E-01 a       242     0    13     1     2
  1.4007238761452935E-02 a       243     0    13     1     3
 -5.4688394551568695E-02 a       244     0    13     1     4
 -3.0436598544569479E-02 a       245     0    13     1     5
  8.1543782770068535E-03 a       246     0    13     1     6
 -7.1667473724840641E-02 a       247     0    13     1     7
 -1.5983355817298314E-01 a       248     0    13     1     8
 -2.3373269710996245E-01 a       249     0    13     1     9
 -1.3369933072104745E-01 a       250     0    13     1    10
 -1.4460541417570522E-01 a       251     0    13     1    11
  1.7254511266488864E-01 a       252     0    13     1    12
 -8.9112082374197793E-02 a       253     0    13     1    13
  1.0394382561885249E-01 a       254     0    13     1    14
 -2.9197603096067573E-03 a       255     0    13     1    15
 -6.7225945158481222E-04 a       256     0    13     1    16
 -1.8833903998620502E-01 a       257     0    13     1    17
  1.2705757249257774E-01 a       258     0    13     1    18
  2.2419720603222643E-02 a       259     0    13     1    19
  8.9553508297188056E-02 a       260     0    13     1    20
 -1.7349498615517983E-01 a       261     0    14     1     1
 -1.5791530957816335E-01 a       262     0    14     1     2
  1.4577019944434657E-02 a       263     0    14     1     3
 -1.0128418860688070E-01 a       264     0    14     1     4
 -2.3218126809637551E-01 a       265     0    14     1     5
 -1.4331888582260346E-01 a       266     0    14     1     6
 -5.9706781656109842E-03 a       267     0    14     1     7
 -2.2983659712680393E-01 a       268     0    14     1     8
  2.0928783842658844E-01 a       269     0    14     1     9
 -8.9953479412823611E-02 a       270     0    14     1    10
 -3.0879237427718736E-01 a       271     0    14     1    11
 -1.1713567208836390E-01 a       272     0    14     1    12
  1.6538952288020675E-01 a       273     0    14     1    13
 -2.7549318361677461E-01 a       274     0    14     1    14
  1.5743633258464326E-01 a       275     0    14     1    15
  6.9476927748479500E-01 a       276     0    14     1    16
  7.7954154421363261E-02 a       277     0    14     1    17
  2.1984804450225068E-01 a       278     0    14     1    18
 -1.2181241816383530E-01 a       279     0    14     1    19
 -3.3953573588188257E-01 a       280     0    14     1    20
  6.5726851441426065E-02 a       281     0    15     1     1
  1.0391370437999908E-01 a       282     0    15     1     2
 -4.1097596639391853E-01 a       283     0    15     1     3
 -1.9304524987340022E-02 a       284     0    15     1     4
  7.5467453670638715E-02 a       285     0    15     1     5
  7.7024558540780441E-02 a       286     0    15     1     6
 -1.4644860782305572E-01 a       287     0    15     1     7
 -1.2649237837919722E-01 a       288     0    15     1     8
 -1.4245002817871016E-01 a       289     0    15     1     9
  4.4717954072703625E-02 a       290     0    15     1    10
 -1.9895506154168874E-01 a       291     0    15     1    11
 -1.8843149691411706E-01 a       292     0    15     1    12
 -7.3812079333835448E-02 a       293     0    15     1    13
 -7.0632682923017040E-02 a       294     0    15     1    14
  6.4577742274453493E-03 a       295     0    15     1    15
 -3.5393491244897357E-01 a       296     0    15     1    16
 -3.5402430358051179E-01 a       297     0    15     1    17
 -5.4198487543250578E-03 a       298     0    15     1    18
 -5.2617133647855523E-02 a       299     0    15     1    19
 -1.5329322362032802E-01 a       300     0    15     1    20
  6.2703160371319136E-02 a       301     0    16     1     1
  4.8258179428737294E-02 a       302     0    16     1     2
 -7.8387162579649880E-02 a       303     0    16     1     3
  5.3762406375284762E-03 a       304     0    16     1     4
  7.3927530213111076E-02 a       305     0    16     1     5
  1.8016737402130899E-02 a       306     0    16     1     6
 -4.2755276587178703E-02 a       307     0    16     1     7
 -4.2337984611591994E-02 a       308     0    16     1     8
 -4.5168857604959818E-02 a       309     0    16     1     9
  1.7136270845213733E-01 a       310     0    16     1    10
 -1.3896224003737663E-02 a       311     0    16     1    11
  8.0708252236807221E-02 a       312     0    16     1    12
  9.3131770977123982E-02 a       313     0    16     1    13
 -9.7155827115002341E-02 a       314     0    16     1    14
 -5.4832661916359007E-02 a       315     0    16     1    15
  8.1705907114703637E-04 a       316     0    16     1    16
 -6.3241407412789760E-02 a       317     0    16     1    17
  6.5096865215490555E-03 a       318     0    16     1    18
 -1.1321551976359578E-01 a       319     0    16     1    19
 -1.0036976902243380E-01 a       320     0    16     1    20
  1.3360596519382559E-01 a       321     0    17     1     1
  2.7379003166232990E-01 a       322     0    17     1     2
 -1.7804857401620344E-01 a       323     0    17     1     3
  2.7350222417357384E-01 a       324     0    17     1     4
  3.5100244866422964E-01 a       325     0    17     1     5
  3.1189253984806986E-01 a       326     0    17     1     6
 -1.1528851892681751E-02 a       327     0    17     1     7
  1.5004221868171508E-01 a       328     0    17     1     8
  1.7912431441036081E-01 a       329     0    17     1     9
  7.1209818811435416E-04 a       330     0    17     1    10
  5.6322325031824849E-01 a       331     0    17     1    11
 -4.1859857070158692E-02 a       332     0    17     1    12
 -7.2091844267947500E-02 a       333     0    17     1    13
 -1.1022944481072319E-01 a       334     0    17     1    14
 -1.4793252730061032E-01 a       335     0    17     1    15
 -2.8465057255679960E-01 a       336     0    17     1    16
  2.2087683438653707E-01 a       337     0    17     1    17
 -2.8101884480087941E-01 a       338     0    17     1    18
  8.1186822984229523E-02 a       339     0    17     1    19
  3.4976735755974864E-01 a       340     0    17     1    20
  5.7617298930594835E-02 a       341     0    18     1     1
 -6.9142503677613598E-02 a       342     0    18     1     2
 -2.3574695153698630E-02 a       343     0    18     1     3
 -7.1602994416936266E-02 a       344     0    18     1     4
 -5.7757079911278472E-02 a       345     0    18     1     5
  2.2765432601212718E-01 a       346     0    18     1     6
 -3.2437510872949868E-03 a       347     0    18     1     7
  6.4284192899537518E-02 a       348     0    18     1     8
 -4.1028549265590235E-02 a       349     0    18     1     9
 -5.1329149334647148E-02 a       350     0    18     1    10
  7.5826661517195748E-02 a       351     0    18     1    11
  6.8469830277339619E-02 a       352     0    18     1    12
 -3.1173289497465059E-02 a       353     0    18     1    13
 -3.8820866734169408E-02 a       354     0    18     1    14
 -5.0465255427361397E-02 a       355     0    18     1    15
  7.3977041071296198E-02 a       356     0    18     1    16
 -5.1792044938221211E-02 a       357     0    18     1    17
  1.1965304571790722E-01 a       358     0    18     1    18
 -9.2104210848019952E-02 a       359     0    18     1    19
 -3.3355931087185708E-02 a       360     0    18     1    20
 -1.5178682278467560E-02 a       361     0    19     1     1
  6.5295687212831827E-02 a       362     0    19     1     2
  1.3045245701444169E-01 a       363     0    19     1     3
 -1.0219296349042567E-02 a       364     0    19     1     4
 -2.2665173632537483E-03 a       365     0    19     1     5
 -1.1728874197464594E-02 a       366     0    19     1     6
 -9.3740856281102260E-03 a       367     0    19     1     7
 -1.9144821993132458E-02 a       368     0    19     1     8
 -3.6653132117158517E-02 a       369     0    19     1     9
 -1.3509941355754468E-01 a       370     0    19     1    10
 -6.0113278485861392E-02 a       371     0    19     1    11
  3.2947811107300212E-03 a       372     0    19     1    12
 -6.4079406769154260E-02 a       373     0    19     1    13
 -1.6035748535419510E-02 a       374     0    19     1    14
  1.1696769907853841E-01 a       375     0    19     1    15
 -1.5229062446829957E-02 a       376     0    19     1    16
  1.8064542093828937E-02 a       377     0    19     1    17
  9.4880044292696100E-02 a       378     0    19     1    18
  4.5224697071416298E-02 a       379     0    19     1    19
  6.8299480813460781E-02 a       380     0    19     1    20
 -1.4177586978012266E-01 a       381     0    20     1     1
 -3.4916039114636888E-01 a       382     0    20     1     2
  2.9786555837600159E-01 a       383     0    20     1     3
 -3.0929149806790096E-01 a       384     0    20     1     4
 -4.4299850354892434E-01 a       385     0    20     1     5
  2.6753193314290313E-01 a       386     0    20     1     6
  7.4708279247323248E-02 a       387     0    20     1     7
  8.6817820263494938E-02 a       388     0    20     1     8
  7.0989696795534338E-02 a       389     0    20     1     9
 -1.1308127072266518E-01 a       390     0    20     1    10
 -7.4917623901921082E-01 a       391     0    20     1    11
  1.1374413324565920E-01 a       392     0    20     1    12
 -1.2502535996792494E-01 a       393     0    20     1    13
  3.6433106062430126E-01 a       394     0    20     1    14
  1.4212069304355276E-01 a       395     0    20     1    15
  2.1989895507973589E-01 a       396     0    20     1    16
 -1.3707051981191828E-01 a       397     0    20     1    17
  1.7093057173120965E-01 a       398     0    20     1    18
 -6.7949337402567381E-02 a       399     0    20     1    19
  2.0476386540644063E-02 a       400     0    20     1    20
 -5.4367332371302451E-03 a       401     0    21     1     1
  4.9286091335395681E-02 a       402     0    21     1     2
 -1.4693325142807359E-01 a       403     0    21     1     3
  3.7742825887448310E-02 a       404     0    21     1     4
  7.7064159128616791E-02 a       405     0    21     1     5
 -7.3505581562694100E-02 a       406     0    21     1     6
 -4.7479306579473850E-02 a       407     0    21     1     7
 -2.5738740528093093E-02 a       408     0    21     1     8
 -4.9781428237619463E-03 a       409     0    21     1     9
  1.5461045768237938E-02 a       410     0    21     1    10
 -4.3147515962052602E-02 a       411     0    21     1    11
 -1.0240773916116344E-01 a       412     0    21     1    12
 -1.6265660038377792E-02 a       413     0    21     1    13
  7.2558373997454573E-02 a       414     0    21     1    14
 -1.4719260764186929E-02 a       415     0    21     1    15
 -1.3572250791705015E-01 a       416     0    21     1    16
  1.9962855732030532E-02 a       417     0    21     1    17
 -3.3110197817096454E-02 a       418     0    21     1    18
  1.6545879972657038E-02 a       419     0    21     1    19
 -2.9037499889204819E-02 a       420     0    21     1    20
  4.8298164253721527E-02 a       421     0    22     1     1
  1.2942243571027015E-02 a       422     0    22     1     2
 -6.0806904348190083E-02 a       423     0    22     1     3
  1.0497688282877397E-02 a       424     0    22     1     4
  2.1411998687870176E-02 a       425     0    22     1     5
 -5.2270819083862965E-03 a       426     0    22     1     6
  6.0022758091073658E-03 a       427     0    22     1     7
 -9.8815792734869110E-02 a       428     0    22     1     8
 -1.0468734582189600E-01 a       429     0    22     1     9
  1.1648588332988502E-01 a       430     0    22     1    10
 -1.1114029712563039E-02 a       431     0    22     1    11
  6.8378828459140673E-02 a       432     0    22     1    12
  3.2059699898904379E-02 a       433     0    22     1    13
  3.4456833049357691E-02 a       434     0    22     1    14
 -1.5686149151273235E-01 a       435     0    22     1    15
  6.0680425299239581E-02 a       436     0    22     1    16
 -1.6189529155169993E-01 a       437     0    22     1    17
 -1.3378158518470623E-02 a       438     0    22     1    18
 -6.6123336656856893E-02 a       439     0    22     1    19
 -4.5825127598738441E-02 a       440     0    22     1    20
  8.3516520864007487E-02 a       441     0    23     1     1
  2.2489896177827103E-02 a       442     0    23     1     2
 -5.4844543458370976E-01 a       443     0    23     1     3
  2.7712886739226988E-01 a       444     0    23     1     4
  5.8917956134795883E-02 a       445     0    23     1     5
 -8.0490874064850615E-02 a       446     0    23     1     6
  3.5471901128015335E-02 a       447     0    23     1     7
  1.7740981487212348E-01 a       448     0    23     1     8
  7.0003214594551569E-02 a       449     0    23     1     9
  1.3418957869560180E-01 a       450     0    23     1    10
  6.7927198429532487E-01 a       451     0    23     1    11
 -2.4901299671518204E-01 a       452     0    23     1    12
  6.8960612109006392E-02 a       453     0    23     1    13
 -1.8269974216918097E-01 a       454     0    23     1    14
 -1.7564615577748030E-01 a       455     0    23     1    15
 -9.1692567137921455E-02 a       456     0    23     1    16
  2.4466574404692443E-01 a       457     0    23     1    17
 -1.8605630763436415E-01 a       458     0    23     1    18
  5.5378843088191179E-04 a       459     0    23     1    19
 -1.2720719108769332E-01 a       460     0    23     1    20
  6.4578737943002049E-02 a       461     0    24     1     1
 -7.2654240713837331E-02 a       462     0    24     1     2
  8.9835042350116967E-02 a       463     0    24     1     3
 -8.0259456449385660E-02 a       464     0    24     1     4
 -7.7319358319988499E-02 a       465     0    24     1     5
  1.8642043727331806E-01 a       466     0    24     1     6
  6.8749732460320082E-02 a       467     0    24     1     7
  8.7203448444613113E-02 a       468     0    24     1     8
  5.1467272152596326E-02 a       469     0    24     1     9
  4.7292122296438040E-02 a       470     0    24     1    10
 -2.5087186147039631E-02 a       471     0    24     1    11
  8.3180809386716514E-02 a       472     0    24     1    12
  5.7425664379438017E-02 a       473     0    24     1    13
 -7.3168132586876808E-02 a       474     0    24     1    14
 -1.0706777245846786E-02 a       475     0    24     1    15
  1.3787125043957693E-01 a       476     0    24     1    16
  8.0607839848941300E-03 a       477     0    24     1    17
 -7.2858736439786751E-03 a       478     0    24     1    18
 -5.1034078809540105E-02 a       479     0    24     1    19
 -3.9974964161734652E-03 a       480     0    24     1    20
 -3.6676922460606984E-02 a       481     0    25     1     1
  1.2846403956862080E-04 a       482     0    25     1     2
  7.6423819277281150E-03 a       483     0    25     1     3
 -1.6219135869034282E-03 a       484     0    25     1     4
  7.0953790268892805E-03 a       485     0    25     1     5
 -9.6373984892637356E-03 a       486     0    25     1     6
 -1.9197871995657898E-02 a       487     0    25     1     7
  6.4099875025605824E-02 a       488     0    25     1     8
  5.3772289379868055E-02 a       489     0    25     1     9
 -4.1094396313965172E-02 a       490     0    25     1    10
  8.1582453807600083E-03 a       491     0    25     1    11
 -2.5467465583263831E-02 a       492     0    25     1    12
  6.0246783908856358E-03 a       493     0    25     1    13
 -6.7062207347125022E-02 a       494     0    25     1    14
  1.2450401616000643E-01 a       495     0    25     1    15
 -7.6233339186153062E-02 a       496     0    25     1    16
  1.2099938062289170E-01 a       497     0    25     1    17
 -9.5048792113024074E-04 a       498     0    25     1    18
  2.8355327236624924E-02 a       499     0    25     1    19
 -1.4919873899920890E-02 a       500     0    25     1    20
 -9.3310015071224120E-02 a       501     0    26     1     1
 -1.1102153239108280E-01 a       502     0    26     1     2
  2.3662480022389901E-01 a       503     0    26     1     3
 -1.5917879668408805E-01 a       504     0    26     1     4
  1.0026840556511608E-01 a       505     0    26     1     5
 -1.1120507736998174E-02 a       506     0    26     1     6
  5.3115819658980844E-02 a       507     0    26     1     7
 -1.1309728128971042E-01 a       508     0    26     1     8
 -2.5326702081318840E-02 a       509     0    26     1     9
  1.7601755326682292E-01 a       510     0    26     1    10
 -4.2925626218497420E-01 a       511     0    26     1    11
  3.2076039208923268E-01 a       512     0    26     1    12
  8.1678518250901083E-02 a       513     0    26     1    13
  1.2270009651457221E-01 a       514     0    26     1    14
 -1.4648542976218965E-01 a       515     0    26     1    15
  5.8501977142928270E-02 a       516     0    26     1    16
 -1.9843366323629674E-01 a       517     0    26     1    17
 -3.3429588734094832E-03 a       518     0    26     1    18
 -1.4671132745864164E-02 a       519     0    26     1    19
 -7.0859355427735429E-03 a       520     0    26     1    20
 -5.0803688923123744E-02 a       521     0    27     1     1
 -4.5404513818056791E-03 a       522     0    27     1     2
 -8.9565391196255853E-02 a       523     0    27     1     3
  3.9288090984308070E-02 a       524     0    27     1     4
  3.1533838854428169E-02 a       525     0    27     1     5
 -1.0830598804278074E-01 a       526     0    27     1     6
 -3.8414861759824982E-02 a       527     0    27     1     7
 -1.9248079742211566E-03 a       528     0    27     1     8
  6.9589402928245661E-03 a       529     0    27     1     9
 -4.1387855107369108E-02 a       530     0    27     1    10
  4.7413673089438592E-02 a       531     0    27     1    11
 -6.2337191449654154E-02 a       532     0    27     1    12
 -3.9981542219812205E-02 a       533     0    27     1    13
  9.1960637996921862E-02 a       534     0    27     1    14
 -1.1724587899818027E-02 a       535     0    27     1    15
 -8.8403108491680732E-02 a       536     0    27     1    16
  2.2748345905795581E-02 a       537     0    27     1    17
 -1.6659445849841890E-02 a       538     0    27     1    18
  4.0398962125522291E-02 a       539     0    27     1    19
  1.6873839896223253E-02 a       540     0    27     1    20
  3.0581281589495333E-02 a       541     0    28     1     1
  3.0363440840223143E-02 a       542     0    28     1     2
 -1.3679630313189592E-02 a       543     0    28     1     3
 -7.6602138603077199E-05 a       544     0    28     1     4
  2.2721365277669877E-02 a       545     0    28     1     5
  4.2822465061550250E-03 a       546     0    28     1     6
  7.0143602055886944E-03 a       547     0    28     1     7
 -6.2536582976196728E-02 a       548     0    28     1     8
 -5.6936590195960125E-02 a       549     0    28     1     9
  6.6325298535463715E-03 a       550     0    28     1    10
 -2.5540685364745696E-02 a       551     0    28     1    11
  1.3036153023640393E-02 a       552     0    28     1    12
 -2.6504427013471762E-02 a       553     0    28     1    13
  2.6740692165515684E-02 a       554     0    28     1    14
 -6.6915962495120954E-02 a       555     0    28     1    15
  3.7622534652812047E-02 a       556     0    28     1    16
 -1.0152833825114888E-01 a       557     0    28     1    17
  4.1868139517143146E-02 a       558     0    28     1    18
 -3.2183577061454804E-02 a       559     0    28     1    19
  4.5765396499862603E-03 a       560     0    28     1    20
  3.6655601652364554E-02 a       561     0    29     1     1
  1.2902206767598653E-01 a       562     0    29     1     2
  6.0510136037085334E-02 a       563     0    29     1     3
  8.0534967136524971E-02 a       564     0    29     1     4
 -2.8397245488172719E-02 a       565     0    29     1     5
  2.6797469904800281E-02 a       566     0    29     1     6
 -1.6172030824415748E-02 a       567     0    29     1     7
  2.3367119712043950E-02 a       568     0    29     1     8
  1.6139677713694841E-02 a       569     0    29     1     9
 -2.2551759750531968E-02 a       570     0    29     1    10
  1.3999031308542156E-01 a       571     0    29     1    11
 -3.3004022826340226E-02 a       572     0    29     1    12
 -3.6447007075715382E-02 a       573     0    29     1    13
 -6.5131212221147400E-02 a       574     0    29     1    14
  9.7431683054867609E-03 a       575     0    29     1    15
  3.5459865032931998E-02 a       576     0    29     1    16
  7.3520209380835644E-02 a       577     0    29     1    17
 -5.8792831422336239E-02 a       578     0    29     1    18
 -2.5087852471728605E-02 a       579     0    29     1    19
 -8.8488945218741594E-02 a       580     0    29     1    20
  2.3726231766488793E-02 a       581     0    30     1     1
 -1.5323285079563513E-02 a       582     0    30     1     2
  3.2389110358172303E-02 a       583     0    30     1     3
 -2.4353769806149714E-02 a       584     0    30     1     4
 -1.1550905763570696E-02 a       585     0    30     1     5
  5.1829309691567030E-02 a       586     0    30     1     6
  1.9513935179097820E-02 a       587     0    30     1     7
  3.4684152228528095E-02 a       588     0    30     1     8
  2.6091057283346229E-02 a       589     0    30     1     9
  2.8305612050660428E-02 a       590     0    30     1    10
 -2.1240398667932564E-02 a       591     0    30     1    11
  1.6272347989306178E-02 a       592     0    30     1    12
  3.0800727165830107E-02 a       593     0    30     1    13
 -2.6851955937005453E-02 a       594     0    30     1    14
 -9.2514354891120784E-04 a       595     0    30     1    15
  4.2687276134222005E-02 a       596     0    30     1    16
  2.6075937659628345E-02 a       597     0    30     1    17
 -1.2723920051793472E-02 a       598     0    30     1    18
 -1.4227905070931759E-02 a       599     0    30     1    19
 -2.6762796644261510E-03 a       600     0    30     1    20
  5.4381991134179915E-03 a       601     0    31     1     1
 -7.7778813182019221E-02 a       602     0    31     1     2
  5.2638668737315713E-03 a       603     0    31     1     3
 -4.4648542628077603E-02 a       604     0    31     1     4
 -5.2791919870928572E-02 a       605     0    31     1     5
  2.6164593193566479E-02 a       606     0    31     1     6
 -2.9075456741182493E-02 a       607     0    31     1     7
 -8.3814923618601780E-02 a       608     0    31     1     8
  5.2108765510111489E-02 a       609     0    31     1     9
 -1.1218904077832087E-01 a       610     0    31     1    10
  6.0117895397124581E-02 a       611     0    31     1    11
 -3.9965657648754489E-02 a       612     0    31     1    12
 -4.3299284695661215E-03 a       613     0    31     1    13
  9.6759266549455283E-02 a       614     0    31     1    14
 -6.8132248328338862E-02 a       615     0    31     1    15
  1.4579059507284076E-02 a       616     0    31     1    16
 -1.8847062328774797E-01 a       617     0    31     1    17
 -9.1033198849148733E-02 a       618     0    31     1    18
  5.2543822572765506E-02 a       619     0    31     1    19
  4.4630488173816686E-02 a       620     0    31     1    20
  1.7274570193907923E-01 a       621     0    32     1     1
  2.6800844741508924E-02 a       622     0    32     1     2
 -7.1419898449462893E-02 a       623     0    32     1     3
 -4.7180607585872260E-02 a       624     0    32     1     4
  2.7805911414995649E-01 a       625     0    32     1     5
 -3.9475321565398520E-02 a       626     0    32     1     6
  3.1951674906157906E-01 a       627     0    32     1     7
 -1.2276345779576639E-01 a       628     0    32     1     8
 -3.0408959130890612E-01 a       629     0    32     1     9
  2.3807554774720119E-01 a       630     0    32     1    10
  2.9118519005659468E-02 a       631     0    32     1    11
 -1.3458657999444062E-01 a       632     0    32     1    12
  2.0120956891945024E-01 a       633     0    32     1    13
  4.7130994435323412E-02 a       634     0    32     1    14
 -8.4581484503818444E-02 a       635     0    32     1    15
  3.4548898825716733E-03 a       636     0    32     1    16
 -1.0132318152160376E-01 a       637     0    32     1    17
 -2.2166181702998636E-01 a       638     0    32     1    18
  4.5059407144752532E-02 a       639     0    32     1    19
 -7.1772588402021803E-02 a       640     0    32     1    20
 -6.0058984495163274E-02 a       641     0    33     1     1
 -2.9115848247904818E-02 a       642     0    33     1     2
 -2.8123540585633780E-02 a       643     0    33     1     3
  4.7841445646841473E-02 a       644     0    33     1     4
  3.3601672479014903E-02 a       645     0    33     1     5
 -2.1328416978242653E-03 a       646     0    33     1     6
  3.4612569871414506E-02 a       647     0    33     1     7
  3.3625653380485863E-02 a       648     0    33     1     8
  1.0794284193669224E-02 a       649     0    33     1     9
  1.0607126001818250E-01 a       650     0    33     1    10
 -2.8627167026892272E-02 a       651     0    33     1    11
  8.5740066426724826E-02 a       652     0    33     1    12
  1.0202537842951755E-01 a       653     0    33     1    13
 -1.1156271083333229E-01 a       654     0    33     1    14
  1.0917618475812362E-01 a       655     0    33     1    15
 -8.7416455398571569E-02 a       656     0    33     1    16
  1.3933182530028762E-01 a       657     0    33     1    17
  2.5747842236844509E-02 a       658     0    33     1    18
  2.5084640581313947E-02 a       659     0    33     1    19
 -1.0485547892657793E-01 a       660     0    33     1    20
  1.1117542795831444E-01 a       661     0    34     1     1
  2.1503592790709991E-01 a       662     0    34     1     2
  7.4346103603833746E-01 a       663     0    34     1     3
  4.2827065518796231E-01 a       664     0    34     1     4
  8.0918261589247564E-01 a       665     0    34     1     5
 -2.7953854605094952E-01 a       666     0    34     1     6
  1.2920998630243390E+00 a       667     0    34     1     7
  6.5542212540942313E-01 a       668     0    34     1     8
 -3.2327441233289561E-01 a       669     0    34     1     9
 -6.6482765039803393E-01 a       670     0    34     1    10
 -9.9077278859357507E-02 a       671     0    34     1    11
 -3.2858369722892627E-01 a       672     0    34     1    12
  8.6206193371601025E-01 a       673     0    34     1    13
 -2.9623307714164260E-01 a       674     0    34     1    14
  4.6181847712023583E-01 a       675     0    34     1    15
  5.0300118133103722E-01 a       676     0    34     1    16
  4.8119308638322666E-01 a       677     0    34     1    17
 -1.3114159259699503E+00 a       678     0    34     1    18
  9.5920519507276736E-01 a       679     0    34     1    19
 -7.0195290812995637E-02 a       680     0    34     1    20
 -3.8458984874496582E-01 a       681     0    35     1     1
 -1.0142821985811708E-01 a       682     0    35     1     2
  5.5861405296002131E-01 a       683     0    35     1     3
  1.2762828716397009E-01 a       684     0    35     1     4
  6.5007930244946402E-02 a       685     0    35     1     5
 -9.3655404670516910E-03 a       686     0    35     1     6
  1.5667527355664870E-01 a       687     0    35     1     7
 -1.6832203104741597E-01 a       688     0    35     1     8
 -1.1630134842422693E-01 a       689     0    35     1     9
  5.1614359364156169E-02 a       690     0    35     1    10
  4.4983308075695694E-01 a       691     0    35     1    11
  7.2105643530849473E-02 a       692     0    35     1    12
  2.4322083466881037E-01 a       693     0    35     1    13
  4.3682977332027467E-01 a       694     0    35     1    14
 -1.3506065173627620E-02 a       695     0    35     1    15
  2.4449062479372397E-01 a       696     0    35     1    16
 -3.6231070411789988E-02 a       697     0    35     1    17
 -4.3315643754272726E-01 a       698     0    35     1    18
  3.2178481516500457E-01 a       699     0    35     1    19
  4.3616077913149684E-02 a       700     0    35     1    20
 -5.3720659564673061E-03 a       701     0    36     1     1
 -4.3142830360518815E-03 a       702     0    36     1     2
 -8.6774019472246333E-02 a       703     0    36     1     3
 -4.6320549035756234E-02 a       704     0    36     1     4
  5.6309398014038461E-02 a       705     0    36     1     5
  4.9145429155794729E-02 a       706     0    36     1     6
  1.2048382180193171E-02 a       707     0    36     1     7
 -8.0845168285338512E-02 a       708     0    36     1     8
 -9.3211991678365053E-02 a       709     0    36     1     9
  5.7702334593196111E-02 a       710     0    36     1    10
  5.9063404270954273E-02 a       711     0    36     1    11
 -8.3392627132420571E-02 a       712     0    36     1    12
 -2.2351862888854164E-02 a       713     0    36     1    13
  1.4479564818725740E-01 a       714     0    36     1    14
 -1.3003467940456612E-01 a       715     0    36     1    15
 -6.7336705823437801E-02 a       716     0    36     1    16
  6.6881049843875301E-02 a       717     0    36     1    17
 -1.2718384922458982E-02 a       718     0    36     1    18
  5.6204749989131948E-02 a       719     0    36     1    19
  4.2042521513314099E-02 a       720     0    36     1    20
 -7.4212174201169195E-03 a       721     0    37     1     1
  2.0292443836444560E-01 a       722     0    37     1     2
 -8.0490265291619331E-02 a       723     0    37     1     3
  8.7077102822530478E-02 a       724     0    37     1     4
  6.6139040478463862E-02 a       725     0    37     1     5
 -1.2500828159636584E-01 a       726     0    37     1     6
  8.5068072006926256E-03 a       727     0    37     1     7
  2.0101902728828272E-01 a       728     0    37     1     8
 -2.5445219966447835E-01 a       729     0    37     1     9
  2.4792678195738890E-01 a       730     0    37     1    10
 -4.9361025802574329E-02 a       731     0    37     1    11
 -1.4608586962199774E-01 a       732     0    37     1    12
  2.9981386062537634E-03 a       733     0    37     1    13
  5.0660759470050491E-02 a       734     0    37     1    14
  3.0255186390944693E-02 a       735     0    37     1    15
  1.0246586048651403E-02 a       736     0    37     1    16
  1.8842600077265678E-01 a       737     0    37     1    17
  1.1873739244220552E-01 a       738     0    37     1    18
 -8.4433131953983317E-02 a       739     0    37     1    19
  3.9844030990280666E-02 a       740     0    37     1    20
  1.8323932029995307E-01 a       741     0    38     1     1
 -3.9432341287889208E-02 a       742     0    38     1     2
  1.9237270364659415E-02 a       743     0    38     1     3
 -7.5958959330333642E-02 a       744     0    38     1     4
 -1.6553366519710924E-01 a       745     0    38     1     5
 -8.7041596692801121E-02 a       746     0    38     1     6
  1.6810542362419767E-01 a       747     0    38     1     7
  2.0314040357746846E-01 a       748     0    38     1     8
 -1.8288978153157557E-02 a       749     0    38     1     9
 -3.5367915299115166E-03 a       750     0    38     1    10
  1.8758939586297621E-01 a       751     0    38     1    11
 -4.3486328972537812E-02 a       752     0    38     1    12
  4.5472600402642220E-02 a       753     0    38     1    13
  1.2529856520309590E-01 a       754     0    38     1    14
 -1.1121659264871500E-01 a       755     0    38     1    15
  2.5567077126083809E-01 a       756     0    38     1    16
 -2.8083919983779804E-01 a       757     0    38     1    17
 -5.7046968959081804E-02 a       758     0    38     1    18
  1.4390206463066169E-01 a       759     0    38     1    19
  1.8499529464543151E-02 a       760     0    38     1    20
 -4.2104293915090608E-02 a       761     0    39     1     1
  3.1307438873515017E-02 a       762     0    39     1     2
  1.0637948945671628E-01 a       763     0    39     1     3
  2.8919236035363467E-02 a       764     0    39     1     4
  2.5860476187892421E-02 a       765     0    39     1     5
  6.8924756523057976E-02 a       766     0    39     1     6
 -2.7469304003863004E-01 a       767     0    39     1     7
  1.2292049401116374E-01 a       768     0    39     1     8
  2.0153716623720530E-01 a       769     0    39     1     9
 -1.9722616331456944E-01 a       770     0    39     1    10
  4.2600217869258904E-02 a       771     0    39     1    11
 -1.9816244075257283E-02 a       772     0    39     1    12
 -3.4652515836775272E-01 a       773     0    39     1    13
 -1.6577098554156708E-01 a       774     0    39     1    14
  7.9196206788911414E-02 a       775     0    39     1    15
 -1.5927367571684378E-01 a       776     0    39     1    16
  1.5634835819662105E-01 a       777     0    39     1    17
 -8.7164363300840125E-02 a       778     0    39     1    18
 -2.7825496011826228E-01 a       779     0    39     1    19
 -4.4839997005158741E-02 a       780     0    39     1    20
  8.9336430645572864E-03 a       781     0    40     1     1
 -3.5586457908811037E-01 a       782     0    40     1     2
  1.2738158961833204E+00 a       783     0    40     1     3
 -4.1001277539738074E-01 a       784     0    40     1     4
 -4.1526425106069742E-01 a       785     0    40     1     5
 -9.3214983522864880E-01 a       786     0    40     1     6
 -1.2096045833582030E+00 a       787     0    40     1     7
 -6.2416100477691072E-01 a       788     0    40     1     8
 -1.0116284438310816E+00 a       789     0    40     1     9
  1.8133283873476676E-02 a       790     0    40     1    10
  8.6777085313494817E-01 a       791     0    40     1    11
  1.4805039160216477E-01 a       792     0    40     1    12
 -8.5241462759551878E-01 a       793     0    40     1    13
  3.3801281165185243E-02 a       794     0    40     1    14
 -8.0476404426543269E-01 a       795     0    40     1    15
 -3.8195959421613368E-01 a       796     0    40     1    16
 -6.6791559181556515E-01 a       797     0    40     1    17
 -7.3857229148763109E-02 a       798     0    40     1    18
 -3.0904423283454528E-02 a       799     0    40     1    19
 -1.1601244552426734E-01 a       800     0    40     1    20
  4.3126860342151840E-01 a       801     0    41     1     1
  3.0309202742505059E-01 a       802     0    41     1     2
  2.9555043243717882E-01 a       803     0    41     1     3
 -3.1788689351908817E-02 a       804     0    41     1     4
 -1.2291127612636400E-01 a       805     0    41     1     5
 -2.8001123911791692E-01 a       806     0    41     1     6
  2.5724154480020989E-01 a       807     0    41     1     7
 -1.3597833257021522E-01 a       808     0    41     1     8
 -9.6711981049811768E-02 a       809     0    41     1     9
  2.1495528052540153E-01 a       810     0    41     1    10
 -3.9829626636255860E-01 a       811     0    41     1    11
  4.4344414605685145E-01 a       812     0    41     1    12
  1.4673890357825536E-01 a       813     0    41     1    13
 -1.0149708220461573E-01 a       814     0    41     1    14
  1.2970554188876671E-01 a       815     0    41     1    15
  3.2185183613547236E-01 a       816     0    41     1    16
  1.8416220439964537E-01 a       817     0    41     1    17
  2.1536686589118264E-02 a       818     0    41     1    18
  7.2462234321267582E-02 a       819     0    41     1    19
  1.9572308502993879E-01 a       820     0    41     1    20
 -3.0430343388760665E-02 a       821     0    42     1     1
  4.8873422632493092E-02 a       822     0    42     1     2
  1.5940574588422363E-01 a       823     0    42     1     3
  1.6496088277425186E-01 a       824     0    42     1     4
 -2.0556880017804793E-01 a       825     0    42     1     5
  9.6773521862418596E-02 a       826     0    42     1     6
 -7.6559968602461698E-02 a       827     0    42     1     7
  3.3197842483937229E-02 a       828     0    42     1     8
 -1.3854743270952077E-01 a       829     0    42     1     9
 -1.5028101007207886E-01 a       830     0    42     1    10
 -8.3573573732783485E-02 a       831     0    42     1    11
  1.7104835534872923E-01 a       832     0    42     1    12
  6.3101656876448781E-02 a       833     0    42     1    13
 -1.9913195416739724E-02 a       834     0    42     1    14
  8.0142952168440307E-02 a       835     0    42     1    15
  1.5043606174651311E-01 a       836     0    42     1    16
 -1.0148011647509807E-01 a       837     0    42     1    17
  3.4848520530332425E-02 a       838     0    42     1    18
 -1.7287302766797788E-01 a       839     0    42     1    19
 -1.3598518159483231E-01 a       840     0    42     1    20
  3.0556776336355782E-03 a       841     0    43     1     1
 -1.4734013537441705E-03 a       842     0    43     1     2
 -7.1141187675541695E-03 a       843     0    43     1     3
 -7.5658427870101026E-03 a       844     0    43     1     4
  2.0984448699535203E-02 a       845     0    43     1     5
  7.7556133648255005E-02 a       846     0    43     1     6
  2.5942795509599471E-02 a       847     0    43     1     7
 -1.6367405892316174E-02 a       848     0    43     1     8
 -1.1332334661621106E-02 a       849     0    43     1     9
  5.4067300543638279E-03 a       850     0    43     1    10
 -3.1211414670081213E-02 a       851     0    43     1    11
  1.8690350324712474E-02 a       852     0    43     1    12
 -2.1846028068063506E-02 a       853     0    43     1    13
 -4.9139869731127411E-02 a       854     0    43     1    14
 -1.1793748179705778E-02 a       855     0    43     1    15
  1.4980388570144996E-02 a       856     0    43     1    16
  2.1315022702744359E-02 a       857     0    43     1    17
  8.5420213681938389E-02 a       858     0    43     1    18
 -2.9418945201651760E-02 a       859     0    43     1    19
 -1.7091476884735727E-02 a       860     0    43     1    20
 -2.7157485524918652E-02 a       861     0    44     1     1
 -1.0461302895329884E-01 a       862     0    44     1     2
  9.0025710152640645E-02 a       863     0    44     1     3
  3.9186292217151211E-02 a       864     0    44     1     4
 -8.3372038175890700E-02 a       865     0    44     1     5
 -2.3761637211140402E-02 a       866     0    44     1     6
  1.8044001545582444E-01 a       867     0    44     1     7
  1.1762675999828142E-02 a       868     0    44     1     8
  3.4793760090548642E-01 a       869     0    44     1     9
  1.8448441127860243E-01 a       870     0    44     1    10
 -1.2234963444336044E-01 a       871     0    44     1    11
 -6.9700256909662708E-02 a       872     0    44     1    12
 -1.4792284423223412E-02 a       873     0    44     1    13
 -1.4685338590241129E-01 a       874     0    44     1    14
  6.0251990829112936E-02 a       875     0    44     1    15
  6.1729884098361013E-02 a       876     0    44     1    16
  5.9273333031133957E-01 a       877     0    44     1    17
  6.6831508780243465E-02 a       878     0    44     1    18
 -1.2738030269859087E-03 a       879     0    44     1    19
 -1.1806621961149258E-01 a       880     0    44     1    20
  6.5169597637809180E-03 a       881     0    45     1     1
 -1.3773182372195009E-02 a       882     0    45     1     2
 -1.1785051745768023E-01 a       883     0    45     1     3
  7.1503923439332961E-04 a       884     0    45     1     4
  4.2741552313883789E-02 a       885     0    45     1     5
 -2.9835643813173430E-02 a       886     0    45     1     6
  6.4662715454126855E-03 a       887     0    45     1     7
  2.3028267000042422E-02 a       888     0    45     1     8
 -4.8559508652039694E-02 a       889     0    45     1     9
  6.7081787745835661E-02 a       890     0    45     1    10
  3.5201547542967782E-02 a       891     0    45     1    11
  2.1220166936761060E-02 a       892     0    45     1    12
  3.6765642726847028E-02 a       893     0    45     1    13
  5.1935839086256423E-02 a       894     0    45     1    14
 -8.6069959809303626E-02 a       895     0    45     1    15
  7.1352105021592327E-04 a       896     0    45     1    16
  8.9265275164492258E-02 a       897     0    45     1    17
 -1.5689561804314411E-02 a       898     0    45     1    18
 -2.1144877900979651E-02 a       899     0    45     1    19
 -2.4132732217952875E-02 a       900     0    45     1    20
  7.9127177555143140E-03 a       901     0    46     1     1
 -1.0472450101582213E-01 a       902     0    46     1     2
  4.3415200219393485E-01 a       903     0    46     1     3
  7.7936394124108008E-02 a       904     0    46     1     4
  3.3350220528745284E-01 a       905     0    46     1     5
  3.5001492271618889E-01 a       906     0    46     1     6
  5.0310648028412279E-02 a       907     0    46     1     7
 -6.4721315525783696E-01 a       908     0    46     1     8
  2.2549720831331577E-01 a       909     0    46     1     9
  5.3351826128812752E-01 a       910     0    46     1    10
 -1.1367159746130251E-02 a       911     0    46     1    11
 -4.3968091620732069E-01 a       912     0    46     1    12
 -7.4620292828966109E-02 a       913     0    46     1    13
 -5.6273429969000865E-01 a       914     0    46     1    14
 -4.8932467940343649E-01 a       915     0    46     1    15
  1.1923886300332903E-01 a       916     0    46     1    16
  7.8649756483454722E-02 a       917     0    46     1    17
  3.4702656961499101E-01 a       918     0    46     1    18
 -5.8578782517464223E-01 a       919     0    46     1    19
 -7.8955910999937329E-01 a       920     0    46     1    20
  2.2505013823220232E-01 a       921     0    47     1     1
 -2.7030729064553036E-02 a       922     0    47     1     2
  3.2316069338910111E-02 a       923     0    47     1     3
 -1.2521289772943711E-01 a       924     0    47     1     4
  1.6569019294709933E-01 a       925     0    47     1     5
 -4.1685431255422795E-01 a       926     0    47     1     6
  3.1537766341190709E-01 a       927     0    47     1     7
  1.6883627552168112E-01 a       928     0    47     1     8
  5.1709733270283575E-01 a       929     0    47     1     9
  1.4501265301635136E-01 a       930     0    47     1    10
 -5.5712109402604737E-02 a       931     0    47     1    11
  1.0638940217743599E-01 a       932     0    47     1    12
  2.3755676009320922E-02 a       933     0    47     1    13
 -2.8499858579267345E-01 a       934     0    47     1    14
  5.0205006345955677E-02 a       935     0    47     1    15
  4.7954582667286777E-01 a       936     0    47     1    16
  9.6310038114652918E-01 a       937     0    47     1    17
  2.1015820054663079E-01 a       938     0    47     1    18
 -6.0846884941096052E-02 a       939     0    47     1    19
  2.2542756580739468E-01 a       940     0    47     1    20
  4.5417270706583977E-04 a       941     0    48     1     1
  4.3915400310103759E-03 a       942     0    48     1     2
  1.0089324857500162E-01 a       943     0    48     1     3
 -5.7435126078143692E-03 a       944     0    48     1     4
 -4.6835826145390162E-02 a       945     0    48     1     5
 -2.8713020130266366E-02 a       946     0    48     1     6
 -1.8229319669169384E-02 a       947     0    48     1     7
  7.7137542221208444E-02 a       948     0    48     1     8
  1.4017749216492728E-01 a       949     0    48     1     9
 -1.0274031812839203E-01 a       950     0    48     1    10
 -1.7355961015884318E-02 a       951     0    48     1    11
 -8.4356176519088860E-02 a       952     0    48     1    12
 -4.8422050362847691E-02 a       953     0    48     1    13
 -7.1938588541585594E-02 a       954     0    48     1    14
  7.9841854070378637E-02 a       955     0    48     1    15
  3.7316333394559857E-02 a       956     0    48     1    16
 -1.0656703873692416E-01 a       957     0    48     1    17
 -3.9296938704143185E-04 a       958     0    48     1    18
 -1.3608506175793936E-02 a       959     0    48     1    19
  5.1220786794734408E-02 a       960     0    48     1    20
  1.7500105702304734E-02 a       961     0    49     1     1
 -1.4477648591834108E-01 a       962     0    49     1     2
  7.7185190905761980E-02 a       963     0    49     1     3
 -4.4865098545881825E-02 a       964     0    49     1     4
  2.6667785815187001E-02 a       965     0    49     1     5
  1.2244392135524088E-01 a       966     0    49     1     6
  2.8299936341227620E-02 a       967     0    49     1     7
 -2.0240285594782878E-01 a       968     0    49     1     8
  1.5264329428545248E-01 a       969     0    49     1     9
 -6.2578988753470940E-02 a       970     0    49     1    10
  8.4763885355724072E-02 a       971     0    49     1    11
  1.6641221097161443E-01 a       972     0    49     1    12
  1.3753136617617270E-01 a       973     0    49     1    13
 -1.3649079786763749E-01 a       974     0    49     1    14
  9.1575944572973147E-02 a       975     0    49     1    15
 -3.4252664232762256E-02 a       976     0    49     1    16
 -4.9304760256230366E-02 a       977     0    49     1    17
 -1.0369950166159805E-01 a       978     0    49     1    18
  1.0978464247130737E-01 a       979     0    49     1    19
 -1.3230155497389484E-01 a       980     0    49     1    20
 -1.9956695150298151E-01 a       981     0    50     1     1
 -6.1377666259065634E-02 a       982     0    50     1     2
 -2.3791352042263743E-02 a       983     0    50     1     3
  8.3159155834728229E-02 a       984     0    50     1     4
  7.2561012514749265E-02 a       985     0    50     1     5
  7.9000179654275859E-02 a       986     0    50     1     6
 -8.3835701138024521E-02 a       987     0    50     1     7
 -9.7006713612274212E-02 a       988     0    50     1     8
  9.2934469138201553E-02 a       989     0    50     1     9
 -4.6421009808470443E-02 a       990     0    50     1    10
 -3.2524603480289495E-02 a       991     0    50     1    11
 -5.8188102376397113E-02 a       992     0    50     1    12
 -6.1888247827623609E-02 a       993     0    50     1    13
 -5.1884182638036618E-02 a       994     0    50     1    14
  9.9017526446127060E-02 a       995     0    50     1    15
 -1.7410815889316694E-01 a       996     0    50     1    16
  1.9537442598714774E-01 a       997     0    50     1    17
  1.3500339256781197E-02 a       998     0    50     1    18
 -3.6502021582712464E-02 a       999     0    50     1    19
 -6.5759959655360091E-03 a      1000     0    50     1    20
 -1.5944870035463624E-01 a      1001     0    51     1     1
 -6.8805770070844235E-02 a      1002     0    51     1     2
 -1.5911534485223680E-01 a      1003     0    51     1     3
  7.0107231156896876E-02 a      1004     0    51     1     4
 -1.3069509884956437E-01 a      1005     0    51     1     5
 -5.0194207365603288E-02 a      1006     0    51     1     6
  1.7847873085083074E-01 a      1007     0    51     1     7
 -6.9720472243806245E-02 a      1008     0    51     1     8
 -2.0206314029902861E-02 a      1009     0    51     1     9
 -7.8753454940345455E-02 a      1010     0    51     1    10
 -7.0304636880165639E-02 a      1011     0    51     1    11
 -1.2860146549674850E-01 a      1012     0    51     1    12
 -2.8970673980088660E-05 a      1013     0    51     1    13
  1.1561439548703445E-01 a      1014     0    51     1    14
 -1.1645003991290585E-01 a      1015     0    51     1    15
  2.4949912080500958E-02 a      1016     0    51     1    16
 -1.9783202955009216E-01 a      1017     0    51     1    17
  9.4581913690815533E-02 a      1018     0    51     1    18
  1.7958703288732436E-01 a      1019     0    51     1    19
  7.5461500729818318E-02 a      1020     0    51     1    20
  4.9593048172054860E-01 a      1021     0    52     1     1
  6.6787182051304683E-01 a      1022     0    52     1     2
 -1.4313507775017071E+00 a      1023     0    52     1     3
  3.7560613092619777E-01 a      1024     0    52     1     4
  4.4873111186094133E-01 a      1025     0    52     1     5
 -7.4020940830087728E-02 a      1026     0    52     1     6
  6.2125312987852965E-01 a      1027     0    52     1     7
 -3.2542355045789950E-01 a      1028     0    52     1     8
 -2.3918177750145786E-01 a      1029     0    52     1     9
  2.4009001317345718E-01 a      1030     0    52     1    10
 -3.1770368246260894E-01 a      1031     0    52     1    11
 -5.1520477998901271E-01 a      1032     0    52     1    12
  7.1426309363931284E-01 a      1033     0    52     1    13
 -1.0395937682804365E-01 a      1034     0    52     1    14
  1.9364983884616338E-01 a      1035     0    52     1    15
 -2.0394353676016328E-04 a      1036     0    52     1    16
 -1.1862609119312156E-01 a      1037     0    52     1    17
 -1.9775203340418523E-03 a      1038     0    52     1    18
  6.9348634618191948E-02 a      1039     0    52     1    19
 -1.1588645120852696E-01 a      1040     0    52     1    20
 -2.2655120830918107E-01 a      1041     0    53     1     1
 -1.7341773530936624E-01 a      1042     0    53     1     2
 -8.6941929720839389E-02 a      1043     0    53     1     3
  1.8754423909079505E-02 a      1044     0    53     1     4
  4.0663727673109405E-02 a      1045     0    53     1     5
  8.9325894905164210E-02 a      1046     0    53     1     6
 -1.2221657543837819E-01 a      1047     0    53     1     7
  1.0617583801408868E-01 a      1048     0    53     1     8
  5.7591802770991928E-02 a      1049     0    53     1     9
 -9.7831392944767268E-02 a      1050     0    53     1    10
  1.9409028272559234E-01 a      1051     0    53     1    11
 -2.5681946269420913E-01 a      1052     0    53     1    12
 -5.3417463048592788E-02 a      1053     0    53     1    13
  1.2025284868490636E-01 a      1054     0    53     1    14
 -7.1661052315339785E-02 a      1055     0    53     1    15
 -1.4126221732254604E-01 a      1056     0    53     1    16
 -1.3106357971961258E-01 a      1057     0    53     1    17
 -7.9152897812676416E-03 a      1058     0    53     1    18
 -2.9197699704003582E-02 a      1059     0    53     1    19
 -7.6827402357166494E-02 a      1060     0    53     1    20
  3.2522026117975340E-02 a      1061     0    54     1     1
 -6.8988640126219761E-02 a      1062     0    54     1     2
 -2.7011370635583249E-02 a      1063     0    54     1     3
 -1.3701847601032260E-01 a      1064     0    54     1     4
  9.2236747936596628E-02 a      1065     0    54     1     5
 -1.4334456794415812E-01 a      1066     0    54     1     6
  5.3389776237657519E-02 a      1067     0    54     1     7
  2.4096728647543329E-02 a      1068     0    54     1     8
  1.2563884584873691E-01 a      1069     0    54     1     9
  3.7139338154327829E-02 a      1070     0    54     1    10
  9.7839777095020883E-02 a      1071     0    54     1    11
 -1.7786077498759789E-01 a      1072     0    54     1    12
 -5.2873228716902872E-02 a      1073     0    54     1    13
  8.2236269159814662E-02 a      1074     0    54     1    14
 -1.0112129952967612E-01 a      1075     0    54     1    15
 -1.1357573447826027E-02 a      1076     0    54     1    16
 -2.2283687455696633E-02 a      1077     0    54     1    17
 -2.0886541289053082E-02 a      1078     0    54     1    18
  1.6158815628060633E-01 a      1079     0    54     1    19
  2.0144616596345519E-01 a      1080     0    54     1    20
 -3.7222334876770941E-01 b      1081     1     1
 -7.0039620873138009E-01 b      1082     1     2
 -8.2066758683083152E-01 b      1083     1     3
 -1.3306265840198157E+00 b      1084     1     4
 -7.3320455805959994E-01 b      1085     1     5
  1.0315315772110207E+00 b      1086     1     6
  5.5968351818222817E-01 b      1087     1     7
 -8.9689856939232715E-01 b      1088     1     8
 -7.8317691527432920E-01 b      1089     1     9
  1.5858838490290544E-01 b      1090     1    10
 -6.3314578010973477E-01 b      1091     1    11
  1.1830179686657751E+00 b      1092     1    12
 -6.7983909208197885E-02 b      1093     1    13
 -1.2162233610641828E+00 b      1094     1    14
  1.3196173096121542E+00 b      1095     1    15
 -1.6468234934246193E-01 b      1096     1    16
 -1.3875084577221992E+00 b      1097     1    17
  1.1277929898719794E+00 b      1098     1    18
 -6.9307785016731516E-01 b      1099     1    19
  3.5359971834841220E-01 b      1100     1    20
  8.3245610881618040E-02 a      1101     1     1     2     1
  6.4830113391920252E-01 a      1102     1     1     2     2
  8.4821024469427297E-02 a      1103     1     1     2     3
  5.0463564434245094E-02 a      1104     1     1     2     4
 -1.4125122855680586E-01 a      1105     1     1     2     5
 -1.7340144957144057E-01 a      1106     1     1     2     6
 -4.1936647868222499E-01 a      1107     1     1     2     7
 -5.7742799696848934E-01 a      1108     1     1     2     8
  2.8477537261624852E-01 a      1109     1     1     2     9
  1.0149737946300115E-01 a      1110     1     1     2    10
 -1.0852385392823892E-01 a      1111     1     1     2    11
 -1.2750642176249671E+00 a      1112     1     1     2    12
 -9.4199702622712211E-01 a      1113     1     1     2    13
 -9.8414903429686743E-02 a      1114     1     1     2    14
  2.4962822748258420E-02 a      1115     1     1     2    15
  6.9057584251637472E-01 a      1116     1     1     2    16
  1.6357346895241212E-01 a      1117     1     1     2    17
  2.7906486949291938E-02 a      1118     1     1     2    18
 -5.5219577248312024E-01 a      1119     1     1     2    19
 -5.2275968875187995E-01 a      1120     1     1     2    20
 -2.8109498102764535E-01 a      1121     1     2     2     1
 -7.4626008078001849E-01 a      1122     1     2     2     2
 -2.0228452222783866E-01 a      1123     1     2     2     3
 -6.5214174212182688E-02 a      1124     1     2     2     4
  5.1452720460843560E-01 a      1125     1     2     2     5
  2.7158912238787131E-01 a      1126     1     2     2     6
  2.7630141669008407E-01 a      1127     1     2     2     7
  5.6262529379903314E-01 a      1128     1     2     2     8
 -7.1115919416643136E-01 a      1129     1     2     2     9
 -2.1262505025264206E-01 a      1130     1     2     2    10
  5.6394007452608674E-01 a      1131     1     2     2    11
  4.0100518289395942E-01 a      1132     1     2     2    12
  4.9602066859538790E-01 a      1133     1     2     2    13
 -4.4729122442400299E-01 a      1134     1     2     2    14
  3.3941191752583741E-02 a      1135     1     2     2    15
  4.0413678648867420E-02 a      1136     1     2     2    16
 -2.0169590265392054E-01 a      1137     1     2     2    17
 -3.3523212066608254E-01 a      1138     1     2     2    18
 -7.6311116393611059E-02 a      1139     1     2     2    19
  6.7494223348269666E-01 a      1140     1     2     2    20
 -3.8577139080320216E-01 a      1141     1     3     2     1
  6.8599150476765763E-02 a      1142     1     3     2     2
 -3.9987808129994346E-01 a      1143     1     3     2     3
 -3.3524051593444204E-01 a      1144     1     3     2     4
  4.6690681978809107E-01 a      1145     1     3     2     5
 -1.4038847265057847E-01 a      1146     1     3     2     6
 -8.1004210209501618E-03 a      1147     1     3     2     7
 -4.6650056644816379E-01 a      1148     1     3     2     8
 -1.6300444875458765E-02 a      1149     1     3     2     9
 -4.0498625547537992E-01 a      1150     1     3     2    10
  8.6955712129902241E-01 a      1151     1     3     2    11
 -8.2851375327908638E-01 a      1152     1     3     2    12
 -4.6745810868925347E-02 a      1153     1     3     2    13
 -4.8443316813548476E-01 a      1154     1     3     2    14
 -1.0354518594868739E-01 a      1155     1     3     2    15
  1.0080717588439389E-01 a      1156     1     3     2    16
  1.0299121472084113E-01 a      1157     1     3     2    17
  5.6198459359055453E-01 a      1158     1     3     2    18
 -1.5559312309163284E-01 a      1159     1     3     2    19
 -3.7250598371145638E-01 a      1160     1     3     2    20
  1.0182788331275978E+00 a      1161     1     4     2     1
 -5.4056786715090614E-02 a      1162     1     4     2     2
  7.4375252868571518E-01 a      1163     1     4     2     3
 -9.0104261023612586E-03 a      1164     1     4     2     4
  4.2911326124926202E-01 a      1165     1     4     2     5
 -1.9933091471759301E-01 a      1166     1     4     2     6
  5.6523435599271998E-01 a      1167     1     4     2     7
 -5.4923562592632735E-01 a      1168     1     4     2     8
  5.2898907615824375E-01 a      1169     1     4     2     9
 -4.0195446887746228E-01 a      1170     1     4     2    10
 -9.2462452588968924E-01 a      1171     1     4     2    11
 -4.1003145999356794E-01 a      1172     1     4     2    12
 -6.3524303140456402E-03 a      1173     1     4     2    13
  5.0266112525372175E-01 a      1174     1     4     2    14
  9.1918645872143490E-02 a      1175     1     4     2    15
  1.7862083904408124E-01 a      1176     1     4     2    16
 -5.8207205104141868E-01 a      1177     1     4     2    17
 -4.0390295136501642E-01 a      1178     1     4     2    18
 -7.2977803651353956E-01 a      1179     1     4     2    19
 -2.9070401289840564E-02 a      1180     1     4     2    20
 -4.6415162117227532E-01 a      1181     1     5     2     1
 -2.6778432955613235E-01 a      1182     1     5     2     2
 -9.1684699279675916E-02 a      1183     1     5     2     3
  8.9856208799667256E-02 a      1184     1     5     2     4
  3.2443389191618338E-01 a      1185     1     5     2     5
 -5.9265939837912007E-01 a      1186     1     5     2     6
  4.1223739636815948E-01 a      1187     1     5     2     7
 -3.4814080789968133E-01 a      1188     1     5     2     8
  1.6311668428557560E-01 a      1189     1     5     2     9
 -6.1827811830005042E-01 a      1190     1     5     2    10
  5.4903618876497273E-01 a      1191     1     5     2    11
  9.2551095512840090E-02 a      1192     1     5     2    12
  3.0577352727537194E-01 a      1193     1     5     2    13
  1.7462516614077603E-01 a      1194     1     5     2    14
 -8.3764761746032354E-02 a      1195     1     5     2    15
 -8.7942120848205629E-03 a      1196     1     5     2    16
 -2.6379237116101600E-01 a      1197     1     5     2    17
  1.9661825655816277E-02 a      1198     1     5     2    18
  1.9260883720953184E-01 a      1199     1     5     2    19
 -1.3257667352636590E-01 a      1200     1     5     2    20
  7.3093553501299213E-01 a      1201     1     6     2     1
 -1.0322904962997981E-01 a      1202     1     6     2     2
  8.5235667281990404E-02 a      1203     1     6     2     3
 -1.0625476262660141E+00 a      1204     1     6     2     4
  3.8173105796592854E-01 a      1205     1     6     2     5
  8.1755228038266028E-02 a      1206     1     6     2     6
  2.0881787819962300E-01 a      1207     1     6     2     7
 -5.1038088970650008E-01 a      1208     1     6     2     8
 -6.7446922886250080E-02 a      1209     1     6     2     9
 -8.8711494465459495E-01 a      1210     1     6     2    10
  6.4558936504962716E-01 a      1211     1     6     2    11
 -3.6857373549881312E-01 a      1212     1     6     2    12
  5.5830261345148746E-01 a      1213     1     6     2    13
 -3.0041538400068452E-01 a      1214     1     6     2    14
  2.7751278331621021E-01 a      1215     1     6     2    15
 -2.2448444910075732E-01 a      1216     1     6     2    16
 -8.1281768273207058E-02 a      1217     1     6     2    17
  3.1674057110574405E-01 a      1218     1     6     2    18
  7.8500385678636131E-01 a      1219     1     6     2    19
 -8.6533548845479910E-02 a      1220     1     6     2    20
 -2.0566698966068231E-01 a      1221     1     7     2     1
 -6.3427752865415565E-01 a      1222     1     7     2     2
 -6.2650332828927580E-01 a      1223     1     7     2     3
 -1.9960518658997281E-01 a      1224     1     7     2     4
 -4.5045249433989054E-01 a      1225     1     7     2     5
 -6.8626165184538013E-01 a      1226     1     7     2     6
 -1.7956714394619389E-01 a      1227     1     7     2     7
  8.8259334682956136E-01 a      1228     1     7     2     8
  4.9423546853554967E-01 a      1229     1     7     2     9
  4.1063534124364681E-01 a      1230     1     7     2    10
 -1.6037297090637906E-01 a      1231     1     7     2    11
 -6.0221853119853586E-01 a      1232     1     7     2    12
  7.9917681487926695E-01 a      1233     1     7     2    13
  5.2939568232531077E-02 a      1234     1     7     2    14
 -4.3884556261901947E-01 a      1235     1     7     2    15
 -1.6240702372425830E-01 a      1236     1     7     2    16
 -7.1498577653459761E-01 a      1237     1     7     2    17
 -2.4914621354112779E-02 a      1238     1     7     2    18
 -8.9963072603572747E-01 a      1239     1     7     2    19
 -9.3105072725348947E-01 a      1240     1     7     2    20
  3.6742321148563378E-01 a      1241     1     8     2     1
  9.5758838290275983E-02 a      1242     1     8     2     2
  5.3499097069334325E-02 a      1243     1     8     2     3
 -7.0211394506054670E-01 a      1244     1     8     2     4
  4.9676340934542573E-01 a      1245     1     8     2     5
  6.5714323733215896E-01 a      1246     1     8     2     6
  4.4416292870252222E-01 a      1247     1     8     2     7
 -9.5874263531300727E-02 a      1248     1     8     2     8
  1.7754467461489290E-01 a      1249     1     8     2     9
 -3.4529297010507787E-01 a      1250     1     8     2    10
  2.8725978105227834E-01 a      1251     1     8     2    11
  2.7323475776050399E-01 a      1252     1     8     2    12
  9.2630787802817760E-01 a      1253     1     8     2    13
  2.5303396042144255E-01 a      1254     1     8     2    14
 -6.0472858980707633E-01 a      1255     1     8     2    15
  1.2147387992707546E-01 a      1256     1     8     2    16
  5.9949349416583031E-01 a      1257     1     8     2    17
  1.1238907637929310E-01 a      1258     1     8     2    18
  9.7843757521696662E-02 a      1259     1     8     2    19
  6.4067848726937926E-01 a      1260     1     8     2    20
  2.6781279694452785E-02 a      1261     1     9     2     1
 -3.5910497561523541E-01 a      1262     1     9     2     2
  7.4172915598794451E-02 a      1263     1     9     2     3
  7.5876451223234304E-02 a      1264     1     9     2     4
 -2.1638602333000120E-01 a      1265     1     9     2     5
  2.6694609357048626E-01 a      1266     1     9     2     6
 -1.4470399952679491E-01 a      1267     1     9     2     7
 -4.0747231981554377E-01 a      1268     1     9     2     8
 -1.1032430117002923E+00 a      1269     1     9     2     9
 -1.1250717511752401E-01 a      1270     1     9     2    10
 -2.5903212727433422E-01 a      1271     1     9     2    11
 -9.6940472721606996E-01 a      1272     1     9     2    12
 -3.2975030434834535E-01 a      1273     1     9     2    13
 -3.4829975057945620E-02 a      1274     1     9     2    14
  3.7274106136330504E-01 a      1275     1     9     2    15
  9.4886317128776571E-02 a      1276     1     9     2    16
 -2.1496135705665401E-02 a      1277     1     9     2    17
  5.5049282247084985E-01 a      1278     1     9     2    18
 -1.3747450195647423E-01 a      1279     1     9     2    19
  9.9393950616860993E-01 a      1280     1     9     2    20
 -4.7529040895671182E-01 a      1281     1    10     2     1
 -3.5657600188010247E-01 a      1282     1    10     2     2
 -3.4599820811239074E-01 a      1283     1    10     2     3
  2.8195891696732239E-01 a      1284     1    10     2     4
  7.8321633741847652E-01 a      1285     1    10     2     5
  1.3539576500409853E-01 a      1286     1    10     2     6
  7.0533341691592055E-01 a      1287     1    10     2     7
 -3.1695592945714485E-01 a      1288     1    10     2     8
  3.8073911545948946E-01 a      1289     1    10     2     9
 -7.2297895871097151E-01 a      1290     1    10     2    10
 -1.5429061404992531E-01 a      1291     1    10     2    11
 -4.3362883193175339E-01 a      1292     1    10     2    12
  6.1595918437144148E-01 a      1293     1    10     2    13
 -4.8353873855564783E-01 a      1294     1    10     2    14
  4.0324979239919284E-01 a      1295     1    10     2    15
 -2.3084923832578355E-01 a      1296     1    10     2    16
  7.9315000652644310E-02 a      1297     1    10     2    17
  6.4894517503745419E-02 a      1298     1    10     2    18
  9.3426634462078806E-01 a      1299     1    10     2    19
 -1.2510929784541028E-01 a      1300     1    10     2    20
 -1.2215298897912975E-01 a      1301     1    11     2     1
  3.9189607119570680E-01 a      1302     1    11     2     2
 -1.7653510084653601E-01 a      1303     1    11     2     3
  5.1994444235924242E-01 a      1304     1    11     2     4
  2.9632376976294095E-01 a      1305     1    11     2     5
  6.5757169181901232E-01 a      1306     1    11     2     6
  2.0020815230081329E-01 a      1307     1    11     2     7
 -4.7866254645956910E-02 a      1308     1    11     2     8
 -2.7748090977736817E-01 a      1309     1    11     2     9
 -6.1175439697955414E-01 a      1310     1    11     2    10
  3.5281115983932809E-01 a      1311     1    11     2    11
 -6.1297976773731638E-02 a      1312     1    11     2    12
  7.4989733000009801E-02 a      1313     1    11     2    13
 -1.0639326325091712E-01 a      1314     1    11     2    14
 -5.0761047924974634E-01 a      1315     1    11     2    15
  4.4839959925023704E-01 a      1316     1    11     2    16
  8.4484620438707458E-01 a      1317     1    11     2    17
  6.9361192382976319E-02 a      1318     1    11     2    18
  2.5874712056352143E-02 a      1319     1    11     2    19
  3.6394637824786233E-02 a      1320     1    11     2    20
 -1.6565148844355698E-02 a      1321     1    12     2     1
 -9.2199545574399966E-02 a      1322     1    12     2     2
  2.6375206707345888E-01 a      1323     1    12     2     3
 -6.7025521222194351E-01 a      1324     1    12     2     4
  7.4639564599542230E-01 a      1325     1    12     2     5
 -2.3512491610703237E-01 a      1326     1    12     2     6
 -3.4733508618531017E-01 a      1327     1    12     2     7
  1.0563851340704955E-01 a      1328     1    12     2     8
 -6.7420269782493447E-01 a      1329     1    12     2     9
 -2.4481900713111171E-01 a      1330     1    12     2    10
 -1.4532420023404288E-01 a      1331     1    12     2    11
 -1.7604610515720312E-01 a      1332     1    12     2    12
 -3.0743913754418678E-01 a      1333     1    12     2    13
  9.9950368223608130E-02 a      1334     1    12     2    14
  1.2803000706987616E-01 a      1335     1    12     2    15
  7.7176939371300535E-01 a      1336     1    12     2    16
 -3.3949842743645908E-01 a      1337     1    12     2    17
 -3.7442868909942589E-01 a      1338     1    12     2    18
 -6.0731786130399412E-01 a      1339     1    12     2    19
  9.5032946696502876E-02 a      1340     1    12     2    20
 -2.2318214510007742E-01 a      1341     1    13     2     1
 -2.2284613543976142E-01 a      1342     1    13     2     2
  3.2265685505569375E-01 a      1343     1    13     2     3
  2.4762423641972248E-01 a      1344     1    13     2     4
  4.1826759542356351E-01 a      1345     1    13     2     5
 -4.5779222714892592E-01 a      1346     1    13     2     6
 -5.9494487578190425E-01 a      1347     1    13     2     7
 -2.6001508150620684E-01 a      1348     1    13     2     8
 -6.4566108701309799E-01 a      1349     1    13     2     9
  8.6186683257962449E-01 a      1350     1    13     2    10
  7.4592209997616721E-01 a      1351     1    13     2    11
  8.5717607939925222E-01 a      1352     1    13     2    12
 -3.7492792238190159E-01 a      1353     1    13     2    13
  1.8988986989440901E-01 a      1354     1    13     2    14
  2.7323016167524378E-01 a      1355     1    13     2    15
 -5.2712148209066478E-01 a      1356     1    13     2    16
 -5.4039221264350534E-01 a      1357     1    13     2    17
 -4.7076771193656233E-02 a      1358     1    13     2    18
 -2.3195638267309335E-01 a      1359     1    13     2    19
  5.6457063215027226E-01 a      1360     1    13     2    20
 -3.9905746013018252E-02 a      1361     1    14     2     1
  1.4068820622637332E-01 a      1362     1    14     2     2
  6.0885892693271632E-02 a      1363     1    14     2     3
  7.3334675649558667E-01 a      1364     1    14     2     4
  2.3659196639471743E-02 a      1365     1    14     2     5
 -8.5817358728786805E-02 a      1366     1    14     2     6
 -1.2825724711383796E-01 a      1367     1    14     2     7
 -8.7529490271313487E-02 a      1368     1    14     2     8
 -9.9914004502742637E-01 a      1369     1    14     2     9
  9.8577203853523154E-01 a      1370     1    14     2    10
  1.2700831800533239E+00 a      1371     1    14     2    11
  5.1738314807761221E-01 a      1372     1    14     2    12
  1.5593156582728981E-01 a      1373     1    14     2    13
  2.4879027530278496E-02 a      1374     1    14     2    14
 -7.3768188603948548E-01 a      1375     1    14     2    15
  1.8702952688607208E-01 a      1376     1    14     2    16
  1.4445850037126065E-01 a      1377     1    14     2    17
  3.1053371466143032E-01 a      1378     1    14     2    18
 -5.6903059785134891E-01 a      1379     1    14     2    19
 -7.0918258078097055E-02 a      1380     1    14     2    20
 -7.0544230906653493E-01 a      1381     1    15     2     1
  3.2259964435028188E-01 a      1382     1    15     2     2
 -1.7068538274608139E-02 a      1383     1    15     2     3
  3.0947043383493411E-01 a      1384     1    15     2     4
  4.2244820633021046E-01 a      1385     1    15     2     5
 -7.5905320489748673E-01 a      1386     1    15     2     6
  5.5176191374489525E-01 a      1387     1    15     2     7
  8.5622257616619524E-01 a      1388     1    15     2     8
 -5.6638614875553039E-01 a      1389     1    15     2     9
  3.2362852385881963E-01 a      1390     1    15     2    10
  5.6391171596004330E-01 a      1391     1    15     2    11
  1.6767057605321917E-01 a      1392     1    15     2    12
  8.1171670261264484E-02 a      1393     1    15     2    13
 -7.9171208239842902E-02 a      1394     1    15     2    14
 -9.0929296981772589E-01 a      1395     1    15     2    15
  1.9809794519233474E-02 a      1396     1    15     2    16
 -2.9500851382945997E-01 a      1397     1    15     2    17
 -4.0940654185504616E-01 a      1398     1    15     2    18
 -3.7477262605424921E-01 a      1399     1    15     2    19
 -1.5106389198077219E-01 a      1400     1    15     2    20
 -5.3146796627566140E-01 a      1401     1    16     2     1
 -4.1498947082455834E-01 a      1402     1    16     2     2
  2.3779340502278237E-01 a      1403     1    16     2     3
 -3.4438844471145186E-01 a      1404     1    16     2     4
  4.4135015122205573E-04 a      1405     1    16     2     5
 -1.1663751246064209E-01 a      1406     1    16     2     6
  2.6560220648474792E-01 a      1407     1    16     2     7
  2.2945981451957412E-01 a      1408     1    16     2     8
  9.2995462336599735E-02 a      1409     1    16     2     9
  3.0708258157545257E-02 a      1410     1    16     2    10
  3.2344192428756036E-01 a      1411     1    16     2    11
 -4.8072638753855340E-01 a      1412     1    16     2    12
  1.9548749491785128E-01 a      1413     1    16     2    13
  8.1561958610190510E-01 a      1414     1    16     2    14
 -2.9788535888136686E-01 a      1415     1    16     2    15
 -4.7097954534236164E-01 a      1416     1    16     2    16
 -4.2307664036874047E-02 a      1417     1    16     2    17
  4.3270435834580684E-01 a      1418     1    16     2    18
 -1.0296819925074351E-01 a      1419     1    16     2    19
  7.0482081061749413E-01 a      1420     1    16     2    20
 -2.8413648130152530E-01 a      1421     1    17     2     1
  2.1791568522389487E-01 a      1422     1    17     2     2
 -2.3707369739370199E-01 a      1423     1    17     2     3
 -1.1626913859124584E-01 a      1424     1    17     2     4
  2.1791035835426975E-01 a      1425     1    17     2     5
 -3.6870626249224914E-01 a      1426     1    17     2     6
 -9.0064767702920476E-02 a      1427     1    17     2     7
  4.9594897018409317E-01 a      1428     1    17     2     8
  8.7173808323933843E-01 a      1429     1    17     2     9
  5.3993015035979663E-01 a      1430     1    17     2    10
  1.2698239472906306E-01 a      1431     1    17     2    11
 -1.6884365326772288E+00 a      1432     1    17     2    12
 -1.3570344422841557E-01 a      1433     1    17     2    13
 -3.2006273498483728E-01 a      1434     1    17     2    14
 -9.9907474444207278E-02 a      1435     1    17     2    15
  4.5260166416866032E-01 a      1436     1    17     2    16
 -4.0348534008467962E-01 a      1437     1    17     2    17
  6.4607483433884449E-01 a      1438     1    17     2    18
 -5.0047227403002370E-01 a      1439     1    17     2    19
  4.7299469127062477E-01 a      1440     1    17     2    20
  4.5173178479764209E-02 a      1441     1    18     2     1
  1.2474831036253098E-02 a      1442     1    18     2     2
  6.2208418486924849E-02 a      1443     1    18     2     3
  3.8170660499614067E-01 a      1444     1    18     2     4
  4.2576418615394818E-01 a      1445     1    18     2     5
  6.2319108455952943E-01 a      1446     1    18     2     6
  1.2601569868619730E-01 a      1447     1    18     2     7
 -2.0687384212475285E-01 a      1448     1    18     2     8
 -3.2174301799058336E-02 a      1449     1    18     2     9
  1.6279081454164268E-01 a      1450     1    18     2    10
  3.4094534419606531E-01 a      1451     1    18     2    11
 -8.1823378403041769E-01 a      1452     1    18     2    12
 -2.6607855398785973E-01 a      1453     1    18     2    13
  3.0678668315980578E-01 a      1454     1    18     2    14
  5.5468489937238574E-01 a      1455     1    18     2    15
  3.7992875295016504E-01 a      1456     1    18     2    16
  2.9914018161353884E-01 a      1457     1    18     2    17
 -4.0817407608035444E-01 a      1458     1    18     2    18
 -3.8543094662482502E-01 a      1459     1    18     2    19
 -3.2476140355025546E-01 a      1460     1    18     2    20
 -1.2445254779935429E-01 a      1461     1    19     2     1
  1.8789957366621998E-01 a      1462     1    19     2     2
  5.8702690712674399E-01 a      1463     1    19     2     3
 -6.5590056231127392E-01 a      1464     1    19     2     4
 -1.9434635050309035E-01 a      1465     1    19     2     5
 -7.3070219304839401E-01 a      1466     1    19     2     6
 -4.1201088192946217E-01 a      1467     1    19     2     7
 -9.2558338351832525E-01 a      1468     1    19     2     8
  7.0021167256488392E-01 a      1469     1    19     2     9
  4.8626091775045510E-01 a      1470     1    19     2    10
  5.9131392694651175E-01 a      1471     1    19     2    11
  4.5054095235991576E-01 a      1472     1    19     2    12
  1.6693993828111525E-01 a      1473     1    19     2    13
  5.4014457689428019E-01 a      1474     1    19     2    14
 -2.7926292180579826E-01 a      1475     1    19     2    15
  5.6310365958956610E-01 a      1476     1    19     2    16
 -1.4429013535341842E-01 a      1477     1    19     2    17
  7.4581942218578146E-01 a      1478     1    19     2    18
 -3.1559870574089743E-01 a      1479     1    19     2    19
 -5.0895113179274221E-01 a      1480     1    19     2    20
  2.7956909353229065E-01 a      1481     1    20     2     1
 -3.8334574162596491E-01 a      1482     1    20     2     2
 -3.8105002638340307E-01 a      1483     1    20     2     3
  1.2932217247100750E-01 a      1484     1    20     2     4
 -4.2454876555285659E-01 a      1485     1    20     2     5
 -1.2049668292512325E-01 a      1486     1    20     2     6
  3.5171605500693504E-01 a      1487     1    20     2     7
 -7.8790711578767183E-03 a      1488     1    20     2     8
 -1.0261324946570678E-01 a      1489     1    20     2     9
 -7.8465326178177575E-01 a      1490     1    20     2    10
  5.9282129541298445E-01 a      1491     1    20     2    11
  4.0283120671684763E-01 a      1492     1    20     2    12
  4.7727419375394803E-01 a      1493     1    20     2    13
 -2.1485375389832120E-01 a      1494     1    20     2    14
 -2.0689488488095956E-01 a      1495     1    20     2    15
  9.0455076113673183E-01 a      1496     1    20     2    16
 -3.4551286065789683E-01 a      1497     1    20     2    17
  4.0390538843467189E-01 a      1498     1    20     2    18
 -2.8172255007105872E-02 a      1499     1    20     2    19
  1.0255535980307695E-01 a      1500     1    20     2    20
 -4.8681505252767315E-01 b      1501     2     1
 -4.7227985753598933E-01 b      1502     2     2
 -5.1478948665145907E-01 b      1503     2     3
 -1.3623809257167319E+00 b      1504     2     4
 -4.7699552337344647E-01 b      1505     2     5
 -4.2146672805380597E-01 b      1506     2     6
  3.4259047691115196E-01 b      1507     2     7
 -2.9966668587912104E-01 b      1508     2     8
  6.7222727589529963E-01 b      1509     2     9
  2.3851604197977788E-01 b      1510     2    10
 -1.5805721045779839E+00 b      1511     2    11
  1.3455898606507692E+00 b      1512     2    12
  3.7105986055674373E-01 b      1513     2    13
  1.0289739824867461E+00 b      1514     2    14
 -1.3087755713445912E-01 b      1515     2    15
 -1.6028845154680622E+00 b      1516     2    16
 -1.0518858778289358E-01 b      1517     2    17
 -8.8485428825353618E-01 b      1518     2    18
 -7.9139606231200699E-01 b      1519     2    19
 -3.3725090674002622E-01 b      1520     2    20
  2.5113650436747792E-01 a      1521     2     1     3     1
 -4.8383322955820479E-01 a      1522     2     2     3     1
  1.3281251471231694E+00 a      1523     2     3     3     1
 -4.4999500232906153E-01 a      1524     2     4     3     1
 -8.8349644680409692E-02 a      1525     2     5     3     1
 -7.3680358001416624E-01 a      1526     2     6     3     1
  7.2339524049947224E-01 a      1527     2     7     3     1
 -1.6232725322901242E+00 a      1528     2     8     3     1
  1.0582969856875762E-01 a      1529     2     9     3     1
  1.8258278813009315E-01 a      1530     2    10     3     1
  9.5995430945292481E-01 a      1531     2    11     3     1
 -8.0881370606833236E-01 a      1532     2    12     3     1
 -1.5666517485125406E-01 a      1533     2    13     3     1
 -2.7355450455557895E-01 a      1534     2    14     3     1
  4.3554078053126033E-01 a      1535     2    15     3     1
  4.2485440773770861E-01 a      1536     2    16     3     1
  1.0506045252822964E+00 a      1537     2    17     3     1
  5.2779474005962901E-01 a      1538     2    18     3     1
 -2.0850315802189356E-01 a      1539     2    19     3     1
  5.1907227423259428E-01 a      1540     2    20     3     1
 -4.8847395920399161E-01 b      1541     3     1
