################################################################################
# Neural network connection values (weights and biases).
################################################################################
# Col  Name       Description
################################################################################
# 1    connection Neural network connection value.
# 2    t          Connection type (a = weight, b = bias).
# 3    index      Index enumerating weights.
# 4    l_s        Starting point layer (end point layer for biases).
# 5    n_s        Starting point neuron in starting layer (end point neuron for biases).
# 6    l_e        End point layer.
# 7    n_e        End point neuron in end layer.
################################################################################
#                      1 2         3     4     5     6     7
#             connection t     index   l_s   n_s   l_e   n_e
############################################################
 -1.3332451831540471E-01 a         1     0     1     1     1
  5.4248436765956898E-01 a         2     0     1     1     2
 -1.6011735345411895E-01 a         3     0     1     1     3
 -1.0379904570803468E-01 a         4     0     1     1     4
 -1.1878693202067733E-01 a         5     0     1     1     5
 -7.2385269761521143E-01 a         6     0     1     1     6
 -2.9556896039570069E-01 a         7     0     1     1     7
  9.4403712048055019E-03 a         8     0     1     1     8
  2.1835499706162767E-01 a         9     0     1     1     9
  1.3475532993071399E-01 a        10     0     1     1    10
  3.9432054499713087E-01 a        11     0     1     1    11
 -1.5636961108394376E-01 a        12     0     1     1    12
  9.8590032458203650E-02 a        13     0     1     1    13
 -1.6880634497757099E-01 a        14     0     1     1    14
  1.8801618508093162E-01 a        15     0     1     1    15
 -2.6186672515841208E-01 a        16     0     1     1    16
 -1.9711317374013460E-01 a        17     0     1     1    17
  9.9820199009482954E-02 a        18     0     1     1    18
  1.2867301722210436E+00 a        19     0     1     1    19
  5.4809224583509397E-01 a        20     0     1     1    20
  8.1458969067806627E-02 a        21     0     2     1     1
  2.6037924023811963E-02 a        22     0     2     1     2
 -3.9351965455364304E-02 a        23     0     2     1     3
 -7.6245383734887609E-02 a        24     0     2     1     4
 -1.3633365781936424E-01 a        25     0     2     1     5
 -1.0752212948717063E-01 a        26     0     2     1     6
  1.2549902620062983E-01 a        27     0     2     1     7
  9.7654599170697548E-02 a        28     0     2     1     8
  2.8046993043257043E-02 a        29     0     2     1     9
 -2.1313811866976679E-01 a        30     0     2     1    10
  6.0409061659666774E-03 a        31     0     2     1    11
 -1.0505704418086390E-01 a        32     0     2     1    12
 -4.9598159350084360E-02 a        33     0     2     1    13
 -1.3417700911529010E-01 a        34     0     2     1    14
  1.1383899138267199E-01 a        35     0     2     1    15
 -1.3922305925830888E-01 a        36     0     2     1    16
  1.9310289547641985E-02 a        37     0     2     1    17
  8.2305747225502351E-02 a        38     0     2     1    18
  5.0109584034599738E-02 a        39     0     2     1    19
 -1.2789455328996108E-01 a        40     0     2     1    20
  6.7196554275667814E-02 a        41     0     3     1     1
  1.8032877300883023E-03 a        42     0     3     1     2
  1.6896248048813733E-01 a        43     0     3     1     3
 -5.2872278042695536E-02 a        44     0     3     1     4
 -1.2945953154535153E-01 a        45     0     3     1     5
  2.9206394939688740E-02 a        46     0     3     1     6
  3.5611550128818135E-02 a        47     0     3     1     7
 -1.4565489744083797E-02 a        48     0     3     1     8
 -7.6572982208183954E-02 a        49     0     3     1     9
 -1.2125072331945351E-01 a        50     0     3     1    10
  1.2614266079546593E-01 a        51     0     3     1    11
  9.0068882805659028E-02 a        52     0     3     1    12
  1.3219238200900485E-01 a        53     0     3     1    13
  1.8504807344617888E-01 a        54     0     3     1    14
  1.6077424324590455E-02 a        55     0     3     1    15
  5.9209582371647036E-02 a        56     0     3     1    16
  1.1891369728483230E-01 a        57     0     3     1    17
  8.8976522444483994E-02 a        58     0     3     1    18
  1.0167382061657204E-01 a        59     0     3     1    19
 -1.7073565941344687E-01 a        60     0     3     1    20
  9.8276660820081241E-02 a        61     0     4     1     1
 -7.4490810575408606E-01 a        62     0     4     1     2
  8.9969330893235555E-01 a        63     0     4     1     3
 -6.2252580493187260E-01 a        64     0     4     1     4
  1.7738698758897620E-01 a        65     0     4     1     5
  8.5726736959289784E-01 a        66     0     4     1     6
  5.8550187093634742E-01 a        67     0     4     1     7
 -3.8894655832981845E-01 a        68     0     4     1     8
 -3.0787580683415067E-01 a        69     0     4     1     9
  1.2510537518745843E-01 a        70     0     4     1    10
  8.1526099144032291E-02 a        71     0     4     1    11
 -1.4139473201981054E-01 a        72     0     4     1    12
  3.0341924033974549E-01 a        73     0     4     1    13
  3.0142530508901477E-01 a        74     0     4     1    14
 -1.0294338165020976E-01 a        75     0     4     1    15
  9.9624420831768623E-01 a        76     0     4     1    16
  3.2149700123005209E-01 a        77     0     4     1    17
  5.0952117938564312E-01 a        78     0     4     1    18
 -9.6801496705544909E-01 a        79     0     4     1    19
 -5.8931705321223889E-02 a        80     0     4     1    20
 -1.6796368102480208E-01 a        81     0     5     1     1
  8.3492498489635511E-02 a        82     0     5     1     2
  7.0905224911906525E-02 a        83     0     5     1     3
 -3.6209393219933363E-02 a        84     0     5     1     4
 -1.4508772685514386E-02 a        85     0     5     1     5
  3.6699819530221979E-02 a        86     0     5     1     6
 -8.7657987102607637E-02 a        87     0     5     1     7
 -1.4893935681401658E-02 a        88     0     5     1     8
 -5.6740034778590367E-02 a        89     0     5     1     9
  6.0820055833309843E-02 a        90     0     5     1    10
 -3.2492365240905423E-02 a        91     0     5     1    11
  5.9935638892254948E-03 a        92     0     5     1    12
  1.3837636418695679E-01 a        93     0     5     1    13
 -1.6373769307296104E-03 a        94     0     5     1    14
 -2.2181121094275041E-01 a        95     0     5     1    15
  2.3300800195678142E-01 a        96     0     5     1    16
  3.9776233048212026E-02 a        97     0     5     1    17
 -7.3672072591205395E-02 a        98     0     5     1    18
 -1.0074911861273418E-01 a        99     0     5     1    19
  1.7450268106713199E-02 a       100     0     5     1    20
  1.6708606510411111E-01 a       101     0     6     1     1
 -3.5053717721561625E-03 a       102     0     6     1     2
 -3.0064974043197940E-01 a       103     0     6     1     3
  9.7088683945173518E-02 a       104     0     6     1     4
  3.4416789518431828E-01 a       105     0     6     1     5
 -1.4338025870147567E-01 a       106     0     6     1     6
 -1.9106039731254332E-01 a       107     0     6     1     7
  1.4784793059803877E-01 a       108     0     6     1     8
  1.9089195226091710E-01 a       109     0     6     1     9
  9.0603716101576692E-02 a       110     0     6     1    10
 -1.3026101748729121E-01 a       111     0     6     1    11
 -1.3796063200816561E-01 a       112     0     6     1    12
 -2.2012611314424091E-01 a       113     0     6     1    13
 -3.6286528240027323E-02 a       114     0     6     1    14
 -4.7721549736488955E-02 a       115     0     6     1    15
  2.7679355857697586E-02 a       116     0     6     1    16
 -1.0891090423349808E-01 a       117     0     6     1    17
 -2.9892750593882172E-01 a       118     0     6     1    18
 -1.7186580159935713E-01 a       119     0     6     1    19
  1.6080919971391042E-01 a       120     0     6     1    20
  1.0745559703552433E-02 a       121     0     7     1     1
  5.8524857135855790E-01 a       122     0     7     1     2
 -3.4898358025749598E-01 a       123     0     7     1     3
  3.6290743913092377E-01 a       124     0     7     1     4
 -4.3237378028396073E-01 a       125     0     7     1     5
 -1.5376277734015142E-01 a       126     0     7     1     6
  5.8379623727807917E-02 a       127     0     7     1     7
  5.1373025211606183E-01 a       128     0     7     1     8
  4.6244433899466914E-01 a       129     0     7     1     9
  4.1053655924820059E-03 a       130     0     7     1    10
  4.0662950336996806E-01 a       131     0     7     1    11
 -2.0130669356616063E-01 a       132     0     7     1    12
  1.5960492865697054E-01 a       133     0     7     1    13
 -1.7523426454432917E-01 a       134     0     7     1    14
  1.4042822525045057E-01 a       135     0     7     1    15
 -7.0701942806247009E-01 a       136     0     7     1    16
 -4.9498782240616274E-01 a       137     0     7     1    17
 -6.2103571984915629E-01 a       138     0     7     1    18
  8.8656714877852372E-01 a       139     0     7     1    19
  5.4302578564868483E-02 a       140     0     7     1    20
  5.9810463912654037E-02 a       141     0     8     1     1
  1.4232777698452834E-01 a       142     0     8     1     2
 -1.6259074587487735E-01 a       143     0     8     1     3
  2.2890314165518563E-01 a       144     0     8     1     4
  3.2351626792008620E-01 a       145     0     8     1     5
 -3.5540520842577333E-01 a       146     0     8     1     6
  1.0010360051463944E-01 a       147     0     8     1     7
 -1.6004492981316107E-01 a       148     0     8     1     8
  7.1536909184448591E-02 a       149     0     8     1     9
 -1.6554493751938648E-01 a       150     0     8     1    10
  2.2990672429047950E-02 a       151     0     8     1    11
  3.1438661467156936E-01 a       152     0     8     1    12
  1.5684963034463592E-01 a       153     0     8     1    13
 -2.0498490903578015E-01 a       154     0     8     1    14
  1.1701203253151841E-01 a       155     0     8     1    15
 -4.3036013680592178E-02 a       156     0     8     1    16
 -1.7299503723086387E-01 a       157     0     8     1    17
  9.1370034840653702E-02 a       158     0     8     1    18
  6.1902976184648954E-02 a       159     0     8     1    19
 -7.4724719964807923E-02 a       160     0     8     1    20
 -2.0519787561531347E-01 a       161     0     9     1     1
 -2.4631480459092683E-01 a       162     0     9     1     2
  3.0558289289607832E-01 a       163     0     9     1     3
  1.0258672991358747E-01 a       164     0     9     1     4
 -1.7050996183753572E-01 a       165     0     9     1     5
 -8.9568791958508198E-02 a       166     0     9     1     6
  7.5722783986452880E-02 a       167     0     9     1     7
  2.5248115824448453E-01 a       168     0     9     1     8
  6.2111857055102943E-02 a       169     0     9     1     9
  1.9150254195136940E-01 a       170     0     9     1    10
  1.0865957341015506E-01 a       171     0     9     1    11
  3.4162599572855473E-01 a       172     0     9     1    12
  1.4851048833619335E-01 a       173     0     9     1    13
 -8.4920139595870664E-02 a       174     0     9     1    14
 -5.4372094897124371E-02 a       175     0     9     1    15
 -1.1580763967362984E-01 a       176     0     9     1    16
  1.6365864941148295E-01 a       177     0     9     1    17
  1.9226421544853117E-01 a       178     0     9     1    18
 -1.4961956135626661E-02 a       179     0     9     1    19
  1.1045762320554041E-01 a       180     0     9     1    20
 -2.0854462072160498E-01 a       181     0    10     1     1
 -4.5422603504889830E-01 a       182     0    10     1     2
  7.1700504383599462E-01 a       183     0    10     1     3
 -5.6741121066138345E-01 a       184     0    10     1     4
  5.7526856504621182E-01 a       185     0    10     1     5
 -5.7434815093816274E-02 a       186     0    10     1     6
  1.3419942320877129E-01 a       187     0    10     1     7
 -1.0419336699037165E+00 a       188     0    10     1     8
 -5.3147601940087341E-01 a       189     0    10     1     9
  9.7488988623624970E-02 a       190     0    10     1    10
  1.0038575439911726E-01 a       191     0    10     1    11
  3.0572028911569852E-03 a       192     0    10     1    12
  2.8560049770535845E-01 a       193     0    10     1    13
  2.0869793706241341E-01 a       194     0    10     1    14
 -3.8054535618488441E-02 a       195     0    10     1    15
  6.0676652316116286E-01 a       196     0    10     1    16
  4.3322054576845215E-01 a       197     0    10     1    17
  7.7741572654956848E-01 a       198     0    10     1    18
 -8.5223225748315135E-01 a       199     0    10     1    19
  1.4213632216063604E-01 a       200     0    10     1    20
 -1.2340668390118051E-01 a       201     0    11     1     1
  6.5253692501703207E-03 a       202     0    11     1     2
  7.6865591043735249E-02 a       203     0    11     1     3
 -4.5910895412516653E-02 a       204     0    11     1     4
 -2.5352954944406653E-01 a       205     0    11     1     5
  3.6314323665973709E-02 a       206     0    11     1     6
  1.1745611303752571E-01 a       207     0    11     1     7
  3.3138406535975085E-01 a       208     0    11     1     8
  3.2557527842081976E-02 a       209     0    11     1     9
 -1.8883084677777978E-01 a       210     0    11     1    10
  2.1399220327250060E-01 a       211     0    11     1    11
 -2.1948350514088563E-01 a       212     0    11     1    12
 -2.1734018786866849E-01 a       213     0    11     1    13
  2.3004556439805798E-01 a       214     0    11     1    14
  7.5010962138895342E-03 a       215     0    11     1    15
  2.9571327766973653E-02 a       216     0    11     1    16
  4.8528569615342187E-01 a       217     0    11     1    17
 -1.7171870752229693E-01 a       218     0    11     1    18
 -1.5134312715869304E-02 a       219     0    11     1    19
 -1.8759852259427304E-01 a       220     0    11     1    20
 -1.8098451808393728E-01 a       221     0    12     1     1
 -1.4011450753665691E-02 a       222     0    12     1     2
 -1.9129749555644726E-01 a       223     0    12     1     3
  5.4706549374353451E-02 a       224     0    12     1     4
 -1.1798396198702371E-01 a       225     0    12     1     5
  8.4589313017603723E-02 a       226     0    12     1     6
 -2.9702508066554134E-01 a       227     0    12     1     7
  5.8624812486679068E-01 a       228     0    12     1     8
 -7.7404010991746805E-02 a       229     0    12     1     9
  2.2896230589957406E-01 a       230     0    12     1    10
  2.3057064914374831E-01 a       231     0    12     1    11
  4.6922679738619139E-01 a       232     0    12     1    12
  2.3927259245408725E-01 a       233     0    12     1    13
 -1.7312804741527932E-01 a       234     0    12     1    14
 -3.6050477550402099E-01 a       235     0    12     1    15
  4.2848369449255497E-01 a       236     0    12     1    16
  9.1725115580801944E-02 a       237     0    12     1    17
  3.1231535010737249E-01 a       238     0    12     1    18
 -5.2050140952955570E-01 a       239     0    12     1    19
 -1.3478926954402462E-01 a       240     0    12     1    20
 -3.0095843018486540E-01 a       241     0    13     1     1
  3.4227759635932115E-01 a       242     0    13     1     2
 -4.0837591373273746E-01 a       243     0    13     1     3
  1.1601703973297990E-01 a       244     0    13     1     4
 -5.9202445017181216E-01 a       245     0    13     1     5
 -1.6765378980254139E-01 a       246     0    13     1     6
  4.0195441657740849E-01 a       247     0    13     1     7
  6.5834936902543051E-02 a       248     0    13     1     8
  4.3470071293335172E-01 a       249     0    13     1     9
  4.2819160435302470E-02 a       250     0    13     1    10
 -6.5123121929920896E-02 a       251     0    13     1    11
 -1.2744259849584114E-01 a       252     0    13     1    12
  1.7335975690294914E-01 a       253     0    13     1    13
  2.3399799045673941E-01 a       254     0    13     1    14
  8.7882377226693328E-02 a       255     0    13     1    15
 -2.2341558074113327E-01 a       256     0    13     1    16
 -6.5288108113926979E-01 a       257     0    13     1    17
 -6.0151558277754114E-01 a       258     0    13     1    18
  4.8495484462423838E-01 a       259     0    13     1    19
 -1.4557997909391324E-01 a       260     0    13     1    20
 -2.8548108123573185E-01 a       261     0    14     1     1
 -1.0920249860650887E-01 a       262     0    14     1     2
  2.1582843680638431E-01 a       263     0    14     1     3
  2.1905844880118425E-01 a       264     0    14     1     4
  6.8061444884570416E-02 a       265     0    14     1     5
 -1.1503398149904066E-01 a       266     0    14     1     6
 -6.6850402103199452E-02 a       267     0    14     1     7
 -6.6092557682789377E-02 a       268     0    14     1     8
 -3.6477414003859197E-02 a       269     0    14     1     9
 -9.6593125716718783E-02 a       270     0    14     1    10
  3.1060798625126418E-01 a       271     0    14     1    11
  1.2552772341209767E-01 a       272     0    14     1    12
  1.9017146853805134E-01 a       273     0    14     1    13
 -2.1139755541016245E-01 a       274     0    14     1    14
 -2.3051380676192182E-01 a       275     0    14     1    15
 -6.8792651471044713E-02 a       276     0    14     1    16
 -3.1066862882450441E-01 a       277     0    14     1    17
  1.1438402921779640E-01 a       278     0    14     1    18
  4.4072279797070388E-02 a       279     0    14     1    19
 -3.9247614788195084E-01 a       280     0    14     1    20
  1.3802165699215085E-01 a       281     0    15     1     1
 -2.3520605012829518E-01 a       282     0    15     1     2
  1.1448940730236239E-01 a       283     0    15     1     3
 -3.9321690522031626E-02 a       284     0    15     1     4
  2.3035139724373023E-02 a       285     0    15     1     5
 -3.5499190875850573E-01 a       286     0    15     1     6
 -9.3640212938909340E-02 a       287     0    15     1     7
  2.6042714570044617E-01 a       288     0    15     1     8
  2.8378062002360555E-02 a       289     0    15     1     9
  2.8194079645609138E-01 a       290     0    15     1    10
 -1.3268406003369007E-01 a       291     0    15     1    11
 -1.6585116786667155E-02 a       292     0    15     1    12
  1.5648570486279206E-01 a       293     0    15     1    13
  1.0587303624764788E-01 a       294     0    15     1    14
 -1.5064186192092974E-01 a       295     0    15     1    15
 -5.0881622997933258E-02 a       296     0    15     1    16
  8.0907163701518958E-02 a       297     0    15     1    17
 -2.0610660573964282E-01 a       298     0    15     1    18
  5.2840084459498365E-02 a       299     0    15     1    19
  2.0680452824869863E-01 a       300     0    15     1    20
 -8.1189147127898129E-03 a       301     0    16     1     1
 -3.8304650831506631E-01 a       302     0    16     1     2
  2.9082870323963611E-01 a       303     0    16     1     3
 -2.3581117704257989E-01 a       304     0    16     1     4
  4.5223997028696988E-01 a       305     0    16     1     5
  2.9566386745782902E-01 a       306     0    16     1     6
  7.9839796793885046E-02 a       307     0    16     1     7
 -4.5458223575569739E-01 a       308     0    16     1     8
 -4.6448780622489494E-01 a       309     0    16     1     9
 -3.4088700784861903E-01 a       310     0    16     1    10
  1.5379644667748657E-01 a       311     0    16     1    11
  1.2108277083892252E-01 a       312     0    16     1    12
  6.7415613402558486E-02 a       313     0    16     1    13
  1.0521090732859506E-01 a       314     0    16     1    14
  9.9283075078519425E-02 a       315     0    16     1    15
  3.0829342168681628E-01 a       316     0    16     1    16
  5.7617726598998775E-01 a       317     0    16     1    17
  3.3848348312963383E-01 a       318     0    16     1    18
 -8.4467322126739380E-02 a       319     0    16     1    19
  3.9726257020269534E-01 a       320     0    16     1    20
  2.7381422912151249E-01 a       321     0    17     1     1
  1.1972918129410996E-01 a       322     0    17     1     2
 -1.7980885578902162E-01 a       323     0    17     1     3
  2.6593683513729011E-02 a       324     0    17     1     4
 -4.1851036727663223E-02 a       325     0    17     1     5
 -4.7013323271614622E-02 a       326     0    17     1     6
  1.1098799523731095E-01 a       327     0    17     1     7
  1.0310005427453034E-02 a       328     0    17     1     8
  1.4948056496759116E-01 a       329     0    17     1     9
 -8.8298765427329076E-02 a       330     0    17     1    10
 -5.1826609875657167E-02 a       331     0    17     1    11
 -7.1399615028724965E-03 a       332     0    17     1    12
  7.4070045723869438E-02 a       333     0    17     1    13
  4.2806294733737843E-02 a       334     0    17     1    14
  1.2192880046270642E-01 a       335     0    17     1    15
  1.6665647708543874E-01 a       336     0    17     1    16
  2.1413043915313015E-01 a       337     0    17     1    17
 -1.7903204132660923E-02 a       338     0    17     1    18
 -3.6287896109278323E-02 a       339     0    17     1    19
  2.3479478248218787E-02 a       340     0    17     1    20
  1.4752106949383403E-01 a       341     0    18     1     1
 -2.0643484627038400E-01 a       342     0    18     1     2
 -2.0438727105232600E-03 a       343     0    18     1     3
  2.2215337662972628E-01 a       344     0    18     1     4
 -5.2707663061503027E-02 a       345     0    18     1     5
  6.2009761637766711E-02 a       346     0    18     1     6
 -2.3692154795511097E-01 a       347     0    18     1     7
  1.4161750200439374E-01 a       348     0    18     1     8
  2.4789841655783759E-01 a       349     0    18     1     9
  3.0425987609361932E-01 a       350     0    18     1    10
  1.3621725774284810E-01 a       351     0    18     1    11
  2.2092866876807871E-01 a       352     0    18     1    12
 -2.0331761169606519E-01 a       353     0    18     1    13
 -2.3518432614870929E-01 a       354     0    18     1    14
 -2.1511154033333146E-01 a       355     0    18     1    15
 -7.5295327458230789E-03 a       356     0    18     1    16
 -4.7221164770986493E-02 a       357     0    18     1    17
  1.2304731484059764E-01 a       358     0    18     1    18
  1.4414022243671379E-02 a       359     0    18     1    19
 -9.4032078183288445E-02 a       360     0    18     1    20
 -9.5537452329654771E-02 a       361     0    19     1     1
  2.5178086083510254E-01 a       362     0    19     1     2
 -1.4431081724968975E-01 a       363     0    19     1     3
  8.3618604313441994E-02 a       364     0    19     1     4
 -2.8715130906717456E-01 a       365     0    19     1     5
 -3.2144969322511380E-01 a       366     0    19     1     6
  8.4697896501167144E-02 a       367     0    19     1     7
 -6.7747355556458624E-02 a       368     0    19     1     8
  8.2722174621505565E-02 a       369     0    19     1     9
 -3.0852828287938942E-02 a       370     0    19     1    10
 -2.2520826327478104E-02 a       371     0    19     1    11
 -4.3800502199165196E-02 a       372     0    19     1    12
  1.9744478758350745E-01 a       373     0    19     1    13
  2.2357217757237077E-01 a       374     0    19     1    14
 -5.9063176446774585E-02 a       375     0    19     1    15
 -6.9959728349588302E-02 a       376     0    19     1    16
 -4.8985681010394894E-01 a       377     0    19     1    17
 -1.3879426844505738E-01 a       378     0    19     1    18
 -7.4242027324245383E-02 a       379     0    19     1    19
 -1.5157377872388303E-01 a       380     0    19     1    20
 -1.3456059479397914E-01 a       381     0    20     1     1
 -2.6138563598361138E-02 a       382     0    20     1     2
  1.2081472037606197E-01 a       383     0    20     1     3
 -2.5262079591574026E-02 a       384     0    20     1     4
  6.6256999646716896E-05 a       385     0    20     1     5
  1.3816057103712592E-01 a       386     0    20     1     6
 -1.1738496028028429E-01 a       387     0    20     1     7
 -5.5122803028488293E-02 a       388     0    20     1     8
  9.1648202578863261E-02 a       389     0    20     1     9
  1.2307016936586761E-01 a       390     0    20     1    10
  1.1891350449191466E-01 a       391     0    20     1    11
  2.2661367190616063E-02 a       392     0    20     1    12
 -1.5044763942698716E-01 a       393     0    20     1    13
  1.3563075088279899E-01 a       394     0    20     1    14
 -1.8092106504698256E-02 a       395     0    20     1    15
  3.2718217866813904E-03 a       396     0    20     1    16
  3.7193479380722677E-02 a       397     0    20     1    17
 -3.1036704091952323E-02 a       398     0    20     1    18
 -3.3925819042048541E-02 a       399     0    20     1    19
 -4.9554326654415295E-02 a       400     0    20     1    20
  2.0334894867392236E-01 a       401     0    21     1     1
  1.1537380369196988E-01 a       402     0    21     1     2
  1.1431293673439247E-01 a       403     0    21     1     3
 -5.9934118447468057E-02 a       404     0    21     1     4
  4.6773645260140349E-02 a       405     0    21     1     5
 -1.2248360795378427E-01 a       406     0    21     1     6
 -9.0272791822252382E-02 a       407     0    21     1     7
  1.2225981169655201E-01 a       408     0    21     1     8
  8.8472949226038586E-02 a       409     0    21     1     9
  2.9191703326016599E-01 a       410     0    21     1    10
 -7.7047233115337413E-02 a       411     0    21     1    11
 -2.0085081695444787E-01 a       412     0    21     1    12
  5.3094321759005546E-02 a       413     0    21     1    13
 -6.0391592190918338E-02 a       414     0    21     1    14
  8.2243964955692847E-02 a       415     0    21     1    15
 -5.0572284500105071E-02 a       416     0    21     1    16
  1.0199965701317606E-01 a       417     0    21     1    17
  9.3368197014668496E-03 a       418     0    21     1    18
 -1.0312135563141711E-01 a       419     0    21     1    19
 -1.0312006035470990E-01 a       420     0    21     1    20
  9.6347464188504487E-03 a       421     0    22     1     1
 -1.5987173158939680E-01 a       422     0    22     1     2
 -4.2101886395838707E-02 a       423     0    22     1     3
 -8.5918461329483678E-02 a       424     0    22     1     4
 -1.8710481388825216E-02 a       425     0    22     1     5
  3.0651388767746818E-01 a       426     0    22     1     6
  1.4039917726399628E-01 a       427     0    22     1     7
  8.7786448387607005E-02 a       428     0    22     1     8
 -2.2811556020596524E-01 a       429     0    22     1     9
 -1.4645599618708133E-01 a       430     0    22     1    10
  9.1724732176643689E-02 a       431     0    22     1    11
  2.5672326525217479E-02 a       432     0    22     1    12
  2.0400747332567842E-01 a       433     0    22     1    13
 -1.3906426547105694E-02 a       434     0    22     1    14
  6.1483527276073112E-02 a       435     0    22     1    15
 -3.3194745826922389E-02 a       436     0    22     1    16
  2.7278353588788568E-01 a       437     0    22     1    17
  5.0685621781218024E-03 a       438     0    22     1    18
 -2.5519994586433017E-02 a       439     0    22     1    19
 -8.8370834897730052E-02 a       440     0    22     1    20
  1.3024425497521938E-01 a       441     0    23     1     1
  4.8619131030576683E-02 a       442     0    23     1     2
 -1.0282815126180722E-01 a       443     0    23     1     3
  7.0833228954071667E-02 a       444     0    23     1     4
 -4.5322201644308828E-02 a       445     0    23     1     5
  4.8699310563878164E-03 a       446     0    23     1     6
  1.0847931126060190E-01 a       447     0    23     1     7
 -8.8942332697684130E-04 a       448     0    23     1     8
 -1.9883236935718248E-02 a       449     0    23     1     9
 -6.9503740686565505E-03 a       450     0    23     1    10
 -2.2542511639508142E-02 a       451     0    23     1    11
 -5.9835752838179844E-02 a       452     0    23     1    12
  1.5458705529472105E-01 a       453     0    23     1    13
 -1.6136398797472670E-01 a       454     0    23     1    14
  6.8783340569607498E-02 a       455     0    23     1    15
 -1.1794233439448536E-01 a       456     0    23     1    16
 -3.5894519886084178E-02 a       457     0    23     1    17
  6.3119552794966921E-02 a       458     0    23     1    18
  2.1251614843970784E-02 a       459     0    23     1    19
 -8.2640604477553670E-02 a       460     0    23     1    20
 -6.3379976882779104E-02 a       461     0    24     1     1
 -1.6655656747718789E-01 a       462     0    24     1     2
  1.5031839158386379E-02 a       463     0    24     1     3
  4.8404064387153950E-03 a       464     0    24     1     4
  2.0943526367605780E-02 a       465     0    24     1     5
 -1.5146887152951813E-01 a       466     0    24     1     6
 -7.6733983744087464E-02 a       467     0    24     1     7
  3.5707499863164717E-02 a       468     0    24     1     8
  1.4137074427298110E-01 a       469     0    24     1     9
  1.3834952869419320E-01 a       470     0    24     1    10
 -8.8801427402048688E-02 a       471     0    24     1    11
  7.1882154090804173E-02 a       472     0    24     1    12
 -2.3960045977711347E-01 a       473     0    24     1    13
 -2.7397331886498588E-01 a       474     0    24     1    14
 -1.2992183671546603E-01 a       475     0    24     1    15
 -2.9966952349334126E-02 a       476     0    24     1    16
 -6.7699384729701828E-02 a       477     0    24     1    17
  2.1897629099910321E-02 a       478     0    24     1    18
  1.1929622445115277E-01 a       479     0    24     1    19
 -1.0573501174778645E-02 a       480     0    24     1    20
 -1.8769053821063428E-01 a       481     0    25     1     1
  1.0840514504674767E-01 a       482     0    25     1     2
  4.3812884759865979E-02 a       483     0    25     1     3
  4.4626152279148810E-02 a       484     0    25     1     4
 -8.3271073856973452E-02 a       485     0    25     1     5
 -1.4717999699097927E-03 a       486     0    25     1     6
 -6.6192443913944396E-02 a       487     0    25     1     7
 -6.6913692823265369E-02 a       488     0    25     1     8
 -4.1621521481033978E-02 a       489     0    25     1     9
 -2.5916019483517197E-02 a       490     0    25     1    10
 -1.4417424454066930E-02 a       491     0    25     1    11
  2.7332918169100974E-02 a       492     0    25     1    12
 -5.1601310410079072E-02 a       493     0    25     1    13
  1.4155433507090190E-01 a       494     0    25     1    14
 -6.4122337842681232E-02 a       495     0    25     1    15
  8.2131001603608603E-02 a       496     0    25     1    16
 -2.3046320356439623E-01 a       497     0    25     1    17
  3.5995253574766024E-02 a       498     0    25     1    18
  4.5966938162273700E-02 a       499     0    25     1    19
  1.6780850422105226E-01 a       500     0    25     1    20
 -8.9963963467890207E-02 a       501     0    26     1     1
 -8.3256396091331175E-02 a       502     0    26     1     2
  9.9872642626060937E-02 a       503     0    26     1     3
 -2.4247988717386815E-02 a       504     0    26     1     4
  5.2636186284811717E-02 a       505     0    26     1     5
 -4.6884694382303754E-03 a       506     0    26     1     6
 -8.5962823307774189E-02 a       507     0    26     1     7
 -4.6538256020672249E-02 a       508     0    26     1     8
 -2.1108973801149993E-02 a       509     0    26     1     9
 -6.5449847941209616E-02 a       510     0    26     1    10
 -1.5118824614860304E-02 a       511     0    26     1    11
  4.4813329856631161E-02 a       512     0    26     1    12
 -1.7502527329040424E-01 a       513     0    26     1    13
  1.1363178037656102E-01 a       514     0    26     1    14
 -7.2973201907447591E-02 a       515     0    26     1    15
  1.5208320109842241E-01 a       516     0    26     1    16
  9.0300631796339324E-03 a       517     0    26     1    17
 -7.1906410384769151E-02 a       518     0    26     1    18
  7.1308596843967828E-02 a       519     0    26     1    19
  1.4594734807769216E-01 a       520     0    26     1    20
  1.1799681385425544E-01 a       521     0    27     1     1
  4.3767752275541520E-02 a       522     0    27     1     2
  2.6260161593296170E-02 a       523     0    27     1     3
  4.0567223523965468E-02 a       524     0    27     1     4
  1.0308559922365534E-01 a       525     0    27     1     5
  5.6530446802259798E-02 a       526     0    27     1     6
 -5.2447447758727873E-02 a       527     0    27     1     7
 -1.0990782232674620E-01 a       528     0    27     1     8
  2.9289863767548812E-02 a       529     0    27     1     9
  1.5579328746443933E-02 a       530     0    27     1    10
  5.2944004384668723E-02 a       531     0    27     1    11
 -4.0866394511753584E-02 a       532     0    27     1    12
  1.5328663130860490E-02 a       533     0    27     1    13
  1.5027928591372827E-01 a       534     0    27     1    14
  5.4112113389891241E-02 a       535     0    27     1    15
  7.3724233349589567E-03 a       536     0    27     1    16
  5.5123895108860843E-02 a       537     0    27     1    17
 -3.3384522708011198E-02 a       538     0    27     1    18
  3.1650544261928808E-02 a       539     0    27     1    19
  1.0493560367679103E-01 a       540     0    27     1    20
  1.4546330530583260E-01 a       541     0    28     1     1
 -5.2847887489043663E-02 a       542     0    28     1     2
 -2.7259641643282543E-02 a       543     0    28     1     3
  9.5844814831492937E-03 a       544     0    28     1     4
  2.7801505488979566E-02 a       545     0    28     1     5
 -4.4952231414631734E-02 a       546     0    28     1     6
  6.9405215208959758E-02 a       547     0    28     1     7
  4.4224100405686410E-02 a       548     0    28     1     8
  4.2497411200632086E-02 a       549     0    28     1     9
 -5.5240808412229898E-02 a       550     0    28     1    10
  4.9854764168160912E-02 a       551     0    28     1    11
 -3.3920883380076192E-02 a       552     0    28     1    12
  4.7866339528495193E-02 a       553     0    28     1    13
 -1.2753866835879268E-02 a       554     0    28     1    14
  7.8210064909469898E-02 a       555     0    28     1    15
 -5.8961108130131383E-02 a       556     0    28     1    16
  1.2207814861807484E-01 a       557     0    28     1    17
 -2.0635353098986051E-02 a       558     0    28     1    18
 -3.1564691692028170E-02 a       559     0    28     1    19
 -9.7375903427922586E-02 a       560     0    28     1    20
 -8.7059602912469888E-03 a       561     0    29     1     1
 -1.6653435838060789E-02 a       562     0    29     1     2
 -2.0610348270384722E-02 a       563     0    29     1     3
  2.9519707216916883E-02 a       564     0    29     1     4
 -1.7591019824700351E-03 a       565     0    29     1     5
  2.6526300171236802E-02 a       566     0    29     1     6
  3.2706818948535776E-02 a       567     0    29     1     7
 -1.4170837217372860E-03 a       568     0    29     1     8
  6.0790099134813312E-03 a       569     0    29     1     9
  6.2294434934574462E-02 a       570     0    29     1    10
  1.4782657011307444E-02 a       571     0    29     1    11
 -8.9761986641293916E-03 a       572     0    29     1    12
  3.5923699963127498E-02 a       573     0    29     1    13
 -3.8672957235466802E-03 a       574     0    29     1    14
  1.7013750407642188E-02 a       575     0    29     1    15
 -5.5318511326963020E-02 a       576     0    29     1    16
 -1.2244882608274305E-02 a       577     0    29     1    17
  9.6268021323364129E-04 a       578     0    29     1    18
 -1.3885459467922256E-02 a       579     0    29     1    19
 -4.0806311441973102E-02 a       580     0    29     1    20
 -4.3021974584664627E-02 a       581     0    30     1     1
 -2.1874541283532056E-02 a       582     0    30     1     2
 -9.6091145682429210E-04 a       583     0    30     1     3
 -5.9780291329556076E-02 a       584     0    30     1     4
 -3.1958656772274080E-02 a       585     0    30     1     5
 -9.6889505785789073E-02 a       586     0    30     1     6
 -1.0625051863553239E-02 a       587     0    30     1     7
  5.2065071260927742E-02 a       588     0    30     1     8
  2.7891871771009231E-02 a       589     0    30     1     9
  9.4204935960869804E-02 a       590     0    30     1    10
 -1.0699682793193774E-01 a       591     0    30     1    11
  2.9606081142539440E-03 a       592     0    30     1    12
 -4.6572918264098637E-02 a       593     0    30     1    13
 -1.8159446585267311E-01 a       594     0    30     1    14
 -4.6611170731042678E-02 a       595     0    30     1    15
  2.3273262167212889E-02 a       596     0    30     1    16
 -3.6358461073983495E-02 a       597     0    30     1    17
  4.6346546075339168E-02 a       598     0    30     1    18
 -3.4117283201696921E-02 a       599     0    30     1    19
 -4.2711945569494689E-02 a       600     0    30     1    20
  3.9761562150638835E-01 a       601     0    31     1     1
  3.2676808479426264E-02 a       602     0    31     1     2
 -6.0925375055896369E-01 a       603     0    31     1     3
 -4.3496323755731044E-02 a       604     0    31     1     4
 -4.1023849962964398E-01 a       605     0    31     1     5
 -1.6079153353975802E-02 a       606     0    31     1     6
 -5.4756885967477975E-01 a       607     0    31     1     7
  5.7622055810036585E-02 a       608     0    31     1     8
 -3.1521615128820091E-01 a       609     0    31     1     9
 -2.6868264876850256E-01 a       610     0    31     1    10
 -6.3888138805810313E-01 a       611     0    31     1    11
  8.8499857087635206E-02 a       612     0    31     1    12
 -1.9285886116622633E-01 a       613     0    31     1    13
 -2.6583060941818387E-01 a       614     0    31     1    14
  5.1476597292925408E-01 a       615     0    31     1    15
 -7.8349821445306667E-02 a       616     0    31     1    16
  3.3172842309656247E-01 a       617     0    31     1    17
  1.7550021943651792E-01 a       618     0    31     1    18
  9.4071016643111638E-01 a       619     0    31     1    19
 -1.8250706780755663E-01 a       620     0    31     1    20
  1.6061928685188023E-01 a       621     0    32     1     1
  3.6142746286356400E-02 a       622     0    32     1     2
 -5.7691990076606095E-02 a       623     0    32     1     3
  5.2847471249547723E-02 a       624     0    32     1     4
  2.5039746452338529E-01 a       625     0    32     1     5
  1.9671370060744853E-01 a       626     0    32     1     6
  9.0023594317056602E-02 a       627     0    32     1     7
 -2.0658762946288772E-01 a       628     0    32     1     8
 -7.4939556052980208E-02 a       629     0    32     1     9
  2.3653371198547393E-02 a       630     0    32     1    10
 -1.2659574889672850E-01 a       631     0    32     1    11
  4.3010030484782420E-02 a       632     0    32     1    12
 -3.5610596325779637E-01 a       633     0    32     1    13
  2.5830812710953743E-01 a       634     0    32     1    14
 -3.1867233938052929E-02 a       635     0    32     1    15
  1.5510594414117352E-02 a       636     0    32     1    16
  5.7499623644984045E-03 a       637     0    32     1    17
 -3.5861950688044492E-01 a       638     0    32     1    18
 -3.7004732289569159E-02 a       639     0    32     1    19
 -6.0981586861876352E-02 a       640     0    32     1    20
 -5.8320772721476555E-01 a       641     0    33     1     1
 -1.5585754189406995E-01 a       642     0    33     1     2
 -7.0314540696450822E-02 a       643     0    33     1     3
  2.4909264405210568E-01 a       644     0    33     1     4
  4.0693639820552280E-01 a       645     0    33     1     5
  2.5239947126740919E-01 a       646     0    33     1     6
  3.5026461352977606E-01 a       647     0    33     1     7
 -5.1912402150144987E-01 a       648     0    33     1     8
  1.0613170513092218E+00 a       649     0    33     1     9
 -1.4988719789271340E-01 a       650     0    33     1    10
  1.0661338122358111E-01 a       651     0    33     1    11
 -4.5449958893166270E-01 a       652     0    33     1    12
  2.6561160073822053E-02 a       653     0    33     1    13
 -2.8991007829354010E-01 a       654     0    33     1    14
 -8.5196174943538289E-03 a       655     0    33     1    15
 -4.2774239526342006E-01 a       656     0    33     1    16
 -1.7996654047371907E-01 a       657     0    33     1    17
 -2.2000155646836114E-01 a       658     0    33     1    18
 -8.3647308815746635E-01 a       659     0    33     1    19
 -4.2173985259665864E-01 a       660     0    33     1    20
 -3.2760647656186875E-01 a       661     0    34     1     1
  7.8076233213709061E-03 a       662     0    34     1     2
  2.9077662670973370E-01 a       663     0    34     1     3
 -9.3421922090169834E-02 a       664     0    34     1     4
  9.7264722401473408E-02 a       665     0    34     1     5
  9.8333385423933481E-02 a       666     0    34     1     6
 -3.3516118959296942E-01 a       667     0    34     1     7
 -3.4187856665970873E-01 a       668     0    34     1     8
  2.4009518575402800E-01 a       669     0    34     1     9
  1.3949564220966601E-01 a       670     0    34     1    10
 -1.3958673340053745E-01 a       671     0    34     1    11
  8.3937385629848871E-02 a       672     0    34     1    12
 -1.5784291740606596E-01 a       673     0    34     1    13
  1.6517161070062059E-01 a       674     0    34     1    14
  1.1493244306536718E-01 a       675     0    34     1    15
  7.6221121159620209E-02 a       676     0    34     1    16
 -3.6451395553228932E-02 a       677     0    34     1    17
  3.1103863873818771E-01 a       678     0    34     1    18
  1.3327135532762788E-01 a       679     0    34     1    19
 -2.1904515348240790E-02 a       680     0    34     1    20
 -1.5009042246432086E-01 a       681     0    35     1     1
 -3.8333253528408696E-02 a       682     0    35     1     2
 -2.6569200309948963E-02 a       683     0    35     1     3
  4.6648435830038748E-02 a       684     0    35     1     4
 -4.9917251286674257E-02 a       685     0    35     1     5
  6.0160422425762257E-02 a       686     0    35     1     6
 -1.1116473831742710E-01 a       687     0    35     1     7
  1.5245844132468125E-01 a       688     0    35     1     8
  2.3791875820966885E-01 a       689     0    35     1     9
  1.2395173294475058E-01 a       690     0    35     1    10
 -5.2778303091073626E-02 a       691     0    35     1    11
 -1.2480345141176347E-01 a       692     0    35     1    12
 -1.1602621712932415E-01 a       693     0    35     1    13
  6.7155491212961202E-03 a       694     0    35     1    14
  3.7927630630643770E-02 a       695     0    35     1    15
 -4.4679681124399642E-02 a       696     0    35     1    16
 -1.5957653845921005E-01 a       697     0    35     1    17
  1.6260173889666113E-01 a       698     0    35     1    18
 -1.6296184449446802E-01 a       699     0    35     1    19
  6.7462991335739700E-02 a       700     0    35     1    20
  6.0128735097499397E-01 a       701     0    36     1     1
  2.5232246393573043E-01 a       702     0    36     1     2
  8.2678956187130948E-02 a       703     0    36     1     3
 -1.1535491674689080E-01 a       704     0    36     1     4
 -6.3418379687922563E-02 a       705     0    36     1     5
 -1.3877537280650901E-01 a       706     0    36     1     6
  1.5456218215411741E-01 a       707     0    36     1     7
  5.8795134641111857E-02 a       708     0    36     1     8
 -3.4629230884216117E-01 a       709     0    36     1     9
  7.5824151321695316E-02 a       710     0    36     1    10
 -4.7112828972340114E-02 a       711     0    36     1    11
  7.8366314667385126E-02 a       712     0    36     1    12
 -5.6555967107814775E-01 a       713     0    36     1    13
  2.0014505334018742E-01 a       714     0    36     1    14
  5.3547598453374166E-02 a       715     0    36     1    15
 -1.7170082104642482E-02 a       716     0    36     1    16
  1.6998443406161251E-01 a       717     0    36     1    17
  2.2669995825408090E-01 a       718     0    36     1    18
  3.7681421852551594E-01 a       719     0    36     1    19
  2.5583304279804553E-01 a       720     0    36     1    20
 -1.0028782979418686E-01 a       721     0    37     1     1
  2.1315472399888880E-01 a       722     0    37     1     2
  1.9923374421393839E-01 a       723     0    37     1     3
 -8.8365437873397915E-02 a       724     0    37     1     4
 -2.3323104914913373E-01 a       725     0    37     1     5
  3.8978560254759537E-01 a       726     0    37     1     6
  1.8140962861477283E-01 a       727     0    37     1     7
  4.0444181663908929E-01 a       728     0    37     1     8
 -2.1083297760339528E-01 a       729     0    37     1     9
  2.9586857071578160E-01 a       730     0    37     1    10
 -2.2625934310164600E-01 a       731     0    37     1    11
  6.5209119957019746E-01 a       732     0    37     1    12
  3.7667133930666535E-02 a       733     0    37     1    13
  3.7783601652292130E-02 a       734     0    37     1    14
 -3.7883046123844100E-01 a       735     0    37     1    15
 -5.5390886718053832E-02 a       736     0    37     1    16
  3.3286945651756723E-02 a       737     0    37     1    17
 -4.9736055861970385E-01 a       738     0    37     1    18
 -1.9781647821360566E-02 a       739     0    37     1    19
  4.1998098453319294E-01 a       740     0    37     1    20
  2.2120252060306153E-01 a       741     0    38     1     1
 -1.6453147071199026E-01 a       742     0    38     1     2
 -2.7838799799984371E-02 a       743     0    38     1     3
 -1.1405518722922614E-01 a       744     0    38     1     4
 -2.7239773577615406E-01 a       745     0    38     1     5
  1.5711167987457864E-01 a       746     0    38     1     6
 -3.2145053349141944E-02 a       747     0    38     1     7
 -2.8458560911269848E-01 a       748     0    38     1     8
 -3.7614330713671089E-02 a       749     0    38     1     9
  9.4746101644028566E-02 a       750     0    38     1    10
 -1.8335551732410355E-01 a       751     0    38     1    11
 -1.4909864363976863E-01 a       752     0    38     1    12
 -2.0828416447427167E-02 a       753     0    38     1    13
  7.9560307693855192E-02 a       754     0    38     1    14
 -7.1805154592312334E-02 a       755     0    38     1    15
  3.7840936551013955E-02 a       756     0    38     1    16
 -8.4672232459148331E-02 a       757     0    38     1    17
  1.9936696307817602E-02 a       758     0    38     1    18
  1.2684689424706397E-01 a       759     0    38     1    19
  2.0667779907405917E-01 a       760     0    38     1    20
 -3.0496192901328223E-01 a       761     0    39     1     1
 -8.5172552031032578E-02 a       762     0    39     1     2
 -8.4872381709021638E-01 a       763     0    39     1     3
  4.5495630875351589E-01 a       764     0    39     1     4
  2.0907827658998046E-01 a       765     0    39     1     5
 -1.0603828900598272E-01 a       766     0    39     1     6
  3.0386496313344452E-01 a       767     0    39     1     7
 -4.3397812310386169E-01 a       768     0    39     1     8
 -6.0004687309529636E-01 a       769     0    39     1     9
  3.7156866636052577E-01 a       770     0    39     1    10
  2.9507308921252096E-01 a       771     0    39     1    11
 -9.6464220999979611E-01 a       772     0    39     1    12
 -9.7416030421822231E-02 a       773     0    39     1    13
  2.4942954285878069E-01 a       774     0    39     1    14
  6.2611423328476312E-01 a       775     0    39     1    15
  1.9600387428209468E-01 a       776     0    39     1    16
 -8.6385315496659884E-02 a       777     0    39     1    17
  2.1222142913365427E-01 a       778     0    39     1    18
  6.6881455477017149E-01 a       779     0    39     1    19
 -1.4371990236855930E-01 a       780     0    39     1    20
  1.6102783606522175E-01 a       781     0    40     1     1
  3.0356456932328968E-02 a       782     0    40     1     2
 -6.5287191646582782E-02 a       783     0    40     1     3
  1.2051090635360254E-01 a       784     0    40     1     4
 -3.8899099964152029E-02 a       785     0    40     1     5
 -3.0220083150895471E-01 a       786     0    40     1     6
  2.4395819885492709E-01 a       787     0    40     1     7
  1.0964487870715882E-01 a       788     0    40     1     8
 -3.1330014352902463E-01 a       789     0    40     1     9
  2.4137351222460549E-01 a       790     0    40     1    10
 -1.5903616772054835E-01 a       791     0    40     1    11
  6.9494714263258636E-02 a       792     0    40     1    12
 -2.5103716252729852E-01 a       793     0    40     1    13
 -3.6184818432676756E-02 a       794     0    40     1    14
  1.2399470805090167E-02 a       795     0    40     1    15
  8.9024468639002638E-02 a       796     0    40     1    16
 -2.0795287223900499E-01 a       797     0    40     1    17
  7.9884851671692181E-02 a       798     0    40     1    18
 -2.0260752623401623E-01 a       799     0    40     1    19
  2.6450550670442563E-01 a       800     0    40     1    20
  1.8753363539646969E-01 a       801     0    41     1     1
  3.0757446356652677E-02 a       802     0    41     1     2
  1.5192786847141038E-01 a       803     0    41     1     3
 -1.2714427564499728E-01 a       804     0    41     1     4
  1.6134332281268629E-01 a       805     0    41     1     5
  2.1844591449019019E-01 a       806     0    41     1     6
  2.4443828953390954E-02 a       807     0    41     1     7
  5.8398936609314819E-02 a       808     0    41     1     8
 -1.9118608759148320E-01 a       809     0    41     1     9
  1.7000868082954065E-01 a       810     0    41     1    10
  1.1689739909394339E-01 a       811     0    41     1    11
  4.2400295171479183E-02 a       812     0    41     1    12
  5.0034185850809515E-02 a       813     0    41     1    13
  3.1151186638624540E-02 a       814     0    41     1    14
  4.7360707936394596E-02 a       815     0    41     1    15
  5.2111165499695786E-03 a       816     0    41     1    16
  2.6258083763100643E-01 a       817     0    41     1    17
 -1.0167480712892037E-01 a       818     0    41     1    18
  1.1295109176025447E-01 a       819     0    41     1    19
  5.1327938987911735E-02 a       820     0    41     1    20
 -2.2701907797118881E-01 a       821     0    42     1     1
 -3.0848303672319688E-01 a       822     0    42     1     2
  3.1921024232737277E-01 a       823     0    42     1     3
  1.2393368286865759E-01 a       824     0    42     1     4
  2.0621365773830685E-01 a       825     0    42     1     5
  2.7149159453486449E-01 a       826     0    42     1     6
 -5.4123406474508251E-01 a       827     0    42     1     7
 -1.1344368324481899E-01 a       828     0    42     1     8
  5.1591446266360064E-01 a       829     0    42     1     9
  2.4856342986697005E-02 a       830     0    42     1    10
  9.4784424960894856E-02 a       831     0    42     1    11
 -1.1991581330868044E-02 a       832     0    42     1    12
  5.3616795223263669E-01 a       833     0    42     1    13
 -9.1180081367236723E-02 a       834     0    42     1    14
  2.1288091181673095E-02 a       835     0    42     1    15
  2.7616665667810240E-02 a       836     0    42     1    16
  7.8639662140937358E-03 a       837     0    42     1    17
 -5.0427831078059548E-01 a       838     0    42     1    18
 -4.1662919436388984E-01 a       839     0    42     1    19
 -2.7389814527926920E-01 a       840     0    42     1    20
  1.3073373446684144E-01 a       841     0    43     1     1
  3.9849815493269092E-01 a       842     0    43     1     2
  3.4949533530313837E-01 a       843     0    43     1     3
  9.9733491459087484E-02 a       844     0    43     1     4
  9.8322742417326539E-02 a       845     0    43     1     5
  1.4846653667693374E-01 a       846     0    43     1     6
 -5.4546639889635373E-01 a       847     0    43     1     7
 -1.1013874790480715E-01 a       848     0    43     1     8
 -7.2134154450883184E-02 a       849     0    43     1     9
  5.4962493665908618E-01 a       850     0    43     1    10
  1.9762591597980925E-01 a       851     0    43     1    11
  3.2431014299509431E-01 a       852     0    43     1    12
 -9.4867917981071886E-02 a       853     0    43     1    13
 -5.5814867086515084E-02 a       854     0    43     1    14
 -1.6879850678861702E-01 a       855     0    43     1    15
  2.0012801038982350E-01 a       856     0    43     1    16
 -5.8069910713844437E-02 a       857     0    43     1    17
  1.1286346329859674E-01 a       858     0    43     1    18
 -1.2576512414216545E+00 a       859     0    43     1    19
 -4.9956049107838130E-01 a       860     0    43     1    20
 -9.6811046801008646E-02 a       861     0    44     1     1
  1.5798178328354773E-02 a       862     0    44     1     2
  1.5158232047353169E-02 a       863     0    44     1     3
 -7.0065993527069506E-02 a       864     0    44     1     4
 -1.4620283733189851E-01 a       865     0    44     1     5
  2.9320994926962518E-01 a       866     0    44     1     6
 -2.1486563466478422E-02 a       867     0    44     1     7
 -6.8998472440946904E-03 a       868     0    44     1     8
 -3.4649826945151896E-02 a       869     0    44     1     9
  1.3743567181672667E-01 a       870     0    44     1    10
 -6.7965608046056683E-02 a       871     0    44     1    11
 -8.5343899229274617E-03 a       872     0    44     1    12
 -2.8508892257577093E-02 a       873     0    44     1    13
 -7.1132591852099664E-02 a       874     0    44     1    14
  1.9580445251368404E-02 a       875     0    44     1    15
  7.6915965878840684E-02 a       876     0    44     1    16
 -5.0472178027462580E-02 a       877     0    44     1    17
  1.9697631504836291E-01 a       878     0    44     1    18
 -7.7426758573999069E-02 a       879     0    44     1    19
  3.9173197499812372E-02 a       880     0    44     1    20
 -2.0222789935336935E-01 a       881     0    45     1     1
 -1.9992217732866538E-01 a       882     0    45     1     2
 -1.7031003236912462E-01 a       883     0    45     1     3
 -6.9971440377481015E-02 a       884     0    45     1     4
 -3.1930341326743550E-01 a       885     0    45     1     5
  1.9503639183938529E-01 a       886     0    45     1     6
  6.2699773485505028E-01 a       887     0    45     1     7
 -1.7416423393437748E-02 a       888     0    45     1     8
 -8.1644870421880747E-02 a       889     0    45     1     9
 -7.0188169266678854E-02 a       890     0    45     1    10
 -1.9325741676361036E-01 a       891     0    45     1    11
 -3.2330963456493411E-01 a       892     0    45     1    12
 -1.6359809015970569E-01 a       893     0    45     1    13
  1.1867481843107328E-01 a       894     0    45     1    14
  2.9530748954812119E-01 a       895     0    45     1    15
 -2.0241941537439018E-01 a       896     0    45     1    16
  8.0180322614317748E-02 a       897     0    45     1    17
  2.9336899566436792E-01 a       898     0    45     1    18
  8.0826164392005739E-01 a       899     0    45     1    19
  3.0121752674110613E-01 a       900     0    45     1    20
  1.2944484753829544E-01 a       901     0    46     1     1
 -1.6645135348013029E-01 a       902     0    46     1     2
 -5.5622690092261173E-02 a       903     0    46     1     3
  1.7822732085161228E-01 a       904     0    46     1     4
 -3.2730510655546934E-02 a       905     0    46     1     5
  7.5163557509465795E-02 a       906     0    46     1     6
  3.2390665456380724E-02 a       907     0    46     1     7
 -1.4537248243181283E-02 a       908     0    46     1     8
 -1.2661853406071996E-01 a       909     0    46     1     9
  1.9842625552206263E-02 a       910     0    46     1    10
  1.1652227167026634E-01 a       911     0    46     1    11
 -2.1669840441025160E-02 a       912     0    46     1    12
 -3.9796141388987009E-02 a       913     0    46     1    13
 -3.7024985437823794E-02 a       914     0    46     1    14
 -1.1972495625346551E-01 a       915     0    46     1    15
  7.6188789309550114E-04 a       916     0    46     1    16
 -4.6317972931198867E-02 a       917     0    46     1    17
 -1.9022095462060909E-01 a       918     0    46     1    18
 -3.7951625116686205E-02 a       919     0    46     1    19
  3.8250089536012610E-02 a       920     0    46     1    20
  3.6251955806862995E-01 a       921     0    47     1     1
  3.1804855461969074E-02 a       922     0    47     1     2
 -5.6583522269445463E-02 a       923     0    47     1     3
  7.8559867034941576E-03 a       924     0    47     1     4
 -4.6321731672305202E-02 a       925     0    47     1     5
  7.5841989045810090E-02 a       926     0    47     1     6
  3.7022614584513072E-02 a       927     0    47     1     7
 -6.5437197631963595E-02 a       928     0    47     1     8
  2.0946983088756446E-01 a       929     0    47     1     9
 -6.3494068753220723E-02 a       930     0    47     1    10
  3.4451355506858329E-02 a       931     0    47     1    11
 -1.0749911328470636E-01 a       932     0    47     1    12
  8.3557050492607407E-02 a       933     0    47     1    13
 -6.2647866577754618E-02 a       934     0    47     1    14
  1.7015769690139687E-01 a       935     0    47     1    15
 -4.1727603045515461E-02 a       936     0    47     1    16
  1.9901771453719752E-01 a       937     0    47     1    17
 -7.5256532360574918E-02 a       938     0    47     1    18
  1.0087882675675873E-01 a       939     0    47     1    19
 -2.4148595896825020E-01 a       940     0    47     1    20
  2.9128180525894182E-01 a       941     0    48     1     1
 -2.1541759042735240E-02 a       942     0    48     1     2
  8.8001726298040206E-02 a       943     0    48     1     3
 -1.0525922115086185E-04 a       944     0    48     1     4
 -5.7280255821079637E-03 a       945     0    48     1     5
 -2.2909380834136028E-01 a       946     0    48     1     6
 -2.4631163416713228E-01 a       947     0    48     1     7
  4.0735664906434481E-02 a       948     0    48     1     8
  6.3598745971145440E-02 a       949     0    48     1     9
 -6.2731236225583353E-02 a       950     0    48     1    10
  1.0164709512672807E-01 a       951     0    48     1    11
 -2.7320556359338197E-03 a       952     0    48     1    12
  2.0200415900985239E-01 a       953     0    48     1    13
 -2.7393516509404598E-02 a       954     0    48     1    14
 -7.5342687469803923E-02 a       955     0    48     1    15
 -9.6001230510131541E-03 a       956     0    48     1    16
 -7.6702422271555004E-04 a       957     0    48     1    17
 -8.9006213409522181E-02 a       958     0    48     1    18
 -2.8568430117759769E-01 a       959     0    48     1    19
 -7.0959129973163032E-02 a       960     0    48     1    20
 -3.8758926789743575E-01 a       961     0    49     1     1
  1.4498050221558907E-02 a       962     0    49     1     2
 -2.6990406580377857E-01 a       963     0    49     1     3
 -4.5635346133722811E-02 a       964     0    49     1     4
 -1.6734409880415133E-01 a       965     0    49     1     5
 -4.0627522786008140E-02 a       966     0    49     1     6
  8.1953718017720348E-02 a       967     0    49     1     7
  1.1152318109662838E-01 a       968     0    49     1     8
 -9.3746563062855170E-02 a       969     0    49     1     9
 -5.4672757638272418E-01 a       970     0    49     1    10
 -4.0841499685019503E-02 a       971     0    49     1    11
 -8.9194631241088104E-02 a       972     0    49     1    12
  3.4897574683962723E-01 a       973     0    49     1    13
 -2.3065383455698263E-01 a       974     0    49     1    14
  3.5640891740223335E-02 a       975     0    49     1    15
  3.4711031021512195E-01 a       976     0    49     1    16
 -2.5923801662907052E-02 a       977     0    49     1    17
  5.0835198018115968E-01 a       978     0    49     1    18
 -4.6738143543498262E-01 a       979     0    49     1    19
  1.3929191013485750E-03 a       980     0    49     1    20
 -8.2243701161354751E-02 a       981     0    50     1     1
 -2.0319049936352064E-02 a       982     0    50     1     2
  1.9124198559877747E-02 a       983     0    50     1     3
  5.9919803158830026E-02 a       984     0    50     1     4
  1.0573105194080755E-01 a       985     0    50     1     5
 -7.6556267305835562E-02 a       986     0    50     1     6
 -5.2933497982335251E-02 a       987     0    50     1     7
  1.7953968194066475E-01 a       988     0    50     1     8
 -5.5666883517631473E-02 a       989     0    50     1     9
 -7.5539027414538813E-03 a       990     0    50     1    10
  8.8025349625845697E-02 a       991     0    50     1    11
  7.9845599910122841E-02 a       992     0    50     1    12
  3.2127097285233150E-02 a       993     0    50     1    13
  1.1834491897328818E-01 a       994     0    50     1    14
 -5.9247993515481163E-02 a       995     0    50     1    15
 -2.1906884229926708E-02 a       996     0    50     1    16
 -2.8666508730341756E-02 a       997     0    50     1    17
 -1.1400873423942073E-01 a       998     0    50     1    18
  1.2242085620056435E-01 a       999     0    50     1    19
 -5.7606820906200472E-02 a      1000     0    50     1    20
  5.3326355304271966E-01 a      1001     0    51     1     1
  7.0499772490881618E-01 a      1002     0    51     1     2
  6.7702507808749002E-01 a      1003     0    51     1     3
 -4.3502663920085882E-01 a      1004     0    51     1     4
 -2.4663832811870190E-01 a      1005     0    51     1     5
 -1.5913480803049965E-01 a      1006     0    51     1     6
 -9.6653928108247666E-01 a      1007     0    51     1     7
  3.8357572346835750E-01 a      1008     0    51     1     8
  6.6459444365205250E-04 a      1009     0    51     1     9
 -1.7388445157281007E-01 a      1010     0    51     1    10
 -8.9761546767904488E-02 a      1011     0    51     1    11
  3.9760624176543391E-01 a      1012     0    51     1    12
 -4.1825512693804889E-01 a      1013     0    51     1    13
  2.8756092226330687E-01 a      1014     0    51     1    14
 -2.5138168186594040E-01 a      1015     0    51     1    15
 -4.6170805437951423E-01 a      1016     0    51     1    16
 -3.8017212660411204E-01 a      1017     0    51     1    17
 -3.1565485426264089E-01 a      1018     0    51     1    18
  5.4251802117475689E-01 a      1019     0    51     1    19
 -9.1421038432265922E-01 a      1020     0    51     1    20
 -2.2624304975723961E-01 a      1021     0    52     1     1
  2.5346874094784558E-03 a      1022     0    52     1     2
 -7.5445688038937392E-02 a      1023     0    52     1     3
 -2.1327590261287219E-01 a      1024     0    52     1     4
  2.5796205793258098E-01 a      1025     0    52     1     5
  1.6378606655637251E-01 a      1026     0    52     1     6
 -1.7135166947209540E-01 a      1027     0    52     1     7
  5.2843292596279172E-02 a      1028     0    52     1     8
 -9.3397322450714040E-02 a      1029     0    52     1     9
 -5.7541266797019701E-02 a      1030     0    52     1    10
 -1.0109153430506038E-01 a      1031     0    52     1    11
 -8.9484221842002377E-03 a      1032     0    52     1    12
  3.0145129307077628E-01 a      1033     0    52     1    13
 -8.3535056590947232E-02 a      1034     0    52     1    14
  2.2844416753617851E-02 a      1035     0    52     1    15
 -2.6230841645048247E-01 a      1036     0    52     1    16
  5.3450041592889214E-02 a      1037     0    52     1    17
 -1.8450868973474815E-01 a      1038     0    52     1    18
  1.8978806596335310E-01 a      1039     0    52     1    19
  5.5451353311220530E-01 a      1040     0    52     1    20
 -1.4685442914900532E-01 a      1041     0    53     1     1
  2.4431164789404932E-02 a      1042     0    53     1     2
 -9.9210355538189215E-02 a      1043     0    53     1     3
  1.8754083077422049E-02 a      1044     0    53     1     4
 -1.7871553525893813E-01 a      1045     0    53     1     5
 -6.9827890336573065E-02 a      1046     0    53     1     6
  2.9480239612876189E-02 a      1047     0    53     1     7
 -3.6491706019604275E-02 a      1048     0    53     1     8
  1.3311219462225741E-02 a      1049     0    53     1     9
 -1.6467514117104229E-01 a      1050     0    53     1    10
 -1.2401415938084415E-01 a      1051     0    53     1    11
 -3.6450003192797144E-03 a      1052     0    53     1    12
  7.3448451009933786E-03 a      1053     0    53     1    13
 -3.8568495459366248E-02 a      1054     0    53     1    14
 -3.8785897124362048E-02 a      1055     0    53     1    15
  4.0605973523223010E-02 a      1056     0    53     1    16
 -1.6305820878338981E-01 a      1057     0    53     1    17
  5.5897888439965980E-02 a      1058     0    53     1    18
 -3.6664909165526206E-02 a      1059     0    53     1    19
 -8.0116959618497241E-02 a      1060     0    53     1    20
  1.3014615766927839E-02 a      1061     0    54     1     1
 -9.1200615149704609E-02 a      1062     0    54     1     2
 -1.8042730555996425E-01 a      1063     0    54     1     3
 -3.6693788589128667E-02 a      1064     0    54     1     4
  2.7510197724104873E-02 a      1065     0    54     1     5
 -1.5314677968022167E-01 a      1066     0    54     1     6
  4.7340049049421351E-01 a      1067     0    54     1     7
  1.5071546823400742E-01 a      1068     0    54     1     8
 -2.0371091242585321E-01 a      1069     0    54     1     9
 -1.8216315916677472E-01 a      1070     0    54     1    10
 -9.0717925149999795E-02 a      1071     0    54     1    11
  7.2891584996803829E-02 a      1072     0    54     1    12
 -4.1525995923200165E-01 a      1073     0    54     1    13
 -1.2195650124248829E-01 a      1074     0    54     1    14
 -9.6587638656527683E-02 a      1075     0    54     1    15
  9.7117522942604229E-02 a      1076     0    54     1    16
  1.4782560650621475E-02 a      1077     0    54     1    17
  2.2818994868785333E-01 a      1078     0    54     1    18
  1.3695756380692112E-01 a      1079     0    54     1    19
  5.0083792328805266E-01 a      1080     0    54     1    20
  1.1614197793641854E+00 b      1081     1     1
  1.0996879332182632E+00 b      1082     1     2
 -7.6177719791427423E-01 b      1083     1     3
  2.7239361338915521E-02 b      1084     1     4
 -1.2109598967290525E+00 b      1085     1     5
  1.4007489688584480E+00 b      1086     1     6
  2.0823424547918926E-01 b      1087     1     7
 -1.1144867550141031E+00 b      1088     1     8
  4.7192768498375594E-02 b      1089     1     9
  1.5263269852880146E+00 b      1090     1    10
  4.7470688526309460E-03 b      1091     1    11
 -1.2053368789785206E+00 b      1092     1    12
  1.6940604886775903E-01 b      1093     1    13
 -1.1455241393108517E+00 b      1094     1    14
  3.4366701356212920E-01 b      1095     1    15
 -5.0390633298271759E-01 b      1096     1    16
 -1.0177299016913361E+00 b      1097     1    17
  4.8914344681829791E-01 b      1098     1    18
  1.2196555095985402E+00 b      1099     1    19
  1.3614807967452032E+00 b      1100     1    20
 -8.4127475502139851E-02 a      1101     1     1     2     1
  3.0012395894103949E-01 a      1102     1     1     2     2
 -1.5917347622478470E-02 a      1103     1     1     2     3
  1.8180656598073952E-01 a      1104     1     1     2     4
 -2.9868717977590731E-01 a      1105     1     1     2     5
  4.1699840019083717E-01 a      1106     1     1     2     6
  2.7058236145365894E-01 a      1107     1     1     2     7
 -3.8010662813920126E-01 a      1108     1     1     2     8
 -4.2657013119700926E-01 a      1109     1     1     2     9
 -2.4245555817312089E-01 a      1110     1     1     2    10
  4.5505840234033042E-02 a      1111     1     1     2    11
  5.7766643951239516E-01 a      1112     1     1     2    12
 -6.5276247030687995E-01 a      1113     1     1     2    13
  5.1968122013595308E-01 a      1114     1     1     2    14
 -9.4331507692178163E-01 a      1115     1     1     2    15
 -1.0678401452184616E-01 a      1116     1     1     2    16
 -1.2501209677324288E-01 a      1117     1     1     2    17
  1.5743537899067592E-01 a      1118     1     1     2    18
 -3.0889834108622566E-01 a      1119     1     1     2    19
 -1.0496680877578783E-01 a      1120     1     1     2    20
  1.7093240313378663E-01 a      1121     1     2     2     1
  2.2043398883090487E-01 a      1122     1     2     2     2
  4.5252449829999564E-01 a      1123     1     2     2     3
 -6.1405961974383576E-02 a      1124     1     2     2     4
 -2.0326261412448549E-01 a      1125     1     2     2     5
  1.4120366690770406E-01 a      1126     1     2     2     6
 -9.7539567618524714E-01 a      1127     1     2     2     7
 -1.1735956771053424E-01 a      1128     1     2     2     8
  5.7320334353364355E-01 a      1129     1     2     2     9
 -3.3288317451820532E-01 a      1130     1     2     2    10
  2.0341512929595129E-02 a      1131     1     2     2    11
  2.2602031272105105E-01 a      1132     1     2     2    12
 -2.8160315879338560E-01 a      1133     1     2     2    13
  6.1040715598888728E-01 a      1134     1     2     2    14
  1.7895543630913882E-01 a      1135     1     2     2    15
 -3.4991456009677430E-02 a      1136     1     2     2    16
  3.0948238366416417E-02 a      1137     1     2     2    17
 -5.3672813176682055E-01 a      1138     1     2     2    18
  6.9663689353588532E-01 a      1139     1     2     2    19
  6.9944926144812225E-01 a      1140     1     2     2    20
 -3.2373508273881396E-01 a      1141     1     3     2     1
  9.0799160815594393E-01 a      1142     1     3     2     2
  2.5807929734824742E-01 a      1143     1     3     2     3
 -4.2861979317095761E-01 a      1144     1     3     2     4
 -5.9006621777882517E-01 a      1145     1     3     2     5
  1.8863841200022538E-01 a      1146     1     3     2     6
 -7.9053039967578120E-02 a      1147     1     3     2     7
 -4.8744160985269558E-01 a      1148     1     3     2     8
 -1.3635104088521510E-01 a      1149     1     3     2     9
  2.2908684360282805E-01 a      1150     1     3     2    10
 -9.3133616408513498E-01 a      1151     1     3     2    11
  5.8053454357736745E-01 a      1152     1     3     2    12
 -9.1896139050361891E-01 a      1153     1     3     2    13
 -3.2100575258329378E-02 a      1154     1     3     2    14
 -1.1151669710624897E-01 a      1155     1     3     2    15
 -5.4149284790511143E-01 a      1156     1     3     2    16
  7.0578768395223312E-01 a      1157     1     3     2    17
  3.5736582977458048E-01 a      1158     1     3     2    18
 -3.4843350965803205E-01 a      1159     1     3     2    19
 -4.2542294275118181E-01 a      1160     1     3     2    20
 -4.0500636043343557E-01 a      1161     1     4     2     1
 -6.5327582660286065E-01 a      1162     1     4     2     2
  2.0249564112832361E-01 a      1163     1     4     2     3
 -6.1081583625247726E-01 a      1164     1     4     2     4
  9.9289062651572502E-02 a      1165     1     4     2     5
  6.2419219901581413E-01 a      1166     1     4     2     6
 -2.0571403798858420E-01 a      1167     1     4     2     7
  2.3302040450117642E-01 a      1168     1     4     2     8
 -3.6913157969809485E-01 a      1169     1     4     2     9
  6.1426837603572169E-02 a      1170     1     4     2    10
  2.8523456829358890E-01 a      1171     1     4     2    11
  6.5866253586565476E-02 a      1172     1     4     2    12
  5.2854863227595528E-01 a      1173     1     4     2    13
  7.1840723240589599E-03 a      1174     1     4     2    14
  5.7309737013434148E-01 a      1175     1     4     2    15
 -6.0376717726159601E-01 a      1176     1     4     2    16
 -5.0389580922481236E-01 a      1177     1     4     2    17
 -4.1229968409207562E-01 a      1178     1     4     2    18
 -7.2082617583032071E-01 a      1179     1     4     2    19
 -8.6356758881055290E-02 a      1180     1     4     2    20
 -6.1209374572794517E-01 a      1181     1     5     2     1
 -2.6005317944794426E-01 a      1182     1     5     2     2
  1.6802933457465821E-01 a      1183     1     5     2     3
  4.3161626453311602E-01 a      1184     1     5     2     4
  2.3784610506386983E-01 a      1185     1     5     2     5
 -4.5997883558777397E-01 a      1186     1     5     2     6
 -1.1018116423837450E-01 a      1187     1     5     2     7
 -2.3410699143126181E-03 a      1188     1     5     2     8
 -4.4061317117391852E-01 a      1189     1     5     2     9
  2.3374391238267227E-02 a      1190     1     5     2    10
 -1.5315551313431308E-01 a      1191     1     5     2    11
 -5.3766837587107508E-01 a      1192     1     5     2    12
 -3.4525982216549295E-01 a      1193     1     5     2    13
 -2.5351152074008371E-02 a      1194     1     5     2    14
  6.8525019211310545E-02 a      1195     1     5     2    15
 -1.9672662696584539E-01 a      1196     1     5     2    16
 -5.0420554745286073E-01 a      1197     1     5     2    17
 -1.0817067060420134E-01 a      1198     1     5     2    18
 -9.7834993342429677E-02 a      1199     1     5     2    19
 -3.6723690351713445E-01 a      1200     1     5     2    20
  2.9045023262621841E-02 a      1201     1     6     2     1
  5.9341928427433732E-01 a      1202     1     6     2     2
  5.7312663508204159E-02 a      1203     1     6     2     3
 -5.1547799026306618E-01 a      1204     1     6     2     4
  2.7721614569111697E-01 a      1205     1     6     2     5
  1.9502580126282335E-01 a      1206     1     6     2     6
 -3.5898814589720368E-01 a      1207     1     6     2     7
  1.9018254552112487E-01 a      1208     1     6     2     8
 -4.9293560337298853E-01 a      1209     1     6     2     9
  3.6685321747137856E-01 a      1210     1     6     2    10
 -6.7376212661479162E-01 a      1211     1     6     2    11
  7.0799568872277743E-02 a      1212     1     6     2    12
 -3.1998904120068805E-01 a      1213     1     6     2    13
 -4.0356638787060212E-01 a      1214     1     6     2    14
 -4.7508761961216844E-01 a      1215     1     6     2    15
 -5.5985321069105176E-01 a      1216     1     6     2    16
  1.9895004765514149E-01 a      1217     1     6     2    17
 -4.1976841697717127E-01 a      1218     1     6     2    18
 -2.9613052956945196E-01 a      1219     1     6     2    19
 -4.4136648685425724E-02 a      1220     1     6     2    20
 -4.2218337607291254E-02 a      1221     1     7     2     1
  3.5440399713340037E-01 a      1222     1     7     2     2
 -2.6182876837403085E-01 a      1223     1     7     2     3
 -3.4458698788743441E-01 a      1224     1     7     2     4
  1.6452659787317500E-01 a      1225     1     7     2     5
 -3.3741144206163298E-01 a      1226     1     7     2     6
  5.6817439099997158E-01 a      1227     1     7     2     7
 -1.3967401183924458E-01 a      1228     1     7     2     8
  3.8533354510440032E-01 a      1229     1     7     2     9
  1.9648325349267748E-01 a      1230     1     7     2    10
  2.4381066223926287E-01 a      1231     1     7     2    11
 -2.9892023568592530E-01 a      1232     1     7     2    12
 -4.1241678728543457E-01 a      1233     1     7     2    13
  2.0245994811213167E-01 a      1234     1     7     2    14
 -8.1594454701022578E-01 a      1235     1     7     2    15
  3.9318512294822011E-01 a      1236     1     7     2    16
 -2.4222777896545908E-01 a      1237     1     7     2    17
  1.0772977510986533E-01 a      1238     1     7     2    18
  2.4942755258219723E-01 a      1239     1     7     2    19
 -1.8572343720414661E-01 a      1240     1     7     2    20
  5.2754969526630191E-01 a      1241     1     8     2     1
  2.3307341676903076E-01 a      1242     1     8     2     2
  5.0149247351905213E-01 a      1243     1     8     2     3
  2.3140853401662492E-01 a      1244     1     8     2     4
  7.6042234676377496E-01 a      1245     1     8     2     5
  5.6328722755597738E-01 a      1246     1     8     2     6
  7.1433357582106463E-02 a      1247     1     8     2     7
  5.4278932520256762E-01 a      1248     1     8     2     8
 -1.6144429767678126E-01 a      1249     1     8     2     9
  2.6693116498151387E-01 a      1250     1     8     2    10
 -8.8403437312110908E-02 a      1251     1     8     2    11
  2.0398764780260073E-01 a      1252     1     8     2    12
  1.9981297890265406E-01 a      1253     1     8     2    13
  3.6901093456712254E-02 a      1254     1     8     2    14
 -8.6826664162444245E-01 a      1255     1     8     2    15
  6.4337616055771074E-01 a      1256     1     8     2    16
 -1.2751441752655468E-01 a      1257     1     8     2    17
  4.6990022085904318E-02 a      1258     1     8     2    18
  3.3230264221215761E-01 a      1259     1     8     2    19
  5.1629964512649318E-01 a      1260     1     8     2    20
 -2.5650132827428576E-02 a      1261     1     9     2     1
  1.7606748688896742E-01 a      1262     1     9     2     2
  5.1101771244655936E-01 a      1263     1     9     2     3
 -4.6153781046066106E-01 a      1264     1     9     2     4
  5.1763023690648291E-01 a      1265     1     9     2     5
 -8.5033803012002285E-01 a      1266     1     9     2     6
 -7.5923240535880376E-01 a      1267     1     9     2     7
  3.0880327872769142E-01 a      1268     1     9     2     8
  5.9462146539493621E-01 a      1269     1     9     2     9
  4.5722849579124408E-01 a      1270     1     9     2    10
 -5.4597775158662387E-01 a      1271     1     9     2    11
 -4.1536237544750665E-01 a      1272     1     9     2    12
 -5.0433091944231149E-03 a      1273     1     9     2    13
 -5.2605897752839681E-01 a      1274     1     9     2    14
  6.1475662518412182E-02 a      1275     1     9     2    15
 -2.4645370778221487E-01 a      1276     1     9     2    16
  1.5138645595640174E-01 a      1277     1     9     2    17
 -4.0735733727624235E-01 a      1278     1     9     2    18
  2.6344572294460432E-02 a      1279     1     9     2    19
  3.2341596945204465E-01 a      1280     1     9     2    20
 -7.1118670180927845E-01 a      1281     1    10     2     1
 -4.8964015158348068E-01 a      1282     1    10     2     2
 -2.1521318097983050E-01 a      1283     1    10     2     3
  5.8752802620208155E-01 a      1284     1    10     2     4
  5.3563075522543246E-01 a      1285     1    10     2     5
 -1.5328663183003360E-01 a      1286     1    10     2     6
 -3.7018099086224682E-01 a      1287     1    10     2     7
  5.4844077439596561E-01 a      1288     1    10     2     8
 -5.6814354117458410E-01 a      1289     1    10     2     9
 -2.0031793832484920E-01 a      1290     1    10     2    10
  6.0081647317328557E-01 a      1291     1    10     2    11
 -5.6023207981257173E-01 a      1292     1    10     2    12
  3.1793722880762421E-01 a      1293     1    10     2    13
 -7.4754913543828594E-01 a      1294     1    10     2    14
  3.6160153965312575E-01 a      1295     1    10     2    15
  1.0347155540983533E-01 a      1296     1    10     2    16
 -4.9496335064755376E-01 a      1297     1    10     2    17
 -4.3206645602991367E-01 a      1298     1    10     2    18
  3.4815954757800011E-01 a      1299     1    10     2    19
 -5.0816164885120629E-01 a      1300     1    10     2    20
  5.1527481370801809E-01 a      1301     1    11     2     1
  5.4084771522543884E-01 a      1302     1    11     2     2
  5.6439470568900141E-01 a      1303     1    11     2     3
  1.5663344338386004E-01 a      1304     1    11     2     4
  5.8845400877526932E-01 a      1305     1    11     2     5
  1.8249225156223742E-01 a      1306     1    11     2     6
 -5.0453837291359671E-01 a      1307     1    11     2     7
  6.2222473431683012E-01 a      1308     1    11     2     8
  1.5127128130565137E-01 a      1309     1    11     2     9
 -3.7160549570369078E-01 a      1310     1    11     2    10
  7.5312391588978886E-02 a      1311     1    11     2    11
 -3.2312804696976982E-01 a      1312     1    11     2    12
 -7.1133337275864983E-01 a      1313     1    11     2    13
 -8.9998697270910355E-01 a      1314     1    11     2    14
 -4.2347644318233252E-01 a      1315     1    11     2    15
 -4.0491920517743030E-01 a      1316     1    11     2    16
  3.9879843016189531E-01 a      1317     1    11     2    17
 -5.6290309916049397E-01 a      1318     1    11     2    18
 -7.2513271349086450E-01 a      1319     1    11     2    19
 -1.6312681006990629E-01 a      1320     1    11     2    20
  3.3918669756022563E-01 a      1321     1    12     2     1
  4.8779246797776377E-01 a      1322     1    12     2     2
  3.3101189887273519E-01 a      1323     1    12     2     3
  3.7321875494032999E-02 a      1324     1    12     2     4
 -2.3926645077200426E-01 a      1325     1    12     2     5
 -2.8762216434320798E-01 a      1326     1    12     2     6
 -7.1242025835375944E-01 a      1327     1    12     2     7
  3.1875508217551751E-01 a      1328     1    12     2     8
 -2.9630725774812888E-01 a      1329     1    12     2     9
 -2.1588752360431235E-01 a      1330     1    12     2    10
 -1.2774440122695743E-01 a      1331     1    12     2    11
  3.4070796352586079E-02 a      1332     1    12     2    12
  4.8698189461440056E-02 a      1333     1    12     2    13
  2.7744098635885095E-01 a      1334     1    12     2    14
  6.5713852104362802E-01 a      1335     1    12     2    15
  5.7094554825555643E-01 a      1336     1    12     2    16
  2.8122065539994434E-01 a      1337     1    12     2    17
  1.7258969726834947E-01 a      1338     1    12     2    18
 -3.6760760343058624E-01 a      1339     1    12     2    19
  6.2196398422136083E-02 a      1340     1    12     2    20
 -6.0086380804536477E-01 a      1341     1    13     2     1
  9.8027510784895917E-03 a      1342     1    13     2     2
  3.6943073166487822E-01 a      1343     1    13     2     3
  1.9054364649812178E-01 a      1344     1    13     2     4
 -8.7465022960023828E-02 a      1345     1    13     2     5
 -2.4709156792997861E-01 a      1346     1    13     2     6
 -3.7122670797113355E-01 a      1347     1    13     2     7
  5.9896195720622207E-02 a      1348     1    13     2     8
 -2.5117977649658646E-01 a      1349     1    13     2     9
  3.2252092351422912E-01 a      1350     1    13     2    10
 -7.0883866660787775E-01 a      1351     1    13     2    11
 -4.8255048705801384E-01 a      1352     1    13     2    12
 -3.7889007437843666E-02 a      1353     1    13     2    13
  3.1663896523060620E-02 a      1354     1    13     2    14
 -8.5158346603441154E-02 a      1355     1    13     2    15
 -5.5402671409638971E-01 a      1356     1    13     2    16
  1.7260651442854280E-01 a      1357     1    13     2    17
 -1.7966443335477711E-01 a      1358     1    13     2    18
 -1.3703016682468477E-01 a      1359     1    13     2    19
 -6.2388703325403783E-01 a      1360     1    13     2    20
 -6.3847174385523023E-02 a      1361     1    14     2     1
 -2.0826569113258971E-02 a      1362     1    14     2     2
  7.0405700823261114E-02 a      1363     1    14     2     3
 -4.7950071547976775E-01 a      1364     1    14     2     4
  4.0805844802423402E-01 a      1365     1    14     2     5
  7.2180523054033030E-01 a      1366     1    14     2     6
 -4.0237288829154222E-01 a      1367     1    14     2     7
  1.1173212388792531E-01 a      1368     1    14     2     8
 -4.3620082543806121E-01 a      1369     1    14     2     9
 -3.2224355179644532E-01 a      1370     1    14     2    10
  4.4090877846304621E-01 a      1371     1    14     2    11
  2.1508994788483782E-01 a      1372     1    14     2    12
 -2.1099172046873635E-01 a      1373     1    14     2    13
  4.9901598232368533E-01 a      1374     1    14     2    14
 -6.7843369109455753E-01 a      1375     1    14     2    15
  1.6778773943463510E-01 a      1376     1    14     2    16
 -4.6258699563393391E-01 a      1377     1    14     2    17
 -3.4645767340910148E-02 a      1378     1    14     2    18
  4.8064068694018608E-02 a      1379     1    14     2    19
  5.3923216265618312E-01 a      1380     1    14     2    20
  1.6102970808656958E-01 a      1381     1    15     2     1
 -5.2102400691478568E-01 a      1382     1    15     2     2
 -4.3651821082287434E-01 a      1383     1    15     2     3
  5.0916520542400334E-01 a      1384     1    15     2     4
 -4.2785139474591127E-01 a      1385     1    15     2     5
  3.5248854727794238E-01 a      1386     1    15     2     6
  2.8883150814453434E-01 a      1387     1    15     2     7
 -3.7007858995079584E-01 a      1388     1    15     2     8
 -1.5419755700664975E-01 a      1389     1    15     2     9
 -5.0199784264077363E-01 a      1390     1    15     2    10
 -3.7600963169312779E-01 a      1391     1    15     2    11
 -5.4331301116125519E-01 a      1392     1    15     2    12
  5.4104425786713872E-01 a      1393     1    15     2    13
 -5.5153256746741916E-02 a      1394     1    15     2    14
  5.4034484990687082E-01 a      1395     1    15     2    15
  3.7807159231712317E-01 a      1396     1    15     2    16
 -1.7834251882635796E-01 a      1397     1    15     2    17
  6.3404567789893429E-01 a      1398     1    15     2    18
 -5.5652871878068233E-01 a      1399     1    15     2    19
 -7.4516143741855301E-01 a      1400     1    15     2    20
 -6.3158594123585976E-01 a      1401     1    16     2     1
  7.1046665675382051E-02 a      1402     1    16     2     2
 -4.2079554314101986E-01 a      1403     1    16     2     3
  6.6887785065222083E-01 a      1404     1    16     2     4
 -1.6342988895853441E-01 a      1405     1    16     2     5
  5.4590265773086588E-01 a      1406     1    16     2     6
 -4.1607470884078934E-01 a      1407     1    16     2     7
 -2.9348164716162123E-01 a      1408     1    16     2     8
 -4.4756129256063099E-01 a      1409     1    16     2     9
  1.9218017409670174E-01 a      1410     1    16     2    10
  3.8439949337782553E-01 a      1411     1    16     2    11
 -5.6493200902556592E-02 a      1412     1    16     2    12
 -5.2080783465694269E-01 a      1413     1    16     2    13
  2.1445023000421931E-01 a      1414     1    16     2    14
  8.3952389803550784E-02 a      1415     1    16     2    15
 -8.8700454352367189E-02 a      1416     1    16     2    16
  1.2238004472819605E-01 a      1417     1    16     2    17
  3.2133606285309574E-01 a      1418     1    16     2    18
  4.2542792623862080E-01 a      1419     1    16     2    19
 -2.7535090641951993E-01 a      1420     1    16     2    20
 -5.5911595902679256E-01 a      1421     1    17     2     1
  1.9524537884327919E-01 a      1422     1    17     2     2
  1.1342276139581027E-01 a      1423     1    17     2     3
 -3.2636901721865813E-01 a      1424     1    17     2     4
 -4.2784628935473473E-01 a      1425     1    17     2     5
 -1.5830573046881766E-01 a      1426     1    17     2     6
  2.0621369191784567E-01 a      1427     1    17     2     7
  6.2388210001846134E-01 a      1428     1    17     2     8
 -6.6191425203204446E-01 a      1429     1    17     2     9
  6.1679766803043579E-01 a      1430     1    17     2    10
  7.4639738266005162E-01 a      1431     1    17     2    11
 -2.5961709630802260E-01 a      1432     1    17     2    12
 -1.9789648975303273E-01 a      1433     1    17     2    13
 -5.3005011095314980E-01 a      1434     1    17     2    14
 -1.1961048384653863E-01 a      1435     1    17     2    15
  1.4636179901625487E-01 a      1436     1    17     2    16
 -3.6872185841035615E-01 a      1437     1    17     2    17
 -1.2067852033292176E-01 a      1438     1    17     2    18
  3.0481893957971801E-01 a      1439     1    17     2    19
 -4.0473079753731139E-01 a      1440     1    17     2    20
 -1.3879589639798601E-01 a      1441     1    18     2     1
 -7.2813762162033957E-01 a      1442     1    18     2     2
  8.7949828881781367E-01 a      1443     1    18     2     3
 -6.1113078910849572E-01 a      1444     1    18     2     4
 -2.5775342309600319E-01 a      1445     1    18     2     5
 -4.4169324246483971E-01 a      1446     1    18     2     6
  8.7718622310894445E-01 a      1447     1    18     2     7
 -2.1761483457702147E-01 a      1448     1    18     2     8
 -5.4920981680332481E-01 a      1449     1    18     2     9
 -4.5666358500126275E-01 a      1450     1    18     2    10
  7.4799963246999668E-01 a      1451     1    18     2    11
  6.0562210861915622E-01 a      1452     1    18     2    12
  3.7689966762481281E-01 a      1453     1    18     2    13
  1.8818342993504383E-01 a      1454     1    18     2    14
  5.3421241826100907E-01 a      1455     1    18     2    15
 -3.9268830430512941E-01 a      1456     1    18     2    16
 -4.2430748866094076E-01 a      1457     1    18     2    17
 -8.0718210677594948E-01 a      1458     1    18     2    18
 -2.6225464459873155E-01 a      1459     1    18     2    19
  2.7592678725769804E-01 a      1460     1    18     2    20
 -5.5538161390078326E-02 a      1461     1    19     2     1
  5.1691903948174234E-01 a      1462     1    19     2     2
 -6.9915277168659784E-01 a      1463     1    19     2     3
  1.6247746566994964E-01 a      1464     1    19     2     4
  6.5286828419648424E-01 a      1465     1    19     2     5
 -2.3490995175651738E-03 a      1466     1    19     2     6
  2.0118462525289971E-01 a      1467     1    19     2     7
 -1.1200329225647851E-01 a      1468     1    19     2     8
  2.4182751147091774E-01 a      1469     1    19     2     9
  1.0120792115469872E+00 a      1470     1    19     2    10
  7.7967565409433726E-02 a      1471     1    19     2    11
  2.0258394288189627E-01 a      1472     1    19     2    12
  1.9038146148582702E-01 a      1473     1    19     2    13
  7.3836222040646063E-02 a      1474     1    19     2    14
 -1.1860680862896734E-01 a      1475     1    19     2    15
 -4.7653173523504171E-02 a      1476     1    19     2    16
 -7.5469164796050592E-01 a      1477     1    19     2    17
 -4.9938041430973412E-02 a      1478     1    19     2    18
  9.6093852089768250E-01 a      1479     1    19     2    19
 -5.0751252136467397E-02 a      1480     1    19     2    20
 -1.5380097523434394E-01 a      1481     1    20     2     1
 -3.9327380941738405E-02 a      1482     1    20     2     2
  2.0547724020015903E-01 a      1483     1    20     2     3
  1.6228133739747724E-01 a      1484     1    20     2     4
 -2.4615786810741119E-01 a      1485     1    20     2     5
 -3.2875191327510483E-01 a      1486     1    20     2     6
  2.6197858628323167E-01 a      1487     1    20     2     7
  4.8851807314976020E-01 a      1488     1    20     2     8
  5.2599702761371137E-01 a      1489     1    20     2     9
  2.4046541049028911E-01 a      1490     1    20     2    10
 -8.7385812546975783E-01 a      1491     1    20     2    11
  3.7440808491609118E-01 a      1492     1    20     2    12
 -1.4484589933175873E-01 a      1493     1    20     2    13
  5.0044182221160238E-01 a      1494     1    20     2    14
 -3.1068298578650977E-01 a      1495     1    20     2    15
  4.6643785996739062E-01 a      1496     1    20     2    16
  3.9025221558798917E-01 a      1497     1    20     2    17
  8.8806196338302779E-02 a      1498     1    20     2    18
 -3.7640718439935120E-02 a      1499     1    20     2    19
 -5.9374104172769027E-01 a      1500     1    20     2    20
 -8.4247430951721847E-01 b      1501     2     1
  6.2554656306683398E-01 b      1502     2     2
  1.8754834392792877E-01 b      1503     2     3
  4.8059657998825506E-01 b      1504     2     4
  4.8089944018136169E-02 b      1505     2     5
  1.7628238420264974E-01 b      1506     2     6
  1.5395103928103109E+00 b      1507     2     7
  7.5108939724675394E-01 b      1508     2     8
  2.3764297415029886E-01 b      1509     2     9
 -1.0665461318991312E+00 b      1510     2    10
 -4.3376088179082273E-01 b      1511     2    11
 -9.0458002182734398E-01 b      1512     2    12
 -9.0221979827123799E-01 b      1513     2    13
  7.9333258169666387E-01 b      1514     2    14
 -1.6206834782602375E+00 b      1515     2    15
  2.2592709120792587E-01 b      1516     2    16
  8.1909339827273631E-01 b      1517     2    17
  7.9840960074277245E-01 b      1518     2    18
  3.5042852914975059E-01 b      1519     2    19
 -3.3711933156615081E-01 b      1520     2    20
 -3.1468569752535824E-01 a      1521     2     1     3     1
  9.0065643305614063E-01 a      1522     2     2     3     1
 -1.5110670715302985E-01 a      1523     2     3     3     1
  5.8253407458219930E-01 a      1524     2     4     3     1
 -7.8507591188591885E-01 a      1525     2     5     3     1
 -2.3404359523639312E-01 a      1526     2     6     3     1
 -6.8715342673890922E-01 a      1527     2     7     3     1
  8.1253521258814720E-01 a      1528     2     8     3     1
 -9.4754822122024618E-01 a      1529     2     9     3     1
 -6.5895858433051668E-01 a      1530     2    10     3     1
  2.7919241730383537E-01 a      1531     2    11     3     1
  6.7872391413344082E-03 a      1532     2    12     3     1
  8.2207437069850786E-01 a      1533     2    13     3     1
  4.0138072723294782E-01 a      1534     2    14     3     1
 -3.7560084745495420E-01 a      1535     2    15     3     1
 -5.8321645215945295E-01 a      1536     2    16     3     1
 -6.1978998491485060E-01 a      1537     2    17     3     1
  5.9277743398911620E-01 a      1538     2    18     3     1
 -7.2986651091376242E-01 a      1539     2    19     3     1
  1.0228673423622223E+00 a      1540     2    20     3     1
  2.3907342262816139E-01 b      1541     3     1
