################################################################################
# Neural network connection values (weights and biases).
################################################################################
# Col  Name       Description
################################################################################
# 1    connection Neural network connection value.
# 2    t          Connection type (a = weight, b = bias).
# 3    index      Index enumerating weights.
# 4    l_s        Starting point layer (end point layer for biases).
# 5    n_s        Starting point neuron in starting layer (end point neuron for biases).
# 6    l_e        End point layer.
# 7    n_e        End point neuron in end layer.
################################################################################
#                      1 2         3     4     5     6     7
#             connection t     index   l_s   n_s   l_e   n_e
############################################################
  3.3526552451687902E-01 a         1     0     1     1     1
  3.0333519905952955E-01 a         2     0     1     1     2
 -1.4881095935497022E-02 a         3     0     1     1     3
 -4.9181609216611313E-02 a         4     0     1     1     4
  6.9824586092910423E-01 a         5     0     1     1     5
  1.2796318553915667E-01 a         6     0     1     1     6
 -2.0000388406833441E-01 a         7     0     1     1     7
 -5.9372668071372792E-01 a         8     0     1     1     8
  5.0322842032546589E-01 a         9     0     1     1     9
  2.3277860283149882E-01 a        10     0     1     1    10
 -7.4801598805987135E-02 a        11     0     1     1    11
  2.2462460760048192E-01 a        12     0     1     1    12
 -1.2802698644452268E-01 a        13     0     1     1    13
 -2.0564663477063949E-01 a        14     0     1     1    14
  1.6714534894544344E-01 a        15     0     1     1    15
  6.9862583835388625E-01 a        16     0     1     1    16
 -1.4347380783153385E-01 a        17     0     1     1    17
 -2.1189073311578469E-01 a        18     0     1     1    18
  6.2420016971250047E-02 a        19     0     1     1    19
 -3.2209350360995431E-01 a        20     0     1     1    20
 -1.8887775157669048E-01 a        21     0     2     1     1
 -5.6525225478875347E-02 a        22     0     2     1     2
  2.6782393980086505E-01 a        23     0     2     1     3
 -9.2917020795085681E-02 a        24     0     2     1     4
 -8.9201439592175483E-02 a        25     0     2     1     5
 -1.7439743457053444E-02 a        26     0     2     1     6
  9.0225638430233152E-02 a        27     0     2     1     7
  2.0698272500316481E-01 a        28     0     2     1     8
  8.3682106449964183E-02 a        29     0     2     1     9
  1.0702245301523311E-01 a        30     0     2     1    10
  1.7711438195834623E-03 a        31     0     2     1    11
  7.7361412745274666E-02 a        32     0     2     1    12
  5.3913076376729235E-02 a        33     0     2     1    13
 -1.0134642200375645E-01 a        34     0     2     1    14
  2.3412696097448834E-02 a        35     0     2     1    15
  1.2105265749210894E-01 a        36     0     2     1    16
  2.8897988733447161E-01 a        37     0     2     1    17
  7.3298592964807077E-02 a        38     0     2     1    18
 -1.0051473882987220E-02 a        39     0     2     1    19
  1.1978402760940919E-02 a        40     0     2     1    20
  3.4451816576722744E-01 a        41     0     3     1     1
  5.8577230023945182E-01 a        42     0     3     1     2
  6.5221499719893805E-01 a        43     0     3     1     3
  3.6937953496974679E-01 a        44     0     3     1     4
 -6.0595323843492047E-02 a        45     0     3     1     5
 -2.0768433943781521E-02 a        46     0     3     1     6
 -5.2840102454297622E-01 a        47     0     3     1     7
 -7.4419409318134544E-01 a        48     0     3     1     8
  2.1992217838998776E-01 a        49     0     3     1     9
  2.7938128842491128E-01 a        50     0     3     1    10
 -3.3003526982445699E-02 a        51     0     3     1    11
 -2.6521232757910834E-01 a        52     0     3     1    12
  2.9388059142777145E-01 a        53     0     3     1    13
  1.5920291780724807E-01 a        54     0     3     1    14
  5.1820313238578788E-02 a        55     0     3     1    15
 -3.8277550553992912E-01 a        56     0     3     1    16
  3.0754465132655045E-02 a        57     0     3     1    17
 -3.0922793008655969E-01 a        58     0     3     1    18
 -3.4867267780462446E-01 a        59     0     3     1    19
 -7.4136422706197269E-01 a        60     0     3     1    20
  3.3600023841101034E-01 a        61     0     4     1     1
  1.6043443645630809E-01 a        62     0     4     1     2
  1.3828333596492137E-01 a        63     0     4     1     3
  9.9737431369874155E-04 a        64     0     4     1     4
  7.4785071526753211E-01 a        65     0     4     1     5
 -1.0039118975066719E-01 a        66     0     4     1     6
 -1.7203602975745644E+00 a        67     0     4     1     7
 -6.0939488446817874E-02 a        68     0     4     1     8
 -7.7816114186502050E-01 a        69     0     4     1     9
 -7.3560802660060015E-02 a        70     0     4     1    10
  4.3636916601242012E-02 a        71     0     4     1    11
 -5.1544559320902232E-03 a        72     0     4     1    12
  4.4760461822828912E-01 a        73     0     4     1    13
 -5.4126642889789245E-01 a        74     0     4     1    14
  2.7290039850015940E-01 a        75     0     4     1    15
 -5.1899123219529342E-01 a        76     0     4     1    16
  6.5076027296441441E-01 a        77     0     4     1    17
  6.4198879407267248E-02 a        78     0     4     1    18
  3.0093445050172846E-01 a        79     0     4     1    19
  3.6720661407248223E-01 a        80     0     4     1    20
  7.3519040104991620E-02 a        81     0     5     1     1
 -1.5245295390343092E-01 a        82     0     5     1     2
 -9.6633212105978958E-02 a        83     0     5     1     3
  4.7623852390316711E-02 a        84     0     5     1     4
  3.2857542888417746E-01 a        85     0     5     1     5
 -4.2374427770598655E-01 a        86     0     5     1     6
  9.9051732957147910E-03 a        87     0     5     1     7
 -1.7569856242665713E-01 a        88     0     5     1     8
 -3.1355898961190198E-01 a        89     0     5     1     9
  1.6039785509221272E-01 a        90     0     5     1    10
  2.3262600940216238E-01 a        91     0     5     1    11
  3.5189936868386521E-03 a        92     0     5     1    12
 -5.9054795586094166E-02 a        93     0     5     1    13
 -2.4029609903457960E-01 a        94     0     5     1    14
  5.3740812333711446E-02 a        95     0     5     1    15
 -1.8569173996749325E-01 a        96     0     5     1    16
 -1.6809218819162380E-01 a        97     0     5     1    17
 -4.7722928389408542E-01 a        98     0     5     1    18
 -6.3697026540782714E-02 a        99     0     5     1    19
 -2.0915016204506359E-01 a       100     0     5     1    20
 -5.5232361113900519E-01 a       101     0     6     1     1
 -3.1017725885207242E-01 a       102     0     6     1     2
  2.5806022910196258E-01 a       103     0     6     1     3
  1.9177918946579658E-01 a       104     0     6     1     4
  5.4645603633653794E-01 a       105     0     6     1     5
 -3.7588326954042950E-01 a       106     0     6     1     6
  3.0467440379577826E-02 a       107     0     6     1     7
  2.6096258899639402E-01 a       108     0     6     1     8
 -5.6879284670896146E-01 a       109     0     6     1     9
 -1.0292735803448270E+00 a       110     0     6     1    10
  2.4524081417681950E-01 a       111     0     6     1    11
 -2.1107016365460080E-01 a       112     0     6     1    12
 -5.0991054441760120E-01 a       113     0     6     1    13
  8.7842398257724462E-03 a       114     0     6     1    14
  1.1973909096307135E-01 a       115     0     6     1    15
 -2.5964941717962642E-01 a       116     0     6     1    16
 -4.4937978292438258E-01 a       117     0     6     1    17
  1.1169071864867972E-01 a       118     0     6     1    18
  6.4770809466613954E-01 a       119     0     6     1    19
  1.7612569130033917E-01 a       120     0     6     1    20
  1.3869466572509670E-01 a       121     0     7     1     1
 -2.9829756758038428E-01 a       122     0     7     1     2
 -4.9316879060931818E-01 a       123     0     7     1     3
  1.6701847836466044E-01 a       124     0     7     1     4
 -1.6098771618467280E+00 a       125     0     7     1     5
 -5.9716734149763702E-02 a       126     0     7     1     6
  4.2608224877181722E-01 a       127     0     7     1     7
 -4.3757072166523650E-02 a       128     0     7     1     8
  4.6412614707276806E-01 a       129     0     7     1     9
  2.7209772982050867E-01 a       130     0     7     1    10
 -1.4760435065211283E-01 a       131     0     7     1    11
 -1.3840330555909391E-01 a       132     0     7     1    12
 -4.1346735443135302E-01 a       133     0     7     1    13
  5.2516219899064874E-02 a       134     0     7     1    14
  3.1061398466123025E-01 a       135     0     7     1    15
  5.3919841663870161E-01 a       136     0     7     1    16
 -1.4499945574317394E-01 a       137     0     7     1    17
 -3.2086735234909042E-02 a       138     0     7     1    18
 -6.6523143299641818E-01 a       139     0     7     1    19
 -6.7849780167936036E-01 a       140     0     7     1    20
  6.9905870999625891E-02 a       141     0     8     1     1
 -1.8189276876670257E-01 a       142     0     8     1     2
 -1.5579013928274899E-01 a       143     0     8     1     3
  2.4504985318760719E-01 a       144     0     8     1     4
 -2.3107925586951291E-02 a       145     0     8     1     5
 -6.6041106891519874E-02 a       146     0     8     1     6
  2.0611635516140839E-01 a       147     0     8     1     7
 -1.6979379948463746E-01 a       148     0     8     1     8
  2.8234544266089262E-01 a       149     0     8     1     9
  2.5859833803730292E-01 a       150     0     8     1    10
 -7.4655980567462463E-02 a       151     0     8     1    11
 -1.7416513257033661E-01 a       152     0     8     1    12
  4.3035156259852041E-02 a       153     0     8     1    13
  1.4639260487386785E-01 a       154     0     8     1    14
  2.9836939084619851E-01 a       155     0     8     1    15
  1.1457882760725291E-01 a       156     0     8     1    16
 -9.4396318730270337E-02 a       157     0     8     1    17
  5.7543566837165827E-02 a       158     0     8     1    18
  3.1979691384041881E-01 a       159     0     8     1    19
  7.7399834919326199E-02 a       160     0     8     1    20
  7.9553771119809796E-02 a       161     0     9     1     1
 -2.9016686721712998E-01 a       162     0     9     1     2
  4.2116130458639434E-02 a       163     0     9     1     3
  1.7945966727365953E-01 a       164     0     9     1     4
  1.8366127025033066E-01 a       165     0     9     1     5
 -4.0824122396670920E-01 a       166     0     9     1     6
  1.5763370902905643E-01 a       167     0     9     1     7
 -6.3371283480744511E-01 a       168     0     9     1     8
  2.1337510392041356E-01 a       169     0     9     1     9
 -5.2902449818184101E-02 a       170     0     9     1    10
  6.5123220512728480E-02 a       171     0     9     1    11
 -2.0281287803791959E-01 a       172     0     9     1    12
 -5.0726273203491723E-01 a       173     0     9     1    13
  3.3456154059367971E-01 a       174     0     9     1    14
  1.2599639969413134E-01 a       175     0     9     1    15
 -1.6075549734996922E-01 a       176     0     9     1    16
 -6.3809858907873787E-02 a       177     0     9     1    17
 -1.4093142495048172E-01 a       178     0     9     1    18
  1.7634996176347539E-01 a       179     0     9     1    19
 -2.4752637637334490E-01 a       180     0     9     1    20
  4.6085094158547411E-02 a       181     0    10     1     1
  3.9105135044947109E-01 a       182     0    10     1     2
  3.6430520078151629E-01 a       183     0    10     1     3
 -3.9832391897988545E-01 a       184     0    10     1     4
  1.0601752043070327E+00 a       185     0    10     1     5
  1.8464669527581251E-01 a       186     0    10     1     6
 -6.2097633117725308E-02 a       187     0    10     1     7
 -2.4183795346138692E-01 a       188     0    10     1     8
 -3.6931292837629826E-01 a       189     0    10     1     9
  4.2096104608289425E-01 a       190     0    10     1    10
 -4.7648619269186447E-02 a       191     0    10     1    11
  2.6025149178186469E-01 a       192     0    10     1    12
  5.0335885680216697E-01 a       193     0    10     1    13
 -3.0735661912373996E-01 a       194     0    10     1    14
  7.1033489888826851E-01 a       195     0    10     1    15
  2.4071441067103649E-01 a       196     0    10     1    16
  3.6768939087427316E-02 a       197     0    10     1    17
 -4.0625157566948228E-01 a       198     0    10     1    18
  6.2373848551759659E-01 a       199     0    10     1    19
  4.1525755342641918E-01 a       200     0    10     1    20
 -3.7890498921531707E-01 a       201     0    11     1     1
 -1.5296876896728324E-02 a       202     0    11     1     2
 -2.1966760421718171E-01 a       203     0    11     1     3
  1.3734488436477402E-01 a       204     0    11     1     4
 -6.6579205456374926E-02 a       205     0    11     1     5
  6.8211070435010041E-02 a       206     0    11     1     6
 -8.9048162864346428E-02 a       207     0    11     1     7
 -5.5351388139125442E-02 a       208     0    11     1     8
  3.6953679627394459E-02 a       209     0    11     1     9
  1.2704246728372109E-01 a       210     0    11     1    10
  2.1930051947520413E-01 a       211     0    11     1    11
 -7.7503933128183402E-03 a       212     0    11     1    12
 -5.4353470018171132E-02 a       213     0    11     1    13
  1.0838857338818164E-01 a       214     0    11     1    14
  2.1052985700825841E-01 a       215     0    11     1    15
 -1.5959426260787971E-01 a       216     0    11     1    16
  1.6117278206490765E-01 a       217     0    11     1    17
  1.1931078867764665E-01 a       218     0    11     1    18
  4.4356068545488014E-03 a       219     0    11     1    19
 -5.3337481014597676E-02 a       220     0    11     1    20
 -2.7300407247315756E-01 a       221     0    12     1     1
  1.1321051308613710E-01 a       222     0    12     1     2
 -1.0217710137468394E-01 a       223     0    12     1     3
 -2.2888087029666462E-01 a       224     0    12     1     4
  4.9273812885063550E-01 a       225     0    12     1     5
  3.1306110367308121E-01 a       226     0    12     1     6
  4.9296472028863496E-02 a       227     0    12     1     7
  1.4740282516369799E-01 a       228     0    12     1     8
 -4.7650738424313921E-01 a       229     0    12     1     9
 -7.1796445689839880E-02 a       230     0    12     1    10
  1.2401205620864306E-01 a       231     0    12     1    11
 -1.2633583319145006E-01 a       232     0    12     1    12
  7.9415109073855877E-02 a       233     0    12     1    13
  3.4566202621324943E-01 a       234     0    12     1    14
 -4.9750249208087394E-01 a       235     0    12     1    15
 -8.2666735657832863E-02 a       236     0    12     1    16
 -3.2048283166770136E-01 a       237     0    12     1    17
 -2.8020825268638350E-01 a       238     0    12     1    18
 -7.3355227416670443E-03 a       239     0    12     1    19
 -8.0004411459567187E-02 a       240     0    12     1    20
  1.9588805086168828E-01 a       241     0    13     1     1
  4.2933597146509669E-02 a       242     0    13     1     2
 -4.0376852810113906E-01 a       243     0    13     1     3
  3.6140497625667295E-01 a       244     0    13     1     4
 -7.7905510450351656E-01 a       245     0    13     1     5
 -5.5211212978168271E-02 a       246     0    13     1     6
 -4.0023009324360304E-01 a       247     0    13     1     7
 -3.0501103975380178E-01 a       248     0    13     1     8
  1.8230526458530302E-01 a       249     0    13     1     9
 -2.3154219478867102E-02 a       250     0    13     1    10
  1.4430911634738577E-01 a       251     0    13     1    11
 -1.5941143583145451E-01 a       252     0    13     1    12
 -3.5970147613749665E-01 a       253     0    13     1    13
  7.8249271872523445E-03 a       254     0    13     1    14
  2.1021881401227199E-01 a       255     0    13     1    15
  5.2336216489935111E-02 a       256     0    13     1    16
  2.2356639681375085E-01 a       257     0    13     1    17
  1.2180329269632053E-02 a       258     0    13     1    18
 -1.0653961581227106E-01 a       259     0    13     1    19
 -3.0111854473428368E-01 a       260     0    13     1    20
  2.1926634697900976E-01 a       261     0    14     1     1
 -4.5831991219889769E-02 a       262     0    14     1     2
 -9.1074561626087153E-02 a       263     0    14     1     3
 -5.4327743371405827E-02 a       264     0    14     1     4
  5.5983944595034127E-02 a       265     0    14     1     5
  1.4960726522745933E-03 a       266     0    14     1     6
  6.0715567522126521E-03 a       267     0    14     1     7
 -2.5077293040451443E-01 a       268     0    14     1     8
 -1.7197422883618493E-01 a       269     0    14     1     9
  3.2891113624767838E-03 a       270     0    14     1    10
  8.7259606500218037E-02 a       271     0    14     1    11
 -1.6861991348852308E-02 a       272     0    14     1    12
  1.7100886449702243E-01 a       273     0    14     1    13
 -1.8454914305317471E-01 a       274     0    14     1    14
 -3.0000959947824007E-02 a       275     0    14     1    15
 -8.4323594451054334E-02 a       276     0    14     1    16
  1.0443369716555036E-01 a       277     0    14     1    17
 -4.5193224965494105E-02 a       278     0    14     1    18
  1.4201564665037503E-01 a       279     0    14     1    19
 -8.8075099736630649E-02 a       280     0    14     1    20
  1.6767158518459876E-01 a       281     0    15     1     1
 -2.9296808339627628E-01 a       282     0    15     1     2
  1.2899507600759635E-01 a       283     0    15     1     3
  2.9958875172469618E-01 a       284     0    15     1     4
  6.0085720035022612E-02 a       285     0    15     1     5
 -4.7830452448413613E-01 a       286     0    15     1     6
  2.0771913903241515E-01 a       287     0    15     1     7
 -2.6030837713873323E-01 a       288     0    15     1     8
  2.3644746914368131E-01 a       289     0    15     1     9
 -4.1777261964929641E-01 a       290     0    15     1    10
 -1.1376446483865414E-01 a       291     0    15     1    11
 -3.5419410778877343E-02 a       292     0    15     1    12
 -1.4126136111813220E-01 a       293     0    15     1    13
  9.6912021190163095E-02 a       294     0    15     1    14
  1.7758188358213561E-01 a       295     0    15     1    15
 -2.0285139338691371E-01 a       296     0    15     1    16
  3.8680787337072434E-02 a       297     0    15     1    17
  6.0800640249574001E-01 a       298     0    15     1    18
  1.2468515476173733E-01 a       299     0    15     1    19
 -2.5228658138533006E-01 a       300     0    15     1    20
 -2.7045214469044532E-03 a       301     0    16     1     1
  1.3977397308826753E-01 a       302     0    16     1     2
  1.0306164866237602E-01 a       303     0    16     1     3
 -1.8111255100278711E-01 a       304     0    16     1     4
  2.6457254840790317E-01 a       305     0    16     1     5
  2.0745364469383379E-01 a       306     0    16     1     6
  2.1997904396385781E-01 a       307     0    16     1     7
  1.0049726196390382E-01 a       308     0    16     1     8
  1.3498938375409292E-04 a       309     0    16     1     9
  1.2651042332366039E-01 a       310     0    16     1    10
 -9.6147901559518453E-02 a       311     0    16     1    11
  1.6236829611578188E-01 a       312     0    16     1    12
  1.2134837568014151E-01 a       313     0    16     1    13
 -3.7276458365697859E-02 a       314     0    16     1    14
 -2.4124671895161667E-02 a       315     0    16     1    15
  5.7930064897699481E-02 a       316     0    16     1    16
 -3.2272906106026056E-01 a       317     0    16     1    17
 -2.5369087130587376E-01 a       318     0    16     1    18
  4.6351527844772408E-02 a       319     0    16     1    19
  2.8677290279391060E-01 a       320     0    16     1    20
 -1.2151798349579930E-01 a       321     0    17     1     1
 -1.7403451803866202E-01 a       322     0    17     1     2
  3.3262106132090991E-02 a       323     0    17     1     3
  1.3911628357610506E-01 a       324     0    17     1     4
 -6.2928424344979805E-02 a       325     0    17     1     5
 -1.7734708937868482E-01 a       326     0    17     1     6
 -2.1115971747072571E-03 a       327     0    17     1     7
  1.5453303093640849E-01 a       328     0    17     1     8
  1.2478809322663469E-01 a       329     0    17     1     9
 -2.0443616172160121E-02 a       330     0    17     1    10
 -6.5930098136615682E-03 a       331     0    17     1    11
 -4.7507194848054046E-02 a       332     0    17     1    12
 -8.3663046474636585E-02 a       333     0    17     1    13
  3.4878587154899077E-03 a       334     0    17     1    14
  1.6202651425062187E-01 a       335     0    17     1    15
 -2.4353989772228177E-02 a       336     0    17     1    16
  1.4839848681733789E-01 a       337     0    17     1    17
  3.5267823056467980E-02 a       338     0    17     1    18
 -4.2210630778080939E-02 a       339     0    17     1    19
  3.7270232007262698E-02 a       340     0    17     1    20
 -1.9265075932780590E-01 a       341     0    18     1     1
 -3.4263165754439545E-01 a       342     0    18     1     2
 -6.3956551831746117E-02 a       343     0    18     1     3
 -3.6080360662822991E-01 a       344     0    18     1     4
  1.6355712447039675E-01 a       345     0    18     1     5
 -3.8864642072385831E-02 a       346     0    18     1     6
 -2.2551027263486681E-01 a       347     0    18     1     7
  2.6439088793782661E-01 a       348     0    18     1     8
 -2.6213831416238820E-01 a       349     0    18     1     9
  1.7046832920266364E-01 a       350     0    18     1    10
 -2.5419050478533847E-02 a       351     0    18     1    11
 -1.6034355104064191E-01 a       352     0    18     1    12
 -1.3222122583829193E-01 a       353     0    18     1    13
 -1.3660437309314766E-01 a       354     0    18     1    14
 -3.2439178945072578E-01 a       355     0    18     1    15
 -8.5693294337235895E-02 a       356     0    18     1    16
  3.7547280975230607E-02 a       357     0    18     1    17
 -1.9149829013680314E-01 a       358     0    18     1    18
 -4.3773192439363329E-01 a       359     0    18     1    19
 -5.7419929367522160E-02 a       360     0    18     1    20
  7.2749315857374000E-02 a       361     0    19     1     1
  2.9989096740983195E-01 a       362     0    19     1     2
 -8.0544350223801464E-02 a       363     0    19     1     3
  2.0841635691286314E-01 a       364     0    19     1     4
 -7.1568575666493731E-02 a       365     0    19     1     5
  6.6676072039113660E-02 a       366     0    19     1     6
 -1.9150038371622291E-01 a       367     0    19     1     7
 -2.6234582856268424E-01 a       368     0    19     1     8
 -2.5921996818877205E-02 a       369     0    19     1     9
  1.1770886114570516E-02 a       370     0    19     1    10
  2.5305435755492955E-01 a       371     0    19     1    11
 -2.6355002020067696E-02 a       372     0    19     1    12
  4.5298122949758608E-02 a       373     0    19     1    13
  2.2068037817688558E-02 a       374     0    19     1    14
  1.0484823981204465E-01 a       375     0    19     1    15
  6.6730939583624582E-02 a       376     0    19     1    16
  2.5061267147023425E-01 a       377     0    19     1    17
 -1.1122973440909129E-01 a       378     0    19     1    18
  3.2155143089787941E-01 a       379     0    19     1    19
 -6.7827347921414647E-03 a       380     0    19     1    20
  5.2649577161261368E-02 a       381     0    20     1     1
  6.2138094321483511E-02 a       382     0    20     1     2
 -8.6383263119455100E-02 a       383     0    20     1     3
 -1.5207435071588754E-01 a       384     0    20     1     4
  2.4853273604702925E-02 a       385     0    20     1     5
  1.4219887616396959E-01 a       386     0    20     1     6
 -2.1337058921215370E-02 a       387     0    20     1     7
 -1.1006136183029866E-01 a       388     0    20     1     8
 -5.9547204738194671E-02 a       389     0    20     1     9
  7.3464141323490273E-02 a       390     0    20     1    10
 -5.0150177879083567E-02 a       391     0    20     1    11
  3.0643389631517936E-04 a       392     0    20     1    12
  6.4911736727903541E-02 a       393     0    20     1    13
  3.3095575126835579E-02 a       394     0    20     1    14
 -8.6092540155654831E-02 a       395     0    20     1    15
  2.1124895399020759E-02 a       396     0    20     1    16
 -1.2919562447221139E-01 a       397     0    20     1    17
  1.2869610074640783E-01 a       398     0    20     1    18
 -3.9700461183526839E-02 a       399     0    20     1    19
 -9.0626282562065549E-02 a       400     0    20     1    20
  6.0507553570173945E-03 a       401     0    21     1     1
 -1.0097061194349269E-01 a       402     0    21     1     2
  1.1032850176581455E-01 a       403     0    21     1     3
  7.2022038281034720E-02 a       404     0    21     1     4
 -1.1980003563355297E-01 a       405     0    21     1     5
 -1.8338292797550027E-01 a       406     0    21     1     6
  2.6291202577166350E-01 a       407     0    21     1     7
 -6.0620038791040172E-02 a       408     0    21     1     8
  1.4107604343497840E-01 a       409     0    21     1     9
 -1.1767204123455687E-01 a       410     0    21     1    10
 -1.7784693040077990E-01 a       411     0    21     1    11
  2.2156205026760675E-02 a       412     0    21     1    12
  1.3570480918024437E-02 a       413     0    21     1    13
  6.9728232481120161E-04 a       414     0    21     1    14
  1.9037539040865281E-01 a       415     0    21     1    15
  4.5707719583060157E-02 a       416     0    21     1    16
 -2.2580221883374219E-02 a       417     0    21     1    17
  2.8271934384632574E-01 a       418     0    21     1    18
  7.0530659376406318E-02 a       419     0    21     1    19
 -1.8194457583747037E-01 a       420     0    21     1    20
  9.6197020146697995E-02 a       421     0    22     1     1
  1.1830074910395974E-01 a       422     0    22     1     2
  5.5965158276417133E-02 a       423     0    22     1     3
  3.2455584335886051E-02 a       424     0    22     1     4
 -1.3582099966828845E-01 a       425     0    22     1     5
  1.8037269799144248E-01 a       426     0    22     1     6
 -1.0564417980521119E-01 a       427     0    22     1     7
  8.4344924492199005E-02 a       428     0    22     1     8
  2.8503830241580666E-02 a       429     0    22     1     9
 -1.0321065437020448E-01 a       430     0    22     1    10
 -8.0893805631270799E-02 a       431     0    22     1    11
  1.5054985923669242E-01 a       432     0    22     1    12
  1.5567168325087960E-01 a       433     0    22     1    13
 -4.6980660315430717E-02 a       434     0    22     1    14
 -1.1620208904283108E-01 a       435     0    22     1    15
  2.8930562273596496E-02 a       436     0    22     1    16
 -7.9885585599370673E-02 a       437     0    22     1    17
 -1.1726531245079927E-02 a       438     0    22     1    18
  3.0559190345421740E-02 a       439     0    22     1    19
  1.4777931043415629E-01 a       440     0    22     1    20
 -3.1751163831054210E-02 a       441     0    23     1     1
 -2.8094959904718698E-02 a       442     0    23     1     2
  7.6595987997882989E-02 a       443     0    23     1     3
  1.0968713007112224E-01 a       444     0    23     1     4
 -1.7797911698758898E-02 a       445     0    23     1     5
 -9.5520763381622728E-02 a       446     0    23     1     6
 -4.4714828208945873E-02 a       447     0    23     1     7
  9.0622698065369267E-02 a       448     0    23     1     8
  2.6799923669353427E-02 a       449     0    23     1     9
 -6.7185272554905903E-02 a       450     0    23     1    10
  4.3762264887336498E-02 a       451     0    23     1    11
  2.2108131427010312E-02 a       452     0    23     1    12
 -8.2899324907040120E-02 a       453     0    23     1    13
 -3.0789504797205873E-02 a       454     0    23     1    14
  2.4799501301711848E-02 a       455     0    23     1    15
 -3.3474881405756468E-02 a       456     0    23     1    16
  7.2744656872938115E-02 a       457     0    23     1    17
 -1.4671151571280688E-01 a       458     0    23     1    18
  2.2168250182110653E-02 a       459     0    23     1    19
  7.7605711288055254E-02 a       460     0    23     1    20
 -1.2366108890507566E-01 a       461     0    24     1     1
 -3.5095375624582698E-01 a       462     0    24     1     2
 -1.2532029006879086E-01 a       463     0    24     1     3
 -2.4142447459430474E-01 a       464     0    24     1     4
  1.8039785264754368E-01 a       465     0    24     1     5
 -1.2495407715905393E-01 a       466     0    24     1     6
  1.0738528468814068E-01 a       467     0    24     1     7
  1.7591270039076928E-01 a       468     0    24     1     8
 -2.8768804192664827E-02 a       469     0    24     1     9
  1.2429304738329471E-01 a       470     0    24     1    10
 -1.4537250021156229E-02 a       471     0    24     1    11
 -1.8138801831486595E-01 a       472     0    24     1    12
 -2.4813324895478073E-01 a       473     0    24     1    13
  4.6894017908633907E-02 a       474     0    24     1    14
 -8.5196582827253425E-02 a       475     0    24     1    15
 -1.4828284263364375E-01 a       476     0    24     1    16
 -7.1355954853478981E-02 a       477     0    24     1    17
  5.4610925350095964E-02 a       478     0    24     1    18
 -4.0633691525939719E-01 a       479     0    24     1    19
 -6.0137315797249645E-02 a       480     0    24     1    20
 -6.3569918141976406E-02 a       481     0    25     1     1
  5.5143957491276673E-02 a       482     0    25     1     2
 -2.1102865119601699E-02 a       483     0    25     1     3
  5.8896023086450248E-02 a       484     0    25     1     4
  5.3430338484400118E-02 a       485     0    25     1     5
 -2.2965043292374480E-02 a       486     0    25     1     6
  7.2984441813890674E-02 a       487     0    25     1     7
 -5.7697243616776299E-02 a       488     0    25     1     8
 -4.0629277134405176E-03 a       489     0    25     1     9
  5.9722464352776700E-02 a       490     0    25     1    10
  1.0282529529448062E-01 a       491     0    25     1    11
 -5.4712330433625764E-02 a       492     0    25     1    12
 -1.7979542177356280E-02 a       493     0    25     1    13
  8.0593439912126072E-02 a       494     0    25     1    14
  9.9195203320993797E-02 a       495     0    25     1    15
  1.6121270703401545E-02 a       496     0    25     1    16
  2.3646406578063064E-02 a       497     0    25     1    17
 -9.8192713631106390E-02 a       498     0    25     1    18
  1.2689836093177989E-01 a       499     0    25     1    19
  1.5082436053488935E-02 a       500     0    25     1    20
  3.1106479419925177E-02 a       501     0    26     1     1
  2.6150810964526316E-02 a       502     0    26     1     2
 -5.8432917711830817E-02 a       503     0    26     1     3
 -6.6974059062741134E-02 a       504     0    26     1     4
  2.4307691391102382E-02 a       505     0    26     1     5
  5.1258618968483591E-02 a       506     0    26     1     6
  7.3528135769985681E-02 a       507     0    26     1     7
 -6.3649685234718867E-02 a       508     0    26     1     8
 -7.8451394698370817E-03 a       509     0    26     1     9
  4.5567702766331410E-02 a       510     0    26     1    10
 -1.9010195922063444E-02 a       511     0    26     1    11
 -2.6397305843197313E-02 a       512     0    26     1    12
  7.0122496557304237E-02 a       513     0    26     1    13
 -5.2660517867833233E-03 a       514     0    26     1    14
 -5.9231066405571360E-03 a       515     0    26     1    15
  2.8246758279834267E-02 a       516     0    26     1    16
 -6.1681151739696211E-02 a       517     0    26     1    17
  8.0580094909130262E-02 a       518     0    26     1    18
 -1.4367769973583133E-02 a       519     0    26     1    19
 -4.7824174856560715E-02 a       520     0    26     1    20
  2.7324784690228875E-02 a       521     0    27     1     1
  7.2904605845968987E-02 a       522     0    27     1     2
  6.8525151740369813E-02 a       523     0    27     1     3
  8.5471299007425325E-02 a       524     0    27     1     4
 -8.4112887342647061E-02 a       525     0    27     1     5
 -1.5727030032178443E-02 a       526     0    27     1     6
 -6.9500186931867464E-02 a       527     0    27     1     7
 -6.0263763988070027E-02 a       528     0    27     1     8
  4.3545585840223163E-03 a       529     0    27     1     9
 -3.9954416726471730E-02 a       530     0    27     1    10
 -5.2820906445013770E-02 a       531     0    27     1    11
  5.6232241007040690E-02 a       532     0    27     1    12
  6.1521214822695999E-02 a       533     0    27     1    13
 -6.0618537906268359E-02 a       534     0    27     1    14
  3.0606308829877214E-02 a       535     0    27     1    15
  6.7527819730511460E-02 a       536     0    27     1    16
  9.3370545458983777E-03 a       537     0    27     1    17
 -3.5738696764688146E-02 a       538     0    27     1    18
  1.0758048533328360E-01 a       539     0    27     1    19
 -2.5979516531816522E-02 a       540     0    27     1    20
  9.0585607006841637E-02 a       541     0    28     1     1
  9.3034543171566148E-02 a       542     0    28     1     2
  1.2117296150569046E-02 a       543     0    28     1     3
  5.8773662827459626E-02 a       544     0    28     1     4
 -5.7999610741889931E-02 a       545     0    28     1     5
  7.9516634791895205E-02 a       546     0    28     1     6
 -1.7794986849771272E-01 a       547     0    28     1     7
 -2.5342966213171982E-02 a       548     0    28     1     8
 -8.0297724178412400E-03 a       549     0    28     1     9
 -7.4584981438445247E-02 a       550     0    28     1    10
 -7.5772664461547226E-03 a       551     0    28     1    11
  6.4650374074959063E-02 a       552     0    28     1    12
  1.0406381096455472E-01 a       553     0    28     1    13
 -3.1178013867838906E-02 a       554     0    28     1    14
 -2.4640485643248149E-02 a       555     0    28     1    15
  1.8155880976194898E-02 a       556     0    28     1    16
  7.1955914869228629E-02 a       557     0    28     1    17
  7.7250600307975162E-02 a       558     0    28     1    18
  6.7116336326546330E-02 a       559     0    28     1    19
  2.1646045497541538E-02 a       560     0    28     1    20
 -2.1398557616830394E-02 a       561     0    29     1     1
 -1.5464240395184606E-02 a       562     0    29     1     2
  2.8685389406052683E-02 a       563     0    29     1     3
  3.3062868575883538E-02 a       564     0    29     1     4
 -2.1025599308247264E-02 a       565     0    29     1     5
 -2.5389317643329773E-02 a       566     0    29     1     6
 -5.1963889806720773E-02 a       567     0    29     1     7
  2.8220728149317205E-02 a       568     0    29     1     8
  1.6341268419970201E-03 a       569     0    29     1     9
 -1.5637953292071072E-02 a       570     0    29     1    10
 -2.8042932970279966E-03 a       571     0    29     1    11
  8.8929098437309402E-03 a       572     0    29     1    12
 -2.5892185004628233E-02 a       573     0    29     1    13
 -2.0043249245184284E-03 a       574     0    29     1    14
  1.8342953930696492E-03 a       575     0    29     1    15
 -7.8258872591971118E-03 a       576     0    29     1    16
  3.7793965689776117E-02 a       577     0    29     1    17
 -3.0050537314808161E-02 a       578     0    29     1    18
  7.0624411357630822E-03 a       579     0    29     1    19
  1.5761016107406479E-02 a       580     0    29     1    20
 -5.3770333592072332E-02 a       581     0    30     1     1
 -1.5971109128271735E-01 a       582     0    30     1     2
 -4.3185712855401098E-02 a       583     0    30     1     3
 -1.4639771282546285E-01 a       584     0    30     1     4
  7.6978812261409194E-02 a       585     0    30     1     5
 -7.1211850750646136E-02 a       586     0    30     1     6
  1.3425747111968880E-01 a       587     0    30     1     7
  5.2197190138087303E-02 a       588     0    30     1     8
  6.4592628547971822E-03 a       589     0    30     1     9
  6.1983360385340310E-02 a       590     0    30     1    10
 -4.1771350054103748E-02 a       591     0    30     1    11
 -6.9188144290052864E-02 a       592     0    30     1    12
 -1.0520748865797486E-01 a       593     0    30     1    13
 -1.4737741142453777E-02 a       594     0    30     1    14
 -2.4886602778836628E-02 a       595     0    30     1    15
 -5.3331207238687867E-02 a       596     0    30     1    16
 -5.0574849017956301E-02 a       597     0    30     1    17
  7.8018573328731508E-02 a       598     0    30     1    18
 -1.9032809841170212E-01 a       599     0    30     1    19
 -7.8317182751236739E-02 a       600     0    30     1    20
  2.7190124839843621E-01 a       601     0    31     1     1
 -3.0314204172818643E-01 a       602     0    31     1     2
 -3.7496711397358079E-01 a       603     0    31     1     3
  4.4200306884798024E-01 a       604     0    31     1     4
 -1.3643727344575536E-02 a       605     0    31     1     5
 -2.2552766668105606E-01 a       606     0    31     1     6
  7.2571992415482595E-02 a       607     0    31     1     7
  4.6072393886717786E-02 a       608     0    31     1     8
  7.7275451834093645E-01 a       609     0    31     1     9
 -1.6543579978962736E-01 a       610     0    31     1    10
 -1.3486954820669644E-01 a       611     0    31     1    11
  2.1726056108154557E-01 a       612     0    31     1    12
 -2.2609835761888294E-01 a       613     0    31     1    13
 -1.5587717548006683E-01 a       614     0    31     1    14
 -5.7334540731755756E-02 a       615     0    31     1    15
 -2.1619937882155527E-01 a       616     0    31     1    16
 -2.3724157763664275E-01 a       617     0    31     1    17
 -6.5816263963319965E-02 a       618     0    31     1    18
 -2.1101327441492593E-01 a       619     0    31     1    19
  1.2926054826039629E-01 a       620     0    31     1    20
 -2.8311372192786496E-02 a       621     0    32     1     1
 -7.2705005520920504E-02 a       622     0    32     1     2
  3.7746966032311029E-02 a       623     0    32     1     3
  1.6755703243963430E-02 a       624     0    32     1     4
  1.7809469601362399E-02 a       625     0    32     1     5
 -1.2767823742277173E-01 a       626     0    32     1     6
  1.5056131476981463E-01 a       627     0    32     1     7
  1.7064299259053509E-01 a       628     0    32     1     8
  5.4529261164504336E-02 a       629     0    32     1     9
 -5.0621966365487811E-02 a       630     0    32     1    10
 -4.0689429881934323E-02 a       631     0    32     1    11
 -2.1933175402768748E-02 a       632     0    32     1    12
  1.7395035504532617E-02 a       633     0    32     1    13
  2.3709211373026015E-01 a       634     0    32     1    14
  5.4326556613228244E-02 a       635     0    32     1    15
 -4.3051770040070650E-03 a       636     0    32     1    16
 -1.4220165546742691E-01 a       637     0    32     1    17
  1.7895502992352548E-02 a       638     0    32     1    18
 -1.7447826824366269E-01 a       639     0    32     1    19
 -6.0670049048205076E-02 a       640     0    32     1    20
 -5.0228163308810392E-01 a       641     0    33     1     1
 -6.4508365929409994E-01 a       642     0    33     1     2
  2.2513439097382562E-01 a       643     0    33     1     3
 -3.6820934554345647E-01 a       644     0    33     1     4
  1.3839164220927666E-01 a       645     0    33     1     5
  3.8676325924841970E-01 a       646     0    33     1     6
 -4.5476224058557096E-01 a       647     0    33     1     7
 -5.1736625762829180E-01 a       648     0    33     1     8
 -7.9806105206767752E-01 a       649     0    33     1     9
 -9.9630871191973044E-02 a       650     0    33     1    10
  2.1248553036942211E-01 a       651     0    33     1    11
 -9.5811587906509998E-01 a       652     0    33     1    12
  7.7756602490860999E-02 a       653     0    33     1    13
  2.7391276154963456E-01 a       654     0    33     1    14
 -9.5888474326017070E-01 a       655     0    33     1    15
  1.7863541890646445E-01 a       656     0    33     1    16
 -2.4499205858746495E-01 a       657     0    33     1    17
  2.9409582743648160E-01 a       658     0    33     1    18
  4.2554626385937416E-01 a       659     0    33     1    19
 -3.5834575014526177E-01 a       660     0    33     1    20
 -1.8529369434247017E-02 a       661     0    34     1     1
 -5.6161318857540860E-02 a       662     0    34     1     2
 -6.8375676790839904E-02 a       663     0    34     1     3
  1.0701028774686068E-01 a       664     0    34     1     4
  8.8723071466732403E-02 a       665     0    34     1     5
 -1.4502988182897569E-01 a       666     0    34     1     6
 -3.2185349882255417E-02 a       667     0    34     1     7
  4.7136515460867563E-02 a       668     0    34     1     8
  1.9914743059650561E-02 a       669     0    34     1     9
 -7.6469086720974092E-02 a       670     0    34     1    10
 -3.7275717398754578E-02 a       671     0    34     1    11
 -2.9203998665922826E-01 a       672     0    34     1    12
  1.6451956507261942E-01 a       673     0    34     1    13
 -2.4146922039454985E-01 a       674     0    34     1    14
  2.0229361457529327E-01 a       675     0    34     1    15
 -1.3923132025403490E-01 a       676     0    34     1    16
 -3.5261301860635857E-01 a       677     0    34     1    17
 -6.5420978482595274E-02 a       678     0    34     1    18
 -4.0666857361392663E-03 a       679     0    34     1    19
 -3.5677289778748879E-02 a       680     0    34     1    20
  4.4549976270668153E-02 a       681     0    35     1     1
 -1.3699465643908956E-01 a       682     0    35     1     2
  9.0538539170690935E-02 a       683     0    35     1     3
 -1.1828662347578693E-02 a       684     0    35     1     4
 -2.5211911125241709E-02 a       685     0    35     1     5
 -1.2585603562693407E-01 a       686     0    35     1     6
  1.4615856788922469E-02 a       687     0    35     1     7
  2.8867046627948656E-01 a       688     0    35     1     8
 -1.5222081466097506E-01 a       689     0    35     1     9
 -4.1316380823347196E-02 a       690     0    35     1    10
  9.3672351696292410E-03 a       691     0    35     1    11
  6.1565811935632694E-02 a       692     0    35     1    12
 -8.9839552629177796E-02 a       693     0    35     1    13
  2.6082018585411471E-02 a       694     0    35     1    14
 -1.2689890807674917E-01 a       695     0    35     1    15
 -7.9287980157225851E-02 a       696     0    35     1    16
 -9.0343454934812009E-02 a       697     0    35     1    17
 -9.3524566566148812E-02 a       698     0    35     1    18
 -2.1130189294850071E-01 a       699     0    35     1    19
  1.1099017018339991E-01 a       700     0    35     1    20
  1.3292049073138892E-01 a       701     0    36     1     1
  8.0770961582489842E-01 a       702     0    36     1     2
  2.8146742011041120E-01 a       703     0    36     1     3
  1.4791068760779957E-02 a       704     0    36     1     4
 -5.7902487893142152E-01 a       705     0    36     1     5
 -2.6479123125821358E-01 a       706     0    36     1     6
  1.1438582133807644E-01 a       707     0    36     1     7
  5.3647288118481229E-01 a       708     0    36     1     8
  5.3956643950032435E-01 a       709     0    36     1     9
  3.0750792960069756E-01 a       710     0    36     1    10
 -4.1697670883525684E-01 a       711     0    36     1    11
  7.8904484298670030E-01 a       712     0    36     1    12
  2.6219220737313575E-01 a       713     0    36     1    13
 -1.0699376323627379E+00 a       714     0    36     1    14
  6.5408901169560307E-01 a       715     0    36     1    15
  1.9965343073969199E-01 a       716     0    36     1    16
  7.3185945212490167E-01 a       717     0    36     1    17
 -1.7240776618741907E-01 a       718     0    36     1    18
 -2.7672114756948080E-01 a       719     0    36     1    19
  5.3321109284934354E-01 a       720     0    36     1    20
  1.5641356397233197E-01 a       721     0    37     1     1
  6.7681083103048867E-01 a       722     0    37     1     2
  7.5111667581410135E-02 a       723     0    37     1     3
  4.1395145864154388E-02 a       724     0    37     1     4
 -3.2557117195313906E-01 a       725     0    37     1     5
 -2.6367899714258775E-01 a       726     0    37     1     6
 -3.3552463961131596E-01 a       727     0    37     1     7
 -5.4671060788765893E-02 a       728     0    37     1     8
 -3.6313498138838080E-01 a       729     0    37     1     9
  1.2242587129784602E-01 a       730     0    37     1    10
  1.6049690120642063E-01 a       731     0    37     1    11
 -3.7520172638248486E-02 a       732     0    37     1    12
  2.3869461176424969E-01 a       733     0    37     1    13
  2.5545032896951009E-01 a       734     0    37     1    14
  2.7657927219977396E-01 a       735     0    37     1    15
  1.9451821212408468E-01 a       736     0    37     1    16
 -3.4435918369272767E-01 a       737     0    37     1    17
  3.8700235097437424E-01 a       738     0    37     1    18
 -2.4426050647494948E-01 a       739     0    37     1    19
  1.3748135202188977E-02 a       740     0    37     1    20
 -8.6721957207953945E-03 a       741     0    38     1     1
 -3.8275178355873581E-02 a       742     0    38     1     2
 -8.3139676216164044E-03 a       743     0    38     1     3
  5.8342839974244810E-02 a       744     0    38     1     4
 -1.4098003796482811E-01 a       745     0    38     1     5
  1.1010705938703381E-02 a       746     0    38     1     6
 -1.5954141780175077E-01 a       747     0    38     1     7
 -3.8466038382231373E-02 a       748     0    38     1     8
  9.4476099627157709E-03 a       749     0    38     1     9
 -2.2033598143370227E-02 a       750     0    38     1    10
  4.5231245437698152E-02 a       751     0    38     1    11
  3.0431605515325328E-03 a       752     0    38     1    12
 -4.0870799765512764E-02 a       753     0    38     1    13
 -9.6455430968802866E-02 a       754     0    38     1    14
  4.1520467988682939E-03 a       755     0    38     1    15
 -3.2449699777534854E-02 a       756     0    38     1    16
 -4.8869997936775371E-02 a       757     0    38     1    17
 -9.2220284232973751E-02 a       758     0    38     1    18
  1.2312486767290143E-01 a       759     0    38     1    19
  5.8802198484890336E-02 a       760     0    38     1    20
 -5.4701658701795186E-01 a       761     0    39     1     1
  1.1096692875173689E-01 a       762     0    39     1     2
  2.0907009628268985E-01 a       763     0    39     1     3
  1.9434661243072598E-01 a       764     0    39     1     4
  1.3690434913663538E+00 a       765     0    39     1     5
  6.5337084759900477E-01 a       766     0    39     1     6
  2.8343106430887327E-01 a       767     0    39     1     7
  1.4561896465930664E+00 a       768     0    39     1     8
  2.6794817859075865E-01 a       769     0    39     1     9
 -2.8014574774792517E-01 a       770     0    39     1    10
 -3.0972276053973330E-01 a       771     0    39     1    11
  3.7769318548196879E-01 a       772     0    39     1    12
  6.6966581151789428E-01 a       773     0    39     1    13
  4.4295453182112621E-01 a       774     0    39     1    14
 -8.5676154516644523E-02 a       775     0    39     1    15
 -5.7210766230852805E-01 a       776     0    39     1    16
  2.6939887527121131E-01 a       777     0    39     1    17
 -6.4156099862910820E-01 a       778     0    39     1    18
  5.2026262938672951E-01 a       779     0    39     1    19
 -1.1525452500686607E-01 a       780     0    39     1    20
  1.6238960577508979E-01 a       781     0    40     1     1
  2.7065688637964169E-01 a       782     0    40     1     2
 -3.9191436975522423E-02 a       783     0    40     1     3
 -2.6204816083655846E-01 a       784     0    40     1     4
  1.9115776961916495E-01 a       785     0    40     1     5
  2.3201152613998097E-01 a       786     0    40     1     6
  2.2725377665558363E-01 a       787     0    40     1     7
  1.1526499139531117E-02 a       788     0    40     1     8
  1.8328365769425668E-02 a       789     0    40     1     9
  3.9218084305577806E-02 a       790     0    40     1    10
 -1.9283464737347447E-01 a       791     0    40     1    11
  2.5490832826895127E-01 a       792     0    40     1    12
 -2.2401558976515248E-01 a       793     0    40     1    13
 -1.4104318141409192E-01 a       794     0    40     1    14
 -1.7221736540292296E-01 a       795     0    40     1    15
  2.2049342508094016E-01 a       796     0    40     1    16
 -2.6250750260042094E-01 a       797     0    40     1    17
 -1.4499677964285397E-02 a       798     0    40     1    18
  4.3726382814543482E-02 a       799     0    40     1    19
  8.9873043280887192E-03 a       800     0    40     1    20
 -1.9769795658768585E-02 a       801     0    41     1     1
  1.2132352187446381E-01 a       802     0    41     1     2
 -5.3764647398671483E-02 a       803     0    41     1     3
 -3.3554086124898776E-02 a       804     0    41     1     4
 -2.6980972971135577E-02 a       805     0    41     1     5
  1.8588350869003573E-01 a       806     0    41     1     6
 -3.9930161910531947E-02 a       807     0    41     1     7
 -9.5101402663441845E-02 a       808     0    41     1     8
 -1.6893200436421993E-02 a       809     0    41     1     9
  7.3286297412975751E-02 a       810     0    41     1    10
  4.3762666853651142E-02 a       811     0    41     1    11
  4.5411172517127604E-02 a       812     0    41     1    12
  3.5295927388726563E-02 a       813     0    41     1    13
  5.8607510216137276E-02 a       814     0    41     1    14
 -2.9257368598634738E-02 a       815     0    41     1    15
  3.9529573497194076E-02 a       816     0    41     1    16
  6.9996965120712365E-02 a       817     0    41     1    17
 -1.0239524034700796E-02 a       818     0    41     1    18
  7.8101522868797249E-02 a       819     0    41     1    19
  3.6838954464253712E-02 a       820     0    41     1    20
  3.4217158332279568E-01 a       821     0    42     1     1
 -2.1004781429658467E-01 a       822     0    42     1     2
 -2.3950449160676024E-01 a       823     0    42     1     3
 -2.1811783328060927E-01 a       824     0    42     1     4
 -4.0282539837422410E-01 a       825     0    42     1     5
  1.7444744740872117E-01 a       826     0    42     1     6
 -3.3407291813431900E-01 a       827     0    42     1     7
 -6.0201949075297312E-01 a       828     0    42     1     8
 -3.2161149408261397E-01 a       829     0    42     1     9
 -4.7018586958397293E-03 a       830     0    42     1    10
  3.3704311173122609E-01 a       831     0    42     1    11
 -2.2878162874221321E-02 a       832     0    42     1    12
 -4.4423396694278244E-01 a       833     0    42     1    13
  7.2828719754978372E-02 a       834     0    42     1    14
 -1.9149254498858964E-01 a       835     0    42     1    15
  3.7111369960437429E-02 a       836     0    42     1    16
 -2.0631162400962488E-01 a       837     0    42     1    17
  1.4800352728740554E-01 a       838     0    42     1    18
 -2.9963937256849871E-01 a       839     0    42     1    19
 -1.0258382934492583E-01 a       840     0    42     1    20
  9.4872075129366837E-02 a       841     0    43     1     1
  1.0492299536708821E-01 a       842     0    43     1     2
 -2.1999881784972988E-02 a       843     0    43     1     3
 -3.2428907779964919E-02 a       844     0    43     1     4
 -6.9643263075734891E-03 a       845     0    43     1     5
  4.6035508777134748E-02 a       846     0    43     1     6
 -1.8084867455367470E-01 a       847     0    43     1     7
  6.8819510588972288E-02 a       848     0    43     1     8
  3.9639599079762444E-02 a       849     0    43     1     9
 -6.8140018980775111E-02 a       850     0    43     1    10
  1.7589920073548107E-02 a       851     0    43     1    11
  2.8411784592204475E-02 a       852     0    43     1    12
 -5.4969983878794294E-03 a       853     0    43     1    13
  7.7912652611950850E-02 a       854     0    43     1    14
 -5.1458380450950983E-02 a       855     0    43     1    15
 -2.9851653422917106E-02 a       856     0    43     1    16
 -1.4377144831891844E-01 a       857     0    43     1    17
  1.1055230746715741E-01 a       858     0    43     1    18
 -5.6678888775762694E-02 a       859     0    43     1    19
  5.8893349502849385E-02 a       860     0    43     1    20
  1.4496552571519958E-01 a       861     0    44     1     1
  1.9986300690348433E-02 a       862     0    44     1     2
 -9.6048459137198727E-02 a       863     0    44     1     3
  1.1342172150312768E-02 a       864     0    44     1     4
  8.0344226754296658E-02 a       865     0    44     1     5
  1.2905122106588809E-01 a       866     0    44     1     6
 -2.0304771405306068E-01 a       867     0    44     1     7
  9.3366703483416136E-02 a       868     0    44     1     8
  6.1995746368180213E-02 a       869     0    44     1     9
 -1.8319873525162861E-01 a       870     0    44     1    10
 -1.1008668666847569E-01 a       871     0    44     1    11
  1.2140990985139266E-02 a       872     0    44     1    12
 -7.8571691293376454E-03 a       873     0    44     1    13
  1.6268085563962717E-01 a       874     0    44     1    14
 -1.5321615507804989E-01 a       875     0    44     1    15
 -1.0715150010472060E-01 a       876     0    44     1    16
 -2.2480059254512953E-02 a       877     0    44     1    17
  1.3870897546929420E-01 a       878     0    44     1    18
 -1.6519583878283925E-01 a       879     0    44     1    19
 -1.1114846519982434E-01 a       880     0    44     1    20
 -1.7447233400777312E-01 a       881     0    45     1     1
 -1.9297536059576081E-01 a       882     0    45     1     2
  6.5308727724523508E-02 a       883     0    45     1     3
 -4.8581858876965284E-02 a       884     0    45     1     4
  5.0595950265737072E-02 a       885     0    45     1     5
  2.6434470676106842E-01 a       886     0    45     1     6
  7.3637367427506248E-02 a       887     0    45     1     7
  1.0804372777504274E-02 a       888     0    45     1     8
 -1.9005880249035095E-01 a       889     0    45     1     9
 -5.8572106839825588E-03 a       890     0    45     1    10
  2.0916619672806600E-02 a       891     0    45     1    11
  1.2372120909268476E-01 a       892     0    45     1    12
  9.3507576471491438E-02 a       893     0    45     1    13
  5.5219722854410722E-02 a       894     0    45     1    14
  2.0577119923477064E-02 a       895     0    45     1    15
 -3.2728372115667169E-02 a       896     0    45     1    16
  4.1868133574281124E-01 a       897     0    45     1    17
  2.4576323852726656E-01 a       898     0    45     1    18
  9.0147007303509649E-02 a       899     0    45     1    19
 -1.2542246344985677E-01 a       900     0    45     1    20
  1.1117399017110184E-01 a       901     0    46     1     1
  2.0369966892856764E-01 a       902     0    46     1     2
  2.3906218405262119E-02 a       903     0    46     1     3
  5.8470288430167321E-02 a       904     0    46     1     4
 -3.8613135811321600E-02 a       905     0    46     1     5
  1.0729450664895832E-01 a       906     0    46     1     6
 -2.2759459103359622E-02 a       907     0    46     1     7
 -1.3641244244835016E-01 a       908     0    46     1     8
  7.1340413305915118E-02 a       909     0    46     1     9
 -1.7837061200735688E-01 a       910     0    46     1    10
  1.7606149569253618E-01 a       911     0    46     1    11
  2.3272403723263741E-02 a       912     0    46     1    12
  2.3206934011817247E-02 a       913     0    46     1    13
  3.6139150568704875E-01 a       914     0    46     1    14
 -2.6043912617119569E-01 a       915     0    46     1    15
  5.2257009345647087E-02 a       916     0    46     1    16
 -2.2228464612190432E-01 a       917     0    46     1    17
 -2.8899442912902532E-02 a       918     0    46     1    18
  1.5427060358805905E-01 a       919     0    46     1    19
  1.4742380226555182E-01 a       920     0    46     1    20
  5.8346776500740542E-02 a       921     0    47     1     1
 -9.0580063768657595E-03 a       922     0    47     1     2
  1.9667651225216681E-01 a       923     0    47     1     3
 -1.7702631653287582E-01 a       924     0    47     1     4
 -2.0256585689316065E-01 a       925     0    47     1     5
 -8.8382479687246530E-03 a       926     0    47     1     6
 -1.5851420193640605E-02 a       927     0    47     1     7
  2.2074629145184760E-01 a       928     0    47     1     8
  1.4231215376953424E-01 a       929     0    47     1     9
  4.9951462832003773E-02 a       930     0    47     1    10
  3.0712064846042202E-02 a       931     0    47     1    11
  2.1843129070429620E-02 a       932     0    47     1    12
  1.9909906044707693E-01 a       933     0    47     1    13
  1.1634879438811446E-01 a       934     0    47     1    14
 -1.6978257889509940E-01 a       935     0    47     1    15
  2.0496579731909836E-01 a       936     0    47     1    16
  9.0000816652542018E-02 a       937     0    47     1    17
  1.6355229590423645E-01 a       938     0    47     1    18
 -9.8753822707728048E-02 a       939     0    47     1    19
  1.2923317788733862E-01 a       940     0    47     1    20
  1.7615492935529256E-01 a       941     0    48     1     1
  2.0111328455507088E-01 a       942     0    48     1     2
 -2.2873400163865736E-02 a       943     0    48     1     3
 -3.3240289796371020E-01 a       944     0    48     1     4
 -9.8830522061667841E-02 a       945     0    48     1     5
  2.2327573567924044E-01 a       946     0    48     1     6
 -3.2784651937348946E-01 a       947     0    48     1     7
  2.4409566980903318E-02 a       948     0    48     1     8
 -2.2361386734500634E-02 a       949     0    48     1     9
 -1.4298549941327873E-01 a       950     0    48     1    10
  1.0817579506851752E-01 a       951     0    48     1    11
  1.3807216445248871E-02 a       952     0    48     1    12
 -7.3433137356970274E-03 a       953     0    48     1    13
  3.0746167165627958E-01 a       954     0    48     1    14
 -2.5656246052508519E-01 a       955     0    48     1    15
 -2.4181969602980004E-02 a       956     0    48     1    16
  4.2931443101519286E-02 a       957     0    48     1    17
 -3.0050543522581502E-01 a       958     0    48     1    18
 -1.5073488270668425E-01 a       959     0    48     1    19
 -1.6806901088554727E-01 a       960     0    48     1    20
  5.2173403909606592E-02 a       961     0    49     1     1
 -4.2520672635746987E-01 a       962     0    49     1     2
  1.4861148114634451E-01 a       963     0    49     1     3
  9.9213895943927807E-02 a       964     0    49     1     4
  2.4525896416721757E-01 a       965     0    49     1     5
  9.8441722784485351E-03 a       966     0    49     1     6
 -2.9101016351919751E-02 a       967     0    49     1     7
 -2.7666961058807055E-01 a       968     0    49     1     8
 -5.1005429075317694E-02 a       969     0    49     1     9
 -1.1816280708174190E-01 a       970     0    49     1    10
 -4.2558776522144189E-02 a       971     0    49     1    11
  1.0572992960837005E-01 a       972     0    49     1    12
 -1.7217252727981566E-01 a       973     0    49     1    13
 -2.9257028344009100E-02 a       974     0    49     1    14
 -4.0212998725717999E-02 a       975     0    49     1    15
  7.9567118438919934E-02 a       976     0    49     1    16
  2.5080489213931290E-01 a       977     0    49     1    17
 -2.9291980687899383E-01 a       978     0    49     1    18
  3.2601954753057111E-01 a       979     0    49     1    19
 -5.7129331530276009E-02 a       980     0    49     1    20
  9.9856296937657959E-04 a       981     0    50     1     1
  1.0034525996484188E-01 a       982     0    50     1     2
  2.3028143711889403E-02 a       983     0    50     1     3
 -7.9713037112343153E-03 a       984     0    50     1     4
  9.6695917611762411E-02 a       985     0    50     1     5
 -7.7423903442348906E-03 a       986     0    50     1     6
  1.5995998954636625E-01 a       987     0    50     1     7
 -9.2364247850703993E-03 a       988     0    50     1     8
 -3.0070520864231447E-02 a       989     0    50     1     9
  2.1211235919349623E-02 a       990     0    50     1    10
  2.1574715879646151E-05 a       991     0    50     1    11
  1.7271761647567753E-03 a       992     0    50     1    12
  9.1939900002905972E-02 a       993     0    50     1    13
  9.8777149944372835E-03 a       994     0    50     1    14
 -2.0893957329902631E-02 a       995     0    50     1    15
  4.9492429119311843E-02 a       996     0    50     1    16
  7.0431442493207486E-02 a       997     0    50     1    17
  2.7312439885255016E-02 a       998     0    50     1    18
 -2.4459897959353789E-02 a       999     0    50     1    19
 -6.2136040994379537E-03 a      1000     0    50     1    20
 -5.1713451298268022E-02 a      1001     0    51     1     1
  5.7624980272547921E-01 a      1002     0    51     1     2
  1.8552241711505421E-01 a      1003     0    51     1     3
 -6.2982483681248036E-01 a      1004     0    51     1     4
 -1.3006794145594600E+00 a      1005     0    51     1     5
 -3.6622385559812748E-01 a      1006     0    51     1     6
  6.2107964149801365E-01 a      1007     0    51     1     7
  3.0912395368061490E-01 a      1008     0    51     1     8
  7.1357213562548405E-01 a      1009     0    51     1     9
  3.2945243505193272E-01 a      1010     0    51     1    10
  5.0742960903862355E-01 a      1011     0    51     1    11
 -2.8970166256973495E-01 a      1012     0    51     1    12
  1.9962156199933095E-01 a      1013     0    51     1    13
 -4.1523325842497349E-01 a      1014     0    51     1    14
 -2.3227913525714358E-01 a      1015     0    51     1    15
  1.5052688523088550E-01 a      1016     0    51     1    16
  1.2665798639121759E-01 a      1017     0    51     1    17
  7.7892051234033477E-01 a      1018     0    51     1    18
 -3.3035179637364281E-01 a      1019     0    51     1    19
  8.9983775470239169E-01 a      1020     0    51     1    20
 -1.3183726208842980E-01 a      1021     0    52     1     1
  3.5537309484026081E-01 a      1022     0    52     1     2
  4.1803699958010976E-01 a      1023     0    52     1     3
 -2.5449090074612057E-01 a      1024     0    52     1     4
  2.9709550262999134E-02 a      1025     0    52     1     5
  1.4834598032543547E-01 a      1026     0    52     1     6
  4.1792101078265621E-02 a      1027     0    52     1     7
 -4.4519835771632536E-02 a      1028     0    52     1     8
  9.7703482497526695E-02 a      1029     0    52     1     9
 -1.3432626375071627E-01 a      1030     0    52     1    10
 -2.3068882626860873E-01 a      1031     0    52     1    11
  3.1923513862170572E-02 a      1032     0    52     1    12
 -8.2691140339595987E-02 a      1033     0    52     1    13
  1.0910307985431511E-01 a      1034     0    52     1    14
 -1.8942008189607437E-01 a      1035     0    52     1    15
  1.9836274440304294E-01 a      1036     0    52     1    16
  9.4478179382267408E-02 a      1037     0    52     1    17
  1.7137105734178071E-01 a      1038     0    52     1    18
 -2.5511397569889252E-02 a      1039     0    52     1    19
  5.0851346943336463E-02 a      1040     0    52     1    20
  7.2057038839517043E-02 a      1041     0    53     1     1
 -5.5786666031235742E-02 a      1042     0    53     1     2
  4.1404678055760882E-02 a      1043     0    53     1     3
  5.2032287291009754E-02 a      1044     0    53     1     4
  6.3108345840260024E-02 a      1045     0    53     1     5
 -1.0847529862309820E-01 a      1046     0    53     1     6
  3.3582716314369578E-02 a      1047     0    53     1     7
  4.7376139813315170E-02 a      1048     0    53     1     8
  3.8747109734310677E-02 a      1049     0    53     1     9
 -3.5637840764211767E-02 a      1050     0    53     1    10
 -7.0553637650653898E-03 a      1051     0    53     1    11
 -1.7651150658179852E-02 a      1052     0    53     1    12
  2.2306374937425877E-02 a      1053     0    53     1    13
 -2.5912621286640788E-02 a      1054     0    53     1    14
 -1.4512088998928576E-02 a      1055     0    53     1    15
  1.7088076517859847E-03 a      1056     0    53     1    16
 -2.7841578820505478E-04 a      1057     0    53     1    17
  5.2287560375333268E-02 a      1058     0    53     1    18
 -4.4488947032233141E-02 a      1059     0    53     1    19
 -1.2261131857189675E-02 a      1060     0    53     1    20
 -1.3232755149137618E-01 a      1061     0    54     1     1
 -1.1346224381379283E-01 a      1062     0    54     1     2
 -4.4075483354912683E-03 a      1063     0    54     1     3
  3.6999346935845429E-01 a      1064     0    54     1     4
  3.8744556302546534E-01 a      1065     0    54     1     5
 -1.4988573065552352E-01 a      1066     0    54     1     6
  5.8086059385278582E-02 a      1067     0    54     1     7
 -2.3085189406541726E-02 a      1068     0    54     1     8
 -2.2702680502172577E-02 a      1069     0    54     1     9
 -6.7639459458765641E-03 a      1070     0    54     1    10
 -3.6681384980469528E-01 a      1071     0    54     1    11
 -3.3952280342731407E-02 a      1072     0    54     1    12
  4.7147569960817273E-02 a      1073     0    54     1    13
 -8.3312108799618451E-03 a      1074     0    54     1    14
  3.0742728805236062E-02 a      1075     0    54     1    15
  2.8301646874775016E-02 a      1076     0    54     1    16
  1.6321304568073589E-01 a      1077     0    54     1    17
 -5.5207929172594698E-02 a      1078     0    54     1    18
  5.8890754522177534E-02 a      1079     0    54     1    19
 -2.2223381117575935E-01 a      1080     0    54     1    20
  3.5206251611632394E-01 b      1081     1     1
  6.0039399408947824E-01 b      1082     1     2
 -2.8785946927051803E-01 b      1083     1     3
 -5.7774256338549768E-01 b      1084     1     4
  8.8920709397377362E-01 b      1085     1     5
  4.4661734202572378E-01 b      1086     1     6
 -1.2388311239867356E+00 b      1087     1     7
  2.2295118773426675E-01 b      1088     1     8
  1.5890432537152929E-01 b      1089     1     9
  9.0827793393813527E-01 b      1090     1    10
  6.7696710254640435E-01 b      1091     1    11
  9.3712311931388137E-01 b      1092     1    12
 -7.3064238594948663E-02 b      1093     1    13
  1.1037592973513284E+00 b      1094     1    14
 -6.8778623668183947E-01 b      1095     1    15
  1.2216812052660081E-01 b      1096     1    16
 -7.2734428134466134E-01 b      1097     1    17
 -1.0850791157614434E+00 b      1098     1    18
  1.3940502926436013E-01 b      1099     1    19
 -6.5645053773045314E-01 b      1100     1    20
 -6.9741716174487156E-01 a      1101     1     1     2     1
  5.9041335603152567E-01 a      1102     1     1     2     2
  1.4869115158174026E-02 a      1103     1     1     2     3
  4.0066349506673726E-01 a      1104     1     1     2     4
  2.8811988719201532E-02 a      1105     1     1     2     5
 -2.9787918587766110E-01 a      1106     1     1     2     6
  4.0362065564295907E-01 a      1107     1     1     2     7
  3.5536678983709757E-01 a      1108     1     1     2     8
  3.1886148537129921E-01 a      1109     1     1     2     9
  1.0210822303986136E-01 a      1110     1     1     2    10
 -3.8480643598349934E-02 a      1111     1     1     2    11
 -2.9559887514832323E-01 a      1112     1     1     2    12
  2.5988110678103316E-01 a      1113     1     1     2    13
 -3.6498341173993858E-02 a      1114     1     1     2    14
  3.8744206466284387E-01 a      1115     1     1     2    15
  3.3412405529752776E-01 a      1116     1     1     2    16
  6.8256186782437653E-02 a      1117     1     1     2    17
 -3.0592680211086620E-01 a      1118     1     1     2    18
 -5.3904574402260397E-01 a      1119     1     1     2    19
  4.8494265493219446E-01 a      1120     1     1     2    20
  2.3625758357752089E-01 a      1121     1     2     2     1
 -9.1669465456815147E-01 a      1122     1     2     2     2
 -3.2766229751851249E-02 a      1123     1     2     2     3
  4.8055094334407078E-01 a      1124     1     2     2     4
 -7.2803634384302773E-01 a      1125     1     2     2     5
  9.3246838087625472E-01 a      1126     1     2     2     6
  6.2145735526188040E-01 a      1127     1     2     2     7
 -1.2275028027526574E-01 a      1128     1     2     2     8
 -6.1628384968220741E-02 a      1129     1     2     2     9
  8.2561489833412960E-01 a      1130     1     2     2    10
 -5.3863766584234030E-01 a      1131     1     2     2    11
 -3.6882567728933563E-01 a      1132     1     2     2    12
  4.3622939890918466E-01 a      1133     1     2     2    13
  8.4592455764156171E-01 a      1134     1     2     2    14
  4.9802033289603909E-01 a      1135     1     2     2    15
  2.0434268884835619E-01 a      1136     1     2     2    16
 -3.2637971051682335E-01 a      1137     1     2     2    17
 -1.4055573919398070E-03 a      1138     1     2     2    18
  5.9635036568286159E-01 a      1139     1     2     2    19
 -1.1284346725206301E-01 a      1140     1     2     2    20
 -5.3416035917581328E-01 a      1141     1     3     2     1
  5.6633288477575539E-01 a      1142     1     3     2     2
  3.5368592269675958E-01 a      1143     1     3     2     3
 -2.9002338662277760E-01 a      1144     1     3     2     4
 -1.9871924181779306E-02 a      1145     1     3     2     5
  4.0524765722317369E-01 a      1146     1     3     2     6
 -2.6836766288602282E-01 a      1147     1     3     2     7
  8.4553988702225635E-02 a      1148     1     3     2     8
 -2.8127190132067464E-02 a      1149     1     3     2     9
 -5.8517664961553584E-02 a      1150     1     3     2    10
 -5.0095983716341075E-01 a      1151     1     3     2    11
 -5.1088974908152363E-01 a      1152     1     3     2    12
 -1.2202453753588069E+00 a      1153     1     3     2    13
 -6.3349351684035410E-02 a      1154     1     3     2    14
 -3.0140094933415373E-01 a      1155     1     3     2    15
 -5.0446150133712797E-01 a      1156     1     3     2    16
  3.6610463040203334E-01 a      1157     1     3     2    17
 -7.9035498919498215E-01 a      1158     1     3     2    18
  8.3408491364498283E-01 a      1159     1     3     2    19
  3.0216463305941166E-01 a      1160     1     3     2    20
 -1.7057901753238172E-01 a      1161     1     4     2     1
 -1.4668145597124357E-01 a      1162     1     4     2     2
  4.8696181388431686E-01 a      1163     1     4     2     3
 -2.0909326270269224E-01 a      1164     1     4     2     4
  5.6510378101991232E-01 a      1165     1     4     2     5
  4.4484595833500556E-01 a      1166     1     4     2     6
  4.7169524987760458E-01 a      1167     1     4     2     7
  3.6091780258029643E-01 a      1168     1     4     2     8
 -2.8448423817264534E-01 a      1169     1     4     2     9
 -3.4299949879918817E-01 a      1170     1     4     2    10
 -6.1884693983318440E-01 a      1171     1     4     2    11
 -3.2015756681901364E-01 a      1172     1     4     2    12
  7.2027722924703541E-01 a      1173     1     4     2    13
  2.8143482573667544E-01 a      1174     1     4     2    14
  3.2635251811038463E-01 a      1175     1     4     2    15
 -6.5747740595799098E-01 a      1176     1     4     2    16
  2.6260804734519771E-01 a      1177     1     4     2    17
 -3.4923290999515760E-01 a      1178     1     4     2    18
  1.5057735939121980E-01 a      1179     1     4     2    19
  3.6303113130385756E-01 a      1180     1     4     2    20
  3.4245548165913176E-01 a      1181     1     5     2     1
 -5.2970776853962738E-02 a      1182     1     5     2     2
 -9.1295682055044750E-02 a      1183     1     5     2     3
 -1.2547778315444866E+00 a      1184     1     5     2     4
 -6.1224303649700818E-01 a      1185     1     5     2     5
 -5.6957297762380255E-01 a      1186     1     5     2     6
 -1.2631319444309901E+00 a      1187     1     5     2     7
 -2.8657607513615035E-01 a      1188     1     5     2     8
 -3.1247593460755974E-01 a      1189     1     5     2     9
 -1.7485695076483715E-01 a      1190     1     5     2    10
 -3.7331955411798184E-01 a      1191     1     5     2    11
  3.1918304454735114E-01 a      1192     1     5     2    12
  3.5466508447777262E-01 a      1193     1     5     2    13
 -2.1026684669807389E+00 a      1194     1     5     2    14
 -5.6654975279921294E-01 a      1195     1     5     2    15
  2.3139969446394187E-01 a      1196     1     5     2    16
 -1.4960651359755895E-02 a      1197     1     5     2    17
  3.9219081485134705E-01 a      1198     1     5     2    18
 -3.7878464903982989E-01 a      1199     1     5     2    19
 -4.3777253266030175E-01 a      1200     1     5     2    20
 -3.6212124134814611E-01 a      1201     1     6     2     1
  1.3757761229938373E-01 a      1202     1     6     2     2
  4.0801923738266405E-01 a      1203     1     6     2     3
 -2.3118528492984364E-01 a      1204     1     6     2     4
  2.8473780760377804E-01 a      1205     1     6     2     5
 -5.6312818990838354E-01 a      1206     1     6     2     6
 -2.1141963561807356E-01 a      1207     1     6     2     7
 -1.8792847059480158E-01 a      1208     1     6     2     8
 -1.0637032222045832E+00 a      1209     1     6     2     9
 -3.7303609828741278E-02 a      1210     1     6     2    10
 -3.4411013451936617E-01 a      1211     1     6     2    11
  6.3533917470819568E-01 a      1212     1     6     2    12
  1.7415227541098049E-01 a      1213     1     6     2    13
 -8.3310809356233972E-01 a      1214     1     6     2    14
 -6.6490191336730953E-02 a      1215     1     6     2    15
 -1.9590710657183166E-02 a      1216     1     6     2    16
  2.8390296730099079E-01 a      1217     1     6     2    17
 -6.5340031922251096E-01 a      1218     1     6     2    18
 -1.5237193449967606E-01 a      1219     1     6     2    19
  4.4580736308194380E-01 a      1220     1     6     2    20
  3.6540335049657097E-01 a      1221     1     7     2     1
  2.7389205443367776E-01 a      1222     1     7     2     2
 -4.3595156457248818E-01 a      1223     1     7     2     3
 -4.3119897073763858E-01 a      1224     1     7     2     4
  6.4239098021248842E-01 a      1225     1     7     2     5
 -2.0114222807155724E-01 a      1226     1     7     2     6
  7.9744520839335820E-01 a      1227     1     7     2     7
  7.0895377342553345E-01 a      1228     1     7     2     8
 -2.0426725486395533E-01 a      1229     1     7     2     9
  1.1389973249661159E-01 a      1230     1     7     2    10
 -3.6616720940460440E-01 a      1231     1     7     2    11
 -2.1169870421402481E-01 a      1232     1     7     2    12
  2.5627150400262588E-01 a      1233     1     7     2    13
  6.3320015858426892E-01 a      1234     1     7     2    14
  2.4973600078001446E-01 a      1235     1     7     2    15
 -1.9495443521309255E-01 a      1236     1     7     2    16
  4.6181674178288654E-02 a      1237     1     7     2    17
 -1.3185086623239634E-01 a      1238     1     7     2    18
 -4.7904980174417711E-01 a      1239     1     7     2    19
  1.6984816207392478E-01 a      1240     1     7     2    20
 -8.4834233208627852E-01 a      1241     1     8     2     1
 -4.1406963349287124E-01 a      1242     1     8     2     2
  5.2062364477596412E-01 a      1243     1     8     2     3
 -8.1922777118024703E-01 a      1244     1     8     2     4
 -4.5742464074377931E-01 a      1245     1     8     2     5
  4.5820212464729448E-01 a      1246     1     8     2     6
 -6.3870758169483177E-02 a      1247     1     8     2     7
 -5.8694966898193479E-01 a      1248     1     8     2     8
 -7.5424039501229345E-01 a      1249     1     8     2     9
  7.1258895511354253E-02 a      1250     1     8     2    10
  1.2135792373255055E-01 a      1251     1     8     2    11
  1.8905033011941819E-01 a      1252     1     8     2    12
  2.4840665638549100E-01 a      1253     1     8     2    13
  8.4274365180437211E-02 a      1254     1     8     2    14
  2.9296012445688252E-01 a      1255     1     8     2    15
  2.0459137399863433E-01 a      1256     1     8     2    16
  2.0700925214868643E-01 a      1257     1     8     2    17
  4.7304332581754432E-01 a      1258     1     8     2    18
 -3.7535402802870360E-01 a      1259     1     8     2    19
  5.0775696134305126E-01 a      1260     1     8     2    20
  3.6174940711603637E-01 a      1261     1     9     2     1
  6.8919812356952478E-02 a      1262     1     9     2     2
  3.6412204342008411E-02 a      1263     1     9     2     3
 -2.1209387772162866E-01 a      1264     1     9     2     4
 -1.1237399693922112E-01 a      1265     1     9     2     5
 -3.0899767182235560E-01 a      1266     1     9     2     6
 -6.2606697949692328E-02 a      1267     1     9     2     7
 -3.1529110779371783E-01 a      1268     1     9     2     8
  7.0563826585584821E-01 a      1269     1     9     2     9
 -2.0838905720097747E-01 a      1270     1     9     2    10
 -4.5428922202528788E-01 a      1271     1     9     2    11
  2.9452933644894241E-01 a      1272     1     9     2    12
  1.6799095334366707E-01 a      1273     1     9     2    13
 -7.5822249091286398E-01 a      1274     1     9     2    14
 -3.0942323093119189E-01 a      1275     1     9     2    15
 -4.3288906791172627E-01 a      1276     1     9     2    16
  3.2176425342767746E-02 a      1277     1     9     2    17
 -1.8677563308701431E-01 a      1278     1     9     2    18
  4.7784489964236565E-01 a      1279     1     9     2    19
  1.5028984008452767E-01 a      1280     1     9     2    20
 -2.9278713637913684E-01 a      1281     1    10     2     1
 -4.5108856623031551E-01 a      1282     1    10     2     2
  6.5793487069115375E-01 a      1283     1    10     2     3
 -6.7596449851973861E-01 a      1284     1    10     2     4
 -3.5894658050556749E-01 a      1285     1    10     2     5
  8.1891998964424090E-02 a      1286     1    10     2     6
 -4.3156370580446285E-01 a      1287     1    10     2     7
 -8.2426211325921761E-02 a      1288     1    10     2     8
 -6.9808531094768733E-01 a      1289     1    10     2     9
  3.2575614189322111E-01 a      1290     1    10     2    10
  2.5086843621460525E-01 a      1291     1    10     2    11
 -3.9612970659641716E-01 a      1292     1    10     2    12
 -6.2650967877607544E-01 a      1293     1    10     2    13
  6.4899056707627045E-01 a      1294     1    10     2    14
 -9.8780591460336173E-02 a      1295     1    10     2    15
 -2.1927815318089625E-01 a      1296     1    10     2    16
  1.8318717820492050E-01 a      1297     1    10     2    17
 -7.0796513834391073E-01 a      1298     1    10     2    18
 -5.0654763142583981E-01 a      1299     1    10     2    19
  9.4357668575445242E-01 a      1300     1    10     2    20
 -4.7919544446023843E-01 a      1301     1    11     2     1
  7.5342211932141168E-01 a      1302     1    11     2     2
  8.7661762959366826E-02 a      1303     1    11     2     3
  4.8666948306374552E-01 a      1304     1    11     2     4
 -6.6916105907280837E-02 a      1305     1    11     2     5
 -7.7951870163919101E-01 a      1306     1    11     2     6
  3.7642127273553427E-01 a      1307     1    11     2     7
 -3.2639596368833589E-03 a      1308     1    11     2     8
 -6.6660145993035946E-01 a      1309     1    11     2     9
  1.4613483835919372E-01 a      1310     1    11     2    10
  5.9152049468137158E-01 a      1311     1    11     2    11
 -7.0866316873326585E-01 a      1312     1    11     2    12
 -1.4644865731788728E-01 a      1313     1    11     2    13
  5.5532538328341402E-02 a      1314     1    11     2    14
 -5.7198052305060398E-01 a      1315     1    11     2    15
 -3.2771647059355524E-01 a      1316     1    11     2    16
  6.0777498814928876E-01 a      1317     1    11     2    17
  4.8990226887544613E-01 a      1318     1    11     2    18
  3.5114561040693987E-01 a      1319     1    11     2    19
 -4.8735123358332361E-01 a      1320     1    11     2    20
  3.8453562414725279E-01 a      1321     1    12     2     1
  2.2125014143877206E-01 a      1322     1    12     2     2
  6.2665211449422920E-01 a      1323     1    12     2     3
 -3.4640663722336162E-01 a      1324     1    12     2     4
  1.6896478912544394E-01 a      1325     1    12     2     5
  8.6114645327227957E-01 a      1326     1    12     2     6
  2.8415845740271611E-01 a      1327     1    12     2     7
  7.4322261252656763E-01 a      1328     1    12     2     8
 -1.1074030118087329E-01 a      1329     1    12     2     9
 -6.7102799038825778E-01 a      1330     1    12     2    10
  2.8322391635179639E-01 a      1331     1    12     2    11
 -1.1300193540631271E+00 a      1332     1    12     2    12
 -2.4751001808948686E-01 a      1333     1    12     2    13
 -7.6866574168754098E-01 a      1334     1    12     2    14
  1.5428043235961061E-01 a      1335     1    12     2    15
 -8.2552414524355899E-01 a      1336     1    12     2    16
 -4.1715815087864294E-01 a      1337     1    12     2    17
  2.2395540947952419E-01 a      1338     1    12     2    18
  1.7950144919279132E-01 a      1339     1    12     2    19
  1.8681057879737642E-01 a      1340     1    12     2    20
  7.9947531643457706E-02 a      1341     1    13     2     1
  1.5024626510320274E-01 a      1342     1    13     2     2
 -2.2251170232218581E-01 a      1343     1    13     2     3
 -1.6207001867513379E-01 a      1344     1    13     2     4
 -7.5237368824449813E-02 a      1345     1    13     2     5
 -7.2391877376615260E-02 a      1346     1    13     2     6
 -8.0222080038950616E-01 a      1347     1    13     2     7
 -3.4737876874483459E-02 a      1348     1    13     2     8
 -4.3327683953874058E-01 a      1349     1    13     2     9
 -6.0656348271512017E-01 a      1350     1    13     2    10
  1.5041373234735736E-01 a      1351     1    13     2    11
 -4.3230151685994450E-01 a      1352     1    13     2    12
  7.4400576982145716E-01 a      1353     1    13     2    13
 -5.7914063196582888E-01 a      1354     1    13     2    14
 -5.0380118920700001E-01 a      1355     1    13     2    15
 -4.7861243386087621E-01 a      1356     1    13     2    16
 -3.3954976857292940E-01 a      1357     1    13     2    17
 -1.7270803902644774E-01 a      1358     1    13     2    18
 -2.1249865500152154E-01 a      1359     1    13     2    19
  3.2497777995786147E-02 a      1360     1    13     2    20
  1.4492908388259645E-01 a      1361     1    14     2     1
  2.9539889329558006E-01 a      1362     1    14     2     2
 -5.7120723602163403E-01 a      1363     1    14     2     3
  4.4530809017451994E-01 a      1364     1    14     2     4
  5.8940038378935633E-01 a      1365     1    14     2     5
 -3.3696444463277142E-01 a      1366     1    14     2     6
  3.8161437621242750E-01 a      1367     1    14     2     7
 -3.2832751573999858E-01 a      1368     1    14     2     8
  8.1215800849479033E-02 a      1369     1    14     2     9
 -3.9954776189834756E-01 a      1370     1    14     2    10
  4.2532113890219303E-01 a      1371     1    14     2    11
 -8.2116773936997134E-01 a      1372     1    14     2    12
 -4.2167512552498498E-01 a      1373     1    14     2    13
  1.1330698024583132E+00 a      1374     1    14     2    14
  1.5797021319593638E-01 a      1375     1    14     2    15
 -3.2392667808580716E-01 a      1376     1    14     2    16
 -1.3090687107613105E-01 a      1377     1    14     2    17
 -3.5916492436535785E-01 a      1378     1    14     2    18
  1.6345974201892330E-01 a      1379     1    14     2    19
  3.0558022350891959E-02 a      1380     1    14     2    20
 -9.2041463865285778E-01 a      1381     1    15     2     1
 -7.4279696140305762E-01 a      1382     1    15     2     2
  4.3218077034658714E-01 a      1383     1    15     2     3
 -2.6850629685361682E-01 a      1384     1    15     2     4
 -2.9843616608512352E-01 a      1385     1    15     2     5
  1.1054177143455457E+00 a      1386     1    15     2     6
 -3.4811318166463162E-01 a      1387     1    15     2     7
 -3.6893596889716257E-01 a      1388     1    15     2     8
 -5.1167565226293754E-01 a      1389     1    15     2     9
  1.9045177401906091E-01 a      1390     1    15     2    10
 -2.6322506096883008E-02 a      1391     1    15     2    11
 -8.5549978976774765E-01 a      1392     1    15     2    12
  4.8185336480076868E-01 a      1393     1    15     2    13
 -2.7320166636498788E-01 a      1394     1    15     2    14
 -2.7229385941945311E-01 a      1395     1    15     2    15
 -5.9780002296161150E-02 a      1396     1    15     2    16
 -1.8965383296951414E-02 a      1397     1    15     2    17
 -4.4932037242680078E-01 a      1398     1    15     2    18
  9.9150889957697330E-02 a      1399     1    15     2    19
 -5.2521730460979776E-01 a      1400     1    15     2    20
 -7.5935640881365207E-01 a      1401     1    16     2     1
  7.1758761729391252E-01 a      1402     1    16     2     2
 -3.3314914032798862E-02 a      1403     1    16     2     3
  1.0431892073406608E-01 a      1404     1    16     2     4
  1.4215647456132882E-01 a      1405     1    16     2     5
  3.0924314536400815E-01 a      1406     1    16     2     6
  4.0553584339750814E-01 a      1407     1    16     2     7
 -3.8069328241130046E-01 a      1408     1    16     2     8
 -5.2476284703063070E-01 a      1409     1    16     2     9
 -6.9747492899073427E-01 a      1410     1    16     2    10
 -2.1988277943248427E-01 a      1411     1    16     2    11
 -1.0437470203743457E+00 a      1412     1    16     2    12
  4.3818242401126861E-01 a      1413     1    16     2    13
  3.9380411994458558E-01 a      1414     1    16     2    14
  3.1544608303739535E-01 a      1415     1    16     2    15
 -7.2629940908916413E-01 a      1416     1    16     2    16
 -3.2162858518727674E-02 a      1417     1    16     2    17
  3.9521695899755716E-01 a      1418     1    16     2    18
 -1.7521075320566623E-01 a      1419     1    16     2    19
 -3.2545661007501642E-01 a      1420     1    16     2    20
  7.2412557685142087E-01 a      1421     1    17     2     1
  4.8101434885946631E-01 a      1422     1    17     2     2
 -1.0875799210957876E-01 a      1423     1    17     2     3
  3.2738482650247924E-01 a      1424     1    17     2     4
  1.6439492538255882E-01 a      1425     1    17     2     5
  2.5465140239432593E-01 a      1426     1    17     2     6
  1.3024003310919652E-01 a      1427     1    17     2     7
 -5.8925269159798044E-01 a      1428     1    17     2     8
 -8.1411825760528789E-01 a      1429     1    17     2     9
  1.7180444999334746E-01 a      1430     1    17     2    10
 -4.9695754975985335E-01 a      1431     1    17     2    11
  2.1677024198678660E-01 a      1432     1    17     2    12
  1.0869062513783886E-01 a      1433     1    17     2    13
  1.1813747720336140E-01 a      1434     1    17     2    14
  2.6523750487502434E-01 a      1435     1    17     2    15
  2.4825001649866885E-01 a      1436     1    17     2    16
 -5.6784124102756706E-01 a      1437     1    17     2    17
 -4.6068400067895615E-02 a      1438     1    17     2    18
 -4.1071428090025608E-01 a      1439     1    17     2    19
  2.8513505895916964E-02 a      1440     1    17     2    20
  5.1322715759579551E-01 a      1441     1    18     2     1
  6.9165654157087794E-02 a      1442     1    18     2     2
  4.9011344761708299E-02 a      1443     1    18     2     3
  3.9911547576814516E-01 a      1444     1    18     2     4
 -3.5027477178964500E-01 a      1445     1    18     2     5
  3.1541364555984552E-01 a      1446     1    18     2     6
  2.5554077372130979E-01 a      1447     1    18     2     7
  7.1555565096217622E-01 a      1448     1    18     2     8
 -1.5215771029642650E-01 a      1449     1    18     2     9
  3.2142178672924610E-01 a      1450     1    18     2    10
  6.5184025546293101E-02 a      1451     1    18     2    11
 -3.6654596715812515E-01 a      1452     1    18     2    12
 -4.0541578306280018E-01 a      1453     1    18     2    13
  8.5616427764347280E-01 a      1454     1    18     2    14
 -5.6965839612698389E-02 a      1455     1    18     2    15
 -1.1793174165035911E-01 a      1456     1    18     2    16
  2.4419504833139322E-01 a      1457     1    18     2    17
  4.5199116611032691E-01 a      1458     1    18     2    18
 -5.3469282634590853E-01 a      1459     1    18     2    19
 -2.1073260747303113E-01 a      1460     1    18     2    20
 -4.4008230650190372E-01 a      1461     1    19     2     1
 -1.8080840974695347E-01 a      1462     1    19     2     2
  2.8475218384104001E-01 a      1463     1    19     2     3
  2.3579608280500788E-01 a      1464     1    19     2     4
  4.1739126886677358E-02 a      1465     1    19     2     5
  3.4704125281647402E-01 a      1466     1    19     2     6
  1.0349979345368085E-01 a      1467     1    19     2     7
 -3.7155585358240595E-01 a      1468     1    19     2     8
  5.5667253485384496E-02 a      1469     1    19     2     9
 -2.1036036614780895E-01 a      1470     1    19     2    10
  3.7642503090567098E-01 a      1471     1    19     2    11
  7.5903380009802679E-01 a      1472     1    19     2    12
 -1.7853410748108678E-01 a      1473     1    19     2    13
 -2.3304535950866961E-01 a      1474     1    19     2    14
  3.9223984644349946E-01 a      1475     1    19     2    15
  4.7521848136106432E-01 a      1476     1    19     2    16
  3.4975285032969350E-01 a      1477     1    19     2    17
  5.4883254374018731E-01 a      1478     1    19     2    18
  8.1179020912990474E-01 a      1479     1    19     2    19
  8.3567381764969828E-01 a      1480     1    19     2    20
  3.7637890920648998E-01 a      1481     1    20     2     1
  9.0063394820447606E-01 a      1482     1    20     2     2
  5.6415957452550203E-01 a      1483     1    20     2     3
 -7.9855516005010646E-02 a      1484     1    20     2     4
 -5.8006174654549536E-01 a      1485     1    20     2     5
  2.0140725419262978E-01 a      1486     1    20     2     6
 -1.2162678660099970E+00 a      1487     1    20     2     7
  4.3033694546176160E-01 a      1488     1    20     2     8
  6.4680024576611705E-01 a      1489     1    20     2     9
 -3.0827511318675360E-01 a      1490     1    20     2    10
 -1.4628655840844952E-02 a      1491     1    20     2    11
 -3.3597552880667064E-01 a      1492     1    20     2    12
 -8.4531280720715707E-01 a      1493     1    20     2    13
  2.3972733060953283E-01 a      1494     1    20     2    14
 -3.6408581942498042E-01 a      1495     1    20     2    15
 -2.9307420593011330E-01 a      1496     1    20     2    16
 -9.1545561120463581E-01 a      1497     1    20     2    17
 -9.0469652881159424E-01 a      1498     1    20     2    18
 -2.1817630913276931E-02 a      1499     1    20     2    19
 -7.0343155911082234E-01 a      1500     1    20     2    20
 -1.9936087703043842E-01 b      1501     2     1
  6.4788870771533968E-01 b      1502     2     2
  9.0496184426979498E-01 b      1503     2     3
 -1.3848245852096275E+00 b      1504     2     4
  6.4594063045850192E-01 b      1505     2     5
  4.8463163591970669E-03 b      1506     2     6
  2.8713211365897641E-02 b      1507     2     7
 -1.1262051721904052E+00 b      1508     2     8
 -1.4633756310245001E+00 b      1509     2     9
 -2.4867084679821286E-01 b      1510     2    10
  3.3389154344801764E-01 b      1511     2    11
 -1.3403333048625017E+00 b      1512     2    12
  1.2224968164293402E+00 b      1513     2    13
 -1.8891028542005156E-01 b      1514     2    14
 -6.9398991122048767E-02 b      1515     2    15
 -7.0816320790978693E-01 b      1516     2    16
 -8.3424182440478967E-01 b      1517     2    17
  1.3834113085950748E+00 b      1518     2    18
 -1.9428733990240064E+00 b      1519     2    19
  2.4418871006880929E-01 b      1520     2    20
 -1.8390050635730004E-01 a      1521     2     1     3     1
  1.4751680039885071E-01 a      1522     2     2     3     1
 -5.8252686128169384E-01 a      1523     2     3     3     1
  4.8572728178815799E-01 a      1524     2     4     3     1
  1.6496260313555007E-02 a      1525     2     5     3     1
  1.2378493330025914E-01 a      1526     2     6     3     1
 -5.8161269923367176E-01 a      1527     2     7     3     1
  9.1666048161493452E-01 a      1528     2     8     3     1
 -4.5604949536248024E-01 a      1529     2     9     3     1
  3.5296736394825806E-01 a      1530     2    10     3     1
 -1.6439066497331312E-01 a      1531     2    11     3     1
  9.8949911418347114E-01 a      1532     2    12     3     1
  5.6208239530346878E-02 a      1533     2    13     3     1
  7.5165936729242055E-01 a      1534     2    14     3     1
  1.0176438340999123E+00 a      1535     2    15     3     1
 -4.1410851511539043E-01 a      1536     2    16     3     1
  6.1997895440287598E-01 a      1537     2    17     3     1
 -1.5965173656086664E+00 a      1538     2    18     3     1
 -4.6351602569369231E-02 a      1539     2    19     3     1
 -1.4840873962239836E+00 a      1540     2    20     3     1
 -7.5079798072636894E-01 b      1541     3     1
