################################################################################
# Neural network connection values (weights and biases).
################################################################################
# Col  Name       Description
################################################################################
# 1    connection Neural network connection value.
# 2    t          Connection type (a = weight, b = bias).
# 3    index      Index enumerating weights.
# 4    l_s        Starting point layer (end point layer for biases).
# 5    n_s        Starting point neuron in starting layer (end point neuron for biases).
# 6    l_e        End point layer.
# 7    n_e        End point neuron in end layer.
################################################################################
#                      1 2         3     4     5     6     7
#             connection t     index   l_s   n_s   l_e   n_e
############################################################
  1.0249049402778034E+00 a         1     0     1     1     1
 -4.6308506694620644E-01 a         2     0     1     1     2
 -3.5621468180401600E-01 a         3     0     1     1     3
 -1.4733996025259410E-01 a         4     0     1     1     4
 -2.2309796021628744E-02 a         5     0     1     1     5
 -4.6529726981515551E-01 a         6     0     1     1     6
  4.8231512515306545E-02 a         7     0     1     1     7
  7.2864362078660094E-01 a         8     0     1     1     8
  2.3186332778372951E-01 a         9     0     1     1     9
 -3.2049002739192295E-01 a        10     0     1     1    10
 -3.0728190395153993E-01 a        11     0     1     1    11
  4.1965248998457987E-02 a        12     0     1     1    12
 -4.6717323941185496E-01 a        13     0     1     1    13
 -2.3895153832207822E-02 a        14     0     1     1    14
 -2.5233865905724900E-01 a        15     0     1     1    15
  1.7196767854549155E-01 a        16     0     1     1    16
  2.0582950704521344E-01 a        17     0     1     1    17
 -2.2804773389684393E-01 a        18     0     1     1    18
  9.1209380593702094E-02 a        19     0     1     1    19
  2.2016779342608064E-01 a        20     0     1     1    20
  4.8844205936896562E-02 a        21     0     2     1     1
 -1.0746840731848843E-01 a        22     0     2     1     2
 -1.3967743725428838E-01 a        23     0     2     1     3
 -7.8054585863476481E-02 a        24     0     2     1     4
 -1.1993579752214874E-01 a        25     0     2     1     5
 -6.0758430607700330E-02 a        26     0     2     1     6
 -1.8800963216778233E-01 a        27     0     2     1     7
 -1.4628220618154317E-01 a        28     0     2     1     8
  1.5807613319512392E-01 a        29     0     2     1     9
  2.8484827908889187E-02 a        30     0     2     1    10
 -8.1781004534272173E-02 a        31     0     2     1    11
 -8.7694321414615736E-02 a        32     0     2     1    12
  5.1698784143229440E-02 a        33     0     2     1    13
 -1.2183440086482368E-01 a        34     0     2     1    14
 -1.6314680655930333E-01 a        35     0     2     1    15
  1.0326202139228494E-01 a        36     0     2     1    16
  4.4896052743198210E-02 a        37     0     2     1    17
  5.8188575405938497E-02 a        38     0     2     1    18
  1.4195392154726189E-01 a        39     0     2     1    19
 -3.3314556048620941E-01 a        40     0     2     1    20
 -6.9635913465733071E-02 a        41     0     3     1     1
 -2.6180335781702598E-02 a        42     0     3     1     2
  6.8985900168785405E-02 a        43     0     3     1     3
  1.0425054836943882E-02 a        44     0     3     1     4
  9.1948508689993214E-02 a        45     0     3     1     5
  6.7980585895762405E-02 a        46     0     3     1     6
  1.3732207653991654E-01 a        47     0     3     1     7
 -1.4485154386030923E-02 a        48     0     3     1     8
  6.9321505908078312E-02 a        49     0     3     1     9
  4.5152076012122989E-02 a        50     0     3     1    10
 -5.8065463119991403E-02 a        51     0     3     1    11
  6.2717830410950678E-02 a        52     0     3     1    12
 -2.4622405308269632E-02 a        53     0     3     1    13
 -8.7738320485055386E-03 a        54     0     3     1    14
 -2.5766820677655858E-02 a        55     0     3     1    15
  6.4442862451695559E-02 a        56     0     3     1    16
 -1.0459861294604025E-01 a        57     0     3     1    17
  1.3622180596012565E-01 a        58     0     3     1    18
  1.4543371847414305E-01 a        59     0     3     1    19
 -6.9145206471459650E-02 a        60     0     3     1    20
 -1.2924972941819437E+00 a        61     0     4     1     1
  8.4866745770556462E-01 a        62     0     4     1     2
 -6.4592487097561913E-01 a        63     0     4     1     3
 -7.2851399114362100E-02 a        64     0     4     1     4
 -4.0242815367604889E-01 a        65     0     4     1     5
  2.3864905203453873E-01 a        66     0     4     1     6
  9.2611943969371713E-01 a        67     0     4     1     7
 -2.5066335401978290E-01 a        68     0     4     1     8
 -6.9401868357728458E-01 a        69     0     4     1     9
  8.0023153010559511E-01 a        70     0     4     1    10
  2.0650191159094203E-01 a        71     0     4     1    11
  3.0872509571829215E-01 a        72     0     4     1    12
  8.7871486526687825E-01 a        73     0     4     1    13
  2.9381451263193675E-02 a        74     0     4     1    14
  2.6309977913697202E-01 a        75     0     4     1    15
 -1.1188778863874131E-01 a        76     0     4     1    16
 -5.4465441680235505E-01 a        77     0     4     1    17
  1.0219428399502233E+00 a        78     0     4     1    18
  5.6940677161373821E-01 a        79     0     4     1    19
  1.5229393885872000E+00 a        80     0     4     1    20
 -3.0916544855261040E-02 a        81     0     5     1     1
 -7.4575390399344577E-02 a        82     0     5     1     2
  1.1348184309225152E-01 a        83     0     5     1     3
  9.5988472309191233E-02 a        84     0     5     1     4
  1.8674010263286941E-01 a        85     0     5     1     5
 -1.3086770999724658E-02 a        86     0     5     1     6
  2.4735331335751723E-01 a        87     0     5     1     7
  1.5498465712964957E-01 a        88     0     5     1     8
 -1.6037709132785807E-01 a        89     0     5     1     9
  4.5152753684821009E-02 a        90     0     5     1    10
  9.8433321846902497E-02 a        91     0     5     1    11
  2.2823804181722271E-01 a        92     0     5     1    12
 -1.8398802979750439E-01 a        93     0     5     1    13
  8.5126254663644721E-02 a        94     0     5     1    14
  5.4600279964019456E-02 a        95     0     5     1    15
 -1.5123158112572141E-01 a        96     0     5     1    16
 -9.1516405160759658E-03 a        97     0     5     1    17
  5.7529166763994735E-02 a        98     0     5     1    18
 -2.4426543576391260E-01 a        99     0     5     1    19
  2.7918549232386203E-01 a       100     0     5     1    20
  9.7836053513263146E-02 a       101     0     6     1     1
  1.4938801129601570E-01 a       102     0     6     1     2
  1.5595704407545827E-01 a       103     0     6     1     3
  2.1964889783717339E-02 a       104     0     6     1     4
 -2.1871246861395116E-01 a       105     0     6     1     5
  7.1363598066644168E-03 a       106     0     6     1     6
 -1.1891934385647654E-01 a       107     0     6     1     7
 -2.3548041738230688E-01 a       108     0     6     1     8
 -1.2813706324563012E-01 a       109     0     6     1     9
 -6.9600553584920413E-03 a       110     0     6     1    10
  1.4809874172855375E-01 a       111     0     6     1    11
  1.4988013044558443E-01 a       112     0     6     1    12
  1.8563892049429190E-01 a       113     0     6     1    13
 -2.7666828510909258E-01 a       114     0     6     1    14
  1.0685125320960374E-01 a       115     0     6     1    15
 -6.9261603829417540E-02 a       116     0     6     1    16
  2.5357326802402352E-01 a       117     0     6     1    17
 -4.5701478074462482E-02 a       118     0     6     1    18
 -3.4144236132174222E-01 a       119     0     6     1    19
  1.2178569984415764E-01 a       120     0     6     1    20
  6.1123633093588770E-01 a       121     0     7     1     1
 -6.3200388176074851E-01 a       122     0     7     1     2
  3.1643755431335796E-01 a       123     0     7     1     3
 -1.7925414282979783E-02 a       124     0     7     1     4
 -3.2493324292841644E-02 a       125     0     7     1     5
 -9.9764189049057339E-01 a       126     0     7     1     6
 -9.3087240362325563E-01 a       127     0     7     1     7
  3.4738477237217145E-02 a       128     0     7     1     8
  1.8401778758220053E-01 a       129     0     7     1     9
 -5.5081854826004062E-01 a       130     0     7     1    10
 -2.2011559078357598E-01 a       131     0     7     1    11
  2.3770510322693981E-02 a       132     0     7     1    12
 -2.9345096532218895E-01 a       133     0     7     1    13
 -9.7697751175332304E-01 a       134     0     7     1    14
 -3.5462488701194084E-01 a       135     0     7     1    15
 -1.2274498352284106E-02 a       136     0     7     1    16
  1.2925003598011184E-01 a       137     0     7     1    17
 -3.6267023352169322E-03 a       138     0     7     1    18
  1.0425307768038689E-01 a       139     0     7     1    19
  1.4703412061219842E-01 a       140     0     7     1    20
 -7.8793196253502215E-02 a       141     0     8     1     1
  1.4278865436566193E-01 a       142     0     8     1     2
  1.6698768047468676E-01 a       143     0     8     1     3
 -1.9242103068982203E-01 a       144     0     8     1     4
 -7.8319518543718589E-02 a       145     0     8     1     5
  1.5576229660621144E-01 a       146     0     8     1     6
  7.0189208440691764E-02 a       147     0     8     1     7
  4.2202106145455387E-02 a       148     0     8     1     8
 -8.0173203064364970E-02 a       149     0     8     1     9
  2.6123807401839127E-02 a       150     0     8     1    10
 -1.5262406208799213E-02 a       151     0     8     1    11
 -4.8757067516191591E-02 a       152     0     8     1    12
  1.5177506871944035E-01 a       153     0     8     1    13
  2.0337775060405638E-01 a       154     0     8     1    14
  2.4305161143644100E-01 a       155     0     8     1    15
 -2.8614600710566547E-02 a       156     0     8     1    16
 -2.1833603062698020E-01 a       157     0     8     1    17
 -1.4467481965215798E-01 a       158     0     8     1    18
  1.7836501218872497E-01 a       159     0     8     1    19
 -1.6201071451674148E-01 a       160     0     8     1    20
  2.3966255121711230E-01 a       161     0     9     1     1
 -2.2665030688903173E-01 a       162     0     9     1     2
  2.1159800960948077E-01 a       163     0     9     1     3
  7.0839508607602464E-02 a       164     0     9     1     4
  1.5502872157895961E-01 a       165     0     9     1     5
  3.1006511125081443E-01 a       166     0     9     1     6
  8.4523003013709103E-02 a       167     0     9     1     7
  1.0116668752286086E-01 a       168     0     9     1     8
  2.4724116456746503E-02 a       169     0     9     1     9
 -2.8268740891078337E-01 a       170     0     9     1    10
  1.4545319683673400E-02 a       171     0     9     1    11
 -1.9685093638360218E-01 a       172     0     9     1    12
 -4.3788170731131398E-01 a       173     0     9     1    13
  4.6939320171039028E-01 a       174     0     9     1    14
  4.3033333682401520E-01 a       175     0     9     1    15
 -2.0588180392988223E-01 a       176     0     9     1    16
 -2.3630020254898146E-01 a       177     0     9     1    17
 -2.0371577283048506E-01 a       178     0     9     1    18
  1.6428805280297384E-01 a       179     0     9     1    19
 -1.9562907542544783E-01 a       180     0     9     1    20
 -7.4913640105942747E-01 a       181     0    10     1     1
  4.9550704585710575E-01 a       182     0    10     1     2
 -9.3742021584950319E-01 a       183     0    10     1     3
  6.0409428507065133E-01 a       184     0    10     1     4
  8.6272971000598969E-02 a       185     0    10     1     5
  4.9067020741224993E-01 a       186     0    10     1     6
  8.5309398199853292E-01 a       187     0    10     1     7
 -2.3031022507578255E-01 a       188     0    10     1     8
 -7.2973990123456012E-01 a       189     0    10     1     9
  1.8775738753051252E-01 a       190     0    10     1    10
  1.2881475841821494E-02 a       191     0    10     1    11
 -1.2003166873033967E-01 a       192     0    10     1    12
  5.5119343140455612E-01 a       193     0    10     1    13
  4.4952404209271046E-01 a       194     0    10     1    14
  2.2772093129512808E-01 a       195     0    10     1    15
 -5.1713965748168211E-01 a       196     0    10     1    16
 -2.9551666090694761E-01 a       197     0    10     1    17
  2.6126569388518339E-01 a       198     0    10     1    18
  4.2559267405914564E-01 a       199     0    10     1    19
 -2.2643354245561076E-02 a       200     0    10     1    20
  2.5510757975142445E-01 a       201     0    11     1     1
 -1.1245095010222328E-01 a       202     0    11     1     2
  1.5938176871276022E-01 a       203     0    11     1     3
  1.2377765014335813E-02 a       204     0    11     1     4
 -6.0394265025677810E-02 a       205     0    11     1     5
 -2.5586482204683003E-01 a       206     0    11     1     6
  5.4765031184226841E-02 a       207     0    11     1     7
  2.2370140275510745E-03 a       208     0    11     1     8
  1.4992878953901972E-01 a       209     0    11     1     9
 -2.4352057677814926E-01 a       210     0    11     1    10
  1.2696199369726791E-01 a       211     0    11     1    11
  6.0381156264707282E-02 a       212     0    11     1    12
 -1.4045083057128765E-01 a       213     0    11     1    13
  1.5766075167758301E-01 a       214     0    11     1    14
 -6.7350352729716748E-02 a       215     0    11     1    15
  2.4012120712801382E-02 a       216     0    11     1    16
 -3.0974108449713289E-01 a       217     0    11     1    17
 -1.7879725029334068E-01 a       218     0    11     1    18
 -4.9231819214666961E-02 a       219     0    11     1    19
  1.4796941070196837E-01 a       220     0    11     1    20
  2.0169706269952437E-01 a       221     0    12     1     1
 -2.0848950626693255E-01 a       222     0    12     1     2
  3.1638965966681615E-01 a       223     0    12     1     3
 -3.5658168279974439E-01 a       224     0    12     1     4
 -1.4443292563965646E-01 a       225     0    12     1     5
  6.9690930095584702E-01 a       226     0    12     1     6
  1.7310066166290392E-01 a       227     0    12     1     7
 -2.6167936567198696E-01 a       228     0    12     1     8
  3.7378939037554036E-02 a       229     0    12     1     9
  1.4399987336359471E-01 a       230     0    12     1    10
 -2.8816669628811636E-01 a       231     0    12     1    11
  1.3245801678620595E-01 a       232     0    12     1    12
 -5.5393222907859738E-02 a       233     0    12     1    13
  1.4645934944321695E-01 a       234     0    12     1    14
  5.1941555659159491E-02 a       235     0    12     1    15
  2.8880072449019602E-02 a       236     0    12     1    16
  3.4497543183361062E-01 a       237     0    12     1    17
 -5.2478772136562317E-02 a       238     0    12     1    18
 -2.5045773728030435E-01 a       239     0    12     1    19
 -1.4094641595645049E-01 a       240     0    12     1    20
  6.8242728792361498E-02 a       241     0    13     1     1
  1.0433099355151529E-01 a       242     0    13     1     2
 -9.0370273607060958E-02 a       243     0    13     1     3
 -1.6288897121382883E-02 a       244     0    13     1     4
 -1.9168448720632159E-01 a       245     0    13     1     5
 -9.8447943987741304E-01 a       246     0    13     1     6
 -4.6051999426216922E-01 a       247     0    13     1     7
  2.6768576986242987E-01 a       248     0    13     1     8
  4.2041275994037247E-01 a       249     0    13     1     9
 -1.1959515209792804E-01 a       250     0    13     1    10
 -2.8774329539359499E-02 a       251     0    13     1    11
 -2.0114067152678744E-02 a       252     0    13     1    12
 -1.7541607608590880E-02 a       253     0    13     1    13
 -9.8528238576782878E-01 a       254     0    13     1    14
  4.9264696440471195E-01 a       255     0    13     1    15
  1.0454740707368472E-01 a       256     0    13     1    16
  1.4038777546920211E-01 a       257     0    13     1    17
 -1.2701513797975689E-01 a       258     0    13     1    18
 -3.0466425012791415E-01 a       259     0    13     1    19
  5.5893053535132664E-01 a       260     0    13     1    20
 -2.3485042666831157E-01 a       261     0    14     1     1
 -9.2896597427706742E-02 a       262     0    14     1     2
 -1.0366273943140582E-01 a       263     0    14     1     3
 -1.7313882772300976E-01 a       264     0    14     1     4
 -4.7476172456734536E-02 a       265     0    14     1     5
  9.1640056446815929E-02 a       266     0    14     1     6
  1.5274346268205433E-01 a       267     0    14     1     7
  3.9443528346741828E-02 a       268     0    14     1     8
 -1.7009078398424513E-01 a       269     0    14     1     9
  1.9961943018525685E-01 a       270     0    14     1    10
 -2.1782422714868035E-01 a       271     0    14     1    11
  1.5813460318315375E-01 a       272     0    14     1    12
 -1.2370141524230964E-01 a       273     0    14     1    13
 -1.9395674035151933E-01 a       274     0    14     1    14
 -1.2538100840329228E-01 a       275     0    14     1    15
  3.1988008736848393E-02 a       276     0    14     1    16
 -1.0586924190676340E-01 a       277     0    14     1    17
  2.8458807477180698E-01 a       278     0    14     1    18
 -1.3013046487660837E-01 a       279     0    14     1    19
  7.7338314485943901E-02 a       280     0    14     1    20
  2.2404677469462050E-01 a       281     0    15     1     1
  4.2650707969779406E-02 a       282     0    15     1     2
  2.0513556323713919E-01 a       283     0    15     1     3
 -3.9447012345578580E-01 a       284     0    15     1     4
 -3.3152486833021078E-01 a       285     0    15     1     5
  4.7445361716799367E-01 a       286     0    15     1     6
  2.0088406169429546E-01 a       287     0    15     1     7
 -1.5794549483364848E-01 a       288     0    15     1     8
 -1.1773349488890793E-01 a       289     0    15     1     9
 -4.6270231301002877E-02 a       290     0    15     1    10
  3.2314015509519040E-01 a       291     0    15     1    11
  2.1220272355679382E-01 a       292     0    15     1    12
 -9.7369164946068912E-02 a       293     0    15     1    13
  1.6740595895169813E-01 a       294     0    15     1    14
  1.0427465678408000E-02 a       295     0    15     1    15
  1.1166027760897060E-01 a       296     0    15     1    16
  2.0089985696523621E-02 a       297     0    15     1    17
  9.2087418285780612E-02 a       298     0    15     1    18
  1.4566625919118642E-01 a       299     0    15     1    19
  1.7342733991914316E-01 a       300     0    15     1    20
 -2.9010825094047943E-01 a       301     0    16     1     1
 -1.9191184964747210E-01 a       302     0    16     1     2
 -7.3046528282368051E-01 a       303     0    16     1     3
  1.6740132702014904E-01 a       304     0    16     1     4
  5.5104186009514611E-01 a       305     0    16     1     5
  4.8642164028836643E-01 a       306     0    16     1     6
  2.4231306422213292E-01 a       307     0    16     1     7
 -3.6714944386300241E-02 a       308     0    16     1     8
 -2.4636897910588648E-01 a       309     0    16     1     9
  1.5152139530599346E-01 a       310     0    16     1    10
 -2.5022744203542030E-01 a       311     0    16     1    11
 -5.3305351361556544E-03 a       312     0    16     1    12
  2.0219683156195711E-01 a       313     0    16     1    13
  6.0245830972513881E-01 a       314     0    16     1    14
 -1.9777508290618750E-02 a       315     0    16     1    15
 -3.4868566582721028E-01 a       316     0    16     1    16
 -5.0888745767495878E-02 a       317     0    16     1    17
  3.7058708909996402E-01 a       318     0    16     1    18
  3.6885438496252482E-01 a       319     0    16     1    19
 -3.5715528926281431E-01 a       320     0    16     1    20
  8.8779583150021088E-02 a       321     0    17     1     1
  1.3368184258843355E-01 a       322     0    17     1     2
  2.3125875952283068E-01 a       323     0    17     1     3
  1.6525611765773737E-01 a       324     0    17     1     4
 -1.1714774429583040E-02 a       325     0    17     1     5
  1.4871081957958440E-01 a       326     0    17     1     6
  3.2625628149497862E-02 a       327     0    17     1     7
  2.8989894323259449E-02 a       328     0    17     1     8
  6.1006569028536746E-02 a       329     0    17     1     9
 -8.7584776023137426E-02 a       330     0    17     1    10
  2.1770091845385811E-01 a       331     0    17     1    11
  1.3271026999930354E-02 a       332     0    17     1    12
 -1.1353240524213060E-01 a       333     0    17     1    13
  2.5074266034071549E-02 a       334     0    17     1    14
 -6.8271227865288314E-03 a       335     0    17     1    15
  8.6261461787858346E-03 a       336     0    17     1    16
 -1.2232277135534750E-01 a       337     0    17     1    17
  9.1509404972789338E-02 a       338     0    17     1    18
  8.5950928441101512E-02 a       339     0    17     1    19
 -1.1318347244408873E-01 a       340     0    17     1    20
  1.9487524254812560E-01 a       341     0    18     1     1
  2.8260490778815105E-02 a       342     0    18     1     2
  5.2686069348348985E-01 a       343     0    18     1     3
 -2.1031075123053650E-01 a       344     0    18     1     4
 -1.7025621105270333E-01 a       345     0    18     1     5
  2.1706460239602246E-01 a       346     0    18     1     6
 -1.4337566389697948E-01 a       347     0    18     1     7
  1.5041058064228133E-01 a       348     0    18     1     8
 -1.1222099721980974E-01 a       349     0    18     1     9
  1.4516762753385601E-01 a       350     0    18     1    10
 -2.0492352898368257E-02 a       351     0    18     1    11
 -1.0549177941610673E-02 a       352     0    18     1    12
 -2.2303156407183461E-01 a       353     0    18     1    13
  1.2412164646007412E-01 a       354     0    18     1    14
 -3.8251719904486065E-01 a       355     0    18     1    15
  7.2681793161986450E-03 a       356     0    18     1    16
  1.4440364512116799E-01 a       357     0    18     1    17
  1.9017959578382457E-02 a       358     0    18     1    18
 -9.5119570585147958E-02 a       359     0    18     1    19
  1.3705243055100041E-01 a       360     0    18     1    20
 -1.9216573461552910E-01 a       361     0    19     1     1
  1.1375241392607811E-01 a       362     0    19     1     2
  1.4528717923176906E-01 a       363     0    19     1     3
  1.0253050178589319E-01 a       364     0    19     1     4
 -8.5242350227439659E-02 a       365     0    19     1     5
 -6.6573605613672648E-01 a       366     0    19     1     6
  9.5288622611974988E-02 a       367     0    19     1     7
 -2.3944772524592464E-01 a       368     0    19     1     8
  1.9837938455709034E-01 a       369     0    19     1     9
  1.0376809394502727E-01 a       370     0    19     1    10
  1.8728937513527555E-01 a       371     0    19     1    11
 -7.5901575019177200E-02 a       372     0    19     1    12
  1.0096196153245091E-01 a       373     0    19     1    13
 -6.1137774015453838E-01 a       374     0    19     1    14
  1.8039014403117681E-01 a       375     0    19     1    15
  5.0550300702688421E-02 a       376     0    19     1    16
 -1.0830015773726857E-01 a       377     0    19     1    17
 -2.8304204841583891E-01 a       378     0    19     1    18
 -1.9203891054278385E-01 a       379     0    19     1    19
 -4.4038584067713472E-02 a       380     0    19     1    20
 -4.4932623154014119E-02 a       381     0    20     1     1
 -1.7846644968041650E-01 a       382     0    20     1     2
 -1.4681505547917140E-01 a       383     0    20     1     3
 -2.5460850704938892E-01 a       384     0    20     1     4
 -1.4187985618496277E-02 a       385     0    20     1     5
 -2.5130946913722535E-01 a       386     0    20     1     6
  3.1940215654978905E-02 a       387     0    20     1     7
  3.7978006121188783E-02 a       388     0    20     1     8
 -5.4662759909623618E-02 a       389     0    20     1     9
  8.6208497562774947E-02 a       390     0    20     1    10
 -1.2822967603597848E-01 a       391     0    20     1    11
  1.2219219070453124E-01 a       392     0    20     1    12
  7.5406650000046746E-02 a       393     0    20     1    13
  3.4415596833871548E-02 a       394     0    20     1    14
  2.0602606352480421E-03 a       395     0    20     1    15
  1.1472394198821779E-02 a       396     0    20     1    16
 -2.3879427823399477E-01 a       397     0    20     1    17
 -1.0431132124187110E-01 a       398     0    20     1    18
 -1.3332877949822053E-01 a       399     0    20     1    19
  9.6443050676020534E-02 a       400     0    20     1    20
  1.5935445283837391E-01 a       401     0    21     1     1
  7.6966430873327649E-02 a       402     0    21     1     2
  1.1480567182360471E-02 a       403     0    21     1     3
  6.2100557279267492E-02 a       404     0    21     1     4
 -3.3378229090899214E-01 a       405     0    21     1     5
  2.8934842276262690E-01 a       406     0    21     1     6
  1.1463566596199093E-02 a       407     0    21     1     7
 -1.2303042955854243E-01 a       408     0    21     1     8
 -1.4075819712615689E-01 a       409     0    21     1     9
 -2.6944355533120928E-01 a       410     0    21     1    10
  1.7015468621104349E-01 a       411     0    21     1    11
  7.2117426057604836E-02 a       412     0    21     1    12
  3.5699805821068215E-02 a       413     0    21     1    13
 -5.3794896713907844E-02 a       414     0    21     1    14
 -8.5087468865048338E-02 a       415     0    21     1    15
  1.4018740921522907E-01 a       416     0    21     1    16
 -5.3559665004145954E-02 a       417     0    21     1    17
  2.6284827101490608E-02 a       418     0    21     1    18
  6.8701342401700213E-02 a       419     0    21     1    19
 -3.2966352825612867E-02 a       420     0    21     1    20
 -1.1158955037946879E-01 a       421     0    22     1     1
 -2.3124331606492432E-01 a       422     0    22     1     2
 -1.6331445724675819E-01 a       423     0    22     1     3
  1.0363175135032197E-01 a       424     0    22     1     4
  2.1274159007520116E-01 a       425     0    22     1     5
  3.1781382255888202E-01 a       426     0    22     1     6
  3.3090195843843491E-02 a       427     0    22     1     7
 -1.2526183994529932E-01 a       428     0    22     1     8
 -1.9379035493767187E-03 a       429     0    22     1     9
 -5.6102898374921890E-02 a       430     0    22     1    10
 -1.0644961814861047E-01 a       431     0    22     1    11
  6.7713038572860956E-02 a       432     0    22     1    12
  7.1699506243743980E-02 a       433     0    22     1    13
  1.3961108246948875E-01 a       434     0    22     1    14
  8.6761971876856733E-02 a       435     0    22     1    15
 -1.3432616375931646E-03 a       436     0    22     1    16
 -2.5639575832919072E-02 a       437     0    22     1    17
  2.5519807656470306E-01 a       438     0    22     1    18
  2.2268436189423438E-01 a       439     0    22     1    19
  2.2586661896682975E-01 a       440     0    22     1    20
  3.7484319110046446E-02 a       441     0    23     1     1
  2.1133721410050288E-01 a       442     0    23     1     2
 -2.4920164595005231E-02 a       443     0    23     1     3
  1.1590081940311740E-01 a       444     0    23     1     4
  5.9319647894534082E-02 a       445     0    23     1     5
  2.4154664740140938E-01 a       446     0    23     1     6
 -8.3492409253552460E-02 a       447     0    23     1     7
 -4.4350000500128330E-03 a       448     0    23     1     8
  2.3830807731980080E-02 a       449     0    23     1     9
 -6.0718964686929791E-02 a       450     0    23     1    10
  2.9359506755959166E-03 a       451     0    23     1    11
 -1.6200818938525377E-01 a       452     0    23     1    12
 -1.3263538921479048E-01 a       453     0    23     1    13
 -8.2446019834131842E-02 a       454     0    23     1    14
  6.1357046989042111E-02 a       455     0    23     1    15
 -1.5228607233798597E-02 a       456     0    23     1    16
  2.5750625710823355E-01 a       457     0    23     1    17
  1.4360379437039950E-01 a       458     0    23     1    18
  7.9606983807700663E-02 a       459     0    23     1    19
 -6.3658238083446020E-02 a       460     0    23     1    20
  2.5425217370776138E-01 a       461     0    24     1     1
  7.4558268597298277E-02 a       462     0    24     1     2
  1.6448221896111484E-01 a       463     0    24     1     3
 -3.1282483081694662E-01 a       464     0    24     1     4
 -1.3959822027223198E-01 a       465     0    24     1     5
  1.9579113132999808E-02 a       466     0    24     1     6
 -2.0933254862011427E-01 a       467     0    24     1     7
  3.0291167018906334E-01 a       468     0    24     1     8
 -5.6521236626588409E-02 a       469     0    24     1     9
  1.2498600017051659E-01 a       470     0    24     1    10
 -5.4190403640236390E-02 a       471     0    24     1    11
 -1.1761796255008339E-01 a       472     0    24     1    12
 -1.4667559291846555E-01 a       473     0    24     1    13
  2.4547100988553741E-01 a       474     0    24     1    14
 -2.1934995460304743E-01 a       475     0    24     1    15
 -9.7165067274567279E-02 a       476     0    24     1    16
  3.5099062393540637E-01 a       477     0    24     1    17
 -5.7532219428996931E-02 a       478     0    24     1    18
 -3.9571809489788674E-02 a       479     0    24     1    19
  9.1132831946401496E-02 a       480     0    24     1    20
  8.3672742789464207E-03 a       481     0    25     1     1
  1.1402863020306686E-01 a       482     0    25     1     2
  5.4602617265302994E-02 a       483     0    25     1     3
  1.4380944251022629E-01 a       484     0    25     1     4
  7.8847612031513942E-02 a       485     0    25     1     5
 -2.3028800687965148E-01 a       486     0    25     1     6
 -1.8070739768753414E-02 a       487     0    25     1     7
  5.7947773969025146E-02 a       488     0    25     1     8
  6.8568022576541154E-02 a       489     0    25     1     9
 -5.1480919107801653E-03 a       490     0    25     1    10
 -2.2633297100036489E-03 a       491     0    25     1    11
 -1.3228138326806551E-02 a       492     0    25     1    12
 -5.3938467054646062E-02 a       493     0    25     1    13
 -1.2454054217723028E-01 a       494     0    25     1    14
  8.7714143334881742E-02 a       495     0    25     1    15
 -8.1504762245715762E-02 a       496     0    25     1    16
 -4.4523539511775810E-02 a       497     0    25     1    17
 -1.5229952894397913E-01 a       498     0    25     1    18
 -1.2575057020180835E-01 a       499     0    25     1    19
 -2.0522827887764525E-01 a       500     0    25     1    20
 -1.2111589778361615E-02 a       501     0    26     1     1
 -1.4839620330196474E-01 a       502     0    26     1     2
  1.1329725446960917E-01 a       503     0    26     1     3
 -4.9129318051007731E-02 a       504     0    26     1     4
 -2.2160746169929961E-02 a       505     0    26     1     5
 -1.8333784442372320E-01 a       506     0    26     1     6
  2.6568829799559324E-02 a       507     0    26     1     7
 -2.6512317262454331E-03 a       508     0    26     1     8
 -2.1398487733752549E-02 a       509     0    26     1     9
  8.4599726018722038E-02 a       510     0    26     1    10
  5.4150865686992115E-02 a       511     0    26     1    11
  1.4526153310426182E-01 a       512     0    26     1    12
  1.5749013613372426E-01 a       513     0    26     1    13
  8.1266515031673300E-02 a       514     0    26     1    14
 -1.8938806263083311E-02 a       515     0    26     1    15
 -3.6785594912798071E-02 a       516     0    26     1    16
 -1.2192060028125806E-01 a       517     0    26     1    17
 -9.9762011108001578E-02 a       518     0    26     1    18
 -5.1877714000408207E-03 a       519     0    26     1    19
  2.1988706702749236E-03 a       520     0    26     1    20
 -6.8294604376944082E-02 a       521     0    27     1     1
  1.0404790308156200E-01 a       522     0    27     1     2
 -1.0606778255312502E-01 a       523     0    27     1     3
  9.2574281253241283E-02 a       524     0    27     1     4
 -4.6677077370431891E-02 a       525     0    27     1     5
  9.6120827125708436E-02 a       526     0    27     1     6
  8.0493766968888991E-02 a       527     0    27     1     7
  1.3280757221009546E-02 a       528     0    27     1     8
 -1.5855569231108826E-02 a       529     0    27     1     9
 -7.1464896655536125E-02 a       530     0    27     1    10
  3.2702236952735997E-02 a       531     0    27     1    11
  6.8737705557772366E-02 a       532     0    27     1    12
  3.0029255821179244E-02 a       533     0    27     1    13
 -5.7756344460888231E-02 a       534     0    27     1    14
 -4.7258568696854361E-03 a       535     0    27     1    15
  1.0789655954196570E-01 a       536     0    27     1    16
 -1.7711165498159318E-01 a       537     0    27     1    17
  6.1040635111874769E-02 a       538     0    27     1    18
 -2.3425098894779228E-02 a       539     0    27     1    19
  4.5511386765632884E-02 a       540     0    27     1    20
 -8.5908891031151416E-02 a       541     0    28     1     1
 -1.0962751986449149E-01 a       542     0    28     1     2
 -4.5800261841427443E-02 a       543     0    28     1     3
 -9.3512049681428368E-03 a       544     0    28     1     4
 -4.6200042056823015E-02 a       545     0    28     1     5
  7.7172043935227169E-02 a       546     0    28     1     6
  3.4832983369876572E-02 a       547     0    28     1     7
 -8.5604164450088505E-02 a       548     0    28     1     8
 -3.2264450689451128E-02 a       549     0    28     1     9
  7.2815102542771667E-02 a       550     0    28     1    10
  3.7805016047326813E-02 a       551     0    28     1    11
  1.4326261214486304E-02 a       552     0    28     1    12
  5.6916999164112018E-02 a       553     0    28     1    13
 -8.2026283532326300E-02 a       554     0    28     1    14
 -2.6508119905740984E-01 a       555     0    28     1    15
  9.1764080130034953E-02 a       556     0    28     1    16
  5.1160168265138813E-02 a       557     0    28     1    17
  1.6841781342965578E-01 a       558     0    28     1    18
  1.0493321633069257E-01 a       559     0    28     1    19
  9.4563473457620631E-02 a       560     0    28     1    20
  1.5548926877502846E-02 a       561     0    29     1     1
  1.1300170111116940E-01 a       562     0    29     1     2
 -6.9281910463879118E-02 a       563     0    29     1     3
  4.3086237301437680E-02 a       564     0    29     1     4
  2.0090727837747593E-02 a       565     0    29     1     5
  8.4220049856870052E-02 a       566     0    29     1     6
 -4.0087489409914800E-02 a       567     0    29     1     7
  1.8126914848769531E-02 a       568     0    29     1     8
 -1.2175859261055054E-03 a       569     0    29     1     9
 -7.0568949488347479E-02 a       570     0    29     1    10
 -3.9977606238387677E-02 a       571     0    29     1    11
 -1.2221252764951986E-01 a       572     0    29     1    12
 -7.9276944795624443E-02 a       573     0    29     1    13
 -3.5513624304129451E-02 a       574     0    29     1    14
 -8.4235505282056256E-02 a       575     0    29     1    15
 -1.7208232265652093E-03 a       576     0    29     1    16
  9.7238198780712173E-02 a       577     0    29     1    17
  1.7169555299696593E-02 a       578     0    29     1    18
  1.2385065609057732E-02 a       579     0    29     1    19
  3.3114265361620182E-02 a       580     0    29     1    20
  1.2520470298108544E-01 a       581     0    30     1     1
 -1.5492410435491149E-03 a       582     0    30     1     2
  6.0631072649814349E-02 a       583     0    30     1     3
 -1.7968357843034483E-01 a       584     0    30     1     4
 -4.2408944497526420E-02 a       585     0    30     1     5
 -4.5618292801739131E-02 a       586     0    30     1     6
 -8.2687033835842097E-02 a       587     0    30     1     7
  3.2551093849166948E-02 a       588     0    30     1     8
 -3.4005336765627579E-02 a       589     0    30     1     9
  2.1404104892067802E-02 a       590     0    30     1    10
 -8.7176631441572595E-03 a       591     0    30     1    11
 -8.8457360059191290E-02 a       592     0    30     1    12
 -1.5776091029934099E-02 a       593     0    30     1    13
  1.5021655479090415E-01 a       594     0    30     1    14
  1.8296506542377591E-02 a       595     0    30     1    15
 -8.1300867912677724E-02 a       596     0    30     1    16
  1.4608416100016205E-01 a       597     0    30     1    17
 -1.2222732230028742E-01 a       598     0    30     1    18
  7.2278619836128842E-03 a       599     0    30     1    19
 -8.9114476580748905E-02 a       600     0    30     1    20
  8.9566081924076524E-01 a       601     0    31     1     1
 -2.6987483533138357E-01 a       602     0    31     1     2
 -1.6650711611343810E-01 a       603     0    31     1     3
 -2.8102889059766328E-01 a       604     0    31     1     4
  6.6270274507941129E-01 a       605     0    31     1     5
  2.8897613719857657E-01 a       606     0    31     1     6
  4.1715275536212615E-01 a       607     0    31     1     7
  2.0016635155916923E-01 a       608     0    31     1     8
  7.3954539654144391E-01 a       609     0    31     1     9
  3.8353561421230720E-01 a       610     0    31     1    10
  6.1956285192328187E-01 a       611     0    31     1    11
 -3.4922188992558550E-01 a       612     0    31     1    12
 -1.3368437486172724E-01 a       613     0    31     1    13
  5.0587190634570656E-01 a       614     0    31     1    14
 -5.0016067757576566E-01 a       615     0    31     1    15
 -1.6058679841056051E-01 a       616     0    31     1    16
  4.3166429335724232E-01 a       617     0    31     1    17
 -6.7827954278957903E-01 a       618     0    31     1    18
 -4.1158929955932338E-01 a       619     0    31     1    19
 -5.5993396351485480E-01 a       620     0    31     1    20
 -2.0908964446542142E-02 a       621     0    32     1     1
 -4.0669034473896151E-03 a       622     0    32     1     2
  5.5501066440817169E-02 a       623     0    32     1     3
  7.5826025189379056E-03 a       624     0    32     1     4
  1.5936740221192913E-01 a       625     0    32     1     5
 -2.4571970364038342E-01 a       626     0    32     1     6
  9.5229044841295851E-02 a       627     0    32     1     7
 -2.1490608576958281E-01 a       628     0    32     1     8
  3.8838650110728845E-02 a       629     0    32     1     9
  6.1744626795403365E-02 a       630     0    32     1    10
 -1.0999784224357231E-01 a       631     0    32     1    11
 -3.0162458297795802E-01 a       632     0    32     1    12
 -3.7506625664105807E-02 a       633     0    32     1    13
  5.3920116972329242E-02 a       634     0    32     1    14
  2.4142145381724228E-01 a       635     0    32     1    15
 -9.9122037740048172E-02 a       636     0    32     1    16
 -2.1295943754697257E-02 a       637     0    32     1    17
 -1.8795011433801265E-01 a       638     0    32     1    18
 -1.2900709956232359E-01 a       639     0    32     1    19
 -9.9480712265443472E-02 a       640     0    32     1    20
 -6.4164291454133671E-01 a       641     0    33     1     1
  1.6017490696236650E-01 a       642     0    33     1     2
  1.6760605653338198E-01 a       643     0    33     1     3
  8.6833700415624299E-02 a       644     0    33     1     4
 -8.2895779634655176E-01 a       645     0    33     1     5
 -2.8545032448964747E-01 a       646     0    33     1     6
 -6.3332604636907730E-01 a       647     0    33     1     7
  4.6941492300920096E-02 a       648     0    33     1     8
 -9.6595380137398623E-01 a       649     0    33     1     9
 -4.7267816678790370E-01 a       650     0    33     1    10
 -5.2584682931046567E-01 a       651     0    33     1    11
 -4.1473331870961277E-01 a       652     0    33     1    12
  1.4214619976966597E-01 a       653     0    33     1    13
 -6.1779298984832742E-01 a       654     0    33     1    14
  6.1590987188196089E-01 a       655     0    33     1    15
  1.1778249293619754E-01 a       656     0    33     1    16
 -3.3430337148183908E-01 a       657     0    33     1    17
 -1.8427562517301063E-01 a       658     0    33     1    18
  3.3553952912958501E-01 a       659     0    33     1    19
 -2.8449816879895262E-01 a       660     0    33     1    20
 -6.4796065148831461E-02 a       661     0    34     1     1
 -4.2071055611612807E-03 a       662     0    34     1     2
  2.8660250549138424E-02 a       663     0    34     1     3
 -5.7581194146123525E-02 a       664     0    34     1     4
  2.2904228555561765E-01 a       665     0    34     1     5
 -2.6313317173360451E-01 a       666     0    34     1     6
 -1.8947826706497986E-01 a       667     0    34     1     7
  9.7713946389059489E-02 a       668     0    34     1     8
 -5.0150958986093239E-03 a       669     0    34     1     9
 -1.6243267116698912E-01 a       670     0    34     1    10
 -9.1464481110803228E-02 a       671     0    34     1    11
 -3.3207341066576612E-01 a       672     0    34     1    12
 -2.2809557393301810E-01 a       673     0    34     1    13
 -1.3862570137010100E-01 a       674     0    34     1    14
  4.8059740548138004E-02 a       675     0    34     1    15
 -6.8969165649523739E-02 a       676     0    34     1    16
  9.2054394234770812E-02 a       677     0    34     1    17
 -8.5758176999244807E-03 a       678     0    34     1    18
 -2.8493018985735413E-01 a       679     0    34     1    19
  2.1423753469967000E-01 a       680     0    34     1    20
  4.7231468054123663E-02 a       681     0    35     1     1
  2.6930520374712813E-01 a       682     0    35     1     2
 -6.7090527031426261E-02 a       683     0    35     1     3
  1.7118797652660212E-02 a       684     0    35     1     4
 -7.9304600573598352E-02 a       685     0    35     1     5
 -8.8964883252829891E-02 a       686     0    35     1     6
  1.0673869337697069E-01 a       687     0    35     1     7
  1.0736473419813697E-01 a       688     0    35     1     8
 -3.3796607345891357E-02 a       689     0    35     1     9
 -1.1660620966775313E-01 a       690     0    35     1    10
  8.3596791607469953E-02 a       691     0    35     1    11
  1.1005523643531492E-01 a       692     0    35     1    12
 -1.5276927150852224E-01 a       693     0    35     1    13
 -1.6173947775860742E-01 a       694     0    35     1    14
 -4.1252627133381209E-01 a       695     0    35     1    15
  8.2487755716080469E-02 a       696     0    35     1    16
 -1.6879615046469634E-01 a       697     0    35     1    17
 -7.8252283743160969E-02 a       698     0    35     1    18
 -6.9294047209162934E-02 a       699     0    35     1    19
 -2.5299977675829626E-02 a       700     0    35     1    20
 -3.4997191856780546E-02 a       701     0    36     1     1
 -1.3385741668565293E-01 a       702     0    36     1     2
 -5.9768659468859453E-02 a       703     0    36     1     3
  1.5328939783978351E-01 a       704     0    36     1     4
  2.0500009195428212E-01 a       705     0    36     1     5
 -2.0554938761187688E-01 a       706     0    36     1     6
  8.5188450795182002E-02 a       707     0    36     1     7
  1.0542851632157821E-01 a       708     0    36     1     8
  2.9518576773012911E-01 a       709     0    36     1     9
  2.7732640401226860E-01 a       710     0    36     1    10
  4.0475992838089514E-01 a       711     0    36     1    11
  2.1162577340755909E-01 a       712     0    36     1    12
 -1.8806322873191217E-01 a       713     0    36     1    13
  5.0854639269272295E-01 a       714     0    36     1    14
 -1.9863610209068666E-01 a       715     0    36     1    15
  8.4151705728400985E-04 a       716     0    36     1    16
  1.4431098428477590E-01 a       717     0    36     1    17
  2.2957820485415875E-01 a       718     0    36     1    18
 -2.2178634106974610E-01 a       719     0    36     1    19
  2.6104261050499156E-01 a       720     0    36     1    20
  3.2935578544717709E-02 a       721     0    37     1     1
 -1.5613551191778263E-01 a       722     0    37     1     2
  4.5891191657765590E-01 a       723     0    37     1     3
 -4.5653581746880006E-01 a       724     0    37     1     4
  1.4254597829899343E-01 a       725     0    37     1     5
  2.9559448413858253E-01 a       726     0    37     1     6
 -1.5751220552311135E-01 a       727     0    37     1     7
 -1.7957322099633793E-01 a       728     0    37     1     8
  1.3190328528953249E-01 a       729     0    37     1     9
  3.3261476704103710E-01 a       730     0    37     1    10
 -9.5791242565326118E-02 a       731     0    37     1    11
  6.5201240745598799E-01 a       732     0    37     1    12
 -1.2084922638633805E-01 a       733     0    37     1    13
  2.6395254474204127E-01 a       734     0    37     1    14
 -4.4765098955459361E-02 a       735     0    37     1    15
 -1.0025354295726649E+00 a       736     0    37     1    16
  7.6354922732835451E-02 a       737     0    37     1    17
  2.5131593305042699E-01 a       738     0    37     1    18
 -4.1781864468435979E-02 a       739     0    37     1    19
  3.2773779534217734E-01 a       740     0    37     1    20
 -6.4627423358470146E-02 a       741     0    38     1     1
  7.7011915081416984E-02 a       742     0    38     1     2
 -3.0025463295904148E-01 a       743     0    38     1     3
  1.9251423623797792E-01 a       744     0    38     1     4
  7.1461198508857085E-02 a       745     0    38     1     5
  2.8753015388439628E-02 a       746     0    38     1     6
 -1.4170593819736468E-01 a       747     0    38     1     7
  1.6672818106611534E-01 a       748     0    38     1     8
 -7.6909360568085255E-02 a       749     0    38     1     9
 -1.9230228914195913E-01 a       750     0    38     1    10
  2.3986961537343147E-02 a       751     0    38     1    11
  1.0464661095717501E-01 a       752     0    38     1    12
 -9.4770215727171328E-02 a       753     0    38     1    13
 -1.0462118973617549E-01 a       754     0    38     1    14
 -4.3471970252042946E-01 a       755     0    38     1    15
 -3.0390798517653292E-02 a       756     0    38     1    16
 -1.2538691847833558E-01 a       757     0    38     1    17
  2.7327354290515382E-03 a       758     0    38     1    18
 -6.9840312854041547E-02 a       759     0    38     1    19
 -2.1374089397127508E-01 a       760     0    38     1    20
 -7.1453344866783564E-02 a       761     0    39     1     1
  1.8086653587927290E-01 a       762     0    39     1     2
  7.8784968163449015E-02 a       763     0    39     1     3
  3.3629847042439115E-01 a       764     0    39     1     4
  1.2705760144568552E+00 a       765     0    39     1     5
 -1.1111864479420668E+00 a       766     0    39     1     6
 -5.8263270550809587E-01 a       767     0    39     1     7
  5.4804821517863977E-01 a       768     0    39     1     8
 -1.9446666103830404E-01 a       769     0    39     1     9
 -8.4294094973229172E-01 a       770     0    39     1    10
  2.7123924004329392E-01 a       771     0    39     1    11
 -3.2142344653995275E-01 a       772     0    39     1    12
  3.7713486926777395E-01 a       773     0    39     1    13
 -1.8925083985378219E-01 a       774     0    39     1    14
  3.1670322554179953E-02 a       775     0    39     1    15
  1.8711231980584679E+00 a       776     0    39     1    16
 -2.4532577030805708E-01 a       777     0    39     1    17
 -2.6041934085866452E-02 a       778     0    39     1    18
  4.0086211459425231E-01 a       779     0    39     1    19
 -5.3361707806392988E-01 a       780     0    39     1    20
  1.1341276594908281E-01 a       781     0    40     1     1
 -1.3086852401581009E-01 a       782     0    40     1     2
 -1.3955190374151036E-01 a       783     0    40     1     3
  2.2441105449578064E-01 a       784     0    40     1     4
 -3.6953833160445260E-02 a       785     0    40     1     5
  1.4010974179598124E-01 a       786     0    40     1     6
 -3.5670619217882293E-01 a       787     0    40     1     7
 -1.0697784005904956E-01 a       788     0    40     1     8
 -2.0905381452005406E-02 a       789     0    40     1     9
  2.4089023985885072E-01 a       790     0    40     1    10
 -2.1309402399520300E-01 a       791     0    40     1    11
  4.3678725724044257E-02 a       792     0    40     1    12
  4.9193955160563886E-02 a       793     0    40     1    13
 -1.4151089536800512E-01 a       794     0    40     1    14
  2.4939795020819763E-02 a       795     0    40     1    15
  9.2173021672263336E-02 a       796     0    40     1    16
  3.0695024478582689E-01 a       797     0    40     1    17
  4.7760416554429988E-02 a       798     0    40     1    18
 -8.7578551851204223E-02 a       799     0    40     1    19
 -1.2955900152687982E-01 a       800     0    40     1    20
 -8.2309578074102191E-02 a       801     0    41     1     1
 -2.0069378616730041E-01 a       802     0    41     1     2
 -9.5535755552022539E-03 a       803     0    41     1     3
  2.1106062364662603E-01 a       804     0    41     1     4
  1.1664326406561772E-01 a       805     0    41     1     5
  1.0581082480604619E-01 a       806     0    41     1     6
 -9.4006827856023142E-02 a       807     0    41     1     7
 -1.6376350877423895E-01 a       808     0    41     1     8
 -7.6058387104493877E-02 a       809     0    41     1     9
  1.4095708665459164E-01 a       810     0    41     1    10
 -4.0867071540005212E-02 a       811     0    41     1    11
 -2.2442559833505279E-01 a       812     0    41     1    12
  1.6358225982809768E-01 a       813     0    41     1    13
  1.6268419691359970E-01 a       814     0    41     1    14
  1.9574819124374043E-01 a       815     0    41     1    15
 -1.6893763174740389E-01 a       816     0    41     1    16
  2.5660315689966884E-01 a       817     0    41     1    17
  7.9191086100097827E-02 a       818     0    41     1    18
  2.0743576399336058E-01 a       819     0    41     1    19
  2.1005194367037193E-04 a       820     0    41     1    20
  3.8576731385525892E-01 a       821     0    42     1     1
  1.7820971234846755E-01 a       822     0    42     1     2
 -3.1804524518690913E-01 a       823     0    42     1     3
 -1.5522544136634647E-01 a       824     0    42     1     4
 -2.6260673338355001E-01 a       825     0    42     1     5
  5.9334602584625351E-01 a       826     0    42     1     6
  1.2775790724339046E-02 a       827     0    42     1     7
 -1.2612394517332187E-01 a       828     0    42     1     8
 -1.8076869141576138E-01 a       829     0    42     1     9
 -1.1433635599014969E-01 a       830     0    42     1    10
 -5.3987226754454487E-01 a       831     0    42     1    11
  2.6395795112561241E-02 a       832     0    42     1    12
  3.8015369094033757E-01 a       833     0    42     1    13
 -7.0246668269230850E-01 a       834     0    42     1    14
  3.3209692264981933E-01 a       835     0    42     1    15
 -4.6021145779548928E-01 a       836     0    42     1    16
 -2.4515466707940043E-02 a       837     0    42     1    17
 -1.7893886995360736E-01 a       838     0    42     1    18
  1.8964481492346219E-01 a       839     0    42     1    19
 -2.5889209196545926E-01 a       840     0    42     1    20
  1.6447578998253601E-01 a       841     0    43     1     1
  6.9144674920415461E-01 a       842     0    43     1     2
  3.9085393529103785E-01 a       843     0    43     1     3
  4.4254680650993095E-01 a       844     0    43     1     4
  1.3951566467013077E-01 a       845     0    43     1     5
 -5.2073168431035868E-04 a       846     0    43     1     6
  2.0404685719615484E-01 a       847     0    43     1     7
 -9.3630501802154498E-01 a       848     0    43     1     8
  1.3212589056075917E-02 a       849     0    43     1     9
  4.4493028621088965E-01 a       850     0    43     1    10
  1.5348980320822866E-01 a       851     0    43     1    11
  1.4873893816195544E-01 a       852     0    43     1    12
  1.1413195718308208E-01 a       853     0    43     1    13
 -3.5419264352724045E-01 a       854     0    43     1    14
  6.7262073423410063E-01 a       855     0    43     1    15
 -5.0210205934135288E-01 a       856     0    43     1    16
 -3.4239944098216291E-01 a       857     0    43     1    17
  2.1647473194320699E-01 a       858     0    43     1    18
 -9.7803644586713492E-02 a       859     0    43     1    19
 -3.4152448583163925E-01 a       860     0    43     1    20
 -2.0273017096208663E-02 a       861     0    44     1     1
 -8.8773153573194388E-02 a       862     0    44     1     2
  4.8590095548205266E-02 a       863     0    44     1     3
  1.6020304806047708E-01 a       864     0    44     1     4
  2.7678580592763215E-02 a       865     0    44     1     5
 -4.5732134379703117E-02 a       866     0    44     1     6
 -6.3456412728317993E-02 a       867     0    44     1     7
 -6.4876258645866977E-02 a       868     0    44     1     8
 -3.4120218380565753E-02 a       869     0    44     1     9
  9.6136166561947307E-03 a       870     0    44     1    10
 -1.2539731450868983E-02 a       871     0    44     1    11
 -1.2245195528015115E-02 a       872     0    44     1    12
  4.6156781263089676E-02 a       873     0    44     1    13
 -8.2648088598930181E-03 a       874     0    44     1    14
  5.8812835216141453E-02 a       875     0    44     1    15
 -1.6595551143308195E-02 a       876     0    44     1    16
  5.2486075991969097E-02 a       877     0    44     1    17
  1.3118819280957364E-02 a       878     0    44     1    18
  9.2283318097231923E-03 a       879     0    44     1    19
 -2.3904784643791244E-01 a       880     0    44     1    20
 -3.2813126020366062E-01 a       881     0    45     1     1
 -6.4273519482478769E-01 a       882     0    45     1     2
 -2.1907264824566230E-01 a       883     0    45     1     3
  1.4075327928469278E-01 a       884     0    45     1     4
 -6.7861082978741577E-02 a       885     0    45     1     5
 -2.1566425368960510E-01 a       886     0    45     1     6
 -3.5913824695690438E-01 a       887     0    45     1     7
  8.5248385429448081E-01 a       888     0    45     1     8
 -1.0505238242737074E-01 a       889     0    45     1     9
 -1.9922537261383932E-01 a       890     0    45     1    10
  1.2150978079340397E-01 a       891     0    45     1    11
 -1.0136115484603736E-01 a       892     0    45     1    12
  3.0474523515624397E-02 a       893     0    45     1    13
  4.4604783666261411E-01 a       894     0    45     1    14
 -5.3761936984251568E-01 a       895     0    45     1    15
  2.5199865415637385E-01 a       896     0    45     1    16
  3.2879206263262661E-01 a       897     0    45     1    17
  2.7044372106814714E-02 a       898     0    45     1    18
  6.9780391080576862E-02 a       899     0    45     1    19
  1.9425698213277140E-01 a       900     0    45     1    20
  3.1896225050109035E-02 a       901     0    46     1     1
  2.4294573880439133E-01 a       902     0    46     1     2
 -1.2579814671645342E-01 a       903     0    46     1     3
  1.6326845176026111E-01 a       904     0    46     1     4
 -7.1211431607661885E-02 a       905     0    46     1     5
  1.2586722463560021E-01 a       906     0    46     1     6
  1.3647506321947887E-02 a       907     0    46     1     7
  3.7411031074279719E-02 a       908     0    46     1     8
 -8.6911082689629521E-02 a       909     0    46     1     9
  5.6115210375709906E-02 a       910     0    46     1    10
  9.5080297092818386E-02 a       911     0    46     1    11
  8.2037166016442981E-02 a       912     0    46     1    12
  1.9608184815912092E-02 a       913     0    46     1    13
 -1.2434190621059950E-01 a       914     0    46     1    14
  5.4511834894486175E-02 a       915     0    46     1    15
 -4.5798507914208586E-02 a       916     0    46     1    16
 -1.0632843745048129E-01 a       917     0    46     1    17
  1.5189771910904593E-01 a       918     0    46     1    18
  9.5487352306187268E-02 a       919     0    46     1    19
 -1.4279937883880996E-02 a       920     0    46     1    20
  2.7747671183036113E-03 a       921     0    47     1     1
 -1.6218907046315831E-01 a       922     0    47     1     2
  1.4345439497859883E-01 a       923     0    47     1     3
  6.1212572982408085E-02 a       924     0    47     1     4
  9.7749920843797876E-03 a       925     0    47     1     5
  1.0413826076578368E-01 a       926     0    47     1     6
 -4.7976945837122295E-02 a       927     0    47     1     7
  1.6765825531727893E-01 a       928     0    47     1     8
 -5.0434681590229097E-02 a       929     0    47     1     9
 -1.3523427810044669E-01 a       930     0    47     1    10
  2.0988309983489037E-02 a       931     0    47     1    11
  5.7449968955738631E-02 a       932     0    47     1    12
  3.4663891731483716E-02 a       933     0    47     1    13
  3.9064145332854953E-02 a       934     0    47     1    14
 -1.1858865982303730E-01 a       935     0    47     1    15
 -9.0268719219744151E-02 a       936     0    47     1    16
 -4.6437744012276308E-02 a       937     0    47     1    17
 -2.8046725444666229E-02 a       938     0    47     1    18
 -3.8656265269131261E-02 a       939     0    47     1    19
 -3.3588320188077038E-02 a       940     0    47     1    20
  7.5324367274164444E-02 a       941     0    48     1     1
  4.6280057368381415E-02 a       942     0    48     1     2
 -3.2181227010101884E-02 a       943     0    48     1     3
 -5.7948975755512569E-02 a       944     0    48     1     4
 -1.5866834459730117E-01 a       945     0    48     1     5
  2.1133722686010675E-01 a       946     0    48     1     6
  2.3997747159160843E-01 a       947     0    48     1     7
 -3.2374456647743016E-01 a       948     0    48     1     8
 -1.5507304908424897E-02 a       949     0    48     1     9
  4.4430007005557492E-02 a       950     0    48     1    10
  1.5342405995091542E-02 a       951     0    48     1    11
  1.1820694837963326E-01 a       952     0    48     1    12
  3.1583885548807276E-02 a       953     0    48     1    13
 -2.6672962892874791E-01 a       954     0    48     1    14
 -2.2602577103958796E-01 a       955     0    48     1    15
  9.2550036210054601E-02 a       956     0    48     1    16
 -1.3053798205030173E-01 a       957     0    48     1    17
  7.7685715372027730E-02 a       958     0    48     1    18
  5.3770871451871059E-02 a       959     0    48     1    19
  6.0415608919618537E-02 a       960     0    48     1    20
 -1.5465538579711435E-01 a       961     0    49     1     1
 -4.1470346047486401E-01 a       962     0    49     1     2
 -7.6387329227129513E-02 a       963     0    49     1     3
 -1.2601459923107119E-01 a       964     0    49     1     4
  1.2906413355721505E-01 a       965     0    49     1     5
  1.9549993581893643E-02 a       966     0    49     1     6
  2.7734458537267409E-01 a       967     0    49     1     7
  1.3835043125329639E-02 a       968     0    49     1     8
 -1.9137064077990977E-02 a       969     0    49     1     9
 -2.6562289972449814E-02 a       970     0    49     1    10
 -1.8008168563231849E-01 a       971     0    49     1    11
 -5.9244749409401887E-02 a       972     0    49     1    12
 -6.9614909551013127E-02 a       973     0    49     1    13
  3.9940270089056498E-02 a       974     0    49     1    14
  2.9555045201760083E-01 a       975     0    49     1    15
  2.7979778523734772E-01 a       976     0    49     1    16
  8.9201938631058228E-03 a       977     0    49     1    17
 -2.4791654644430958E-01 a       978     0    49     1    18
  1.7024762908700114E-01 a       979     0    49     1    19
 -4.8992545762176049E-01 a       980     0    49     1    20
  1.0155726238727600E-01 a       981     0    50     1     1
 -1.0033027163094259E-01 a       982     0    50     1     2
  2.4552499297160940E-01 a       983     0    50     1     3
 -9.4412631805420977E-02 a       984     0    50     1     4
  1.6981906171787731E-02 a       985     0    50     1     5
  1.8898908009456688E-02 a       986     0    50     1     6
  1.4703680172888270E-01 a       987     0    50     1     7
 -7.8195970322334746E-02 a       988     0    50     1     8
  1.1765543116744054E-01 a       989     0    50     1     9
  9.7176610907779744E-03 a       990     0    50     1    10
 -1.0315359938766459E-01 a       991     0    50     1    11
 -2.1404225271890148E-02 a       992     0    50     1    12
 -4.7129060572536574E-02 a       993     0    50     1    13
  1.4027854506703813E-01 a       994     0    50     1    14
  3.6739064597362175E-01 a       995     0    50     1    15
  3.2415811169967640E-02 a       996     0    50     1    16
  3.8099528856295528E-02 a       997     0    50     1    17
 -1.2189217447921298E-01 a       998     0    50     1    18
 -1.7850958755993942E-03 a       999     0    50     1    19
 -1.5265338316523519E-02 a      1000     0    50     1    20
  6.3884719197271544E-01 a      1001     0    51     1     1
  5.8643583296433377E-01 a      1002     0    51     1     2
  4.2784330722442404E-01 a      1003     0    51     1     3
  4.7246110915556638E-01 a      1004     0    51     1     4
 -9.3559035110152389E-01 a      1005     0    51     1     5
  6.8633502105058392E-02 a      1006     0    51     1     6
  5.8975835340385800E-02 a      1007     0    51     1     7
  5.9335115681515872E-02 a      1008     0    51     1     8
  1.2835028015842098E+00 a      1009     0    51     1     9
  3.0043342566985376E-01 a      1010     0    51     1    10
 -3.7628763241592844E-01 a      1011     0    51     1    11
 -1.1435932887859879E-01 a      1012     0    51     1    12
 -4.4161300499553829E-01 a      1013     0    51     1    13
  3.7732663592378501E-01 a      1014     0    51     1    14
 -1.1339050098374130E+00 a      1015     0    51     1    15
 -2.0951886427246166E-01 a      1016     0    51     1    16
 -1.5533632294219384E-02 a      1017     0    51     1    17
  1.8075220535298744E-01 a      1018     0    51     1    18
 -1.0403864942630248E+00 a      1019     0    51     1    19
  1.8956515582648625E-01 a      1020     0    51     1    20
  5.6706460059126817E-04 a      1021     0    52     1     1
  1.3107896336235328E-01 a      1022     0    52     1     2
 -1.2413464026278397E-01 a      1023     0    52     1     3
 -5.2438844465373176E-02 a      1024     0    52     1     4
 -2.7279388245288833E-01 a      1025     0    52     1     5
  2.6494721274263239E-01 a      1026     0    52     1     6
  1.5259793784098849E-01 a      1027     0    52     1     7
 -1.7124442928990199E-01 a      1028     0    52     1     8
  1.7000214765087857E-01 a      1029     0    52     1     9
 -5.9918497736435664E-02 a      1030     0    52     1    10
  3.7505869085943672E-01 a      1031     0    52     1    11
  6.3107892539098612E-02 a      1032     0    52     1    12
  5.6338565897423210E-01 a      1033     0    52     1    13
  1.3882211864309010E-01 a      1034     0    52     1    14
  2.1041320834215160E-01 a      1035     0    52     1    15
  7.0136882275963514E-02 a      1036     0    52     1    16
  3.7770137132672987E-01 a      1037     0    52     1    17
 -4.0276750705384709E-02 a      1038     0    52     1    18
  5.1707817092656916E-01 a      1039     0    52     1    19
  2.6426659908662120E-01 a      1040     0    52     1    20
  2.2622988644564794E-02 a      1041     0    53     1     1
  4.2172127959337016E-02 a      1042     0    53     1     2
  1.2578843553410943E-02 a      1043     0    53     1     3
 -1.8912876081471974E-01 a      1044     0    53     1     4
 -7.1166764245320743E-02 a      1045     0    53     1     5
 -6.0360736616730894E-02 a      1046     0    53     1     6
  8.5115354760201267E-02 a      1047     0    53     1     7
  1.3139090213592713E-01 a      1048     0    53     1     8
  1.1399652232104296E-01 a      1049     0    53     1     9
 -2.9233524609736296E-02 a      1050     0    53     1    10
 -1.5752414413403148E-02 a      1051     0    53     1    11
  1.5927808322715492E-01 a      1052     0    53     1    12
 -5.1660839612222509E-02 a      1053     0    53     1    13
 -3.3622084819837875E-02 a      1054     0    53     1    14
  8.2171666500461274E-02 a      1055     0    53     1    15
  1.3728446190424615E-01 a      1056     0    53     1    16
 -1.0773845398241200E-01 a      1057     0    53     1    17
 -3.1905808805072267E-02 a      1058     0    53     1    18
 -1.5561715038984980E-01 a      1059     0    53     1    19
  7.6669564365394419E-02 a      1060     0    53     1    20
 -3.5321250195100279E-01 a      1061     0    54     1     1
 -8.9024888026454807E-02 a      1062     0    54     1     2
  4.2687168436963123E-02 a      1063     0    54     1     3
 -4.0950695436155288E-02 a      1064     0    54     1     4
  2.3379972710365457E-01 a      1065     0    54     1     5
 -2.7265852942806129E-01 a      1066     0    54     1     6
  9.4393372519348220E-02 a      1067     0    54     1     7
  8.3959587365411481E-02 a      1068     0    54     1     8
 -4.3089566344219489E-02 a      1069     0    54     1     9
  2.1595045919123923E-02 a      1070     0    54     1    10
  1.9389670181993429E-01 a      1071     0    54     1    11
 -6.2843994656181304E-02 a      1072     0    54     1    12
 -2.3840579319614760E-01 a      1073     0    54     1    13
  4.4285280763750623E-01 a      1074     0    54     1    14
  1.4479193049636188E-01 a      1075     0    54     1    15
  9.6471240455348856E-02 a      1076     0    54     1    16
  9.8479723088019402E-02 a      1077     0    54     1    17
 -3.8242216884539687E-02 a      1078     0    54     1    18
 -1.5025872269442922E-01 a      1079     0    54     1    19
  2.4242800341898332E-01 a      1080     0    54     1    20
  8.6841660388449282E-01 b      1081     1     1
 -9.5427055481380418E-01 b      1082     1     2
 -9.6690132441634702E-01 b      1083     1     3
 -1.0111673131961567E+00 b      1084     1     4
  2.1055811659265350E-01 b      1085     1     5
  4.0081212258249854E-01 b      1086     1     6
 -9.6916008160773703E-01 b      1087     1     7
  9.6015012874926975E-01 b      1088     1     8
  5.0052941730759681E-01 b      1089     1     9
  1.3859726112366549E-01 b      1090     1    10
  2.6122402294427483E-01 b      1091     1    11
  8.9919951279730514E-02 b      1092     1    12
 -1.2924875138693219E+00 b      1093     1    13
  8.5870958061276903E-01 b      1094     1    14
  1.2710484116609841E+00 b      1095     1    15
 -7.6923537423858035E-01 b      1096     1    16
  1.2554062871669447E+00 b      1097     1    17
 -3.2921537812686819E-01 b      1098     1    18
  6.4186072508349401E-01 b      1099     1    19
 -1.0888231737329108E+00 b      1100     1    20
  5.6707984904309683E-01 a      1101     1     1     2     1
  3.8600002099810245E-02 a      1102     1     1     2     2
  1.8356694344117908E-01 a      1103     1     1     2     3
 -3.0856935650436235E-01 a      1104     1     1     2     4
  2.1367683260432044E-01 a      1105     1     1     2     5
  4.5082817682936432E-01 a      1106     1     1     2     6
 -3.5529676904486179E-01 a      1107     1     1     2     7
  4.6074435780448425E-01 a      1108     1     1     2     8
 -3.1648807417199132E-01 a      1109     1     1     2     9
 -2.6965463500357634E-01 a      1110     1     1     2    10
  3.3973440363933255E-01 a      1111     1     1     2    11
  6.1425804908034509E-01 a      1112     1     1     2    12
  4.6000157411971149E-01 a      1113     1     1     2    13
 -7.9564610450594053E-01 a      1114     1     1     2    14
 -2.9039383716991585E-01 a      1115     1     1     2    15
 -5.6531075753501303E-01 a      1116     1     1     2    16
 -1.3685224205742733E-01 a      1117     1     1     2    17
 -6.0445484411393691E-01 a      1118     1     1     2    18
 -4.2052044154494711E-01 a      1119     1     1     2    19
 -6.3796158679264736E-01 a      1120     1     1     2    20
 -2.2996673165039558E-01 a      1121     1     2     2     1
  4.3008973275370604E-01 a      1122     1     2     2     2
  1.2267720977794422E-01 a      1123     1     2     2     3
 -1.6814814253646354E-01 a      1124     1     2     2     4
 -1.0407925647219174E-01 a      1125     1     2     2     5
 -1.0611902342310608E-01 a      1126     1     2     2     6
 -5.4528898495847009E-02 a      1127     1     2     2     7
 -1.3968511307798406E-01 a      1128     1     2     2     8
  6.1570833865681440E-01 a      1129     1     2     2     9
 -2.8902312694354365E-01 a      1130     1     2     2    10
 -2.1193437880904026E-01 a      1131     1     2     2    11
 -5.1412278337411110E-01 a      1132     1     2     2    12
 -1.2467017766194652E-02 a      1133     1     2     2    13
  7.4751289686815159E-01 a      1134     1     2     2    14
 -2.3198635251669028E-01 a      1135     1     2     2    15
 -3.8387739457823972E-01 a      1136     1     2     2    16
 -3.0173108189044107E-01 a      1137     1     2     2    17
  5.9401564191551792E-01 a      1138     1     2     2    18
 -8.6560635547632192E-01 a      1139     1     2     2    19
  1.6654520668946021E-01 a      1140     1     2     2    20
 -4.7239110890996605E-01 a      1141     1     3     2     1
  3.4636829089264698E-01 a      1142     1     3     2     2
 -2.6516289882719091E-01 a      1143     1     3     2     3
  2.2150351024294132E-01 a      1144     1     3     2     4
 -6.2109414958648568E-01 a      1145     1     3     2     5
  1.0262107104883194E+00 a      1146     1     3     2     6
 -5.5248472199623710E-01 a      1147     1     3     2     7
 -7.4399904653353832E-02 a      1148     1     3     2     8
 -5.7923015681746381E-01 a      1149     1     3     2     9
  4.5420918969270851E-01 a      1150     1     3     2    10
  4.4645080714860441E-01 a      1151     1     3     2    11
 -2.5880366073049554E-01 a      1152     1     3     2    12
  6.9107261915318818E-01 a      1153     1     3     2    13
  5.2623057079032365E-01 a      1154     1     3     2    14
 -5.9684329807535053E-01 a      1155     1     3     2    15
 -6.1568774773356302E-02 a      1156     1     3     2    16
 -3.0367037997094382E-01 a      1157     1     3     2    17
 -2.2749854512952464E-01 a      1158     1     3     2    18
 -7.8707973366891082E-01 a      1159     1     3     2    19
  8.3530023152450694E-01 a      1160     1     3     2    20
  9.7905651407905525E-02 a      1161     1     4     2     1
  2.9575017946666060E-01 a      1162     1     4     2     2
  1.8448531204400778E-01 a      1163     1     4     2     3
 -1.8687926083270215E-01 a      1164     1     4     2     4
  2.7227312545467958E-01 a      1165     1     4     2     5
 -2.6146773936821209E-02 a      1166     1     4     2     6
 -6.5999590578216694E-01 a      1167     1     4     2     7
 -6.3623442775505845E-01 a      1168     1     4     2     8
 -5.9342723361439442E-01 a      1169     1     4     2     9
 -4.7845308258543195E-01 a      1170     1     4     2    10
  7.9786702614747754E-02 a      1171     1     4     2    11
  1.9036324169634500E-01 a      1172     1     4     2    12
 -6.5815878781394521E-01 a      1173     1     4     2    13
  1.6016796854146309E-01 a      1174     1     4     2    14
 -3.3982006694040512E-01 a      1175     1     4     2    15
 -6.4384422145095233E-01 a      1176     1     4     2    16
  6.2042665588886176E-03 a      1177     1     4     2    17
  5.3196955664839407E-01 a      1178     1     4     2    18
  7.0333428924580915E-02 a      1179     1     4     2    19
 -2.6136562050540163E-01 a      1180     1     4     2    20
 -2.4717161130148868E-01 a      1181     1     5     2     1
  3.6657226980218921E-01 a      1182     1     5     2     2
 -7.0829616783437643E-01 a      1183     1     5     2     3
  7.3886870259594017E-01 a      1184     1     5     2     4
 -4.6691929237928959E-01 a      1185     1     5     2     5
  7.2034046879384639E-02 a      1186     1     5     2     6
  4.6611527165321925E-01 a      1187     1     5     2     7
  3.3941438058730194E-01 a      1188     1     5     2     8
 -5.8850092077476268E-01 a      1189     1     5     2     9
  2.9746329589247783E-01 a      1190     1     5     2    10
  4.9436587215112501E-02 a      1191     1     5     2    11
 -2.9355365169410126E-02 a      1192     1     5     2    12
  1.8069210243166289E-01 a      1193     1     5     2    13
 -1.4515471570649008E-01 a      1194     1     5     2    14
  4.2248474984523099E-01 a      1195     1     5     2    15
  2.0805759495852384E-02 a      1196     1     5     2    16
  4.0061028146505551E-01 a      1197     1     5     2    17
  4.5498857668633252E-01 a      1198     1     5     2    18
 -3.5206086339440951E-01 a      1199     1     5     2    19
  2.7129588455363157E-01 a      1200     1     5     2    20
  7.0259004503002498E-01 a      1201     1     6     2     1
 -1.6224911857097718E-01 a      1202     1     6     2     2
 -2.8792673822014175E-01 a      1203     1     6     2     3
  4.6564624477175387E-01 a      1204     1     6     2     4
  4.3191936769903660E-01 a      1205     1     6     2     5
  6.3313875385305662E-01 a      1206     1     6     2     6
 -2.5822841616710768E-01 a      1207     1     6     2     7
  4.3479005332277093E-01 a      1208     1     6     2     8
 -5.6921325983826099E-01 a      1209     1     6     2     9
 -6.1853562695949618E-02 a      1210     1     6     2    10
  5.4426143234052093E-01 a      1211     1     6     2    11
 -3.3690217463606181E-01 a      1212     1     6     2    12
 -4.7797377432027327E-01 a      1213     1     6     2    13
 -5.3100739361970029E-01 a      1214     1     6     2    14
  3.7516580583386183E-01 a      1215     1     6     2    15
 -1.5915155732967728E-01 a      1216     1     6     2    16
 -4.4319515717746083E-01 a      1217     1     6     2    17
  2.8319384662789460E-01 a      1218     1     6     2    18
 -7.5352489806985379E-01 a      1219     1     6     2    19
  6.3231051464883414E-01 a      1220     1     6     2    20
  1.9833446505113123E-01 a      1221     1     7     2     1
  1.8330164565118623E-01 a      1222     1     7     2     2
  3.0941565411948857E-01 a      1223     1     7     2     3
  3.5480486370190328E-01 a      1224     1     7     2     4
 -2.2690620391313549E-02 a      1225     1     7     2     5
 -2.3919055713791301E-01 a      1226     1     7     2     6
 -1.6291584681118765E-01 a      1227     1     7     2     7
 -3.8398549240267571E-01 a      1228     1     7     2     8
  1.5901612500649229E-02 a      1229     1     7     2     9
  1.5771188823173268E-01 a      1230     1     7     2    10
  3.8934182284659574E-01 a      1231     1     7     2    11
 -9.0064196449440548E-01 a      1232     1     7     2    12
 -4.5392807977874600E-01 a      1233     1     7     2    13
 -5.7706392047733601E-01 a      1234     1     7     2    14
  6.7917262215844876E-01 a      1235     1     7     2    15
  6.3134567111815199E-01 a      1236     1     7     2    16
  2.5228847207123417E-01 a      1237     1     7     2    17
  8.2145418543176696E-01 a      1238     1     7     2    18
 -1.9086109234308471E-01 a      1239     1     7     2    19
  5.6355624560807316E-01 a      1240     1     7     2    20
 -2.5360851568108655E-01 a      1241     1     8     2     1
 -2.5051527248657518E-01 a      1242     1     8     2     2
 -4.0653037615136600E-01 a      1243     1     8     2     3
 -2.7632771739217782E-01 a      1244     1     8     2     4
  7.3258920677366751E-02 a      1245     1     8     2     5
 -4.9014821502223904E-01 a      1246     1     8     2     6
  9.7701310413738041E-01 a      1247     1     8     2     7
  1.1260886136875307E-02 a      1248     1     8     2     8
  5.9039873510560857E-02 a      1249     1     8     2     9
 -2.8960374428517627E-01 a      1250     1     8     2    10
  8.0504212008037834E-01 a      1251     1     8     2    11
  6.8681921162844839E-01 a      1252     1     8     2    12
 -5.4217671796459566E-01 a      1253     1     8     2    13
  4.8812989172709131E-01 a      1254     1     8     2    14
 -4.7668705154242186E-01 a      1255     1     8     2    15
 -5.2167621797652365E-02 a      1256     1     8     2    16
  1.0835886090594231E+00 a      1257     1     8     2    17
 -1.4795962691070774E-01 a      1258     1     8     2    18
 -6.0211400752365951E-01 a      1259     1     8     2    19
 -1.2100938904871056E-01 a      1260     1     8     2    20
  7.9661585372404065E-01 a      1261     1     9     2     1
 -5.8805431965546995E-01 a      1262     1     9     2     2
  3.7876979336410199E-01 a      1263     1     9     2     3
 -3.1703603027565291E-01 a      1264     1     9     2     4
 -3.1838281048743833E-01 a      1265     1     9     2     5
 -2.8226965474159793E-01 a      1266     1     9     2     6
  2.6077956251305745E-01 a      1267     1     9     2     7
 -8.4350672289773193E-02 a      1268     1     9     2     8
  4.8845814892965295E-01 a      1269     1     9     2     9
  5.0145899914752345E-01 a      1270     1     9     2    10
  4.0423734719967536E-01 a      1271     1     9     2    11
  1.4493020576551771E-01 a      1272     1     9     2    12
  4.5879210525375591E-01 a      1273     1     9     2    13
  3.5899556231816293E-01 a      1274     1     9     2    14
 -3.8059361709209028E-01 a      1275     1     9     2    15
  4.2698569687586529E-01 a      1276     1     9     2    16
 -4.5029682678691074E-01 a      1277     1     9     2    17
 -3.5065971290304372E-02 a      1278     1     9     2    18
 -3.4727521889927571E-01 a      1279     1     9     2    19
 -6.0500761457628793E-01 a      1280     1     9     2    20
 -4.8557361450121245E-01 a      1281     1    10     2     1
 -7.5199319641767723E-02 a      1282     1    10     2     2
  2.4868752946877345E-01 a      1283     1    10     2     3
 -3.4024400518665338E-01 a      1284     1    10     2     4
  5.8051087840946355E-02 a      1285     1    10     2     5
 -6.1659617946646650E-01 a      1286     1    10     2     6
 -8.8594084492145286E-01 a      1287     1    10     2     7
  3.4412593670793085E-01 a      1288     1    10     2     8
 -6.8235916226724069E-01 a      1289     1    10     2     9
 -1.9662111394514023E-01 a      1290     1    10     2    10
  2.6470875622330120E-01 a      1291     1    10     2    11
  1.3848594297562081E-02 a      1292     1    10     2    12
  5.2612652007457417E-01 a      1293     1    10     2    13
 -7.5925583559146648E-01 a      1294     1    10     2    14
 -5.3643379692958149E-01 a      1295     1    10     2    15
 -5.1235016434471214E-01 a      1296     1    10     2    16
 -6.5662677497389910E-01 a      1297     1    10     2    17
 -5.4305037836869285E-01 a      1298     1    10     2    18
 -3.6212583489970457E-01 a      1299     1    10     2    19
 -7.1653925181889623E-04 a      1300     1    10     2    20
  3.2731594620961757E-01 a      1301     1    11     2     1
 -5.9042639430915034E-01 a      1302     1    11     2     2
 -1.2976076523404428E-01 a      1303     1    11     2     3
  2.4746070701983841E-01 a      1304     1    11     2     4
 -7.2776811933905908E-02 a      1305     1    11     2     5
  5.7525375714579585E-01 a      1306     1    11     2     6
  1.0861464646833441E+00 a      1307     1    11     2     7
  2.2267192006993192E-01 a      1308     1    11     2     8
 -1.6341233456630874E-01 a      1309     1    11     2     9
 -2.2659159161595968E-03 a      1310     1    11     2    10
  2.2482676026895643E-01 a      1311     1    11     2    11
  6.4490478195587420E-01 a      1312     1    11     2    12
  1.5113003708406856E-02 a      1313     1    11     2    13
 -5.1651811336858505E-02 a      1314     1    11     2    14
  4.4316035073685639E-01 a      1315     1    11     2    15
 -2.5332195693247114E-02 a      1316     1    11     2    16
  7.4698737738853538E-01 a      1317     1    11     2    17
 -1.6660235365248496E-01 a      1318     1    11     2    18
 -3.8676365188519191E-01 a      1319     1    11     2    19
 -6.5505417756742945E-01 a      1320     1    11     2    20
 -3.3208925973759007E-01 a      1321     1    12     2     1
 -1.5498216267956530E-01 a      1322     1    12     2     2
  1.3016868841771584E-01 a      1323     1    12     2     3
  2.1948167732831717E-01 a      1324     1    12     2     4
 -7.4718729651333082E-02 a      1325     1    12     2     5
 -2.9101985485014276E-01 a      1326     1    12     2     6
  4.1419018672198139E-02 a      1327     1    12     2     7
 -3.2565107641272223E-01 a      1328     1    12     2     8
  6.7143861537945571E-01 a      1329     1    12     2     9
 -1.4759434301648353E-01 a      1330     1    12     2    10
  5.6885488073845270E-01 a      1331     1    12     2    11
 -3.0598830951820666E-01 a      1332     1    12     2    12
  1.1338032151065694E-01 a      1333     1    12     2    13
  3.0337658888892022E-01 a      1334     1    12     2    14
  1.3460405341716272E-01 a      1335     1    12     2    15
 -3.6236681634827250E-01 a      1336     1    12     2    16
 -1.2542882094307653E-01 a      1337     1    12     2    17
 -3.0417243468928767E-01 a      1338     1    12     2    18
 -2.2147677281879150E-01 a      1339     1    12     2    19
 -7.9449549985300169E-02 a      1340     1    12     2    20
  3.7283985708580986E-01 a      1341     1    13     2     1
  5.6003901950187307E-01 a      1342     1    13     2     2
 -1.4372136728540413E-01 a      1343     1    13     2     3
 -6.9354734481408264E-01 a      1344     1    13     2     4
  7.3619830239149286E-01 a      1345     1    13     2     5
 -3.2300923277064875E-01 a      1346     1    13     2     6
 -2.7813239408270912E-01 a      1347     1    13     2     7
  3.7576016657852673E-01 a      1348     1    13     2     8
 -1.6194931383181893E-01 a      1349     1    13     2     9
 -2.0016382634223451E-01 a      1350     1    13     2    10
 -1.2047505190487059E-01 a      1351     1    13     2    11
 -4.3188473993237297E-01 a      1352     1    13     2    12
  1.4927161487508928E-01 a      1353     1    13     2    13
 -1.4509424535514509E-01 a      1354     1    13     2    14
  6.7053331298053342E-01 a      1355     1    13     2    15
 -4.3538744710743432E-01 a      1356     1    13     2    16
  4.7589712008214430E-01 a      1357     1    13     2    17
  8.5495394709150341E-01 a      1358     1    13     2    18
 -7.9128936644283263E-02 a      1359     1    13     2    19
 -2.0799433230012085E-01 a      1360     1    13     2    20
  4.8488387277463957E-01 a      1361     1    14     2     1
  3.3523885910598050E-01 a      1362     1    14     2     2
  7.5068832322329604E-01 a      1363     1    14     2     3
  2.3497950435864953E-01 a      1364     1    14     2     4
  1.8786997978018119E-01 a      1365     1    14     2     5
  3.0942163208852891E-01 a      1366     1    14     2     6
 -2.8100887446071710E-01 a      1367     1    14     2     7
 -7.9959715251086472E-02 a      1368     1    14     2     8
 -2.1070420581602509E-01 a      1369     1    14     2     9
 -1.4190708160912818E-01 a      1370     1    14     2    10
  2.2330601067464864E-01 a      1371     1    14     2    11
 -3.7232538806825494E-01 a      1372     1    14     2    12
 -4.9506055953579542E-01 a      1373     1    14     2    13
 -6.5408825809999360E-01 a      1374     1    14     2    14
  6.8542810572931401E-01 a      1375     1    14     2    15
  4.2658502050570335E-01 a      1376     1    14     2    16
 -1.3318335396122527E-01 a      1377     1    14     2    17
  2.2847218913557318E-01 a      1378     1    14     2    18
  1.5900883350536280E-01 a      1379     1    14     2    19
  5.7078415185659752E-02 a      1380     1    14     2    20
  8.0553633915140754E-01 a      1381     1    15     2     1
 -4.1719661727990381E-01 a      1382     1    15     2     2
 -7.3326330665679051E-01 a      1383     1    15     2     3
 -4.5790184144234086E-01 a      1384     1    15     2     4
  7.7496895729826742E-01 a      1385     1    15     2     5
 -1.9905081754230430E-01 a      1386     1    15     2     6
 -6.3144802136304112E-01 a      1387     1    15     2     7
  5.0147013162884513E-01 a      1388     1    15     2     8
 -3.1684877226311986E-01 a      1389     1    15     2     9
 -6.1427231772498654E-02 a      1390     1    15     2    10
 -1.5953720916931360E-01 a      1391     1    15     2    11
 -4.3333039726362915E-01 a      1392     1    15     2    12
 -3.8980913827972535E-01 a      1393     1    15     2    13
 -5.3277667654163752E-01 a      1394     1    15     2    14
 -6.6415258267766786E-02 a      1395     1    15     2    15
  3.1702204340606421E-01 a      1396     1    15     2    16
  1.3509503605715775E-01 a      1397     1    15     2    17
 -5.5052934865253333E-01 a      1398     1    15     2    18
  6.3606091306062845E-02 a      1399     1    15     2    19
  1.6719850156569077E-01 a      1400     1    15     2    20
 -3.2596720068456186E-01 a      1401     1    16     2     1
 -3.8857926383059049E-01 a      1402     1    16     2     2
 -8.1308650932280835E-01 a      1403     1    16     2     3
 -1.2426084335973912E-01 a      1404     1    16     2     4
 -4.2563722930390048E-02 a      1405     1    16     2     5
  7.8939243130931355E-02 a      1406     1    16     2     6
  7.2665471457733222E-01 a      1407     1    16     2     7
  5.3061884154564332E-01 a      1408     1    16     2     8
 -4.5685059464114758E-01 a      1409     1    16     2     9
 -3.5022715487896738E-01 a      1410     1    16     2    10
 -7.8977074744508424E-01 a      1411     1    16     2    11
  6.8598393168238736E-01 a      1412     1    16     2    12
  3.4803127353747798E-01 a      1413     1    16     2    13
  5.5520300292695646E-01 a      1414     1    16     2    14
 -3.1957490632633623E-01 a      1415     1    16     2    15
 -8.3682020246539013E-01 a      1416     1    16     2    16
  8.8342380435853229E-01 a      1417     1    16     2    17
  2.0774173831864781E-01 a      1418     1    16     2    18
  8.6392862258725803E-04 a      1419     1    16     2    19
  4.0578542760873937E-01 a      1420     1    16     2    20
  2.7965441135099900E-01 a      1421     1    17     2     1
 -4.8507644608469358E-01 a      1422     1    17     2     2
 -4.3468390357763925E-01 a      1423     1    17     2     3
 -5.6631357430503204E-01 a      1424     1    17     2     4
 -2.1954133923378141E-01 a      1425     1    17     2     5
 -6.7385376041454545E-02 a      1426     1    17     2     6
 -3.2978197196831671E-01 a      1427     1    17     2     7
 -1.6197222781972745E-01 a      1428     1    17     2     8
  6.5631997634442363E-01 a      1429     1    17     2     9
  1.7991316848339109E-01 a      1430     1    17     2    10
 -1.4370037927043672E-01 a      1431     1    17     2    11
 -6.8285934107957080E-01 a      1432     1    17     2    12
 -7.4386977182625226E-03 a      1433     1    17     2    13
 -1.0310912133363945E-01 a      1434     1    17     2    14
 -3.7958847952231221E-02 a      1435     1    17     2    15
 -3.5991523017522969E-01 a      1436     1    17     2    16
  2.3819286986954322E-02 a      1437     1    17     2    17
 -1.0823444554025136E-01 a      1438     1    17     2    18
  6.6552642536590279E-01 a      1439     1    17     2    19
 -1.0717225450066764E-01 a      1440     1    17     2    20
  6.6529572435386619E-01 a      1441     1    18     2     1
  1.7866672357883817E-01 a      1442     1    18     2     2
  7.3846588672489111E-02 a      1443     1    18     2     3
  3.1227186432731985E-01 a      1444     1    18     2     4
 -4.6218941483202242E-01 a      1445     1    18     2     5
 -1.8580191509443100E-01 a      1446     1    18     2     6
 -4.6977325705978268E-01 a      1447     1    18     2     7
  6.0408936952108239E-01 a      1448     1    18     2     8
 -2.8910651871957393E-01 a      1449     1    18     2     9
  6.5066554805039767E-01 a      1450     1    18     2    10
 -7.2640393284213878E-01 a      1451     1    18     2    11
 -2.1886485871429157E-01 a      1452     1    18     2    12
 -3.5929497474537012E-03 a      1453     1    18     2    13
  3.7542667637216137E-01 a      1454     1    18     2    14
  4.8957522413864601E-01 a      1455     1    18     2    15
  1.0320953664432382E+00 a      1456     1    18     2    16
  2.3149813331131242E-01 a      1457     1    18     2    17
  6.3594402261264260E-01 a      1458     1    18     2    18
  4.0986269574035367E-01 a      1459     1    18     2    19
 -5.5553394545246182E-01 a      1460     1    18     2    20
  1.8448045720194495E-01 a      1461     1    19     2     1
 -5.1337117594909643E-01 a      1462     1    19     2     2
  6.4098539028470070E-01 a      1463     1    19     2     3
 -3.3346986390031436E-01 a      1464     1    19     2     4
 -4.4153204629586440E-01 a      1465     1    19     2     5
 -1.5618561548760421E-01 a      1466     1    19     2     6
  1.9600902643521326E-01 a      1467     1    19     2     7
 -5.1943133772298936E-02 a      1468     1    19     2     8
  9.9168857872827740E-02 a      1469     1    19     2     9
  8.5560835132954066E-02 a      1470     1    19     2    10
 -3.6210702896824482E-01 a      1471     1    19     2    11
 -2.9101929632299678E-01 a      1472     1    19     2    12
  3.3195748225813726E-01 a      1473     1    19     2    13
 -1.1837892324960522E-01 a      1474     1    19     2    14
 -5.3215139651799315E-01 a      1475     1    19     2    15
  4.9561263394001587E-01 a      1476     1    19     2    16
  4.6719077800576547E-01 a      1477     1    19     2    17
  2.8903087199911698E-01 a      1478     1    19     2    18
 -5.0876503617254898E-01 a      1479     1    19     2    19
 -4.3202123071944587E-01 a      1480     1    19     2    20
 -2.7528265867425300E-01 a      1481     1    20     2     1
  7.6458923352296745E-02 a      1482     1    20     2     2
 -8.8747400927816092E-02 a      1483     1    20     2     3
  4.8726018043463948E-01 a      1484     1    20     2     4
 -4.8538217043020254E-01 a      1485     1    20     2     5
 -5.3207729653767677E-01 a      1486     1    20     2     6
 -1.3138411400987224E-01 a      1487     1    20     2     7
 -4.6897092176843563E-01 a      1488     1    20     2     8
 -5.5662585379680933E-02 a      1489     1    20     2     9
  7.8357857988890522E-01 a      1490     1    20     2    10
  3.4320346386327250E-01 a      1491     1    20     2    11
 -7.6498561675204624E-01 a      1492     1    20     2    12
 -4.3584974888820283E-01 a      1493     1    20     2    13
 -7.2839723421606051E-01 a      1494     1    20     2    14
  8.0254328654497567E-02 a      1495     1    20     2    15
 -1.4411841105237608E-01 a      1496     1    20     2    16
 -3.6402591920305255E-01 a      1497     1    20     2    17
  3.8737094105952052E-01 a      1498     1    20     2    18
  6.3755447560390166E-01 a      1499     1    20     2    19
 -3.3303305671822275E-01 a      1500     1    20     2    20
 -1.0521769004109152E+00 b      1501     2     1
 -8.3552932527841617E-01 b      1502     2     2
 -1.6934271738946185E+00 b      1503     2     3
  7.3346192552100553E-01 b      1504     2     4
 -6.9967052312340605E-01 b      1505     2     5
  1.6507923735834513E+00 b      1506     2     6
 -6.3195399416373044E-01 b      1507     2     7
  1.4327784643329167E+00 b      1508     2     8
  2.1225197688422193E-01 b      1509     2     9
  4.5985505948845706E-01 b      1510     2    10
  8.8676402537741228E-01 b      1511     2    11
 -1.4508831416912564E+00 b      1512     2    12
  9.0598947208004144E-01 b      1513     2    13
 -7.7608528838199375E-01 b      1514     2    14
 -1.8466204001989353E-01 b      1515     2    15
  7.8925579603282472E-03 b      1516     2    16
  1.0185919845278144E+00 b      1517     2    17
  1.6696375619564336E+00 b      1518     2    18
  1.9734472100379127E-01 b      1519     2    19
 -5.6711402547211720E-01 b      1520     2    20
 -3.9552705191098703E-01 a      1521     2     1     3     1
  1.3497809694273896E-01 a      1522     2     2     3     1
  3.1895612076081398E-01 a      1523     2     3     3     1
 -5.3667471668666122E-01 a      1524     2     4     3     1
  4.9526755563910480E-01 a      1525     2     5     3     1
 -1.3441501932560487E-01 a      1526     2     6     3     1
  1.8305408768202983E-01 a      1527     2     7     3     1
  3.4619084818701268E-02 a      1528     2     8     3     1
 -5.4675613075744278E-01 a      1529     2     9     3     1
  9.6099569085127379E-01 a      1530     2    10     3     1
 -3.6061745300778281E-01 a      1531     2    11     3     1
  3.1719623216809606E-01 a      1532     2    12     3     1
  2.9303819644870728E-02 a      1533     2    13     3     1
  8.8464230970394342E-01 a      1534     2    14     3     1
  5.9534139324489532E-01 a      1535     2    15     3     1
 -7.1073232579260670E-01 a      1536     2    16     3     1
 -6.9343742609916281E-01 a      1537     2    17     3     1
  1.0506269302571938E+00 a      1538     2    18     3     1
 -3.0764098986135641E-01 a      1539     2    19     3     1
 -2.3162890224509766E-01 a      1540     2    20     3     1
  4.0150768162352130E-01 b      1541     3     1
