################################################################################
# Neural network connection values (weights and biases).
################################################################################
# Col  Name       Description
################################################################################
# 1    connection Neural network connection value.
# 2    t          Connection type (a = weight, b = bias).
# 3    index      Index enumerating weights.
# 4    l_s        Starting point layer (end point layer for biases).
# 5    n_s        Starting point neuron in starting layer (end point neuron for biases).
# 6    l_e        End point layer.
# 7    n_e        End point neuron in end layer.
################################################################################
#                      1 2         3     4     5     6     7
#             connection t     index   l_s   n_s   l_e   n_e
############################################################
 -2.9946017871235414E-01 a         1     0     1     1     1
  1.0981623836534844E-01 a         2     0     1     1     2
  3.2644350359930963E-02 a         3     0     1     1     3
  1.5192177583908320E-01 a         4     0     1     1     4
 -1.1352125979541459E-01 a         5     0     1     1     5
  1.5035368199818369E-01 a         6     0     1     1     6
  3.9287649702533223E-01 a         7     0     1     1     7
 -2.2805779913177054E-01 a         8     0     1     1     8
  8.3611817480444484E-01 a         9     0     1     1     9
  1.4987036602586948E-01 a        10     0     1     1    10
  2.1434606491219621E-01 a        11     0     1     1    11
 -3.5376628990288470E-02 a        12     0     1     1    12
 -1.8307364992432595E-01 a        13     0     1     1    13
 -1.7591611389893744E-01 a        14     0     1     1    14
 -4.4870344889530078E-01 a        15     0     1     1    15
  1.3538094630036085E-01 a        16     0     1     1    16
  2.8176900614778649E-01 a        17     0     1     1    17
  1.7876652757270942E-01 a        18     0     1     1    18
 -1.2890709295421207E-02 a        19     0     1     1    19
 -1.6098543350139247E-01 a        20     0     1     1    20
  3.3098612257243316E-02 a        21     0     2     1     1
 -4.6435251798999225E-02 a        22     0     2     1     2
 -1.6060896642560282E-01 a        23     0     2     1     3
 -2.9556333375030221E-03 a        24     0     2     1     4
  3.4501114515389168E-02 a        25     0     2     1     5
 -1.3391536503066959E-01 a        26     0     2     1     6
  3.2109928043162961E-01 a        27     0     2     1     7
  9.4531369236249788E-02 a        28     0     2     1     8
  2.8381695688274711E-01 a        29     0     2     1     9
 -1.2956562771292593E-01 a        30     0     2     1    10
 -8.7729229463743646E-02 a        31     0     2     1    11
  2.4117800601372313E-01 a        32     0     2     1    12
 -9.1018959914514877E-02 a        33     0     2     1    13
  5.0564271541708963E-02 a        34     0     2     1    14
  9.1912595884827489E-02 a        35     0     2     1    15
  2.4149884274441601E-02 a        36     0     2     1    16
  4.1976707233704801E-02 a        37     0     2     1    17
 -8.5433291110648027E-02 a        38     0     2     1    18
  1.3029203925888480E-01 a        39     0     2     1    19
 -4.8210249651528467E-02 a        40     0     2     1    20
  5.9379664011787281E-01 a        41     0     3     1     1
  4.4235099034039893E-01 a        42     0     3     1     2
 -4.3265525994584669E-01 a        43     0     3     1     3
 -2.8174807247753136E-01 a        44     0     3     1     4
 -2.1054575946202959E-02 a        45     0     3     1     5
 -5.2223411451829203E-02 a        46     0     3     1     6
  1.5065399522364220E-02 a        47     0     3     1     7
  6.5477643783249040E-01 a        48     0     3     1     8
  1.3572732984845870E-01 a        49     0     3     1     9
 -2.0758684169723627E-03 a        50     0     3     1    10
  1.2537354480127930E-01 a        51     0     3     1    11
  5.3925052016719599E-01 a        52     0     3     1    12
 -1.1434549792943766E-01 a        53     0     3     1    13
 -3.4193847013824552E-01 a        54     0     3     1    14
  1.5475778130909429E-01 a        55     0     3     1    15
 -1.8645796649051216E-01 a        56     0     3     1    16
  1.0520475640199944E+00 a        57     0     3     1    17
 -5.6796356967636807E-01 a        58     0     3     1    18
  4.0893151490654783E-01 a        59     0     3     1    19
  2.8279457291781557E-01 a        60     0     3     1    20
  4.5222904856934060E-01 a        61     0     4     1     1
 -8.1786802298066197E-01 a        62     0     4     1     2
  1.2051935312703403E-01 a        63     0     4     1     3
 -3.3316104425557541E-01 a        64     0     4     1     4
  7.8725125966193729E-02 a        65     0     4     1     5
  3.7253101496288671E-01 a        66     0     4     1     6
 -4.9187293439821267E-01 a        67     0     4     1     7
  1.5495960981248599E-01 a        68     0     4     1     8
  1.4937230960909911E+00 a        69     0     4     1     9
 -8.1447610854617025E-01 a        70     0     4     1    10
  1.6636550446139553E-01 a        71     0     4     1    11
 -5.4453839258091614E-02 a        72     0     4     1    12
 -2.3054566406508378E-01 a        73     0     4     1    13
  9.4768726216844831E-02 a        74     0     4     1    14
  1.1910563083271485E-01 a        75     0     4     1    15
  9.5649727502120571E-02 a        76     0     4     1    16
 -2.9379758551418663E-02 a        77     0     4     1    17
 -9.8617303002221968E-01 a        78     0     4     1    18
  2.5155120358052191E-01 a        79     0     4     1    19
  2.3218753470938164E-01 a        80     0     4     1    20
  8.4919861834730961E-03 a        81     0     5     1     1
  1.1274864037961935E-01 a        82     0     5     1     2
  6.5898834780633339E-02 a        83     0     5     1     3
  1.6004787109035512E-01 a        84     0     5     1     4
 -1.1722803987425484E-01 a        85     0     5     1     5
  1.7452687110179638E-02 a        86     0     5     1     6
 -1.7622666779646939E-01 a        87     0     5     1     7
 -6.5018042660015263E-02 a        88     0     5     1     8
 -6.1414888857822640E-02 a        89     0     5     1     9
 -1.8186527552057172E-01 a        90     0     5     1    10
  1.5542342203750220E-01 a        91     0     5     1    11
 -1.5866141706088532E-01 a        92     0     5     1    12
 -7.7379152206398238E-02 a        93     0     5     1    13
 -6.5623841461834462E-02 a        94     0     5     1    14
  3.1970167292864081E-02 a        95     0     5     1    15
  2.4220116719473897E-01 a        96     0     5     1    16
 -3.7765768383595952E-02 a        97     0     5     1    17
  2.3620500250140015E-02 a        98     0     5     1    18
 -3.8210898881865983E-02 a        99     0     5     1    19
  8.5885973757462250E-02 a       100     0     5     1    20
  8.3681074755033696E-02 a       101     0     6     1     1
 -9.2446655465307592E-01 a       102     0     6     1     2
 -3.4076805918764519E-01 a       103     0     6     1     3
  1.0627198324975111E+00 a       104     0     6     1     4
  9.4217533510039614E-02 a       105     0     6     1     5
  3.6643953653962030E-01 a       106     0     6     1     6
  2.5811633378858756E-01 a       107     0     6     1     7
 -2.8538755577217374E-02 a       108     0     6     1     8
  3.8901440008564564E-01 a       109     0     6     1     9
 -3.2680102946484502E-01 a       110     0     6     1    10
  5.7386018582100218E-01 a       111     0     6     1    11
 -4.7713664566179287E-01 a       112     0     6     1    12
  4.1619298783361552E-01 a       113     0     6     1    13
  6.6813017518212314E-01 a       114     0     6     1    14
 -5.2348678980615038E-01 a       115     0     6     1    15
  5.0891525336725758E-02 a       116     0     6     1    16
 -5.7872802346806984E-01 a       117     0     6     1    17
 -1.1752733027239372E-02 a       118     0     6     1    18
  7.6266953830236885E-03 a       119     0     6     1    19
  4.1563403890511996E-01 a       120     0     6     1    20
 -6.2836064993619128E-02 a       121     0     7     1     1
  4.3104052685507049E-01 a       122     0     7     1     2
 -1.9342046657328094E-01 a       123     0     7     1     3
 -1.1780395032485969E-01 a       124     0     7     1     4
 -3.2800111252658459E-01 a       125     0     7     1     5
 -4.2856874316951932E-01 a       126     0     7     1     6
  1.2926039687780647E-01 a       127     0     7     1     7
 -6.2278960648016402E-01 a       128     0     7     1     8
 -1.2773489994861074E+00 a       129     0     7     1     9
  8.9615125010005769E-01 a       130     0     7     1    10
 -7.0061010255517620E-01 a       131     0     7     1    11
  1.0114172731032174E-01 a       132     0     7     1    12
  1.0476523099368643E-01 a       133     0     7     1    13
  3.5107946449454988E-02 a       134     0     7     1    14
  6.7318144154359172E-01 a       135     0     7     1    15
  2.3362399140183590E-01 a       136     0     7     1    16
  1.6381485191469797E-01 a       137     0     7     1    17
  1.1447371597219087E+00 a       138     0     7     1    18
 -3.2334800104371053E-01 a       139     0     7     1    19
  5.2621904506063966E-01 a       140     0     7     1    20
 -1.3378039766925623E-01 a       141     0     8     1     1
 -2.8061190516189183E-01 a       142     0     8     1     2
  3.1061995075150364E-02 a       143     0     8     1     3
  6.4255503306680464E-02 a       144     0     8     1     4
 -7.4963160078326430E-02 a       145     0     8     1     5
  2.1142730083959807E-01 a       146     0     8     1     6
  1.2902040061798736E-01 a       147     0     8     1     7
  1.1145560352819413E-01 a       148     0     8     1     8
 -6.3536144421637547E-02 a       149     0     8     1     9
 -7.7312262990551148E-02 a       150     0     8     1    10
 -1.8501819686359264E-02 a       151     0     8     1    11
  2.1356055182759279E-02 a       152     0     8     1    12
 -3.9755564228536391E-02 a       153     0     8     1    13
  1.0844840410306250E-01 a       154     0     8     1    14
  1.7341739927142186E-01 a       155     0     8     1    15
  6.5581642772990612E-02 a       156     0     8     1    16
 -4.8154198343062664E-02 a       157     0     8     1    17
  1.1237459031939170E-01 a       158     0     8     1    18
 -1.8129426003181157E-01 a       159     0     8     1    19
 -8.9221376052723483E-02 a       160     0     8     1    20
  1.1910160594382439E-01 a       161     0     9     1     1
  4.0177811870136465E-01 a       162     0     9     1     2
  1.5089757690960806E-01 a       163     0     9     1     3
  9.9402798797228117E-02 a       164     0     9     1     4
  1.2350442520983855E-02 a       165     0     9     1     5
 -2.1478809553144479E-01 a       166     0     9     1     6
 -2.6319526309549995E-01 a       167     0     9     1     7
  2.3286944966600620E-01 a       168     0     9     1     8
 -2.6736165594505534E-01 a       169     0     9     1     9
 -1.9632670910393291E-01 a       170     0     9     1    10
  3.7912905939965325E-01 a       171     0     9     1    11
  3.9950348485012116E-01 a       172     0     9     1    12
 -8.1172437704756267E-02 a       173     0     9     1    13
 -1.5476135826090606E-01 a       174     0     9     1    14
 -3.2440322113290447E-02 a       175     0     9     1    15
  5.0213324799445111E-02 a       176     0     9     1    16
  2.0108668768337393E-01 a       177     0     9     1    17
  7.6723146584217194E-02 a       178     0     9     1    18
  1.8734752633296303E-01 a       179     0     9     1    19
 -2.6785444397408809E-01 a       180     0     9     1    20
 -1.5350282032452509E-01 a       181     0    10     1     1
 -1.8029054907721170E-01 a       182     0    10     1     2
  5.9841350512622971E-01 a       183     0    10     1     3
 -5.4278870655575129E-01 a       184     0    10     1     4
  2.1132133398624284E-01 a       185     0    10     1     5
  4.7785830365030940E-01 a       186     0    10     1     6
  1.3871874139460644E-01 a       187     0    10     1     7
  4.4905514008364794E-01 a       188     0    10     1     8
  9.1126732927137855E-01 a       189     0    10     1     9
 -1.5681319375238667E-01 a       190     0    10     1    10
  2.3743545160309179E-01 a       191     0    10     1    11
  2.5541502670866573E-01 a       192     0    10     1    12
 -2.8634601480331112E-01 a       193     0    10     1    13
  7.7991926464028874E-02 a       194     0    10     1    14
 -4.1535492678081737E-01 a       195     0    10     1    15
  1.3585805883413102E-01 a       196     0    10     1    16
  2.1650023431051477E-01 a       197     0    10     1    17
 -9.3310640095633135E-01 a       198     0    10     1    18
 -3.3193746863387552E-02 a       199     0    10     1    19
  1.7981075705229280E-01 a       200     0    10     1    20
 -1.7292067262065933E-02 a       201     0    11     1     1
  1.7506043578893879E-01 a       202     0    11     1     2
  7.9564290450258104E-02 a       203     0    11     1     3
  6.0945733871718588E-02 a       204     0    11     1     4
  9.5861863860520355E-02 a       205     0    11     1     5
 -1.6566997761428834E-01 a       206     0    11     1     6
 -1.5540769187259174E-01 a       207     0    11     1     7
  2.5211516682787202E-02 a       208     0    11     1     8
 -6.3635523900774371E-02 a       209     0    11     1     9
 -1.2020790622708380E-01 a       210     0    11     1    10
 -1.1037761599185039E-01 a       211     0    11     1    11
  1.7094425532475262E-02 a       212     0    11     1    12
 -9.4471510276984513E-02 a       213     0    11     1    13
 -2.7024282373416603E-01 a       214     0    11     1    14
 -8.5739414499516997E-02 a       215     0    11     1    15
  4.1420893379274869E-02 a       216     0    11     1    16
 -5.6455853068756869E-02 a       217     0    11     1    17
 -2.6225282545423778E-01 a       218     0    11     1    18
  1.7203259260467799E-01 a       219     0    11     1    19
 -1.1020649668764244E-01 a       220     0    11     1    20
  5.5674461615869281E-02 a       221     0    12     1     1
  5.7742999450196716E-02 a       222     0    12     1     2
  6.2675471253196349E-02 a       223     0    12     1     3
  1.6109839720742838E-01 a       224     0    12     1     4
 -1.5822772389030740E-01 a       225     0    12     1     5
 -3.3043140170294749E-02 a       226     0    12     1     6
  3.9304306644178899E-01 a       227     0    12     1     7
 -2.4756169984619447E-01 a       228     0    12     1     8
  5.7111378317488226E-01 a       229     0    12     1     9
 -2.3835858951239833E-01 a       230     0    12     1    10
 -2.9365842081078033E-02 a       231     0    12     1    11
 -2.1597382725059114E-01 a       232     0    12     1    12
  1.4738190090094311E-01 a       233     0    12     1    13
 -2.9269097605193012E-01 a       234     0    12     1    14
 -1.0427467237665906E-01 a       235     0    12     1    15
  2.7248509291839784E-01 a       236     0    12     1    16
 -1.4279623871852726E-01 a       237     0    12     1    17
  5.5844137346317144E-02 a       238     0    12     1    18
 -1.4915486483604737E-01 a       239     0    12     1    19
 -3.7703877396899105E-01 a       240     0    12     1    20
  2.6836635774329143E-01 a       241     0    13     1     1
 -1.7431188042959780E-01 a       242     0    13     1     2
 -2.1626398108940476E-01 a       243     0    13     1     3
  3.5998613726354371E-02 a       244     0    13     1     4
 -2.0275011093221071E-01 a       245     0    13     1     5
 -8.9517028279373217E-02 a       246     0    13     1     6
 -5.2083578898187988E-01 a       247     0    13     1     7
 -4.9696907399278911E-01 a       248     0    13     1     8
 -2.4367682343138775E-01 a       249     0    13     1     9
  2.6621958669324264E-01 a       250     0    13     1    10
 -2.5574368967120314E-01 a       251     0    13     1    11
 -3.6146182792303144E-01 a       252     0    13     1    12
  1.1584834025233944E-01 a       253     0    13     1    13
 -2.7791952214238397E-01 a       254     0    13     1    14
  3.9837578426291831E-01 a       255     0    13     1    15
 -1.0008997075639947E-01 a       256     0    13     1    16
 -5.2187417850175492E-02 a       257     0    13     1    17
  4.7074712687581605E-01 a       258     0    13     1    18
  1.6399637782946436E-01 a       259     0    13     1    19
  2.8219792231956609E-01 a       260     0    13     1    20
 -6.5126217035113884E-02 a       261     0    14     1     1
 -1.0763033340768753E-01 a       262     0    14     1     2
 -1.0840674897982636E-02 a       263     0    14     1     3
 -8.2356794195981659E-02 a       264     0    14     1     4
 -2.2214036434505699E-01 a       265     0    14     1     5
  8.5145601143836486E-02 a       266     0    14     1     6
  1.4866460352355521E-01 a       267     0    14     1     7
 -7.3356214305118322E-02 a       268     0    14     1     8
  5.3019956884293538E-03 a       269     0    14     1     9
 -6.5260018923847746E-03 a       270     0    14     1    10
  5.4053363208027005E-02 a       271     0    14     1    11
  1.0746258243607246E-01 a       272     0    14     1    12
  7.2209159270697570E-02 a       273     0    14     1    13
 -2.9883560377985920E-02 a       274     0    14     1    14
  1.1090227495973069E-01 a       275     0    14     1    15
  1.2647749247448889E-01 a       276     0    14     1    16
 -1.9493872906631435E-02 a       277     0    14     1    17
  1.1844845352476925E-01 a       278     0    14     1    18
 -1.6736362093780438E-01 a       279     0    14     1    19
 -3.0696492249677031E-02 a       280     0    14     1    20
 -4.5507690086661182E-02 a       281     0    15     1     1
 -3.1365369890525671E-02 a       282     0    15     1     2
  8.4964910112651920E-02 a       283     0    15     1     3
  4.0954965316181763E-01 a       284     0    15     1     4
  1.2027612677143981E-01 a       285     0    15     1     5
  5.7583943582203055E-02 a       286     0    15     1     6
  3.0657503731351898E-01 a       287     0    15     1     7
  6.1271493054949977E-01 a       288     0    15     1     8
 -2.9229434291567907E-01 a       289     0    15     1     9
 -1.8366973250500498E-01 a       290     0    15     1    10
  2.5689268846788282E-01 a       291     0    15     1    11
  9.5894483060219110E-02 a       292     0    15     1    12
 -2.1026751711137708E-02 a       293     0    15     1    13
  5.6885344933403881E-01 a       294     0    15     1    14
  2.1720477394224745E-02 a       295     0    15     1    15
 -1.2455396511987286E-01 a       296     0    15     1    16
 -2.6169322131410558E-02 a       297     0    15     1    17
 -6.8244030281700396E-02 a       298     0    15     1    18
  3.5504253043159711E-01 a       299     0    15     1    19
  8.0597077085951069E-02 a       300     0    15     1    20
 -2.5293248470646179E-01 a       301     0    16     1     1
  1.7787665442084080E-01 a       302     0    16     1     2
 -1.8841022873232580E-01 a       303     0    16     1     3
 -4.6327555390815114E-04 a       304     0    16     1     4
  7.1694532655637744E-02 a       305     0    16     1     5
  3.8630510497990246E-02 a       306     0    16     1     6
  1.7179493133410154E-01 a       307     0    16     1     7
  1.0526919973738931E-01 a       308     0    16     1     8
  9.9426884354374273E-02 a       309     0    16     1     9
 -2.1602574688243427E-02 a       310     0    16     1    10
  3.6030427515359331E-01 a       311     0    16     1    11
  3.5190119226166028E-01 a       312     0    16     1    12
 -1.9631311633795862E-01 a       313     0    16     1    13
  1.0969579461438810E-01 a       314     0    16     1    14
 -9.3677992790892464E-02 a       315     0    16     1    15
  1.5084888956770873E-01 a       316     0    16     1    16
  1.3318436513242177E-01 a       317     0    16     1    17
 -1.6223783632648281E-01 a       318     0    16     1    18
 -1.8797291588908757E-01 a       319     0    16     1    19
 -1.5880518943964549E-02 a       320     0    16     1    20
  3.4691822478075248E-03 a       321     0    17     1     1
 -3.8939432942699956E-02 a       322     0    17     1     2
  3.2460703304219435E-02 a       323     0    17     1     3
  1.0066642889450997E-01 a       324     0    17     1     4
  8.1235914086098884E-02 a       325     0    17     1     5
 -9.6166901228318651E-03 a       326     0    17     1     6
  5.0877574860816017E-02 a       327     0    17     1     7
  8.1783150134707952E-02 a       328     0    17     1     8
 -4.7226156589074329E-02 a       329     0    17     1     9
 -7.4170179493696572E-02 a       330     0    17     1    10
 -1.1608699994574038E-02 a       331     0    17     1    11
  4.7102557674070664E-02 a       332     0    17     1    12
 -1.2684973076087741E-01 a       333     0    17     1    13
  1.2669850880672753E-01 a       334     0    17     1    14
  9.2371513304255859E-02 a       335     0    17     1    15
  5.6208557318599237E-02 a       336     0    17     1    16
  1.4551046827087868E-02 a       337     0    17     1    17
 -8.4842701601875722E-02 a       338     0    17     1    18
  1.6245780603636370E-01 a       339     0    17     1    19
  1.0521651601755673E-01 a       340     0    17     1    20
  1.9633668162845158E-01 a       341     0    18     1     1
  1.0780366215846231E-01 a       342     0    18     1     2
 -5.8918657587352125E-02 a       343     0    18     1     3
 -9.1763457384395938E-02 a       344     0    18     1     4
 -1.5209521381640717E-01 a       345     0    18     1     5
 -1.6756275357904835E-01 a       346     0    18     1     6
  2.5680357486523555E-02 a       347     0    18     1     7
 -3.9129485546836135E-01 a       348     0    18     1     8
  2.3231578534800146E-01 a       349     0    18     1     9
 -1.4950094673013511E-01 a       350     0    18     1    10
 -1.2831641691128395E-01 a       351     0    18     1    11
 -1.1139207487835992E-01 a       352     0    18     1    12
  3.2917674393125185E-01 a       353     0    18     1    13
 -2.3029383377198450E-02 a       354     0    18     1    14
 -3.5103919609627343E-01 a       355     0    18     1    15
  1.4142280079900060E-01 a       356     0    18     1    16
 -2.7925231262070804E-02 a       357     0    18     1    17
  1.0875848865353005E-01 a       358     0    18     1    18
 -3.1129990812676994E-01 a       359     0    18     1    19
  2.7262201846139152E-02 a       360     0    18     1    20
  1.2432413668390585E-01 a       361     0    19     1     1
 -2.5889378239141780E-01 a       362     0    19     1     2
  5.6405194715562969E-02 a       363     0    19     1     3
 -6.3753298378564333E-02 a       364     0    19     1     4
 -4.2945911741166666E-02 a       365     0    19     1     5
  3.1053466213582962E-02 a       366     0    19     1     6
 -2.0684221540165498E-01 a       367     0    19     1     7
 -1.5061981850158965E-01 a       368     0    19     1     8
  9.7131777482946727E-02 a       369     0    19     1     9
 -3.4326402700041954E-02 a       370     0    19     1    10
 -4.0754971093043779E-01 a       371     0    19     1    11
 -9.3126375636426922E-02 a       372     0    19     1    12
 -1.3923838786713968E-01 a       373     0    19     1    13
 -1.0861254709600879E-01 a       374     0    19     1    14
  3.6313454577310977E-01 a       375     0    19     1    15
 -1.0491851272116757E-03 a       376     0    19     1    16
 -6.0044085966474522E-02 a       377     0    19     1    17
 -1.8605294392543121E-02 a       378     0    19     1    18
  1.1444355374991583E-01 a       379     0    19     1    19
 -9.0568496941936683E-03 a       380     0    19     1    20
 -4.4915206353545421E-03 a       381     0    20     1     1
  6.0936918230559634E-02 a       382     0    20     1     2
  5.8015771868679400E-02 a       383     0    20     1     3
 -1.2983747258184988E-01 a       384     0    20     1     4
 -1.2289645523341040E-01 a       385     0    20     1     5
 -2.5076432502742958E-02 a       386     0    20     1     6
 -4.0609839485160747E-02 a       387     0    20     1     7
 -7.3952441625834739E-02 a       388     0    20     1     8
  1.0020604727164024E-02 a       389     0    20     1     9
 -3.7729836443894903E-02 a       390     0    20     1    10
 -4.0988384163582144E-02 a       391     0    20     1    11
  1.6443860892838860E-02 a       392     0    20     1    12
  9.3394540713226004E-02 a       393     0    20     1    13
 -1.1104887630764501E-01 a       394     0    20     1    14
 -2.4686213982478427E-02 a       395     0    20     1    15
  5.5716174227984687E-02 a       396     0    20     1    16
 -2.6168115255419699E-03 a       397     0    20     1    17
  7.3693112938016517E-02 a       398     0    20     1    18
 -8.6610934374067486E-02 a       399     0    20     1    19
 -1.2461017666428757E-01 a       400     0    20     1    20
 -7.5361565920465806E-02 a       401     0    21     1     1
 -1.5583388023149309E-02 a       402     0    21     1     2
  1.3940369565355365E-01 a       403     0    21     1     3
  1.3382782909908611E-01 a       404     0    21     1     4
  8.8706524900063796E-02 a       405     0    21     1     5
  1.3997019363755836E-01 a       406     0    21     1     6
  3.8100389928205647E-01 a       407     0    21     1     7
  3.7457837852508996E-01 a       408     0    21     1     8
 -1.1038716650966401E-01 a       409     0    21     1     9
  1.3701535472116405E-01 a       410     0    21     1    10
  1.4437949076447873E-01 a       411     0    21     1    11
  2.8300227774922814E-02 a       412     0    21     1    12
 -3.7864562294425308E-02 a       413     0    21     1    13
  1.5095739971940947E-01 a       414     0    21     1    14
  6.1873687773379045E-02 a       415     0    21     1    15
 -1.3141877440029703E-01 a       416     0    21     1    16
  4.9888051149108575E-03 a       417     0    21     1    17
  2.0445107447206928E-02 a       418     0    21     1    18
  2.7426144524357959E-01 a       419     0    21     1    19
  3.0746692520362200E-02 a       420     0    21     1    20
 -2.6994755194447262E-01 a       421     0    22     1     1
  1.6555556048491060E-01 a       422     0    22     1     2
 -1.7167668432653691E-02 a       423     0    22     1     3
 -5.2714707268360700E-03 a       424     0    22     1     4
  4.5494868908029396E-02 a       425     0    22     1     5
 -5.2374442162129109E-02 a       426     0    22     1     6
 -1.2901368708517980E-01 a       427     0    22     1     7
  3.7638926225893148E-02 a       428     0    22     1     8
 -2.1222437620913673E-01 a       429     0    22     1     9
  9.7649163075073458E-02 a       430     0    22     1    10
  2.1047696765705035E-01 a       431     0    22     1    11
  1.7918774783820771E-01 a       432     0    22     1    12
 -1.7766986923737832E-01 a       433     0    22     1    13
 -1.7597406236261492E-01 a       434     0    22     1    14
  7.7931106313584034E-02 a       435     0    22     1    15
  8.6413286739542364E-02 a       436     0    22     1    16
  6.9105301573916714E-02 a       437     0    22     1    17
  1.8316675530851884E-02 a       438     0    22     1    18
 -1.7611936381226839E-01 a       439     0    22     1    19
 -6.0519304012000286E-02 a       440     0    22     1    20
  1.9772293468336324E-02 a       441     0    23     1     1
 -6.4143087715300084E-02 a       442     0    23     1     2
 -1.1854044580139568E-01 a       443     0    23     1     3
  1.3700979888571657E-01 a       444     0    23     1     4
  1.2688775123672189E-01 a       445     0    23     1     5
  3.2981795096858141E-02 a       446     0    23     1     6
  1.1879847877395985E-02 a       447     0    23     1     7
  2.8933839713826695E-02 a       448     0    23     1     8
  1.4945933840577791E-02 a       449     0    23     1     9
  6.7674125412043512E-02 a       450     0    23     1    10
  9.2886605810106326E-02 a       451     0    23     1    11
 -4.8724940237105684E-02 a       452     0    23     1    12
 -6.7546728101224446E-02 a       453     0    23     1    13
  2.7478379910016462E-02 a       454     0    23     1    14
 -2.7293742015157475E-02 a       455     0    23     1    15
 -9.7390426833209115E-02 a       456     0    23     1    16
 -7.2441952669703730E-03 a       457     0    23     1    17
 -5.1227665287226415E-02 a       458     0    23     1    18
  3.8631343195548791E-02 a       459     0    23     1    19
  9.2231863442036183E-02 a       460     0    23     1    20
  2.7968644441549889E-01 a       461     0    24     1     1
  7.6608087371496006E-02 a       462     0    24     1     2
 -1.3636982156123870E-01 a       463     0    24     1     3
 -3.5513652175077321E-04 a       464     0    24     1     4
 -6.0607127036008422E-02 a       465     0    24     1     5
 -1.1282273303742846E-01 a       466     0    24     1     6
  1.6664720187286656E-02 a       467     0    24     1     7
 -2.0102739102788314E-01 a       468     0    24     1     8
  1.4757268138542406E-01 a       469     0    24     1     9
 -1.2850779608778223E-01 a       470     0    24     1    10
  6.3902436614688418E-03 a       471     0    24     1    11
 -2.1573538151126592E-01 a       472     0    24     1    12
  4.4629346017869087E-01 a       473     0    24     1    13
  1.3236210522791289E-01 a       474     0    24     1    14
 -5.2395636315664118E-01 a       475     0    24     1    15
 -9.6015176038657460E-02 a       476     0    24     1    16
 -5.2581839672481701E-02 a       477     0    24     1    17
  3.2415618239745071E-02 a       478     0    24     1    18
 -8.9928852971500620E-02 a       479     0    24     1    19
  1.4270454420808018E-01 a       480     0    24     1    20
  3.8592789004978562E-02 a       481     0    25     1     1
 -1.0559269381378333E-01 a       482     0    25     1     2
  2.0049138300547970E-02 a       483     0    25     1     3
 -2.8829327226756619E-02 a       484     0    25     1     4
 -2.1775143513408611E-02 a       485     0    25     1     5
  4.9624752406101369E-02 a       486     0    25     1     6
  1.0859407019466666E-01 a       487     0    25     1     7
 -4.2330141027244706E-03 a       488     0    25     1     8
  7.2513564493712060E-02 a       489     0    25     1     9
  2.9125671466458527E-02 a       490     0    25     1    10
 -1.8964922908761758E-01 a       491     0    25     1    11
  2.4802634400097275E-02 a       492     0    25     1    12
 -4.0540085191048424E-02 a       493     0    25     1    13
  4.8924189774609855E-02 a       494     0    25     1    14
  1.5202371326368466E-01 a       495     0    25     1    15
  7.4134463312370228E-03 a       496     0    25     1    16
 -2.3725354841743075E-02 a       497     0    25     1    17
 -4.9740097948920092E-02 a       498     0    25     1    18
  5.4993384938171394E-02 a       499     0    25     1    19
  1.1031096405319105E-02 a       500     0    25     1    20
  1.7580765966055994E-02 a       501     0    26     1     1
  3.5088321771386280E-02 a       502     0    26     1     2
  7.9818444522369469E-02 a       503     0    26     1     3
 -9.4846811224721939E-02 a       504     0    26     1     4
 -9.1808537349115441E-02 a       505     0    26     1     5
 -3.0129964861579941E-02 a       506     0    26     1     6
  3.5439910478101175E-02 a       507     0    26     1     7
 -1.3071243973432451E-02 a       508     0    26     1     8
  2.0939556880748320E-02 a       509     0    26     1     9
 -6.0671781488172913E-02 a       510     0    26     1    10
 -7.1604440187187215E-02 a       511     0    26     1    11
  2.1550350287915521E-02 a       512     0    26     1    12
  9.0517069982916254E-02 a       513     0    26     1    13
  6.2739709264456794E-02 a       514     0    26     1    14
 -9.1912896947495288E-03 a       515     0    26     1    15
  3.3844284166048573E-02 a       516     0    26     1    16
 -1.4618209734930184E-03 a       517     0    26     1    17
  4.8464714362924030E-02 a       518     0    26     1    18
  2.2498103795142086E-02 a       519     0    26     1    19
 -7.1790303106933273E-03 a       520     0    26     1    20
 -1.0265958948641747E-01 a       521     0    27     1     1
 -3.0925047974154615E-02 a       522     0    27     1     2
  5.7084176366328857E-02 a       523     0    27     1     3
  2.6398496839861733E-02 a       524     0    27     1     4
  1.4193461098855083E-02 a       525     0    27     1     5
  7.2979619743046203E-02 a       526     0    27     1     6
  1.9477024861443867E-02 a       527     0    27     1     7
  1.1067194043195966E-01 a       528     0    27     1     8
 -3.8770333310108096E-02 a       529     0    27     1     9
  4.8948492549691192E-02 a       530     0    27     1    10
  7.8864857328697385E-02 a       531     0    27     1    11
  5.8000443977642251E-02 a       532     0    27     1    12
 -1.6094065390932383E-01 a       533     0    27     1    13
 -1.9652472956043561E-02 a       534     0    27     1    14
  1.8129567078490502E-01 a       535     0    27     1    15
  3.3770040092237226E-02 a       536     0    27     1    16
  2.1850078234212107E-02 a       537     0    27     1    17
  1.4540929773730281E-02 a       538     0    27     1    18
  6.3785741938821083E-02 a       539     0    27     1    19
 -6.3262801209123601E-02 a       540     0    27     1    20
 -9.5915001398866745E-02 a       541     0    28     1     1
  2.7417363507154551E-02 a       542     0    28     1     2
  4.7233278119333776E-02 a       543     0    28     1     3
 -1.4685595615292911E-02 a       544     0    28     1     4
  3.7718163192764496E-04 a       545     0    28     1     5
 -1.7310609277134251E-02 a       546     0    28     1     6
 -5.1243573158033080E-02 a       547     0    28     1     7
  1.7401755871109481E-02 a       548     0    28     1     8
 -8.2437653614085046E-02 a       549     0    28     1     9
 -2.4375890204783621E-02 a       550     0    28     1    10
 -6.9449881446747999E-03 a       551     0    28     1    11
  6.3779514157120576E-02 a       552     0    28     1    12
 -1.2291753019289800E-01 a       553     0    28     1    13
 -8.0714285135679797E-02 a       554     0    28     1    14
  1.2838857713586788E-01 a       555     0    28     1    15
  8.8378317212352397E-02 a       556     0    28     1    16
  2.1574482401215293E-02 a       557     0    28     1    17
 -1.6217313293605509E-03 a       558     0    28     1    18
 -2.7790973343238469E-02 a       559     0    28     1    19
 -5.3164636229277522E-02 a       560     0    28     1    20
 -2.5512748978814614E-02 a       561     0    29     1     1
 -9.1625149522168974E-03 a       562     0    29     1     2
 -1.8475792398436830E-02 a       563     0    29     1     3
  2.9557137508082414E-02 a       564     0    29     1     4
  2.5998828971604711E-02 a       565     0    29     1     5
  1.4091451807125335E-02 a       566     0    29     1     6
 -1.5708257487331703E-02 a       567     0    29     1     7
  6.0179514550862444E-03 a       568     0    29     1     8
 -2.6210261041390820E-02 a       569     0    29     1     9
  2.4896936999252838E-02 a       570     0    29     1    10
  1.5816687877453956E-02 a       571     0    29     1    11
  9.3397684959927799E-03 a       572     0    29     1    12
 -5.6436859342157683E-02 a       573     0    29     1    13
 -4.8199146518260551E-02 a       574     0    29     1    14
  3.5312932812115387E-02 a       575     0    29     1    15
  1.6277101582340605E-02 a       576     0    29     1    16
  5.6716817292255433E-03 a       577     0    29     1    17
 -2.0674244366748612E-02 a       578     0    29     1    18
 -2.2827842532050342E-02 a       579     0    29     1    19
 -1.2666783542671794E-02 a       580     0    29     1    20
  1.6215174046759620E-01 a       581     0    30     1     1
  2.8411790501386772E-02 a       582     0    30     1     2
 -7.4294099014860046E-02 a       583     0    30     1     3
  1.5318000303007829E-02 a       584     0    30     1     4
 -7.0414600463519685E-03 a       585     0    30     1     5
 -4.2456307873992030E-02 a       586     0    30     1     6
  2.2356578839104944E-02 a       587     0    30     1     7
 -5.6511491806960086E-02 a       588     0    30     1     8
  7.7549974207815869E-02 a       589     0    30     1     9
 -4.7351892911215679E-02 a       590     0    30     1    10
  6.2675964792026959E-02 a       591     0    30     1    11
 -1.0811744992773561E-01 a       592     0    30     1    12
  2.4020174431835672E-01 a       593     0    30     1    13
  1.0697206803695355E-01 a       594     0    30     1    14
 -2.9342034217752416E-01 a       595     0    30     1    15
 -1.0133887168041843E-01 a       596     0    30     1    16
 -1.6605635628395277E-02 a       597     0    30     1    17
  4.0767083087780993E-02 a       598     0    30     1    18
  3.2000017670060929E-02 a       599     0    30     1    19
  7.6075305404845292E-02 a       600     0    30     1    20
 -5.2193889748740907E-01 a       601     0    31     1     1
 -2.9552343045831462E-02 a       602     0    31     1     2
  9.4850808622186825E-02 a       603     0    31     1     3
  4.9913984980887344E-01 a       604     0    31     1     4
 -2.6604706083510427E-01 a       605     0    31     1     5
 -1.8358704220618083E-01 a       606     0    31     1     6
  4.9150654736648293E-02 a       607     0    31     1     7
 -1.2965782930956538E-01 a       608     0    31     1     8
 -1.7857928885355576E-01 a       609     0    31     1     9
 -7.4979146137685648E-01 a       610     0    31     1    10
  1.4859606492483776E-01 a       611     0    31     1    11
 -2.6942950439292068E-01 a       612     0    31     1    12
 -8.0226726705920612E-02 a       613     0    31     1    13
 -8.8074858857667086E-03 a       614     0    31     1    14
 -2.7206645335431771E-02 a       615     0    31     1    15
  2.5999886183944190E-02 a       616     0    31     1    16
 -1.8974775854591255E-01 a       617     0    31     1    17
 -2.0401533137680491E-02 a       618     0    31     1    18
  5.2889228386223067E-03 a       619     0    31     1    19
 -5.1552566102941795E-02 a       620     0    31     1    20
 -7.0261038231871298E-02 a       621     0    32     1     1
  1.2251218122144361E-01 a       622     0    32     1     2
 -1.9218974133186506E-01 a       623     0    32     1     3
  1.7127847433877488E-01 a       624     0    32     1     4
  1.0922620414180895E-01 a       625     0    32     1     5
 -1.5154504962272813E-01 a       626     0    32     1     6
  1.5633238887400766E-01 a       627     0    32     1     7
  1.0486181841506201E-01 a       628     0    32     1     8
 -5.9763817880643000E-02 a       629     0    32     1     9
  3.1285588278647587E-02 a       630     0    32     1    10
 -8.4420786368970296E-02 a       631     0    32     1    11
 -4.5389276420681655E-02 a       632     0    32     1    12
 -1.2091499081452832E-01 a       633     0    32     1    13
  1.8462838580499322E-01 a       634     0    32     1    14
  6.4967816136399237E-02 a       635     0    32     1    15
  7.4999060802356798E-02 a       636     0    32     1    16
  4.7118342807715874E-02 a       637     0    32     1    17
 -3.7275553626386577E-02 a       638     0    32     1    18
 -1.5823944049428110E-01 a       639     0    32     1    19
 -2.0865985704484546E-01 a       640     0    32     1    20
  4.7206723229630737E-01 a       641     0    33     1     1
 -3.0926757295440932E-01 a       642     0    33     1     2
 -1.0090447333262555E-01 a       643     0    33     1     3
  1.4482121001437603E-01 a       644     0    33     1     4
  4.2308171755483953E-01 a       645     0    33     1     5
  4.0273963710305327E-01 a       646     0    33     1     6
  1.2077884084140045E-01 a       647     0    33     1     7
  4.8731668829370078E-01 a       648     0    33     1     8
  3.1189240140887475E-02 a       649     0    33     1     9
  8.8228646635057262E-01 a       650     0    33     1    10
  2.5266099647086718E-02 a       651     0    33     1    11
  4.8135262914181187E-01 a       652     0    33     1    12
  2.3489166469275996E-01 a       653     0    33     1    13
  2.9462333864476631E-01 a       654     0    33     1    14
 -2.8680609806358132E-01 a       655     0    33     1    15
 -1.5411435264654327E-01 a       656     0    33     1    16
  1.4162072000490711E-01 a       657     0    33     1    17
 -3.4286310986024485E-02 a       658     0    33     1    18
 -1.1672341544206937E+00 a       659     0    33     1    19
 -1.1495968938635153E+00 a       660     0    33     1    20
  3.1978150039257684E-02 a       661     0    34     1     1
  8.1365626147699918E-02 a       662     0    34     1     2
  9.1892105788214967E-02 a       663     0    34     1     3
 -1.2481681679902946E-01 a       664     0    34     1     4
  4.9111281258652766E-02 a       665     0    34     1     5
 -1.4630130823024853E-01 a       666     0    34     1     6
  7.7603669382522347E-02 a       667     0    34     1     7
  1.9856384987097081E-01 a       668     0    34     1     8
 -1.4669027179201918E-01 a       669     0    34     1     9
  4.5069425528187310E-02 a       670     0    34     1    10
  1.5038224405935000E-01 a       671     0    34     1    11
 -4.7134313293591291E-03 a       672     0    34     1    12
  1.0140525022617466E-01 a       673     0    34     1    13
 -3.7461576447519442E-02 a       674     0    34     1    14
 -2.7330709421586830E-01 a       675     0    34     1    15
  1.0015686393666250E-02 a       676     0    34     1    16
  4.4995110404487011E-02 a       677     0    34     1    17
 -1.7618803255768584E-01 a       678     0    34     1    18
  7.2226625783267911E-02 a       679     0    34     1    19
  8.3180702683905219E-02 a       680     0    34     1    20
  4.1246571630207722E-02 a       681     0    35     1     1
  1.0007953720520353E-02 a       682     0    35     1     2
  3.0012375625145020E-02 a       683     0    35     1     3
 -7.1940891727341624E-02 a       684     0    35     1     4
  1.5773114721085485E-01 a       685     0    35     1     5
 -1.6453392083068286E-01 a       686     0    35     1     6
 -1.0967346520399890E-01 a       687     0    35     1     7
  1.9496662904824816E-01 a       688     0    35     1     8
  1.3417516204170543E-01 a       689     0    35     1     9
 -8.4149087973461115E-02 a       690     0    35     1    10
 -5.4051863141502737E-03 a       691     0    35     1    11
 -2.2584204701524752E-01 a       692     0    35     1    12
 -6.1038623928328546E-02 a       693     0    35     1    13
  3.0959722128163203E-01 a       694     0    35     1    14
  9.3264805291358888E-02 a       695     0    35     1    15
 -1.5084146910819057E-01 a       696     0    35     1    16
  9.0235230330677929E-02 a       697     0    35     1    17
  1.5238865072968866E-02 a       698     0    35     1    18
  1.0304389177097843E-01 a       699     0    35     1    19
  7.2791886316742313E-02 a       700     0    35     1    20
 -6.3067121597293452E-01 a       701     0    36     1     1
  9.4152181917769154E-02 a       702     0    36     1     2
 -3.5359517938453239E-02 a       703     0    36     1     3
 -4.3317348613062673E-01 a       704     0    36     1     4
 -4.6033417438996284E-02 a       705     0    36     1     5
  5.4137735429950699E-02 a       706     0    36     1     6
 -1.8423516006555737E-01 a       707     0    36     1     7
 -1.6006200297307144E-01 a       708     0    36     1     8
 -6.5538033123019335E-01 a       709     0    36     1     9
 -5.9568484092067484E-02 a       710     0    36     1    10
 -3.9996178486202771E-01 a       711     0    36     1    11
 -5.5029117148265938E-01 a       712     0    36     1    12
 -2.8032045216920054E-01 a       713     0    36     1    13
 -5.2507713528784328E-01 a       714     0    36     1    14
  1.4059607701906504E-01 a       715     0    36     1    15
 -1.2425669628492801E-01 a       716     0    36     1    16
 -4.6532401011321202E-02 a       717     0    36     1    17
 -2.8150202019819703E-01 a       718     0    36     1    18
  3.5126573113746917E-01 a       719     0    36     1    19
  7.3064985552630557E-01 a       720     0    36     1    20
  6.3784186172176205E-01 a       721     0    37     1     1
  7.8111848301544329E-02 a       722     0    37     1     2
 -1.4808249240022034E-01 a       723     0    37     1     3
 -7.1104986210318744E-01 a       724     0    37     1     4
  2.0692921931604594E-01 a       725     0    37     1     5
 -2.2592475743571941E-01 a       726     0    37     1     6
 -4.8452759763447639E-01 a       727     0    37     1     7
 -3.4983604897313703E-01 a       728     0    37     1     8
 -3.9217429599147641E-01 a       729     0    37     1     9
  3.1920292361928321E-01 a       730     0    37     1    10
 -1.5604150263692329E-01 a       731     0    37     1    11
 -2.0200959705905061E-01 a       732     0    37     1    12
  1.7025442915385341E-01 a       733     0    37     1    13
  6.2332811975455767E-02 a       734     0    37     1    14
 -6.0164243429549284E-02 a       735     0    37     1    15
  1.1888670922614337E-01 a       736     0    37     1    16
  2.8435141502616040E-01 a       737     0    37     1    17
 -1.1345358958811255E-01 a       738     0    37     1    18
  3.1549167711840848E-01 a       739     0    37     1    19
  3.1754317649227032E-01 a       740     0    37     1    20
  2.5229819314864604E-02 a       741     0    38     1     1
 -2.4108250608830293E-02 a       742     0    38     1     2
  8.8811959078833186E-02 a       743     0    38     1     3
 -3.7221611650840820E-02 a       744     0    38     1     4
 -2.4731950218600342E-02 a       745     0    38     1     5
  8.8458682373456693E-02 a       746     0    38     1     6
 -1.4237880603535128E-02 a       747     0    38     1     7
 -1.5888350348398292E-02 a       748     0    38     1     8
 -1.0314528482432450E-01 a       749     0    38     1     9
  5.5559294130992858E-02 a       750     0    38     1    10
  7.3072941544703202E-02 a       751     0    38     1    11
  2.8352535043047579E-03 a       752     0    38     1    12
  1.1743830941563384E-01 a       753     0    38     1    13
 -9.2469735019878443E-02 a       754     0    38     1    14
 -1.0116384595446866E-01 a       755     0    38     1    15
 -1.3137815323216320E-01 a       756     0    38     1    16
 -7.3638612818662574E-02 a       757     0    38     1    17
  4.0432991503558398E-02 a       758     0    38     1    18
  8.3548204725121381E-02 a       759     0    38     1    19
  8.8017071005851613E-02 a       760     0    38     1    20
 -5.5229862228386017E-01 a       761     0    39     1     1
 -7.0632704484319381E-02 a       762     0    39     1     2
  4.0040296191071678E-01 a       763     0    39     1     3
  7.5510355637313820E-01 a       764     0    39     1     4
  2.1833784330943959E-01 a       765     0    39     1     5
 -2.5740101283926597E-01 a       766     0    39     1     6
  1.8146251804310973E-01 a       767     0    39     1     7
  4.5255470501060185E-01 a       768     0    39     1     8
  2.0604927861015527E+00 a       769     0    39     1     9
  1.5353253513825673E-03 a       770     0    39     1    10
  4.1318839785152589E-01 a       771     0    39     1    11
  9.3066849748062530E-01 a       772     0    39     1    12
 -1.9175363562525050E-01 a       773     0    39     1    13
 -4.4054553932346453E-02 a       774     0    39     1    14
 -4.0752934483828489E-02 a       775     0    39     1    15
 -9.8461364274100205E-01 a       776     0    39     1    16
 -6.8690614996104493E-01 a       777     0    39     1    17
  2.4986349943663133E-01 a       778     0    39     1    18
  2.6783325905279742E-01 a       779     0    39     1    19
  4.7259106758533620E-01 a       780     0    39     1    20
  2.0169979455853162E-02 a       781     0    40     1     1
 -6.6629367245761399E-03 a       782     0    40     1     2
  1.1864489077113140E-01 a       783     0    40     1     3
  7.3235905269835797E-02 a       784     0    40     1     4
  7.4288433495504264E-02 a       785     0    40     1     5
 -2.4902220450564844E-01 a       786     0    40     1     6
  3.6667659334652430E-01 a       787     0    40     1     7
 -1.9910415150074603E-01 a       788     0    40     1     8
  3.0013956224071553E-01 a       789     0    40     1     9
  8.7732845913551016E-02 a       790     0    40     1    10
  2.4346869267841126E-01 a       791     0    40     1    11
  1.5950137541747436E-03 a       792     0    40     1    12
  2.1681301460093133E-01 a       793     0    40     1    13
  1.5399794521883609E-01 a       794     0    40     1    14
  1.5527678893118280E-01 a       795     0    40     1    15
 -1.4754621955029185E-01 a       796     0    40     1    16
 -7.1632742688420931E-02 a       797     0    40     1    17
  3.0648068514084814E-01 a       798     0    40     1    18
 -8.9231149043899026E-03 a       799     0    40     1    19
  1.8412975942257687E-01 a       800     0    40     1    20
  1.4497222037609473E-02 a       801     0    41     1     1
  2.0007842727164264E-02 a       802     0    41     1     2
 -2.5121402630936068E-02 a       803     0    41     1     3
 -9.1153846002918967E-02 a       804     0    41     1     4
 -1.7489228967080411E-02 a       805     0    41     1     5
  2.4918604923289029E-02 a       806     0    41     1     6
  6.6050804167943802E-02 a       807     0    41     1     7
 -6.9952736200997137E-02 a       808     0    41     1     8
  6.5846718880251204E-02 a       809     0    41     1     9
  8.8447923084991928E-02 a       810     0    41     1    10
 -1.8458413268693014E-01 a       811     0    41     1    11
  5.8038637181820419E-03 a       812     0    41     1    12
  3.3543290909667532E-02 a       813     0    41     1    13
 -1.2457237988636652E-01 a       814     0    41     1    14
 -3.6109423572333710E-02 a       815     0    41     1    15
 -7.0923761244707784E-02 a       816     0    41     1    16
 -7.0627140925211204E-02 a       817     0    41     1    17
 -4.8569603520313205E-02 a       818     0    41     1    18
 -5.0761207923204099E-02 a       819     0    41     1    19
 -2.7845975565443191E-02 a       820     0    41     1    20
  4.3004040659253961E-01 a       821     0    42     1     1
  1.5911776395815802E-01 a       822     0    42     1     2
 -4.0965146107122463E-01 a       823     0    42     1     3
 -1.4260065854271231E-02 a       824     0    42     1     4
 -1.0346421918191073E-01 a       825     0    42     1     5
  6.1729022876686031E-02 a       826     0    42     1     6
  5.0066171592699193E-01 a       827     0    42     1     7
 -1.2519942818253296E-01 a       828     0    42     1     8
 -1.0411219361554094E-01 a       829     0    42     1     9
  8.2163107216714590E-02 a       830     0    42     1    10
  5.4246639723933184E-02 a       831     0    42     1    11
 -1.4082136069787507E-01 a       832     0    42     1    12
  5.1174096256289436E-02 a       833     0    42     1    13
  6.8879030792061133E-02 a       834     0    42     1    14
  1.8627175090566153E-01 a       835     0    42     1    15
  4.0311743440394560E-01 a       836     0    42     1    16
  2.8888086792316764E-01 a       837     0    42     1    17
  1.5127958883876677E-01 a       838     0    42     1    18
  3.3263535169888864E-01 a       839     0    42     1    19
 -2.9958247060624171E-01 a       840     0    42     1    20
  1.3028471197226996E-01 a       841     0    43     1     1
  4.3971380993875840E-02 a       842     0    43     1     2
 -5.7283519340862031E-02 a       843     0    43     1     3
 -3.3286443632892980E-02 a       844     0    43     1     4
  1.0794254631427441E-01 a       845     0    43     1     5
 -6.7689157377688880E-02 a       846     0    43     1     6
 -9.2101058714013195E-02 a       847     0    43     1     7
 -2.9941288741907188E-02 a       848     0    43     1     8
 -3.4737685603962988E-02 a       849     0    43     1     9
 -1.0766251988778813E-02 a       850     0    43     1    10
  1.3287650554265451E-01 a       851     0    43     1    11
 -9.5896774733287352E-02 a       852     0    43     1    12
  9.3725467663923673E-02 a       853     0    43     1    13
  2.9967423868418375E-02 a       854     0    43     1    14
 -1.6933694725448878E-01 a       855     0    43     1    15
 -1.5848525537476715E-01 a       856     0    43     1    16
 -1.2115713830961048E-02 a       857     0    43     1    17
 -1.1496883137150988E-02 a       858     0    43     1    18
  1.7802897988875069E-01 a       859     0    43     1    19
  6.0566752206159475E-03 a       860     0    43     1    20
 -2.0347490049290415E-02 a       861     0    44     1     1
 -6.1748049420453192E-03 a       862     0    44     1     2
 -1.1286350822560393E-01 a       863     0    44     1     3
  1.1435920562177132E-01 a       864     0    44     1     4
 -4.1762631726369473E-02 a       865     0    44     1     5
  3.1057357987044964E-02 a       866     0    44     1     6
  1.1372067925667316E-01 a       867     0    44     1     7
  3.2863729672655016E-02 a       868     0    44     1     8
  2.5468037848659258E-01 a       869     0    44     1     9
  1.0796491928420013E-01 a       870     0    44     1    10
  1.6116593567155049E-01 a       871     0    44     1    11
 -1.5081720786554629E-02 a       872     0    44     1    12
  1.8479363934395440E-01 a       873     0    44     1    13
 -8.2288199533109618E-02 a       874     0    44     1    14
 -1.6583562038466099E-01 a       875     0    44     1    15
 -1.9719334308989989E-01 a       876     0    44     1    16
 -6.6637425006243853E-02 a       877     0    44     1    17
  1.2211583509869019E-01 a       878     0    44     1    18
  1.2814030487916092E-01 a       879     0    44     1    19
  5.5799109175862921E-02 a       880     0    44     1    20
 -6.8856382780534048E-02 a       881     0    45     1     1
 -9.8346170177047582E-03 a       882     0    45     1     2
  1.2605617091517179E-01 a       883     0    45     1     3
  1.4503076480880525E-01 a       884     0    45     1     4
  2.3790688176171626E-01 a       885     0    45     1     5
 -1.5082406713311156E-01 a       886     0    45     1     6
  7.3420382380357641E-01 a       887     0    45     1     7
  1.7700140014349464E-01 a       888     0    45     1     8
  5.6319961587983480E-01 a       889     0    45     1     9
  9.3051727197542955E-02 a       890     0    45     1    10
 -8.4250636308209681E-01 a       891     0    45     1    11
  9.8971269531350714E-02 a       892     0    45     1    12
 -1.6390764720178286E-01 a       893     0    45     1    13
 -4.0463894886874706E-02 a       894     0    45     1    14
  1.9634364767930579E-01 a       895     0    45     1    15
 -6.8654993508085807E-02 a       896     0    45     1    16
 -2.7326347928626166E-03 a       897     0    45     1    17
 -7.4591215111329323E-02 a       898     0    45     1    18
 -1.7188759980418927E-01 a       899     0    45     1    19
 -7.0732578750389158E-02 a       900     0    45     1    20
  5.1090523473216069E-02 a       901     0    46     1     1
 -7.5399982345411204E-02 a       902     0    46     1     2
 -5.7778313285602685E-02 a       903     0    46     1     3
  1.0226425097666593E-01 a       904     0    46     1     4
 -5.8872065066040057E-02 a       905     0    46     1     5
  1.4730030570016389E-01 a       906     0    46     1     6
 -2.9962173340056530E-01 a       907     0    46     1     7
 -5.1235772596538359E-02 a       908     0    46     1     8
  1.7299186983766415E-01 a       909     0    46     1     9
  1.8472260751135998E-02 a       910     0    46     1    10
 -9.5659635292438844E-02 a       911     0    46     1    11
 -1.4911205925666224E-01 a       912     0    46     1    12
  1.0536693408979676E-02 a       913     0    46     1    13
  3.1782068358178935E-02 a       914     0    46     1    14
  8.0009165564269874E-02 a       915     0    46     1    15
 -4.6998259542241363E-02 a       916     0    46     1    16
 -1.3987442975831382E-02 a       917     0    46     1    17
  3.9738952341478201E-02 a       918     0    46     1    18
 -1.1470309839323936E-02 a       919     0    46     1    19
 -5.7728291069622718E-02 a       920     0    46     1    20
  4.0741010218971335E-02 a       921     0    47     1     1
  1.2062537075165571E-01 a       922     0    47     1     2
  2.0300339432890221E-01 a       923     0    47     1     3
 -1.5238990742747338E-01 a       924     0    47     1     4
  1.5473933592372069E-01 a       925     0    47     1     5
  7.1496330631454927E-02 a       926     0    47     1     6
  2.5855509830333001E-01 a       927     0    47     1     7
  4.2765602414899892E-02 a       928     0    47     1     8
 -1.6879183293575145E-01 a       929     0    47     1     9
  2.2308718013185974E-01 a       930     0    47     1    10
 -4.1578890280990360E-01 a       931     0    47     1    11
 -9.9424724091410760E-03 a       932     0    47     1    12
  6.4848110964644698E-02 a       933     0    47     1    13
 -2.1892080751488757E-01 a       934     0    47     1    14
 -2.1006014368341874E-01 a       935     0    47     1    15
 -1.5270089649901175E-01 a       936     0    47     1    16
 -5.7983300606839427E-02 a       937     0    47     1    17
 -1.9797459458466798E-01 a       938     0    47     1    18
 -1.7637363324323971E-01 a       939     0    47     1    19
  5.0471883813822234E-02 a       940     0    47     1    20
  1.0649688202867039E-01 a       941     0    48     1     1
  2.6578352264768285E-01 a       942     0    48     1     2
 -4.7464581861028865E-01 a       943     0    48     1     3
  2.1365901354483943E-01 a       944     0    48     1     4
 -1.6095623563760270E-01 a       945     0    48     1     5
  9.9358536843883918E-02 a       946     0    48     1     6
 -2.2453011974353007E-01 a       947     0    48     1     7
  7.2562461362157951E-02 a       948     0    48     1     8
 -1.0446986756150792E-01 a       949     0    48     1     9
 -3.2533285555050298E-03 a       950     0    48     1    10
  2.8443300880985317E-01 a       951     0    48     1    11
 -1.3039209464109058E-01 a       952     0    48     1    12
  1.4275863991624504E-01 a       953     0    48     1    13
  4.1146372202456327E-01 a       954     0    48     1    14
 -1.0671626612064752E-01 a       955     0    48     1    15
  8.3271861114745577E-02 a       956     0    48     1    16
  1.6854230638738098E-02 a       957     0    48     1    17
  3.1589133749767462E-01 a       958     0    48     1    18
 -2.8216428276204242E-02 a       959     0    48     1    19
 -1.1183068908739568E-01 a       960     0    48     1    20
 -2.2740360205864066E-01 a       961     0    49     1     1
 -8.4463593466812883E-02 a       962     0    49     1     2
  7.6809675471504080E-01 a       963     0    49     1     3
  1.6891684462290021E-01 a       964     0    49     1     4
 -5.2073881602811446E-03 a       965     0    49     1     5
  2.9052118812232175E-01 a       966     0    49     1     6
 -1.1162752260682422E-01 a       967     0    49     1     7
  3.2281619799511141E-01 a       968     0    49     1     8
 -1.2990542923306007E-02 a       969     0    49     1     9
 -3.2975786495124315E-01 a       970     0    49     1    10
 -1.1526169926013354E-02 a       971     0    49     1    11
 -1.6649674557769157E-02 a       972     0    49     1    12
 -2.3130605295662235E-01 a       973     0    49     1    13
 -1.4196125805119456E-01 a       974     0    49     1    14
  4.0327693804648367E-02 a       975     0    49     1    15
  1.0712513075067370E-01 a       976     0    49     1    16
 -3.0061093011031517E-02 a       977     0    49     1    17
 -1.1594920444598246E-01 a       978     0    49     1    18
  9.5988825307780183E-03 a       979     0    49     1    19
 -4.5298291374975225E-01 a       980     0    49     1    20
 -8.8934869883539353E-02 a       981     0    50     1     1
  7.0081169384109444E-03 a       982     0    50     1     2
 -2.6467840908509638E-02 a       983     0    50     1     3
  7.9760307479617622E-03 a       984     0    50     1     4
  2.1356387812468472E-02 a       985     0    50     1     5
 -4.4926786658372478E-02 a       986     0    50     1     6
  3.5226897238026293E-02 a       987     0    50     1     7
  1.4413110464941760E-02 a       988     0    50     1     8
  2.1980392251047153E-02 a       989     0    50     1     9
  3.1515359295367633E-02 a       990     0    50     1    10
 -1.1800113033912593E-01 a       991     0    50     1    11
  6.9406872846861561E-02 a       992     0    50     1    12
 -1.2704599648461240E-01 a       993     0    50     1    13
  5.3116630714413013E-02 a       994     0    50     1    14
  1.3844336762710399E-01 a       995     0    50     1    15
  1.4208788028788052E-01 a       996     0    50     1    16
  8.1017890548470750E-02 a       997     0    50     1    17
 -3.2273996179855227E-02 a       998     0    50     1    18
 -1.5313206898148635E-01 a       999     0    50     1    19
 -3.8630645779552025E-02 a      1000     0    50     1    20
 -1.9591326126779285E-03 a      1001     0    51     1     1
  2.6417214877909173E-01 a      1002     0    51     1     2
 -1.2134952921789286E+00 a      1003     0    51     1     3
 -1.0121579264400380E+00 a      1004     0    51     1     4
 -4.3734247477377752E-01 a      1005     0    51     1     5
 -4.6769666579186839E-02 a      1006     0    51     1     6
  4.1413283668449047E-01 a      1007     0    51     1     7
 -4.6670920234625513E-01 a      1008     0    51     1     8
 -1.7625126131346014E+00 a      1009     0    51     1     9
  7.9877077057084384E-02 a      1010     0    51     1    10
 -3.7662103617475262E-01 a      1011     0    51     1    11
 -3.2129443966781646E-01 a      1012     0    51     1    12
  7.7842577176217925E-02 a      1013     0    51     1    13
 -4.5739278200907463E-01 a      1014     0    51     1    14
  2.2050900935585946E-01 a      1015     0    51     1    15
  4.0311648771082104E-01 a      1016     0    51     1    16
  1.0294801240855217E-01 a      1017     0    51     1    17
 -3.3032747295480905E-02 a      1018     0    51     1    18
 -1.5492836573837498E-01 a      1019     0    51     1    19
 -6.0494619150449860E-02 a      1020     0    51     1    20
  8.8749667532821208E-02 a      1021     0    52     1     1
 -3.4066826924879145E-03 a      1022     0    52     1     2
 -4.1040001476530280E-01 a      1023     0    52     1     3
  1.4823650786285281E-01 a      1024     0    52     1     4
 -7.0642186130201734E-02 a      1025     0    52     1     5
  4.3159892976724318E-01 a      1026     0    52     1     6
 -3.7722502034023453E-01 a      1027     0    52     1     7
 -8.0844000454338552E-02 a      1028     0    52     1     8
 -6.5084651365347690E-02 a      1029     0    52     1     9
 -5.6722195595414943E-02 a      1030     0    52     1    10
 -4.0674167033666032E-02 a      1031     0    52     1    11
 -6.3424914232753536E-03 a      1032     0    52     1    12
 -2.0210274927349417E-01 a      1033     0    52     1    13
 -1.3499954489789026E-01 a      1034     0    52     1    14
 -1.7676376958622136E-01 a      1035     0    52     1    15
  1.9765576482436806E-01 a      1036     0    52     1    16
  1.9844653121964026E-01 a      1037     0    52     1    17
  2.0820969457256876E-02 a      1038     0    52     1    18
 -7.0953622499407634E-02 a      1039     0    52     1    19
 -1.2930208424579608E-02 a      1040     0    52     1    20
 -2.1698494965944975E-03 a      1041     0    53     1     1
 -3.2807443263815680E-03 a      1042     0    53     1     2
  9.0077208560612274E-03 a      1043     0    53     1     3
  6.0200053395526899E-02 a      1044     0    53     1     4
  4.2182498650412049E-02 a      1045     0    53     1     5
 -2.7028909073528982E-02 a      1046     0    53     1     6
 -1.2883893573736344E-01 a      1047     0    53     1     7
  4.9250481594230670E-02 a      1048     0    53     1     8
 -5.1483970094290621E-02 a      1049     0    53     1     9
 -5.2115538691506390E-02 a      1050     0    53     1    10
  1.3474372618458727E-01 a      1051     0    53     1    11
 -3.6119642108192532E-02 a      1052     0    53     1    12
 -4.4195352586341285E-03 a      1053     0    53     1    13
  4.0384755405255338E-02 a      1054     0    53     1    14
 -4.8846659994786296E-02 a      1055     0    53     1    15
 -1.7015232870033016E-02 a      1056     0    53     1    16
  2.2964384473434369E-02 a      1057     0    53     1    17
 -1.9037669841796067E-02 a      1058     0    53     1    18
  3.4256335030186713E-02 a      1059     0    53     1    19
  7.2703693243041136E-03 a      1060     0    53     1    20
 -1.9320644406079787E-01 a      1061     0    54     1     1
 -1.5988994652713689E-01 a      1062     0    54     1     2
  4.0286811120518456E-01 a      1063     0    54     1     3
  2.9186606322622333E-01 a      1064     0    54     1     4
  1.1136497115472622E-01 a      1065     0    54     1     5
 -3.5640329157528232E-02 a      1066     0    54     1     6
 -6.0843857040929883E-01 a      1067     0    54     1     7
  8.1600262646778540E-02 a      1068     0    54     1     8
  8.7180107829474066E-02 a      1069     0    54     1     9
 -1.8772617493784149E-01 a      1070     0    54     1    10
 -6.9524280903009120E-02 a      1071     0    54     1    11
  3.1557849545346663E-02 a      1072     0    54     1    12
 -3.3991581010498553E-02 a      1073     0    54     1    13
  7.1139562240926463E-02 a      1074     0    54     1    14
 -1.2328976223382573E-01 a      1075     0    54     1    15
 -5.4364120550364506E-02 a      1076     0    54     1    16
 -6.7750395872146207E-02 a      1077     0    54     1    17
 -8.4556564141782267E-02 a      1078     0    54     1    18
 -3.8586354023749375E-01 a      1079     0    54     1    19
 -4.3744345653975211E-02 a      1080     0    54     1    20
  3.1497907898188598E-01 b      1081     1     1
  7.0265521202362491E-01 b      1082     1     2
 -1.1738979376532275E+00 b      1083     1     3
  2.8601032242352636E-01 b      1084     1     4
  1.3295959657004286E-01 b      1085     1     5
  6.1367409274023832E-01 b      1086     1     6
  1.3163943733343144E+00 b      1087     1     7
  1.1278352912313947E+00 b      1088     1     8
  1.2993307711390083E+00 b      1089     1     9
 -2.9122460883542883E-01 b      1090     1    10
  6.6608796099881584E-01 b      1091     1    11
  7.3021074287662369E-01 b      1092     1    12
 -2.9900301346943065E-01 b      1093     1    13
 -1.0503016221759280E+00 b      1094     1    14
 -2.1024533446545077E-01 b      1095     1    15
 -9.3906540555638837E-02 b      1096     1    16
 -1.3417715096420832E+00 b      1097     1    17
  1.2238329551844221E-01 b      1098     1    18
  9.6046721353338438E-01 b      1099     1    19
 -4.7936073634382415E-01 b      1100     1    20
  3.8517988832787220E-01 a      1101     1     1     2     1
  3.2782923356486282E-01 a      1102     1     1     2     2
  9.2244103329145871E-02 a      1103     1     1     2     3
  5.8059501408477376E-01 a      1104     1     1     2     4
  3.8832454306859210E-01 a      1105     1     1     2     5
 -4.2405889813901215E-01 a      1106     1     1     2     6
 -1.9427085109376549E-01 a      1107     1     1     2     7
 -4.4591137488779076E-01 a      1108     1     1     2     8
 -3.1991269030414904E-01 a      1109     1     1     2     9
 -2.4468809858727589E-01 a      1110     1     1     2    10
  7.4196464883851954E-01 a      1111     1     1     2    11
 -6.9701998161125089E-01 a      1112     1     1     2    12
 -7.5586547594664577E-01 a      1113     1     1     2    13
 -5.3262311642789627E-02 a      1114     1     1     2    14
 -2.1291622596601570E-01 a      1115     1     1     2    15
 -5.7351558006350511E-01 a      1116     1     1     2    16
 -2.0567017512330485E-01 a      1117     1     1     2    17
 -5.8886927515488507E-01 a      1118     1     1     2    18
 -5.7631163891613435E-01 a      1119     1     1     2    19
 -1.1468772332061321E+00 a      1120     1     1     2    20
 -3.4778344761787638E-01 a      1121     1     2     2     1
  1.2773101012619935E-02 a      1122     1     2     2     2
  5.6787633280249461E-01 a      1123     1     2     2     3
  3.1506761262622113E-01 a      1124     1     2     2     4
  6.5986079413990062E-01 a      1125     1     2     2     5
 -3.9966851038777096E-01 a      1126     1     2     2     6
 -4.4998415060837477E-01 a      1127     1     2     2     7
  5.9723038869237177E-01 a      1128     1     2     2     8
 -6.3024778367093282E-01 a      1129     1     2     2     9
 -4.4899041767472736E-01 a      1130     1     2     2    10
 -2.0909010204570339E-01 a      1131     1     2     2    11
 -1.4263278748834762E-01 a      1132     1     2     2    12
 -7.0026154335629398E-01 a      1133     1     2     2    13
 -2.1562706866396916E-01 a      1134     1     2     2    14
 -5.5939847404105003E-01 a      1135     1     2     2    15
  6.2700445622787770E-01 a      1136     1     2     2    16
  5.1101183851085052E-01 a      1137     1     2     2    17
 -5.2841426520705304E-01 a      1138     1     2     2    18
 -6.7792969159587035E-01 a      1139     1     2     2    19
 -1.3434832407510436E-01 a      1140     1     2     2    20
  4.8792125490139321E-01 a      1141     1     3     2     1
 -2.1133882977027929E-01 a      1142     1     3     2     2
  1.5313696351727354E-01 a      1143     1     3     2     3
  6.6242686338303089E-02 a      1144     1     3     2     4
 -1.2253339984117689E-01 a      1145     1     3     2     5
 -4.3376575359262881E-01 a      1146     1     3     2     6
 -2.3131582279096760E-01 a      1147     1     3     2     7
  1.5377692238885765E-01 a      1148     1     3     2     8
  5.4830596362145678E-01 a      1149     1     3     2     9
 -9.7616563595645120E-02 a      1150     1     3     2    10
 -1.8589490998708055E-01 a      1151     1     3     2    11
 -8.3505066725428656E-01 a      1152     1     3     2    12
 -3.4517681354721280E-01 a      1153     1     3     2    13
 -5.1531821886399121E-01 a      1154     1     3     2    14
 -2.7209881431882482E-01 a      1155     1     3     2    15
  3.6749143939652096E-01 a      1156     1     3     2    16
 -2.0367929800320352E-02 a      1157     1     3     2    17
  1.6660732628470409E-01 a      1158     1     3     2    18
 -5.7620317925321651E-01 a      1159     1     3     2    19
  4.2949738636379256E-02 a      1160     1     3     2    20
  4.3508889748780061E-01 a      1161     1     4     2     1
  1.9414830245856791E-02 a      1162     1     4     2     2
 -3.4149907313051708E-01 a      1163     1     4     2     3
  1.8737026886309641E-01 a      1164     1     4     2     4
 -6.8483176745647134E-02 a      1165     1     4     2     5
 -2.3774639346351081E-01 a      1166     1     4     2     6
  5.7587229566515574E-01 a      1167     1     4     2     7
  6.0820982407940161E-01 a      1168     1     4     2     8
 -1.3201098548259627E-01 a      1169     1     4     2     9
 -6.5575298336361965E-01 a      1170     1     4     2    10
 -4.7173896955864475E-01 a      1171     1     4     2    11
 -7.9809428536881821E-01 a      1172     1     4     2    12
 -6.6277755061974708E-01 a      1173     1     4     2    13
 -8.5028733550761060E-01 a      1174     1     4     2    14
 -1.3952526933431242E+00 a      1175     1     4     2    15
  2.2623757250972304E-01 a      1176     1     4     2    16
  3.0975824328125762E-01 a      1177     1     4     2    17
 -2.1211907222006199E-01 a      1178     1     4     2    18
 -4.8840036493096861E-01 a      1179     1     4     2    19
 -4.8254684125888331E-01 a      1180     1     4     2    20
 -1.4231168532424968E-01 a      1181     1     5     2     1
  4.9129520802185006E-01 a      1182     1     5     2     2
  3.2919295449162722E-01 a      1183     1     5     2     3
  1.0890798063119025E-01 a      1184     1     5     2     4
 -3.8246600859000551E-01 a      1185     1     5     2     5
  1.7153065014569499E-01 a      1186     1     5     2     6
 -3.6309182267837248E-01 a      1187     1     5     2     7
 -2.9461260295743980E-01 a      1188     1     5     2     8
 -9.7986137883629210E-01 a      1189     1     5     2     9
 -3.3571509988897252E-01 a      1190     1     5     2    10
 -7.6764106250483777E-01 a      1191     1     5     2    11
  4.7177289920658139E-01 a      1192     1     5     2    12
  1.0178370565597727E+00 a      1193     1     5     2    13
 -1.5649038149083874E-01 a      1194     1     5     2    14
 -1.8182228284433583E-01 a      1195     1     5     2    15
 -8.8248567593165017E-02 a      1196     1     5     2    16
  4.6384090527460631E-01 a      1197     1     5     2    17
  5.3036269108769396E-01 a      1198     1     5     2    18
 -7.8243223315560639E-01 a      1199     1     5     2    19
  6.4169716380827824E-01 a      1200     1     5     2    20
 -7.3751577499509258E-01 a      1201     1     6     2     1
  2.5889015421098349E-01 a      1202     1     6     2     2
  7.4530892846381494E-03 a      1203     1     6     2     3
 -4.7680367260251738E-01 a      1204     1     6     2     4
  4.6329184891750863E-01 a      1205     1     6     2     5
  2.1525176333903492E-01 a      1206     1     6     2     6
 -3.1596772372576371E-01 a      1207     1     6     2     7
 -3.0931829780402631E-01 a      1208     1     6     2     8
  1.6981509132889752E-01 a      1209     1     6     2     9
 -6.2123189618604413E-01 a      1210     1     6     2    10
  1.9851509517049062E-01 a      1211     1     6     2    11
  6.1402770854402833E-01 a      1212     1     6     2    12
 -4.0059295858057059E-01 a      1213     1     6     2    13
 -5.5486546556939875E-01 a      1214     1     6     2    14
  1.3949815387808662E-01 a      1215     1     6     2    15
  2.5751683532014302E-01 a      1216     1     6     2    16
 -5.9097391944337760E-02 a      1217     1     6     2    17
 -2.2911198139313629E-01 a      1218     1     6     2    18
  6.7295320926794244E-02 a      1219     1     6     2    19
  1.0797674729611186E-02 a      1220     1     6     2    20
  5.9415948784680184E-01 a      1221     1     7     2     1
 -2.6619292643377403E-02 a      1222     1     7     2     2
 -4.0020452592395916E-01 a      1223     1     7     2     3
  3.6445211130077293E-01 a      1224     1     7     2     4
 -3.4181303212571645E-01 a      1225     1     7     2     5
  6.7845364079168247E-01 a      1226     1     7     2     6
  7.1331203222379214E-01 a      1227     1     7     2     7
 -3.2982111548561011E-01 a      1228     1     7     2     8
  6.3774627076764190E-01 a      1229     1     7     2     9
 -5.5957600704820309E-01 a      1230     1     7     2    10
  2.8789765048395904E-01 a      1231     1     7     2    11
 -6.1543147904442252E-01 a      1232     1     7     2    12
  5.9667717518345886E-01 a      1233     1     7     2    13
 -8.6838173853123965E-02 a      1234     1     7     2    14
  2.2691018880344524E-01 a      1235     1     7     2    15
 -4.0531411178912941E-01 a      1236     1     7     2    16
 -7.3082678570917425E-01 a      1237     1     7     2    17
  1.0888697669129815E-01 a      1238     1     7     2    18
 -1.9616586560075180E-01 a      1239     1     7     2    19
 -2.5036955217632184E-01 a      1240     1     7     2    20
  7.1981589280875821E-02 a      1241     1     8     2     1
  3.6781325529950566E-02 a      1242     1     8     2     2
  7.4492716169777928E-01 a      1243     1     8     2     3
 -7.0239899518087046E-01 a      1244     1     8     2     4
  3.0781543794144828E-01 a      1245     1     8     2     5
  1.6761737223319367E-01 a      1246     1     8     2     6
  2.2758316140603765E-01 a      1247     1     8     2     7
  3.1305864653718163E-01 a      1248     1     8     2     8
 -1.0399330637229517E-01 a      1249     1     8     2     9
  1.6920096885344124E-01 a      1250     1     8     2    10
 -3.9489514914971591E-01 a      1251     1     8     2    11
 -6.7702544729778422E-02 a      1252     1     8     2    12
  2.9561785953269092E-02 a      1253     1     8     2    13
  3.2911264058234274E-01 a      1254     1     8     2    14
  7.3139746954964024E-01 a      1255     1     8     2    15
  6.5664786381060924E-01 a      1256     1     8     2    16
  1.1859669486621625E+00 a      1257     1     8     2    17
 -2.0707047611422996E-01 a      1258     1     8     2    18
 -1.5891587673295762E-01 a      1259     1     8     2    19
  5.5439549420105294E-01 a      1260     1     8     2    20
  1.7571356652755402E-02 a      1261     1     9     2     1
 -8.7808686285561610E-01 a      1262     1     9     2     2
  2.7665363743634908E-01 a      1263     1     9     2     3
 -7.6814615218960192E-01 a      1264     1     9     2     4
  3.3290681084516155E-01 a      1265     1     9     2     5
 -1.1819905047705141E-02 a      1266     1     9     2     6
 -1.5806336318267866E+00 a      1267     1     9     2     7
  3.2946889709668079E-03 a      1268     1     9     2     8
  4.5953980717122533E-01 a      1269     1     9     2     9
 -2.9716408411654455E-01 a      1270     1     9     2    10
  8.0767534321652040E-02 a      1271     1     9     2    11
 -6.5955996686705792E-02 a      1272     1     9     2    12
  1.5240371383111692E-01 a      1273     1     9     2    13
 -2.3234304318294982E-01 a      1274     1     9     2    14
  4.2329029976140892E-01 a      1275     1     9     2    15
  3.9046201291126653E-01 a      1276     1     9     2    16
 -9.2081258760963805E-02 a      1277     1     9     2    17
  5.1081935858534977E-01 a      1278     1     9     2    18
  1.0101379564861173E+00 a      1279     1     9     2    19
  1.3512858146514022E+00 a      1280     1     9     2    20
  3.8594194752815997E-01 a      1281     1    10     2     1
 -6.0133634553277936E-02 a      1282     1    10     2     2
 -6.5514224238497487E-01 a      1283     1    10     2     3
  1.9319307128766555E-01 a      1284     1    10     2     4
 -9.2947442407304759E-01 a      1285     1    10     2     5
 -5.0288633393441151E-01 a      1286     1    10     2     6
  3.8974142723735855E-01 a      1287     1    10     2     7
  6.0549335695366441E-02 a      1288     1    10     2     8
 -3.7825993300065863E-01 a      1289     1    10     2     9
 -3.6534205613491816E-01 a      1290     1    10     2    10
  2.3973038979723801E-01 a      1291     1    10     2    11
  1.1278670048230156E-01 a      1292     1    10     2    12
 -2.6630997025588005E-01 a      1293     1    10     2    13
 -2.2362128989617391E-01 a      1294     1    10     2    14
  6.1147428344199783E-01 a      1295     1    10     2    15
 -6.7124298361557466E-01 a      1296     1    10     2    16
 -2.4705643255575227E-01 a      1297     1    10     2    17
  1.1783917220270992E-01 a      1298     1    10     2    18
 -7.5842430723701049E-01 a      1299     1    10     2    19
 -4.4619777466835508E-01 a      1300     1    10     2    20
  5.6107266466778494E-01 a      1301     1    11     2     1
  6.6540698556338318E-02 a      1302     1    11     2     2
  3.5805557256216286E-01 a      1303     1    11     2     3
  2.2022541281461525E-01 a      1304     1    11     2     4
  3.3768732492694387E-01 a      1305     1    11     2     5
 -1.6339681697899075E-01 a      1306     1    11     2     6
  1.3884857655982961E-02 a      1307     1    11     2     7
 -1.6477779038363868E-01 a      1308     1    11     2     8
 -2.9610532545352369E-01 a      1309     1    11     2     9
  2.3314056857747881E-01 a      1310     1    11     2    10
 -7.0816936660839117E-02 a      1311     1    11     2    11
 -1.2314322231063671E-02 a      1312     1    11     2    12
  3.8377436849588259E-01 a      1313     1    11     2    13
  1.3604852040042770E-01 a      1314     1    11     2    14
  1.3969774332431489E-02 a      1315     1    11     2    15
  3.0093715691612838E-01 a      1316     1    11     2    16
  2.0531066842402229E-01 a      1317     1    11     2    17
  1.0280511544890411E-01 a      1318     1    11     2    18
 -1.2026531831136121E-01 a      1319     1    11     2    19
  2.5072280441903128E-01 a      1320     1    11     2    20
 -1.1889815012330235E-01 a      1321     1    12     2     1
  2.5750208256356044E-01 a      1322     1    12     2     2
 -3.2303138932118658E-01 a      1323     1    12     2     3
 -6.8294543813089292E-01 a      1324     1    12     2     4
  1.8399270873095591E-02 a      1325     1    12     2     5
  4.8987429356472614E-02 a      1326     1    12     2     6
  7.6928018977581691E-01 a      1327     1    12     2     7
  3.7182612281277916E-01 a      1328     1    12     2     8
 -2.6694632871509621E-01 a      1329     1    12     2     9
  2.2574481524146922E-01 a      1330     1    12     2    10
 -2.5807401875024227E-01 a      1331     1    12     2    11
 -8.6873409399836954E-01 a      1332     1    12     2    12
 -4.7636131446787744E-01 a      1333     1    12     2    13
 -4.1187381629002318E-01 a      1334     1    12     2    14
 -8.5495661983638949E-01 a      1335     1    12     2    15
  9.2304508132300311E-01 a      1336     1    12     2    16
  3.5583272741797545E-01 a      1337     1    12     2    17
 -2.5459966411924007E-01 a      1338     1    12     2    18
  5.1502168103092516E-01 a      1339     1    12     2    19
  4.7232362239940556E-01 a      1340     1    12     2    20
  6.9662855107417943E-01 a      1341     1    13     2     1
  3.2178714046836482E-01 a      1342     1    13     2     2
 -2.4964073769582623E-01 a      1343     1    13     2     3
 -2.2652572225551362E-01 a      1344     1    13     2     4
 -2.3973582411430638E-01 a      1345     1    13     2     5
  6.5660067435803093E-01 a      1346     1    13     2     6
 -2.3176241905163923E-02 a      1347     1    13     2     7
  6.2250433358074696E-02 a      1348     1    13     2     8
  7.2617782184004120E-01 a      1349     1    13     2     9
  1.0387960891750689E-01 a      1350     1    13     2    10
 -3.0622468190678848E-01 a      1351     1    13     2    11
  1.0340619650368514E-01 a      1352     1    13     2    12
  2.7512675008949256E-01 a      1353     1    13     2    13
  4.8762528288768786E-01 a      1354     1    13     2    14
  2.4282304702133484E-01 a      1355     1    13     2    15
 -7.0306344058166514E-01 a      1356     1    13     2    16
  7.7057182596453311E-01 a      1357     1    13     2    17
 -4.4468290594133125E-01 a      1358     1    13     2    18
 -1.9837033843124649E-01 a      1359     1    13     2    19
  3.4252293835250508E-01 a      1360     1    13     2    20
  3.9660559161704245E-01 a      1361     1    14     2     1
 -2.9758403583463078E-01 a      1362     1    14     2     2
 -4.1914601589198153E-01 a      1363     1    14     2     3
  1.2049323368499890E-01 a      1364     1    14     2     4
 -1.5048814313616157E-01 a      1365     1    14     2     5
  1.9403589426845214E-01 a      1366     1    14     2     6
  2.7645628618232237E-01 a      1367     1    14     2     7
 -6.6529760883941483E-02 a      1368     1    14     2     8
  6.2910747271880008E-01 a      1369     1    14     2     9
  2.5424468479907431E-01 a      1370     1    14     2    10
  5.2061891105195435E-01 a      1371     1    14     2    11
  7.3060289669627054E-01 a      1372     1    14     2    12
  1.0486428156430053E-01 a      1373     1    14     2    13
  3.3902622854089909E-01 a      1374     1    14     2    14
 -9.2179578348434696E-02 a      1375     1    14     2    15
  3.4210334225408223E-01 a      1376     1    14     2    16
 -4.3155471069779622E-01 a      1377     1    14     2    17
  4.5990647496269049E-01 a      1378     1    14     2    18
  2.9345097306122642E-01 a      1379     1    14     2    19
  2.7598400601531392E-01 a      1380     1    14     2    20
  1.8612132504757056E-01 a      1381     1    15     2     1
  5.1810171422535811E-01 a      1382     1    15     2     2
 -2.2353171750636380E-01 a      1383     1    15     2     3
  4.2131231670368946E-01 a      1384     1    15     2     4
 -7.3199504686393446E-01 a      1385     1    15     2     5
  2.5095613730220684E-01 a      1386     1    15     2     6
  1.8088363071478405E-01 a      1387     1    15     2     7
  7.3541015234568879E-02 a      1388     1    15     2     8
 -1.1935693077617596E-01 a      1389     1    15     2     9
  5.3802537211186374E-01 a      1390     1    15     2    10
 -3.1001886239590026E-01 a      1391     1    15     2    11
  1.0334834018391247E-01 a      1392     1    15     2    12
 -1.5152254258817238E-01 a      1393     1    15     2    13
  4.5614176150570973E-01 a      1394     1    15     2    14
 -5.0046678825683324E-02 a      1395     1    15     2    15
  2.4021922267156520E-01 a      1396     1    15     2    16
  6.2670380058199271E-01 a      1397     1    15     2    17
 -5.6809500556919701E-01 a      1398     1    15     2    18
 -8.5941839676613854E-02 a      1399     1    15     2    19
 -4.0125511122438717E-01 a      1400     1    15     2    20
  5.6548058958401848E-01 a      1401     1    16     2     1
  9.9857372086812612E-02 a      1402     1    16     2     2
  1.3164311028742842E-01 a      1403     1    16     2     3
 -8.7165217783798696E-02 a      1404     1    16     2     4
  6.3489642926359957E-01 a      1405     1    16     2     5
 -5.3929686652459419E-01 a      1406     1    16     2     6
  1.7571549583856999E-01 a      1407     1    16     2     7
 -5.7828516637334770E-01 a      1408     1    16     2     8
 -1.3731571646320284E-01 a      1409     1    16     2     9
 -1.9879145770338985E-01 a      1410     1    16     2    10
  2.6495264384809158E-01 a      1411     1    16     2    11
  5.3940093043754156E-01 a      1412     1    16     2    12
  8.6469245146678264E-01 a      1413     1    16     2    13
 -1.5318415533511114E-02 a      1414     1    16     2    14
  5.7751527663754609E-01 a      1415     1    16     2    15
 -1.3950471257608079E+00 a      1416     1    16     2    16
 -1.7368394699584652E-01 a      1417     1    16     2    17
  6.2063003419133023E-01 a      1418     1    16     2    18
 -3.6824227055086617E-01 a      1419     1    16     2    19
  2.3771563666657536E-01 a      1420     1    16     2    20
  3.8501092241293761E-01 a      1421     1    17     2     1
 -8.7306423087084495E-01 a      1422     1    17     2     2
 -3.9230189549904271E-01 a      1423     1    17     2     3
 -1.3174742660391283E+00 a      1424     1    17     2     4
 -1.6920635892673411E-02 a      1425     1    17     2     5
  9.0582105393290024E-01 a      1426     1    17     2     6
 -1.4255642416704237E-01 a      1427     1    17     2     7
  4.9283771582511610E-01 a      1428     1    17     2     8
  5.0763239361501555E-01 a      1429     1    17     2     9
  5.7835026259224798E-01 a      1430     1    17     2    10
 -8.2865262266468087E-01 a      1431     1    17     2    11
  7.2893688064200035E-01 a      1432     1    17     2    12
  4.7267874705800028E-01 a      1433     1    17     2    13
  4.6769067888356836E-01 a      1434     1    17     2    14
 -9.0994043941828598E-02 a      1435     1    17     2    15
  2.1725804705362420E-01 a      1436     1    17     2    16
 -5.8530790431241952E-01 a      1437     1    17     2    17
 -8.8609465722554626E-01 a      1438     1    17     2    18
 -3.6008943683230338E-01 a      1439     1    17     2    19
  4.4380399442655533E-01 a      1440     1    17     2    20
 -3.5114982468567141E-01 a      1441     1    18     2     1
  3.0487948533568970E-01 a      1442     1    18     2     2
 -8.2354861990499828E-01 a      1443     1    18     2     3
 -5.5840610642051569E-01 a      1444     1    18     2     4
  2.8177168935881386E-01 a      1445     1    18     2     5
  8.3568734700143710E-01 a      1446     1    18     2     6
  2.2031823879823758E-02 a      1447     1    18     2     7
 -4.3605028569077858E-01 a      1448     1    18     2     8
 -2.0353645483452898E-01 a      1449     1    18     2     9
  2.7532986549077149E-01 a      1450     1    18     2    10
 -3.5122859049418260E-02 a      1451     1    18     2    11
  1.4332396790705451E-01 a      1452     1    18     2    12
 -2.4438015621741884E-02 a      1453     1    18     2    13
  5.6759284818690048E-01 a      1454     1    18     2    14
  1.1087475176447856E-01 a      1455     1    18     2    15
  1.6462186179172775E-01 a      1456     1    18     2    16
  1.8187592810159911E-01 a      1457     1    18     2    17
  2.8461700490144931E-01 a      1458     1    18     2    18
 -4.5616977940510145E-02 a      1459     1    18     2    19
 -6.1294135432142349E-02 a      1460     1    18     2    20
 -4.7744939410418602E-01 a      1461     1    19     2     1
 -4.6381606888401616E-01 a      1462     1    19     2     2
  4.0891353464942876E-01 a      1463     1    19     2     3
 -1.4984487762072168E-01 a      1464     1    19     2     4
 -1.4609466377646899E-01 a      1465     1    19     2     5
 -4.8752494273642644E-01 a      1466     1    19     2     6
  1.4898017901401411E-01 a      1467     1    19     2     7
  3.5626909826013770E-01 a      1468     1    19     2     8
  1.8316758257098210E-02 a      1469     1    19     2     9
 -3.5198009115096446E-01 a      1470     1    19     2    10
 -6.1791255226445108E-01 a      1471     1    19     2    11
  5.2643090012500759E-01 a      1472     1    19     2    12
  3.3280124648010601E-01 a      1473     1    19     2    13
 -5.6477182055047281E-01 a      1474     1    19     2    14
 -2.0074711704399117E-01 a      1475     1    19     2    15
 -3.1914950956745736E-01 a      1476     1    19     2    16
  1.1590359464779734E-02 a      1477     1    19     2    17
  7.5888193704597184E-01 a      1478     1    19     2    18
 -6.2785117997034501E-01 a      1479     1    19     2    19
  3.5469610628499759E-01 a      1480     1    19     2    20
 -6.9808698808506364E-01 a      1481     1    20     2     1
  1.8958928484434295E-01 a      1482     1    20     2     2
 -8.0628973065840359E-01 a      1483     1    20     2     3
 -1.5035400713885100E-01 a      1484     1    20     2     4
  1.0742298739123743E-01 a      1485     1    20     2     5
 -7.0400884147297094E-01 a      1486     1    20     2     6
 -5.1967216099683089E-01 a      1487     1    20     2     7
 -6.6015363994751455E-02 a      1488     1    20     2     8
  8.1742664052963820E-02 a      1489     1    20     2     9
 -1.1350410191458479E-01 a      1490     1    20     2    10
 -3.6358170049550270E-01 a      1491     1    20     2    11
  7.4026561288968826E-02 a      1492     1    20     2    12
  3.4734533899685305E-01 a      1493     1    20     2    13
 -4.1811693265440575E-01 a      1494     1    20     2    14
 -5.7768433992369819E-02 a      1495     1    20     2    15
 -1.2023342854154188E-01 a      1496     1    20     2    16
  1.1350664636154738E-01 a      1497     1    20     2    17
 -5.6761738120760442E-02 a      1498     1    20     2    18
 -6.1262109143821675E-01 a      1499     1    20     2    19
  2.7864905039651664E-03 a      1500     1    20     2    20
 -1.9507866156222439E-01 b      1501     2     1
 -1.1262889134911611E+00 b      1502     2     2
  2.5230971709104838E-01 b      1503     2     3
 -1.0965974497012474E+00 b      1504     2     4
  1.0046007065837064E+00 b      1505     2     5
 -1.2533929196656746E+00 b      1506     2     6
  6.4599111264595466E-01 b      1507     2     7
 -3.8974209045812541E-01 b      1508     2     8
 -1.0236417297777789E+00 b      1509     2     9
 -1.1465957457338576E+00 b      1510     2    10
  1.7787004735681994E-01 b      1511     2    11
 -3.5188113259666962E-02 b      1512     2    12
  5.6499356021249425E-01 b      1513     2    13
 -1.3093795526597707E+00 b      1514     2    14
 -9.7218444616407185E-01 b      1515     2    15
  2.6305259437946127E-01 b      1516     2    16
 -1.5169255799433909E+00 b      1517     2    17
  9.4824350584631345E-01 b      1518     2    18
 -1.3186945111051662E+00 b      1519     2    19
 -8.8078422604165296E-01 b      1520     2    20
  7.7251864731460507E-01 a      1521     2     1     3     1
  6.4798381730619159E-01 a      1522     2     2     3     1
  1.8337004789154410E-01 a      1523     2     3     3     1
  7.8952256034133861E-01 a      1524     2     4     3     1
 -7.4713984914979192E-01 a      1525     2     5     3     1
  4.7229796465612112E-01 a      1526     2     6     3     1
  7.6114040445890152E-02 a      1527     2     7     3     1
 -1.0108722140047770E+00 a      1528     2     8     3     1
  6.9488130377579127E-01 a      1529     2     9     3     1
  3.8771182767020212E-01 a      1530     2    10     3     1
 -9.1739139605409004E-01 a      1531     2    11     3     1
  1.2655254406014695E+00 a      1532     2    12     3     1
 -8.2693276700669904E-01 a      1533     2    13     3     1
  3.5329473695093755E-01 a      1534     2    14     3     1
 -1.4394431303810323E-01 a      1535     2    15     3     1
 -1.0572662582949997E+00 a      1536     2    16     3     1
 -5.1980808979157778E-01 a      1537     2    17     3     1
 -1.1148932004369141E+00 a      1538     2    18     3     1
 -5.8102730986030554E-02 a      1539     2    19     3     1
  8.0404901060101763E-01 a      1540     2    20     3     1
 -8.4500833193439240E-01 b      1541     3     1
