################################################################################
# Neural network connection values (weights and biases).
################################################################################
# Col  Name       Description
################################################################################
# 1    connection Neural network connection value.
# 2    t          Connection type (a = weight, b = bias).
# 3    index      Index enumerating weights.
# 4    l_s        Starting point layer (end point layer for biases).
# 5    n_s        Starting point neuron in starting layer (end point neuron for biases).
# 6    l_e        End point layer.
# 7    n_e        End point neuron in end layer.
################################################################################
#                      1 2         3     4     5     6     7
#             connection t     index   l_s   n_s   l_e   n_e
############################################################
 -1.3600391228590256E-01 a         1     0     1     1     1
  2.5485585999024901E-01 a         2     0     1     1     2
 -5.5313680830885859E-01 a         3     0     1     1     3
 -1.7747196253583418E-02 a         4     0     1     1     4
 -2.0303773869590067E-01 a         5     0     1     1     5
 -5.3181620144476686E-02 a         6     0     1     1     6
 -5.8019968276016076E-02 a         7     0     1     1     7
  7.0000972350926973E-03 a         8     0     1     1     8
  1.3787226625477127E+00 a         9     0     1     1     9
  1.6764833452011949E-01 a        10     0     1     1    10
  1.4298258474066322E-01 a        11     0     1     1    11
 -1.7766603181020962E-01 a        12     0     1     1    12
 -2.7499252672691121E-01 a        13     0     1     1    13
  1.8018215535913257E-01 a        14     0     1     1    14
 -8.9016515490913689E-02 a        15     0     1     1    15
  3.8997729144544788E-02 a        16     0     1     1    16
 -4.9040025952118239E-02 a        17     0     1     1    17
  3.5075759548521851E-01 a        18     0     1     1    18
  6.3242694532017096E-01 a        19     0     1     1    19
 -1.3695860968893798E+00 a        20     0     1     1    20
 -3.1638843215712927E-02 a        21     0     2     1     1
  9.7559791794706655E-02 a        22     0     2     1     2
  9.1635365988164422E-02 a        23     0     2     1     3
  7.1051136093031902E-02 a        24     0     2     1     4
  3.1708074680031006E-01 a        25     0     2     1     5
  2.4059701703343227E-02 a        26     0     2     1     6
  1.3220437356043502E-02 a        27     0     2     1     7
  4.4680164072330240E-02 a        28     0     2     1     8
 -9.9295907720963500E-02 a        29     0     2     1     9
  7.5226787896880545E-02 a        30     0     2     1    10
  1.5548891149344357E-02 a        31     0     2     1    11
 -5.9615173382502724E-02 a        32     0     2     1    12
  2.6848169578282663E-02 a        33     0     2     1    13
 -8.5967358431986066E-02 a        34     0     2     1    14
 -1.3482251755266217E-01 a        35     0     2     1    15
  9.0880833845382925E-02 a        36     0     2     1    16
 -1.5267154413158751E-01 a        37     0     2     1    17
  8.5587485299657692E-02 a        38     0     2     1    18
  1.1204588811180662E-01 a        39     0     2     1    19
 -2.1167320969262213E-01 a        40     0     2     1    20
  4.7833852481637851E-01 a        41     0     3     1     1
  1.4462142692992944E-01 a        42     0     3     1     2
 -5.5692681388873744E-01 a        43     0     3     1     3
 -4.4192657533726548E-01 a        44     0     3     1     4
  6.8503389590114605E-01 a        45     0     3     1     5
 -8.4261346167025200E-02 a        46     0     3     1     6
  1.3699777291446130E-01 a        47     0     3     1     7
  5.2830717465732602E-01 a        48     0     3     1     8
 -6.7254749570931693E-01 a        49     0     3     1     9
 -8.6953846526471079E-01 a        50     0     3     1    10
 -7.8955383605246482E-02 a        51     0     3     1    11
 -1.4921871043532417E-01 a        52     0     3     1    12
  3.8373326112661765E-01 a        53     0     3     1    13
  3.6669686222146580E-01 a        54     0     3     1    14
  2.8348912622134737E-01 a        55     0     3     1    15
 -3.5135891585710272E-01 a        56     0     3     1    16
  9.7708741697569601E-02 a        57     0     3     1    17
  7.2908193057286474E-01 a        58     0     3     1    18
  6.7810837836935645E-02 a        59     0     3     1    19
 -2.4141715663778673E-01 a        60     0     3     1    20
  7.1293304231706367E-01 a        61     0     4     1     1
 -5.8149546493950066E-01 a        62     0     4     1     2
  2.6112276616455232E-01 a        63     0     4     1     3
  1.0401256922140452E-02 a        64     0     4     1     4
 -4.5531360539718391E-01 a        65     0     4     1     5
 -1.8206106473088299E-01 a        66     0     4     1     6
  8.9460790321767916E-02 a        67     0     4     1     7
  4.9602738330975234E-02 a        68     0     4     1     8
 -1.2718796048377914E+00 a        69     0     4     1     9
  1.0601486671497935E-01 a        70     0     4     1    10
 -1.9971426490189978E-01 a        71     0     4     1    11
  6.5479065893830679E-01 a        72     0     4     1    12
  2.6648203886645616E-01 a        73     0     4     1    13
 -1.0623965979257764E-01 a        74     0     4     1    14
  1.2053382319317958E-01 a        75     0     4     1    15
 -3.9004316160269542E-01 a        76     0     4     1    16
 -2.5257100061606627E-02 a        77     0     4     1    17
 -1.4539364020751730E-01 a        78     0     4     1    18
 -8.2528294905695954E-01 a        79     0     4     1    19
 -1.2181328508152696E+00 a        80     0     4     1    20
 -6.2885703164255083E-02 a        81     0     5     1     1
 -1.9279644382746253E-02 a        82     0     5     1     2
  5.4692238372945713E-02 a        83     0     5     1     3
  2.7520098981143853E-02 a        84     0     5     1     4
 -1.5891048868165403E-01 a        85     0     5     1     5
 -7.8064709265700735E-02 a        86     0     5     1     6
  1.3954006757121745E-01 a        87     0     5     1     7
 -1.4919134542736023E-02 a        88     0     5     1     8
  7.9550094561150725E-02 a        89     0     5     1     9
  4.6213444750626893E-02 a        90     0     5     1    10
  1.6172222602153487E-02 a        91     0     5     1    11
  4.8966595613466148E-02 a        92     0     5     1    12
  1.0299983917052573E-01 a        93     0     5     1    13
  8.8483527194603395E-02 a        94     0     5     1    14
 -2.8266688565934797E-02 a        95     0     5     1    15
 -1.0047375628327894E-01 a        96     0     5     1    16
 -3.4165537785190320E-01 a        97     0     5     1    17
 -2.9276338701806581E-01 a        98     0     5     1    18
  1.1071729679128176E-02 a        99     0     5     1    19
  2.3626588449622429E-01 a       100     0     5     1    20
  1.1698840919367841E-03 a       101     0     6     1     1
 -1.5008029136240625E-01 a       102     0     6     1     2
  3.9751722281299046E-01 a       103     0     6     1     3
 -3.4632701521351728E-01 a       104     0     6     1     4
 -3.7726360225780342E-01 a       105     0     6     1     5
 -1.6045586751720353E-02 a       106     0     6     1     6
 -6.3986491165743786E-01 a       107     0     6     1     7
 -3.2199823442577208E-01 a       108     0     6     1     8
  8.5250737965401524E-01 a       109     0     6     1     9
  4.8895370503832775E-01 a       110     0     6     1    10
 -3.4644366194343496E-01 a       111     0     6     1    11
 -4.0580976553291342E-01 a       112     0     6     1    12
 -2.8473938000979765E-01 a       113     0     6     1    13
 -6.1988752265377567E-01 a       114     0     6     1    14
 -1.0295171851556638E-01 a       115     0     6     1    15
  2.9620473067252556E-01 a       116     0     6     1    16
 -4.2339849834307225E-01 a       117     0     6     1    17
 -1.2747203177283331E+00 a       118     0     6     1    18
 -9.2568453161134912E-01 a       119     0     6     1    19
  1.7682361491393336E-02 a       120     0     6     1    20
 -3.9089413661233774E-01 a       121     0     7     1     1
  8.9930207011676633E-01 a       122     0     7     1     2
  2.5026888108577377E-02 a       123     0     7     1     3
  4.3194958788857785E-01 a       124     0     7     1     4
  2.3013696142674930E-01 a       125     0     7     1     5
  4.9473058599660125E-01 a       126     0     7     1     6
  1.0429263632256389E+00 a       127     0     7     1     7
 -1.0310853429159729E-01 a       128     0     7     1     8
 -1.3698351709659870E-02 a       129     0     7     1     9
 -3.4812148913771768E-01 a       130     0     7     1    10
  2.4166036897312788E-02 a       131     0     7     1    11
 -5.0126956147649004E-01 a       132     0     7     1    12
 -4.5098682843759402E-01 a       133     0     7     1    13
 -5.2786806089788751E-01 a       134     0     7     1    14
 -5.8023609265008680E-01 a       135     0     7     1    15
  5.5128442681637280E-01 a       136     0     7     1    16
 -1.9653115544745475E-01 a       137     0     7     1    17
  7.9605426195158602E-01 a       138     0     7     1    18
 -9.9938453267201105E-02 a       139     0     7     1    19
  1.4695103233963163E+00 a       140     0     7     1    20
  1.5701617778347873E-01 a       141     0     8     1     1
 -1.0756418390454937E-01 a       142     0     8     1     2
  3.8840188653550774E-02 a       143     0     8     1     3
 -1.5343989370873076E-01 a       144     0     8     1     4
  7.8184684468023499E-02 a       145     0     8     1     5
  1.7155839788201818E-01 a       146     0     8     1     6
 -1.1104834793404567E-01 a       147     0     8     1     7
 -2.1013759763722922E-01 a       148     0     8     1     8
  6.8310760820402494E-02 a       149     0     8     1     9
  2.1347802727308351E-01 a       150     0     8     1    10
 -1.1680804323446607E-01 a       151     0     8     1    11
 -1.9736433309076459E-01 a       152     0     8     1    12
 -2.8857543139027281E-01 a       153     0     8     1    13
 -2.2174772858847759E-02 a       154     0     8     1    14
 -3.6778690441684738E-03 a       155     0     8     1    15
 -1.5482674912585848E-01 a       156     0     8     1    16
 -3.1384057000602039E-02 a       157     0     8     1    17
  3.4691496849590814E-01 a       158     0     8     1    18
 -4.9785465476732536E-02 a       159     0     8     1    19
 -2.2235305971260202E-01 a       160     0     8     1    20
 -2.5134060520443907E-01 a       161     0     9     1     1
  4.7575460202448260E-02 a       162     0     9     1     2
 -7.4603372100967413E-01 a       163     0     9     1     3
 -6.6362523736403745E-01 a       164     0     9     1     4
  2.4327519194161587E-01 a       165     0     9     1     5
  1.7921822134858914E-01 a       166     0     9     1     6
  3.9963731563634280E-02 a       167     0     9     1     7
 -1.1913983038574627E-01 a       168     0     9     1     8
 -4.5646814764538281E-02 a       169     0     9     1     9
 -2.9244406528523686E-01 a       170     0     9     1    10
  3.8482789563103900E-02 a       171     0     9     1    11
 -2.7951395174342747E-01 a       172     0     9     1    12
  6.8155238457147979E-02 a       173     0     9     1    13
  3.6435787355390825E-01 a       174     0     9     1    14
  3.6303597072545030E-01 a       175     0     9     1    15
 -3.0714329515051719E-01 a       176     0     9     1    16
 -5.2807229993829108E-01 a       177     0     9     1    17
  2.5505032709728043E-01 a       178     0     9     1    18
  1.1013502932061967E-01 a       179     0     9     1    19
 -4.2801252936602979E-01 a       180     0     9     1    20
  3.2637309795005598E-01 a       181     0    10     1     1
 -5.9394392406566288E-01 a       182     0    10     1     2
 -2.5027401806465116E-01 a       183     0    10     1     3
  3.5323344474343649E-01 a       184     0    10     1     4
 -5.4666546808932570E-01 a       185     0    10     1     5
 -5.4577889542937286E-01 a       186     0    10     1     6
 -4.7840018733474343E-01 a       187     0    10     1     7
  3.0250163831223753E-01 a       188     0    10     1     8
  3.1849574481971027E-01 a       189     0    10     1     9
  1.0757158767715969E-01 a       190     0    10     1    10
  1.3367371902892766E-01 a       191     0    10     1    11
  5.9229280606714796E-01 a       192     0    10     1    12
 -3.2471115507117276E-01 a       193     0    10     1    13
  2.5912061155738375E-01 a       194     0    10     1    14
  2.6671794230440410E-01 a       195     0    10     1    15
 -3.2034790944427938E-01 a       196     0    10     1    16
 -1.8080944813609209E-01 a       197     0    10     1    17
  1.8858852523902642E-01 a       198     0    10     1    18
 -2.8331977735165187E-02 a       199     0    10     1    19
 -7.6093705303944970E-01 a       200     0    10     1    20
 -1.5724612306887215E-01 a       201     0    11     1     1
  4.1984856423268982E-04 a       202     0    11     1     2
  1.5775016797866176E-01 a       203     0    11     1     3
  3.6056937840456896E-02 a       204     0    11     1     4
 -5.0754447737443809E-02 a       205     0    11     1     5
  4.4336452912987580E-02 a       206     0    11     1     6
 -1.5517982750792791E-01 a       207     0    11     1     7
  7.4535949407674815E-02 a       208     0    11     1     8
  3.2837764861743710E-02 a       209     0    11     1     9
  1.0233838137797149E-01 a       210     0    11     1    10
 -3.2531339019714285E-02 a       211     0    11     1    11
 -3.2258437707030380E-02 a       212     0    11     1    12
 -5.7529848501207341E-02 a       213     0    11     1    13
  9.4173806378025263E-02 a       214     0    11     1    14
  6.6020246960154044E-02 a       215     0    11     1    15
  6.0033656928113147E-02 a       216     0    11     1    16
  4.0883976996585691E-02 a       217     0    11     1    17
 -2.4248188252172368E-04 a       218     0    11     1    18
 -1.7727546150193785E-01 a       219     0    11     1    19
 -5.7386971937476917E-02 a       220     0    11     1    20
  1.5373646561153559E-01 a       221     0    12     1     1
 -1.0740574234877245E-01 a       222     0    12     1     2
  3.9234436128027772E-01 a       223     0    12     1     3
 -5.1132236548486851E-02 a       224     0    12     1     4
 -1.9189337323048281E-01 a       225     0    12     1     5
  3.4737496303578225E-01 a       226     0    12     1     6
 -2.3761676405463628E-01 a       227     0    12     1     7
 -5.5468030019704143E-02 a       228     0    12     1     8
  4.3405611017887741E-01 a       229     0    12     1     9
  5.0693372392566771E-01 a       230     0    12     1    10
 -4.5965824428315288E-02 a       231     0    12     1    11
  8.3348578866047698E-03 a       232     0    12     1    12
  2.1289113413627193E-02 a       233     0    12     1    13
 -3.5113009819412483E-01 a       234     0    12     1    14
 -1.6637387244837026E-01 a       235     0    12     1    15
 -3.1044469863393770E-01 a       236     0    12     1    16
  2.7883039182925118E-01 a       237     0    12     1    17
 -5.5093602444534373E-01 a       238     0    12     1    18
  2.4062973995161299E-01 a       239     0    12     1    19
 -2.1432439792366387E-01 a       240     0    12     1    20
 -7.2284288744116784E-02 a       241     0    13     1     1
  4.7480273840995951E-01 a       242     0    13     1     2
  7.0371965036799766E-02 a       243     0    13     1     3
 -2.0249564997769121E-01 a       244     0    13     1     4
  3.5414731048778236E-02 a       245     0    13     1     5
  2.8365004581399766E-01 a       246     0    13     1     6
  2.9894887071640169E-01 a       247     0    13     1     7
 -2.4068185203206238E-01 a       248     0    13     1     8
 -3.9073742931437061E-01 a       249     0    13     1     9
 -8.8322679771173487E-02 a       250     0    13     1    10
 -1.6684063489991616E-01 a       251     0    13     1    11
 -1.3893121441269610E-01 a       252     0    13     1    12
  1.1871534382718148E-01 a       253     0    13     1    13
 -2.8583969924986830E-01 a       254     0    13     1    14
 -2.8703554883807547E-01 a       255     0    13     1    15
  2.4562997611274734E-01 a       256     0    13     1    16
 -4.7545732775024102E-01 a       257     0    13     1    17
  3.8623315047816426E-01 a       258     0    13     1    18
 -3.8419490568862047E-01 a       259     0    13     1    19
  2.0762765148229687E-01 a       260     0    13     1    20
 -5.7331498677743641E-02 a       261     0    14     1     1
  1.0721120963702349E-01 a       262     0    14     1     2
  4.6368923783966745E-02 a       263     0    14     1     3
  1.4590698688600670E-01 a       264     0    14     1     4
 -2.6390238348041609E-02 a       265     0    14     1     5
  6.0541987030109570E-03 a       266     0    14     1     6
  1.2140455601736601E-01 a       267     0    14     1     7
 -9.3626566447440832E-03 a       268     0    14     1     8
  8.8736593722625032E-02 a       269     0    14     1     9
  1.0220973949708905E-02 a       270     0    14     1    10
  9.4836403992059337E-02 a       271     0    14     1    11
 -1.2464346599683321E-01 a       272     0    14     1    12
 -8.7231193195101780E-02 a       273     0    14     1    13
 -1.1224262890085125E-01 a       274     0    14     1    14
  1.9195112961624673E-02 a       275     0    14     1    15
 -9.1557460830735224E-02 a       276     0    14     1    16
 -3.9877066557668683E-01 a       277     0    14     1    17
  1.7174310065168291E-01 a       278     0    14     1    18
  1.0410443692949174E-02 a       279     0    14     1    19
 -6.1496569453790714E-02 a       280     0    14     1    20
 -2.3547224908101047E-01 a       281     0    15     1     1
 -1.8619755364159088E-01 a       282     0    15     1     2
 -2.8018243690056438E-01 a       283     0    15     1     3
 -1.8261700485508628E-01 a       284     0    15     1     4
  4.1211761258822571E-01 a       285     0    15     1     5
  1.0979242264528402E-01 a       286     0    15     1     6
 -1.0131428876997989E-01 a       287     0    15     1     7
  1.8889269536610040E-01 a       288     0    15     1     8
 -1.9037847704391067E-01 a       289     0    15     1     9
 -3.4840281679250817E-01 a       290     0    15     1    10
  1.2333882551951218E-02 a       291     0    15     1    11
 -2.7552446380624512E-01 a       292     0    15     1    12
 -4.7032598582098323E-02 a       293     0    15     1    13
  4.2406445966468830E-02 a       294     0    15     1    14
  1.1788791771245405E-01 a       295     0    15     1    15
  1.8285760859573905E-01 a       296     0    15     1    16
  2.3846944656264665E-01 a       297     0    15     1    17
 -2.5174553130647714E-01 a       298     0    15     1    18
  1.4875330280833535E-01 a       299     0    15     1    19
 -5.4067412922852352E-02 a       300     0    15     1    20
  6.2580777597428999E-02 a       301     0    16     1     1
 -1.5807624104133713E-01 a       302     0    16     1     2
  1.1997035221051879E-01 a       303     0    16     1     3
  8.7549588199222331E-02 a       304     0    16     1     4
 -1.2681384265488704E-01 a       305     0    16     1     5
 -3.4272800788138635E-01 a       306     0    16     1     6
  1.7973371352126005E-01 a       307     0    16     1     7
  1.7169758055456817E-03 a       308     0    16     1     8
  8.5908772419519594E-02 a       309     0    16     1     9
 -1.2490590247537471E-02 a       310     0    16     1    10
 -1.6480377773766941E-01 a       311     0    16     1    11
  1.1804647793240754E-01 a       312     0    16     1    12
 -1.3988533249145327E-01 a       313     0    16     1    13
  2.3100043001326429E-01 a       314     0    16     1    14
  2.0124341691527986E-01 a       315     0    16     1    15
 -9.0574461261391612E-02 a       316     0    16     1    16
 -1.3188088111727914E-01 a       317     0    16     1    17
  7.1583927129868372E-02 a       318     0    16     1    18
  4.6987012974826423E-02 a       319     0    16     1    19
 -4.7540676682412110E-02 a       320     0    16     1    20
 -5.1839061106429683E-02 a       321     0    17     1     1
 -3.3014444646705193E-02 a       322     0    17     1     2
 -1.8251060328935739E-02 a       323     0    17     1     3
 -7.3635556858109838E-02 a       324     0    17     1     4
  5.2001004990999043E-02 a       325     0    17     1     5
 -1.6603598930142106E-02 a       326     0    17     1     6
 -5.9277623184061816E-02 a       327     0    17     1     7
  2.7097684406590227E-03 a       328     0    17     1     8
 -1.1300437675707574E-01 a       329     0    17     1     9
 -3.1195797954077880E-02 a       330     0    17     1    10
  1.0834814587793878E-03 a       331     0    17     1    11
 -3.5038517590551535E-04 a       332     0    17     1    12
 -1.6241407800539516E-03 a       333     0    17     1    13
  8.3580233452570513E-02 a       334     0    17     1    14
 -1.4527375411353441E-02 a       335     0    17     1    15
  7.6218474820696963E-02 a       336     0    17     1    16
  2.4934622224383296E-03 a       337     0    17     1    17
 -9.0717077436566582E-02 a       338     0    17     1    18
  3.3164392901828987E-02 a       339     0    17     1    19
  1.3749158483544712E-02 a       340     0    17     1    20
  1.8710178031090360E-01 a       341     0    18     1     1
  1.3702307756594317E-01 a       342     0    18     1     2
 -2.9739874465284061E-02 a       343     0    18     1     3
  1.0183716455061692E-01 a       344     0    18     1     4
 -3.1900609537373148E-01 a       345     0    18     1     5
  3.3343996673413134E-01 a       346     0    18     1     6
  1.4212247740446846E-01 a       347     0    18     1     7
  1.2056341783221788E-02 a       348     0    18     1     8
  1.4665174459903693E-01 a       349     0    18     1     9
  3.2660429611077640E-01 a       350     0    18     1    10
  2.7995161179350470E-01 a       351     0    18     1    11
  6.9038231145403958E-02 a       352     0    18     1    12
  1.0927046120037209E-01 a       353     0    18     1    13
 -2.6270401651363740E-01 a       354     0    18     1    14
 -1.3009353789243563E-01 a       355     0    18     1    15
 -2.7400050600914627E-01 a       356     0    18     1    16
  1.3228653973863180E-01 a       357     0    18     1    17
 -9.2009127477624228E-02 a       358     0    18     1    18
  1.0486625489056935E-01 a       359     0    18     1    19
 -1.4891621807551778E-01 a       360     0    18     1    20
 -4.9649720415663803E-02 a       361     0    19     1     1
  5.3414912631400642E-02 a       362     0    19     1     2
  2.4929458222171949E-01 a       363     0    19     1     3
 -2.0193895888240768E-01 a       364     0    19     1     4
  6.9340051791527135E-02 a       365     0    19     1     5
  6.9947528461817366E-03 a       366     0    19     1     6
 -2.2205837870084968E-01 a       367     0    19     1     7
 -1.7847915296734843E-01 a       368     0    19     1     8
 -5.5280902788023820E-02 a       369     0    19     1     9
 -6.7445492499343687E-02 a       370     0    19     1    10
 -1.6738103122270805E-02 a       371     0    19     1    11
 -4.2148466122401015E-02 a       372     0    19     1    12
  1.2092452181498604E-01 a       373     0    19     1    13
  5.8904656701433238E-02 a       374     0    19     1    14
 -4.8040226264215398E-02 a       375     0    19     1    15
  6.5410316460377496E-02 a       376     0    19     1    16
 -7.1494677651763885E-02 a       377     0    19     1    17
  4.1905846124726483E-02 a       378     0    19     1    18
 -2.4368098172472327E-01 a       379     0    19     1    19
 -2.0922841412328452E-01 a       380     0    19     1    20
  5.5447197124733172E-02 a       381     0    20     1     1
  1.6692952517155413E-02 a       382     0    20     1     2
  1.8630022829186795E-02 a       383     0    20     1     3
  1.0018342267821530E-01 a       384     0    20     1     4
 -4.0629583681681083E-02 a       385     0    20     1     5
  7.4098787747219050E-02 a       386     0    20     1     6
  8.5798554245892014E-02 a       387     0    20     1     7
  2.4049089427728983E-02 a       388     0    20     1     8
  1.0027013918223976E-01 a       389     0    20     1     9
  8.0787884906358812E-02 a       390     0    20     1    10
  1.7818893691164728E-02 a       391     0    20     1    11
 -3.5818805720475950E-03 a       392     0    20     1    12
 -7.5778759300705319E-04 a       393     0    20     1    13
 -8.9999462150661902E-02 a       394     0    20     1    14
  1.1727488901170063E-02 a       395     0    20     1    15
 -7.9147229909764236E-02 a       396     0    20     1    16
  8.6112525370800705E-02 a       397     0    20     1    17
  8.7640360826802752E-02 a       398     0    20     1    18
 -3.6537567142347356E-02 a       399     0    20     1    19
 -5.1391171466804879E-02 a       400     0    20     1    20
 -1.0224436263030232E-01 a       401     0    21     1     1
 -2.2359047727492483E-02 a       402     0    21     1     2
 -1.8549129721539984E-01 a       403     0    21     1     3
  2.5482859001710056E-02 a       404     0    21     1     4
  1.7713285990576916E-01 a       405     0    21     1     5
  2.3559600637229783E-02 a       406     0    21     1     6
 -1.8946499857854904E-01 a       407     0    21     1     7
  1.0436410706360612E-01 a       408     0    21     1     8
  5.3013707245676642E-03 a       409     0    21     1     9
 -1.7216121417378155E-01 a       410     0    21     1    10
  1.8104270552991492E-02 a       411     0    21     1    11
 -7.6700737935543661E-02 a       412     0    21     1    12
 -9.7256430267007629E-02 a       413     0    21     1    13
 -9.2475235952575063E-02 a       414     0    21     1    14
 -7.4323184094923181E-02 a       415     0    21     1    15
  7.4267788228246978E-02 a       416     0    21     1    16
  1.9981877382116356E-01 a       417     0    21     1    17
 -8.8788891208064297E-02 a       418     0    21     1    18
  2.8229036274295394E-01 a       419     0    21     1    19
  1.5538759645647982E-01 a       420     0    21     1    20
 -1.0656094989845034E-03 a       421     0    22     1     1
 -2.3329935980432737E-01 a       422     0    22     1     2
  2.6330910506690502E-01 a       423     0    22     1     3
  4.2591183880326348E-03 a       424     0    22     1     4
  7.0523670656177706E-02 a       425     0    22     1     5
 -1.7882642475279859E-01 a       426     0    22     1     6
  2.3866112880348200E-01 a       427     0    22     1     7
 -1.5613440776674531E-02 a       428     0    22     1     8
 -2.1110688584345419E-01 a       429     0    22     1     9
 -1.7485412084200909E-02 a       430     0    22     1    10
 -4.4183577970642440E-01 a       431     0    22     1    11
  7.9054524813699702E-03 a       432     0    22     1    12
 -2.9395835496434897E-01 a       433     0    22     1    13
  2.3878974432454672E-01 a       434     0    22     1    14
  1.2220170277252293E-01 a       435     0    22     1    15
  1.2661802677394315E-01 a       436     0    22     1    16
 -8.5587309401820008E-02 a       437     0    22     1    17
  8.4061294516984533E-02 a       438     0    22     1    18
 -1.8602780613181846E-01 a       439     0    22     1    19
  1.6621555556727191E-01 a       440     0    22     1    20
 -5.0596050411234501E-02 a       441     0    23     1     1
  3.5045580981013048E-02 a       442     0    23     1     2
  5.3914341174758733E-02 a       443     0    23     1     3
 -8.0172208713140805E-02 a       444     0    23     1     4
  2.4297145534719646E-02 a       445     0    23     1     5
 -5.3481147131332556E-02 a       446     0    23     1     6
 -7.5345648873574617E-02 a       447     0    23     1     7
 -4.1284640982014918E-02 a       448     0    23     1     8
 -3.2229172025348335E-02 a       449     0    23     1     9
 -7.3504385667209848E-02 a       450     0    23     1    10
 -3.0669157499692505E-02 a       451     0    23     1    11
 -1.1397079612995992E-02 a       452     0    23     1    12
 -4.5662621187244512E-02 a       453     0    23     1    13
  7.2107709521673280E-02 a       454     0    23     1    14
 -7.2343058834956299E-03 a       455     0    23     1    15
  6.4438665151814803E-02 a       456     0    23     1    16
 -1.2922414246502467E-01 a       457     0    23     1    17
 -1.7170349421410717E-02 a       458     0    23     1    18
 -1.6551787094994611E-02 a       459     0    23     1    19
  5.1360576922447970E-02 a       460     0    23     1    20
  1.2133397969865252E-01 a       461     0    24     1     1
  2.4347634786389941E-01 a       462     0    24     1     2
 -2.9579440516673866E-01 a       463     0    24     1     3
  1.7964957773169871E-01 a       464     0    24     1     4
 -2.3664353466677004E-01 a       465     0    24     1     5
  2.9110135455698821E-01 a       466     0    24     1     6
  1.2912092267803818E-01 a       467     0    24     1     7
  1.4119006242839802E-01 a       468     0    24     1     8
  1.3562468883779652E-01 a       469     0    24     1     9
  1.8310516744252101E-01 a       470     0    24     1    10
  4.3413206138423943E-01 a       471     0    24     1    11
  4.9912589675286313E-02 a       472     0    24     1    12
  2.2598420543866621E-01 a       473     0    24     1    13
 -2.7143431657540662E-01 a       474     0    24     1    14
 -6.8164838234343716E-02 a       475     0    24     1    15
 -1.6804713664486978E-01 a       476     0    24     1    16
  4.2200923193357290E-02 a       477     0    24     1    17
 -1.5087670790102909E-02 a       478     0    24     1    18
  1.0340764468569374E-01 a       479     0    24     1    19
 -2.3187956436282374E-02 a       480     0    24     1    20
 -5.2073187416260623E-02 a       481     0    25     1     1
  2.1545608012422068E-02 a       482     0    25     1     2
 -6.6711999312756591E-03 a       483     0    25     1     3
 -5.3929587744482026E-02 a       484     0    25     1     4
 -2.4312053786986329E-03 a       485     0    25     1     5
 -3.7618684956509378E-02 a       486     0    25     1     6
 -2.1787321501233720E-01 a       487     0    25     1     7
 -3.6847563458638571E-02 a       488     0    25     1     8
  5.8756961959387045E-02 a       489     0    25     1     9
 -1.6963940125089175E-02 a       490     0    25     1    10
  1.3233282131926319E-01 a       491     0    25     1    11
  3.0583977646943196E-03 a       492     0    25     1    12
  1.0226329139481319E-01 a       493     0    25     1    13
  3.5458551478481391E-02 a       494     0    25     1    14
 -3.7017970745341503E-03 a       495     0    25     1    15
 -2.9051873411100000E-02 a       496     0    25     1    16
 -5.1115716821134305E-02 a       497     0    25     1    17
 -4.3544983559550721E-02 a       498     0    25     1    18
 -7.1551140683306334E-03 a       499     0    25     1    19
 -4.6937927043589144E-02 a       500     0    25     1    20
  5.8979445366332393E-02 a       501     0    26     1     1
 -2.6428963475114468E-02 a       502     0    26     1     2
 -8.9747702917826383E-02 a       503     0    26     1     3
  3.7475864878804325E-03 a       504     0    26     1     4
 -4.9642950740422374E-02 a       505     0    26     1     5
  5.5819959402264564E-02 a       506     0    26     1     6
  5.7994300356586925E-02 a       507     0    26     1     7
  1.3598362750757093E-02 a       508     0    26     1     8
 -2.7492280453185621E-03 a       509     0    26     1     9
  6.4004592331707605E-02 a       510     0    26     1    10
  5.2728217940218335E-02 a       511     0    26     1    11
  5.6068199056581447E-03 a       512     0    26     1    12
  4.4458873175109187E-02 a       513     0    26     1    13
 -4.4267225268668144E-02 a       514     0    26     1    14
  2.5821892379041134E-03 a       515     0    26     1    15
 -7.1405452051656049E-02 a       516     0    26     1    16
  1.0174347203644134E-01 a       517     0    26     1    17
 -1.1921928993057527E-02 a       518     0    26     1    18
  3.1497009671211926E-02 a       519     0    26     1    19
 -7.8670947399192989E-02 a       520     0    26     1    20
 -5.3861008710303172E-02 a       521     0    27     1     1
 -4.4147699452367746E-02 a       522     0    27     1     2
  5.0445256464131928E-02 a       523     0    27     1     3
 -8.7064045782027283E-02 a       524     0    27     1     4
  1.0343030858443859E-01 a       525     0    27     1     5
 -1.1228178850461430E-01 a       526     0    27     1     6
 -3.8311181186309060E-03 a       527     0    27     1     7
 -7.5338609248594979E-02 a       528     0    27     1     8
 -2.3830580790899055E-02 a       529     0    27     1     9
 -7.1029189948969979E-02 a       530     0    27     1    10
 -1.5136394901556094E-01 a       531     0    27     1    11
 -3.4793685267534798E-02 a       532     0    27     1    12
 -6.2703542274237384E-02 a       533     0    27     1    13
  3.8225376517967161E-02 a       534     0    27     1    14
 -8.1664755292722036E-03 a       535     0    27     1    15
  4.1657896948687628E-02 a       536     0    27     1    16
 -5.4755336318129323E-02 a       537     0    27     1    17
 -1.6284010792769889E-02 a       538     0    27     1    18
  4.2816738000143469E-02 a       539     0    27     1    19
 -3.3334787957690765E-02 a       540     0    27     1    20
 -5.3103171855535822E-03 a       541     0    28     1     1
 -1.1644080900665812E-01 a       542     0    28     1     2
  1.4005834234995787E-01 a       543     0    28     1     3
 -4.2472651030563813E-04 a       544     0    28     1     4
  5.5349187278850319E-02 a       545     0    28     1     5
 -5.7943231675100383E-02 a       546     0    28     1     6
  5.2678890409351038E-02 a       547     0    28     1     7
 -1.3595747295210623E-02 a       548     0    28     1     8
 -9.7121450820386493E-02 a       549     0    28     1     9
 -1.1488845151829906E-02 a       550     0    28     1    10
 -2.0081018817301988E-01 a       551     0    28     1    11
 -1.2665853105951568E-02 a       552     0    28     1    12
 -1.4036399868197458E-01 a       553     0    28     1    13
  9.4988487984680431E-02 a       554     0    28     1    14
  4.0544146645228332E-02 a       555     0    28     1    15
  8.4744756166387783E-02 a       556     0    28     1    16
 -2.6255763179389772E-02 a       557     0    28     1    17
  4.9255861957810329E-02 a       558     0    28     1    18
 -1.4406884158336528E-01 a       559     0    28     1    19
  2.2490049505716366E-02 a       560     0    28     1    20
 -3.1509446193480999E-02 a       561     0    29     1     1
 -4.1285599732907418E-03 a       562     0    29     1     2
  6.1717983237468271E-02 a       563     0    29     1     3
  1.2847790891865498E-02 a       564     0    29     1     4
  4.0546925413506685E-02 a       565     0    29     1     5
 -3.2973304872754475E-02 a       566     0    29     1     6
 -2.2616080043550386E-02 a       567     0    29     1     7
  2.9507881800331886E-03 a       568     0    29     1     8
 -8.9263678330210225E-04 a       569     0    29     1     9
 -2.9180561975962128E-02 a       570     0    29     1    10
 -4.0215192905538835E-02 a       571     0    29     1    11
 -3.2440078302709901E-03 a       572     0    29     1    12
 -3.1910310367735915E-02 a       573     0    29     1    13
  2.8517094674552060E-02 a       574     0    29     1    14
  7.4274066475434114E-03 a       575     0    29     1    15
  4.4080949544730907E-02 a       576     0    29     1    16
 -2.8990169933974175E-02 a       577     0    29     1    17
  3.2058543741915789E-03 a       578     0    29     1    18
 -2.3965738409927859E-02 a       579     0    29     1    19
  5.0749638923095447E-02 a       580     0    29     1    20
  6.1274759497931749E-02 a       581     0    30     1     1
  1.5392211043689397E-01 a       582     0    30     1     2
 -1.9738373139404142E-01 a       583     0    30     1     3
  7.3084545588435718E-02 a       584     0    30     1     4
 -9.5995960339063130E-02 a       585     0    30     1     5
  1.5674237983838990E-01 a       586     0    30     1     6
  7.4465689082330741E-02 a       587     0    30     1     7
  7.3431761274288743E-02 a       588     0    30     1     8
  1.1470111306590496E-01 a       589     0    30     1     9
  4.1804605072996999E-02 a       590     0    30     1    10
  2.7127387267988140E-01 a       591     0    30     1    11
  4.4228491759772471E-03 a       592     0    30     1    12
  1.1296063675842954E-01 a       593     0    30     1    13
 -1.6898183761485777E-01 a       594     0    30     1    14
 -5.7174906565926928E-02 a       595     0    30     1    15
 -1.0051409956104611E-01 a       596     0    30     1    16
  1.1474673300150133E-01 a       597     0    30     1    17
 -4.9377975252459731E-02 a       598     0    30     1    18
  1.7084570153704950E-01 a       599     0    30     1    19
 -4.9179770152695647E-03 a       600     0    30     1    20
 -2.4356872531995569E-01 a       601     0    31     1     1
  1.3938850272086517E-01 a       602     0    31     1     2
 -3.4595303415938133E-01 a       603     0    31     1     3
 -3.4381650399082525E-01 a       604     0    31     1     4
 -4.8072667746055273E-02 a       605     0    31     1     5
  9.9813905199538297E-03 a       606     0    31     1     6
  1.1046576921724603E-01 a       607     0    31     1     7
  2.4095398651658176E-01 a       608     0    31     1     8
 -9.2680727784936773E-02 a       609     0    31     1     9
  4.4670676609139182E-01 a       610     0    31     1    10
 -2.0875162307357465E-02 a       611     0    31     1    11
  3.6188608188646210E-01 a       612     0    31     1    12
  5.5327445758711113E-01 a       613     0    31     1    13
  6.1214247716953085E-01 a       614     0    31     1    14
  3.2775894556323883E-02 a       615     0    31     1    15
  3.9297704065438394E-02 a       616     0    31     1    16
 -7.5261871897407240E-02 a       617     0    31     1    17
 -2.1718997991150579E-01 a       618     0    31     1    18
  4.0259441272907448E-01 a       619     0    31     1    19
 -1.2860505197934285E-01 a       620     0    31     1    20
  6.6982311465235270E-02 a       621     0    32     1     1
 -1.7556651365107540E-01 a       622     0    32     1     2
 -1.4765281754419723E-01 a       623     0    32     1     3
  7.6492259309269145E-02 a       624     0    32     1     4
 -1.7789160532467293E-03 a       625     0    32     1     5
 -5.7550384385898386E-03 a       626     0    32     1     6
 -1.5854141533018218E-01 a       627     0    32     1     7
  5.3565464225448986E-02 a       628     0    32     1     8
 -1.5056441671438045E-01 a       629     0    32     1     9
  3.0931511093348175E-02 a       630     0    32     1    10
 -7.2425799864949222E-02 a       631     0    32     1    11
 -1.7782334342171482E-02 a       632     0    32     1    12
  5.6828125646046342E-02 a       633     0    32     1    13
  2.8169311001511085E-02 a       634     0    32     1    14
  3.2988317187580316E-02 a       635     0    32     1    15
  2.2397014935309014E-02 a       636     0    32     1    16
  1.0796374731053886E-01 a       637     0    32     1    17
  1.4679864177442572E-02 a       638     0    32     1    18
  1.2209660957444143E-01 a       639     0    32     1    19
  5.9202614992854910E-02 a       640     0    32     1    20
 -3.9463999908146963E-01 a       641     0    33     1     1
  6.5996537954435042E-01 a       642     0    33     1     2
  2.0266033235125860E-01 a       643     0    33     1     3
  2.9751538798413696E-01 a       644     0    33     1     4
  1.8918861746751936E-01 a       645     0    33     1     5
 -1.5424750583029623E-01 a       646     0    33     1     6
 -3.5211365457358312E-01 a       647     0    33     1     7
 -1.8483508440281332E-01 a       648     0    33     1     8
  4.6459808729761871E-03 a       649     0    33     1     9
 -9.4732524397529250E-01 a       650     0    33     1    10
 -4.5235938550244675E-01 a       651     0    33     1    11
 -9.2112151824269095E-01 a       652     0    33     1    12
  1.9444746026926471E-01 a       653     0    33     1    13
 -8.9898718865922977E-01 a       654     0    33     1    14
  2.6942101720988271E-01 a       655     0    33     1    15
 -3.8840436054622757E-01 a       656     0    33     1    16
 -3.9163071622548612E-01 a       657     0    33     1    17
 -8.6855310884608672E-01 a       658     0    33     1    18
  3.0980362152090035E-01 a       659     0    33     1    19
 -6.9035420545946291E-01 a       660     0    33     1    20
 -4.9199104420879283E-02 a       661     0    34     1     1
  1.4174864588345179E-01 a       662     0    34     1     2
 -8.0176904088345491E-02 a       663     0    34     1     3
  3.0687601566732142E-01 a       664     0    34     1     4
 -7.3695026531136187E-02 a       665     0    34     1     5
  8.5123845405182669E-03 a       666     0    34     1     6
 -1.5027872896204114E-01 a       667     0    34     1     7
  2.5361483657581108E-01 a       668     0    34     1     8
  1.0741627612052292E-01 a       669     0    34     1     9
  2.0039225228134679E-02 a       670     0    34     1    10
  2.4700638499979627E-01 a       671     0    34     1    11
  3.4090786346168023E-02 a       672     0    34     1    12
 -3.2039875943261499E-02 a       673     0    34     1    13
 -2.2939472350195483E-01 a       674     0    34     1    14
  7.5609380729436182E-02 a       675     0    34     1    15
 -1.1106464910037203E-01 a       676     0    34     1    16
  3.9688320170172747E-01 a       677     0    34     1    17
  3.6248081268895185E-02 a       678     0    34     1    18
  1.4763720554683354E-01 a       679     0    34     1    19
  1.3653089143643443E-01 a       680     0    34     1    20
 -3.3820526473487912E-02 a       681     0    35     1     1
 -1.0864583777449620E-01 a       682     0    35     1     2
  9.7419340789824220E-03 a       683     0    35     1     3
 -1.2574376880988727E-01 a       684     0    35     1     4
 -5.9572296696898439E-02 a       685     0    35     1     5
 -2.7462046909773719E-01 a       686     0    35     1     6
 -2.1655034835551090E-01 a       687     0    35     1     7
 -4.5722441452228341E-02 a       688     0    35     1     8
 -2.4016519889018520E-01 a       689     0    35     1     9
 -1.8554877056675814E-01 a       690     0    35     1    10
 -1.9041742970356956E-01 a       691     0    35     1    11
  1.3743871060579343E-01 a       692     0    35     1    12
  1.3196868890835683E-01 a       693     0    35     1    13
  2.4570709601222473E-01 a       694     0    35     1    14
  1.3239008458572235E-01 a       695     0    35     1    15
 -3.5021306718244868E-02 a       696     0    35     1    16
  7.7885247007042246E-02 a       697     0    35     1    17
 -1.1005422657000878E-01 a       698     0    35     1    18
  2.5880599656355513E-01 a       699     0    35     1    19
  1.6937488258129144E-01 a       700     0    35     1    20
  4.1554834533303858E-01 a       701     0    36     1     1
 -4.9667263302468267E-01 a       702     0    36     1     2
  7.9782591899561869E-02 a       703     0    36     1     3
  2.0198760648260362E-02 a       704     0    36     1     4
 -2.4235763675561806E-01 a       705     0    36     1     5
 -5.1497201049741748E-01 a       706     0    36     1     6
 -2.6970255905992885E-01 a       707     0    36     1     7
  1.5992717978802368E-01 a       708     0    36     1     8
 -1.6732102129677318E-01 a       709     0    36     1     9
  2.5475936978586550E-01 a       710     0    36     1    10
  2.8808560640876468E-01 a       711     0    36     1    11
  7.1116108986614235E-01 a       712     0    36     1    12
 -2.5522917999868000E-01 a       713     0    36     1    13
  6.4147491959801017E-01 a       714     0    36     1    14
 -1.4948904494789295E-02 a       715     0    36     1    15
  6.9084568900234966E-01 a       716     0    36     1    16
  1.6128582387238524E-01 a       717     0    36     1    17
  7.8039894458307146E-01 a       718     0    36     1    18
 -2.4652012550093039E-01 a       719     0    36     1    19
  8.6953393296900239E-01 a       720     0    36     1    20
  1.9001550842030551E-01 a       721     0    37     1     1
 -4.7772161805538665E-01 a       722     0    37     1     2
  2.7672726137347620E-01 a       723     0    37     1     3
 -5.6919670678167333E-02 a       724     0    37     1     4
  3.6435575080250083E-03 a       725     0    37     1     5
  1.7847425915596427E-01 a       726     0    37     1     6
  8.6561575050032286E-02 a       727     0    37     1     7
 -2.1071662713743192E-01 a       728     0    37     1     8
  1.5862903623807678E-01 a       729     0    37     1     9
  1.6616526071540805E-01 a       730     0    37     1    10
  5.1478707109497757E-01 a       731     0    37     1    11
 -4.0300108250607708E-01 a       732     0    37     1    12
 -5.1529176817895783E-01 a       733     0    37     1    13
 -9.5605447397487442E-01 a       734     0    37     1    14
 -1.1796362833134649E-01 a       735     0    37     1    15
  2.8781111621068467E-01 a       736     0    37     1    16
  2.5422141274115723E-01 a       737     0    37     1    17
  4.8540704736888218E-01 a       738     0    37     1    18
 -1.2767870269450807E-01 a       739     0    37     1    19
  7.6352288055470552E-01 a       740     0    37     1    20
 -8.0176719377305264E-02 a       741     0    38     1     1
  4.7741704194491745E-02 a       742     0    38     1     2
  1.1002110870269145E-01 a       743     0    38     1     3
  8.3589042799608257E-03 a       744     0    38     1     4
  3.3441274689947072E-02 a       745     0    38     1     5
  1.0460577264486626E-01 a       746     0    38     1     6
 -1.8686598069517172E-02 a       747     0    38     1     7
  5.4202314797214206E-02 a       748     0    38     1     8
 -6.0023220625519576E-02 a       749     0    38     1     9
 -2.8953286766718607E-02 a       750     0    38     1    10
 -4.3134215581207391E-02 a       751     0    38     1    11
  7.0908290663438164E-02 a       752     0    38     1    12
 -5.1559841134309600E-02 a       753     0    38     1    13
  2.1145545935474623E-03 a       754     0    38     1    14
 -7.6301811954918489E-02 a       755     0    38     1    15
  6.1186731048809340E-02 a       756     0    38     1    16
 -4.1845070751671369E-02 a       757     0    38     1    17
  2.0485548186931136E-02 a       758     0    38     1    18
 -1.5550903799576657E-01 a       759     0    38     1    19
  6.8567261958055320E-02 a       760     0    38     1    20
  1.9163728306724756E-01 a       761     0    39     1     1
  1.2513239766418760E-01 a       762     0    39     1     2
 -7.8668943390880361E-02 a       763     0    39     1     3
  3.0638831420210313E-02 a       764     0    39     1     4
  4.8983854092454743E-01 a       765     0    39     1     5
 -3.1946249646481928E-01 a       766     0    39     1     6
  6.3288392300467422E-01 a       767     0    39     1     7
 -2.9680361860618965E-01 a       768     0    39     1     8
 -2.2394313473917032E-01 a       769     0    39     1     9
  3.3924950923632630E-01 a       770     0    39     1    10
 -6.2387447064682533E-01 a       771     0    39     1    11
  9.0832377538611220E-01 a       772     0    39     1    12
 -2.2548867205277145E-01 a       773     0    39     1    13
  2.5168749821113523E+00 a       774     0    39     1    14
 -3.7550897303196601E-01 a       775     0    39     1    15
 -9.7045485642697837E-01 a       776     0    39     1    16
  1.6267718860344502E-01 a       777     0    39     1    17
 -9.8900150483973437E-01 a       778     0    39     1    18
 -8.3702803050119134E-01 a       779     0    39     1    19
 -8.8241993626444226E-01 a       780     0    39     1    20
  2.1028853791446875E-01 a       781     0    40     1     1
  6.5871866723067343E-02 a       782     0    40     1     2
 -4.4281684079848410E-01 a       783     0    40     1     3
 -4.0406455448846260E-02 a       784     0    40     1     4
 -1.1117369408526100E-01 a       785     0    40     1     5
  2.3018410484719656E-01 a       786     0    40     1     6
  2.6925092464455316E-03 a       787     0    40     1     7
 -6.1939106401033325E-02 a       788     0    40     1     8
  9.3992619588386020E-02 a       789     0    40     1     9
  7.9714659020997350E-02 a       790     0    40     1    10
 -3.1756694351609005E-01 a       791     0    40     1    11
  2.2754118190460293E-01 a       792     0    40     1    12
  5.8394076465986107E-02 a       793     0    40     1    13
  2.8021885050650341E-01 a       794     0    40     1    14
 -3.7979461832718631E-01 a       795     0    40     1    15
  9.8518099143201053E-03 a       796     0    40     1    16
  1.3205583304480076E-02 a       797     0    40     1    17
 -2.5607096119557582E-01 a       798     0    40     1    18
 -1.2288805072623237E-02 a       799     0    40     1    19
 -3.0551291040586407E-02 a       800     0    40     1    20
  5.1127445733831565E-02 a       801     0    41     1     1
  1.2360249491373494E-01 a       802     0    41     1     2
  4.7049258434308995E-02 a       803     0    41     1     3
  2.6900304495282453E-03 a       804     0    41     1     4
 -8.8650301199801093E-02 a       805     0    41     1     5
  3.0642461950204744E-02 a       806     0    41     1     6
  9.6100133762364481E-02 a       807     0    41     1     7
 -1.9859542502194322E-02 a       808     0    41     1     8
  1.4942563564304684E-01 a       809     0    41     1     9
 -4.0944707319728497E-02 a       810     0    41     1    10
  8.6158129032271824E-02 a       811     0    41     1    11
 -1.9589980087072825E-02 a       812     0    41     1    12
  2.2027310480250369E-02 a       813     0    41     1    13
 -6.6707124079072616E-02 a       814     0    41     1    14
  6.5598986105073878E-02 a       815     0    41     1    15
 -2.5546302465647878E-02 a       816     0    41     1    16
  1.5127369157164419E-01 a       817     0    41     1    17
  6.7968163363029910E-02 a       818     0    41     1    18
 -1.5811335069575654E-02 a       819     0    41     1    19
 -1.0762945475521772E-01 a       820     0    41     1    20
  1.6482406968080301E-02 a       821     0    42     1     1
 -4.8094395004555542E-02 a       822     0    42     1     2
 -3.1569169410940179E-01 a       823     0    42     1     3
  2.3919352869550611E-01 a       824     0    42     1     4
 -2.6629417916921411E-01 a       825     0    42     1     5
  3.1592077882435138E-01 a       826     0    42     1     6
 -3.1178507845132530E-01 a       827     0    42     1     7
  1.4744603736859363E-01 a       828     0    42     1     8
 -1.8951852675029524E-01 a       829     0    42     1     9
 -9.7420278672695149E-02 a       830     0    42     1    10
  1.4243247368654402E-01 a       831     0    42     1    11
 -3.0459336579659924E-01 a       832     0    42     1    12
  3.9817184753737067E-01 a       833     0    42     1    13
 -8.2691714573557040E-01 a       834     0    42     1    14
  1.3403200411035948E-01 a       835     0    42     1    15
  1.6793123867832088E-01 a       836     0    42     1    16
  4.3175033310732303E-02 a       837     0    42     1    17
  5.2496795684712438E-01 a       838     0    42     1    18
  1.7635972388458357E-01 a       839     0    42     1    19
  1.5083645210793917E-01 a       840     0    42     1    20
  1.1220295852596228E-02 a       841     0    43     1     1
 -6.6034487741793671E-02 a       842     0    43     1     2
  6.5158471736405196E-02 a       843     0    43     1     3
 -1.4769481002484433E-01 a       844     0    43     1     4
  3.1522388859228825E-02 a       845     0    43     1     5
 -4.5454285599867771E-02 a       846     0    43     1     6
  7.7310560251077728E-02 a       847     0    43     1     7
 -1.1718440730637067E-01 a       848     0    43     1     8
  3.5553863561736697E-02 a       849     0    43     1     9
 -2.9555918839868260E-03 a       850     0    43     1    10
  8.5674651907501176E-02 a       851     0    43     1    11
 -8.2680360914962822E-02 a       852     0    43     1    12
 -2.6568532796143358E-02 a       853     0    43     1    13
  3.4842227562285069E-02 a       854     0    43     1    14
  2.2493096493802139E-02 a       855     0    43     1    15
  7.2773528855765365E-03 a       856     0    43     1    16
 -1.3441424863511572E-01 a       857     0    43     1    17
 -3.9444149416516819E-02 a       858     0    43     1    18
 -3.8114682787488335E-02 a       859     0    43     1    19
 -7.0330229430286467E-02 a       860     0    43     1    20
  5.3960060407273643E-02 a       861     0    44     1     1
  1.2743763315908230E-01 a       862     0    44     1     2
 -1.5458162736001499E-01 a       863     0    44     1     3
  3.5989905701791884E-02 a       864     0    44     1     4
  1.8572077608557602E-03 a       865     0    44     1     5
  1.0714017619361808E-01 a       866     0    44     1     6
  3.1373455437942410E-01 a       867     0    44     1     7
 -1.6335117045657221E-02 a       868     0    44     1     8
 -9.1441696251961690E-02 a       869     0    44     1     9
  2.2805788211397456E-02 a       870     0    44     1    10
  2.2454687167448112E-02 a       871     0    44     1    11
  3.8096277844222613E-02 a       872     0    44     1    12
  1.2027460560236054E-01 a       873     0    44     1    13
 -3.5603282488246894E-02 a       874     0    44     1    14
 -1.0261026242287304E-01 a       875     0    44     1    15
 -5.2324543863936201E-02 a       876     0    44     1    16
  5.6086541975521910E-02 a       877     0    44     1    17
 -4.3785975196529922E-02 a       878     0    44     1    18
 -2.7092468308406970E-01 a       879     0    44     1    19
 -2.5781183694047577E-01 a       880     0    44     1    20
  1.0832382649692231E-01 a       881     0    45     1     1
 -7.1039115249945980E-02 a       882     0    45     1     2
 -2.2457370919208918E-02 a       883     0    45     1     3
  3.4618720367308992E-01 a       884     0    45     1     4
 -7.4023027971008251E-02 a       885     0    45     1     5
  1.0583371558998532E-01 a       886     0    45     1     6
 -2.9148443280601821E-01 a       887     0    45     1     7
  1.5670384812674440E-01 a       888     0    45     1     8
  9.0181087582431096E-02 a       889     0    45     1     9
  3.1520585607261405E-02 a       890     0    45     1    10
 -4.8829576015751365E-02 a       891     0    45     1    11
  7.7602696861387474E-02 a       892     0    45     1    12
 -9.2446628890403643E-02 a       893     0    45     1    13
  1.4846442753624231E-01 a       894     0    45     1    14
 -3.0145870129786267E-02 a       895     0    45     1    15
 -7.8807578625692459E-02 a       896     0    45     1    16
  9.6894420670785886E-01 a       897     0    45     1    17
 -3.1184386581950867E-02 a       898     0    45     1    18
 -2.6494412088261193E-01 a       899     0    45     1    19
  1.0021870946137174E-01 a       900     0    45     1    20
 -5.4053503900569205E-02 a       901     0    46     1     1
  6.8444120777271439E-02 a       902     0    46     1     2
  6.1864944340766937E-03 a       903     0    46     1     3
 -3.1163194992462378E-02 a       904     0    46     1     4
  1.8327584653992915E-03 a       905     0    46     1     5
 -1.2069757418421839E-03 a       906     0    46     1     6
  7.8149832411340565E-03 a       907     0    46     1     7
 -3.6873964757371855E-02 a       908     0    46     1     8
 -6.1354514471418285E-02 a       909     0    46     1     9
 -1.2416724836721170E-01 a       910     0    46     1    10
 -1.6379055866816674E-02 a       911     0    46     1    11
 -7.5861575179418952E-02 a       912     0    46     1    12
 -7.2559850448519023E-02 a       913     0    46     1    13
 -2.7032504023985684E-02 a       914     0    46     1    14
  1.6500223908706362E-02 a       915     0    46     1    15
  5.7350978080843773E-02 a       916     0    46     1    16
  2.4746677308821752E-01 a       917     0    46     1    17
 -4.9271615979058466E-03 a       918     0    46     1    18
  7.9142436004958506E-03 a       919     0    46     1    19
 -3.4816221837302826E-02 a       920     0    46     1    20
  2.1280152831259794E-02 a       921     0    47     1     1
 -2.7827649552043504E-02 a       922     0    47     1     2
  1.8739574454962252E-01 a       923     0    47     1     3
 -3.4623586273169367E-02 a       924     0    47     1     4
  8.3821875892778286E-02 a       925     0    47     1     5
 -3.4586245774833588E-02 a       926     0    47     1     6
 -2.8435012956988449E-02 a       927     0    47     1     7
  5.2094060766549953E-02 a       928     0    47     1     8
  1.2642097728960988E-01 a       929     0    47     1     9
 -2.7192267834164224E-01 a       930     0    47     1    10
  2.1692646234304902E-01 a       931     0    47     1    11
 -1.3122143323132593E-01 a       932     0    47     1    12
 -6.6020263740473498E-02 a       933     0    47     1    13
 -1.0192767999039200E-01 a       934     0    47     1    14
  9.2389957395942510E-02 a       935     0    47     1    15
  1.4486631797699545E-01 a       936     0    47     1    16
  1.9325787608886022E-01 a       937     0    47     1    17
 -1.5753505212328781E-01 a       938     0    47     1    18
  2.0251549210618988E-01 a       939     0    47     1    19
  5.0416487703995816E-02 a       940     0    47     1    20
  1.0921055248389090E-01 a       941     0    48     1     1
  2.0098076951894955E-01 a       942     0    48     1     2
  3.0186648057018617E-01 a       943     0    48     1     3
 -1.8458625223274244E-01 a       944     0    48     1     4
  4.9354358425865601E-02 a       945     0    48     1     5
  2.1992525274042760E-01 a       946     0    48     1     6
  3.0390808956104398E-01 a       947     0    48     1     7
 -9.5118734486496936E-02 a       948     0    48     1     8
 -2.8380693710136795E-01 a       949     0    48     1     9
 -3.9680831039756786E-01 a       950     0    48     1    10
 -2.5032980668908085E-02 a       951     0    48     1    11
 -2.3275692974126153E-01 a       952     0    48     1    12
  1.3281341486003848E-01 a       953     0    48     1    13
 -4.5967661391269961E-02 a       954     0    48     1    14
  1.3149805453426927E-01 a       955     0    48     1    15
  6.1326772801363012E-02 a       956     0    48     1    16
  7.9598536100830911E-02 a       957     0    48     1    17
 -1.6629718815187954E-02 a       958     0    48     1    18
  3.4413219254342743E-02 a       959     0    48     1    19
 -3.7306993241862513E-01 a       960     0    48     1    20
 -3.1787269173253457E-01 a       961     0    49     1     1
 -1.9962487472988147E-01 a       962     0    49     1     2
 -1.3394389597124914E-01 a       963     0    49     1     3
  3.0623831705880532E-02 a       964     0    49     1     4
  1.0317540154848136E-01 a       965     0    49     1     5
 -1.1860952483428028E-01 a       966     0    49     1     6
 -5.4828139685358923E-01 a       967     0    49     1     7
  3.0045460159698806E-01 a       968     0    49     1     8
  5.5330170761454717E-02 a       969     0    49     1     9
 -3.5937962792321970E-01 a       970     0    49     1    10
 -2.6221359780077719E-01 a       971     0    49     1    11
  1.5158012277659508E-01 a       972     0    49     1    12
 -8.4567810067528976E-02 a       973     0    49     1    13
  4.6097865545930655E-01 a       974     0    49     1    14
  8.0106354206403024E-02 a       975     0    49     1    15
  4.5565467821391994E-02 a       976     0    49     1    16
 -2.6474076796855039E-01 a       977     0    49     1    17
 -3.2577248306149359E-01 a       978     0    49     1    18
  2.0396676501528013E-01 a       979     0    49     1    19
 -1.4996517758403663E-01 a       980     0    49     1    20
  9.3980908156222395E-03 a       981     0    50     1     1
 -7.9135733228451938E-02 a       982     0    50     1     2
 -3.4374060183373731E-02 a       983     0    50     1     3
  1.0477460892553725E-02 a       984     0    50     1     4
  1.0564310110512528E-02 a       985     0    50     1     5
 -1.5155802303099139E-01 a       986     0    50     1     6
 -2.9263756907673293E-03 a       987     0    50     1     7
 -5.4440005976125978E-02 a       988     0    50     1     8
  5.4929498281307818E-02 a       989     0    50     1     9
 -2.0069746369199386E-02 a       990     0    50     1    10
  7.9508893145547571E-02 a       991     0    50     1    11
 -9.1470460139504509E-02 a       992     0    50     1    12
 -1.0557845219938718E-02 a       993     0    50     1    13
  1.0819927801203737E-02 a       994     0    50     1    14
  5.7941082971452042E-02 a       995     0    50     1    15
 -1.5473973099649568E-02 a       996     0    50     1    16
 -7.9615475021784510E-02 a       997     0    50     1    17
 -4.6183656412356833E-02 a       998     0    50     1    18
  1.2238652338892876E-01 a       999     0    50     1    19
 -1.1353900753679213E-02 a      1000     0    50     1    20
  2.3201992016181949E-01 a      1001     0    51     1     1
  4.4270931843869166E-01 a      1002     0    51     1     2
  7.0880410972677399E-01 a      1003     0    51     1     3
  6.1014376929475686E-02 a      1004     0    51     1     4
  1.5240171278696421E-01 a      1005     0    51     1     5
  2.1240281342383452E-01 a      1006     0    51     1     6
 -1.1557854454207538E-01 a      1007     0    51     1     7
 -1.4160440814524070E-01 a      1008     0    51     1     8
  4.0443295856664346E-01 a      1009     0    51     1     9
  3.1933801422353825E-01 a      1010     0    51     1    10
  7.4534874241931248E-01 a      1011     0    51     1    11
 -5.2839218707681013E-01 a      1012     0    51     1    12
  4.8727627056791525E-02 a      1013     0    51     1    13
 -1.2940146714512404E+00 a      1014     0    51     1    14
  1.6180000182928092E-01 a      1015     0    51     1    15
  6.6031954363942058E-01 a      1016     0    51     1    16
  1.0732843040092309E-01 a      1017     0    51     1    17
  1.1493315734646916E+00 a      1018     0    51     1    18
  3.8781945774336779E-01 a      1019     0    51     1    19
  7.2238108665170853E-01 a      1020     0    51     1    20
  1.4949373736528301E-01 a      1021     0    52     1     1
 -1.8469241200150810E-01 a      1022     0    52     1     2
  6.2778117452623905E-02 a      1023     0    52     1     3
 -2.6380632962593081E-01 a      1024     0    52     1     4
  2.6012117811340202E-01 a      1025     0    52     1     5
 -1.2820667356697441E-01 a      1026     0    52     1     6
  2.2722168105132309E-01 a      1027     0    52     1     7
 -9.1442510307730249E-02 a      1028     0    52     1     8
 -5.5327058817418999E-02 a      1029     0    52     1     9
  8.2212151449410020E-02 a      1030     0    52     1    10
  1.5985934248152855E-01 a      1031     0    52     1    11
 -1.8213406321175624E-03 a      1032     0    52     1    12
  1.1411427529468617E-01 a      1033     0    52     1    13
 -2.6020542218091036E-01 a      1034     0    52     1    14
  2.7052649016238810E-02 a      1035     0    52     1    15
  8.1908981035916623E-02 a      1036     0    52     1    16
  9.0063310551447492E-02 a      1037     0    52     1    17
 -2.3657535391036024E-03 a      1038     0    52     1    18
 -9.3821009632985980E-02 a      1039     0    52     1    19
  9.8422395982449229E-02 a      1040     0    52     1    20
 -2.7466818483143279E-02 a      1041     0    53     1     1
 -6.4235350328134933E-02 a      1042     0    53     1     2
 -8.3761385865846916E-02 a      1043     0    53     1     3
  9.6444780982046022E-03 a      1044     0    53     1     4
  8.5831096813435689E-02 a      1045     0    53     1     5
 -9.7175891629763290E-03 a      1046     0    53     1     6
 -7.0661103942642287E-02 a      1047     0    53     1     7
  3.6065416869148770E-02 a      1048     0    53     1     8
 -1.1723086017328385E-01 a      1049     0    53     1     9
  1.7941593191396613E-02 a      1050     0    53     1    10
 -1.2261908828306947E-01 a      1051     0    53     1    11
  5.2603714889746377E-02 a      1052     0    53     1    12
  5.7406657386968062E-02 a      1053     0    53     1    13
  9.8784660911809875E-04 a      1054     0    53     1    14
 -6.9122529449888906E-02 a      1055     0    53     1    15
  8.4871361801433249E-03 a      1056     0    53     1    16
  9.8865092557370943E-02 a      1057     0    53     1    17
 -5.6006789451114036E-02 a      1058     0    53     1    18
  1.2825718719314116E-01 a      1059     0    53     1    19
  1.3786150975873334E-02 a      1060     0    53     1    20
 -7.8828856716617476E-02 a      1061     0    54     1     1
  7.4156055151454139E-02 a      1062     0    54     1     2
 -2.0188810346220698E-01 a      1063     0    54     1     3
 -1.6482232993330972E-01 a      1064     0    54     1     4
  5.1190285177139520E-02 a      1065     0    54     1     5
 -1.7564104663428562E-01 a      1066     0    54     1     6
  3.4938663296168454E-01 a      1067     0    54     1     7
 -1.9976430376856725E-04 a      1068     0    54     1     8
 -5.5419191911520701E-03 a      1069     0    54     1     9
 -3.9799945012156043E-02 a      1070     0    54     1    10
 -3.5492698470416195E-01 a      1071     0    54     1    11
  1.7435935260205981E-01 a      1072     0    54     1    12
 -2.5416488719177014E-02 a      1073     0    54     1    13
  2.7032551834058161E-01 a      1074     0    54     1    14
 -2.4032060106516980E-02 a      1075     0    54     1    15
 -1.5328012938573327E-01 a      1076     0    54     1    16
  2.5276170015311944E-01 a      1077     0    54     1    17
 -5.0955577661940310E-01 a      1078     0    54     1    18
  5.1602497273891247E-02 a      1079     0    54     1    19
 -2.4447081691385025E-01 a      1080     0    54     1    20
  8.9740626676242641E-01 b      1081     1     1
  1.4403295654002037E+00 b      1082     1     2
 -1.0587801843407108E+00 b      1083     1     3
 -9.5291862666652308E-02 b      1084     1     4
  9.8087221964839966E-01 b      1085     1     5
  1.5111441735875897E-01 b      1086     1     6
 -1.1144241917323638E+00 b      1087     1     7
 -3.6320513349062666E-01 b      1088     1     8
  1.3229357997968443E+00 b      1089     1     9
 -3.5163427522862650E-01 b      1090     1    10
  1.0260042904364979E+00 b      1091     1    11
  5.6934350320434401E-01 b      1092     1    12
  1.1737434951469019E+00 b      1093     1    13
  9.6680532427227550E-01 b      1094     1    14
 -2.4284910725806383E-01 b      1095     1    15
 -1.3986328117283170E-01 b      1096     1    16
 -1.4306985882532717E+00 b      1097     1    17
  1.9349473111015716E-01 b      1098     1    18
  1.1457457079561505E-01 b      1099     1    19
 -1.0884662528849323E+00 b      1100     1    20
 -5.4381476471739087E-01 a      1101     1     1     2     1
 -4.6148758375697474E-01 a      1102     1     1     2     2
 -5.8795174918607529E-01 a      1103     1     1     2     3
  4.6120969271100448E-01 a      1104     1     1     2     4
 -2.8132787680166976E-01 a      1105     1     1     2     5
 -6.9494940017345519E-02 a      1106     1     1     2     6
 -8.6189769936989746E-01 a      1107     1     1     2     7
  2.6796062928792774E-01 a      1108     1     1     2     8
 -3.0182715455252451E-01 a      1109     1     1     2     9
 -5.1760544036514922E-01 a      1110     1     1     2    10
 -2.4436111499719054E-01 a      1111     1     1     2    11
 -3.1933148737568995E-01 a      1112     1     1     2    12
  1.7567783336755780E-02 a      1113     1     1     2    13
  4.1492227833075696E-01 a      1114     1     1     2    14
  2.1736644425140721E-02 a      1115     1     1     2    15
 -6.9231393897519256E-01 a      1116     1     1     2    16
  3.4917724384927068E-01 a      1117     1     1     2    17
  5.0870341521155521E-02 a      1118     1     1     2    18
  5.1251220084722726E-01 a      1119     1     1     2    19
 -1.0797334747368566E-01 a      1120     1     1     2    20
 -3.6619782773255510E-01 a      1121     1     2     2     1
  2.8011414196351830E-01 a      1122     1     2     2     2
  7.8286881286164622E-02 a      1123     1     2     2     3
  6.1544710942542791E-01 a      1124     1     2     2     4
  1.5051847082269967E-01 a      1125     1     2     2     5
 -6.2949859003690331E-03 a      1126     1     2     2     6
 -1.3357868849211424E-02 a      1127     1     2     2     7
 -2.5828784168203256E-01 a      1128     1     2     2     8
 -9.0385768230314273E-03 a      1129     1     2     2     9
  4.4529155144231386E-01 a      1130     1     2     2    10
 -4.6575619425007164E-01 a      1131     1     2     2    11
  5.0206237926241526E-01 a      1132     1     2     2    12
  7.1499219772055173E-02 a      1133     1     2     2    13
  1.0359054479955257E-01 a      1134     1     2     2    14
  4.3017859452457669E-01 a      1135     1     2     2    15
 -5.8226306501577541E-01 a      1136     1     2     2    16
 -3.2867764290360890E-01 a      1137     1     2     2    17
  5.4584980895385737E-01 a      1138     1     2     2    18
 -3.8078221534911627E-01 a      1139     1     2     2    19
  4.4660230580306499E-02 a      1140     1     2     2    20
 -2.9170270585255409E-01 a      1141     1     3     2     1
 -5.4364241239491767E-02 a      1142     1     3     2     2
  2.7055696568385956E-01 a      1143     1     3     2     3
 -1.2937727434195087E-01 a      1144     1     3     2     4
 -1.0889320983585218E-02 a      1145     1     3     2     5
  3.2473616078404266E-02 a      1146     1     3     2     6
 -6.3361827695441908E-01 a      1147     1     3     2     7
  8.7011884434029541E-01 a      1148     1     3     2     8
 -3.2624995525474682E-01 a      1149     1     3     2     9
  1.4474818440750187E-01 a      1150     1     3     2    10
  4.1433539424392685E-01 a      1151     1     3     2    11
 -2.0431890965845462E-01 a      1152     1     3     2    12
 -2.4820459523428459E-01 a      1153     1     3     2    13
  6.8081944702401742E-01 a      1154     1     3     2    14
  7.0668886004497056E-01 a      1155     1     3     2    15
  7.7493691693256816E-01 a      1156     1     3     2    16
  5.6230512094728990E-01 a      1157     1     3     2    17
  9.3593174299781354E-02 a      1158     1     3     2    18
 -4.5835113266164268E-02 a      1159     1     3     2    19
  1.0060421775107822E+00 a      1160     1     3     2    20
  4.4784025841921082E-01 a      1161     1     4     2     1
 -1.4252783844799119E-01 a      1162     1     4     2     2
 -4.3129933834565676E-01 a      1163     1     4     2     3
 -5.7919806262553730E-01 a      1164     1     4     2     4
 -1.2572260531198939E-01 a      1165     1     4     2     5
  1.1372805385881578E-01 a      1166     1     4     2     6
  7.1024607793615069E-01 a      1167     1     4     2     7
  4.7589675140005444E-01 a      1168     1     4     2     8
  9.2797160077515331E-02 a      1169     1     4     2     9
 -4.2574554298084416E-01 a      1170     1     4     2    10
 -2.2220494129883533E-01 a      1171     1     4     2    11
 -1.6214383421458839E-02 a      1172     1     4     2    12
 -6.9922075251452565E-01 a      1173     1     4     2    13
  1.2191034722416708E-01 a      1174     1     4     2    14
 -4.5287193916364360E-01 a      1175     1     4     2    15
  1.8986298067890270E-01 a      1176     1     4     2    16
 -1.4923879432663123E-01 a      1177     1     4     2    17
 -3.8593030110867127E-01 a      1178     1     4     2    18
 -8.6711211089652440E-01 a      1179     1     4     2    19
  3.0539028703032840E-02 a      1180     1     4     2    20
  3.9597035165285782E-01 a      1181     1     5     2     1
 -6.3307100684143067E-02 a      1182     1     5     2     2
  1.1426893609629778E+00 a      1183     1     5     2     3
  1.0491124586191383E-02 a      1184     1     5     2     4
  1.3083803995012089E+00 a      1185     1     5     2     5
  1.1540078484925163E+00 a      1186     1     5     2     6
  1.6394423130209260E-01 a      1187     1     5     2     7
 -1.0219331408135238E-01 a      1188     1     5     2     8
 -6.1009862833936668E-01 a      1189     1     5     2     9
  6.9776682776480081E-01 a      1190     1     5     2    10
  1.7195372386746891E-01 a      1191     1     5     2    11
  8.7980977824311454E-02 a      1192     1     5     2    12
 -2.8898661390458968E-01 a      1193     1     5     2    13
  2.0749006986760563E-02 a      1194     1     5     2    14
  5.4181543595605763E-01 a      1195     1     5     2    15
  6.8222523158835302E-01 a      1196     1     5     2    16
  5.7227490969498973E-01 a      1197     1     5     2    17
  1.3110008726354547E-01 a      1198     1     5     2    18
 -6.2998889298469096E-01 a      1199     1     5     2    19
  1.0269804517652565E+00 a      1200     1     5     2    20
  1.9792382240867126E-02 a      1201     1     6     2     1
 -4.8200994002475678E-01 a      1202     1     6     2     2
  4.8019759722945904E-01 a      1203     1     6     2     3
 -3.7081217518189873E-02 a      1204     1     6     2     4
  6.4950442874159131E-01 a      1205     1     6     2     5
  2.0134935161936757E-01 a      1206     1     6     2     6
  7.2364089308944057E-01 a      1207     1     6     2     7
  6.1706658178872453E-01 a      1208     1     6     2     8
  1.1798650648291803E-01 a      1209     1     6     2     9
 -2.7047797975327270E-01 a      1210     1     6     2    10
  1.5163462859200855E-01 a      1211     1     6     2    11
  4.2992035955993002E-01 a      1212     1     6     2    12
  5.3531525431444493E-01 a      1213     1     6     2    13
  6.2897060976426367E-01 a      1214     1     6     2    14
 -5.1593920282632488E-01 a      1215     1     6     2    15
 -5.3567745095341335E-01 a      1216     1     6     2    16
 -5.2004064679309936E-01 a      1217     1     6     2    17
  9.3794693198357781E-01 a      1218     1     6     2    18
 -4.0416496730531076E-01 a      1219     1     6     2    19
  4.5200052693786497E-01 a      1220     1     6     2    20
 -3.1907227047022840E-01 a      1221     1     7     2     1
  4.6270887013715921E-02 a      1222     1     7     2     2
  3.8845665318480632E-01 a      1223     1     7     2     3
 -6.6742331764981233E-01 a      1224     1     7     2     4
  4.5314708576137763E-01 a      1225     1     7     2     5
  4.1721852779165847E-01 a      1226     1     7     2     6
 -4.2891924049684566E-01 a      1227     1     7     2     7
  3.0396290356416622E-01 a      1228     1     7     2     8
  3.6417777223158376E-01 a      1229     1     7     2     9
 -6.8166971192703141E-01 a      1230     1     7     2    10
 -2.4169177137666722E-01 a      1231     1     7     2    11
 -5.5201731864885006E-01 a      1232     1     7     2    12
  3.9879540907137842E-02 a      1233     1     7     2    13
  5.2589329797691053E-01 a      1234     1     7     2    14
  4.5635171198469771E-01 a      1235     1     7     2    15
 -6.6428382921371607E-03 a      1236     1     7     2    16
  7.4815914386891147E-01 a      1237     1     7     2    17
  6.3726124550810681E-01 a      1238     1     7     2    18
 -2.9862425551419697E-01 a      1239     1     7     2    19
 -6.5155062100908628E-02 a      1240     1     7     2    20
  3.9127268350402139E-01 a      1241     1     8     2     1
 -1.3079696020086884E-01 a      1242     1     8     2     2
 -2.9767539191057461E-02 a      1243     1     8     2     3
 -4.4953491988016077E-02 a      1244     1     8     2     4
 -7.3655468755494491E-01 a      1245     1     8     2     5
 -7.1847216501644651E-01 a      1246     1     8     2     6
 -8.1684460501072398E-01 a      1247     1     8     2     7
  7.3406055614983723E-01 a      1248     1     8     2     8
 -3.9940321879288421E-01 a      1249     1     8     2     9
  3.3421944438895340E-01 a      1250     1     8     2    10
  5.4858702874732956E-01 a      1251     1     8     2    11
 -2.1094458299677149E-01 a      1252     1     8     2    12
  1.7178122983049796E-01 a      1253     1     8     2    13
  3.0565899875165847E-01 a      1254     1     8     2    14
  1.1514526761711306E+00 a      1255     1     8     2    15
  6.3882925772107102E-01 a      1256     1     8     2    16
 -9.6801779601666027E-01 a      1257     1     8     2    17
  2.3905849162230000E-02 a      1258     1     8     2    18
  2.0641979620410150E-01 a      1259     1     8     2    19
  2.3948257354872615E-01 a      1260     1     8     2    20
  5.8586029127861938E-01 a      1261     1     9     2     1
  5.6495974428218820E-01 a      1262     1     9     2     2
  2.4765586225569677E-01 a      1263     1     9     2     3
 -3.3674995417423048E-01 a      1264     1     9     2     4
 -4.8452229506626326E-01 a      1265     1     9     2     5
 -1.9215363210047692E-01 a      1266     1     9     2     6
  2.9799645502660677E-01 a      1267     1     9     2     7
 -4.0293075464861128E-01 a      1268     1     9     2     8
  6.0415207900885526E-01 a      1269     1     9     2     9
 -6.5669320816129872E-01 a      1270     1     9     2    10
 -1.6584577301453707E-01 a      1271     1     9     2    11
  4.4145194935133641E-01 a      1272     1     9     2    12
  1.7857973866481552E-01 a      1273     1     9     2    13
  3.8601833090085580E-01 a      1274     1     9     2    14
 -4.7683392903286971E-02 a      1275     1     9     2    15
 -2.1523834411841286E-01 a      1276     1     9     2    16
 -4.4917151359018543E-03 a      1277     1     9     2    17
  8.1048435737057078E-01 a      1278     1     9     2    18
  5.9440589752638950E-01 a      1279     1     9     2    19
  4.2866991752499473E-01 a      1280     1     9     2    20
  3.5978348923316639E-01 a      1281     1    10     2     1
  6.0848851916703617E-01 a      1282     1    10     2     2
  2.6816050587089379E-01 a      1283     1    10     2     3
  6.1498200195807848E-05 a      1284     1    10     2     4
 -2.6060439325642987E-01 a      1285     1    10     2     5
 -1.1349228784186922E+00 a      1286     1    10     2     6
  5.4711230638711439E-01 a      1287     1    10     2     7
 -1.7916295260976350E-01 a      1288     1    10     2     8
 -3.2063986138324518E-01 a      1289     1    10     2     9
  5.3116883404031989E-01 a      1290     1    10     2    10
  3.1449071611412482E-01 a      1291     1    10     2    11
 -1.0986798963173436E+00 a      1292     1    10     2    12
 -5.6993574853107554E-01 a      1293     1    10     2    13
 -4.6344296053144649E-02 a      1294     1    10     2    14
 -6.9690732515978948E-01 a      1295     1    10     2    15
 -8.1822930123522652E-01 a      1296     1    10     2    16
  4.2794726524283355E-01 a      1297     1    10     2    17
  3.0329940449604126E-01 a      1298     1    10     2    18
 -3.3987922562510092E-01 a      1299     1    10     2    19
 -2.7127544634722356E-01 a      1300     1    10     2    20
  5.9088420773579897E-01 a      1301     1    11     2     1
  3.1424249304773888E-01 a      1302     1    11     2     2
 -2.0690971904634445E-01 a      1303     1    11     2     3
  1.0796590642804098E+00 a      1304     1    11     2     4
 -2.2705246939648105E-01 a      1305     1    11     2     5
 -5.6939476522594745E-01 a      1306     1    11     2     6
 -9.1168145741108730E-01 a      1307     1    11     2     7
  5.5620933202950795E-01 a      1308     1    11     2     8
 -4.7628907136796289E-01 a      1309     1    11     2     9
  4.4344306485677699E-02 a      1310     1    11     2    10
 -5.3648154957381310E-02 a      1311     1    11     2    11
  4.7332504648647278E-01 a      1312     1    11     2    12
 -5.8194017414045407E-01 a      1313     1    11     2    13
 -3.9829210869883130E-01 a      1314     1    11     2    14
 -3.0106699899571093E-01 a      1315     1    11     2    15
  2.4130002913681132E-02 a      1316     1    11     2    16
  2.0021435034878415E-01 a      1317     1    11     2    17
  6.1877015095495903E-02 a      1318     1    11     2    18
  2.4956871932802643E-01 a      1319     1    11     2    19
  2.9463569323036642E-01 a      1320     1    11     2    20
  2.5819591468927011E-01 a      1321     1    12     2     1
 -5.5202962718949156E-01 a      1322     1    12     2     2
 -6.9282956484961200E-01 a      1323     1    12     2     3
  9.8385437133272913E-02 a      1324     1    12     2     4
 -2.2204325823679052E-01 a      1325     1    12     2     5
  1.2201591017330173E+00 a      1326     1    12     2     6
 -8.4835173547128051E-01 a      1327     1    12     2     7
  1.7467703227203496E-01 a      1328     1    12     2     8
 -2.5071128399427822E-01 a      1329     1    12     2     9
  4.0343127120512517E-01 a      1330     1    12     2    10
 -7.1868703892155128E-01 a      1331     1    12     2    11
  3.6610973467252228E-01 a      1332     1    12     2    12
  6.7436646628191099E-02 a      1333     1    12     2    13
 -2.5216332783987960E-01 a      1334     1    12     2    14
 -1.1970153822014584E+00 a      1335     1    12     2    15
 -4.1997862105519879E-01 a      1336     1    12     2    16
  5.1531743087937598E-01 a      1337     1    12     2    17
  3.0854702838575160E-01 a      1338     1    12     2    18
 -1.0944850775993418E+00 a      1339     1    12     2    19
  7.6124256103876820E-01 a      1340     1    12     2    20
  5.2588834896631464E-01 a      1341     1    13     2     1
 -7.2441277587967090E-02 a      1342     1    13     2     2
  7.5198184596874951E-01 a      1343     1    13     2     3
  1.5326803090708921E-01 a      1344     1    13     2     4
 -1.9801221375644742E-01 a      1345     1    13     2     5
 -2.1419991199853733E-01 a      1346     1    13     2     6
  7.0216841041595157E-01 a      1347     1    13     2     7
 -2.3809624916729960E-01 a      1348     1    13     2     8
 -3.4395946549319045E-01 a      1349     1    13     2     9
  5.7402529425506887E-01 a      1350     1    13     2    10
  5.0246176492663519E-01 a      1351     1    13     2    11
 -2.5593906975319930E-01 a      1352     1    13     2    12
  2.7883004695838820E-01 a      1353     1    13     2    13
 -2.3880430362638871E-02 a      1354     1    13     2    14
  1.7215011832494942E-01 a      1355     1    13     2    15
 -3.2088507287747214E-01 a      1356     1    13     2    16
 -3.9122240292981225E-01 a      1357     1    13     2    17
  6.5009313546777181E-01 a      1358     1    13     2    18
 -5.5211179928539800E-01 a      1359     1    13     2    19
 -2.3353590792299322E-01 a      1360     1    13     2    20
  1.3780569232181131E-01 a      1361     1    14     2     1
  5.3430219244975474E-01 a      1362     1    14     2     2
 -2.2786135897882559E-01 a      1363     1    14     2     3
 -1.1465385372425089E-02 a      1364     1    14     2     4
 -1.4932242422721969E+00 a      1365     1    14     2     5
  8.7512398164775895E-01 a      1366     1    14     2     6
  4.8125895857439716E-01 a      1367     1    14     2     7
  3.9602359234483536E-01 a      1368     1    14     2     8
  2.5665003556312110E-01 a      1369     1    14     2     9
  2.5279133921012847E-01 a      1370     1    14     2    10
 -1.9845431203202782E-01 a      1371     1    14     2    11
 -3.4702174748506603E-01 a      1372     1    14     2    12
 -2.2049877198059581E-01 a      1373     1    14     2    13
  4.6514203567205720E-01 a      1374     1    14     2    14
 -2.9810925916487785E-01 a      1375     1    14     2    15
 -6.0123192296869898E-01 a      1376     1    14     2    16
 -5.6732162821125420E-01 a      1377     1    14     2    17
  9.8198176723325736E-01 a      1378     1    14     2    18
 -3.7289668519116204E-01 a      1379     1    14     2    19
 -8.4726410005566755E-01 a      1380     1    14     2    20
 -4.2945655691503637E-01 a      1381     1    15     2     1
 -3.5104345310980528E-01 a      1382     1    15     2     2
 -3.2571360035902358E-02 a      1383     1    15     2     3
  4.4191191367571325E-01 a      1384     1    15     2     4
  9.3605129155671685E-01 a      1385     1    15     2     5
  2.4761831591684544E-01 a      1386     1    15     2     6
  4.2672335544336953E-01 a      1387     1    15     2     7
  5.0633831468588919E-01 a      1388     1    15     2     8
 -2.4309892624355281E-01 a      1389     1    15     2     9
  8.1957782096018172E-02 a      1390     1    15     2    10
 -2.0354834826827062E-01 a      1391     1    15     2    11
 -4.2363446391822734E-01 a      1392     1    15     2    12
 -3.2239463835098792E-01 a      1393     1    15     2    13
  6.8074688453744414E-01 a      1394     1    15     2    14
  9.3194979153689780E-02 a      1395     1    15     2    15
 -3.6064550558965874E-01 a      1396     1    15     2    16
  3.1388196558080961E-01 a      1397     1    15     2    17
 -3.9747911638614875E-01 a      1398     1    15     2    18
  3.1740194655992532E-01 a      1399     1    15     2    19
  2.0305176254064186E-01 a      1400     1    15     2    20
  5.4793887422393539E-01 a      1401     1    16     2     1
 -2.8906743029873444E-01 a      1402     1    16     2     2
  5.1912362301696824E-01 a      1403     1    16     2     3
  1.0427932837353548E+00 a      1404     1    16     2     4
 -1.7810855397594055E-01 a      1405     1    16     2     5
 -1.3384446762247766E+00 a      1406     1    16     2     6
  4.0811080199343147E-01 a      1407     1    16     2     7
  7.3556076031032902E-01 a      1408     1    16     2     8
  4.1159461384145901E-01 a      1409     1    16     2     9
  1.7796161258384605E-01 a      1410     1    16     2    10
 -5.8521896526749262E-01 a      1411     1    16     2    11
  5.1876621358885511E-01 a      1412     1    16     2    12
 -2.5977183795634495E-01 a      1413     1    16     2    13
 -2.1627729989977804E-01 a      1414     1    16     2    14
 -7.7701608119364074E-01 a      1415     1    16     2    15
 -8.4256261955222633E-01 a      1416     1    16     2    16
  1.2234806763973760E+00 a      1417     1    16     2    17
  9.9336727775883482E-01 a      1418     1    16     2    18
 -1.3195240522716662E-02 a      1419     1    16     2    19
 -6.1969564321267885E-02 a      1420     1    16     2    20
  8.3389402833725479E-02 a      1421     1    17     2     1
  4.1426800317250234E-01 a      1422     1    17     2     2
 -1.1455744961988359E-01 a      1423     1    17     2     3
  3.2277012524612408E-01 a      1424     1    17     2     4
 -4.6487679791552095E-01 a      1425     1    17     2     5
  3.3690812417154614E-01 a      1426     1    17     2     6
 -2.6162571614503999E-01 a      1427     1    17     2     7
  4.9187599736520582E-01 a      1428     1    17     2     8
  3.8418232036844080E-02 a      1429     1    17     2     9
  1.7369582288857860E-01 a      1430     1    17     2    10
 -4.0084157181729285E-01 a      1431     1    17     2    11
 -8.7173806463773790E-02 a      1432     1    17     2    12
  1.1511321347877397E-01 a      1433     1    17     2    13
 -7.3450632633823731E-01 a      1434     1    17     2    14
  3.0397537629233823E-01 a      1435     1    17     2    15
 -3.1832784914285972E-01 a      1436     1    17     2    16
  2.5104771425427408E-01 a      1437     1    17     2    17
 -6.1835198111803200E-02 a      1438     1    17     2    18
  6.2350302933690656E-02 a      1439     1    17     2    19
  4.0987827378777397E-01 a      1440     1    17     2    20
 -1.2097780796507446E-01 a      1441     1    18     2     1
 -1.6769702597403688E-01 a      1442     1    18     2     2
  3.4412896058260189E-01 a      1443     1    18     2     3
  6.0912578223329672E-01 a      1444     1    18     2     4
  2.2411748585204339E-01 a      1445     1    18     2     5
  1.1063116621776898E+00 a      1446     1    18     2     6
 -6.7059002155428510E-02 a      1447     1    18     2     7
  3.4684933685057634E-01 a      1448     1    18     2     8
 -1.5342634042358512E-02 a      1449     1    18     2     9
 -4.9074355196180408E-01 a      1450     1    18     2    10
  1.2561230423584707E-01 a      1451     1    18     2    11
 -8.3645375798233459E-02 a      1452     1    18     2    12
 -1.5001276845361033E-01 a      1453     1    18     2    13
 -6.0485748731337896E-01 a      1454     1    18     2    14
  1.0346454612393146E+00 a      1455     1    18     2    15
  1.5480624152439307E-01 a      1456     1    18     2    16
  5.9065258753957139E-01 a      1457     1    18     2    17
  3.1573041922249745E-02 a      1458     1    18     2    18
  2.6867373085376595E-01 a      1459     1    18     2    19
 -3.0954619836488262E-01 a      1460     1    18     2    20
 -3.5355571449262385E-01 a      1461     1    19     2     1
 -4.2210543647158716E-01 a      1462     1    19     2     2
  1.7424139733804980E-01 a      1463     1    19     2     3
  2.0567803104299165E-01 a      1464     1    19     2     4
  2.0400178668440145E-02 a      1465     1    19     2     5
  1.5182961683483973E-01 a      1466     1    19     2     6
  2.5200922191937197E-01 a      1467     1    19     2     7
 -2.9042442183847317E-02 a      1468     1    19     2     8
  1.4623565379850462E-01 a      1469     1    19     2     9
  3.0604471211363160E-01 a      1470     1    19     2    10
 -5.7247274105744664E-02 a      1471     1    19     2    11
 -5.2650188149604227E-01 a      1472     1    19     2    12
 -4.1822277148228532E-01 a      1473     1    19     2    13
  5.0197075550965931E-01 a      1474     1    19     2    14
  2.3837714218820871E-01 a      1475     1    19     2    15
  7.0553677066406528E-01 a      1476     1    19     2    16
  5.8342127225873497E-01 a      1477     1    19     2    17
 -1.1813236313875619E-01 a      1478     1    19     2    18
  4.4908356562608616E-02 a      1479     1    19     2    19
 -4.1370216256114367E-01 a      1480     1    19     2    20
  1.5412552578301458E-01 a      1481     1    20     2     1
 -3.1984477118829530E-01 a      1482     1    20     2     2
  6.1403016664485077E-01 a      1483     1    20     2     3
 -2.3652609633174448E-01 a      1484     1    20     2     4
  1.2081061625859155E+00 a      1485     1    20     2     5
  3.7467388465068618E-01 a      1486     1    20     2     6
 -4.2801724519284862E-01 a      1487     1    20     2     7
  4.3797743331870115E-01 a      1488     1    20     2     8
  1.1423553558746266E-01 a      1489     1    20     2     9
 -1.0698791115460859E+00 a      1490     1    20     2    10
  1.8673514977033942E-01 a      1491     1    20     2    11
  6.4248414638498064E-01 a      1492     1    20     2    12
  2.1218301798586139E-01 a      1493     1    20     2    13
 -3.3056760092315773E-01 a      1494     1    20     2    14
 -3.1371812753631062E-01 a      1495     1    20     2    15
 -1.0456341408951998E-02 a      1496     1    20     2    16
  3.1988136304143400E-01 a      1497     1    20     2    17
  5.8145340250398947E-01 a      1498     1    20     2    18
  4.6857787383775390E-01 a      1499     1    20     2    19
 -6.0021462629337108E-01 a      1500     1    20     2    20
  1.1385221727659629E+00 b      1501     2     1
  1.5206386225033695E+00 b      1502     2     2
 -6.3147852808789984E-01 b      1503     2     3
 -3.4207445930262087E-01 b      1504     2     4
 -4.7828316807315185E-01 b      1505     2     5
  1.4340920292930472E+00 b      1506     2     6
  1.1724613663635732E+00 b      1507     2     7
 -6.6767559828118450E-01 b      1508     2     8
  8.7904142648842931E-01 b      1509     2     9
 -1.1228434977810628E+00 b      1510     2    10
  2.5581405004834035E-01 b      1511     2    11
  1.4356832301521529E+00 b      1512     2    12
  1.6242535911749851E+00 b      1513     2    13
  1.3943588973200418E+00 b      1514     2    14
 -1.4787390466645711E+00 b      1515     2    15
 -2.6724211003464621E-01 b      1516     2    16
 -6.9057432691172504E-01 b      1517     2    17
 -1.9153500256312805E-01 b      1518     2    18
 -1.3737167487906063E+00 b      1519     2    19
  1.7176186167766938E-01 b      1520     2    20
  9.2981854927330854E-02 a      1521     2     1     3     1
 -1.3233744760382249E-01 a      1522     2     2     3     1
 -5.3049246624904922E-01 a      1523     2     3     3     1
 -4.1687657410168488E-01 a      1524     2     4     3     1
  1.5962198778826644E+00 a      1525     2     5     3     1
 -6.8428062089987984E-01 a      1526     2     6     3     1
 -1.1744556221520019E+00 a      1527     2     7     3     1
  7.3277659855435850E-01 a      1528     2     8     3     1
  6.9355873970802040E-01 a      1529     2     9     3     1
  1.6555575523422583E-01 a      1530     2    10     3     1
  7.9799990289295319E-01 a      1531     2    11     3     1
 -1.8901725519930132E-01 a      1532     2    12     3     1
  2.2354853249267947E-01 a      1533     2    13     3     1
 -8.7322416122924296E-01 a      1534     2    14     3     1
  4.8435508499053781E-01 a      1535     2    15     3     1
 -1.6205147616074800E-01 a      1536     2    16     3     1
  1.0449682730806404E+00 a      1537     2    17     3     1
 -4.7590961540664001E-01 a      1538     2    18     3     1
 -3.1380736216233379E-01 a      1539     2    19     3     1
  9.1268230597237057E-02 a      1540     2    20     3     1
 -9.6691313174851057E-01 b      1541     3     1
