################################################################################
# Neural network connection values (weights and biases).
################################################################################
# Col  Name       Description
################################################################################
# 1    connection Neural network connection value.
# 2    t          Connection type (a = weight, b = bias).
# 3    index      Index enumerating weights.
# 4    l_s        Starting point layer (end point layer for biases).
# 5    n_s        Starting point neuron in starting layer (end point neuron for biases).
# 6    l_e        End point layer.
# 7    n_e        End point neuron in end layer.
################################################################################
#                      1 2         3     4     5     6     7
#             connection t     index   l_s   n_s   l_e   n_e
############################################################
 -4.0861780464726005E-01 a         1     0     1     1     1
  1.5439626838578446E-01 a         2     0     1     1     2
 -4.8907277275837635E-01 a         3     0     1     1     3
  3.5129559745510054E-02 a         4     0     1     1     4
  1.3161684392036274E-01 a         5     0     1     1     5
  1.5764619528591034E-01 a         6     0     1     1     6
  3.9976701800395449E-03 a         7     0     1     1     7
 -1.7316948859098630E-01 a         8     0     1     1     8
 -4.4228579180538236E-01 a         9     0     1     1     9
  2.2756346554143778E-01 a        10     0     1     1    10
  9.7070608330824953E-02 a        11     0     1     1    11
 -2.8937171457091504E-01 a        12     0     1     1    12
  3.1789968014129455E-01 a        13     0     1     1    13
  1.9716553226415567E-01 a        14     0     1     1    14
 -4.6696978944176841E-02 a        15     0     1     1    15
 -1.1806461608401155E-02 a        16     0     1     1    16
 -2.4051239746244710E-01 a        17     0     1     1    17
  5.1894815663310245E-01 a        18     0     1     1    18
  4.6549319559955399E-01 a        19     0     1     1    19
 -6.3720434762071865E-01 a        20     0     1     1    20
  3.3771442008282644E-02 a        21     0     2     1     1
 -2.7986129039521492E-02 a        22     0     2     1     2
 -1.7539916118596841E-01 a        23     0     2     1     3
  1.2778853564372464E-01 a        24     0     2     1     4
 -1.3952972751666640E-01 a        25     0     2     1     5
  9.3721580225728907E-02 a        26     0     2     1     6
  1.0802224282357101E-01 a        27     0     2     1     7
  2.9073854808178302E-02 a        28     0     2     1     8
 -1.2495383574367636E-01 a        29     0     2     1     9
 -1.7021915163964968E-01 a        30     0     2     1    10
  6.8301408334877370E-02 a        31     0     2     1    11
 -1.3102066726285730E-01 a        32     0     2     1    12
  7.8617255304533992E-02 a        33     0     2     1    13
  2.9608932150109922E-02 a        34     0     2     1    14
 -7.1434244786565251E-02 a        35     0     2     1    15
 -2.1656457291072279E-01 a        36     0     2     1    16
  1.3618406002737821E-01 a        37     0     2     1    17
  2.1770782548284859E-01 a        38     0     2     1    18
  1.0672042281608150E-01 a        39     0     2     1    19
 -1.9221875949336750E-01 a        40     0     2     1    20
  8.4897152692454486E-02 a        41     0     3     1     1
  6.3305310074546595E-02 a        42     0     3     1     2
  1.7280671201988082E-01 a        43     0     3     1     3
 -1.3733272690420611E-01 a        44     0     3     1     4
  3.5080041710237472E-02 a        45     0     3     1     5
 -1.5667895768551834E-01 a        46     0     3     1     6
 -8.7099428343587415E-02 a        47     0     3     1     7
  4.1241857629783080E-03 a        48     0     3     1     8
 -2.9701382885231900E-02 a        49     0     3     1     9
 -1.7583529010579024E-02 a        50     0     3     1    10
  5.3863491890628598E-02 a        51     0     3     1    11
  1.0701418342691235E-01 a        52     0     3     1    12
 -1.0046340886153488E-01 a        53     0     3     1    13
  3.8506932393686299E-02 a        54     0     3     1    14
  4.2271253405356958E-02 a        55     0     3     1    15
  3.9583550786321663E-02 a        56     0     3     1    16
 -1.7221021058980521E-01 a        57     0     3     1    17
  1.5818532489869755E-01 a        58     0     3     1    18
  2.8458225703811450E-02 a        59     0     3     1    19
  1.4287759543888201E-01 a        60     0     3     1    20
  1.0796178676916102E+00 a        61     0     4     1     1
 -1.9691253706014061E-01 a        62     0     4     1     2
 -2.9991524379987079E-02 a        63     0     4     1     3
 -4.0043211966113307E-01 a        64     0     4     1     4
 -2.1696394824838286E-01 a        65     0     4     1     5
 -3.2055196060155594E-01 a        66     0     4     1     6
 -6.8943231074435951E-01 a        67     0     4     1     7
  2.0065660687547629E-01 a        68     0     4     1     8
  1.1050064539261711E-01 a        69     0     4     1     9
 -2.0944556010143192E-01 a        70     0     4     1    10
 -7.6592001745177773E-01 a        71     0     4     1    11
  1.4944808547436178E-01 a        72     0     4     1    12
 -4.1983479831264525E-01 a        73     0     4     1    13
  2.8783130999926282E-01 a        74     0     4     1    14
  9.4909880431538274E-01 a        75     0     4     1    15
 -1.0937855884791730E+00 a        76     0     4     1    16
  2.1726088617310813E-01 a        77     0     4     1    17
  1.7967049319222603E-01 a        78     0     4     1    18
 -1.9935407238906142E-01 a        79     0     4     1    19
  1.3705330007299696E-01 a        80     0     4     1    20
 -2.5154817404905627E-01 a        81     0     5     1     1
 -1.6737935673866136E-01 a        82     0     5     1     2
  2.1947454665709951E-01 a        83     0     5     1     3
 -1.3609641385206164E-01 a        84     0     5     1     4
  8.7471685883826603E-02 a        85     0     5     1     5
 -3.4249152513709115E-02 a        86     0     5     1     6
 -2.2742702288842284E-01 a        87     0     5     1     7
 -1.7441776619272900E-01 a        88     0     5     1     8
  2.1949075049538794E-01 a        89     0     5     1     9
  3.2023761053332278E-01 a        90     0     5     1    10
 -3.1573298225859636E-01 a        91     0     5     1    11
  5.3116717187318946E-02 a        92     0     5     1    12
 -5.0808984291113211E-02 a        93     0     5     1    13
 -2.2045520490638543E-01 a        94     0     5     1    14
 -1.0248453545300415E-01 a        95     0     5     1    15
  1.9219266176767555E-01 a        96     0     5     1    16
 -5.5879797158188048E-02 a        97     0     5     1    17
 -2.0855317717386768E-01 a        98     0     5     1    18
 -4.4857208881293048E-03 a        99     0     5     1    19
  1.0736590731878096E-01 a       100     0     5     1    20
 -1.2790875165046708E-01 a       101     0     6     1     1
  2.0402201854120023E-02 a       102     0     6     1     2
 -2.9862178261045824E-01 a       103     0     6     1     3
  1.1214156334742366E-01 a       104     0     6     1     4
 -8.0094167871965050E-02 a       105     0     6     1     5
 -9.6561598609709809E-02 a       106     0     6     1     6
  8.0000094117029796E-02 a       107     0     6     1     7
  1.0952681187707194E-01 a       108     0     6     1     8
 -1.0586863629223039E-01 a       109     0     6     1     9
  3.8797702394071681E-02 a       110     0     6     1    10
 -1.0032596647045927E-01 a       111     0     6     1    11
 -1.2622773759094891E-02 a       112     0     6     1    12
  1.1125180686298618E-01 a       113     0     6     1    13
 -2.0396404968069920E-01 a       114     0     6     1    14
 -3.3363921950446747E-02 a       115     0     6     1    15
 -1.4095263294006863E-01 a       116     0     6     1    16
  1.7100458101133847E-01 a       117     0     6     1    17
 -1.1534028628774257E-01 a       118     0     6     1    18
 -1.8800392260981036E-01 a       119     0     6     1    19
 -1.8261229723435909E-01 a       120     0     6     1    20
 -7.1491368314607917E-01 a       121     0     7     1     1
 -4.2725444514202994E-02 a       122     0     7     1     2
 -1.1720379281217504E-02 a       123     0     7     1     3
  1.3845701049681267E-01 a       124     0     7     1     4
 -4.4588046546148376E-02 a       125     0     7     1     5
 -4.9312839410540571E-02 a       126     0     7     1     6
 -2.2401268940954791E-01 a       127     0     7     1     7
  9.6706533669385780E-02 a       128     0     7     1     8
 -2.5838026530289404E-01 a       129     0     7     1     9
  2.5866770011152007E-01 a       130     0     7     1    10
 -2.6784764395424127E-01 a       131     0     7     1    11
 -8.9608986140934530E-02 a       132     0     7     1    12
  5.1919808927684685E-01 a       133     0     7     1    13
  3.8327962898411155E-01 a       134     0     7     1    14
 -1.0036485305230542E+00 a       135     0     7     1    15
  3.2606504509143586E-01 a       136     0     7     1    16
 -1.0060418482366380E+00 a       137     0     7     1    17
  4.6141625427103222E-01 a       138     0     7     1    18
  4.5439655068174650E-01 a       139     0     7     1    19
 -1.1486175655299047E-02 a       140     0     7     1    20
  1.7202663611330010E-01 a       141     0     8     1     1
  3.4903703439225880E-01 a       142     0     8     1     2
  4.8382281627036595E-02 a       143     0     8     1     3
 -6.9468154321478556E-02 a       144     0     8     1     4
  4.7427267942201985E-02 a       145     0     8     1     5
 -7.6418522007544190E-02 a       146     0     8     1     6
 -4.9245782227102110E-02 a       147     0     8     1     7
  1.2951016258273382E-01 a       148     0     8     1     8
 -1.3101974057132876E-01 a       149     0     8     1     9
  1.9355690275924162E-01 a       150     0     8     1    10
  4.1451506868120228E-02 a       151     0     8     1    11
 -5.5737708915748696E-02 a       152     0     8     1    12
  8.8383886284325933E-02 a       153     0     8     1    13
  2.8418126860698546E-02 a       154     0     8     1    14
  9.9698844843140955E-02 a       155     0     8     1    15
 -1.1156442649332152E-01 a       156     0     8     1    16
 -1.8452094891151460E-01 a       157     0     8     1    17
 -4.9096795096738970E-02 a       158     0     8     1    18
 -1.4968593891615648E-02 a       159     0     8     1    19
 -1.6973427389673048E-03 a       160     0     8     1    20
 -1.9867970052870432E-01 a       161     0     9     1     1
  1.4320228712997610E-01 a       162     0     9     1     2
  4.1238930509628385E-01 a       163     0     9     1     3
 -8.3667347369824854E-02 a       164     0     9     1     4
  8.5159127961631054E-02 a       165     0     9     1     5
  5.9134808538822803E-02 a       166     0     9     1     6
  6.5884762041002479E-02 a       167     0     9     1     7
 -1.3157139594093156E-01 a       168     0     9     1     8
  4.4678286041516030E-01 a       169     0     9     1     9
  2.0071448351725313E-01 a       170     0     9     1    10
 -1.2656807171889031E-01 a       171     0     9     1    11
  7.3676323988655451E-02 a       172     0     9     1    12
  1.4573755875897920E-01 a       173     0     9     1    13
 -4.7415713343552318E-01 a       174     0     9     1    14
  1.8792038370357819E-01 a       175     0     9     1    15
 -2.4428256565042307E-02 a       176     0     9     1    16
 -8.2301606197002539E-02 a       177     0     9     1    17
 -4.7285691962686255E-01 a       178     0     9     1    18
  2.3284943833520005E-01 a       179     0     9     1    19
  3.6882878712336492E-01 a       180     0     9     1    20
  9.9489486135307204E-01 a       181     0    10     1     1
 -3.4813669117334795E-01 a       182     0    10     1     2
 -2.0181320501083988E-01 a       183     0    10     1     3
 -2.4833665445118522E-01 a       184     0    10     1     4
  3.6454617362107622E-01 a       185     0    10     1     5
 -3.0363832304185023E-01 a       186     0    10     1     6
  2.4545082053577357E-02 a       187     0    10     1     7
 -6.4155355439886028E-02 a       188     0    10     1     8
  9.9508163699058155E-02 a       189     0    10     1     9
 -6.3847113634092756E-01 a       190     0    10     1    10
 -1.5130230601610575E-01 a       191     0    10     1    11
  5.5466709825731035E-02 a       192     0    10     1    12
 -6.4868899912409594E-01 a       193     0    10     1    13
  4.1185992651216183E-02 a       194     0    10     1    14
  1.0484962038261805E+00 a       195     0    10     1    15
 -2.4296384455131637E-01 a       196     0    10     1    16
  1.2677302109132704E+00 a       197     0    10     1    17
  3.1298738042299032E-02 a       198     0    10     1    18
 -1.3663368194052242E-01 a       199     0    10     1    19
 -1.3276791386391334E-01 a       200     0    10     1    20
  6.9725797946818296E-02 a       201     0    11     1     1
 -1.4515106989064311E-01 a       202     0    11     1     2
 -8.8852208995580911E-02 a       203     0    11     1     3
 -6.1694429826058828E-02 a       204     0    11     1     4
 -1.2841282236258164E-01 a       205     0    11     1     5
 -2.0843114075422434E-01 a       206     0    11     1     6
 -1.9416910092880413E-01 a       207     0    11     1     7
 -1.4435008348004408E-01 a       208     0    11     1     8
  1.4809460553879303E-01 a       209     0    11     1     9
 -2.0396287800260088E-01 a       210     0    11     1    10
 -9.6501508210228779E-02 a       211     0    11     1    11
  3.0095242962196806E-02 a       212     0    11     1    12
  9.9309699121198879E-03 a       213     0    11     1    13
 -3.2608473944641203E-01 a       214     0    11     1    14
 -2.1048740817672626E-01 a       215     0    11     1    15
 -2.6271124580948840E-01 a       216     0    11     1    16
 -1.5608971457951457E-01 a       217     0    11     1    17
 -1.3843850071175010E-01 a       218     0    11     1    18
  1.2075028879810655E-01 a       219     0    11     1    19
 -4.1234043192703490E-02 a       220     0    11     1    20
 -1.6118635058531561E-01 a       221     0    12     1     1
  2.2538027867681110E-01 a       222     0    12     1     2
  2.3484391221314965E-01 a       223     0    12     1     3
 -1.5431089676557580E-01 a       224     0    12     1     4
 -2.2837460627493172E-01 a       225     0    12     1     5
 -8.1837850594840056E-02 a       226     0    12     1     6
  2.7181228798953816E-01 a       227     0    12     1     7
 -5.4713660836236841E-02 a       228     0    12     1     8
  3.1678976294893779E-01 a       229     0    12     1     9
  1.3708180751919061E-01 a       230     0    12     1    10
  2.4452964081946155E-01 a       231     0    12     1    11
 -2.5653867140822989E-01 a       232     0    12     1    12
  3.5642219036123995E-02 a       233     0    12     1    13
 -6.5909917924372430E-01 a       234     0    12     1    14
  2.9242599677481207E-01 a       235     0    12     1    15
 -9.8449133541623116E-02 a       236     0    12     1    16
  2.8181474920845878E-01 a       237     0    12     1    17
 -1.3361696197977560E-01 a       238     0    12     1    18
 -2.5290874039632292E-02 a       239     0    12     1    19
  7.6313933607172452E-02 a       240     0    12     1    20
 -5.1184327249263006E-01 a       241     0    13     1     1
 -2.5140944152876704E-01 a       242     0    13     1     2
 -7.9258889202323268E-02 a       243     0    13     1     3
  4.3432664188915754E-01 a       244     0    13     1     4
  1.9808973934471358E-02 a       245     0    13     1     5
  3.3796907626938838E-01 a       246     0    13     1     6
 -1.8052741819702062E-01 a       247     0    13     1     7
  2.6576615684576194E-01 a       248     0    13     1     8
 -3.0926915148960749E-01 a       249     0    13     1     9
  1.1943719235929541E-01 a       250     0    13     1    10
 -3.7631997683119511E-01 a       251     0    13     1    11
 -1.4878575328961573E-02 a       252     0    13     1    12
  2.8598843738201102E-01 a       253     0    13     1    13
  3.5749844363148814E-01 a       254     0    13     1    14
 -9.7129790410262595E-01 a       255     0    13     1    15
  2.8601765549001526E-02 a       256     0    13     1    16
 -5.4806346176746801E-01 a       257     0    13     1    17
  5.1768401620787961E-02 a       258     0    13     1    18
  1.8985677107654120E-01 a       259     0    13     1    19
 -2.2971052983470158E-01 a       260     0    13     1    20
 -6.5745651211014541E-02 a       261     0    14     1     1
  3.0614179070732667E-01 a       262     0    14     1     2
  1.9098065647845724E-01 a       263     0    14     1     3
 -9.9465022431833278E-02 a       264     0    14     1     4
  1.7721668827734696E-01 a       265     0    14     1     5
  2.1961501599755640E-01 a       266     0    14     1     6
  2.1802967569349554E-01 a       267     0    14     1     7
  8.2228490345636271E-02 a       268     0    14     1     8
 -1.0952292377324506E-02 a       269     0    14     1     9
 -4.7332251860943163E-02 a       270     0    14     1    10
 -2.7044206542243843E-01 a       271     0    14     1    11
 -8.0643758090837306E-02 a       272     0    14     1    12
  3.2843978018783700E-02 a       273     0    14     1    13
 -7.4365817898301989E-02 a       274     0    14     1    14
  1.0816210032001995E-01 a       275     0    14     1    15
 -1.3674968970756862E-01 a       276     0    14     1    16
  2.9800889109723443E-02 a       277     0    14     1    17
  4.5153032174326757E-01 a       278     0    14     1    18
 -5.2089930086555367E-02 a       279     0    14     1    19
 -1.6220413546622198E-01 a       280     0    14     1    20
 -1.0823437361960202E-01 a       281     0    15     1     1
  4.0692031007237950E-01 a       282     0    15     1     2
 -1.9986129997564918E-02 a       283     0    15     1     3
 -8.8614755067671691E-02 a       284     0    15     1     4
 -4.3657536680329262E-02 a       285     0    15     1     5
 -1.2160917176802394E-01 a       286     0    15     1     6
  5.6502498535601735E-02 a       287     0    15     1     7
  3.7715696520926233E-02 a       288     0    15     1     8
  1.0540425971907556E-01 a       289     0    15     1     9
  2.7439865036702543E-01 a       290     0    15     1    10
 -1.7665543884179685E-01 a       291     0    15     1    11
  2.0481246719869040E-01 a       292     0    15     1    12
  5.0745982576216155E-03 a       293     0    15     1    13
 -1.4023037533004959E-01 a       294     0    15     1    14
  1.9233908367363392E-01 a       295     0    15     1    15
 -2.4357691861017214E-01 a       296     0    15     1    16
 -1.1053849635002980E-01 a       297     0    15     1    17
 -1.1729983977978982E-01 a       298     0    15     1    18
 -3.8130800289849102E-02 a       299     0    15     1    19
  1.8520342332036016E-01 a       300     0    15     1    20
  6.1949756297792746E-01 a       301     0    16     1     1
 -1.7178132825554507E-01 a       302     0    16     1     2
  1.1602945902938661E-02 a       303     0    16     1     3
 -2.4055655703034051E-01 a       304     0    16     1     4
  2.5710083852714706E-02 a       305     0    16     1     5
  8.8533433894869659E-02 a       306     0    16     1     6
 -3.4824809000863455E-01 a       307     0    16     1     7
 -3.6358159196626877E-01 a       308     0    16     1     8
 -8.2242406421042802E-02 a       309     0    16     1     9
 -1.7494527231515467E-01 a       310     0    16     1    10
  6.0556749267095047E-02 a       311     0    16     1    11
  1.0044105587986258E-02 a       312     0    16     1    12
 -6.6716209380119462E-02 a       313     0    16     1    13
 -4.9564895744220835E-02 a       314     0    16     1    14
  5.2305247136305455E-01 a       315     0    16     1    15
 -5.2175854700359986E-02 a       316     0    16     1    16
  9.0070063945673040E-01 a       317     0    16     1    17
  1.9813545083224551E-01 a       318     0    16     1    18
 -9.1884691326725818E-02 a       319     0    16     1    19
  1.2010865692823335E-01 a       320     0    16     1    20
  6.0279182617972743E-02 a       321     0    17     1     1
 -6.0791991548110845E-02 a       322     0    17     1     2
 -1.8107055082489673E-01 a       323     0    17     1     3
 -6.4167905012731952E-02 a       324     0    17     1     4
 -2.1628310993194053E-01 a       325     0    17     1     5
  4.7337799587170430E-02 a       326     0    17     1     6
 -1.8959424466288624E-01 a       327     0    17     1     7
 -2.2799744961323271E-02 a       328     0    17     1     8
  5.9048175473721889E-02 a       329     0    17     1     9
  5.7814960071055549E-02 a       330     0    17     1    10
  5.8426449099920341E-02 a       331     0    17     1    11
  2.1193410745140656E-01 a       332     0    17     1    12
 -2.3249230463869053E-02 a       333     0    17     1    13
 -7.1607200408288024E-02 a       334     0    17     1    14
  4.0320889706573382E-02 a       335     0    17     1    15
 -8.5850244324089386E-02 a       336     0    17     1    16
 -5.7452466743359701E-02 a       337     0    17     1    17
 -2.2467890874587509E-01 a       338     0    17     1    18
 -3.8767724183998938E-02 a       339     0    17     1    19
 -2.7855495304920652E-02 a       340     0    17     1    20
 -2.8952627838326994E-01 a       341     0    18     1     1
  2.1599725968195235E-01 a       342     0    18     1     2
  1.0482302185719368E-01 a       343     0    18     1     3
 -1.2832829190916589E-01 a       344     0    18     1     4
 -6.2098519280159234E-02 a       345     0    18     1     5
  5.8127086906426005E-02 a       346     0    18     1     6
  3.2228286262287681E-01 a       347     0    18     1     7
 -1.0540968919622706E-02 a       348     0    18     1     8
  3.0514473431568484E-01 a       349     0    18     1     9
 -9.9171420862317738E-03 a       350     0    18     1    10
  1.7526678199408849E-01 a       351     0    18     1    11
 -1.6561223183952353E-01 a       352     0    18     1    12
  1.4151084670733208E-01 a       353     0    18     1    13
 -3.4437656092682489E-01 a       354     0    18     1    14
  2.7686350529330694E-01 a       355     0    18     1    15
 -2.1684826409723362E-01 a       356     0    18     1    16
 -2.8171058166926849E-01 a       357     0    18     1    17
 -1.2402219864784694E-01 a       358     0    18     1    18
  3.4403285837697577E-02 a       359     0    18     1    19
  2.5479635613162710E-01 a       360     0    18     1    20
  7.0975138809133437E-03 a       361     0    19     1     1
 -6.7016460672675568E-02 a       362     0    19     1     2
  5.1472702417761473E-02 a       363     0    19     1     3
  3.3867356882594779E-01 a       364     0    19     1     4
  1.4877069763987466E-01 a       365     0    19     1     5
  9.6196085559878811E-02 a       366     0    19     1     6
  4.4909796813600363E-02 a       367     0    19     1     7
  3.2828683733250447E-01 a       368     0    19     1     8
 -1.7831933392422392E-01 a       369     0    19     1     9
 -1.1223506444228087E-01 a       370     0    19     1    10
 -8.1143836180074924E-02 a       371     0    19     1    11
  1.9143512948512278E-01 a       372     0    19     1    12
 -8.5841973768008520E-02 a       373     0    19     1    13
  9.2600931141167006E-02 a       374     0    19     1    14
 -4.6834825359232762E-01 a       375     0    19     1    15
  3.9093345830778801E-02 a       376     0    19     1    16
 -1.5092096938652330E-01 a       377     0    19     1    17
 -6.9722964371241092E-02 a       378     0    19     1    18
 -9.6349764715668820E-02 a       379     0    19     1    19
 -1.4978337157252777E-01 a       380     0    19     1    20
  4.2963065822189471E-02 a       381     0    20     1     1
  9.9826901695255182E-02 a       382     0    20     1     2
  1.4334134367138815E-01 a       383     0    20     1     3
 -9.1985577544430513E-02 a       384     0    20     1     4
  1.0756960519124686E-01 a       385     0    20     1     5
  9.7389809612342504E-02 a       386     0    20     1     6
  9.0655118656467762E-02 a       387     0    20     1     7
  6.0506148672260493E-02 a       388     0    20     1     8
 -8.3853064483968398E-02 a       389     0    20     1     9
  5.8604491194164067E-03 a       390     0    20     1    10
 -6.4474289668836768E-02 a       391     0    20     1    11
 -1.6555489596654488E-01 a       392     0    20     1    12
  3.6952823356583474E-02 a       393     0    20     1    13
 -5.7924882711143516E-02 a       394     0    20     1    14
  9.6559097433328873E-03 a       395     0    20     1    15
  1.2255741982973190E-01 a       396     0    20     1    16
 -1.9414974158087575E-01 a       397     0    20     1    17
 -1.3546291791529986E-02 a       398     0    20     1    18
  3.3257016742068719E-02 a       399     0    20     1    19
  3.7878145535354228E-02 a       400     0    20     1    20
 -2.1635751584886866E-02 a       401     0    21     1     1
  1.4918924518443824E-01 a       402     0    21     1     2
 -1.1237669633513493E-01 a       403     0    21     1     3
 -1.4371103169012478E-01 a       404     0    21     1     4
  3.0241068356488612E-02 a       405     0    21     1     5
 -1.6732330123602210E-01 a       406     0    21     1     6
  2.5964022836898536E-02 a       407     0    21     1     7
  5.8318863421660240E-02 a       408     0    21     1     8
 -1.6702355417394170E-02 a       409     0    21     1     9
  3.4647860198551095E-02 a       410     0    21     1    10
  5.0612360509715416E-04 a       411     0    21     1    11
  1.2363443218706296E-01 a       412     0    21     1    12
 -1.1738872921328489E-01 a       413     0    21     1    13
  1.4691541559902158E-01 a       414     0    21     1    14
  4.0319327787767277E-02 a       415     0    21     1    15
  7.0108253800021253E-02 a       416     0    21     1    16
 -1.6513944808180026E-01 a       417     0    21     1    17
  2.4493907159454018E-02 a       418     0    21     1    18
 -1.3389949509565336E-02 a       419     0    21     1    19
 -2.2358485358554774E-02 a       420     0    21     1    20
  1.8677309957954147E-01 a       421     0    22     1     1
 -1.6285476517443165E-02 a       422     0    22     1     2
  1.2087148312538411E-01 a       423     0    22     1     3
 -2.2025087893874565E-01 a       424     0    22     1     4
 -2.0465570990700419E-01 a       425     0    22     1     5
  5.8884679641387997E-03 a       426     0    22     1     6
 -4.3173421596707201E-01 a       427     0    22     1     7
 -2.3246275290323662E-01 a       428     0    22     1     8
 -4.3130519194540293E-02 a       429     0    22     1     9
  2.1255661275949564E-01 a       430     0    22     1    10
 -1.4063891751282168E-01 a       431     0    22     1    11
 -2.6592766843188995E-02 a       432     0    22     1    12
  1.7842743840353373E-01 a       433     0    22     1    13
  5.5119930813651859E-02 a       434     0    22     1    14
 -2.5560862638137963E-02 a       435     0    22     1    15
  1.0708573216370923E-01 a       436     0    22     1    16
  9.3906875226934389E-02 a       437     0    22     1    17
 -1.1035862049015524E-01 a       438     0    22     1    18
 -1.0088262770164034E-02 a       439     0    22     1    19
  7.9714854219789785E-02 a       440     0    22     1    20
 -9.0888651872093898E-02 a       441     0    23     1     1
 -6.7920141686191954E-02 a       442     0    23     1     2
 -1.2173948442770868E-01 a       443     0    23     1     3
  1.1402636879652721E-01 a       444     0    23     1     4
 -1.0509932295183638E-01 a       445     0    23     1     5
 -5.0558321951974579E-02 a       446     0    23     1     6
  1.9231641147636220E-02 a       447     0    23     1     7
 -2.9484470813677343E-02 a       448     0    23     1     8
  9.0986711754315802E-02 a       449     0    23     1     9
  6.4057336653970979E-03 a       450     0    23     1    10
 -2.7468351166625531E-02 a       451     0    23     1    11
  1.5002442398441945E-01 a       452     0    23     1    12
  3.8166414243456390E-02 a       453     0    23     1    13
  1.2357803125497764E-01 a       454     0    23     1    14
  6.7159444692596951E-02 a       455     0    23     1    15
 -6.6522597738203362E-02 a       456     0    23     1    16
  1.9401479408406824E-01 a       457     0    23     1    17
  2.8894081058525450E-02 a       458     0    23     1    18
 -4.8818935628377670E-02 a       459     0    23     1    19
  6.9971477162237214E-02 a       460     0    23     1    20
 -3.3487439158182530E-01 a       461     0    24     1     1
 -2.0984559126567555E-02 a       462     0    24     1     2
 -4.3573640732138125E-02 a       463     0    24     1     3
 -5.4293700415588009E-03 a       464     0    24     1     4
  6.2037412919899601E-02 a       465     0    24     1     5
 -2.4749456513965146E-01 a       466     0    24     1     6
  4.4611896790345007E-01 a       467     0    24     1     7
 -3.0429239173194355E-02 a       468     0    24     1     8
  3.4121761701185604E-01 a       469     0    24     1     9
 -1.7457966972267546E-02 a       470     0    24     1    10
  2.2121567533788557E-02 a       471     0    24     1    11
 -2.1996353446079339E-01 a       472     0    24     1    12
 -2.5413342019685423E-03 a       473     0    24     1    13
 -2.4505199350104637E-01 a       474     0    24     1    14
  2.6828799487359944E-01 a       475     0    24     1    15
 -1.3202869968083619E-02 a       476     0    24     1    16
 -2.5547946546828904E-02 a       477     0    24     1    17
  6.9064704682289292E-03 a       478     0    24     1    18
  1.1846232153510779E-01 a       479     0    24     1    19
  1.0486874171767932E-02 a       480     0    24     1    20
 -2.8684875479625341E-02 a       481     0    25     1     1
 -8.8807934037619315E-03 a       482     0    25     1     2
 -8.8592278559709733E-02 a       483     0    25     1     3
  1.5944751108083294E-01 a       484     0    25     1     4
  4.2418075918710996E-02 a       485     0    25     1     5
  1.7205617220008329E-01 a       486     0    25     1     6
  1.2604824344343651E-01 a       487     0    25     1     7
  1.1090481328157215E-01 a       488     0    25     1     8
 -9.9070652681285745E-02 a       489     0    25     1     9
 -1.2177687305036042E-01 a       490     0    25     1    10
  8.8096221593131088E-02 a       491     0    25     1    11
  3.0698494598560305E-02 a       492     0    25     1    12
 -8.6492739154761286E-02 a       493     0    25     1    13
 -3.5256267024862354E-03 a       494     0    25     1    14
 -5.1047134747760265E-04 a       495     0    25     1    15
 -1.3064356362351237E-01 a       496     0    25     1    16
  4.3264074974372319E-02 a       497     0    25     1    17
  1.4546797076200982E-01 a       498     0    25     1    18
 -1.9072808592422719E-02 a       499     0    25     1    19
 -1.2026775436832127E-01 a       500     0    25     1    20
  6.6056238764310563E-02 a       501     0    26     1     1
 -1.2329040122154472E-02 a       502     0    26     1     2
  5.1954494649903843E-02 a       503     0    26     1     3
 -7.9759479880592177E-02 a       504     0    26     1     4
  4.3389115783509437E-02 a       505     0    26     1     5
  2.5337894355311646E-01 a       506     0    26     1     6
 -3.6065494413299419E-02 a       507     0    26     1     7
 -1.7256880457005415E-02 a       508     0    26     1     8
 -3.2759269293266648E-02 a       509     0    26     1     9
 -2.6509834473242497E-02 a       510     0    26     1    10
  6.8002978179064019E-02 a       511     0    26     1    11
 -9.6975646071942576E-02 a       512     0    26     1    12
  2.2561866698829886E-02 a       513     0    26     1    13
 -5.6420477586702565E-02 a       514     0    26     1    14
 -2.2109132962172384E-02 a       515     0    26     1    15
 -1.1514037043845980E-02 a       516     0    26     1    16
 -7.5180889624576266E-02 a       517     0    26     1    17
 -3.6614817173478802E-02 a       518     0    26     1    18
  5.2669015782236487E-03 a       519     0    26     1    19
 -1.0301944167871062E-01 a       520     0    26     1    20
  9.7398969810367053E-02 a       521     0    27     1     1
  4.7335257148669110E-02 a       522     0    27     1     2
 -2.8150628603105868E-02 a       523     0    27     1     3
 -1.6675843964888304E-02 a       524     0    27     1     4
  2.8100358839086678E-02 a       525     0    27     1     5
  1.5648067312507558E-01 a       526     0    27     1     6
 -1.8379797184770025E-01 a       527     0    27     1     7
  1.2272481690503952E-03 a       528     0    27     1     8
 -1.7752062844157679E-01 a       529     0    27     1     9
 -3.3681616354602345E-02 a       530     0    27     1    10
  5.8817533445010700E-02 a       531     0    27     1    11
  7.9435642617773056E-02 a       532     0    27     1    12
 -4.4422330536662792E-03 a       533     0    27     1    13
  1.2303925032848755E-01 a       534     0    27     1    14
 -6.9837184202931585E-02 a       535     0    27     1    15
 -7.8551509094357458E-02 a       536     0    27     1    16
 -3.7852401576380458E-02 a       537     0    27     1    17
  1.4651963149115850E-02 a       538     0    27     1    18
 -3.8414659037853044E-02 a       539     0    27     1    19
  5.8565057231859757E-02 a       540     0    27     1    20
  7.5394045440146981E-02 a       541     0    28     1     1
 -7.1216529760238043E-03 a       542     0    28     1     2
  2.5304695228711756E-02 a       543     0    28     1     3
 -9.5173520119301497E-02 a       544     0    28     1     4
 -6.2180880663342403E-02 a       545     0    28     1     5
  4.4451996740205321E-02 a       546     0    28     1     6
 -1.7747573283874074E-01 a       547     0    28     1     7
 -4.3437792615746457E-02 a       548     0    28     1     8
 -4.6524439416348790E-02 a       549     0    28     1     9
  6.5717526203059262E-02 a       550     0    28     1    10
  6.9924687958913536E-03 a       551     0    28     1    11
  5.9380814447174038E-02 a       552     0    28     1    12
  5.7488971393901522E-02 a       553     0    28     1    13
  2.0068374998475375E-03 a       554     0    28     1    14
 -1.0406130386908850E-01 a       555     0    28     1    15
 -1.1043627490033148E-02 a       556     0    28     1    16
  1.7838216035064483E-02 a       557     0    28     1    17
 -1.1434353120544358E-01 a       558     0    28     1    18
 -1.9660439869123303E-02 a       559     0    28     1    19
 -1.3214949500904419E-02 a       560     0    28     1    20
 -4.4802092691049199E-02 a       561     0    29     1     1
  9.4071435406171081E-03 a       562     0    29     1     2
 -2.4093720745865726E-02 a       563     0    29     1     3
  6.6994721148794399E-03 a       564     0    29     1     4
 -2.0493037623707005E-02 a       565     0    29     1     5
 -5.3944300178544756E-02 a       566     0    29     1     6
  8.3175895646286024E-04 a       567     0    29     1     7
  3.7638961712973080E-03 a       568     0    29     1     8
  1.6189037751844664E-03 a       569     0    29     1     9
  1.3400225679517382E-02 a       570     0    29     1    10
 -1.6373655070869644E-02 a       571     0    29     1    11
  4.3660501423929722E-02 a       572     0    29     1    12
 -2.5736935009419222E-03 a       573     0    29     1    13
 -1.7812308411187687E-02 a       574     0    29     1    14
  1.5076575911631884E-03 a       575     0    29     1    15
  1.1297672739097923E-02 a       576     0    29     1    16
  3.5868777055204117E-02 a       577     0    29     1    17
  4.6336558417445273E-02 a       578     0    29     1    18
  6.8017885883507991E-03 a       579     0    29     1    19
  3.2680945753669886E-02 a       580     0    29     1    20
 -1.2004427324579132E-01 a       581     0    30     1     1
  1.4102466726583381E-03 a       582     0    30     1     2
  1.2148838936065621E-02 a       583     0    30     1     3
  3.7202844533824150E-02 a       584     0    30     1     4
  6.1387369876307572E-02 a       585     0    30     1     5
 -2.1009446037543134E-01 a       586     0    30     1     6
  2.5107536297253891E-01 a       587     0    30     1     7
  1.2203631015346319E-02 a       588     0    30     1     8
  1.9190645050248026E-01 a       589     0    30     1     9
 -1.3998200783710271E-02 a       590     0    30     1    10
 -2.8902121856066932E-02 a       591     0    30     1    11
 -9.3468733062184756E-02 a       592     0    30     1    12
 -4.7189009087959102E-02 a       593     0    30     1    13
 -8.7632632411533656E-02 a       594     0    30     1    14
  1.3836530277777492E-01 a       595     0    30     1    15
  7.9717495237628541E-02 a       596     0    30     1    16
 -3.4824244678221782E-02 a       597     0    30     1    17
  1.0213503447776125E-01 a       598     0    30     1    18
  5.8403579175777688E-02 a       599     0    30     1    19
  4.6684452124823118E-02 a       600     0    30     1    20
  2.2603782532302932E-01 a       601     0    31     1     1
  5.0654210413204537E-01 a       602     0    31     1     2
  1.8015797061375086E-01 a       603     0    31     1     3
  6.4948143867474473E-01 a       604     0    31     1     4
 -1.6488112541433973E-02 a       605     0    31     1     5
  2.8948239610902160E-01 a       606     0    31     1     6
  5.9958858414741745E-01 a       607     0    31     1     7
 -3.0944333636328203E-01 a       608     0    31     1     8
 -1.8559225874223748E-01 a       609     0    31     1     9
  3.8445270345427451E-01 a       610     0    31     1    10
  3.1325381158238247E-01 a       611     0    31     1    11
  2.4147880678518568E-01 a       612     0    31     1    12
  3.4993541165519615E-01 a       613     0    31     1    13
  3.2966607605269710E-01 a       614     0    31     1    14
  3.9797539227441600E-02 a       615     0    31     1    15
  2.6638990947924085E-01 a       616     0    31     1    16
  7.9854660561750945E-01 a       617     0    31     1    17
  3.3555480764416384E-01 a       618     0    31     1    18
 -6.2427009793496002E-01 a       619     0    31     1    19
 -1.1792761269103967E-01 a       620     0    31     1    20
 -3.7019861072027586E-02 a       621     0    32     1     1
 -4.9642688236463485E-02 a       622     0    32     1     2
 -1.0922314392610921E-01 a       623     0    32     1     3
  1.5576953787596384E-01 a       624     0    32     1     4
  5.4807709306539151E-02 a       625     0    32     1     5
 -3.1448697519509566E-01 a       626     0    32     1     6
  1.9201996642769745E-01 a       627     0    32     1     7
  4.3026852041630599E-02 a       628     0    32     1     8
 -1.0325874129459400E-01 a       629     0    32     1     9
 -8.0925187238633650E-02 a       630     0    32     1    10
  1.6491199962889513E-01 a       631     0    32     1    11
 -8.1778461559673721E-02 a       632     0    32     1    12
 -1.7854990317499331E-01 a       633     0    32     1    13
  4.6941600449723255E-03 a       634     0    32     1    14
  2.6955321480003025E-01 a       635     0    32     1    15
  1.0780075108754646E-01 a       636     0    32     1    16
  7.9667909063622699E-02 a       637     0    32     1    17
 -1.7070705361469266E-01 a       638     0    32     1    18
 -1.9318479907070582E-05 a       639     0    32     1    19
  2.4197102296875710E-02 a       640     0    32     1    20
 -3.7445168726653622E-01 a       641     0    33     1     1
 -4.9700739198647764E-01 a       642     0    33     1     2
 -4.9987273972708982E-02 a       643     0    33     1     3
 -3.8947418397395128E-01 a       644     0    33     1     4
  4.5405067393332436E-02 a       645     0    33     1     5
  4.8365158566621869E-01 a       646     0    33     1     6
  2.5310062547830997E-01 a       647     0    33     1     7
  4.2069695858525857E-01 a       648     0    33     1     8
  7.0383063350784258E-01 a       649     0    33     1     9
 -4.4541442220724087E-01 a       650     0    33     1    10
  2.7846429727292149E-01 a       651     0    33     1    11
 -1.3692198742845293E-01 a       652     0    33     1    12
 -5.7973839772365732E-01 a       653     0    33     1    13
  1.5946204464318225E-01 a       654     0    33     1    14
 -4.3410044141020887E-01 a       655     0    33     1    15
  3.7703225864178416E-02 a       656     0    33     1    16
 -1.0989300393254382E+00 a       657     0    33     1    17
 -3.1347936818640154E-01 a       658     0    33     1    18
  6.9039471557331855E-01 a       659     0    33     1    19
  5.4133039768942859E-01 a       660     0    33     1    20
  4.3109054528191332E-02 a       661     0    34     1     1
 -1.6587762746830967E-01 a       662     0    34     1     2
  1.7778365312671965E-01 a       663     0    34     1     3
  1.7852180772623061E-01 a       664     0    34     1     4
 -6.0621473008469776E-02 a       665     0    34     1     5
  2.0510371101589372E-01 a       666     0    34     1     6
  2.6498088561657064E-02 a       667     0    34     1     7
  2.4248176188564885E-01 a       668     0    34     1     8
  2.5480837431598935E-03 a       669     0    34     1     9
  8.7815471737152942E-02 a       670     0    34     1    10
  4.1943525568614269E-02 a       671     0    34     1    11
  1.1690429165058011E-01 a       672     0    34     1    12
 -5.7849760862251902E-02 a       673     0    34     1    13
 -4.7721832268911663E-02 a       674     0    34     1    14
  5.9960773919737843E-02 a       675     0    34     1    15
 -2.9671045796167383E-01 a       676     0    34     1    16
 -1.9882604964366057E-01 a       677     0    34     1    17
 -9.8482845486450157E-02 a       678     0    34     1    18
 -1.3799409612628805E-01 a       679     0    34     1    19
  2.1187204969178106E-01 a       680     0    34     1    20
 -8.4830733650686913E-02 a       681     0    35     1     1
 -1.8917677748949722E-02 a       682     0    35     1     2
  4.9544696571211591E-02 a       683     0    35     1     3
  7.4539202220749251E-02 a       684     0    35     1     4
  2.9839587493018516E-02 a       685     0    35     1     5
  3.0969874989026341E-01 a       686     0    35     1     6
 -1.4898535568158855E-03 a       687     0    35     1     7
  2.2533079675608020E-01 a       688     0    35     1     8
  3.5244615765462804E-02 a       689     0    35     1     9
  8.1568848193174684E-02 a       690     0    35     1    10
  2.1081030240845583E-01 a       691     0    35     1    11
  1.3609532764635576E-01 a       692     0    35     1    12
 -2.9594110302320151E-02 a       693     0    35     1    13
 -1.1287288036425241E-01 a       694     0    35     1    14
 -3.0696903046498375E-01 a       695     0    35     1    15
 -4.6399086164940130E-02 a       696     0    35     1    16
 -3.6066777281677051E-02 a       697     0    35     1    17
  4.2984379243796444E-02 a       698     0    35     1    18
  1.3189994539526297E-02 a       699     0    35     1    19
 -9.2297168320169057E-02 a       700     0    35     1    20
  2.1861545168084456E-01 a       701     0    36     1     1
  1.7080677221524304E-01 a       702     0    36     1     2
  6.8608874798635261E-03 a       703     0    36     1     3
  2.2965837971603634E-01 a       704     0    36     1     4
 -1.3501288356932803E-01 a       705     0    36     1     5
 -2.8945396782405464E-01 a       706     0    36     1     6
 -2.2042778130747911E-01 a       707     0    36     1     7
  1.0943539704859220E-02 a       708     0    36     1     8
 -3.6677884968268787E-01 a       709     0    36     1     9
 -7.3004579081398874E-02 a       710     0    36     1    10
  4.9025152147603022E-02 a       711     0    36     1    11
 -3.0798562945872836E-02 a       712     0    36     1    12
  3.7635333574122576E-01 a       713     0    36     1    13
 -4.7135585120935686E-02 a       714     0    36     1    14
  2.8754379424744146E-02 a       715     0    36     1    15
 -8.7484546858033349E-02 a       716     0    36     1    16
  3.6198953448682963E-01 a       717     0    36     1    17
  3.4417625051861599E-02 a       718     0    36     1    18
 -4.4086618378629600E-01 a       719     0    36     1    19
 -1.5374320244667505E-01 a       720     0    36     1    20
 -1.7059226438773120E-01 a       721     0    37     1     1
  2.0099382398743959E-01 a       722     0    37     1     2
  3.1251097825301805E-01 a       723     0    37     1     3
 -2.3841675743549892E-01 a       724     0    37     1     4
 -3.1308132665558230E-01 a       725     0    37     1     5
 -4.2583700330851582E-01 a       726     0    37     1     6
 -3.4700874187228764E-01 a       727     0    37     1     7
  7.4993377052892593E-02 a       728     0    37     1     8
 -4.4494435532418342E-01 a       729     0    37     1     9
 -2.4090670853012153E-03 a       730     0    37     1    10
 -3.6049558254754971E-01 a       731     0    37     1    11
 -2.6575676333635589E-01 a       732     0    37     1    12
 -7.0688256503051605E-02 a       733     0    37     1    13
 -3.1249868706669559E-01 a       734     0    37     1    14
  2.3782227759526553E-01 a       735     0    37     1    15
 -2.2279907473801544E-01 a       736     0    37     1    16
  7.5044730745911073E-02 a       737     0    37     1    17
  3.4808085642802727E-01 a       738     0    37     1    18
 -2.3803951878510965E-01 a       739     0    37     1    19
  2.8166222510687111E-01 a       740     0    37     1    20
  9.6499619023096103E-02 a       741     0    38     1     1
 -7.6182099404181192E-02 a       742     0    38     1     2
  6.3951335797929809E-03 a       743     0    38     1     3
 -2.3502475972350813E-02 a       744     0    38     1     4
  1.9058003922613108E-02 a       745     0    38     1     5
  2.8841133470631397E-01 a       746     0    38     1     6
 -3.2502722628808062E-01 a       747     0    38     1     7
  1.6077211396596298E-02 a       748     0    38     1     8
 -1.8678675460541672E-01 a       749     0    38     1     9
  5.1022975599153045E-02 a       750     0    38     1    10
  2.6343662462239664E-01 a       751     0    38     1    11
  7.9994591710087284E-02 a       752     0    38     1    12
 -5.6051054493092022E-02 a       753     0    38     1    13
  9.6002730746022197E-02 a       754     0    38     1    14
 -3.7497813461851920E-01 a       755     0    38     1    15
 -2.1006452244196083E-01 a       756     0    38     1    16
  9.4104949512656660E-02 a       757     0    38     1    17
 -9.4322928458614827E-02 a       758     0    38     1    18
 -5.2050266661612471E-02 a       759     0    38     1    19
 -1.6391994996736051E-01 a       760     0    38     1    20
  4.0413921846516598E-01 a       761     0    39     1     1
 -5.4647322781029606E-01 a       762     0    39     1     2
 -1.2502997721217830E+00 a       763     0    39     1     3
  5.1958513026007358E-01 a       764     0    39     1     4
  3.9034866055422363E-01 a       765     0    39     1     5
  4.2302609805939018E-01 a       766     0    39     1     6
 -1.2992008440220787E-01 a       767     0    39     1     7
 -5.9697407702575389E-01 a       768     0    39     1     8
 -1.4177853561658249E-01 a       769     0    39     1     9
  7.3550433992851116E-01 a       770     0    39     1    10
  3.5024328723080345E-01 a       771     0    39     1    11
  6.4455480771293483E-01 a       772     0    39     1    12
  6.8929778393857277E-01 a       773     0    39     1    13
  3.1147263966978883E-01 a       774     0    39     1    14
 -2.0510822015438623E-01 a       775     0    39     1    15
  1.4630650983090238E-01 a       776     0    39     1    16
 -5.4282401266662750E-01 a       777     0    39     1    17
 -3.2410644213984187E-02 a       778     0    39     1    18
  2.9806044310374274E-01 a       779     0    39     1    19
 -3.4072851669551374E-02 a       780     0    39     1    20
 -3.3933733605830302E-01 a       781     0    40     1     1
 -7.8591702909643721E-02 a       782     0    40     1     2
 -8.2321669102624617E-02 a       783     0    40     1     3
  1.3093122407088173E-02 a       784     0    40     1     4
 -6.2999188534137510E-02 a       785     0    40     1     5
 -3.1498823376314339E-01 a       786     0    40     1     6
  1.5374137374832045E-01 a       787     0    40     1     7
  2.0805784208228956E-01 a       788     0    40     1     8
 -1.4942237529099308E-02 a       789     0    40     1     9
 -8.0656390627868071E-02 a       790     0    40     1    10
 -2.4986660896454904E-02 a       791     0    40     1    11
  3.3096488939061153E-01 a       792     0    40     1    12
  1.6324204231866524E-01 a       793     0    40     1    13
  4.4936085123480435E-02 a       794     0    40     1    14
 -1.5060090204148805E-02 a       795     0    40     1    15
  2.1388167756374826E-01 a       796     0    40     1    16
  2.7624451852812820E-01 a       797     0    40     1    17
  2.8397796306036602E-02 a       798     0    40     1    18
 -1.2859035192121068E-01 a       799     0    40     1    19
 -1.1538526678739289E-02 a       800     0    40     1    20
 -1.7870443739975777E-03 a       801     0    41     1     1
 -7.9992394000710204E-02 a       802     0    41     1     2
  3.2084482243188795E-03 a       803     0    41     1     3
 -1.1389859999007916E-01 a       804     0    41     1     4
  5.9291537745373157E-02 a       805     0    41     1     5
 -6.6729327608186215E-02 a       806     0    41     1     6
 -8.1122727499906247E-02 a       807     0    41     1     7
 -3.3947999800128903E-01 a       808     0    41     1     8
  5.5148491972822594E-02 a       809     0    41     1     9
 -1.2538038586792080E-01 a       810     0    41     1    10
 -8.0722202218769787E-02 a       811     0    41     1    11
 -2.0390080573824229E-01 a       812     0    41     1    12
  7.8404060477613252E-02 a       813     0    41     1    13
 -2.1662290773808383E-02 a       814     0    41     1    14
  1.0330052966501405E-01 a       815     0    41     1    15
  1.2304416236364914E-01 a       816     0    41     1    16
  2.1017632323954252E-01 a       817     0    41     1    17
  9.3223063335262354E-02 a       818     0    41     1    18
  1.5789763411686936E-01 a       819     0    41     1    19
  9.6209150343379235E-02 a       820     0    41     1    20
 -8.9281428786004050E-02 a       821     0    42     1     1
 -1.3016212240250735E-01 a       822     0    42     1     2
  6.4645882447585110E-02 a       823     0    42     1     3
 -4.6258440117883293E-01 a       824     0    42     1     4
  2.0193574477037882E-01 a       825     0    42     1     5
  3.7676009556722945E-01 a       826     0    42     1     6
  3.8335609541616644E-01 a       827     0    42     1     7
 -7.3533379235163662E-02 a       828     0    42     1     8
  2.6740185661984023E-01 a       829     0    42     1     9
 -1.7696885614312294E-01 a       830     0    42     1    10
 -1.4026303012700533E-01 a       831     0    42     1    11
  1.0675049568993383E-01 a       832     0    42     1    12
 -5.1380721061198631E-01 a       833     0    42     1    13
  1.4616653120236725E-01 a       834     0    42     1    14
  1.3699563035457663E-01 a       835     0    42     1    15
  2.0824640674439138E-01 a       836     0    42     1    16
  7.7785540732678016E-02 a       837     0    42     1    17
 -1.7917792368730986E-01 a       838     0    42     1    18
  3.2371491259000618E-01 a       839     0    42     1    19
 -9.6626873508970118E-02 a       840     0    42     1    20
 -1.4028868939373895E-01 a       841     0    43     1     1
 -1.5314626623032393E-01 a       842     0    43     1     2
  6.4091791190149061E-01 a       843     0    43     1     3
 -4.8885093268738640E-02 a       844     0    43     1     4
  5.5993889336185287E-01 a       845     0    43     1     5
  5.8767463982684931E-01 a       846     0    43     1     6
  2.1406761259863891E-01 a       847     0    43     1     7
  9.4982971250514941E-02 a       848     0    43     1     8
  6.2088115533677346E-01 a       849     0    43     1     9
  9.2994912138938027E-02 a       850     0    43     1    10
  1.6718483887371327E-01 a       851     0    43     1    11
 -6.3872327917324390E-02 a       852     0    43     1    12
 -2.6231067149825554E-01 a       853     0    43     1    13
 -1.0530058772823475E-01 a       854     0    43     1    14
  2.8642095446782961E-01 a       855     0    43     1    15
  7.9039823945567378E-01 a       856     0    43     1    16
  3.7005733029815574E-01 a       857     0    43     1    17
 -6.0551827568184025E-01 a       858     0    43     1    18
 -1.1385552384035437E-02 a       859     0    43     1    19
 -8.0147350766831327E-02 a       860     0    43     1    20
  6.8148826397849707E-02 a       861     0    44     1     1
  3.3586877309560101E-02 a       862     0    44     1     2
  6.9377070894516904E-02 a       863     0    44     1     3
  1.0552758644771021E-01 a       864     0    44     1     4
 -1.7115281108025168E-02 a       865     0    44     1     5
  6.7442705906619313E-02 a       866     0    44     1     6
  1.7476034325426615E-01 a       867     0    44     1     7
  8.8766459309212231E-02 a       868     0    44     1     8
  2.1099577007346332E-01 a       869     0    44     1     9
 -1.3117515696781162E-01 a       870     0    44     1    10
  1.0776688598638033E-01 a       871     0    44     1    11
  2.3974846706082516E-02 a       872     0    44     1    12
 -5.6408956536751764E-02 a       873     0    44     1    13
  2.6334606343114405E-02 a       874     0    44     1    14
  1.9262312716470050E-02 a       875     0    44     1    15
  5.0270291264206408E-02 a       876     0    44     1    16
  1.7669346095737639E-02 a       877     0    44     1    17
  1.8539243298227513E-02 a       878     0    44     1    18
  5.7921006112786132E-02 a       879     0    44     1    19
 -6.4821811546103246E-03 a       880     0    44     1    20
  3.2958197464886346E-01 a       881     0    45     1     1
  5.8841748332355344E-02 a       882     0    45     1     2
 -6.9909834671074234E-01 a       883     0    45     1     3
  1.3232233327538920E-01 a       884     0    45     1     4
 -5.9135508700819073E-01 a       885     0    45     1     5
 -3.4620304528327389E-01 a       886     0    45     1     6
  7.7295054575666572E-02 a       887     0    45     1     7
  8.0962044842551581E-02 a       888     0    45     1     8
 -4.5745955696779766E-01 a       889     0    45     1     9
 -6.0567303972697351E-01 a       890     0    45     1    10
  1.1466344245135737E-01 a       891     0    45     1    11
  3.0533754767123505E-01 a       892     0    45     1    12
  2.2536359877420326E-01 a       893     0    45     1    13
  1.0732126058316591E-01 a       894     0    45     1    14
 -1.9544375583566681E-01 a       895     0    45     1    15
 -7.7445100245597420E-01 a       896     0    45     1    16
  9.9304681062979527E-03 a       897     0    45     1    17
  4.8174130638902729E-01 a       898     0    45     1    18
 -1.4456864836367983E-01 a       899     0    45     1    19
 -9.5355539538008460E-02 a       900     0    45     1    20
 -7.6677710549184416E-02 a       901     0    46     1     1
  1.4606417405644445E-01 a       902     0    46     1     2
 -8.2878412542988361E-02 a       903     0    46     1     3
 -1.9661355243236481E-01 a       904     0    46     1     4
 -5.5797429265995235E-02 a       905     0    46     1     5
  9.7028268130595441E-04 a       906     0    46     1     6
 -1.6279802779629229E-02 a       907     0    46     1     7
 -1.1049935050589194E-01 a       908     0    46     1     8
  1.2432424649623573E-01 a       909     0    46     1     9
 -9.1247037690897662E-02 a       910     0    46     1    10
  3.4957159735997952E-02 a       911     0    46     1    11
  5.3858532437511361E-02 a       912     0    46     1    12
  9.4445551017683732E-02 a       913     0    46     1    13
 -1.8041453367603344E-01 a       914     0    46     1    14
 -5.5114886138375771E-02 a       915     0    46     1    15
  8.4569883452860928E-02 a       916     0    46     1    16
  2.1342281336932056E-02 a       917     0    46     1    17
  3.0090356797169423E-02 a       918     0    46     1    18
  1.3885531454176889E-01 a       919     0    46     1    19
 -1.0076733207638136E-01 a       920     0    46     1    20
  1.3658748043599128E-01 a       921     0    47     1     1
  2.9426538905209293E-01 a       922     0    47     1     2
 -1.3192276365803152E-01 a       923     0    47     1     3
 -1.3707055608828680E-01 a       924     0    47     1     4
 -6.6048857587404378E-02 a       925     0    47     1     5
 -3.4081208982063814E-02 a       926     0    47     1     6
  3.1381445322382490E-02 a       927     0    47     1     7
 -5.6610226617690620E-02 a       928     0    47     1     8
 -1.8139194017263058E-01 a       929     0    47     1     9
 -2.6677599989846618E-01 a       930     0    47     1    10
 -1.2862769369494420E-01 a       931     0    47     1    11
  5.7337462724770874E-02 a       932     0    47     1    12
  3.9444050667648500E-02 a       933     0    47     1    13
 -9.4357689223030713E-02 a       934     0    47     1    14
  1.7415292885582015E-01 a       935     0    47     1    15
 -9.0188790269502703E-02 a       936     0    47     1    16
 -2.0268729120045798E-01 a       937     0    47     1    17
  2.8618064022275658E-01 a       938     0    47     1    18
 -2.4602804525514280E-02 a       939     0    47     1    19
  1.3086177651247496E-01 a       940     0    47     1    20
 -3.0191251416062451E-03 a       941     0    48     1     1
  4.3182359747569607E-02 a       942     0    48     1     2
  1.7127578101807953E-01 a       943     0    48     1     3
 -1.5269546389308375E-01 a       944     0    48     1     4
  7.4718898575183129E-02 a       945     0    48     1     5
  1.9844813664434219E-02 a       946     0    48     1     6
 -4.0694789500672894E-02 a       947     0    48     1     7
 -1.4339076673728529E-02 a       948     0    48     1     8
  9.0142062428994849E-02 a       949     0    48     1     9
  3.1819540941175761E-01 a       950     0    48     1    10
 -6.7712712615529413E-02 a       951     0    48     1    11
 -2.8547342292779256E-02 a       952     0    48     1    12
 -1.6276447737533442E-01 a       953     0    48     1    13
 -3.6048137914354121E-02 a       954     0    48     1    14
  1.3688960593543178E-02 a       955     0    48     1    15
  2.4442964410936305E-01 a       956     0    48     1    16
 -6.4726746808354940E-02 a       957     0    48     1    17
 -2.6146030012327609E-01 a       958     0    48     1    18
  5.7335063152103252E-02 a       959     0    48     1    19
 -3.6723970954865376E-02 a       960     0    48     1    20
  1.9067753456649059E-01 a       961     0    49     1     1
 -1.7098142462552698E-01 a       962     0    49     1     2
  1.7622699385857285E-01 a       963     0    49     1     3
  2.6680468186066592E-01 a       964     0    49     1     4
 -2.6137420740954520E-01 a       965     0    49     1     5
  3.3143305509277265E-01 a       966     0    49     1     6
  2.8763812831967722E-01 a       967     0    49     1     7
 -2.8434706694617829E-02 a       968     0    49     1     8
  6.8893709073863829E-01 a       969     0    49     1     9
  5.3979542974138672E-01 a       970     0    49     1    10
 -4.9051584890102196E-02 a       971     0    49     1    11
 -2.0621693943612532E-01 a       972     0    49     1    12
 -5.4978087809845866E-02 a       973     0    49     1    13
 -2.3452190809886475E-01 a       974     0    49     1    14
 -1.7192057971885738E-01 a       975     0    49     1    15
  8.6579236302202309E-02 a       976     0    49     1    16
  1.4474123300572444E-02 a       977     0    49     1    17
 -3.1188889772087713E-01 a       978     0    49     1    18
  3.0009287294281289E-01 a       979     0    49     1    19
 -1.2040849675490679E-01 a       980     0    49     1    20
 -4.4883950666179957E-02 a       981     0    50     1     1
  8.4085417075525470E-02 a       982     0    50     1     2
 -4.2820429442599105E-03 a       983     0    50     1     3
  4.0465561883581420E-02 a       984     0    50     1     4
 -4.3754080630021876E-02 a       985     0    50     1     5
 -1.2267546359586159E-01 a       986     0    50     1     6
  2.1150997368941410E-01 a       987     0    50     1     7
 -3.7671156906186019E-02 a       988     0    50     1     8
  9.0914372591000173E-02 a       989     0    50     1     9
  6.1296689449593003E-02 a       990     0    50     1    10
 -1.7944642597977695E-01 a       991     0    50     1    11
 -1.4118714757684395E-01 a       992     0    50     1    12
  2.5715350692770929E-02 a       993     0    50     1    13
 -1.1363564745861446E-01 a       994     0    50     1    14
  2.4757153970260617E-01 a       995     0    50     1    15
  1.6842311288245360E-01 a       996     0    50     1    16
 -1.2026982630018188E-01 a       997     0    50     1    17
  4.7790354573274157E-02 a       998     0    50     1    18
  4.3841554881054130E-02 a       999     0    50     1    19
  4.3909122865098842E-02 a      1000     0    50     1    20
 -1.0339862584159500E+00 a      1001     0    51     1     1
  3.6909645046719974E-01 a      1002     0    51     1     2
  4.4224893971119672E-01 a      1003     0    51     1     3
 -3.6646495546794972E-01 a      1004     0    51     1     4
 -7.3035773474674232E-03 a      1005     0    51     1     5
 -5.2814827528508601E-01 a      1006     0    51     1     6
 -3.7051059726019808E-01 a      1007     0    51     1     7
  1.1304190935520868E-01 a      1008     0    51     1     8
 -4.8963183986235237E-01 a      1009     0    51     1     9
 -5.8322591768551579E-01 a      1010     0    51     1    10
 -8.2068363668312466E-02 a      1011     0    51     1    11
 -3.5785614761528450E-01 a      1012     0    51     1    12
  6.6742714980843443E-02 a      1013     0    51     1    13
  5.3624057784670198E-01 a      1014     0    51     1    14
  2.3918729911162978E-01 a      1015     0    51     1    15
  5.8257097867894259E-01 a      1016     0    51     1    16
 -9.7133659730849378E-02 a      1017     0    51     1    17
 -4.4638352557835888E-02 a      1018     0    51     1    18
 -3.4213696323841886E-01 a      1019     0    51     1    19
 -1.1252818627243286E+00 a      1020     0    51     1    20
  1.6488388976119342E-01 a      1021     0    52     1     1
 -1.2872857575905730E-01 a      1022     0    52     1     2
 -4.5604787311928040E-03 a      1023     0    52     1     3
  3.8798294542337047E-02 a      1024     0    52     1     4
  2.0571618607295047E-01 a      1025     0    52     1     5
  4.3496983142725439E-02 a      1026     0    52     1     6
 -3.0679939110256116E-01 a      1027     0    52     1     7
 -4.8063973221688611E-01 a      1028     0    52     1     8
 -1.6810519910173578E-02 a      1029     0    52     1     9
  1.4284091834638654E-01 a      1030     0    52     1    10
  1.5449914098621609E-01 a      1031     0    52     1    11
 -3.8780028672489125E-01 a      1032     0    52     1    12
 -2.2248409112661120E-02 a      1033     0    52     1    13
  6.2306414911791064E-01 a      1034     0    52     1    14
 -3.0473316990576210E-01 a      1035     0    52     1    15
  4.7898540364444478E-02 a      1036     0    52     1    16
  2.9166975465600725E-01 a      1037     0    52     1    17
 -1.4512655740322772E-01 a      1038     0    52     1    18
  1.5571375049731770E-01 a      1039     0    52     1    19
 -2.3436022796284966E-02 a      1040     0    52     1    20
  4.4860432591048237E-02 a      1041     0    53     1     1
  2.8033803946438292E-02 a      1042     0    53     1     2
 -2.8939536005291415E-03 a      1043     0    53     1     3
  8.7845060202829867E-02 a      1044     0    53     1     4
 -5.9527864267416006E-02 a      1045     0    53     1     5
 -1.8807282718353147E-01 a      1046     0    53     1     6
  5.0396798678693004E-02 a      1047     0    53     1     7
  1.8143396367403142E-01 a      1048     0    53     1     8
 -4.5935457187916036E-02 a      1049     0    53     1     9
  9.5169852513519906E-02 a      1050     0    53     1    10
 -6.6430003162239917E-02 a      1051     0    53     1    11
  7.3383728856237077E-02 a      1052     0    53     1    12
 -4.4828616838575433E-02 a      1053     0    53     1    13
  1.2289594120895264E-01 a      1054     0    53     1    14
  2.3960063655341524E-02 a      1055     0    53     1    15
 -9.0461543730315758E-02 a      1056     0    53     1    16
 -1.8607604504566258E-01 a      1057     0    53     1    17
 -9.0329457788637657E-02 a      1058     0    53     1    18
 -1.3041606996308464E-01 a      1059     0    53     1    19
 -4.6328637540228278E-02 a      1060     0    53     1    20
  1.1590836603634652E-01 a      1061     0    54     1     1
  5.3840269149394354E-02 a      1062     0    54     1     2
  2.1514422938487130E-02 a      1063     0    54     1     3
  2.5198938370996032E-01 a      1064     0    54     1     4
 -9.9965124414044662E-02 a      1065     0    54     1     5
 -3.0494247121382617E-01 a      1066     0    54     1     6
 -1.9554531618630872E-01 a      1067     0    54     1     7
  1.0469149252352028E-01 a      1068     0    54     1     8
 -1.4556800412017071E-01 a      1069     0    54     1     9
  8.7167952321635545E-02 a      1070     0    54     1    10
  4.0114952410802630E-02 a      1071     0    54     1    11
 -1.0253280401123814E-01 a      1072     0    54     1    12
  1.6581889859264418E-01 a      1073     0    54     1    13
 -3.1724954753482359E-01 a      1074     0    54     1    14
 -1.3964181498810643E-01 a      1075     0    54     1    15
 -2.6716949652061495E-01 a      1076     0    54     1    16
 -2.6345284397672510E-02 a      1077     0    54     1    17
  1.6217104557404549E-01 a      1078     0    54     1    18
 -1.0210582046312373E-01 a      1079     0    54     1    19
  2.4852751767200992E-01 a      1080     0    54     1    20
  8.7968650016137595E-01 b      1081     1     1
  4.0677969181842261E-01 b      1082     1     2
 -8.9313683414511713E-01 b      1083     1     3
  7.5422519693498535E-01 b      1084     1     4
 -5.1829701776271908E-01 b      1085     1     5
  1.4082815301385827E+00 b      1086     1     6
 -2.9287629460006692E-01 b      1087     1     7
 -6.3616120988680369E-01 b      1088     1     8
  4.4441130353358904E-01 b      1089     1     9
 -5.1864811165795266E-01 b      1090     1    10
 -9.4614579634003682E-01 b      1091     1    11
 -1.0294869123711186E+00 b      1092     1    12
 -1.9611075959237415E-01 b      1093     1    13
  1.1416692433377897E+00 b      1094     1    14
 -5.6730727235497125E-01 b      1095     1    15
  1.2237486414132073E+00 b      1096     1    16
  9.9877553858399659E-01 b      1097     1    17
  1.1589558126438748E+00 b      1098     1    18
 -7.3780717327843448E-01 b      1099     1    19
 -7.4952364771809243E-01 b      1100     1    20
 -7.3972116819575007E-01 a      1101     1     1     2     1
  5.0229458675714922E-01 a      1102     1     1     2     2
 -6.3356045130494876E-01 a      1103     1     1     2     3
 -6.4167923028718121E-01 a      1104     1     1     2     4
 -3.6033134232626179E-01 a      1105     1     1     2     5
 -3.9528154771443935E-01 a      1106     1     1     2     6
 -6.1925175246720754E-01 a      1107     1     1     2     7
  5.6107836162491709E-01 a      1108     1     1     2     8
 -1.6090759760006415E-01 a      1109     1     1     2     9
 -2.8345469589019678E-01 a      1110     1     1     2    10
 -6.5492172378646030E-01 a      1111     1     1     2    11
 -6.7705716563749394E-02 a      1112     1     1     2    12
  3.2136754606687701E-01 a      1113     1     1     2    13
  2.8274916235145442E-01 a      1114     1     1     2    14
  1.6318607429508009E-01 a      1115     1     1     2    15
 -4.7322393137693469E-01 a      1116     1     1     2    16
  3.9478180756076919E-01 a      1117     1     1     2    17
  4.9665360153419641E-01 a      1118     1     1     2    18
 -3.5349424981724526E-03 a      1119     1     1     2    19
 -2.6508659580910432E-01 a      1120     1     1     2    20
  1.3874806126739245E-01 a      1121     1     2     2     1
  2.1049092608364178E-01 a      1122     1     2     2     2
  8.5858666788713331E-02 a      1123     1     2     2     3
 -3.1770301862949507E-01 a      1124     1     2     2     4
 -6.6342656693097535E-01 a      1125     1     2     2     5
 -6.6549196222754670E-01 a      1126     1     2     2     6
 -7.0708207460650319E-01 a      1127     1     2     2     7
  7.4898128011410298E-02 a      1128     1     2     2     8
 -6.0855415784361000E-01 a      1129     1     2     2     9
 -3.5972397590315774E-01 a      1130     1     2     2    10
 -1.8520456297264426E-01 a      1131     1     2     2    11
 -1.1441242395048035E-01 a      1132     1     2     2    12
  4.7846552339906107E-01 a      1133     1     2     2    13
  1.7326362627892007E-02 a      1134     1     2     2    14
 -1.3088466549288078E-01 a      1135     1     2     2    15
 -3.5292158589952072E-01 a      1136     1     2     2    16
  4.1233672676611338E-01 a      1137     1     2     2    17
 -8.2226940023814712E-02 a      1138     1     2     2    18
  1.1778095482649666E-01 a      1139     1     2     2    19
 -2.9388055594334006E-01 a      1140     1     2     2    20
  8.7927225802431425E-02 a      1141     1     3     2     1
  2.1934079571578458E-01 a      1142     1     3     2     2
  1.8226498485817539E+00 a      1143     1     3     2     3
 -5.6774317283105669E-01 a      1144     1     3     2     4
  6.0835066057139398E-01 a      1145     1     3     2     5
 -3.6165896783818224E-01 a      1146     1     3     2     6
 -9.9811532481281190E-02 a      1147     1     3     2     7
  3.7087605601352636E-01 a      1148     1     3     2     8
 -4.3095724842013389E-01 a      1149     1     3     2     9
  2.4736613290674669E-01 a      1150     1     3     2    10
 -1.7450036280662171E-01 a      1151     1     3     2    11
 -5.7761847932960141E-03 a      1152     1     3     2    12
  5.3489820420523149E-01 a      1153     1     3     2    13
 -2.8647600660804390E-01 a      1154     1     3     2    14
 -3.7177980444912301E-01 a      1155     1     3     2    15
 -2.3357428740530856E-01 a      1156     1     3     2    16
  6.9951207517517366E-01 a      1157     1     3     2    17
  4.6783266714076505E-01 a      1158     1     3     2    18
 -6.6742209806058117E-01 a      1159     1     3     2    19
  3.1206692545618625E-01 a      1160     1     3     2    20
  1.6615244151684511E-01 a      1161     1     4     2     1
 -3.5801744752679748E-01 a      1162     1     4     2     2
 -5.0845518718311700E-01 a      1163     1     4     2     3
 -3.6582394380068300E-01 a      1164     1     4     2     4
 -7.2226273896087523E-01 a      1165     1     4     2     5
 -5.8965467110606873E-01 a      1166     1     4     2     6
 -4.0839684485963390E-01 a      1167     1     4     2     7
  6.3611021147101832E-01 a      1168     1     4     2     8
  5.4938556662045661E-02 a      1169     1     4     2     9
  4.9658099837087410E-01 a      1170     1     4     2    10
 -7.4659829530489344E-02 a      1171     1     4     2    11
  6.1537578273896450E-02 a      1172     1     4     2    12
 -2.3763241804271315E-01 a      1173     1     4     2    13
 -2.7982888782527449E-01 a      1174     1     4     2    14
  4.0859058831825656E-01 a      1175     1     4     2    15
 -1.2613101931721638E-01 a      1176     1     4     2    16
 -2.2977808870081545E-01 a      1177     1     4     2    17
 -5.2747134227115100E-01 a      1178     1     4     2    18
 -5.0485671059962878E-01 a      1179     1     4     2    19
 -2.4725299295765010E-01 a      1180     1     4     2    20
 -1.7432721470074802E-01 a      1181     1     5     2     1
 -3.5441602054168009E-01 a      1182     1     5     2     2
 -1.3359491450227895E-01 a      1183     1     5     2     3
 -2.5490108787157273E-01 a      1184     1     5     2     4
  2.8913154596873269E-01 a      1185     1     5     2     5
  5.1730406474243380E-02 a      1186     1     5     2     6
  2.0437577077669072E-01 a      1187     1     5     2     7
 -2.3595052047652035E-01 a      1188     1     5     2     8
 -3.6304649063693184E-01 a      1189     1     5     2     9
 -1.2313480201263195E-01 a      1190     1     5     2    10
  1.3302361673370799E-01 a      1191     1     5     2    11
 -4.9778091516615824E-01 a      1192     1     5     2    12
 -1.6016485632756022E-01 a      1193     1     5     2    13
 -1.6029087254984786E-01 a      1194     1     5     2    14
 -3.1731252342720151E-01 a      1195     1     5     2    15
 -6.2984780991255340E-01 a      1196     1     5     2    16
 -6.8089659831700255E-01 a      1197     1     5     2    17
 -7.6296113498155998E-03 a      1198     1     5     2    18
 -8.2527543082357169E-01 a      1199     1     5     2    19
  5.5622291447872618E-01 a      1200     1     5     2    20
  2.2311601066277822E-01 a      1201     1     6     2     1
  4.9729677574525927E-02 a      1202     1     6     2     2
  8.8106328513439713E-01 a      1203     1     6     2     3
 -4.3997121984186721E-01 a      1204     1     6     2     4
  6.4354444616797968E-01 a      1205     1     6     2     5
 -4.6963957645601639E-01 a      1206     1     6     2     6
  7.9575935422098509E-02 a      1207     1     6     2     7
 -1.0383640299299049E-01 a      1208     1     6     2     8
  5.7617416848126830E-02 a      1209     1     6     2     9
 -5.9240755588812366E-01 a      1210     1     6     2    10
 -6.4550789838836733E-02 a      1211     1     6     2    11
  3.9679962195132845E-01 a      1212     1     6     2    12
  6.6101399751746737E-01 a      1213     1     6     2    13
  1.2712897685725436E-01 a      1214     1     6     2    14
  5.5520857872110674E-01 a      1215     1     6     2    15
  4.9477757947748296E-01 a      1216     1     6     2    16
 -2.5077390382805914E-01 a      1217     1     6     2    17
  3.5489992283722194E-01 a      1218     1     6     2    18
 -2.0278556717097665E-01 a      1219     1     6     2    19
 -1.9084938799066856E-01 a      1220     1     6     2    20
 -3.7818559517275072E-02 a      1221     1     7     2     1
 -6.6824560753909057E-01 a      1222     1     7     2     2
 -3.8744674000382429E-01 a      1223     1     7     2     3
  5.5435019488468118E-01 a      1224     1     7     2     4
  4.9655676312428432E-01 a      1225     1     7     2     5
  4.5442187248281124E-01 a      1226     1     7     2     6
  1.0555983390539124E-01 a      1227     1     7     2     7
 -2.0698248924480650E-01 a      1228     1     7     2     8
 -1.5331143722642118E-01 a      1229     1     7     2     9
  2.9796615277341199E-01 a      1230     1     7     2    10
  7.5924459171042691E-01 a      1231     1     7     2    11
 -5.6168777719638630E-01 a      1232     1     7     2    12
  7.2848595724853071E-01 a      1233     1     7     2    13
 -7.1377481998407832E-01 a      1234     1     7     2    14
  1.4773371208424105E-01 a      1235     1     7     2    15
  1.8453595327878664E-01 a      1236     1     7     2    16
  2.2310361219212788E-01 a      1237     1     7     2    17
  4.6645397246743320E-01 a      1238     1     7     2    18
  6.1457138821884993E-01 a      1239     1     7     2    19
 -2.4922496910299333E-01 a      1240     1     7     2    20
  7.3338763921164341E-02 a      1241     1     8     2     1
 -1.6000151093657891E-01 a      1242     1     8     2     2
  1.1420552827868352E-01 a      1243     1     8     2     3
 -2.6591470554709629E-01 a      1244     1     8     2     4
  3.6240397927590379E-01 a      1245     1     8     2     5
  5.5875001361869431E-02 a      1246     1     8     2     6
  2.7204265347858086E-01 a      1247     1     8     2     7
 -3.3198987063530216E-01 a      1248     1     8     2     8
  6.1593892144796369E-01 a      1249     1     8     2     9
  1.6060102854489561E-01 a      1250     1     8     2    10
 -1.8493650174004391E-02 a      1251     1     8     2    11
 -6.9602779930890757E-01 a      1252     1     8     2    12
  3.9447818902355231E-01 a      1253     1     8     2    13
  3.9967756615438571E-01 a      1254     1     8     2    14
 -2.8142909261065829E-01 a      1255     1     8     2    15
 -3.7871761914140975E-02 a      1256     1     8     2    16
 -1.8775682699546137E-01 a      1257     1     8     2    17
 -1.3689879024718382E-01 a      1258     1     8     2    18
  3.3397935531747614E-03 a      1259     1     8     2    19
  5.3583133452719500E-01 a      1260     1     8     2    20
  1.4019073709143975E-01 a      1261     1     9     2     1
  7.0011522965193174E-01 a      1262     1     9     2     2
 -7.6332315904070691E-01 a      1263     1     9     2     3
 -6.3372812262607559E-01 a      1264     1     9     2     4
 -2.4681898154556162E-01 a      1265     1     9     2     5
 -4.3380573092552133E-01 a      1266     1     9     2     6
 -5.0840196799399895E-01 a      1267     1     9     2     7
 -5.5319707880733948E-01 a      1268     1     9     2     8
 -1.3976020422396845E-01 a      1269     1     9     2     9
  1.6276055483897059E-01 a      1270     1     9     2    10
  3.7698287156987594E-02 a      1271     1     9     2    11
  2.9327453925347297E-01 a      1272     1     9     2    12
  3.2309040441305636E-01 a      1273     1     9     2    13
  3.5745361114576718E-01 a      1274     1     9     2    14
 -4.6233395720045511E-01 a      1275     1     9     2    15
 -3.9461817547464134E-01 a      1276     1     9     2    16
 -1.8232246662262591E-01 a      1277     1     9     2    17
 -1.9002075624488082E-01 a      1278     1     9     2    18
  1.4369363916300865E-01 a      1279     1     9     2    19
  6.2408538704123231E-02 a      1280     1     9     2    20
 -1.6506616567015819E-01 a      1281     1    10     2     1
 -4.5281059080400793E-01 a      1282     1    10     2     2
 -2.3278408865189662E-01 a      1283     1    10     2     3
  3.0787782909440181E-01 a      1284     1    10     2     4
  5.4626077570830422E-01 a      1285     1    10     2     5
 -3.8316250930685958E-01 a      1286     1    10     2     6
  3.2544900820905870E-01 a      1287     1    10     2     7
  1.8079979203072866E-01 a      1288     1    10     2     8
 -1.1464943174570140E-01 a      1289     1    10     2     9
  1.3864372010526635E-01 a      1290     1    10     2    10
  3.0328169854374321E-01 a      1291     1    10     2    11
 -8.1455497641030980E-02 a      1292     1    10     2    12
 -2.6387987273108982E-01 a      1293     1    10     2    13
  2.9811852239772557E-01 a      1294     1    10     2    14
 -5.8928807157726504E-01 a      1295     1    10     2    15
  6.3419791955466753E-01 a      1296     1    10     2    16
 -2.6481429354332753E-01 a      1297     1    10     2    17
  7.0925837480857912E-01 a      1298     1    10     2    18
 -1.0706405857809649E-01 a      1299     1    10     2    19
  3.3202848828622511E-01 a      1300     1    10     2    20
  2.2984996380799333E-01 a      1301     1    11     2     1
 -6.6950057570289256E-01 a      1302     1    11     2     2
 -7.1016251609716174E-01 a      1303     1    11     2     3
 -8.4559352873725332E-02 a      1304     1    11     2     4
  1.7727644721874608E-01 a      1305     1    11     2     5
  5.6765842357468022E-01 a      1306     1    11     2     6
  3.8831763471549413E-01 a      1307     1    11     2     7
  1.9715724648812782E-01 a      1308     1    11     2     8
 -5.6323251829054422E-01 a      1309     1    11     2     9
 -5.7908763062503077E-01 a      1310     1    11     2    10
  5.6616669949653964E-01 a      1311     1    11     2    11
 -1.3245743111693536E-01 a      1312     1    11     2    12
  5.5114874249133784E-02 a      1313     1    11     2    13
  1.8506614779604943E-01 a      1314     1    11     2    14
  1.9945922298746305E-01 a      1315     1    11     2    15
 -4.9915629064016559E-01 a      1316     1    11     2    16
 -1.1693061185133533E-01 a      1317     1    11     2    17
  9.7795318176979298E-02 a      1318     1    11     2    18
 -4.7957615013815624E-01 a      1319     1    11     2    19
  1.9428081520346499E-01 a      1320     1    11     2    20
  5.0628266720292681E-01 a      1321     1    12     2     1
  2.4462200504315257E-01 a      1322     1    12     2     2
  1.5813514315438859E-01 a      1323     1    12     2     3
 -3.8232733273053970E-01 a      1324     1    12     2     4
  8.6063994462629315E-02 a      1325     1    12     2     5
 -2.3721520391288065E-01 a      1326     1    12     2     6
  3.5569095475272383E-01 a      1327     1    12     2     7
 -4.2432419656624126E-01 a      1328     1    12     2     8
  6.8883819524297352E-01 a      1329     1    12     2     9
  1.8673462249289344E-01 a      1330     1    12     2    10
  6.8082218185900378E-01 a      1331     1    12     2    11
 -4.3819884423763528E-01 a      1332     1    12     2    12
 -2.1363564180055991E-01 a      1333     1    12     2    13
 -5.2571265860780847E-01 a      1334     1    12     2    14
  4.7751206543654073E-01 a      1335     1    12     2    15
 -3.7732691626985543E-01 a      1336     1    12     2    16
 -6.2978629098217387E-01 a      1337     1    12     2    17
  6.3524767885576805E-01 a      1338     1    12     2    18
  5.4182699736983408E-01 a      1339     1    12     2    19
 -3.2276564504270605E-01 a      1340     1    12     2    20
 -2.8223159167473982E-01 a      1341     1    13     2     1
 -7.5635316789668439E-01 a      1342     1    13     2     2
 -7.1799713107955454E-01 a      1343     1    13     2     3
  2.1030660872690076E-02 a      1344     1    13     2     4
 -4.7821215856230742E-01 a      1345     1    13     2     5
  3.4690783340024961E-01 a      1346     1    13     2     6
 -3.1540773201280170E-01 a      1347     1    13     2     7
  2.2461046957495887E-01 a      1348     1    13     2     8
 -5.2347775489507420E-01 a      1349     1    13     2     9
 -6.0180848103457163E-01 a      1350     1    13     2    10
  8.0123311140425491E-01 a      1351     1    13     2    11
 -5.9499309349025253E-01 a      1352     1    13     2    12
  3.5699128391167978E-01 a      1353     1    13     2    13
  1.5591631850464951E-01 a      1354     1    13     2    14
 -2.3957523635169389E-01 a      1355     1    13     2    15
 -4.7469662894602521E-01 a      1356     1    13     2    16
 -7.7574828222476200E-01 a      1357     1    13     2    17
 -5.4083492778928141E-02 a      1358     1    13     2    18
  6.7360986462489347E-01 a      1359     1    13     2    19
  7.0726866124392385E-01 a      1360     1    13     2    20
  3.7200886250990894E-01 a      1361     1    14     2     1
 -1.1735124938050151E-01 a      1362     1    14     2     2
  2.3794092342634207E-01 a      1363     1    14     2     3
 -1.3495404176471451E-01 a      1364     1    14     2     4
  1.4629910216138944E-01 a      1365     1    14     2     5
  3.6493111929575289E-01 a      1366     1    14     2     6
  5.9614832117566896E-01 a      1367     1    14     2     7
 -2.2596818262819837E-01 a      1368     1    14     2     8
  4.1654981518246548E-01 a      1369     1    14     2     9
  3.9073389918204643E-01 a      1370     1    14     2    10
  2.5173862278129394E-01 a      1371     1    14     2    11
 -5.9148700338301508E-01 a      1372     1    14     2    12
 -1.9876498864508446E-01 a      1373     1    14     2    13
 -4.8021913037797029E-02 a      1374     1    14     2    14
 -4.3956552563547559E-02 a      1375     1    14     2    15
  4.0643827019237627E-01 a      1376     1    14     2    16
 -3.3576689800618048E-01 a      1377     1    14     2    17
 -1.2974001948109096E-01 a      1378     1    14     2    18
 -2.7464094548145013E-01 a      1379     1    14     2    19
  1.9191431366502901E-01 a      1380     1    14     2    20
  1.7431525803074910E-01 a      1381     1    15     2     1
  1.2096749515518821E+00 a      1382     1    15     2     2
  6.5912344269101308E-01 a      1383     1    15     2     3
  6.0815418494691820E-01 a      1384     1    15     2     4
 -1.6593005620368756E-01 a      1385     1    15     2     5
 -2.5982164688771042E-01 a      1386     1    15     2     6
  2.3605846888513718E-01 a      1387     1    15     2     7
 -1.2612022626729213E-01 a      1388     1    15     2     8
 -3.0326239271299049E-01 a      1389     1    15     2     9
  7.5271111115660350E-01 a      1390     1    15     2    10
 -1.0492364894628436E+00 a      1391     1    15     2    11
 -3.0137618492187049E-02 a      1392     1    15     2    12
 -2.2767557919579140E-01 a      1393     1    15     2    13
  1.6117178245412162E-02 a      1394     1    15     2    14
 -6.4225958421857576E-01 a      1395     1    15     2    15
  1.5110825512734111E-01 a      1396     1    15     2    16
  5.9756207271703776E-01 a      1397     1    15     2    17
  2.8467416201228996E-01 a      1398     1    15     2    18
 -6.6021235876281081E-01 a      1399     1    15     2    19
 -1.2378629357442307E-01 a      1400     1    15     2    20
 -2.3662468613878390E-01 a      1401     1    16     2     1
 -1.1057673100885410E+00 a      1402     1    16     2     2
 -4.3756948746532590E-02 a      1403     1    16     2     3
 -4.3123774649448395E-02 a      1404     1    16     2     4
  5.0782635955783362E-01 a      1405     1    16     2     5
  2.8233877632936444E-01 a      1406     1    16     2     6
 -2.4672890194502620E-01 a      1407     1    16     2     7
  4.0086653170291864E-01 a      1408     1    16     2     8
 -2.2333969474391585E-01 a      1409     1    16     2     9
  6.9618309601485973E-01 a      1410     1    16     2    10
  3.8032128905284679E-01 a      1411     1    16     2    11
 -2.4981161692315917E-01 a      1412     1    16     2    12
  4.9399724869471612E-01 a      1413     1    16     2    13
 -3.3266072806094493E-01 a      1414     1    16     2    14
  2.4968923410703533E-01 a      1415     1    16     2    15
  6.1108542857115333E-01 a      1416     1    16     2    16
 -6.1691815211580447E-01 a      1417     1    16     2    17
  6.0902209636931035E-02 a      1418     1    16     2    18
 -4.5225480136358648E-01 a      1419     1    16     2    19
 -1.9260887739718263E-01 a      1420     1    16     2    20
 -5.8730148154605644E-01 a      1421     1    17     2     1
  1.5790866586548238E+00 a      1422     1    17     2     2
  5.6856596748703148E-01 a      1423     1    17     2     3
  3.7809021319478463E-02 a      1424     1    17     2     4
 -5.1775101216209241E-01 a      1425     1    17     2     5
 -3.2663320914246385E-01 a      1426     1    17     2     6
  3.7124244580453986E-01 a      1427     1    17     2     7
 -4.0333019078896931E-01 a      1428     1    17     2     8
  5.0137647214130131E-02 a      1429     1    17     2     9
  6.7942095548031656E-01 a      1430     1    17     2    10
 -2.3921576268651848E-01 a      1431     1    17     2    11
  1.2829403244512388E-01 a      1432     1    17     2    12
  6.9370979824699239E-02 a      1433     1    17     2    13
  7.6092165747367357E-01 a      1434     1    17     2    14
 -1.0649682353911312E-02 a      1435     1    17     2    15
 -2.2907089792821755E-01 a      1436     1    17     2    16
 -3.3535386663121003E-01 a      1437     1    17     2    17
 -3.6867500350223026E-01 a      1438     1    17     2    18
 -3.8200698413339695E-01 a      1439     1    17     2    19
 -2.3799082020230924E-01 a      1440     1    17     2    20
 -5.0121879369300204E-01 a      1441     1    18     2     1
 -1.0706126827731199E+00 a      1442     1    18     2     2
 -8.5592910954317802E-01 a      1443     1    18     2     3
  3.1259260767951158E-01 a      1444     1    18     2     4
  2.8649280457865400E-01 a      1445     1    18     2     5
  4.0742584334433046E-01 a      1446     1    18     2     6
  2.2814869464547502E-01 a      1447     1    18     2     7
  8.2462980016469245E-01 a      1448     1    18     2     8
  7.0910105992552297E-03 a      1449     1    18     2     9
  4.2749275092845218E-01 a      1450     1    18     2    10
  8.8946300664733413E-01 a      1451     1    18     2    11
 -2.9347923155456174E-01 a      1452     1    18     2    12
  8.6663378326436516E-02 a      1453     1    18     2    13
  3.5867191293973882E-01 a      1454     1    18     2    14
  1.8840814486179056E-01 a      1455     1    18     2    15
 -3.1386687847291023E-01 a      1456     1    18     2    16
 -7.8177364498755675E-02 a      1457     1    18     2    17
  1.3173030225203006E-01 a      1458     1    18     2    18
  2.9251596858344225E-01 a      1459     1    18     2    19
  3.8527717297714026E-01 a      1460     1    18     2    20
 -7.0484990260084521E-02 a      1461     1    19     2     1
 -1.1738075971932632E-01 a      1462     1    19     2     2
  6.8678091339243397E-01 a      1463     1    19     2     3
  8.6775134620836747E-01 a      1464     1    19     2     4
 -1.8750898780376268E-01 a      1465     1    19     2     5
  3.2368469007136962E-03 a      1466     1    19     2     6
  1.4464640622712935E-01 a      1467     1    19     2     7
 -1.2107893159312751E-01 a      1468     1    19     2     8
  5.1141936233770002E-01 a      1469     1    19     2     9
 -5.8600322317094278E-01 a      1470     1    19     2    10
  1.8413168331975507E-02 a      1471     1    19     2    11
 -2.1462292209539130E-02 a      1472     1    19     2    12
 -1.5845556350692080E-01 a      1473     1    19     2    13
  6.8768334409388121E-01 a      1474     1    19     2    14
 -3.1391498384713201E-01 a      1475     1    19     2    15
  2.4324410068145083E-01 a      1476     1    19     2    16
 -3.7905225727318825E-01 a      1477     1    19     2    17
 -2.1515114657111717E-01 a      1478     1    19     2    18
 -4.3424405313546977E-01 a      1479     1    19     2    19
  2.4911182729204367E-01 a      1480     1    19     2    20
 -3.3137129603421001E-01 a      1481     1    20     2     1
  1.0990155830676100E+00 a      1482     1    20     2     2
  2.2292803573686414E-02 a      1483     1    20     2     3
  5.1462728939071267E-01 a      1484     1    20     2     4
  3.4696850411848590E-01 a      1485     1    20     2     5
  7.5509787092527050E-02 a      1486     1    20     2     6
  4.0324418986934285E-01 a      1487     1    20     2     7
 -2.2374126365149996E-01 a      1488     1    20     2     8
  4.5266213568324543E-01 a      1489     1    20     2     9
  2.8898003805324912E-01 a      1490     1    20     2    10
 -6.0509608113051123E-02 a      1491     1    20     2    11
  6.0918127850401815E-01 a      1492     1    20     2    12
 -2.5731460089379510E-01 a      1493     1    20     2    13
  4.6845707051525698E-01 a      1494     1    20     2    14
  2.4508826340016815E-01 a      1495     1    20     2    15
  4.9546185992983183E-01 a      1496     1    20     2    16
 -7.4384666727694848E-01 a      1497     1    20     2    17
  6.8132954149050096E-01 a      1498     1    20     2    18
 -1.5162457976291166E-01 a      1499     1    20     2    19
 -2.7777580119256746E-02 a      1500     1    20     2    20
  3.2163009155842776E-01 b      1501     2     1
 -1.2271634679101873E+00 b      1502     2     2
  3.0690166795818663E-01 b      1503     2     3
  1.4790367566594420E+00 b      1504     2     4
 -4.1050082280603378E-01 b      1505     2     5
 -3.2256122614662830E-01 b      1506     2     6
 -5.1099419555585179E-01 b      1507     2     7
 -3.9109352008578596E-01 b      1508     2     8
  5.1755599290897158E-01 b      1509     2     9
 -1.3421416743688046E+00 b      1510     2    10
  5.0257186678243571E-01 b      1511     2    11
  5.3969568919125799E-01 b      1512     2    12
 -1.0731771531760339E+00 b      1513     2    13
  6.4029536142148535E-01 b      1514     2    14
  1.2469849857428730E+00 b      1515     2    15
 -1.0014625985817920E+00 b      1516     2    16
  6.7987398894306939E-01 b      1517     2    17
 -1.0085929324744272E+00 b      1518     2    18
  1.4859661510739062E+00 b      1519     2    19
  1.0005981625982181E+00 b      1520     2    20
  4.6173228916152453E-01 a      1521     2     1     3     1
  4.2031752501909297E-01 a      1522     2     2     3     1
  7.1582392551361751E-01 a      1523     2     3     3     1
 -9.3870871216330545E-02 a      1524     2     4     3     1
  7.2332099918470871E-01 a      1525     2     5     3     1
 -4.5427552542263727E-01 a      1526     2     6     3     1
 -1.5467213221198464E-01 a      1527     2     7     3     1
  5.8098068452272578E-01 a      1528     2     8     3     1
 -4.5836087047779278E-01 a      1529     2     9     3     1
  9.9617809051553444E-02 a      1530     2    10     3     1
  4.9262074018101681E-01 a      1531     2    11     3     1
  7.6713217894232721E-01 a      1532     2    12     3     1
 -3.9594047204640820E-01 a      1533     2    13     3     1
 -9.6988938448656825E-01 a      1534     2    14     3     1
 -7.9148863769426492E-01 a      1535     2    15     3     1
 -1.5606623393219476E-01 a      1536     2    16     3     1
 -2.2099353746574424E-01 a      1537     2    17     3     1
 -5.5718832217467551E-01 a      1538     2    18     3     1
  2.4953818701233316E-01 a      1539     2    19     3     1
 -6.4742933111116763E-01 a      1540     2    20     3     1
 -1.0768891118894939E+00 b      1541     3     1
