################################################################################
# Neural network connection values (weights and biases).
################################################################################
# Col  Name       Description
################################################################################
# 1    connection Neural network connection value.
# 2    t          Connection type (a = weight, b = bias).
# 3    index      Index enumerating weights.
# 4    l_s        Starting point layer (end point layer for biases).
# 5    n_s        Starting point neuron in starting layer (end point neuron for biases).
# 6    l_e        End point layer.
# 7    n_e        End point neuron in end layer.
################################################################################
#                      1 2         3     4     5     6     7
#             connection t     index   l_s   n_s   l_e   n_e
############################################################
  2.3487628540321287E-01 a         1     0     1     1     1
 -4.2668656660250277E-02 a         2     0     1     1     2
 -1.7445785612040265E-01 a         3     0     1     1     3
 -2.8598114249003670E-01 a         4     0     1     1     4
 -1.0055356438974683E-01 a         5     0     1     1     5
  2.4713620387927918E-02 a         6     0     1     1     6
  8.6275774336280683E-02 a         7     0     1     1     7
 -2.1192073807031334E-01 a         8     0     1     1     8
  1.3718866267965779E-01 a         9     0     1     1     9
  2.8122611578015916E-01 a        10     0     1     1    10
  2.4345263780960726E-02 a        11     0     1     1    11
  1.2728969223152639E-01 a        12     0     1     1    12
  1.5219352228089375E-01 a        13     0     1     1    13
 -9.5492369543281760E-02 a        14     0     1     1    14
 -2.3385663553196245E-01 a        15     0     1     1    15
  2.5260953856087476E-01 a        16     0     1     1    16
 -3.6795325338922846E-01 a        17     0     1     1    17
 -6.7955507850805353E-03 a        18     0     1     1    18
  6.4686005279325431E-01 a        19     0     1     1    19
 -4.0944116915259599E-01 a        20     0     1     1    20
 -4.2598007239314270E-02 a        21     0     2     1     1
  1.6794687186672222E-01 a        22     0     2     1     2
  1.1892105468510553E-02 a        23     0     2     1     3
  2.3157485982330439E-01 a        24     0     2     1     4
 -2.0378635872389933E-01 a        25     0     2     1     5
  1.4624052018561984E-01 a        26     0     2     1     6
 -1.0361485062176515E-01 a        27     0     2     1     7
  1.5728493555017228E-01 a        28     0     2     1     8
 -2.4009505644545400E-02 a        29     0     2     1     9
  4.1301976640336613E-01 a        30     0     2     1    10
  3.9622513464799274E-02 a        31     0     2     1    11
  6.5249767928530502E-04 a        32     0     2     1    12
 -9.6739013959288037E-02 a        33     0     2     1    13
 -4.1975349515653064E-02 a        34     0     2     1    14
 -5.4959332893587766E-02 a        35     0     2     1    15
  1.4431210049073813E-02 a        36     0     2     1    16
  1.8388698405434031E-01 a        37     0     2     1    17
 -2.8634723660800249E-01 a        38     0     2     1    18
  7.4605037100427790E-02 a        39     0     2     1    19
 -1.8972200278486265E-01 a        40     0     2     1    20
  1.7097730044101991E-01 a        41     0     3     1     1
 -6.9983185134906423E-02 a        42     0     3     1     2
  5.7785103099294555E-01 a        43     0     3     1     3
 -6.3924457614441677E-01 a        44     0     3     1     4
 -2.6280787501628861E-01 a        45     0     3     1     5
 -3.7309889915384431E-01 a        46     0     3     1     6
 -7.7649420837482852E-01 a        47     0     3     1     7
 -8.6076824644847494E-01 a        48     0     3     1     8
  4.0558301054165441E-01 a        49     0     3     1     9
  2.3164306010669911E-01 a        50     0     3     1    10
 -2.3707198935318841E-01 a        51     0     3     1    11
 -3.4881800702208732E-01 a        52     0     3     1    12
  8.2597572406356123E-01 a        53     0     3     1    13
  3.5728065150782633E-02 a        54     0     3     1    14
 -2.8086993835282603E-01 a        55     0     3     1    15
 -6.1040080515528161E-01 a        56     0     3     1    16
  2.8476685854044692E-01 a        57     0     3     1    17
 -8.1995698254993032E-01 a        58     0     3     1    18
  9.8103717419941491E-02 a        59     0     3     1    19
 -4.3815566865557892E-01 a        60     0     3     1    20
  4.5236136030721109E-02 a        61     0     4     1     1
 -2.5511227654891028E-01 a        62     0     4     1     2
  2.5874216610663037E-01 a        63     0     4     1     3
  3.1977387387666939E-01 a        64     0     4     1     4
  5.6343543991907741E-01 a        65     0     4     1     5
 -3.2423111239960452E-02 a        66     0     4     1     6
 -1.1750229958899069E-01 a        67     0     4     1     7
 -6.5860915702654718E-02 a        68     0     4     1     8
 -4.3940271943997064E-02 a        69     0     4     1     9
 -2.1257411488701852E-01 a        70     0     4     1    10
 -6.1845150378753200E-01 a        71     0     4     1    11
  1.1059353737203141E+00 a        72     0     4     1    12
  1.8888933284909221E-01 a        73     0     4     1    13
  7.4052112156372962E-01 a        74     0     4     1    14
 -1.2403192184071623E+00 a        75     0     4     1    15
 -5.5685431638783689E-01 a        76     0     4     1    16
  8.3093810962009396E-01 a        77     0     4     1    17
  1.4925744639789043E-01 a        78     0     4     1    18
 -4.6071443371353743E-01 a        79     0     4     1    19
  3.6138016456267319E-01 a        80     0     4     1    20
  2.9893529506887551E-01 a        81     0     5     1     1
 -1.3447205136042029E-01 a        82     0     5     1     2
  2.7956831888838657E-01 a        83     0     5     1     3
 -1.6067289495629003E-01 a        84     0     5     1     4
 -2.4030599327861643E-01 a        85     0     5     1     5
 -5.6477500555756531E-02 a        86     0     5     1     6
  1.0934586808570516E-01 a        87     0     5     1     7
 -2.0393787963602111E-01 a        88     0     5     1     8
  2.2577325889242195E-01 a        89     0     5     1     9
 -1.9408257839493726E-02 a        90     0     5     1    10
 -3.4128212688901954E-02 a        91     0     5     1    11
  2.9911357339447258E-02 a        92     0     5     1    12
  4.9409090216629897E-02 a        93     0     5     1    13
  7.5703240511437814E-02 a        94     0     5     1    14
  1.6458575672213513E-01 a        95     0     5     1    15
 -3.0684148554382890E-01 a        96     0     5     1    16
  5.4314902900500211E-03 a        97     0     5     1    17
  1.8212467759972858E-01 a        98     0     5     1    18
  5.0266687053938337E-02 a        99     0     5     1    19
  2.4978331115836344E-01 a       100     0     5     1    20
 -3.5475998734168573E-01 a       101     0     6     1     1
 -3.5181252468841390E-01 a       102     0     6     1     2
 -5.6128519935652210E-01 a       103     0     6     1     3
  1.4094794135544331E-01 a       104     0     6     1     4
  2.8930404945802450E-02 a       105     0     6     1     5
  4.0985509890424304E-01 a       106     0     6     1     6
 -6.8091487340918666E-01 a       107     0     6     1     7
  1.1858827634257558E+00 a       108     0     6     1     8
 -4.0467841089412093E-01 a       109     0     6     1     9
  4.4521405889628574E-01 a       110     0     6     1    10
 -2.0020644297881246E-01 a       111     0     6     1    11
  3.6181312441953933E-01 a       112     0     6     1    12
 -4.2007043999054910E-01 a       113     0     6     1    13
 -2.0145979285836738E-01 a       114     0     6     1    14
  1.4102814863571542E-01 a       115     0     6     1    15
 -2.2678536968905305E-01 a       116     0     6     1    16
 -6.1384114949372715E-01 a       117     0     6     1    17
  9.7419070040663225E-01 a       118     0     6     1    18
 -2.3230163228969603E-01 a       119     0     6     1    19
  4.7406158108250845E-01 a       120     0     6     1    20
  1.8555972613889499E-01 a       121     0     7     1     1
 -1.8239337947553819E-01 a       122     0     7     1     2
 -3.4520171586105375E-01 a       123     0     7     1     3
 -6.6294884119774092E-02 a       124     0     7     1     4
 -8.0873089038711332E-01 a       125     0     7     1     5
 -8.9044167276285266E-02 a       126     0     7     1     6
  4.8514784550507800E-01 a       127     0     7     1     7
 -1.4062922957145002E-01 a       128     0     7     1     8
 -3.6578892402037322E-01 a       129     0     7     1     9
  4.7872427427772835E-01 a       130     0     7     1    10
  1.0491516330068467E+00 a       131     0     7     1    11
 -1.2327653269075736E+00 a       132     0     7     1    12
 -9.0352145025712399E-02 a       133     0     7     1    13
 -2.3387903601929028E-01 a       134     0     7     1    14
  1.0402820670735129E+00 a       135     0     7     1    15
  5.0891910485239455E-01 a       136     0     7     1    16
 -5.8864458817432119E-01 a       137     0     7     1    17
 -1.0382123646496816E-01 a       138     0     7     1    18
 -1.2315507704460185E-01 a       139     0     7     1    19
 -6.8998278237680982E-02 a       140     0     7     1    20
  2.4828980574538878E-01 a       141     0     8     1     1
  3.2940032919242918E-01 a       142     0     8     1     2
  3.2651844102349128E-02 a       143     0     8     1     3
  7.7291113750076593E-02 a       144     0     8     1     4
  2.3816281473585427E-01 a       145     0     8     1     5
 -2.7511215757978807E-01 a       146     0     8     1     6
  8.1613309148157301E-02 a       147     0     8     1     7
 -1.3681717169614893E-01 a       148     0     8     1     8
 -7.6342041703551050E-02 a       149     0     8     1     9
 -1.6200282750435138E-01 a       150     0     8     1    10
 -1.9809198203838276E-02 a       151     0     8     1    11
  1.5956008267433608E-01 a       152     0     8     1    12
 -5.1245812606485357E-02 a       153     0     8     1    13
 -1.1499370365090379E-01 a       154     0     8     1    14
 -1.1902927866947284E-01 a       155     0     8     1    15
  7.8429428690584585E-02 a       156     0     8     1    16
 -3.0540588872911265E-02 a       157     0     8     1    17
 -4.3426371105125795E-02 a       158     0     8     1    18
  8.1522837786754208E-03 a       159     0     8     1    19
 -2.1707111988794922E-01 a       160     0     8     1    20
  4.6521616274379185E-01 a       161     0     9     1     1
  2.8509151351393963E-01 a       162     0     9     1     2
  1.1889497165374092E-01 a       163     0     9     1     3
  8.5620795745965525E-02 a       164     0     9     1     4
 -2.9644372835888666E-01 a       165     0     9     1     5
  8.9623023002236221E-02 a       166     0     9     1     6
 -2.7301256741682894E-01 a       167     0     9     1     7
 -4.1635283334463175E-01 a       168     0     9     1     8
  2.5031751303029803E-01 a       169     0     9     1     9
  4.0898227499120193E-01 a       170     0     9     1    10
 -8.0105843432291746E-01 a       171     0     9     1    11
 -2.2111808503816166E-01 a       172     0     9     1    12
  1.4057597766207444E-01 a       173     0     9     1    13
 -2.6483425011896866E-01 a       174     0     9     1    14
 -1.6172850551849594E-01 a       175     0     9     1    15
 -3.5897298867140676E-01 a       176     0     9     1    16
  3.5546600401842499E-01 a       177     0     9     1    17
 -3.3704501076752069E-01 a       178     0     9     1    18
  4.5242692967846176E-01 a       179     0     9     1    19
  9.5185018807382324E-02 a       180     0     9     1    20
  1.0466166725320511E-01 a       181     0    10     1     1
 -2.6672272580988365E-01 a       182     0    10     1     2
  1.5666037727037571E-01 a       183     0    10     1     3
  2.2615454647276886E-01 a       184     0    10     1     4
  3.3791945630097370E-01 a       185     0    10     1     5
 -3.6103032668561152E-01 a       186     0    10     1     6
 -4.4266250758265402E-02 a       187     0    10     1     7
 -3.7992994068004282E-01 a       188     0    10     1     8
  1.0911089926240791E-01 a       189     0    10     1     9
  5.5389747270906550E-02 a       190     0    10     1    10
 -2.2511411210712590E-01 a       191     0    10     1    11
  1.0447335253904146E+00 a       192     0    10     1    12
  1.7292866328937573E-01 a       193     0    10     1    13
  3.0721871959997199E-01 a       194     0    10     1    14
 -6.2533135270547824E-01 a       195     0    10     1    15
 -1.0450504841774992E-01 a       196     0    10     1    16
  5.1734363857299281E-01 a       197     0    10     1    17
  9.7113160757502731E-02 a       198     0    10     1    18
 -8.8274372690802932E-02 a       199     0    10     1    19
  2.6805773830612756E-01 a       200     0    10     1    20
  1.4774884443969288E-01 a       201     0    11     1     1
 -1.6081847320191540E-02 a       202     0    11     1     2
 -5.9324040248790386E-02 a       203     0    11     1     3
  9.4959729192647641E-02 a       204     0    11     1     4
 -7.2951622754578588E-02 a       205     0    11     1     5
  3.2296986308367727E-02 a       206     0    11     1     6
 -1.6235077177101137E-01 a       207     0    11     1     7
  2.0481034474549978E-01 a       208     0    11     1     8
  2.6161059616045370E-04 a       209     0    11     1     9
  1.2304080889978487E-01 a       210     0    11     1    10
 -8.9801918787890497E-02 a       211     0    11     1    11
 -2.3021247024928768E-01 a       212     0    11     1    12
 -2.4313221503076241E-03 a       213     0    11     1    13
 -1.5470294838553103E-02 a       214     0    11     1    14
 -6.1928476311915927E-02 a       215     0    11     1    15
 -1.2227890861562741E-02 a       216     0    11     1    16
 -2.0383194956517275E-02 a       217     0    11     1    17
 -1.6743080792069717E-01 a       218     0    11     1    18
  1.2010659895501150E-01 a       219     0    11     1    19
  2.2436252721448096E-02 a       220     0    11     1    20
  1.4390819936018820E-01 a       221     0    12     1     1
 -5.0531366164507485E-01 a       222     0    12     1     2
  2.0063599878811988E-01 a       223     0    12     1     3
 -1.1831417324164639E-01 a       224     0    12     1     4
 -1.5173660592290850E-01 a       225     0    12     1     5
  4.3652070427866912E-01 a       226     0    12     1     6
  8.6352236975562602E-03 a       227     0    12     1     7
 -8.4980403256623122E-02 a       228     0    12     1     8
  2.1810678706059928E-03 a       229     0    12     1     9
 -1.8110244340737941E-01 a       230     0    12     1    10
 -2.6395451996436059E-01 a       231     0    12     1    11
  2.2998811106672654E-01 a       232     0    12     1    12
 -1.4236436376168998E-01 a       233     0    12     1    13
 -2.5056003287342810E-01 a       234     0    12     1    14
 -1.2998400337404879E-02 a       235     0    12     1    15
 -9.3570981975888090E-02 a       236     0    12     1    16
 -4.6844697862679502E-01 a       237     0    12     1    17
  1.2934366693836280E-01 a       238     0    12     1    18
 -3.6536221485942344E-01 a       239     0    12     1    19
 -1.8497262644708201E-01 a       240     0    12     1    20
 -8.4158051435462247E-02 a       241     0    13     1     1
  2.4522955780622146E-03 a       242     0    13     1     2
 -2.0047864483541342E-01 a       243     0    13     1     3
 -1.4463175915676102E-01 a       244     0    13     1     4
 -9.9855775293753932E-02 a       245     0    13     1     5
  4.4033724934444789E-02 a       246     0    13     1     6
  8.5622739203620790E-02 a       247     0    13     1     7
  6.8253294110275281E-02 a       248     0    13     1     8
 -1.7897570138055272E-01 a       249     0    13     1     9
  1.2761841211967165E-01 a       250     0    13     1    10
  6.4887318498543289E-02 a       251     0    13     1    11
 -4.9816984941223497E-01 a       252     0    13     1    12
  2.7698768844145152E-02 a       253     0    13     1    13
  2.6775726703733621E-01 a       254     0    13     1    14
 -1.0632854463076571E-01 a       255     0    13     1    15
 -2.1275648790796783E-02 a       256     0    13     1    16
 -4.4211116675142582E-02 a       257     0    13     1    17
  2.0585883852123801E-01 a       258     0    13     1    18
  1.7803263090653232E-01 a       259     0    13     1    19
  7.8421373877541028E-04 a       260     0    13     1    20
 -8.5060228496258369E-02 a       261     0    14     1     1
 -1.9281270075480034E-01 a       262     0    14     1     2
  1.7748430017650441E-01 a       263     0    14     1     3
  7.9482415161231959E-02 a       264     0    14     1     4
 -1.2318967805656576E-01 a       265     0    14     1     5
  3.3438103718719339E-03 a       266     0    14     1     6
  6.0861981030341329E-02 a       267     0    14     1     7
 -1.4454233193934385E-01 a       268     0    14     1     8
 -9.9974368334495189E-02 a       269     0    14     1     9
  1.2409439482247518E-01 a       270     0    14     1    10
 -1.8929950746194406E-02 a       271     0    14     1    11
  1.3573223614572399E-01 a       272     0    14     1    12
 -8.5466893304016592E-02 a       273     0    14     1    13
  2.0402319727106832E-02 a       274     0    14     1    14
  3.9834310757038251E-03 a       275     0    14     1    15
 -1.8589426349602048E-01 a       276     0    14     1    16
  1.6040523122738146E-01 a       277     0    14     1    17
  2.0155687434653669E-02 a       278     0    14     1    18
 -7.5713647199466938E-02 a       279     0    14     1    19
  8.7660609104598608E-02 a       280     0    14     1    20
  1.1774124366184939E-01 a       281     0    15     1     1
  1.3547892255932562E-01 a       282     0    15     1     2
  8.5288955683199164E-02 a       283     0    15     1     3
  1.8261336338670900E-01 a       284     0    15     1     4
  8.0205938238412114E-02 a       285     0    15     1     5
  8.3994059125849077E-02 a       286     0    15     1     6
 -1.5062212675026859E-01 a       287     0    15     1     7
  3.7397411929091123E-01 a       288     0    15     1     8
  3.3533358071565555E-01 a       289     0    15     1     9
  2.4046943878350677E-01 a       290     0    15     1    10
 -1.9614339504320302E-01 a       291     0    15     1    11
 -1.4897695799361863E-01 a       292     0    15     1    12
 -1.0409657140554949E-02 a       293     0    15     1    13
 -2.1738347931300306E-01 a       294     0    15     1    14
 -4.7109421338035591E-02 a       295     0    15     1    15
 -1.5488658590527332E-01 a       296     0    15     1    16
  1.7334311634073135E-01 a       297     0    15     1    17
 -3.0052000763534951E-03 a       298     0    15     1    18
  3.3251138238892708E-01 a       299     0    15     1    19
  4.2101265232785495E-01 a       300     0    15     1    20
  1.5218988322430965E-01 a       301     0    16     1     1
  1.8225544758410320E-01 a       302     0    16     1     2
 -7.2350640529293936E-02 a       303     0    16     1     3
  4.4338113725384092E-02 a       304     0    16     1     4
 -1.8544504911660528E-01 a       305     0    16     1     5
  2.6253959765389190E-02 a       306     0    16     1     6
  8.2531259416227729E-02 a       307     0    16     1     7
 -1.5319435773201195E-01 a       308     0    16     1     8
 -5.7662715510461628E-02 a       309     0    16     1     9
  9.6159378286077707E-03 a       310     0    16     1    10
  1.3801306633124460E-01 a       311     0    16     1    11
  1.8125427094677471E-01 a       312     0    16     1    12
  1.1937244230289414E-01 a       313     0    16     1    13
 -1.7581060700170095E-01 a       314     0    16     1    14
  2.4681409035492399E-01 a       315     0    16     1    15
  3.3947177872097295E-01 a       316     0    16     1    16
  5.6237872629845698E-03 a       317     0    16     1    17
  5.2355919652016226E-02 a       318     0    16     1    18
 -3.3413853161437318E-01 a       319     0    16     1    19
 -1.0978250064756538E-01 a       320     0    16     1    20
  2.0064480111484772E-02 a       321     0    17     1     1
  2.1205895737061886E-01 a       322     0    17     1     2
 -9.9157974420276393E-02 a       323     0    17     1     3
 -6.2315031223206196E-02 a       324     0    17     1     4
  2.1677999090794042E-02 a       325     0    17     1     5
 -1.7688904763699907E-02 a       326     0    17     1     6
 -4.2163823127472230E-02 a       327     0    17     1     7
  2.6777295436660999E-02 a       328     0    17     1     8
  9.7377080997201534E-03 a       329     0    17     1     9
 -9.0500705497565254E-02 a       330     0    17     1    10
 -3.9342095599797539E-02 a       331     0    17     1    11
 -1.2419789857162757E-01 a       332     0    17     1    12
  4.3125125591734884E-02 a       333     0    17     1    13
 -3.2727637293442233E-02 a       334     0    17     1    14
 -7.9087398405661823E-03 a       335     0    17     1    15
  2.3023760130804368E-02 a       336     0    17     1    16
 -1.2322657484810398E-01 a       337     0    17     1    17
 -1.3272505032752063E-01 a       338     0    17     1    18
 -1.4216513325385699E-01 a       339     0    17     1    19
  2.6499723891375955E-02 a       340     0    17     1    20
  1.1083815059322018E-01 a       341     0    18     1     1
 -6.1014172585234427E-01 a       342     0    18     1     2
  4.8242880308730744E-02 a       343     0    18     1     3
 -1.3788941290689016E-01 a       344     0    18     1     4
 -1.2883311133172426E-01 a       345     0    18     1     5
 -1.5736325006599949E-02 a       346     0    18     1     6
 -3.6748746498120592E-02 a       347     0    18     1     7
 -2.9995953576064194E-01 a       348     0    18     1     8
 -2.4487925940320696E-01 a       349     0    18     1     9
 -8.1109782179285023E-02 a       350     0    18     1    10
 -2.3074618739384842E-01 a       351     0    18     1    11
  9.0316196955459033E-03 a       352     0    18     1    12
 -1.2992556663965399E-01 a       353     0    18     1    13
  7.4127321732147894E-02 a       354     0    18     1    14
 -1.6969311240243609E-01 a       355     0    18     1    15
 -3.8184805206878053E-01 a       356     0    18     1    16
 -7.6288864454237992E-02 a       357     0    18     1    17
 -2.7392659879990644E-01 a       358     0    18     1    18
 -1.3931565554576505E-01 a       359     0    18     1    19
 -5.7156737861741864E-02 a       360     0    18     1    20
 -3.2387448306951289E-01 a       361     0    19     1     1
  2.9851790553580720E-01 a       362     0    19     1     2
  7.4828167329680506E-02 a       363     0    19     1     3
  3.9708860641318601E-02 a       364     0    19     1     4
  5.8796801483737220E-02 a       365     0    19     1     5
  1.6328414596380337E-03 a       366     0    19     1     6
 -1.2325947644623123E-02 a       367     0    19     1     7
  4.0097327150798882E-02 a       368     0    19     1     8
  1.4222002491237284E-01 a       369     0    19     1     9
  5.9751202294223905E-02 a       370     0    19     1    10
 -1.7348204921165838E-01 a       371     0    19     1    11
  9.7376900328597832E-02 a       372     0    19     1    12
  2.2656911817713701E-02 a       373     0    19     1    13
  1.4383091952011792E-01 a       374     0    19     1    14
 -1.6474785456434821E-01 a       375     0    19     1    15
 -1.5696802505625392E-02 a       376     0    19     1    16
  9.2459354735668631E-02 a       377     0    19     1    17
  7.3422088438588648E-02 a       378     0    19     1    18
  3.2627338762844393E-01 a       379     0    19     1    19
 -2.7936120227632888E-01 a       380     0    19     1    20
  5.6153694877563110E-02 a       381     0    20     1     1
 -2.3394010839656351E-01 a       382     0    20     1     2
  1.5952575469008576E-01 a       383     0    20     1     3
  8.1821743793036666E-02 a       384     0    20     1     4
 -9.2522442349029545E-03 a       385     0    20     1     5
  6.6580699545741404E-02 a       386     0    20     1     6
  4.4746853354671046E-02 a       387     0    20     1     7
 -1.3188796642119908E-02 a       388     0    20     1     8
 -1.1527403775338866E-02 a       389     0    20     1     9
  6.2810576382945890E-02 a       390     0    20     1    10
  5.4302271042283946E-02 a       391     0    20     1    11
  1.1183205999744893E-01 a       392     0    20     1    12
 -4.9565904531333735E-02 a       393     0    20     1    13
  4.1565826304796613E-03 a       394     0    20     1    14
  7.6371376240082611E-02 a       395     0    20     1    15
  4.5199861937020323E-02 a       396     0    20     1    16
  9.1465651537715478E-02 a       397     0    20     1    17
  9.2240494089978434E-02 a       398     0    20     1    18
  1.0826108212102636E-01 a       399     0    20     1    19
 -3.1162460945471475E-02 a       400     0    20     1    20
  1.2021357467538167E-01 a       401     0    21     1     1
 -4.8791718994955151E-02 a       402     0    21     1     2
 -3.5085282923862939E-03 a       403     0    21     1     3
  1.9164013376914250E-02 a       404     0    21     1     4
  1.5009677624998122E-01 a       405     0    21     1     5
  1.2813720998966591E-01 a       406     0    21     1     6
 -3.2977034328583753E-02 a       407     0    21     1     7
  2.6476008870629453E-01 a       408     0    21     1     8
  1.3115035258193627E-01 a       409     0    21     1     9
 -1.1385460550384935E-01 a       410     0    21     1    10
  1.7649968406386826E-01 a       411     0    21     1    11
 -7.5771828884501305E-02 a       412     0    21     1    12
 -1.6165562699227986E-02 a       413     0    21     1    13
  2.8426820860052635E-04 a       414     0    21     1    14
  1.6559422606360807E-03 a       415     0    21     1    15
  1.7952082106750804E-02 a       416     0    21     1    16
 -1.0517099156461642E-02 a       417     0    21     1    17
  1.1715889065395901E-01 a       418     0    21     1    18
 -9.3319627769100175E-02 a       419     0    21     1    19
  3.1226290300567755E-01 a       420     0    21     1    20
  4.0453582666403136E-02 a       421     0    22     1     1
  3.6911519392712683E-01 a       422     0    22     1     2
 -1.0456176055134390E-01 a       423     0    22     1     3
  2.5532684944347753E-02 a       424     0    22     1     4
 -1.8394031400892624E-01 a       425     0    22     1     5
 -7.5819451923373801E-03 a       426     0    22     1     6
  1.3419589164158269E-01 a       427     0    22     1     7
 -8.4058368584321197E-02 a       428     0    22     1     8
 -9.0403309778885776E-02 a       429     0    22     1     9
  3.0470707240079609E-01 a       430     0    22     1    10
  1.3465051136482026E-01 a       431     0    22     1    11
 -1.3749527921309354E-01 a       432     0    22     1    12
  8.7258739082626491E-02 a       433     0    22     1    13
 -2.7147298658744656E-01 a       434     0    22     1    14
  2.6276163018914489E-01 a       435     0    22     1    15
  2.4692256209848346E-01 a       436     0    22     1    16
 -8.8033643373759976E-02 a       437     0    22     1    17
  3.9044110751369494E-02 a       438     0    22     1    18
 -3.3590145531333387E-01 a       439     0    22     1    19
  8.2987246669143658E-02 a       440     0    22     1    20
 -2.4296574930775756E-02 a       441     0    23     1     1
  1.9117031278285004E-01 a       442     0    23     1     2
 -1.3407658309813611E-01 a       443     0    23     1     3
 -6.9870620886046314E-02 a       444     0    23     1     4
 -1.0558485373187020E-03 a       445     0    23     1     5
 -9.3173283790862010E-02 a       446     0    23     1     6
 -5.5711594860862725E-02 a       447     0    23     1     7
  5.0184885993799361E-02 a       448     0    23     1     8
  2.5311440235562740E-02 a       449     0    23     1     9
 -5.4073343622291908E-02 a       450     0    23     1    10
 -2.1180662959819217E-02 a       451     0    23     1    11
 -1.0735007046639823E-01 a       452     0    23     1    12
  1.6526670973440235E-02 a       453     0    23     1    13
  3.0056305385886817E-02 a       454     0    23     1    14
 -1.1760008470299568E-01 a       455     0    23     1    15
 -6.0212826203252960E-02 a       456     0    23     1    16
 -3.0453775069998711E-02 a       457     0    23     1    17
 -5.2304374475183636E-02 a       458     0    23     1    18
 -3.9714059180911018E-02 a       459     0    23     1    19
  3.5290378491447158E-02 a       460     0    23     1    20
  1.7186308217763838E-01 a       461     0    24     1     1
 -6.4511696029964694E-01 a       462     0    24     1     2
  3.8025224680764691E-02 a       463     0    24     1     3
 -5.2172772909180348E-02 a       464     0    24     1     4
  6.7290013856196443E-02 a       465     0    24     1     5
 -9.0816186385457756E-02 a       466     0    24     1     6
 -1.0683438228780801E-01 a       467     0    24     1     7
 -7.0070125786356463E-03 a       468     0    24     1     8
 -1.6818086632476725E-01 a       469     0    24     1     9
 -2.2105310379227391E-01 a       470     0    24     1    10
 -4.1503777508156828E-02 a       471     0    24     1    11
  7.0393016710579692E-03 a       472     0    24     1    12
 -1.2261746804623608E-01 a       473     0    24     1    13
  1.4822558978402323E-01 a       474     0    24     1    14
 -5.2077295562325591E-02 a       475     0    24     1    15
 -2.3848372488801145E-01 a       476     0    24     1    16
  6.3227264661518984E-02 a       477     0    24     1    17
 -1.5111238309217365E-01 a       478     0    24     1    18
  2.2006331233882778E-01 a       479     0    24     1    19
 -7.6311984714023048E-03 a       480     0    24     1    20
 -1.5024993740434650E-02 a       481     0    25     1     1
  4.9575258333476195E-02 a       482     0    25     1     2
  7.0413118489435891E-02 a       483     0    25     1     3
  6.3738348236293688E-03 a       484     0    25     1     4
  7.9294096609885928E-02 a       485     0    25     1     5
 -2.7856144408952430E-02 a       486     0    25     1     6
 -6.5035768526038693E-02 a       487     0    25     1     7
  2.0356058711517547E-03 a       488     0    25     1     8
  3.8641090413922628E-02 a       489     0    25     1     9
 -6.3827078779316329E-02 a       490     0    25     1    10
 -7.9548859832705598E-02 a       491     0    25     1    11
  1.0282636137167560E-01 a       492     0    25     1    12
 -1.0924495989329444E-02 a       493     0    25     1    13
  1.1250639231588898E-01 a       494     0    25     1    14
 -8.4029618024443711E-02 a       495     0    25     1    15
 -2.9309377184809773E-02 a       496     0    25     1    16
  3.3853532910093020E-02 a       497     0    25     1    17
 -1.2728817241612764E-02 a       498     0    25     1    18
  1.6140909721369692E-01 a       499     0    25     1    19
 -1.2200411890129786E-01 a       500     0    25     1    20
 -2.7258101775501122E-02 a       501     0    26     1     1
 -1.4104379987455432E-01 a       502     0    26     1     2
  9.0448076147776196E-02 a       503     0    26     1     3
  4.3391642830385081E-02 a       504     0    26     1     4
 -3.3495097702687842E-03 a       505     0    26     1     5
  7.7983607399781260E-02 a       506     0    26     1     6
  3.8670309981748009E-02 a       507     0    26     1     7
 -3.2724547053540144E-02 a       508     0    26     1     8
 -2.0359060153814772E-02 a       509     0    26     1     9
  2.7080849805332947E-02 a       510     0    26     1    10
  6.4286960561432671E-04 a       511     0    26     1    11
  7.7712326486017405E-02 a       512     0    26     1    12
 -6.2649332662564877E-03 a       513     0    26     1    13
 -3.1300639072339494E-02 a       514     0    26     1    14
  1.1263432880873986E-01 a       515     0    26     1    15
  4.2778406306410811E-02 a       516     0    26     1    16
  2.0195452563234215E-02 a       517     0    26     1    17
  1.7282716472058545E-02 a       518     0    26     1    18
  3.1805671033398410E-02 a       519     0    26     1    19
 -5.7430801959359540E-02 a       520     0    26     1    20
 -2.3762391347430516E-02 a       521     0    27     1     1
  1.9518602886947903E-01 a       522     0    27     1     2
 -4.4912696622078245E-02 a       523     0    27     1     3
 -3.0505206601180158E-02 a       524     0    27     1     4
 -7.4257563283244316E-02 a       525     0    27     1     5
  7.9094785961719358E-02 a       526     0    27     1     6
  2.8326459825071908E-02 a       527     0    27     1     7
 -4.3774078632193653E-02 a       528     0    27     1     8
  6.2894991682116944E-02 a       529     0    27     1     9
  2.0927792757132590E-02 a       530     0    27     1    10
 -5.3631702320317901E-02 a       531     0    27     1    11
 -4.2470489368931864E-02 a       532     0    27     1    12
  5.1148568215935719E-02 a       533     0    27     1    13
 -2.5786743606295310E-02 a       534     0    27     1    14
 -8.7205790178991077E-02 a       535     0    27     1    15
  7.4615992260297225E-04 a       536     0    27     1    16
 -4.6981678706845234E-02 a       537     0    27     1    17
  2.2023947340660280E-02 a       538     0    27     1    18
 -1.8806942745543570E-01 a       539     0    27     1    19
  6.1959849978663689E-02 a       540     0    27     1    20
 -1.5310422266021365E-01 a       541     0    28     1     1
  1.9014588398959517E-01 a       542     0    28     1     2
 -3.7620597616430315E-02 a       543     0    28     1     3
  4.3774889020629648E-02 a       544     0    28     1     4
 -3.7829138206765811E-02 a       545     0    28     1     5
  5.8243068425571096E-03 a       546     0    28     1     6
  7.9366352229626777E-02 a       547     0    28     1     7
 -1.1496602496177061E-02 a       548     0    28     1     8
  1.1434409417533336E-02 a       549     0    28     1     9
  2.2310672294451081E-01 a       550     0    28     1    10
  5.8789004696547685E-03 a       551     0    28     1    11
 -3.5198780693015810E-02 a       552     0    28     1    12
  3.9062409670895894E-02 a       553     0    28     1    13
 -1.1578803231269251E-01 a       554     0    28     1    14
  7.5710783834902692E-02 a       555     0    28     1    15
  4.2049834909647900E-02 a       556     0    28     1    16
 -7.7252344412094918E-03 a       557     0    28     1    17
  1.5503145556652650E-02 a       558     0    28     1    18
 -9.4432204382777871E-02 a       559     0    28     1    19
  3.6988468943180967E-02 a       560     0    28     1    20
  2.4158992384021957E-02 a       561     0    29     1     1
  7.9619810457166151E-02 a       562     0    29     1     2
 -2.3154199457216557E-02 a       563     0    29     1     3
 -1.3965033483810851E-02 a       564     0    29     1     4
 -7.7075040056158719E-03 a       565     0    29     1     5
 -2.9362340755406755E-02 a       566     0    29     1     6
 -7.7950063358106642E-03 a       567     0    29     1     7
  1.3703801000358378E-02 a       568     0    29     1     8
  1.4524899530320863E-02 a       569     0    29     1     9
  5.4343900023515819E-04 a       570     0    29     1    10
  3.2796122772838381E-03 a       571     0    29     1    11
 -2.8661213629770935E-02 a       572     0    29     1    12
  4.9666939988103802E-03 a       573     0    29     1    13
 -3.0331492197162947E-04 a       574     0    29     1    14
 -3.3199660070312477E-02 a       575     0    29     1    15
 -1.0461199900204509E-03 a       576     0    29     1    16
 -1.4390548709723812E-02 a       577     0    29     1    17
  1.6685342004089743E-03 a       578     0    29     1    18
 -3.2636227322477597E-02 a       579     0    29     1    19
  2.4178671079631286E-02 a       580     0    29     1    20
  1.1137496270756192E-01 a       581     0    30     1     1
 -3.6998591361081579E-01 a       582     0    30     1     2
  4.8410913273980338E-02 a       583     0    30     1     3
 -1.5031434175930896E-02 a       584     0    30     1     4
  6.8378081392177742E-02 a       585     0    30     1     5
 -1.2699733838189089E-02 a       586     0    30     1     6
 -5.3177017237417121E-02 a       587     0    30     1     7
  8.9539110812808242E-02 a       588     0    30     1     8
 -1.3356521653374536E-02 a       589     0    30     1     9
 -2.1967177834445800E-01 a       590     0    30     1    10
  4.3085048029097378E-02 a       591     0    30     1    11
  1.1326234847099081E-02 a       592     0    30     1    12
 -7.4800383921409558E-02 a       593     0    30     1    13
  6.6795491627830259E-02 a       594     0    30     1    14
 -1.5311098132034450E-02 a       595     0    30     1    15
 -6.0211659585213170E-02 a       596     0    30     1    16
  5.3253974263118592E-02 a       597     0    30     1    17
 -1.9557742671363308E-02 a       598     0    30     1    18
  1.5367743029110861E-01 a       599     0    30     1    19
 -1.3212381499208153E-02 a       600     0    30     1    20
 -3.6113976498429193E-02 a       601     0    31     1     1
  4.7423923628294767E-01 a       602     0    31     1     2
  1.9909038965405701E-01 a       603     0    31     1     3
 -3.6255497773285567E-01 a       604     0    31     1     4
  4.0402523008772076E-02 a       605     0    31     1     5
  2.8073884981778285E-01 a       606     0    31     1     6
  2.5742491180433819E-01 a       607     0    31     1     7
  4.1732960111227235E-02 a       608     0    31     1     8
 -3.5156509623344995E-01 a       609     0    31     1     9
 -4.2738382973209832E-01 a       610     0    31     1    10
  2.3344507330927583E-01 a       611     0    31     1    11
 -1.9804332945266759E-01 a       612     0    31     1    12
 -8.5953858087032819E-02 a       613     0    31     1    13
  8.6685226389864901E-03 a       614     0    31     1    14
 -3.6127842440183072E-01 a       615     0    31     1    15
  1.8052547338883634E-01 a       616     0    31     1    16
  1.1398275993868018E-01 a       617     0    31     1    17
 -2.9717628025909093E-01 a       618     0    31     1    18
  7.0569155383362125E-01 a       619     0    31     1    19
 -1.1763443299598474E-01 a       620     0    31     1    20
 -1.6493883576506183E-01 a       621     0    32     1     1
  1.1818222978150197E-01 a       622     0    32     1     2
 -4.7858086905645740E-02 a       623     0    32     1     3
 -5.1804446492237546E-02 a       624     0    32     1     4
 -3.0492069973820146E-02 a       625     0    32     1     5
  1.5291055738900350E-01 a       626     0    32     1     6
  5.0459048255155917E-02 a       627     0    32     1     7
 -8.9052010408053120E-02 a       628     0    32     1     8
  4.4697805952685826E-02 a       629     0    32     1     9
  8.2742817011033420E-02 a       630     0    32     1    10
 -1.7826013272368840E-01 a       631     0    32     1    11
 -6.7523613767612317E-02 a       632     0    32     1    12
  1.0485179284778146E-02 a       633     0    32     1    13
  1.8129994928882169E-02 a       634     0    32     1    14
 -1.1886011337851247E-01 a       635     0    32     1    15
 -1.1970957704253765E-01 a       636     0    32     1    16
 -8.8280535084940812E-02 a       637     0    32     1    17
 -1.2473250971561420E-01 a       638     0    32     1    18
  1.8394793446315183E-01 a       639     0    32     1    19
 -4.4914597191756292E-02 a       640     0    32     1    20
  1.4521596892386926E-01 a       641     0    33     1     1
 -3.3157416557792635E-01 a       642     0    33     1     2
  7.3918224008795108E-01 a       643     0    33     1     3
  5.0123110315669817E-01 a       644     0    33     1     4
 -1.9280716412258692E-01 a       645     0    33     1     5
  7.0182773178386471E-01 a       646     0    33     1     6
 -9.1982606617239859E-01 a       647     0    33     1     7
  4.1986030779772782E-01 a       648     0    33     1     8
  3.8311541683620692E-01 a       649     0    33     1     9
  7.7260526930254592E-02 a       650     0    33     1    10
 -7.6682174491866428E-01 a       651     0    33     1    11
  7.3852732662607667E-01 a       652     0    33     1    12
 -1.9548966240947988E-01 a       653     0    33     1    13
 -3.7782915774658443E-01 a       654     0    33     1    14
  9.5178343429851020E-01 a       655     0    33     1    15
 -6.2724376077883703E-01 a       656     0    33     1    16
 -3.3740624884234904E-01 a       657     0    33     1    17
  1.2079125108989286E-02 a       658     0    33     1    18
 -7.1764942408308691E-02 a       659     0    33     1    19
 -2.8381735561773652E-01 a       660     0    33     1    20
  2.8054122299586193E-01 a       661     0    34     1     1
  4.5732806306116279E-02 a       662     0    34     1     2
  4.4912957443877388E-01 a       663     0    34     1     3
 -1.0113784269734813E-01 a       664     0    34     1     4
  2.3537797256134887E-02 a       665     0    34     1     5
  3.3044271035854000E-01 a       666     0    34     1     6
 -7.4654675023827041E-02 a       667     0    34     1     7
  3.1218217616289579E-01 a       668     0    34     1     8
  2.0348251865187972E-01 a       669     0    34     1     9
 -1.5892015203202342E-01 a       670     0    34     1    10
  3.5570534393366592E-03 a       671     0    34     1    11
 -1.0054250220499529E-01 a       672     0    34     1    12
 -3.6694790721615050E-02 a       673     0    34     1    13
 -1.4738339290462571E-01 a       674     0    34     1    14
  2.1408765908483809E-01 a       675     0    34     1    15
  2.1846120517991605E-01 a       676     0    34     1    16
 -1.0959023529572612E-01 a       677     0    34     1    17
 -1.3831034564208070E-01 a       678     0    34     1    18
 -1.1291969437360287E-01 a       679     0    34     1    19
 -9.6948697490500557E-02 a       680     0    34     1    20
  3.1379018310513832E-02 a       681     0    35     1     1
 -2.3696564585356517E-02 a       682     0    35     1     2
  2.6440467260410638E-01 a       683     0    35     1     3
 -8.8564145143891909E-02 a       684     0    35     1     4
 -1.9304236822813545E-01 a       685     0    35     1     5
 -2.0000747545941633E-01 a       686     0    35     1     6
  1.9449549401789315E-01 a       687     0    35     1     7
 -2.2465376053490493E-01 a       688     0    35     1     8
 -7.6679346893362865E-02 a       689     0    35     1     9
  8.1603237755431171E-02 a       690     0    35     1    10
  2.3978839720120138E-03 a       691     0    35     1    11
  6.1286052289804126E-02 a       692     0    35     1    12
  5.1117413979978273E-02 a       693     0    35     1    13
 -3.3426120499759959E-02 a       694     0    35     1    14
 -1.8896238687292535E-02 a       695     0    35     1    15
  2.7491283104100591E-02 a       696     0    35     1    16
  1.3881380341364041E-01 a       697     0    35     1    17
 -4.8704501762601542E-02 a       698     0    35     1    18
 -2.1685524549051105E-01 a       699     0    35     1    19
  1.4390202947957228E-02 a       700     0    35     1    20
 -4.7794932833036602E-01 a       701     0    36     1     1
  2.7288515314877865E-01 a       702     0    36     1     2
 -3.0142302767551094E-01 a       703     0    36     1     3
 -2.2304462302269557E-01 a       704     0    36     1     4
  5.2259190644381437E-01 a       705     0    36     1     5
 -1.0686055594133972E+00 a       706     0    36     1     6
  4.2244734965697944E-01 a       707     0    36     1     7
 -7.7609264340501402E-02 a       708     0    36     1     8
 -2.1946705894391427E-01 a       709     0    36     1     9
 -1.1854252549455062E-01 a       710     0    36     1    10
  9.1674770119571691E-01 a       711     0    36     1    11
 -2.9883450828259012E-01 a       712     0    36     1    12
  5.2559080779087497E-02 a       713     0    36     1    13
  5.4376168727726226E-01 a       714     0    36     1    14
 -4.0993488120744603E-01 a       715     0    36     1    15
  7.2085176402768436E-01 a       716     0    36     1    16
  3.5434706403438093E-01 a       717     0    36     1    17
  5.5075778774071486E-02 a       718     0    36     1    18
 -2.5908221180866642E-01 a       719     0    36     1    19
  3.8189005511156132E-01 a       720     0    36     1    20
 -1.9420977053586252E-01 a       721     0    37     1     1
 -4.8447546820096193E-01 a       722     0    37     1     2
 -6.3831631818886803E-01 a       723     0    37     1     3
  2.4934040110424269E-01 a       724     0    37     1     4
 -2.4596791885946390E-01 a       725     0    37     1     5
 -4.6410736331585989E-01 a       726     0    37     1     6
  2.0015651689132050E-01 a       727     0    37     1     7
 -1.5570439409773793E-02 a       728     0    37     1     8
  8.0786409200601750E-01 a       729     0    37     1     9
  3.0543981386093760E-01 a       730     0    37     1    10
 -1.2027556933079528E-01 a       731     0    37     1    11
 -4.1050574039184012E-01 a       732     0    37     1    12
  8.6413517508790408E-02 a       733     0    37     1    13
  1.0725908839221891E-01 a       734     0    37     1    14
 -2.9359391424748299E-03 a       735     0    37     1    15
  2.1813302034905399E-01 a       736     0    37     1    16
 -2.4209688313795819E-01 a       737     0    37     1    17
 -7.8596207508811522E-02 a       738     0    37     1    18
  2.2613855015218953E-01 a       739     0    37     1    19
 -7.4181398852604066E-02 a       740     0    37     1    20
 -1.2085140449287725E-01 a       741     0    38     1     1
  9.4819547948308044E-03 a       742     0    38     1     2
 -5.2563383643320959E-03 a       743     0    38     1     3
  3.1223956839437992E-02 a       744     0    38     1     4
 -5.0618237610769071E-02 a       745     0    38     1     5
 -1.6380420188709752E-01 a       746     0    38     1     6
 -1.2261739931386598E-01 a       747     0    38     1     7
  3.4004219525934111E-02 a       748     0    38     1     8
 -1.6737609308107828E-02 a       749     0    38     1     9
  2.3395252985649682E-03 a       750     0    38     1    10
  5.8413445146583642E-02 a       751     0    38     1    11
 -1.1585146042791157E-02 a       752     0    38     1    12
 -6.1545059737062861E-02 a       753     0    38     1    13
 -8.1585917105952865E-02 a       754     0    38     1    14
  1.9317996921800909E-01 a       755     0    38     1    15
 -1.2934446480769503E-02 a       756     0    38     1    16
  7.0002136268807455E-02 a       757     0    38     1    17
 -6.3842007848797832E-03 a       758     0    38     1    18
  2.9679011692600673E-02 a       759     0    38     1    19
 -4.0952920422159041E-02 a       760     0    38     1    20
  4.6143263755408614E-01 a       761     0    39     1     1
  2.0713941766220936E+00 a       762     0    39     1     2
  6.6765924674152122E-01 a       763     0    39     1     3
 -6.7119964383304720E-01 a       764     0    39     1     4
  8.0986338511369793E-01 a       765     0    39     1     5
 -1.8486275085734535E-01 a       766     0    39     1     6
  6.9509543065065960E-02 a       767     0    39     1     7
  1.9296306122685087E-02 a       768     0    39     1     8
 -8.0664410365649863E-01 a       769     0    39     1     9
 -2.4129598356456888E-01 a       770     0    39     1    10
  4.5358817671685557E-02 a       771     0    39     1    11
  5.5520992246618961E-01 a       772     0    39     1    12
  1.2963923935822300E-01 a       773     0    39     1    13
 -4.1948513980400709E-01 a       774     0    39     1    14
 -8.5219627001725529E-01 a       775     0    39     1    15
 -3.2658426192186629E-01 a       776     0    39     1    16
  2.2622470122005381E-01 a       777     0    39     1    17
  3.4104479662002379E-01 a       778     0    39     1    18
 -8.8068528282350733E-01 a       779     0    39     1    19
 -1.0142312324579639E+00 a       780     0    39     1    20
 -1.3051257611381126E-01 a       781     0    40     1     1
 -3.9960099172340197E-02 a       782     0    40     1     2
 -1.2747483547220353E-01 a       783     0    40     1     3
  1.0849883417644463E-01 a       784     0    40     1     4
 -1.1701993930963731E-01 a       785     0    40     1     5
  1.4230553915795000E-01 a       786     0    40     1     6
 -2.4610985610850959E-02 a       787     0    40     1     7
  1.3484179079376296E-01 a       788     0    40     1     8
 -2.2808331233363477E-01 a       789     0    40     1     9
 -4.0548308284680562E-02 a       790     0    40     1    10
  9.5313319530847332E-02 a       791     0    40     1    11
  1.8294631970855839E-02 a       792     0    40     1    12
 -1.5525200572756775E-01 a       793     0    40     1    13
  1.3799114780990482E-01 a       794     0    40     1    14
 -5.7747320895795741E-02 a       795     0    40     1    15
  3.2018931479577994E-01 a       796     0    40     1    16
  1.5796629674459517E-01 a       797     0    40     1    17
  4.6647046899242706E-01 a       798     0    40     1    18
  3.1395482869872032E-01 a       799     0    40     1    19
  7.5359225248959980E-02 a       800     0    40     1    20
  6.8343555131962386E-02 a       801     0    41     1     1
 -5.0163925309173088E-02 a       802     0    41     1     2
 -1.2554546530369518E-01 a       803     0    41     1     3
  4.2408354864374345E-02 a       804     0    41     1     4
  1.3465959835720978E-01 a       805     0    41     1     5
  1.1069786437668772E-01 a       806     0    41     1     6
  7.0809131214207968E-02 a       807     0    41     1     7
  1.0359290605118705E-01 a       808     0    41     1     8
  1.8183178377927860E-02 a       809     0    41     1     9
 -9.8368442960342348E-02 a       810     0    41     1    10
 -2.8849978085831117E-03 a       811     0    41     1    11
 -2.2318102497654022E-02 a       812     0    41     1    12
  4.9108332267574842E-02 a       813     0    41     1    13
 -9.2659911753621271E-03 a       814     0    41     1    14
  1.0683661745513613E-02 a       815     0    41     1    15
  7.9672294088049794E-02 a       816     0    41     1    16
 -1.0678853355003220E-02 a       817     0    41     1    17
  4.5887572567875887E-02 a       818     0    41     1    18
 -7.9337471008559292E-03 a       819     0    41     1    19
 -6.3795783634564840E-02 a       820     0    41     1    20
 -4.4492038499193753E-01 a       821     0    42     1     1
 -8.8056078383181646E-01 a       822     0    42     1     2
 -4.7575928757104941E-01 a       823     0    42     1     3
  2.5409887562207001E-01 a       824     0    42     1     4
 -4.0707159112190627E-01 a       825     0    42     1     5
  3.6144234991543278E-01 a       826     0    42     1     6
  5.4890373039057583E-02 a       827     0    42     1     7
  6.4418477457485163E-02 a       828     0    42     1     8
  5.0950367306707697E-02 a       829     0    42     1     9
  1.1775148284877579E-01 a       830     0    42     1    10
 -1.3284816722240356E-01 a       831     0    42     1    11
 -2.1416951128502679E-01 a       832     0    42     1    12
  5.2216869513952810E-02 a       833     0    42     1    13
 -7.4142809566707213E-02 a       834     0    42     1    14
  4.2305925944515577E-01 a       835     0    42     1    15
 -1.8082016581981694E-01 a       836     0    42     1    16
 -6.4806759921823215E-03 a       837     0    42     1    17
 -7.2338661726381703E-02 a       838     0    42     1    18
  1.2546402572833545E-01 a       839     0    42     1    19
  2.0821228420164498E-01 a       840     0    42     1    20
  1.3227150207711169E-01 a       841     0    43     1     1
  4.0845291961653200E-02 a       842     0    43     1     2
 -4.2783851424415556E-02 a       843     0    43     1     3
 -1.3117484700043133E-02 a       844     0    43     1     4
  4.6990074280339973E-02 a       845     0    43     1     5
 -4.0931367867392598E-02 a       846     0    43     1     6
 -3.5642500377387976E-02 a       847     0    43     1     7
  8.6453216346515260E-02 a       848     0    43     1     8
  5.1262240918094393E-02 a       849     0    43     1     9
 -1.7150751318346005E-02 a       850     0    43     1    10
 -8.4903303886524534E-02 a       851     0    43     1    11
 -4.1667101660387923E-02 a       852     0    43     1    12
  1.3902390568936839E-03 a       853     0    43     1    13
  2.0604669310738767E-02 a       854     0    43     1    14
 -1.7263038929777791E-01 a       855     0    43     1    15
  4.1000198775990468E-02 a       856     0    43     1    16
  4.4989905287416886E-02 a       857     0    43     1    17
  5.9245057658278179E-02 a       858     0    43     1    18
  9.6280262687693921E-02 a       859     0    43     1    19
 -9.2087326748863066E-02 a       860     0    43     1    20
  2.6162296725185014E-01 a       861     0    44     1     1
 -1.0995766651458343E-01 a       862     0    44     1     2
  1.0182274160290504E-01 a       863     0    44     1     3
 -9.9990961756322605E-02 a       864     0    44     1     4
 -3.9846250372407965E-02 a       865     0    44     1     5
 -9.7399936453800851E-03 a       866     0    44     1     6
 -9.3085642802873098E-02 a       867     0    44     1     7
 -7.2514976756711272E-02 a       868     0    44     1     8
 -3.0952321074250395E-02 a       869     0    44     1     9
 -2.1788993937515250E-01 a       870     0    44     1    10
  4.2185321038778712E-03 a       871     0    44     1    11
  3.9022682443172418E-02 a       872     0    44     1    12
 -5.2533674743190893E-02 a       873     0    44     1    13
  5.9404515360730295E-04 a       874     0    44     1    14
 -7.4421230575975078E-02 a       875     0    44     1    15
 -3.0010462057271762E-02 a       876     0    44     1    16
 -4.0684495297842987E-02 a       877     0    44     1    17
 -5.3381572681371840E-03 a       878     0    44     1    18
 -1.9197462111922167E-01 a       879     0    44     1    19
  1.5384847778234022E-02 a       880     0    44     1    20
 -3.7049962472897724E-01 a       881     0    45     1     1
  7.3291417856011842E-02 a       882     0    45     1     2
 -7.0415815579846788E-02 a       883     0    45     1     3
  5.3926732921240117E-02 a       884     0    45     1     4
  2.3149260107783892E-01 a       885     0    45     1     5
  3.1535712012777786E-02 a       886     0    45     1     6
  3.7789340505911484E-02 a       887     0    45     1     7
  1.4985512208702226E-01 a       888     0    45     1     8
 -1.0711561194537494E-01 a       889     0    45     1     9
  7.2893728144493630E-02 a       890     0    45     1    10
  2.5441885464747221E-01 a       891     0    45     1    11
  3.3424765941069706E-01 a       892     0    45     1    12
  6.4155211417132693E-02 a       893     0    45     1    13
 -5.0642195668311615E-02 a       894     0    45     1    14
  4.7901085213004052E-01 a       895     0    45     1    15
 -4.4505555492447592E-02 a       896     0    45     1    16
 -6.2696888893095326E-02 a       897     0    45     1    17
 -6.0278727275870442E-02 a       898     0    45     1    18
  9.1334089236289571E-03 a       899     0    45     1    19
 -3.0688644270731208E-01 a       900     0    45     1    20
  2.2501671505569024E-03 a       901     0    46     1     1
 -1.5511935871875818E-01 a       902     0    46     1     2
 -8.1516023342332686E-03 a       903     0    46     1     3
  1.2591925062209441E-01 a       904     0    46     1     4
  5.6593966939713407E-02 a       905     0    46     1     5
 -8.2219174760818303E-02 a       906     0    46     1     6
 -6.5611969216754967E-02 a       907     0    46     1     7
 -4.3446095712925611E-02 a       908     0    46     1     8
 -8.4428630954727857E-02 a       909     0    46     1     9
  1.3399029266013451E-01 a       910     0    46     1    10
  4.6580125993911908E-03 a       911     0    46     1    11
 -6.0735394354224211E-02 a       912     0    46     1    12
 -6.8264690976094486E-02 a       913     0    46     1    13
 -2.1382496989954362E-02 a       914     0    46     1    14
 -1.1306658212883682E-02 a       915     0    46     1    15
 -5.7708467189184910E-02 a       916     0    46     1    16
  1.5620157774774943E-01 a       917     0    46     1    17
  4.0747812150879567E-02 a       918     0    46     1    18
  1.9471613627212815E-02 a       919     0    46     1    19
  2.9973838401247493E-01 a       920     0    46     1    20
 -1.4221216221125904E-01 a       921     0    47     1     1
 -1.1879622904236090E-01 a       922     0    47     1     2
 -3.7574232724401815E-02 a       923     0    47     1     3
  4.3589834974525003E-02 a       924     0    47     1     4
  3.0898031483791628E-02 a       925     0    47     1     5
  4.2449226099898804E-02 a       926     0    47     1     6
 -4.2885961878625291E-02 a       927     0    47     1     7
  1.4509856853994674E-01 a       928     0    47     1     8
  2.5430623196918850E-01 a       929     0    47     1     9
  3.9451094538744101E-04 a       930     0    47     1    10
  1.1103730299343483E-02 a       931     0    47     1    11
 -1.2865618260707243E-01 a       932     0    47     1    12
 -5.3587752342806820E-02 a       933     0    47     1    13
 -1.8563630474669371E-01 a       934     0    47     1    14
 -3.0897062310500659E-02 a       935     0    47     1    15
  5.0805260920269366E-02 a       936     0    47     1    16
 -8.8792133584754546E-02 a       937     0    47     1    17
 -1.1603476905354690E-01 a       938     0    47     1    18
 -2.5165988372983589E-01 a       939     0    47     1    19
  4.2395535762212912E-03 a       940     0    47     1    20
  2.7122425971642489E-01 a       941     0    48     1     1
 -2.5191703240271845E-01 a       942     0    48     1     2
  2.6761583769790315E-01 a       943     0    48     1     3
  3.7252611619267004E-02 a       944     0    48     1     4
 -1.8832456256539148E-01 a       945     0    48     1     5
 -8.2432434827541409E-02 a       946     0    48     1     6
  1.0134025152190354E-02 a       947     0    48     1     7
  5.6300873671960489E-02 a       948     0    48     1     8
  3.0052219308452821E-01 a       949     0    48     1     9
 -2.6755349515761673E-01 a       950     0    48     1    10
 -7.1230923959013814E-02 a       951     0    48     1    11
 -2.1093070837273886E-01 a       952     0    48     1    12
 -1.5012858974004878E-01 a       953     0    48     1    13
 -2.8480615466510173E-01 a       954     0    48     1    14
 -9.6366431597481067E-02 a       955     0    48     1    15
 -1.2236115272483174E-01 a       956     0    48     1    16
  1.3847656235994227E-01 a       957     0    48     1    17
 -1.1590648438020650E-01 a       958     0    48     1    18
 -1.4114644914729080E-01 a       959     0    48     1    19
  2.2537137652744243E-02 a       960     0    48     1    20
 -2.0341385089507728E-02 a       961     0    49     1     1
  2.5700493320900314E-01 a       962     0    49     1     2
  4.2905797372271598E-01 a       963     0    49     1     3
  1.1129459669124997E-01 a       964     0    49     1     4
 -2.0653349537600080E-01 a       965     0    49     1     5
  1.0225527807523203E-01 a       966     0    49     1     6
 -7.8504703940208878E-02 a       967     0    49     1     7
 -2.8179466677033693E-01 a       968     0    49     1     8
 -2.1528433379879350E-01 a       969     0    49     1     9
  1.9581353541495458E-01 a       970     0    49     1    10
 -1.7183067667768193E-01 a       971     0    49     1    11
  3.2986368034929875E-01 a       972     0    49     1    12
 -2.9939998401627373E-02 a       973     0    49     1    13
 -3.6407903335878322E-01 a       974     0    49     1    14
  1.6024523573950497E-01 a       975     0    49     1    15
 -1.5464247155123609E-01 a       976     0    49     1    16
  3.2384989004851095E-02 a       977     0    49     1    17
  7.1613537972776073E-03 a       978     0    49     1    18
 -6.0615383575539035E-02 a       979     0    49     1    19
  2.9719977306188083E-01 a       980     0    49     1    20
  3.0282568945843469E-01 a       981     0    50     1     1
  5.3555497082348316E-02 a       982     0    50     1     2
  1.3673446029961589E-02 a       983     0    50     1     3
 -3.4490927865128661E-02 a       984     0    50     1     4
  2.5581324562863956E-02 a       985     0    50     1     5
  8.5230765962201582E-02 a       986     0    50     1     6
  6.7239111962836412E-02 a       987     0    50     1     7
 -4.9338758253302757E-02 a       988     0    50     1     8
  4.7113961114785524E-02 a       989     0    50     1     9
 -4.4320927155595977E-02 a       990     0    50     1    10
  4.9070828838981873E-05 a       991     0    50     1    11
  2.0677337069047765E-02 a       992     0    50     1    12
  5.2914712520442803E-02 a       993     0    50     1    13
  8.5628413517353508E-02 a       994     0    50     1    14
 -1.4678648930636723E-01 a       995     0    50     1    15
  8.7270255709596900E-02 a       996     0    50     1    16
 -1.3642727838077043E-01 a       997     0    50     1    17
 -9.5067586203492413E-03 a       998     0    50     1    18
 -1.2477403965429895E-01 a       999     0    50     1    19
  5.0950670461421932E-02 a      1000     0    50     1    20
 -6.0799865051348179E-01 a      1001     0    51     1     1
 -7.4935823105314459E-01 a      1002     0    51     1     2
 -7.3761866643091278E-01 a      1003     0    51     1     3
  1.4338172766451929E-01 a      1004     0    51     1     4
  2.7277733294323120E-01 a      1005     0    51     1     5
 -3.7889932214670234E-02 a      1006     0    51     1     6
 -3.0467780859848337E-01 a      1007     0    51     1     7
  6.3131451744681222E-01 a      1008     0    51     1     8
  6.1601428401377545E-01 a      1009     0    51     1     9
 -6.4143761251894429E-02 a      1010     0    51     1    10
  1.2009720360586942E+00 a      1011     0    51     1    11
 -6.0859058413074274E-01 a      1012     0    51     1    12
 -2.2849117695042473E-01 a      1013     0    51     1    13
  8.5664056031986857E-01 a      1014     0    51     1    14
  9.9124921213401118E-01 a      1015     0    51     1    15
  9.3882864797233034E-01 a      1016     0    51     1    16
  4.5989920551008479E-02 a      1017     0    51     1    17
 -1.1339576892287734E-01 a      1018     0    51     1    18
  5.7252888808687848E-02 a      1019     0    51     1    19
  3.3690832261222159E-01 a      1020     0    51     1    20
  1.1322326481358506E-01 a      1021     0    52     1     1
 -4.7784463157077912E-02 a      1022     0    52     1     2
 -3.4634561598963365E-01 a      1023     0    52     1     3
 -1.4785265502089673E-01 a      1024     0    52     1     4
  3.4591884747074070E-01 a      1025     0    52     1     5
 -1.1739587369896858E-01 a      1026     0    52     1     6
 -1.4263318438342318E-01 a      1027     0    52     1     7
 -2.2864440820537606E-02 a      1028     0    52     1     8
  1.4045489979863710E-01 a      1029     0    52     1     9
  1.7427374946954940E-01 a      1030     0    52     1    10
  1.7901540057297402E-01 a      1031     0    52     1    11
  1.7746100436580420E-01 a      1032     0    52     1    12
  2.4475928943931971E-01 a      1033     0    52     1    13
  6.4454991202428355E-02 a      1034     0    52     1    14
  1.1630811613837817E-01 a      1035     0    52     1    15
 -2.5332948710055751E-02 a      1036     0    52     1    16
 -2.2616561210998889E-01 a      1037     0    52     1    17
  1.8775628647473838E-01 a      1038     0    52     1    18
 -9.9113071831963634E-02 a      1039     0    52     1    19
 -4.9650449409313242E-02 a      1040     0    52     1    20
 -1.3692199950640879E-01 a      1041     0    53     1     1
  1.9215682193955714E-02 a      1042     0    53     1     2
  6.3719058869118120E-02 a      1043     0    53     1     3
 -3.0461197070544229E-02 a      1044     0    53     1     4
 -7.5704168362368610E-02 a      1045     0    53     1     5
 -4.1755586469380296E-02 a      1046     0    53     1     6
 -1.8847956517987784E-02 a      1047     0    53     1     7
 -9.7406817496975648E-02 a      1048     0    53     1     8
 -4.9014479516521520E-02 a      1049     0    53     1     9
  9.0316113070865456E-02 a      1050     0    53     1    10
 -1.0015995149282888E-02 a      1051     0    53     1    11
  3.4180509286107163E-03 a      1052     0    53     1    12
 -1.8635788797031420E-02 a      1053     0    53     1    13
  7.7478646009882263E-03 a      1054     0    53     1    14
 -6.2008492583902668E-02 a      1055     0    53     1    15
 -7.2012551611454881E-02 a      1056     0    53     1    16
  1.0831772886777991E-02 a      1057     0    53     1    17
 -3.5126342927349577E-02 a      1058     0    53     1    18
  9.0862745901049896E-02 a      1059     0    53     1    19
 -4.0013019200044551E-03 a      1060     0    53     1    20
  2.9876681794591214E-01 a      1061     0    54     1     1
  2.7644064156490017E-01 a      1062     0    54     1     2
  3.9908516639436870E-01 a      1063     0    54     1     3
 -1.1358518214052532E-01 a      1064     0    54     1     4
  1.7886254064351445E-02 a      1065     0    54     1     5
 -4.9262558187948219E-03 a      1066     0    54     1     6
  6.4947035277273218E-02 a      1067     0    54     1     7
 -3.1920981773554380E-01 a      1068     0    54     1     8
 -1.5466428693394246E-01 a      1069     0    54     1     9
 -8.1546190736006219E-02 a      1070     0    54     1    10
 -2.0802071126671515E-01 a      1071     0    54     1    11
  2.6179999840126728E-01 a      1072     0    54     1    12
  2.4739632002061630E-02 a      1073     0    54     1    13
 -7.3689693586678748E-02 a      1074     0    54     1    14
 -2.2061355307530414E-01 a      1075     0    54     1    15
 -7.6392297925980859E-02 a      1076     0    54     1    16
 -1.9689278739598426E-01 a      1077     0    54     1    17
 -4.1971019681283105E-02 a      1078     0    54     1    18
  9.0193522697379597E-02 a      1079     0    54     1    19
 -1.1850981878456307E-01 a      1080     0    54     1    20
  5.8938508113733190E-01 b      1081     1     1
  1.3165144155499209E+00 b      1082     1     2
 -3.5854419396449605E-01 b      1083     1     3
  2.8020487947547501E-01 b      1084     1     4
 -1.2672032713264254E+00 b      1085     1     5
  9.2594378454378867E-01 b      1086     1     6
  6.1477985158552240E-01 b      1087     1     7
 -1.3667541640522607E+00 b      1088     1     8
  8.8597389861538878E-01 b      1089     1     9
 -1.0949777645937744E+00 b      1090     1    10
 -5.2754760024564196E-02 b      1091     1    11
  4.7563282869285450E-01 b      1092     1    12
 -1.3546830180127079E+00 b      1093     1    13
 -2.2760492428067738E-01 b      1094     1    14
 -9.5598008549514790E-01 b      1095     1    15
 -2.5791679864091427E-01 b      1096     1    16
  5.2626682911284284E-01 b      1097     1    17
  6.6217414879246717E-01 b      1098     1    18
  9.6824068874346680E-01 b      1099     1    19
 -1.0000873236147454E+00 b      1100     1    20
 -2.1706513313802019E-02 a      1101     1     1     2     1
 -1.6789991141681676E-01 a      1102     1     1     2     2
  1.9639093047584269E-01 a      1103     1     1     2     3
 -1.7463668491576384E-01 a      1104     1     1     2     4
  1.2127668097737307E-01 a      1105     1     1     2     5
 -3.9405884119921863E-01 a      1106     1     1     2     6
 -6.5928846795739848E-02 a      1107     1     1     2     7
  2.0600431313608562E-02 a      1108     1     1     2     8
 -1.3799352493352438E-01 a      1109     1     1     2     9
  5.8629904728849158E-01 a      1110     1     1     2    10
  3.0396621296633819E-01 a      1111     1     1     2    11
 -4.0614566691452086E-01 a      1112     1     1     2    12
 -8.5815874085189828E-02 a      1113     1     1     2    13
  1.0684435141802592E-01 a      1114     1     1     2    14
 -2.9868729039180109E-01 a      1115     1     1     2    15
  1.6071190389614334E-01 a      1116     1     1     2    16
 -4.5155599014258679E-01 a      1117     1     1     2    17
 -6.8795611932569167E-01 a      1118     1     1     2    18
 -1.3986580349283614E-01 a      1119     1     1     2    19
 -5.3282019511406500E-02 a      1120     1     1     2    20
  3.4958206107929457E-01 a      1121     1     2     2     1
 -5.4170297218103214E-01 a      1122     1     2     2     2
  4.4461032141511947E-01 a      1123     1     2     2     3
  6.2228093921799332E-01 a      1124     1     2     2     4
  4.7260480886674167E-01 a      1125     1     2     2     5
 -1.0619368223574564E-01 a      1126     1     2     2     6
  2.2344526442677023E-01 a      1127     1     2     2     7
 -4.2149667244847955E-01 a      1128     1     2     2     8
 -2.2707926652293609E-01 a      1129     1     2     2     9
  3.5158399331214629E-01 a      1130     1     2     2    10
  9.0032660487672375E-02 a      1131     1     2     2    11
 -6.9267457263259902E-01 a      1132     1     2     2    12
  1.7049422364954656E-01 a      1133     1     2     2    13
 -1.7776917384448553E-02 a      1134     1     2     2    14
 -4.2558614235760001E-01 a      1135     1     2     2    15
  9.5172530051414045E-02 a      1136     1     2     2    16
  1.7859308632554749E-01 a      1137     1     2     2    17
  1.5073814832342514E-01 a      1138     1     2     2    18
  6.1329904013221234E-02 a      1139     1     2     2    19
 -4.8808603413332341E-01 a      1140     1     2     2    20
 -1.9438360928027651E-01 a      1141     1     3     2     1
  2.9803769791263490E-01 a      1142     1     3     2     2
  3.6076003730834721E-01 a      1143     1     3     2     3
 -2.1323876718497461E-01 a      1144     1     3     2     4
  6.0238527670767850E-01 a      1145     1     3     2     5
 -1.6858223537829095E-01 a      1146     1     3     2     6
  9.3890315800917848E-02 a      1147     1     3     2     7
  1.2453009230055380E-01 a      1148     1     3     2     8
  1.5018401137296888E-01 a      1149     1     3     2     9
  6.5116726750897447E-01 a      1150     1     3     2    10
 -1.8728248444603030E-01 a      1151     1     3     2    11
 -2.7695182513898679E-02 a      1152     1     3     2    12
 -1.5467161471863333E-01 a      1153     1     3     2    13
 -3.8695581706975607E-01 a      1154     1     3     2    14
  7.5634995561812746E-02 a      1155     1     3     2    15
  1.2721167040419407E-01 a      1156     1     3     2    16
 -7.1075990761743180E-01 a      1157     1     3     2    17
  4.1251624614709081E-01 a      1158     1     3     2    18
 -2.3558724998136368E-01 a      1159     1     3     2    19
  8.6659533746101503E-01 a      1160     1     3     2    20
  2.7251660021618784E-01 a      1161     1     4     2     1
  4.1716609675937416E-01 a      1162     1     4     2     2
 -7.3451747726516647E-01 a      1163     1     4     2     3
 -2.3379578641096052E-01 a      1164     1     4     2     4
  4.3015528015360477E-01 a      1165     1     4     2     5
 -2.8396899775588547E-01 a      1166     1     4     2     6
 -1.5951616116068896E-02 a      1167     1     4     2     7
 -2.0969635370677402E-02 a      1168     1     4     2     8
 -1.6631488379414677E-01 a      1169     1     4     2     9
 -3.7891393590450323E-01 a      1170     1     4     2    10
  3.9529948386480407E-01 a      1171     1     4     2    11
 -1.6338798914971173E-01 a      1172     1     4     2    12
 -2.8278051723237357E-01 a      1173     1     4     2    13
 -2.5652579451967822E-01 a      1174     1     4     2    14
 -9.7965918417433850E-02 a      1175     1     4     2    15
 -3.9566999181390933E-01 a      1176     1     4     2    16
 -7.2147093193945977E-01 a      1177     1     4     2    17
  4.6050630577170559E-01 a      1178     1     4     2    18
 -6.9774322920082510E-01 a      1179     1     4     2    19
  4.2152609883211023E-01 a      1180     1     4     2    20
 -2.1700870484369764E-01 a      1181     1     5     2     1
  2.3132513329800516E-01 a      1182     1     5     2     2
 -5.6260937628347871E-02 a      1183     1     5     2     3
 -7.3279712497951732E-02 a      1184     1     5     2     4
 -2.1682321535285232E-01 a      1185     1     5     2     5
  8.5327143411625472E-01 a      1186     1     5     2     6
 -2.1393420489805626E-02 a      1187     1     5     2     7
 -2.5292063763551748E-01 a      1188     1     5     2     8
  2.2500657670223739E-01 a      1189     1     5     2     9
 -1.1998244964951775E-01 a      1190     1     5     2    10
 -8.8184387015619892E-01 a      1191     1     5     2    11
  1.2288406098364867E-01 a      1192     1     5     2    12
  1.6542900561199539E-01 a      1193     1     5     2    13
  2.4175027106172073E-01 a      1194     1     5     2    14
 -5.9587570856313465E-01 a      1195     1     5     2    15
 -3.0584047126475056E-01 a      1196     1     5     2    16
 -1.8228396896952903E-01 a      1197     1     5     2    17
 -4.7814118641842157E-01 a      1198     1     5     2    18
  4.1285534708953697E-01 a      1199     1     5     2    19
  3.5492505921418671E-02 a      1200     1     5     2    20
 -2.9735536074434105E-01 a      1201     1     6     2     1
 -1.3524618048537651E-01 a      1202     1     6     2     2
  2.8379087957766225E-01 a      1203     1     6     2     3
  5.9870432502067794E-01 a      1204     1     6     2     4
  5.5583653783401332E-01 a      1205     1     6     2     5
 -8.3275450631792258E-02 a      1206     1     6     2     6
  3.4673634077638982E-01 a      1207     1     6     2     7
 -1.5776616415701064E-01 a      1208     1     6     2     8
 -2.0577045278994505E-01 a      1209     1     6     2     9
 -7.7912671562979461E-03 a      1210     1     6     2    10
 -3.6217345578497859E-02 a      1211     1     6     2    11
  1.1198394644727954E-02 a      1212     1     6     2    12
 -3.2252729373130340E-01 a      1213     1     6     2    13
  5.8864858165292765E-02 a      1214     1     6     2    14
 -7.1158688889890309E-01 a      1215     1     6     2    15
  2.3386032511363397E-01 a      1216     1     6     2    16
 -2.6176992526400661E-01 a      1217     1     6     2    17
  2.6196521502574643E-01 a      1218     1     6     2    18
 -3.2272637901583306E-01 a      1219     1     6     2    19
 -6.3064254510065559E-02 a      1220     1     6     2    20
  2.6621350241983849E-01 a      1221     1     7     2     1
 -4.6054032047413412E-01 a      1222     1     7     2     2
 -1.4183082846240705E-01 a      1223     1     7     2     3
 -4.5633595475415423E-01 a      1224     1     7     2     4
  3.2047239158703078E-01 a      1225     1     7     2     5
 -7.0700434595729011E-01 a      1226     1     7     2     6
 -6.4070689812277370E-01 a      1227     1     7     2     7
 -8.0553710816933438E-02 a      1228     1     7     2     8
 -3.0511639100615223E-01 a      1229     1     7     2     9
 -6.1014040429129657E-01 a      1230     1     7     2    10
 -2.1794303967700052E-01 a      1231     1     7     2    11
  2.6075414789504486E-01 a      1232     1     7     2    12
  1.5317273583797844E-01 a      1233     1     7     2    13
  3.0492652546094995E-01 a      1234     1     7     2    14
  8.2825599845443312E-02 a      1235     1     7     2    15
  5.1986654079127259E-01 a      1236     1     7     2    16
  7.1517839249580561E-01 a      1237     1     7     2    17
 -6.6314285212949009E-01 a      1238     1     7     2    18
  3.7790227198578374E-01 a      1239     1     7     2    19
 -1.0896422935754581E-01 a      1240     1     7     2    20
 -4.6425620821280722E-01 a      1241     1     8     2     1
  5.6339355423424731E-01 a      1242     1     8     2     2
 -5.4237753268558779E-02 a      1243     1     8     2     3
 -9.1709251792639657E-01 a      1244     1     8     2     4
  4.3374750052760319E-01 a      1245     1     8     2     5
 -3.6297849066523863E-01 a      1246     1     8     2     6
  2.6155222477521473E-01 a      1247     1     8     2     7
 -1.1370323992932790E-02 a      1248     1     8     2     8
  2.2569945796555885E-01 a      1249     1     8     2     9
 -6.7127916995314729E-01 a      1250     1     8     2    10
  9.2385918905420761E-01 a      1251     1     8     2    11
  5.9888280197476462E-01 a      1252     1     8     2    12
 -3.9472780834400972E-01 a      1253     1     8     2    13
 -3.8303084739306985E-02 a      1254     1     8     2    14
  1.0801639866144572E+00 a      1255     1     8     2    15
  2.2544912094618286E-01 a      1256     1     8     2    16
  2.9828264955279332E-01 a      1257     1     8     2    17
 -3.4207506385783748E-01 a      1258     1     8     2    18
 -2.9607880569688150E-01 a      1259     1     8     2    19
 -1.5306789096165588E-01 a      1260     1     8     2    20
  8.8201090267414545E-02 a      1261     1     9     2     1
 -9.8698971794607793E-02 a      1262     1     9     2     2
 -5.4505510630209808E-01 a      1263     1     9     2     3
  6.9426159795738268E-02 a      1264     1     9     2     4
  4.8273455589255485E-02 a      1265     1     9     2     5
  3.3235754543907275E-01 a      1266     1     9     2     6
  3.7560798478232660E-01 a      1267     1     9     2     7
  4.0669683625492992E-01 a      1268     1     9     2     8
 -7.9143637566327962E-01 a      1269     1     9     2     9
 -9.2968592984010834E-01 a      1270     1     9     2    10
 -8.5965142105178838E-01 a      1271     1     9     2    11
  4.7815434154334082E-03 a      1272     1     9     2    12
 -3.8794860377355793E-02 a      1273     1     9     2    13
 -3.9385305801992576E-01 a      1274     1     9     2    14
 -1.0398799857668322E+00 a      1275     1     9     2    15
 -2.0730901432526344E-01 a      1276     1     9     2    16
 -1.1365537465995395E-02 a      1277     1     9     2    17
 -6.0704825015555497E-01 a      1278     1     9     2    18
 -4.8386915425169047E-01 a      1279     1     9     2    19
  3.0594565260405232E-01 a      1280     1     9     2    20
 -8.0391656159376612E-01 a      1281     1    10     2     1
 -3.1252251848189161E-01 a      1282     1    10     2     2
 -9.8670535267831938E-01 a      1283     1    10     2     3
  6.8860290881412878E-02 a      1284     1    10     2     4
 -4.5092454034857210E-01 a      1285     1    10     2     5
  2.1674024591974358E-01 a      1286     1    10     2     6
  3.9345735407273169E-01 a      1287     1    10     2     7
 -4.6697621628391828E-01 a      1288     1    10     2     8
  6.2498979301079705E-01 a      1289     1    10     2     9
 -6.0835563407671267E-01 a      1290     1    10     2    10
  2.8698915849190870E-01 a      1291     1    10     2    11
  1.1296155499628339E-01 a      1292     1    10     2    12
  5.1689114702332145E-02 a      1293     1    10     2    13
  1.0311491349865906E-01 a      1294     1    10     2    14
 -3.9939463282000409E-01 a      1295     1    10     2    15
  9.0908634435240188E-01 a      1296     1    10     2    16
 -2.0565527021749641E-01 a      1297     1    10     2    17
 -2.0292609104668971E-01 a      1298     1    10     2    18
  1.0044998990257022E-01 a      1299     1    10     2    19
 -2.9686954613016875E-01 a      1300     1    10     2    20
  1.5363608076982693E-01 a      1301     1    11     2     1
 -5.8227832261923074E-01 a      1302     1    11     2     2
  2.8127679264867478E-01 a      1303     1    11     2     3
 -3.0613701189273745E-01 a      1304     1    11     2     4
  1.1325553152971746E-01 a      1305     1    11     2     5
  1.4082239659324956E-02 a      1306     1    11     2     6
 -6.0628446804562988E-02 a      1307     1    11     2     7
 -1.5175218640864740E-01 a      1308     1    11     2     8
  2.7109191843564828E-01 a      1309     1    11     2     9
 -6.5920141647440000E-01 a      1310     1    11     2    10
  3.6726772122644913E-01 a      1311     1    11     2    11
 -9.8085215143963544E-01 a      1312     1    11     2    12
 -2.2656036537554605E-01 a      1313     1    11     2    13
 -1.4101374900914482E-01 a      1314     1    11     2    14
 -1.4034586430540344E-01 a      1315     1    11     2    15
 -4.4359042390155527E-02 a      1316     1    11     2    16
 -6.9216677608338217E-01 a      1317     1    11     2    17
  2.1539669433113867E-01 a      1318     1    11     2    18
  6.6233819348138448E-02 a      1319     1    11     2    19
 -1.5610131288208198E-02 a      1320     1    11     2    20
  6.3770273377182907E-01 a      1321     1    12     2     1
 -3.8272464903386061E-01 a      1322     1    12     2     2
  8.4424242295636565E-01 a      1323     1    12     2     3
  3.4125860576770733E-01 a      1324     1    12     2     4
  7.4788547831320784E-01 a      1325     1    12     2     5
 -4.1095278886949982E-01 a      1326     1    12     2     6
 -6.0561008365650426E-01 a      1327     1    12     2     7
 -3.4944777688304574E-01 a      1328     1    12     2     8
  4.7087273569027521E-01 a      1329     1    12     2     9
  1.1159035728830438E+00 a      1330     1    12     2    10
  5.0428226515830876E-01 a      1331     1    12     2    11
  1.3039755265292860E-01 a      1332     1    12     2    12
 -1.7150336675278404E+00 a      1333     1    12     2    13
  3.7258853715644119E-01 a      1334     1    12     2    14
  5.6483418289856202E-01 a      1335     1    12     2    15
 -3.6855064960171385E-01 a      1336     1    12     2    16
 -2.3110563907043538E-01 a      1337     1    12     2    17
 -6.9291440601181742E-01 a      1338     1    12     2    18
  5.5088543842084448E-01 a      1339     1    12     2    19
  8.1814005868194939E-01 a      1340     1    12     2    20
 -4.8815829950327305E-01 a      1341     1    13     2     1
 -6.1037276422807729E-01 a      1342     1    13     2     2
 -3.5223718942889354E-01 a      1343     1    13     2     3
  2.3470266933456868E-01 a      1344     1    13     2     4
  5.7506409594449159E-01 a      1345     1    13     2     5
 -2.1409065579337072E-01 a      1346     1    13     2     6
 -5.9636300306438228E-01 a      1347     1    13     2     7
 -4.8368185654282697E-01 a      1348     1    13     2     8
 -3.3133944014518690E-01 a      1349     1    13     2     9
  3.4090654716223007E-01 a      1350     1    13     2    10
  3.6075754400261528E-01 a      1351     1    13     2    11
  1.9655682287824436E-01 a      1352     1    13     2    12
 -3.9868635882999381E-01 a      1353     1    13     2    13
 -1.1086281689988293E+00 a      1354     1    13     2    14
  1.5787159477552590E-02 a      1355     1    13     2    15
  4.8051664848051751E-01 a      1356     1    13     2    16
 -3.4260087764526964E-01 a      1357     1    13     2    17
  3.4480393389501435E-01 a      1358     1    13     2    18
 -4.2509054695415405E-01 a      1359     1    13     2    19
  3.3522419844610563E-01 a      1360     1    13     2    20
  3.9422303803203790E-01 a      1361     1    14     2     1
  9.2932113881643275E-01 a      1362     1    14     2     2
 -8.4226235097553681E-01 a      1363     1    14     2     3
  1.8672914165343144E-01 a      1364     1    14     2     4
 -3.0358171843574427E-01 a      1365     1    14     2     5
 -4.1911612969803030E-01 a      1366     1    14     2     6
 -8.1788739875911870E-02 a      1367     1    14     2     7
 -5.4771435500062016E-01 a      1368     1    14     2     8
  6.3555373923115055E-01 a      1369     1    14     2     9
 -1.5513688141672929E-01 a      1370     1    14     2    10
 -2.1112059064820726E-01 a      1371     1    14     2    11
  8.6494769592389531E-01 a      1372     1    14     2    12
  1.4979374530128467E-01 a      1373     1    14     2    13
 -4.5909040060047618E-01 a      1374     1    14     2    14
 -3.8712844698806548E-01 a      1375     1    14     2    15
 -3.1320582988615081E-03 a      1376     1    14     2    16
  5.0976572307483514E-01 a      1377     1    14     2    17
 -1.7639016225822127E-01 a      1378     1    14     2    18
 -1.1750603808815899E-01 a      1379     1    14     2    19
  2.3434565156641196E-01 a      1380     1    14     2    20
  1.3169366241568664E-01 a      1381     1    15     2     1
 -6.8868811245023087E-02 a      1382     1    15     2     2
 -2.6974257045586308E-01 a      1383     1    15     2     3
  3.8493451000743356E-01 a      1384     1    15     2     4
 -2.0404639161710353E-01 a      1385     1    15     2     5
 -7.1121659435911322E-01 a      1386     1    15     2     6
 -4.3769613827468759E-02 a      1387     1    15     2     7
  3.5120051249289441E-01 a      1388     1    15     2     8
 -4.7958568368349641E-01 a      1389     1    15     2     9
 -9.7142232356065242E-02 a      1390     1    15     2    10
 -2.6397724218076807E-01 a      1391     1    15     2    11
  3.1400454589693344E-02 a      1392     1    15     2    12
  1.4643972004740031E+00 a      1393     1    15     2    13
 -2.4302979196137409E-01 a      1394     1    15     2    14
 -4.2888125464466864E-01 a      1395     1    15     2    15
 -2.0644910547096806E-01 a      1396     1    15     2    16
 -3.7474906206447905E-01 a      1397     1    15     2    17
 -9.1845990882222339E-01 a      1398     1    15     2    18
 -2.9886873509457607E-01 a      1399     1    15     2    19
 -6.5391989026984709E-01 a      1400     1    15     2    20
 -5.8327064284802133E-01 a      1401     1    16     2     1
 -2.3113494217824271E-01 a      1402     1    16     2     2
 -5.1647242103118407E-01 a      1403     1    16     2     3
  4.5708782600272796E-01 a      1404     1    16     2     4
 -6.9012600764303489E-01 a      1405     1    16     2     5
  6.0946941819319855E-01 a      1406     1    16     2     6
  1.6712022632767329E-01 a      1407     1    16     2     7
 -1.6744705759405044E-02 a      1408     1    16     2     8
 -3.4221713553826871E-01 a      1409     1    16     2     9
 -6.6897350297876934E-01 a      1410     1    16     2    10
 -6.2316851438927090E-01 a      1411     1    16     2    11
  2.5977679143701998E-01 a      1412     1    16     2    12
 -1.5290244310871684E-01 a      1413     1    16     2    13
  9.7951086792575637E-02 a      1414     1    16     2    14
  3.3402599071801542E-01 a      1415     1    16     2    15
  4.8858165763125849E-01 a      1416     1    16     2    16
 -8.4481021580508453E-01 a      1417     1    16     2    17
  1.3552351317518790E-01 a      1418     1    16     2    18
  6.3889258137943494E-01 a      1419     1    16     2    19
 -1.3765814465485529E-01 a      1420     1    16     2    20
 -6.0791054482620555E-01 a      1421     1    17     2     1
 -1.4878074900536548E-01 a      1422     1    17     2     2
  8.0547168865486363E-01 a      1423     1    17     2     3
 -4.2776549307108822E-02 a      1424     1    17     2     4
  3.3704299070731225E-01 a      1425     1    17     2     5
 -7.3246655772485583E-02 a      1426     1    17     2     6
  5.0256179762788844E-02 a      1427     1    17     2     7
 -7.7037979224228492E-01 a      1428     1    17     2     8
  1.3185525405533255E-01 a      1429     1    17     2     9
  1.2491857980949863E+00 a      1430     1    17     2    10
  3.8613396149963647E-01 a      1431     1    17     2    11
  4.0980610793950795E-01 a      1432     1    17     2    12
 -1.1015188023235964E+00 a      1433     1    17     2    13
 -2.6377372990606396E-01 a      1434     1    17     2    14
 -2.9527181720112572E-01 a      1435     1    17     2    15
  3.5620456331350486E-01 a      1436     1    17     2    16
  4.0869185339039632E-01 a      1437     1    17     2    17
 -4.6308035973842265E-01 a      1438     1    17     2    18
  5.8887736320830619E-01 a      1439     1    17     2    19
  7.9963960242591381E-01 a      1440     1    17     2    20
  3.0133513722813154E-01 a      1441     1    18     2     1
 -4.5762508873173691E-01 a      1442     1    18     2     2
 -2.2469452441864646E-01 a      1443     1    18     2     3
 -1.2741510568141431E-01 a      1444     1    18     2     4
 -5.8515034335091620E-01 a      1445     1    18     2     5
 -4.1036435710382962E-01 a      1446     1    18     2     6
 -1.0312921675874680E-01 a      1447     1    18     2     7
  4.3186284347223686E-01 a      1448     1    18     2     8
  4.2542032054221196E-01 a      1449     1    18     2     9
 -9.0166432269682850E-02 a      1450     1    18     2    10
  2.0964405384061632E-01 a      1451     1    18     2    11
  2.6869520081286025E-01 a      1452     1    18     2    12
  5.0291488491456893E-01 a      1453     1    18     2    13
  3.5043544803257276E-01 a      1454     1    18     2    14
 -5.5193370519319063E-01 a      1455     1    18     2    15
  1.4815964112063318E-01 a      1456     1    18     2    16
  7.7497780303281305E-02 a      1457     1    18     2    17
 -2.4636839553504361E-01 a      1458     1    18     2    18
 -4.5091226359434755E-01 a      1459     1    18     2    19
  3.5107028834944332E-01 a      1460     1    18     2    20
 -7.6896044421637000E-01 a      1461     1    19     2     1
  1.3084328640489726E-01 a      1462     1    19     2     2
 -2.4871177439955627E-01 a      1463     1    19     2     3
  2.1622774051778282E-01 a      1464     1    19     2     4
 -3.9021349038948844E-01 a      1465     1    19     2     5
 -4.8263964546677562E-01 a      1466     1    19     2     6
  4.7021873164556199E-01 a      1467     1    19     2     7
  7.5901505084900733E-02 a      1468     1    19     2     8
  4.4446940300152954E-01 a      1469     1    19     2     9
 -1.4181975210087375E-01 a      1470     1    19     2    10
  3.2863073107030383E-01 a      1471     1    19     2    11
  2.8854650935096943E-01 a      1472     1    19     2    12
  7.8123516014348193E-01 a      1473     1    19     2    13
  1.6998672574941454E-01 a      1474     1    19     2    14
  2.7143243707432224E-01 a      1475     1    19     2    15
  3.4220086762683960E-01 a      1476     1    19     2    16
 -4.1147862597618656E-01 a      1477     1    19     2    17
  4.7570193004947048E-01 a      1478     1    19     2    18
 -1.5354932226311907E-01 a      1479     1    19     2    19
 -9.1227612946558978E-01 a      1480     1    19     2    20
  4.2049814120943435E-01 a      1481     1    20     2     1
 -2.9757740561356388E-01 a      1482     1    20     2     2
 -1.0332153060219737E-01 a      1483     1    20     2     3
  6.3653952651317269E-01 a      1484     1    20     2     4
 -1.9726005969191351E-01 a      1485     1    20     2     5
  1.9963047392562719E-01 a      1486     1    20     2     6
  3.5732168626871633E-02 a      1487     1    20     2     7
 -7.0381009735769040E-01 a      1488     1    20     2     8
  3.6436550161437037E-01 a      1489     1    20     2     9
 -1.0109346662030581E-01 a      1490     1    20     2    10
  5.4244483263173722E-02 a      1491     1    20     2    11
  3.4947024885607825E-01 a      1492     1    20     2    12
  1.9856105729781348E-01 a      1493     1    20     2    13
 -4.3147705333901583E-03 a      1494     1    20     2    14
  1.0727334119252561E+00 a      1495     1    20     2    15
 -3.8553077131587116E-01 a      1496     1    20     2    16
  2.4204301049784457E-01 a      1497     1    20     2    17
 -5.5220106320885054E-01 a      1498     1    20     2    18
  5.0812970736903318E-01 a      1499     1    20     2    19
 -6.9651281933270748E-01 a      1500     1    20     2    20
 -4.3341641491064203E-02 b      1501     2     1
 -1.3150465321479505E+00 b      1502     2     2
 -1.4858749950753120E-01 b      1503     2     3
  4.9174911838368085E-01 b      1504     2     4
  1.4598519985091247E+00 b      1505     2     5
  1.0791597661991441E+00 b      1506     2     6
 -1.0463837993644951E+00 b      1507     2     7
 -2.3993972699083846E-01 b      1508     2     8
  2.8742813635756016E-02 b      1509     2     9
 -6.4718823668696435E-01 b      1510     2    10
  1.7541650641962941E-01 b      1511     2    11
 -1.4086425641500941E+00 b      1512     2    12
 -8.8343998239969113E-01 b      1513     2    13
  3.7223668604399035E-01 b      1514     2    14
  9.5561611436453864E-01 b      1515     2    15
  9.1441609947974178E-01 b      1516     2    16
 -9.1325533859478003E-01 b      1517     2    17
  1.6811784333503703E+00 b      1518     2    18
  1.1275146518496186E+00 b      1519     2    19
  6.7547120800504035E-01 b      1520     2    20
 -3.6275947262835301E-01 a      1521     2     1     3     1
  9.0293188325139184E-01 a      1522     2     2     3     1
 -1.3847218155359964E+00 a      1523     2     3     3     1
  5.0471391126532794E-01 a      1524     2     4     3     1
 -8.5604916856884572E-01 a      1525     2     5     3     1
  2.9876356042491253E-01 a      1526     2     6     3     1
 -8.9707649480798912E-01 a      1527     2     7     3     1
  3.2467227007567945E-01 a      1528     2     8     3     1
  1.6466889454255834E-01 a      1529     2     9     3     1
  3.4783305398434890E-02 a      1530     2    10     3     1
  2.5580182951073671E-01 a      1531     2    11     3     1
  1.0201653406552957E+00 a      1532     2    12     3     1
  9.2610457676216940E-01 a      1533     2    13     3     1
 -1.2179052701608848E+00 a      1534     2    14     3     1
  1.0952660635058062E+00 a      1535     2    15     3     1
  4.3015158654581764E-01 a      1536     2    16     3     1
 -1.6768228462182320E-02 a      1537     2    17     3     1
 -1.1042271397947152E+00 a      1538     2    18     3     1
 -6.5990591808576093E-01 a      1539     2    19     3     1
  5.6923117367217368E-01 a      1540     2    20     3     1
 -5.5089721503633127E-01 b      1541     3     1
