################################################################################
# Neural network connection values (weights and biases).
################################################################################
# Col  Name       Description
################################################################################
# 1    connection Neural network connection value.
# 2    t          Connection type (a = weight, b = bias).
# 3    index      Index enumerating weights.
# 4    l_s        Starting point layer (end point layer for biases).
# 5    n_s        Starting point neuron in starting layer (end point neuron for biases).
# 6    l_e        End point layer.
# 7    n_e        End point neuron in end layer.
################################################################################
#                      1 2         3     4     5     6     7
#             connection t     index   l_s   n_s   l_e   n_e
############################################################
  6.6851109871428158E-02 a         1     0     1     1     1
 -7.5484051582816861E-02 a         2     0     1     1     2
 -7.2958421900161968E-02 a         3     0     1     1     3
 -1.2796105322442530E-01 a         4     0     1     1     4
  6.4041945769984066E-02 a         5     0     1     1     5
 -1.9010653431901045E-02 a         6     0     1     1     6
 -5.9185223869072538E-02 a         7     0     1     1     7
  1.1324442824301088E-02 a         8     0     1     1     8
 -1.8119917011890196E-02 a         9     0     1     1     9
 -1.7449101973048709E-02 a        10     0     1     1    10
 -1.5368202575402999E-02 a        11     0     1     1    11
  6.3332502425778453E-02 a        12     0     1     1    12
  3.0720540938283786E-01 a        13     0     1     1    13
 -3.8313910817908092E-01 a        14     0     1     1    14
 -1.7588874331027826E-01 a        15     0     1     1    15
  3.9694121040345844E-02 a        16     0     1     1    16
 -7.4268451171968175E-02 a        17     0     1     1    17
  8.0733496070857905E-02 a        18     0     1     1    18
  2.9100889824790893E-01 a        19     0     1     1    19
 -7.2994239877304468E-02 a        20     0     1     1    20
  1.1825310263832701E-02 a        21     0     2     1     1
 -3.8988722727276409E-02 a        22     0     2     1     2
 -1.6942524654217009E-01 a        23     0     2     1     3
  2.2338017818525127E-01 a        24     0     2     1     4
  3.2672705355548282E-01 a        25     0     2     1     5
  4.2843107609540182E-01 a        26     0     2     1     6
 -1.4953284242544201E-01 a        27     0     2     1     7
 -1.6026662483432078E-01 a        28     0     2     1     8
  4.0666127719559103E-02 a        29     0     2     1     9
  4.7277384597077038E-01 a        30     0     2     1    10
  7.9558247944318639E-01 a        31     0     2     1    11
  6.0733955627144032E-01 a        32     0     2     1    12
  2.4895189105020415E-01 a        33     0     2     1    13
 -1.6833825783630676E-01 a        34     0     2     1    14
 -5.1012863156682819E-01 a        35     0     2     1    15
  3.1159458977297205E-01 a        36     0     2     1    16
 -1.5625852588774350E-01 a        37     0     2     1    17
  1.4184325237694009E-01 a        38     0     2     1    18
  3.4163478088420857E-01 a        39     0     2     1    19
  2.9466031294644024E-01 a        40     0     2     1    20
 -8.6088370766864153E-02 a        41     0     3     1     1
 -2.2947373036330523E-01 a        42     0     3     1     2
  8.6085586252380553E-02 a        43     0     3     1     3
  9.3668109895801072E-02 a        44     0     3     1     4
  6.5446382630336324E-03 a        45     0     3     1     5
 -9.7078845376061401E-02 a        46     0     3     1     6
 -1.5283292698378036E-02 a        47     0     3     1     7
  1.2871010680550462E-02 a        48     0     3     1     8
  7.4939619853175404E-02 a        49     0     3     1     9
  7.7013489577218916E-02 a        50     0     3     1    10
  1.4954502071725864E-01 a        51     0     3     1    11
 -1.1042125476835447E-01 a        52     0     3     1    12
 -3.0443990417737262E-02 a        53     0     3     1    13
 -6.6324333093864471E-02 a        54     0     3     1    14
 -9.9590429947303841E-02 a        55     0     3     1    15
  8.2668985819497859E-02 a        56     0     3     1    16
 -9.2313156442794010E-03 a        57     0     3     1    17
 -1.3326631976941541E-01 a        58     0     3     1    18
  2.6223912943407701E-01 a        59     0     3     1    19
  7.3767695755800861E-02 a        60     0     3     1    20
  6.9509045048896129E-02 a        61     0     4     1     1
  2.0952978945055370E-01 a        62     0     4     1     2
 -5.3301263147862696E-02 a        63     0     4     1     3
  1.1123483738955597E-01 a        64     0     4     1     4
 -1.8196945700715381E-02 a        65     0     4     1     5
  3.1420817452095580E-02 a        66     0     4     1     6
  2.2223921346341161E-02 a        67     0     4     1     7
 -9.3352494717494610E-03 a        68     0     4     1     8
  9.9958783465574732E-05 a        69     0     4     1     9
  3.8882265710214700E-03 a        70     0     4     1    10
  3.5414254984374227E-02 a        71     0     4     1    11
  5.2901705389852140E-04 a        72     0     4     1    12
 -2.8600956166352792E-01 a        73     0     4     1    13
  2.5302126963193977E-01 a        74     0     4     1    14
 -3.4457791964985052E-02 a        75     0     4     1    15
 -3.2938547189138620E-02 a        76     0     4     1    16
  5.2239722939070074E-02 a        77     0     4     1    17
  1.2428646354973456E-01 a        78     0     4     1    18
 -8.0065869538647319E-02 a        79     0     4     1    19
  2.2775306935288625E-01 a        80     0     4     1    20
  5.4484028567249515E-02 a        81     0     5     1     1
  6.9086274359839873E-03 a        82     0     5     1     2
 -1.6617239744250561E-01 a        83     0     5     1     3
 -9.0428157499041650E-02 a        84     0     5     1     4
 -9.7125453962405850E-03 a        85     0     5     1     5
  1.8859664404460239E-01 a        86     0     5     1     6
  3.2339453192519180E-01 a        87     0     5     1     7
  1.4628751249582128E-01 a        88     0     5     1     8
  1.5038140844821749E-01 a        89     0     5     1     9
 -1.2329998344517379E-01 a        90     0     5     1    10
 -6.5091897116699118E-02 a        91     0     5     1    11
 -1.8511066835951595E-01 a        92     0     5     1    12
 -2.1964885041195273E-01 a        93     0     5     1    13
  1.6772906744680099E-01 a        94     0     5     1    14
  4.9779402430560872E-02 a        95     0     5     1    15
  1.0688223706013926E-01 a        96     0     5     1    16
 -8.2962863255294450E-02 a        97     0     5     1    17
 -2.2918372544313922E-01 a        98     0     5     1    18
  1.7177963211197950E-01 a        99     0     5     1    19
  1.2407739567647813E-01 a       100     0     5     1    20
  2.6303607361434705E-01 a       101     0     6     1     1
  3.1889789236515026E-01 a       102     0     6     1     2
  1.5947802069296529E-01 a       103     0     6     1     3
 -1.2106404845087887E-01 a       104     0     6     1     4
 -4.1888480964836045E-01 a       105     0     6     1     5
 -7.8501275905174095E-01 a       106     0     6     1     6
  3.1499770255036913E-01 a       107     0     6     1     7
  1.9756671850779448E-01 a       108     0     6     1     8
  1.3335139686148037E-01 a       109     0     6     1     9
 -4.3308476306969025E-02 a       110     0     6     1    10
 -5.2259220042142029E-01 a       111     0     6     1    11
 -6.3626506083246559E-01 a       112     0     6     1    12
 -2.3398442683317691E-01 a       113     0     6     1    13
 -2.1568561425328783E-02 a       114     0     6     1    14
  7.0865796785088409E-01 a       115     0     6     1    15
 -3.1470437439130410E-02 a       116     0     6     1    16
 -1.6968007290925360E-01 a       117     0     6     1    17
  1.3652491656502178E-02 a       118     0     6     1    18
  1.1294382307519012E-01 a       119     0     6     1    19
 -1.2136783788154930E-03 a       120     0     6     1    20
 -5.0316123971681434E-02 a       121     0     7     1     1
  1.4090508880895497E-01 a       122     0     7     1     2
 -1.1154735426394044E-01 a       123     0     7     1     3
  1.9466984344980021E-01 a       124     0     7     1     4
 -1.9529460084788094E-01 a       125     0     7     1     5
  1.6153244481460940E-01 a       126     0     7     1     6
  3.0616842704467632E-02 a       127     0     7     1     7
  5.1388350442743624E-01 a       128     0     7     1     8
 -1.9276237431834284E-01 a       129     0     7     1     9
 -1.5330687547256677E-01 a       130     0     7     1    10
 -2.3390404841046342E-01 a       131     0     7     1    11
  1.9137840061710490E-01 a       132     0     7     1    12
  6.6254537679204639E-02 a       133     0     7     1    13
 -1.6757870861117519E-01 a       134     0     7     1    14
  1.4498345880627272E-01 a       135     0     7     1    15
 -1.3123711149906819E-01 a       136     0     7     1    16
 -1.3015971604554419E-01 a       137     0     7     1    17
  2.2780162461728329E-03 a       138     0     7     1    18
 -5.7599563444350105E-02 a       139     0     7     1    19
  9.7029935382262497E-02 a       140     0     7     1    20
  3.2486177097182108E-02 a       141     0     8     1     1
 -2.3189209663242558E-01 a       142     0     8     1     2
  1.8239457462892086E-01 a       143     0     8     1     3
  2.6147182252751481E-02 a       144     0     8     1     4
  1.2819956622771992E-02 a       145     0     8     1     5
  3.6091792448436397E-02 a       146     0     8     1     6
  6.1586824728891737E-02 a       147     0     8     1     7
  2.3520669671804623E-01 a       148     0     8     1     8
  1.2231208736814179E-01 a       149     0     8     1     9
  1.2717466077561937E-01 a       150     0     8     1    10
  1.6617298927380592E-02 a       151     0     8     1    11
 -2.6763747578076456E-02 a       152     0     8     1    12
  2.7953932894995613E-02 a       153     0     8     1    13
 -4.1869960627350274E-02 a       154     0     8     1    14
  3.0605021385351518E-02 a       155     0     8     1    15
 -6.2345991384073013E-02 a       156     0     8     1    16
  1.0419504749408649E-02 a       157     0     8     1    17
 -3.3096748685117394E-01 a       158     0     8     1    18
  4.2138028540429515E-02 a       159     0     8     1    19
 -2.8451634693947586E-01 a       160     0     8     1    20
 -1.5410510991357274E-01 a       161     0     9     1     1
  7.6985101565342551E-02 a       162     0     9     1     2
  3.7504310308588411E-02 a       163     0     9     1     3
  2.6122652494892473E-01 a       164     0     9     1     4
 -3.7524523812245504E-02 a       165     0     9     1     5
  3.7338340310172691E-02 a       166     0     9     1     6
 -2.3438243323365856E-02 a       167     0     9     1     7
  3.2121326414422308E-02 a       168     0     9     1     8
 -3.8338309788007008E-02 a       169     0     9     1     9
 -3.9841874328396018E-02 a       170     0     9     1    10
 -2.5047098115665234E-01 a       171     0     9     1    11
  2.0759826629878048E-01 a       172     0     9     1    12
  5.7147771423716159E-02 a       173     0     9     1    13
 -1.2563713514763530E-01 a       174     0     9     1    14
 -2.7460568540250563E-01 a       175     0     9     1    15
  5.2875388939585335E-02 a       176     0     9     1    16
  1.7136700486309059E-01 a       177     0     9     1    17
  1.4101999073288160E-01 a       178     0     9     1    18
 -2.0862599420225850E-01 a       179     0     9     1    19
 -1.3521934970475890E-02 a       180     0     9     1    20
 -4.9840097593742701E-02 a       181     0    10     1     1
 -2.3484929146574237E-02 a       182     0    10     1     2
 -1.3340896465423474E-01 a       183     0    10     1     3
  6.6201213821086263E-02 a       184     0    10     1     4
  2.5792922506183347E-01 a       185     0    10     1     5
  2.3137724459415437E-01 a       186     0    10     1     6
  7.1069443795027354E-01 a       187     0    10     1     7
 -3.2075446188872614E-01 a       188     0    10     1     8
 -4.8645022694798409E-02 a       189     0    10     1     9
 -2.2268334070077592E-01 a       190     0    10     1    10
 -1.2049743059708261E-01 a       191     0    10     1    11
  1.5985463114491888E-01 a       192     0    10     1    12
 -1.9953098028114555E-01 a       193     0    10     1    13
 -2.4189748595200755E-01 a       194     0    10     1    14
 -2.6062282630485467E-01 a       195     0    10     1    15
 -6.5808881653765423E-03 a       196     0    10     1    16
  9.1379614450810873E-02 a       197     0    10     1    17
 -1.3002230433988937E-01 a       198     0    10     1    18
 -1.1837578677958047E-01 a       199     0    10     1    19
 -1.1031331322014215E-01 a       200     0    10     1    20
  1.3051022952574826E-01 a       201     0    11     1     1
  3.4656973225571909E-02 a       202     0    11     1     2
  2.4035971360969138E-01 a       203     0    11     1     3
 -1.2757481227073306E-01 a       204     0    11     1     4
  3.3305504184305064E-02 a       205     0    11     1     5
 -1.1508751731551151E-01 a       206     0    11     1     6
  6.6067793590319404E-02 a       207     0    11     1     7
  1.5294746533303741E-01 a       208     0    11     1     8
  9.8269160962113314E-02 a       209     0    11     1     9
 -3.1846526562463839E-01 a       210     0    11     1    10
 -1.8286345147217475E-01 a       211     0    11     1    11
  2.4503570663497376E-03 a       212     0    11     1    12
 -1.1991596720249666E-01 a       213     0    11     1    13
 -1.4640956063647318E-02 a       214     0    11     1    14
 -1.1548415862382501E-01 a       215     0    11     1    15
 -2.6439521619564116E-01 a       216     0    11     1    16
 -5.7820943785725581E-02 a       217     0    11     1    17
  1.5915125174355349E-01 a       218     0    11     1    18
 -8.7932475123529724E-02 a       219     0    11     1    19
  3.0669681802207488E-01 a       220     0    11     1    20
  2.6138611098766740E-02 a       221     0    12     1     1
  5.9921288324267137E-02 a       222     0    12     1     2
 -7.4347683661291200E-02 a       223     0    12     1     3
 -3.6628847828325669E-03 a       224     0    12     1     4
  1.7594424280433682E-01 a       225     0    12     1     5
  1.6613194523232679E-03 a       226     0    12     1     6
  2.3567541445411738E-01 a       227     0    12     1     7
  4.7249071396298130E-02 a       228     0    12     1     8
 -2.8280756344235541E-01 a       229     0    12     1     9
  1.0876218675562591E-01 a       230     0    12     1    10
 -3.7910822077028915E-02 a       231     0    12     1    11
 -2.4641866571686096E-02 a       232     0    12     1    12
 -2.9358320264175966E-02 a       233     0    12     1    13
  1.2010594992707899E-01 a       234     0    12     1    14
  6.5187563974215018E-02 a       235     0    12     1    15
 -1.9906483223739700E-02 a       236     0    12     1    16
  2.3875606491075790E-01 a       237     0    12     1    17
  2.8026156640403149E-01 a       238     0    12     1    18
 -1.0214810720415278E-01 a       239     0    12     1    19
  6.7165852331469530E-02 a       240     0    12     1    20
 -1.7200030013972101E-01 a       241     0    13     1     1
 -1.2451884755133873E-01 a       242     0    13     1     2
 -1.0966716886641691E-01 a       243     0    13     1     3
 -1.7664072216069845E-01 a       244     0    13     1     4
  1.9661515608062080E-01 a       245     0    13     1     5
  3.6487262419439094E-02 a       246     0    13     1     6
 -6.6494081203055388E-02 a       247     0    13     1     7
  3.8244474046414123E-02 a       248     0    13     1     8
 -3.0086472989442510E-02 a       249     0    13     1     9
  9.4215300297794388E-02 a       250     0    13     1    10
  7.4232994755920434E-02 a       251     0    13     1    11
 -2.1126136654266645E-01 a       252     0    13     1    12
 -4.2829432812779664E-02 a       253     0    13     1    13
  4.6701044109418326E-02 a       254     0    13     1    14
  7.0846654082012808E-02 a       255     0    13     1    15
  3.8941286707142191E-02 a       256     0    13     1    16
  2.8385576353239714E-02 a       257     0    13     1    17
 -2.1112989294546025E-01 a       258     0    13     1    18
 -3.3007985697804103E-02 a       259     0    13     1    19
 -6.6525350498431335E-02 a       260     0    13     1    20
 -1.7666702437528178E-01 a       261     0    14     1     1
  7.1925043488390128E-02 a       262     0    14     1     2
 -1.2157907718370199E-02 a       263     0    14     1     3
  3.9711085793431126E-02 a       264     0    14     1     4
 -1.3344196659509014E-01 a       265     0    14     1     5
  2.5854061726496852E-01 a       266     0    14     1     6
 -3.9087764612834297E-01 a       267     0    14     1     7
  4.2033841433125735E-01 a       268     0    14     1     8
 -2.4423844931894218E-02 a       269     0    14     1     9
  2.1326058496900283E-01 a       270     0    14     1    10
  1.1906388185385738E-01 a       271     0    14     1    11
  7.6514086928314504E-02 a       272     0    14     1    12
  8.4733787442619377E-02 a       273     0    14     1    13
  5.5889418669731454E-02 a       274     0    14     1    14
  6.2246743015485925E-02 a       275     0    14     1    15
  1.3495573397189226E-01 a       276     0    14     1    16
 -2.1943542232849535E-02 a       277     0    14     1    17
  1.1098323738805056E-01 a       278     0    14     1    18
 -2.8359811559125730E-02 a       279     0    14     1    19
  1.5641731650683260E-01 a       280     0    14     1    20
 -1.4273677581256561E-01 a       281     0    15     1     1
 -3.0525413563627585E-01 a       282     0    15     1     2
  1.4270829679821517E-01 a       283     0    15     1     3
 -3.4020534420103700E-02 a       284     0    15     1     4
 -9.2485498266982481E-03 a       285     0    15     1     5
 -3.1012728158766967E-01 a       286     0    15     1     6
 -1.7277077785340708E-01 a       287     0    15     1     7
  3.0994041806169542E-01 a       288     0    15     1     8
 -2.0359310649528343E-02 a       289     0    15     1     9
 -2.8662320080318132E-01 a       290     0    15     1    10
 -5.0646461203025017E-02 a       291     0    15     1    11
 -1.1704065101386420E-01 a       292     0    15     1    12
  7.8100355748595279E-02 a       293     0    15     1    13
  1.4193517327123734E-01 a       294     0    15     1    14
 -1.6251625355387284E-01 a       295     0    15     1    15
 -1.7730266859517294E-01 a       296     0    15     1    16
  5.7750400518483444E-02 a       297     0    15     1    17
  6.3140779261754709E-02 a       298     0    15     1    18
  9.3443831072458086E-02 a       299     0    15     1    19
  1.6913428008089534E-02 a       300     0    15     1    20
  1.3592212296067576E-02 a       301     0    16     1     1
  1.0845100001409702E-01 a       302     0    16     1     2
 -4.4635818461044786E-02 a       303     0    16     1     3
  2.2277218818424915E-01 a       304     0    16     1     4
 -1.8426315314802527E-01 a       305     0    16     1     5
 -7.5006891041010562E-02 a       306     0    16     1     6
 -1.4720418729680015E-01 a       307     0    16     1     7
  1.1368884986326065E-01 a       308     0    16     1     8
  2.2606018025747057E-01 a       309     0    16     1     9
  2.1033099816619164E-01 a       310     0    16     1    10
  1.1766778384965489E-01 a       311     0    16     1    11
 -2.9855872356827004E-02 a       312     0    16     1    12
 -3.9403048908587826E-02 a       313     0    16     1    13
 -5.8490196951984909E-02 a       314     0    16     1    14
 -2.9815557870633683E-02 a       315     0    16     1    15
 -3.3731121155163142E-02 a       316     0    16     1    16
  1.1418414544507552E-01 a       317     0    16     1    17
 -2.2567872550332185E-02 a       318     0    16     1    18
  5.4514075120181235E-02 a       319     0    16     1    19
  7.5208054654326506E-02 a       320     0    16     1    20
  2.1455975894349477E-01 a       321     0    17     1     1
  3.8947483602520337E-02 a       322     0    17     1     2
 -1.2163279813561961E-01 a       323     0    17     1     3
 -6.2131361003870060E-02 a       324     0    17     1     4
 -4.2632743011835963E-02 a       325     0    17     1     5
  2.5203703816291478E-01 a       326     0    17     1     6
  1.4003717822082842E-01 a       327     0    17     1     7
 -1.6703682143497541E-02 a       328     0    17     1     8
 -2.6159917997470488E-03 a       329     0    17     1     9
 -1.2130716105343903E-01 a       330     0    17     1    10
 -1.1603451705866026E-01 a       331     0    17     1    11
  1.1037391838158700E-01 a       332     0    17     1    12
  1.9319362833620360E-01 a       333     0    17     1    13
 -7.6960671414545859E-03 a       334     0    17     1    14
 -1.2689752275419103E-01 a       335     0    17     1    15
 -2.0456328736743634E-02 a       336     0    17     1    16
 -1.1005200371956721E-01 a       337     0    17     1    17
  1.6229886815313627E-01 a       338     0    17     1    18
  2.0737528413736936E-01 a       339     0    17     1    19
  9.7901646480125337E-02 a       340     0    17     1    20
  3.2229392632651155E-01 a       341     0    18     1     1
  2.1510232258547653E-02 a       342     0    18     1     2
  1.3027238448544823E-01 a       343     0    18     1     3
 -8.2219765032090341E-03 a       344     0    18     1     4
  3.2415102828664590E-02 a       345     0    18     1     5
 -4.6212321998437000E-01 a       346     0    18     1     6
 -2.7393758860259909E-01 a       347     0    18     1     7
 -3.2526163947586778E-01 a       348     0    18     1     8
  1.4743652714141164E-01 a       349     0    18     1     9
  4.2346380967692851E-03 a       350     0    18     1    10
 -5.2989825293699666E-02 a       351     0    18     1    11
 -3.0116521096096538E-01 a       352     0    18     1    12
  1.5452628786682732E-01 a       353     0    18     1    13
  2.1316324379123616E-01 a       354     0    18     1    14
  5.4604679231205877E-02 a       355     0    18     1    15
 -2.3009308894236447E-01 a       356     0    18     1    16
 -1.6121292695276043E-01 a       357     0    18     1    17
 -1.2671504642937506E-01 a       358     0    18     1    18
  1.0757856527520950E-01 a       359     0    18     1    19
  9.3730590383815149E-02 a       360     0    18     1    20
 -4.6412661602664093E-02 a       361     0    19     1     1
  1.8889162383330237E-02 a       362     0    19     1     2
 -5.3328393647704801E-02 a       363     0    19     1     3
  1.9096835023629641E-01 a       364     0    19     1     4
 -1.7809168859149707E-01 a       365     0    19     1     5
  1.6756291686834049E-01 a       366     0    19     1     6
  9.9202288434959526E-02 a       367     0    19     1     7
 -7.3049220079956637E-02 a       368     0    19     1     8
  6.4719954410996886E-02 a       369     0    19     1     9
  1.8534845681146744E-01 a       370     0    19     1    10
  5.0079252789098541E-02 a       371     0    19     1    11
  1.1018008835787457E-01 a       372     0    19     1    12
 -1.2225490610857910E-01 a       373     0    19     1    13
 -1.9884482524654862E-01 a       374     0    19     1    14
  9.7929425897805150E-02 a       375     0    19     1    15
  2.5245636282919465E-01 a       376     0    19     1    16
  4.0741584230101685E-02 a       377     0    19     1    17
 -8.4141253521229795E-02 a       378     0    19     1    18
  1.1018982335950571E-01 a       379     0    19     1    19
 -7.0528628438999055E-02 a       380     0    19     1    20
  7.7786175614949521E-02 a       381     0    20     1     1
 -3.6460230033186825E-02 a       382     0    20     1     2
  3.4475758422337421E-01 a       383     0    20     1     3
 -2.2709389335169367E-01 a       384     0    20     1     4
  1.1450813191806187E-05 a       385     0    20     1     5
 -9.0949105139006670E-02 a       386     0    20     1     6
  6.4473994505268334E-02 a       387     0    20     1     7
  1.6348988030145670E-01 a       388     0    20     1     8
 -8.4494373063075473E-02 a       389     0    20     1     9
 -1.6405843594316480E-01 a       390     0    20     1    10
  1.1804454796273262E-02 a       391     0    20     1    11
  4.7034612962633678E-02 a       392     0    20     1    12
 -3.1542148283238031E-01 a       393     0    20     1    13
 -5.8583861517685194E-02 a       394     0    20     1    14
 -1.7597979469712411E-02 a       395     0    20     1    15
 -2.1053443084170474E-02 a       396     0    20     1    16
 -1.5757655226225814E-01 a       397     0    20     1    17
  6.8561674401068404E-02 a       398     0    20     1    18
 -1.1130237355715744E-01 a       399     0    20     1    19
  4.2792538723673314E-02 a       400     0    20     1    20
 -1.9357592494907605E-01 a       401     0    21     1     1
 -9.0228545244820005E-02 a       402     0    21     1     2
 -6.2565248191133099E-02 a       403     0    21     1     3
  3.8422493415957729E-02 a       404     0    21     1     4
 -1.5891366324567002E-01 a       405     0    21     1     5
 -1.4597236202453820E-01 a       406     0    21     1     6
 -1.4362612236151084E-01 a       407     0    21     1     7
  5.6346097103710108E-02 a       408     0    21     1     8
  4.3100527306784021E-02 a       409     0    21     1     9
 -9.5539755444872934E-02 a       410     0    21     1    10
 -1.1576860097419829E-01 a       411     0    21     1    11
 -1.3479225061162392E-01 a       412     0    21     1    12
 -8.5255249067501149E-02 a       413     0    21     1    13
 -2.2118609721088678E-01 a       414     0    21     1    14
 -9.8337962516093100E-02 a       415     0    21     1    15
  7.8585851855846253E-02 a       416     0    21     1    16
 -7.3550038545119089E-03 a       417     0    21     1    17
 -1.3183715588038467E-01 a       418     0    21     1    18
 -6.4432667740631666E-02 a       419     0    21     1    19
  6.7437498791885403E-02 a       420     0    21     1    20
  4.9125090289708464E-03 a       421     0    22     1     1
 -3.5482905640021950E-01 a       422     0    22     1     2
 -1.8323613227146293E-01 a       423     0    22     1     3
 -1.7344221843532306E-02 a       424     0    22     1     4
 -8.4446656578682534E-03 a       425     0    22     1     5
  2.0460924555731425E-01 a       426     0    22     1     6
  6.2664542630559583E-01 a       427     0    22     1     7
 -3.1030235823492697E-02 a       428     0    22     1     8
 -3.1510415868383956E-01 a       429     0    22     1     9
 -1.1534575642849468E-01 a       430     0    22     1    10
  1.8633440743119506E-01 a       431     0    22     1    11
  1.4725016048277390E-01 a       432     0    22     1    12
 -3.5271449316588815E-01 a       433     0    22     1    13
 -2.1630776697970455E-01 a       434     0    22     1    14
  6.3723321715784455E-03 a       435     0    22     1    15
  3.4947003997422604E-01 a       436     0    22     1    16
  1.7975769662335073E-01 a       437     0    22     1    17
 -8.8837702676876823E-02 a       438     0    22     1    18
  1.6934267148914267E-01 a       439     0    22     1    19
  5.1662595501080939E-03 a       440     0    22     1    20
 -1.0735414310794870E-01 a       441     0    23     1     1
 -5.3988613730710927E-02 a       442     0    23     1     2
  9.2251161673859897E-02 a       443     0    23     1     3
 -2.3887774413450281E-02 a       444     0    23     1     4
  5.4169909816802732E-02 a       445     0    23     1     5
 -1.8469974768936900E-01 a       446     0    23     1     6
 -6.6279608985738481E-02 a       447     0    23     1     7
  1.2914564843116261E-01 a       448     0    23     1     8
  7.4096210984474206E-02 a       449     0    23     1     9
 -4.6424206642624442E-02 a       450     0    23     1    10
  2.6915445522904455E-02 a       451     0    23     1    11
 -1.7486856640998316E-01 a       452     0    23     1    12
  9.2297464262860132E-02 a       453     0    23     1    13
  7.0658163216364691E-04 a       454     0    23     1    14
 -1.1378556473280402E-01 a       455     0    23     1    15
 -2.7648911328111325E-01 a       456     0    23     1    16
 -1.7757612915616333E-01 a       457     0    23     1    17
  6.9894868880564495E-02 a       458     0    23     1    18
 -1.7979913383938498E-01 a       459     0    23     1    19
 -1.9587859348963496E-02 a       460     0    23     1    20
  1.9259194572581215E-02 a       461     0    24     1     1
  2.9696456773458295E-03 a       462     0    24     1     2
 -5.3361947150126092E-02 a       463     0    24     1     3
  8.8539077109983183E-02 a       464     0    24     1     4
  3.5645274479654002E-02 a       465     0    24     1     5
 -4.8308898327166019E-02 a       466     0    24     1     6
  2.1009745503170249E-01 a       467     0    24     1     7
 -4.7420839887421145E-03 a       468     0    24     1     8
  7.6025197672980771E-02 a       469     0    24     1     9
  1.2453653032520470E-01 a       470     0    24     1    10
  1.9534233356737726E-01 a       471     0    24     1    11
  1.2728494127836040E-02 a       472     0    24     1    12
  9.2586342368454741E-02 a       473     0    24     1    13
  2.1257490780608090E-01 a       474     0    24     1    14
  9.9061923951962005E-02 a       475     0    24     1    15
 -9.4149609734631209E-03 a       476     0    24     1    16
  1.8395864511029492E-01 a       477     0    24     1    17
 -6.3548508026607470E-02 a       478     0    24     1    18
  6.2383773392219039E-02 a       479     0    24     1    19
 -1.8377663261318958E-02 a       480     0    24     1    20
  1.9678580308543547E-01 a       481     0    25     1     1
 -7.8137010023586320E-02 a       482     0    25     1     2
 -6.6627808396108906E-02 a       483     0    25     1     3
 -2.0062781103062777E-01 a       484     0    25     1     4
  1.2058065815058991E-01 a       485     0    25     1     5
  1.5195685509296653E-01 a       486     0    25     1     6
  1.9245578042217895E-01 a       487     0    25     1     7
  1.4657521560364545E-01 a       488     0    25     1     8
  4.9176555275950509E-02 a       489     0    25     1     9
 -7.3043187290317391E-02 a       490     0    25     1    10
  1.6466282752627126E-01 a       491     0    25     1    11
  6.8238323229053910E-03 a       492     0    25     1    12
  4.4101770441055801E-02 a       493     0    25     1    13
  8.1270223569267067E-02 a       494     0    25     1    14
  1.0511863707961554E-01 a       495     0    25     1    15
 -3.9499388991445297E-03 a       496     0    25     1    16
  1.5817719089986002E-02 a       497     0    25     1    17
  5.5074026116790083E-02 a       498     0    25     1    18
 -7.5703866545113768E-02 a       499     0    25     1    19
  2.7595685453749883E-02 a       500     0    25     1    20
 -1.6187084475673649E-01 a       501     0    26     1     1
  4.3388090576870247E-01 a       502     0    26     1     2
  2.2575787697188607E-01 a       503     0    26     1     3
  1.0630307481318126E-01 a       504     0    26     1     4
  6.8827208221734784E-02 a       505     0    26     1     5
 -4.3790872300590936E-02 a       506     0    26     1     6
 -3.8658229854728476E-01 a       507     0    26     1     7
  3.7888306704210140E-01 a       508     0    26     1     8
  2.6953830688020658E-01 a       509     0    26     1     9
 -1.4745103015641367E-01 a       510     0    26     1    10
 -2.6530574308612376E-01 a       511     0    26     1    11
  1.1349355758539503E-01 a       512     0    26     1    12
  8.4691101193297202E-02 a       513     0    26     1    13
 -6.8242126613648792E-03 a       514     0    26     1    14
 -8.3704684945840074E-02 a       515     0    26     1    15
 -3.6104185483678658E-01 a       516     0    26     1    16
 -1.3275476782998100E-01 a       517     0    26     1    17
  2.1452751224423347E-01 a       518     0    26     1    18
 -3.2288104496885994E-01 a       519     0    26     1    19
 -6.2672327789076596E-02 a       520     0    26     1    20
  6.6358001273462919E-02 a       521     0    27     1     1
  3.1893540787574469E-02 a       522     0    27     1     2
  5.0146200476170077E-02 a       523     0    27     1     3
 -2.0623873550425226E-01 a       524     0    27     1     4
 -2.1196294392382412E-01 a       525     0    27     1     5
  1.1099885167167960E-01 a       526     0    27     1     6
 -7.7404313970464697E-02 a       527     0    27     1     7
  2.1918740553269932E-02 a       528     0    27     1     8
  6.6030742650797170E-02 a       529     0    27     1     9
 -6.6109941737768255E-02 a       530     0    27     1    10
 -5.6689661860289169E-02 a       531     0    27     1    11
  2.8221705441816730E-01 a       532     0    27     1    12
  8.3859066933578003E-02 a       533     0    27     1    13
 -5.6329555098064400E-02 a       534     0    27     1    14
  8.8103717614230845E-02 a       535     0    27     1    15
  2.4301048049596083E-01 a       536     0    27     1    16
  2.8276159939388185E-01 a       537     0    27     1    17
  1.8462650446173781E-01 a       538     0    27     1    18
 -6.8234405283452260E-02 a       539     0    27     1    19
  2.8495364968500258E-02 a       540     0    27     1    20
 -8.6448281392795617E-02 a       541     0    28     1     1
 -5.8222549701384425E-03 a       542     0    28     1     2
 -1.9735670623211726E-01 a       543     0    28     1     3
  1.0713633022740816E-01 a       544     0    28     1     4
 -3.3980691573854332E-02 a       545     0    28     1     5
  1.6607471240779206E-01 a       546     0    28     1     6
 -1.3856683513058121E-01 a       547     0    28     1     7
 -9.5203941102541420E-02 a       548     0    28     1     8
 -1.7489029408794599E-02 a       549     0    28     1     9
  1.0626441922036396E-01 a       550     0    28     1    10
 -2.4008501190409115E-01 a       551     0    28     1    11
 -7.0543890704912085E-02 a       552     0    28     1    12
 -1.4294521304093177E-01 a       553     0    28     1    13
  1.3261082329578985E-01 a       554     0    28     1    14
  5.1999608824880479E-03 a       555     0    28     1    15
  9.3807577533149125E-02 a       556     0    28     1    16
  1.9045747475639366E-02 a       557     0    28     1    17
  7.8726644686325828E-02 a       558     0    28     1    18
 -5.2088851708557447E-02 a       559     0    28     1    19
 -1.2119686083290283E-01 a       560     0    28     1    20
 -9.1520184603895979E-02 a       561     0    29     1     1
  1.2851246073763967E-02 a       562     0    29     1     2
 -7.1425747187480928E-03 a       563     0    29     1     3
 -1.2763925871893411E-01 a       564     0    29     1     4
 -3.8235989904206936E-02 a       565     0    29     1     5
 -5.4544352588532095E-02 a       566     0    29     1     6
 -1.1858920117415042E-01 a       567     0    29     1     7
 -2.2139265477148518E-01 a       568     0    29     1     8
 -9.1694726587173342E-02 a       569     0    29     1     9
  2.3391130558449161E-01 a       570     0    29     1    10
  1.0883797795864399E-01 a       571     0    29     1    11
 -3.3206079621738951E-02 a       572     0    29     1    12
  1.0820472443433035E-01 a       573     0    29     1    13
  8.8424969325673151E-03 a       574     0    29     1    14
 -2.8121319896061928E-03 a       575     0    29     1    15
 -8.4906311752491873E-02 a       576     0    29     1    16
  1.1104056024271652E-01 a       577     0    29     1    17
 -7.3159452045358897E-02 a       578     0    29     1    18
  1.0654029236766478E-01 a       579     0    29     1    19
  2.0128714640790191E-02 a       580     0    29     1    20
 -2.0740098551720904E-02 a       581     0    30     1     1
 -2.7375953730335223E-01 a       582     0    30     1     2
 -2.7102339226370670E-01 a       583     0    30     1     3
 -1.6527098159128720E-01 a       584     0    30     1     4
 -3.5540895824464708E-02 a       585     0    30     1     5
  1.3181618979921186E-01 a       586     0    30     1     6
  2.1314745913142333E-01 a       587     0    30     1     7
 -3.9099312797621699E-01 a       588     0    30     1     8
 -2.9850034362509459E-01 a       589     0    30     1     9
  5.0695293068337377E-01 a       590     0    30     1    10
  2.9488578995528120E-01 a       591     0    30     1    11
 -3.8618724371800872E-01 a       592     0    30     1    12
  1.3574010086598776E-01 a       593     0    30     1    13
  1.8651538026252856E-01 a       594     0    30     1    14
  1.0565818178790683E-01 a       595     0    30     1    15
  1.5717032444591142E-01 a       596     0    30     1    16
  2.2273482962144292E-01 a       597     0    30     1    17
 -3.0084661047333267E-01 a       598     0    30     1    18
  2.5526731293633098E-01 a       599     0    30     1    19
  4.5264999691638302E-02 a       600     0    30     1    20
  1.7311152383652350E-03 a       601     0    31     1     1
 -2.2297703611551206E-01 a       602     0    31     1     2
 -2.2841534911955130E-01 a       603     0    31     1     3
 -1.6775376618207191E-01 a       604     0    31     1     4
  3.7072799766609467E-02 a       605     0    31     1     5
 -1.3140635893139848E-02 a       606     0    31     1     6
  2.1442246892925154E-01 a       607     0    31     1     7
 -2.1149751658594571E-01 a       608     0    31     1     8
 -4.0847662293962425E-03 a       609     0    31     1     9
  1.5410944370942917E-01 a       610     0    31     1    10
  1.2346884114756890E-01 a       611     0    31     1    11
 -3.1108796491623453E-01 a       612     0    31     1    12
  9.4229571966199827E-02 a       613     0    31     1    13
 -1.8533370996455148E-01 a       614     0    31     1    14
 -9.4845699108628889E-02 a       615     0    31     1    15
  2.3545554070059824E-01 a       616     0    31     1    16
  1.3572870231940251E-01 a       617     0    31     1    17
  5.4906626153333117E-02 a       618     0    31     1    18
  1.4594853507790309E-01 a       619     0    31     1    19
  6.8013572514599982E-02 a       620     0    31     1    20
  1.3360220783335885E-02 a       621     0    32     1     1
  2.3791217530828720E-01 a       622     0    32     1     2
  2.9290234168507029E-01 a       623     0    32     1     3
  1.7167864640247843E-01 a       624     0    32     1     4
  2.7031804708001600E-01 a       625     0    32     1     5
 -2.3646661163397217E-01 a       626     0    32     1     6
 -1.1564788832070404E-01 a       627     0    32     1     7
  1.3229622398279630E-02 a       628     0    32     1     8
  7.6167500577954461E-02 a       629     0    32     1     9
 -9.4973919288447076E-02 a       630     0    32     1    10
 -1.1789071606939566E-01 a       631     0    32     1    11
  3.3509090037499278E-01 a       632     0    32     1    12
 -1.3362686937441837E-01 a       633     0    32     1    13
 -1.0480951571603858E-01 a       634     0    32     1    14
 -9.7933462852713482E-02 a       635     0    32     1    15
 -5.9348326683811063E-02 a       636     0    32     1    16
 -1.4609274404723788E-01 a       637     0    32     1    17
  2.3034872373146373E-02 a       638     0    32     1    18
 -1.3866605705450452E-01 a       639     0    32     1    19
 -4.5977575328516637E-02 a       640     0    32     1    20
  6.9202875975323203E-03 a       641     0    33     1     1
 -1.3911793676638948E-01 a       642     0    33     1     2
 -2.8523647977628717E-02 a       643     0    33     1     3
  6.7561417669588980E-02 a       644     0    33     1     4
 -1.7535810923078735E-01 a       645     0    33     1     5
  1.0719551419050941E-01 a       646     0    33     1     6
  6.8523978250893042E-02 a       647     0    33     1     7
  2.6273959493183979E-01 a       648     0    33     1     8
  1.2982995216172347E-01 a       649     0    33     1     9
 -8.2864842301548391E-02 a       650     0    33     1    10
 -1.6340521370552746E-01 a       651     0    33     1    11
 -6.4268636796795398E-02 a       652     0    33     1    12
 -4.0019726227438421E-03 a       653     0    33     1    13
 -2.0720457544023299E-01 a       654     0    33     1    14
 -9.6375727676107373E-02 a       655     0    33     1    15
  7.1707473726014812E-02 a       656     0    33     1    16
 -1.5468927851875544E-01 a       657     0    33     1    17
  1.3708768778502931E-01 a       658     0    33     1    18
 -2.8643145024515676E-01 a       659     0    33     1    19
 -1.7753366107086783E-03 a       660     0    33     1    20
 -2.5284246052930802E-02 a       661     0    34     1     1
  2.5131870084366270E-01 a       662     0    34     1     2
  3.8609686691699824E-01 a       663     0    34     1     3
  2.7977244770354215E-01 a       664     0    34     1     4
  9.8885481070039222E-02 a       665     0    34     1     5
 -2.7021123290899168E-01 a       666     0    34     1     6
 -1.8825684444942187E-01 a       667     0    34     1     7
  3.3043405089601791E-01 a       668     0    34     1     8
  1.9941113812162367E-01 a       669     0    34     1     9
 -5.8722552842964593E-01 a       670     0    34     1    10
 -3.4658819243010131E-01 a       671     0    34     1    11
  5.5556012961559620E-01 a       672     0    34     1    12
 -2.6595020140821629E-01 a       673     0    34     1    13
 -1.7283593399454325E-01 a       674     0    34     1    14
 -9.9214765703066282E-02 a       675     0    34     1    15
 -4.5170388351274772E-02 a       676     0    34     1    16
 -1.2673989759225010E-01 a       677     0    34     1    17
  4.1302273341599871E-01 a       678     0    34     1    18
 -1.6753559174035354E-01 a       679     0    34     1    19
 -9.3086878418442431E-02 a       680     0    34     1    20
 -2.2776882959424278E-02 a       681     0    35     1     1
  1.0889499948954459E-01 a       682     0    35     1     2
  1.1155728603027601E-01 a       683     0    35     1     3
  2.4180903624025446E-01 a       684     0    35     1     4
 -2.4001353212428869E-02 a       685     0    35     1     5
 -3.8732554217814602E-02 a       686     0    35     1     6
 -9.8647722099879667E-02 a       687     0    35     1     7
  2.1809251381780950E-01 a       688     0    35     1     8
  1.1035947235256915E-01 a       689     0    35     1     9
 -9.9768476495431413E-02 a       690     0    35     1    10
 -8.1660634504709631E-02 a       691     0    35     1    11
  1.4469197634092673E-01 a       692     0    35     1    12
 -1.5492357620163730E-01 a       693     0    35     1    13
  8.8081025380544992E-02 a       694     0    35     1    14
  1.5900799412493612E-02 a       695     0    35     1    15
 -2.2349296899565477E-01 a       696     0    35     1    16
 -2.0503650985518151E-01 a       697     0    35     1    17
 -7.1142622772847802E-02 a       698     0    35     1    18
 -2.3384806693950516E-01 a       699     0    35     1    19
 -2.8182407130313170E-02 a       700     0    35     1    20
  3.6593319022901062E-02 a       701     0    36     1     1
 -1.7649261562536520E-01 a       702     0    36     1     2
 -8.4600316097119113E-02 a       703     0    36     1     3
 -1.6451409240656628E-01 a       704     0    36     1     4
 -2.2974635834134691E-01 a       705     0    36     1     5
  1.3199905943071460E-01 a       706     0    36     1     6
  1.7860338376252094E-01 a       707     0    36     1     7
  2.7704345363614706E-02 a       708     0    36     1     8
 -1.6567056174496353E-01 a       709     0    36     1     9
  4.2921875796770800E-02 a       710     0    36     1    10
  2.4948673153987369E-01 a       711     0    36     1    11
 -2.9852732129493920E-01 a       712     0    36     1    12
  1.2754094537863103E-01 a       713     0    36     1    13
  1.3820501706128890E-01 a       714     0    36     1    14
  1.1810793611374687E-01 a       715     0    36     1    15
 -5.8346064436671482E-03 a       716     0    36     1    16
  1.6848886861973356E-01 a       717     0    36     1    17
 -6.0681512563740388E-02 a       718     0    36     1    18
  2.5666083731555933E-01 a       719     0    36     1    19
  1.0144081380774114E-01 a       720     0    36     1    20
  1.0293221545290555E-01 a       721     0    37     1     1
 -3.9560671159185483E-02 a       722     0    37     1     2
 -7.5004715609644459E-02 a       723     0    37     1     3
 -1.8952517220531712E-01 a       724     0    37     1     4
 -1.2748266345487891E-02 a       725     0    37     1     5
 -2.9209172070407047E-02 a       726     0    37     1     6
 -3.3187865620758696E-03 a       727     0    37     1     7
 -6.8587201476538934E-02 a       728     0    37     1     8
  1.7741958734129867E-02 a       729     0    37     1     9
  2.4661030703909063E-02 a       730     0    37     1    10
  1.5179813101462550E-01 a       731     0    37     1    11
 -4.7538123158268747E-02 a       732     0    37     1    12
  8.1230975648048154E-02 a       733     0    37     1    13
 -8.1937834356679035E-02 a       734     0    37     1    14
  3.0895010843600444E-02 a       735     0    37     1    15
 -1.4732303311447377E-02 a       736     0    37     1    16
  5.9431209415390478E-02 a       737     0    37     1    17
 -5.5956017465610804E-02 a       738     0    37     1    18
  9.6971526517950227E-02 a       739     0    37     1    19
  1.2369619484749890E-01 a       740     0    37     1    20
  1.0475764327882865E-01 a       741     0    38     1     1
 -2.5281509503491676E-02 a       742     0    38     1     2
 -2.1779221904350515E-01 a       743     0    38     1     3
 -1.6814192392521404E-01 a       744     0    38     1     4
  5.9560206246650774E-02 a       745     0    38     1     5
  1.9124018497893908E-01 a       746     0    38     1     6
  9.4363069512959308E-02 a       747     0    38     1     7
 -9.7712386328065295E-02 a       748     0    38     1     8
 -1.2409641650681247E-01 a       749     0    38     1     9
  1.9468202277760194E-01 a       750     0    38     1    10
  1.4682956649861331E-01 a       751     0    38     1    11
 -2.6461538384738575E-01 a       752     0    38     1    12
  2.0268223680582154E-01 a       753     0    38     1    13
  1.4221090172704601E-01 a       754     0    38     1    14
  4.8847063044098610E-02 a       755     0    38     1    15
 -5.7520846287843604E-02 a       756     0    38     1    16
  7.1629494952431108E-02 a       757     0    38     1    17
 -3.0439304943803741E-01 a       758     0    38     1    18
  1.1933276546152305E-01 a       759     0    38     1    19
  1.4273096950292827E-01 a       760     0    38     1    20
 -5.5700285161575200E-02 a       761     0    39     1     1
 -2.0635381286979702E-02 a       762     0    39     1     2
  3.6550504948478842E-02 a       763     0    39     1     3
 -6.2923158953793579E-02 a       764     0    39     1     4
 -9.4125170053202482E-03 a       765     0    39     1     5
 -2.1351135004228632E-02 a       766     0    39     1     6
  2.1839022170415986E-02 a       767     0    39     1     7
 -7.2867588612185383E-02 a       768     0    39     1     8
 -4.3180267057254550E-02 a       769     0    39     1     9
  8.7556205563583019E-03 a       770     0    39     1    10
  4.0632303198729694E-02 a       771     0    39     1    11
 -1.4242587323286208E-02 a       772     0    39     1    12
  6.3310026701104555E-02 a       773     0    39     1    13
  2.6790198528210455E-03 a       774     0    39     1    14
  2.9648334527262914E-03 a       775     0    39     1    15
  8.6582841776422864E-02 a       776     0    39     1    16
  8.6511232798834464E-02 a       777     0    39     1    17
  8.0332628379616244E-02 a       778     0    39     1    18
  5.0786606883656202E-02 a       779     0    39     1    19
 -3.3415559000367800E-02 a       780     0    39     1    20
 -4.7360239982426867E-02 a       781     0    40     1     1
  1.5692733008186960E-01 a       782     0    40     1     2
  8.0544176206823730E-03 a       783     0    40     1     3
  1.9364727824139538E-01 a       784     0    40     1     4
  1.8394733310037506E-01 a       785     0    40     1     5
 -6.2534227232647968E-02 a       786     0    40     1     6
 -1.0794686425457474E-01 a       787     0    40     1     7
 -7.6652335207801750E-02 a       788     0    40     1     8
  5.3812309059008433E-02 a       789     0    40     1     9
 -9.0606406152886926E-02 a       790     0    40     1    10
 -2.0192168696179208E-01 a       791     0    40     1    11
  2.0094408240164932E-01 a       792     0    40     1    12
 -2.2087934730712072E-01 a       793     0    40     1    13
  9.7942613895476482E-02 a       794     0    40     1    14
 -2.2256499772915651E-02 a       795     0    40     1    15
  2.2166242423458229E-02 a       796     0    40     1    16
 -1.3257545167221385E-01 a       797     0    40     1    17
 -1.0901234728733823E-02 a       798     0    40     1    18
  4.2556398870838659E-03 a       799     0    40     1    19
 -1.3838271569467051E-01 a       800     0    40     1    20
  6.8408833842912756E-02 a       801     0    41     1     1
  1.1805395075971715E-02 a       802     0    41     1     2
 -5.7320661179798664E-02 a       803     0    41     1     3
  7.0164569764704166E-03 a       804     0    41     1     4
 -9.4075837605014978E-02 a       805     0    41     1     5
 -4.1233004478680004E-03 a       806     0    41     1     6
  1.0836661794676048E-02 a       807     0    41     1     7
  2.9942327807423813E-02 a       808     0    41     1     8
  7.5115892773522777E-02 a       809     0    41     1     9
 -1.7751590897176171E-02 a       810     0    41     1    10
  9.8701028052244899E-02 a       811     0    41     1    11
 -3.8999709666033000E-02 a       812     0    41     1    12
 -2.2759447371168087E-01 a       813     0    41     1    13
 -1.2959749436068027E-01 a       814     0    41     1    14
  3.4081978181611836E-02 a       815     0    41     1    15
 -6.0930965927310829E-02 a       816     0    41     1    16
 -3.0746061490998903E-02 a       817     0    41     1    17
 -3.7161806788552597E-02 a       818     0    41     1    18
  1.6650759318256655E-01 a       819     0    41     1    19
 -1.5300136539455336E-01 a       820     0    41     1    20
  8.8101061424029306E-02 a       821     0    42     1     1
  6.9969937522727386E-05 a       822     0    42     1     2
 -4.1359175557815639E-02 a       823     0    42     1     3
 -2.3653794233765950E-02 a       824     0    42     1     4
 -6.3656964578225714E-02 a       825     0    42     1     5
 -2.5333611281025690E-03 a       826     0    42     1     6
  2.0621378255190190E-01 a       827     0    42     1     7
  4.6829357612853152E-02 a       828     0    42     1     8
  1.1657323339623014E-01 a       829     0    42     1     9
  4.7708887545421665E-02 a       830     0    42     1    10
  6.0152696848470889E-02 a       831     0    42     1    11
  4.5790527609700519E-03 a       832     0    42     1    12
 -1.5232002342226472E-01 a       833     0    42     1    13
  3.6239106161801671E-01 a       834     0    42     1    14
  1.2693185594412676E-01 a       835     0    42     1    15
 -9.1887171770524954E-04 a       836     0    42     1    16
  1.4392868357153824E-02 a       837     0    42     1    17
  5.5464846907160630E-02 a       838     0    42     1    18
 -1.4436925595657427E-01 a       839     0    42     1    19
  2.5095157546478419E-01 a       840     0    42     1    20
 -5.4804582135173564E-02 a       841     0    43     1     1
  4.3301823083512159E-02 a       842     0    43     1     2
  5.5179673934113004E-03 a       843     0    43     1     3
  6.2480522352292803E-02 a       844     0    43     1     4
  6.6372476412835821E-02 a       845     0    43     1     5
  1.1021862659610134E-01 a       846     0    43     1     6
 -1.6977191054902932E-01 a       847     0    43     1     7
 -1.6586027082328236E-01 a       848     0    43     1     8
 -2.6311642760048659E-01 a       849     0    43     1     9
  1.5127338416092376E-01 a       850     0    43     1    10
  5.0574513100111775E-02 a       851     0    43     1    11
 -1.6219386418431475E-01 a       852     0    43     1    12
  2.2968246986025007E-01 a       853     0    43     1    13
 -6.1238306859598766E-02 a       854     0    43     1    14
  1.0389274164032250E-02 a       855     0    43     1    15
 -6.5574935636102158E-02 a       856     0    43     1    16
  1.0106374948360272E-01 a       857     0    43     1    17
 -6.4143535953580091E-02 a       858     0    43     1    18
  5.2945951225329212E-02 a       859     0    43     1    19
 -7.3564338473310439E-02 a       860     0    43     1    20
 -1.0857183884679705E-01 a       861     0    44     1     1
 -9.9751889886958941E-04 a       862     0    44     1     2
  1.1849262028473814E-01 a       863     0    44     1     3
  1.4936589951434448E-01 a       864     0    44     1     4
  6.6828154511582166E-02 a       865     0    44     1     5
 -5.5121051759778666E-03 a       866     0    44     1     6
  1.0376115368623183E-01 a       867     0    44     1     7
  1.4922820379297578E-02 a       868     0    44     1     8
 -1.0037303532713550E-01 a       869     0    44     1     9
 -6.0484394073725460E-02 a       870     0    44     1    10
 -3.4133472865674169E-02 a       871     0    44     1    11
 -7.8527339371757161E-03 a       872     0    44     1    12
  2.3780504307070827E-01 a       873     0    44     1    13
  2.8736356250397221E-01 a       874     0    44     1    14
 -1.2378530461611205E-02 a       875     0    44     1    15
  7.5389877450259893E-02 a       876     0    44     1    16
  1.3553470434064327E-01 a       877     0    44     1    17
  3.5233926136391168E-02 a       878     0    44     1    18
 -1.1959779712480870E-01 a       879     0    44     1    19
  1.6401972310832277E-01 a       880     0    44     1    20
  2.9831206493727081E-03 a       881     0    45     1     1
 -2.2291062443079029E-02 a       882     0    45     1     2
 -4.7497457770224363E-02 a       883     0    45     1     3
  2.4967420292236035E-02 a       884     0    45     1     4
 -1.2369023282044486E-01 a       885     0    45     1     5
 -4.1710872444363587E-03 a       886     0    45     1     6
 -9.3524113987842542E-04 a       887     0    45     1     7
  4.8228056797336261E-01 a       888     0    45     1     8
 -1.2607058234943497E-01 a       889     0    45     1     9
 -1.3016293987967273E-01 a       890     0    45     1    10
 -5.0150271450162126E-02 a       891     0    45     1    11
  5.8104818162407541E-02 a       892     0    45     1    12
  2.8465347032721461E-01 a       893     0    45     1    13
  1.5355079958407006E-01 a       894     0    45     1    14
 -2.5855251865658629E-01 a       895     0    45     1    15
 -5.8269265876498766E-01 a       896     0    45     1    16
 -1.6778532539256624E-01 a       897     0    45     1    17
 -1.4051230430823580E-01 a       898     0    45     1    18
  4.6338042122874380E-02 a       899     0    45     1    19
  3.8516093149735842E-01 a       900     0    45     1    20
 -5.4509562251798149E-02 a       901     0    46     1     1
  2.7427958428738936E-01 a       902     0    46     1     2
 -1.6230207981900382E-01 a       903     0    46     1     3
 -5.9048876797063787E-01 a       904     0    46     1     4
  7.7614556823220673E-02 a       905     0    46     1     5
  4.3053670565285851E-01 a       906     0    46     1     6
 -1.7834573595889572E-01 a       907     0    46     1     7
 -1.6272191954833259E-01 a       908     0    46     1     8
  6.8940306264250156E-02 a       909     0    46     1     9
  2.4262497170960334E-01 a       910     0    46     1    10
  1.7853446925894040E-01 a       911     0    46     1    11
 -9.8491997305988371E-02 a       912     0    46     1    12
 -2.1323108501952237E-01 a       913     0    46     1    13
  6.0504706566175515E-01 a       914     0    46     1    14
  1.5378400133769829E-01 a       915     0    46     1    15
  1.4992041303209910E-01 a       916     0    46     1    16
  2.4346524158988875E-01 a       917     0    46     1    17
 -4.2436491615872340E-01 a       918     0    46     1    18
  2.0293298834878945E-01 a       919     0    46     1    19
 -3.9149627307216345E-01 a       920     0    46     1    20
 -1.1296572175895259E-01 a       921     0    47     1     1
 -7.3461823282500727E-02 a       922     0    47     1     2
 -1.6047070015421733E-02 a       923     0    47     1     3
  4.8653366629706381E-03 a       924     0    47     1     4
 -3.1151055877021605E-02 a       925     0    47     1     5
 -2.2985283053546347E-02 a       926     0    47     1     6
 -2.1692662833017488E-03 a       927     0    47     1     7
 -7.2351905306999226E-02 a       928     0    47     1     8
 -1.2669473577279483E-02 a       929     0    47     1     9
 -4.9184332814148496E-02 a       930     0    47     1    10
 -1.1288602905360136E-01 a       931     0    47     1    11
  1.5208516004492523E-01 a       932     0    47     1    12
 -4.4309151767579526E-02 a       933     0    47     1    13
  2.5133219364156011E-03 a       934     0    47     1    14
  4.2875476218120399E-02 a       935     0    47     1    15
  9.0647853057907277E-02 a       936     0    47     1    16
 -2.3921945102656247E-01 a       937     0    47     1    17
 -1.0643697420474975E-01 a       938     0    47     1    18
  1.1078416966282030E-01 a       939     0    47     1    19
 -1.4014927400043381E-01 a       940     0    47     1    20
  4.7117847247305650E-01 a       941     0    48     1     1
  1.9177792310405423E-01 a       942     0    48     1     2
  1.4791714961383309E-01 a       943     0    48     1     3
  2.3430966310672205E-01 a       944     0    48     1     4
 -4.6673663265180021E-02 a       945     0    48     1     5
 -3.3477944347494071E-01 a       946     0    48     1     6
 -1.1820408883703752E-01 a       947     0    48     1     7
 -3.9559237071383596E-01 a       948     0    48     1     8
 -1.1950010205257604E-01 a       949     0    48     1     9
 -9.1498995348330808E-02 a       950     0    48     1    10
  1.6891578406256408E-01 a       951     0    48     1    11
  1.3425505848414568E-01 a       952     0    48     1    12
 -9.7245538991664493E-02 a       953     0    48     1    13
  5.8714401553580695E-02 a       954     0    48     1    14
  1.9869086913819295E-01 a       955     0    48     1    15
 -8.6986453776789152E-02 a       956     0    48     1    16
 -2.9421954283543700E-01 a       957     0    48     1    17
  1.2703876352956412E-02 a       958     0    48     1    18
 -9.6786757520171976E-02 a       959     0    48     1    19
  1.7077559275968629E-01 a       960     0    48     1    20
  6.9450576214265827E-02 a       961     0    49     1     1
 -1.1151045990879639E-01 a       962     0    49     1     2
  7.7953581008154388E-02 a       963     0    49     1     3
 -2.3823224280239102E-03 a       964     0    49     1     4
  4.7893989957330581E-02 a       965     0    49     1     5
 -5.1189175287740328E-02 a       966     0    49     1     6
 -1.1105413468064475E-01 a       967     0    49     1     7
 -2.3141681980486792E-01 a       968     0    49     1     8
  7.1188273232700647E-02 a       969     0    49     1     9
 -9.1888532489701399E-02 a       970     0    49     1    10
  2.8572901502944841E-03 a       971     0    49     1    11
  7.4490238077767681E-02 a       972     0    49     1    12
  2.0916626677444425E-01 a       973     0    49     1    13
  5.7123038028882772E-02 a       974     0    49     1    14
 -5.4008144886419633E-02 a       975     0    49     1    15
 -2.6893272262719897E-02 a       976     0    49     1    16
 -3.8648058850654851E-02 a       977     0    49     1    17
  2.4591000886997196E-02 a       978     0    49     1    18
 -2.1382462315754250E-01 a       979     0    49     1    19
 -1.1436486420806462E-01 a       980     0    49     1    20
  8.7694339872668864E-02 a       981     0    50     1     1
 -1.3118700642282602E-01 a       982     0    50     1     2
  8.1038807210190821E-03 a       983     0    50     1     3
 -1.6780183589901718E-01 a       984     0    50     1     4
 -7.4071617861551824E-03 a       985     0    50     1     5
  4.3477129297984744E-02 a       986     0    50     1     6
 -1.1447242611933853E-01 a       987     0    50     1     7
 -6.7657234664010302E-02 a       988     0    50     1     8
  3.5574350018165883E-02 a       989     0    50     1     9
  9.2765273821042604E-02 a       990     0    50     1    10
  7.9461446968314836E-02 a       991     0    50     1    11
 -2.1240802022311673E-02 a       992     0    50     1    12
 -9.8869837440793366E-03 a       993     0    50     1    13
 -8.4645250051132784E-02 a       994     0    50     1    14
 -1.4054046241093000E-02 a       995     0    50     1    15
  9.7121604108820966E-02 a       996     0    50     1    16
 -3.8390649274803637E-02 a       997     0    50     1    17
  8.1605685887379459E-02 a       998     0    50     1    18
 -1.0085624597278958E-01 a       999     0    50     1    19
 -6.8348867970286012E-02 a      1000     0    50     1    20
 -1.3111646726397289E-01 a      1001     0    51     1     1
 -4.0366627407877949E-02 a      1002     0    51     1     2
  8.7229301433015383E-02 a      1003     0    51     1     3
 -3.5402470159199825E-02 a      1004     0    51     1     4
  1.3414160671927608E-01 a      1005     0    51     1     5
 -8.7578826873032964E-02 a      1006     0    51     1     6
 -1.3842524131449362E-02 a      1007     0    51     1     7
  3.9642397265812042E-02 a      1008     0    51     1     8
 -5.0992903966141340E-02 a      1009     0    51     1     9
  1.9372383277670835E-01 a      1010     0    51     1    10
 -2.3478641899644476E-01 a      1011     0    51     1    11
  1.5122183603255121E-01 a      1012     0    51     1    12
  7.9685162997599715E-02 a      1013     0    51     1    13
  1.0051128257915268E-01 a      1014     0    51     1    14
 -1.0805465014998272E-01 a      1015     0    51     1    15
  1.5389090817181877E-01 a      1016     0    51     1    16
 -1.9376294530697051E-02 a      1017     0    51     1    17
  1.3254205520490669E-01 a      1018     0    51     1    18
  4.3753811579223340E-02 a      1019     0    51     1    19
  1.6459416987226549E-01 a      1020     0    51     1    20
  1.5954826238352965E-01 a      1021     0    52     1     1
 -1.8512554649463248E-01 a      1022     0    52     1     2
 -1.2294808950832904E-01 a      1023     0    52     1     3
 -3.5143878139705159E-01 a      1024     0    52     1     4
 -5.7725783854932079E-02 a      1025     0    52     1     5
 -2.9603326089196975E-02 a      1026     0    52     1     6
 -5.6212973076178374E-03 a      1027     0    52     1     7
 -1.5063946722704818E-02 a      1028     0    52     1     8
  2.2406220375047975E-01 a      1029     0    52     1     9
 -2.0811891263858354E-01 a      1030     0    52     1    10
  1.1215535200425919E-01 a      1031     0    52     1    11
  1.7862384863471562E-01 a      1032     0    52     1    12
  2.1229099558689452E-01 a      1033     0    52     1    13
 -1.9837597640901919E-01 a      1034     0    52     1    14
  2.0017149072122601E-02 a      1035     0    52     1    15
 -1.0004277874241567E-01 a      1036     0    52     1    16
 -8.6030826857020640E-02 a      1037     0    52     1    17
 -8.7222753586175761E-02 a      1038     0    52     1    18
 -5.1036427246402352E-03 a      1039     0    52     1    19
 -1.1779746782644973E-01 a      1040     0    52     1    20
  1.0074545887388882E-02 a      1041     0    53     1     1
  1.0805970298586601E-01 a      1042     0    53     1     2
  5.7794492256668668E-02 a      1043     0    53     1     3
  4.4151370077281892E-02 a      1044     0    53     1     4
 -4.9741264094436084E-02 a      1045     0    53     1     5
 -2.8409804458198268E-01 a      1046     0    53     1     6
 -6.1088311612532767E-02 a      1047     0    53     1     7
 -5.8408264982694018E-02 a      1048     0    53     1     8
  1.2712253153012940E-01 a      1049     0    53     1     9
 -6.0546042209905102E-02 a      1050     0    53     1    10
  1.1240891978645630E-01 a      1051     0    53     1    11
  8.9813899192073179E-02 a      1052     0    53     1    12
 -2.0912920990076397E-01 a      1053     0    53     1    13
 -3.1778390120490102E-01 a      1054     0    53     1    14
  1.1771728232622883E-01 a      1055     0    53     1    15
  6.4220836507010756E-02 a      1056     0    53     1    16
 -1.6128851747978531E-01 a      1057     0    53     1    17
  6.4550900881586090E-02 a      1058     0    53     1    18
  8.7190595179097233E-02 a      1059     0    53     1    19
 -1.6387948764693638E-01 a      1060     0    53     1    20
 -1.2026991498341363E-01 a      1061     0    54     1     1
  5.2099124775222175E-02 a      1062     0    54     1     2
  1.0395079061870748E-01 a      1063     0    54     1     3
 -1.1739149850874279E-01 a      1064     0    54     1     4
 -3.2229438602413917E-02 a      1065     0    54     1     5
  2.1678435337654570E-02 a      1066     0    54     1     6
 -3.1869947382925819E-02 a      1067     0    54     1     7
  1.6395810404984637E-01 a      1068     0    54     1     8
  2.1768093940017528E-02 a      1069     0    54     1     9
  8.9732114456902490E-02 a      1070     0    54     1    10
 -1.6264504617207398E-01 a      1071     0    54     1    11
  3.4364864812922273E-02 a      1072     0    54     1    12
 -2.1897811108287144E-01 a      1073     0    54     1    13
 -2.5339678622731860E-02 a      1074     0    54     1    14
 -2.7341732448015121E-01 a      1075     0    54     1    15
 -2.1524454454366210E-02 a      1076     0    54     1    16
 -2.4209821235866125E-01 a      1077     0    54     1    17
  3.1918340535120387E-01 a      1078     0    54     1    18
  9.9658965398046792E-02 a      1079     0    54     1    19
 -9.9039328998476971E-03 a      1080     0    54     1    20
 -2.0044422245971161E-01 a      1081     0    55     1     1
 -2.6770847806942644E-01 a      1082     0    55     1     2
  7.4913830240078888E-02 a      1083     0    55     1     3
 -1.3986890771343100E-01 a      1084     0    55     1     4
 -1.2080269387128305E-01 a      1085     0    55     1     5
  8.6121991589014332E-02 a      1086     0    55     1     6
 -1.8692679321716196E-01 a      1087     0    55     1     7
  2.9961558005115952E-02 a      1088     0    55     1     8
 -6.4051817183040233E-02 a      1089     0    55     1     9
  3.4225576905481343E-02 a      1090     0    55     1    10
  1.1549856626959632E-02 a      1091     0    55     1    11
  9.0937669709279332E-03 a      1092     0    55     1    12
 -3.8142790652249775E-01 a      1093     0    55     1    13
  1.8988101403326574E-02 a      1094     0    55     1    14
 -1.8393367557132734E-01 a      1095     0    55     1    15
  7.3062958809947745E-02 a      1096     0    55     1    16
 -2.6978488492610187E-02 a      1097     0    55     1    17
 -8.9048627211463116E-02 a      1098     0    55     1    18
 -2.7146316964150208E-01 a      1099     0    55     1    19
 -7.6696767195884294E-02 a      1100     0    55     1    20
  4.9787883712409508E-04 a      1101     0    56     1     1
 -2.5974086541535396E-01 a      1102     0    56     1     2
 -1.4990840703875963E-01 a      1103     0    56     1     3
  6.1231028479358263E-01 a      1104     0    56     1     4
  1.8186629011333522E-01 a      1105     0    56     1     5
 -3.8079291959753320E-01 a      1106     0    56     1     6
  1.9926534143289554E-01 a      1107     0    56     1     7
 -2.6620619704021925E-01 a      1108     0    56     1     8
  1.4310753050603576E-02 a      1109     0    56     1     9
 -4.6763554042531430E-04 a      1110     0    56     1    10
  2.1982575771179941E-01 a      1111     0    56     1    11
  1.2270335880619909E-01 a      1112     0    56     1    12
 -9.9416326603378499E-02 a      1113     0    56     1    13
 -2.6267132403665483E-01 a      1114     0    56     1    14
  2.9963863362532467E-01 a      1115     0    56     1    15
 -1.7587604839166759E-01 a      1116     0    56     1    16
  2.4729668124515031E-01 a      1117     0    56     1    17
  5.5686115385907997E-01 a      1118     0    56     1    18
  1.5323720055224485E-01 a      1119     0    56     1    19
  1.5902259778735697E-01 a      1120     0    56     1    20
 -2.0997415503441078E-01 a      1121     0    57     1     1
 -2.3733720726087374E-02 a      1122     0    57     1     2
 -6.4623865793459051E-03 a      1123     0    57     1     3
  5.3336957397755347E-02 a      1124     0    57     1     4
 -1.4402230380851230E-01 a      1125     0    57     1     5
 -1.1190958580769315E-01 a      1126     0    57     1     6
 -1.2583597739750599E-01 a      1127     0    57     1     7
  8.0206386184244319E-02 a      1128     0    57     1     8
  1.9694702991715668E-01 a      1129     0    57     1     9
  2.2899537150812807E-01 a      1130     0    57     1    10
 -2.2773669680769437E-02 a      1131     0    57     1    11
 -1.9469147354083330E-01 a      1132     0    57     1    12
  1.6341363685240456E-01 a      1133     0    57     1    13
 -2.1005661979575913E-01 a      1134     0    57     1    14
 -6.5760657929417946E-02 a      1135     0    57     1    15
  1.8238697959764247E-01 a      1136     0    57     1    16
  9.2036983880384615E-02 a      1137     0    57     1    17
  1.0014547733006887E-01 a      1138     0    57     1    18
  2.0269746022190952E-02 a      1139     0    57     1    19
  2.1985453537383678E-02 a      1140     0    57     1    20
  4.8516607293218945E-02 a      1141     0    58     1     1
  2.2735790537943446E-01 a      1142     0    58     1     2
  1.5560228230124509E-01 a      1143     0    58     1     3
 -1.1051860865701209E-01 a      1144     0    58     1     4
 -2.8393969475187641E-02 a      1145     0    58     1     5
 -3.0537972025676844E-03 a      1146     0    58     1     6
 -5.1632343111818461E-02 a      1147     0    58     1     7
 -2.2788146831803091E-01 a      1148     0    58     1     8
 -2.9539590709718701E-02 a      1149     0    58     1     9
  6.1617048217906201E-01 a      1150     0    58     1    10
 -2.6180270574910808E-01 a      1151     0    58     1    11
 -1.6598074410242444E-01 a      1152     0    58     1    12
  1.9272559901329145E-01 a      1153     0    58     1    13
  1.1834767149314079E-01 a      1154     0    58     1    14
 -1.6236958582160654E-01 a      1155     0    58     1    15
  2.7730054608355004E-01 a      1156     0    58     1    16
 -5.1817702390178288E-01 a      1157     0    58     1    17
  5.0216751910427640E-02 a      1158     0    58     1    18
  1.1983546392630773E-01 a      1159     0    58     1    19
  6.5491890636095087E-03 a      1160     0    58     1    20
  5.3745933625897850E-02 a      1161     0    59     1     1
  4.9828094476346747E-05 a      1162     0    59     1     2
  3.8646452250142786E-02 a      1163     0    59     1     3
  1.2178369543165241E-01 a      1164     0    59     1     4
  1.2186983445135265E-03 a      1165     0    59     1     5
  1.2323892440024480E-01 a      1166     0    59     1     6
  5.9714220576341662E-03 a      1167     0    59     1     7
  7.0728851686119545E-02 a      1168     0    59     1     8
 -2.3475847523461038E-01 a      1169     0    59     1     9
 -9.0250115374700873E-02 a      1170     0    59     1    10
  1.2997135515780833E-01 a      1171     0    59     1    11
 -1.2361280216609204E-01 a      1172     0    59     1    12
  3.7850743053321462E-01 a      1173     0    59     1    13
 -2.2280461428631340E-01 a      1174     0    59     1    14
 -7.2698554867101639E-03 a      1175     0    59     1    15
 -2.1311109203630413E-02 a      1176     0    59     1    16
  9.5161921756861972E-02 a      1177     0    59     1    17
  5.1721612425087861E-02 a      1178     0    59     1    18
  8.7689484926480321E-02 a      1179     0    59     1    19
  6.6365068457875903E-02 a      1180     0    59     1    20
 -5.7157824984026169E-02 a      1181     0    60     1     1
 -3.2356426244039053E-02 a      1182     0    60     1     2
  9.7377480977406724E-03 a      1183     0    60     1     3
  1.5577597526017328E-01 a      1184     0    60     1     4
 -2.1625768322990258E-01 a      1185     0    60     1     5
 -8.6744212620954872E-02 a      1186     0    60     1     6
  1.2044414982459513E-01 a      1187     0    60     1     7
  1.6596666548203137E-01 a      1188     0    60     1     8
  5.1895621853621676E-02 a      1189     0    60     1     9
  5.5082471608518688E-02 a      1190     0    60     1    10
 -5.1265637571971834E-02 a      1191     0    60     1    11
  2.9044551347584269E-02 a      1192     0    60     1    12
  4.1188398811724050E-02 a      1193     0    60     1    13
 -5.9772070849937256E-02 a      1194     0    60     1    14
  9.7477074159325203E-02 a      1195     0    60     1    15
 -1.9676615186545510E-01 a      1196     0    60     1    16
 -1.4112143320264689E-01 a      1197     0    60     1    17
 -1.5472113691601894E-01 a      1198     0    60     1    18
 -1.1301940612778683E-01 a      1199     0    60     1    19
  7.9049266781757686E-03 a      1200     0    60     1    20
 -9.5710535787840612E-02 a      1201     0    61     1     1
 -2.2282970390909828E-03 a      1202     0    61     1     2
  8.0728402105600963E-02 a      1203     0    61     1     3
  1.3120539464531805E-01 a      1204     0    61     1     4
  2.3009959057468509E-02 a      1205     0    61     1     5
  6.0437545912496188E-03 a      1206     0    61     1     6
  1.2676759870350536E-02 a      1207     0    61     1     7
  1.8483809897276026E-03 a      1208     0    61     1     8
 -3.4673472753047538E-02 a      1209     0    61     1     9
  1.1480027724053048E-01 a      1210     0    61     1    10
 -3.4302403751331915E-02 a      1211     0    61     1    11
  2.5441884070179201E-02 a      1212     0    61     1    12
  2.6273916879745885E-02 a      1213     0    61     1    13
  1.1084030030612629E-01 a      1214     0    61     1    14
  5.9941020891469202E-03 a      1215     0    61     1    15
 -1.5374185025670751E-02 a      1216     0    61     1    16
  6.0646263229659436E-02 a      1217     0    61     1    17
  4.2094250067968401E-02 a      1218     0    61     1    18
 -8.6068355703549981E-02 a      1219     0    61     1    19
 -1.3412270431965012E-01 a      1220     0    61     1    20
  3.0119457687789432E-02 a      1221     0    62     1     1
 -1.6505287498730015E-01 a      1222     0    62     1     2
  1.9226531587539016E-02 a      1223     0    62     1     3
 -1.9540882742285406E-01 a      1224     0    62     1     4
 -7.9907776701961350E-02 a      1225     0    62     1     5
 -5.7995083231432681E-02 a      1226     0    62     1     6
 -1.7620852128141615E-01 a      1227     0    62     1     7
 -8.9184913004170835E-02 a      1228     0    62     1     8
 -1.3601673510663062E-02 a      1229     0    62     1     9
  9.9587890360601464E-02 a      1230     0    62     1    10
  7.4210317515042016E-03 a      1231     0    62     1    11
  4.4517334773925346E-02 a      1232     0    62     1    12
  5.3840227644725340E-02 a      1233     0    62     1    13
  6.5382607790493694E-02 a      1234     0    62     1    14
  6.7156610225533334E-02 a      1235     0    62     1    15
  3.3756109080452922E-02 a      1236     0    62     1    16
 -3.7004498875126390E-01 a      1237     0    62     1    17
  1.6559752356449386E-01 a      1238     0    62     1    18
 -4.7704538765821751E-02 a      1239     0    62     1    19
 -6.3334533140105953E-02 a      1240     0    62     1    20
 -4.2575080587555714E-02 a      1241     0    63     1     1
  2.6782893264493301E-02 a      1242     0    63     1     2
 -3.6408696016480030E-02 a      1243     0    63     1     3
  9.6733679967902317E-02 a      1244     0    63     1     4
  6.8507959281471811E-02 a      1245     0    63     1     5
 -3.7921327673452819E-02 a      1246     0    63     1     6
 -1.6697498653247166E-02 a      1247     0    63     1     7
  4.2976804938509958E-02 a      1248     0    63     1     8
  5.6528001666722227E-02 a      1249     0    63     1     9
 -3.3138025003825539E-01 a      1250     0    63     1    10
  7.9181297343183021E-02 a      1251     0    63     1    11
 -9.6943986387229217E-04 a      1252     0    63     1    12
  8.9683521368768448E-02 a      1253     0    63     1    13
  2.6677480409717366E-03 a      1254     0    63     1    14
 -8.4925176681381245E-03 a      1255     0    63     1    15
  3.0917594449823720E-02 a      1256     0    63     1    16
  2.8033742258955346E-01 a      1257     0    63     1    17
 -1.1107400291592483E-01 a      1258     0    63     1    18
  1.3450235097770075E-02 a      1259     0    63     1    19
 -3.0151997408012915E-02 a      1260     0    63     1    20
 -3.0848509443361379E-02 a      1261     0    64     1     1
  5.5426991346062368E-02 a      1262     0    64     1     2
 -3.6404624181427744E-02 a      1263     0    64     1     3
 -4.7418596565410802E-02 a      1264     0    64     1     4
  8.4440593167608539E-03 a      1265     0    64     1     5
  6.5355720745061296E-02 a      1266     0    64     1     6
  8.1344026605951417E-03 a      1267     0    64     1     7
  8.7205303320970085E-03 a      1268     0    64     1     8
  2.0934259358905374E-02 a      1269     0    64     1     9
  1.3187715094240726E-01 a      1270     0    64     1    10
 -1.2896478858893681E-02 a      1271     0    64     1    11
 -4.1106010235497155E-02 a      1272     0    64     1    12
  8.6321812200632675E-02 a      1273     0    64     1    13
 -1.2466169725680067E-01 a      1274     0    64     1    14
 -3.0452897787849702E-02 a      1275     0    64     1    15
 -3.2112606846903612E-02 a      1276     0    64     1    16
  9.0045678030012566E-02 a      1277     0    64     1    17
 -3.6114511187522416E-02 a      1278     0    64     1    18
 -1.0976656677898257E-01 a      1279     0    64     1    19
  1.2787984421259332E-01 a      1280     0    64     1    20
  2.0303520739077291E-02 a      1281     0    65     1     1
  6.4620576417681347E-02 a      1282     0    65     1     2
  1.9779691040566749E-01 a      1283     0    65     1     3
  7.2665051919523466E-02 a      1284     0    65     1     4
 -1.0230850506427323E-01 a      1285     0    65     1     5
 -1.3027805072241383E-01 a      1286     0    65     1     6
 -1.4138889731810692E-01 a      1287     0    65     1     7
 -1.6793077278913215E-01 a      1288     0    65     1     8
 -6.3233734280265699E-02 a      1289     0    65     1     9
  1.0388899954009078E-03 a      1290     0    65     1    10
  9.6551267081707526E-02 a      1291     0    65     1    11
 -4.3782305543842152E-02 a      1292     0    65     1    12
 -1.6249726899737174E-01 a      1293     0    65     1    13
  3.1848637095506482E-01 a      1294     0    65     1    14
  1.0050838561929971E-01 a      1295     0    65     1    15
  6.4875229707733517E-02 a      1296     0    65     1    16
 -2.3423541231928910E-01 a      1297     0    65     1    17
  2.2629731309795795E-01 a      1298     0    65     1    18
 -2.6763569879839455E-01 a      1299     0    65     1    19
 -1.4191138042336121E-01 a      1300     0    65     1    20
  6.0938171884750758E-02 a      1301     0    66     1     1
 -2.6097659505179749E-01 a      1302     0    66     1     2
 -3.0719957146941784E-01 a      1303     0    66     1     3
 -2.1486087748264007E-01 a      1304     0    66     1     4
  3.7716848888696880E-01 a      1305     0    66     1     5
  2.7062411817937942E-01 a      1306     0    66     1     6
  2.4755563136300535E-01 a      1307     0    66     1     7
 -2.7393337831682945E-02 a      1308     0    66     1     8
 -6.3604295714341189E-02 a      1309     0    66     1     9
 -1.5532737879054725E-01 a      1310     0    66     1    10
 -3.1971198507388610E-01 a      1311     0    66     1    11
  6.0796089081811319E-02 a      1312     0    66     1    12
  1.5292335743805699E-01 a      1313     0    66     1    13
 -2.9422803585301444E-02 a      1314     0    66     1    14
 -9.4542557210042524E-02 a      1315     0    66     1    15
  1.4393700611115137E-01 a      1316     0    66     1    16
  4.1552459673812220E-01 a      1317     0    66     1    17
 -1.9534980085636833E-01 a      1318     0    66     1    18
  2.1312697753789744E-01 a      1319     0    66     1    19
 -1.7435866045867878E-03 a      1320     0    66     1    20
 -1.8337590496433162E-01 a      1321     0    67     1     1
  7.9348820837678441E-02 a      1322     0    67     1     2
  8.7262492025610053E-02 a      1323     0    67     1     3
 -6.4389010697805976E-02 a      1324     0    67     1     4
  6.0169250481587250E-02 a      1325     0    67     1     5
 -8.8710947129146941E-02 a      1326     0    67     1     6
  4.2164381434753234E-02 a      1327     0    67     1     7
 -2.4718418340353887E-01 a      1328     0    67     1     8
  2.6229685993541238E-02 a      1329     0    67     1     9
  1.5766452479857673E-01 a      1330     0    67     1    10
  7.4183987969991191E-02 a      1331     0    67     1    11
  9.0235212960961625E-02 a      1332     0    67     1    12
 -5.2643225808715839E-02 a      1333     0    67     1    13
 -1.3449208306074781E-01 a      1334     0    67     1    14
  8.0889769012773602E-02 a      1335     0    67     1    15
  3.0551059313214432E-02 a      1336     0    67     1    16
  2.2973295250584773E-02 a      1337     0    67     1    17
 -1.4593397066473363E-01 a      1338     0    67     1    18
 -5.6096969079230972E-02 a      1339     0    67     1    19
 -8.5221880081027379E-02 a      1340     0    67     1    20
 -1.5149640111849108E-01 a      1341     0    68     1     1
 -5.2720152178106619E-02 a      1342     0    68     1     2
 -4.8951709691537594E-02 a      1343     0    68     1     3
 -1.5352753551377427E-01 a      1344     0    68     1     4
 -2.2937690937946872E-01 a      1345     0    68     1     5
 -1.1382284033475920E-01 a      1346     0    68     1     6
 -6.5214065366564614E-02 a      1347     0    68     1     7
 -1.3725535679691894E-01 a      1348     0    68     1     8
  2.0687284034988204E-01 a      1349     0    68     1     9
  2.3034021394798176E-01 a      1350     0    68     1    10
  7.5690324454740804E-02 a      1351     0    68     1    11
 -1.1488807531649342E-01 a      1352     0    68     1    12
  4.9250045640339135E-02 a      1353     0    68     1    13
  2.3828096048214814E-01 a      1354     0    68     1    14
  3.8642581499974203E-02 a      1355     0    68     1    15
  1.9561320624938852E-01 a      1356     0    68     1    16
 -2.7113863004334982E-01 a      1357     0    68     1    17
  2.6638298093161245E-01 a      1358     0    68     1    18
 -6.9262590166140295E-02 a      1359     0    68     1    19
 -3.0253039821821243E-01 a      1360     0    68     1    20
  8.7892028362427932E-03 a      1361     0    69     1     1
 -4.5463001801900250E-02 a      1362     0    69     1     2
 -1.7203586355057110E-01 a      1363     0    69     1     3
 -1.9684413506179332E-02 a      1364     0    69     1     4
 -8.2504890492866551E-02 a      1365     0    69     1     5
  1.1779214063159668E-01 a      1366     0    69     1     6
 -1.9505195963768707E-01 a      1367     0    69     1     7
  1.8871418768029984E-02 a      1368     0    69     1     8
 -5.8017142515600528E-02 a      1369     0    69     1     9
 -1.2427344188275358E-01 a      1370     0    69     1    10
 -1.3354428712897798E-01 a      1371     0    69     1    11
 -8.5057233806237684E-02 a      1372     0    69     1    12
 -1.4614418287622991E-01 a      1373     0    69     1    13
 -2.8649401026501213E-03 a      1374     0    69     1    14
 -8.6240837506816617E-02 a      1375     0    69     1    15
  9.3428570805324752E-04 a      1376     0    69     1    16
 -1.2810360333150336E-01 a      1377     0    69     1    17
  1.2872583889823752E-01 a      1378     0    69     1    18
 -7.4234793937592941E-02 a      1379     0    69     1    19
  8.8193506265591901E-02 a      1380     0    69     1    20
  9.7739872834229455E-02 a      1381     0    70     1     1
 -1.8997899299932014E-03 a      1382     0    70     1     2
 -4.2831204888639778E-02 a      1383     0    70     1     3
 -3.6806177703614815E-02 a      1384     0    70     1     4
  2.4381470096918399E-02 a      1385     0    70     1     5
 -4.5861859623437355E-02 a      1386     0    70     1     6
 -4.9650559080498861E-02 a      1387     0    70     1     7
 -3.4037417092015010E-03 a      1388     0    70     1     8
 -2.0084011473684143E-03 a      1389     0    70     1     9
 -1.9255493861650988E-01 a      1390     0    70     1    10
 -1.4499449493131504E-02 a      1391     0    70     1    11
  3.8440568101137100E-02 a      1392     0    70     1    12
 -2.8635090261178685E-04 a      1393     0    70     1    13
  2.3514664716548041E-02 a      1394     0    70     1    14
  1.2550819163875189E-02 a      1395     0    70     1    15
  1.9100795996145871E-02 a      1396     0    70     1    16
 -1.6253658755151203E-02 a      1397     0    70     1    17
  1.1149275794271375E-03 a      1398     0    70     1    18
  9.3132318890743582E-02 a      1399     0    70     1    19
  1.4816413886816170E-02 a      1400     0    70     1    20
  1.4210930697338370E-01 a      1401     0    71     1     1
 -3.4528780859463579E-02 a      1402     0    71     1     2
 -1.0084711182619084E-02 a      1403     0    71     1     3
  4.4947514729580786E-02 a      1404     0    71     1     4
 -1.0771989282973611E-01 a      1405     0    71     1     5
 -4.6787908943939450E-02 a      1406     0    71     1     6
 -1.0665486322331119E-01 a      1407     0    71     1     7
 -9.9252926646582786E-03 a      1408     0    71     1     8
  6.0243400235136205E-02 a      1409     0    71     1     9
 -1.8072543994254994E-01 a      1410     0    71     1    10
  2.3703015159842353E-01 a      1411     0    71     1    11
 -1.1501955409423388E-01 a      1412     0    71     1    12
  2.5655109483243338E-01 a      1413     0    71     1    13
 -3.2575094339035854E-01 a      1414     0    71     1    14
  9.3462796340614274E-02 a      1415     0    71     1    15
 -3.6677704359629276E-02 a      1416     0    71     1    16
 -5.7685639977540391E-03 a      1417     0    71     1    17
 -1.3485010608032733E-01 a      1418     0    71     1    18
  8.5075572918111270E-02 a      1419     0    71     1    19
 -1.2401994287014083E-01 a      1420     0    71     1    20
  1.7379268206060703E-02 a      1421     0    72     1     1
 -1.5164845822809544E-02 a      1422     0    72     1     2
 -5.9676947634505510E-03 a      1423     0    72     1     3
  2.3936218664758746E-01 a      1424     0    72     1     4
  1.9986513947781236E-02 a      1425     0    72     1     5
  4.1304727978486264E-02 a      1426     0    72     1     6
 -6.9816471224207477E-02 a      1427     0    72     1     7
  2.4394370259338431E-02 a      1428     0    72     1     8
 -4.9636887057294223E-02 a      1429     0    72     1     9
 -1.8932600324465580E-02 a      1430     0    72     1    10
 -1.2569565787633799E-01 a      1431     0    72     1    11
 -5.1607133715381150E-02 a      1432     0    72     1    12
  1.5112580739602366E-01 a      1433     0    72     1    13
  1.0597489868597213E-02 a      1434     0    72     1    14
 -6.1170627292116718E-02 a      1435     0    72     1    15
  6.5448828115408739E-02 a      1436     0    72     1    16
 -8.7536321105605858E-03 a      1437     0    72     1    17
 -9.2037930561984976E-02 a      1438     0    72     1    18
  8.3210020847292801E-02 a      1439     0    72     1    19
  6.5955834525842139E-02 a      1440     0    72     1    20
  9.9715681241844337E-02 a      1441     0    73     1     1
 -5.8645940121325171E-03 a      1442     0    73     1     2
  6.5866647058501126E-03 a      1443     0    73     1     3
 -1.5242013325899059E-01 a      1444     0    73     1     4
 -1.8373200917925828E-02 a      1445     0    73     1     5
  1.0066557904389414E-01 a      1446     0    73     1     6
  8.7329568668975330E-02 a      1447     0    73     1     7
  3.8299125451237738E-02 a      1448     0    73     1     8
 -7.1533965095690349E-02 a      1449     0    73     1     9
  1.6755972330632535E-01 a      1450     0    73     1    10
  4.6465637120558380E-02 a      1451     0    73     1    11
 -9.0599503054206762E-02 a      1452     0    73     1    12
 -4.7979657903583522E-02 a      1453     0    73     1    13
  1.2447139837589753E-01 a      1454     0    73     1    14
 -5.0617436790931199E-03 a      1455     0    73     1    15
 -7.3443390149737692E-02 a      1456     0    73     1    16
  9.9220402266115781E-02 a      1457     0    73     1    17
  7.7915172358049900E-02 a      1458     0    73     1    18
 -9.6220113157127099E-02 a      1459     0    73     1    19
  1.3795824929995798E-01 a      1460     0    73     1    20
  3.0809399147511446E-01 a      1461     0    74     1     1
  1.2432768999664115E-01 a      1462     0    74     1     2
  4.7536069861960087E-02 a      1463     0    74     1     3
  1.9741307642044622E-02 a      1464     0    74     1     4
 -1.4278081183206651E-01 a      1465     0    74     1     5
 -6.0592781907465990E-02 a      1466     0    74     1     6
  1.8623455819397602E-01 a      1467     0    74     1     7
 -1.9117767087570331E-01 a      1468     0    74     1     8
 -1.3299576047200554E-01 a      1469     0    74     1     9
 -3.5445275550055784E-02 a      1470     0    74     1    10
  2.2351359509371765E-01 a      1471     0    74     1    11
 -1.0711769695667490E-01 a      1472     0    74     1    12
 -1.9917814390770944E-01 a      1473     0    74     1    13
  2.0479126046351426E-01 a      1474     0    74     1    14
  3.6428890303054684E-01 a      1475     0    74     1    15
 -2.0286084709390656E-01 a      1476     0    74     1    16
  5.2627836755918138E-02 a      1477     0    74     1    17
 -1.6222131336830420E-01 a      1478     0    74     1    18
  1.2200109367160954E-01 a      1479     0    74     1    19
  1.9791496407853854E-01 a      1480     0    74     1    20
  2.4161448833538823E-02 a      1481     0    75     1     1
  1.8695797532920053E-01 a      1482     0    75     1     2
 -1.9859639341394775E-01 a      1483     0    75     1     3
 -3.4894678008481908E-02 a      1484     0    75     1     4
  1.5163037132950763E-01 a      1485     0    75     1     5
  1.3405743531446102E-01 a      1486     0    75     1     6
  1.4336377767183114E-01 a      1487     0    75     1     7
 -9.0743640428199462E-02 a      1488     0    75     1     8
 -5.0601821739661768E-02 a      1489     0    75     1     9
 -2.1057835225899790E-01 a      1490     0    75     1    10
 -1.1147416339604786E-01 a      1491     0    75     1    11
  6.3042599145698829E-03 a      1492     0    75     1    12
  3.0083839343934532E-01 a      1493     0    75     1    13
  1.4437413910508773E-01 a      1494     0    75     1    14
  2.1457968247413101E-03 a      1495     0    75     1    15
 -9.2686604479547879E-02 a      1496     0    75     1    16
 -1.6420502672617296E-01 a      1497     0    75     1    17
 -4.7655607673892070E-02 a      1498     0    75     1    18
  2.9914719281140922E-01 a      1499     0    75     1    19
 -8.4873375915584456E-02 a      1500     0    75     1    20
  1.9100495573037476E-01 a      1501     0    76     1     1
  3.0159226189552407E-01 a      1502     0    76     1     2
  2.9987324142682464E-01 a      1503     0    76     1     3
 -3.6677819283457036E-01 a      1504     0    76     1     4
 -2.3007077180564162E-01 a      1505     0    76     1     5
 -1.3572474709238672E-01 a      1506     0    76     1     6
 -5.0597164550497964E-01 a      1507     0    76     1     7
  1.1014158751093997E-01 a      1508     0    76     1     8
  6.6472553035486881E-02 a      1509     0    76     1     9
 -5.6354054989796676E-02 a      1510     0    76     1    10
  1.1088530481175025E-01 a      1511     0    76     1    11
 -7.5226847122534454E-02 a      1512     0    76     1    12
  3.0767276028820689E-01 a      1513     0    76     1    13
  1.6507297180524277E-01 a      1514     0    76     1    14
  4.3928051768401099E-03 a      1515     0    76     1    15
  1.7738022476865366E-02 a      1516     0    76     1    16
 -5.5346169334873657E-02 a      1517     0    76     1    17
 -1.7201455473378141E-01 a      1518     0    76     1    18
  7.4630025096091748E-02 a      1519     0    76     1    19
  1.5206630882431509E-02 a      1520     0    76     1    20
  2.4335602153626198E-01 a      1521     0    77     1     1
  9.1360587261896414E-02 a      1522     0    77     1     2
  8.6164451436419570E-02 a      1523     0    77     1     3
 -6.5227522878749902E-02 a      1524     0    77     1     4
  6.1325028014879782E-02 a      1525     0    77     1     5
 -1.2297888851568269E-02 a      1526     0    77     1     6
 -4.2760985420720030E-02 a      1527     0    77     1     7
 -7.3662461488238531E-02 a      1528     0    77     1     8
 -1.4869531768211899E-01 a      1529     0    77     1     9
  3.8382092203492348E-02 a      1530     0    77     1    10
 -8.1325842452213165E-02 a      1531     0    77     1    11
  9.7601582975604423E-02 a      1532     0    77     1    12
 -4.0712486764570115E-02 a      1533     0    77     1    13
 -1.5420055190245783E-02 a      1534     0    77     1    14
  5.9994372556401422E-02 a      1535     0    77     1    15
 -1.1333699559842049E-01 a      1536     0    77     1    16
 -6.8558309107660170E-02 a      1537     0    77     1    17
 -4.2930056440219591E-02 a      1538     0    77     1    18
  2.1634797509133569E-02 a      1539     0    77     1    19
  1.1986651565222618E-01 a      1540     0    77     1    20
 -7.1164388928126029E-02 a      1541     0    78     1     1
 -1.4794575202368612E-01 a      1542     0    78     1     2
 -7.3492505771970373E-05 a      1543     0    78     1     3
  2.0819594316223469E-01 a      1544     0    78     1     4
  9.2494264605106083E-02 a      1545     0    78     1     5
  1.1577447278695644E-03 a      1546     0    78     1     6
  1.7643840291008547E-01 a      1547     0    78     1     7
  1.1431981137789610E-01 a      1548     0    78     1     8
 -5.4322137235856556E-02 a      1549     0    78     1     9
 -3.4826618442324542E-01 a      1550     0    78     1    10
  2.0594277935641020E-01 a      1551     0    78     1    11
  1.0352059614104639E-01 a      1552     0    78     1    12
 -2.0609060172822297E-01 a      1553     0    78     1    13
  5.4807405069785674E-02 a      1554     0    78     1    14
  9.6983667573675394E-02 a      1555     0    78     1    15
 -9.3843468884199088E-02 a      1556     0    78     1    16
  2.6031208852373822E-01 a      1557     0    78     1    17
 -5.0883500459438333E-02 a      1558     0    78     1    18
 -1.5538655872930407E-01 a      1559     0    78     1    19
 -8.9004528327453175E-02 a      1560     0    78     1    20
 -1.7226024102865037E-01 a      1561     0    79     1     1
 -3.2621565332413838E-02 a      1562     0    79     1     2
 -5.8269378262668967E-02 a      1563     0    79     1     3
  6.6878972343922321E-03 a      1564     0    79     1     4
  2.4319982781406093E-02 a      1565     0    79     1     5
 -3.0951926272079967E-02 a      1566     0    79     1     6
  4.5779352505654188E-02 a      1567     0    79     1     7
  2.9332915854398327E-02 a      1568     0    79     1     8
  1.1550177982157415E-01 a      1569     0    79     1     9
 -7.5412256868862465E-02 a      1570     0    79     1    10
 -4.7559330288650233E-02 a      1571     0    79     1    11
  7.1809141561998094E-02 a      1572     0    79     1    12
 -2.2799469818191850E-01 a      1573     0    79     1    13
  1.9357625439393797E-01 a      1574     0    79     1    14
 -2.9993609394910237E-02 a      1575     0    79     1    15
  6.5167115763311800E-02 a      1576     0    79     1    16
  4.0417131306247963E-03 a      1577     0    79     1    17
 -7.5545046363279980E-02 a      1578     0    79     1    18
  1.6168550290102938E-02 a      1579     0    79     1    19
 -6.4522397582332844E-02 a      1580     0    79     1    20
  3.0722520724341944E-02 a      1581     0    80     1     1
  1.2003904275243918E-01 a      1582     0    80     1     2
 -1.3364012722080751E-01 a      1583     0    80     1     3
 -5.3329275450732051E-02 a      1584     0    80     1     4
  2.6518923574598730E-01 a      1585     0    80     1     5
  1.1604926202001072E-01 a      1586     0    80     1     6
 -1.3673141780066847E-01 a      1587     0    80     1     7
 -1.8622243576358233E-01 a      1588     0    80     1     8
 -5.1314423353443252E-02 a      1589     0    80     1     9
 -2.0502326041709235E-01 a      1590     0    80     1    10
 -2.6656647356022120E-02 a      1591     0    80     1    11
  4.1637633834927506E-03 a      1592     0    80     1    12
  1.5392089260597668E-02 a      1593     0    80     1    13
  1.6310657706741893E-02 a      1594     0    80     1    14
 -8.3664667327566708E-02 a      1595     0    80     1    15
  9.5988461489633067E-02 a      1596     0    80     1    16
  1.3845710352962282E-01 a      1597     0    80     1    17
 -8.1228333948912632E-03 a      1598     0    80     1    18
  1.1534853450750898E-01 a      1599     0    80     1    19
 -6.0232883639138958E-02 a      1600     0    80     1    20
  7.8941803856530601E-01 b      1601     1     1
  3.1544446410006262E-02 b      1602     1     2
  7.1130389594948440E-01 b      1603     1     3
  1.2254976003337288E+00 b      1604     1     4
 -3.1326530442606731E-01 b      1605     1     5
  3.8255283513958360E-01 b      1606     1     6
  1.2024570561552408E+00 b      1607     1     7
  5.9490978440214182E-01 b      1608     1     8
  6.1228934344861385E-01 b      1609     1     9
 -1.0567373712386516E+00 b      1610     1    10
 -1.1544403788344169E+00 b      1611     1    11
 -1.1519553651150880E+00 b      1612     1    12
 -1.3413655024833211E+00 b      1613     1    13
  1.0103465020369218E+00 b      1614     1    14
 -1.0743859577082360E+00 b      1615     1    15
  5.3976793445520743E-01 b      1616     1    16
  5.9047190526691518E-01 b      1617     1    17
 -4.7076022485958613E-01 b      1618     1    18
  4.1599865233159977E-01 b      1619     1    19
  1.0488950251956428E+00 b      1620     1    20
  2.2422393056630008E-01 a      1621     1     1     2     1
  1.4275135671591244E-01 a      1622     1     1     2     2
 -3.9248326328847166E-01 a      1623     1     1     2     3
 -6.4191362396979401E-01 a      1624     1     1     2     4
 -3.4748524743528839E-02 a      1625     1     1     2     5
  3.2156764427327000E-01 a      1626     1     1     2     6
 -4.2483675277502614E-01 a      1627     1     1     2     7
