################################################################################
# Neural network connection values (weights and biases).
################################################################################
# Col  Name       Description
################################################################################
# 1    connection Neural network connection value.
# 2    t          Connection type (a = weight, b = bias).
# 3    index      Index enumerating weights.
# 4    l_s        Starting point layer (end point layer for biases).
# 5    n_s        Starting point neuron in starting layer (end point neuron for biases).
# 6    l_e        End point layer.
# 7    n_e        End point neuron in end layer.
################################################################################
#                      1 2         3     4     5     6     7
#             connection t     index   l_s   n_s   l_e   n_e
############################################################
 -2.0972268974320535E-01 a         1     0     1     1     1
 -1.8360261343475170E-01 a         2     0     1     1     2
 -5.0057087307587522E-01 a         3     0     1     1     3
  1.6373717710195165E-01 a         4     0     1     1     4
  2.2521282801651554E-01 a         5     0     1     1     5
 -2.5622455056896993E-02 a         6     0     1     1     6
  4.6862055178128847E-01 a         7     0     1     1     7
 -3.0503998938794274E-01 a         8     0     1     1     8
  5.1828412303169605E-02 a         9     0     1     1     9
  1.5647858856791450E-01 a        10     0     1     1    10
  3.1092038920603859E-01 a        11     0     1     1    11
 -3.9819081076098932E-02 a        12     0     1     1    12
 -5.2227273398473095E-01 a        13     0     1     1    13
  2.6810782107135493E-02 a        14     0     1     1    14
 -1.0810505761162097E-01 a        15     0     1     1    15
 -7.6911445766963002E-02 a        16     0     1     1    16
  3.4617063794745419E-02 a        17     0     1     1    17
  5.7225252978892471E-01 a        18     0     1     1    18
 -4.4998058162852911E-01 a        19     0     1     1    19
  6.0809682423743461E-01 a        20     0     1     1    20
 -1.2867782815572745E-01 a        21     0     2     1     1
 -7.4232162918610484E-02 a        22     0     2     1     2
  3.0627623359875844E-01 a        23     0     2     1     3
  5.8952795286444343E-02 a        24     0     2     1     4
 -1.1919592138424115E-01 a        25     0     2     1     5
 -1.1332990756625697E-01 a        26     0     2     1     6
 -2.1234519547550720E-02 a        27     0     2     1     7
  1.8508176655796149E-01 a        28     0     2     1     8
 -4.1417732207485930E-02 a        29     0     2     1     9
  4.6315589841003223E-02 a        30     0     2     1    10
  3.3590756603539648E-02 a        31     0     2     1    11
 -9.2634162984093507E-02 a        32     0     2     1    12
 -3.3061830197268743E-02 a        33     0     2     1    13
 -2.7452182322099783E-02 a        34     0     2     1    14
 -1.0298263642809106E-02 a        35     0     2     1    15
 -2.3841662308389025E-01 a        36     0     2     1    16
 -8.8915810286475765E-04 a        37     0     2     1    17
 -8.1040638885291769E-02 a        38     0     2     1    18
  2.8431539148855656E-01 a        39     0     2     1    19
  5.9958234936422522E-02 a        40     0     2     1    20
  2.7980853227388192E-01 a        41     0     3     1     1
 -3.7532765041744642E-01 a        42     0     3     1     2
  1.8819097030468732E-01 a        43     0     3     1     3
 -2.1269924296557916E-02 a        44     0     3     1     4
 -4.4889693387709939E-01 a        45     0     3     1     5
 -6.1343966294259133E-01 a        46     0     3     1     6
 -1.9290534899588718E-02 a        47     0     3     1     7
  4.4897619419537005E-01 a        48     0     3     1     8
 -6.4325420366103159E-01 a        49     0     3     1     9
  2.4562784071092452E-02 a        50     0     3     1    10
 -2.2930438611230211E-01 a        51     0     3     1    11
 -3.7095892930585594E-01 a        52     0     3     1    12
 -3.3989989710807428E-01 a        53     0     3     1    13
 -8.5812618895229856E-02 a        54     0     3     1    14
 -6.8418906814861469E-01 a        55     0     3     1    15
 -4.7663276977851415E-01 a        56     0     3     1    16
 -7.6020260149460384E-01 a        57     0     3     1    17
 -1.6450521192317097E-01 a        58     0     3     1    18
  6.5136970058171695E-01 a        59     0     3     1    19
 -1.1090947740634875E-01 a        60     0     3     1    20
  3.1584902943185761E-01 a        61     0     4     1     1
  3.3125466255346026E-01 a        62     0     4     1     2
  4.6233845931233158E-01 a        63     0     4     1     3
  9.6870166174014213E-02 a        64     0     4     1     4
  2.7413893237313569E-01 a        65     0     4     1     5
  4.2968552856388770E-01 a        66     0     4     1     6
 -3.3193990290014919E-01 a        67     0     4     1     7
  6.6443475187261947E-01 a        68     0     4     1     8
 -4.3258723715663250E-01 a        69     0     4     1     9
 -2.9374239819395270E-01 a        70     0     4     1    10
  3.1729308674473106E-01 a        71     0     4     1    11
  1.0371864412237817E+00 a        72     0     4     1    12
  1.4582502991013668E+00 a        73     0     4     1    13
  1.3041474169872773E+00 a        74     0     4     1    14
  9.8326159485725192E-02 a        75     0     4     1    15
 -5.9551787028668657E-01 a        76     0     4     1    16
  3.4576242308073973E-01 a        77     0     4     1    17
 -1.2449842244185523E+00 a        78     0     4     1    18
  3.4397226307355300E-01 a        79     0     4     1    19
  2.0219245707653671E-01 a        80     0     4     1    20
 -4.1689201040943917E-02 a        81     0     5     1     1
  8.0153988213969976E-02 a        82     0     5     1     2
  8.4403116838437778E-02 a        83     0     5     1     3
  1.7635133922913554E-01 a        84     0     5     1     4
  2.9209636103762099E-01 a        85     0     5     1     5
 -2.3554708507033464E-01 a        86     0     5     1     6
  1.0664940000024466E-01 a        87     0     5     1     7
  1.4433468190525256E-01 a        88     0     5     1     8
  1.4727693782038226E-01 a        89     0     5     1     9
 -2.1681239537725088E-02 a        90     0     5     1    10
 -3.8351483325852570E-01 a        91     0     5     1    11
  1.0663307577772564E-01 a        92     0     5     1    12
 -2.5640111382471031E-01 a        93     0     5     1    13
 -6.8992006877516901E-02 a        94     0     5     1    14
 -1.4875565001764418E-01 a        95     0     5     1    15
  3.1180565301232421E-01 a        96     0     5     1    16
 -1.4134189877057329E-01 a        97     0     5     1    17
  1.0988811876454316E-02 a        98     0     5     1    18
 -2.4287507260788856E-02 a        99     0     5     1    19
 -9.3711152341988263E-02 a       100     0     5     1    20
 -2.0945551846182678E-01 a       101     0     6     1     1
  8.8947765754325436E-01 a       102     0     6     1     2
 -3.5228247065977736E-01 a       103     0     6     1     3
  2.9745203477081078E-01 a       104     0     6     1     4
 -4.0543990006689096E-01 a       105     0     6     1     5
  1.1516567411019778E+00 a       106     0     6     1     6
 -1.5063071561319444E-01 a       107     0     6     1     7
 -4.1077374225639951E-02 a       108     0     6     1     8
  3.1005298490874394E-01 a       109     0     6     1     9
 -3.2340667631067543E-01 a       110     0     6     1    10
 -1.1388515531108252E-01 a       111     0     6     1    11
  1.4198103562201728E-02 a       112     0     6     1    12
 -2.9782601152441512E-01 a       113     0     6     1    13
 -2.6339621521798012E-01 a       114     0     6     1    14
  3.0192017462095222E-01 a       115     0     6     1    15
 -2.6414200383099856E-01 a       116     0     6     1    16
  4.9236821386476021E-01 a       117     0     6     1    17
  1.4211013783668827E-01 a       118     0     6     1    18
 -2.3703423039901192E-01 a       119     0     6     1    19
 -1.5151371095065561E-01 a       120     0     6     1    20
 -7.2234355907685965E-01 a       121     0     7     1     1
 -9.9540353429158523E-01 a       122     0     7     1     2
  3.4258310716769591E-01 a       123     0     7     1     3
  5.1825323460036321E-02 a       124     0     7     1     4
 -4.2807392979484729E-02 a       125     0     7     1     5
  3.6119874170344582E-02 a       126     0     7     1     6
  1.2720590792522662E-01 a       127     0     7     1     7
 -1.1843387455729437E+00 a       128     0     7     1     8
  4.4813131189812137E-02 a       129     0     7     1     9
  7.2139481085209223E-01 a       130     0     7     1    10
  1.8473674599443955E-02 a       131     0     7     1    11
 -5.8367290804605321E-01 a       132     0     7     1    12
 -8.8902509642561356E-01 a       133     0     7     1    13
 -9.3280433197514023E-01 a       134     0     7     1    14
 -9.7641474434114930E-02 a       135     0     7     1    15
  5.8201994555065573E-01 a       136     0     7     1    16
 -2.1353830333000191E-02 a       137     0     7     1    17
  5.9700213132364943E-01 a       138     0     7     1    18
 -1.0951855346987326E-01 a       139     0     7     1    19
 -1.0590711389981886E+00 a       140     0     7     1    20
  3.2407168323956387E-01 a       141     0     8     1     1
 -1.2969273443595655E-01 a       142     0     8     1     2
  1.8701468899960391E-01 a       143     0     8     1     3
 -7.2720437991142542E-02 a       144     0     8     1     4
 -1.5855716255582089E-01 a       145     0     8     1     5
  3.0663258225293610E-01 a       146     0     8     1     6
  1.1355097808530709E-01 a       147     0     8     1     7
  2.2281351402853625E-01 a       148     0     8     1     8
 -2.0970308069434818E-01 a       149     0     8     1     9
  5.1022213599956789E-02 a       150     0     8     1    10
  4.0599963076087664E-01 a       151     0     8     1    11
  3.6271580722975247E-02 a       152     0     8     1    12
  2.1537050762082280E-01 a       153     0     8     1    13
 -7.8012827246191135E-03 a       154     0     8     1    14
 -1.2341807455439284E-01 a       155     0     8     1    15
 -1.2425562425869141E-01 a       156     0     8     1    16
  2.5578398243272632E-01 a       157     0     8     1    17
  3.2955471195277176E-02 a       158     0     8     1    18
 -1.3115443217857731E-01 a       159     0     8     1    19
 -3.0928587664607415E-01 a       160     0     8     1    20
 -3.8897622497935719E-01 a       161     0     9     1     1
  3.8624620958578276E-01 a       162     0     9     1     2
 -1.5020023593079326E-01 a       163     0     9     1     3
  7.3627894241855882E-02 a       164     0     9     1     4
 -1.1172896076604481E-01 a       165     0     9     1     5
 -2.2258716247695701E-01 a       166     0     9     1     6
 -1.7983186359554360E-01 a       167     0     9     1     7
  1.3730670172363053E-04 a       168     0     9     1     8
  2.7717668042955113E-02 a       169     0     9     1     9
 -1.9859676343601113E-01 a       170     0     9     1    10
 -1.3671732602345993E-01 a       171     0     9     1    11
 -1.2577604902148595E-01 a       172     0     9     1    12
 -1.1664944902067775E-01 a       173     0     9     1    13
  3.1736348030842916E-03 a       174     0     9     1    14
 -6.8622347997587163E-01 a       175     0     9     1    15
 -8.7702398126990572E-02 a       176     0     9     1    16
 -3.1008755499348489E-01 a       177     0     9     1    17
  9.2937572664200496E-02 a       178     0     9     1    18
  5.2521144922045715E-01 a       179     0     9     1    19
 -1.1148758210483625E-01 a       180     0     9     1    20
 -3.3178928255550122E-01 a       181     0    10     1     1
 -1.0379686284331521E-02 a       182     0    10     1     2
 -8.2444269320664815E-02 a       183     0    10     1     3
 -1.1274635164024603E-01 a       184     0    10     1     4
  1.4580496270889279E-01 a       185     0    10     1     5
  3.7927822482712509E-01 a       186     0    10     1     6
  4.2151495868012911E-01 a       187     0    10     1     7
  6.9228598275385844E-01 a       188     0    10     1     8
 -2.1571746848417039E-01 a       189     0    10     1     9
 -5.0239277992416793E-02 a       190     0    10     1    10
  1.0936254244268395E-01 a       191     0    10     1    11
  9.2035371784968356E-01 a       192     0    10     1    12
  9.3101026172944434E-01 a       193     0    10     1    13
  7.4163664439689037E-01 a       194     0    10     1    14
  2.9995166349368196E-01 a       195     0    10     1    15
 -2.6928788711619811E-01 a       196     0    10     1    16
  2.1748847361152138E-02 a       197     0    10     1    17
 -1.6633383292904602E-01 a       198     0    10     1    18
  1.3794738946502663E-01 a       199     0    10     1    19
  1.0702437848048678E+00 a       200     0    10     1    20
  4.9582946624245977E-02 a       201     0    11     1     1
  7.6546511637403600E-02 a       202     0    11     1     2
 -2.9456857769320521E-01 a       203     0    11     1     3
  1.9501654995414991E-01 a       204     0    11     1     4
  4.2415709612014761E-02 a       205     0    11     1     5
  1.5366284985279202E-01 a       206     0    11     1     6
  2.2514734714611340E-01 a       207     0    11     1     7
  4.7786335747923549E-02 a       208     0    11     1     8
  1.0068604076785061E-01 a       209     0    11     1     9
  1.4470878678023191E-01 a       210     0    11     1    10
 -2.1424301899775886E-01 a       211     0    11     1    11
  3.2311992111561959E-02 a       212     0    11     1    12
 -2.3906514821573707E-01 a       213     0    11     1    13
 -8.5498457106024120E-02 a       214     0    11     1    14
  2.6231127478590904E-01 a       215     0    11     1    15
  2.7787234141384876E-01 a       216     0    11     1    16
 -1.7229391165666624E-01 a       217     0    11     1    17
  4.8782533751421234E-02 a       218     0    11     1    18
 -1.0488490725628938E-01 a       219     0    11     1    19
  4.2646551056248400E-02 a       220     0    11     1    20
  1.3790526224930182E+00 a       221     0    12     1     1
 -4.1255472471086652E-01 a       222     0    12     1     2
  3.3386002661386666E-01 a       223     0    12     1     3
  1.6017822579804727E-01 a       224     0    12     1     4
 -5.3645544676737975E-02 a       225     0    12     1     5
  9.4229494125422794E-02 a       226     0    12     1     6
 -4.9616539859653051E-02 a       227     0    12     1     7
  2.6227217154506179E-02 a       228     0    12     1     8
  3.5510877918160338E-01 a       229     0    12     1     9
 -2.3141398634018692E-01 a       230     0    12     1    10
 -1.8193607514592364E-01 a       231     0    12     1    11
  2.6480691262227535E-03 a       232     0    12     1    12
 -1.7175613534401785E-01 a       233     0    12     1    13
 -2.6605942153947398E-01 a       234     0    12     1    14
 -4.1505218606746490E-02 a       235     0    12     1    15
 -1.0067974284536607E-01 a       236     0    12     1    16
 -1.2487269327305967E-01 a       237     0    12     1    17
  5.3160524188242919E-01 a       238     0    12     1    18
  2.4754674373478291E-02 a       239     0    12     1    19
 -1.5644135257171571E-01 a       240     0    12     1    20
  9.7881486169150989E-02 a       241     0    13     1     1
 -1.7952753599155591E-01 a       242     0    13     1     2
  1.5288308797909864E-01 a       243     0    13     1     3
  4.5624445703109384E-01 a       244     0    13     1     4
  1.4146847280558805E-01 a       245     0    13     1     5
  1.3759466927133390E-01 a       246     0    13     1     6
 -1.8343511390746053E-01 a       247     0    13     1     7
 -6.3866799653170325E-01 a       248     0    13     1     8
 -1.9131534186907756E-01 a       249     0    13     1     9
  7.0069115446378741E-02 a       250     0    13     1    10
  5.8305740908124522E-02 a       251     0    13     1    11
 -5.1499282254331868E-01 a       252     0    13     1    12
 -2.5822233478971429E-01 a       253     0    13     1    13
  1.3028527643094151E-01 a       254     0    13     1    14
 -6.0075541905261445E-02 a       255     0    13     1    15
  1.0013716737834401E-01 a       256     0    13     1    16
  2.5599348252765780E-01 a       257     0    13     1    17
 -3.4398733524843061E-01 a       258     0    13     1    18
  1.1724688270476565E-01 a       259     0    13     1    19
 -8.4429790746131883E-01 a       260     0    13     1    20
 -1.3217523208175330E-01 a       261     0    14     1     1
  2.4634415756459829E-02 a       262     0    14     1     2
 -5.2818255538204781E-02 a       263     0    14     1     3
 -2.2319346246709015E-02 a       264     0    14     1     4
  9.7682174764360474E-02 a       265     0    14     1     5
 -1.4830859700980456E-01 a       266     0    14     1     6
  1.5521595733191515E-01 a       267     0    14     1     7
  2.6885565315933252E-01 a       268     0    14     1     8
 -1.4282075458219443E-01 a       269     0    14     1     9
 -2.4788246243232384E-01 a       270     0    14     1    10
  8.4499242055294646E-02 a       271     0    14     1    11
 -8.9352481568947290E-02 a       272     0    14     1    12
 -1.1368533466705308E-03 a       273     0    14     1    13
  6.5122049919385902E-02 a       274     0    14     1    14
 -1.5697839948773345E-03 a       275     0    14     1    15
 -1.8697574710153020E-01 a       276     0    14     1    16
  2.1405452780682824E-01 a       277     0    14     1    17
  1.7294229040880785E-03 a       278     0    14     1    18
  1.8059704266698490E-01 a       279     0    14     1    19
 -2.1600569509572209E-01 a       280     0    14     1    20
 -3.9919365300338833E-01 a       281     0    15     1     1
  7.5853330137627695E-01 a       282     0    15     1     2
 -6.5731544835798975E-02 a       283     0    15     1     3
  4.7555199821189970E-02 a       284     0    15     1     4
 -3.3356067579711507E-01 a       285     0    15     1     5
 -2.5663150130034250E-02 a       286     0    15     1     6
 -5.5193262551721869E-02 a       287     0    15     1     7
 -2.7779096551400720E-02 a       288     0    15     1     8
 -1.0448612680526145E-02 a       289     0    15     1     9
 -1.1026825145942488E-01 a       290     0    15     1    10
  2.8301815117130143E-02 a       291     0    15     1    11
 -4.0809875821156819E-02 a       292     0    15     1    12
  4.4805243924281493E-02 a       293     0    15     1    13
  1.1390650350136329E-01 a       294     0    15     1    14
 -4.6111053894687454E-01 a       295     0    15     1    15
 -2.7786920443816232E-01 a       296     0    15     1    16
 -1.0658261244695302E-01 a       297     0    15     1    17
  2.4518808462589073E-01 a       298     0    15     1    18
  2.4565490662685427E-01 a       299     0    15     1    19
  1.2121819877520823E-01 a       300     0    15     1    20
 -1.6602911104861426E-01 a       301     0    16     1     1
 -2.7911031793279034E-01 a       302     0    16     1     2
  2.1399508940157919E-01 a       303     0    16     1     3
 -2.2170925543436715E-01 a       304     0    16     1     4
  1.5144539878807400E-01 a       305     0    16     1     5
  2.0101703800493848E-01 a       306     0    16     1     6
  1.2973914535758183E-01 a       307     0    16     1     7
  1.2729621991798809E-01 a       308     0    16     1     8
  7.4426389272436458E-02 a       309     0    16     1     9
 -7.0000164738711249E-02 a       310     0    16     1    10
  1.9405614208473387E-01 a       311     0    16     1    11
  2.7446060843716547E-01 a       312     0    16     1    12
  5.6080447506505503E-02 a       313     0    16     1    13
  2.0439890325363395E-02 a       314     0    16     1    14
  1.0443992016273249E-01 a       315     0    16     1    15
  4.6421724833988015E-02 a       316     0    16     1    16
 -5.0836589873348520E-02 a       317     0    16     1    17
 -1.5623523461058766E-01 a       318     0    16     1    18
 -2.9491460371837735E-01 a       319     0    16     1    19
  3.3738852703242328E-01 a       320     0    16     1    20
 -9.8076652122296631E-02 a       321     0    17     1     1
 -9.4878002020015242E-03 a       322     0    17     1     2
  2.8537236926288573E-01 a       323     0    17     1     3
  7.7065864309916327E-02 a       324     0    17     1     4
  4.0315442714758138E-03 a       325     0    17     1     5
 -3.6570549153897611E-02 a       326     0    17     1     6
  2.2748535978101272E-01 a       327     0    17     1     7
 -6.8277478499828931E-02 a       328     0    17     1     8
  9.2890895947069452E-02 a       329     0    17     1     9
  1.2758167044271618E-01 a       330     0    17     1    10
 -1.5694619467814722E-01 a       331     0    17     1    11
  9.1023515713885950E-02 a       332     0    17     1    12
 -3.5404101902348890E-02 a       333     0    17     1    13
 -4.2119885540682668E-02 a       334     0    17     1    14
 -8.3900254877813066E-02 a       335     0    17     1    15
  9.3810541730422109E-02 a       336     0    17     1    16
 -1.7593016145468765E-01 a       337     0    17     1    17
  8.5874327363120173E-02 a       338     0    17     1    18
  2.1422813321652561E-02 a       339     0    17     1    19
  8.0214625798624692E-02 a       340     0    17     1    20
  3.5357728984865111E-01 a       341     0    18     1     1
 -3.2341943030775372E-01 a       342     0    18     1     2
 -4.9394707777296723E-02 a       343     0    18     1     3
 -1.1652970508488752E-01 a       344     0    18     1     4
  8.2342465992972680E-02 a       345     0    18     1     5
  1.6193243603382992E-01 a       346     0    18     1     6
  1.1872393057076187E-01 a       347     0    18     1     7
  8.1792840102061448E-02 a       348     0    18     1     8
  9.9561684906668835E-02 a       349     0    18     1     9
  1.4933757503382009E-02 a       350     0    18     1    10
 -3.7231711313987231E-01 a       351     0    18     1    11
  7.6824316654925826E-02 a       352     0    18     1    12
 -6.1967516223569531E-02 a       353     0    18     1    13
 -4.9401943122181385E-01 a       354     0    18     1    14
 -1.1435601862063349E-01 a       355     0    18     1    15
 -1.7898859063550770E-01 a       356     0    18     1    16
 -1.5148902403875672E-01 a       357     0    18     1    17
  3.7993340936664954E-01 a       358     0    18     1    18
  1.0674714714310535E-01 a       359     0    18     1    19
 -1.3965691037099079E-01 a       360     0    18     1    20
  1.4010915900704621E-01 a       361     0    19     1     1
  6.3572181542222203E-02 a       362     0    19     1     2
  4.5520988435959919E-02 a       363     0    19     1     3
  2.5272431996971800E-01 a       364     0    19     1     4
  1.6943512137400071E-02 a       365     0    19     1     5
 -2.4566138111853839E-01 a       366     0    19     1     6
 -6.9834054467415765E-02 a       367     0    19     1     7
 -7.5517471195246197E-02 a       368     0    19     1     8
 -4.3959341742528031E-02 a       369     0    19     1     9
 -5.0388763473319755E-02 a       370     0    19     1    10
  2.9162815480848887E-02 a       371     0    19     1    11
 -1.9125436095199261E-01 a       372     0    19     1    12
  6.5457450256132879E-02 a       373     0    19     1    13
  2.5568464671307306E-01 a       374     0    19     1    14
  8.4377234718000474E-02 a       375     0    19     1    15
  1.5885388854255600E-01 a       376     0    19     1    16
  9.0274584039378450E-02 a       377     0    19     1    17
 -2.7855605003855072E-01 a       378     0    19     1    18
  1.7999903005133355E-01 a       379     0    19     1    19
 -1.0756636603835010E-01 a       380     0    19     1    20
  1.2599030084916943E-01 a       381     0    20     1     1
  1.0721512604331667E-02 a       382     0    20     1     2
 -5.2311613916902443E-02 a       383     0    20     1     3
 -1.0659211766652933E-01 a       384     0    20     1     4
 -4.2614662140099950E-02 a       385     0    20     1     5
  1.8041099038882119E-01 a       386     0    20     1     6
 -6.7598509567681056E-02 a       387     0    20     1     7
  9.3683122651219197E-02 a       388     0    20     1     8
 -6.4377028814456755E-02 a       389     0    20     1     9
 -4.5440587806386989E-02 a       390     0    20     1    10
  1.4527804093783503E-01 a       391     0    20     1    11
 -3.4740335579697947E-02 a       392     0    20     1    12
 -3.0857698025735486E-02 a       393     0    20     1    13
 -9.7177408573630331E-02 a       394     0    20     1    14
  9.9996797041916705E-02 a       395     0    20     1    15
 -9.8623199031560388E-02 a       396     0    20     1    16
  1.3189612305421683E-01 a       397     0    20     1    17
  9.5123754739059221E-02 a       398     0    20     1    18
 -9.2068271107296484E-02 a       399     0    20     1    19
 -2.9882784514646040E-02 a       400     0    20     1    20
 -9.3715886855691155E-02 a       401     0    21     1     1
  3.8303078708453575E-01 a       402     0    21     1     2
 -1.5737550246531640E-01 a       403     0    21     1     3
  5.6614991122865201E-02 a       404     0    21     1     4
 -2.3655842674698280E-01 a       405     0    21     1     5
  9.0631490093237524E-02 a       406     0    21     1     6
 -1.9584198778671819E-01 a       407     0    21     1     7
  4.0293264718575111E-02 a       408     0    21     1     8
 -4.4254612483191291E-02 a       409     0    21     1     9
  8.4348889594630605E-02 a       410     0    21     1    10
  1.7454516641453030E-01 a       411     0    21     1    11
  3.8631207829414690E-02 a       412     0    21     1    12
  1.0510732171418527E-01 a       413     0    21     1    13
  4.3061563830326416E-02 a       414     0    21     1    14
 -4.8498943418029926E-02 a       415     0    21     1    15
 -1.1919867916050302E-01 a       416     0    21     1    16
 -8.8013302340056911E-03 a       417     0    21     1    17
  8.6793986805686799E-02 a       418     0    21     1    18
 -1.1931319153875447E-01 a       419     0    21     1    19
 -5.2733467221803424E-03 a       420     0    21     1    20
 -1.8765969914952957E-01 a       421     0    22     1     1
 -2.3696812670215611E-01 a       422     0    22     1     2
  4.3178555759718718E-01 a       423     0    22     1     3
 -2.1087531396483289E-01 a       424     0    22     1     4
  4.5528687423676932E-02 a       425     0    22     1     5
 -2.9119794873260648E-03 a       426     0    22     1     6
  9.7248520120856982E-02 a       427     0    22     1     7
 -1.3147616733417603E-01 a       428     0    22     1     8
  9.6230941378039503E-02 a       429     0    22     1     9
  7.1939583446486322E-02 a       430     0    22     1    10
  3.1302557659496150E-01 a       431     0    22     1    11
  5.8853117540141366E-02 a       432     0    22     1    12
 -2.1035943278733624E-01 a       433     0    22     1    13
  1.5876425661161345E-01 a       434     0    22     1    14
  9.8141507144710288E-02 a       435     0    22     1    15
  2.4989090596841845E-01 a       436     0    22     1    16
  1.0422799702335429E-01 a       437     0    22     1    17
 -5.4444987744734746E-02 a       438     0    22     1    18
 -1.7268978321431525E-01 a       439     0    22     1    19
  1.2398814239474731E-01 a       440     0    22     1    20
 -7.7016293770918898E-02 a       441     0    23     1     1
 -1.2753743642526369E-02 a       442     0    23     1     2
 -1.1182581303624600E-01 a       443     0    23     1     3
  1.3290745337820978E-01 a       444     0    23     1     4
  6.4112444903661636E-02 a       445     0    23     1     5
 -1.6160032307925234E-01 a       446     0    23     1     6
 -5.9332818407000137E-02 a       447     0    23     1     7
 -9.4235164129192070E-02 a       448     0    23     1     8
  3.4031909686832264E-02 a       449     0    23     1     9
 -4.0010195254286856E-03 a       450     0    23     1    10
 -9.9263803048297100E-02 a       451     0    23     1    11
  1.2156790870220808E-02 a       452     0    23     1    12
  6.1473854179001260E-02 a       453     0    23     1    13
  1.2159938242236740E-01 a       454     0    23     1    14
 -7.7537941714919456E-02 a       455     0    23     1    15
  8.7352000947428454E-02 a       456     0    23     1    16
 -8.0632573916009156E-02 a       457     0    23     1    17
 -2.2889304527434501E-01 a       458     0    23     1    18
  1.1950133045099817E-01 a       459     0    23     1    19
 -3.7379029230621585E-02 a       460     0    23     1    20
  1.0954218844918732E-01 a       461     0    24     1     1
 -7.0325042051207903E-02 a       462     0    24     1     2
 -5.2130165857822364E-01 a       463     0    24     1     3
 -1.9331112501878446E-02 a       464     0    24     1     4
  7.9114722740965621E-02 a       465     0    24     1     5
  1.7032285418446710E-01 a       466     0    24     1     6
 -2.3092665027590182E-02 a       467     0    24     1     7
  6.2113877142156347E-02 a       468     0    24     1     8
 -6.9236057045484065E-02 a       469     0    24     1     9
 -6.5550797659366999E-02 a       470     0    24     1    10
 -4.7447823931679556E-01 a       471     0    24     1    11
  1.4285479759150156E-02 a       472     0    24     1    12
  9.0150061014603419E-02 a       473     0    24     1    13
 -3.5854354726019583E-01 a       474     0    24     1    14
 -2.6266687021153656E-01 a       475     0    24     1    15
 -3.3150050212887333E-01 a       476     0    24     1    16
 -1.1912796363122455E-01 a       477     0    24     1    17
  2.0920919619504794E-01 a       478     0    24     1    18
  2.8041554912585220E-01 a       479     0    24     1    19
 -1.2414524089247247E-01 a       480     0    24     1    20
  1.1197416686024714E-02 a       481     0    25     1     1
  5.1407282615952642E-02 a       482     0    25     1     2
  1.0264498198110239E-02 a       483     0    25     1     3
  7.4488588729875932E-02 a       484     0    25     1     4
 -1.0986859209529245E-02 a       485     0    25     1     5
 -1.0295635101633220E-01 a       486     0    25     1     6
  2.4327752609277424E-03 a       487     0    25     1     7
  4.6716051429669052E-02 a       488     0    25     1     8
 -3.4360809088421888E-03 a       489     0    25     1     9
 -6.8896941784735516E-02 a       490     0    25     1    10
 -7.3576071180802949E-02 a       491     0    25     1    11
 -5.3787764279592511E-02 a       492     0    25     1    12
  8.0388180009803314E-02 a       493     0    25     1    13
 -2.3362042820958126E-03 a       494     0    25     1    14
  1.4688307844031323E-03 a       495     0    25     1    15
  1.0288746503376720E-02 a       496     0    25     1    16
 -2.6880361645524601E-02 a       497     0    25     1    17
 -4.5237599669702810E-02 a       498     0    25     1    18
  1.2007737591554997E-01 a       499     0    25     1    19
  3.5367977509217378E-02 a       500     0    25     1    20
  2.1597027712461813E-02 a       501     0    26     1     1
 -8.8836632581737601E-03 a       502     0    26     1     2
 -1.3378050598776804E-03 a       503     0    26     1     3
 -8.6356030773915085E-02 a       504     0    26     1     4
 -5.8949788309212207E-02 a       505     0    26     1     5
  1.1612583544352849E-01 a       506     0    26     1     6
  9.8285434901869452E-03 a       507     0    26     1     7
  5.6513864018968858E-02 a       508     0    26     1     8
 -7.4892411604753246E-03 a       509     0    26     1     9
  1.1164423002337966E-02 a       510     0    26     1    10
  4.8523116206491017E-02 a       511     0    26     1    11
  7.6072329136872441E-03 a       512     0    26     1    12
 -4.1532570552132702E-03 a       513     0    26     1    13
 -8.8146786640516200E-02 a       514     0    26     1    14
  4.1362959499907891E-02 a       515     0    26     1    15
 -8.2156632824410145E-02 a       516     0    26     1    16
  1.6767212993124881E-02 a       517     0    26     1    17
  1.6956840793958533E-01 a       518     0    26     1    18
 -6.8747904586118416E-02 a       519     0    26     1    19
  3.4230787596777522E-02 a       520     0    26     1    20
 -5.1522291933950699E-02 a       521     0    27     1     1
  9.3813811063805902E-02 a       522     0    27     1     2
  1.3624561302757424E-01 a       523     0    27     1     3
  8.5775732129862413E-03 a       524     0    27     1     4
 -3.9456676547063772E-02 a       525     0    27     1     5
  3.9864115269890907E-02 a       526     0    27     1     6
 -3.7909742991618033E-03 a       527     0    27     1     7
  7.7410335767681051E-03 a       528     0    27     1     8
  1.8514772017220793E-02 a       529     0    27     1     9
  2.8053611368636641E-02 a       530     0    27     1    10
  1.9620957869420844E-01 a       531     0    27     1    11
  1.1008092486059889E-02 a       532     0    27     1    12
 -5.6050173122523361E-02 a       533     0    27     1    13
  8.3869154200587673E-02 a       534     0    27     1    14
  1.3574922711812060E-01 a       535     0    27     1    15
  1.0279576589692263E-01 a       536     0    27     1    16
  4.0163963221565790E-02 a       537     0    27     1    17
 -8.8780126633392520E-02 a       538     0    27     1    18
 -2.0335295247180801E-01 a       539     0    27     1    19
  3.8736323158271172E-03 a       540     0    27     1    20
 -7.2590878046133123E-02 a       541     0    28     1     1
 -5.3518584369943271E-02 a       542     0    28     1     2
  1.1904974722970493E-01 a       543     0    28     1     3
 -4.8184771281680069E-02 a       544     0    28     1     4
  9.9515755587242759E-03 a       545     0    28     1     5
 -6.4880443615685124E-02 a       546     0    28     1     6
  4.3260676430651413E-03 a       547     0    28     1     7
 -7.0485643276375284E-02 a       548     0    28     1     8
  2.1295335711828959E-02 a       549     0    28     1     9
  6.4691035159627597E-02 a       550     0    28     1    10
  1.3825100007974278E-01 a       551     0    28     1    11
  1.8475818532051054E-02 a       552     0    28     1    12
 -7.5863333017323578E-02 a       553     0    28     1    13
  1.5462659849864482E-01 a       554     0    28     1    14
  5.6512918022095578E-02 a       555     0    28     1    15
  1.4672254261554665E-01 a       556     0    28     1    16
  8.4254964963521570E-02 a       557     0    28     1    17
 -7.7557495346291319E-02 a       558     0    28     1    18
 -2.6694496640601376E-02 a       559     0    28     1    19
  2.5737080883761702E-02 a       560     0    28     1    20
 -9.5648001516733614E-03 a       561     0    29     1     1
  5.3381923735665573E-03 a       562     0    29     1     2
  4.8906116414082358E-02 a       563     0    29     1     3
  2.1213083561755466E-02 a       564     0    29     1     4
  2.4406972247012219E-02 a       565     0    29     1     5
 -4.1029315552414077E-02 a       566     0    29     1     6
  4.8807703087188781E-03 a       567     0    29     1     7
 -2.1657392112400059E-02 a       568     0    29     1     8
 -3.3105799007566842E-03 a       569     0    29     1     9
 -1.3392544656565886E-03 a       570     0    29     1    10
 -5.5371889939320289E-03 a       571     0    29     1    11
 -1.2046568876448081E-02 a       572     0    29     1    12
 -2.6851825026813089E-02 a       573     0    29     1    13
  3.8305860660310179E-02 a       574     0    29     1    14
 -7.6091399564848358E-03 a       575     0    29     1    15
  5.3128251946186159E-02 a       576     0    29     1    16
  2.1218288327235116E-02 a       577     0    29     1    17
 -6.5882826754937326E-02 a       578     0    29     1    18
  2.0281686079855685E-02 a       579     0    29     1    19
 -1.1170232186824680E-04 a       580     0    29     1    20
  1.0953086561521155E-01 a       581     0    30     1     1
  1.8696171974285872E-02 a       582     0    30     1     2
 -2.2368395401401014E-01 a       583     0    30     1     3
  2.2057283834634372E-02 a       584     0    30     1     4
 -6.3684798760974166E-03 a       585     0    30     1     5
  1.1569747565783259E-01 a       586     0    30     1     6
 -2.2880143751273199E-02 a       587     0    30     1     7
  4.6714289018266283E-02 a       588     0    30     1     8
 -4.2078439908758744E-02 a       589     0    30     1     9
 -2.8906769793944728E-02 a       590     0    30     1    10
 -2.0544351762893032E-01 a       591     0    30     1    11
  2.1886988629694140E-02 a       592     0    30     1    12
  9.1480690548338600E-02 a       593     0    30     1    13
 -2.1481229870479385E-01 a       594     0    30     1    14
 -1.3879586743058978E-01 a       595     0    30     1    15
 -2.4487509236280286E-01 a       596     0    30     1    16
 -9.6205616339327088E-02 a       597     0    30     1    17
  1.6009219050498508E-01 a       598     0    30     1    18
  4.8181431476271595E-02 a       599     0    30     1    19
 -4.9857546747754881E-02 a       600     0    30     1    20
 -2.2298734544210710E-01 a       601     0    31     1     1
  4.2578570536301513E-01 a       602     0    31     1     2
 -3.5154841482591376E-01 a       603     0    31     1     3
  8.3850271908900320E-02 a       604     0    31     1     4
  2.1073509193197357E-01 a       605     0    31     1     5
 -2.2271770941454438E-01 a       606     0    31     1     6
 -1.8267416905864997E-01 a       607     0    31     1     7
  6.9702087741876817E-01 a       608     0    31     1     8
  2.2758894138994994E-02 a       609     0    31     1     9
 -2.0756808463835769E-01 a       610     0    31     1    10
 -1.4630954229315832E-01 a       611     0    31     1    11
 -6.2150726466234874E-01 a       612     0    31     1    12
 -2.0385672198801888E-01 a       613     0    31     1    13
 -4.0694495442118506E-01 a       614     0    31     1    14
 -3.1256418539603625E-01 a       615     0    31     1    15
  1.5753791962000937E-02 a       616     0    31     1    16
 -1.4248066667342993E-01 a       617     0    31     1    17
  3.7139256297668388E-01 a       618     0    31     1    18
  5.5265868362131276E-01 a       619     0    31     1    19
  2.3515838444647000E-01 a       620     0    31     1    20
 -6.8503716161537299E-04 a       621     0    32     1     1
  2.4300491895865070E-01 a       622     0    32     1     2
 -2.6769381592745473E-03 a       623     0    32     1     3
 -3.1092870529371118E-02 a       624     0    32     1     4
 -5.6264769850051972E-03 a       625     0    32     1     5
 -1.1078437260001685E-01 a       626     0    32     1     6
  1.8063878522150267E-01 a       627     0    32     1     7
 -6.3055828598620356E-02 a       628     0    32     1     8
  1.3265591589639818E-02 a       629     0    32     1     9
 -2.4392954319032573E-02 a       630     0    32     1    10
 -1.6412530424632324E-02 a       631     0    32     1    11
 -2.6488447071003569E-02 a       632     0    32     1    12
 -9.3969540919175004E-02 a       633     0    32     1    13
  1.1290471630977825E-02 a       634     0    32     1    14
 -1.5983226056785058E-01 a       635     0    32     1    15
  2.9148460051362391E-02 a       636     0    32     1    16
  5.7728959263802358E-02 a       637     0    32     1    17
 -7.7749558133749272E-02 a       638     0    32     1    18
  8.5575813596068820E-02 a       639     0    32     1    19
 -1.4175629632266293E-01 a       640     0    32     1    20
  9.2298050666857601E-01 a       641     0    33     1     1
 -1.2349569491691148E-01 a       642     0    33     1     2
 -3.0485710787501152E-01 a       643     0    33     1     3
 -4.7950825367915328E-01 a       644     0    33     1     4
 -3.0564196770201973E-01 a       645     0    33     1     5
  4.2160667623070675E-01 a       646     0    33     1     6
 -2.9038765996741839E-01 a       647     0    33     1     7
 -6.7682107341120079E-01 a       648     0    33     1     8
  2.4425915592953104E-01 a       649     0    33     1     9
 -6.9829601344953718E-01 a       650     0    33     1    10
  6.6811783095464150E-02 a       651     0    33     1    11
  5.4350294695214119E-01 a       652     0    33     1    12
 -6.1100985183784517E-01 a       653     0    33     1    13
 -4.4096242325911517E-01 a       654     0    33     1    14
 -3.6346725997690849E-01 a       655     0    33     1    15
 -2.5816349767409402E-02 a       656     0    33     1    16
  1.5237868845064073E-01 a       657     0    33     1    17
  3.4004541303457991E-01 a       658     0    33     1    18
 -1.0105703541258121E-01 a       659     0    33     1    19
 -3.4379165854275473E-01 a       660     0    33     1    20
  2.3590915620537820E-01 a       661     0    34     1     1
  3.3362514821426187E-02 a       662     0    34     1     2
  4.3655954842498498E-02 a       663     0    34     1     3
 -8.4066928169691954E-02 a       664     0    34     1     4
 -1.2141544925545420E-02 a       665     0    34     1     5
  1.3732064618053883E-02 a       666     0    34     1     6
 -1.4270739634779309E-01 a       667     0    34     1     7
 -1.2600025944798765E-01 a       668     0    34     1     8
  2.2080406359099533E-01 a       669     0    34     1     9
 -1.5328863374922227E-02 a       670     0    34     1    10
 -1.5493211482671831E-01 a       671     0    34     1    11
  3.8127884838738406E-02 a       672     0    34     1    12
 -1.2336676775200121E-01 a       673     0    34     1    13
 -6.9983696685516133E-03 a       674     0    34     1    14
 -2.8795912489220171E-01 a       675     0    34     1    15
 -1.4797581047857969E-01 a       676     0    34     1    16
 -1.2551619601953198E-01 a       677     0    34     1    17
 -1.7895405348996182E-01 a       678     0    34     1    18
  1.1652164851610042E-01 a       679     0    34     1    19
  4.8839636007949765E-02 a       680     0    34     1    20
  6.5027843763177107E-02 a       681     0    35     1     1
  7.8603649499806250E-02 a       682     0    35     1     2
  2.8175493823697600E-01 a       683     0    35     1     3
 -1.6397306005099799E-01 a       684     0    35     1     4
 -1.9827617564631581E-01 a       685     0    35     1     5
 -9.7018826737720817E-02 a       686     0    35     1     6
  9.4829117061901627E-02 a       687     0    35     1     7
 -1.4823947964055501E-01 a       688     0    35     1     8
  9.6710623874202248E-02 a       689     0    35     1     9
  1.7405890417275643E-01 a       690     0    35     1    10
  7.9164496812613783E-02 a       691     0    35     1    11
  1.5689439054922624E-01 a       692     0    35     1    12
  2.3308409582516450E-03 a       693     0    35     1    13
  3.2698117662491727E-01 a       694     0    35     1    14
  1.5492642082578326E-01 a       695     0    35     1    15
 -1.2209687125395145E-01 a       696     0    35     1    16
 -1.5517838669318109E-02 a       697     0    35     1    17
  3.2684402372600274E-01 a       698     0    35     1    18
 -8.2872801647170910E-02 a       699     0    35     1    19
  3.6751252779634797E-01 a       700     0    35     1    20
 -6.2222380667346466E-01 a       701     0    36     1     1
  3.3876460394046959E-01 a       702     0    36     1     2
  1.0453851284509384E-01 a       703     0    36     1     3
  3.0415251312496211E-01 a       704     0    36     1     4
  1.1087894699666000E-01 a       705     0    36     1     5
 -3.4866242258926355E-01 a       706     0    36     1     6
  3.9496213811077552E-01 a       707     0    36     1     7
  1.7068066674114299E-01 a       708     0    36     1     8
 -6.3363906287956806E-01 a       709     0    36     1     9
  9.7182248236073587E-01 a       710     0    36     1    10
  1.8865843403155388E-01 a       711     0    36     1    11
 -1.1494182430401395E-01 a       712     0    36     1    12
  6.5252948714739623E-01 a       713     0    36     1    13
  7.4434583553403966E-01 a       714     0    36     1    14
  1.1838676804066568E+00 a       715     0    36     1    15
  2.0783070672526599E-01 a       716     0    36     1    16
  3.4154721609033356E-01 a       717     0    36     1    17
 -6.2270257187220934E-01 a       718     0    36     1    18
 -3.6485930988305471E-01 a       719     0    36     1    19
  7.0590609300523088E-01 a       720     0    36     1    20
 -1.7151584234975775E-01 a       721     0    37     1     1
  1.0035613325121217E-02 a       722     0    37     1     2
 -8.2636740260817271E-02 a       723     0    37     1     3
  4.4489931903520380E-02 a       724     0    37     1     4
 -1.6006697899462408E-01 a       725     0    37     1     5
 -2.6190221967684085E-01 a       726     0    37     1     6
  4.9143773247834960E-01 a       727     0    37     1     7
 -9.4579399714101808E-01 a       728     0    37     1     8
 -7.8744197284837517E-02 a       729     0    37     1     9
  4.6928177391305215E-01 a       730     0    37     1    10
 -4.3496184856775921E-02 a       731     0    37     1    11
  1.7939366996626910E-01 a       732     0    37     1    12
  3.8602299697636494E-01 a       733     0    37     1    13
  3.1580696790257085E-01 a       734     0    37     1    14
  5.5544019357398866E-01 a       735     0    37     1    15
  2.7783497648152777E-01 a       736     0    37     1    16
 -9.2561654421156103E-02 a       737     0    37     1    17
 -3.5048844963474746E-01 a       738     0    37     1    18
  1.9645942601899491E-01 a       739     0    37     1    19
 -5.5536901911950265E-01 a       740     0    37     1    20
 -1.4989869819493265E-01 a       741     0    38     1     1
 -2.1835708329016310E-01 a       742     0    38     1     2
  1.0831769590117224E-01 a       743     0    38     1     3
 -2.9761496786455646E-02 a       744     0    38     1     4
 -3.7685839385997760E-02 a       745     0    38     1     5
 -1.6116324944834001E-01 a       746     0    38     1     6
 -1.3822446905142474E-02 a       747     0    38     1     7
  4.4342702654363200E-02 a       748     0    38     1     8
  9.3418676684016350E-02 a       749     0    38     1     9
 -5.9951079637602815E-02 a       750     0    38     1    10
 -7.0042010818551102E-03 a       751     0    38     1    11
 -9.0378933234817160E-02 a       752     0    38     1    12
 -2.2901671383368277E-02 a       753     0    38     1    13
 -5.5062539679856456E-02 a       754     0    38     1    14
  1.0414669116450841E-01 a       755     0    38     1    15
  1.0165985044212812E-01 a       756     0    38     1    16
 -1.1071008832218958E-01 a       757     0    38     1    17
  1.8934452955323672E-01 a       758     0    38     1    18
  7.8978360380451848E-02 a       759     0    38     1    19
  1.4949345855517154E-01 a       760     0    38     1    20
  3.3013455420183767E-02 a       761     0    39     1     1
 -8.2566278700746554E-01 a       762     0    39     1     2
  2.2190857113423754E-01 a       763     0    39     1     3
 -1.6622918312997373E-01 a       764     0    39     1     4
  2.3024778393008938E-01 a       765     0    39     1     5
 -3.4836383410055832E-01 a       766     0    39     1     6
 -1.2365890586319073E+00 a       767     0    39     1     7
  1.9684809456295751E+00 a       768     0    39     1     8
  3.2753271909095005E-01 a       769     0    39     1     9
 -8.0050679487723853E-01 a       770     0    39     1    10
  4.3741708216093728E-01 a       771     0    39     1    11
 -9.1675027675260978E-02 a       772     0    39     1    12
  1.5570616895812714E-01 a       773     0    39     1    13
  6.6602307858188636E-01 a       774     0    39     1    14
 -1.1625780911609906E+00 a       775     0    39     1    15
 -5.3829938010309075E-01 a       776     0    39     1    16
  5.0349366524263861E-01 a       777     0    39     1    17
 -5.3811807878707518E-01 a       778     0    39     1    18
 -7.5430591947710857E-01 a       779     0    39     1    19
  1.2871843084927694E+00 a       780     0    39     1    20
  2.6137358876675915E-01 a       781     0    40     1     1
  9.3049784177933498E-02 a       782     0    40     1     2
  2.1524589130945845E-01 a       783     0    40     1     3
 -1.0580913662135644E-01 a       784     0    40     1     4
 -5.2596575853934062E-02 a       785     0    40     1     5
  3.9835165952316737E-01 a       786     0    40     1     6
 -1.9995973083125013E-01 a       787     0    40     1     7
 -1.4000347997507154E-01 a       788     0    40     1     8
 -5.4836320852490870E-02 a       789     0    40     1     9
  1.1781822566049233E-01 a       790     0    40     1    10
 -6.8103834991035186E-02 a       791     0    40     1    11
 -8.6530265852103799E-02 a       792     0    40     1    12
 -1.0241419317039364E-01 a       793     0    40     1    13
 -7.8549396723886000E-02 a       794     0    40     1    14
 -2.8876749813223527E-02 a       795     0    40     1    15
 -2.2776347309115375E-01 a       796     0    40     1    16
  1.3618811441395187E-01 a       797     0    40     1    17
  3.7375516964769831E-02 a       798     0    40     1    18
 -1.5696440994432309E-01 a       799     0    40     1    19
 -2.9127151559906805E-01 a       800     0    40     1    20
  7.4054061233472385E-02 a       801     0    41     1     1
 -1.2229410866329460E-01 a       802     0    41     1     2
  3.7172592382052113E-03 a       803     0    41     1     3
  5.0959051103637812E-02 a       804     0    41     1     4
  1.5676511917555455E-01 a       805     0    41     1     5
  1.0464173876076177E-01 a       806     0    41     1     6
 -1.0573591028156275E-01 a       807     0    41     1     7
 -6.6941731481944919E-02 a       808     0    41     1     8
  3.8718862934841267E-02 a       809     0    41     1     9
 -9.8430761017344562E-02 a       810     0    41     1    10
 -3.9200976497450683E-02 a       811     0    41     1    11
 -7.0401908664589757E-02 a       812     0    41     1    12
  1.4987106150511565E-02 a       813     0    41     1    13
  2.8475445634906449E-02 a       814     0    41     1    14
 -1.7214735042261958E-03 a       815     0    41     1    15
 -7.5741205661182448E-02 a       816     0    41     1    16
 -9.1870299611378076E-02 a       817     0    41     1    17
 -2.7481770489257823E-01 a       818     0    41     1    18
 -2.6203842837874614E-01 a       819     0    41     1    19
 -1.9229631203571093E-01 a       820     0    41     1    20
 -4.7138959229206900E-01 a       821     0    42     1     1
 -2.5310984363244088E-01 a       822     0    42     1     2
  3.0823569488648594E-01 a       823     0    42     1     3
  1.1751439579329184E-01 a       824     0    42     1     4
  2.2121376716948293E-01 a       825     0    42     1     5
  4.9520372329327517E-01 a       826     0    42     1     6
  4.8861350785239016E-01 a       827     0    42     1     7
 -7.0362915555686667E-01 a       828     0    42     1     8
  2.1839560312790016E-01 a       829     0    42     1     9
 -8.6161743085247613E-02 a       830     0    42     1    10
 -2.0268767541115318E-01 a       831     0    42     1    11
  7.9142813348756502E-02 a       832     0    42     1    12
 -2.1827774479986561E-01 a       833     0    42     1    13
 -2.1059651116062042E-01 a       834     0    42     1    14
 -1.1423490132697561E-01 a       835     0    42     1    15
 -1.6110292628530898E-01 a       836     0    42     1    16
 -4.7144004683521529E-01 a       837     0    42     1    17
 -3.0012927819161400E-02 a       838     0    42     1    18
  1.6018157380069306E-01 a       839     0    42     1    19
 -9.2569304465939661E-01 a       840     0    42     1    20
 -4.2027744858144117E-02 a       841     0    43     1     1
 -8.2958693622325209E-03 a       842     0    43     1     2
  6.4167608798125095E-02 a       843     0    43     1     3
  5.5104675023461974E-02 a       844     0    43     1     4
 -1.9242510901225880E-02 a       845     0    43     1     5
 -8.3948588223092882E-02 a       846     0    43     1     6
  5.0904619737854137E-02 a       847     0    43     1     7
 -1.7591053973182416E-03 a       848     0    43     1     8
  3.0133172690803681E-02 a       849     0    43     1     9
 -3.8483980617768725E-03 a       850     0    43     1    10
  6.1537433222793279E-03 a       851     0    43     1    11
  9.5328025267285964E-03 a       852     0    43     1    12
  6.0403396429007057E-02 a       853     0    43     1    13
  3.8420037615341143E-02 a       854     0    43     1    14
  9.4328856680008177E-02 a       855     0    43     1    15
  4.1902601878637154E-02 a       856     0    43     1    16
 -2.3994998131199669E-02 a       857     0    43     1    17
 -6.0504269122815743E-02 a       858     0    43     1    18
  6.5596123827543970E-02 a       859     0    43     1    19
  5.5498760664916942E-02 a       860     0    43     1    20
  4.9004560350888141E-02 a       861     0    44     1     1
 -6.4978004200717754E-02 a       862     0    44     1     2
  1.6977587523271442E-01 a       863     0    44     1     3
 -9.1975175349804969E-02 a       864     0    44     1     4
 -1.9256011864012938E-02 a       865     0    44     1     5
  7.7166730797441248E-03 a       866     0    44     1     6
  3.3587297704107344E-02 a       867     0    44     1     7
  2.3713862860405825E-02 a       868     0    44     1     8
 -4.4014592855761349E-02 a       869     0    44     1     9
 -6.1554562054092120E-02 a       870     0    44     1    10
  1.0650912179406777E-01 a       871     0    44     1    11
  3.4692613434739719E-03 a       872     0    44     1    12
  6.1447796818721791E-02 a       873     0    44     1    13
 -6.9492972197993816E-02 a       874     0    44     1    14
 -2.1038873465625046E-01 a       875     0    44     1    15
 -1.8209491058380947E-01 a       876     0    44     1    16
  6.9015596008939251E-02 a       877     0    44     1    17
  2.2536395460736561E-01 a       878     0    44     1    18
  1.0377272857454696E-01 a       879     0    44     1    19
  2.0790712445908652E-01 a       880     0    44     1    20
  2.7660602570183707E-01 a       881     0    45     1     1
  3.2022993358134470E-03 a       882     0    45     1     2
  7.1888198220394162E-02 a       883     0    45     1     3
 -1.9630939605931449E-01 a       884     0    45     1     4
  2.6787494007126430E-02 a       885     0    45     1     5
 -5.8403162085585514E-01 a       886     0    45     1     6
 -1.3744893266793531E-01 a       887     0    45     1     7
  3.0871716707281366E-02 a       888     0    45     1     8
  6.3355164473416992E-02 a       889     0    45     1     9
 -3.3466200191298097E-02 a       890     0    45     1    10
 -7.4610990932916796E-03 a       891     0    45     1    11
  1.7438610417454668E-02 a       892     0    45     1    12
  2.3534658550215356E-02 a       893     0    45     1    13
  9.8778069921330772E-02 a       894     0    45     1    14
 -4.1319332498504846E-01 a       895     0    45     1    15
 -1.5806784622003650E-01 a       896     0    45     1    16
 -4.9612855676036465E-03 a       897     0    45     1    17
 -3.0105009130901694E-02 a       898     0    45     1    18
 -3.1530865818924964E-01 a       899     0    45     1    19
  3.5624613914712347E-02 a       900     0    45     1    20
 -1.5640682679072751E-01 a       901     0    46     1     1
  4.6815698134047554E-02 a       902     0    46     1     2
  9.1845785243200376E-02 a       903     0    46     1     3
 -1.0330987419257907E-01 a       904     0    46     1     4
 -2.8847313907695862E-02 a       905     0    46     1     5
  1.2247492962787887E-01 a       906     0    46     1     6
  2.0889451167522780E-01 a       907     0    46     1     7
 -5.8516917675122272E-02 a       908     0    46     1     8
 -6.4285610145625713E-02 a       909     0    46     1     9
  7.2946464160912508E-02 a       910     0    46     1    10
  1.1977876132414081E-01 a       911     0    46     1    11
  3.5934544522537595E-02 a       912     0    46     1    12
  1.0857749874528583E-01 a       913     0    46     1    13
  1.0047169011194382E-01 a       914     0    46     1    14
 -1.0498077067143942E-01 a       915     0    46     1    15
 -1.4418114109864192E-02 a       916     0    46     1    16
 -1.3010928408008427E-02 a       917     0    46     1    17
  2.4218500544686522E-01 a       918     0    46     1    18
 -3.9318786789189604E-02 a       919     0    46     1    19
 -7.7187348061267300E-02 a       920     0    46     1    20
  7.7389665853582423E-02 a       921     0    47     1     1
  6.1760390112123725E-02 a       922     0    47     1     2
  1.2531244398793818E-02 a       923     0    47     1     3
  7.3627701239652024E-02 a       924     0    47     1     4
 -7.3614605109362088E-02 a       925     0    47     1     5
  1.2049466484327179E-01 a       926     0    47     1     6
 -7.5252553852734105E-02 a       927     0    47     1     7
 -8.5695909162357184E-02 a       928     0    47     1     8
 -6.1759353598007993E-02 a       929     0    47     1     9
  3.4335828215828659E-02 a       930     0    47     1    10
 -1.3553747657258558E-01 a       931     0    47     1    11
 -6.8255601022473425E-02 a       932     0    47     1    12
  1.0469876361590739E-01 a       933     0    47     1    13
 -1.5969729528449099E-02 a       934     0    47     1    14
 -2.8027297745128573E-02 a       935     0    47     1    15
 -1.9536397379161249E-01 a       936     0    47     1    16
 -2.9216879575129962E-02 a       937     0    47     1    17
 -1.0201391525340488E-01 a       938     0    47     1    18
 -7.1185263266888524E-02 a       939     0    47     1    19
  1.0284800294290819E-01 a       940     0    47     1    20
  3.2586224456602758E-01 a       941     0    48     1     1
 -4.9154291262264262E-02 a       942     0    48     1     2
  3.3815248919711982E-01 a       943     0    48     1     3
  3.2117090184738684E-02 a       944     0    48     1     4
 -1.7572876421889275E-01 a       945     0    48     1     5
  5.9245700616979846E-01 a       946     0    48     1     6
 -2.6984481586334025E-01 a       947     0    48     1     7
  4.3601934052718248E-02 a       948     0    48     1     8
  8.4267841678915920E-02 a       949     0    48     1     9
  2.4517261982944155E-01 a       950     0    48     1    10
 -1.3918582799314289E-01 a       951     0    48     1    11
  1.1816528526966097E-01 a       952     0    48     1    12
 -1.3990350076635188E-02 a       953     0    48     1    13
 -5.0467736175713840E-01 a       954     0    48     1    14
 -3.1158515673377279E-01 a       955     0    48     1    15
 -1.3373531459149648E-01 a       956     0    48     1    16
 -2.1850837316185739E-01 a       957     0    48     1    17
 -5.0550406878977508E-02 a       958     0    48     1    18
 -9.1336051852070874E-02 a       959     0    48     1    19
 -2.3179936911937347E-02 a       960     0    48     1    20
  1.2886008212253522E-01 a       961     0    49     1     1
 -5.2061559487851967E-02 a       962     0    49     1     2
  1.2389922195674903E-01 a       963     0    49     1     3
  1.1494753328745030E-01 a       964     0    49     1     4
 -1.7023483073465712E-01 a       965     0    49     1     5
  4.9642837719348687E-02 a       966     0    49     1     6
 -2.8473636442319344E-01 a       967     0    49     1     7
  2.4883701004885264E-01 a       968     0    49     1     8
  1.8134877702839719E-01 a       969     0    49     1     9
  5.3163004393478250E-02 a       970     0    49     1    10
  3.2260554661881928E-02 a       971     0    49     1    11
  4.8253636227123003E-02 a       972     0    49     1    12
 -2.3731025422429824E-01 a       973     0    49     1    13
  1.5163159068222673E-01 a       974     0    49     1    14
  1.3420560686670390E-02 a       975     0    49     1    15
  1.2580326388682767E-01 a       976     0    49     1    16
 -1.3817374687992370E-01 a       977     0    49     1    17
  6.6825525016243936E-01 a       978     0    49     1    18
 -1.3643365247755346E-01 a       979     0    49     1    19
  4.1228320334464813E-01 a       980     0    49     1    20
  4.6785735816836323E-02 a       981     0    50     1     1
  1.5508751902364037E-01 a       982     0    50     1     2
 -7.6446076345686079E-02 a       983     0    50     1     3
 -6.2864553942380494E-04 a       984     0    50     1     4
  8.1114774323655884E-03 a       985     0    50     1     5
  1.0812181383804907E-01 a       986     0    50     1     6
  4.7341651698133765E-02 a       987     0    50     1     7
 -7.8445483076476932E-02 a       988     0    50     1     8
 -7.3583971223704303E-02 a       989     0    50     1     9
  8.2851847536434056E-02 a       990     0    50     1    10
  2.6134012452051276E-02 a       991     0    50     1    11
  8.3924764082700040E-02 a       992     0    50     1    12
  8.7616121749996157E-03 a       993     0    50     1    13
  9.1135289287322285E-02 a       994     0    50     1    14
 -3.7162790631946045E-02 a       995     0    50     1    15
  1.2984031570819345E-02 a       996     0    50     1    16
  1.2474220042650205E-01 a       997     0    50     1    17
 -1.4073790748076873E-01 a       998     0    50     1    18
 -1.6880060290147558E-02 a       999     0    50     1    19
 -4.3270232350343489E-02 a      1000     0    50     1    20
 -2.9605854892706163E-01 a      1001     0    51     1     1
  9.8735066389776793E-01 a      1002     0    51     1     2
 -9.8143473753359067E-01 a      1003     0    51     1     3
 -7.2792660478359394E-01 a      1004     0    51     1     4
 -5.0004013234678957E-01 a      1005     0    51     1     5
 -1.9522620609335317E-01 a      1006     0    51     1     6
  7.7256503584017222E-01 a      1007     0    51     1     7
 -5.3282805038813963E-01 a      1008     0    51     1     8
 -3.5985144017629989E-01 a      1009     0    51     1     9
  9.2455513171936954E-01 a      1010     0    51     1    10
  4.5487271108287104E-02 a      1011     0    51     1    11
 -1.4954445935622876E-01 a      1012     0    51     1    12
  1.3858819623259958E-01 a      1013     0    51     1    13
 -1.1356311884795747E+00 a      1014     0    51     1    14
  1.5985349727423350E+00 a      1015     0    51     1    15
  6.1011113207366308E-01 a      1016     0    51     1    16
 -1.2700557468144891E-01 a      1017     0    51     1    17
 -5.0703338664472974E-01 a      1018     0    51     1    18
 -2.5322769179688609E-01 a      1019     0    51     1    19
 -2.6361362240031277E-01 a      1020     0    51     1    20
  2.4314735837813621E-02 a      1021     0    52     1     1
 -1.6166976707249317E-01 a      1022     0    52     1     2
  2.7028067673917461E-01 a      1023     0    52     1     3
  6.8435286696897552E-02 a      1024     0    52     1     4
 -9.5320226876063729E-02 a      1025     0    52     1     5
 -7.1161988439687213E-02 a      1026     0    52     1     6
 -1.5057328660461902E-01 a      1027     0    52     1     7
 -1.2230130980755378E-01 a      1028     0    52     1     8
 -8.7404264514293575E-02 a      1029     0    52     1     9
  4.3748214206499273E-03 a      1030     0    52     1    10
  3.2532423332755434E-01 a      1031     0    52     1    11
  1.1485073187598356E-01 a      1032     0    52     1    12
  3.7339540553093697E-01 a      1033     0    52     1    13
 -2.6010471913168737E-01 a      1034     0    52     1    14
 -7.0911852291755562E-02 a      1035     0    52     1    15
  2.1062004917987856E-01 a      1036     0    52     1    16
 -8.6785551521831719E-02 a      1037     0    52     1    17
 -2.9468307226595898E-03 a      1038     0    52     1    18
 -2.9446607519399665E-02 a      1039     0    52     1    19
  3.9709648364396494E-01 a      1040     0    52     1    20
  2.8524868810943598E-03 a      1041     0    53     1     1
  7.5337928589210568E-02 a      1042     0    53     1     2
  8.7001801717842386E-02 a      1043     0    53     1     3
  9.0748952292625199E-03 a      1044     0    53     1     4
 -3.5383701931805650E-02 a      1045     0    53     1     5
 -1.4082528879095513E-01 a      1046     0    53     1     6
  1.1112420540103861E-01 a      1047     0    53     1     7
  8.9743210121231140E-02 a      1048     0    53     1     8
 -3.5551926022525979E-02 a      1049     0    53     1     9
  1.4155148577977414E-02 a      1050     0    53     1    10
  9.0217004447523709E-03 a      1051     0    53     1    11
  3.2172615670839531E-02 a      1052     0    53     1    12
 -2.4722198618388737E-02 a      1053     0    53     1    13
 -9.7631549741427417E-03 a      1054     0    53     1    14
 -1.4054473201290649E-02 a      1055     0    53     1    15
  2.1376706963285162E-02 a      1056     0    53     1    16
  3.9087391169616001E-02 a      1057     0    53     1    17
  1.6390362225333310E-01 a      1058     0    53     1    18
  9.3808960027748897E-02 a      1059     0    53     1    19
  8.1877085699275612E-02 a      1060     0    53     1    20
  3.2045221054284595E-01 a      1061     0    54     1     1
  4.7208389866167634E-02 a      1062     0    54     1     2
  5.1330395360412624E-02 a      1063     0    54     1     3
  1.4960131742085986E-01 a      1064     0    54     1     4
  1.6887845303873614E-01 a      1065     0    54     1     5
 -3.0640814350225326E-01 a      1066     0    54     1     6
 -1.5565717709819460E-01 a      1067     0    54     1     7
  2.5911053425204850E-01 a      1068     0    54     1     8
 -1.6251683866846078E-01 a      1069     0    54     1     9
 -2.1497238315993342E-01 a      1070     0    54     1    10
 -6.3995953982659184E-02 a      1071     0    54     1    11
 -3.2013799445784245E-02 a      1072     0    54     1    12
 -1.3545141308736888E-01 a      1073     0    54     1    13
  2.3157283421735117E-01 a      1074     0    54     1    14
 -2.1287391704535508E-01 a      1075     0    54     1    15
  5.8303843515545704E-02 a      1076     0    54     1    16
  3.3354012831908020E-01 a      1077     0    54     1    17
  1.8231100465647321E-01 a      1078     0    54     1    18
  1.5982011347983813E-01 a      1079     0    54     1    19
  2.4608293857473740E-01 a      1080     0    54     1    20
  1.1850515397282999E+00 b      1081     1     1
 -1.0859331981067804E+00 b      1082     1     2
 -1.8635030207773320E-01 b      1083     1     3
  5.8791041269030808E-01 b      1084     1     4
  1.4188792565672564E-01 b      1085     1     5
 -1.1702726145775837E+00 b      1086     1     6
  4.0340375668445716E-01 b      1087     1     7
  1.6231372391809856E-01 b      1088     1     8
  7.0250522887062927E-01 b      1089     1     9
  1.2250186735347401E-02 b      1090     1    10
  1.1534757755000398E+00 b      1091     1    11
 -2.7693102674120854E-02 b      1092     1    12
  6.5856123072052719E-01 b      1093     1    13
  1.4317168251962886E-01 b      1094     1    14
 -1.1937556037446730E+00 b      1095     1    15
 -7.8056980883365878E-01 b      1096     1    16
  5.7139495760486514E-01 b      1097     1    17
 -8.4143004818851952E-01 b      1098     1    18
 -1.3194758025077420E+00 b      1099     1    19
  7.0019967299183195E-01 b      1100     1    20
 -6.2214183489481467E-01 a      1101     1     1     2     1
 -4.0446623558072931E-01 a      1102     1     1     2     2
 -2.7977040699197697E-01 a      1103     1     1     2     3
 -1.1870643958188097E-01 a      1104     1     1     2     4
 -5.4747016145425853E-01 a      1105     1     1     2     5
 -5.1230841727480891E-01 a      1106     1     1     2     6
 -6.8389337893756896E-02 a      1107     1     1     2     7
  3.7630008913557400E-01 a      1108     1     1     2     8
 -2.9548743043038050E-01 a      1109     1     1     2     9
  1.7900559796882556E-01 a      1110     1     1     2    10
 -2.8791713314155082E-01 a      1111     1     1     2    11
  6.7951991613024409E-01 a      1112     1     1     2    12
  1.3182857144328930E-01 a      1113     1     1     2    13
  2.7620105254743993E-01 a      1114     1     1     2    14
  8.0068616291999450E-01 a      1115     1     1     2    15
 -8.6559010698403188E-02 a      1116     1     1     2    16
 -8.2978435021371089E-01 a      1117     1     1     2    17
  1.6184516303022023E-01 a      1118     1     1     2    18
 -7.0443296408581335E-01 a      1119     1     1     2    19
  6.2257274951540409E-01 a      1120     1     1     2    20
  1.2772209648964891E-01 a      1121     1     2     2     1
  9.5581694269360848E-02 a      1122     1     2     2     2
  1.9860475981007847E-01 a      1123     1     2     2     3
  2.1705735498185105E-01 a      1124     1     2     2     4
 -8.0505020980997294E-02 a      1125     1     2     2     5
 -5.3557668311186635E-01 a      1126     1     2     2     6
 -9.6845594615486155E-02 a      1127     1     2     2     7
  3.8009897199262493E-01 a      1128     1     2     2     8
 -3.0711067903059341E-01 a      1129     1     2     2     9
 -5.7058237136540280E-01 a      1130     1     2     2    10
 -8.9890638873221229E-01 a      1131     1     2     2    11
 -4.7774088872673171E-01 a      1132     1     2     2    12
  6.8698354420647667E-01 a      1133     1     2     2    13
 -1.3398310183102771E-01 a      1134     1     2     2    14
 -1.0718252741743999E-01 a      1135     1     2     2    15
  2.1918637740462835E-01 a      1136     1     2     2    16
 -6.4321787497566665E-05 a      1137     1     2     2    17
 -7.4692299936764139E-01 a      1138     1     2     2    18
  1.1419782140180421E+00 a      1139     1     2     2    19
 -1.8397641819078359E-01 a      1140     1     2     2    20
 -5.9303286671403832E-01 a      1141     1     3     2     1
  2.4118578859996365E-01 a      1142     1     3     2     2
 -3.5458494910285854E-01 a      1143     1     3     2     3
  5.6666613491864426E-01 a      1144     1     3     2     4
  4.6990606133865026E-01 a      1145     1     3     2     5
  9.3130479027797503E-02 a      1146     1     3     2     6
  6.0925566853892998E-01 a      1147     1     3     2     7
 -2.0006558368809887E-01 a      1148     1     3     2     8
  3.4248868011292494E-01 a      1149     1     3     2     9
  1.5249936573409376E-02 a      1150     1     3     2    10
  5.1874554595076205E-01 a      1151     1     3     2    11
  4.2728887655895123E-02 a      1152     1     3     2    12
  1.5523068373001217E-01 a      1153     1     3     2    13
 -8.6712376320371834E-02 a      1154     1     3     2    14
 -4.7729676273117022E-01 a      1155     1     3     2    15
 -3.7263124364176425E-01 a      1156     1     3     2    16
  7.7416382471862735E-02 a      1157     1     3     2    17
  4.6265924889883993E-02 a      1158     1     3     2    18
  4.7577850396320155E-02 a      1159     1     3     2    19
 -5.4364732161607288E-01 a      1160     1     3     2    20
 -1.4125196939707380E-01 a      1161     1     4     2     1
 -2.2515504341913647E-01 a      1162     1     4     2     2
  5.6583141384570990E-01 a      1163     1     4     2     3
 -1.7528750260794243E-01 a      1164     1     4     2     4
  2.6424053065798381E-01 a      1165     1     4     2     5
 -3.9062007512368307E-01 a      1166     1     4     2     6
 -3.5365308960955233E-01 a      1167     1     4     2     7
  5.4310522173278664E-01 a      1168     1     4     2     8
  2.9186607338091841E-01 a      1169     1     4     2     9
  7.4760681791189200E-03 a      1170     1     4     2    10
  3.6389356692967950E-01 a      1171     1     4     2    11
 -1.7120546492537372E-02 a      1172     1     4     2    12
 -1.4663375061363443E-01 a      1173     1     4     2    13
  4.2507487228639551E-01 a      1174     1     4     2    14
  7.4083268549160730E-01 a      1175     1     4     2    15
  3.2571506150676627E-01 a      1176     1     4     2    16
 -3.5868884617398439E-01 a      1177     1     4     2    17
 -4.4983901058822129E-01 a      1178     1     4     2    18
 -5.0544461275380714E-01 a      1179     1     4     2    19
 -6.2931816401696372E-01 a      1180     1     4     2    20
 -3.0389209755053609E-01 a      1181     1     5     2     1
  3.5760517040716050E-01 a      1182     1     5     2     2
 -3.3669842021641588E-01 a      1183     1     5     2     3
  6.8095652046279664E-01 a      1184     1     5     2     4
 -4.2320579931002761E-01 a      1185     1     5     2     5
 -9.5822336119572915E-01 a      1186     1     5     2     6
  1.8720517877950846E-02 a      1187     1     5     2     7
  5.1618007460426196E-01 a      1188     1     5     2     8
  3.9201839527338350E-01 a      1189     1     5     2     9
 -7.5843418715996047E-01 a      1190     1     5     2    10
 -5.5248656997479684E-01 a      1191     1     5     2    11
 -3.5479734018459563E-01 a      1192     1     5     2    12
  6.6344026611492121E-02 a      1193     1     5     2    13
 -3.7742267233754628E-01 a      1194     1     5     2    14
  3.9402686543344273E-01 a      1195     1     5     2    15
  3.7527720003476989E-01 a      1196     1     5     2    16
 -4.6559538536914807E-01 a      1197     1     5     2    17
 -2.4628317493985311E-02 a      1198     1     5     2    18
 -1.1542024833278776E-01 a      1199     1     5     2    19
  3.3200813901128368E-01 a      1200     1     5     2    20
 -5.2401872760557400E-01 a      1201     1     6     2     1
  2.4942466585464546E-01 a      1202     1     6     2     2
 -3.3451744713884063E-01 a      1203     1     6     2     3
 -2.1752529237196927E-01 a      1204     1     6     2     4
 -2.0200785404356081E-01 a      1205     1     6     2     5
 -2.4125082826925989E-01 a      1206     1     6     2     6
  9.9414316543468724E-03 a      1207     1     6     2     7
 -4.5276790869040713E-03 a      1208     1     6     2     8
  1.7104374554202270E-01 a      1209     1     6     2     9
 -2.4160007857109198E-01 a      1210     1     6     2    10
  1.0405921661435372E-01 a      1211     1     6     2    11
  3.2049048895521964E-01 a      1212     1     6     2    12
  2.7686818484110820E-01 a      1213     1     6     2    13
 -2.0383231441282826E-01 a      1214     1     6     2    14
 -8.7722230121290920E-02 a      1215     1     6     2    15
 -4.0039912426604951E-01 a      1216     1     6     2    16
 -4.2559997891284285E-01 a      1217     1     6     2    17
 -8.0823427868285086E-02 a      1218     1     6     2    18
  2.4522086198492410E-01 a      1219     1     6     2    19
  2.6765282801779477E-01 a      1220     1     6     2    20
  7.7534741699359999E-01 a      1221     1     7     2     1
 -7.7303781810960781E-01 a      1222     1     7     2     2
  4.2258970519905759E-01 a      1223     1     7     2     3
 -8.2199661244109690E-01 a      1224     1     7     2     4
 -1.4374126015119548E-01 a      1225     1     7     2     5
 -3.2188824644676634E-01 a      1226     1     7     2     6
 -1.0671471091554361E+00 a      1227     1     7     2     7
  2.8722314435709406E-01 a      1228     1     7     2     8
 -6.2634615038563790E-01 a      1229     1     7     2     9
  3.4614523027976979E-01 a      1230     1     7     2    10
 -4.1774657896452877E-01 a      1231     1     7     2    11
  1.1269496682578702E-02 a      1232     1     7     2    12
  1.9786685925920988E-01 a      1233     1     7     2    13
 -1.2082338981863815E-01 a      1234     1     7     2    14
  2.3001705388780970E-02 a      1235     1     7     2    15
 -5.2126602388586651E-01 a      1236     1     7     2    16
 -1.8275257063374689E-01 a      1237     1     7     2    17
 -1.1165998733903387E-01 a      1238     1     7     2    18
 -2.9166591027492594E-01 a      1239     1     7     2    19
  5.5895148139532536E-01 a      1240     1     7     2    20
  3.4727964702627978E-01 a      1241     1     8     2     1
  6.0415796642379949E-01 a      1242     1     8     2     2
 -8.0202002505172332E-01 a      1243     1     8     2     3
  2.8894176192733872E-01 a      1244     1     8     2     4
  7.0402394408266711E-01 a      1245     1     8     2     5
  3.9084192080893937E-01 a      1246     1     8     2     6
  3.9037310316021789E-01 a      1247     1     8     2     7
 -3.9814886045679843E-01 a      1248     1     8     2     8
  6.9423176141670251E-01 a      1249     1     8     2     9
 -8.8994893159989596E-01 a      1250     1     8     2    10
 -4.3707040579624246E-01 a      1251     1     8     2    11
  4.3381964329121593E-02 a      1252     1     8     2    12
  7.2900487282765092E-01 a      1253     1     8     2    13
  4.4239532277289323E-01 a      1254     1     8     2    14
 -7.7999171973347470E-01 a      1255     1     8     2    15
  3.2450590531076917E-01 a      1256     1     8     2    16
 -9.0852711424251539E-02 a      1257     1     8     2    17
  1.9716060946713208E-02 a      1258     1     8     2    18
 -5.0125318326985391E-01 a      1259     1     8     2    19
  1.7214246744845912E-01 a      1260     1     8     2    20
 -3.9646304167611374E-01 a      1261     1     9     2     1
 -5.4229263875829781E-01 a      1262     1     9     2     2
 -1.9881568265815533E-01 a      1263     1     9     2     3
  2.6030688681745728E-01 a      1264     1     9     2     4
  5.9225165425768189E-01 a      1265     1     9     2     5
 -3.5791562309084854E-02 a      1266     1     9     2     6
  8.2716664498230563E-01 a      1267     1     9     2     7
 -1.5816278229469227E-01 a      1268     1     9     2     8
 -4.1413468541994913E-01 a      1269     1     9     2     9
  1.5408245516083987E-02 a      1270     1     9     2    10
  5.4695621682521151E-02 a      1271     1     9     2    11
 -1.4827284295584467E-01 a      1272     1     9     2    12
 -6.2075035551469995E-02 a      1273     1     9     2    13
 -7.9552905459015694E-02 a      1274     1     9     2    14
  1.1941794423264870E-01 a      1275     1     9     2    15
  5.4554267411621848E-01 a      1276     1     9     2    16
 -7.7118840511794151E-01 a      1277     1     9     2    17
 -8.2877051508026134E-01 a      1278     1     9     2    18
  9.4296395349844561E-02 a      1279     1     9     2    19
 -7.9923835838165769E-01 a      1280     1     9     2    20
 -2.1872993009900862E-01 a      1281     1    10     2     1
  1.6387995354276402E-01 a      1282     1    10     2     2
  3.8415231578757214E-01 a      1283     1    10     2     3
 -6.8226727726901515E-01 a      1284     1    10     2     4
  6.0144676883951231E-01 a      1285     1    10     2     5
 -5.7683380002028428E-01 a      1286     1    10     2     6
 -4.8196306032907932E-01 a      1287     1    10     2     7
 -4.2110595572536644E-02 a      1288     1    10     2     8
  4.7349814706059562E-01 a      1289     1    10     2     9
  6.2695116028501341E-01 a      1290     1    10     2    10
 -4.4393318144891902E-01 a      1291     1    10     2    11
 -1.8286346294536493E-01 a      1292     1    10     2    12
 -4.0966330721056232E-01 a      1293     1    10     2    13
 -7.5802886589346252E-01 a      1294     1    10     2    14
  1.2035800274393146E-02 a      1295     1    10     2    15
 -6.8147959619582477E-02 a      1296     1    10     2    16
 -5.2645467829457371E-01 a      1297     1    10     2    17
 -7.6922145349013482E-02 a      1298     1    10     2    18
 -6.9674058222062230E-01 a      1299     1    10     2    19
 -1.0785420436518180E-02 a      1300     1    10     2    20
 -6.8300717422573776E-01 a      1301     1    11     2     1
 -2.1114191162758489E-01 a      1302     1    11     2     2
  9.6027244691266611E-01 a      1303     1    11     2     3
  2.4183467840458267E-01 a      1304     1    11     2     4
 -9.8947139345085666E-01 a      1305     1    11     2     5
 -6.6834233681421695E-01 a      1306     1    11     2     6
  3.6058938480814229E-01 a      1307     1    11     2     7
  5.8267267885950413E-01 a      1308     1    11     2     8
 -4.6777593684213536E-01 a      1309     1    11     2     9
 -4.1481661960216620E-01 a      1310     1    11     2    10
  6.9768729984399286E-02 a      1311     1    11     2    11
  2.2373754839898852E-01 a      1312     1    11     2    12
  4.9160332223454672E-01 a      1313     1    11     2    13
 -5.7326006227793247E-01 a      1314     1    11     2    14
 -5.9115122518487395E-01 a      1315     1    11     2    15
 -1.4062600464293130E-02 a      1316     1    11     2    16
  2.5201789988957540E-01 a      1317     1    11     2    17
  2.7354803992904037E-01 a      1318     1    11     2    18
 -6.3776351076792892E-01 a      1319     1    11     2    19
  1.4077240365496657E-01 a      1320     1    11     2    20
  5.4520524401352033E-01 a      1321     1    12     2     1
 -1.6561341664748896E-01 a      1322     1    12     2     2
 -1.2361542226131468E+00 a      1323     1    12     2     3
  6.0639874831232365E-01 a      1324     1    12     2     4
 -8.4887293983869905E-03 a      1325     1    12     2     5
  2.2785670207746911E-01 a      1326     1    12     2     6
  3.8098560611027216E-01 a      1327     1    12     2     7
  2.0284591109925454E-01 a      1328     1    12     2     8
  7.7022495722513140E-01 a      1329     1    12     2     9
 -1.1407147920865173E+00 a      1330     1    12     2    10
  4.5247467036092748E-01 a      1331     1    12     2    11
  7.1967741319856282E-01 a      1332     1    12     2    12
 -3.1017568721917570E-03 a      1333     1    12     2    13
  7.7479024580785316E-01 a      1334     1    12     2    14
  9.3491508807095301E-03 a      1335     1    12     2    15
 -4.3874043097788851E-01 a      1336     1    12     2    16
 -5.4625900224424351E-01 a      1337     1    12     2    17
  1.6290467544658946E-01 a      1338     1    12     2    18
  6.6151850496468079E-01 a      1339     1    12     2    19
  3.8051649916115032E-01 a      1340     1    12     2    20
 -7.0723637840746881E-02 a      1341     1    13     2     1
  1.8741059291146756E-01 a      1342     1    13     2     2
 -3.0914069235066333E-01 a      1343     1    13     2     3
  7.9519354665802666E-01 a      1344     1    13     2     4
 -4.1499360456930976E-03 a      1345     1    13     2     5
 -4.9865653027419832E-01 a      1346     1    13     2     6
 -6.8581320439430793E-01 a      1347     1    13     2     7
  3.5186416506275249E-02 a      1348     1    13     2     8
  6.0961075849718560E-01 a      1349     1    13     2     9
 -1.0566008880367377E-01 a      1350     1    13     2    10
  3.6336686305397575E-01 a      1351     1    13     2    11
 -1.6499505217681401E-01 a      1352     1    13     2    12
 -1.6581737051877718E-01 a      1353     1    13     2    13
 -4.1018343986293632E-01 a      1354     1    13     2    14
 -4.6421129666589783E-01 a      1355     1    13     2    15
  9.8157367041172963E-02 a      1356     1    13     2    16
  6.2120133970591884E-01 a      1357     1    13     2    17
 -6.0268780323183513E-01 a      1358     1    13     2    18
 -2.1381108242333424E-01 a      1359     1    13     2    19
 -3.2665476722836484E-01 a      1360     1    13     2    20
 -4.0416248363900170E-01 a      1361     1    14     2     1
 -5.6549802027836538E-01 a      1362     1    14     2     2
 -8.1543282269745665E-01 a      1363     1    14     2     3
 -5.9897019045486966E-01 a      1364     1    14     2     4
  7.0695783221467101E-01 a      1365     1    14     2     5
  2.5440449359950540E-01 a      1366     1    14     2     6
  3.0623224966171047E-02 a      1367     1    14     2     7
 -2.9546474402035788E-01 a      1368     1    14     2     8
 -1.0423497917338425E+00 a      1369     1    14     2     9
 -7.1033363379661785E-01 a      1370     1    14     2    10
 -3.2847316631599138E-01 a      1371     1    14     2    11
 -3.8107989805149567E-01 a      1372     1    14     2    12
  3.3800446305338927E-01 a      1373     1    14     2    13
  7.1211902378059633E-01 a      1374     1    14     2    14
 -9.6192640820880648E-01 a      1375     1    14     2    15
  5.8453672426417369E-01 a      1376     1    14     2    16
  3.8462467517042957E-02 a      1377     1    14     2    17
  3.1221508823286181E-01 a      1378     1    14     2    18
  2.3212439912719289E-03 a      1379     1    14     2    19
  7.9711303748103285E-02 a      1380     1    14     2    20
 -4.0338467915869092E-01 a      1381     1    15     2     1
 -1.8602123543878174E-01 a      1382     1    15     2     2
 -8.4182704494478633E-01 a      1383     1    15     2     3
  3.0754242481951533E-01 a      1384     1    15     2     4
  7.7043327553254959E-01 a      1385     1    15     2     5
 -6.7740062833887493E-01 a      1386     1    15     2     6
 -5.1390672406212645E-01 a      1387     1    15     2     7
 -2.5731637154735471E-01 a      1388     1    15     2     8
 -7.3371556387290582E-01 a      1389     1    15     2     9
  3.3564109705032519E-01 a      1390     1    15     2    10
  6.1693679593776907E-01 a      1391     1    15     2    11
 -4.2312614887451312E-02 a      1392     1    15     2    12
 -4.9795638262479985E-01 a      1393     1    15     2    13
 -4.0453405622327471E-01 a      1394     1    15     2    14
 -2.6725557762814667E-01 a      1395     1    15     2    15
  4.4686135096622676E-01 a      1396     1    15     2    16
  1.7104279093974936E-01 a      1397     1    15     2    17
 -3.4779811281613149E-01 a      1398     1    15     2    18
  4.0717345349751805E-01 a      1399     1    15     2    19
 -4.2741724811320894E-02 a      1400     1    15     2    20
  2.7839520470449519E-01 a      1401     1    16     2     1
  2.9545263423590484E-01 a      1402     1    16     2     2
  1.1791340717024652E+00 a      1403     1    16     2     3
 -2.8583097329685425E-01 a      1404     1    16     2     4
 -2.9435222867039812E-01 a      1405     1    16     2     5
 -1.0248157246247556E-01 a      1406     1    16     2     6
 -7.9491627508945242E-02 a      1407     1    16     2     7
  3.7850826258541070E-01 a      1408     1    16     2     8
  4.5207419947190269E-01 a      1409     1    16     2     9
  9.4085975795224130E-01 a      1410     1    16     2    10
  1.3912888329691778E-01 a      1411     1    16     2    11
 -4.8923167398057167E-02 a      1412     1    16     2    12
  1.3997526406206058E-02 a      1413     1    16     2    13
  2.2974771031592919E-01 a      1414     1    16     2    14
  2.0933667985308723E-02 a      1415     1    16     2    15
 -3.8107663869026431E-01 a      1416     1    16     2    16
  4.9561763867310415E-01 a      1417     1    16     2    17
  1.8212071046701633E-01 a      1418     1    16     2    18
 -3.2290207071408389E-01 a      1419     1    16     2    19
  1.5339919565603685E-01 a      1420     1    16     2    20
 -5.1288743617738075E-01 a      1421     1    17     2     1
  2.5446687125260764E-01 a      1422     1    17     2     2
 -3.5839237046906036E-01 a      1423     1    17     2     3
  7.8661868031786042E-02 a      1424     1    17     2     4
 -3.8230117744088410E-01 a      1425     1    17     2     5
  9.9716984860511268E-02 a      1426     1    17     2     6
  3.4304931117411230E-01 a      1427     1    17     2     7
 -2.2614792629251791E-02 a      1428     1    17     2     8
  8.4782689921035354E-02 a      1429     1    17     2     9
  5.1257145166260643E-01 a      1430     1    17     2    10
  3.3024599114091296E-01 a      1431     1    17     2    11
 -7.6586058553859540E-02 a      1432     1    17     2    12
 -3.0925655919877010E-01 a      1433     1    17     2    13
  5.9395030649605285E-01 a      1434     1    17     2    14
 -2.3274747356121206E-01 a      1435     1    17     2    15
  4.2657020744890684E-01 a      1436     1    17     2    16
 -3.5995676183612707E-01 a      1437     1    17     2    17
 -8.1040279607976362E-01 a      1438     1    17     2    18
  2.6223233597351359E-01 a      1439     1    17     2    19
  2.9018944749078979E-01 a      1440     1    17     2    20
 -2.3558145611550238E-01 a      1441     1    18     2     1
  7.1969984421143285E-01 a      1442     1    18     2     2
  8.7633916393650013E-01 a      1443     1    18     2     3
 -1.5016555188597336E-01 a      1444     1    18     2     4
 -4.2650073161793101E-01 a      1445     1    18     2     5
  9.6947631726934814E-03 a      1446     1    18     2     6
  5.4097086066366296E-01 a      1447     1    18     2     7
  1.9168301926048623E-01 a      1448     1    18     2     8
 -1.3123188086588353E-01 a      1449     1    18     2     9
  2.8728893182551568E-01 a      1450     1    18     2    10
  5.3662879005146136E-01 a      1451     1    18     2    11
 -4.1661897473214338E-01 a      1452     1    18     2    12
  7.2286947700467086E-01 a      1453     1    18     2    13
  8.0618915685862802E-01 a      1454     1    18     2    14
  6.2461561814666111E-01 a      1455     1    18     2    15
 -2.9703802397492512E-01 a      1456     1    18     2    16
  5.4638703385920928E-01 a      1457     1    18     2    17
 -2.4780411751263917E-01 a      1458     1    18     2    18
  4.1592685197214341E-01 a      1459     1    18     2    19
  1.3958176026640318E-01 a      1460     1    18     2    20
  3.3074796973120928E-02 a      1461     1    19     2     1
 -4.3646290114480613E-01 a      1462     1    19     2     2
 -6.1894347188657894E-01 a      1463     1    19     2     3
  9.2664063287576544E-03 a      1464     1    19     2     4
  1.5774943207552250E-01 a      1465     1    19     2     5
  2.4716075322206491E-01 a      1466     1    19     2     6
  8.5834960310012065E-01 a      1467     1    19     2     7
 -4.7977604337825258E-01 a      1468     1    19     2     8
 -2.3823339946703351E-01 a      1469     1    19     2     9
  1.1428259695588730E-01 a      1470     1    19     2    10
 -4.4471584184012969E-01 a      1471     1    19     2    11
  1.1589791369818205E+00 a      1472     1    19     2    12
  5.0475805893868941E-01 a      1473     1    19     2    13
  7.2879902699270349E-01 a      1474     1    19     2    14
  6.4215464591236537E-01 a      1475     1    19     2    15
 -3.7946995130538030E-01 a      1476     1    19     2    16
 -7.9178462918057135E-01 a      1477     1    19     2    17
  5.1635014241801835E-01 a      1478     1    19     2    18
 -9.6567929831474358E-02 a      1479     1    19     2    19
  3.7627598311667754E-01 a      1480     1    19     2    20
 -4.8208363099911132E-02 a      1481     1    20     2     1
  3.0576983971767446E-01 a      1482     1    20     2     2
 -4.5855854549704028E-01 a      1483     1    20     2     3
  4.1045776823519292E-01 a      1484     1    20     2     4
 -3.7390716910605554E-01 a      1485     1    20     2     5
 -5.2091803608913934E-01 a      1486     1    20     2     6
  2.9290657755746763E-01 a      1487     1    20     2     7
  5.3211245863559642E-01 a      1488     1    20     2     8
 -5.0137228440183990E-01 a      1489     1    20     2     9
 -1.3250065816037158E+00 a      1490     1    20     2    10
  6.4436013805919592E-03 a      1491     1    20     2    11
 -7.5893105793406357E-01 a      1492     1    20     2    12
  6.0951613220462952E-01 a      1493     1    20     2    13
 -6.5860438166078628E-01 a      1494     1    20     2    14
  7.5854033955822783E-02 a      1495     1    20     2    15
 -3.6192090327587238E-02 a      1496     1    20     2    16
 -2.3505894175590278E-01 a      1497     1    20     2    17
  3.2484311932527349E-01 a      1498     1    20     2    18
 -2.7666751674450729E-01 a      1499     1    20     2    19
  5.5187734112827436E-01 a      1500     1    20     2    20
  1.0418755724067790E+00 b      1501     2     1
  4.4118000723368850E-01 b      1502     2     2
 -9.7256661083671359E-01 b      1503     2     3
 -2.3154830039596211E-01 b      1504     2     4
  1.0149674188963058E+00 b      1505     2     5
  7.8439104194723874E-01 b      1506     2     6
  1.1056369549850493E+00 b      1507     2     7
 -1.2734602092141278E+00 b      1508     2     8
 -1.1709097061572129E+00 b      1509     2     9
 -6.3215827398426139E-01 b      1510     2    10
  5.3226010218141584E-01 b      1511     2    11
 -1.0589486655774940E+00 b      1512     2    12
 -7.9312917935413740E-01 b      1513     2    13
 -1.0092306528084862E+00 b      1514     2    14
 -4.2892958719558544E-01 b      1515     2    15
  1.5299987907432608E+00 b      1516     2    16
 -8.6156303340412421E-01 b      1517     2    17
 -1.5015806927926056E+00 b      1518     2    18
  7.2050593632350168E-01 b      1519     2    19
 -8.1309344879151424E-01 b      1520     2    20
 -3.6660559673523455E-02 a      1521     2     1     3     1
  8.0066463528162893E-02 a      1522     2     2     3     1
 -1.9907244898586751E-01 a      1523     2     3     3     1
 -4.8493908972571553E-02 a      1524     2     4     3     1
  1.1459778057345255E-01 a      1525     2     5     3     1
  2.8627105563184146E-01 a      1526     2     6     3     1
 -7.9533163136765436E-02 a      1527     2     7     3     1
  5.6233722796200836E-01 a      1528     2     8     3     1
 -1.0566009921700469E-01 a      1529     2     9     3     1
  5.8309076327538956E-01 a      1530     2    10     3     1
  7.0913121128770934E-02 a      1531     2    11     3     1
  7.7499393300910724E-01 a      1532     2    12     3     1
 -1.1522871841353546E-01 a      1533     2    13     3     1
  5.3961821563085222E-01 a      1534     2    14     3     1
  9.2314245162446171E-02 a      1535     2    15     3     1
  8.6818943774678130E-03 a      1536     2    16     3     1
  1.5673703368092826E+00 a      1537     2    17     3     1
  1.3575250826309295E+00 a      1538     2    18     3     1
  1.3204835353595570E+00 a      1539     2    19     3     1
 -6.0699677564508121E-02 a      1540     2    20     3     1
 -1.3416824671172616E+00 b      1541     3     1
